{
    "version": "0.5.0",
    "architecture": "WaveNet",
    "config": {
        "layers": [
            {
                "input_size": 1,
                "condition_size": 1,
                "head_size": 8,
                "channels": 16,
                "kernel_size": 3,
                "dilations": [
                    1,
                    2,
                    4,
                    8,
                    16,
                    32,
                    64,
                    128,
                    256,
                    512
                ],
                "activation": "Tanh",
                "gated": false,
                "head_bias": false
            },
            {
                "input_size": 16,
                "condition_size": 1,
                "head_size": 1,
                "channels": 8,
                "kernel_size": 3,
                "dilations": [
                    1,
                    2,
                    4,
                    8,
                    16,
                    32,
                    64,
                    128,
                    256,
                    512
                ],
                "activation": "Tanh",
                "gated": false,
                "head_bias": true
            }
        ],
        "head": null,
        "head_scale": 1.0
    },
    "weights": [
        0.03946210816502571,
        0.1582474261522293,
        -0.9502329230308533,
        -0.6766466498374939,
        -0.45346131920814514,
        0.8888128399848938,
        0.02977837063372135,
        0.9132472276687622,
        -0.73659348487854,
        0.998579204082489,
        -0.31867408752441406,
        -0.3472631871700287,
        -1.047365665435791,
        -0.48752644658088684,
        -0.31355157494544983,
        -0.3821761906147003,
        -0.02012333832681179,
        0.04122152179479599,
        0.01622413471341133,
        0.03501366078853607,
        -0.004965873900800943,
        0.07285798341035843,
        -0.151503786444664,
        0.19326093792915344,
        0.03779451549053192,
        -0.10400307178497314,
        0.2078307867050171,
        -0.07975829392671585,
        -0.2135229855775833,
        0.04898819699883461,
        0.010932199656963348,
        0.2703474760055542,
        -0.19758011400699615,
        -0.16428492963314056,
        -0.16305337846279144,
        -0.1659804731607437,
        0.03204507380723953,
        0.24425415694713593,
        -0.023314813151955605,
        0.005028812680393457,
        -0.16512499749660492,
        0.0384787954390049,
        0.1778259128332138,
        0.018195681273937225,
        -0.2144506573677063,
        -0.19715340435504913,
        -0.041139859706163406,
        0.1698346734046936,
        0.0052472492679953575,
        -0.14014635980129242,
        0.17369244992733002,
        0.204872727394104,
        -0.061730045825242996,
        0.09982016682624817,
        0.1521490067243576,
        -0.20188549160957336,
        0.10460636019706726,
        -0.04898470640182495,
        -0.21682976186275482,
        0.012218126095831394,
        0.1392417699098587,
        -0.13112640380859375,
        -0.0100985337048769,
        0.15766718983650208,
        0.27566975355148315,
        0.06721517443656921,
        -0.6188746690750122,
        -0.01271031890064478,
        -0.07644189894199371,
        0.31229397654533386,
        -0.06464807689189911,
        0.15071894228458405,
        -0.1700754165649414,
        0.1703721433877945,
        0.3236200213432312,
        -0.08661068230867386,
        0.08975225687026978,
        0.0839458480477333,
        -0.23799198865890503,
        -0.15477855503559113,
        -0.35959380865097046,
        0.5144400000572205,
        0.3082342743873596,
        -0.0559462234377861,
        -0.5628309845924377,
        -0.0693122074007988,
        -0.2242637425661087,
        0.163809135556221,
        0.2210465967655182,
        0.22595760226249695,
        -0.5978909730911255,
        -0.02458341419696808,
        -0.14764092862606049,
        0.5322912931442261,
        -0.09703684598207474,
        0.10634618997573853,
        -0.2063753753900528,
        0.08774483948945999,
        0.09283087402582169,
        -0.3676164746284485,
        0.1836046576499939,
        0.2947477400302887,
        -0.2778221070766449,
        0.02157985046505928,
        0.06120534986257553,
        -0.23271389305591583,
        -0.048615362495183945,
        0.09440679848194122,
        -0.25952666997909546,
        0.2220834642648697,
        0.31124764680862427,
        -0.7603978514671326,
        -0.6255380511283875,
        -1.0758358240127563,
        -0.6733243465423584,
        0.07546032220125198,
        0.25164735317230225,
        0.07152095437049866,
        -0.062456659972667694,
        -0.08491180837154388,
        0.16799543797969818,
        -0.10363384336233139,
        -0.23419316112995148,
        0.13677652180194855,
        -0.25119900703430176,
        -0.26355892419815063,
        0.04281594604253769,
        -0.07877217233181,
        0.0006456876290030777,
        -0.3805736005306244,
        -0.4137876629829407,
        -0.9693508148193359,
        -0.7028676271438599,
        0.06683073937892914,
        0.21364560723304749,
        -0.13512404263019562,
        -0.20127375423908234,
        -0.4903077781200409,
        0.11326003074645996,
        0.125123992562294,
        0.28594160079956055,
        -0.14813309907913208,
        0.11819975823163986,
        -0.06490141898393631,
        0.05837496370077133,
        -0.09328055381774902,
        0.023272134363651276,
        0.18647000193595886,
        -0.17418795824050903,
        -0.26129281520843506,
        -0.054548416286706924,
        -0.26193538308143616,
        -0.24346834421157837,
        0.11330241709947586,
        -0.04867085441946983,
        -0.3325575888156891,
        0.15065550804138184,
        -0.7355626225471497,
        -1.144139051437378,
        -0.3803669214248657,
        0.09443634003400803,
        0.08816809952259064,
        -0.016065724194049835,
        -0.15935377776622772,
        -0.005657166242599487,
        -0.01530507393181324,
        -0.06054655462503433,
        0.009686299599707127,
        -0.1134820431470871,
        0.0019889562390744686,
        0.08570189774036407,
        -0.04353209212422371,
        0.1438927948474884,
        0.009482735767960548,
        -0.11306552588939667,
        0.06706415116786957,
        0.010234188288450241,
        -0.11358895897865295,
        0.21912246942520142,
        -0.010674470104277134,
        0.1252393126487732,
        -0.04128850996494293,
        0.14200228452682495,
        0.019394272938370705,
        0.12831375002861023,
        0.028871526941657066,
        0.00800336804240942,
        -0.06614851206541061,
        -0.09531302750110626,
        0.029048308730125427,
        0.12385115027427673,
        0.06559733301401138,
        -0.06777960062026978,
        0.015950484201312065,
        -0.13977602124214172,
        -0.048237599432468414,
        -0.07319213449954987,
        0.007702790666371584,
        -0.06886604428291321,
        0.02223418466746807,
        -0.025356346741318703,
        0.11322479695081711,
        -0.0837077870965004,
        -0.12997475266456604,
        -0.06160467490553856,
        0.15512683987617493,
        -0.08509760349988937,
        0.16363245248794556,
        0.32419705390930176,
        0.6134246587753296,
        -0.3550671637058258,
        -0.24948212504386902,
        -0.013568219728767872,
        -0.023400502279400826,
        0.2036600410938263,
        -0.07460486143827438,
        -0.20536278188228607,
        0.13676118850708008,
        0.05595647916197777,
        -0.18665428459644318,
        0.20158973336219788,
        0.07281340658664703,
        -0.05805536359548569,
        -0.17558631300926208,
        0.03688459098339081,
        0.34645530581474304,
        0.058172985911369324,
        0.4021306037902832,
        -0.47449788451194763,
        -0.22446824610233307,
        0.09785162657499313,
        0.21900300681591034,
        0.4240274727344513,
        0.2768481969833374,
        -0.23287470638751984,
        -0.3184536099433899,
        0.16650867462158203,
        0.23149974644184113,
        0.11259744316339493,
        -0.09714304655790329,
        -0.12026418000459671,
        0.26993194222450256,
        -0.18451650440692902,
        -0.17544108629226685,
        0.2845992147922516,
        -0.20593394339084625,
        0.03633492812514305,
        0.10657382756471634,
        -0.03140949457883835,
        -0.10378933697938919,
        0.1455695778131485,
        -0.039360299706459045,
        0.00753781059756875,
        0.48915043473243713,
        0.3628877103328705,
        -0.2827347218990326,
        -0.2754826247692108,
        -0.11714878678321838,
        0.23882730305194855,
        -0.1510590761899948,
        0.023156022652983665,
        0.03178022429347038,
        0.17056472599506378,
        -0.022182032465934753,
        0.11426083743572235,
        0.03318879008293152,
        -0.1683441698551178,
        0.10581392794847488,
        0.20058149099349976,
        -0.10289710015058517,
        0.0057197753340005875,
        -0.1812296062707901,
        0.0342242531478405,
        -0.08032996952533722,
        -0.17750759422779083,
        -0.2883702218532562,
        0.4101382791996002,
        -0.18760699033737183,
        0.11653158068656921,
        -0.020419886335730553,
        0.011243607848882675,
        -0.41613373160362244,
        0.09804772585630417,
        0.02471189573407173,
        0.23584029078483582,
        -0.024651294574141502,
        0.0627174898982048,
        -0.09148626029491425,
        0.04429095610976219,
        0.09403930604457855,
        -0.22343657910823822,
        0.13698382675647736,
        0.12987884879112244,
        -0.13157989084720612,
        0.029800178483128548,
        -0.015375562012195587,
        -0.03365921601653099,
        -0.03935728222131729,
        0.13774439692497253,
        -0.18966670334339142,
        0.004957662429660559,
        -0.12971735000610352,
        -0.5657723546028137,
        0.3121374845504761,
        -0.13997797667980194,
        -0.2538798451423645,
        0.3373097777366638,
        0.08136036247015,
        0.05796416848897934,
        -0.09883329272270203,
        -0.1424698382616043,
        -0.02551393397152424,
        0.15100735425949097,
        -0.08072087168693542,
        0.0491478331387043,
        0.19240574538707733,
        -0.11460474133491516,
        -0.010441158898174763,
        0.17690527439117432,
        0.05885004252195358,
        0.024700380861759186,
        -0.16818363964557648,
        -0.2655738890171051,
        -0.12782147526741028,
        0.4000219404697418,
        0.15103279054164886,
        0.08435051143169403,
        -0.08618231862783432,
        -0.13102833926677704,
        -0.21528665721416473,
        0.09633307158946991,
        -0.03066517412662506,
        0.1950494647026062,
        -0.12192786484956741,
        -0.12095244973897934,
        0.057826608419418335,
        0.2406708300113678,
        0.11207875609397888,
        0.12208116054534912,
        0.2467363178730011,
        -0.05798943340778351,
        -0.05414476618170738,
        0.214057058095932,
        0.045077305287122726,
        -0.09765540063381195,
        0.23744358122348785,
        0.030347928404808044,
        0.06644582748413086,
        0.03084488771855831,
        -0.311292439699173,
        -0.3280225694179535,
        0.2886078655719757,
        -0.16765595972537994,
        -0.19755390286445618,
        0.12427099794149399,
        0.10362564027309418,
        0.04503125697374344,
        0.045924048870801926,
        -0.13145576417446136,
        -0.0721852108836174,
        -0.07310651242733002,
        -0.1777220070362091,
        -0.21958784759044647,
        0.13726356625556946,
        0.025518670678138733,
        0.012606978416442871,
        0.1409582644701004,
        -0.06522547453641891,
        0.05744335800409317,
        -0.057223886251449585,
        -0.22806847095489502,
        -0.1498870849609375,
        -0.026320762932300568,
        -0.03775003179907799,
        -0.03252527862787247,
        -0.10527502000331879,
        -0.052584677934646606,
        -0.16468627750873566,
        0.13805100321769714,
        0.21653208136558533,
        0.33314377069473267,
        -0.07014426589012146,
        0.03560458868741989,
        0.019063353538513184,
        0.08126705884933472,
        0.1074334979057312,
        -0.04108744114637375,
        0.11814258247613907,
        -0.08313515037298203,
        -0.034212179481983185,
        0.0375308096408844,
        -0.08833920210599899,
        -0.1992119401693344,
        -0.05644940212368965,
        -0.17143572866916656,
        -0.031196599826216698,
        0.1287442147731781,
        -0.23317301273345947,
        -0.44255533814430237,
        0.14894649386405945,
        -0.21361736953258514,
        -0.9640677571296692,
        -0.12840108573436737,
        0.3724724054336548,
        0.18462541699409485,
        -0.05406183376908302,
        -0.013316894881427288,
        0.16471268236637115,
        0.03371467813849449,
        -0.09237430989742279,
        -0.06934264302253723,
        0.03029944747686386,
        -0.04803639277815819,
        0.020786618813872337,
        -0.024862296879291534,
        0.022969771176576614,
        -0.18985922634601593,
        -0.283866286277771,
        -0.15244893729686737,
        -0.6409745216369629,
        0.06531520932912827,
        0.06067606434226036,
        -0.04871906340122223,
        -0.02140781655907631,
        -0.203262597322464,
        -0.36960846185684204,
        0.21000611782073975,
        -0.001422662753611803,
        -0.13955044746398926,
        -0.23664291203022003,
        -0.19996489584445953,
        0.16612491011619568,
        0.28014934062957764,
        -0.08101419359445572,
        0.01675226353108883,
        0.11232168227434158,
        -0.13721415400505066,
        -0.08756173402070999,
        0.12880733609199524,
        -0.3281008005142212,
        -0.17035697400569916,
        -0.10293083637952805,
        -0.21133415400981903,
        0.09502413123846054,
        -0.06540963053703308,
        -0.41990312933921814,
        -0.8372886776924133,
        -0.003162578446790576,
        -0.1256144791841507,
        -0.23368775844573975,
        0.01471477746963501,
        0.058333881199359894,
        0.17290209233760834,
        0.10367423295974731,
        -0.07206027954816818,
        0.08153058588504791,
        -0.033078961074352264,
        0.09059493243694305,
        -0.15024890005588531,
        -0.0754813626408577,
        -0.1254683881998062,
        -0.09905365109443665,
        -0.012077250517904758,
        -0.12023928761482239,
        0.11314389109611511,
        0.15345372259616852,
        -0.1083303689956665,
        -0.20016919076442719,
        -0.23396171629428864,
        -0.0656023845076561,
        0.1046370342373848,
        0.18556545674800873,
        0.02982630766928196,
        -0.1356360912322998,
        -0.06096407026052475,
        -0.13007870316505432,
        -0.03716281056404114,
        0.1626463532447815,
        -0.060427870601415634,
        0.023648763075470924,
        -0.15550720691680908,
        -0.05431829020380974,
        -0.1625967174768448,
        0.029535500332713127,
        0.007074898108839989,
        0.07521135360002518,
        0.05438004806637764,
        0.09691372513771057,
        -0.0341382659971714,
        -0.0837157666683197,
        -0.019256535917520523,
        -0.026888880878686905,
        0.024785665795207024,
        -0.2019093781709671,
        -0.008657536469399929,
        -0.08345824480056763,
        -0.020638616755604744,
        0.09193050116300583,
        0.06511981785297394,
        0.06582235544919968,
        -0.13625547289848328,
        0.11746154725551605,
        0.13651825487613678,
        0.05647578462958336,
        0.08858901262283325,
        -0.009194919839501381,
        0.025651345029473305,
        0.03143161162734032,
        0.029140064492821693,
        0.02932065911591053,
        -0.07756273448467255,
        0.0024179082829505205,
        -0.02307773195207119,
        0.0008794002933427691,
        0.11207586526870728,
        0.18964900076389313,
        -0.15039192140102386,
        -0.05415458604693413,
        0.10954411327838898,
        0.018736233934760094,
        0.1846056580543518,
        0.019841037690639496,
        0.007166710216552019,
        -0.21172338724136353,
        -0.09233073145151138,
        -0.018237870186567307,
        0.19956262409687042,
        -0.06529248505830765,
        -0.04217667132616043,
        0.003468921408057213,
        0.12129369378089905,
        0.09950722754001617,
        -0.04219391942024231,
        -0.1398567259311676,
        -0.13634328544139862,
        0.07418279349803925,
        -0.04547395557165146,
        -0.12300793081521988,
        0.024656424298882484,
        0.014493687078356743,
        -0.1128077358007431,
        0.17757219076156616,
        0.07073304057121277,
        -0.08295361697673798,
        0.39619994163513184,
        0.5004264116287231,
        -0.33245134353637695,
        -0.03298811987042427,
        -0.089853934943676,
        0.19686509668827057,
        -0.10124863684177399,
        -0.10588394105434418,
        0.08913913369178772,
        -0.05058566480875015,
        0.06345288455486298,
        -0.06499740481376648,
        0.02243063598871231,
        0.012997389771044254,
        0.02126144804060459,
        -0.07961679995059967,
        -0.2182014286518097,
        0.018776671960949898,
        0.27360618114471436,
        0.4043704569339752,
        -0.34586140513420105,
        0.09965477138757706,
        -0.06421772390604019,
        0.03106568194925785,
        0.33385348320007324,
        0.27296191453933716,
        -0.07197163254022598,
        -0.0494757816195488,
        -0.1636762022972107,
        0.04432296007871628,
        0.03631618618965149,
        0.16493649780750275,
        -0.1157785952091217,
        -0.07246460765600204,
        0.11549736559391022,
        0.07689940184354782,
        -0.0034388911444693804,
        -0.08603737503290176,
        -0.18133261799812317,
        0.08631844073534012,
        0.03186948969960213,
        -0.14282004535198212,
        0.08395952731370926,
        0.10048669576644897,
        0.03652637079358101,
        0.4192998707294464,
        0.2806045413017273,
        -0.33750396966934204,
        -0.37644851207733154,
        -0.09201186895370483,
        -0.13539621233940125,
        0.1223040521144867,
        -0.1275966763496399,
        0.09689062833786011,
        0.06081206351518631,
        0.13315318524837494,
        -0.07284025847911835,
        -0.12996436655521393,
        -0.0986797958612442,
        0.18187908828258514,
        -0.1532866358757019,
        -0.07523638010025024,
        0.11638286709785461,
        0.05699071288108826,
        -0.04865055903792381,
        -0.05732625350356102,
        -0.26549261808395386,
        -0.35018301010131836,
        -0.08989722281694412,
        0.008931372314691544,
        0.0446370504796505,
        0.0728970393538475,
        -0.1402558535337448,
        -0.06552751362323761,
        0.12017854303121567,
        0.17786799371242523,
        -0.019065450876951218,
        0.1088661476969719,
        -0.05478143319487572,
        -0.14676475524902344,
        0.004214503336697817,
        -0.19990213215351105,
        0.11210980266332626,
        0.017902282997965813,
        -0.20472609996795654,
        -0.005491382908076048,
        0.13889475166797638,
        -0.04356279969215393,
        0.040955204516649246,
        0.05475279316306114,
        -0.036982212215662,
        -0.04603561758995056,
        -0.019033079966902733,
        -0.41135120391845703,
        -0.23069626092910767,
        0.04213342443108559,
        0.018312573432922363,
        0.1379246860742569,
        0.08992896974086761,
        -0.028790630400180817,
        -0.134109765291214,
        0.2070191204547882,
        -0.0653187558054924,
        0.14960472285747528,
        -0.20577391982078552,
        -0.010212584398686886,
        0.11253752559423447,
        -0.14388155937194824,
        0.14617975056171417,
        -0.06273994594812393,
        -0.20868460834026337,
        -0.09398653358221054,
        -0.03126329556107521,
        0.2167661339044571,
        0.0010350053198635578,
        0.1458980143070221,
        -0.0012240366777405143,
        -0.05582462251186371,
        0.06942974030971527,
        -0.024969788268208504,
        0.11259159445762634,
        0.24822203814983368,
        -0.08531124144792557,
        0.0632096379995346,
        -0.11803243309259415,
        0.19383357465267181,
        -0.12393590062856674,
        0.015181279741227627,
        -0.11244217306375504,
        0.05699189007282257,
        0.08801600337028503,
        0.020433513447642326,
        0.0019963427912443876,
        0.028746027499437332,
        0.014620608650147915,
        -0.002017565071582794,
        0.1711547076702118,
        -0.17317138612270355,
        0.01976745016872883,
        0.03634396195411682,
        -0.017885945737361908,
        0.23448632657527924,
        0.1486334204673767,
        -0.11123637109994888,
        0.30451759696006775,
        0.1210554912686348,
        0.3478536009788513,
        0.0632438063621521,
        0.01973673701286316,
        -0.00665601110085845,
        -0.21680158376693726,
        -0.07287783920764923,
        0.27927082777023315,
        -0.3178942799568176,
        0.0987146720290184,
        0.18755769729614258,
        -0.2850855588912964,
        0.1186034306883812,
        0.05506405606865883,
        0.28632301092147827,
        -0.1704862415790558,
        -0.28473374247550964,
        0.24351359903812408,
        0.20010192692279816,
        0.22756238281726837,
        0.32171598076820374,
        -0.08076471090316772,
        -0.25066107511520386,
        -0.3304675221443176,
        0.004278970416635275,
        0.5303327441215515,
        0.19935695827007294,
        -0.09249985218048096,
        -0.2794030010700226,
        -0.14498215913772583,
        0.18431349098682404,
        0.32781168818473816,
        -0.3368360698223114,
        0.04531484097242355,
        0.1149522215127945,
        -0.2980225086212158,
        0.10029833763837814,
        0.3030865788459778,
        -0.3156876564025879,
        0.15804250538349152,
        0.10069682449102402,
        -0.2343534529209137,
        0.18416333198547363,
        0.15381501615047455,
        -0.16943247616291046,
        0.006165480241179466,
        0.44178834557533264,
        -0.40818896889686584,
        -0.21705685555934906,
        0.48030999302864075,
        0.020884085446596146,
        -0.15174245834350586,
        -0.032691653817892075,
        -0.02228609472513199,
        0.0182566586881876,
        0.12432243674993515,
        -0.012465677224099636,
        0.14977648854255676,
        -0.02292286977171898,
        -0.17729312181472778,
        0.00617397204041481,
        -0.04041140526533127,
        0.20790958404541016,
        0.04971149563789368,
        -0.0203718151897192,
        -0.3726896643638611,
        -0.09128714352846146,
        0.33573105931282043,
        0.24758698046207428,
        -0.11888230592012405,
        -0.15962234139442444,
        -0.37488988041877747,
        0.07134506851434708,
        0.11076268553733826,
        0.40805235505104065,
        0.018267637118697166,
        -0.28790518641471863,
        -0.1866523027420044,
        0.18216197192668915,
        -0.029253648594021797,
        -0.202284574508667,
        0.10410407185554504,
        -0.04259062185883522,
        -0.055807288736104965,
        0.12960205972194672,
        0.1374163031578064,
        -0.24774551391601562,
        0.1890087127685547,
        -0.016991041600704193,
        -0.021778279915452003,
        -0.08984850347042084,
        -0.04397936165332794,
        -0.39161017537117004,
        -0.04217620566487312,
        0.2803701162338257,
        -0.03197876363992691,
        -0.08662871271371841,
        -0.007351160515099764,
        -0.12629534304141998,
        0.014470885507762432,
        0.03628850728273392,
        -0.03752177953720093,
        0.0014744650106877089,
        0.06609610468149185,
        0.06806504726409912,
        -0.06439770758152008,
        0.001907862606458366,
        -0.10489629209041595,
        -0.005750818178057671,
        -0.04773131385445595,
        -0.026339445263147354,
        0.39499691128730774,
        -0.2490542083978653,
        0.7372280955314636,
        -0.7077335119247437,
        0.034081850200891495,
        0.850966215133667,
        0.9207159876823425,
        -0.5938623547554016,
        0.15042372047901154,
        0.1463308483362198,
        -0.4482336938381195,
        -0.3050345182418823,
        0.2161320596933365,
        -0.6095007658004761,
        0.013420856557786465,
        0.40355390310287476,
        -0.20750930905342102,
        0.07752440869808197,
        0.08652175962924957,
        0.13944540917873383,
        0.4208317697048187,
        -0.07597722858190536,
        -0.08586332947015762,
        -0.009557708166539669,
        -0.008429703302681446,
        -0.06098605692386627,
        0.05576354265213013,
        -0.05350271612405777,
        0.007458460051566362,
        -0.027122847735881805,
        0.17421261966228485,
        -0.23159557580947876,
        -0.005822781007736921,
        0.009311751462519169,
        -0.4548807740211487,
        0.1471145749092102,
        0.33137574791908264,
        -0.4941750466823578,
        -0.3437865376472473,
        -0.06045223027467728,
        -0.10517262667417526,
        -0.053326934576034546,
        0.25055599212646484,
        0.2670743465423584,
        -0.1313694715499878,
        0.040883999317884445,
        0.8239376544952393,
        -0.10509289801120758,
        0.058407291769981384,
        0.19987432658672333,
        0.21357551217079163,
        0.22776064276695251,
        0.18420997262001038,
        -0.22598856687545776,
        -0.04755876213312149,
        -0.25597915053367615,
        -0.05650287866592407,
        -0.17905105650424957,
        0.2684021294116974,
        -0.13303448259830475,
        0.22239039838314056,
        0.2733927071094513,
        0.15425589680671692,
        -0.09920419007539749,
        0.14032959938049316,
        -0.148678258061409,
        0.04303116723895073,
        -0.16534696519374847,
        -0.03365904465317726,
        0.09748539328575134,
        -0.06657315045595169,
        -0.023830469697713852,
        -0.2067643702030182,
        0.0771251916885376,
        -0.03146354481577873,
        -0.01293898280709982,
        0.11150329560041428,
        0.19686925411224365,
        -0.16811054944992065,
        -0.13463523983955383,
        -0.20060884952545166,
        -0.45647215843200684,
        -0.19270001351833344,
        0.14334005117416382,
        0.2000550627708435,
        0.152380108833313,
        0.09508513659238815,
        -0.11802434176206589,
        0.12227649241685867,
        0.22243191301822662,
        -0.18007220327854156,
        0.17730677127838135,
        -0.07046408206224442,
        0.0894283801317215,
        -0.011299960315227509,
        0.08144989609718323,
        -0.182496577501297,
        -0.203688383102417,
        0.05363830178976059,
        0.004685075953602791,
        -0.21232613921165466,
        0.6043363809585571,
        0.6910054683685303,
        0.3520209789276123,
        0.20804037153720856,
        0.08033878356218338,
        -0.39568695425987244,
        -0.3486305773258209,
        0.10842031240463257,
        -0.26373934745788574,
        -0.0938795804977417,
        0.42893150448799133,
        0.06338773667812347,
        0.01813414879143238,
        0.45434582233428955,
        0.1477922797203064,
        -0.3856779634952545,
        -0.1977551430463791,
        0.18592649698257446,
        0.017719529569149017,
        0.09816454350948334,
        -0.3069136440753937,
        -0.1520618498325348,
        0.19422246515750885,
        0.19644495844841003,
        -0.177387535572052,
        0.17021577060222626,
        -0.07530452311038971,
        0.2894870340824127,
        0.04478682205080986,
        0.09292106330394745,
        -0.2041364461183548,
        -0.349905788898468,
        0.20501016080379486,
        0.5318446159362793,
        0.18196985125541687,
        0.09664370119571686,
        -0.2732952833175659,
        0.13309478759765625,
        -0.2682493329048157,
        0.1008843258023262,
        -0.15752263367176056,
        -0.06073145568370819,
        0.3932681977748871,
        -0.12955336272716522,
        0.3381471633911133,
        -0.6211287379264832,
        -0.02890118584036827,
        0.9609025716781616,
        -0.7513233423233032,
        -0.828262209892273,
        -0.530549168586731,
        -0.4546009302139282,
        -0.4136278033256531,
        0.5883869528770447,
        0.5408985614776611,
        -0.17385618388652802,
        0.21048679947853088,
        0.7192703485488892,
        -0.7501075267791748,
        -0.014147127978503704,
        -0.26406824588775635,
        0.3837902247905731,
        -0.342067688703537,
        -1.0112344026565552,
        0.46126988530158997,
        1.0355337858200073,
        0.2078852504491806,
        0.17722614109516144,
        0.301052987575531,
        -0.22478079795837402,
        -0.2582850754261017,
        0.4293479025363922,
        -0.029544085264205933,
        -0.4042138457298279,
        0.700011670589447,
        0.23386958241462708,
        0.4484788775444031,
        -0.24740198254585266,
        0.08566729724407196,
        -0.1250545233488083,
        -0.402433305978775,
        -0.13447211682796478,
        -0.2766459286212921,
        0.012509891763329506,
        -0.12772290408611298,
        -0.18211911618709564,
        0.07051990181207657,
        -0.11436381936073303,
        0.2163137048482895,
        0.008672053925693035,
        0.18121594190597534,
        -0.04519280791282654,
        -0.24961844086647034,
        0.17411501705646515,
        0.013983718119561672,
        -0.0887240469455719,
        -0.029374077916145325,
        0.013555211946368217,
        0.044362787157297134,
        0.005712598562240601,
        -0.2036626785993576,
        0.02735077403485775,
        -0.21300773322582245,
        -0.11615859717130661,
        0.09888872504234314,
        -0.10834947973489761,
        -0.1966494619846344,
        0.1872667521238327,
        -0.17074353992938995,
        0.1721227914094925,
        0.08947478979825974,
        -0.33256226778030396,
        -0.2394527792930603,
        0.1435416340827942,
        0.25576087832450867,
        0.23239094018936157,
        -0.17806319892406464,
        -0.11793418973684311,
        0.06428241729736328,
        0.17404747009277344,
        -0.157746359705925,
        0.18380241096019745,
        0.4662344455718994,
        -0.05178595706820488,
        -0.1462920755147934,
        -0.17301970720291138,
        0.1102539524435997,
        0.015995295718312263,
        0.17888398468494415,
        0.12414435297250748,
        -0.07170915603637695,
        -0.10574210435152054,
        -0.022918816655874252,
        0.023571904748678207,
        0.0671660527586937,
        -0.12063801288604736,
        0.006233126390725374,
        -0.23639316856861115,
        0.11155152320861816,
        -0.19514305889606476,
        0.3875761926174164,
        -0.17052911221981049,
        -0.14453668892383575,
        0.5375853180885315,
        0.05497139319777489,
        0.038692913949489594,
        -0.03849640116095543,
        -0.25720468163490295,
        0.17550736665725708,
        -0.017657021060585976,
        -0.03884027153253555,
        0.15167684853076935,
        0.18790169060230255,
        -0.3710632026195526,
        -0.22950027883052826,
        0.20536895096302032,
        0.14721356332302094,
        0.17183645069599152,
        -0.055814992636442184,
        -0.19108165800571442,
        -0.08411575853824615,
        -0.15421152114868164,
        0.13628678023815155,
        -0.0253455750644207,
        -0.2727167308330536,
        0.09591645747423172,
        -0.07610026001930237,
        -0.03237277641892433,
        0.25740495324134827,
        0.2611796259880066,
        -0.09593328833580017,
        0.12932391464710236,
        -0.11799462139606476,
        0.16655638813972473,
        -0.19067741930484772,
        -0.09290038794279099,
        -0.06622063368558884,
        0.14349527657032013,
        -0.046481918543577194,
        0.07899773865938187,
        -0.15501031279563904,
        0.11881677061319351,
        -0.018176261335611343,
        0.040553294122219086,
        0.12288201600313187,
        0.10168483853340149,
        -0.009505544789135456,
        -0.022091763094067574,
        -0.10468602180480957,
        -0.02509612776339054,
        0.007289233151823282,
        -0.10385512560606003,
        0.048832111060619354,
        -0.036855895072221756,
        0.044885214418172836,
        0.08302110433578491,
        -0.15343379974365234,
        -0.01991952769458294,
        -0.045631732791662216,
        -0.035501591861248016,
        -0.06188145652413368,
        0.07163959741592407,
        0.045637719333171844,
        -0.3027167022228241,
        0.24998162686824799,
        -0.07497595995664597,
        -0.09058280289173126,
        0.07045231759548187,
        -0.014444193802773952,
        -0.1214185506105423,
        -0.12012754380702972,
        -0.033994898200035095,
        0.11694817990064621,
        -0.1498032808303833,
        -0.13834615051746368,
        -0.014029603451490402,
        -0.14146475493907928,
        -0.10519849509000778,
        0.06125174090266228,
        0.04192008078098297,
        -0.13540662825107574,
        -0.11342901736497879,
        -0.054310284554958344,
        -0.016917428001761436,
        0.12992696464061737,
        -0.010294228792190552,
        -0.06563179939985275,
        0.08772724866867065,
        -0.08887235820293427,
        -0.10700822621583939,
        0.06122204661369324,
        0.01151740737259388,
        0.03074713982641697,
        -0.07927045971155167,
        -0.05553040653467178,
        -0.05440263822674751,
        -0.015426456928253174,
        0.09311340004205704,
        -0.23305381834506989,
        0.07936911284923553,
        0.11185465008020401,
        -0.1290695071220398,
        0.006964848376810551,
        0.12427401542663574,
        -0.17159035801887512,
        0.011613842099905014,
        -0.13118292391300201,
        -0.032071199268102646,
        -0.19307756423950195,
        0.06409359723329544,
        -0.03178421035408974,
        -0.2855328619480133,
        -0.03442715108394623,
        0.19283735752105713,
        -0.01574367843568325,
        0.024337727576494217,
        0.2693078815937042,
        -0.03494390472769737,
        0.07877570390701294,
        -0.22225186228752136,
        0.06503970175981522,
        -0.016545839607715607,
        0.22542862594127655,
        0.02824769914150238,
        -0.11774364113807678,
        0.08642765879631042,
        0.33421042561531067,
        0.07519523799419403,
        -0.49071547389030457,
        -0.2739033102989197,
        0.028085285797715187,
        -0.044283270835876465,
        0.16500647366046906,
        0.1568760722875595,
        -0.03904655948281288,
        0.020597362890839577,
        0.003688282798975706,
        -0.01467614434659481,
        -0.21998220682144165,
        -0.1544201374053955,
        -0.12138939648866653,
        0.2617396414279938,
        -0.057695455849170685,
        -0.08531474322080612,
        -0.12627220153808594,
        -0.0007732633966952562,
        0.14377698302268982,
        0.15927277505397797,
        -0.04395156353712082,
        -0.04997820407152176,
        0.023049328476190567,
        0.05004381388425827,
        0.12139499932527542,
        0.0008819703361950815,
        -0.07491324841976166,
        0.11016184836626053,
        -0.009404664859175682,
        0.12758943438529968,
        0.11302287876605988,
        0.15817487239837646,
        0.09523361921310425,
        0.09176922589540482,
        -0.15437695384025574,
        -0.12355861812829971,
        -0.026759784668684006,
        -0.0632205381989479,
        0.09431522339582443,
        -0.04157647117972374,
        -0.11291555315256119,
        0.013399217277765274,
        -0.05226956307888031,
        0.08996247500181198,
        -0.14940528571605682,
        -0.14881661534309387,
        -0.1471717804670334,
        0.09040912985801697,
        0.033399973064661026,
        -0.09728692471981049,
        0.06241511180996895,
        0.03777297958731651,
        -0.0030884528532624245,
        -0.07288719713687897,
        -0.011577295139431953,
        -0.0277441143989563,
        0.0758151113986969,
        -0.07211297005414963,
        0.06924551725387573,
        0.09858695417642593,
        -0.13270048797130585,
        0.06856021285057068,
        0.1347232460975647,
        -0.04996166750788689,
        -0.1385989934206009,
        0.09033531695604324,
        -0.010575052350759506,
        0.043806515634059906,
        0.06518170237541199,
        0.03927549347281456,
        -0.2541148066520691,
        -0.2063632756471634,
        0.09726319462060928,
        0.07730836421251297,
        -0.10230743139982224,
        -0.0011944237630814314,
        -0.04292861372232437,
        -0.05045900493860245,
        -0.31151604652404785,
        0.4340626001358032,
        -0.018842831254005432,
        -0.006630766671150923,
        0.1271921843290329,
        -0.03546615317463875,
        -0.24358206987380981,
        0.12096980214118958,
        0.020545750856399536,
        0.20692341029644012,
        -0.27610084414482117,
        0.060109857469797134,
        0.06792759150266647,
        -0.05752551183104515,
        0.026030903682112694,
        0.13208138942718506,
        -0.3858160376548767,
        -0.025694089010357857,
        0.1534988433122635,
        0.2564369738101959,
        0.12826214730739594,
        -0.030241094529628754,
        0.12960687279701233,
        -0.2928098142147064,
        0.15358176827430725,
        -0.11120450496673584,
        -0.06472046673297882,
        -0.008719128556549549,
        -0.15997980535030365,
        0.29218196868896484,
        0.06376415491104126,
        0.03261877968907356,
        0.020506516098976135,
        -0.11492563039064407,
        -0.007698198314756155,
        0.06618855893611908,
        0.04242433235049248,
        0.039909880608320236,
        0.015877502039074898,
        -0.10346076637506485,
        0.02592173032462597,
        -0.042096130549907684,
        -0.1331724226474762,
        0.07140513509511948,
        0.08962860703468323,
        -0.025604452937841415,
        0.009204501286149025,
        -0.0524618998169899,
        0.06463123857975006,
        0.32762739062309265,
        -0.13603824377059937,
        0.07810849696397781,
        -0.16187797486782074,
        -0.06113557144999504,
        0.05247776210308075,
        0.14995300769805908,
        0.05375415459275246,
        0.004642792046070099,
        -0.06833752989768982,
        0.006570130120962858,
        -0.07247848063707352,
        -0.08375208079814911,
        -0.048265956342220306,
        0.10315743088722229,
        -0.15173867344856262,
        0.023783963173627853,
        -0.09511972218751907,
        0.07567252963781357,
        0.1777983158826828,
        -0.20005546510219574,
        -0.18652401864528656,
        0.04294152557849884,
        0.05090579763054848,
        0.02808847278356552,
        0.08474794775247574,
        -0.03934524580836296,
        -0.07948813587427139,
        -0.11155268549919128,
        0.05100991949439049,
        -0.12060786783695221,
        -0.044232357293367386,
        -0.08032204210758209,
        -0.1016610711812973,
        0.14857272803783417,
        -0.16761891543865204,
        0.18309852480888367,
        0.08634469658136368,
        -0.1535486876964569,
        -0.020139100030064583,
        0.0032937354408204556,
        -0.030620621517300606,
        0.09191761165857315,
        0.09523195028305054,
        -0.11564019322395325,
        0.04196494072675705,
        0.07071011513471603,
        0.22931621968746185,
        -0.35761067271232605,
        -0.6181158423423767,
        0.25018778443336487,
        -0.1574653685092926,
        -0.10448415577411652,
        0.23378244042396545,
        -0.22395062446594238,
        -0.22314541041851044,
        -0.11407315731048584,
        0.22062106430530548,
        0.3152933120727539,
        0.2794497013092041,
        -0.0913710817694664,
        -0.10493237525224686,
        -0.025982579216361046,
        0.5001240968704224,
        0.10200534760951996,
        -0.02805599942803383,
        -0.40306365489959717,
        0.1143559142947197,
        0.2369576245546341,
        0.208906352519989,
        -0.2812052369117737,
        -0.1252797693014145,
        -0.132012739777565,
        0.11249427497386932,
        -0.15968909859657288,
        0.06358311325311661,
        0.19906683266162872,
        -0.07779991626739502,
        -0.05230984464287758,
        -0.17355017364025116,
        0.039532821625471115,
        0.02660651132464409,
        0.017647501081228256,
        0.06465429812669754,
        0.19187387824058533,
        -0.01040774304419756,
        -0.0458698607981205,
        -0.09276150166988373,
        0.12331291288137436,
        0.11079540848731995,
        -0.010975243523716927,
        -0.04115847125649452,
        -0.10870417207479477,
        0.10232673585414886,
        0.011857757344841957,
        0.22223840653896332,
        0.06574724614620209,
        -0.07937581092119217,
        0.1185876727104187,
        -0.08075857162475586,
        0.029126279056072235,
        -0.021717876195907593,
        0.09555212408304214,
        -0.07174456864595413,
        0.0010898554464802146,
        -0.08582087606191635,
        -0.017289865761995316,
        0.06931795924901962,
        0.04175353795289993,
        -0.02716526947915554,
        0.11609848588705063,
        0.005181347019970417,
        0.1142112985253334,
        -0.16258490085601807,
        -0.05460745096206665,
        -0.055694665759801865,
        0.03103378601372242,
        0.14293979108333588,
        0.08581317216157913,
        -0.017864160239696503,
        0.08086857199668884,
        -0.12632663547992706,
        -0.0715828537940979,
        -0.051548879593610764,
        -0.002534302417188883,
        -0.11455696821212769,
        -0.04338293895125389,
        -0.0507005974650383,
        -0.14585110545158386,
        0.04343432933092117,
        0.09694935381412506,
        0.032869044691324234,
        -0.058867182582616806,
        -0.051828544586896896,
        -0.166399285197258,
        -0.08310270309448242,
        0.11736151576042175,
        -0.10439641028642654,
        -0.12665347754955292,
        -0.08944243937730789,
        -0.00030849745962768793,
        -0.10319872200489044,
        -0.08942040801048279,
        0.18833070993423462,
        0.0024758046492934227,
        0.0683780163526535,
        -0.0360768623650074,
        -0.1690216213464737,
        -0.04885168746113777,
        0.08684748411178589,
        -0.012417673133313656,
        0.014915992505848408,
        0.023301472887396812,
        -0.11063800007104874,
        0.1677580326795578,
        0.09568535536527634,
        0.07289496064186096,
        -0.13872452080249786,
        0.08282779157161713,
        -0.17683956027030945,
        0.07916101068258286,
        -0.10126254707574844,
        -0.2639288306236267,
        -0.09461906552314758,
        -0.0474134162068367,
        -0.07086729258298874,
        0.024619003757834435,
        -0.0667809247970581,
        0.03755461797118187,
        -0.011444639414548874,
        0.11691984534263611,
        0.13178637623786926,
        0.14054210484027863,
        -0.18412894010543823,
        -0.18597565591335297,
        0.04150563105940819,
        0.22860755026340485,
        0.05086914449930191,
        -0.0036852897610515356,
        -0.13050085306167603,
        -0.3031435012817383,
        -0.07752066105604172,
        0.23331187665462494,
        0.033954769372940063,
        0.178687185049057,
        0.1734907329082489,
        0.059070196002721786,
        -0.05857744812965393,
        0.18506821990013123,
        0.18310554325580597,
        0.033609285950660706,
        -0.5047329068183899,
        0.06903166323900223,
        -0.13989029824733734,
        0.15033859014511108,
        0.15221592783927917,
        0.046529173851013184,
        -0.3085823357105255,
        -0.061331599950790405,
        0.016004547476768494,
        0.06623290479183197,
        -0.30130669474601746,
        0.11984041333198547,
        -0.08550993353128433,
        0.205650195479393,
        -0.1546473205089569,
        0.04254455864429474,
        -0.30451831221580505,
        -0.054265186190605164,
        0.37446659803390503,
        0.6170077323913574,
        -0.08522585779428482,
        0.04156367480754852,
        0.2330491691827774,
        -0.042581282556056976,
        0.006205299869179726,
        -0.05217209830880165,
        -0.14573892951011658,
        -0.03174731880426407,
        -0.2569415271282196,
        0.04975656792521477,
        0.14611534774303436,
        -0.04761290177702904,
        -0.013102605007588863,
        0.11129562556743622,
        0.09578472375869751,
        0.013106130063533783,
        -0.08804355561733246,
        0.1198534294962883,
        0.16649112105369568,
        -0.1639552265405655,
        -0.03549228608608246,
        -0.02403010055422783,
        -0.12221506237983704,
        0.05500417575240135,
        -0.07370579242706299,
        0.05501355975866318,
        -0.06789713352918625,
        -0.0593571737408638,
        0.06204886734485626,
        0.17016251385211945,
        0.0770646333694458,
        0.1255793422460556,
        0.02953578718006611,
        0.1238832175731659,
        0.003813620191067457,
        0.16721348464488983,
        0.15085680782794952,
        -0.11021770536899567,
        0.03244424983859062,
        0.029404405504465103,
        -0.06460448354482651,
        -0.07995166629552841,
        0.03194813430309296,
        -0.14369893074035645,
        0.048036057502031326,
        0.13186942040920258,
        -0.03553979471325874,
        -0.2676336467266083,
        -0.16985979676246643,
        -0.12229476869106293,
        -0.13911518454551697,
        -0.24465633928775787,
        -0.1340872347354889,
        0.030430732294917107,
        0.03600289300084114,
        -0.07193828374147415,
        -0.18212422728538513,
        0.1314767450094223,
        -0.05982997268438339,
        0.08534060418605804,
        -0.11010661721229553,
        -0.048237428069114685,
        0.14153608679771423,
        -0.09358080476522446,
        -0.1398872435092926,
        0.044125065207481384,
        -0.1645866185426712,
        -0.00068196642678231,
        0.04051794856786728,
        0.1052500382065773,
        -0.12892895936965942,
        -0.013573244214057922,
        0.024314990267157555,
        -0.02631891518831253,
        0.01764875277876854,
        -0.12728531658649445,
        -0.04139038920402527,
        -0.12124097347259521,
        -0.15112066268920898,
        -0.09691787511110306,
        0.06833644211292267,
        0.12976308166980743,
        -0.07001904398202896,
        -0.0065076216123998165,
        0.04522591829299927,
        -0.01182929053902626,
        0.06074932962656021,
        0.15382207930088043,
        -0.056511376053094864,
        -0.19092361629009247,
        -0.031483158469200134,
        0.18213006854057312,
        0.05998758226633072,
        -0.05465410277247429,
        0.05034264177083969,
        0.1508164405822754,
        0.02243392914533615,
        0.11718299984931946,
        0.051478222012519836,
        0.13370250165462494,
        0.07179170846939087,
        -0.012574042193591595,
        0.09320862591266632,
        0.0738765299320221,
        0.14499495923519135,
        0.024013575166463852,
        -0.09226556867361069,
        -0.24193257093429565,
        -0.10495483130216599,
        0.19925548136234283,
        0.12409817427396774,
        -0.2328251153230667,
        0.10252740234136581,
        -0.04835569113492966,
        -0.2544560432434082,
        -0.02248181216418743,
        0.0953960195183754,
        -0.006580781191587448,
        0.10266517102718353,
        0.10697049647569656,
        0.03933555632829666,
        0.1418047994375229,
        0.12895424664020538,
        -0.07732868194580078,
        -0.24249348044395447,
        0.05558595433831215,
        0.27615630626678467,
        -0.22645123302936554,
        -0.2659704089164734,
        0.10601043701171875,
        -0.05652090907096863,
        0.07598868012428284,
        0.26937615871429443,
        0.3476720452308655,
        -0.05614935979247093,
        -0.3077022135257721,
        -0.3156188130378723,
        0.05365917459130287,
        0.09192726016044617,
        0.01970164105296135,
        -0.10733029246330261,
        -0.2562781572341919,
        -0.10201536864042282,
        -0.0333067812025547,
        -0.1536063253879547,
        -0.07072543352842331,
        -0.6449016332626343,
        0.060605600476264954,
        0.1600918471813202,
        0.0040144529193639755,
        -0.12363921850919724,
        0.17406997084617615,
        0.36207374930381775,
        -0.22295594215393066,
        -0.1011970043182373,
        -0.1378663182258606,
        0.038566313683986664,
        -0.06611133366823196,
        0.029915792867541313,
        -0.07337573170661926,
        0.06910749524831772,
        0.06522448360919952,
        -0.051018599420785904,
        0.1379234492778778,
        0.17642216384410858,
        -0.04827330633997917,
        0.015190322883427143,
        0.05359058082103729,
        -0.0571463443338871,
        0.07825666666030884,
        -0.14170235395431519,
        -0.23845931887626648,
        -0.06930163502693176,
        -0.09734265506267548,
        0.2077728807926178,
        0.033160947263240814,
        0.009299402125179768,
        0.03799046576023102,
        -0.06510274112224579,
        -0.02982226014137268,
        0.16176775097846985,
        -0.08723034709692001,
        0.06734086573123932,
        0.06847456097602844,
        -0.0009740024688653648,
        0.043948158621788025,
        -0.06699547171592712,
        0.09165938198566437,
        0.20244453847408295,
        -0.014087819494307041,
        0.16832996904850006,
        -0.08015615493059158,
        -0.1050683930516243,
        0.1388625055551529,
        0.04515660181641579,
        0.06404312700033188,
        -0.06720827519893646,
        -0.07407137006521225,
        -0.18551215529441833,
        0.048677459359169006,
        -0.1728903353214264,
        0.015168304555118084,
        0.13996578752994537,
        0.28293654322624207,
        0.0879000797867775,
        -0.03788601979613304,
        -0.0699225515127182,
        0.051420386880636215,
        0.06771107763051987,
        0.11712931096553802,
        0.0029310218524187803,
        0.15132416784763336,
        -0.09118645638227463,
        0.08076002448797226,
        -0.020779268816113472,
        0.004988868720829487,
        0.029188714921474457,
        0.03647823631763458,
        0.0841636210680008,
        0.16064566373825073,
        -0.20994079113006592,
        -0.05705612525343895,
        -0.044668156653642654,
        0.0020217893179506063,
        0.1160769984126091,
        0.09816548228263855,
        0.017103087157011032,
        -0.008152141235768795,
        -0.0036142526660114527,
        0.07666144520044327,
        -0.060679931193590164,
        0.014637754298746586,
        0.027218403294682503,
        -0.1057468131184578,
        0.19325317442417145,
        0.04491925239562988,
        -0.09004354476928711,
        -0.1510956734418869,
        0.05392683669924736,
        0.17148074507713318,
        0.03793000429868698,
        -0.11104069650173187,
        -0.05195718631148338,
        -0.011526660993695259,
        0.12985092401504517,
        0.11559406667947769,
        -0.09425065666437149,
        -0.02108047530055046,
        -0.05817507952451706,
        -0.09875233471393585,
        0.00843719020485878,
        -0.037862084805965424,
        0.0369880273938179,
        -0.09468107670545578,
        -0.015155738219618797,
        -0.07315590977668762,
        0.0038941591046750546,
        0.15576355159282684,
        0.024265127256512642,
        -0.08965419977903366,
        0.05019404739141464,
        0.018039442598819733,
        -0.07345934212207794,
        -0.07630938291549683,
        -0.027176959440112114,
        -0.07306814938783646,
        0.06776144355535507,
        -0.013788494281470776,
        0.21133875846862793,
        0.0657310038805008,
        -0.10467145591974258,
        0.04777946323156357,
        0.08796913176774979,
        0.0872562825679779,
        0.09451527893543243,
        0.07853920012712479,
        -0.11145498603582382,
        0.03532079607248306,
        -0.14567655324935913,
        0.016587836667895317,
        -0.05879554897546768,
        -0.09212333709001541,
        0.060603395104408264,
        -0.011825190857052803,
        0.11617949604988098,
        0.14911505579948425,
        -0.05990976095199585,
        -0.03246164694428444,
        -0.11402598768472672,
        -0.021698057651519775,
        0.005280876066535711,
        -0.06558511406183243,
        -0.07288271933794022,
        -0.0175677090883255,
        -0.027495693415403366,
        -0.18111367523670197,
        -0.05768764019012451,
        -0.14673805236816406,
        0.12220366299152374,
        -0.03555474430322647,
        0.01457769051194191,
        -0.055632151663303375,
        0.05509835109114647,
        -0.07296489179134369,
        0.11140420287847519,
        0.16490381956100464,
        0.10595843195915222,
        -0.011776501312851906,
        0.08063415437936783,
        0.06294466555118561,
        0.033957742154598236,
        0.0695984810590744,
        -0.09659039974212646,
        -0.04709113389253616,
        0.0022464178036898375,
        0.023287096992135048,
        -0.19382107257843018,
        -0.4420880377292633,
        -0.38428887724876404,
        0.053463347256183624,
        0.13378752768039703,
        -0.15144328773021698,
        0.059166211634874344,
        -0.16244511306285858,
        -0.1843646615743637,
        -0.07040262967348099,
        0.0121774822473526,
        0.053618382662534714,
        -0.09675619006156921,
        0.09572628140449524,
        0.1342928111553192,
        -0.02537735551595688,
        0.3549913167953491,
        -0.10808134824037552,
        -0.19044676423072815,
        -0.11234066635370255,
        -0.030656414106488228,
        -0.15104864537715912,
        -0.042575545608997345,
        -0.020124293863773346,
        -0.002193251857534051,
        0.11805715411901474,
        -0.0893406793475151,
        0.02555965632200241,
        -0.20233985781669617,
        0.0770694762468338,
        0.027175894007086754,
        0.23485858738422394,
        0.0669628381729126,
        0.15065449476242065,
        0.09460095316171646,
        -0.026752954348921776,
        0.09518527239561081,
        -0.06412257254123688,
        0.1129479929804802,
        0.1359170377254486,
        0.16759391129016876,
        -0.08206071704626083,
        -0.03545673191547394,
        0.06451249122619629,
        0.0055346195586025715,
        0.075054831802845,
        0.04437708109617233,
        0.09406810253858566,
        -0.058949243277311325,
        -0.5343381762504578,
        0.2476680725812912,
        0.41758832335472107,
        -0.36510470509529114,
        0.28169289231300354,
        -0.6209250688552856,
        -0.2094576209783554,
        -0.3993430435657501,
        0.7053550481796265,
        -0.6396368741989136,
        -0.684197723865509,
        -0.7541729211807251,
        0.2582475244998932,
        -0.839445948600769,
        0.5221405029296875,
        -0.6044085025787354,
        0.008553625084459782,
        -0.17758706212043762,
        -0.07344046980142593,
        0.1917031854391098,
        0.16939954459667206,
        -0.1001901850104332,
        -0.27585679292678833,
        -0.07408787310123444,
        -0.03600425645709038,
        -0.14033320546150208,
        0.0913768857717514,
        0.22022590041160583,
        0.10373245924711227,
        0.15903590619564056,
        -0.1592686027288437,
        -0.06164727732539177,
        0.24116486310958862,
        -0.3035694360733032,
        -0.33425411581993103,
        -0.08226370811462402,
        -0.35950279235839844,
        0.030793240293860435,
        -0.20840726792812347,
        -0.3338806927204132,
        0.43028783798217773,
        -0.3014613091945648,
        0.24585843086242676,
        0.2979770600795746,
        0.1614169031381607,
        0.3496963679790497,
        -0.031394097954034805,
        0.05786754935979843,
        -0.09364716708660126,
        -0.16616320610046387,
        -0.07945530116558075,
        0.15921150147914886,
        0.1193886399269104,
        -0.004685635212808847,
        -0.12107881158590317,
        -0.03944863751530647,
        0.20387986302375793,
        0.03724300488829613,
        -0.35094889998435974,
        -0.12186895310878754,
        0.019538821652531624,
        0.08404020220041275,
        0.05701956897974014,
        -0.03727971389889717,
        0.18359366059303284,
        0.16923712193965912,
        -0.23431161046028137,
        -0.21805311739444733,
        -0.24548430740833282,
        -0.12566718459129333,
        -0.10411049425601959,
        -0.029888533055782318,
        -0.03311242535710335,
        0.0633329525589943,
        0.013857773505151272,
        0.3164243996143341,
        0.2003941684961319,
        -0.07600176334381104,
        0.032470837235450745,
        0.022271305322647095,
        0.3066963851451874,
        0.10655956715345383,
        -0.15057776868343353,
        -0.17887093126773834,
        0.16676528751850128,
        -0.03244047984480858,
        0.04889132082462311,
        0.2442699372768402,
        0.14527040719985962,
        -0.017642471939325333,
        -0.09851692616939545,
        0.2948312759399414,
        -0.10414088517427444,
        -0.07195932418107986,
        -0.11695683747529984,
        -0.12108056247234344,
        -0.22907379269599915,
        -0.19695988297462463,
        -0.10519405454397202,
        0.0610150583088398,
        0.1665934920310974,
        -0.18701355159282684,
        0.05155860260128975,
        0.05607715621590614,
        0.19535809755325317,
        0.263282835483551,
        -0.035101521760225296,
        0.2151040881872177,
        -0.3322926163673401,
        -0.26263976097106934,
        0.0907602459192276,
        -0.1195751279592514,
        0.11593242734670639,
        -0.07699993252754211,
        0.1356392353773117,
        -0.35035571455955505,
        0.14447858929634094,
        0.06236688047647476,
        -0.2968096435070038,
        -0.25256314873695374,
        -0.2871323525905609,
        0.0048132105730473995,
        -0.31016242504119873,
        0.45634838938713074,
        0.049980685114860535,
        0.0332680344581604,
        -0.12232738733291626,
        0.17187699675559998,
        0.05542408674955368,
        -0.051907967776060104,
        0.1615854799747467,
        0.12303610146045685,
        0.1702343076467514,
        0.0638318657875061,
        -0.04082858934998512,
        0.0800030454993248,
        -0.12432610988616943,
        0.24704129993915558,
        -0.053851403295993805,
        0.09716838598251343,
        -0.3356708884239197,
        0.10918964445590973,
        0.10247541218996048,
        0.19731512665748596,
        0.08689837902784348,
        0.05905529111623764,
        -0.6670035719871521,
        -0.2773760259151459,
        -0.41537225246429443,
        0.04427026957273483,
        -0.27356845140457153,
        -0.32634976506233215,
        0.3974226117134094,
        -0.11249785125255585,
        0.2732994854450226,
        -0.2791205942630768,
        0.30909305810928345,
        0.3548508882522583,
        -0.2071908712387085,
        0.395579993724823,
        -0.45242786407470703,
        -0.003039957256987691,
        0.16829831898212433,
        0.19551725685596466,
        0.3205207884311676,
        -0.09593982994556427,
        0.25105905532836914,
        0.15184776484966278,
        -0.27182480692863464,
        0.1012672409415245,
        0.025041479617357254,
        0.19939814507961273,
        -0.23534713685512543,
        -0.06413692235946655,
        0.16572432219982147,
        -0.17230916023254395,
        -0.06585021317005157,
        -0.20776638388633728,
        -0.15486429631710052,
        0.28236207365989685,
        0.02738243341445923,
        -0.19664548337459564,
        -0.13994014263153076,
        0.031954143196344376,
        0.5960714221000671,
        0.14204029738903046,
        -0.2360754907131195,
        0.38297462463378906,
        -0.002706861821934581,
        0.07878068089485168,
        -0.09829974174499512,
        -5.2169627451803535e-05,
        0.132968932390213,
        0.27330395579338074,
        -0.23863501846790314,
        -0.14856739342212677,
        -0.15450526773929596,
        -0.08792423456907272,
        0.08541775494813919,
        0.12201594561338425,
        -0.40622472763061523,
        0.14846092462539673,
        0.23503613471984863,
        -0.046592745929956436,
        0.06865297257900238,
        -0.06254587322473526,
        0.06705326586961746,
        -0.07495502382516861,
        -0.1904439479112625,
        -0.44610661268234253,
        0.028130216524004936,
        0.351868599653244,
        0.11712723970413208,
        -0.06389348953962326,
        -0.06519406288862228,
        0.13946975767612457,
        0.28221216797828674,
        -0.1077040582895279,
        -0.2916437089443207,
        0.1473061442375183,
        -0.24986767768859863,
        0.02532726526260376,
        -0.07787260413169861,
        -0.07519304007291794,
        0.0804184079170227,
        0.25327879190444946,
        -0.2560013234615326,
        0.060187533497810364,
        -0.31433600187301636,
        -0.104590505361557,
        -0.014547266066074371,
        -0.04668230935931206,
        -0.09659925848245621,
        0.20080424845218658,
        -0.028275541961193085,
        -0.08394069969654083,
        0.3656129837036133,
        0.02808413654565811,
        0.09730083495378494,
        -0.06542661041021347,
        -0.03673570603132248,
        0.21430939435958862,
        -0.002825603587552905,
        -0.11042308062314987,
        -0.18320222198963165,
        -0.03780457004904747,
        0.1740889549255371,
        -0.015706434845924377,
        -0.10329017043113708,
        0.11009839177131653,
        -0.15085996687412262,
        -0.018438292667269707,
        0.03829048201441765,
        0.02955673448741436,
        0.2026434987783432,
        0.24114660918712616,
        0.3202795386314392,
        -0.24430038034915924,
        -0.2682914137840271,
        0.062164973467588425,
        -0.3376493752002716,
        -0.03156650438904762,
        -0.12391368299722672,
        0.06391995400190353,
        0.3323553800582886,
        -0.21268224716186523,
        0.33044737577438354,
        0.11254777759313583,
        -0.08722252398729324,
        0.2517251968383789,
        -0.19491535425186157,
        -0.18640075623989105,
        -0.05734273046255112,
        -0.04691605642437935,
        -0.02367783710360527,
        -0.015505826100707054,
        -0.10393506288528442,
        -0.01086739357560873,
        0.10766103118658066,
        0.12326043844223022,
        0.08074572682380676,
        0.05014648661017418,
        0.07250189781188965,
        -0.19942571222782135,
        0.041226595640182495,
        -0.22483161091804504,
        -0.08205488324165344,
        -0.0784786120057106,
        0.14151537418365479,
        -0.086126908659935,
        -0.19269366562366486,
        0.08045836538076401,
        -0.15102046728134155,
        -0.16112679243087769,
        0.11423658579587936,
        0.030523017048835754,
        0.02230118401348591,
        0.0850144773721695,
        -0.05272236093878746,
        -0.14515730738639832,
        0.10038231313228607,
        0.024705693125724792,
        -0.10106272995471954,
        -0.05473759397864342,
        0.009668500162661076,
        0.012609077617526054,
        -0.012086817063391209,
        0.09519492089748383,
        -0.004627387970685959,
        -0.057524893432855606,
        0.07152676582336426,
        -0.05535682290792465,
        0.012776434421539307,
        0.1584652066230774,
        -0.03538917377591133,
        -0.10982012003660202,
        -0.014978398568928242,
        0.01505337655544281,
        0.16480964422225952,
        -0.010979782789945602,
        -0.043530892580747604,
        -0.001113430131226778,
        0.22168536484241486,
        -0.018753916025161743,
        -0.05093931034207344,
        -0.1344408243894577,
        0.04408572241663933,
        0.020915593951940536,
        0.19739097356796265,
        -0.11402635276317596,
        0.15871179103851318,
        0.11174816638231277,
        -0.04439857229590416,
        0.2800239622592926,
        -0.17106950283050537,
        -0.1330602467060089,
        -0.2330753207206726,
        0.006302445195615292,
        0.18876805901527405,
        -0.17736677825450897,
        0.07645341753959656,
        -0.042551156133413315,
        0.0857575312256813,
        0.05369560793042183,
        0.09258010983467102,
        -0.1041954979300499,
        -0.14105479419231415,
        -0.035604771226644516,
        0.08582573384046555,
        -0.10681874305009842,
        0.014207718893885612,
        0.016368865966796875,
        0.050357017666101456,
        -0.16739226877689362,
        -0.03268567845225334,
        -0.23549950122833252,
        0.17568013072013855,
        -0.014198212884366512,
        -0.05985444784164429,
        -0.06991284340620041,
        0.019440026953816414,
        -0.06297048926353455,
        -0.08833397179841995,
        0.15966451168060303,
        0.17001140117645264,
        -0.021546145901083946,
        0.009242132306098938,
        0.2525031864643097,
        0.24819423258304596,
        0.009327968582510948,
        -0.17802195250988007,
        -0.1529414802789688,
        0.007527514826506376,
        0.1373164802789688,
        -0.08383575826883316,
        -0.011093996465206146,
        -0.07248073071241379,
        -0.07547493278980255,
        -0.048494528979063034,
        0.03468910977244377,
        0.008811293169856071,
        -0.057812854647636414,
        0.08704327791929245,
        0.15715821087360382,
        -0.18419407308101654,
        -0.014847124926745892,
        0.04028942435979843,
        0.009098340757191181,
        -0.056484419852495193,
        -0.042663540691137314,
        0.09695225208997726,
        0.05138569697737694,
        0.11110896617174149,
        -0.22911562025547028,
        -0.06414506584405899,
        0.09600125253200531,
        -0.0892966166138649,
        -0.10684452950954437,
        0.11819689720869064,
        0.05630265548825264,
        -0.024035733193159103,
        -0.02874298393726349,
        -0.02193402126431465,
        0.2791960835456848,
        0.12448059022426605,
        0.02515285462141037,
        0.09704698622226715,
        0.06098903715610504,
        0.004773955326527357,
        0.015379546210169792,
        0.03941918909549713,
        0.018664851784706116,
        -0.03386569395661354,
        -0.1991889774799347,
        -0.3141503632068634,
        -0.011707978323101997,
        0.36514797806739807,
        0.061836645007133484,
        -0.007784958928823471,
        -0.04321429133415222,
        0.07805273681879044,
        0.06313886493444443,
        0.046493127942085266,
        -0.14787214994430542,
        -0.1497097909450531,
        0.12086556106805801,
        0.1029927209019661,
        -0.17249199748039246,
        -0.11340754479169846,
        -0.24144452810287476,
        -0.05728417634963989,
        0.20828674733638763,
        -0.25583750009536743,
        -0.22900375723838806,
        0.17962564527988434,
        -0.2578042447566986,
        0.07336661219596863,
        0.19139494001865387,
        0.017688969150185585,
        0.18880683183670044,
        -0.06225037947297096,
        0.08474932610988617,
        -0.04265858232975006,
        -0.0977756604552269,
        0.06968271732330322,
        -0.05794720724225044,
        -0.0040023354813456535,
        0.183934286236763,
        -0.10987603664398193,
        0.038607340306043625,
        0.18026384711265564,
        -0.06523294746875763,
        -0.14001891016960144,
        0.12027185410261154,
        0.046155545860528946,
        0.05758749321103096,
        -0.1902102380990982,
        0.0707910805940628,
        0.14066876471042633,
        0.11964511126279831,
        -0.10315267741680145,
        -0.25948378443717957,
        0.07316768169403076,
        -0.19087640941143036,
        0.18916288018226624,
        0.22195473313331604,
        -0.01416422612965107,
        0.023987945169210434,
        0.07021655142307281,
        -0.0316239669919014,
        -0.030605178326368332,
        0.06025741249322891,
        -0.13095833361148834,
        0.18731309473514557,
        -0.05923369154334068,
        -0.2854052484035492,
        -0.12160062044858932,
        -0.19855299592018127,
        -0.010139839723706245,
        0.2577800452709198,
        0.203764870762825,
        -0.2204577922821045,
        -0.07798884063959122,
        0.0719894990324974,
        0.125008225440979,
        -0.09111800789833069,
        0.059488315135240555,
        0.07805503159761429,
        -0.0703006237745285,
        0.09068424254655838,
        0.20473314821720123,
        -0.10795021057128906,
        -0.0007016632007434964,
        0.041657838970422745,
        -0.03371356800198555,
        -0.10688009113073349,
        0.061780720949172974,
        0.11864842474460602,
        -0.040313027799129486,
        -0.11714299023151398,
        0.07644300162792206,
        -0.13098853826522827,
        -0.12724532186985016,
        0.08733506500720978,
        0.11017017811536789,
        -0.0855475664138794,
        -0.01907457411289215,
        -0.06512877345085144,
        0.08156320452690125,
        0.20931966602802277,
        0.27051928639411926,
        0.014053922146558762,
        -0.002619890496134758,
        0.015526209957897663,
        0.1787717044353485,
        -0.08266707509756088,
        -0.07958139479160309,
        0.013333825394511223,
        0.021333545446395874,
        0.19539979100227356,
        0.07352276146411896,
        0.07115069776773453,
        0.04076162725687027,
        -0.06223719194531441,
        0.2590027451515198,
        0.25376570224761963,
        -0.07515032589435577,
        -0.256510466337204,
        0.1652248054742813,
        -0.13965295255184174,
        -0.22751560807228088,
        0.10226958245038986,
        -0.04289281368255615,
        -0.1286676824092865,
        -0.021545885130763054,
        -0.08323607593774796,
        -0.0719679668545723,
        -0.03902015835046768,
        -0.13103893399238586,
        0.038087986409664154,
        -0.001447734422981739,
        -0.09637227654457092,
        -0.00578853115439415,
        -0.17171727120876312,
        -0.1522350013256073,
        0.13090066611766815,
        -0.04328811913728714,
        0.1519714742898941,
        -0.05532025918364525,
        -0.11942584067583084,
        -0.15396523475646973,
        0.14488495886325836,
        0.0986386090517044,
        0.05923585221171379,
        -0.24248553812503815,
        -0.14929307997226715,
        -0.07499777525663376,
        0.1230005994439125,
        0.46632102131843567,
        -0.30744630098342896,
        0.06282602250576019,
        0.005335050635039806,
        0.34745150804519653,
        0.10442565381526947,
        0.11826866865158081,
        -0.1322338581085205,
        0.02126278355717659,
        0.07446286827325821,
        0.15054593980312347,
        0.041894376277923584,
        -0.007748182397335768,
        0.04740258306264877,
        -0.11927136033773422,
        0.24526767432689667,
        -0.10125909000635147,
        -0.118888720870018,
        -0.042875006794929504,
        0.08470115065574646,
        0.004734615795314312,
        0.10184574127197266,
        -0.00594231067225337,
        0.021409403532743454,
        0.03277943655848503,
        -0.19893969595432281,
        -0.20558525621891022,
        0.05872013419866562,
        0.2656441628932953,
        0.08627226203680038,
        0.011667931452393532,
        0.06486649066209793,
        0.029391450807452202,
        -0.08823465555906296,
        0.19986321032047272,
        -0.014355670660734177,
        -0.08510279655456543,
        0.04907497018575668,
        -0.21842560172080994,
        0.02609940432012081,
        0.08534561097621918,
        -0.2071962058544159,
        -0.10886777192354202,
        -0.114397794008255,
        0.14227785170078278,
        -0.09092085063457489,
        0.21670213341712952,
        -0.08646480739116669,
        -0.21789522469043732,
        0.47656235098838806,
        -0.6010796427726746,
        0.10324211418628693,
        -0.13289713859558105,
        0.030419373884797096,
        -0.13559643924236298,
        -0.009266226552426815,
        -0.05104045569896698,
        0.10559030622243881,
        -0.08432164043188095,
        -0.04323256388306618,
        -0.11625538021326065,
        -0.17145423591136932,
        0.11984200775623322,
        0.11869221180677414,
        -0.06366244703531265,
        -0.05462999269366264,
        0.06709044426679611,
        0.16759610176086426,
        -0.012936513870954514,
        -0.04040978103876114,
        -0.017805680632591248,
        0.10718271136283875,
        -0.1615748256444931,
        0.0845789983868599,
        -0.07496416568756104,
        -0.11918742209672928,
        -0.13290700316429138,
        0.1266721785068512,
        -0.06856656819581985,
        0.03661831095814705,
        -0.016131997108459473,
        0.08024096488952637,
        0.12012656778097153,
        -0.01881526969373226,
        -0.017681285738945007,
        0.010462149046361446,
        0.13479959964752197,
        -0.005570370238274336,
        0.11892275512218475,
        -0.03575112670660019,
        -0.092993825674057,
        0.009849653579294682,
        -0.0902261808514595,
        -0.03658593073487282,
        0.06640610843896866,
        -0.20609351992607117,
        -0.0014536986127495766,
        -0.03835717588663101,
        0.29198381304740906,
        0.0555928610265255,
        -0.13633130490779877,
        -0.08934775739908218,
        0.09508945792913437,
        0.13082093000411987,
        0.12442760169506073,
        -0.09837924689054489,
        -0.25616347789764404,
        0.14509063959121704,
        -0.13847868144512177,
        -0.09459979832172394,
        -0.08507391065359116,
        -0.18279612064361572,
        -0.09875373542308807,
        0.08361528068780899,
        0.0023362948559224606,
        -0.11298203468322754,
        0.010287727229297161,
        -0.013615123927593231,
        -0.11839913576841354,
        0.0549042634665966,
        0.025990862399339676,
        0.11038736999034882,
        -0.026894232258200645,
        -0.05368008837103844,
        0.025182904675602913,
        0.042605627328157425,
        -0.1929013431072235,
        -0.12526735663414001,
        -0.02670939825475216,
        0.06247148662805557,
        -0.11556104570627213,
        -0.1480196863412857,
        -0.02715085819363594,
        -0.03945503011345863,
        0.17204326391220093,
        0.13989293575286865,
        -0.03687388449907303,
        0.06432949006557465,
        -0.02688564360141754,
        -0.08084917068481445,
        0.12123488634824753,
        0.08986511826515198,
        0.04112912714481354,
        0.006126829423010349,
        0.05839528515934944,
        -0.1412392556667328,
        0.1812487542629242,
        -0.041411034762859344,
        -0.12671694159507751,
        -0.18426953256130219,
        -0.08378962427377701,
        0.079106904566288,
        0.027865156531333923,
        0.11313129961490631,
        -0.16443195939064026,
        0.05990564078092575,
        0.24301820993423462,
        0.27075067162513733,
        -0.1695023626089096,
        0.028974909335374832,
        -0.03750620782375336,
        -0.016834203153848648,
        -0.23734800517559052,
        0.05510515347123146,
        2.9462622478604317e-05,
        -0.037040483206510544,
        0.1090509220957756,
        0.26254042983055115,
        -0.004628685303032398,
        0.0016254987567663193,
        0.16765300929546356,
        -0.0643688216805458,
        -0.018105659633874893,
        -0.05687988921999931,
        0.016651969403028488,
        0.021214665845036507,
        0.06984664499759674,
        0.09139790385961533,
        0.08984772115945816,
        -0.2413722723722458,
        -0.19295243918895721,
        -0.057956308126449585,
        -0.18095120787620544,
        0.10572706162929535,
        -0.11363526433706284,
        -0.230893075466156,
        -0.1972755789756775,
        -0.23671618103981018,
        0.30270200967788696,
        0.3551677465438843,
        0.039233241230249405,
        -0.16570024192333221,
        -0.10065443813800812,
        0.291312038898468,
        0.04190638288855553,
        0.05960850417613983,
        0.06646408140659332,
        -0.13829444348812103,
        0.0749746561050415,
        0.1155887097120285,
        -0.11415832489728928,
        -0.075876884162426,
        -0.14586521685123444,
        0.13906896114349365,
        -0.045309267938137054,
        -0.04664265736937523,
        0.0214486513286829,
        -0.11032285541296005,
        0.023716118186712265,
        0.028900545090436935,
        0.07505742460489273,
        0.028308574110269547,
        -0.04898972064256668,
        -0.06573405861854553,
        0.042596884071826935,
        0.21117080748081207,
        -0.012212620116770267,
        -0.026594260707497597,
        0.13594937324523926,
        0.09406980872154236,
        0.1505061239004135,
        0.0696825310587883,
        0.13378024101257324,
        -0.11295321583747864,
        0.08703133463859558,
        0.12137441337108612,
        0.03664107248187065,
        -0.11898831278085709,
        0.1629294753074646,
        0.38974156975746155,
        -0.05818215012550354,
        0.12038123607635498,
        0.1340745985507965,
        -0.010810808278620243,
        -0.10705608874559402,
        0.05572833493351936,
        0.09645365923643112,
        0.08630680292844772,
        0.03801336511969566,
        -0.050647955387830734,
        0.1377771943807602,
        -0.16156096756458282,
        0.07062169909477234,
        -0.043298762291669846,
        -0.08815839141607285,
        0.15067613124847412,
        0.07827414572238922,
        -0.022948352620005608,
        -0.0034180758520960808,
        0.08498870581388474,
        -0.15116767585277557,
        -0.0026851913426071405,
        0.08651965111494064,
        0.14150631427764893,
        -0.27946698665618896,
        -0.025966836139559746,
        -0.11545877158641815,
        0.05332193151116371,
        -0.042302824556827545,
        -0.10269482433795929,
        0.0441313274204731,
        -0.08890917897224426,
        -0.1245197281241417,
        0.0008453000918962061,
        0.09139825403690338,
        -0.030168309807777405,
        0.17385941743850708,
        -0.0936761349439621,
        0.04868973791599274,
        0.06479229778051376,
        0.13134683668613434,
        -0.08453359454870224,
        0.03793665021657944,
        -0.14315859973430634,
        -0.14262168109416962,
        -0.03455216810107231,
        -0.047303277999162674,
        0.2007579803466797,
        0.13640274107456207,
        0.11899134516716003,
        -0.0348752997815609,
        -0.09401365369558334,
        -0.1148400530219078,
        0.06756129115819931,
        -0.0949425995349884,
        -0.1696435958147049,
        -0.07293181866407394,
        -0.15978354215621948,
        0.270688533782959,
        -0.12415296584367752,
        0.09190772473812103,
        0.17903576791286469,
        0.045236557722091675,
        0.13149075210094452,
        0.03878314793109894,
        0.004895471967756748,
        0.05411083996295929,
        0.023365477100014687,
        0.12095721811056137,
        0.2909800112247467,
        0.1629679650068283,
        -0.2213335633277893,
        0.09496958553791046,
        -0.1796020269393921,
        -0.16557390987873077,
        -0.253505140542984,
        -0.0074067069217562675,
        -0.0979779064655304,
        0.057767875492572784,
        0.2356574833393097,
        0.013717558234930038,
        -0.32186827063560486,
        -0.06407181918621063,
        -0.21957658231258392,
        -0.05449194833636284,
        -0.036909136921167374,
        0.05016222596168518,
        -0.08735909312963486,
        0.03404251113533974,
        0.1814415454864502,
        0.01788228377699852,
        -0.1451425999403,
        0.0037159472703933716,
        0.1741260588169098,
        0.00010423226922284812,
        0.3213574290275574,
        0.0525992177426815,
        0.015274916775524616,
        -0.0678020790219307,
        0.13550561666488647,
        0.1664828062057495,
        -0.13553081452846527,
        -0.16254788637161255,
        -0.2801358699798584,
        0.008485476486384869,
        0.2052450180053711,
        0.19629856944084167,
        0.4485853314399719,
        -0.030198855325579643,
        -0.04554978385567665,
        -0.05829751491546631,
        -0.07440118491649628,
        -0.17570383846759796,
        0.012359521351754665,
        0.005038996692746878,
        -0.025701042264699936,
        0.07290957123041153,
        -0.13400785624980927,
        -0.08502435684204102,
        0.10317125916481018,
        -0.23784247040748596,
        0.3914339244365692,
        0.03231201693415642,
        0.004438178613781929,
        0.00517385033890605,
        -0.011030824854969978,
        -0.03270059823989868,
        0.0880567878484726,
        -0.0631021186709404,
        0.0597110316157341,
        0.07212032377719879,
        -0.02126031368970871,
        -0.08622963726520538,
        -0.15120325982570648,
        -0.03611449897289276,
        0.14061518013477325,
        -0.10024247318506241,
        0.10272666066884995,
        0.1221042051911354,
        0.03680317476391792,
        -0.033142440021038055,
        -0.12240432947874069,
        0.04348664730787277,
        0.12218624353408813,
        0.028104368597269058,
        0.11391575634479523,
        0.07996559143066406,
        -0.0660877525806427,
        -0.07136643677949905,
        -0.00047023166553117335,
        0.04005264490842819,
        0.11210671067237854,
        -0.02768753468990326,
        0.07851777970790863,
        0.0349862240254879,
        -0.2182084321975708,
        0.0949823185801506,
        -0.12116258591413498,
        0.10604800283908844,
        0.01553269475698471,
        -0.07072523236274719,
        -0.020855335518717766,
        -0.044292811304330826,
        -0.04817725345492363,
        0.062472909688949585,
        -0.05098199099302292,
        -0.09478486329317093,
        0.04118151217699051,
        -0.020351558923721313,
        -0.010900965891778469,
        0.02169288694858551,
        0.12316830456256866,
        0.2155255675315857,
        0.04151035100221634,
        -0.004307634197175503,
        0.13812071084976196,
        -0.012944621033966541,
        -0.09208501130342484,
        0.03589707612991333,
        0.02053094282746315,
        0.05308231711387634,
        -0.11761032789945602,
        -0.15189774334430695,
        -0.05983880162239075,
        -0.07179877907037735,
        -0.08367230743169785,
        -0.1763126403093338,
        -0.07771039009094238,
        -0.03813105821609497,
        0.03994840756058693,
        0.033838704228401184,
        -0.01875809207558632,
        -0.12663008272647858,
        -0.047551121562719345,
        -0.008750484324991703,
        0.13188724219799042,
        0.17218570411205292,
        -0.0836343914270401,
        -0.08369001001119614,
        -0.06790304183959961,
        -0.01545929815620184,
        0.21767261624336243,
        -0.01689460128545761,
        -0.048696089535951614,
        0.021245785057544708,
        -0.19759933650493622,
        0.06791701912879944,
        -0.16800092160701752,
        -0.13096705079078674,
        -0.17664475739002228,
        -0.051470715552568436,
        -0.07460917532444,
        -0.16314028203487396,
        -0.10805980116128922,
        -0.10017620027065277,
        0.050428327172994614,
        -0.08849181234836578,
        0.19921092689037323,
        0.04375430569052696,
        -0.13848701119422913,
        -0.06204725801944733,
        0.18649540841579437,
        0.18972763419151306,
        -0.03312186151742935,
        0.0031714439392089844,
        0.1541394740343094,
        -0.11294854432344437,
        0.10164738446474075,
        0.07264497131109238,
        -0.07323841005563736,
        0.03604339063167572,
        0.13858456909656525,
        0.029390592128038406,
        0.12711094319820404,
        0.017642460763454437,
        0.10534702241420746,
        0.08840027451515198,
        -0.14788997173309326,
        0.1263524293899536,
        -0.14409442245960236,
        0.043470703065395355,
        0.03293740004301071,
        0.09771423041820526,
        0.04911142215132713,
        0.021235842257738113,
        -0.15935112535953522,
        0.04138219356536865,
        -0.09703721106052399,
        0.10647916048765182,
        -0.12403253465890884,
        -0.024119211360812187,
        0.23039110004901886,
        -0.004723948892205954,
        0.004681518767029047,
        -0.09291498363018036,
        0.027021989226341248,
        -0.10496354848146439,
        0.2753073275089264,
        -0.132852241396904,
        -0.07752533257007599,
        -0.13395404815673828,
        0.04868413880467415,
        0.15526911616325378,
        -0.3279462456703186,
        0.188620463013649,
        -0.1790701150894165,
        0.03180834278464317,
        0.18591779470443726,
        0.11457506567239761,
        0.0522291399538517,
        0.044787224382162094,
        -0.15424230694770813,
        0.10280217230319977,
        -0.004727579653263092,
        -0.08158930391073227,
        -0.009746579453349113,
        0.15134064853191376,
        0.039734937250614166,
        0.059924762696027756,
        -0.0023126821033656597,
        -0.015590950846672058,
        0.04411063343286514,
        0.044864311814308167,
        0.04210323095321655,
        -0.3171471655368805,
        -0.4438236355781555,
        0.6936258673667908,
        -0.13945923745632172,
        -0.5609130263328552,
        0.0946967601776123,
        0.03713405504822731,
        0.06525067239999771,
        0.5860065817832947,
        -0.9088777303695679,
        0.9862902760505676,
        0.23729589581489563,
        0.28655415773391724,
        -0.3009386360645294,
        0.4452819228172302,
        -0.6298748254776001,
        0.09018450975418091,
        -0.10001277923583984,
        -0.0800328329205513,
        0.08127783238887787,
        0.1434665471315384,
        0.16545508801937103,
        0.1881498545408249,
        0.10692867636680603,
        0.20126914978027344,
        0.21083277463912964,
        0.322327584028244,
        0.21487534046173096,
        -0.28396549820899963,
        0.16580872237682343,
        -0.1971367746591568,
        -0.11801023781299591,
        0.48855817317962646,
        -0.0492652989923954,
        -0.16423502564430237,
        0.10865971446037292,
        0.16632920503616333,
        0.3863416910171509,
        0.08783867210149765,
        -0.3559842109680176,
        -0.3623269498348236,
        -0.18406014144420624,
        -0.11040622740983963,
        0.006874105893075466,
        0.29855307936668396,
        0.09743241965770721,
        0.053409673273563385,
        0.012599840760231018,
        -0.044802021235227585,
        -0.13928698003292084,
        0.09477569162845612,
        -0.14564982056617737,
        0.1583186239004135,
        -0.07536356896162033,
        -0.06580045074224472,
        -0.1375114619731903,
        -0.016437701880931854,
        -0.18084834516048431,
        -0.28129491209983826,
        0.123509481549263,
        0.18190139532089233,
        -0.2577258348464966,
        -0.15629532933235168,
        0.10961158573627472,
        0.10603396594524384,
        0.0053635165095329285,
        0.16490955650806427,
        0.050090592354536057,
        -0.16480502486228943,
        0.16662511229515076,
        -0.28189095854759216,
        0.1886133849620819,
        0.320142924785614,
        -0.10634122043848038,
        0.33109423518180847,
        0.36196789145469666,
        -0.0008736710879020393,
        0.23136629164218903,
        0.07356239855289459,
        -0.10657739639282227,
        0.1820526421070099,
        -0.057486001402139664,
        0.04788007587194443,
        -0.016608303412795067,
        -0.08195453882217407,
        0.058429405093193054,
        0.09973426908254623,
        0.01620566099882126,
        0.2472284585237503,
        -0.11172425746917725,
        0.014074114151299,
        0.032968487590551376,
        -0.29864394664764404,
        -0.13061778247356415,
        -0.03839583322405815,
        -0.13689836859703064,
        -0.1312434822320938,
        0.05398382246494293,
        -0.017895996570587158,
        -0.219278484582901,
        -0.0363551527261734,
        0.013356659561395645,
        0.12446891516447067,
        0.2279054820537567,
        -0.0931069403886795,
        -0.2957531809806824,
        -0.12884600460529327,
        -0.04268256947398186,
        0.11896706372499466,
        0.04472136124968529,
        0.28479480743408203,
        0.09953739494085312,
        0.12038113176822662,
        -0.04356423020362854,
        -0.23554326593875885,
        -0.03264780715107918,
        0.18618662655353546,
        -0.07252531498670578,
        0.1397363692522049,
        -0.15152792632579803,
        -0.3010198473930359,
        -0.10578632354736328,
        0.19266445934772491,
        -0.13264583051204681,
        0.19337646663188934,
        -0.0084110451862216,
        0.10977935791015625,
        -0.05167699605226517,
        0.13554923236370087,
        0.096023790538311,
        -0.20494499802589417,
        -0.14509575068950653,
        0.12306474149227142,
        -0.14315633475780487,
        0.1345709264278412,
        -0.13926009833812714,
        0.03199060261249542,
        0.09449166059494019,
        -0.15302225947380066,
        -0.037059295922517776,
        0.07142758369445801,
        -0.117775097489357,
        0.21149401366710663,
        -0.06046094372868538,
        -0.2685530483722687,
        0.11559274047613144,
        -0.13910123705863953,
        0.5166170597076416,
        0.13989859819412231,
        -0.08870453387498856,
        -0.37536194920539856,
        -0.03681690990924835,
        -0.3476547598838806,
        0.5513680577278137,
        -0.24356141686439514,
        0.1408618688583374,
        -0.3218797445297241,
        -0.10824240744113922,
        -0.13583697378635406,
        0.1337069720029831,
        0.055838800966739655,
        -0.03479678928852081,
        -0.1798129677772522,
        0.2144898921251297,
        0.04783063754439354,
        0.2348095327615738,
        -0.16738666594028473,
        -0.056920260190963745,
        -0.043838292360305786,
        -0.2486756294965744,
        0.22065995633602142,
        -0.17371441423892975,
        -0.21395063400268555,
        0.006608715280890465,
        0.1726241260766983,
        -0.11504500359296799,
        0.3961654305458069,
        -0.12498520314693451,
        -0.2653718888759613,
        -0.23779113590717316,
        0.2075520008802414,
        -0.13773147761821747,
        0.12485342472791672,
        -0.15749424695968628,
        0.2194434255361557,
        -0.13287967443466187,
        -0.25672033429145813,
        -0.031164629384875298,
        0.2078121453523636,
        -0.2574816346168518,
        0.14776456356048584,
        0.12390809506177902,
        0.022578759118914604,
        0.018896453082561493,
        -0.019156793132424355,
        0.01207652222365141,
        -0.08539492636919022,
        0.17481034994125366,
        0.22494544088840485,
        0.08721444010734558,
        -0.12469711899757385,
        -0.25275424122810364,
        -0.1793210506439209,
        0.08898509293794632,
        -0.1356220543384552,
        -0.22526729106903076,
        0.03641920164227486,
        0.12628312408924103,
        -0.3451111316680908,
        -0.20332907140254974,
        -0.20883934199810028,
        0.12462321668863297,
        0.08594954013824463,
        0.29355597496032715,
        -0.1865215301513672,
        -0.21975059807300568,
        0.0386740118265152,
        -0.4773825407028198,
        -0.014220227487385273,
        -0.06753452867269516,
        -0.0619017519056797,
        0.07261091470718384,
        -0.0241972878575325,
        -0.1783497929573059,
        -0.1214238703250885,
        0.004543029237538576,
        -0.33285704255104065,
        -0.006043960805982351,
        0.1751662790775299,
        -0.17836089432239532,
        0.16782675683498383,
        -0.2162141650915146,
        -0.08748490363359451,
        0.2892293930053711,
        0.10831048339605331,
        -0.2167750895023346,
        0.08406565338373184,
        0.08380986005067825,
        -0.05718984082341194,
        -0.027217522263526917,
        -0.13655246794223785,
        0.19408972561359406,
        0.1880475878715515,
        0.40022677183151245,
        -0.3088648319244385,
        -0.24681173264980316,
        -0.0330226756632328,
        -0.14359571039676666,
        0.21719005703926086,
        0.5992753505706787,
        0.2519294321537018,
        0.22670061886310577,
        -0.4414907991886139,
        0.15959767997264862,
        -0.12180435657501221,
        -0.14660824835300446,
        0.2727225422859192,
        -0.2037818729877472,
        -0.2114253044128418,
        -0.3402097821235657,
        0.22978836297988892,
        -0.04809672385454178,
        0.11696439236402512,
        -0.3112291991710663,
        0.07210953533649445,
        0.46043652296066284,
        0.14486064016819,
        0.3783511519432068,
        -0.1245783194899559,
        -0.1187218651175499,
        -0.08839046955108643,
        -0.01731858402490616,
        0.053305406123399734,
        0.035751182585954666,
        0.04548771679401398,
        0.19004575908184052,
        -0.06530603766441345,
        0.1431313157081604,
        0.07031054049730301,
        -0.04499077796936035,
        -0.20938271284103394,
        -0.15038876235485077,
        0.0915880873799324,
        0.07455314695835114,
        0.1612890511751175,
        0.13050347566604614,
        0.0949820801615715,
        -0.023736895993351936,
        0.09664975851774216,
        -0.5005026459693909,
        -0.12305211275815964,
        0.733650803565979,
        -0.0024863930884748697,
        -0.11137640476226807,
        0.2475234568119049,
        0.14143310487270355,
        0.031180042773485184,
        0.004243452567607164,
        0.10981664806604385,
        0.14220450818538666,
        0.028138091787695885,
        -0.1940351277589798,
        -0.1653943806886673,
        -0.08204837888479233,
        0.20448267459869385,
        0.004495028406381607,
        0.20376648008823395,
        0.030681684613227844,
        -0.10698946565389633,
        -0.22990842163562775,
        0.14199009537696838,
        0.07747926563024521,
        -0.027914725244045258,
        -0.40512850880622864,
        -0.11155074834823608,
        -0.13821405172348022,
        0.08526745438575745,
        -0.1696614921092987,
        0.19098898768424988,
        0.12114515900611877,
        0.24774158000946045,
        0.1761564463376999,
        -0.039764899760484695,
        -0.060577236115932465,
        -0.15882326662540436,
        0.12851549685001373,
        -0.19839859008789062,
        -0.029389509931206703,
        -0.10424463450908661,
        -0.061026107519865036,
        -0.46610257029533386,
        -0.5898057222366333,
        0.07602505385875702,
        0.20572276413440704,
        -0.1232186034321785,
        0.06506092846393585,
        0.14068928360939026,
        0.43698814511299133,
        -0.2755042314529419,
        0.26600778102874756,
        0.15731678903102875,
        -0.5074538588523865,
        0.1617271900177002,
        -0.11306435614824295,
        -0.07873141765594482,
        -0.0020309756509959698,
        0.19230341911315918,
        0.12743669748306274,
        -0.0019799622241407633,
        0.02280700020492077,
        0.12746985256671906,
        -0.14504660665988922,
        -0.5182403922080994,
        0.40370407700538635,
        -0.1502215564250946,
        0.13162650167942047,
        -0.03368294611573219,
        -0.17847712337970734,
        -0.22490431368350983,
        0.054126840084791183,
        0.18878281116485596,
        0.4288221299648285,
        -0.5479130148887634,
        -0.17033208906650543,
        -0.09179547429084778,
        0.49733009934425354,
        -0.008188570849597454,
        0.02827993407845497,
        -0.2441987544298172,
        0.07004747539758682,
        -0.04897578805685043,
        -0.18950361013412476,
        -0.1441054791212082,
        -0.045856114476919174,
        0.2482043355703354,
        -0.0659935250878334,
        0.08915986865758896,
        -0.34002840518951416,
        0.27618715167045593,
        0.453900545835495,
        0.00019753263040911406,
        0.04426475241780281,
        0.45677390694618225,
        -0.5795246362686157,
        -0.12432403117418289,
        0.025649946182966232,
        -0.003788104746490717,
        0.11747142672538757,
        0.0541524700820446,
        -0.013341154903173447,
        -0.12649814784526825,
        -0.007718287408351898,
        0.11366893351078033,
        -0.1700584441423416,
        0.05395546928048134,
        -0.10861330479383469,
        0.13802920281887054,
        -0.029326526448130608,
        -0.022167028859257698,
        -0.07201358675956726,
        0.025843694806098938,
        -0.08361046761274338,
        -0.01011593546718359,
        0.03627075254917145,
