{
    "version": "0.5.0",
    "architecture": "WaveNet",
    "config": {
        "layers": [
            {
                "input_size": 1,
                "condition_size": 1,
                "head_size": 8,
                "channels": 16,
                "kernel_size": 3,
                "dilations": [
                    1,
                    2,
                    4,
                    8,
                    16,
                    32,
                    64,
                    128,
                    256,
                    512
                ],
                "activation": "Tanh",
                "gated": false,
                "head_bias": false
            },
            {
                "input_size": 16,
                "condition_size": 1,
                "head_size": 1,
                "channels": 8,
                "kernel_size": 3,
                "dilations": [
                    1,
                    2,
                    4,
                    8,
                    16,
                    32,
                    64,
                    128,
                    256,
                    512
                ],
                "activation": "Tanh",
                "gated": false,
                "head_bias": true
            }
        ],
        "head": null,
        "head_scale": 0.02
    },
    "weights": [
        -0.005892956629395485,
        0.4760195016860962,
        -0.965907633304596,
        -0.7791815400123596,
        -0.5241873860359192,
        0.3618679940700531,
        -0.013934298418462276,
        0.9906980991363525,
        -0.11747518181800842,
        0.19479894638061523,
        -0.4177287220954895,
        -0.0897643119096756,
        -1.096185326576233,
        -0.6899037957191467,
        -0.5316805839538574,
        0.08043878525495529,
        0.047248970717191696,
        -0.06577987968921661,
        -0.1857263743877411,
        -0.10419157892465591,
        0.14961227774620056,
        0.18135970830917358,
        0.010996084660291672,
        0.01272282563149929,
        -0.08583816885948181,
        0.0549066923558712,
        0.033756572753190994,
        -0.1950288712978363,
        -0.03879715874791145,
        -0.11918694525957108,
        -0.10554942488670349,
        0.0790303647518158,
        -0.0020821737125515938,
        -0.011042916215956211,
        -0.06016603857278824,
        -0.22919432818889618,
        -0.12929010391235352,
        0.07900706678628922,
        0.1546875387430191,
        0.12642328441143036,
        0.09381890296936035,
        -0.11110518872737885,
        0.022446991875767708,
        -0.17726945877075195,
        -0.025959134101867676,
        -0.04061984270811081,
        0.14023634791374207,
        0.002529514953494072,
        -0.11079681664705276,
        0.05343899875879288,
        0.0011922213016077876,
        0.07763718068599701,
        0.0968349277973175,
        -0.07573410868644714,
        0.036949273198843,
        -0.043027497828006744,
        -0.06382168084383011,
        -0.16646933555603027,
        -0.04875408858060837,
        -0.15538093447685242,
        0.017637860029935837,
        -0.044007498770952225,
        -0.050347525626420975,
        0.05496973171830177,
        0.06838933378458023,
        -0.03402134031057358,
        -0.1612814962863922,
        -0.22912201285362244,
        0.03874761238694191,
        0.33759501576423645,
        0.16144980490207672,
        -0.0002940119302365929,
        -0.1382908970117569,
        0.38912904262542725,
        0.178722083568573,
        -0.06924757361412048,
        0.2956952452659607,
        -0.07838575541973114,
        -0.19094830751419067,
        -0.345895379781723,
        -0.17331057786941528,
        0.34094786643981934,
        0.28809139132499695,
        -0.12163418531417847,
        -0.17984911799430847,
        -0.29778116941452026,
        -0.07490143924951553,
        0.13485760986804962,
        0.2741399109363556,
        -0.07700899988412857,
        -0.18534520268440247,
        -0.18033061921596527,
        0.06155913323163986,
        0.2619423270225525,
        0.11099008470773697,
        -0.0609639547765255,
        -0.14506646990776062,
        0.24718351662158966,
        -0.08033037930727005,
        -0.28405678272247314,
        0.40911436080932617,
        0.1513097733259201,
        -0.2592325508594513,
        0.2323673516511917,
        -0.08546003699302673,
        -0.19952861964702606,
        0.15701183676719666,
        -0.06603293865919113,
        -0.2112443447113037,
        -0.2798026204109192,
        -0.14291241765022278,
        0.27352461218833923,
        0.02526041492819786,
        0.042277611792087555,
        0.15255603194236755,
        -0.13764438033103943,
        0.12634757161140442,
        -0.04489529877901077,
        0.028207091614603996,
        -0.133395716547966,
        0.10499921441078186,
        0.018240420147776604,
        -0.23734824359416962,
        0.119541697204113,
        -0.11766688525676727,
        -0.2382105439901352,
        0.02871553599834442,
        -0.09448755532503128,
        0.10177822411060333,
        -0.18417513370513916,
        0.040077682584524155,
        -0.060749299824237823,
        -0.009032530710101128,
        -0.01832110993564129,
        0.2660353183746338,
        -0.07122243195772171,
        0.07734381407499313,
        -0.10081423819065094,
        0.1480567455291748,
        0.06919979304075241,
        0.2730081379413605,
        0.0106669832020998,
        0.1610097885131836,
        -0.15714073181152344,
        -0.056827180087566376,
        -0.016356373205780983,
        -0.039639320224523544,
        0.05091084539890289,
        -0.06498181074857712,
        -0.27792927622795105,
        -0.08362510055303574,
        -0.11074358969926834,
        -0.19008050858974457,
        0.13555015623569489,
        0.09597478806972504,
        -0.2924913167953491,
        0.15402962267398834,
        -0.1885741800069809,
        0.0875428318977356,
        -0.18660041689872742,
        -0.06815841048955917,
        0.005806179717183113,
        -0.17595931887626648,
        -0.2003134936094284,
        -0.07590959221124649,
        0.029216350987553596,
        0.018154380843043327,
        0.10988371074199677,
        -0.1539100706577301,
        0.07232097536325455,
        0.18333639204502106,
        -0.08522602915763855,
        0.2039644867181778,
        0.09559384733438492,
        -0.1706632673740387,
        0.021255411207675934,
        -0.06085565686225891,
        -0.023369938135147095,
        0.1100199893116951,
        -0.1279108226299286,
        -0.07040836662054062,
        -0.11312737315893173,
        0.050129227340221405,
        0.07061354070901871,
        0.1023399755358696,
        0.05124782770872116,
        -0.12743711471557617,
        -0.09736225008964539,
        -0.15412087738513947,
        0.13761834800243378,
        0.18515300750732422,
        0.1356542706489563,
        -0.15268224477767944,
        0.03927979990839958,
        -0.08017735183238983,
        -0.12492711842060089,
        0.0008212483953684568,
        0.10630694776773453,
        -0.11192529648542404,
        0.07794710993766785,
        0.05915044620633125,
        0.06201242282986641,
        -0.03148680180311203,
        -0.05310942232608795,
        -0.12260590493679047,
        0.06982320547103882,
        -0.05701841786503792,
        0.22345800697803497,
        -0.19424177706241608,
        -0.21156853437423706,
        0.05430363863706589,
        0.2648076117038727,
        0.14271312952041626,
        -0.2990046739578247,
        -0.30176132917404175,
        -0.10749628394842148,
        0.15354953706264496,
        -0.3751250207424164,
        -0.010765189304947853,
        0.1485927700996399,
        -0.30816394090652466,
        0.01972258649766445,
        0.32444995641708374,
        0.2898573577404022,
        -0.010067627765238285,
        -0.20645980536937714,
        -0.29369091987609863,
        -0.11551004648208618,
        0.19522087275981903,
        0.281171053647995,
        0.12668167054653168,
        -0.1531563252210617,
        -0.2338266521692276,
        0.038914959877729416,
        0.37718549370765686,
        0.19320526719093323,
        0.18109248578548431,
        -0.371235191822052,
        -0.3469739556312561,
        -0.06802976876497269,
        0.33341169357299805,
        -0.15283627808094025,
        -0.1653381884098053,
        0.24878300726413727,
        -0.22819839417934418,
        -0.26733195781707764,
        0.3708510398864746,
        -0.4162285327911377,
        -0.12242063134908676,
        0.2426663339138031,
        -0.37384849786758423,
        -0.10368213802576065,
        0.3911125659942627,
        0.3061758577823639,
        0.07961718738079071,
        -0.31759676337242126,
        -0.08253299444913864,
        0.09340114891529083,
        -0.003000186523422599,
        -0.0306821521371603,
        -0.06334914267063141,
        0.10323738306760788,
        0.0002395591145614162,
        0.08569507300853729,
        0.02425323985517025,
        -0.12142883241176605,
        -0.06459195166826248,
        0.0189227145165205,
        0.0512741394340992,
        0.02487439662218094,
        -0.08092809468507767,
        -0.007226851303130388,
        -0.12638644874095917,
        0.036588504910469055,
        -0.07196618616580963,
        -0.08509511500597,
        0.2024657428264618,
        -0.01879752054810524,
        0.005675054155290127,
        0.06353428214788437,
        -0.021135423332452774,
        -0.06360086798667908,
        -0.05592227727174759,
        0.1770307421684265,
        0.0297479759901762,
        0.10710786283016205,
        -0.11042675375938416,
        0.03870846703648567,
        -0.03370029106736183,
        -0.022478649392724037,
        -0.06606131792068481,
        0.058005440980196,
        -0.031178338453173637,
        -0.028818804770708084,
        -0.05814205855131149,
        -0.16248874366283417,
        0.07751523703336716,
        -0.1272469460964203,
        -0.010870864614844322,
        -0.06341417133808136,
        -0.08205095678567886,
        0.0362994447350502,
        -0.10959617793560028,
        -0.02057705633342266,
        0.10839177668094635,
        -0.28519928455352783,
        0.022934483364224434,
        0.027377162128686905,
        0.22776168584823608,
        -0.09666139632463455,
        -0.09482059627771378,
        -0.19675874710083008,
        0.12855637073516846,
        -0.026155289262533188,
        -0.11982768774032593,
        0.1755913496017456,
        -0.03993332386016846,
        -0.1630583107471466,
        0.14891862869262695,
        -0.032700441777706146,
        0.1719951033592224,
        -0.07308927178382874,
        -0.029929395765066147,
        -0.11985907703638077,
        0.1760622262954712,
        0.10211355984210968,
        0.2550349831581116,
        -0.06565874069929123,
        0.15357062220573425,
        -0.18126080930233002,
        0.0109398877248168,
        -0.16595469415187836,
        0.2888343632221222,
        -0.01313749235123396,
        -0.05911532789468765,
        -0.09957035630941391,
        0.2067537158727646,
        0.21946457028388977,
        -0.022748682647943497,
        0.18625743687152863,
        -0.008801037445664406,
        -0.22459587454795837,
        0.19924159348011017,
        0.10862698405981064,
        -0.2558792233467102,
        0.21379639208316803,
        0.10315176099538803,
        -0.08393073827028275,
        0.00044491101289168,
        -0.04921794682741165,
        0.08990712463855743,
        -0.019901974126696587,
        0.05851462483406067,
        0.16532941162586212,
        0.08894126117229462,
        -0.06147122383117676,
        -0.06694117933511734,
        0.19761142134666443,
        0.03222230449318886,
        0.055505868047475815,
        -0.22442211210727692,
        -0.012596139684319496,
        -0.09368438273668289,
        -0.012141648679971695,
        0.20182636380195618,
        0.14934608340263367,
        -0.019427873194217682,
        -0.24834901094436646,
        -0.1115383505821228,
        0.11070629954338074,
        -0.020045818760991096,
        0.10921426862478256,
        -0.2054205983877182,
        -0.2011582851409912,
        -0.1582537740468979,
        0.05055518448352814,
        0.20266638696193695,
        0.10201699286699295,
        -0.04979432746767998,
        -0.0011124109150841832,
        0.12437373399734497,
        0.10463141649961472,
        0.18632645905017853,
        0.14066481590270996,
        -0.09003489464521408,
        0.23570764064788818,
        0.08653716742992401,
        -0.019805606454610825,
        0.0794970765709877,
        0.0894346609711647,
        -0.11293777823448181,
        0.09120964258909225,
        -0.06395920366048813,
        -0.21171881258487701,
        0.01208742056041956,
        0.10988418012857437,
        -0.033225320279598236,
        -0.1822083741426468,
        -0.13834138214588165,
        0.20737269520759583,
        0.14289593696594238,
        0.006777568720281124,
        -0.04688718542456627,
        0.26470157504081726,
        0.08302269876003265,
        -0.1563454419374466,
        -0.00429270975291729,
        0.08289515972137451,
        -0.007340079639106989,
        -0.0576837956905365,
        -0.10847245156764984,
        0.024412406608462334,
        -0.010633477009832859,
        -0.00992900412529707,
        -0.04277976602315903,
        0.08077944070100784,
        -0.02265371009707451,
        -0.0882427915930748,
        -0.046746350824832916,
        0.13382095098495483,
        0.0845925435423851,
        0.05253901332616806,
        0.030516114085912704,
        0.016796957701444626,
        -0.0076749990694224834,
        -0.09751291573047638,
        0.09457709640264511,
        0.01901007816195488,
        -0.04788967967033386,
        -0.01836485043168068,
        -0.23250262439250946,
        0.04387817531824112,
        0.18869467079639435,
        -0.07558776438236237,
        -0.0924818143248558,
        0.00042462212149985135,
        -0.11207332462072372,
        -0.13866117596626282,
        0.11749061942100525,
        -0.26904216408729553,
        -0.16290442645549774,
        -0.08982285857200623,
        -0.16326336562633514,
        0.08180150389671326,
        -0.07665747404098511,
        0.23029232025146484,
        -0.050039637833833694,
        -0.04269435629248619,
        0.027747923508286476,
        -0.12558022141456604,
        0.310835063457489,
        0.3467133045196533,
        0.21760857105255127,
        -0.16380703449249268,
        -0.37514957785606384,
        0.0427405945956707,
        0.2414807230234146,
        -0.20812812447547913,
        -0.19356553256511688,
        0.19300256669521332,
        -0.41679245233535767,
        -0.1294345259666443,
        0.27235376834869385,
        0.149770125746727,
        0.11003658920526505,
        -0.17260856926441193,
        -0.10130994021892548,
        -0.07347935438156128,
        0.17112189531326294,
        0.2365347445011139,
        0.13999509811401367,
        -0.0970645323395729,
        -0.1390957534313202,
        -0.04542645066976547,
        0.3280530869960785,
        0.11599678546190262,
        -0.05949115753173828,
        -0.1779061108827591,
        -0.3446940779685974,
        0.009416048415005207,
        0.15363645553588867,
        -0.29305195808410645,
        -0.17101921141147614,
        0.3133966326713562,
        -0.2952536940574646,
        0.031897205859422684,
        0.32340008020401,
        -0.1950109302997589,
        -0.07141608744859695,
        0.19060103595256805,
        -0.30912500619888306,
        -0.056721724569797516,
        0.30902770161628723,
        0.21832484006881714,
        0.2411079853773117,
        -0.23572760820388794,
        0.08158673346042633,
        -0.16241756081581116,
        0.04219051077961922,
        0.016809629276394844,
        0.0851866826415062,
        0.23309487104415894,
        0.1772157847881317,
        -0.14161834120750427,
        -0.015937216579914093,
        0.031213775277137756,
        -0.17838315665721893,
        -0.07564358413219452,
        0.07685732841491699,
        -0.16309241950511932,
        -0.1645452380180359,
        -0.030515162274241447,
        0.17314016819000244,
        0.07217548787593842,
        0.21001730859279633,
        -0.08184877783060074,
        -0.15636248886585236,
        -0.09800449013710022,
        0.30436739325523376,
        0.11618185043334961,
        0.20780625939369202,
        -0.18717625737190247,
        -0.016599982976913452,
        -0.2222200185060501,
        0.11116435378789902,
        0.030500922352075577,
        0.25665730237960815,
        -0.24196161329746246,
        -0.11431427299976349,
        0.08064185082912445,
        -0.04383217170834541,
        0.01819699816405773,
        -0.0023706110659986734,
        -0.3416701555252075,
        -0.24378427863121033,
        0.11006712913513184,
        -0.2542567551136017,
        -0.22203341126441956,
        0.06494585424661636,
        -0.18387342989444733,
        -0.19711683690547943,
        -0.12237464636564255,
        0.1499762386083603,
        0.02055756375193596,
        -0.08597717434167862,
        0.28405535221099854,
        0.09420932084321976,
        0.19989056885242462,
        -0.2690587639808655,
        -0.12462560087442398,
        -0.32471075654029846,
        0.08193481713533401,
        0.411561518907547,
        -0.2801797688007355,
        0.24729543924331665,
        0.2548162043094635,
        -0.23315031826496124,
        0.17369110882282257,
        0.34818264842033386,
        0.20948709547519684,
        -0.34882885217666626,
        -0.3423134982585907,
        -0.2788403034210205,
        0.20442049205303192,
        0.07879190146923065,
        0.33099785447120667,
        -0.24672169983386993,
        -0.2900887429714203,
        -0.12768259644508362,
        0.2215472012758255,
        0.31763526797294617,
        0.2756730020046234,
        -0.23235484957695007,
        -0.3224599063396454,
        -0.21306098997592926,
        0.3211004436016083,
        0.20399384200572968,
        -0.3478747010231018,
        0.25746384263038635,
        0.4062388837337494,
        -0.22949844598770142,
        0.09888054430484772,
        0.13507872819900513,
        -0.15430130064487457,
        0.20048989355564117,
        0.1854967474937439,
        -0.1702185720205307,
        0.2594473659992218,
        0.36924758553504944,
        0.40024781227111816,
        -0.17869776487350464,
        -0.34764865040779114,
        -0.23629121482372284,
        0.055461980402469635,
        0.1893451064825058,
        0.0947577953338623,
        -0.05810893326997757,
        -0.10198764503002167,
        0.10858158022165298,
        0.06333760917186737,
        0.11756625771522522,
        -0.08387025445699692,
        -0.16624227166175842,
        0.37405893206596375,
        -0.09592089056968689,
        -0.1395454853773117,
        0.30654117465019226,
        -0.034615352749824524,
        -0.0023793650325387716,
        -0.24691544473171234,
        -0.08803064376115799,
        -0.19917744398117065,
        0.2519066333770752,
        -0.03631645441055298,
        0.11831650137901306,
        -0.11458105593919754,
        0.011259052902460098,
        -0.07974955439567566,
        0.292244017124176,
        0.0458969846367836,
        -0.0019548265263438225,
        -0.07591414451599121,
        0.0017224197508767247,
        -0.21519418060779572,
        0.18951278924942017,
        -0.16578537225723267,
        0.03247084468603134,
        0.18231157958507538,
        -0.15724562108516693,
        -0.07346964627504349,
        0.331281453371048,
        0.010338523425161839,
        -0.019667822867631912,
        0.2485971301794052,
        0.020521381869912148,
        -0.10978345572948456,
        0.16989965736865997,
        -0.05251598730683327,
        0.013469761237502098,
        -0.138748437166214,
        -0.1323314905166626,
        0.03880125284194946,
        0.04939543083310127,
        -0.009353605099022388,
        -0.10979525744915009,
        0.08920910209417343,
        -0.058244336396455765,
        0.13820458948612213,
        -0.05954711511731148,
        -0.010848065838217735,
        0.09737728536128998,
        -0.006980531848967075,
        0.1408136636018753,
        -0.08676683157682419,
        -0.0768105536699295,
        -0.08354389667510986,
        0.009556595236063004,
        0.08919890969991684,
        -0.07292865216732025,
        0.06810957193374634,
        -0.01682485267519951,
        -0.0576133094727993,
        0.08694302290678024,
        -0.16566286981105804,
        0.0050017028115689754,
        0.12009602040052414,
        -0.03235970064997673,
        0.09157487750053406,
        -0.058272529393434525,
        0.08701115101575851,
        -0.12275390326976776,
        -0.013413487933576107,
        0.009785298258066177,
        0.02673179656267166,
        0.037701092660427094,
        0.12418347597122192,
        0.006632431410253048,
        0.016579216346144676,
        0.15546701848506927,
        -0.013892346061766148,
        0.14617708325386047,
        -0.04536525905132294,
        0.0055968561209738255,
        0.005398876033723354,
        0.10736268758773804,
        0.12377218157052994,
        0.011595303192734718,
        -0.11213609576225281,
        0.09901874512434006,
        -0.06093275919556618,
        0.014869596809148788,
        -0.05092943087220192,
        0.17094683647155762,
        0.13496240973472595,
        -0.0337294265627861,
        -0.21676909923553467,
        0.0981675311923027,
        -0.15092706680297852,
        -0.04817664995789528,
        0.020675670355558395,
        -0.10279035568237305,
        -0.01851823925971985,
        -0.11752381175756454,
        0.06470082700252533,
        -0.023189017549157143,
        -0.028895508497953415,
        0.042588721960783005,
        0.09186387807130814,
        -0.03387099504470825,
        0.13709980249404907,
        0.05995116010308266,
        -0.07178055495023727,
        -0.11788105964660645,
        -0.15600153803825378,
        0.2044980227947235,
        -0.003700382774695754,
        0.06779878586530685,
        0.011315280571579933,
        0.065506212413311,
        0.06116630882024765,
        0.1368398815393448,
        -0.10271035134792328,
        -0.06855187565088272,
        -0.07038799673318863,
        -0.12878930568695068,
        -0.04709838330745697,
        0.1352076530456543,
        -0.15710245072841644,
        0.011615097522735596,
        -0.06960966438055038,
        -0.06449975073337555,
        0.046712473034858704,
        -0.0193687304854393,
        0.015609512105584145,
        -0.06281859427690506,
        0.058436766266822815,
        -0.026811309158802032,
        0.12036363035440445,
        -0.015234492719173431,
        -0.20427002012729645,
        -0.35545334219932556,
        0.138501837849617,
        0.2248602658510208,
        0.20211851596832275,
        -0.060030337423086166,
        0.23192667961120605,
        0.33934998512268066,
        -0.2055331915616989,
        0.08180645108222961,
        0.1876194030046463,
        -0.25677135586738586,
        -0.09276048839092255,
        -0.12335187941789627,
        0.26380079984664917,
        0.06557782739400864,
        0.23454482853412628,
        -0.1826293170452118,
        0.0025149493012577295,
        -0.29941922426223755,
        0.03574525564908981,
        0.06446091830730438,
        0.26981592178344727,
        -0.30333778262138367,
        0.041156742721796036,
        -0.16452717781066895,
        0.046764422208070755,
        0.057673852890729904,
        0.3495984673500061,
        -0.2610522210597992,
        0.030247626826167107,
        0.28189319372177124,
        -0.24439719319343567,
        0.18858127295970917,
        0.3173674941062927,
        -0.04157828167080879,
        0.011882578954100609,
        0.38033029437065125,
        -0.2193438708782196,
        0.2432214617729187,
        0.09400072693824768,
        -0.26800537109375,
        -0.0011370538268238306,
        -0.22848492860794067,
        0.1943904608488083,
        -0.05323999002575874,
        -0.046175502240657806,
        -0.07758307456970215,
        -0.14788350462913513,
        -0.042541589587926865,
        0.04315904900431633,
        0.0011927072191610932,
        -0.0731317326426506,
        0.13916878402233124,
        0.04112546518445015,
        -0.07285408675670624,
        0.19878990948200226,
        0.005092260893434286,
        0.01627880334854126,
        0.03232652321457863,
        0.04939764738082886,
        0.5120549201965332,
        -0.2421671748161316,
        0.7579455375671387,
        -0.6885980367660522,
        -0.2556532025337219,
        0.938724935054779,
        0.9219949245452881,
        -0.45554453134536743,
        0.14334116876125336,
        -0.10595835745334625,
        -0.3254123330116272,
        -0.6187381148338318,
        0.024251645430922508,
        -0.7616322040557861,
        0.176498681306839,
        0.5532383918762207,
        -0.09858867526054382,
        0.225003182888031,
        0.019224703311920166,
        0.13037873804569244,
        0.23895788192749023,
        -0.11698189377784729,
        0.16237013041973114,
        -0.11469971388578415,
        -0.05306816101074219,
        -0.015142527408897877,
        0.08774647861719131,
        -0.1067240908741951,
        0.18325504660606384,
        0.040804531425237656,
        0.18443988263607025,
        -0.11626416444778442,
        -0.10336526483297348,
        -0.04536430910229683,
        -0.37505534291267395,
        0.18524964153766632,
        -0.026925312355160713,
        -0.1524282544851303,
        -0.2524918019771576,
        0.170429065823555,
        -0.11062944680452347,
        0.09387020766735077,
        -0.1572214812040329,
        0.2434387356042862,
        0.10796882957220078,
        0.008440564386546612,
        -0.017874106764793396,
        0.39928776025772095,
        -0.06397271156311035,
        0.23235908150672913,
        -0.09254608303308487,
        0.30091795325279236,
        -0.35104456543922424,
        -0.2176162749528885,
        -0.037063222378492355,
        0.07428837567567825,
        -0.13526618480682373,
        -0.3189672827720642,
        0.1273680329322815,
        -0.14173777401447296,
        0.05980173125863075,
        0.300568550825119,
        -0.11567987501621246,
        0.19039586186408997,
        0.24582131206989288,
        -0.3331550657749176,
        0.04174331575632095,
        -0.2557428181171417,
        0.22374603152275085,
        0.030806362628936768,
        0.11621381342411041,
        -0.06156068295240402,
        -0.06452054530382156,
        0.29801303148269653,
        0.0028117874171584845,
        0.10397391766309738,
        0.1511392891407013,
        0.19836369156837463,
        -0.014274095185101032,
        -0.33264607191085815,
        -0.2569689452648163,
        -0.3400871455669403,
        -0.2982487082481384,
        0.19358545541763306,
        0.23636017739772797,
        0.03075200878083706,
        0.02444467321038246,
        -0.029974250122904778,
        0.10005391389131546,
        0.3464943468570709,
        -0.26463547348976135,
        0.3972935080528259,
        0.07380402088165283,
        0.26762107014656067,
        -0.17248964309692383,
        -0.019613690674304962,
        0.009760064072906971,
        -0.14252501726150513,
        0.2841084897518158,
        -0.061109378933906555,
        0.3095025420188904,
        0.4339838922023773,
        0.39811018109321594,
        -0.05324164405465126,
        0.3035728633403778,
        0.09392677247524261,
        -0.04449662193655968,
        -0.28708380460739136,
        -0.15328973531723022,
        -0.31694817543029785,
        0.2971738278865814,
        -0.0109963184222579,
        -0.005018171388655901,
        0.09715591371059418,
        0.19572025537490845,
        0.15433745086193085,
        -0.1301209181547165,
        -0.3132573068141937,
        0.09979438036680222,
        0.009241214953362942,
        0.03513777256011963,
        -0.18824952840805054,
        -0.11950123310089111,
        0.24802637100219727,
        0.2884024977684021,
        -0.093155138194561,
        0.056930530816316605,
        -0.2891102731227875,
        0.36427852511405945,
        0.0078032901510596275,
        0.4831739366054535,
        -0.3970350921154022,
        -0.15070320665836334,
        0.3893703520298004,
        0.4587487578392029,
        -0.14928770065307617,
        0.2740722894668579,
        -0.12947328388690948,
        0.4010026454925537,
        -0.5448779463768005,
        -0.039063502103090286,
        -0.370116651058197,
        0.06529602408409119,
        -0.03547488898038864,
        -0.23578688502311707,
        0.20117415487766266,
        -0.4233388900756836,
        -0.02730865776538849,
        -0.1838122010231018,
        -0.24663564562797546,
        -0.378121942281723,
        0.1641572117805481,
        -0.35503989458084106,
        -0.4228733479976654,
        -0.02065914124250412,
        0.27730879187583923,
        0.11563200503587723,
        0.029535721987485886,
        -0.20820531249046326,
        0.33631303906440735,
        -0.11082792282104492,
        -0.20571991801261902,
        0.2783992290496826,
        -0.36761364340782166,
        0.028503989800810814,
        0.15265338122844696,
        0.2596311569213867,
        -0.29748061299324036,
        0.22612787783145905,
        0.4238317906856537,
        0.06694582849740982,
        0.016651161015033722,
        0.148459792137146,
        0.07089843600988388,
        0.004952291492372751,
        -0.16810676455497742,
        -0.0058088889345526695,
        0.44252803921699524,
        -0.4167380630970001,
        0.3007643222808838,
        -0.390297532081604,
        -0.34292539954185486,
        -0.18607845902442932,
        0.20685900747776031,
        -0.14293067157268524,
        -0.41168633103370667,
        -0.3577193319797516,
        0.13961049914360046,
        0.0035955687053501606,
        0.2617912292480469,
        -0.23065704107284546,
        0.5624271035194397,
        0.11104468256235123,
        -0.2562136948108673,
        0.30633822083473206,
        -0.08700388669967651,
        0.3171226978302002,
        0.016539476811885834,
        0.15413148701190948,
        -0.1740264594554901,
        0.08191586285829544,
        0.07691305130720139,
        0.056555114686489105,
        -0.2529832124710083,
        -0.04600295051932335,
        0.07328314334154129,
        -0.04213602840900421,
        -0.4185865521430969,
        -0.13812725245952606,
        -0.07880505174398422,
        -0.044803909957408905,
        0.14305508136749268,
        0.1499014049768448,
        -0.34108489751815796,
        -0.10652793943881989,
        0.21445025503635406,
        0.12555575370788574,
        0.00042294879676774144,
        -0.18128854036331177,
        0.30860140919685364,
        0.25125646591186523,
        0.005969593767076731,
        -0.17825230956077576,
        0.0499679259955883,
        -0.14443036913871765,
        0.09979742765426636,
        -0.3498513996601105,
        0.26681119203567505,
        -0.5110649466514587,
        0.043645307421684265,
        -0.053143151104450226,
        0.3140930235385895,
        -0.22913551330566406,
        -0.45710086822509766,
        -0.1007315069437027,
        0.12404321879148483,
        -0.0861598327755928,
        0.08274149149656296,
        -0.4262832999229431,
        0.5374792814254761,
        -0.3250890076160431,
        0.29357895255088806,
        -0.17622257769107819,
        -0.0037826490588486195,
        0.06702408939599991,
        -0.22596360743045807,
        0.03227612376213074,
        0.2431230992078781,
        -0.3313867151737213,
        0.05996077507734299,
        -0.11888349056243896,
        0.16143007576465607,
        0.3120836615562439,
        0.3958631753921509,
        -0.31838279962539673,
        -0.03937874734401703,
        0.17475683987140656,
        0.26745301485061646,
        0.11330708116292953,
        -0.0679454505443573,
        -0.5927219390869141,
        0.33466818928718567,
        0.003698725253343582,
        0.3092959523200989,
        -0.08630978316068649,
        -0.4153696298599243,
        -0.06925049424171448,
        -0.4657523036003113,
        -0.12240368127822876,
        0.0529036670923233,
        -0.06540980935096741,
        0.41369712352752686,
        0.024219326674938202,
        -0.20907582342624664,
        0.22663909196853638,
        -0.10248282551765442,
        -0.09162507206201553,
        0.014214275404810905,
        0.048956289887428284,
        0.07975379377603531,
        -0.06676770746707916,
        -0.05488477647304535,
        0.11803636699914932,
        0.02638351544737816,
        -0.019119881093502045,
        0.04957210645079613,
        0.04649105668067932,
        0.047119539231061935,
        -0.051276545971632004,
        0.22743892669677734,
        0.04419206455349922,
        0.13986611366271973,
        -0.2693643569946289,
        0.013454139232635498,
        0.17596229910850525,
        0.04135216027498245,
        0.0801655575633049,
        -0.1823866218328476,
        0.03838155418634415,
        0.009529407136142254,
        0.1474752277135849,
        -0.15978874266147614,
        0.17292028665542603,
        -0.04691360145807266,
        0.00831620953977108,
        0.1243283599615097,
        0.04138606786727905,
        -0.24107663333415985,
        -0.021413011476397514,
        -0.18016020953655243,
        -0.0026035436894744635,
        -0.18503409624099731,
        0.1491672396659851,
        -0.028245283290743828,
        -0.13320699334144592,
        -0.2540597915649414,
        0.13894815742969513,
        -0.08969113975763321,
        0.10874287039041519,
        -0.07385758310556412,
        0.001429593889042735,
        -0.33252227306365967,
        0.0023633192759007215,
        0.019884172827005386,
        0.11533083021640778,
        -0.04526743292808533,
        -0.05146784335374832,
        0.03883186727762222,
        -0.024812905117869377,
        -0.07535764575004578,
        0.1359899789094925,
        0.052067629992961884,
        0.04601987078785896,
        0.26745060086250305,
        -0.08445665240287781,
        -0.3104972243309021,
        -0.019777342677116394,
        -0.03185106813907623,
        0.124071404337883,
        -0.2700858414173126,
        -0.12619948387145996,
        -0.04031441733241081,
        -0.062089163810014725,
        0.0028731240890920162,
        0.21820825338363647,
        -0.2932351529598236,
        -0.10368311405181885,
        -0.2573283612728119,
        -0.0071756839752197266,
        -0.17507164180278778,
        0.012507813982665539,
        -0.09271358698606491,
        -0.0943344458937645,
        -0.10336557030677795,
        0.08176592737436295,
        -0.0616949126124382,
        0.03306007385253906,
        0.24197618663311005,
        0.060402996838092804,
        0.0726243183016777,
        -0.20535847544670105,
        -0.05458502471446991,
        -0.021994922310113907,
        0.08221840113401413,
        0.0007654650835320354,
        -0.19282852113246918,
        -0.00962224043905735,
        -0.020553598180413246,
        0.032016582787036896,
        -0.06377281248569489,
        -0.03024829737842083,
        0.06846746057271957,
        -0.13848549127578735,
        -0.07388179004192352,
        0.0353117436170578,
        0.03722847253084183,
        0.11225145310163498,
        0.09889230132102966,
        -0.1362743377685547,
        -0.10979160666465759,
        0.04030442237854004,
        -0.1640516221523285,
        0.14387109875679016,
        -0.061601780354976654,
        -0.13162526488304138,
        -0.08771151304244995,
        0.05765406787395477,
        0.1643913984298706,
        0.11005690693855286,
        -0.2548748254776001,
        0.1696871668100357,
        0.17435035109519958,
        -0.032290682196617126,
        0.14240282773971558,
        0.08010804653167725,
        -0.13427512347698212,
        0.2629120945930481,
        0.02037460170686245,
        -0.15637555718421936,
        -0.15729793906211853,
        0.012036841362714767,
        0.35071516036987305,
        0.20845571160316467,
        -0.10732386261224747,
        -0.230152428150177,
        -0.2669924795627594,
        -0.2047276794910431,
        0.35641106963157654,
        0.12694883346557617,
        -0.03315100073814392,
        -0.17992210388183594,
        -0.14495496451854706,
        0.07023411244153976,
        0.004504487384110689,
        0.022229352965950966,
        -0.04693206399679184,
        -0.05094761401414871,
        -0.04076850786805153,
        -0.13344869017601013,
        0.14710764586925507,
        0.2834838926792145,
        0.1135498434305191,
        -0.22655217349529266,
        0.14857518672943115,
        0.02705172821879387,
        -0.017267558723688126,
        0.08865934610366821,
        0.17673951387405396,
        -0.048852622509002686,
        -0.38935327529907227,
        -0.12102306634187698,
        0.6093451976776123,
        -0.11944937705993652,
        -0.12454218417406082,
        -0.0023494018241763115,
        -0.16948704421520233,
        0.016278564929962158,
        -0.0438305027782917,
        0.23147417604923248,
        -0.04756072536110878,
        -0.19151043891906738,
        0.11016722768545151,
        0.03431786969304085,
        -0.043256159871816635,
        -0.014118327759206295,
        -0.11330538243055344,
        -0.05748477950692177,
        -0.14483045041561127,
        0.07259689271450043,
        0.11548366397619247,
        0.1153952106833458,
        0.10630746185779572,
        -0.0551898367702961,
        -0.260221004486084,
        0.0006495899287983775,
        0.10171041637659073,
        0.16957701742649078,
        -0.11674009263515472,
        -0.023884158581495285,
        0.10511752963066101,
        -0.12973035871982574,
        0.12382838129997253,
        0.23201684653759003,
        0.004207294899970293,
        -0.041292037814855576,
        0.016261518001556396,
        -0.019427431747317314,
        0.23944172263145447,
        0.20848165452480316,
        0.146495521068573,
        -0.09944197535514832,
        0.17071326076984406,
        -0.1180337592959404,
        -0.1637369841337204,
        0.089594267308712,
        0.018710868433117867,
        0.054128773510456085,
        -0.054418303072452545,
        0.08947227150201797,
        -0.25181010365486145,
        -0.33614104986190796,
        -0.1536349207162857,
        0.13553926348686218,
        0.26941046118736267,
        0.2325161099433899,
        -0.09683690220117569,
        0.056945864111185074,
        0.05506375804543495,
        -0.29736024141311646,
        -0.10547851026058197,
        0.01320655457675457,
        0.20690292119979858,
        0.21112731099128723,
        -0.11514166742563248,
        -0.20598605275154114,
        -0.3010193407535553,
        0.09188253432512283,
        0.13182514905929565,
        0.27055391669273376,
        -0.07048917561769485,
        -0.19153018295764923,
        -0.2565079629421234,
        0.14624081552028656,
        0.24912942945957184,
        0.29061785340309143,
        0.13181962072849274,
        -0.22944007813930511,
        -0.1959495097398758,
        -0.12986887991428375,
        0.23847250640392303,
        0.2971285283565521,
        -0.010156452655792236,
        -0.2187345027923584,
        -0.2904241383075714,
        -0.007359818089753389,
        0.27981212735176086,
        0.012145268730819225,
        -0.22244901955127716,
        -0.11360316723585129,
        0.16415390372276306,
        0.015132098458707333,
        -0.17706593871116638,
        0.19071823358535767,
        -0.06519908457994461,
        -0.29989340901374817,
        -0.008533881045877934,
        0.32162413001060486,
        -0.12781918048858643,
        -0.09691552817821503,
        0.045615412294864655,
        -0.051726240664720535,
        -0.06786151975393295,
        0.07560917735099792,
        0.08892014622688293,
        0.023733340203762054,
        -0.050880417227745056,
        -0.0021360586397349834,
        0.007663743104785681,
        0.09217105060815811,
        0.13549883663654327,
        0.07959286868572235,
        -0.02880907617509365,
        0.10581832379102707,
        0.02625349722802639,
        -0.06342281401157379,
        0.047196391969919205,
        0.17320407927036285,
        -0.1851903200149536,
        -0.11738655716180801,
        0.021228747442364693,
        -0.06234579160809517,
        0.1193249374628067,
        0.2283863127231598,
        0.14859621226787567,
        -0.0402885377407074,
        0.07736436277627945,
        -0.04922773316502571,
        -0.029368972405791283,
        0.15119406580924988,
        0.09212871640920639,
        0.02848130464553833,
        0.08270671963691711,
        -0.11692608147859573,
        0.09121222794055939,
        0.19411258399486542,
        0.06281725317239761,
        0.05794806033372879,
        0.028965573757886887,
        -0.11585600674152374,
        0.1289438009262085,
        0.05989134684205055,
        0.10406114906072617,
        -0.19538716971874237,
        0.05861632898449898,
        0.06884400546550751,
        -0.2286696583032608,
        0.2132263481616974,
        0.1737830489873886,
        0.006264275871217251,
        0.005103181581944227,
        0.20552845299243927,
        0.13034027814865112,
        -0.26853516697883606,
        -0.16282591223716736,
        0.2677087187767029,
        0.22984923422336578,
        0.05890200287103653,
        0.07202814519405365,
        -0.19516488909721375,
        0.12744463980197906,
        0.33385059237480164,
        0.31617769598960876,
        0.10287020355463028,
        -0.17046138644218445,
        -0.0716930478811264,
        -0.13843217492103577,
        0.2502395808696747,
        0.16672740876674652,
        0.10628128051757812,
        -0.3338280916213989,
        -0.18696819245815277,
        -0.11873608827590942,
        0.12151630222797394,
        0.17802365124225616,
        0.02467108890414238,
        -0.17669442296028137,
        -0.13657332956790924,
        -0.14213481545448303,
        0.24814321100711823,
        0.20870666205883026,
        0.1398623287677765,
        -0.1627943217754364,
        -0.16457131505012512,
        0.0424841083586216,
        0.39383381605148315,
        -0.21515315771102905,
        0.005103759001940489,
        -0.031480442732572556,
        -0.3686046004295349,
        -0.08277527987957001,
        0.2134682685136795,
        0.08334578573703766,
        0.1050257533788681,
        -0.4481894075870514,
        -0.027124280110001564,
        0.16344988346099854,
        0.20958103239536285,
        0.1291620135307312,
        -0.08417855203151703,
        -0.10081891715526581,
        -0.20157542824745178,
        -0.04938992112874985,
        0.2810363173484802,
        -0.050815898925065994,
        -0.08935938775539398,
        -0.03691314533352852,
        0.036992982029914856,
        -0.24054016172885895,
        -0.04552260786294937,
        0.13043613731861115,
        -0.009545821696519852,
        -0.2315799742937088,
        -0.0004663481086026877,
        -0.12149601429700851,
        0.10346762835979462,
        0.03979146108031273,
        0.06123485788702965,
        -0.19187432527542114,
        -0.002251057419925928,
        -0.20475590229034424,
        0.24832618236541748,
        0.1258852183818817,
        0.13210748136043549,
        -0.1521064192056656,
        0.07886084914207458,
        -0.22361212968826294,
        0.10414797812700272,
        -0.015454810112714767,
        0.08472533524036407,
        0.016540035605430603,
        -0.11587372422218323,
        -0.1481371819972992,
        0.13322392106056213,
        -0.22588534653186798,
        -0.09326600283384323,
        -0.04795856773853302,
        0.0013593380572274327,
        -0.02704642526805401,
        0.2856167256832123,
        -0.0885673463344574,
        0.12356226146221161,
        -0.10033033043146133,
        0.19336442649364471,
        0.1309962421655655,
        -0.0958535298705101,
        -0.18572133779525757,
        -0.12767499685287476,
        -0.07251976430416107,
        0.2507804036140442,
        0.1427934616804123,
        0.0758301392197609,
        0.19506041705608368,
        0.06604461371898651,
        0.0296011995524168,
        0.10572837293148041,
        0.14003895223140717,
        0.10085226595401764,
        -0.11034781485795975,
        0.051543835550546646,
        0.1186194196343422,
        0.11775485426187515,
        0.03084757551550865,
        -0.03033120185136795,
        -0.13253064453601837,
        -0.14192797243595123,
        0.13642209768295288,
        0.01977473311126232,
        -0.04822216182947159,
        0.07152129709720612,
        -0.05695876479148865,
        0.04296613857150078,
        -0.09737634658813477,
        0.05942493677139282,
        -0.00017116426897700876,
        -0.1658613085746765,
        -0.003112370613962412,
        -0.1132766604423523,
        0.14089612662792206,
        0.0769684910774231,
        0.21666942536830902,
        -0.016997791826725006,
        0.053782396018505096,
        -0.01346602663397789,
        -0.14046508073806763,
        0.0965653732419014,
        0.0012835715897381306,
        -0.0691472738981247,
        0.10401231795549393,
        -0.03362790122628212,
        -0.24605384469032288,
        0.31482431292533875,
        -0.13650572299957275,
        0.07418029010295868,
        -0.31720656156539917,
        0.27968233823776245,
        0.019018972292542458,
        -0.17871618270874023,
        0.2152642160654068,
        -0.1225481852889061,
        0.3212510943412781,
        -0.11267045140266418,
        -0.1579720675945282,
        0.2679276764392853,
        0.04183804243803024,
        -0.3138572573661804,
        -0.006464746315032244,
        -0.35471615195274353,
        0.2614210247993469,
        0.013842043466866016,
        0.23409812152385712,
        0.06432712078094482,
        -0.18301831185817719,
        -0.17537803947925568,
        0.418258398771286,
        -0.21204662322998047,
        0.4322563707828522,
        -0.11769882589578629,
        0.11069115251302719,
        -0.368201345205307,
        0.08888851851224899,
        -0.29077211022377014,
        0.38250285387039185,
        -0.0004708038177341223,
        0.2687820792198181,
        -0.45209893584251404,
        0.06964042782783508,
        0.04295092076063156,
        0.12596093118190765,
        -0.3007580041885376,
        -0.2660180330276489,
        0.3390910029411316,
        -0.008867532946169376,
        -0.08681516349315643,
        0.1557656079530716,
        -0.0782470554113388,
        -0.8376638889312744,
        0.4927709400653839,
        0.43956512212753296,
        -0.15659670531749725,
        0.21347488462924957,
        -0.09708841145038605,
        0.08509498089551926,
        0.010575476102530956,
        -0.05478687584400177,
        -0.028438378125429153,
        -0.11734361946582794,
        0.11464099586009979,
        -0.14760349690914154,
        0.019646359607577324,
        0.013108518905937672,
        0.18748612701892853,
        -0.12699154019355774,
        -0.15207630395889282,
        -0.030523156747221947,
        0.20261143147945404,
        -0.10258574038743973,
        0.04138386622071266,
        0.03466186299920082,
        0.1864246428012848,
        -0.09867067635059357,
        0.2504558861255646,
        0.03625898435711861,
        0.028293214738368988,
        -0.171592578291893,
        0.16986824572086334,
        -0.06823304295539856,
        -0.007091468200087547,
        -0.02841227315366268,
        0.1893610805273056,
        -0.20283310115337372,
        0.00856785848736763,
        -0.028295973315835,
        0.24359887838363647,
        -0.06714917719364166,
        0.07100524008274078,
        -0.1813088059425354,
        0.042150504887104034,
        0.015400447882711887,
        -0.24508054554462433,
        -0.0192435123026371,
        0.08888589590787888,
        -0.12877359986305237,
        -0.010030127130448818,
        0.04651375859975815,
        -0.15838198363780975,
        0.14938364923000336,
        0.02199142798781395,
        0.11778568476438522,
        0.028321852907538414,
        0.12564164400100708,
        -0.0714055597782135,
        -0.15599532425403595,
        -0.11179438978433609,
        0.10384097695350647,
        0.24926555156707764,
        0.01589842326939106,
        0.15114252269268036,
        0.018034489825367928,
        0.18764334917068481,
        0.029126141220331192,
        -0.15241014957427979,
        -0.05977896228432655,
        0.21733663976192474,
        -0.09867360442876816,
        0.004213294945657253,
        -0.13501274585723877,
        0.20078636705875397,
        0.10428281873464584,
        0.21597161889076233,
        -0.0024075775872915983,
        0.1735486537218094,
        -0.21614165604114532,
        -0.005402919836342335,
        -0.19314438104629517,
        0.19530610740184784,
        -0.06450032442808151,
        0.0055457656271755695,
        -0.10474089533090591,
        0.04029481112957001,
        -0.18034271895885468,
        0.24749396741390228,
        0.03854762762784958,
        -0.08393771201372147,
        -0.17225569486618042,
        0.13802050054073334,
        0.08827938884496689,
        -0.11223655194044113,
        -0.07515354454517365,
        0.08120894432067871,
        -0.06315430998802185,
        -0.03631819039583206,
        -0.004128221422433853,
        -0.04277275502681732,
        0.3710843622684479,
        -0.11131678521633148,
        -0.053703226149082184,
        -0.22527846693992615,
        0.09918492287397385,
        0.12313292175531387,
        0.0575844869017601,
        0.09485764801502228,
        0.04149673134088516,
        -0.13488294184207916,
        0.03747660294175148,
        0.14166460931301117,
        0.03399055451154709,
        0.10057444870471954,
        0.0628436729311943,
        -0.05167310684919357,
        -0.043578777462244034,
        -0.12693391740322113,
        0.2217947095632553,
        -0.06550400704145432,
        -0.11989253759384155,
        -0.05240688472986221,
        -0.09807436913251877,
        -0.15823888778686523,
        0.08243178576231003,
        -0.09437894076108932,
        0.06162981688976288,
        0.07280959188938141,
        0.03784988820552826,
        0.12042374908924103,
        -0.029606228694319725,
        0.11479496955871582,
        0.12621603906154633,
        -0.04739440605044365,
        0.03490183502435684,
        -0.2321886122226715,
        -0.09072348475456238,
        0.05413953214883804,
        -0.06400174647569656,
        0.04700266569852829,
        -0.05267014354467392,
        -0.07229191809892654,
        -0.13250719010829926,
        0.12020735442638397,
        -0.04703717678785324,
        -0.045852914452552795,
        0.1035478264093399,
        -0.1248893216252327,
        -0.2089950442314148,
        -0.09596879780292511,
        -0.09344206750392914,
        -0.02608182467520237,
        -0.0661492645740509,
        0.020318740978837013,
        -0.02449229545891285,
        0.23825931549072266,
        -0.0024191115517169237,
        0.055951379239559174,
        -0.005239502061158419,
        -0.07190189510583878,
        -0.019178206101059914,
        0.09130846709012985,
        0.00756936427205801,
        0.14874383807182312,
        -0.11254949122667313,
        0.015487010590732098,
        0.02487144246697426,
        0.040294863283634186,
        0.11140614002943039,
        -0.02234518527984619,
        0.0372469499707222,
        0.029712777584791183,
        0.05424518510699272,
        0.052386920899152756,
        -0.040956102311611176,
        -0.0020361540373414755,
        0.060382843017578125,
        -0.14597807824611664,
        0.17587997019290924,
        0.03211122751235962,
        0.0919746682047844,
        -0.11571089923381805,
        -0.021114416420459747,
        -0.06307269632816315,
        -0.00510396109893918,
        0.006114616524428129,
        0.0004466881218831986,
        -0.10527496039867401,
        0.16101735830307007,
        0.16507351398468018,
        -0.10595479607582092,
        0.09789815545082092,
        0.02546318806707859,
        -0.18181851506233215,
        -0.13393937051296234,
        -0.10388010740280151,
        -0.1287020891904831,
        0.002635744633153081,
        -0.10632795095443726,
        -0.056543365120887756,
        -0.14736080169677734,
        0.18104450404644012,
        -0.10413520783185959,
        -0.1805891990661621,
        0.2134273499250412,
        0.18928562104701996,
        0.011060381308197975,
        -0.04228245094418526,
        -0.20907306671142578,
        -0.09674035757780075,
        0.3073141574859619,
        -0.234391987323761,
        0.273990273475647,
        -0.24429039657115936,
        -0.14616243541240692,
        -0.12105143815279007,
        0.14517585933208466,
        0.17032842338085175,
        0.1672973483800888,
        -0.2234077751636505,
        -0.016802042722702026,
        -0.13891859352588654,
        -0.05338365212082863,
        0.04003310948610306,
        0.023102443665266037,
        -0.19188036024570465,
        -0.05707193538546562,
        -0.16767780482769012,
        0.19746071100234985,
        0.27353620529174805,
        0.26503294706344604,
        -0.004494866356253624,
        -0.14183947443962097,
        -0.08820914477109909,
        0.2263038009405136,
        -0.0008045044960454106,
        -0.1756959855556488,
        0.05737976357340813,
        0.07100215554237366,
        -0.3410271406173706,
        0.07266158610582352,
        -0.12189656496047974,
        0.13060477375984192,
        -0.13205313682556152,
        0.5369390845298767,
        -0.09294330328702927,
        0.0036001179832965136,
        -0.08597707003355026,
        0.08533924072980881,
        0.22536395490169525,
        0.12053245306015015,
        0.012944167479872704,
        0.04270824417471886,
        -0.020851939916610718,
        0.04005223885178566,
        0.11003628373146057,
        -0.009186144918203354,
        -0.17172546684741974,
        0.1501157283782959,
        0.05232320353388786,
        0.008354262448847294,
        -0.19744572043418884,
        0.09701274335384369,
        -0.07784119248390198,
        0.02061861753463745,
        -0.29470157623291016,
        0.11971502751111984,
        -0.26841673254966736,
        -0.10127167403697968,
        -0.1021050214767456,
        0.06262459605932236,
        -0.046200066804885864,
        -0.09931771457195282,
        0.09621644765138626,
        0.20078019797801971,
        -0.026367345824837685,
        0.20142702758312225,
        -0.17653340101242065,
        -0.0006412336369976401,
        -0.10773157328367233,
        0.10071519017219543,
        -0.1578330248594284,
        -0.05357617512345314,
        -0.002376585267484188,
        0.0350714735686779,
        0.14273107051849365,
        -0.13361002504825592,
        0.025930404663085938,
        -0.0014524307334795594,
        -0.051622599363327026,
        0.16127686202526093,
        0.1346641480922699,
        0.033590927720069885,
        0.2000499665737152,
        0.2742372453212738,
        0.03843226283788681,
        0.20824302732944489,
        -0.1838942915201187,
        0.07767859846353531,
        0.040100276470184326,
        0.12886841595172882,
        -0.11627310514450073,
        -0.020264843478798866,
        0.0009791153715923429,
        0.013270837254822254,
        0.045435111969709396,
        0.22776822745800018,
        0.20741654932498932,
        -0.1473405510187149,
        -0.33652734756469727,
        0.24198992550373077,
        0.6440320611000061,
        -0.4013502299785614,
        0.40345653891563416,
        -0.7409849762916565,
        -0.7532586455345154,
        -0.7385839223861694,
        0.9891061782836914,
        -0.5701971650123596,
        -0.5945601463317871,
        -1.1783555746078491,
        0.38837331533432007,
        -0.6328425407409668,
        0.24563488364219666,
        -0.6026450991630554,
        -0.1099635511636734,
        -0.10872459411621094,
        0.31812503933906555,
        0.25672611594200134,
        0.10266198217868805,
        0.02862219139933586,
        -0.43161967396736145,
        -0.18965904414653778,
        -0.05624754726886749,
        0.1151590570807457,
        -0.09223401546478271,
        -0.10791884362697601,
        0.20999835431575775,
        0.11822117120027542,
        0.12351558357477188,
        0.09248603135347366,
        0.15195022523403168,
        -0.17048002779483795,
        -0.00793664250522852,
        0.13615691661834717,
        -0.18927501142024994,
        0.297192245721817,
        -0.0586417131125927,
        -0.15511567890644073,
        0.20875407755374908,
        -0.06125342473387718,
        -0.031586360186338425,
        0.06826537102460861,
        0.04594385623931885,
        0.19505374133586884,
        -0.03267282992601395,
        0.18720833957195282,
        -0.02261001244187355,
        -0.30092716217041016,
        -0.03561528027057648,
        0.2048765867948532,
        -0.054905034601688385,
        0.2667231857776642,
        0.0035093107726424932,
        -0.1925644874572754,
        0.08948688954114914,
        0.19965879619121552,
        -0.4249681234359741,
        -0.38050001859664917,
        0.17650429904460907,
        0.23643818497657776,
        0.28322309255599976,
        0.15741389989852905,
        -0.09591338783502579,
        0.36633405089378357,
        -0.4956205487251282,
        -0.5464791655540466,
        -0.20994456112384796,
        -0.21142028272151947,
        0.2181055098772049,
        0.4025120735168457,
        -0.5395100712776184,
        -0.21807557344436646,
        0.36899325251579285,
        0.4586888551712036,
        -0.21621565520763397,
        -0.4269428551197052,
        -0.14679136872291565,
        -0.22183601558208466,
        0.18945832550525665,
        0.10793415457010269,
        -0.25702691078186035,
        -0.27617502212524414,
        0.20872461795806885,
        -0.05660131946206093,
        0.10064038634300232,
        0.3327176570892334,
        -0.10720564424991608,
        -0.13781610131263733,
        0.05159610137343407,
        0.28438588976860046,
        -0.30630823969841003,
        -0.16694924235343933,
        -0.16642935574054718,
        -0.24277304112911224,
        -0.33642542362213135,
        0.12627512216567993,
        -0.383549302816391,
        -0.1843021810054779,
        0.18874239921569824,
        -0.31940776109695435,
        0.16946563124656677,
        -0.02640463411808014,
        0.025467023253440857,
        0.06520377099514008,
        0.06518007814884186,
        0.022769615054130554,
        -0.27910110354423523,
        -0.2306308150291443,
        -0.07454361766576767,
        -0.14777766168117523,
        0.4063279926776886,
        -0.34694531559944153,
        0.16899223625659943,
        -0.00816097017377615,
        0.005976471584290266,
        0.4235728085041046,
        -0.17506659030914307,
        0.05748947337269783,
        0.1927323192358017,
        -0.41260501742362976,
        -0.1002398207783699,
        0.1778140664100647,
        0.14679014682769775,
        0.20102907717227936,
        0.04401888698339462,
        0.29672086238861084,
        0.03263643756508827,
        -0.01074135024100542,
        0.1896982192993164,
        0.134054034948349,
        0.19402967393398285,
        -0.1345052570104599,
        -0.2630090117454529,
        -0.17166094481945038,
        0.14782202243804932,
        0.4507865309715271,
        -0.3236342668533325,
        -0.07091471552848816,
        0.02974129654467106,
        0.11935487389564514,
        0.1938919723033905,
        0.18167921900749207,
        0.2194714993238449,
        0.0006127347587607801,
        -0.052839815616607666,
        0.06835769861936569,
        -0.24817505478858948,
        0.05936171114444733,
        -0.01533766184002161,
        -0.24521790444850922,
        0.1887466460466385,
        0.05321664735674858,
        0.03422006964683533,
        -0.18867817521095276,
        0.16364963352680206,
        0.325641930103302,
        0.13833989202976227,
        0.3012983500957489,
        -0.28160467743873596,
        0.3384079337120056,
        -0.3343036472797394,
        -0.1799875646829605,
        0.3988385796546936,
        -0.4136255085468292,
        0.27316832542419434,
        0.35041555762290955,
        -0.3798297345638275,
        -0.5006058216094971,
        0.496626615524292,
        0.6111974716186523,
        -0.37078195810317993,
        -0.3437814712524414,
        -0.1494913101196289,
        -0.4724659025669098,
        -0.1971747726202011,
        -0.20594537258148193,
        -0.05374663695693016,
        0.07385315001010895,
        0.01808794029057026,
        -0.06381438672542572,
        -0.05182845517992973,
        -0.15759433805942535,
        0.26536574959754944,
        0.2666284143924713,
        -0.4049490690231323,
        -0.14881303906440735,
        0.23275581002235413,
        0.11414302885532379,
        0.1594662070274353,
        0.19540071487426758,
        0.11620399355888367,
        0.28246206045150757,
        -0.10587675124406815,
        -0.11920883506536484,
        -0.1327817589044571,
        -0.04001505672931671,
        -0.09912679344415665,
        0.25938910245895386,
        -0.20203039050102234,
        -0.09505767375230789,
        0.13294610381126404,
        -0.14634969830513,
        0.0007562373648397624,
        -0.10582154989242554,
        -0.09424585849046707,
        -0.15330415964126587,
        0.17940138280391693,
        -0.43572238087654114,
        -0.28395792841911316,
        0.2789207398891449,
        -0.24590137600898743,
        0.24871650338172913,
        -0.022837640717625618,
        0.18242783844470978,
        -0.011659695766866207,
        -0.3158166706562042,
        -0.20658960938453674,
        -0.15822097659111023,
        0.2966889441013336,
        0.11436755210161209,
        0.023961732164025307,
        0.1914156824350357,
        0.13249395787715912,
        -0.026646653190255165,
        -0.1803334802389145,
        0.31113043427467346,
        -0.2986845076084137,
        0.09234174340963364,
        0.035471878945827484,
        -0.05933161824941635,
        0.16505667567253113,
        0.130294531583786,
        -0.06415455043315887,
        -0.12740378081798553,
        0.2057272344827652,
        0.24495519697666168,
        0.25828245282173157,
        0.04866515472531319,
        -0.03728103265166283,
        0.1589837670326233,
        -0.18391260504722595,
        -0.16354620456695557,
        -0.4755563735961914,
        -0.09208112955093384,
        0.41632992029190063,
        0.05731009319424629,
        -0.19937172532081604,
        0.047150153666734695,
        -0.13678735494613647,
        -0.011350908316671848,
        -0.14965689182281494,
        0.08122458308935165,
        0.37129491567611694,
        0.22369487583637238,
        0.32270073890686035,
        -0.3750590980052948,
        0.10461294651031494,
        0.2386055290699005,
        -0.21874314546585083,
        0.19627855718135834,
        -0.3356570899486542,
        0.18759043514728546,
        0.29847952723503113,
        -0.19049562513828278,
        -0.006653987802565098,
        -0.04659483954310417,
        -0.07370372861623764,
        0.4005679190158844,
        -0.05211205407977104,
        0.0022742825094610453,
        -0.20689459145069122,
        -0.0949028804898262,
        0.03178089112043381,
        0.004981220234185457,
        -0.1070035845041275,
        0.16514915227890015,
        0.040380533784627914,
        0.21933157742023468,
        -0.03584642708301544,
        0.1712476909160614,
        0.12238939106464386,
        -0.13645510375499725,
        0.05130938068032265,
        -0.3477528691291809,
        -0.15572383999824524,
        -0.09229676425457001,
        0.14616167545318604,
        -0.15996485948562622,
        0.031120777130126953,
        0.0793842226266861,
        -0.14753273129463196,
        0.022593079134821892,
        0.06715598702430725,
        -0.09635463356971741,
        0.02600776217877865,
        -0.014234079979360104,
        -0.07582442462444305,
        -0.19135946035385132,
        0.0028131231665611267,
        0.11912377178668976,
        -0.11932163685560226,
        0.04267323389649391,
        0.1476895660161972,
        -0.1290404498577118,
        0.009487331844866276,
        -0.04629305750131607,
        0.13805153965950012,
        0.14022521674633026,
        -0.04408450424671173,
        -0.10914269089698792,
        0.010729547590017319,
        0.06501958519220352,
        0.11021707952022552,
        -0.03170643001794815,
        0.16149257123470306,
        -0.09841345995664597,
        -0.03137324005365372,
        -0.06915582716464996,
        0.012686456553637981,
        -0.13843777775764465,
        -0.030903255566954613,
        -0.09154606610536575,
        0.04892066493630409,
        -0.06791931390762329,
        0.09265726804733276,
        -0.027351906523108482,
        0.03168495371937752,
        0.016380805522203445,
        0.16218066215515137,
        -0.007096376270055771,
        -0.12392066419124603,
        0.1690727323293686,
        -0.12672433257102966,
        0.12582585215568542,
        -0.10237069427967072,
        -0.1015843078494072,
        -0.20231814682483673,
        -0.07444437593221664,
        0.08022939413785934,
        -0.2680121958255768,
        0.242243230342865,
        0.11334306001663208,
        0.08568347245454788,
        -0.032942816615104675,
        -0.018807707354426384,
        0.05729767680168152,
        0.16981439292430878,
        -0.018087606877088547,
        0.11192065477371216,
        -0.05636781081557274,
        0.03379358351230621,
        0.05358976498246193,
        0.07580092549324036,
        -0.18167905509471893,
        -0.03484877198934555,
        -0.29698315262794495,
        -0.19283773005008698,
        -0.152855783700943,
        0.14296899735927582,
        0.022207394242286682,
        -0.2063124030828476,
        0.04129103571176529,
        0.15377815067768097,
        0.17714649438858032,
        0.2788393199443817,
        0.05659503862261772,
        -0.07806076109409332,
        -0.18400390446186066,
        -0.10658255219459534,
        -0.02640741504728794,
        0.026764817535877228,
        0.07393163442611694,
        -0.17341922223567963,
        0.08188784867525101,
        -0.008712777867913246,
        -0.2452429085969925,
        0.11877089738845825,
        0.18742536008358002,
        0.06450862437486649,
        0.11154020577669144,
        -0.07382404804229736,
        -0.21668709814548492,
        -0.2622964680194855,
        -0.4202955365180969,
        -0.08478248119354248,
        0.02174661122262478,
        -0.04550478607416153,
        0.018845919519662857,
        -0.04822544753551483,
        -0.06746833026409149,
        0.20978344976902008,
        -0.03423045203089714,
        0.07648168504238129,
        -0.07525982707738876,
        -0.015586238354444504,
        0.018064837902784348,
        -0.0349227637052536,
        0.16595458984375,
        0.05398173630237579,
        -0.23946118354797363,
        -0.11277399957180023,
        0.018362239003181458,
        0.10108248889446259,
        0.05965115502476692,
        -0.07247527688741684,
        -0.045151062309741974,
        -0.054723020642995834,
        -0.05021265149116516,
        0.163876473903656,
        0.15578225255012512,
        0.14926952123641968,
        -0.23151755332946777,
        -0.327848881483078,
        -0.06395290046930313,
        0.022876106202602386,
        0.1048358604311943,
        0.08657556027173996,
        -0.0827275812625885,
        -0.02728733792901039,
        0.026813047006726265,
        0.2535437047481537,
        -0.12844525277614594,
        -0.007591290399432182,
        0.24424727261066437,
        0.06904721260070801,
        -0.049344148486852646,
        0.15710540115833282,
        -0.2309524118900299,
        -0.09431374818086624,
        0.2877211272716522,
        -0.07027438282966614,
        0.23092827200889587,
        -0.15420156717300415,
        -0.03600415959954262,
        0.08378372341394424,
        -0.13969334959983826,
        0.20219413936138153,
        0.21969622373580933,
        -0.25055253505706787,
        -0.0028440095484256744,
        -0.14686855673789978,
        0.04828091338276863,
        -0.006374749355018139,
        -0.3254692852497101,
        0.1799800544977188,
        -0.09104352444410324,
        -0.04771890118718147,
        0.30667921900749207,
        0.22294892370700836,
        0.06990058720111847,
        -0.26282134652137756,
        -0.06314738094806671,
        0.4972972869873047,
        0.027471743524074554,
        0.09202108532190323,
        0.04380132630467415,
        -0.12875546514987946,
        -0.19483089447021484,
        -0.1901593804359436,
        0.04700986668467522,
        0.1520145982503891,
        0.14938999712467194,
        -0.19910863041877747,
        0.0313725620508194,
        -0.061591845005750656,
        0.09360906481742859,
        0.0650205984711647,
        -0.08205026388168335,
        -0.1910562962293625,
        0.16339483857154846,
        -0.05670676380395889,
        -0.15470747649669647,
        -0.036150623112916946,
        -0.21993179619312286,
        -0.15695343911647797,
        0.04726296290755272,
        0.07751008123159409,
        -0.0880800262093544,
        -0.022326629608869553,
        -0.1461639255285263,
        -0.019926879554986954,
        -0.22607199847698212,
        0.009724325500428677,
        0.18789616227149963,
        -0.0947466790676117,
        0.08879709988832474,
        0.14186906814575195,
        0.06650540977716446,
        0.1644384115934372,
        -0.23768146336078644,
        -0.1741994023323059,
        0.02948334999382496,
        -0.2088535726070404,
        0.11334352940320969,
        0.04815522953867912,
        -0.1994570791721344,
        -0.260183185338974,
        -0.09639876335859299,
        0.28631553053855896,
        0.3696076571941376,
        0.10930531471967697,
        0.035284291952848434,
        -0.14649628102779388,
        -0.15894456207752228,
        0.2614399492740631,
        0.19553229212760925,
        0.09763982146978378,
        -0.1331123411655426,
        -0.1866639405488968,
        -0.03633470460772514,
        0.2866702079772949,
        0.15856069326400757,
        0.08470755815505981,
        -0.29541632533073425,
        -0.19140887260437012,
        0.06146656721830368,
        0.20193076133728027,
        -0.1877668797969818,
        -0.10857187956571579,
        0.34717199206352234,
        -0.21439200639724731,
        -0.26474103331565857,
        0.40196895599365234,
        -0.06372979283332825,
        -0.07928261905908585,
        0.02910672500729561,
        0.39224717020988464,
        0.3456365168094635,
        -0.24065029621124268,
        0.40670540928840637,
        0.060655780136585236,
        -0.42901158332824707,
        0.3004731237888336,
        -0.007349388208240271,
        -0.4612072706222534,
        -0.37257906794548035,
        -0.395267516374588,
        0.42818477749824524,
        -0.16845014691352844,
        -0.365787535905838,
        0.3001974821090698,
        -0.45338714122772217,
        -0.07441715151071548,
        0.48100027441978455,
        0.24568498134613037,
        0.23796220123767853,
        -0.34524005651474,
        -0.4694155156612396,
        0.3834482431411743,
        0.4194858968257904,
        0.43555548787117004,
        0.03265604376792908,
        -0.5115245580673218,
        -0.4165682792663574,
        -0.07925866544246674,
        0.4519331753253937,
        0.39060571789741516,
        0.13308337330818176,
        -0.43239861726760864,
        -0.3167150318622589,
        -0.060277145355939865,
        0.485729843378067,
        0.4286630153656006,
        -0.06709471344947815,
        -0.5007097125053406,
        0.3039091229438782,
        0.10263710469007492,
        -0.41862064599990845,
        0.2689961791038513,
        -0.2866944670677185,
        -0.6233296990394592,
        0.5434223413467407,
        0.13511590659618378,
        -0.3629808723926544,
        0.1983940303325653,
        -0.5706332325935364,
        -0.062387190759181976,
        0.18024185299873352,
        -0.10097616910934448,
        -0.07169512659311295,
        0.26962992548942566,
        -0.24912461638450623,
        -0.05580040439963341,
        -0.2670328915119171,
        0.3788873553276062,
        0.016900135204195976,
        -0.27031517028808594,
        0.3470119535923004,
        -0.029028236865997314,
        -0.24700221419334412,
        0.13357572257518768,
        -0.058958619832992554,
        0.18152089416980743,
        -0.11588173359632492,
        -0.1009516566991806,
        0.4043949544429779,
        -0.5053344368934631,
        -0.15368354320526123,
        0.06439580768346786,
        -0.01719498261809349,
        0.2590109705924988,
        -0.2922303080558777,
        0.3792560398578644,
        -0.12430127710103989,
        0.011923880316317081,
        -0.23129767179489136,
        -0.07919250428676605,
        -0.26694610714912415,
        -0.013951068744063377,
        -0.09871421754360199,
        -0.04049134999513626,
        -0.10662389546632767,
        0.13276679813861847,
        0.14630679786205292,
        -0.17766837775707245,
        0.10692128539085388,
        -0.4144442081451416,
        0.06639295071363449,
        0.2206568717956543,
        0.35613855719566345,
        -0.2828509509563446,
        -0.06196809932589531,
        -0.17083580791950226,
        0.04301358759403229,
        -0.0845346450805664,
        0.038112200796604156,
        0.09975221008062363,
        0.19954995810985565,
        -0.16159212589263916,
        0.08746804296970367,
        0.024356801062822342,
        -0.08087408542633057,
        -0.07936649769544601,
        -0.10884891450405121,
        -0.1389729082584381,
        0.07144773006439209,
        -0.21380753815174103,
        0.06804283708333969,
        0.10009655356407166,
        -0.18887336552143097,
        -0.1713661551475525,
        0.00023033982142806053,
        0.1566663384437561,
        0.014261920936405659,
        0.12728576362133026,
        0.06416737288236618,
        -0.06525665521621704,
        -0.002237557200714946,
        -0.03593279793858528,
        -0.02460290491580963,
        0.09131345897912979,
        -0.24873290956020355,
        0.012655206024646759,
        -0.13519872725009918,
        0.041642121970653534,
        0.06734706461429596,
        0.008877343498170376,
        -0.16449406743049622,
        -0.019466402009129524,
        0.09473878145217896,
        0.2576068341732025,
        -0.15207739174365997,
        -0.051882173866033554,
        0.18644866347312927,
        0.13673391938209534,
        -0.18108494579792023,
        -0.08685494214296341,
        -0.19910424947738647,
        -0.004582506604492664,
        0.18157252669334412,
        -0.020002858713269234,
        -0.237178236246109,
        -0.008104140870273113,
        0.17722269892692566,
        -0.05060306563973427,
        -0.07391121238470078,
        0.13762159645557404,
        0.09998657554388046,
        -0.133397176861763,
        -0.05758712440729141,
        0.2108728438615799,
        0.20247136056423187,
        -0.04671640694141388,
        0.01757209189236164,
        0.003016404341906309,
        -0.1037391871213913,
        -0.04826238378882408,
        0.08612696081399918,
        0.22230276465415955,
        -0.08582770824432373,
        -0.1078914925456047,
        -0.2689376473426819,
        -0.3398717939853668,
        0.046320900321006775,
        0.2083217054605484,
        -0.014225860126316547,
        0.0035168554168194532,
        -0.07744167745113373,
        0.1099889799952507,
        0.18107637763023376,
        0.16915133595466614,
        0.02848430536687374,
        -0.14847016334533691,
        -0.06054398790001869,
        0.07161621004343033,
        -0.012554586865007877,
        -0.0013739477144554257,
        0.12199875712394714,
        -0.1587432324886322,
        0.1451127529144287,
        -0.005655638407915831,
        0.0017643802566453815,
        0.07371276617050171,
        0.2180878072977066,
        -0.13238628208637238,
        0.18522445857524872,
        -0.05172641575336456,
        -0.2077433317899704,
        -0.09952249377965927,
        -0.0221339650452137,
        -0.45183196663856506,
        0.04696511849761009,
        0.08623404055833817,
        -0.0024543763138353825,
        0.1134612038731575,
        0.055361099541187286,
        0.07810283452272415,
        -0.05787809193134308,
        0.011435284279286861,
        0.022726334631443024,
        0.017156099900603294,
        -0.0709543451666832,
        0.13447391986846924,
        -0.06487119197845459,
        0.019449589774012566,
        0.08664356172084808,
        -0.18049786984920502,
        -0.0807388499379158,
        -0.35610654950141907,
        -0.18659737706184387,
        -0.11429402232170105,
        -0.3416540324687958,
        0.02467223070561886,
        -0.08198832720518112,
        0.10716934502124786,
        0.09072427451610565,
        -0.09268882125616074,
        0.12115561217069626,
        0.19865140318870544,
        0.09498675912618637,
        -0.04777366667985916,
        -0.16474072635173798,
        0.15172740817070007,
        -0.08226463943719864,
        -0.007154545281082392,
        -0.08034172654151917,
        -0.19506512582302094,
        0.03575519844889641,
        -0.07680780440568924,
        -0.03607640042901039,
        0.060296520590782166,
        0.21733726561069489,
        0.03584743291139603,
        0.03170657530426979,
        -0.08176570385694504,
        -0.3426295816898346,
        -0.028845010325312614,
        -0.030969753861427307,
        -0.09892034530639648,
        0.06498810648918152,
        0.13513268530368805,
        0.0762486457824707,
        0.1524931937456131,
        0.1365281641483307,
        0.06001179292798042,
        0.018402570858597755,
        0.09779652208089828,
        0.19683465361595154,
        0.2671331763267517,
        -0.0047630020417273045,
        0.16957342624664307,
        -0.09189298748970032,
        -0.057835184037685394,
        0.04677312821149826,
        0.17975887656211853,
        0.2264558970928192,
        -0.19645017385482788,
        -0.07868440449237823,
        -0.013809357769787312,
        -0.06149535998702049,
        0.0913306400179863,
        0.18843333423137665,
        -0.028173083439469337,
        -0.1282072812318802,
        -0.06865251064300537,
        0.10276470333337784,
        0.17575711011886597,
        0.06510153412818909,
        0.02634691260755062,
        -0.03889499977231026,
        -0.1390087604522705,
        0.08746103942394257,
        0.12526363134384155,
        0.08049733936786652,
        -0.14108417928218842,
        0.17309698462486267,
        -0.07549663633108139,
        -0.15595142543315887,
        -0.04911056533455849,
        0.20137818157672882,
        -0.1556084156036377,
        0.11437605321407318,
        -0.08740727603435516,
        -0.12529727816581726,
        0.09618248790502548,
        -0.20392698049545288,
        0.3532930016517639,
        -0.008351527154445648,
        -0.10988950729370117,
        0.10783553868532181,
        -0.03719429299235344,
        -0.16458521783351898,
        0.15281587839126587,
        -0.11990335583686829,
        0.1511520892381668,
        -0.027176033705472946,
        0.007119142450392246,
        0.18548214435577393,
        -0.07961868494749069,
        -0.09618715196847916,
        -0.08521561324596405,
        -0.10581742972135544,
        -0.007502264808863401,
        0.0548047311604023,
        0.16279295086860657,
        0.23050570487976074,
        -0.22864437103271484,
        -0.013634615577757359,
        -0.1769336760044098,
        -0.04588121548295021,
        -0.08204404264688492,
        -0.1038113534450531,
        0.04994236305356026,
        -0.22156129777431488,
        -0.1989038586616516,
        -0.30678775906562805,
        -0.02521010860800743,
        0.1780189424753189,
        0.06447042524814606,
        0.07833757996559143,
        -0.012316114269196987,
        -0.03214379772543907,
        0.05541137978434563,
        -0.11039014160633087,
        -0.17804372310638428,
        0.24649855494499207,
        -0.14827872812747955,
        -0.26595091819763184,
        0.19695594906806946,
        0.016246439889073372,
        -0.16160686314105988,
        -0.06592432409524918,
        0.49213337898254395,
        -0.22867056727409363,
        0.45882219076156616,
        0.2042086273431778,
        0.08345912396907806,
        -0.19778990745544434,
        0.059770867228507996,
        -0.19513998925685883,
        -0.050422247499227524,
        -0.13039667904376984,
        0.10574577748775482,
        0.08137446641921997,
        0.12824253737926483,
        0.2389633059501648,
        0.13267108798027039,
        -0.0801573395729065,
        0.04488835856318474,
        0.1824008822441101,
        0.04800353944301605,
        0.12768007814884186,
        -0.13502506911754608,
        -0.09229891747236252,
        -0.500783383846283,
        -0.014402861706912518,
        0.1620144248008728,
        -0.03430493175983429,
        0.023194747045636177,
        -0.2139112949371338,
        0.1163891926407814,
        0.07638342678546906,
        0.24657019972801208,
        0.11828746646642685,
        0.022830959409475327,
        -0.15550516545772552,
        -0.06971465796232224,
        0.09421596676111221,
        0.006084497086703777,
        0.06911727786064148,
        -0.22169549763202667,
        0.17798331379890442,
        0.11101135611534119,
        -0.025393329560756683,
        -0.1527014821767807,
        0.354297012090683,
        -0.2530648112297058,
        0.305496484041214,
        -0.03712146356701851,
        0.035456910729408264,
        -0.10882500559091568,
        0.04518110305070877,
        -0.34481361508369446,
        0.14822109043598175,
        -0.051060713827610016,
        -0.15739963948726654,
        0.18940283358097076,
        0.12957246601581573,
        -0.16723011434078217,
        -0.10990799963474274,
        -0.1052737608551979,
        0.27800992131233215,
        0.021242016926407814,
        -0.06090874597430229,
        0.24597607553005219,
        -0.08845791220664978,
        -0.07335928082466125,
        0.03948388993740082,
        0.03208006173372269,
        0.008368022739887238,
        -0.0992501825094223,
        -0.18304644525051117,
        0.17122094333171844,
        -0.19823716580867767,
        0.08827365934848785,
        0.12373087555170059,
        -0.04488075524568558,
        -0.035247333347797394,
        -0.15373772382736206,
        0.198446124792099,
        0.13119487464427948,
        0.10453874617815018,
        -0.21819379925727844,
        -0.14730410277843475,
        -0.04222903400659561,
        0.06787959486246109,
        -0.018013402819633484,
        0.09796283394098282,
        -0.1220472902059555,
        0.11776238679885864,
        0.17086169123649597,
        -0.21042095124721527,
        0.03628873825073242,
        0.07322562485933304,
        -0.08438187092542648,
        -0.06992396712303162,
        -0.05514397844672203,
        -0.16997885704040527,
        0.25525978207588196,
        0.26765111088752747,
        0.35103073716163635,
        0.07057839632034302,
        0.020157640799880028,
        0.23136624693870544,
        -0.06771882623434067,
        -0.09506027400493622,
        0.05996251106262207,
        -0.09926560521125793,
        -0.11984971165657043,
        -0.053519971668720245,
        -0.014123927801847458,
        0.04674522951245308,
        -0.06282055377960205,
        0.07952957600355148,
        0.010545303113758564,
        -0.256410151720047,
        -0.053121328353881836,
        0.036588285118341446,
        -0.003919570706784725,
        -0.017461184412240982,
        -0.08881140500307083,
        -0.10293561965227127,
        0.029220029711723328,
        -0.19643114507198334,
        0.15284833312034607,
        0.09766264259815216,
        0.049350306391716,
        -0.02160431072115898,
        -0.09390762448310852,
        -0.03288024291396141,
        0.1049015074968338,
        -0.027318237349390984,
        0.08956089615821838,
        -0.17236021161079407,
        -0.08273591101169586,
        -0.09887880086898804,
        0.05023232474923134,
        -0.08517876267433167,
        -0.17125864326953888,
        0.1986769586801529,
        0.022235868498682976,
        -0.29796290397644043,
        0.09929443895816803,
        -0.004545770585536957,
        0.08898220956325531,
        0.05913157016038895,
        0.005201445426791906,
        0.20659732818603516,
        0.24640630185604095,
        -0.030331948772072792,
        0.07184245437383652,
        0.23472820222377777,
        -0.22770166397094727,
        0.04642375558614731,
        0.06471028178930283,
        0.03400326520204544,
        0.1290145069360733,
        0.06934804469347,
        0.008170791901648045,
        0.16895173490047455,
        -0.02213900163769722,
        0.2048342078924179,
        -0.028565628454089165,
        -0.04866894707083702,
        -0.06893058866262436,
        -0.02484886907041073,
        0.11259378492832184,
        -0.01853538304567337,
        0.007923806086182594,
        0.18978680670261383,
        -0.07857965677976608,
        -0.07140226662158966,
        -0.03986198455095291,
        0.01223783940076828,
        -0.008100631646811962,
        -0.061358340084552765,
        -0.10074133425951004,
        -0.08905516564846039,
        0.11065208166837692,
        -0.020923230797052383,
        0.08044951409101486,
        0.03551478311419487,
        -0.23960544168949127,
        0.08663402497768402,
        -0.13448497653007507,
        -0.09036070853471756,
        0.10247767716646194,
        0.01962384209036827,
        0.22843009233474731,
        -0.09655680507421494,
        -0.09703142940998077,
        -0.2205449789762497,
        -0.011552316136658192,
        0.19499622285366058,
        0.102582648396492,
        0.046946048736572266,
        0.08464370667934418,
        -0.06014009192585945,
        0.26507309079170227,
        -0.059350721538066864,
        -0.07761725783348083,
        -0.04099362716078758,
        0.08152294158935547,
        0.012739468365907669,
        0.09774992614984512,
        -0.05930930748581886,
        -0.25215545296669006,
        0.12449610233306885,
        -0.19622641801834106,
        -0.14631545543670654,
        -0.3195035457611084,
        -0.5192704200744629,
        0.493404358625412,
        0.4520195424556732,
        -0.658715546131134,
        0.5193281769752502,
        -0.41675469279289246,
        -0.09185127168893814,
        0.6292538642883301,
        -0.8913353681564331,
        0.939789891242981,
        0.680651068687439,
        0.07625691592693329,
        -0.36788877844810486,
        -0.030443383380770683,
        -0.454222708940506,
        -0.03714422881603241,
        0.09214010834693909,
        0.13483478128910065,
        -0.09501603245735168,
        -0.05842550843954086,
        0.7068617343902588,
        0.013202091678977013,
        -0.06701819598674774,
        0.21065282821655273,
        0.2527793347835541,
        0.16380652785301208,
        0.10583111643791199,
        -0.04364233836531639,
        0.009181318804621696,
        -0.23704518377780914,
        -0.15148264169692993,
        0.04144466668367386,
        0.21754637360572815,
        -0.03759155794978142,
        0.06732649356126785,
        0.1732383519411087,
        0.033669523894786835,
        -0.08127368241548538,
        -0.25905048847198486,
        0.07452940940856934,
        0.281014084815979,
        0.031322721391916275,
        -0.15465523302555084,
        -0.009181351400911808,
        0.09683027118444443,
        -0.11345726996660233,
        0.021985676139593124,
        -0.04118959233164787,
        -0.022679265588521957,
        -0.003202974796295166,
        -0.1465553492307663,
        0.49847090244293213,
        -0.4553605914115906,
        0.18049554526805878,
        -0.09356670826673508,
        -0.11427012830972672,
        0.21145716309547424,
        -0.24289432168006897,
        0.3022593557834625,
        0.14139237999916077,
        -0.42735931277275085,
        -0.13101926445960999,
        0.2281433492898941,
        0.394848108291626,
        -0.25793933868408203,
        0.2369467318058014,
        -0.07660825550556183,
        0.05321558192372322,
        0.09251102805137634,
        -0.17226636409759521,
        0.19251097738742828,
        0.05819427967071533,
        -0.2714397609233856,
        0.20173287391662598,
        0.07599464803934097,
        0.0340457446873188,
        0.20246350765228271,
        0.5418094396591187,
        -0.3004503846168518,
        0.20680445432662964,
        -0.2857995927333832,
        0.1963708996772766,
        -0.05749468132853508,
        0.17488527297973633,
        0.09109856933355331,
        -0.12351588159799576,
        0.07482461631298065,
        -0.11327967047691345,
        -0.12519124150276184,
        -0.2177589237689972,
        -0.09163995087146759,
        -0.30414408445358276,
        -0.1904083639383316,
        0.198953315615654,
        -0.18399667739868164,
        0.007741996087133884,
        -0.07133282721042633,
        0.052989911288022995,
        -0.19899606704711914,
        0.03348231688141823,
        -0.0082316342741251,
        0.2969299852848053,
        0.1188725084066391,
        -0.2891913950443268,
        -0.17435990273952484,
        -0.12023552507162094,
        0.08590433746576309,
        -0.06975758075714111,
        0.17032669484615326,
        0.1990049183368683,
        0.062213972210884094,
        0.048772115260362625,
        0.12285389751195908,
        0.014774720184504986,
        0.12064273655414581,
        0.0649225190281868,
        -0.15736626088619232,
        -0.15618467330932617,
        -0.042723894119262695,
        -0.16663290560245514,
        0.28729474544525146,
        0.06974651664495468,
        -0.013916411437094212,
        0.013977582566440105,
        -0.12901899218559265,
        -0.08183252066373825,
        0.2739931046962738,
        0.05477271229028702,
        0.29557281732559204,
        -0.3289352357387543,
        0.006785594392567873,
        -0.24732086062431335,
        0.32690611481666565,
        0.5225098729133606,
        -0.27005741000175476,
        0.23527979850769043,
        0.06358175724744797,
        0.19683611392974854,
        0.019641049206256866,
        0.29637718200683594,
        0.287105917930603,
        0.0826839879155159,
        -0.22615456581115723,
        -0.19241192936897278,
        0.22347001731395721,
        -0.1029977798461914,
        0.16898563504219055,
        0.4466841518878937,
        -0.6478593945503235,
        -0.2550482451915741,
        0.06543081253767014,
        -0.021696561947464943,
        0.0835302397608757,
        -0.12889139354228973,
        0.17317034304141998,
        -0.2465035319328308,
        -0.07930529862642288,
        -0.03315815329551697,
        -0.003426790004596114,
        0.46780315041542053,
        -0.48206445574760437,
        -0.25292372703552246,
        0.08420628309249878,
        -0.13270632922649384,
        0.20187833905220032,
        -0.09193405508995056,
        -0.08658459782600403,
        -0.26550084352493286,
        -0.38074642419815063,
        0.2444988191127777,
        -0.10020072758197784,
        0.15936487913131714,
        0.11501003801822662,
        0.5228822827339172,
        -0.1301034539937973,
        0.1289152354001999,
        0.06724490970373154,
        -0.10034037381410599,
        -0.07779097557067871,
        0.2983573377132416,
        -0.4122615158557892,
        0.22266598045825958,
        -0.029238969087600708,
        0.21644838154315948,
        0.21594277024269104,
        -0.3134184777736664,
        0.13687516748905182,
        0.16925258934497833,
        -0.4148108661174774,
        -0.02636900544166565,
        0.3511585593223572,
        0.19343434274196625,
        0.0991290733218193,
        0.1394355744123459,
        -0.15779989957809448,
        0.053420767188072205,
        0.38927650451660156,
        0.2738114595413208,
        0.1804593801498413,
        -0.056681178510189056,
        -0.19287632405757904,
        -0.03472698852419853,
        0.09277857095003128,
        -0.1233007088303566,
        -0.32069236040115356,
        0.09552942961454391,
        0.062499016523361206,
        -0.46892184019088745,
        0.14382009208202362,
        -0.3758936822414398,
        0.4065300226211548,
        -0.21253915131092072,
        0.0034700108226388693,
        -0.5942126512527466,
        -0.32318857312202454,
        0.09773459285497665,
        0.29513707756996155,
        -0.18434369564056396,
        -0.08637342602014542,
        0.15886661410331726,
        0.43190792202949524,
        -0.24255456030368805,
        0.0708993598818779,
        -0.15445303916931152,
        0.2697582542896271,
        -0.26104116439819336,
        0.27602967619895935,
        0.014742986299097538,
        -0.3590765595436096,
        -0.03623833507299423,
        -0.19581039249897003,
        0.03387010842561722,
        0.20030535757541656,
        0.05143243819475174,
        -0.16664540767669678,
        -0.031148049980401993,
        0.3084157705307007,
        -0.1968136876821518,
        -0.04148947820067406,
        -0.058034498244524,
        0.1710975021123886,
        -0.14442768692970276,
        0.07892760634422302,
        -0.20310616493225098,
        -0.05330430343747139,
        0.09943009912967682,
        -0.21686773002147675,
        0.23948635160923004,
        0.20702315866947174,
        0.05967782065272331,
        0.20446957647800446,
        -0.05110107362270355,
        0.0851435512304306,
        -0.11260943859815598,
        -0.13379208743572235,
        -0.17368564009666443,
        0.2300044596195221,
        -0.12018869072198868,
        0.02639974281191826,
        -0.16675004363059998,
        -0.35360187292099,
        0.031187554821372032,
        -0.24040508270263672,
        -0.04264582321047783,
        0.3261796832084656,
        0.27515891194343567,
        0.24792322516441345,
        -0.14379389584064484,
        -0.022801782935857773,
        -0.13157396018505096,
        0.06781746447086334,
        -0.14180271327495575,
        -0.04677198827266693,
        0.16127854585647583,
        0.05821365490555763,
        -0.18445689976215363,
        0.22715331614017487,
        0.13102592527866364,
        0.19792187213897705,
        -0.35810986161231995,
        -0.09973277151584625,
        0.11364784836769104,
        0.14349527657032013,
        0.1859867423772812,
        0.016053250059485435,
        0.05798092484474182,
        0.06068198382854462,
        0.2955482006072998,
        -0.02249756269156933,
        0.1840817630290985,
        -0.069485142827034,
        0.042375270277261734,
        0.13435707986354828,
        0.08254588395357132,
        -0.06021617352962494,
        0.06451534479856491,
        -0.1024436503648758,
        -0.18307630717754364,
        -0.187347874045372,
        -0.17930303514003754,
        -0.16360367834568024,
        -0.1439182609319687,
        -0.10599489510059357,
        0.05458974093198776,
        0.16671937704086304,
        0.18830880522727966,
        -0.01671932078897953,
        -0.07617352902889252,
        0.037355195730924606,
        0.23941077291965485,
        -0.0373196080327034,
        0.0030634086579084396,
        -0.01985708810389042,
        0.10041681677103043,
        -0.006998983211815357,
        -0.019856220111250877,
        -0.26097387075424194,
        -0.08217541128396988,
        0.028289783746004105,
        0.22888417541980743,
        -0.03193643316626549,
        -0.14927509427070618,
        -0.18296672403812408,
        -0.053188256919384,
        -0.31532371044158936,
        0.08261755853891373,
        0.021288828924298286,
        -0.011264178901910782,
        -0.1336575746536255,
        -0.19188107550144196,
        0.08815018087625504,
        0.03718574717640877,
        0.09761056303977966,
        0.11751670390367508,
        0.07583943009376526,
        0.08097991347312927,
        0.11845371127128601,
        0.12615975737571716,
        0.3918861746788025,
        -0.14827992022037506,
        -0.044998105615377426,
        0.09385097026824951,
        -0.6403161287307739,
        0.055400997400283813,
        -0.3334323763847351,
        0.23303312063217163,
        0.06613008677959442,
        -0.05510737746953964,
        0.026439683511853218,
        0.07501824200153351,
        -0.19946765899658203,
        -0.10900812596082687,
        -0.13202814757823944,
        -0.022411171346902847,
        -0.0008148138877004385,
        -0.02614503912627697,
        -0.0435032919049263,
        -0.1286582499742508,
        -0.04141673073172569,
        0.2555869519710541,
        -0.10430072993040085,
        -0.053075965493917465,
        -0.1328761726617813,
        0.3827463984489441,
        0.20152638852596283,
        0.19639374315738678,
        -0.251636803150177,
        0.1251128613948822,
        -0.24761176109313965,
        -0.0482354611158371,
        -0.20181749761104584,
        0.09860970079898834,
        -0.10341722518205643,
        0.08721615374088287,
        0.05426131933927536,
        -0.03401115909218788,
        -0.18122486770153046,
        0.13470503687858582,
        0.05716563016176224,
        -0.03581776097416878,
        0.1154397502541542,
        0.0031197229400277138,
        -0.02114500291645527,
        0.17948873341083527,
        -0.14713740348815918,
        0.2079826295375824,
        0.2821682095527649,
        0.11820290237665176,
        -0.16492988169193268,
        -0.39343971014022827,
        0.12833288311958313,
        -0.2659568786621094,
        0.02437528222799301,
        0.02119859866797924,
        0.16802313923835754,
        0.04351920634508133,
        -0.032131537795066833,
        0.03426515311002731,
        -0.3236709237098694,
        -0.2500646710395813,
        0.037343308329582214,
        0.11569379270076752,
        0.17661099135875702,
        -0.19318519532680511,
        0.16292929649353027,
        -0.13071726262569427,
        0.11472690105438232,
