{
    "version": "0.5.0",
    "architecture": "WaveNet",
    "config": {
        "layers": [
            {
                "input_size": 1,
                "condition_size": 1,
                "head_size": 8,
                "channels": 16,
                "kernel_size": 3,
                "dilations": [
                    1,
                    2,
                    4,
                    8,
                    16,
                    32,
                    64,
                    128,
                    256,
                    512
                ],
                "activation": "Tanh",
                "gated": false,
                "head_bias": false
            },
            {
                "input_size": 16,
                "condition_size": 1,
                "head_size": 1,
                "channels": 8,
                "kernel_size": 3,
                "dilations": [
                    1,
                    2,
                    4,
                    8,
                    16,
                    32,
                    64,
                    128,
                    256,
                    512
                ],
                "activation": "Tanh",
                "gated": false,
                "head_bias": true
            }
        ],
        "head": null,
        "head_scale": 0.02
    },
    "weights": [
        0.0013320344733074307,
        0.460597425699234,
        -0.6445392370223999,
        -0.6833062171936035,
        -0.23857545852661133,
        0.3067169785499573,
        -0.000730355444829911,
        0.8558758497238159,
        -0.09334416687488556,
        0.2683125138282776,
        -0.2758200764656067,
        -0.052816398441791534,
        -0.8973463773727417,
        -0.6668195128440857,
        -0.2681144177913666,
        0.006250514183193445,
        -0.04565563425421715,
        -0.09312931448221207,
        -0.04111065715551376,
        0.15571774542331696,
        0.12922687828540802,
        -0.10308218002319336,
        -0.2536272704601288,
        0.030038533732295036,
        0.19735316932201385,
        -0.20771825313568115,
        0.05371904373168945,
        0.09151943773031235,
        -0.301447331905365,
        -0.10566084831953049,
        0.16831569373607635,
        0.3557000756263733,
        -0.00819643959403038,
        -0.2785983681678772,
        -0.14340141415596008,
        -0.24481584131717682,
        0.022127147763967514,
        0.3461836278438568,
        0.1355922371149063,
        -0.1622450202703476,
        -0.16929572820663452,
        -0.10761263966560364,
        0.28263822197914124,
        0.0833287462592125,
        -0.0321708582341671,
        -0.30187517404556274,
        -0.11915403604507446,
        0.021229805424809456,
        0.17176753282546997,
        -0.22143417596817017,
        -0.021757284179329872,
        0.31169769167900085,
        -0.16453778743743896,
        -0.054743822664022446,
        0.3248192071914673,
        -0.30520203709602356,
        -0.04584098607301712,
        0.11844716966152191,
        -0.30766522884368896,
        -0.1358911693096161,
        0.3008330166339874,
        0.08304800093173981,
        -0.08451545983552933,
        -0.0006893884856253862,
        0.11784692853689194,
        0.05692216753959656,
        -0.06153259426355362,
        -0.1261630356311798,
        0.040255434811115265,
        0.33367714285850525,
        0.05532154440879822,
        0.0011115858796983957,
        -0.1342104822397232,
        0.28212159872055054,
        0.17453940212726593,
        -0.07176841795444489,
        0.188310444355011,
        -0.0758008360862732,
        -0.1792125552892685,
        -0.2562927007675171,
        -0.19050787389278412,
        0.31480860710144043,
        0.03794568404555321,
        -0.22324620187282562,
        -0.1912354826927185,
        -0.18969491124153137,
        -0.07140812277793884,
        0.13777780532836914,
        0.19670864939689636,
        -0.06404124945402145,
        -0.17689424753189087,
        -0.09306619316339493,
        0.05014590546488762,
        0.24966983497142792,
        0.010639922693371773,
        -0.056294940412044525,
        -0.14013542234897614,
        0.16783195734024048,
        -0.052379995584487915,
        -0.23345082998275757,
        0.3006378412246704,
        0.1472720503807068,
        -0.2620863616466522,
        0.12859369814395905,
        -0.08753722161054611,
        -0.20325052738189697,
        0.04699857905507088,
        -0.07170620560646057,
        -0.21567416191101074,
        -0.004132443573325872,
        -0.09200093895196915,
        0.07099546492099762,
        0.002628388348966837,
        0.10868728160858154,
        0.10229050368070602,
        -0.20268866419792175,
        0.06407806277275085,
        -0.14856787025928497,
        0.09218946844339371,
        -0.07047804445028305,
        0.21165747940540314,
        0.08543866872787476,
        -0.17286144196987152,
        0.227873757481575,
        -0.056271377950906754,
        -0.17718347907066345,
        0.12820777297019958,
        -0.1453414410352707,
        0.05133163556456566,
        -0.27683529257774353,
        -0.10588950663805008,
        -0.15342867374420166,
        -0.1792379468679428,
        -0.08337008953094482,
        0.20276951789855957,
        -0.1809222251176834,
        0.09637393802404404,
        -0.07308294624090195,
        0.22945727407932281,
        0.006304741837084293,
        0.22436530888080597,
        -0.08276930451393127,
        0.2212529182434082,
        -0.09896259009838104,
        0.04604940116405487,
        0.0035231057554483414,
        -0.025905640795826912,
        0.1010793074965477,
        0.0029589510522782803,
        -0.21175087988376617,
        0.026877466589212418,
        -0.04373415932059288,
        -0.12778732180595398,
        0.24459227919578552,
        0.15334592759609222,
        -0.23122921586036682,
        0.25995558500289917,
        -0.0650826096534729,
        -0.02211548015475273,
        -0.040736764669418335,
        -0.2433617115020752,
        -0.1933002471923828,
        -0.2568006217479706,
        -0.07613024860620499,
        -0.1488344371318817,
        0.10942158102989197,
        -0.10400955379009247,
        0.18616224825382233,
        -0.23588360846042633,
        -0.05260895565152168,
        0.25758376717567444,
        -0.16846241056919098,
        0.08130942285060883,
        0.1688218116760254,
        -0.24847818911075592,
        0.1329100877046585,
        -0.14621947705745697,
        0.04379989951848984,
        0.13783317804336548,
        -0.03620122745633125,
        0.05174838751554489,
        0.009823624044656754,
        -0.027174727991223335,
        0.15450727939605713,
        0.01887453719973564,
        0.14653809368610382,
        -0.18357622623443604,
        0.01797868311405182,
        -0.23770669102668762,
        0.20143170654773712,
        0.0663437694311142,
        0.21634884178638458,
        -0.22818370163440704,
        -0.05320968106389046,
        0.025558611378073692,
        -0.14927075803279877,
        -0.12412652373313904,
        0.17977505922317505,
        -0.19762027263641357,
        -0.04612020403146744,
        0.1339551955461502,
        -0.021809684112668037,
        -0.14869199693202972,
        0.021995127201080322,
        -0.20442380011081696,
        0.0699554905295372,
        -0.08462909609079361,
        0.08704308420419693,
        -0.09157482534646988,
        0.06302184611558914,
        -0.09905512630939484,
        -0.16931866109371185,
        0.17720520496368408,
        -0.08733034133911133,
        0.13472053408622742,
        -0.14383716881275177,
        -0.060744624584913254,
        0.06394761800765991,
        -0.04579653963446617,
        -0.06274718791246414,
        0.11904365569353104,
        -0.017576558515429497,
        0.1003471314907074,
        -0.12867552042007446,
        0.03426554799079895,
        0.020004231482744217,
        0.019630340859293938,
        0.28774601221084595,
        0.246662899851799,
        -0.1610475331544876,
        0.16582868993282318,
        0.06315319985151291,
        0.13087397813796997,
        -0.013630004599690437,
        0.1427116096019745,
        -0.21691741049289703,
        0.2316151261329651,
        -0.14237579703330994,
        0.07645338773727417,
        -0.11417720466852188,
        0.10449183732271194,
        0.22826696932315826,
        -0.18005819618701935,
        0.02921442873775959,
        0.21122021973133087,
        -0.3023684620857239,
        0.15782982110977173,
        0.018336625769734383,
        -0.16028323769569397,
        0.029987378045916557,
        0.05431468039751053,
        -0.1372871994972229,
        0.17342497408390045,
        0.05764710530638695,
        -0.06788849830627441,
        0.14455130696296692,
        -0.13816708326339722,
        0.06149650365114212,
        -0.05900523439049721,
        -0.15082690119743347,
        0.05202064290642738,
        -0.07224712520837784,
        0.12073168158531189,
        -0.029438959434628487,
        0.20634901523590088,
        0.002886309754103422,
        -0.17783387005329132,
        0.20298925042152405,
        0.16697227954864502,
        -0.0902889221906662,
        0.09271533787250519,
        -0.11620239168405533,
        -0.0003560433106031269,
        -0.1277162730693817,
        -0.08379422873258591,
        -0.13665390014648438,
        0.22483417391777039,
        -0.1426735669374466,
        0.12096184492111206,
        -0.1234247162938118,
        0.058769334107637405,
        -0.1980280727148056,
        0.07756119221448898,
        0.06403623521327972,
        0.1546427309513092,
        -0.04781682789325714,
        0.006777006201446056,
        -0.08222045749425888,
        0.1426657736301422,
        0.04782626032829285,
        -0.2213982194662094,
        0.16567015647888184,
        0.09363327920436859,
        -0.14084643125534058,
        0.12843716144561768,
        -0.039724744856357574,
        -0.03716852143406868,
        0.055744171142578125,
        0.1045679897069931,
        -0.1761312633752823,
        0.09867456555366516,
        0.05793415382504463,
        -0.05838701128959656,
        0.07928222417831421,
        -0.05779839679598808,
        -0.28397876024246216,
        -0.1834193468093872,
        -0.10282587260007858,
        0.20127633213996887,
        -0.05798875167965889,
        0.03753669559955597,
        -0.17112460732460022,
        0.09137997031211853,
        0.10995122045278549,
        -0.09198039770126343,
        0.13945332169532776,
        0.08836717903614044,
        -0.1379868984222412,
        0.10905709117650986,
        -0.14619600772857666,
        0.1521676927804947,
        -0.030447794124484062,
        -0.21212032437324524,
        -0.16312238574028015,
        -0.003777890931814909,
        -0.03346853330731392,
        0.22891108691692352,
        -0.028619760647416115,
        0.2294311821460724,
        -0.17634201049804688,
        -0.04462137445807457,
        -0.2941095530986786,
        0.27222827076911926,
        0.03258205205202103,
        0.06713555753231049,
        -0.07994497567415237,
        0.163945272564888,
        0.2771870195865631,
        -0.03265104442834854,
        0.11673536896705627,
        0.12788310647010803,
        -0.19582673907279968,
        0.16453160345554352,
        0.24466228485107422,
        -0.2302071750164032,
        0.17751649022102356,
        0.22863085567951202,
        -0.06014685705304146,
        -0.03817751631140709,
        0.2068282514810562,
        -0.09967360645532608,
        0.19244864583015442,
        0.08779015392065048,
        0.120486319065094,
        0.11690932512283325,
        0.11818165332078934,
        -0.1254122108221054,
        0.19701078534126282,
        -0.14892129600048065,
        0.111271433532238,
        -0.22178910672664642,
        -0.1960005909204483,
        -0.03752246871590614,
        -0.013066672720015049,
        0.029150521382689476,
        0.2061631679534912,
        -0.010037029162049294,
        -0.08149759471416473,
        -0.1747158169746399,
        0.10003888607025146,
        -0.02166079916059971,
        0.07672569900751114,
        -0.14995227754116058,
        -0.013919010758399963,
        -0.21459513902664185,
        0.050138816237449646,
        0.07499409466981888,
        0.17314296960830688,
        -0.03044612891972065,
        0.16798700392246246,
        0.05812159180641174,
        0.09460015594959259,
        0.007559665013104677,
        0.19870828092098236,
        -0.08555630594491959,
        0.1160011738538742,
        0.16395585238933563,
        -0.006554699037224054,
        -0.10402864962816238,
        0.14424575865268707,
        -0.11271246522665024,
        -0.09010695666074753,
        -0.0076871998608112335,
        -0.21183419227600098,
        -0.15997527539730072,
        0.16542065143585205,
        -0.027962829917669296,
        -0.20456549525260925,
        -0.1973748505115509,
        -0.05157368630170822,
        0.07298959791660309,
        -0.10575374960899353,
        -0.12880933284759521,
        0.1738140881061554,
        0.13238640129566193,
        -0.23308664560317993,
        0.08868555724620819,
        0.03147973492741585,
        0.07049475610256195,
        0.03620992228388786,
        -0.15661320090293884,
        0.10539630055427551,
        0.08272622525691986,
        -0.06330201029777527,
        0.02772677317261696,
        -0.0004333324613980949,
        0.03784472122788429,
        -0.15210092067718506,
        -0.0448274202644825,
        0.006860916968435049,
        -0.03779787942767143,
        -0.04221327230334282,
        0.07964485883712769,
        -0.06456662714481354,
        0.046614475548267365,
        -0.1679847687482834,
        0.14219434559345245,
        -0.06797368079423904,
        0.0036877573002129793,
        -0.08651653677225113,
        -0.13924944400787354,
        -0.008305183611810207,
        0.2657146751880646,
        -0.024163218215107918,
        -0.1878434270620346,
        0.026927810162305832,
        -0.015767671167850494,
        -0.18443720042705536,
        0.2014586478471756,
        -0.1764308214187622,
        -0.2115962952375412,
        -0.008172580972313881,
        -0.07037843763828278,
        0.03327757865190506,
        0.0034780853893607855,
        0.06967557221651077,
        -0.12413869798183441,
        -0.010817175731062889,
        0.1566925197839737,
        -0.016993746161460876,
        0.2461046576499939,
        -0.02500568889081478,
        0.2736662030220032,
        -0.018243420869112015,
        -0.007296827621757984,
        -0.02034122869372368,
        0.09354919195175171,
        0.16658782958984375,
        -0.2501135468482971,
        0.05204803869128227,
        -0.049905452877283096,
        -0.188579723238945,
        0.12416046857833862,
        -0.20196421444416046,
        0.18571622669696808,
        -0.007742235437035561,
        0.18654607236385345,
        0.08538585901260376,
        0.14369623363018036,
        -0.13979552686214447,
        0.19826534390449524,
        0.04540390148758888,
        0.1778479367494583,
        -0.1190863773226738,
        0.17535758018493652,
        -0.23587827384471893,
        0.008069169707596302,
        -0.029414022341370583,
        0.020546795800328255,
        -0.05349598079919815,
        0.00650070933625102,
        0.03999236971139908,
        -0.24159201979637146,
        0.13793130218982697,
        0.07793116569519043,
        -0.02553105540573597,
        0.18239106237888336,
        0.17549139261245728,
        -0.12934596836566925,
        0.05225363373756409,
        0.0580235980451107,
        -0.11021772027015686,
        0.17212815582752228,
        -0.15855126082897186,
        0.06325596570968628,
        0.026022573933005333,
        -0.0402822345495224,
        -0.11708440631628036,
        0.1745114028453827,
        0.15603837370872498,
        0.029043886810541153,
        -0.0006792147760279477,
        0.03843159228563309,
        -0.08283466100692749,
        0.22263939678668976,
        -0.10570904612541199,
        -0.1187119260430336,
        0.16540274024009705,
        -0.06746082007884979,
        -0.1088041439652443,
        0.06696072965860367,
        0.12275870889425278,
        0.13011252880096436,
        -0.15318870544433594,
        0.1386764794588089,
        0.054288845509290695,
        0.05051509663462639,
        0.04369012266397476,
        0.24723504483699799,
        -0.12573784589767456,
        0.031290050595998764,
        -0.16327537596225739,
        0.19966410100460052,
        -0.07590295374393463,
        0.07637078315019608,
        -0.1862167865037918,
        0.1127048209309578,
        -0.1886695772409439,
        0.12387055158615112,
        -0.0820121243596077,
        -0.02342761866748333,
        0.20877495408058167,
        -0.1398853212594986,
        -0.2818703055381775,
        -0.0015377069357782602,
        -0.030508073046803474,
        -0.20096316933631897,
        0.015107735991477966,
        -0.07857941091060638,
        -0.12558886408805847,
        0.043727993965148926,
        0.027726968750357628,
        -0.013253898359835148,
        -0.10528063774108887,
        0.06335034221410751,
        0.21051712334156036,
        0.01699407584965229,
        0.07507796585559845,
        -0.2593625783920288,
        0.2061012089252472,
        -0.19481398165225983,
        0.07236119359731674,
        0.07712753117084503,
        -0.15596406161785126,
        0.23690477013587952,
        -0.08059737831354141,
        -0.10012221336364746,
        0.16604146361351013,
        0.018198339268565178,
        0.06572320312261581,
        -0.34543952345848083,
        -0.01434395182877779,
        -0.07985072582960129,
        0.11475013196468353,
        -0.14033472537994385,
        0.20132802426815033,
        -0.2382020652294159,
        0.04788226634263992,
        0.03935971483588219,
        0.23739512264728546,
        0.019893037155270576,
        0.15387137234210968,
        -0.23840132355690002,
        -0.015370063483715057,
        -0.08294496685266495,
        0.31534308195114136,
        -0.13011139631271362,
        -0.1716698259115219,
        0.279339462518692,
        0.11529288440942764,
        -0.10461517423391342,
        0.08773860335350037,
        -0.20169638097286224,
        -0.030687248334288597,
        0.19429713487625122,
        -0.14593279361724854,
        -0.033448800444602966,
        0.25332990288734436,
        0.03763607516884804,
        -0.023664144799113274,
        0.05339431017637253,
        -0.13534359633922577,
        0.04456300660967827,
        0.13835789263248444,
        0.07245605438947678,
        -0.09587288647890091,
        0.033179596066474915,
        0.11577761918306351,
        0.28155723214149475,
        -0.039498619735240936,
        -0.1101636067032814,
        0.09942403435707092,
        -0.2634604275226593,
        0.15309062600135803,
        0.08929622918367386,
        -0.2262490838766098,
        0.09475050121545792,
        -0.2136368453502655,
        0.09697964042425156,
        -0.025587523356080055,
        0.052218012511730194,
        -0.21038517355918884,
        0.07900028675794601,
        -0.2163429856300354,
        0.2165692299604416,
        0.10712859034538269,
        0.2133297622203827,
        -0.13421815633773804,
        0.149542436003685,
        -0.14125344157218933,
        0.08624936640262604,
        0.10769747197628021,
        0.1889599710702896,
        -0.30109575390815735,
        -0.017545845359563828,
        0.0534135177731514,
        -0.030752472579479218,
        -0.02083624340593815,
        0.017847923561930656,
        -0.1751401275396347,
        0.1067243292927742,
        0.19187134504318237,
        -0.11661391705274582,
        0.03330792859196663,
        0.1967710554599762,
        -0.20114080607891083,
        -0.039985574781894684,
        -0.1734573394060135,
        -0.19395779073238373,
        0.008554655127227306,
        -0.19215771555900574,
        0.029605407267808914,
        0.02448752522468567,
        -0.05263818800449371,
        -0.05278942734003067,
        0.25152406096458435,
        -0.017625169828534126,
        0.0819835364818573,
        -0.2254931628704071,
        0.030565418303012848,
        0.03868294507265091,
        -0.1742665022611618,
        0.1808411329984665,
        -0.13818946480751038,
        -0.23370008170604706,
        -0.1303989291191101,
        0.05894868075847626,
        0.24150902032852173,
        -0.09505189210176468,
        0.06494954228401184,
        -0.04196225479245186,
        -0.10197201371192932,
        0.1426515132188797,
        0.002661458682268858,
        0.07775622606277466,
        0.10028721392154694,
        -0.13801085948944092,
        0.04382681846618652,
        -0.009336025454103947,
        0.230110302567482,
        -0.0763041228055954,
        -0.06129538267850876,
        -0.14617416262626648,
        0.06853390485048294,
        0.004080980084836483,
        0.0006859476561658084,
        0.047537222504615784,
        -0.041833337396383286,
        -0.013555027544498444,
        0.0301776435226202,
        0.090741366147995,
        -0.20870940387248993,
        0.04785711690783501,
        -0.04552491009235382,
        -0.051619164645671844,
        0.0909711942076683,
        -0.12637022137641907,
        -0.1521976739168167,
        -0.016609059646725655,
        -0.015001184307038784,
        -0.03231470659375191,
        0.003890732768923044,
        -0.1188693419098854,
        0.19017121195793152,
        -0.07092264294624329,
        0.08233776688575745,
        0.050094958394765854,
        -0.1985403150320053,
        0.24682053923606873,
        -0.034949637949466705,
        -0.15751849114894867,
        0.2579088509082794,
        -0.18674305081367493,
        0.11207949370145798,
        -0.30765846371650696,
        0.030927246436476707,
        -0.026225656270980835,
        0.0949479267001152,
        -0.1945641040802002,
        0.18400612473487854,
        -0.22939708828926086,
        -0.007532078772783279,
        -0.21908777952194214,
        0.03383919596672058,
        0.05213581398129463,
        0.05504852160811424,
        -0.1967187374830246,
        0.09867183119058609,
        -0.0015782087575644255,
        0.3209612965583801,
        0.04658489674329758,
        -0.17313984036445618,
        0.20569273829460144,
        -0.09478286653757095,
        -0.1700962781906128,
        0.24800698459148407,
        0.07834861427545547,
        -0.20546723902225494,
        0.2994360029697418,
        -0.1339619755744934,
        -0.11647531390190125,
        0.31713491678237915,
        -0.09891840070486069,
        -0.09264949709177017,
        -0.0633414015173912,
        -0.0158818531781435,
        0.025750059634447098,
        0.044922370463609695,
        0.09610990434885025,
        -0.09319526702165604,
        -0.2473663091659546,
        0.10288548469543457,
        0.11331633478403091,
        0.09419790655374527,
        -0.02678658813238144,
        0.11772549897432327,
        0.22880128026008606,
        -0.1738625168800354,
        -0.027447409927845,
        0.0779486894607544,
        -0.21801242232322693,
        0.0019174158805981278,
        -0.027516962960362434,
        0.214699849486351,
        0.021463988348841667,
        0.1275169402360916,
        -0.078981414437294,
        0.11531762778759003,
        -0.18877707421779633,
        0.004944201558828354,
        -0.008925208821892738,
        0.17427626252174377,
        -0.2710169553756714,
        0.14231307804584503,
        -0.07149402797222137,
        0.006443842314183712,
        -0.048200204968452454,
        0.24189075827598572,
        -0.2250841110944748,
        -0.046330440789461136,
        0.20712412893772125,
        -0.1701935976743698,
        0.0740412026643753,
        0.2059866189956665,
        -0.011965776793658733,
        -0.09945819526910782,
        0.2727469205856323,
        -0.1893678605556488,
        0.13433748483657837,
        -0.01975112408399582,
        -0.24012762308120728,
        0.0470428392291069,
        0.009135846048593521,
        -0.0015771182952448726,
        -0.02416038140654564,
        -0.10233154892921448,
        -0.03600733354687691,
        -0.12420744448900223,
        0.03680497780442238,
        0.01796107552945614,
        0.006209950894117355,
        -0.008599217049777508,
        0.07016400992870331,
        0.04382980242371559,
        -0.05300154536962509,
        0.0021729622967541218,
        -0.0779959112405777,
        -0.015372227877378464,
        -0.010457864962518215,
        -0.02170870080590248,
        0.21961265802383423,
        -0.231476292014122,
        0.6409109830856323,
        -0.5974072217941284,
        -0.0521688349545002,
        0.743293285369873,
        0.9523457884788513,
        -0.4498567283153534,
        0.05349456146359444,
        0.02851797267794609,
        -0.5704152584075928,
        -0.27890488505363464,
        0.25594913959503174,
        -0.5861868262290955,
        0.21947826445102692,
        0.5288885831832886,
        -0.12378469109535217,
        0.22461192309856415,
        0.08926212042570114,
        0.06016053631901741,
        0.10777837038040161,
        0.02474053204059601,
        0.20149637758731842,
        -0.02530687116086483,
        -0.010360272601246834,
        0.0027874205261468887,
        -0.008858432993292809,
        -0.18919400870800018,
        0.19991126656532288,
        -0.0696052685379982,
        0.0416596457362175,
        -0.010003630071878433,
        0.009053973481059074,
        -0.0781981572508812,
        -0.2675020396709442,
        0.1445290893316269,
        -0.06356554478406906,
        -0.10565168410539627,
        -0.11728271096944809,
        0.08213546872138977,
        -0.040935710072517395,
        -0.040971748530864716,
        -0.09825406968593597,
        0.11102627217769623,
        0.00426511699333787,
        -0.08429394662380219,
        0.16179849207401276,
        0.25703302025794983,
        0.10366246104240417,
        -0.002750062383711338,
        0.10091277956962585,
        0.1455218493938446,
        -0.23282718658447266,
        -0.09108253568410873,
        0.07605086266994476,
        -0.03956833481788635,
        0.04623320698738098,
        -0.22531303763389587,
        0.2732422351837158,
        -0.20301873981952667,
        0.1727830469608307,
        0.08350197225809097,
        0.11325883120298386,
        -0.047713447362184525,
        0.3430730700492859,
        -0.3245985209941864,
        0.16523291170597076,
        -0.36456945538520813,
        0.27731603384017944,
        0.2648739218711853,
        0.21836650371551514,
        -0.19702064990997314,
        -0.05077502503991127,
        0.3079093098640442,
        0.1276363879442215,
        -0.18169258534908295,
        0.2505786716938019,
        0.11702589690685272,
        -0.3531292974948883,
        -0.2707986831665039,
        -0.039351146668195724,
        -0.3334013819694519,
        -0.12017826735973358,
        0.033103249967098236,
        0.0829131230711937,
        0.25288671255111694,
        0.2133610099554062,
        0.0075782351195812225,
        0.16378924250602722,
        0.13538751006126404,
        -0.1872836798429489,
        0.07936408370733261,
        0.008047759532928467,
        -0.002663134364411235,
        -0.02292739786207676,
        0.07389538735151291,
        -0.469658225774765,
        0.1725819855928421,
        0.02225051261484623,
        0.1268533170223236,
        0.27759745717048645,
        0.24863997101783752,
        0.24257390201091766,
        0.03690033033490181,
        0.052694741636514664,
        0.0009001716389320791,
        -0.3300635814666748,
        -0.12101336568593979,
        0.025589102879166603,
        0.05165307596325874,
        0.09085776656866074,
        0.3231329023838043,
        0.02895679511129856,
        0.14383704960346222,
        0.13574881851673126,
        0.23385757207870483,
        -0.3149533271789551,
        -0.16006043553352356,
        0.06406119465827942,
        0.18105368316173553,
        -0.006708299275487661,
        -0.33152323961257935,
        -0.25233301520347595,
        0.21219851076602936,
        0.1974094808101654,
        -0.21040219068527222,
        0.15067461133003235,
        0.057859424501657486,
        0.2211146354675293,
        0.06650689244270325,
        0.31891998648643494,
        -0.26099473237991333,
        -0.1425143927335739,
        0.1627575010061264,
        0.3756702244281769,
        -0.02785859815776348,
        0.15731190145015717,
        -0.1386091560125351,
        0.2531479001045227,
        -0.36545589566230774,
        0.2425367385149002,
        -0.05736307427287102,
        -0.34472066164016724,
        -0.00603091437369585,
        -0.09364926815032959,
        -0.009981951676309109,
        -0.26233139634132385,
        -0.16576708853244781,
        -0.0030792271718382835,
        -0.09976901859045029,
        -0.22279497981071472,
        -0.0768691822886467,
        -0.19832637906074524,
        -0.23248662054538727,
        0.085809625685215,
        0.1615455001592636,
        -0.05740717053413391,
        -0.13688981533050537,
        0.16522979736328125,
        0.10227647423744202,
        -0.40196725726127625,
        0.1599249690771103,
        0.12787273526191711,
        -0.25301527976989746,
        -0.04694582521915436,
        0.08790560066699982,
        0.25149619579315186,
        -0.1569417417049408,
        -0.01015467569231987,
        0.1302281767129898,
        -0.16282257437705994,
        -0.003035446396097541,
        0.2532094120979309,
        0.1701255738735199,
        -0.0872781053185463,
        0.28501471877098083,
        0.06598160415887833,
        0.27264490723609924,
        -0.2752520740032196,
        0.1895681917667389,
        -0.22317591309547424,
        -0.21815764904022217,
        -0.06462953239679337,
        0.08355168253183365,
        0.0020297272130846977,
        -0.2632105052471161,
        -0.24945034086704254,
        0.08934787660837173,
        -0.13638195395469666,
        0.05077578127384186,
        0.2521856725215912,
        0.3374013602733612,
        -0.00415562791749835,
        -0.1541902869939804,
        0.36035487055778503,
        -0.1557299643754959,
        0.22902463376522064,
        0.17278364300727844,
        0.21150507032871246,
        -0.22845931351184845,
        0.12504620850086212,
        0.14162378013134003,
        0.07253748178482056,
        -0.41831034421920776,
        0.047224752604961395,
        0.03705080598592758,
        -0.4285483658313751,
        -0.3181036412715912,
        0.12416886538267136,
        -0.15618035197257996,
        0.23860609531402588,
        -0.047877583652734756,
        -0.0368240587413311,
        -0.012392375618219376,
        0.10476343333721161,
        0.04357551783323288,
        0.30032631754875183,
        -0.01761523447930813,
        0.08915160596370697,
        -0.06314918398857117,
        0.25132474303245544,
        -0.22830204665660858,
        -0.22411085665225983,
        -0.07912977784872055,
        -0.02728373371064663,
        -0.16892413794994354,
        -0.21675851941108704,
        0.130153089761734,
        -0.2400701940059662,
        0.08228299766778946,
        0.022738251835107803,
        0.1682211309671402,
        -0.04553989693522453,
        -0.20229503512382507,
        -0.054296739399433136,
        0.15219242870807648,
        -0.24148495495319366,
        -0.02225891500711441,
        0.03758757933974266,
        0.2230597883462906,
        -0.3608580529689789,
        0.4661065936088562,
        0.12160643935203552,
        -0.16340522468090057,
        0.0846371054649353,
        0.24833281338214874,
        0.43510112166404724,
        -0.14081500470638275,
        -0.22587072849273682,
        0.15500770509243011,
        -0.13843749463558197,
        -0.3780631721019745,
        0.34519389271736145,
        0.11813332140445709,
        -0.3893144428730011,
        0.1404961198568344,
        0.3108987808227539,
        0.03513430058956146,
        0.024482037872076035,
        -0.026161370798945427,
        -0.3056778907775879,
        0.028407523408532143,
        -0.11251018941402435,
        0.49665337800979614,
        -0.09768863767385483,
        -0.45917174220085144,
        -0.0012544854544103146,
        -0.013189490884542465,
        -0.018291909247636795,
        0.12233546376228333,
        0.3311741054058075,
        -0.08480023592710495,
        0.06164378672838211,
        -0.1305394172668457,
        0.13998855650424957,
        -0.11158998310565948,
        -0.13529430329799652,
        -0.07325056195259094,
        0.11202986538410187,
        -0.06355633586645126,
        0.07512451708316803,
        -0.10657289624214172,
        0.05986380577087402,
        -0.003995388746261597,
        -0.01253508497029543,
        0.18337877094745636,
        0.030769377946853638,
        -0.004155339207500219,
        -0.027578823268413544,
        0.06904378533363342,
        -0.07692727446556091,
        0.19820541143417358,
        -0.22307775914669037,
        0.03934409096837044,
        0.19747671484947205,
        0.03053351491689682,
        0.028668146580457687,
        -0.3156028091907501,
        0.034697648137807846,
        -0.06855389475822449,
        -0.05132999271154404,
        0.06806230545043945,
        0.15961386263370514,
        -0.10592420399188995,
        0.21030038595199585,
        0.0764942318201065,
        0.008004046976566315,
        -0.2669095993041992,
        -0.053354036062955856,
        -0.25037968158721924,
        0.006523850839585066,
        -0.08857236802577972,
        0.22950798273086548,
        -0.06658940017223358,
        -0.16707544028759003,
        -0.5283495187759399,
        0.16505727171897888,
        -0.1525573432445526,
        0.20774224400520325,
        -0.0810580626130104,
        -0.01838824339210987,
        -0.5131328105926514,
        -0.057800401002168655,
        -0.00492663262411952,
        0.011492176912724972,
        -0.0021203826181590557,
        -0.15310260653495789,
        0.22896608710289001,
        0.026242535561323166,
        -0.04782688617706299,
        -0.17882007360458374,
        0.31111961603164673,
        -0.1460157185792923,
        0.5415416955947876,
        -0.4533088207244873,
        -0.11509029567241669,
        -0.028234858065843582,
        0.06676113605499268,
        0.25641128420829773,
        -0.12079782038927078,
        -0.026574699208140373,
        0.11777407675981522,
        -0.07260985672473907,
        0.001279102056287229,
        0.23315581679344177,
        -0.1435537338256836,
        0.016503220424056053,
        -0.23674426972866058,
        0.08755392581224442,
        -0.0727330669760704,
        0.1297517716884613,
        -0.20712053775787354,
        -0.11392101645469666,
        -0.04863886162638664,
        0.1667473167181015,
        -0.07875242829322815,
        0.04668969660997391,
        0.2426767647266388,
        0.03572915866971016,
        -0.06250208616256714,
        -0.15046216547489166,
        0.021064218133687973,
        0.1261599063873291,
        0.04620164632797241,
        -0.01789153181016445,
        -0.2413281947374344,
        -0.08441821485757828,
        -0.03877106308937073,
        0.052439406514167786,
        -0.07872948795557022,
        -0.09442707151174545,
        -0.05561528354883194,
        -0.1356762945652008,
        -0.035519108176231384,
        0.14778856933116913,
        -0.010442925617098808,
        0.08525069802999496,
        0.14734040200710297,
        -0.28160491585731506,
        -0.09878823161125183,
        0.16630174219608307,
        0.05719389393925667,
        0.11572711914777756,
        -0.25788113474845886,
        -0.26280176639556885,
        -0.0413874015212059,
        -0.07983478903770447,
        0.2305302917957306,
        0.38894057273864746,
        0.2228093296289444,
        -0.033017002046108246,
        -0.05522621423006058,
        0.050676170736551285,
        0.30575084686279297,
        -0.020702196285128593,
        -0.05627363175153732,
        0.2444506585597992,
        -0.03969913348555565,
        0.16106228530406952,
        -0.2488442063331604,
        0.21325773000717163,
        0.02590051107108593,
        0.03561149537563324,
        -0.04565726965665817,
        -0.038228679448366165,
        -0.0910683423280716,
        -0.06210150197148323,
        0.0072226617485284805,
        -0.04823129624128342,
        -0.1203215941786766,
        0.06363154202699661,
        -0.17418035864830017,
        0.24725040793418884,
        -0.18429499864578247,
        -0.11484932899475098,
        -0.08113764971494675,
        0.2178305685520172,
        0.07399197667837143,
        -0.10829571634531021,
        -0.13925860822200775,
        0.10468220710754395,
        -0.1345938891172409,
        0.04731361195445061,
        -0.07248067110776901,
        -0.1613406389951706,
        0.05288977548480034,
        -0.32314109802246094,
        0.1778753399848938,
        0.11788000911474228,
        0.019859720021486282,
        0.1107219010591507,
        0.25835564732551575,
        -0.06758436560630798,
        -0.08415206521749496,
        0.07007595896720886,
        -0.06463104486465454,
        -0.021691353991627693,
        -0.0364689975976944,
        0.19346396625041962,
        -0.06372250616550446,
        -0.15336203575134277,
        0.08343174308538437,
        0.2538653612136841,
        0.04306360334157944,
        -0.0033996771089732647,
        0.02256196178495884,
        0.011294212192296982,
        -0.1113816499710083,
        0.09520658850669861,
        0.02802933380007744,
        0.16884027421474457,
        0.0663013756275177,
        0.020776549354195595,
        -0.30372315645217896,
        -0.0003894190303981304,
        0.10984400659799576,
        0.19595323503017426,
        -0.19894137978553772,
        -0.031602393835783005,
        0.08685757219791412,
        -0.08850698173046112,
        0.08788562566041946,
        0.3135562539100647,
        -0.04261607676744461,
        0.012139993719756603,
        0.008454540744423866,
        0.14403516054153442,
        0.30752885341644287,
        0.222523033618927,
        0.1785627156496048,
        -0.08600646257400513,
        0.1702089011669159,
        -0.1867765188217163,
        -0.1679856926202774,
        0.15115471184253693,
        0.05246439203619957,
        0.11643964797258377,
        0.14797772467136383,
        0.016944291070103645,
        0.022367307916283607,
        -0.1812753975391388,
        0.002593200420960784,
        0.09306423366069794,
        -0.004624352790415287,
        0.07647744566202164,
        0.05700267106294632,
        -0.10618562996387482,
        0.1326448619365692,
        0.03834741562604904,
        -0.01719905436038971,
        0.09248112887144089,
        -0.027114886790513992,
        -0.017922954633831978,
        -0.06094839796423912,
        -0.17207977175712585,
        -0.2478979080915451,
        0.0547981932759285,
        -0.12609785795211792,
        0.025900118052959442,
        -0.16337507963180542,
        0.030836880207061768,
        0.07744753360748291,
        0.08452428877353668,
        -0.010187039151787758,
        0.03883073106408119,
        0.09907074272632599,
        0.13573607802391052,
        -0.12377721071243286,
        -0.15712518990039825,
        -0.11211647093296051,
        0.06038762256503105,
        -0.035718511790037155,
        0.12173019349575043,
        -0.023002946749329567,
        0.08255404233932495,
        -0.024826370179653168,
        -0.2639290988445282,
        -0.14628171920776367,
        0.16219209134578705,
        -0.014894768595695496,
        0.02990397810935974,
        0.1729879230260849,
        -0.19357970356941223,
        -0.05707196146249771,
        0.04039347544312477,
        0.058993175625801086,
        -0.06571844965219498,
        -0.05294374004006386,
        0.02178848721086979,
        0.034104812890291214,
        -0.09790176153182983,
        -0.06792907416820526,
        0.07855700701475143,
        -0.03018384985625744,
        0.014393309131264687,
        -0.06744686514139175,
        -0.0795881450176239,
        -0.14310581982135773,
        0.04683281481266022,
        0.16913007199764252,
        -0.09020183980464935,
        0.05933217331767082,
        0.008939264342188835,
        0.15634454786777496,
        0.08242592960596085,
        0.046933770179748535,
        0.1826488971710205,
        -0.10042024403810501,
        -0.043667614459991455,
        -0.0672646090388298,
        -0.09692244976758957,
        0.24196766316890717,
        0.2689569294452667,
        0.07334985584020615,
        -0.1830998659133911,
        0.04952181875705719,
        0.027352210134267807,
        0.07476333528757095,
        0.31218862533569336,
        0.09034723043441772,
        0.016042547300457954,
        -0.023117801174521446,
        -0.06272109597921371,
        0.20698954164981842,
        0.14311322569847107,
        0.055310238152742386,
        -0.09461907297372818,
        0.07988904416561127,
        -0.1683756709098816,
        -0.028854496777057648,
        0.15175768733024597,
        0.2636885643005371,
        -0.3129822015762329,
        -0.0474800281226635,
        -0.11242036521434784,
        0.03309224173426628,
        -0.004195117391645908,
        0.03663105145096779,
        0.052732475101947784,
        0.10102273523807526,
        0.12549862265586853,
        0.06794822961091995,
        -0.044378332793712616,
        -0.01995626464486122,
        0.25399014353752136,
        0.17295067012310028,
        0.24696658551692963,
        -0.16832415759563446,
        -0.10224740952253342,
        0.17104065418243408,
        -0.039752569049596786,
        0.09122604876756668,
        -0.03848430886864662,
        0.04005608707666397,
        0.2613629996776581,
        -0.14332236349582672,
        0.364959180355072,
        0.03978603333234787,
        0.1486758291721344,
        -0.14456695318222046,
        -0.03641970455646515,
        -0.14761190116405487,
        0.04914361983537674,
        0.11869534850120544,
        0.038291338831186295,
        -0.07041649520397186,
        -0.0038611614145338535,
        -0.17300182580947876,
        0.14765706658363342,
        -0.0073890225030481815,
        0.13741435110569,
        -0.16706281900405884,
        0.031234433874487877,
        0.174311563372612,
        0.24877551198005676,
        -0.11520814895629883,
        -0.0012341899564489722,
        -0.0648438036441803,
        -0.2607528865337372,
        -0.05148586258292198,
        0.07125809788703918,
        0.15475820004940033,
        0.022687461227178574,
        0.11110861599445343,
        -0.14689743518829346,
        0.034597430378198624,
        0.09093262255191803,
        0.26288482546806335,
        -0.0913580060005188,
        0.006318914704024792,
        -0.10609082132577896,
        -0.11759302765130997,
        0.1184101477265358,
        -0.15297727286815643,
        0.04797043278813362,
        -0.1760197877883911,
        -0.06277509778738022,
        -0.03337273746728897,
        -0.10173828899860382,
        0.006842104252427816,
        0.045823872089385986,
        -0.13763192296028137,
        0.1540251076221466,
        -0.16476154327392578,
        0.18388907611370087,
        0.026460792869329453,
        0.15120528638362885,
        -0.068549245595932,
        0.06932961195707321,
        -0.29932159185409546,
        0.20196394622325897,
        0.051541637629270554,
        0.29482439160346985,
        -0.06059521809220314,
        0.1524137705564499,
        -0.3107813894748688,
        0.00505988160148263,
        -0.18954163789749146,
        0.10746346414089203,
        -0.04670904576778412,
        -0.1279476135969162,
        -0.10298682004213333,
        -0.022673141211271286,
        -0.11574705690145493,
        -0.20716515183448792,
        -0.08685515075922012,
        -0.027860043570399284,
        0.09711746126413345,
        0.08014480769634247,
        0.14954890310764313,
        -0.2027348428964615,
        0.05005425587296486,
        0.22431834042072296,
        0.0013138109352439642,
        -0.09726607799530029,
        -0.1428017020225525,
        -0.37035512924194336,
        0.012196829542517662,
        0.12125536799430847,
        0.17390114068984985,
        0.09687580168247223,
        0.03263997286558151,
        0.287946492433548,
        -0.24395668506622314,
        0.07525293529033661,
        0.25245964527130127,
        -0.04878183454275131,
        0.04329829290509224,
        -0.10812372714281082,
        0.10816284269094467,
        0.021216990426182747,
        -0.3396013677120209,
        0.03323639929294586,
        -0.229222372174263,
        -0.2050313949584961,
        0.05399540066719055,
        0.005100781098008156,
        -0.18816307187080383,
        0.11356513202190399,
        0.04744531214237213,
        -0.007959195412695408,
        -0.08641231805086136,
        0.1387401968240738,
        -0.05729256570339203,
        0.018139395862817764,
        -0.029051432386040688,
        0.07195883244276047,
        0.05577780306339264,
        0.050057489424943924,
        0.3769148290157318,
        -0.05994616076350212,
        0.03313101455569267,
        -0.02971769869327545,
        -0.10921324044466019,
        0.22100818157196045,
        -0.12022863328456879,
        -0.0010002563940361142,
        -0.17990955710411072,
        -0.19367748498916626,
        -0.007971265353262424,
        0.025909654796123505,
        -0.1310218870639801,
        0.0642043873667717,
        -0.1586090624332428,
        0.12727898359298706,
        0.05181996151804924,
        -0.250268816947937,
        0.1254425048828125,
        -0.02403947524726391,
        0.05807952582836151,
        0.20864929258823395,
        -0.0559045746922493,
        0.11083213239908218,
        0.03126567602157593,
        -0.07706610858440399,
        0.00224329624325037,
        -0.5268765687942505,
        0.3331511318683624,
        0.011027432978153229,
        -0.1415969878435135,
        0.1143893301486969,
        0.002794153057038784,
        -0.18956314027309418,
        0.21639440953731537,
        -0.14263205230236053,
        0.2804194390773773,
        -0.04291240870952606,
        0.1444496363401413,
        -0.45427781343460083,
        0.14282973110675812,
        -0.22439180314540863,
        0.14944279193878174,
        0.06466986238956451,
        0.2235458940267563,
        -0.18911078572273254,
        0.07655729353427887,
        -0.09633328765630722,
        0.2138342261314392,
        -0.11573836207389832,
        -0.26367872953414917,
        0.1864856481552124,
        -0.003841971978545189,
        -0.0952884778380394,
        -0.3292645812034607,
        0.16766846179962158,
        -0.06796915829181671,
        0.26399892568588257,
        -0.10456277430057526,
        0.11624244600534439,
        0.0585201270878315,
        -0.16657140851020813,
        0.053627997636795044,
        -0.004773871041834354,
        -0.005352793727070093,
        0.028752215206623077,
        -0.15277086198329926,
        0.22192828357219696,
        -0.24137432873249054,
        0.048460010439157486,
        -0.04947232827544212,
        0.03825078532099724,
        0.12036000192165375,
        -0.066869355738163,
        0.04314052313566208,
        0.2636350691318512,
        -0.35093602538108826,
        -0.052772946655750275,
        0.041873425245285034,
        0.3095903694629669,
        -0.05280400440096855,
        0.3973931670188904,
        -0.05276476964354515,
        0.00264168088324368,
        -0.25937527418136597,
        0.27439621090888977,
        0.024065429344773293,
        0.10447894781827927,
        -0.1046011745929718,
        0.16127830743789673,
        -0.3225753903388977,
        0.00018193393771070987,
        -0.05425659567117691,
        0.2962702512741089,
        -0.1859283298254013,
        0.028785692527890205,
        -0.23535266518592834,
        0.12837548553943634,
        0.07002144306898117,
        -0.26897698640823364,
        0.12366646528244019,
        0.21388797461986542,
        -0.03865373507142067,
        -0.14223149418830872,
        -0.08234500139951706,
        -0.17398084700107574,
        0.1596078872680664,
        0.14116676151752472,
        0.13884498178958893,
        -0.3782182037830353,
        -0.14886462688446045,
        0.10017247498035431,
        -0.17886419594287872,
        -0.11309045553207397,
        -0.005573691334575415,
        0.21411371231079102,
        0.15795926749706268,
        -0.21502624452114105,
        0.020948130637407303,
        0.03832341730594635,
        -0.13043510913848877,
        -0.15260304510593414,
        -0.06461543589830399,
        0.25509411096572876,
        -0.36802080273628235,
        -0.17958444356918335,
        0.19575780630111694,
        0.07556411623954773,
        0.25335371494293213,
        0.21243469417095184,
        -0.04117468371987343,
        0.023078737780451775,
        -0.05993122607469559,
        0.07045432180166245,
        -0.09985552728176117,
        0.1953362673521042,
        -0.36319664120674133,
        -0.2038123607635498,
        0.011556537821888924,
        -0.04824060574173927,
        0.04592755809426308,
        0.0033020474947988987,
        -0.1122358962893486,
        -0.14697881042957306,
        -0.295718252658844,
        0.20797380805015564,
        0.03196638077497482,
        -0.019901402294635773,
        0.058340542018413544,
        0.10412035137414932,
        0.09802287071943283,
        -0.41882938146591187,
        -0.2943679094314575,
        -0.011619050987064838,
        0.47245490550994873,
        -0.20531253516674042,
        0.07515616714954376,
        -0.15987108647823334,
        0.036320094019174576,
        0.16454944014549255,
        -0.09336242079734802,
        0.024081004783511162,
        0.13085214793682098,
        -0.036429859697818756,
        0.1662188023328781,
        -0.10625594109296799,
        0.15619972348213196,
        0.20571693778038025,
        -0.10211128741502762,
        -0.00352270994335413,
        -0.033180415630340576,
        -0.04746030271053314,
        0.20387890934944153,
        -0.15055835247039795,
        0.18230600655078888,
        -0.1798192858695984,
        -0.01167337503284216,
        -0.21123263239860535,
        0.14241498708724976,
        -0.1928533911705017,
        0.21278934180736542,
        0.008279308676719666,
        0.010697007179260254,
        -0.041157227009534836,
        -0.09332642704248428,
        -0.005689749959856272,
        0.2613179683685303,
        -0.043126437813043594,
        0.1773788034915924,
        -0.36873915791511536,
        0.016665711998939514,
        0.11089661717414856,
        -0.047406576573848724,
        0.2104259878396988,
        -0.13119825720787048,
        0.0677822157740593,
        -0.15239039063453674,
        -0.012311592698097229,
        -0.058428067713975906,
        -0.0057346513494849205,
        0.17416301369667053,
        0.24045129120349884,
        0.09678781777620316,
        -0.05183028802275658,
        -0.028260141611099243,
        0.019546926021575928,
        0.1040453314781189,
        0.17366312444210052,
        -0.002600056352093816,
        0.2003336101770401,
        -0.1296163946390152,
        -0.04902830347418785,
        -0.0914287343621254,
        -0.012314044870436192,
        0.1406758576631546,
        0.019807996228337288,
        0.058838777244091034,
        0.13013561069965363,
        -0.044068124145269394,
        0.09839661419391632,
        0.007413651328533888,
        0.04603789001703262,
        0.11953640729188919,
        0.030458524823188782,
        -0.07087206840515137,
        0.007773345801979303,
        0.10985950380563736,
        0.1275755912065506,
        -0.1309877187013626,
        -0.08292488008737564,
        0.059684980660676956,
        0.0034025865606963634,
        0.27655118703842163,
        0.1724826544523239,
        0.06313633173704147,
        -0.1305372714996338,
        -0.14975646138191223,
        0.008391601033508778,
        0.0723176896572113,
        0.045261770486831665,
        -0.03398992493748665,
        -0.16206172108650208,
        0.20136956870555878,
        0.03195182979106903,
        -0.2635784149169922,
        0.1947653740644455,
        0.09726566821336746,
        -0.21390189230442047,
        -0.023914024233818054,
        -0.11817344278097153,
        0.018841885030269623,
        -0.10912226140499115,
        -0.11716339737176895,
        -0.02933298610150814,
        0.010770219378173351,
        0.2261476367712021,
        0.01992856338620186,
        -0.20863744616508484,
        0.11482026427984238,
        0.009602910839021206,
        -0.17585323750972748,
        -0.031964756548404694,
        -0.09496857970952988,
        -0.12256912887096405,
        0.018934257328510284,
        -0.0456710010766983,
        0.40257498621940613,
        -0.2455708384513855,
        0.11871328204870224,
        0.09090497344732285,
        0.06807395070791245,
        0.10627241432666779,
        0.17193008959293365,
        -0.0785515084862709,
        -0.08614035695791245,
        -0.03453180566430092,
        0.017767535522580147,
        -0.005658785346895456,
        0.037280354648828506,
        -0.27891257405281067,
        0.08391080051660538,
        -0.21989119052886963,
        0.10660522431135178,
        0.05901331454515457,
        0.23496440052986145,
        -0.035416118800640106,
        -0.04682634025812149,
        -0.10313902795314789,
        0.10778737813234329,
        0.06697892397642136,
        -0.16172128915786743,
        0.07732563465833664,
        -0.0009099526796489954,
        -0.27040401101112366,
        -0.15402986109256744,
        0.008092083036899567,
        0.1596388965845108,
        0.033974189311265945,
        -0.07610857486724854,
        -0.2173682451248169,
        0.32723164558410645,
        0.03574404492974281,
        -0.4133470952510834,
        0.1421356201171875,
        -0.048921938985586166,
        -0.025604702532291412,
        0.15100300312042236,
        0.022044207900762558,
        0.3836292326450348,
        -0.24046099185943604,
        -0.18634100258350372,
        0.19288133084774017,
        -0.30793875455856323,
        -0.19245795905590057,
        -0.28685203194618225,
        -0.1579039841890335,
        0.07230636477470398,
        -0.37216153740882874,
        0.34318146109580994,
        -0.13245223462581635,
        0.1820264607667923,
        -0.31957578659057617,
        -0.009945770725607872,
        -0.31715548038482666,
        0.2099638432264328,
        -0.07164254039525986,
        -0.1802985668182373,
        -0.0962892547249794,
        0.09478642791509628,
        -0.266385555267334,
        0.3365897536277771,
        -0.17463503777980804,
        0.3629084527492523,
        -0.20682470500469208,
        0.15934240818023682,
        0.1032463014125824,
        -0.16787974536418915,
        -0.11171963810920715,
        -0.03745561093091965,
        0.3817587196826935,
        -0.06751362234354019,
        -0.15146301686763763,
        0.041282542049884796,
        -0.03876969590783119,
        -0.15399867296218872,
        0.14808045327663422,
        0.09638293087482452,
        0.16075292229652405,
        0.15515469014644623,
        -0.24448399245738983,
        0.018584590405225754,
        -0.05287037789821625,
        0.05497463420033455,
        0.1602603793144226,
        0.17017912864685059,
        -0.14231355488300323,
        -0.025127308443188667,
        0.08705301582813263,
        0.20428474247455597,
        0.016769522801041603,
        -0.053043182939291,
        0.07531452178955078,
        0.16752801835536957,
        -0.25060510635375977,
        0.23316480219364166,
        0.2246140092611313,
        -0.5460765957832336,
        0.06268327683210373,
        -0.6495471000671387,
        -0.44338271021842957,
        -0.43923234939575195,
        0.8173154592514038,
        -0.7874102592468262,
        -0.7328523397445679,
        -0.9926837682723999,
        0.22234787046909332,
        -0.6550018787384033,
        0.3382987678050995,
        -0.5048116445541382,
        0.07372502237558365,
        -0.03130941465497017,
        -0.07654134929180145,
        0.0817905142903328,
        0.06183721870183945,
        -0.06792835891246796,
        -0.1876591444015503,
        -0.08352102339267731,
        -0.1597975343465805,
        0.03391652554273605,
        0.06085478514432907,
        0.09492606669664383,
        0.166703000664711,
        -0.0007446844829246402,
        0.07485828548669815,
        0.09927655756473541,
        0.2933623790740967,
        -0.2634567320346832,
        -0.29517459869384766,
        0.022510215640068054,
        -0.33558201789855957,
        0.28749310970306396,
        -0.05995813384652138,
        -0.09285868704319,
        0.2393340915441513,
        0.11208408325910568,
        0.29711320996284485,
        0.3015599846839905,
        -0.07780425995588303,
        0.15867264568805695,
        0.09438715875148773,
        0.4150437116622925,
        0.09599369764328003,
        -0.29086369276046753,
        -0.1350957453250885,
        0.1544947624206543,
        -0.062451642006635666,
        0.29256439208984375,
        -0.1925530880689621,
        0.074337437748909,
        -0.11411291360855103,
        0.14945483207702637,
        -0.12879317998886108,
        -0.13948428630828857,
        -0.004229880403727293,
        0.22187788784503937,
        0.07964993268251419,
        0.0770762488245964,
        -0.009033010341227055,
        0.291463166475296,
        -0.06517387926578522,
        -0.38054752349853516,
        -0.07008925825357437,
        -0.0753956288099289,
        -0.1611499935388565,
        0.04981686919927597,
        -0.2714866101741791,
        -0.0691477358341217,
        0.10952513664960861,
        0.2784835994243622,
        0.2035791575908661,
        -0.1850285530090332,
        0.1587865650653839,
        -0.16107220947742462,
        0.19333571195602417,
        0.10772804915904999,
        -0.07338155061006546,
        -0.3573022186756134,
        0.11331713199615479,
        -0.058533333241939545,
        0.07984228432178497,
        0.18416963517665863,
        0.04182594269514084,
        0.13116157054901123,
        -0.16995836794376373,
        0.3050330579280853,
        -0.08598895370960236,
        -0.13323217630386353,
        0.06467051059007645,
        -0.059631962329149246,
        -0.29604557156562805,
        0.06590677797794342,
        -0.09948636591434479,
        -0.18519330024719238,
        0.22775223851203918,
        -0.2849896550178528,
        0.19315782189369202,
        0.19717252254486084,
        0.02625912055373192,
        0.1029549092054367,
        0.2966630160808563,
        0.19712799787521362,
        -0.47709226608276367,
        -0.3046751022338867,
        0.1258285641670227,
        0.04068276658654213,
        0.3158699572086334,
        -0.17130935192108154,
        -0.0032692302484065294,
        -0.05668777972459793,
        -0.04807598888874054,
        0.27009740471839905,
        -0.41069650650024414,
        -0.29041099548339844,
        0.3771180808544159,
        0.0770312249660492,
        -0.4575653076171875,
        -0.3915064036846161,
        0.27029120922088623,
        0.0388861745595932,
        -0.11471769958734512,
        0.28670307993888855,
        0.0588204525411129,
        -0.042263928800821304,
        0.0058707622811198235,
        0.16470584273338318,
        0.02305714040994644,
        -0.07159139961004257,
        -0.2221178114414215,
        -0.041115690022706985,
        0.06317658722400665,
        0.08967911452054977,
        -0.473884254693985,
        -0.15319181978702545,
        0.03899780288338661,
        0.12174610048532486,
        0.06781966239213943,
        0.18789075314998627,
        0.20921948552131653,
        -0.06974983215332031,
        -0.2828851342201233,
        0.08497842401266098,
        -0.3450946509838104,
        -2.1685897081624717e-05,
        -0.07312282174825668,
        -0.24807016551494598,
        0.07556936889886856,
        0.13648539781570435,
        0.10695706307888031,
        -0.1809699982404709,
        0.10793120414018631,
        0.27184534072875977,
        -0.169242724776268,
        0.36314377188682556,
        -0.25810015201568604,
        0.23012562096118927,
        0.06141107901930809,
        -0.13483324646949768,
        0.1214105561375618,
        -0.2570168077945709,
        0.0976564884185791,
        -0.011017897166311741,
        -0.08474713563919067,
        -0.013969840481877327,
        -0.04499174281954765,
        0.07282857596874237,
        0.17839287221431732,
        -0.13184252381324768,
        0.3091173470020294,
        -0.2007112056016922,
        -0.0575263537466526,
        -0.13151755928993225,
        -0.13699784874916077,
        0.0617254301905632,
        0.08367730677127838,
        -0.09433983266353607,
        0.03344224393367767,
        0.05708244442939758,
        0.08151339739561081,
        0.48423951864242554,
        0.050042133778333664,
        0.1923234462738037,
        0.010857154615223408,
        0.06523928791284561,
        0.027533359825611115,
        0.18089190125465393,
        0.03909877687692642,
        0.30587759613990784,
        -0.22341525554656982,
        -0.13309670984745026,
        -0.18256200850009918,
        -0.03837071731686592,
        -0.061695802956819534,
        0.09533730894327164,
        -0.19938716292381287,
        -0.0799248218536377,
        0.18663077056407928,
        -0.1743772029876709,
        0.16613918542861938,
        0.006161103490740061,
        0.06879635155200958,
        -0.18640273809432983,
        -0.060650769621133804,
        -0.26701614260673523,
        -0.2890276312828064,
        0.09729932993650436,
        -0.016880078241229057,
        -0.024492338299751282,
        -0.15093864500522614,
        0.1980179399251938,
        -0.24058452248573303,
        -0.021608861163258553,
        -0.13281814754009247,
        -0.14186923205852509,
        0.1712232381105423,
        -0.1782366782426834,
        -0.03880675509572029,
        -0.09769956022500992,
        0.2178552895784378,
        -0.04222434014081955,
        -0.2106473594903946,
        0.2896595597267151,
        -0.19816340506076813,
        0.05983199551701546,
        0.0030143908224999905,
        0.03006642684340477,
        0.09732414036989212,
        0.2374570220708847,
        0.25790753960609436,
        0.09960322827100754,
        0.04469466581940651,
        0.16092614829540253,
        -0.005727391690015793,
        0.03631681948900223,
        0.055158305913209915,
        0.11714990437030792,
        -0.05709580332040787,
        -0.08205415308475494,
        -0.19907031953334808,
        -0.09258286654949188,
        0.09989510476589203,
        -0.02892681397497654,
        -0.01693914830684662,
        0.4452633559703827,
        -0.196237251162529,
        -0.10850127786397934,
        -0.035789668560028076,
        0.13746240735054016,
        0.26114460825920105,
        0.27492573857307434,
        0.2599124610424042,
        -0.249564528465271,
        -0.15492913126945496,
        0.21705031394958496,
        0.014556275680661201,
        0.06914997100830078,
        0.02645493485033512,
        0.6746162176132202,
        0.2675797939300537,
        -0.580485463142395,
        0.9364154934883118,
        0.14623381197452545,
        -1.0309046506881714,
        0.27515915036201477,
        -0.25196412205696106,
        -0.3773556053638458,
        -0.0986299067735672,
        -0.12904314696788788,
        -0.11586178094148636,
        0.03203805908560753,
        -0.23078961670398712,
        0.03927534818649292,
        0.13624320924282074,
        0.04399415850639343,
        0.10005444288253784,
        0.05499577894806862,
        0.005398391745984554,
        -0.07570791989564896,
        0.015453042462468147,
        -0.2574130594730377,
        -0.16145166754722595,
        -0.030005022883415222,
        -0.12541627883911133,
        -0.15116938948631287,
        -0.1275099515914917,
        -0.08483096212148666,
        -0.21190866827964783,
        0.012042446993291378,
        -0.09472360461950302,
        -0.09898114204406738,
        0.0024584555067121983,
        0.09598160535097122,
        -0.08945045620203018,
        -0.3030933141708374,
        0.06642678380012512,
        -0.03185422718524933,
        -0.17102786898612976,
        0.22357749938964844,
        0.03043024055659771,
        -0.07088134437799454,
        -0.09936676174402237,
        0.01788511872291565,
        0.2082304209470749,
        0.11983021348714828,
        0.16316206753253937,
        -0.12666721642017365,
        -0.0893220454454422,
        0.11705409735441208,
        0.119825080037117,
        0.10653173923492432,
        0.09241799265146255,
        -0.07076317816972733,
        -0.1796526312828064,
        -0.11776120960712433,
        -0.03110358491539955,
        0.039771076291799545,
        0.12055703997612,
        -0.0907961055636406,
        -0.06515044718980789,
        0.0226555448025465,
        0.03629680350422859,
        -0.12758228182792664,
        0.04319264739751816,
        0.006427701096981764,
        0.025911835953593254,
        -0.04969489201903343,
        -0.09417606145143509,
        -0.018738482147455215,
        -0.020095087587833405,
        -0.03774680942296982,
        -0.06236417964100838,
        0.07378201186656952,
        0.04583541676402092,
        -0.20445920526981354,
        0.1764182299375534,
        -0.1276913583278656,
        0.05491722375154495,
        0.10953687876462936,
        -0.014720811508595943,
        0.16791917383670807,
        -0.13967229425907135,
        -0.011411750689148903,
        0.227921724319458,
        -0.16300511360168457,
        -0.13463014364242554,
        0.0565977618098259,
        -0.007048772647976875,
        -0.01120593398809433,
        0.03847943991422653,
        -0.0026998494286090136,
        0.1367923766374588,
        -0.16811330616474152,
        0.0008480442920699716,
        -0.03618832677602768,
        0.07508425414562225,
        0.11224956065416336,
        -0.06110824644565582,
        0.09611500799655914,
        -0.06098717823624611,
        0.0073839412070810795,
        0.249508336186409,
        0.15915238857269287,
        0.04972119256854057,
        -0.0634395107626915,
        -0.1350674033164978,
        0.032573334872722626,
        0.017176561057567596,
        0.07360412180423737,
        -0.23950083553791046,
        -0.0587662048637867,
        0.09611596167087555,
        -0.10201296955347061,
        -0.002127325627952814,
        0.1570204198360443,
        0.11538240313529968,
        -0.5591279864311218,
        0.20263180136680603,
        0.1438855081796646,
        0.13456569612026215,
        -0.1388758420944214,
        -0.1585831493139267,
        0.2213725596666336,
        -0.007887921296060085,
        -0.22224706411361694,
        0.27098268270492554,
        0.04154304787516594,
        -0.02222674898803234,
        -0.2408771961927414,
        -0.023193884640932083,
        0.12260466814041138,
        -0.09440021216869354,
        -0.062385767698287964,
        -0.056531526148319244,
        -0.10111968964338303,
        0.02714690752327442,
        0.034495893865823746,
        0.17108367383480072,
        0.12615515291690826,
        -0.04152626916766167,
        -0.2158132642507553,
        0.030860546976327896,
        0.22697319090366364,
        0.20783482491970062,
        -0.0029658523853868246,
        -0.12286616861820221,
        -0.12942147254943848,
        0.059875790029764175,
        0.011110540479421616,
        -0.014853271655738354,
        0.06745191663503647,
        -0.2975422441959381,
        -0.12197322398424149,
        -0.016572415828704834,
        0.1591426432132721,
        0.23371471464633942,
        -0.00046400638530030847,
        -0.08176631480455399,
        0.08936250954866409,
        -0.010617753490805626,
        -0.14146192371845245,
        0.20376688241958618,
        -0.19546186923980713,
        -0.25379472970962524,
        0.06456487625837326,
        -0.08096443116664886,
        0.48957765102386475,
        -0.03592203930020332,
        -0.16507071256637573,
        -0.03106010891497135,
        0.039835553616285324,
        0.03594148904085159,
        -0.1081855520606041,
        0.18682414293289185,
        0.09076856821775436,
        -0.23366014659404755,
        0.03232496231794357,
        0.12604305148124695,
        0.07549681514501572,
        0.01988161727786064,
        -0.07995343208312988,
        -0.009298012591898441,
        -0.14429046213626862,
        -0.1188133955001831,
        0.21040767431259155,
        0.20177875459194183,
        -0.0926680713891983,
        -0.27755603194236755,
        -0.16980747878551483,
        0.020802414044737816,
        0.20072650909423828,
        0.08920186758041382,
        -0.028827348724007607,
        -0.10242373496294022,
        -0.22409868240356445,
        -0.10777755081653595,
        0.006610274780541658,
        0.14742867648601532,
        -0.054280053824186325,
        -0.14254815876483917,
        -0.03179876506328583,
        0.06604617089033127,
        0.04312524572014809,
        0.07064242660999298,
        -0.0035273467656224966,
        -0.13524235785007477,
        0.23814721405506134,
        -0.06698451936244965,
        -0.06719089299440384,
        0.15644660592079163,
        -0.18468573689460754,
        0.031793978065252304,
        -0.08371817320585251,
        0.9990227818489075,
        -0.3472311198711395,
        -0.014201250858604908,
        -0.08718803524971008,
        0.10005820542573929,
        -0.11194636672735214,
        0.1038825735449791,
        0.21724562346935272,
        -0.07094820588827133,
        0.043303512036800385,
        0.0572977140545845,
        0.10774166136980057,
        0.25907957553863525,
        -0.19953760504722595,
        -0.0021774759516119957,
        0.18082819879055023,
        -0.0019193982006981969,
        0.14629733562469482,
        0.11247940361499786,
        -0.0410892628133297,
        -0.3041575849056244,
        -0.2016296088695526,
        0.13549594581127167,
        0.12674519419670105,
        -0.08128254860639572,
        -0.13448287546634674,
        -0.177834615111351,
        -0.21203254163265228,
        0.19719618558883667,
        0.20671559870243073,
        0.13594983518123627,
        -0.0630028173327446,
        -0.19996193051338196,
        -0.09552449733018875,
        0.2621592879295349,
        0.100721076130867,
        0.10481437295675278,
        -0.30582717061042786,
        -0.18681956827640533,
        0.0835317000746727,
        0.04469374939799309,
        -0.17295876145362854,
        -0.10830679535865784,
        0.30061495304107666,
        -0.10324220359325409,
        -0.13807639479637146,
        0.3666415512561798,
        -0.14338916540145874,
        0.20639118552207947,
        -0.24405895173549652,
        0.1881892830133438,
        -0.11618771404027939,
        -0.21738649904727936,
        0.1786751002073288,
        -0.018481124192476273,
        -0.09377402812242508,
        0.10458499193191528,
        -0.07594798505306244,
        -0.16200388967990875,
        -0.14428319036960602,
        -0.19527259469032288,
        0.13846635818481445,
        0.15534287691116333,
        0.07440069317817688,
        0.10962338745594025,
        -0.29281195998191833,
        -0.13061191141605377,
        0.0301983505487442,
        0.022168073803186417,
        0.11224045604467392,
        -0.047566477209329605,
        -0.22208072245121002,
        -0.162313312292099,
        0.16296987235546112,
        0.17669324576854706,
        -0.039958130568265915,
        -0.2592562139034271,
        -0.17813579738140106,
        0.007895061746239662,
        0.08707456290721893,
        0.1470341831445694,
        0.018907295539975166,
        -0.22196230292320251,
        -0.06508984416723251,
        0.03405778855085373,
        0.20833440124988556,
        0.25733286142349243,
        -0.0976744145154953,
        -0.17412884533405304,
        0.07161054760217667,
        0.020004667341709137,
        -0.10046206414699554,
        0.16184882819652557,
        -0.14648577570915222,
        -0.28680261969566345,
        -0.011711947619915009,
        -0.02681003138422966,
        0.5468586683273315,
        -0.24622221291065216,
        -0.07417447865009308,
        0.10800861567258835,
        0.0323885940015316,
        0.010720660910010338,
        0.05913109704852104,
        -0.03030417114496231,
        -0.07573254406452179,
        -0.02808161824941635,
        -0.014764206483960152,
        0.10432963818311691,
        -0.09500284492969513,
        -0.11449408531188965,
        -0.09057242423295975,
        0.005501534324139357,
        -0.005337867420166731,
        0.05213990435004234,
        -0.045793045312166214,
        -0.02689511701464653,
        0.04710298031568527,
        0.047936368733644485,
        0.24435918033123016,
        0.08945342898368835,
        -0.13165488839149475,
        -0.14899036288261414,
        0.02305605635046959,
        0.2141595184803009,
        -0.008463597856462002,
        0.08052751421928406,
        -0.1737939566373825,
        -0.26239466667175293,
        0.06193583831191063,
        -0.006665382534265518,
        0.06258407980203629,
        -0.07483101636171341,
        -0.1411985456943512,
        -0.17262206971645355,
        -0.06448481976985931,
        0.16540366411209106,
        -0.06848961859941483,
        -0.017000382766127586,
        0.13782846927642822,
        -0.3171309530735016,
        0.0013923668302595615,
        0.12481796741485596,
        0.47946980595588684,
        0.0266648568212986,
        0.12329697608947754,
        0.030913079157471657,
        0.16594602167606354,
        -0.1970643550157547,
        0.12209269404411316,
        0.03614410012960434,
        -0.01344231516122818,
        -0.07622239738702774,
        0.11036429554224014,
        -0.027533885091543198,
        -0.169736847281456,
        -0.10272233188152313,
        0.15160681307315826,
        -0.1370190680027008,
        0.12722636759281158,
        0.07516290992498398,
        -0.014416391029953957,
        0.11716927587985992,
        -0.05599129945039749,
        -0.05278773605823517,
        -0.03471783548593521,
        0.0029456072952598333,
        -0.2630726993083954,
        0.2141210436820984,
        -0.03319193422794342,
        0.0563536137342453,
        -0.05324161797761917,
        -0.2391895055770874,
        -0.1286935657262802,
        0.1678650826215744,
        0.010333281941711903,
        0.19635650515556335,
        -0.16845618188381195,
        -0.06181011348962784,
        -0.21248024702072144,
        -0.024907810613512993,
        -0.09016909450292587,
        -0.027506694197654724,
        0.05566990375518799,
        0.19880621135234833,
        -0.05049927905201912,
        -0.1307530701160431,
        -0.0447370745241642,
        0.0248491819947958,
        -0.11168563365936279,
        -0.16611792147159576,
        -0.019790248945355415,
        0.7183347940444946,
        -0.25890105962753296,
        -0.22717657685279846,
        -0.24861012399196625,
        -0.07107353955507278,
        -0.03945763781666756,
        -0.04276438429951668,
        0.04926418885588646,
        -0.06579948216676712,
        0.059551335871219635,
        -0.010639960877597332,
        -0.005925897043198347,
        0.058105405420064926,
        -0.18312424421310425,
        -0.18376563489437103,
        -0.008621161803603172,
        -0.04039735719561577,
        -0.025261327624320984,
        -0.12782593071460724,
        -0.16844694316387177,
        0.09314538538455963,
        -0.014890782535076141,
        0.07840418070554733,
        0.3731466829776764,
        0.0524156428873539,
        -0.07259490340948105,
        0.00319776707328856,
        -0.11250434815883636,
        0.14409923553466797,
        0.11673181504011154,
        0.10107792913913727,
        -0.0005009158048778772,
        -0.16146928071975708,
        -0.06517497450113297,
        -0.024850990623235703,
        0.21171456575393677,
        0.0003589297120925039,
        -0.2934032678604126,
        -0.11911437660455704,
        0.131181538105011,
        0.044139936566352844,
        -0.12011487036943436,
        -0.09176883101463318,
        0.22391894459724426,
        0.09231375902891159,
        -0.007951672188937664,
        0.006877832114696503,
        -0.32365304231643677,
        -0.2562027871608734,
        -0.020999938249588013,
        -0.24647028744220734,
        -0.010189659893512726,
        -0.14558161795139313,
        -0.09402729570865631,
        0.14174702763557434,
        0.1888154000043869,
        -0.19009074568748474,
        -0.014880013652145863,
        0.1996927410364151,
        0.12096620351076126,
        -0.02993926778435707,
        -0.18290279805660248,
        0.14305642247200012,
        0.015663010999560356,
        0.25181740522384644,
        0.20298078656196594,
        0.11608517915010452,
        -0.025268375873565674,
        -0.3994598686695099,
        -0.07692372798919678,
        -0.21368098258972168,
        0.2136828750371933,
        -0.15610767900943756,
        -0.41305485367774963,
        -0.2955370247364044,
        -0.14615345001220703,
        0.22720634937286377,
        0.3479834794998169,
        -0.06715932488441467,
        -0.12522049248218536,
        -0.10416499525308609,
        0.09576109796762466,
        0.23770791292190552,
        0.06870446354150772,
        0.15066461265087128,
        -0.25054219365119934,
        -0.28881171345710754,
        -0.0911533460021019,
        -0.023133659735322,
        -0.24602048099040985,
        -0.08905947208404541,
        0.23879653215408325,
        -0.2046898454427719,
        0.1589602828025818,
        0.003270175773650408,
        -0.19163314998149872,
        0.013385712169110775,
        0.24987222254276276,
        0.11412634700536728,
        0.12890686094760895,
        -0.0035360297188162804,
        0.12978991866111755,
        0.13146904110908508,
        0.0717124417424202,
        0.13260948657989502,
        0.1970667690038681,
        0.07242657244205475,
        -0.029955795034766197,
        -0.01633692905306816,
        0.18983548879623413,
        0.2120969593524933,
        -0.13168473541736603,
        0.20242668688297272,
        -0.04911154508590698,
        -0.05403394624590874,
        0.009505745954811573,
        0.14667877554893494,
        0.23118294775485992,
        -0.1803189069032669,
        -0.17543751001358032,
        0.13898000121116638,
        0.0944301038980484,
        0.1035892516374588,
        0.12625260651111603,
        -0.09193506091833115,
        -0.13145065307617188,
        -0.029805218800902367,
        0.16378174722194672,
        0.23832279443740845,
        0.016815708950161934,
        -0.04866078495979309,
        -0.06680823117494583,
        -0.07514417916536331,
        0.1736459881067276,
        0.07150430977344513,
        0.10438530147075653,
        -0.07126310467720032,
        0.23544193804264069,
        -0.12827743589878082,
        -0.21107135713100433,
        0.04049235209822655,
        0.2846578061580658,
        -0.22761739790439606,
        0.2122529298067093,
        -0.8075846433639526,
        -0.3876475393772125,
        -0.16226725280284882,
        -0.05210801959037781,
        0.16807059943675995,
        -0.11134543269872665,
        -0.06184888258576393,
        0.14356687664985657,
        -0.030527407303452492,
        -0.022395983338356018,
        0.21223890781402588,
        -0.06670370697975159,
        -0.012277325615286827,
        -0.08723396807909012,
        0.06413278728723526,
        -0.05623067170381546,
        -0.07984623312950134,
        -0.011654475703835487,
        -0.17162497341632843,
        -0.12976659834384918,
        -0.10389265418052673,
        0.1524762362241745,
        0.22761419415473938,
        0.2186371237039566,
        -0.054146215319633484,
        -0.1559138000011444,
        -0.19132272899150848,
        0.06568260490894318,
        -0.038759566843509674,
        -0.044512346386909485,
        -0.0508001334965229,
        -0.19891329109668732,
        -0.1832156628370285,
        -0.16572028398513794,
        -0.05249038711190224,
        0.1904706060886383,
        -0.07605331391096115,
        -0.022707171738147736,
        -0.033011894673109055,
        0.0049924603663384914,
        0.08195898681879044,
        -0.180079847574234,
        -0.11467990279197693,
        0.2076709270477295,
        -0.14588962495326996,
        -0.17532391846179962,
        0.17243993282318115,
        -0.31405070424079895,
        -0.01064366102218628,
        -0.07272230833768845,
        0.12122613936662674,
        -0.12120836973190308,
        0.18898409605026245,
        0.2091568112373352,
        0.046418044716119766,
        -0.17400066554546356,
        0.05724092200398445,
        -0.16731873154640198,
        -0.0040159267373383045,
        -0.0611867718398571,
        0.016935767605900764,
        0.0733087956905365,
        0.05881883203983307,
        0.10518007725477219,
        0.08284022659063339,
        -0.11864268779754639,
        0.08748636394739151,
        0.09961956739425659,
        0.03491102531552315,
        0.11185251176357269,
        -0.08297475427389145,
        -0.016479358077049255,
        -0.1480499655008316,
        0.078015998005867,
        0.1739492416381836,
        -0.08295810222625732,
        0.020091591402888298,
        -0.18518678843975067,
        0.018912121653556824,
        0.07351421564817429,
        0.18045441806316376,
        0.18826979398727417,
        -0.03767089173197746,
        -0.0653161033987999,
        -0.06158043071627617,
        0.18637670576572418,
        -0.03200260549783707,
        -0.07516592741012573,
        -0.17769743502140045,
        0.14019685983657837,
        0.09957738220691681,
        -0.0471455454826355,
        0.13315941393375397,
        0.07186023890972137,
        -0.10558690875768661,
        0.15964283049106598,
        0.13172368705272675,
        -0.07464701682329178,
        0.16973114013671875,
        -0.021570689976215363,
        -0.12203337252140045,
        0.17710277438163757,
        -0.11322490870952606,
        -0.17767105996608734,
        0.22750844061374664,
        0.06025907024741173,
        -0.2257026582956314,
        -0.1654714047908783,
        -0.017071548849344254,
        0.29496416449546814,
        -0.11437209695577621,
        0.07958175241947174,
        0.16914118826389313,
        -0.1855766773223877,
        -0.024043576791882515,
        0.025653693825006485,
        0.13977642357349396,
        -0.0341518335044384,
        -0.12690086662769318,
        -0.10247378051280975,
        0.05311914160847664,
        -0.005235177930444479,
        0.12996353209018707,
        0.020124616101384163,
        -0.09896204620599747,
        -0.1232021376490593,
        -0.06320793181657791,
        0.2399076670408249,
        0.177735835313797,
        0.05757612735033035,
        -0.18504652380943298,
        -0.16180625557899475,
        0.05246322229504585,
        0.1390593945980072,
        0.0490126758813858,
        0.11799251288175583,
        -0.14641879498958588,
        0.18928636610507965,
        0.12631331384181976,
        -0.20828427374362946,
        0.120830237865448,
        0.011252407915890217,
        -0.11610447615385056,
        -0.008510163985192776,
        -0.25761181116104126,
        0.01878933422267437,
        0.16029003262519836,
        0.10316776484251022,
        0.03400055691599846,
        0.24559341371059418,
        -0.06305043399333954,
        0.11194398999214172,
        0.11777108162641525,
        -0.17893685400485992,
        0.0901351049542427,
        -0.22347259521484375,
        -0.05458299443125725,
        0.07684183120727539,
        -0.21342365443706512,
        -0.15677763521671295,
        -0.05744495987892151,
        -0.004690155386924744,
        -0.0019652543123811483,
        -0.13157933950424194,
        0.07147479802370071,
        -0.056845344603061676,
        -0.1521676778793335,
        -0.03822234272956848,
        0.05009700730443001,
        -0.0408925786614418,
        0.1723339855670929,
        -0.154923677444458,
        0.05011505261063576,
        -0.025254368782043457,
        0.04820014163851738,
        0.023775966838002205,
        0.04705118387937546,
        -0.1319497674703598,
        0.06840250641107559,
        -0.18240423500537872,
        0.278329998254776,
        -0.14266522228717804,
        -0.0009199759806506336,
        -0.13656440377235413,
        0.0526050366461277,
        0.08585360646247864,
        -0.1659635752439499,
        0.135793074965477,
        0.11390288174152374,
        -0.20713692903518677,
        0.01060199923813343,
        -0.08457814902067184,
        0.8151524662971497,
        -0.09164292365312576,
        -0.08749531954526901,
        0.001714935409836471,
        -0.01771860383450985,
        -0.13117866218090057,
        -0.08158615976572037,
        0.10899671912193298,
        -0.0653679296374321,
        0.024097619578242302,
        0.07187671214342117,
        -0.12006533890962601,
        0.20807017385959625,
        0.20192129909992218,
        -0.11314553767442703,
        0.0357186533510685,
        -0.014619776047766209,
        0.0391005203127861,
        -0.13610363006591797,
        -0.15220418572425842,
        0.0972539484500885,
        -0.027394995093345642,
        -0.018050264567136765,
        0.09857424348592758,
        0.14054988324642181,
        -0.12954486906528473,
        -0.03948773071169853,
        -0.13635940849781036,
        0.03876219317317009,
        -0.04925891384482384,
        0.0850730836391449,
        -0.09957916289567947,
        -0.11094789952039719,
        -0.2737579047679901,
        0.12055867910385132,
        -0.027380799874663353,
        0.15559570491313934,
        0.02937551587820053,
        0.0493977814912796,
        0.30107030272483826,
        0.028324352577328682,
        -0.052078913897275925,
        -0.007195699959993362,
        0.04035103693604469,
        0.11951327323913574,
        -0.3022282123565674,
        -0.08513510972261429,
        -0.21864637732505798,
        0.10878967493772507,
        0.18929195404052734,
        0.2807326316833496,
        0.16374436020851135,
        0.06758810579776764,
        -0.1363900601863861,
        -0.09597011655569077,
        -0.06356078386306763,
        -0.027388587594032288,
        -0.14251169562339783,
        0.16659723222255707,
        -0.028320930898189545,
        0.0529802180826664,
        0.021988902240991592,
        -0.005323909223079681,
        0.09178263694047928,
        0.008742768317461014,
        0.029574451968073845,
        -0.023029647767543793,
        -0.6633174419403076,
        1.1136970520019531,
        0.35169854760169983,
        -0.6391493678092957,
        0.33627066016197205,
        -0.14958015084266663,
        -0.08088737726211548,
        0.5914061665534973,
        -1.1737135648727417,
        1.1094038486480713,
        0.8049020171165466,
        0.001495875301770866,
        -0.44115760922431946,
        0.2587447762489319,
        -1.0324288606643677,
        0.16097421944141388,
        -0.062023602426052094,
        -0.23412968218326569,
        -0.32070010900497437,
        0.5012009143829346,
        -0.05655926465988159,
        0.18890422582626343,
        -0.11842846125364304,
        0.0816163718700409,
        0.2784084677696228,
        -0.34354010224342346,
        0.1285567432641983,
        -0.17236661911010742,
        -0.37172120809555054,
        -0.24756701290607452,
        -0.0670580267906189,
        0.055823419243097305,
        0.09601937979459763,
        0.05849236249923706,
        0.23834027349948883,
        0.1447242945432663,
        0.1134692132472992,
        -0.15108059346675873,
        -0.333281010389328,
        -0.14182710647583008,
        0.0306179728358984,
        -0.055032577365636826,
        -0.22875693440437317,
        0.12458369880914688,
        0.3034488558769226,
        0.0541362427175045,
        -0.002693343907594681,
        0.02551080286502838,
        -0.23463000357151031,
        -0.06495467573404312,
        -0.10552293807268143,
        0.3598083257675171,
        -0.351447731256485,
        -0.21119768917560577,
        -0.1596757173538208,
        -0.10780175775289536,
        -0.10187423229217529,
        -0.40374141931533813,
        0.30269479751586914,
        0.11862649768590927,
        -0.5504439473152161,
        -0.011763385497033596,
        0.01948576793074608,
        0.43890488147735596,
        -0.0794946625828743,
        0.3130648136138916,
        0.014764741994440556,
        -0.11479813605546951,
        0.20509280264377594,
        -0.28881436586380005,
        0.20581811666488647,
        0.40491652488708496,
        -0.18276341259479523,
        0.35321244597435,
        0.256952702999115,
        0.044984109699726105,
        0.15161827206611633,
        0.17368736863136292,
        -0.3188323676586151,
        0.1426393836736679,
        -0.06422634422779083,
        0.13492046296596527,
        -0.22025451064109802,
        0.2035660445690155,
        -0.2311229407787323,
        0.262210875749588,
        -0.10263165086507797,
        0.2554343640804291,
        -0.04603486880660057,
        -0.1801801323890686,
        0.4105603098869324,
        -0.4127982556819916,
        -0.47220319509506226,
        0.25643351674079895,
        -0.07924389094114304,
        0.07542236149311066,
        -0.1557156890630722,
        0.21343719959259033,
        0.14466208219528198,
        -0.24726341664791107,
        0.13648584485054016,
        0.02081395499408245,
        0.31264764070510864,
        0.002473002765327692,
        -0.30458125472068787,
        0.19208596646785736,
        0.1396722048521042,
        -0.04238569363951683,
        0.3369138836860657,
        0.41546088457107544,
        0.15215632319450378,
        0.004881747532635927,
        0.1081487163901329,
        -0.21953260898590088,
        0.10756391286849976,
        0.424099326133728,
        -0.1862388402223587,
        0.10299478471279144,
        -0.0838584303855896,
        -0.2207280695438385,
        0.2291276454925537,
        -0.1486360877752304,
        -0.1151733547449112,
        0.12334883213043213,
        -0.10087825357913971,
        0.004198979586362839,
        0.08206084370613098,
        0.10561526566743851,
        0.48967742919921875,
        -0.1903771013021469,
        -0.06462060660123825,
        0.03263656049966812,
        -0.15204894542694092,
        -0.09532724320888519,
        -0.31185072660446167,
        -0.04905092343688011,
        0.03470192477107048,
        0.03591908887028694,
        0.02853868342936039,
        0.16736027598381042,
        0.20623190701007843,
        0.09668733179569244,
        -0.038402657955884933,
        -0.23308785259723663,
        0.24364390969276428,
        -0.15492019057273865,
        0.06925802677869797,
        0.26756930351257324,
        -0.02942107990384102,
        -0.20911836624145508,
        0.0046389102935791016,
        -0.12273919582366943,
        0.14917147159576416,
        -0.29414865374565125,
        0.11218901723623276,
        -0.20011359453201294,
        -0.11361689865589142,
        -0.12387767434120178,
        -0.02626129612326622,
        0.3924505412578583,
        -0.20112700760364532,
        -0.18223324418067932,
        0.0852551981806755,
        0.061966054141521454,
        0.14030568301677704,
        0.000682405661791563,
        -0.09826881438493729,
        0.0055998461320996284,
        0.03544769436120987,
        0.17218978703022003,
        0.07681608945131302,
        -0.1839190423488617,
        -0.13569656014442444,
        0.3809014558792114,
        -0.07411995530128479,
        0.19856350123882294,
        -0.16425257921218872,
        -0.22243544459342957,
        -0.24577076733112335,
        0.32507121562957764,
        -0.24753688275814056,
        0.08678994327783585,
        -0.06823205947875977,
        0.18439272046089172,
        0.14001493155956268,
        -0.4174216091632843,
        0.016388889402151108,
        0.06377139687538147,
        -0.32551732659339905,
        -0.09681032598018646,
        0.13114722073078156,
        0.14439459145069122,
        0.013547894544899464,
        -0.08529789745807648,
        0.015737460926175117,
        0.10264885425567627,
        0.15560507774353027,
        0.1627875417470932,
        0.15285037457942963,
        -0.004615830723196268,
        -0.14322133362293243,
        -0.1640578657388687,
        0.31317272782325745,
        -0.32581043243408203,
        -0.3138119876384735,
        0.0115549610927701,
        0.09975217282772064,
        -0.3962201178073883,
        -0.15367227792739868,
        0.02192395180463791,
        0.1391581892967224,
        0.08444226533174515,
        0.1722414642572403,
        -0.33482518792152405,
        -0.16225776076316833,
        0.01631217822432518,
        -0.11805976927280426,
        -0.1982462853193283,
        -0.15947005152702332,
        0.21561403572559357,
        0.23763211071491241,
        -0.06181333586573601,
        -0.20012177526950836,
        -0.32827335596084595,
        0.20893047749996185,
        -0.14053891599178314,
        -0.0532708540558815,
        -0.006435194984078407,
        -0.10144205391407013,
        0.06609457731246948,
        -0.16980284452438354,
        -0.08289657533168793,
        0.023923728615045547,
        0.10046330094337463,
        -0.37488502264022827,
        0.16650670766830444,
        0.17398197948932648,
        -0.4159024953842163,
        -0.0982932522892952,
        -0.09490613639354706,
        0.2743171155452728,
        -0.33335304260253906,
        -0.18096108734607697,
        0.15131467580795288,
        -0.29420414566993713,
        0.15293042361736298,
        -0.2759511172771454,
        0.0970098152756691,
        0.4347977936267853,
        -0.09088162332773209,
        0.2452668994665146,
        -0.1060277670621872,
        -0.2528004050254822,
        -0.14466607570648193,
        -0.2539190649986267,
        0.010303211398422718,
        -0.08636261522769928,
        -0.19330906867980957,
        -0.44955480098724365,
        0.036731358617544174,
        -0.1646750569343567,
        0.06192304939031601,
        -0.28335338830947876,
        -0.010052907280623913,
        0.30321797728538513,
        0.14047731459140778,
        0.2548971176147461,
        -0.16912078857421875,
        -0.37336254119873047,
        -0.22401276230812073,
        0.01258394867181778,
        0.06372887641191483,
        -0.02730487287044525,
        0.019006401300430298,
        0.37816092371940613,
        -0.23426038026809692,
        0.28741973638534546,
        0.08407126367092133,
        -0.11928707361221313,
        -0.18457770347595215,
        -0.09522692114114761,
        0.05721539258956909,
        0.2487744390964508,
        0.11546441167593002,
        0.11424153298139572,
        -0.07427003979682922,
        -0.0077347708866000175,
        -0.23213054239749908,
        -0.3081883192062378,
        0.12060003727674484,
        0.0818280279636383,
        -0.014833226799964905,
        0.1616954654455185,
        -0.04650861397385597,
        -0.3533124327659607,
        0.14892926812171936,
        -0.07039377093315125,
        0.24756799638271332,
        0.1577398180961609,
        -0.1655048280954361,
        -0.2467735856771469,
        -0.16800525784492493,
        0.14012034237384796,
        0.19766825437545776,
        0.16500364243984222,
        0.24798385798931122,
        -0.11213885247707367,
        0.100563183426857,
        -0.25279343128204346,
        0.0985654667019844,
        -0.14590886235237122,
        0.07564523071050644,
        -0.24887573719024658,
        0.03774542734026909,
        -0.14815397560596466,
        0.0682721957564354,
        -0.0810365304350853,
        -0.10683994740247726,
        -0.33741164207458496,
        0.43713194131851196,
        -0.03023153729736805,
        -0.05675504356622696,
        -0.006920582614839077,
        0.09356214106082916,
        0.08065763860940933,
        0.07204726338386536,
        0.15097671747207642,
        -0.03639436513185501,
        -0.10609348863363266,
        -0.0991857647895813,
        -0.19209140539169312,
        -0.026461297646164894,
        -0.17435966432094574,
        -0.34988710284233093,
        -0.03869347274303436,
        0.16526146233081818,
        0.42708519101142883,
        -0.24211594462394714,
        0.18231460452079773,
        -0.04013907536864281,
        -0.24631845951080322,
        0.20088323950767517,
        0.13348917663097382,
        -0.09447690844535828,
        -0.23120297491550446,
        -0.09286574274301529,
        0.16498933732509613,
        0.08301614969968796,
        0.060531191527843475,
        0.19696518778800964,
        -0.10391228646039963,
        -0.3807436227798462,
        0.04266927018761635,
        -0.07941275835037231,
        0.24567408859729767,
        -0.17565268278121948,
        -0.13947078585624695,
        -0.07271482795476913,
        -0.17721125483512878,
        0.13489282131195068,
        0.26812395453453064,
        -0.2549436390399933,
        -0.04017322510480881,
        0.035704899579286575,
        0.2523048222064972,
        0.1133352592587471,
        0.2793228328227997,
        -0.2535485625267029,
        0.042038459330797195,
        -0.11719099432229996,
        -0.10987833887338638,
        -0.0975828692317009,
        0.014124619774520397,
        -0.019553519785404205,
        -0.0939776599407196,
        0.21323396265506744,
        -0.24694941937923431,
        0.226112499833107,
        0.3392324149608612,
        -0.10419091582298279,
        0.10606177896261215,
        0.5587840676307678,
        -0.06647644937038422,
        -0.41296011209487915,
        -0.041965872049331665,
        0.06005295738577843,
        0.20685957372188568,
        0.03595981001853943,
        -0.22572162747383118,
        -0.30115702748298645,
        0.032423753291368484,
        0.027860276401042938,
        -0.14977550506591797,
        -0.016808776184916496,
        -0.030828548595309258,
        0.024327324703335762,
        -0.054188087582588196,
        -0.002135166432708502,
        -0.17626619338989258,
        -0.1704782396554947,
        0.07782389968633652,
        0.005076284054666758,
        0.10153000056743622,
        -0.18703186511993408,
