{
    "version": "0.5.0",
    "architecture": "WaveNet",
    "config": {
        "layers": [
            {
                "input_size": 1,
                "condition_size": 1,
                "head_size": 8,
                "channels": 16,
                "kernel_size": 3,
                "dilations": [
                    1,
                    2,
                    4,
                    8,
                    16,
                    32,
                    64,
                    128,
                    256,
                    512
                ],
                "activation": "Tanh",
                "gated": false,
                "head_bias": false
            },
            {
                "input_size": 16,
                "condition_size": 1,
                "head_size": 1,
                "channels": 8,
                "kernel_size": 3,
                "dilations": [
                    1,
                    2,
                    4,
                    8,
                    16,
                    32,
                    64,
                    128,
                    256,
                    512
                ],
                "activation": "Tanh",
                "gated": false,
                "head_bias": true
            }
        ],
        "head": null,
        "head_scale": 0.02
    },
    "weights": [
        -0.002578014973551035,
        0.30890417098999023,
        -0.7199591994285583,
        -0.6801963448524475,
        -0.20426517724990845,
        0.18441401422023773,
        -0.0023743556812405586,
        0.8573586344718933,
        -0.19439691305160522,
        0.2561391294002533,
        -0.38817182183265686,
        -0.09408088028430939,
        -0.9462668895721436,
        -0.5233048796653748,
        -0.27878090739250183,
        -0.08265537023544312,
        0.1205708235502243,
        0.08356963098049164,
        -0.012505806051194668,
        -0.11654865741729736,
        0.11888401210308075,
        0.022530101239681244,
        0.02534954808652401,
        0.03534206375479698,
        0.08221452683210373,
        0.07112588733434677,
        0.055629242211580276,
        -0.03198933228850365,
        -0.03510957956314087,
        -0.09899819642305374,
        0.04527174308896065,
        0.07852001488208771,
        -0.017482509836554527,
        -0.16049149632453918,
        -0.07417726516723633,
        -0.17871911823749542,
        -0.04963034763932228,
        0.06736019253730774,
        0.14254605770111084,
        -0.03398662060499191,
        0.06260929256677628,
        -0.16381089389324188,
        0.1208459660410881,
        -0.1907784789800644,
        -0.02405357174575329,
        -0.16889749467372894,
        0.1475106030702591,
        0.003387179458513856,
        0.03816182538866997,
        0.042875662446022034,
        0.027389470487833023,
        0.23939146101474762,
        0.11434486508369446,
        -0.05655478313565254,
        0.2004605233669281,
        -0.030092336237430573,
        -0.04728816822171211,
        -0.012725100852549076,
        -0.04400848597288132,
        -0.1428612619638443,
        0.16652564704418182,
        0.04883036017417908,
        -0.18619830906391144,
        0.1288602650165558,
        -0.03817949444055557,
        -0.052474066615104675,
        -0.03562137857079506,
        0.08284083753824234,
        0.042017895728349686,
        0.1517629325389862,
        -0.15828992426395416,
        -0.0005581947625614703,
        0.041063275188207626,
        0.07143452763557434,
        0.17621098458766937,
        0.10993986576795578,
        -0.023772630840539932,
        -0.08136824518442154,
        -0.0026823999360203743,
        -0.03491100296378136,
        -0.17521730065345764,
        0.14876599609851837,
        0.025015296414494514,
        -0.13698354363441467,
        0.027546215802431107,
        0.02222725749015808,
        -0.07525984197854996,
        -0.045305974781513214,
        -0.006651933304965496,
        -0.05144617706537247,
        0.011439941823482513,
        0.11362114548683167,
        0.04930984973907471,
        0.07211480289697647,
        -0.19503261148929596,
        -0.04883416369557381,
        0.04346892982721329,
        -0.03197260573506355,
        -0.07746627926826477,
        -0.09897159785032272,
        0.09166901558637619,
        0.15146315097808838,
        -0.07922687381505966,
        -0.08233277499675751,
        -0.0860464945435524,
        -0.017609063535928726,
        -0.15775159001350403,
        -0.06427975744009018,
        -0.02752114273607731,
        -0.09666167944669724,
        -0.1020573228597641,
        -0.04076310619711876,
        0.018144024536013603,
        0.09661954641342163,
        0.14745768904685974,
        -0.13431695103645325,
        0.03558321297168732,
        -0.11401883512735367,
        0.020665477961301804,
        -0.05499739199876785,
        0.1699794977903366,
        0.01585555076599121,
        -0.14977073669433594,
        0.1908854991197586,
        -0.11745364964008331,
        -0.14647983014583588,
        0.08628715574741364,
        -0.0861256793141365,
        0.022694744169712067,
        -0.24054017663002014,
        0.039207104593515396,
        -0.013866245746612549,
        0.0019488217076286674,
        -0.013516286388039589,
        0.18108780682086945,
        -0.143707275390625,
        0.047442905604839325,
        -0.05653465539216995,
        0.20646098256111145,
        0.08139155060052872,
        0.2025763839483261,
        -0.05084113031625748,
        0.1527261584997177,
        -0.07790660113096237,
        0.008458946831524372,
        -0.04428383335471153,
        0.027217408642172813,
        0.11368802934885025,
        -0.0692611038684845,
        -0.19142039120197296,
        -0.01095658354461193,
        -0.11334015429019928,
        -0.10390938073396683,
        0.20643171668052673,
        0.0917457640171051,
        -0.20945830643177032,
        0.22370679676532745,
        0.026698429137468338,
        -0.0434725321829319,
        0.22034545242786407,
        -0.03865930810570717,
        0.05380743741989136,
        -0.1488170474767685,
        -0.18526828289031982,
        -0.11180122196674347,
        0.12157796323299408,
        0.013167394325137138,
        0.16353295743465424,
        -0.23992770910263062,
        0.061116766184568405,
        0.22724992036819458,
        -0.1765260398387909,
        0.1766456663608551,
        0.1294138878583908,
        -0.2523501515388489,
        0.027097435668110847,
        -0.11193337291479111,
        0.05186978355050087,
        0.14571547508239746,
        -0.043918270617723465,
        -0.08027363568544388,
        -0.10147073119878769,
        0.005353065673261881,
        0.1638793796300888,
        0.11619545519351959,
        0.12268641591072083,
        -0.1915639340877533,
        -0.0927221029996872,
        -0.2008635550737381,
        0.21643877029418945,
        0.1772010326385498,
        0.18818828463554382,
        -0.23113371431827545,
        0.06110328435897827,
        -0.008421958424150944,
        -0.18956312537193298,
        -0.010858646593987942,
        0.14867547154426575,
        -0.2068309783935547,
        0.06446002423763275,
        0.09954991191625595,
        -0.030851097777485847,
        -0.0442718006670475,
        -0.008769011124968529,
        -0.2126067876815796,
        0.17989811301231384,
        0.08133564889431,
        -0.010444083251059055,
        0.012698349542915821,
        0.12269876897335052,
        0.006262046284973621,
        -0.07684566080570221,
        -0.1170196533203125,
        0.03496371582150459,
        0.06646723300218582,
        0.1755046397447586,
        -0.1695234626531601,
        -0.017293373122811317,
        0.26379820704460144,
        -0.1814485639333725,
        0.026384802535176277,
        0.2669934630393982,
        -0.018109090626239777,
        -0.04781133681535721,
        -0.26684829592704773,
        0.1348249316215515,
        -0.06883268803358078,
        0.10085932910442352,
        -0.06893749535083771,
        -0.07984510809183121,
        -0.1428195685148239,
        0.18919263780117035,
        0.04541974887251854,
        0.24609214067459106,
        -0.011592225171625614,
        -0.1391877382993698,
        -0.06154730170965195,
        -0.01615765132009983,
        -0.010760455392301083,
        0.17913147807121277,
        -0.027576619759202003,
        0.15035828948020935,
        0.09305231273174286,
        -0.057023435831069946,
        0.13486652076244354,
        0.006000082474201918,
        0.036234430968761444,
        -0.06447181105613708,
        0.1420244425535202,
        -0.09497972577810287,
        -0.025293374434113503,
        0.15538863837718964,
        0.04439352825284004,
        -0.03223060071468353,
        0.050649479031562805,
        -0.17259904742240906,
        -0.0744040384888649,
        0.03398796170949936,
        -0.010508636943995953,
        -0.07875081896781921,
        0.014419757761061192,
        -0.04136228561401367,
        0.04690776765346527,
        -0.0034335493110120296,
        0.17299523949623108,
        -0.07205419987440109,
        -0.14685474336147308,
        0.17037691175937653,
        0.10742741823196411,
        -0.050354860723018646,
        0.05710873380303383,
        -0.05372132733464241,
        -0.04034364968538284,
        -0.09687815606594086,
        -0.029920123517513275,
        -0.16061663627624512,
        0.22375214099884033,
        -0.0679117739200592,
        0.08981890231370926,
        -0.09277643263339996,
        0.007608788553625345,
        -0.1727960705757141,
        0.05995830520987511,
        0.1393461674451828,
        0.12150520831346512,
        -0.021264782175421715,
        -0.06635057926177979,
        -0.05457228422164917,
        0.10986971855163574,
        -0.010840123519301414,
        -0.17818881571292877,
        0.16825081408023834,
        0.017086554318666458,
        -0.1119813323020935,
        0.09656217694282532,
        -0.11206772178411484,
        -0.0026353371795266867,
        0.02272263914346695,
        0.04064619913697243,
        -0.14598311483860016,
        0.06596560776233673,
        0.13063856959342957,
        -0.09234902262687683,
        0.30888232588768005,
        0.10664261877536774,
        -0.17521516978740692,
        0.07401400059461594,
        0.0447874590754509,
        0.1313703954219818,
        -0.1416461020708084,
        -0.11668403446674347,
        -0.11356094479560852,
        0.1677929162979126,
        -0.043249353766441345,
        -0.027921034023165703,
        0.2209445834159851,
        -0.05129729211330414,
        -0.06542301923036575,
        0.18224968016147614,
        -0.008245841600000858,
        0.087858185172081,
        -0.10695083439350128,
        -0.061660051345825195,
        -0.05961662158370018,
        0.18942978978157043,
        0.12002133578062057,
        0.16428638994693756,
        -0.11208181828260422,
        0.11498826742172241,
        -0.11992742121219635,
        0.0506618395447731,
        -0.14128145575523376,
        0.20925243198871613,
        -0.0531519278883934,
        -0.08105528354644775,
        -0.01492973044514656,
        0.24681691825389862,
        0.17060726881027222,
        0.04972201585769653,
        0.2275148183107376,
        -0.02609424851834774,
        -0.13197487592697144,
        0.24653691053390503,
        0.09299453347921371,
        -0.1638154536485672,
        0.2591388523578644,
        0.08590970188379288,
        0.004501359071582556,
        0.0434577614068985,
        0.15113359689712524,
        -0.08692369610071182,
        0.35985052585601807,
        -0.007749855052679777,
        0.07169666886329651,
        0.04074887931346893,
        0.009264625608921051,
        0.051499515771865845,
        0.13940005004405975,
        -0.030928706750273705,
        -0.0733516588807106,
        -0.16707289218902588,
        -0.07494604587554932,
        -0.22371141612529755,
        0.04465609788894653,
        0.13142578303813934,
        0.03498680517077446,
        0.05019783228635788,
        -0.18390792608261108,
        0.0005911150365136564,
        0.04504521191120148,
        -0.096489317715168,
        0.11211976408958435,
        -0.10198788344860077,
        -0.14006702601909637,
        -0.024495556950569153,
        -0.007462665438652039,
        0.18773497641086578,
        0.002003760077059269,
        0.030794741585850716,
        0.046923596411943436,
        0.2411821335554123,
        0.03838004171848297,
        0.1346765160560608,
        0.012331797741353512,
        -0.023833034560084343,
        0.1909075230360031,
        -0.010467084124684334,
        0.033966660499572754,
        0.017406173050403595,
        -0.04434243589639664,
        -0.057180482894182205,
        0.027628544718027115,
        -0.18828622996807098,
        -0.15209946036338806,
        -0.05512630194425583,
        -0.009979433380067348,
        0.026726093143224716,
        0.1107851192355156,
        -0.10996728390455246,
        0.10513857752084732,
        0.1636829525232315,
        -0.0014960258267819881,
        -0.05151428282260895,
        0.1495012491941452,
        0.13077305257320404,
        -0.155033141374588,
        0.11053678393363953,
        0.02648158371448517,
        -0.012672914192080498,
        0.058013878762722015,
        -0.15976396203041077,
        0.02362501062452793,
        0.1122976541519165,
        -0.05747251585125923,
        -0.05147937685251236,
        -0.03408675640821457,
        0.03073500655591488,
        -0.07442591339349747,
        0.05085056647658348,
        0.0873786211013794,
        0.022930847480893135,
        -0.06302782148122787,
        0.08534988760948181,
        0.01884634792804718,
        0.06762003898620605,
        -0.18673235177993774,
        0.05419877544045448,
        -0.08121632784605026,
        0.01289856806397438,
        -0.0037510027177631855,
        -0.12254711985588074,
        -0.017010321840643883,
        0.18000882863998413,
        0.005548193585127592,
        -0.16189509630203247,
        -0.010182554833590984,
        0.002985933795571327,
        -0.19115115702152252,
        0.11703146249055862,
        -0.1536705046892166,
        -0.2145942598581314,
        -0.09208621084690094,
        -0.046226970851421356,
        0.02715178206562996,
        -0.08078193664550781,
        0.16455109417438507,
        -0.07488139718770981,
        0.16734027862548828,
        0.051515523344278336,
        -0.1582224816083908,
        0.11904501169919968,
        0.10678709298372269,
        0.21447403728961945,
        0.037340182811021805,
        -0.13645176589488983,
        0.03835224360227585,
        0.039777155965566635,
        0.0320064052939415,
        -0.19305230677127838,
        -0.005490422248840332,
        -0.1664663702249527,
        -0.1224672943353653,
        0.06585610657930374,
        -0.08613958209753036,
        0.11561167985200882,
        0.03956153243780136,
        0.05113847181200981,
        -0.12529608607292175,
        -0.07643941789865494,
        -0.006685785949230194,
        0.13859915733337402,
        0.1009778380393982,
        0.06974349170923233,
        -0.0654606968164444,
        0.12221077084541321,
        -0.10573054105043411,
        -0.05351237207651138,
        0.02004818245768547,
        -0.11304616183042526,
        0.001389303128235042,
        -0.05495891720056534,
        -0.08776752650737762,
        -0.1847466081380844,
        0.10770384222269058,
        -0.055133141577243805,
        0.03261260688304901,
        0.12647302448749542,
        0.044966597110033035,
        -0.06899337470531464,
        -0.005285868886858225,
        -0.06270765513181686,
        -0.05117436498403549,
        0.11539085954427719,
        -0.03341124206781387,
        0.12759847939014435,
        0.13650305569171906,
        -0.14802134037017822,
        -0.20340365171432495,
        0.07092170417308807,
        0.23547571897506714,
        -0.02102518454194069,
        0.04600774124264717,
        -0.05398885905742645,
        -0.04919696971774101,
        0.164878249168396,
        -0.1934860497713089,
        -0.07743814587593079,
        0.11119692772626877,
        -0.13323849439620972,
        -0.05434514209628105,
        0.01682942360639572,
        0.19625099003314972,
        0.07866799086332321,
        -0.10468925535678864,
        -0.016290267929434776,
        -0.048963841050863266,
        -0.050941407680511475,
        0.12895192205905914,
        0.2035871297121048,
        -0.07241035997867584,
        -0.04119681566953659,
        -0.12420576810836792,
        0.13490475714206696,
        -0.0025729595217853785,
        0.013850072398781776,
        -0.14968270063400269,
        0.02627984620630741,
        -0.1492626965045929,
        0.0641951784491539,
        -0.16764481365680695,
        0.025992145761847496,
        0.1846449077129364,
        -0.22662992775440216,
        -0.2381441742181778,
        -0.05260949581861496,
        -0.11101382225751877,
        -0.15161651372909546,
        -0.03514007106423378,
        -0.15930327773094177,
        -0.08522234112024307,
        -0.014542216435074806,
        -0.08280780166387558,
        -0.18588905036449432,
        -0.03928468003869057,
        0.056567031890153885,
        0.28170374035835266,
        -0.08373279124498367,
        -0.031546954065561295,
        -0.17608274519443512,
        0.23325768113136292,
        -0.08370885998010635,
        0.0006963797495700419,
        0.05761779099702835,
        -0.04636225476861,
        0.15819576382637024,
        -0.10513570159673691,
        -0.004817201755940914,
        0.07860763370990753,
        -0.003004868282005191,
        -0.03374191001057625,
        -0.26800891757011414,
        0.0065245237201452255,
        -0.02717575803399086,
        0.1947166621685028,
        -0.1438223123550415,
        0.09214850515127182,
        -0.1594054251909256,
        0.07350237667560577,
        0.13094688951969147,
        0.17877806723117828,
        -0.0068498216569423676,
        0.048963285982608795,
        -0.154265895485878,
        0.019168196246027946,
        0.02405739389359951,
        0.2388467639684677,
        -0.1549506038427353,
        -0.09429986774921417,
        0.18966375291347504,
        0.06023965775966644,
        0.004980760160833597,
        0.008762545883655548,
        -0.22826163470745087,
        0.0774407684803009,
        0.11242805421352386,
        -0.17169208824634552,
        0.06787217408418655,
        0.17554187774658203,
        0.014074952341616154,
        0.14997300505638123,
        0.137263685464859,
        -0.21220777928829193,
        -0.1300404965877533,
        0.023328343406319618,
        0.06469816714525223,
        0.08406443148851395,
        -0.029981140047311783,
        0.06004418060183525,
        0.10040353983640671,
        0.01757143624126911,
        -0.05669979751110077,
        -0.08259771764278412,
        -0.2038150280714035,
        0.2090773582458496,
        -0.07401605695486069,
        -0.15441887080669403,
        0.14824554324150085,
        -0.04392854869365692,
        0.03226560726761818,
        -0.08410285413265228,
        -0.030789969488978386,
        -0.2047157734632492,
        0.169581338763237,
        -0.03856228291988373,
        0.15231990814208984,
        0.046674542129039764,
        0.07571921497583389,
        -0.06118420884013176,
        0.2304857075214386,
        0.033894363790750504,
        0.019299635663628578,
        0.04245539382100105,
        0.01839311607182026,
        -0.2350115180015564,
        0.04393382370471954,
        -0.11502952873706818,
        0.025062458589673042,
        0.041805434972047806,
        -0.15926231443881989,
        -0.11126037687063217,
        0.1672508269548416,
        0.013876216486096382,
        -0.052052728831768036,
        0.0918722078204155,
        0.03112768940627575,
        -0.13067880272865295,
        0.023736322298645973,
        -0.1419897824525833,
        -0.20579937100410461,
        0.16987036168575287,
        -0.197223499417305,
        -0.005041991826146841,
        -0.014679082669317722,
        0.041694872081279755,
        -0.14932352304458618,
        0.20199808478355408,
        -0.10949049144983292,
        0.18329454958438873,
        -0.17548198997974396,
        -0.06238055229187012,
        0.14086022973060608,
        -0.12350303679704666,
        0.08242714405059814,
        -0.05267765372991562,
        -0.19365477561950684,
        -0.030903475359082222,
        -0.03051431104540825,
        0.19734622538089752,
        -0.13589929044246674,
        0.06786844879388809,
        -0.07916826754808426,
        -0.00703097227960825,
        0.04086386784911156,
        -0.04575837031006813,
        -0.022067628800868988,
        0.18792761862277985,
        -0.10557577013969421,
        0.13205677270889282,
        -0.11142699420452118,
        0.18238511681556702,
        -0.1683553159236908,
        0.03958485275506973,
        -0.09785585850477219,
        0.0031646888237446547,
        0.10259377956390381,
        0.0465114451944828,
        -0.043604157865047455,
        0.06178409978747368,
        0.0370778851211071,
        -0.065346859395504,
        0.18869498372077942,
        -0.16027188301086426,
        -0.04657634720206261,
        0.04838192090392113,
        -0.0063877105712890625,
        0.09324771910905838,
        0.05399055406451225,
        -0.16640232503414154,
        -0.011644585058093071,
        -0.054327160120010376,
        0.010575459338724613,
        0.039432745426893234,
        0.1397663801908493,
        0.030958499759435654,
        -0.14041996002197266,
        -0.20118629932403564,
        0.19883280992507935,
        -0.25122129917144775,
        -0.02461032196879387,
        0.12511208653450012,
        -0.18464037775993347,
        0.010614902712404728,
        -0.020838603377342224,
        0.16451656818389893,
        -0.038641899824142456,
        -0.11686459928750992,
        -0.06582865118980408,
        0.07254806160926819,
        -0.03426570072770119,
        0.23828557133674622,
        0.03738133981823921,
        -0.1790664941072464,
        -0.2498541921377182,
        -0.16600850224494934,
        0.27047213912010193,
        0.09483309090137482,
        0.04681549593806267,
        -0.08475344628095627,
        -0.0430845208466053,
        0.07137048244476318,
        0.23046733438968658,
        -0.22834591567516327,
        -0.07645237445831299,
        0.006650286726653576,
        -0.22795678675174713,
        -0.021526331081986427,
        0.24505218863487244,
        -0.25246044993400574,
        0.03732471540570259,
        0.03537202253937721,
        -0.16049741208553314,
        0.06841691583395004,
        0.07919490337371826,
        -0.18912547826766968,
        -0.21740414202213287,
        0.1695685237646103,
        0.041047606617212296,
        -0.07102923840284348,
        0.0924137681722641,
        -0.07798189669847488,
        -0.11667247861623764,
        -0.012924960814416409,
        0.08223898708820343,
        -0.028439613059163094,
        0.10206543654203415,
        0.09051430225372314,
        0.1043224036693573,
        -0.04548098146915436,
        -0.044615596532821655,
        -0.04486478492617607,
        -0.09554379433393478,
        0.024226006120443344,
        0.09787826240062714,
        0.09066551178693771,
        0.05573617294430733,
        0.029768768697977066,
        -0.05524658411741257,
        0.14745043218135834,
        -0.0710819810628891,
        -0.13361048698425293,
        -0.01838308572769165,
        0.10049335658550262,
        -0.09172606468200684,
        0.17243099212646484,
        0.050934307277202606,
        -0.12483741343021393,
        -0.07221656292676926,
        0.13713452219963074,
        -0.07611207664012909,
        -0.05415961518883705,
        0.055184297263622284,
        -0.10084015876054764,
        0.040755677968263626,
        0.08345932513475418,
        0.11940189450979233,
        -0.12522540986537933,
        0.1482495218515396,
        -0.06027648225426674,
        0.11573510617017746,
        -0.13446524739265442,
        -0.1027933657169342,
        0.08235123753547668,
        0.07633095979690552,
        0.10234557092189789,
        -0.010070395655930042,
        -0.12366607785224915,
        -0.039545852690935135,
        -0.12618029117584229,
        0.011194627732038498,
        0.09156978130340576,
        -0.0027270507998764515,
        -0.023658988997340202,
        0.0656030997633934,
        0.12713931500911713,
        0.001893593929708004,
        0.00873461551964283,
        -0.04528522491455078,
        0.0059308637864887714,
        -0.025999533012509346,
        0.0051455930806696415,
        0.33993804454803467,
        -0.4118025302886963,
        0.678824245929718,
        -0.5867342948913574,
        0.06480465829372406,
        0.7740323543548584,
        0.8714742660522461,
        -0.5053539872169495,
        0.13583692908287048,
        0.0834735631942749,
        -0.5184861421585083,
        -0.25420862436294556,
        0.19954697787761688,
        -0.6356543898582458,
        0.06075718253850937,
        0.3993338346481323,
        -0.06135148927569389,
        0.19686666131019592,
        -0.011207036674022675,
        0.09440647065639496,
        0.19553242623806,
        -0.06505950540304184,
        0.12814036011695862,
        -0.05967210233211517,
        -0.004034154582768679,
        -0.025297487154603004,
        0.018192745745182037,
        -0.10347568988800049,
        0.058785583823919296,
        -0.034001484513282776,
        0.1298833042383194,
        0.0490383617579937,
        0.04986128956079483,
        -0.04912279546260834,
        -0.19791296124458313,
        0.04373909533023834,
        0.058915186673402786,
        -0.12683215737342834,
        -0.08403948694467545,
        0.1266750991344452,
        0.011535347439348698,
        0.1220867708325386,
        -0.050161998718976974,
        -0.05186093598604202,
        0.05692176893353462,
        -0.12069585174322128,
        -0.06727222353219986,
        0.03202727809548378,
        0.034953195601701736,
        0.06600354611873627,
        -0.00225800066255033,
        0.23677532374858856,
        -0.00873854011297226,
        -0.14747916162014008,
        0.07381420582532883,
        -0.19015423953533173,
        -0.017945855855941772,
        -0.1483861654996872,
        0.08275865018367767,
        -0.11028090119361877,
        0.09299273788928986,
        0.17065046727657318,
        -0.008755173534154892,
        0.044234905391931534,
        0.09873368591070175,
        -0.27124038338661194,
        0.09616795927286148,
        -0.235528826713562,
        -0.07766851037740707,
        0.23536419868469238,
        0.11194302886724472,
        -0.07166679203510284,
        -0.026581091806292534,
        0.14400340616703033,
        -0.059308476746082306,
        -0.18031293153762817,
        0.20680749416351318,
        -0.019081557169556618,
        -0.24625149369239807,
        0.029239853844046593,
        -0.0448448546230793,
        -0.27842020988464355,
        -0.12653934955596924,
        0.07028530538082123,
        0.06998834013938904,
        0.19314391911029816,
        0.19748090207576752,
        -0.184091255068779,
        0.1253749281167984,
        0.3174053132534027,
        -0.07462657988071442,
        0.08829067647457123,
        0.059788402169942856,
        0.09172578901052475,
        -0.062025271356105804,
        0.047184620052576065,
        -0.07790394872426987,
        0.008506535552442074,
        0.10997141897678375,
        -0.00369962677359581,
        0.1096956804394722,
        0.21065381169319153,
        0.2787720561027527,
        0.1998884379863739,
        0.1473531574010849,
        -0.005692232865840197,
        -0.034644559025764465,
        -0.08585186302661896,
        0.05939161404967308,
        -0.07292692363262177,
        0.25554901361465454,
        -0.019025059416890144,
        0.0977225974202156,
        0.06461580842733383,
        0.23440498113632202,
        0.19441500306129456,
        -0.16237974166870117,
        -0.20267105102539062,
        0.07409477233886719,
        0.12394711375236511,
        0.13816580176353455,
        -0.29894423484802246,
        -0.31046217679977417,
        0.1031314805150032,
        0.17759229242801666,
        -0.3365483582019806,
        -0.12976986169815063,
        -0.14993351697921753,
        0.1311599165201187,
        0.07142328470945358,
        0.28058984875679016,
        -0.30546271800994873,
        -0.36405301094055176,
        0.10860700160264969,
        0.285713255405426,
        0.0954529270529747,
        0.14537808299064636,
        -0.172385573387146,
        0.317922979593277,
        -0.22684498131275177,
        0.1789761334657669,
        -0.1435399204492569,
        0.05352327600121498,
        0.05284504592418671,
        -0.1183563694357872,
        0.0909242257475853,
        -0.32778608798980713,
        -0.12371083348989487,
        0.22221942245960236,
        -0.17370744049549103,
        -0.2616589665412903,
        0.05466387793421745,
        -0.2891263961791992,
        -0.3030560314655304,
        0.05439231917262077,
        0.20497389137744904,
        -0.10362011194229126,
        -0.01545360591262579,
        -0.029742222279310226,
        -0.1100500226020813,
        -0.16946551203727722,
        -0.07159189134836197,
        0.30663639307022095,
        -0.3135615289211273,
        -0.31909841299057007,
        0.10122255980968475,
        0.2729872465133667,
        -0.20378629863262177,
        0.1261223554611206,
        0.27928364276885986,
        0.2421925812959671,
        0.07765792310237885,
        0.33566638827323914,
        0.037776339799165726,
        -0.060195498168468475,
        0.13123860955238342,
        0.09862923622131348,
        0.24923397600650787,
        -0.29380330443382263,
        0.17800065875053406,
        -0.015046765096485615,
        -0.24395231902599335,
        -0.007027235813438892,
        0.09876010566949844,
        -0.00026553781935945153,
        -0.19686296582221985,
        -0.2137429267168045,
        -0.010070224292576313,
        -0.13979163765907288,
        0.19300726056098938,
        -0.018878744915127754,
        0.10186976194381714,
        0.032645367085933685,
        -0.1382046788930893,
        0.15852822363376617,
        0.03781940042972565,
        0.10638254880905151,
        0.0016590257873758674,
        -0.0023563741706311703,
        -0.1494777649641037,
        0.03275720402598381,
        -0.14522866904735565,
        -0.15881633758544922,
        -0.19031411409378052,
        -0.07376065850257874,
        0.06722718477249146,
        -0.3127639591693878,
        0.004312698729336262,
        -0.02031644806265831,
        0.014339244924485683,
        -0.01259206049144268,
        0.15406745672225952,
        0.21459779143333435,
        -0.19413836300373077,
        -0.07626356929540634,
        0.072862908244133,
        0.13575026392936707,
        -0.10594052821397781,
        -0.33802276849746704,
        0.05727439373731613,
        0.07765373587608337,
        -0.06663618236780167,
        -0.214567169547081,
        0.07323428243398666,
        0.04531063884496689,
        -0.16667242348194122,
        -0.15120239555835724,
        0.2850037217140198,
        0.04431488364934921,
        0.16545981168746948,
        0.14802289009094238,
        -0.042152345180511475,
        -0.04487663879990578,
        -0.1692812293767929,
        -0.4068083167076111,
        -0.045804500579833984,
        -0.23323741555213928,
        -0.046306706964969635,
        -0.6388068199157715,
        0.14744599163532257,
        -0.06673053652048111,
        0.17105591297149658,
        -0.00970324594527483,
        -0.12525758147239685,
        0.12554028630256653,
        0.08436805009841919,
        0.19956247508525848,
        0.04121125862002373,
        -0.17674203217029572,
        0.16966690123081207,
        -0.0028193399775773287,
        -0.09514029324054718,
        0.18689170479774475,
        0.05038892850279808,
        -0.10640615969896317,
        -0.03412981331348419,
        0.06930352002382278,
        0.17757980525493622,
        0.0753781646490097,
        -0.07769180089235306,
        -0.09532777965068817,
        0.06260129064321518,
        -0.02074003405869007,
        0.38355088233947754,
        -0.10463563352823257,
        -0.22421512007713318,
        0.09058599174022675,
        -0.16286367177963257,
        -0.06279091536998749,
        0.16352437436580658,
        -0.026663823053240776,
        -0.18130359053611755,
        0.08959797769784927,
        -0.05247760936617851,
        0.13718679547309875,
        -0.11962848901748657,
        -0.08882848918437958,
        -0.030672742053866386,
        0.09364902973175049,
        -0.024963345378637314,
        0.0697292909026146,
        -0.15477889776229858,
        0.08930875360965729,
        0.005321035161614418,
        0.020710794255137444,
        0.08376120775938034,
        0.0677390992641449,
        0.004919866565614939,
        -0.00979642290621996,
        -0.0662534087896347,
        -0.07129377871751785,
        0.15112198889255524,
        0.009092540480196476,
        0.1822948455810547,
        -0.0864967554807663,
        0.006938430014997721,
        -0.042735688388347626,
        -0.2412027269601822,
        -0.07302609086036682,
        -0.03179480880498886,
        -0.1277896761894226,
        -0.1499168425798416,
        0.06328355520963669,
        0.07358312606811523,
        -0.16635195910930634,
        0.13078396022319794,
        -0.17425009608268738,
        -0.10170326381921768,
        0.15097182989120483,
        0.0014304573414847255,
        -0.15849818289279938,
        -0.08439735323190689,
        -0.03646863251924515,
        0.14791125059127808,
        -0.17713868618011475,
        -0.11974076926708221,
        -0.07307702302932739,
        -0.07981626689434052,
        -0.08298538625240326,
        0.07220768183469772,
        -0.04882718622684479,
        -0.20670413970947266,
        -0.02961573377251625,
        0.16314668953418732,
        -0.15048688650131226,
        0.07986105233430862,
        -0.061876844614744186,
        -0.1829805225133896,
        0.11744298040866852,
        -0.06217535212635994,
        -0.17125190794467926,
        0.03854481875896454,
        -0.036934297531843185,
        0.03762003779411316,
        -0.06178479269146919,
        -0.12356831878423691,
        0.08036313205957413,
        -0.0475488007068634,
        0.15783417224884033,
        -0.15077145397663116,
        -0.07419124245643616,
        0.150096133351326,
        -0.04114086553454399,
        -0.17713429033756256,
        0.12197241187095642,
        -0.21098116040229797,
        -0.01914738491177559,
        -0.07187578827142715,
        0.025083880871534348,
        -0.07502589374780655,
        0.06985079497098923,
        -0.19538235664367676,
        -0.026680409908294678,
        -0.07881173491477966,
        0.189925879240036,
        -0.10102098435163498,
        -0.029999539256095886,
        0.07714920490980148,
        0.14031539857387543,
        -0.01718061976134777,
        -0.0190825667232275,
        -0.14825378358364105,
        0.029352635145187378,
        0.027076806873083115,
        0.16163422167301178,
        -0.2090032547712326,
        0.09963636100292206,
        -0.11361756920814514,
        0.032745931297540665,
        -0.019861266016960144,
        -0.11636688560247421,
        0.1304565966129303,
        -0.06532410532236099,
        -0.15391194820404053,
        0.064269058406353,
        0.05831446126103401,
        0.0025832485407590866,
        0.11875621974468231,
        0.006124013103544712,
        -0.18211407959461212,
        -0.009963352233171463,
        0.056459635496139526,
        0.011568390764296055,
        -0.12993785738945007,
        -0.016475172713398933,
        -0.15996529161930084,
        0.018585750833153725,
        0.13199719786643982,
        0.1883498579263687,
        -0.0647386834025383,
        -0.015487958677113056,
        -0.09153348952531815,
        0.09845481067895889,
        0.1762259602546692,
        0.003107825294137001,
        -0.05252671614289284,
        0.13739913702011108,
        0.01949925720691681,
        0.0036795970518141985,
        -0.07465623319149017,
        0.1744767427444458,
        0.052936092019081116,
        0.1219552680850029,
        -0.11000779271125793,
        -0.0541512630879879,
        -0.07453642040491104,
        0.09555703401565552,
        0.06236341595649719,
        0.04711032286286354,
        -0.23837871849536896,
        0.0628402903676033,
        -0.11011336743831635,
        0.215911403298378,
        -0.21248112618923187,
        -0.0878937765955925,
        -0.29246076941490173,
        0.14851164817810059,
        0.16983474791049957,
        -0.05574052408337593,
        0.046681445091962814,
        0.09155295789241791,
        -0.10035356879234314,
        0.053124528378248215,
        0.010663787834346294,
        -0.08731479197740555,
        0.10298711061477661,
        -0.07670262455940247,
        -0.03255820646882057,
        0.12054570764303207,
        0.008223861455917358,
        0.04489636421203613,
        0.26554545760154724,
        0.033215977251529694,
        -0.0352933444082737,
        0.022471340373158455,
        -0.11039730161428452,
        0.07061590999364853,
        -0.015448135323822498,
        0.190918430685997,
        -0.0913664847612381,
        -0.18403178453445435,
        0.15990610420703888,
        0.3147694766521454,
        -0.10248703509569168,
        -0.04291277751326561,
        -0.02735806256532669,
        0.022214017808437347,
        -0.14900916814804077,
        0.11563333868980408,
        0.0388069711625576,
        0.09209856390953064,
        0.10970262438058853,
        -0.08349832147359848,
        -0.2593359649181366,
        0.028384143486618996,
        0.1063021719455719,
        0.19095565378665924,
        -0.17040352523326874,
        -0.016147607937455177,
        0.05212724953889847,
        -0.10361602902412415,
        0.1328216791152954,
        0.24309787154197693,
        -0.07257398962974548,
        -0.006063686218112707,
        0.07578565180301666,
        0.0647212490439415,
        -0.0007490015705116093,
        0.17671748995780945,
        0.09247671067714691,
        -0.14331917464733124,
        0.13001717627048492,
        -0.2046649158000946,
        -0.2510737180709839,
        -0.00624418817460537,
        0.006885031703859568,
        0.0748535692691803,
        0.11586802452802658,
        0.14330559968948364,
        0.039477575570344925,
        -0.061874836683273315,
        -0.04385180026292801,
        -0.05001382529735565,
        -0.03106820583343506,
        0.13560518622398376,
        0.009583848528563976,
        0.0061658769845962524,
        0.019167937338352203,
        -0.07610078901052475,
        -0.0645817369222641,
        0.1478489339351654,
        0.002767425263300538,
        -0.02383635751903057,
        0.041910238564014435,
        -0.16886085271835327,
        -0.1700088083744049,
        0.10513372719287872,
        -0.09517230838537216,
        0.06458175927400589,
        -0.08666729182004929,
        -0.07301498204469681,
        -0.01096965279430151,
        0.1677567958831787,
        0.09963598102331161,
        0.13994793593883514,
        -0.006197926588356495,
        -0.005471794866025448,
        -0.11716929823160172,
        -0.05689107999205589,
        0.006353890057653189,
        0.1781742423772812,
        -0.10397110879421234,
        0.018363259732723236,
        -0.07653490453958511,
        0.0754527896642685,
        -0.01993655413389206,
        -0.1605139672756195,
        -0.21608129143714905,
        0.020258763805031776,
        0.032754480838775635,
        -0.05935921519994736,
        -0.0492367222905159,
        0.12526418268680573,
        -0.07581151276826859,
        -0.11065645515918732,
        0.18497700989246368,
        0.011142306961119175,
        0.07787682861089706,
        -0.08152700960636139,
        -0.059624314308166504,
        -0.1326575130224228,
        -0.05072817578911781,
        0.131875678896904,
        -5.2063864131923765e-05,
        -0.08717239648103714,
        0.05982522666454315,
        -0.050035495311021805,
        0.02680717036128044,
        0.1625107228755951,
        0.024121658876538277,
        -0.014001809991896152,
        0.06916633993387222,
        0.1641077846288681,
        0.15565840899944305,
        -0.11462625116109848,
        0.07781422883272171,
        0.10605191439390182,
        -0.24241884052753448,
        -0.08882372081279755,
        0.10918872803449631,
        -0.22837376594543457,
        0.22129911184310913,
        0.08124948292970657,
        0.21095207333564758,
        -0.18122191727161407,
        0.12436716258525848,
        -0.15441228449344635,
        0.09949306398630142,
        0.05239597707986832,
        0.14901979267597198,
        -0.0283881314098835,
        0.12630492448806763,
        -0.0849001482129097,
        0.11113840341567993,
        0.12261376529932022,
        0.1730620115995407,
        -0.03717342019081116,
        -0.028435971587896347,
        -0.09035822749137878,
        -0.0002408100408501923,
        -0.1975633203983307,
        0.1537051498889923,
        -0.2357245832681656,
        -0.17132580280303955,
        0.08108222484588623,
        -0.1184869110584259,
        0.07897131145000458,
        -0.023180942982435226,
        0.038832440972328186,
        0.10510972887277603,
        0.12420638650655746,
        0.07539129257202148,
        -0.0289840716868639,
        -0.17607805132865906,
        0.1200464740395546,
        0.11444155126810074,
        0.03840162232518196,
        -0.011526450514793396,
        -0.06520829349756241,
        0.13147559762001038,
        0.01420142687857151,
        0.10398051887750626,
        0.21464399993419647,
        0.10513328015804291,
        0.15942245721817017,
        -0.0468636155128479,
        0.12654249370098114,
        -0.08668982237577438,
        0.28143560886383057,
        -0.053114455193281174,
        0.10528537631034851,
        -0.2620598077774048,
        -0.06283023953437805,
        -0.008094973862171173,
        0.20855791866779327,
        -0.07409761101007462,
        0.12420918047428131,
        -0.24696703255176544,
        0.07965745776891708,
        0.06056401878595352,
        -0.03275059908628464,
        0.07117937505245209,
        0.08796405792236328,
        0.04037785902619362,
        0.18621224164962769,
        0.030382199212908745,
        0.00951711181551218,
        -0.039215147495269775,
        -0.10418201237916946,
        -0.07597877830266953,
        -0.0719151645898819,
        0.01800564117729664,
        -0.119456447660923,
        -0.01734589785337448,
        -0.09788031131029129,
        0.033618148416280746,
        0.092435322701931,
        0.1411067694425583,
        0.03548670560121536,
        0.021255511790513992,
        -0.12799206376075745,
        -0.06548522412776947,
        0.03870155289769173,
        -0.11556011438369751,
        -0.14205148816108704,
        -0.14254814386367798,
        -0.05247199162840843,
        -0.14358505606651306,
        -0.11661665886640549,
        0.08655326068401337,
        -0.051429226994514465,
        -0.007410835474729538,
        0.0044083972461521626,
        -0.02682146616280079,
        0.049365315586328506,
        0.014990916475653648,
        -0.007741286884993315,
        0.001707674702629447,
        0.08211618661880493,
        -0.1593848615884781,
        0.11579946428537369,
        0.07643014192581177,
        0.1060585081577301,
        -0.08155819773674011,
        0.1357192099094391,
        -0.16247345507144928,
        -0.037397947162389755,
        0.0006775005022063851,
        0.021807709708809853,
        0.13450030982494354,
        -0.09347057342529297,
        -0.03630358353257179,
        -0.032181162387132645,
        -0.13326530158519745,
        0.01574593409895897,
        -0.050582900643348694,
        0.07877480983734131,
        -0.015412724576890469,
        0.016778642311692238,
        -0.06308663636445999,
        -0.09216691553592682,
        -0.04684513434767723,
        0.03543936461210251,
        0.19543983042240143,
        -0.1006128266453743,
        -0.28798410296440125,
        -0.035891611129045486,
        -0.2231992483139038,
        0.09134194254875183,
        0.06589336693286896,
        0.19573090970516205,
        0.1051446795463562,
        -0.3641493320465088,
        -0.11229788511991501,
        0.07333207130432129,
        -0.07253355532884598,
        -0.250942200422287,
        -0.07904104143381119,
        -0.04657074436545372,
        -0.08996718376874924,
        -0.05878661200404167,
        0.027197344228625298,
        0.02902442216873169,
        -0.020390652120113373,
        -0.2094402313232422,
        0.11743587255477905,
        -0.1319769024848938,
        0.03561828285455704,
        0.193230539560318,
        0.13118241727352142,
        -0.031172694638371468,
        -0.10489591956138611,
        -0.01715557649731636,
        0.07909731566905975,
        -0.029975637793540955,
        -0.08747795224189758,
        0.09027544409036636,
        0.0837571769952774,
        -0.12090784311294556,
        0.15461887419223785,
        -0.013168229721486568,
        -0.15883898735046387,
        0.005436589941382408,
        -0.22064773738384247,
        0.08526811003684998,
        -0.14038725197315216,
        0.14848607778549194,
        -0.0503503754734993,
        -0.031751599162817,
        0.0705348327755928,
        0.12239453941583633,
        0.02514338493347168,
        -0.01686023361980915,
        -0.07903017103672028,
        -0.03246190398931503,
        0.15450677275657654,
        -0.08041039854288101,
        0.03026616759598255,
        -0.024455463513731956,
        -0.05316447094082832,
        0.44436144828796387,
        -0.003855577204376459,
        0.11117583513259888,
        0.04426799714565277,
        0.10839960724115372,
        -0.07746534049510956,
        0.008707393892109394,
        0.0880817323923111,
        0.08886553347110748,
        0.04034822806715965,
        0.13933520019054413,
        -0.151667520403862,
        0.09951210767030716,
        0.13220848143100739,
        0.016690414398908615,
        0.02870701625943184,
        -0.042448174208402634,
        -0.16096104681491852,
        -0.0045615616254508495,
        0.06638319045305252,
        -0.05567474663257599,
        -0.04172198846936226,
        0.10049951076507568,
        0.00986296683549881,
        -0.08622053265571594,
        0.05500773340463638,
        -0.021003205329179764,
        -0.10770126432180405,
        -0.11536785960197449,
        -0.06992792338132858,
        -0.008827408775687218,
        0.05113343894481659,
        -0.032966773957014084,
        -0.01957206055521965,
        0.044989049434661865,
        0.018883898854255676,
        0.10263218730688095,
        -0.1704716831445694,
        -0.0969465896487236,
        0.02026493288576603,
        -0.12406900525093079,
        -0.017160531133413315,
        -0.01836325228214264,
        -0.15404611825942993,
        -0.11334401369094849,
        -0.003866455052047968,
        0.061854466795921326,
        -0.23823708295822144,
        0.02506975270807743,
        0.09275427460670471,
        0.0258921068161726,
        0.03821868821978569,
        0.01645728573203087,
        0.14831112325191498,
        0.07339075952768326,
        0.008380751125514507,
        -0.08105223625898361,
        0.06809640675783157,
        0.12828142940998077,
        0.030747616663575172,
        0.08905518800020218,
        0.06648674607276917,
        -0.08613315969705582,
        -0.01835634745657444,
        0.10599221289157867,
        -0.01026927214115858,
        -0.1238919347524643,
        -0.04043157398700714,
        0.02035076729953289,
        -0.05203431844711304,
        -0.08763828128576279,
        0.012224758043885231,
        -0.03770376741886139,
        -0.002288427669554949,
        0.008332641795277596,
        0.04872763156890869,
        0.13162197172641754,
        0.05064285919070244,
        -0.04119514673948288,
        0.15893007814884186,
        -0.09832765907049179,
        0.06182531639933586,
        -0.05694632977247238,
        -0.08642006665468216,
        -0.22262489795684814,
        -0.18019871413707733,
        0.048371050506830215,
        -0.06972149014472961,
        -0.13156110048294067,
        0.053189925849437714,
        -0.03712666779756546,
        -0.10614879429340363,
        -0.21503666043281555,
        0.04684163257479668,
        0.08179888129234314,
        -0.06258398294448853,
        0.021755147725343704,
        -0.012785129249095917,
        0.06940683722496033,
        0.023202303797006607,
        -0.14346857368946075,
        0.03452001139521599,
        0.15754784643650055,
        -0.0112761240452528,
        -0.1218959391117096,
        -0.06965085119009018,
        0.2119007557630539,
        0.19095510244369507,
        0.21481862664222717,
        0.018992014229297638,
        0.058452192693948746,
        -0.18875043094158173,
        -0.07422950118780136,
        -0.12042508274316788,
        0.17407353222370148,
        -0.049009449779987335,
        -0.13363143801689148,
        -0.04002980887889862,
        -0.054122235625982285,
        -0.0701608881354332,
        0.03129616752266884,
        0.11811938136816025,
        -0.14143683016300201,
        -0.11788882315158844,
        0.12236099690198898,
        0.13497358560562134,
        0.008815787732601166,
        0.03779803216457367,
        -0.007841230370104313,
        -0.012098897248506546,
        -0.14843954145908356,
        -0.17400029301643372,
        -0.021950887516140938,
        0.12038733065128326,
        -0.0016295701498165727,
        0.13828019797801971,
        -0.13718315958976746,
        0.023041335865855217,
        0.06497777253389359,
        -0.10789169371128082,
        0.18995848298072815,
        0.17350496351718903,
        -0.1067318469285965,
        0.1092396080493927,
        0.1286991834640503,
        -0.049982015043497086,
        0.14896853268146515,
        -0.033925674855709076,
        -0.0651412159204483,
        -0.04760636016726494,
        -0.16134539246559143,
        0.20861949026584625,
        -0.054631516337394714,
        -0.14999249577522278,
        -0.11856445670127869,
        -0.12812934815883636,
        -0.1878429800271988,
        0.14785882830619812,
        -0.11440417170524597,
        0.14020659029483795,
        0.005226362496614456,
        -0.03887204825878143,
        -0.03632304444909096,
        0.017562905326485634,
        0.13584214448928833,
        0.2320105880498886,
        -0.03843454644083977,
        0.08891690522432327,
        -0.15279659628868103,
        -0.15698830783367157,
        0.12678666412830353,
        -0.06873471289873123,
        -0.024077147245407104,
        0.008654028177261353,
        -0.006229105405509472,
        -0.2313532680273056,
        0.11910535395145416,
        -0.008115051314234734,
        -0.03218048810958862,
        0.050303515046834946,
        0.1696920096874237,
        -0.051948923617601395,
        -0.16278749704360962,
        -0.12368598580360413,
        0.11893618106842041,
        0.10822436213493347,
        0.09732051193714142,
        0.1310306340456009,
        -0.057501170784235,
        -0.20081466436386108,
        0.10701777786016464,
        -0.1516973227262497,
        -0.04750917851924896,
        0.08435098081827164,
        0.022901073098182678,
        0.045380208641290665,
        0.1499914675951004,
        0.011095639318227768,
        0.060878556221723557,
        -0.21249744296073914,
        -0.005190205294638872,
        0.0671444907784462,
        0.1600358486175537,
        0.22330442070960999,
        0.12165810912847519,
        -0.11097604036331177,
        -0.06385433673858643,
        -0.11862479895353317,
        0.191496804356575,
        0.144925057888031,
        -0.04730638116598129,
        0.03512299060821533,
        -0.12322406470775604,
        -0.057041723281145096,
        0.042779359966516495,
        -0.05256263539195061,
        -0.009772107936441898,
        0.1518225520849228,
        -0.23305077850818634,
        -0.07813169807195663,
        0.096781425178051,
        0.049583788961172104,
        0.06762663275003433,
        0.0401218980550766,
        -0.14414572715759277,
        -0.10007448494434357,
        -0.10627822577953339,
        -0.13111428916454315,
        -0.16183076798915863,
        -0.03474517911672592,
        -0.09143449366092682,
        -0.07639866322278976,
        -0.07730528712272644,
        -0.05266136676073074,
        0.13876822590827942,
        0.07960065454244614,
        -0.033259566873311996,
        -0.056507568806409836,
        0.021594267338514328,
        0.024765968322753906,
        0.04901713877916336,
        -0.013220200315117836,
        0.07203651964664459,
        0.20057837665081024,
        -0.008415493182837963,
        0.08275958895683289,
        0.04907846078276634,
        -0.11002524942159653,
        0.04200461879372597,
        0.11149874329566956,
        0.163756862282753,
        0.004667866975069046,
        0.20118843019008636,
        -0.16611868143081665,
        0.1008872538805008,
        -0.27085942029953003,
        0.06016981974244118,
        -0.09871576726436615,
        0.04444297030568123,
        -0.0021125313360244036,
        0.02437521144747734,
        -0.06786779314279556,
        0.18919487297534943,
        0.18457938730716705,
        0.08755289018154144,
        0.0374627411365509,
        0.03955477103590965,
        -0.0707084983587265,
        0.094175323843956,
        -0.0346575602889061,
        -0.092811718583107,
        0.01542616169899702,
        -0.12796446681022644,
        -0.07236040383577347,
        -0.15138542652130127,
        0.2474185824394226,
        -0.05533868446946144,
        0.1090659573674202,
        -0.1262008398771286,
        0.04647284373641014,
        -0.12729838490486145,
        0.14675287902355194,
        0.025456735864281654,
        0.08032123744487762,
        -0.029081592336297035,
        0.07356449216604233,
        0.052784137427806854,
        0.040109433233737946,
        0.1410077065229416,
        0.02147132158279419,
        -0.00992544088512659,
        0.05757644772529602,
        0.16147518157958984,
        -0.02595272846519947,
        -0.1335342824459076,
        0.03185154125094414,
        0.045279938727617264,
        0.06972464174032211,
        -0.11775679141283035,
        0.05488855019211769,
        -0.16515369713306427,
        -0.10867667943239212,
        -0.12224438786506653,
        -0.04859858751296997,
        -0.07257629185914993,
        -0.1167096272110939,
        0.11736874282360077,
        0.18299801647663116,
        -0.014298184774816036,
        0.10221734642982483,
        -0.1499447226524353,
        -0.034419428557157516,
        0.0012764603598043323,
        0.15837538242340088,
        -0.06482526659965515,
        -0.062088049948215485,
        0.08412577956914902,
        0.06521204113960266,
        0.15037283301353455,
        -0.024756472557783127,
        -0.11104439944028854,
        -0.12223835289478302,
        0.00972724799066782,
        -0.04178990051150322,
        0.10202676802873611,
        -0.03066975250840187,
        0.07468301057815552,
        0.09386975318193436,
        -0.03397238627076149,
        0.10049546509981155,
        -0.0638880804181099,
        0.07007475197315216,
        0.11284232884645462,
        0.1479310691356659,
        -0.028248246759176254,
        -0.061535805463790894,
        0.10270176082849503,
        0.07046037912368774,
        0.0973089411854744,
        0.04202594608068466,
        0.03642138093709946,
        -0.14283208549022675,
        -0.2724674344062805,
        0.2596587538719177,
        0.26104098558425903,
        -0.5637931823730469,
        0.2132432609796524,
        -0.7361956238746643,
        -0.2549608647823334,
        -0.30433741211891174,
        0.8746976852416992,
        -0.9026930332183838,
        -0.6504708528518677,
        -0.9551754593849182,
        0.25897544622421265,
        -0.8434593081474304,
        0.36316531896591187,
        -0.7356091737747192,
        -0.026531683281064034,
        -0.18131248652935028,
        -0.023252099752426147,
        0.2962433397769928,
        0.25910404324531555,
        -0.004378774669021368,
        -0.23966100811958313,
        -0.08859715610742569,
        0.04531865194439888,
        -0.054151132702827454,
        0.06296834349632263,
        0.08327817916870117,
        0.1512785255908966,
        -0.12095965445041656,
        -0.06337624043226242,
        -0.03694970905780792,
        -0.004727542866021395,
        0.043925803154706955,
        -0.12508943676948547,
        -0.21231503784656525,
        -0.3056592345237732,
        0.24060435593128204,
        -0.17982634902000427,
        -0.09389645606279373,
        0.09586170315742493,
        -0.16182757914066315,
        0.03929482027888298,
        0.20648252964019775,
        0.022743724286556244,
        0.2520381510257721,
        0.06910014897584915,
        0.09878802299499512,
        -0.11243623495101929,
        -0.11816447973251343,
        -0.021861230954527855,
        0.23259922862052917,
        -0.06635024398565292,
        0.14335039258003235,
        0.018369076773524284,
        -0.0033647173549979925,
        -0.05762169137597084,
        0.10836966335773468,
        -0.13037031888961792,
        -0.2986431121826172,
        0.09466409683227539,
        0.09880231320858002,
        0.16870085895061493,
        0.16039763391017914,
        0.1177765429019928,
        0.06585261970758438,
        -0.2126806378364563,
        -0.1903831958770752,
        -0.03708123788237572,
        0.017600800842046738,
        -0.13574627041816711,
        -0.03486443683505058,
        0.03721853718161583,
        -0.0018299176590517163,
        -0.02741400897502899,
        0.24080245196819305,
        0.1956060528755188,
        -0.234535351395607,
        0.06378865242004395,
        -0.08993971347808838,
        0.2474016696214676,
        -0.016058076173067093,
        -0.28094610571861267,
        -0.18545779585838318,
        0.077205128967762,
        -0.0050451187416911125,
        -0.20594526827335358,
        0.16955240070819855,
        0.32142600417137146,
        -0.11937836557626724,
        -0.16741123795509338,
        0.0740390345454216,
        -0.008449457585811615,
        -0.054149143397808075,
        -0.20145291090011597,
        -0.226838618516922,
        -0.034508101642131805,
        -0.12129835039377213,
        -0.47648125886917114,
        -0.18523156642913818,
        -0.17162995040416718,
        -0.04510771855711937,
        -0.2232895940542221,
        -0.023357434198260307,
        0.20083732903003693,
        0.1155223548412323,
        -0.031155452132225037,
        -0.14951303601264954,
        -0.18192805349826813,
        0.10292517393827438,
        -0.10187563300132751,
        0.10100772231817245,
        0.20266519486904144,
        -0.04742256551980972,
        0.1385069340467453,
        -0.27415743470191956,
        0.08690700680017471,
        0.21291035413742065,
        -0.2665678560733795,
        -0.08945145457983017,
        0.12513376772403717,
        -0.10753332823514938,
        -0.16054010391235352,
        0.14796850085258484,
        -0.001453543663956225,
        -0.010878700762987137,
        -0.025349775329232216,
        0.20950815081596375,
        0.0649876669049263,
        0.12488428503274918,
        0.0764639750123024,
        0.0621461346745491,
        0.011211764067411423,
        -0.2225731611251831,
        0.017840227112174034,
        0.1391732543706894,
        -0.11508767306804657,
        0.2655318081378937,
        -0.1551661193370819,
        0.12107779085636139,
        -0.20947130024433136,
        0.2077127993106842,
        0.16362519562244415,
        0.15059544146060944,
        0.008734933100640774,
        0.06621073186397552,
        -0.17234556376934052,
        -0.028822436928749084,
        -0.2046903818845749,
        -0.05273512378334999,
        0.032137054949998856,
        -0.12280796468257904,
        -0.24890615046024323,
        0.18673329055309296,
        0.3639554977416992,
        -0.11084252595901489,
        -0.047394249588251114,
        0.18141771852970123,
        -0.05979488044977188,
        0.3350445628166199,
        -0.11437384784221649,
        0.1286049336194992,
        0.032525625079870224,
        0.03452480956912041,
        0.1470198631286621,
        -0.30062803626060486,
        0.23019108176231384,
        0.01847059279680252,
        0.06721116602420807,
        -0.01338767446577549,
        0.05512093007564545,
        0.2638588845729828,
        0.07223942875862122,
        0.0838533490896225,
        0.14680595695972443,
        -0.2007742077112198,
        -0.05718469247221947,
        -0.085747629404068,
        -0.06809910386800766,
        0.11329862475395203,
        0.13207192718982697,
        -0.10283839702606201,
        0.042492084205150604,
        0.03862466290593147,
        0.03961839899420738,
        0.20222821831703186,
        -0.16278427839279175,
        0.1873299926519394,
        0.03407467529177666,
        0.03152142092585564,
        0.054527509957551956,
        0.002391641726717353,
        0.1215812936425209,
        0.23101747035980225,
        -0.22240673005580902,
        -0.08409953862428665,
        -0.1353074163198471,
        -0.08332507312297821,
        0.02027687057852745,
        0.15230633318424225,
        -0.08855962753295898,
        0.03996679559350014,
        0.1786295473575592,
        -0.19703969359397888,
        0.0407693088054657,
        -0.18153542280197144,
        0.08625856786966324,
        -0.1455897092819214,
        -0.13159134984016418,
        -0.3294898271560669,
        -0.3197776973247528,
        0.3196800947189331,
        -0.03053041733801365,
        0.09913172572851181,
        -0.1946878880262375,
        0.024828363209962845,
        -0.11370793730020523,
        -0.06923092901706696,
        -0.13752783834934235,
        -0.307648628950119,
        0.379343181848526,
        -0.4025112986564636,
        -0.08079863339662552,
        0.02835713140666485,
        0.06597886979579926,
        -0.09431161731481552,
        -0.2955767512321472,
        0.354737788438797,
        -0.2817172706127167,
        0.1576537787914276,
        -0.0877317488193512,
        -0.22233639657497406,
        0.13566023111343384,
        0.23355206847190857,
        0.13139554858207703,
        -0.18841341137886047,
        0.4126671254634857,
        -0.09445758163928986,
        -0.04838625341653824,
        0.011264628730714321,
        -0.023461077362298965,
        0.33054879307746887,
        0.15368926525115967,
        -0.12240583449602127,
        -0.06809404492378235,
        -0.18839144706726074,
        0.2655895948410034,
        0.09160915017127991,
        -0.06353490799665451,
        0.04160907492041588,
        -0.19488869607448578,
        0.10181277990341187,
        -0.23129750788211823,
        0.24622014164924622,
        0.297681987285614,
        0.03741435334086418,
        0.24105431139469147,
        -0.056311383843421936,
        -0.09507542103528976,
        -0.14865019917488098,
        -0.2833159863948822,
        0.09392347186803818,
        -0.08734198659658432,
        0.3204139471054077,
        -0.002768870908766985,
        -0.028042258694767952,
        0.30199411511421204,
        0.2890671491622925,
        -0.411490261554718,
        0.6247538328170776,
        -0.12913520634174347,
        -0.028819670900702477,
        -0.041765064001083374,
        0.010312321595847607,
        -0.013857747428119183,
        -0.03978352248668671,
        -0.09488791227340698,
        0.006718624383211136,
        0.07896911352872849,
        0.09719535708427429,
        0.0758148655295372,
        0.04491361975669861,
        0.052944574505090714,
        -0.1513979583978653,
        0.041144948452711105,
        -0.21198372542858124,
        -0.10170923173427582,
        -0.08347753435373306,
        0.0027248337864875793,
        0.15092818439006805,
        -0.07747946679592133,
        -0.0006312840851023793,
        -0.26139241456985474,
        -0.0648561641573906,
        -0.10381186753511429,
        0.01790180429816246,
        0.03230997920036316,
        0.036048464477062225,
        -0.047350842505693436,
        -0.06640098243951797,
        0.21275191009044647,
        0.07293879240751266,
        -0.06468489021062851,
        0.276039183139801,
        0.16764311492443085,
        0.017276592552661896,
        -0.18184983730316162,
        -0.025461997836828232,
        0.11445003747940063,
        0.128041610121727,
        0.10792899131774902,
        -0.1055363267660141,
        -0.15351921319961548,
        0.030703920871019363,
        0.01825617626309395,
        0.1573442667722702,
        0.026557091623544693,
        -0.04437154904007912,
        -0.3152633607387543,
        -0.05248183012008667,
        -0.07083764672279358,
        -0.024835817515850067,
        0.07857196033000946,
        0.026481371372938156,
        -0.15807589888572693,
        0.07108614593744278,
        0.06414076685905457,
        -0.21927416324615479,
        0.19657279551029205,
        -0.035995546728372574,
        0.24362614750862122,
        -0.43070104718208313,
        -0.2501786947250366,
        0.1517743468284607,
        -0.3107026219367981,
        0.017184153199195862,
        0.047439347952604294,
        -0.21219731867313385,
        0.10226967930793762,
        -0.04873910918831825,
        0.04042110592126846,
        -0.13090921938419342,
        0.21514685451984406,
        -0.07728023082017899,
        0.12212739884853363,
        0.008447771891951561,
        -0.06028640642762184,
        0.003250191919505596,
        0.014320393092930317,
        -0.023729728534817696,
        0.04230795055627823,
        -0.15784068405628204,
        0.07490982115268707,
        -0.20523104071617126,
        0.1305316984653473,
        -0.20962336659431458,
        0.13556016981601715,
        -0.1833023875951767,
        0.05302944406867027,
        -0.1472564935684204,
        0.12310712784528732,
        -0.12741397321224213,
        -0.08300955593585968,
        0.000980087323114276,
        0.3134576380252838,
        -0.026709990575909615,
        0.34160399436950684,
        -0.03859863430261612,
        0.14630678296089172,
        -0.07238104939460754,
        -0.23984186351299286,
        -0.06372921913862228,
        0.0538291335105896,
        -0.0962715893983841,
        0.013318391516804695,
        0.13731351494789124,
        -0.17680956423282623,
        0.0037551005370914936,
        -0.14691239595413208,
        0.2847016155719757,
        -0.02254031039774418,
        0.022473974153399467,
        -0.10937829315662384,
        -0.10618184506893158,
        0.151412695646286,
        -0.12795569002628326,
        -0.049212872982025146,
        0.14893551170825958,
        0.17148351669311523,
        -0.08447045087814331,
        0.19128571450710297,
        0.01668715663254261,
        0.07788129150867462,
        -0.17367695271968842,
        -0.055354248732328415,
        0.04084372520446777,
        -0.10628428310155869,
        -0.15126433968544006,
        0.06724739074707031,
        0.025791235268115997,
        -0.011457748711109161,
        0.060715194791555405,
        0.025842662900686264,
        0.12167176604270935,
        -0.0230796467512846,
        -0.129936084151268,
        0.07510348409414291,
        0.10662936419248581,
        0.1180083379149437,
        0.06304967403411865,
        -0.03452736511826515,
        -0.060057301074266434,
        0.07150289416313171,
        -0.039160847663879395,
        -0.039302632212638855,
        0.08449132740497589,
        -0.09799618273973465,
        0.012577616609632969,
        0.09456828236579895,
        -0.044840339571237564,
        0.14090511202812195,
        -0.07034654170274734,
        -0.012435097247362137,
        0.04048420861363411,
        -0.06559284776449203,
        -0.011908200569450855,
        -0.014258254319429398,
        0.0824732631444931,
        -0.09754796326160431,
        -0.17706617712974548,
        0.5380908846855164,
        0.1091872975230217,
        -0.11461921781301498,
        -0.24082599580287933,
        0.08405373990535736,
        -0.16044487059116364,
        0.006001554429531097,
        0.011455207131803036,
        0.05105488747358322,
        -0.007809664588421583,
        -0.09466995298862457,
        -0.002248512813821435,
        -0.06427142769098282,
        -0.04698321223258972,
        -0.03309952840209007,
        -0.0808885246515274,
        -0.15341222286224365,
        -0.10588432848453522,
        -0.18275268375873566,
        0.049022991210222244,
        0.09839469939470291,
        -0.16892558336257935,
        -0.10655174404382706,
        -0.028498366475105286,
        0.1558856964111328,
        0.1644100695848465,
        0.0510140061378479,
        -0.012769730761647224,
        0.06662306189537048,
        -0.11323466151952744,
        0.07139132171869278,
        -0.11246415972709656,
        0.03852017596364021,
        -0.03460698574781418,
        0.011840954422950745,
        0.1835426539182663,
        -0.13974864780902863,
        -0.25035664439201355,
        0.04127135127782822,
        -0.20220087468624115,
        -0.01565401628613472,
        0.15282265841960907,
        -0.17722545564174652,
        0.1218191534280777,
        -0.0636582225561142,
        0.13115864992141724,
        0.050388555973768234,
        -0.18264108896255493,
        0.12207377701997757,
        0.05612649768590927,
        -0.02824154868721962,
        -0.04936759173870087,
        0.0187342781573534,
        -0.13633599877357483,
        0.1332315057516098,
        -0.036960721015930176,
        -0.01789139211177826,
        0.1681016981601715,
        -0.09118001163005829,
        -0.04418362304568291,
        0.257718563079834,
        -0.159735307097435,
        -0.029247555881738663,
        0.02098146826028824,
        0.0276331827044487,
        0.018889475613832474,
        0.11912474036216736,
        0.014536644332110882,
        -0.17322847247123718,
        0.12406744807958603,
        0.03930097073316574,
        0.015486767515540123,
        -0.19427193701267242,
        0.05502017214894295,
        -0.05505908653140068,
        -0.05894315987825394,
        0.03759116306900978,
        0.11896005272865295,
        -0.046041056513786316,
        0.0680687204003334,
        -0.13345292210578918,
        -0.0015037673292681575,
        -0.027054263278841972,
        -0.012890865094959736,
        0.18788450956344604,
        -0.06792949140071869,
        -0.11017121374607086,
        0.2187473475933075,
        0.007602127734571695,
        -0.10519400984048843,
        0.05603954195976257,
        0.10124357044696808,
        0.10797879844903946,
        -0.32380202412605286,
        0.11974822729825974,
        0.18116189539432526,
        -0.12512825429439545,
        -0.15354830026626587,
        0.04802963510155678,
        -0.05811191722750664,
        -0.1850820928812027,
        0.040235087275505066,
        0.14082664251327515,
        0.17469480633735657,
        -0.09535126388072968,
        -0.00873524323105812,
        -0.08817661553621292,
        -0.04999247565865517,
        0.025298425927758217,
        0.06339764595031738,
        0.17255941033363342,
        -0.055010437965393066,
        0.06362969428300858,
        -0.106449194252491,
        -0.1739073246717453,
        0.05108674615621567,
        -0.03009278140962124,
        0.30767929553985596,
        0.07146164774894714,
        -0.11119303107261658,
        -0.26861369609832764,
        0.08649859577417374,
        0.04922490194439888,
        0.12801218032836914,
        -0.13302776217460632,
        -0.07316888123750687,
        -0.14366638660430908,
        0.04424550384283066,
        0.023304248228669167,
        0.17979471385478973,
        -0.0404801107943058,
        -0.021416854113340378,
        0.12339804321527481,
        -0.027797041460871696,
        0.10050738602876663,
        0.0009431965299881995,
        -0.134550541639328,
        -0.10781591385602951,
        0.13692687451839447,
        -0.049944572150707245,
        0.09691722691059113,
        0.0437079519033432,
        0.055010922253131866,
        0.16115207970142365,
        0.16223108768463135,
        0.10559582710266113,
        -0.0700562596321106,
        -0.10241459310054779,
        0.059713978320360184,
        0.12303391844034195,
        -0.05593765527009964,
        -0.24205274879932404,
        0.1331094205379486,
        -0.14892223477363586,
        -0.06330738961696625,
        0.0782795399427414,
        0.1443822830915451,
        0.05552738159894943,
        0.005805965978652239,
        0.013157570734620094,
        0.04070183262228966,
        -0.11342018842697144,
        0.030261265113949776,
        -0.09817752242088318,
        0.10165141522884369,
        -0.05160541832447052,
        -0.1280597597360611,
        0.07501242309808731,
        0.12797267735004425,
        -0.11483915895223618,
        -0.08992920815944672,
        -0.055510811507701874,
        0.10740359127521515,
        -0.118208147585392,
        0.18438471853733063,
        -0.10772357881069183,
        -0.11576142907142639,
        0.01574026793241501,
        -0.05692434310913086,
        0.0027902033179998398,
        -0.0846787840127945,
        -0.09753008186817169,
        -0.12467651814222336,
        -0.2110624760389328,
        0.189284548163414,
        0.01292077824473381,
        -0.13477882742881775,
        0.09569084644317627,
        -0.15275081992149353,
        0.1468576043844223,
        -0.11937622725963593,
        0.08864859491586685,
        -0.1171201765537262,
        -0.16756229102611542,
        0.01190434955060482,
        0.19571322202682495,
        -0.23638556897640228,
        -0.0003818778495769948,
        0.1062203198671341,
        0.22584369778633118,
        -0.07912363111972809,
        0.2515100836753845,
        -0.13016526401042938,
        -0.11544934660196304,
        0.0517546609044075,
        0.07941767573356628,
        -0.07783372700214386,
        0.10151086747646332,
        0.03803941607475281,
        0.02116057090461254,
        0.12047603726387024,
        0.16422589123249054,
        -0.1617870032787323,
        0.07832960039377213,
        0.061695076525211334,
        -0.047098901122808456,
        -0.03612058237195015,
        0.04576513543725014,
        0.017698151990771294,
        0.1540425717830658,
        -0.19321171939373016,
        -0.06340856850147247,
        -0.07012082636356354,
        -0.028614763170480728,
        0.05922899767756462,
        -0.04363847151398659,
        -0.12118367850780487,
        -0.05886058509349823,
        0.010918984189629555,
        -0.2022402137517929,
        0.00964812096208334,
        0.24588961899280548,
        -0.019121894612908363,
        -0.18539533019065857,
        0.053535498678684235,
        -0.11538786441087723,
        0.10442906618118286,
        -0.23094704747200012,
        0.05129951611161232,
        -0.03405313566327095,
        -0.11846701800823212,
        -0.014616136439144611,
        -0.1235908716917038,
        -0.011250754818320274,
        0.030113480985164642,
        0.054356757551431656,
        0.09781931340694427,
        0.16515015065670013,
        -0.08197157829999924,
        0.24053125083446503,
        -0.061091646552085876,
        0.025012748315930367,
        0.1915254145860672,
        0.11651372164487839,
        -0.011740334331989288,
        -0.03915748745203018,
        -0.06359918415546417,
        0.13521744310855865,
        -0.06397394090890884,
        0.021600117906928062,
        0.04854682832956314,
        0.12475670129060745,
        0.038287460803985596,
        0.1309046745300293,
        -0.21682478487491608,
        0.03832259029150009,
        -0.025089813396334648,
        0.041306376457214355,
        0.028023341670632362,
        0.09198267012834549,
        -0.1078583374619484,
        0.15098774433135986,
        -0.11888012290000916,
        0.07788341492414474,
        -0.19400334358215332,
        0.05637987330555916,
        0.20645353198051453,
        0.010369103401899338,
        -0.18388810753822327,
        0.3227975070476532,
        -0.08115275949239731,
        -0.056897856295108795,
        0.1336500644683838,
        0.05569105222821236,
        0.1660742312669754,
        -0.14201954007148743,
        0.1485709697008133,
        0.07023309916257858,
        0.07897794991731644,
        0.09179076552391052,
        -0.27767738699913025,
        -0.057498108595609665,
        -0.11034345626831055,
        0.08378491550683975,
        0.1947667896747589,
        0.20690225064754486,
        -0.08656080067157745,
        0.00851035863161087,
        0.22577683627605438,
        -0.1189088299870491,
        -0.006333037745207548,
        -0.03237639740109444,
        0.05174623802304268,
        0.08541321009397507,
        -0.027262281626462936,
        0.05679863318800926,
        0.1461278796195984,
        -0.1982816457748413,
        -0.21294112503528595,
        0.05442456156015396,
        -0.029117271304130554,
        0.19908566772937775,
        -0.11590234190225601,
        -0.24671822786331177,
        -0.1543087512254715,
        -0.2042166143655777,
        0.2632441520690918,
        0.2631062865257263,
        -0.08398895710706711,
        -0.13097211718559265,
        -0.07491545379161835,
        -0.006400212179869413,
        0.10067225247621536,
        -0.34045904874801636,
        0.10268807411193848,
        0.08806567639112473,
        -0.17231431603431702,
        0.051300738006830215,
        0.07500868290662766,
        -0.21444621682167053,
        -0.09208060801029205,
        0.1471981704235077,
        0.19777530431747437,
        -0.10531008988618851,
        -0.04289914295077324,
        0.27063047885894775,
        -0.15819019079208374,
        0.22136050462722778,
        0.016091138124465942,
        -0.07567484676837921,
        0.013425689190626144,
        0.0916682779788971,
        -0.04294279217720032,
        0.18871550261974335,
        0.07001487910747528,
        -0.08942686021327972,
        0.17401336133480072,
        0.07436156272888184,
        0.008088894188404083,
        0.11882317811250687,
        0.04818524420261383,
        -0.09375611692667007,
        -0.08485771715641022,
        0.003460264764726162,
        0.014458059333264828,
        -0.1214931532740593,
        0.058287907391786575,
        -0.11272977292537689,
        -0.12702281773090363,
        0.038192592561244965,
        0.2143484354019165,
        0.012507458217442036,
        0.07771457731723785,
        0.02510395459830761,
        0.13189814984798431,
        -0.06319433450698853,
        0.1650846153497696,
        0.01112954132258892,
        0.09269311279058456,
        -0.07370948046445847,
        0.1698029339313507,
        0.06162291020154953,
        -0.13859803974628448,
        0.0028077622409909964,
        0.10462985932826996,
        -0.13188433647155762,
        0.02622964046895504,
        0.12694068253040314,
        -0.2691861689090729,
        -0.02915072999894619,
        -0.17589272558689117,
        0.22752167284488678,
        -0.17604000866413116,
        -0.06388116627931595,
        -0.13372668623924255,
        0.1175989955663681,
        0.025864658877253532,
        -0.10290462523698807,
        0.16303904354572296,
        0.024268897250294685,
        -0.17302359640598297,
        -0.14529427886009216,
        0.032543063163757324,
        -0.08451584726572037,
        0.21419988572597504,
        -0.17699745297431946,
        -0.026299240067601204,
        0.05747632309794426,
        0.02606329321861267,
        0.02631908841431141,
        -0.05982837826013565,
        -0.08524049818515778,
        -0.021610692143440247,
        -0.14049512147903442,
        0.016235370188951492,
        0.06837772578001022,
        0.07517751306295395,
        0.18721328675746918,
        0.060420602560043335,
        -0.14851827919483185,
        -0.1951623260974884,
        -0.05269205942749977,
        -0.05677676200866699,
        -0.07737146317958832,
        0.0388917401432991,
        -0.1959429681301117,
        -0.12567521631717682,
        -0.2104402333498001,
        0.01982457935810089,
        -0.013845526613295078,
        -0.09675601869821548,
        0.10259221494197845,
        -0.02783769927918911,
        -0.08985455334186554,
        0.07220209389925003,
        -0.1268477886915207,
        -0.18351253867149353,
        0.2031162977218628,
        -0.1305519938468933,
        -0.11059731245040894,
        0.1515476256608963,
        -0.11924639344215393,
        -0.20718400180339813,
        -0.15322864055633545,
        -0.15157298743724823,
        -0.0010498034534975886,
        0.12759090960025787,
        0.08474575728178024,
        -0.09116371721029282,
        -0.06216609105467796,
        -0.07530074566602707,
        -0.07924003899097443,
        0.014662196859717369,
        -0.03894222155213356,
        0.008718505501747131,
        -0.09619814902544022,
        0.05889369919896126,
        0.11919382959604263,
        0.06174633651971817,
        0.06931833922863007,
        0.09241440892219543,
        0.1524379998445511,
        -0.223784938454628,
        0.15742506086826324,
        -0.09878992289304733,
        0.15460850298404694,
        -0.10643476247787476,
        0.0854877457022667,
        0.0380370132625103,
        -0.16592204570770264,
        -0.005795884877443314,
        -0.034392815083265305,
        -0.011152880266308784,
        0.07771863043308258,
        -0.04213961213827133,
        0.061100997030735016,
        -0.13053518533706665,
        0.03111700899899006,
        0.08080705255270004,
        0.09990048408508301,
        -0.11813542246818542,
        0.20573464035987854,
        -0.10482951998710632,
        0.016051383689045906,
        0.2059258073568344,
        0.013765321113169193,
        0.06396271288394928,
        -0.3438239097595215,
        -0.1747165024280548,
        0.31086722016334534,
        -0.29723119735717773,
        0.2299099713563919,
        0.06142060086131096,
        -0.11819898337125778,
        -0.04122999683022499,
        0.07765860110521317,
        -0.10315580666065216,
        -0.00271247373893857,
        0.09100533276796341,
        -0.09782185405492783,
        -0.07092157751321793,
        -0.11588528007268906,
        -0.1550329029560089,
        0.14843153953552246,
        -0.14712035655975342,
        0.05030035972595215,
        0.05872010439634323,
        -0.10797473788261414,
        -0.09919825941324234,
        -0.14941543340682983,
        0.05191464722156525,
        -0.16628104448318481,
        0.06102230027318001,
        -0.0036429043393582106,
        0.1769026666879654,
        -0.13194026052951813,
        0.002668925328180194,
        -0.04043421894311905,
        0.0496387854218483,
        -0.016017582267522812,
        0.115785151720047,
        0.04246653988957405,
        0.06276313215494156,
        -0.07670997083187103,
        -0.02771836332976818,
        -0.05437883734703064,
        -0.04210154339671135,
        0.09180948883295059,
        -0.034128278493881226,
        -0.10639140009880066,
        0.04735676944255829,
        0.11911257356405258,
        -0.04954907298088074,
        0.016018345952033997,
        -0.21813833713531494,
        0.1686638444662094,
        -0.07883042097091675,
        -0.30444326996803284,
        0.07357663661241531,
        0.00013375116395764053,
        0.02307567559182644,
        0.14048942923545837,
        0.2945671081542969,
        0.08220914751291275,
        0.007884840480983257,
        -0.05701583996415138,
        -0.0945286676287651,
        -0.03953864797949791,
        0.20398303866386414,
        -0.21123403310775757,
        -0.15735174715518951,
        0.07415350526571274,
        -0.07781137526035309,
        -0.07593273371458054,
        -0.2599734663963318,
        0.11937656998634338,
        -0.03374549746513367,
        -0.16515548527240753,
        -0.17929697036743164,
        0.04959845542907715,
        -0.02114051580429077,
        0.11079474538564682,
        0.017603060230612755,
        -0.014329809695482254,
        0.03744404762983322,
        -0.10080402344465256,
        0.12652678787708282,
        0.19505825638771057,
        0.014959138818085194,
        -0.01275914441794157,
        -0.2029258757829666,
        -0.005918197333812714,
        0.11563809961080551,
        -0.03448338061571121,
        0.15901994705200195,
        -0.09430891275405884,
        -0.15389464795589447,
        -0.07406783103942871,
        0.12988664209842682,
        -0.16748282313346863,
        -0.0804653987288475,
        0.21883340179920197,
        -0.0010454037692397833,
        -0.10320696979761124,
        -0.28522419929504395,
        0.07830923795700073,
        0.16378828883171082,
        -0.08102084696292877,
        -0.07425015419721603,
        0.10519484430551529,
        0.08028743416070938,
        -0.10640435665845871,
        0.02608170546591282,
        0.022148359566926956,
        -0.10259313881397247,
        0.14380677044391632,
        0.06264474242925644,
        -0.1046430841088295,
        0.11244520545005798,
        0.009073912166059017,
        0.0526590570807457,
        0.14949975907802582,
        0.15969549119472504,
        0.12524686753749847,
        0.05372718721628189,
        -0.0710567831993103,
        0.05153990164399147,
        0.10177397727966309,
        0.011558610014617443,
        0.07374303042888641,
        -0.004306869115680456,
        0.07005900889635086,
        -0.05007359758019447,
        -0.03641589730978012,
        -0.10073518007993698,
        -0.0658731535077095,
        -0.10394902527332306,
        -0.05975712835788727,
        -0.049466025084257126,
        -0.09812270104885101,
        0.018587833270430565,
        -0.22237174212932587,
        0.07796347886323929,
        0.10613973438739777,
        -0.15358327329158783,
        0.2565292716026306,
        -0.0650256797671318,
        -0.04975339397788048,
        0.1964118778705597,
        -0.022379551082849503,
        0.20434845983982086,
        -0.22482044994831085,
        -0.05251536890864372,
        -0.032089389860630035,
        -0.23565064370632172,
        -0.04600252956151962,
        0.028049074113368988,
        0.03909342736005783,
        0.0407547801733017,
        -0.08343308418989182,
        0.1130312904715538,
        0.0356474295258522,
        -0.09778472036123276,
        -0.036906592547893524,
        0.13137970864772797,
        -0.02292879857122898,
        0.08324240893125534,
        -0.014566372148692608,
        -0.11886995285749435,
        -0.019795482978224754,
        -0.048351362347602844,
        0.06607397645711899,
        -0.2765004634857178,
        -0.5976337790489197,
        0.9849506616592407,
        0.3821329176425934,
        -0.3621158003807068,
        0.20272554457187653,
        -0.25531384348869324,
        0.06478872895240784,
        0.5772108435630798,
        -1.0937825441360474,
        0.7960795164108276,
        0.4573839008808136,
        0.16372640430927277,
        -0.47629526257514954,
        0.11670742928981781,
        -0.6454002857208252,
        0.18386831879615784,
        -0.48101645708084106,
        0.004782805684953928,
        -0.36094579100608826,
        0.23277810215950012,
        0.3278084993362427,
        0.1477617770433426,
        0.06920578330755234,
        0.41313332319259644,
        0.16339921951293945,
        -0.05017600953578949,
        0.09380520135164261,
        -0.12347447872161865,
        -0.1631060689687729,
        -0.06250901520252228,
        0.016490790992975235,
        0.41414719820022583,
        -0.061929866671562195,
        -0.059968236833810806,
        0.14328409731388092,
        0.10959240794181824,
        0.014003156684339046,
        0.2488599717617035,
        -0.37901920080184937,
        -0.29202765226364136,
        0.27960288524627686,
        0.030651463195681572,
        0.1769891381263733,
        -0.11081341654062271,
        0.26091310381889343,
        0.3234139382839203,
        -0.04765370115637779,
        0.030198927968740463,
        0.3788006901741028,
        0.08297120034694672,
        -0.03813926503062248,
        -0.010838889516890049,
        -0.21028581261634827,
        0.01777108758687973,
        -0.250320166349411,
        -0.4297827184200287,
        -0.0172878410667181,
        -0.06342016160488129,
        0.16649481654167175,
        0.062419455498456955,
        0.0890846848487854,
        0.042276524007320404,
        -0.0764613226056099,
        0.2760443687438965,
        -0.40375185012817383,
        0.2557043433189392,
        -0.10769721865653992,
        0.007592660374939442,
        0.2816275954246521,
        -0.2460675984621048,
        0.2948823571205139,
        0.2523944079875946,
        0.056734103709459305,
        -0.15231506526470184,
        0.1320711374282837,
        0.011436152271926403,
        0.00014250232197809964,
        0.1541673094034195,
        0.012204502709209919,
        0.06231527775526047,
        -0.1586066633462906,
        0.26109248399734497,
        0.02174023725092411,
        0.01674455963075161,
        -0.10668294131755829,
        0.13919971883296967,
        -0.12002377957105637,
        0.17802634835243225,
        -0.08790954947471619,
        -0.033974092453718185,
        0.17917576432228088,
        -0.3285192847251892,
        -0.1578766405582428,
        0.16620315611362457,
        -0.29941508173942566,
        -0.10065135359764099,
        0.24713803827762604,
        0.029258474707603455,
        0.1331809014081955,
        -0.3586423099040985,
        -0.2725273370742798,
        0.33365607261657715,
        -0.05868023261427879,
        -0.43858399987220764,
        -0.11943532526493073,
        0.3005307912826538,
        0.33798569440841675,
        -0.009905003011226654,
        0.3293924629688263,
        0.22486872971057892,
        -0.18540500104427338,
        0.15105034410953522,
        0.09290322661399841,
        -0.0280197374522686,
        0.07408810406923294,
        0.16926129162311554,
        -0.14220884442329407,
        0.09883144497871399,
        -0.06216695159673691,
        -0.2955436408519745,
        0.268289715051651,
        0.07947231084108353,
        -0.06807734072208405,
        0.050519831478595734,
        0.16865679621696472,
        0.1766325682401657,
        0.13122165203094482,
        0.24050450325012207,
        0.15992268919944763,
        -0.31240418553352356,
        -0.13913509249687195,
        0.1917746514081955,
        -0.23148295283317566,
        0.09203463792800903,
        -0.1705796718597412,
        0.08652283251285553,
        0.17759785056114197,
        0.046384308487176895,
        0.29422035813331604,
        -0.11220651865005493,
        0.06389731913805008,
        0.07280688732862473,
        -0.023401660844683647,
        -0.18198443949222565,
        0.4575656056404114,
        -0.07609803974628448,
        0.2024679183959961,
        0.1597287654876709,
        -0.06235428899526596,
        -0.19953590631484985,
        0.06625238060951233,
        -0.2888822853565216,
        0.19089660048484802,
        -0.11776739358901978,
        0.1423976719379425,
        -0.2556465268135071,
        0.20988255739212036,
        0.028125537559390068,
        0.09777636080980301,
        0.30725643038749695,
        -0.28914889693260193,
        -0.12745855748653412,
        0.2166758030653,
        0.018382752314209938,
        0.06189607456326485,
        -0.03428959846496582,
        -0.18787461519241333,
        -0.006558671593666077,
        -0.06451273709535599,
        0.15179266035556793,
        0.10880891978740692,
        0.012153278104960918,
        -0.05856417864561081,
        0.2702348828315735,
        -0.1195572167634964,
        0.3941500782966614,
        -0.49917304515838623,
        -0.23185507953166962,
        -0.27187585830688477,
        0.2514441907405853,
        -0.1281937211751938,
        0.1597570776939392,
        -0.03611236438155174,
        0.3872219920158386,
        0.25675615668296814,
        -0.39560991525650024,
        0.05157199501991272,
        0.16216343641281128,
        -0.29361993074417114,
        0.14596083760261536,
        0.35560914874076843,
        -0.010781293734908104,
        0.3930860459804535,
        0.04917008429765701,
        0.2432679533958435,
        -0.2645421326160431,
        0.22891190648078918,
        0.28058579564094543,
        -0.05418861284852028,
        -0.23810817301273346,
        -0.14445509016513824,
        -0.045783787965774536,
        0.10103004425764084,
        -0.29855015873908997,
        -0.04461485147476196,
        0.16397565603256226,
        -0.18236695230007172,
        -0.40586745738983154,
        -0.13905401527881622,
        -0.07572530210018158,
        -0.09281805902719498,
        0.15008744597434998,
        0.22297298908233643,
        -0.2486206591129303,
        -0.2881467044353485,
        0.08222558349370956,
        -0.010149546898901463,
        -0.17130158841609955,
        -0.07347087562084198,
        -0.08229649811983109,
        0.04674669727683067,
        0.06104186177253723,
        -0.12204525619745255,
        -0.4100644588470459,
        0.3519074022769928,
        -0.163923442363739,
        -0.013357740826904774,
        -0.01580767147243023,
        -0.053838081657886505,
        0.016300557181239128,
        -0.14417259395122528,
        -0.07904475182294846,
        0.025158438831567764,
        0.11293917894363403,
        -0.4096021056175232,
        -0.027462301775813103,
        0.11169108748435974,
        -0.21179437637329102,
        0.028429249301552773,
        0.2149951159954071,
        0.2873555123806,
        -0.05834879353642464,
        0.0938756987452507,
        -0.17042481899261475,
        -0.2410244196653366,
        0.3227006494998932,
        -0.2961655259132385,
        -0.05048835650086403,
        0.2888655960559845,
        0.1857735812664032,
        0.35746708512306213,
        -0.10560369491577148,
        0.18176224827766418,
        0.15493646264076233,
        -0.24964432418346405,
        0.12013157457113266,
        0.25196704268455505,
        -0.1785959005355835,
        -0.2521466612815857,
        -0.11195001751184464,
        -0.35465553402900696,
        0.14789050817489624,
        -0.2477898895740509,
        -0.21703870594501495,
        0.5432167053222656,
        0.24325242638587952,
        0.20990055799484253,
        -0.12552843987941742,
        0.07709559798240662,
        0.1620813012123108,
        0.09641000628471375,
        0.012479624710977077,
        0.04504896327853203,
        0.04471680894494057,
        0.016720524057745934,
        -0.06430863589048386,
        0.09493847191333771,
        0.02634897641837597,
        -0.006337746512144804,
        -0.10358404368162155,
        -0.13484999537467957,
        0.021634554490447044,
        0.07516402751207352,
        0.14201505482196808,
        0.11726126819849014,
        0.062340717762708664,
        -0.017413539811968803,
        0.2372126281261444,
        0.010539441369473934,
        0.07215149700641632,
        -0.23213188350200653,
        -0.07252004742622375,
        0.18345604836940765,
        0.20826201140880585,
        -0.022607166320085526,
        -0.11251556873321533,
        0.0013873791322112083,
        0.11406276375055313,
        0.37895819544792175,
        -0.08891887962818146,
        -0.1730378270149231,
        -0.05142659321427345,
        -0.059355612844228745,
        -0.032499633729457855,
        0.1538161337375641,
        0.16730491816997528,
        -0.057999301701784134,
        -0.041290272027254105,
        -0.3201921880245209,
        0.016838431358337402,
        0.18211936950683594,
        0.18288256227970123,
        -0.11933583766222,
        -0.19155283272266388,
        -0.17224085330963135,
        0.06860413402318954,
        0.08610598742961884,
        0.04245040565729141,
        -0.08302988857030869,
        0.11353074759244919,
        0.11939846724271774,
        -0.2828125059604645,
        -0.43263065814971924,
        0.008763083256781101,
        0.04539651796221733,
        -0.17670708894729614,
        0.1669716238975525,
        -0.009229193441569805,
        -0.24720562994480133,
        -0.24749110639095306,
        -0.175909161567688,
        0.019104300066828728,
        -0.026854833588004112,
        -0.2100738137960434,
        0.09347736835479736,
        0.11139024049043655,
        0.3669060468673706,
        0.02278093993663788,
        0.21188881993293762,
        -0.20607461035251617,
        0.14751897752285004,
        0.01422769483178854,
        -0.057719387114048004,
        0.0685141533613205,
        -0.07302910089492798,
        0.3629600703716278,
        0.0724315345287323,
        0.06443613767623901,
        0.1233590766787529,
        0.1683267056941986,
        0.07279510796070099,
        -0.280163049697876,
        -0.015372940339148045,
        -0.16639837622642517,
        0.038285549730062485,
        -0.001435954007320106,
        -0.002927585504949093,
        -0.2747015058994293,
        -0.11794865876436234,
        -0.08053627610206604,
        0.13554632663726807,
        -0.0644516795873642,
        0.06022612005472183,
        0.10925664007663727,
        0.16330213844776154,
        -0.06476347893476486,
        0.27373597025871277,
        0.10971253365278244,
        0.11951359361410141,
        0.021610675379633904,
        -0.3112715482711792,
        -0.06844796985387802,
        0.17573577165603638,
        0.02958749048411846,
        -0.14445042610168457,
        0.17387168109416962,
        -0.1462426483631134,
        0.04245515912771225,
        -0.052628736943006516,
        0.11588649451732635,
        -0.11690659821033478,
        -0.3929843008518219,
        0.026497624814510345,
        -0.12081355601549149,
        0.05750533938407898,
        0.020892959088087082,
        0.013976589776575565,
        0.005758930929005146,
        -0.2028665989637375,
        -0.22862477600574493,
        0.017695298418402672,
        0.10573557019233704,
        -0.07185526937246323,
        0.06959547847509384,
        -0.14546515047550201,
        0.21802642941474915,
        0.07878218591213226,
        -0.05371118709445,
