{
    "version": "0.5.0",
    "architecture": "WaveNet",
    "config": {
        "layers": [
            {
                "input_size": 1,
                "condition_size": 1,
                "head_size": 4,
                "channels": 8,
                "kernel_size": 3,
                "dilations": [
                    1,
                    2,
                    4,
                    8,
                    16,
                    32,
                    64
                ],
                "activation": "Tanh",
                "gated": false,
                "head_bias": false
            },
            {
                "input_size": 8,
                "condition_size": 1,
                "head_size": 1,
                "channels": 4,
                "kernel_size": 3,
                "dilations": [
                    128,
                    256,
                    512,
                    1,
                    2,
                    4,
                    8,
                    16,
                    32,
                    64,
                    128,
                    256,
                    512
                ],
                "activation": "Tanh",
                "gated": false,
                "head_bias": true
            }
        ],
        "head": null,
        "head_scale": 0.02
    },
    "weights": [
        -0.4959288537502289,
        0.5999290347099304,
        -0.9857069253921509,
        -0.9032593369483948,
        -0.5218378305435181,
        0.0681827962398529,
        -0.24592769145965576,
        1.100992202758789,
        -0.24005141854286194,
        -0.27681100368499756,
        -0.2949080169200897,
        0.19139494001865387,
        0.1391809731721878,
        0.10564742237329483,
        -0.304958701133728,
        -0.3153325617313385,
        -0.1483306586742401,
        -0.10547607392072678,
        -0.46967586874961853,
        -0.32571136951446533,
        -0.15043644607067108,
        -0.15660248696804047,
        -0.2741504907608032,
        0.40305641293525696,
        0.30222368240356445,
        0.2621816098690033,
        -0.04072235897183418,
        -0.5172556042671204,
        -0.3522922396659851,
        0.1709929257631302,
        0.24637819826602936,
        0.4066425859928131,
        -0.34453997015953064,
        -0.5213369131088257,
        -0.2316405028104782,
        0.07070291042327881,
        0.32542210817337036,
        0.3099750578403473,
        -0.17803116142749786,
        -0.36426398158073425,
        -0.13463687896728516,
        -0.37311097979545593,
        -0.42060184478759766,
        -0.33059462904930115,
        -0.4057363271713257,
        -0.5567655563354492,
        -0.00197578058578074,
        0.3255654275417328,
        0.2940196096897125,
        0.04814044013619423,
        -0.08405474573373795,
        -0.24267710745334625,
        0.010985657572746277,
        0.29681849479675293,
        0.5997897386550903,
        0.02599470503628254,
        0.16447365283966064,
        0.025666581466794014,
        -0.33597898483276367,
        -0.2577303349971771,
        -0.10606295615434647,
        0.2111845463514328,
        0.03677365928888321,
        0.27323514223098755,
        -0.010834666900336742,
        0.13075773417949677,
        0.21389025449752808,
        -0.07887754589319229,
        0.2706902325153351,
        0.3962845802307129,
        -0.29528510570526123,
        -0.1755756288766861,
        -0.08989360183477402,
        0.33265170454978943,
        0.28571316599845886,
        0.36965540051460266,
        -0.17974981665611267,
        -0.3354136049747467,
        -0.1913793981075287,
        -0.002779861446470022,
        -0.41139501333236694,
        0.0009241027291864157,
        0.4460158050060272,
        0.029197528958320618,
        0.24576671421527863,
        -0.25244471430778503,
        -0.27670952677726746,
        -0.31169092655181885,
        0.2904698848724365,
        -0.3604714274406433,
        -0.14085225760936737,
        0.3164171874523163,
        -0.08251149207353592,
        -0.13137134909629822,
        0.018327949568629265,
        0.04559457674622536,
        0.27789804339408875,
        -0.16520057618618011,
        -0.37800702452659607,
        -0.31015831232070923,
        0.46333277225494385,
        0.3836922347545624,
        0.13124075531959534,
        -0.26500773429870605,
        -0.11016661673784256,
        0.1507013440132141,
        -0.3545999228954315,
        -0.27746620774269104,
        -0.19326330721378326,
        0.16385799646377563,
        0.04445084556937218,
        0.3188011348247528,
        -0.2503970265388489,
        0.3094276189804077,
        0.3294191062450409,
        -0.3021605908870697,
        0.0637383684515953,
        0.19739484786987305,
        -0.10727345198392868,
        -0.015548854134976864,
        -0.07929974049329758,
        0.17532940208911896,
        -0.035200074315071106,
        0.2624896764755249,
        -0.4098716080188751,
        -0.25167396664619446,
        -0.2486049383878708,
        0.026588596403598785,
        -0.21533764898777008,
        -0.13932450115680695,
        -0.15088188648223877,
        0.13227394223213196,
        -0.19763758778572083,
        0.054604243487119675,
        0.050460368394851685,
        0.04373149946331978,
        -0.061473630368709564,
        -0.10482221096754074,
        0.11033506691455841,
        0.06624174118041992,
        0.09392613172531128,
        0.19014890491962433,
        0.11620825529098511,
        0.05749843269586563,
        -0.2700318396091461,
        -0.014461273327469826,
        0.002523557748645544,
        0.045001015067100525,
        -0.22707897424697876,
        -0.05749748647212982,
        -0.25184860825538635,
        -0.10279901325702667,
        -0.1691976636648178,
        0.01066471915692091,
        0.46048521995544434,
        -0.03887283429503441,
        0.24935168027877808,
        -0.44469690322875977,
        -0.19911648333072662,
        -0.21253915131092072,
        0.2489684373140335,
        -0.20175614953041077,
        -0.31112736463546753,
        0.10742031037807465,
        -0.1772761344909668,
        -0.11859555542469025,
        0.2063576728105545,
        0.20741698145866394,
        -0.0454934723675251,
        -0.28767624497413635,
        0.06381920725107193,
        -0.20567455887794495,
        0.5417152643203735,
        0.23309184610843658,
        -0.05625533312559128,
        -0.15999868512153625,
        -0.08153535425662994,
        -0.3193020224571228,
        0.19520287215709686,
        -0.06866919249296188,
        0.2670835256576538,
        -0.030047964304685593,
        0.03704654425382614,
        -0.20922492444515228,
        0.07178724557161331,
        -0.029461925849318504,
        -0.3032168745994568,
        -0.0605713315308094,
        -0.2627076506614685,
        -0.14304512739181519,
        0.15104249119758606,
        0.1774749606847763,
        0.05627233162522316,
        -0.0393911674618721,
        -0.18712781369686127,
        -0.3522082269191742,
        -0.07067225128412247,
        0.1774580180644989,
        0.1425316035747528,
        0.02125552110373974,
        -0.09420140087604523,
        0.4358450472354889,
        -0.20324809849262238,
        -0.16230826079845428,
        -0.08367451280355453,
        0.1049283817410469,
        -0.07816658169031143,
        0.29561829566955566,
        0.5885961055755615,
        0.2854129374027252,
        0.09597482532262802,
        -0.3910941779613495,
        0.2350831776857376,
        -0.17473487555980682,
        -0.2781381905078888,
        0.16875311732292175,
        -0.28543275594711304,
        -0.25074249505996704,
        0.3975183963775635,
        -0.3309693932533264,
        0.1234535500407219,
        0.5486370325088501,
        0.005326620303094387,
        0.004389653448015451,
        -0.4990747570991516,
        0.19398880004882812,
        -0.2920631170272827,
        -0.054206401109695435,
        -0.23341208696365356,
        -0.07934673875570297,
        0.07972176373004913,
        0.2873457670211792,
        -0.005557369440793991,
        0.2597382068634033,
        0.29175618290901184,
        -0.5159727334976196,
        0.35276252031326294,
        -0.11487225443124771,
        -0.38016191124916077,
        0.11488384753465652,
        0.1474326252937317,
        0.23568999767303467,
        -0.0480043888092041,
        0.02082991600036621,
        0.2396504133939743,
        -0.2925901412963867,
        0.33665022253990173,
        -0.354922354221344,
        0.17297276854515076,
        -0.02475908398628235,
        -0.10330835729837418,
        -0.0426400825381279,
        0.4874967634677887,
        0.02094065025448799,
        -0.30010223388671875,
        -0.1252463459968567,
        -0.35946857929229736,
        -0.13030733168125153,
        -0.053617797791957855,
        -0.07368142157793045,
        -0.08728786557912827,
        0.164759561419487,
        0.27943870425224304,
        -0.02567034587264061,
        0.08529794216156006,
        -0.22640475630760193,
        -0.07649455964565277,
        0.22426444292068481,
        0.11219857633113861,
        9.435470565222204e-05,
        0.0742887631058693,
        -0.20913980901241302,
        -0.12354827672243118,
        0.3522628843784332,
        -0.3471023440361023,
        -0.10308631509542465,
        0.22302767634391785,
        -0.3538915812969208,
        0.01261997316032648,
        0.27131733298301697,
        0.11420883238315582,
        -0.31605109572410583,
        -0.13405799865722656,
        0.25774243474006653,
        0.0052014924585819244,
        0.07449525594711304,
        -0.1261514127254486,
        -0.03735975921154022,
        -0.10277876257896423,
        -0.16441401839256287,
        0.1422829031944275,
        0.17952023446559906,
        0.2886890769004822,
        0.009113863110542297,
        -0.01477135717868805,
        -0.0873543992638588,
        0.22213195264339447,
        -0.2970290780067444,
        0.05600926652550697,
        -0.2595367133617401,
        -0.21049676835536957,
        -0.21313358843326569,
        0.0824902355670929,
        0.07923053950071335,
        0.06626537442207336,
        -0.1339203268289566,
        0.08594182133674622,
        0.028020527213811874,
        0.196942999958992,
        -0.05910096690058708,
        -0.1597464233636856,
        0.027650833129882812,
        -0.0884370356798172,
        -0.1752941608428955,
        0.19847120344638824,
        0.1331363469362259,
        -0.0026708682999014854,
        -0.2031039595603943,
        -0.18538662791252136,
        -0.11401458829641342,
        -0.00660873856395483,
        0.016867196187376976,
        0.018726781010627747,
        0.03094346448779106,
        0.026373831555247307,
        0.00657474622130394,
        0.21269983053207397,
        0.09360495209693909,
        0.1665080487728119,
        -0.13967092335224152,
        -0.19834387302398682,
        -0.2523578703403473,
        0.22873137891292572,
        0.2121511846780777,
        -0.009706619195640087,
        0.16807536780834198,
        0.25875982642173767,
        0.3691847324371338,
        -0.21415628492832184,
        0.16511106491088867,
        -0.16873040795326233,
        0.1823769360780716,
        0.20910616219043732,
        -0.0013230410404503345,
        -0.20885755121707916,
        0.09173800051212311,
        -0.053051210939884186,
        0.1743212193250656,
        -0.0803229957818985,
        0.22835804522037506,
        -0.46667051315307617,
        0.18225620687007904,
        -0.010900171473622322,
        0.16491304337978363,
        0.05835692211985588,
        0.22772645950317383,
        -0.23601697385311127,
        0.0923243835568428,
        -0.22968465089797974,
        -0.015484767034649849,
        -0.007062403950840235,
        0.17112606763839722,
        0.29974785447120667,
        0.0629914328455925,
        -0.5262933969497681,
        -0.48882386088371277,
        0.22516348958015442,
        -0.0694180428981781,
        -0.05900777503848076,
        0.20129656791687012,
        0.1126231923699379,
        0.5128182768821716,
        -0.09086783230304718,
        0.2931254208087921,
        0.20248809456825256,
        -0.13996891677379608,
        0.10167039930820465,
        0.19174465537071228,
        -0.052765265107154846,
        0.09614487737417221,
        0.1518598049879074,
        0.11664902418851852,
        0.04886434227228165,
        -0.050777070224285126,
        0.027665885165333748,
        0.05445285886526108,
        0.33270302414894104,
        0.19554322957992554,
        0.07287447899580002,
        0.07697905600070953,
        -0.059369154274463654,
        -0.060101427137851715,
        -0.09426198899745941,
        -0.111885666847229,
        -0.05343220382928848,
        -0.038885097950696945,
        0.06948523968458176,
        -0.23819617927074432,
        -0.0026096629444509745,
        0.1589900553226471,
        0.17516323924064636,
        0.052144136279821396,
        -0.09188315272331238,
        0.1412191390991211,
        0.1609002649784088,
        -0.12806624174118042,
        0.1854507476091385,
        0.2531006634235382,
        -0.4187750518321991,
        0.20552979409694672,
        -0.0005587265477515757,
        0.1689472496509552,
        -0.020506640896201134,
        -0.1738004982471466,
        -0.3661995232105255,
        -0.055015433579683304,
        -0.14276085793972015,
        0.02633676677942276,
        -0.038292404264211655,
        0.2704498767852783,
        -0.22488266229629517,
        0.08079568296670914,
        0.17473173141479492,
        0.039759960025548935,
        -0.009392797015607357,
        -0.24672280251979828,
        -0.15834210813045502,
        -0.14502978324890137,
        -0.07453837245702744,
        0.2131921499967575,
        -0.05032115429639816,
        0.039815034717321396,
        0.2649401128292084,
        0.14174899458885193,
        -0.29727181792259216,
        -0.17596326768398285,
        -0.021223612129688263,
        0.12677745521068573,
        0.22909995913505554,
        -0.05648842453956604,
        -0.1754491627216339,
        -0.19252140820026398,
        -0.21860824525356293,
        -0.047613564878702164,
        -0.05007852613925934,
        0.4053562879562378,
        -0.16706812381744385,
        -0.020327158272266388,
        -0.03977644443511963,
        -0.15416398644447327,
        0.32360154390335083,
        0.345369815826416,
        0.3525821566581726,
        -0.08330593258142471,
        -0.32527104020118713,
        0.11364498734474182,
        0.3810548186302185,
        0.3011482357978821,
        -0.20552362501621246,
        -0.35245925188064575,
        -0.4634511470794678,
        -0.13245566189289093,
        0.35633331537246704,
        -0.11169170588254929,
        0.1759428083896637,
        0.2510114014148712,
        0.27521276473999023,
        0.11186565458774567,
        0.19316036999225616,
        0.10542219132184982,
        0.029922377318143845,
        0.27563613653182983,
        0.09614728391170502,
        -0.01290066633373499,
        0.0006200501229614019,
        -0.2453298568725586,
        -0.24041619896888733,
        0.12361322343349457,
        -0.11850854754447937,
        0.17804545164108276,
        -0.2007354497909546,
        -0.10291541367769241,
        -0.1784674972295761,
        0.26214349269866943,
        -0.03368428722023964,
        0.15231528878211975,
        0.01467814389616251,
        0.24086645245552063,
        0.30937421321868896,
        -0.322711318731308,
        -0.22945238649845123,
        -0.6608492732048035,
        0.8570460081100464,
        -0.9558413028717041,
        0.9974085092544556,
        0.015793034806847572,
        -0.4818110466003418,
        -0.15760773420333862,
        0.557573139667511,
        0.15446901321411133,
        -0.6276351809501648,
        0.38190001249313354,
        0.15279553830623627,
        0.29280754923820496,
        0.3534819483757019,
        -0.03934020549058914,
        -0.06537988781929016,
        0.38068413734436035,
        -0.24492107331752777,
        0.16136498749256134,
        -0.27571719884872437,
        0.24544501304626465,
        -0.27613526582717896,
        -0.35207387804985046,
        0.37131547927856445,
        0.04578891023993492,
        -0.13198475539684296,
        -0.004285041708499193,
        0.5084370970726013,
        0.10733982920646667,
        0.2741008996963501,
        0.04667670279741287,
        -0.02304075099527836,
        -0.44177934527397156,
        0.07552193850278854,
        -0.3711659610271454,
        0.19976487755775452,
        -0.2758057415485382,
        0.01108623668551445,
        -0.12269842624664307,
        0.4506073296070099,
        0.18290162086486816,
        -0.5149264931678772,
        -0.24237287044525146,
        -0.5433775782585144,
        0.20254366099834442,
        0.17905448377132416,
        -0.11557748168706894,
        -0.33113792538642883,
        -0.0147157683968544,
        -0.15197719633579254,
        -0.3323310613632202,
        -0.20280396938323975,
        -0.3237338364124298,
        0.1908482164144516,
        0.2902607321739197,
        -0.34025752544403076,
        0.024619465693831444,
        -0.04885994642972946,
        0.3831068277359009,
        -0.7737914323806763,
        -0.379470556974411,
        0.3216211795806885,
        -0.20526596903800964,
        -0.016554487869143486,
        0.049271438270807266,
        0.27536317706108093,
        -0.1795608401298523,
        0.30011436343193054,
        0.044496163725852966,
        -0.22611787915229797,
        -0.2694047689437866,
        -0.0008225283236242831,
        0.10534130036830902,
        -0.39989718794822693,
        0.024193137884140015,
        -0.10736040025949478,
        -0.17844539880752563,
        0.16643604636192322,
        0.264351487159729,
        0.013324095867574215,
        -0.22967950999736786,
        -0.08053245395421982,
        -0.2131621390581131,
        -0.17102879285812378,
        0.09609606862068176,
        -0.3646399676799774,
        0.22690348327159882,
        -0.10197360813617706,
        0.04482129216194153,
        -0.28384527564048767,
        -0.13162633776664734,
        -0.3721297085285187,
        0.20522379875183105,
        -0.15565809607505798,
        -0.05148719996213913,
        0.0865066647529602,
        -0.007756694685667753,
        0.2201993763446808,
        -0.11770825833082199,
        -0.016806527972221375,
        -0.1119147464632988,
        -0.1270328015089035,
        0.255510538816452,
        0.03847772628068924,
        0.10841154307126999,
        -0.05049007758498192,
        0.40749043226242065,
        0.21644718945026398,
        0.2342912256717682,
        -0.14699384570121765,
        0.0036094398237764835,
        -0.19535113871097565,
        -0.01128444541245699,
        -0.03161017596721649,
        -0.02830364741384983,
        0.14255951344966888,
        -0.16518768668174744,
        -0.20515500009059906,
        -0.12660542130470276,
        0.109366275370121,
        -0.18618440628051758,
        0.26427099108695984,
        -0.32319313287734985,
        0.014202217571437359,
        0.24913451075553894,
        0.4361632168292999,
        0.3010540008544922,
        0.12493307888507843,
        0.18608589470386505,
        -0.14661778509616852,
        0.3636225163936615,
        0.23342099785804749,
        0.1229315996170044,
        -0.08682587742805481,
        -0.02882126346230507,
        0.14747539162635803,
        -0.09755376726388931,
        0.05462932959198952,
        0.19273926317691803,
        0.14246079325675964,
        0.17260491847991943,
        -0.31612223386764526,
        -0.023159924894571304,
        -0.024037083610892296,
        -0.8379086852073669,
        -0.13517051935195923,
        -0.349867582321167,
        0.10833939909934998,
        0.2689078450202942,
        -0.44884932041168213,
        0.10848718881607056,
        0.11418773233890533,
        0.20704993605613708,
        -0.008406035602092743,
        0.5478052496910095,
        -0.3727334141731262,
        0.2269584983587265,
        -0.11194325238466263,
        -0.49335339665412903,
        -0.10860565304756165,
        -0.2724354863166809,
        0.02731170319020748,
        -0.13802768290042877,
        -0.1266634613275528,
        -0.20908750593662262,
        -0.21525561809539795,
        0.033403411507606506,
        0.6884030699729919,
        -0.33902183175086975,
        -0.13358870148658752,
        -0.09228994697332382,
        0.14924277365207672,
        -0.1874845176935196,
        -0.10289133340120316,
        0.09974150359630585,
        0.18368887901306152,
        0.5505399703979492,
        0.1963980793952942,
        0.36857324838638306,
        -0.27448737621307373,
        -0.20130839943885803,
        0.04527579993009567,
        -0.6555296778678894,
        -0.24677926301956177,
        -0.09300949424505234,
        -0.1516791135072708,
        -0.23100560903549194,
        0.13554558157920837,
        -0.15956006944179535,
        0.05332968384027481,
        -0.3543906509876251,
        -0.05263537913560867,
        -0.0375213585793972,
        -0.23645833134651184,
        0.34875017404556274,
        -0.1134154424071312,
        -0.3127155601978302,
        -0.0012912747915834188,
        -0.12741956114768982,
        0.08711618185043335,
        -0.1673334389925003,
        -0.1390937864780426,
        0.05591559410095215,
        0.003917763940989971,
        -0.22121590375900269,
        0.12962554395198822,
        -0.2887641489505768,
        0.15722009539604187,
        0.25631266832351685,
        -0.13483184576034546,
        -0.028461268171668053,
        -0.20801927149295807,
        0.044755712151527405,
        -0.04893060773611069,
        0.12335793673992157,
        -0.06144141033291817,
        0.16415390372276306,
        -0.1610473245382309,
        0.3715515732765198,
        0.10124185681343079,
        -0.20263099670410156,
        -0.19667665660381317,
        -0.35467028617858887,
        0.24160203337669373,
        0.02772161178290844,
        0.03401174023747444,
        -0.08810239285230637,
        0.07358206063508987,
        0.07784891128540039,
        0.12099303305149078,
        -0.3036302626132965,
        -0.09107349812984467,
        -0.15211021900177002,
        -0.19186730682849884,
        -0.08547603338956833,
        0.1543082296848297,
        0.01780148223042488,
        0.05690092593431473,
        -0.12159452587366104,
        -0.23480285704135895,
        0.03126898407936096,
        -0.38554826378822327,
        0.05292002484202385,
        -0.008618530817329884,
        0.06522376090288162,
        0.09999475628137589,
        0.15584082901477814,
        -0.03954938054084778,
        -0.5264162421226501,
        -0.4700290858745575,
        -0.5497040748596191,
        0.4852756857872009,
        0.09318803995847702,
        0.010463847778737545,
        0.10389557480812073,
        0.013423369266092777,
        0.16547687351703644,
        0.03952448070049286,
        0.02581503801047802,
        -0.34606075286865234,
        -0.2085808366537094,
        0.05885310471057892,
        0.0998154729604721,
        -0.3203756809234619,
        -0.04054069519042969,
        -0.08650261908769608,
        0.1767498254776001,
        -0.17313805222511292,
        -0.05644752457737923,
        0.279544860124588,
        0.10244981944561005,
        -0.22632254660129547,
        0.11054122447967529,
        0.18158674240112305,
        -0.16103704273700714,
        0.01958545669913292,
        0.18137221038341522,
        -0.47843053936958313,
        -0.10667407512664795,
        0.47184962034225464,
        -0.7334087491035461,
        0.3316470980644226,
        0.27725040912628174,
        0.08120397478342056,
        -0.22842243313789368,
        0.5088998675346375,
        -0.04330911859869957,
        0.2561627924442291,
        -0.31176257133483887,
        -0.4818667471408844,
        0.05276372656226158,
        0.029981736093759537,
        0.10800409317016602,
        -0.3421194851398468,
        -0.41792264580726624,
        -0.23589463531970978,
        -0.11328431963920593,
        0.30109912157058716,
        0.17536993324756622,
        0.20975303649902344,
        0.11781592667102814,
        0.41696852445602417,
        0.2920858860015869,
        -0.10552804172039032,
        -0.12196999043226242,
        -0.448533833026886,
        -0.4955817461013794,
        -0.19624726474285126,
        -0.05203055962920189,
        0.07399233430624008,
        -0.013867838308215141,
        0.31446734070777893,
        0.1503008008003235,
        0.201602965593338,
        0.43883833289146423,
        0.2575957477092743,
        -0.3535248041152954,
        -0.2511097490787506,
        0.23105354607105255,
        -0.30746835470199585,
        -0.06632690876722336,
        0.22181887924671173,
        -0.10675791651010513,
        0.07234522700309753,
        0.2575148046016693,
        -0.25461646914482117,
        0.15300384163856506,
        -0.12956742942333221,
        0.6731014847755432,
        0.5202581882476807,
        0.06635002791881561,
        0.2785095274448395,
        -0.24180813133716583,
        -0.3832016587257385,
        -0.7534933090209961,
        -0.20405909419059753,
        0.026393486186861992,
        0.515531063079834,
        0.4942600727081299,
        0.7741284370422363,
        -0.25684991478919983,
        -0.024385731667280197,
        0.5647286772727966,
        0.13992156088352203,
        0.4371033012866974,
        -0.1240244209766388,
        -0.32323697209358215,
        -0.4226084053516388,
        0.11976923793554306,
        0.05338883027434349,
        0.04991442710161209,
        0.18831221759319305,
        0.14000211656093597,
        0.0388343408703804,
        -0.3786441683769226,
        0.12233332544565201,
        -0.001238458207808435,
        -0.1972578912973404,
        0.22583183646202087,
        -0.04175757244229317,
        0.2493223249912262,
        -0.29874998331069946,
        -0.06849456578493118,
        -0.14838474988937378,
        -0.08633492887020111,
        -0.008620666339993477,
        -0.10506464540958405,
        0.18986302614212036,
        -0.21641623973846436,
        -0.03969094157218933,
        0.3583783507347107,
        0.017187193036079407,
        0.20151233673095703,
        0.2178983837366104,
        -0.036557648330926895,
        0.20198175311088562,
        -0.02944629266858101,
        0.011058500036597252,
        0.20302659273147583,
        -0.10825345665216446,
        0.23151041567325592,
        0.059340596199035645,
        -0.08101749420166016,
        -0.10117177665233612,
        -0.06309016793966293,
        0.3195314109325409,
        0.2791230380535126,
        0.1461155116558075,
        0.06056968495249748,
        -0.15628592669963837,
        0.055042777210474014,
        -0.16221459209918976,
        0.41845667362213135,
        0.48528239130973816,
        0.07632846385240555,
        0.13215723633766174,
        -0.1702835112810135,
        0.1996925175189972,
        0.33491575717926025,
        -0.27276915311813354,
        0.10578665137290955,
        0.10071371495723724,
        -0.4784782826900482,
        0.019052233546972275,
        0.21053607761859894,
        -0.4326312243938446,
        0.1974770873785019,
        0.2679029405117035,
        0.12156186997890472,
        -0.014115703292191029,
        -0.011336191557347775,
        -0.07335206121206284,
        0.2309359461069107,
        0.3330897390842438,
        -0.05503838509321213,
        -0.15740281343460083,
        -0.20110227167606354,
        -0.17065919935703278,
        0.1427188515663147,
        0.18278303742408752,
        0.3602474331855774,
        0.1731327772140503,
        -0.029910147190093994,
        0.421563059091568,
        0.1763077676296234,
        -0.35122331976890564,
        0.19245585799217224,
        -0.10947880893945694,
        0.3997788727283478,
        0.001956166699528694,
        -0.2198888212442398,
        -0.060848455876111984,
        0.18216264247894287,
        0.24444076418876648,
        -0.17972232401371002,
        -0.0206084456294775,
        -0.3005903661251068,
        0.284734845161438,
        0.16181930899620056,
        0.3283239006996155,
        -0.18527866899967194,
        -0.3581010401248932,
        0.12157347798347473,
        0.20705467462539673,
        0.13689087331295013,
        0.11635828018188477,
        -0.3559170067310333,
        0.28419703245162964,
        0.05675913766026497,
        -0.04414602369070053,
        -0.03258243203163147,
        -0.18218939006328583,
        0.1053491160273552,
        -0.14399440586566925,
        -0.22863438725471497,
        0.2174416035413742,
        -0.023453999310731888,
        0.4720136523246765,
        -0.22434325516223907,
        -0.11842809617519379,
        -0.2244800478219986,
        0.06036630645394325,
        -0.1022743359208107,
        0.014271515421569347,
        -0.2146395444869995,
        0.0283527709543705,
        -0.001308169332332909,
        0.01887792907655239,
        0.1310601383447647,
        -0.14707361161708832,
        -0.30911847949028015,
        0.2730827331542969,
        -0.08772554993629456,
        -0.34213319420814514,
        0.22754663228988647,
        0.23001907765865326,
        -0.20133958756923676,
        -0.27254363894462585,
        0.2574584186077118,
        0.4474474787712097,
        0.11090907454490662,
        -0.05349233001470566,
        -0.5797898173332214,
        -0.34249648451805115,
        0.11617551743984222,
        0.4625129997730255,
        0.040821075439453125,
        -0.12465328723192215,
        0.012582123279571533,
        -0.216708242893219,
        0.0812401995062828,
        0.23870961368083954,
        0.33286458253860474,
        0.3022775948047638,
        -0.38615602254867554,
        0.1900182068347931,
        0.2817946970462799,
        -0.31422021985054016,
        0.1762797087430954,
        -0.5127124786376953,
        -0.1512870341539383,
        -0.1936204731464386,
        0.051151808351278305,
        0.05440247431397438,
        -0.08001311868429184,
        -0.23808765411376953,
        -0.13079833984375,
        -0.1949428766965866,
        0.07287125289440155,
        -0.06021078675985336,
        -0.20685669779777527,
        0.20411792397499084,
        -0.1562175750732422,
        -0.21839064359664917,
        0.3226298987865448,
        -0.25934240221977234,
        -0.055844444781541824,
        0.06962721794843674,
        -0.011361432261765003,
        0.1779647022485733,
        0.1066298559308052,
        0.2348664253950119,
        0.14267580211162567,
        -0.16586387157440186,
        0.26875653862953186,
        0.01328551396727562,
        0.06936768442392349,
        0.008916473016142845,
        -0.0038897660560905933,
        0.12997335195541382,
        -0.3412180542945862,
        -0.2876439690589905,
        0.09630993753671646,
        0.11760609596967697,
        -0.19141840934753418,
        -0.0500984713435173,
        0.06918472796678543,
        -0.38755398988723755,
        0.27724918723106384,
        0.11886950582265854,
        -0.0007493342272937298,
        0.16514275968074799,
        -0.10659811645746231,
        0.07638542354106903,
        0.3010096848011017,
        -0.22649826109409332,
        0.11437569558620453,
        -0.8451334238052368,
        0.08774732798337936,
        -0.16701523959636688,
        0.07239478826522827,
        -0.028899559751152992,
        -0.1866525262594223,
        0.3481237292289734,
        0.11445914953947067,
        0.1770780235528946,
        0.081851527094841,
        -0.725927472114563,
        0.4346134066581726,
        -0.14984142780303955,
        -0.3713282644748688,
        0.332604318857193,
        0.4252268671989441,
        -0.6463823318481445,
        -0.013836173340678215,
        0.29239973425865173,
        0.2112925499677658,
        0.3259517252445221,
        -0.18490363657474518,
        -0.48732852935791016,
        0.10309100896120071,
        -0.09865275025367737,
        0.018020978197455406,
        -0.4671001732349396,
        0.10155046731233597,
        0.03541814163327217,
        -0.6135764718055725,
        0.044822510331869125,
        0.46250399947166443,
        0.30114784836769104,
        -0.1708216518163681,
        0.11260015517473221,
        -0.24211391806602478,
        0.07399876415729523,
        -0.3677549958229065,
        -0.3149528503417969,
        -0.3003404438495636,
        0.1297542005777359,
        -0.21056200563907623,
        0.27892059087753296,
        -0.3186887800693512,
        0.41798415780067444,
        0.13782499730587006,
        0.16275012493133545,
        0.3794105350971222,
        0.2929910719394684,
        0.13134965300559998,
        -0.0004885403322987258,
        -0.13951769471168518,
        -0.26590853929519653,
        -0.1866847425699234,
        -0.13375741243362427,
        0.2285016030073166,
        -0.09355222433805466,
        -0.49822065234184265,
        0.03242604434490204,
        -0.7429260611534119,
        -0.2187802791595459,
        -0.17024452984333038,
        0.2573810815811157,
        -0.17031970620155334,
        0.25909462571144104,
        -0.32658663392066956,
        -0.40830934047698975,
        0.27967363595962524,
        -0.5497012734413147,
        -0.3155663013458252,
        0.22117017209529877,
        -0.17444199323654175,
        -0.37605780363082886,
        -0.5721998810768127,
        0.1459244191646576,
        0.30980929732322693,
        -0.27951350808143616,
        -0.4230540096759796,
        -0.034929703921079636,
        0.035418733954429626,
        0.09683459997177124,
        0.4992714524269104,
        0.07806763052940369,
        -0.18992780148983002,
        -0.2105182409286499,
        -0.07261710613965988,
        -0.5471362471580505,
        -0.1942712962627411,
        -0.20111636817455292,
        -0.579376757144928,
        0.5235260128974915,
        0.04140980541706085,
        -0.5225635170936584,
        0.2656395435333252,
        0.4627983868122101,
        -0.026501495391130447,
        0.22403205931186676,
        0.0654912143945694,
        0.032833702862262726,
        -0.3924124240875244,
        0.4502141773700714,
        -0.5952390432357788,
        0.0734947994351387,
        0.056534186005592346,
        -0.2843906581401825,
        -0.3557206392288208,
        0.29716038703918457,
        -0.00637908186763525,
        -0.16969513893127441,
        -0.3570157587528229,
        0.4182354509830475,
        -0.012336216866970062,
        0.29472148418426514,
        0.16424334049224854,
        -0.31260865926742554,
        -0.2124812752008438,
        0.4890393018722534,
        0.12978026270866394,
        0.2876308262348175,
        0.09976191818714142,
        -0.2632580101490021,
        -0.141662135720253,
        0.05052350461483002,
        0.06164106726646423,
        0.17224670946598053,
        0.020975524559617043,
        -0.09432673454284668,
        -0.3029962182044983,
        0.0415366031229496,
        0.189894437789917,
        -0.053863245993852615,
        -0.11253903061151505,
        -0.13915479183197021,
        0.1529691517353058,
        -0.17790591716766357,
        -0.1784561574459076,
        0.011839130893349648,
        -0.2331354171037674,
        0.16579747200012207,
        0.22854812443256378,
        -0.22051236033439636,
        -0.28809869289398193,
        -0.09557992219924927,
        -0.06111535802483559,
        0.17245174944400787,
        -0.0025238245725631714,
        -0.2987261414527893,
        -0.2561006247997284,
        -0.5703229308128357,
        0.035670701414346695,
        0.14138926565647125,
        -0.1054491177201271,
        -0.10267337411642075,
        -0.14027942717075348,
        -0.008572806604206562,
        0.2041935920715332,
        0.02002873457968235,
        -0.15143440663814545,
        0.305173397064209,
        0.012344621121883392,
        0.011915517039597034,
        -0.0670928880572319,
        0.1169653981924057,
        0.2878792881965637,
        -0.14966319501399994,
        -0.19942447543144226,
        -0.29179152846336365,
        -0.17809808254241943,
        -0.11331535130739212,
        -0.017879806458950043,
        -0.06603915989398956,
        -0.09486161172389984,
        0.17053203284740448,
        -0.33608296513557434,
        0.07667023688554764,
        -0.2289711833000183,
        -0.01565454714000225,
        -0.12743447721004486,
        0.07985060662031174,
        0.19254562258720398,
        -0.22881418466567993,
        -0.07683523744344711,
        0.041048143059015274,
        -0.16881081461906433,
        -0.2099227011203766,
        0.20002712309360504,
        -0.33329206705093384,
        0.04315820336341858,
        0.02554398961365223,
        -0.7479432821273804,
        -0.37554657459259033,
        0.04306089133024216,
        0.20756782591342926,
        0.3651581406593323,
        -0.10673805326223373,
        0.7747997045516968,
        0.3173374831676483,
        0.17221617698669434,
        0.183190256357193,
        0.14366552233695984,
        0.326669305562973,
        0.13351786136627197,
        -0.3783542215824127,
        0.192172110080719,
        0.20755347609519958,
        0.023825373500585556,
        0.09050512313842773,
        -0.16558454930782318,
        -0.20156565308570862,
        -0.15877197682857513,
        0.29858654737472534,
        -0.06896912306547165,
        -0.13889406621456146,
        -0.08457990735769272,
        0.008249384351074696,
        -0.11480310559272766,
        0.23178672790527344,
        0.1718306988477707,
        -0.0804629996418953,
        -0.30941712856292725,
        -0.08736421912908554,
        0.6539608240127563,
        0.020095614716410637,
        0.06104302778840065,
        0.15938901901245117,
        -0.1805131882429123,
        -0.040183354169130325,
        0.40220534801483154,
        0.08357400447130203,
        0.1678529530763626,
        0.2648043632507324,
        0.2205251008272171,
        0.1449894905090332,
        0.3206467926502228,
        0.033140696585178375,
        -0.40077778697013855,
        0.07599163800477982,
        0.10072964429855347,
        0.15368829667568207,
        -0.11332175880670547,
        0.18159860372543335,
        -0.0621643103659153,
        -0.0633285641670227,
        -0.5642563104629517,
        -0.9584962725639343,
        0.33407506346702576,
        0.016231719404459,
        -0.17189766466617584,
        -0.09478946030139923,
        -0.020995771512389183,
        -0.05651067569851875,
        -0.17235583066940308,
        0.020985418930649757,
        0.7346070408821106,
        -0.18022479116916656,
        0.12745562195777893,
        0.1464844048023224,
        -0.21977922320365906,
        0.19406037032604218,
        0.14598111808300018,
        -0.10424710065126419,
        -0.1294766515493393,
        0.2674553096294403,
        0.06382744014263153,
        0.06978479772806168,
        0.19417032599449158,
        -0.16569939255714417,
        -0.026958420872688293,
        -0.020589180290699005,
        0.10706692188978195,
        0.009891042485833168,
        0.010246521793305874,
        0.1090528666973114,
        -0.26921865344047546,
        -0.07675475627183914,
        0.18833358585834503,
        0.02542164735496044,
        -0.10960374027490616,
        -0.2286403626203537,
        -0.31590503454208374,
        0.0764344185590744,
        0.096857450902462,
        0.010229477658867836,
        0.11745426803827286,
        0.01943160407245159,
        -0.15584291517734528,
        -0.33088332414627075,
        0.05818798393011093,
        0.01738799922168255,
        -0.065521240234375,
        0.377998411655426,
        -0.8464878797531128,
        -0.4300033152103424,
        -0.2437894195318222,
        -0.6305129528045654,
        0.1778881996870041,
        -0.055936723947525024,
        -0.35135024785995483,
        0.19350214302539825,
        -0.23940560221672058,
        -0.026366055011749268,
        0.3894602656364441,
        0.23001453280448914,
        0.44429051876068115,
        0.17255696654319763,
        0.559313952922821,
        -0.11425989866256714,
        -0.15113699436187744,
        0.5370175242424011,
        -0.1667838841676712,
        -0.07728561758995056,
        0.18351927399635315,
        -0.039877474308013916,
        0.21641607582569122,
        0.32147684693336487,
        0.45803189277648926,
        -0.2649418115615845,
        0.18611207604408264,
        -0.24853046238422394,
        -0.053239330649375916,
        -0.04387541487812996,
        0.07595295459032059,
        0.08137097209692001,
        0.4939086139202118,
        -0.3277999758720398,
        0.48969998955726624,
        0.04142108932137489,
        0.06561096012592316,
        0.17423395812511444,
        0.2075488269329071,
        -0.15710626542568207,
        0.3316989541053772,
        -0.1533898115158081,
        0.24714308977127075,
        -0.5463423728942871,
        -0.1831769347190857,
        -0.16792437434196472,
        0.21458125114440918,
        -0.12226054072380066,
        0.34657353162765503,
        -0.42249175906181335,
        -0.16467350721359253,
        0.3717775344848633,
        -0.4389948546886444,
        -0.13022881746292114,
        -0.5408915877342224,
        0.5730834007263184,
        0.10870411247015,
        0.3316781520843506,
        -0.061199188232421875,
        -0.2212516963481903,
        0.41037124395370483,
        -0.012675325386226177,
        0.281058669090271,
        0.32721272110939026,
        0.5386015772819519,
        0.14799541234970093,
        -0.48330193758010864,
        -0.14357005059719086,
        -0.3515019416809082,
        0.3636232912540436,
        -0.12130267173051834,
        0.46910926699638367,
        -0.1010139063000679,
        -0.20292781293392181,
        0.08310970664024353,
        0.02221444621682167,
        -0.2598060071468353,
        0.28168830275535583,
        -0.22615990042686462,
        0.39818426966667175,
        -0.1873900592327118,
        0.057765327394008636,
        -0.15445436537265778,
        0.15530183911323547,
        0.07087119668722153,
        -0.08668014407157898,
        -0.2819269299507141,
        -0.03431517630815506,
        -0.21091346442699432,
        -0.3522714078426361,
        0.12420725077390671,
        -0.1556522697210312,
        -0.6725339889526367,
        -0.11202973872423172,
        -0.5570380687713623,
        -0.451224684715271,
        0.1825266033411026,
        -0.1725877821445465,
        0.08282686024904251,
        -0.6050334572792053,
        -0.4575009346008301,
        -0.308417946100235,
        -0.102897047996521,
        -0.002070910297334194,
        -0.0989658385515213,
        -0.4018987715244293,
        -0.06865513324737549,
        -0.0066239191219210625,
        -0.21681183576583862,
        -0.14395850896835327,
        -0.01524611096829176,
        -0.006692488677799702,
        -0.012864690274000168,
        -0.10864542424678802,
        -0.11908981204032898,
        -0.20998427271842957,
        -0.28094205260276794,
        0.20445968210697174,
        0.06862688064575195,
        0.04885036498308182,
        -0.29131919145584106,
        -0.07190614193677902,
        -0.1407364010810852,
        0.07289858162403107,
        -0.16018645465373993,
        -0.4903579652309418,
        -0.025551779195666313,
        0.02493782341480255,
        -0.15194888412952423,
        -0.3141735792160034,
        0.23697666823863983,
        0.11617282778024673,
        0.06625043600797653,
        -0.06495451182126999,
        -0.22104741632938385,
        0.3307151794433594,
        -0.1409137099981308,
        -0.2556968331336975,
        0.022437211126089096,
        -0.3400455415248871,
        -0.5083615779876709,
        0.33934593200683594,
        -0.19879150390625,
        0.0632045567035675,
        0.05749298632144928,
        -0.10850604623556137,
        0.08790016174316406,
        -0.08635342121124268,
        0.11430643498897552,
        -0.24292732775211334,
        0.022188980132341385,
        0.3424614369869232,
        0.38177552819252014,
        -0.26358500123023987,
        -0.13564588129520416,
        0.028638169169425964,
        0.2703220248222351,
        -0.0674418956041336,
        -0.02193557471036911,
        -0.18254733085632324,
        -0.08402339369058609,
        0.06267045438289642,
        -0.05123903229832649,
        -0.12814390659332275,
        -0.04712679237127304,
        -0.34059789776802063,
        -0.20105122029781342,
        -0.2700625956058502,
        -0.21575580537319183,
        -0.027815870940685272,
        -0.11963039636611938,
        0.6353418827056885,
        -0.3363727629184723,
        -0.3607821464538574,
        -0.12181905657052994,
        0.1874854415655136,
        0.24519264698028564,
        -0.3332473933696747,
        0.19051045179367065,
        0.023883860558271408,
        0.3333328366279602,
        0.1266266107559204,
        0.022289376705884933,
        -0.622978150844574,
        -0.27489805221557617,
        -0.10493370145559311,
        -0.0377996452152729,
        0.13098397850990295,
        0.03212692216038704,
        -0.5280946493148804,
        -0.333181768655777,
        -0.13635192811489105,
        0.17012371122837067,
        -0.2202380895614624,
        -0.19750404357910156,
        0.464465856552124,
        -0.031163446605205536,
        -0.2207971215248108,
        0.06637188792228699,
        -0.32122212648391724,
        0.14665716886520386,
        0.03791650012135506,
        0.049352098256349564,
        -0.002766159363090992,
        0.11416374146938324,
        0.021122662350535393,
        0.3385833203792572,
        -0.17366886138916016,
        -0.02536572888493538,
        0.2636684477329254,
        -0.008214580826461315,
        0.17791886627674103,
        0.5633192658424377,
        0.2562310993671417,
        0.5450605750083923,
        0.06196799501776695,
        0.1543394923210144,
        0.17150944471359253,
        -0.4473704695701599,
        -0.02323547936975956,
        0.2972203493118286,
        -0.5853554010391235,
        0.5112321376800537,
        0.2037721425294876,
        0.26067233085632324,
        -0.19286657869815826,
        0.1138940081000328,
        -5.0022840696328785e-06,
        -0.20819951593875885,
        -0.004499531351029873,
        -0.16537947952747345,
        0.1950177401304245,
        -0.19737759232521057,
        -0.609245240688324,
        -0.2693026661872864,
        0.027561761438846588,
        -0.4769462049007416,
        0.08662667125463486,
        -0.13848291337490082,
        0.13685855269432068,
        0.7023670077323914,
        -0.09157180041074753,
        -0.2916432321071625,
        -0.08875758945941925,
        0.17771966755390167,
        -0.18761934340000153,
        0.7866339683532715,
        -0.07743319123983383,
        -0.11879480630159378,
        0.11973605304956436,
        -0.07288608700037003,
        -0.13431665301322937,
        -0.26760026812553406,
        -0.17459869384765625,
        0.2974376082420349,
        0.3215652108192444,
        -0.031508393585681915,
        -0.12780363857746124,
        -0.08805325627326965,
        -0.09570275247097015,
        0.2328615039587021,
        0.23025652766227722,
        0.33524203300476074,
        0.23859961330890656,
        0.02964886836707592,
        0.055292654782533646,
        -0.051850154995918274,
        -0.6145081520080566,
        -0.19070228934288025,
        -0.28314244747161865,
        -0.184898242354393,
        0.03389754146337509,
        0.14385026693344116,
        -0.05464676022529602,
        0.08547279238700867,
        -0.039608586579561234,
        -0.05500238016247749,
        -0.06120419129729271,
        0.07424654811620712,
        -0.28787103295326233,
        -0.8344301581382751,
        -1.0059192180633545,
        -0.2494703233242035,
        -0.2892070710659027,
        -0.10832862555980682,
        -0.9310862421989441,
        -0.28756237030029297,
        0.1025838702917099,
        0.4005550444126129,
        -0.535699188709259,
        -0.3793160319328308,
        -0.16141265630722046,
        -0.4067811965942383,
        0.19668635725975037,
        0.21847891807556152,
        0.16149769723415375,
        0.10095913708209991,
        0.3896816074848175,
        0.19095516204833984,
        0.22107864916324615,
        0.1535748690366745,
        0.23820844292640686,
        0.167754128575325,
        -0.1224190816283226,
        0.04157907888293266,
        -0.25967687368392944,
        -0.9564018845558167,
        0.21998530626296997,
        0.49268510937690735,
        0.5231310129165649,
        0.14881452918052673,
        0.6805777549743652,
        -0.5015111565589905,
        -0.11459766328334808,
        -0.3566768765449524,
        0.30011776089668274,
        -0.3718380033969879,
        0.26571765542030334,
        0.061027221381664276,
        -0.007941230200231075,
        -0.3785586655139923,
        -0.17804981768131256,
        0.03429357334971428,
        -0.4323773980140686,
        -0.1788862943649292,
        0.2043212205171585,
        0.42705559730529785,
        -0.037669066339731216,
        0.16899040341377258,
        -0.04152514040470123,
        -0.31873124837875366,
        -0.48308634757995605,
        0.12485310435295105,
        -0.7474029064178467,
        0.2453286051750183,
        -0.5713306069374084,
        -0.030812134966254234,
        -0.5627048015594482,
        0.7746842503547668,
        0.6816948056221008,
        0.23220744729042053,
        0.0881090983748436,
        0.14371152222156525,
        -0.0670471265912056,
        -0.11844464391469955,
        -0.09341099113225937,
        -0.12771035730838776,
        0.3238047659397125,
        -0.36227208375930786,
        -0.4996029734611511,
        -0.15857958793640137,
        -0.2751801908016205,
        0.3048843443393707,
        -0.007443585898727179,
        -0.22299617528915405,
        0.022567911073565483,
        -0.3521502614021301,
        -0.17608128488063812,
        0.14879818260669708,
        -0.33867645263671875,
        -0.028702188283205032,
        0.11423210799694061,
        0.29625019431114197,
        0.2208009660243988,
        -0.45014506578445435,
        0.05047234520316124,
        -0.20729371905326843,
        -0.05054984614253044,
        0.415396511554718,
        -0.02058776281774044,
        0.019094597548246384,
        -0.09067749977111816,
        0.24441145360469818,
        -0.01293743122369051,
        -0.07132415473461151,
        -0.12440108507871628,
        -0.058801520615816116,
        0.15011022984981537,
        -0.06266336888074875,
        -0.1952369511127472,
        0.10201840847730637,
        0.29353660345077515,
        -0.20919755101203918,
        0.08706734329462051,
        -0.10822837054729462,
        0.3034622073173523,
        -0.0686282217502594,
        -0.24520285427570343,
        0.14669106900691986,
        0.13639673590660095,
        0.12013009190559387,
        0.215338334441185,
        -0.008369402959942818,
        0.10082132369279861,
        0.20169372856616974,
        0.11896514892578125,
        -0.10256899893283844,
        -0.003900890238583088,
        -0.19492079317569733,
        0.23687516152858734,
        -0.47195419669151306,
        0.006108954548835754,
        0.22074446082115173,
        0.20456437766551971,
        0.04680531844496727,
        -0.03946053981781006,
        -0.11219752579927444,
        0.10917588323354721,
        -0.12168910354375839,
        0.30632251501083374,
        0.1064256876707077,
        0.1339389532804489,
        0.33512455224990845,
        0.09271509200334549,
        0.14354604482650757,
        0.13694526255130768,
        0.3752289414405823,
        -0.11525898426771164,
        0.24266912043094635,
        -0.34512457251548767,
        -0.4513261616230011,
        0.18874096870422363,
        0.3236813247203827,
        0.14461512863636017,
        -0.033310603350400925,
        0.25905323028564453,
        -0.1180136650800705,
        0.2002216875553131,
        -0.5168202519416809,
        -0.3616587817668915,
        0.1994045525789261,
        -0.1606334000825882,
        0.31926149129867554,
        -0.21518008410930634,
        -0.15468628704547882,
        0.15530933439731598,
        0.006579551380127668,
        -0.02192680910229683,
        0.5705576539039612,
        -0.12854214012622833,
        -0.09398837387561798,
        -0.6316211819648743,
        -0.34802114963531494,
        -0.3018970489501953,
        0.6038817763328552,
        -0.23331202566623688,
        0.5513415932655334,
        -0.08916957676410675,
        -0.17464704811573029,
        -0.009370903484523296,
        -0.16655074059963226,
        0.931053102016449,
        0.08148147910833359,
        -0.2100803703069687,
        0.10037747025489807,
        -0.057971443980932236,
        -0.02227112650871277,
        0.032923076301813126,
        -0.2850690186023712,
        -0.31569015979766846,
        0.17526863515377045,
        -0.012108287774026394,
        -0.2304477095603943,
        0.23310419917106628,
        -0.07470277696847916,
        -0.3530309796333313,
        0.04049598053097725,
        0.20901186764240265,
        -0.10681980103254318,
        0.08834891766309738,
        0.1649608314037323,
        0.21679818630218506,
        -0.05894337221980095,
        -0.033716097474098206,
        -0.16893061995506287,
        -0.08726491034030914,
        0.22982460260391235,
        -0.021535184234380722,
        0.39716455340385437,
        -0.02991555631160736,
        0.15021438896656036,
        -0.23715390264987946,
        0.027549834921956062,
        0.2738483250141144,
        0.17727972567081451,
        -0.1206243485212326,
        0.01685337722301483,
        0.2319006770849228,
        -0.08353224396705627,
        -0.20010875165462494,
        -0.24242061376571655,
        -0.23503053188323975,
        -0.36237701773643494,
        0.07599616795778275,
        -0.2039196491241455,
        -0.20954392850399017,
        0.2673758864402771,
        -0.13676318526268005,
        -0.230295792222023,
        0.004676832351833582,
        -0.5981967449188232,
        -0.6450570821762085,
        -0.011724193580448627,
        -0.1513403058052063,
        -0.10066600888967514,
        0.38792645931243896,
        -0.3164752423763275,
        -0.15430660545825958,
        -0.3528457581996918,
        0.04311594367027283,
        0.18164817988872528,
        0.16718842089176178,
        -0.07895172387361526,
        -0.4352889358997345,
        -0.5393179059028625,
        0.029566720128059387,
        -0.2036164253950119,
        -0.004161419812589884,
        0.22875885665416718,
        0.19980621337890625,
        -0.24960988759994507,
        -0.001099996268749237,
        -0.22008801996707916,
        0.731203556060791,
        0.15278524160385132,
        -0.00011381933290977031,
        -0.012052224017679691,
        0.16406163573265076,
        -0.13327765464782715,
        0.16814923286437988,
        0.07062652707099915,
        -0.011278001591563225,
        0.37123551964759827,
        0.11969427764415741,
        -0.12667617201805115,
        -0.03302504122257233,
        0.011215870268642902,
        -0.06842756271362305,
        -0.32310590147972107,
        -0.1195552721619606,
        0.003990831784904003,
        -0.19103719294071198,
        -0.3324483633041382,
        -0.6380625367164612,
        -0.39901605248451233,
        -0.046852823346853256,
        0.10831431299448013,
        -0.3160010874271393,
        -0.5153431296348572,
        0.05391357094049454,
        -0.13968819379806519,
        0.3968566954135895,
        -0.20238973200321198,
        -0.3674139380455017,
        -0.08421221375465393,
        0.2342626452445984,
        -0.13088250160217285,
        0.1147107407450676,
        0.0029656116385012865,
        -0.5806452631950378,
        -0.5227681994438171,
        0.4269247055053711,
        0.5469494462013245,
        0.4655519127845764,
        0.38738468289375305,
        -1.0737254619598389,
        -0.22721369564533234,
        0.22356708347797394,
        -0.04974441975355148,
        0.142587810754776,
        -0.3879293203353882,
        0.6283262968063354,
        0.4931037724018097,
        -0.16808362305164337,
        -0.30679646134376526,
        -0.12323588877916336,
        -0.23440155386924744,
        0.04796364903450012,
        0.17645595967769623,
        -0.5589151382446289,
        0.34451377391815186,
        0.24003903567790985,
        -0.4511341452598572,
        0.3979659378528595,
        -0.09007585048675537,
        -0.1252952367067337,
        0.107108935713768,
        0.10781131684780121,
        0.010730979032814503,
        0.06668262183666229,
        0.16961495578289032,
        0.029989397153258324,
        -0.3921462297439575,
        -0.2754858732223511,
        0.1445155143737793,
        -0.39159002900123596,
        0.03791331127285957,
        -0.14669127762317657,
        0.24972476065158844,
        -0.02502831071615219,
        -0.030253974720835686,
        -0.5922407507896423,
        -0.5043197274208069,
        -0.1845279186964035,
        -0.019718991592526436,
        0.09793848544359207,
        0.0948898121714592,
        0.12990303337574005,
        0.2776047885417938,
        -0.4200248420238495,
        -0.24445165693759918,
        -0.3360585868358612,
        -0.3583102524280548,
        -0.3554939925670624,
        -0.3127105236053467,
        -0.1333787590265274,
        -0.0653839111328125,
        0.03915654495358467,
        0.567629873752594,
        -0.12452542781829834,
        -0.5278370380401611,
        -0.1270814687013626,
        0.2089451551437378,
        0.32435956597328186,
        0.025080377236008644,
        -0.30243992805480957,
        -0.18086549639701843,
        0.23691439628601074,
        -0.3285718858242035,
        -0.1848633587360382,
        0.0019820735324174166,
        0.4358396828174591,
        0.08010859042406082,
        -0.2703656256198883,
        -0.0551009476184845,
        -0.32904601097106934,
        -0.2008502185344696,
        -0.23456647992134094,
        -0.23152540624141693,
        -0.33437642455101013,
        -0.219194695353508,
        -0.4601045548915863,
        0.23330281674861908,
        0.24144914746284485,
        -0.24400568008422852,
        -0.013930178247392178,
        0.021693941205739975,
        0.17928536236286163,
        0.2972868084907532,
        -0.16067631542682648,
        0.04785582423210144,
        -0.2210201472043991,
        -0.2228185534477234,
        0.12866823375225067,
        0.2119378298521042,
        0.1537361443042755,
        -0.06383521109819412,
        0.05816646292805672,
        -0.04438837245106697,
        0.18054114282131195,
        0.3506450951099396,
        -0.3550531566143036,
        -0.04143596813082695,
        0.2024344801902771,
        -0.050302863121032715,
        -0.08638697862625122,
        0.009438187815248966,
        -0.015933534130454063,
        0.04479045793414116,
        -0.14130783081054688,
        0.14654266834259033,
        0.09523803740739822,
        0.14630307257175446,
        0.07516201585531235,
        0.07969176769256592,
        0.16513486206531525,
        -0.0773170217871666,
        0.041227787733078,
        0.03845370560884476,
        -0.16041803359985352,
        0.22078078985214233,
        -0.014899233356118202,
        0.06622788310050964,
        0.232809916138649,
        -0.0047296760603785515,
        0.14034029841423035,
        0.132673978805542,
        0.008335038088262081,
        0.217854306101799,
        -0.2090289294719696,
        -0.06916487962007523,
        -0.08723567426204681,
        -0.25465700030326843,
        0.007201561238616705,
        -0.2932099997997284,
        0.02099250815808773,
        -0.039634473621845245,
        0.11262241750955582,
        -0.18278808891773224,
        -0.2306588590145111,
        0.19138382375240326,
        -0.21474698185920715,
        0.06982352584600449,
        -0.15966801345348358,
        0.1789463609457016,
        -0.1437842845916748,
        -0.23318228125572205,
        -0.2728077173233032,
        -0.06985371559858322,
        0.09278561174869537,
        0.17681990563869476,
        -0.14817926287651062,
        0.07436450570821762,
        0.006044655106961727,
        0.2814038395881653,
        0.4549267590045929,
        0.33944427967071533,
        0.4784298539161682,
        0.004006275441497564,
        -0.06502795964479446,
        -0.07894725352525711,
        -0.3507152199745178,
        -0.12036873400211334,
        0.16888386011123657,
        -0.18454161286354065,
        -0.09352235496044159,
        -0.5390812754631042,
        -0.45091792941093445,
        0.49852874875068665,
        -0.8114320635795593,
        -0.7410913705825806,
        -0.24066272377967834,
        0.4319389760494232,
        0.5196020603179932,
        0.1552664190530777,
        -0.17177121341228485,
        0.2513832747936249,
        -0.34640517830848694,
        0.057045239955186844,
        -0.4269750416278839,
        0.031888198107481,
        -0.11679448932409286,
        0.1810535490512848,
        -0.49227383732795715,
        0.5456613898277283,
        0.035899676382541656,
        0.16701960563659668,
        0.5193629264831543,
        0.29780662059783936,
        0.012559067457914352,
        -0.37485596537590027,
        -0.23098188638687134,
        -0.06615129113197327,
        0.15316271781921387,
        -0.06353159248828888,
        -0.09126292169094086,
        -0.39316806197166443,
        0.18992508947849274,
        0.7542020678520203,
        0.4415440857410431,
        -0.23887498676776886,
        -0.45012930035591125,
        -0.0009336161310784519,
        0.4270048439502716,
        0.10525672882795334,
        -0.20852945744991302,
        0.009600440040230751,
        0.29713210463523865,
        0.14937502145767212,
        -0.3511011004447937,
        0.3068724572658539,
        -0.7714256048202515,
        0.3713299334049225,
        0.23339541256427765,
        -0.4588240683078766,
        0.11086918413639069,
        0.3581927418708801,
        0.080148845911026,
        -0.18979321420192719,
        0.11575965583324432,
        -0.10970321297645569,
        0.5343357920646667,
        -0.05073577165603638,
        -0.1782122105360031,
        0.5311868786811829,
        0.050120189785957336,
        -0.0521264523267746,
        -0.3036377727985382,
        -0.03195074200630188,
        -0.06941995024681091,
        -0.283696711063385,
        -0.028389057144522667,
        0.0008923429995775223,
        -0.02885061874985695,
        0.15204691886901855,
        0.00745028629899025,
        0.1777619570493698,
        -0.004927897825837135,
        0.47498759627342224,
        -0.04856639355421066,
        0.34403175115585327,
        -0.46996012330055237,
        0.38668251037597656,
        -0.26162484288215637,
        0.63442462682724,
        0.15112966299057007,
        -0.0504843071103096,
        0.1037396714091301,
        -0.19269543886184692,
        -0.05779556557536125,
        -0.027726760134100914,
        -0.3510866165161133,
        0.034099530428647995,
        -0.28759926557540894,
        0.011635426431894302,
        -0.19548660516738892,
        -0.04940143972635269,
        0.06758058071136475,
        0.09537164121866226,
        -0.18551459908485413,
        0.1601387858390808,
        0.02266232855618,
        0.3726848363876343,
        0.09732844680547714,
        0.07959479093551636,
        0.30429646372795105,
        -0.27781471610069275,
        0.010494895279407501,
        0.09462356567382812,
        -0.07535823434591293,
        -0.12527987360954285,
        0.4839557409286499,
        0.2546776831150055,
        -0.999778151512146,
        0.3415634036064148,
        -0.7025020122528076,
        -0.18978939950466156,
        -0.4158475399017334,
        0.323219895362854,
        -0.33588123321533203,
        0.10502336174249649,
        -0.8547954559326172,
        -0.0002494142681825906,
        0.5332536101341248,
        0.07294555753469467,
        -0.2351948767900467,
        0.348770409822464,
        0.46765175461769104,
        0.23135057091712952,
        -0.22191807627677917,
        -0.2982277572154999,
        0.15788809955120087,
        -0.0370534285902977,
        0.2922205924987793,
        -0.416972279548645,
        0.5539998412132263,
        0.09215005487203598,
        -0.08902658522129059,
        0.22015409171581268,
        -0.43812599778175354,
        -0.4882124066352844,
        -0.21891315281391144,
        -0.026159243658185005,
        0.10103971511125565,
        0.13814131915569305,
        0.5610195398330688,
        0.035097382962703705,
        -0.4539201557636261,
        -0.7078381776809692,
        -0.5135650634765625,
        -0.05836554989218712,
        0.2575254738330841,
        -0.35748982429504395,
        0.21336695551872253,
        0.3426021337509155,
        0.2621552050113678,
        0.12073104083538055,
        0.046220287680625916,
        -0.3642795979976654,
        -0.033446695655584335,
        -0.05743524059653282,
        0.14372031390666962,
        -0.017252547666430473,
        -0.052172139286994934,
        0.3468807637691498,
        0.03460534289479256,
        0.07840253412723541,
        0.8445462584495544,
        0.0392778106033802,
        0.13302409648895264,
        -1.0855470895767212,
        -0.015853939577937126,
        -0.38297975063323975,
        0.46088936924934387,
        0.00729703763499856,
        0.053374215960502625,
        -0.013713017106056213,
        0.0077867647632956505,
        -0.02718772180378437,
        1.3149532079696655,
        0.008413481526076794,
        0.002393248025327921,
        -0.48764726519584656,
        0.2670901417732239,
        -0.07137174159288406,
        -0.1186615377664566,
        0.1076679453253746,
        -0.197961688041687,
        0.7240861058235168,
        -0.011065901257097721,
        -0.380281925201416,
        -0.06166933849453926,
        -0.10708589851856232,
        -0.7133615612983704,
        0.1956893354654312,
        0.13119342923164368,
        0.21562936902046204,
        -0.39613571763038635,
        0.24014067649841309,
        0.03299148753285408,
        -0.043755482882261276,
        0.16308434307575226,
        0.5968175530433655,
        0.517608106136322,
        0.6721305847167969,
        -0.3303619623184204,
        -0.3801034390926361,
        0.09806381911039352,
        0.013836083933711052,
        -0.13886147737503052,
        0.34851524233818054,
        -0.2790752649307251,
        -0.4595857262611389,
        -0.14651410281658173,
        -0.22870926558971405,
        -0.22232778370380402,
        -0.4644935727119446,
        -1.436285376548767,
        -1.36671781539917,
        -0.8697158098220825,
        0.15918105840682983,
        0.546932578086853,
        0.20593518018722534,
        0.04597964510321617,
        0.06284759938716888,
        -0.08308055996894836,
        -0.033656686544418335,
        -0.3986995220184326,
        -0.22418341040611267,
        0.77317214012146,
        0.40388181805610657,
        0.6284024715423584,
        -0.14802409708499908,
        0.036434222012758255,
        0.007490179501473904,
        0.09004871547222137,
        -0.2978772819042206,
        -0.5519288182258606,
        -0.3080972135066986,
        -0.39000195264816284,
        -0.2121938318014145,
        0.22117163240909576,
        0.08086208254098892,
        0.17149190604686737,
        0.0182235948741436,
        0.07431245595216751,
        -0.05245031788945198,
        -0.11331818252801895,
        -0.18010379374027252,
        0.027546199038624763,
        -0.34162792563438416,
        -0.06283942610025406,
        -0.2799745798110962,
        -0.07269672304391861,
        0.301128625869751,
        -0.5029007792472839,
        -0.2774544358253479,
        0.1544823944568634,
        0.021006999537348747,
        0.17227579653263092,
        -0.032094694674015045,
        0.11587291955947876,
        0.15840893983840942,
        -0.3114390969276428,
        -0.36746883392333984,
        -0.45894667506217957,
        -0.0071326689794659615,
        -0.05390540137887001,
        -0.07542281597852707,
        -0.1608763039112091,
        -0.1011403501033783,
        -0.24309179186820984,
        -0.211701899766922,
        1.5297892093658447,
        0.6769818663597107,
        -0.6143710017204285,
        -0.6763163208961487,
        -0.15122665464878082,
        0.9515498876571655,
        0.18313682079315186,
        0.1975884586572647,
        0.40278568863868713,
        -0.6009096503257751,
        -0.16976673901081085,
        -0.13303226232528687,
        0.025678284466266632,
        -0.027801789343357086,
        0.3902275562286377,
        0.24585112929344177,
        -0.7091614007949829,
        -1.1138194799423218,
        -0.12260337918996811,
        0.32265180349349976,
        -0.7179543375968933,
        -0.3470515012741089,
        0.04632645845413208,
        0.05807311832904816,
        0.649421751499176,
        0.3971550464630127,
        0.26392635703086853,
        0.06560181826353073,
        -0.29290786385536194,
        -0.37911084294319153,
        -0.15735626220703125,
        -0.15526729822158813,
        -0.2379845380783081,
        -0.45138850808143616,
        0.04720405489206314,
        -0.33283933997154236,
        -0.03828559070825577,
        0.05240290239453316,
        0.7067859768867493,
        0.6257812976837158,
        -0.2802911400794983,
        -1.5865232944488525,
        -0.9885837435722351,
        0.6687588691711426,
        -0.9218700528144836,
        -0.9343169927597046,
        0.004898749757558107,
        -0.18891528248786926,
        0.7382041215896606,
        0.6320123076438904,
        0.18181276321411133,
        -0.6038227081298828,
        -0.3386509418487549,
        0.3319651186466217,
        0.780090868473053,
        0.16726204752922058,
        0.26738688349723816,
        0.6770517230033875,
        0.6909118890762329,
        0.3621438443660736,
        -0.4034044146537781,
        -0.5305226445198059,
        0.08207826316356659,
        -0.02033442072570324,
        0.04036981984972954,
        -0.09035559743642807,
        -1.1740280389785767,
        0.02786184288561344,
        0.3750878572463989,
        -0.22489075362682343,
        -0.05498063564300537,
        0.3144662082195282,
        0.21212108433246613,
        -0.538682758808136,
        0.7965273857116699,
        0.21018566191196442,
        -0.06873340159654617,
        -0.3092529773712158,
        0.29016420245170593,
        0.2450920045375824,
        -0.2543823719024658,
        1.0234147310256958,
        0.10457304865121841,
        -0.4219222366809845,
        -0.057435523718595505,
        -0.13167788088321686,
        -0.14085526764392853,
        0.16821476817131042,
        -0.3689340651035309,
        0.35837242007255554,
        -0.17896254360675812,
        0.32117295265197754,
        -0.21137985587120056,
        0.05515722930431366,
        -0.3838697075843811,
        0.6985721588134766,
        -0.23030678927898407,
        -0.1517835557460785,
        -0.3704597055912018,
        -0.4512369930744171,
        -0.3986949026584625,
        0.07688315957784653,
        0.020754078403115273,
        0.06869197636842728,
        -0.20121675729751587,
        0.15447580814361572,
        0.10720834136009216,
        -0.2352459877729416,
        -0.04696313664317131,
        0.030477507039904594,
        0.12600713968276978,
        0.001873721950687468,
        0.07392516732215881,
        -0.0703602284193039,
        0.15506838262081146,
        0.21856361627578735,
        -0.2489815652370453,
        0.030558835715055466,
        0.09247604012489319,
        0.0461600236594677,
        -0.0005268299137242138,
        -0.14168065786361694,
        -0.05664494261145592,
        0.007936323992908001,
        -0.09845398366451263,
        -0.025613311678171158,
        0.13491636514663696,
        -0.3505550026893616,
        0.4089145362377167,
        -0.006439254619181156,
        0.11429128050804138,
        0.2237963229417801,
        0.014627532102167606,
        -0.10385497659444809,
        -0.4824576675891876,
        0.09961192309856415,
        0.06337619572877884,
        -0.15455403923988342,
        0.13914890587329865,
        0.0256239864975214,
        0.02184290997684002,
        -0.1218884289264679,
        0.15119628608226776,
        -0.14463713765144348,
        0.08199290186166763,
        0.07467816025018692,
        0.146781325340271,
        0.9322548508644104,
        0.7618571519851685,
        -0.2826259434223175,
        -0.3051223158836365,
        0.6059804558753967,
        0.7813964486122131,
        0.11638811975717545,
        0.43955564498901367,
        -1.0554627180099487,
        -0.7423111200332642,
        0.25081461668014526,
        -0.6194354295730591,
        -0.3432883620262146,
        -0.7163684368133545,
        0.05479416996240616,
        -0.23886767029762268,
        -0.30746009945869446,
        0.12275279313325882,
        -0.08536683022975922,
        -0.08170896023511887,
        -0.1360718160867691,
        0.28352922201156616,
        -0.22835005819797516,
        -0.21533441543579102,
        0.17779876291751862,
        0.05254363268613815,
        0.036356788128614426,
        0.08770260214805603,
        -0.12594091892242432,
        -0.11512613296508789,
        0.5238398909568787,
        -0.8377552032470703,
        0.615386426448822,
        0.4278925955295563,
        0.09956665337085724,
        0.36267170310020447,
        0.4797312915325165,
        0.08255196362733841,
        -0.21020187437534332,
        0.32241901755332947,
        0.3151172995567322,
        0.3612837493419647,
        0.8226892352104187,
        -0.3615785837173462,
        -0.3030133545398712,
        0.8461328744888306,
        0.7486069798469543,
        0.09968124330043793,
        0.1921072155237198,
        -0.06910508871078491,
        0.033320628106594086,
        -0.933066725730896,
        0.804837703704834,
        0.2792384624481201,
        -0.4294249713420868,
        0.028516901656985283,
        -0.11476637423038483,
        -0.07980336248874664,
        0.11247327923774719,
        -0.04759708419442177,
        0.3822244107723236,
        -0.044643644243478775,
        0.05367211252450943,
        -0.21352475881576538,
        0.09864943474531174,
        0.11081967502832413,
        0.24413490295410156,
        -0.11571419984102249,
        -0.10904740542173386,
        -0.022008109837770462,
        -0.006916465703397989,
        -0.09764184057712555,
        0.15963715314865112,
        -0.12846367061138153,
        -0.12948942184448242,
        -0.043851885944604874,
        -0.1271524727344513,
        -0.1460643857717514,
        0.9370927810668945,
        -0.22053593397140503,
        0.2969856262207031,
        0.192701518535614,
        -0.48869889974594116,
        -0.03865504637360573,
        -0.5982720255851746,
        0.19239956140518188,
        2.0264179706573486,
        -1.223779559135437,
        -0.12137185782194138,
        -0.030462250113487244,
        -0.4722059369087219,
        -0.010043062269687653,
        -0.2909761369228363,
        0.14418567717075348,
        -0.0862601175904274,
        -0.19476324319839478,
        0.2066444307565689,
        0.29924476146698,
        -0.1441604048013687,
        -0.24898235499858856,
        0.17974640429019928,
        0.0983532965183258,
        0.4130665063858032,
        0.2750898003578186,
        -0.09141441434621811,
        0.17466002702713013,
        0.46989595890045166,
        0.2563028037548065,
        -0.6478245258331299,
        -0.2002865970134735,
        0.06954865157604218,
        0.05260198563337326,
        -0.2305089831352234,
        -0.4002301096916199,
        -0.26047468185424805,
        -0.07143738865852356,
        -0.3447418510913849,
        -0.22066442668437958,
        -0.472718209028244,
        -0.04340961575508118,
        0.042193297296762466,
        0.19064199924468994,
        0.3696843981742859,
        0.019442642107605934,
        0.07434387505054474,
        0.05956265702843666,
        0.19918538630008698,
        -0.003657799679785967,
        0.4561985433101654,
        0.2785477936267853,
        -0.16938567161560059,
        0.06951652467250824,
        -0.19330967962741852,
        -0.2180500477552414,
        -0.4386132061481476,
        0.3510661721229553,
        0.5098930597305298,
        0.0035132134798914194,
        -0.07307402044534683,
        0.05889413133263588,
        -0.648325502872467,
        0.42789703607559204,
        0.814501166343689,
        -0.29165661334991455,
        0.12425293028354645,
        0.15322545170783997,
        0.07577548921108246,
        0.0012870188802480698,
        -0.045583732426166534,
        0.3678724467754364,
        -0.46585705876350403,
        -0.26365503668785095,
        0.7179363965988159,
        1.2967417240142822,
        0.23232389986515045,
        -0.562325119972229,
        -0.5888528227806091,
        -0.5566914081573486,
        -1.3712644577026367,
        -0.6303898692131042,
        -0.41926854848861694,
        0.009322896599769592,
        0.023239774629473686,
        -1.0797638893127441,
        -0.5147794485092163,
        -0.1734548658132553,
        0.32119694352149963,
        0.12676392495632172,
        0.5561295747756958,
        -0.10025481134653091,
        -0.029801541939377785,
        0.07158054411411285,
        -0.2643415331840515,
        -0.31436410546302795,
        -0.07630763202905655,
        0.5797274112701416,
        -0.09342794120311737,
        -0.05609152093529701,
        -0.311332106590271,
        -0.31338855624198914,
        -0.20691092312335968,
        0.13272075355052948,
        -0.471577525138855,
        0.06986472010612488,
        0.05717908963561058,
        -0.10794121026992798,
        -0.028543811291456223,
        0.11795611679553986,
        -0.14785493910312653,
        -0.006602167617529631,
        -0.03754543513059616,
        -0.14151380956172943,
        0.00912456028163433,
        0.08212049305438995,
        -0.22756311297416687,
        -0.014380328357219696,
        0.10891540348529816,
        -0.0685410350561142,
        0.11834754794836044,
        -0.3042033612728119,
        -0.21846681833267212,
        0.036164604127407074,
        0.22199517488479614,
        -0.005837835371494293,
        0.1477605104446411,
        -0.016701016575098038,
        -0.28958845138549805,
        0.06720122694969177,
        -0.15574263036251068,
        -0.1518036276102066,
        -0.08441519737243652,
        -0.006030912045389414,
        0.04393605515360832,
        0.0696810930967331,
        -0.2112688422203064,
        -0.27980655431747437,
        0.05897920951247215,
        -0.27196967601776123,
        -0.20805124938488007,
        0.1061711311340332,
        0.031945254653692245,
        0.008969627320766449,
        0.0498339980840683,
        0.08246639370918274,
        -0.042933009564876556,
        0.01045446190983057,
        0.055362340062856674,
        0.9799453616142273,
        -0.35519805550575256,
        0.819776713848114,
        -1.1737712621688843,
        -0.3726351857185364,
        3.08915376663208,
        0.5945919752120972,
        -0.5122448205947876,
        -1.4089555740356445,
        0.3551577925682068,
        0.06742329895496368,
        1.349493384361267,
        0.23080332577228546,
        0.8836409449577332,
        -0.7381624579429626,
        -0.27471092343330383,
        -0.30219101905822754,
        0.06261805444955826,
        -0.5429267883300781,
        -0.2772544324398041,
        -0.004843865055590868,
        0.12062450498342514,
        0.8939027786254883,
        -0.5426582098007202,
        0.004444506485015154,
        0.46408548951148987,
        -0.057959672063589096,
        0.2438397854566574,
        -0.49753424525260925,
        -0.24331045150756836,
        0.26246482133865356,
        -0.6996409893035889,
        0.01699010096490383,
        0.10465345531702042,
        0.08429031074047089,
        -0.15042714774608612,
        -0.2596431374549866,
        -0.36021944880485535,
        0.02018333040177822,
        -0.20474690198898315,
        -0.15154440701007843,
        -0.04088442400097847,
        -0.13438712060451508,
        -0.19713887572288513,
        0.05499770864844322,
        0.08645590394735336,
        0.16538996994495392,
        0.07013054937124252,
        0.12095192819833755,
        -0.26938915252685547,
        0.07773131877183914,
        0.047581374645233154,
        0.014752371236681938,
        0.08275556564331055,
        0.16738934814929962,
        -0.026986731216311455,
        -0.016527332365512848,
        -0.0696905329823494,
        -0.9109862446784973,
        0.8510482907295227,
        -0.044973790645599365,
        -0.599163830280304,
        0.13360759615898132,
        -0.20685428380966187,
        0.6787881255149841,
        0.42226094007492065,
        -0.17034700512886047,
        0.9333939552307129,
        -0.033982858061790466,
        -0.15827098488807678,
        0.2686970829963684,
        0.3432137966156006,
        0.17194916307926178,
        0.3902100622653961,
        0.00852008257061243,
        -0.19337184727191925,
        -0.9850344657897949,
        0.9351814389228821,
        -1.0945298671722412,
        -0.24962468445301056,
        -0.20926108956336975,
        0.3636539578437805,
        2.582760810852051,
        0.008915076032280922,
        -0.12122119218111038,
        1.0292515754699707,
        -0.02661386877298355,
        -0.4235892593860626,
        0.09119755029678345,
        -1.013098955154419,
        -0.037033189088106155,
        0.007722174748778343,
        -0.07034164667129517,
        0.01892854832112789,
        0.10259933769702911,
        0.23963695764541626,
        0.07467947155237198,
        0.05136867240071297,
        -0.0388031080365181,
        -0.09946538507938385,
        -0.2599315047264099,
        0.07285434007644653,
        0.052785228937864304,
        -0.02033526450395584,
        -0.29194268584251404,
        -0.05826837569475174,
        -0.08618643879890442,
        -0.21023154258728027,
        0.019679442048072815,
        0.2312106043100357,
        1.3231209516525269,
        -0.6898655295372009,
        -0.7639351487159729,
        0.8201653361320496,
        -0.23949407041072845,
        -0.2842431366443634,
        -0.019250813871622086,
        -0.505482017993927,
        -0.1356644630432129,
        -0.635453999042511,
        0.03720700368285179,
        0.09459610283374786,
        -0.2550176978111267,
        0.04229021444916725,
        -0.29575037956237793,
        -0.28287339210510254,
        -0.009071560576558113,
        -0.020781423896551132,
        0.18065683543682098,
        -0.008737646043300629,
        -0.1584501564502716,
        -0.03909964859485626,
        -0.04581908509135246,
        -0.11493968218564987,
        0.278279185295105,
        -0.0197113286703825,
        0.32960233092308044,
        0.3019712567329407,
        0.016187092289328575,
        0.05973277613520622,
        -0.2126338928937912,
        0.016015751287341118,
        0.18985065817832947,
        0.044536102563142776,
        -0.10723397880792618,
        0.22268061339855194,
        -0.8264847993850708,
        -0.7029103636741638,
        0.16930896043777466,
        0.5626570582389832,
        -0.14339232444763184,
        0.24353960156440735,
        1.6810370683670044,
        -0.24459150433540344,
        1.0761014223098755,
        -0.6111645698547363,
        1.2038122415542603,
        0.015057581476867199,
        0.4834153652191162,
        -0.5407111644744873,
        1.2217777967453003,
        -0.4252031147480011,
        0.47903206944465637,
        -0.09958384186029434,
        0.36640074849128723,
        0.6029549241065979,
        0.10867553949356079,
        -0.4023776352405548,
        0.2929014265537262,
        -0.07215825468301773,
        0.169028177857399,
        -0.41402727365493774,
        0.12117108702659607,
        -0.17443683743476868,
        0.19442781805992126,
        -0.008343170396983624,
        -0.1060141921043396,
        0.12259136885404587,
        0.09698935598134995,
        -0.10648209601640701,
        -0.1367052048444748,
        -0.03403519466519356,
        -0.14521628618240356,
        -0.17230792343616486,
        0.040451548993587494,
        0.038804423063993454,
        -0.06943230330944061,
        0.09867526590824127,
        -0.1991504579782486,
        -0.20444226264953613,
        0.07559873908758163,
        -0.03887401893734932,
        0.22018477320671082,
        0.08423344790935516,
        -0.14607717096805573,
        0.27403244376182556,
        -0.39561569690704346,
        -0.160435289144516,
        1.1414690017700195,
        0.3354795575141907,
        -0.43010827898979187,
        1.6702824831008911,
        -0.0010500906500965357,
        -0.03352176770567894,
        -0.4545656442642212,
        0.13105550408363342,
        -0.353848934173584,
        -1.2066245079040527,
        -0.4620552361011505,
        0.4484764337539673,
        -1.1168628931045532,
        0.022389385849237442,
        0.0955020934343338,
        -0.8994297385215759,
        -0.30066633224487305,
        0.15924641489982605,
        0.3717513978481293,
        -0.13041092455387115,
        0.22007322311401367,
        0.7380884885787964,
        -0.1509375274181366,
        0.12612153589725494,
        -0.4558713734149933,
        -0.12168637663125992,
        -0.06921357661485672,
        -0.09655318409204483,
        0.45576706528663635,
        -0.5889022350311279,
        2.0962042808532715,
        -1.1891218423843384,
        -0.4961254298686981,
        0.5985561013221741,
        1.753408670425415,
        0.19905619323253632,
        -0.17530079185962677,
        0.09760317206382751,
        0.752998411655426,
        -1.74275803565979,
        -0.35922771692276,
        -0.7587542533874512,
        0.1389291137456894,
        0.9684286713600159,
        -0.13787737488746643,
        -0.3385111093521118,
        -0.25590279698371887,
        0.2034481018781662,
        0.05336775630712509,
        0.27248522639274597,
        -0.03244512155652046,
        -0.0039637284353375435,
        0.5865499377250671,
        0.09018801897764206,
        0.21793563663959503,
        0.8556248545646667,
        -0.07905721664428711,
        0.01736346073448658,
        0.2892911732196808,
        -0.02315369062125683,
        0.3360023498535156,
        -0.2239418476819992,
        -0.08075001090765,
        -0.14477859437465668,
        0.9095759987831116,
        0.10530394315719604,
        0.4282901883125305,
        1.1707936525344849,
        -0.174451544880867,
        -0.28069087862968445,
        -0.39318349957466125,
        -0.08900561183691025,
        0.25138992071151733,
        -0.40831229090690613,
        -0.029046542942523956,
        -0.08852483332157135,
        0.7782838344573975,
        0.10741430521011353,
        0.33192184567451477,
        0.81472247838974,
        -0.1418808400630951,
        -0.18425551056861877,
        -0.43777722120285034,
        -0.04165630042552948,
        0.2248905599117279,
        -0.2639446556568146,
        0.08441577106714249,
        0.13697944581508636,
        -0.9218961000442505,
        -0.11476677656173706,
        -0.44400554895401,
        -1.1386725902557373,
        0.17910145223140717,
        0.2594268023967743,
        0.4349875748157501,
        0.08766625076532364,
        -0.2728410065174103,
        0.42760926485061646,
        0.3827735185623169,
        -1.1596084833145142,
        -0.11855250597000122,
        -1.1341623067855835,
        0.8188062310218811,
        0.5180325508117676,
        -0.011060750111937523,
        -0.28578653931617737,
        -0.12091034650802612,
        -0.04836457967758179,
        -0.23046547174453735,
        0.3559243679046631,
        0.2869518995285034,
        -0.44128191471099854,
        -0.050015389919281006,
        0.1681065559387207,
        0.4823986291885376,
        -0.11955636739730835,
        0.3069649934768677,
        -0.028011441230773926,
        -0.1917715072631836,
        0.30598050355911255,
        -0.4455450773239136,
        0.41890019178390503,
        0.4994143843650818,
        -0.1365121603012085,
        0.1975109577178955,
        0.49860215187072754,
        1.1069352626800537,
        2.0122859477996826,
        1.9896990060806274,
        -2.669883966445923,
        0.526825487613678,
        0.019999999552965164
    ]
}