{
    "version": "0.5.0",
    "architecture": "WaveNet",
    "config": {
        "layers": [
            {
                "input_size": 1,
                "condition_size": 1,
                "head_size": 4,
                "channels": 8,
                "kernel_size": 3,
                "dilations": [
                    1,
                    2,
                    4,
                    8,
                    16,
                    32,
                    64
                ],
                "activation": "Tanh",
                "gated": false,
                "head_bias": false
            },
            {
                "input_size": 8,
                "condition_size": 1,
                "head_size": 1,
                "channels": 4,
                "kernel_size": 3,
                "dilations": [
                    128,
                    256,
                    512,
                    1,
                    2,
                    4,
                    8,
                    16,
                    32,
                    64,
                    128,
                    256,
                    512
                ],
                "activation": "Tanh",
                "gated": false,
                "head_bias": true
            }
        ],
        "head": null,
        "head_scale": 0.02
    },
    "weights": [
        -0.08194725215435028,
        0.5208040475845337,
        -0.8544025421142578,
        -0.8472774028778076,
        -0.4497043490409851,
        0.0596780963242054,
        -0.08370891213417053,
        0.8012860417366028,
        0.106359101831913,
        0.23304018378257751,
        -0.13553543388843536,
        -0.1620318442583084,
        -0.42912203073501587,
        0.00779223907738924,
        0.046340517699718475,
        0.25242382287979126,
        -0.05666826292872429,
        0.2517149746417999,
        0.106495700776577,
        -0.22836709022521973,
        0.19186022877693176,
        0.40220168232917786,
        -0.19257047772407532,
        0.03657650947570801,
        -0.2577652037143707,
        0.15736506879329681,
        0.27757173776626587,
        0.030762318521738052,
        -0.30909866094589233,
        -0.18145154416561127,
        -0.3233643174171448,
        0.31372156739234924,
        0.0454932264983654,
        0.1047697588801384,
        0.11519185453653336,
        -0.16331537067890167,
        -0.08561074733734131,
        -0.0037986908573657274,
        0.05779997259378433,
        0.059005964547395706,
        0.19012384116649628,
        -0.14216822385787964,
        -0.010106709785759449,
        -0.013163103722035885,
        -0.17552857100963593,
        -0.14021334052085876,
        0.31422433257102966,
        0.11978422850370407,
        -0.07745619863271713,
        -0.20378582179546356,
        0.05688435956835747,
        0.11063894629478455,
        0.2518925070762634,
        0.05946554243564606,
        0.17530423402786255,
        -0.30028292536735535,
        -0.11017867922782898,
        -0.27179431915283203,
        -0.34297290444374084,
        -0.11394859105348587,
        0.01961633563041687,
        0.1941533386707306,
        -0.1084740161895752,
        0.1397300809621811,
        0.0008080118568614125,
        -0.010132291354238987,
        0.09001472592353821,
        -0.06191616505384445,
        0.13215917348861694,
        0.26778334379196167,
        -0.27607011795043945,
        -0.09268441796302795,
        0.0014608863275498152,
        0.2665688395500183,
        0.20596528053283691,
        0.2858344316482544,
        -0.0718342587351799,
        -0.19012299180030823,
        -0.05924702435731888,
        -0.01712264120578766,
        -0.05758722871541977,
        0.34693238139152527,
        0.16484543681144714,
        -0.2177320122718811,
        -0.04452771693468094,
        0.15979686379432678,
        -0.011206794530153275,
        -0.0008181168814189732,
        -0.11094234883785248,
        -0.10146576911211014,
        0.1656360626220703,
        -0.09050477296113968,
        0.1569405049085617,
        0.15789799392223358,
        -0.4040718674659729,
        -0.11750375479459763,
        0.0531010776758194,
        0.25750091671943665,
        -0.1790992170572281,
        -0.05752239748835564,
        -0.054253578186035156,
        0.1173110082745552,
        -0.17919006943702698,
        0.13959762454032898,
        -0.11186979711055756,
        0.17990726232528687,
        -0.10255776345729828,
        -0.1773538440465927,
        -0.1898798942565918,
        0.06802790611982346,
        -0.05578416585922241,
        0.31014207005500793,
        -0.15453143417835236,
        0.20969612896442413,
        0.32693755626678467,
        -0.20575475692749023,
        -0.03566553071141243,
        0.1861354559659958,
        -0.013371529057621956,
        0.019539516419172287,
        -0.10015767812728882,
        0.04176776856184006,
        -0.11979008466005325,
        0.24982842803001404,
        -0.2791288495063782,
        -0.14876075088977814,
        -0.23960785567760468,
        -0.06922738254070282,
        -0.22899720072746277,
        -0.19618557393550873,
        -0.36089497804641724,
        0.021680675446987152,
        -0.3315385580062866,
        0.26187756657600403,
        0.17497898638248444,
        0.18649715185165405,
        -0.2651580572128296,
        0.0144086554646492,
        0.25332963466644287,
        -0.14009785652160645,
        0.21396712958812714,
        0.3295992910861969,
        -0.08631673455238342,
        -0.047907475382089615,
        -0.38351109623908997,
        0.15416258573532104,
        0.18792934715747833,
        0.23517395555973053,
        -0.3743363916873932,
        -0.18487615883350372,
        -0.3975881338119507,
        0.09807273000478745,
        -0.053794801235198975,
        -0.09152255207300186,
        0.1595180779695511,
        -0.260633647441864,
        0.3297092914581299,
        -0.3300841748714447,
        0.014767912216484547,
        -0.29414454102516174,
        0.12655983865261078,
        0.019772928208112717,
        -0.3944660723209381,
        -0.008135959506034851,
        0.03812938556075096,
        -0.1972639113664627,
        0.08572237938642502,
        0.0011444404954090714,
        -0.006228628568351269,
        -0.1952195018529892,
        0.28014039993286133,
        -0.25946152210235596,
        0.4002240300178528,
        0.01638360135257244,
        0.026746395975351334,
        -0.0363103523850441,
        -0.1283513605594635,
        -0.1494893878698349,
        0.14347809553146362,
        -0.1046035885810852,
        0.08555001020431519,
        -0.09932323545217514,
        0.07744939625263214,
        -0.016171744093298912,
        0.14844845235347748,
        0.007886934094130993,
        -0.1189863383769989,
        0.011912832967936993,
        -0.22484634816646576,
        0.04831543564796448,
        0.2240404337644577,
        0.19977988302707672,
        -0.07358420640230179,
        -0.04335453733801842,
        -0.1602114886045456,
        -0.14864620566368103,
        -0.007003085687756538,
        0.13723188638687134,
        -0.049333877861499786,
        -0.055235251784324646,
        0.24065984785556793,
        0.08725102245807648,
        -0.11669519543647766,
        -0.1725420206785202,
        0.0197212602943182,
        0.18099214136600494,
        -0.12182841449975967,
        0.06540998816490173,
        0.4875442385673523,
        -0.04714060574769974,
        0.09363050758838654,
        -0.013795309700071812,
        0.1450558602809906,
        0.03219609335064888,
        -0.16224655508995056,
        0.08549299091100693,
        -0.19921201467514038,
        -0.15682925283908844,
        0.17266830801963806,
        -0.25713011622428894,
        0.07728148996829987,
        0.3787219822406769,
        0.09804441779851913,
        0.012961906380951405,
        -0.4890972971916199,
        0.21602509915828705,
        -0.2551209032535553,
        -0.10080082714557648,
        -0.16958782076835632,
        -0.10989496111869812,
        -0.08036898821592331,
        0.1515403389930725,
        0.33358076214790344,
        0.3822381794452667,
        0.22922322154045105,
        -0.19930994510650635,
        0.32029950618743896,
        -0.08119877427816391,
        -0.2980356812477112,
        0.13785964250564575,
        0.14372855424880981,
        0.30410313606262207,
        -0.07893692702054977,
        -0.07679757475852966,
        0.16147416830062866,
        -0.16260160505771637,
        0.1662503480911255,
        -0.016452301293611526,
        0.26091718673706055,
        -0.018618207424879074,
        -0.17250654101371765,
        -0.06415264308452606,
        0.3673093318939209,
        0.06730387359857559,
        -0.2410709708929062,
        0.05913619324564934,
        0.015308511443436146,
        0.084315724670887,
        -0.07078354805707932,
        0.047235459089279175,
        0.04619041457772255,
        0.37492862343788147,
        -0.023531297221779823,
        0.14779384434223175,
        0.27011948823928833,
        -0.23763523995876312,
        0.07155724614858627,
        0.16978079080581665,
        0.42108219861984253,
        0.22696420550346375,
        -0.35421332716941833,
        -0.19690996408462524,
        -0.5289850234985352,
        0.08910162001848221,
        -0.14977607131004333,
        -0.3500254154205322,
        0.18897859752178192,
        -0.3329290449619293,
        0.0011340780183672905,
        0.09063660353422165,
        -0.035418909043073654,
        -0.13605281710624695,
        -0.2246267944574356,
        0.34760016202926636,
        0.04192183166742325,
        0.20113511383533478,
        -0.09359949827194214,
        0.18698059022426605,
        -0.21640947461128235,
        -0.1996128410100937,
        -0.10547059029340744,
        0.22964732348918915,
        0.27524352073669434,
        -0.017352240160107613,
        -0.2436843365430832,
        -0.25821879506111145,
        0.26700857281684875,
        -0.4571886360645294,
        -0.05968158319592476,
        -0.03411677107214928,
        -0.2839660048484802,
        -0.18820679187774658,
        -0.11932230740785599,
        -0.020044313743710518,
        -0.1149616613984108,
        -0.18387024104595184,
        -0.04718239977955818,
        -0.1772446483373642,
        0.02822265774011612,
        0.13386234641075134,
        -0.0003496533608995378,
        -0.10026384890079498,
        0.06566095352172852,
        -0.05500974506139755,
        0.2580345571041107,
        0.15527893602848053,
        -0.08705558627843857,
        -0.05026743933558464,
        0.027748847380280495,
        0.014091280288994312,
        -0.037989385426044464,
        0.010483935475349426,
        -0.1468677520751953,
        -0.0663631409406662,
        0.09926483035087585,
        0.13435974717140198,
        0.10985283553600311,
        0.020675577223300934,
        0.0994948297739029,
        -0.04503481835126877,
        -0.30355897545814514,
        -0.29761096835136414,
        0.40734294056892395,
        0.20970292389392853,
        -0.09256234019994736,
        0.06546404957771301,
        0.08915743231773376,
        0.111566461622715,
        -0.08625815063714981,
        0.1676318645477295,
        -0.0614534467458725,
        0.07679469138383865,
        0.15593267977237701,
        0.0525129996240139,
        -0.20101328194141388,
        0.22397197782993317,
        0.008557969704270363,
        0.11644942313432693,
        -0.14777562022209167,
        0.07097332924604416,
        -0.18361856043338776,
        0.15007077157497406,
        0.01737869717180729,
        -0.003935541957616806,
        0.010799875482916832,
        0.20476171374320984,
        -0.21885132789611816,
        0.09282272309064865,
        -0.14799045026302338,
        0.1645587682723999,
        -0.08832471817731857,
        -0.2211976945400238,
        -0.04443160817027092,
        0.1348789781332016,
        0.10096316039562225,
        0.12010405212640762,
        0.2675590515136719,
        -0.034796684980392456,
        -0.07271251827478409,
        -0.016224265098571777,
        -0.08764918148517609,
        0.11360999941825867,
        -0.17126266658306122,
        -0.10184511542320251,
        -0.1509646773338318,
        -0.1497328281402588,
        0.12653419375419617,
        0.1475902944803238,
        0.14635594189167023,
        0.12818856537342072,
        0.42311587929725647,
        -0.14592070877552032,
        0.018109874799847603,
        0.06701067090034485,
        0.04953433573246002,
        0.2115754932165146,
        0.12309388816356659,
        0.15496285259723663,
        -0.01551069226115942,
        0.1837056428194046,
        0.049851734191179276,
        0.09869012236595154,
        -0.10164003819227219,
        -0.15757913887500763,
        -0.11393435299396515,
        0.11737135797739029,
        0.18938946723937988,
        -0.019775455817580223,
        -0.20287077128887177,
        0.13918256759643555,
        0.10979848355054855,
        0.010994644835591316,
        0.019693521782755852,
        0.14700816571712494,
        -0.0019028736278414726,
        -0.10966500639915466,
        0.22098448872566223,
        0.2227327972650528,
        -0.058463774621486664,
        0.11131002753973007,
        -0.03539981693029404,
        -0.04050014168024063,
        0.1728358417749405,
        -0.0391356386244297,
        -0.15988443791866302,
        -0.16150160133838654,
        0.005392343271523714,
        -0.0636400356888771,
        -0.04103657975792885,
        0.18365569412708282,
        -0.03054363653063774,
        -0.17015288770198822,
        0.040746331214904785,
        0.07549548149108887,
        0.06764336675405502,
        -0.21725094318389893,
        -0.14311224222183228,
        -0.2304244488477707,
        -0.07590974122285843,
        0.08234534412622452,
        -0.10083305090665817,
        0.02422059141099453,
        0.05739092826843262,
        0.09572015702724457,
        0.255749374628067,
        0.07840343564748764,
        0.09360595047473907,
        -0.28525984287261963,
        0.19914622604846954,
        0.16126854717731476,
        -0.11684822291135788,
        -0.3791024684906006,
        0.031146878376603127,
        -0.21565186977386475,
        -0.3025974631309509,
        0.1577044278383255,
        -0.052761010825634,
        -0.1737772822380066,
        -0.20028409361839294,
        -0.2173984944820404,
        0.23045960068702698,
        0.14746299386024475,
        0.7127395272254944,
        0.07968102395534515,
        -0.3236815929412842,
        -0.1285271942615509,
        0.05187155678868294,
        0.08326511085033417,
        -0.22403180599212646,
        -0.04327443614602089,
        -0.11864491552114487,
        0.05561966821551323,
        0.24812118709087372,
        0.0830249935388565,
        0.055291905999183655,
        -0.029447302222251892,
        -0.062162548303604126,
        -0.3557828962802887,
        -0.18923752009868622,
        -0.13857634365558624,
        -0.062038127332925797,
        -0.07264754921197891,
        -0.14138571918010712,
        -0.2635851800441742,
        0.2601116895675659,
        -0.10375303030014038,
        -0.17406722903251648,
        -0.060716986656188965,
        -0.2182367742061615,
        0.13098777830600739,
        -0.23758666217327118,
        -0.10201270133256912,
        -0.1088845506310463,
        0.07399944961071014,
        -0.06194719299674034,
        0.13478145003318787,
        -0.13099515438079834,
        -0.20915262401103973,
        -0.09668096899986267,
        -0.11945790797472,
        -0.18140897154808044,
        0.08956465870141983,
        0.5360897779464722,
        -0.7947309613227844,
        1.0426632165908813,
        -0.006246625445783138,
        -0.279507040977478,
        -0.3273831903934479,
        0.3852558135986328,
        0.08400093019008636,
        -0.2847115993499756,
        0.18666598200798035,
        0.094973623752594,
        0.15891297161579132,
        0.2964271903038025,
        -0.19600644707679749,
        0.21798869967460632,
        0.18366868793964386,
        -0.21812964975833893,
        0.049142420291900635,
        -0.09367770701646805,
        0.12310124188661575,
        -0.0202072411775589,
        0.025012703612446785,
        -0.15591537952423096,
        -0.012630550190806389,
        -0.18733592331409454,
        0.08441884815692902,
        0.18688486516475677,
        0.002660528291016817,
        0.06849974393844604,
        0.021400129422545433,
        0.2307867705821991,
        -0.16763609647750854,
        -0.34667977690696716,
        -0.006308830808848143,
        0.24230968952178955,
        -0.011113124899566174,
        0.01083449274301529,
        -0.15298132598400116,
        0.2748430371284485,
        0.21686840057373047,
        -0.24709072709083557,
        -0.10846099257469177,
        -0.37365347146987915,
        0.12524865567684174,
        -0.21438972651958466,
        0.2813328206539154,
        0.013349512591958046,
        -0.012523351237177849,
        -0.3867940306663513,
        -0.17347922921180725,
        -0.2148102968931198,
        -0.2857722342014313,
        0.09715517610311508,
        0.032277438789606094,
        -0.22795648872852325,
        0.03116576373577118,
        -0.12826111912727356,
        0.48180368542671204,
        -0.4985174834728241,
        -0.24051311612129211,
        0.4108293056488037,
        -0.15080052614212036,
        0.055254992097616196,
        0.09819387644529343,
        -0.07694840431213379,
        0.05741139128804207,
        0.267634779214859,
        -0.0019433393608778715,
        -0.4078245759010315,
        -0.10407113283872604,
        -0.10237916558980942,
        0.19746187329292297,
        -0.23365063965320587,
        0.28798970580101013,
        -0.03714112192392349,
        0.03962310031056404,
        0.1989136040210724,
        0.11593528836965561,
        0.05033078417181969,
        0.052961889654397964,
        -0.11267998069524765,
        -0.12258539348840714,
        0.04274262860417366,
        0.1818096935749054,
        -0.18984197080135345,
        -0.13949152827262878,
        0.11564280837774277,
        0.14217239618301392,
        -0.09174052625894547,
        -0.2113439291715622,
        -0.32614049315452576,
        0.0006805806769989431,
        -0.0486377477645874,
        -0.16928912699222565,
        0.00755315413698554,
        0.04950999096035957,
        0.04466822370886803,
        0.11897943913936615,
        -0.051950279623270035,
        -0.09716402739286423,
        -0.36416810750961304,
        0.22751200199127197,
        0.20758618414402008,
        0.1657128483057022,
        -0.21834035217761993,
        0.010244300588965416,
        -0.005723003763705492,
        0.12198853492736816,
        -0.18724924325942993,
        -0.1917543262243271,
        -0.17019294202327728,
        0.14078693091869354,
        -0.32039669156074524,
        -0.04300188645720482,
        0.2366131693124771,
        -0.09099302440881729,
        -0.10122565925121307,
        -0.03479596599936485,
        -0.17082354426383972,
        -0.13429296016693115,
        0.23386038839817047,
        0.12453044205904007,
        0.03445448726415634,
        0.008162935264408588,
        -0.031248828396201134,
        0.11943700164556503,
        -0.08780229836702347,
        0.020005397498607635,
        -0.185369074344635,
        0.2652330696582794,
        0.13210158050060272,
        -0.009806844405829906,
        -0.2533138394355774,
        -0.028285052627325058,
        0.3062520921230316,
        -0.042073532938957214,
        -0.13234050571918488,
        0.08863697946071625,
        0.018471671268343925,
        0.017928428947925568,
        0.08173946291208267,
        -0.048626892268657684,
        0.14173756539821625,
        0.09128712117671967,
        -0.19118742644786835,
        -0.21764059364795685,
        -0.23775547742843628,
        0.23438583314418793,
        0.12904959917068481,
        0.22430101037025452,
        0.15946350991725922,
        0.13623428344726562,
        0.09463256597518921,
        0.3706058859825134,
        0.04157603532075882,
        0.2831031382083893,
        -0.18263313174247742,
        -0.22740989923477173,
        -0.02123907580971718,
        -0.330129474401474,
        0.28155189752578735,
        -0.15615448355674744,
        -0.24301937222480774,
        -0.21588893234729767,
        -0.08022348582744598,
        0.11979176849126816,
        0.05150902643799782,
        0.01713665761053562,
        -0.012582672759890556,
        -0.18603190779685974,
        0.1600365787744522,
        -0.062076348811388016,
        -0.14267510175704956,
        0.20124806463718414,
        0.06765307486057281,
        0.47179555892944336,
        0.0037098019383847713,
        0.1342092752456665,
        -0.3529144525527954,
        0.007427682634443045,
        0.05729791894555092,
        -0.06089164689183235,
        -0.08075504004955292,
        0.04602084681391716,
        -0.300738126039505,
        0.008237788453698158,
        0.2161812037229538,
        -0.19594122469425201,
        0.14381061494350433,
        -0.21316835284233093,
        -0.5795255899429321,
        0.10879214853048325,
        0.04273739457130432,
        0.46664807200431824,
        0.0305752195417881,
        -0.2358270287513733,
        0.037229496985673904,
        0.11542937159538269,
        0.1994115710258484,
        -0.15040025115013123,
        -0.03763262555003166,
        0.1257866770029068,
        0.018786940723657608,
        -0.1727452129125595,
        0.20063798129558563,
        -0.19351327419281006,
        -0.12351541221141815,
        -0.013063608668744564,
        -0.11673504114151001,
        0.19722804427146912,
        -0.02258596196770668,
        0.13248734176158905,
        -0.06720050424337387,
        0.010208815336227417,
        0.2579241096973419,
        0.30936169624328613,
        -0.127521350979805,
        0.23999352753162384,
        -0.07713514566421509,
        -0.2072886973619461,
        -0.2968974709510803,
        -0.16647210717201233,
        0.347891628742218,
        0.12038327008485794,
        0.14404934644699097,
        -0.012291941791772842,
        0.04936149716377258,
        0.14062495529651642,
        0.35211649537086487,
        -0.25841885805130005,
        -0.26981469988822937,
        -0.10892008990049362,
        -0.4715512990951538,
        -0.03194114938378334,
        0.3448864817619324,
        -0.25948187708854675,
        0.009283788502216339,
        -0.15609866380691528,
        -0.37294790148735046,
        -0.017173945903778076,
        0.04120258241891861,
        0.38676902651786804,
        0.01894720271229744,
        0.0401463583111763,
        -0.009112142026424408,
        -0.15678198635578156,
        -0.2629559636116028,
        -0.45217934250831604,
        -0.6153415441513062,
        0.18011370301246643,
        0.4144940972328186,
        -0.15708188712596893,
        -0.17952296137809753,
        0.7172630429267883,
        0.2106565684080124,
        -0.007623293437063694,
        0.3750891387462616,
        0.051532577723264694,
        -0.3117448687553406,
        0.25632914900779724,
        0.3322385847568512,
        0.25571122765541077,
        1.258927345275879,
        0.015778211876749992,
        -0.12952829897403717,
        -0.2046811282634735,
        -0.38960862159729004,
        0.1007884219288826,
        0.03984306380152702,
        0.17621593177318573,
        -0.2128549963235855,
        0.017811788246035576,
        0.021792592480778694,
        -0.14578603208065033,
        -0.12431570142507553,
        0.3406141400337219,
        -0.7056090235710144,
        -0.25021862983703613,
        0.3592745363712311,
        -0.5295489430427551,
        0.5058624148368835,
        0.4431529939174652,
        0.42745962738990784,
        -0.5217557549476624,
        0.26380661129951477,
        -0.3260847330093384,
        0.3810458779335022,
        -0.2640608847141266,
        -0.3370799720287323,
        0.22891809046268463,
        -0.03346164897084236,
        0.09773456305265427,
        -0.01898999512195587,
        -0.15134058892726898,
        0.06151244044303894,
        -0.4029882550239563,
        -0.005141101311892271,
        -0.1166153997182846,
        0.037096600979566574,
        0.07700254023075104,
        0.14688622951507568,
        -0.0033517617266625166,
        -0.07666055858135223,
        0.005141422618180513,
        -0.249665766954422,
        -0.19791144132614136,
        -0.14690624177455902,
        0.10230045020580292,
        0.2912561893463135,
        0.24039238691329956,
        0.16745033860206604,
        -0.19308029115200043,
        0.22185996174812317,
        0.39050745964050293,
        0.5284928679466248,
        -0.41769057512283325,
        -0.03858456388115883,
        -0.05982944741845131,
        -0.18614915013313293,
        -0.017645185813307762,
        0.05309532210230827,
        -0.21789231896400452,
        -0.027653342112898827,
        0.2364494502544403,
        -0.004573924001306295,
        0.5267626643180847,
        -0.08602950721979141,
        -0.11385372281074524,
        0.6721348166465759,
        0.002396684605628252,
        0.39462482929229736,
        -0.25359010696411133,
        -0.10206715762615204,
        0.04439496248960495,
        0.08650553226470947,
        -0.11357332020998001,
        0.04457208514213562,
        -0.05191272497177124,
        0.23553907871246338,
        -0.1843731850385666,
        0.0928330197930336,
        -0.09658312052488327,
        -0.10244535654783249,
        0.04267818480730057,
        0.10930556058883667,
        -0.14523954689502716,
        -0.06824929267168045,
        -0.013615772128105164,
        -0.18352177739143372,
        0.33349135518074036,
        -0.050331030040979385,
        0.1500752568244934,
        0.12760625779628754,
        -0.04875277727842331,
        0.191374734044075,
        0.3908163011074066,
        -0.03134956955909729,
        0.07014679908752441,
        -0.1810055822134018,
        0.17350728809833527,
        -0.11713721603155136,
        0.030363380908966064,
        0.09491049498319626,
        -0.15939961373806,
        -0.14438381791114807,
        -0.022383565083146095,
        0.30166545510292053,
        -0.34360507130622864,
        0.11366875469684601,
        0.2807373106479645,
        -0.047751929610967636,
        -0.20840147137641907,
        0.08793558180332184,
        -0.10239299386739731,
        -0.08844893425703049,
        -0.200825497508049,
        -0.07644947618246078,
        0.06583788990974426,
        -0.06308750063180923,
        0.08902683854103088,
        -0.2726314663887024,
        0.07475193589925766,
        0.124952033162117,
        0.03749346360564232,
        0.022491760551929474,
        0.15295836329460144,
        -0.1848963052034378,
        0.05224207043647766,
        -0.022808723151683807,
        -0.13620896637439728,
        -0.05775301903486252,
        0.0928933322429657,
        0.04203157499432564,
        0.14488448202610016,
        0.13097819685935974,
        0.10756529122591019,
        0.18350127339363098,
        -0.0959843322634697,
        -0.22375018894672394,
        0.2476549595594406,
        -0.09418071806430817,
        0.08351168036460876,
        -0.24205070734024048,
        0.011605705134570599,
        -0.06952220946550369,
        0.15082700550556183,
        -0.06598549336194992,
        -0.09181273728609085,
        0.13963322341442108,
        0.30070802569389343,
        0.4373709261417389,
        0.24871817231178284,
        0.038832295686006546,
        0.06709804385900497,
        -0.3248622417449951,
        -0.2077808529138565,
        0.21308013796806335,
        0.06641984730958939,
        0.14643554389476776,
        0.1498350352048874,
        -0.3587193787097931,
        0.06701457500457764,
        0.5229381322860718,
        0.09695186465978622,
        -0.09612438082695007,
        -0.25295546650886536,
        0.06244252622127533,
        0.19316866993904114,
        0.14882776141166687,
        -0.09224031120538712,
        -0.16333675384521484,
        0.057861048728227615,
        -0.010419541969895363,
        -0.19239822030067444,
        0.21765369176864624,
        0.16177262365818024,
        0.21049776673316956,
        0.3866935670375824,
        0.6626204252243042,
        -0.2786400616168976,
        -0.04215529188513756,
        0.4844370186328888,
        0.2664676308631897,
        0.17573869228363037,
        0.34741300344467163,
        -0.18426696956157684,
        0.2612029016017914,
        0.28721854090690613,
        0.2146916538476944,
        -0.18044321238994598,
        -0.23125557601451874,
        0.06360985338687897,
        0.03153334558010101,
        -0.10810909420251846,
        -0.08634106069803238,
        -0.11032884567975998,
        0.31619900465011597,
        -0.1312856823205948,
        -0.06356406956911087,
        -0.10752132534980774,
        -0.014614229090511799,
        -0.29854103922843933,
        -0.28426381945610046,
        0.2417229413986206,
        0.08553960919380188,
        -0.2050931453704834,
        0.15544390678405762,
        -0.18521450459957123,
        -0.29179295897483826,
        0.18552297353744507,
        0.2753939926624298,
        -0.24733389914035797,
        0.0025839265435934067,
        0.09564246982336044,
        0.4289657175540924,
        -0.18558566272258759,
        0.13355329632759094,
        0.1294931322336197,
        -0.06602207571268082,
        -0.2445409595966339,
        0.16709931194782257,
        -0.03926693648099899,
        -0.07454181462526321,
        0.08235733956098557,
        0.18846066296100616,
        0.1834905594587326,
        -0.02648898772895336,
        -0.3306623101234436,
        -0.12174485623836517,
        -0.016086265444755554,
        0.1146886944770813,
        -0.09760282188653946,
        0.07224904000759125,
        -0.005824277177453041,
        -0.08740227669477463,
        0.06604843586683273,
        0.09265498071908951,
        0.012683060951530933,
        -0.14048665761947632,
        0.16098272800445557,
        0.1734963208436966,
        -0.05790563300251961,
        0.015319142490625381,
        0.1138523742556572,
        0.253930926322937,
        0.17156457901000977,
        0.033129338175058365,
        -0.07077289372682571,
        -0.19526244699954987,
        -0.3782731592655182,
        -0.2522440552711487,
        -0.3584981858730316,
        -0.019442163407802582,
        0.1287882924079895,
        -0.23607657849788666,
        -0.5095902681350708,
        -0.35914239287376404,
        -0.06800392270088196,
        0.012631416320800781,
        -0.0185515396296978,
        0.13688062131404877,
        -0.10311184823513031,
        0.10246922075748444,
        0.3220287561416626,
        0.4093568027019501,
        0.09381237626075745,
        -0.20250500738620758,
        -0.10316818207502365,
        0.12727662920951843,
        -0.05891035124659538,
        0.03588968515396118,
        0.1449902057647705,
        -0.13878236711025238,
        -0.0696096196770668,
        -0.23709113895893097,
        -0.032834503799676895,
        0.06738565117120743,
        0.2405409961938858,
        0.12487300485372543,
        -0.050910886377096176,
        -0.334246426820755,
        -0.04378615692257881,
        0.12630310654640198,
        0.09253080934286118,
        -0.07056424021720886,
        -0.1961410641670227,
        -0.18497222661972046,
        0.2231075018644333,
        -0.17598123848438263,
        0.14968623220920563,
        0.052209850400686264,
        -0.002427263418212533,
        0.059325434267520905,
        -0.049592532217502594,
        0.09195049107074738,
        0.06376398354768753,
        -0.8419022560119629,
        0.6292015314102173,
        -0.028799790889024734,
        -0.4385603368282318,
        0.4469544589519501,
        0.6757674813270569,
        -0.7009533643722534,
        0.028107209131121635,
        0.4416671097278595,
        -0.0336616076529026,
        0.15071676671504974,
        -0.13254842162132263,
        -0.2742924392223358,
        0.008953902870416641,
        -0.06639725714921951,
        0.2106853574514389,
        -0.057799190282821655,
        -0.15303674340248108,
        -0.03098072111606598,
        -0.26503056287765503,
        0.029667513445019722,
        0.2111426293849945,
        -0.28358519077301025,
        0.03135897219181061,
        0.2663520574569702,
        -0.3479427397251129,
        0.01584809459745884,
        -0.4314540922641754,
        -0.45113152265548706,
        -0.05186470225453377,
        0.28160929679870605,
        0.011708216741681099,
        0.07117811590433121,
        -0.34617578983306885,
        0.21425849199295044,
        -0.306044340133667,
        0.44757866859436035,
        0.17061160504817963,
        0.4446195960044861,
        0.10448240488767624,
        0.04354375600814819,
        -0.2745891213417053,
        -0.21645741164684296,
        -0.11871188133955002,
        -0.14372776448726654,
        0.5177459716796875,
        0.051022615283727646,
        -0.06965242326259613,
        -0.12159539759159088,
        -0.3760177195072174,
        0.09334505349397659,
        -0.07631183415651321,
        0.12256456911563873,
        -0.1134074479341507,
        0.15736423432826996,
        0.24088223278522491,
        -0.0761687308549881,
        0.17074032127857208,
        -0.29461604356765747,
        -0.12195751816034317,
        0.052414994686841965,
        0.09601438790559769,
        -0.10362379252910614,
        -0.31321579217910767,
        -0.13674113154411316,
        0.20025233924388885,
        -0.40282678604125977,
        -0.36162102222442627,
        -0.0890696793794632,
        -0.21705135703086853,
        -0.44025447964668274,
        -0.23487971723079681,
        -0.20410430431365967,
        -0.07569862902164459,
        -0.2968612015247345,
        -0.05108853802084923,
        -0.20068202912807465,
        -0.15319587290287018,
        -0.16072793304920197,
        -0.03225625306367874,
        0.2038036286830902,
        -0.13585910201072693,
        -0.21676991879940033,
        0.068400539457798,
        0.14505308866500854,
        0.2055862694978714,
        0.08942524343729019,
        -0.0946054756641388,
        -0.12866513431072235,
        0.07972115278244019,
        0.3750546872615814,
        -0.1289946734905243,
        0.1453050822019577,
        0.07136297225952148,
        -0.14790791273117065,
        -0.4241291582584381,
        -0.1866370439529419,
        -0.3763297498226166,
        -0.06493867933750153,
        -0.1767042577266693,
        0.13641056418418884,
        -0.2413647621870041,
        0.20212671160697937,
        -0.08279627561569214,
        0.021306021139025688,
        -0.041377343237400055,
        -0.26971912384033203,
        -0.30235666036605835,
        -0.0705026313662529,
        0.29345494508743286,
        0.13321048021316528,
        -0.0818353146314621,
        -0.6194886565208435,
        -0.080940842628479,
        -0.17608247697353363,
        0.21381530165672302,
        0.2272081822156906,
        -0.33720844984054565,
        -0.2617630064487457,
        0.04573918879032135,
        -0.03088679537177086,
        0.29165396094322205,
        -0.13482946157455444,
        0.03958822041749954,
        0.037518858909606934,
        -0.2546389400959015,
        -0.012726630084216595,
        0.23959949612617493,
        0.1739596575498581,
        0.0833234041929245,
        -0.14766807854175568,
        -0.16626419126987457,
        -0.055074192583560944,
        -0.025640370324254036,
        0.21955636143684387,
        -0.17415110766887665,
        -0.2311246395111084,
        -0.1996994912624359,
        0.05300160497426987,
        0.2876819372177124,
        0.26588672399520874,
        -0.14644823968410492,
        -0.0859035849571228,
        0.00831881444901228,
        0.08597449958324432,
        0.3206234574317932,
        -0.036210641264915466,
        0.01675572618842125,
        0.3075239658355713,
        -0.1767226606607437,
        0.08361242711544037,
        0.033321212977170944,
        0.1350877732038498,
        0.14965863525867462,
        0.05475636571645737,
        -0.20396724343299866,
        -0.17805632948875427,
        0.021500881761312485,
        0.0009813334327191114,
        0.19054843485355377,
        -0.22572554647922516,
        0.14868326485157013,
        -0.16387028992176056,
        -0.3339337110519409,
        0.12282399088144302,
        -0.14359678328037262,
        -0.2983870506286621,
        -0.14425571262836456,
        0.1482214480638504,
        0.14253661036491394,
        -0.2170807272195816,
        0.07227041572332382,
        0.259647011756897,
        -0.08688632398843765,
        -0.01076811458915472,
        0.1495022475719452,
        0.0346091091632843,
        0.1552361100912094,
        -0.43094244599342346,
        0.0756407082080841,
        0.09730176627635956,
        0.010649564675986767,
        0.21026384830474854,
        0.1509084701538086,
        -0.33459094166755676,
        0.1009901836514473,
        0.12611281871795654,
        0.08189709484577179,
        0.2143351286649704,
        0.14298199117183685,
        0.01370612159371376,
        -0.2381216287612915,
        -0.36979737877845764,
        0.2974447011947632,
        -0.0037160515785217285,
        -0.04293166473507881,
        0.040878377854824066,
        -0.2867744565010071,
        -0.11125340312719345,
        0.09511648863554001,
        0.02892320416867733,
        0.0053474935702979565,
        0.2633771300315857,
        0.25998038053512573,
        0.14814236760139465,
        -0.17912207543849945,
        -0.02184300869703293,
        0.12482870370149612,
        0.3753897547721863,
        -0.21268662810325623,
        -0.028441758826375008,
        0.29178714752197266,
        -0.37682682275772095,
        -0.092877097427845,
        0.20382946729660034,
        0.12258952856063843,
        0.06487464904785156,
        0.07955200225114822,
        0.19491702318191528,
        0.10239402204751968,
        0.0373026579618454,
        0.3618713319301605,
        0.02178770676255226,
        0.12321150302886963,
        0.006572590209543705,
        0.07643740624189377,
        0.174925297498703,
        -0.16168023645877838,
        0.15119440853595734,
        0.16023017466068268,
        0.11534751206636429,
        0.07132202386856079,
        -0.264214426279068,
        0.07495439797639847,
        0.22175021469593048,
        -0.09788385033607483,
        0.2011605054140091,
        0.12386857718229294,
        0.07451801747083664,
        -0.004692400805652142,
        0.06302087008953094,
        -0.10113867372274399,
        -0.29852256178855896,
        -0.05951429903507233,
        -0.19757325947284698,
        -0.3519079387187958,
        -0.22730287909507751,
        -0.27262914180755615,
        -0.09025135636329651,
        -0.22318439185619354,
        0.1984848529100418,
        -0.14107780158519745,
        -0.012822701595723629,
        -0.048443231731653214,
        -0.01053206529468298,
        0.13196396827697754,
        0.2285713404417038,
        0.001512093236669898,
        -0.07783156633377075,
        -0.08922374993562698,
        -0.23730656504631042,
        0.00405086949467659,
        0.3116837441921234,
        -0.050600919872522354,
        0.0006056118872947991,
        -0.28846532106399536,
        0.08269578218460083,
        0.047462187707424164,
        -0.36478203535079956,
        -0.04438634589314461,
        0.15335345268249512,
        -0.07231281697750092,
        -0.18928396701812744,
        0.09982491284608841,
        -0.021392513066530228,
        -0.12608031928539276,
        -0.15094226598739624,
        0.009596772491931915,
        0.008704043924808502,
        -0.10068127512931824,
        -0.029143566265702248,
        -0.030271269381046295,
        -0.17135481536388397,
        -0.6198470592498779,
        0.9676473736763,
        0.3045475482940674,
        -0.2209135890007019,
        -0.4204449951648712,
        0.08060640096664429,
        -0.30443477630615234,
        -0.07090805470943451,
        -0.03552158921957016,
        -0.05104648321866989,
        -0.04275256767868996,
        -0.15818746387958527,
        0.27548015117645264,
        -0.15961316227912903,
        -0.14690512418746948,
        0.3734710216522217,
        -0.08695278316736221,
        -0.009653177112340927,
        0.4281516969203949,
        -0.06721613556146622,
        0.3753199577331543,
        0.23376701772212982,
        0.33743980526924133,
        0.13366644084453583,
        0.4310967028141022,
        -0.09709689021110535,
        -0.4027085602283478,
        0.08350721746683121,
        0.0348571240901947,
        0.1704842448234558,
        0.5135923624038696,
        0.12116590887308121,
        0.3245421051979065,
        0.02377149648964405,
        0.017082376405596733,
        0.19612054526805878,
        -0.24278464913368225,
        -0.14122778177261353,
        0.3951316475868225,
        0.006255532614886761,
        0.20613181591033936,
        -0.4491192102432251,
        0.015161823481321335,
        -0.14830218255519867,
        -0.04305373504757881,
        -0.05904987081885338,
        -3.3601016184547916e-05,
        -0.049301259219646454,
        0.06760822236537933,
        0.5048823952674866,
        -0.35545146465301514,
        -0.08220462501049042,
        -0.11442268639802933,
        0.39573994278907776,
        0.2554103136062622,
        -0.2679215967655182,
        -0.288746178150177,
        -0.24185535311698914,
        0.3572355806827545,
        0.012933523394167423,
        0.3874240517616272,
        0.05541945993900299,
        0.003362878691405058,
        0.08536073565483093,
        -0.2553035318851471,
        0.06885621696710587,
        -0.010094472207129002,
        0.07020702958106995,
        0.032011907547712326,
        -0.20511560142040253,
        -0.015977563336491585,
        -0.31080085039138794,
        0.048793237656354904,
        0.14579954743385315,
        -0.07660108804702759,
        0.2986217737197876,
        0.10678327828645706,
        0.11597539484500885,
        -0.13565051555633545,
        -0.2383657693862915,
        -0.19642479717731476,
        0.14388446509838104,
        0.25339990854263306,
        0.34009623527526855,
        -0.1390056014060974,
        -0.1308135837316513,
        -0.11896754056215286,
        -0.10881112515926361,
        0.1856822669506073,
        0.16263313591480255,
        0.03234178200364113,
        -0.10078943520784378,
        0.13301731646060944,
        0.014786619693040848,
        0.3944951593875885,
        -0.10279370099306107,
        0.061844974756240845,
        0.08340578526258469,
        -0.2332969307899475,
        -0.283403605222702,
        0.1587228775024414,
        0.012472455389797688,
        -0.1360553652048111,
        -0.054740313440561295,
        0.015714475885033607,
        -0.015868283808231354,
        -0.2459704875946045,
        -0.254085510969162,
        0.3223946988582611,
        0.012026436626911163,
        0.07795007526874542,
        -0.04657348245382309,
        0.04920434206724167,
        -0.09471721202135086,
        -0.09606517106294632,
        -0.08716020733118057,
        -0.05868755653500557,
        -0.12970812618732452,
        -0.054090939462184906,
        0.1518070548772812,
        0.06970831006765366,
        -0.2249937206506729,
        0.010631256736814976,
        0.22931045293807983,
        -0.28074023127555847,
        0.26527565717697144,
        0.16643531620502472,
        -0.05696464329957962,
        0.07006165385246277,
        0.08705917745828629,
        0.10199370980262756,
        0.47424009442329407,
        -0.13782666623592377,
        0.0509725846350193,
        0.0469248928129673,
        -0.03815916180610657,
        0.32412323355674744,
        0.2265545278787613,
        -0.26097023487091064,
        -0.23732788860797882,
        0.09111890196800232,
        -0.013141392730176449,
        -0.01149813923984766,
        -0.12145496159791946,
        -0.30377814173698425,
        0.14029541611671448,
        -0.08781061321496964,
        0.23162630200386047,
        0.21661832928657532,
        0.0010233643697574735,
        0.296565979719162,
        0.18491308391094208,
        0.21954061090946198,
        0.2685195505619049,
        0.17731355130672455,
        -0.2300424426794052,
        0.07247850298881531,
        0.4371959865093231,
        -0.11255146563053131,
        0.060065481811761856,
        0.2930716872215271,
        -0.085906483232975,
        -0.15103556215763092,
        0.15954522788524628,
        0.1827099472284317,
        0.19697055220603943,
        -0.1218821182847023,
        0.30342498421669006,
        0.19476976990699768,
        0.24569863080978394,
        0.11133955419063568,
        0.2202058583498001,
        -0.11006674915552139,
        -0.0869206115603447,
        -0.07856165617704391,
        0.05144157260656357,
        0.18927723169326782,
        -0.1348094940185547,
        0.04293092340230942,
        -0.1638415902853012,
        0.07033464312553406,
        -0.0013274236116558313,
        -0.19233468174934387,
        -0.10509124398231506,
        -0.11025036871433258,
        -0.17517565190792084,
        -0.15921831130981445,
        -0.05472441390156746,
        0.016168709844350815,
        0.1399553418159485,
        0.31852057576179504,
        -0.035586003214120865,
        0.07853395491838455,
        -0.09389286488294601,
        0.1818024069070816,
        -0.08393072336912155,
        -0.13451987504959106,
        -0.10055895894765854,
        -0.08352690190076828,
        0.2941058874130249,
        0.14460600912570953,
        0.09912142157554626,
        -0.09572912007570267,
        -0.3301182985305786,
        0.06364323943853378,
        0.09007427096366882,
        -0.07618214935064316,
        0.07711939513683319,
        0.20939822494983673,
        0.03584091365337372,
        -0.2328876405954361,
        0.1489730328321457,
        0.15586739778518677,
        -0.032690614461898804,
        0.34746259450912476,
        0.11011704057455063,
        -0.14197123050689697,
        -0.366316020488739,
        0.13997308909893036,
        0.024724790826439857,
        -0.03753730654716492,
        0.2404516041278839,
        0.10717730969190598,
        -0.10397721827030182,
        0.1963752955198288,
        -0.06868723034858704,
        0.01222264301031828,
        -0.22142866253852844,
        0.05268898978829384,
        -0.14022094011306763,
        -0.014957007020711899,
        -0.07573007047176361,
        -0.2370816171169281,
        0.0769692212343216,
        0.09099329262971878,
        -0.09664706140756607,
        -0.24760344624519348,
        0.09977882355451584,
        0.1301383078098297,
        -0.08032326400279999,
        -0.07961544394493103,
        -0.07428280264139175,
        -0.16115258634090424,
        -0.03935202211141586,
        0.057763129472732544,
        -0.10104859620332718,
        -0.14494861662387848,
        0.3172467052936554,
        0.234748974442482,
        0.032064251601696014,
        -0.06702449917793274,
        -0.40747714042663574,
        0.005989661440253258,
        0.24417489767074585,
        -0.14700590074062347,
        -0.25439226627349854,
        -0.5919129252433777,
        -0.07499579340219498,
        -0.12969191372394562,
        0.2497197985649109,
        -0.0013259508414193988,
        0.029813339933753014,
        -0.5828244686126709,
        0.3761284649372101,
        0.050368472933769226,
        -0.3032369017601013,
        0.178124338388443,
        0.15676018595695496,
        -0.26775413751602173,
        -0.10455364733934402,
        0.13692861795425415,
        -0.12618938088417053,
        -0.23632296919822693,
        0.017868824303150177,
        -0.023545263335108757,
        -0.02584725245833397,
        0.08889393508434296,
        -0.6070888638496399,
        0.36865511536598206,
        0.14748327434062958,
        -0.3912804126739502,
        -0.24469442665576935,
        0.3099806010723114,
        -0.7034087777137756,
        0.023353727534413338,
        0.3750762641429901,
        -0.16574400663375854,
        -0.2980566620826721,
        -0.2452758252620697,
        -0.18783216178417206,
        -0.5884597897529602,
        -0.24824374914169312,
        0.06523942202329636,
        0.29610466957092285,
        0.1282780021429062,
        0.3094237744808197,
        0.37702763080596924,
        0.20440302789211273,
        0.4251860976219177,
        0.15087315440177917,
        -0.3490133583545685,
        0.06363621354103088,
        0.37846097350120544,
        -0.3381076753139496,
        -0.31813573837280273,
        0.2695103585720062,
        0.3197326064109802,
        0.2998550534248352,
        -0.06917650252580643,
        0.1476622074842453,
        -0.34310734272003174,
        -0.21313197910785675,
        -0.47039711475372314,
        0.25397059321403503,
        0.15318326652050018,
        -0.1343417912721634,
        0.11280175298452377,
        -0.17166323959827423,
        -0.14938019216060638,
        0.20227038860321045,
        -0.098709337413311,
        -0.18900363147258759,
        -0.21680834889411926,
        0.18444068729877472,
        0.3415333330631256,
        0.1650167852640152,
        -0.419582724571228,
        0.23378707468509674,
        0.1530621200799942,
        -0.433594286441803,
        -0.3485018014907837,
        0.2489226907491684,
        -0.15060368180274963,
        -0.36773717403411865,
        0.35566166043281555,
        -0.2829914689064026,
        0.35399866104125977,
        0.3116384744644165,
        0.1728302538394928,
        -0.06501653045415878,
        0.40138477087020874,
        -0.1861650049686432,
        0.10648941993713379,
        0.010502527467906475,
        0.07111689448356628,
        0.2608671188354492,
        -0.2124154269695282,
        -0.211767315864563,
        -0.3932265639305115,
        -0.46075233817100525,
        0.6103324890136719,
        -0.15010252594947815,
        -0.3361954987049103,
        0.13280703127384186,
        -0.4337542653083801,
        -0.10260409861803055,
        0.3175601363182068,
        -0.3157537579536438,
        0.0763087347149849,
        0.22256635129451752,
        0.011220328509807587,
        0.1458103507757187,
        -0.05904150754213333,
        0.040575265884399414,
        0.3321635127067566,
        -0.0004609805182553828,
        0.0339682437479496,
        -0.21457457542419434,
        -0.015741117298603058,
        0.13792915642261505,
        -0.03731366619467735,
        0.30251339077949524,
        -0.11161360889673233,
        -0.18591724336147308,
        -0.06362348049879074,
        0.17637884616851807,
        0.08903806656599045,
        -0.13527579605579376,
        0.16864700615406036,
        0.07068414986133575,
        -0.09250859171152115,
        -0.371927946805954,
        -0.30199921131134033,
        0.16400223970413208,
        0.1483553797006607,
        0.12311062216758728,
        -0.1691674143075943,
        -0.21730943024158478,
        -0.3886076807975769,
        0.04934968426823616,
        -0.1153731644153595,
        -0.16186878085136414,
        -0.7165024876594543,
        0.06236433982849121,
        0.03921520709991455,
        0.3024228513240814,
        -0.22808292508125305,
        -0.06749442219734192,
        -0.8098857402801514,
        0.14043697714805603,
        -0.0135872270911932,
        0.09022162854671478,
        0.22486251592636108,
        0.2313384711742401,
        -0.26996877789497375,
        0.44893550872802734,
        0.03845810890197754,
        0.04667508229613304,
        -0.11189695447683334,
        -0.23795944452285767,
        0.33656424283981323,
        0.23053064942359924,
        0.06639066338539124,
        -0.3361131250858307,
        -0.35333842039108276,
        -0.14286720752716064,
        -0.23245391249656677,
        -0.025941960513591766,
        -0.05734741687774658,
        -0.1176106259226799,
        -0.11262352019548416,
        -0.22707413136959076,
        -0.208599254488945,
        -0.015174070373177528,
        -0.16373975574970245,
        0.11758532375097275,
        -0.24195991456508636,
        -0.011980856768786907,
        0.19024282693862915,
        -0.2591439485549927,
        0.028895679861307144,
        0.3731243312358856,
        0.2532972991466522,
        0.2779397964477539,
        -0.45387139916419983,
        -0.26592716574668884,
        0.18971370160579681,
        0.39818674325942993,
        -0.03980088233947754,
        0.12225604057312012,
        -0.2812221348285675,
        -0.3179749846458435,
        0.013768660835921764,
        0.2997187077999115,
        -0.09850272536277771,
        -0.01078952569514513,
        -0.23729731142520905,
        0.5317411422729492,
        0.056777115911245346,
        0.25263434648513794,
        0.24778446555137634,
        -0.020323367789387703,
        -0.3625653386116028,
        0.1511886715888977,
        -0.6194448471069336,
        -0.7385744452476501,
        -0.3531453609466553,
        -0.3028278946876526,
        0.14297866821289062,
        -0.4108477532863617,
        -0.1421857327222824,
        -0.3489183187484741,
        0.32856622338294983,
        0.062088385224342346,
        0.16646543145179749,
        0.3658333420753479,
        0.16414593160152435,
        0.22173668444156647,
        -0.2037922441959381,
        -0.3822769522666931,
        -0.4472915828227997,
        -0.034347910434007645,
        0.2856621742248535,
        0.11458071321249008,
        0.13837666809558868,
        0.09695959091186523,
        -0.040290962904691696,
        -0.31297075748443604,
        0.2031593769788742,
        -0.2793286442756653,
        0.09874636679887772,
        -0.01825377345085144,
        0.15441052615642548,
        -0.10116548836231232,
        -0.05527188256382942,
        1.9848652300424874e-05,
        -0.018220342695713043,
        -0.35394278168678284,
        -0.5896636843681335,
        -0.21397727727890015,
        0.07250046730041504,
        0.09508398920297623,
        -0.26596468687057495,
        -0.370801717042923,
        0.22874146699905396,
        0.21635660529136658,
        0.13892927765846252,
        -0.25915226340293884,
        0.21274998784065247,
        -0.3061024248600006,
        -0.07892908900976181,
        -0.19230791926383972,
        0.03183671087026596,
        0.16039995849132538,
        -0.13869859278202057,
        0.058438990265131,
        0.0673825666308403,
        -0.30940744280815125,
        0.32268592715263367,
        0.0027499664574861526,
        0.2428671419620514,
        0.1166892871260643,
        0.41561999917030334,
        -0.29205769300460815,
        -0.19046597182750702,
        0.21153320372104645,
        -0.23735114932060242,
        -0.02641930803656578,
        -0.06797437369823456,
        0.22812660038471222,
        0.002140481723472476,
        0.030344124883413315,
        0.08922510594129562,
        0.01008223369717598,
        0.033558204770088196,
        -0.04442932456731796,
        -0.05577726662158966,
        0.02944418229162693,
        0.2554848790168762,
        -0.09190303087234497,
        0.13254834711551666,
        -0.03812770918011665,
        0.27490630745887756,
        0.06862062960863113,
        0.07704658806324005,
        0.4267314672470093,
        0.29592257738113403,
        -0.2736223638057709,
        -0.11233218014240265,
        0.06909987330436707,
        -0.1436382532119751,
        -0.16630280017852783,
        0.27785977721214294,
        0.2718546986579895,
        0.1710842251777649,
        -0.07427988946437836,
        0.05210603028535843,
        0.03122342936694622,
        -0.10972747206687927,
        0.1515384465456009,
        0.11817925423383713,
        -0.2514234483242035,
        -0.3027934730052948,
        0.46095505356788635,
        0.07470431923866272,
        0.16227208077907562,
        -0.17326173186302185,
        -0.8490417003631592,
        -0.5095391273498535,
        0.09780535101890564,
        0.5380648374557495,
        0.848054826259613,
        -0.21809978783130646,
        -1.0140202045440674,
        -0.04459041357040405,
        -0.41024208068847656,
        -0.25762221217155457,
        -0.03035719320178032,
        0.13140718638896942,
        0.10718958079814911,
        0.29351088404655457,
        0.19745241105556488,
        0.08755052089691162,
        -0.07976097613573074,
        -0.5991019010543823,
        -0.16471998393535614,
        -0.06100287660956383,
        -0.20295310020446777,
        0.24142691493034363,
        -0.11704286932945251,
        -0.2962619960308075,
        0.2200438380241394,
        -0.6283921003341675,
        0.20111899077892303,
        0.23774534463882446,
        0.17387686669826508,
        0.14404980838298798,
        0.30905869603157043,
        0.3547993004322052,
        -0.24212683737277985,
        0.19317865371704102,
        -0.20117901265621185,
        0.4449582099914551,
        -0.2139221727848053,
        0.5367510914802551,
        0.10118095576763153,
        0.27213189005851746,
        0.015494250692427158,
        0.3532179892063141,
        -0.34273186326026917,
        -0.1819673627614975,
        -0.1253616362810135,
        0.40598732233047485,
        0.31560033559799194,
        0.2254948616027832,
        0.16765493154525757,
        -0.24358566105365753,
        -0.2606845796108246,
        -0.4254176616668701,
        -0.09697671234607697,
        -0.13660375773906708,
        -0.12968584895133972,
        -0.22121784090995789,
        0.1321689784526825,
        0.10708979517221451,
        0.2050827294588089,
        0.3329465985298157,
        0.49244949221611023,
        -0.19560284912586212,
        -0.4066653549671173,
        0.09449528157711029,
        0.2644234299659729,
        -0.5750598311424255,
        -0.04128463938832283,
        -0.27187830209732056,
        0.4283933937549591,
        -0.02162736840546131,
        0.027391238138079643,
        0.43673455715179443,
        0.39641156792640686,
        0.14086422324180603,
        -0.1760873794555664,
        0.35346367955207825,
        -0.11298730224370956,
        -0.1440187394618988,
        -0.22658637166023254,
        -0.1395704746246338,
        -0.2749430239200592,
        -0.5597959160804749,
        -0.24084433913230896,
        -0.04092228412628174,
        0.2153361439704895,
        -0.3266970217227936,
        -0.16337424516677856,
        -0.23766224086284637,
        0.1738063395023346,
        -0.029682425782084465,
        0.036127928644418716,
        -0.1530553102493286,
        -0.19646796584129333,
        -0.26651445031166077,
        -0.05166032537817955,
        -0.02753267250955105,
        0.19553212821483612,
        -0.41069722175598145,
        0.26848575472831726,
        -0.2902683913707733,
        0.17699751257896423,
        0.2769131064414978,
        -0.5284323692321777,
        -0.29076147079467773,
        0.22482231259346008,
        0.28551289439201355,
        -0.2718517482280731,
        0.18764393031597137,
        -0.04770694300532341,
        0.06965959817171097,
        0.044225629419088364,
        0.37543076276779175,
        0.06501893699169159,
        0.15544863045215607,
        0.05109606310725212,
        0.41827869415283203,
        0.17788314819335938,
        -0.22775007784366608,
        -0.11528759449720383,
        0.27473530173301697,
        -0.08086329698562622,
        0.21027672290802002,
        -0.151148721575737,
        -0.02078351005911827,
        -0.10751288384199142,
        -0.006898604799062014,
        0.26167944073677063,
        0.12179360538721085,
        0.02760334126651287,
        0.30034080147743225,
        -0.09097679704427719,
        -0.1757575273513794,
        -0.2705075740814209,
        0.2179349809885025,
        -0.10508043318986893,
        0.11914142221212387,
        0.17671434581279755,
        0.09376364201307297,
        0.28754591941833496,
        -0.29493609070777893,
        -0.1173110157251358,
        0.21673277020454407,
        -0.07282986491918564,
        0.3540637195110321,
        -0.008337811566889286,
        -0.19264766573905945,
        -0.17041902244091034,
        -0.0015727410791441798,
        0.5811561942100525,
        0.08452653884887695,
        0.022008027881383896,
        0.25662440061569214,
        -0.03366874158382416,
        0.047434188425540924,
        0.07439359277486801,
        0.16233886778354645,
        0.20369379222393036,
        0.3842787742614746,
        0.3991144895553589,
        -0.30944305658340454,
        -0.3564428389072418,
        -0.14685410261154175,
        0.0047762952744960785,
        -0.08307264000177383,
        0.18547828495502472,
        -0.323947012424469,
        0.09435403347015381,
        -0.07329823821783066,
        0.2792243957519531,
        0.6823134422302246,
        -0.34247255325317383,
        0.1241062805056572,
        -0.20674432814121246,
        0.02209766022861004,
        -0.08301600813865662,
        -0.2438879758119583,
        0.3231315612792969,
        0.14599281549453735,
        -0.155125692486763,
        0.0735703781247139,
        -0.3577617108821869,
        -0.4750411808490753,
        0.2733314335346222,
        0.22302132844924927,
        -0.2477215677499771,
        -0.01178951095789671,
        0.1002696305513382,
        0.05419326573610306,
        -0.16455836594104767,
        0.029237229377031326,
        0.13371394574642181,
        -0.24887283146381378,
        -0.1989336907863617,
        -0.33684042096138,
        -0.23815716803073883,
        0.12234443426132202,
        0.07373107969760895,
        -0.371297150850296,
        -0.5853379368782043,
        0.13645680248737335,
        -0.2110467255115509,
        -0.8322569727897644,
        -0.36919689178466797,
        -0.2393936663866043,
        0.500797688961029,
        -0.2642700672149658,
        0.18111680448055267,
        -0.2164410501718521,
        0.22468987107276917,
        0.35300061106681824,
        -0.3179454505443573,
        0.5930519700050354,
        -0.7056992053985596,
        0.32369059324264526,
        0.055300310254096985,
        -0.12371465563774109,
        0.4657267928123474,
        0.42464733123779297,
        -0.04059194400906563,
        -0.18286249041557312,
        0.009222502820193768,
        0.23816853761672974,
        -0.050160620361566544,
        0.03902922943234444,
        -0.3200681209564209,
        -0.0652879998087883,
        0.15993238985538483,
        -0.34443458914756775,
        -0.33515238761901855,
        -0.23876139521598816,
        0.27089372277259827,
        0.16008061170578003,
        0.09360437095165253,
        0.06657199561595917,
        -0.11781944334506989,
        0.1464051455259323,
        0.023874636739492416,
        -0.1353408694267273,
        0.040455471724271774,
        -0.45231232047080994,
        0.24864411354064941,
        -0.17358733713626862,
        -0.5966295599937439,
        0.03739180788397789,
        -0.047255415469408035,
        0.23458707332611084,
        -0.32514187693595886,
        0.06353803724050522,
        0.5908334255218506,
        -0.30365973711013794,
        0.30271464586257935,
        0.18488574028015137,
        0.36785009503364563,
        -0.23108583688735962,
        -0.10381203144788742,
        0.014825884252786636,
        -0.05651647970080376,
        -0.2790859341621399,
        0.0454840324819088,
        -0.22008956968784332,
        -0.34253838658332825,
        0.03824837878346443,
        0.11543378233909607,
        0.4687144458293915,
        -0.0010313751408830285,
        0.06310189515352249,
        -0.13157296180725098,
        -0.16972380876541138,
        0.0030430068727582693,
        -0.3129105865955353,
        -0.4197772443294525,
        -0.17199468612670898,
        0.18918651342391968,
        -0.15253384411334991,
        -0.7843497395515442,
        0.2418016791343689,
        -0.5250396728515625,
        -0.3299286365509033,
        0.18382860720157623,
        0.21883460879325867,
        -0.0757296085357666,
        0.1863483190536499,
        -0.07422782480716705,
        -0.2930053472518921,
        0.211608424782753,
        -0.28122174739837646,
        -0.26820677518844604,
        0.3802502155303955,
        0.2562495470046997,
        0.052412789314985275,
        -0.3959459364414215,
        -0.1637406051158905,
        0.3002011179924011,
        0.05143342912197113,
        0.23568357527256012,
        -0.44114571809768677,
        -0.012289651669561863,
        0.17359940707683563,
        -0.05207774043083191,
        0.03198298439383507,
        0.26495954394340515,
        -0.0811031386256218,
        -0.020325347781181335,
        0.057372067123651505,
        -0.13855014741420746,
        -0.07758413255214691,
        0.49990159273147583,
        0.20524771511554718,
        0.057951897382736206,
        -0.21044921875,
        -0.12170249223709106,
        0.022567639127373695,
        0.10266733914613724,
        0.008141913451254368,
        0.06426411867141724,
        -0.11021687835454941,
        -0.21033421158790588,
        0.11163699626922607,
        -0.28522783517837524,
        0.11924497783184052,
        0.05790037289261818,
        0.082534059882164,
        -0.14012549817562103,
        0.10880694538354874,
        0.5511286854743958,
        -0.2575767934322357,
        -0.07089466601610184,
        -0.18426263332366943,
        -0.01434364914894104,
        0.014454444870352745,
        0.2523466944694519,
        -0.09734001755714417,
        0.011328278109431267,
        -0.06992761045694351,
        0.21029023826122284,
        0.0060564749874174595,
        -0.0930224284529686,
        -0.46545904874801636,
        -0.04807373881340027,
        0.002338526537641883,
        0.12543900310993195,
        0.054142143577337265,
        -0.03591158241033554,
        -0.23421414196491241,
        0.14334483444690704,
        0.06332080066204071,
        -0.5582222938537598,
        -0.054404452443122864,
        0.8675852417945862,
        0.6056784987449646,
        0.9830058813095093,
        0.20706260204315186,
        -0.21489392220973969,
        -0.10787489265203476,
        -0.21002769470214844,
        -0.4019647538661957,
        -0.07679225504398346,
        -0.1990257203578949,
        0.08550266176462173,
        0.5517685413360596,
        0.1422850638628006,
        0.04095856472849846,
        -0.2507815659046173,
        0.010241620242595673,
        0.24025516211986542,
        0.2021033763885498,
        -0.08216399699449539,
        0.015721453353762627,
        0.526077926158905,
        -0.04771826043725014,
        -0.2676493525505066,
        0.3607761263847351,
        -0.11061184853315353,
        -0.18889464437961578,
        0.2133602648973465,
        0.03928495943546295,
        0.21417316794395447,
        -0.19005553424358368,
        0.36973994970321655,
        0.5203811526298523,
        0.27514705061912537,
        0.24837647378444672,
        0.43212851881980896,
        0.2245841771364212,
        -0.02929636277258396,
        0.08203953504562378,
        0.052645303308963776,
        0.04265937954187393,
        -0.12919005751609802,
        -0.29504621028900146,
        0.26598772406578064,
        0.2864235043525696,
        0.3401535451412201,
        0.46613872051239014,
        0.4087338149547577,
        0.3363010585308075,
        -0.2558017373085022,
        -0.48582401871681213,
        -0.4782985746860504,
        -0.4326896369457245,
        -0.6902279853820801,
        -0.5773544311523438,
        0.5772720575332642,
        0.5468581318855286,
        0.7345360517501831,
        0.09403029084205627,
        0.14516018331050873,
        0.042572665959596634,
        0.31816840171813965,
        0.31517738103866577,
        0.4011439383029938,
        -0.02162366360425949,
        0.07043474912643433,
        -0.032321106642484665,
        0.07063037902116776,
        0.3328922390937805,
        -0.1156533882021904,
        -0.45268476009368896,
        -0.023531869053840637,
        -0.29852294921875,
        0.17796355485916138,
        0.157368466258049,
        -0.2597387135028839,
        0.6042402982711792,
        -0.3772556781768799,
        0.6380660533905029,
        -1.0869710445404053,
        -0.21482986211776733,
        0.42764389514923096,
        0.009302500635385513,
        -0.055644456297159195,
        0.04700038209557533,
        -0.05692555755376816,
        0.5158295035362244,
        0.731723427772522,
        0.14886429905891418,
        -0.6984354853630066,
        -0.4089902937412262,
        0.08669531345367432,
        0.010178016498684883,
        -0.055198438465595245,
        -0.008936163038015366,
        0.28578153252601624,
        -0.3275599479675293,
        -0.32725590467453003,
        -0.3269815146923065,
        -0.022877847775816917,
        0.11352754384279251,
        -0.16839179396629333,
        0.19997860491275787,
        0.020391251891851425,
        -0.13130596280097961,
        0.07383773475885391,
        -0.12483543902635574,
        -0.21202701330184937,
        0.053902409970760345,
        -0.4586714208126068,
        0.16460071504116058,
        0.01396823488175869,
        -0.3336285352706909,
        0.32609719038009644,
        -0.09043516963720322,
        0.2084382027387619,
        0.328572154045105,
        0.24898281693458557,
        -0.1404302716255188,
        -0.0464896559715271,
        0.06628040224313736,
        0.2339119017124176,
        0.4836116135120392,
        0.28167781233787537,
        0.2843337655067444,
        -0.23258066177368164,
        -0.03265903890132904,
        0.43030089139938354,
        0.009270446375012398,
        0.06420892477035522,
        0.33841148018836975,
        -0.0375974178314209,
        0.08183757215738297,
        -0.010079587809741497,
        0.05080665275454521,
        -0.435129851102829,
        -0.02386699989438057,
        0.40313923358917236,
        0.03499927371740341,
        -0.1391383558511734,
        0.04567809775471687,
        0.008687523193657398,
        -0.27015599608421326,
        0.49070093035697937,
        0.1509307324886322,
        0.1174345463514328,
        -0.016505949199199677,
        0.024542758241295815,
        0.24136307835578918,
        -0.048084426671266556,
        -0.12600024044513702,
        0.002211428014561534,
        -0.21810704469680786,
        -0.32071438431739807,
        0.044483911246061325,
        -0.013326099142432213,
        -0.40642666816711426,
        -0.330558717250824,
        0.4066433012485504,
        -0.41754433512687683,
        -0.36200982332229614,
        0.5481200218200684,
        0.6417043209075928,
        -0.32874351739883423,
        -0.29704827070236206,
        0.3787603974342346,
        0.06313181668519974,
        -0.626091480255127,
        0.12408827245235443,
        0.2870579957962036,
        0.22820168733596802,
        -0.25720247626304626,
        -0.6981935501098633,
        -0.35383617877960205,
        0.0065630595199763775,
        -0.5159445405006409,
        0.47368597984313965,
        0.014015507884323597,
        -0.035468779504299164,
        -0.17499737441539764,
        -0.11763515323400497,
        0.08062618225812912,
        0.44777536392211914,
        -0.24250037968158722,
        0.12305345386266708,
        -0.26513612270355225,
        -0.024067791178822517,
        -0.1792946308851242,
        0.3302997052669525,
        0.0015487638302147388,
        -0.0663907527923584,
        -0.21847030520439148,
        -0.1237683817744255,
        -0.03365611657500267,
        0.0053706299513578415,
        0.2779732048511505,
        0.08619970828294754,
        -0.3500356674194336,
        0.013496105559170246,
        0.016882890835404396,
        0.13966353237628937,
        0.5025741457939148,
        0.09295088052749634,
        0.22775621712207794,
        0.3426011800765991,
        0.1849088966846466,
        0.005866809282451868,
        -0.06033029779791832,
        -0.28429538011550903,
        -0.3235999643802643,
        0.7441815733909607,
        0.12368393689393997,
        -0.24622207880020142,
        -0.21449647843837738,
        -0.11649137735366821,
        -0.0891197919845581,
        -0.38510575890541077,
        -0.29825976490974426,
        -0.13875533640384674,
        -0.043928362429142,
        -0.2605537176132202,
        -0.35593563318252563,
        -0.418474406003952,
        -0.003528389846906066,
        -0.016842812299728394,
        0.08720076084136963,
        0.011805646121501923,
        0.3937609791755676,
        0.16265882551670074,
        -0.047803182154893875,
        0.09788314253091812,
        0.1840309351682663,
        0.3895735740661621,
        -0.45591744780540466,
        0.30162277817726135,
        -0.05602151155471802,
        -0.06403376162052155,
        -0.5893559455871582,
        -0.019229160621762276,
        0.23022864758968353,
        -0.35745078325271606,
        0.6739902496337891,
        0.3115331530570984,
        -0.32904505729675293,
        0.5156893134117126,
        -0.6470721364021301,
        -0.034847162663936615,
        -0.11801861226558685,
        0.0068691568449139595,
        -0.3428315818309784,
        -0.37100479006767273,
        0.12763553857803345,
        -0.04433776065707207,
        -0.4321533441543579,
        -0.21139897406101227,
        0.28997668623924255,
        0.03231195732951164,
        0.15388506650924683,
        0.009442014619708061,
        -0.5738925933837891,
        -0.22742648422718048,
        0.31037768721580505,
        0.18581093847751617,
        -0.31809166073799133,
        -0.003406933741644025,
        0.08408015966415405,
        -0.05824900418519974,
        0.3299724757671356,
        0.35085490345954895,
        0.062264278531074524,
        -0.23605377972126007,
        -0.13360248506069183,
        0.2589707374572754,
        0.01250194851309061,
        0.3685746192932129,
        0.015696052461862564,
        -0.08515316247940063,
        -0.09442188590765,
        -0.20915555953979492,
        -0.029254550114274025,
        -0.018020089715719223,
        0.19059531390666962,
        -0.16001343727111816,
        -0.06202881783246994,
        -0.21130411326885223,
        -0.3779727816581726,
        0.35260966420173645,
        0.06186414510011673,
        -0.2772253751754761,
        0.3202132284641266,
        0.0006394213996827602,
        0.01914561353623867,
        -0.24161510169506073,
        -0.12234713137149811,
        0.14623089134693146,
        0.32146188616752625,
        -0.07806073874235153,
        -0.10226583480834961,
        -0.22925135493278503,
        0.0026800092309713364,
        0.07994275540113449,
        0.20694662630558014,
        -0.019934652373194695,
        -0.005957936402410269,
        -0.1293972283601761,
        -0.35682323575019836,
        -0.4101623296737671,
        -0.7074002623558044,
        -0.4683757722377777,
        -0.48100003600120544,
        -0.2711212635040283,
        0.21424663066864014,
        -0.03906331583857536,
        0.24472111463546753,
        0.4654114246368408,
        0.15800416469573975,
        -0.21691268682479858,
        -0.35773977637290955,
        -0.3644671142101288,
        0.11164536327123642,
        0.5436115860939026,
        -0.47507837414741516,
        -0.031163353472948074,
        0.3002033233642578,
        -0.05064914748072624,
        -0.09187988191843033,
        -0.35772979259490967,
        0.2337808758020401,
        -0.13010598719120026,
        -0.3137288987636566,
        0.12017103284597397,
        0.2285747230052948,
        0.11432121694087982,
        0.1588992327451706,
        -0.2831033170223236,
        -0.18822942674160004,
        -0.024241037666797638,
        -0.18799538910388947,
        0.27264273166656494,
        -0.08037665486335754,
        0.0546761229634285,
        -0.019358603283762932,
        -0.26587387919425964,
        0.09256637841463089,
        -0.05426371842622757,
        -0.20706906914710999,
        0.30740654468536377,
        -0.048131223767995834,
        0.1840243637561798,
        -0.03425615280866623,
        0.457382470369339,
        0.5052199959754944,
        -0.651157557964325,
        -0.19348685443401337,
        0.05523277446627617,
        0.2182450294494629,
        0.12322646379470825,
        -0.10152675211429596,
        -0.20098935067653656,
        -0.3114258050918579,
        -0.006920078303664923,
        0.2059721052646637,
        0.28045856952667236,
        0.17222419381141663,
        -0.1146712675690651,
        0.25566691160202026,
        0.028466004878282547,
        -0.39283648133277893,
        -0.38391023874282837,
        -0.10597924888134003,
        0.3079676628112793,
        0.07190604507923126,
        -0.010003862902522087,
        0.0771365687251091,
        -0.10535146296024323,
        0.0014889888698235154,
        0.0005511365015991032,
        -0.10617236793041229,
        -0.06232171133160591,
        -0.2309855818748474,
        -0.021662434563040733,
        -0.08908170461654663,
        -0.4801880717277527,
        0.2498392015695572,
        0.4518222212791443,
        0.2298683077096939,
        0.024663589894771576,
        -0.17356275022029877,
        0.4196881651878357,
        0.08924029767513275,
        -0.2251916229724884,
        0.7194032669067383,
        -0.8989382982254028,
        -0.17948085069656372,
        0.25789108872413635,
        -0.6354429721832275,
        0.07506057620048523,
        -0.457561731338501,
        0.601348340511322,
        0.15511004626750946,
        0.33958396315574646,
        0.1127474382519722,
        0.33630457520484924,
        -0.07029905170202255,
        -0.11935625970363617,
        0.11837606132030487,
        -0.11452507227659225,
        -0.07167475670576096,
        -0.21012352406978607,
        0.03250851482152939,
        0.13419577479362488,
        0.1268291175365448,
        0.09149950742721558,
        0.08963996917009354,
        0.1043379157781601,
        0.12494757771492004,
        -0.20552796125411987,
        0.1931348294019699,
        -0.30847156047821045,
        0.19777338206768036,
        0.12894870340824127,
        0.17755469679832458,
        -0.2204623967409134,
        -0.12323276698589325,
        0.08304287493228912,
        -0.208482027053833,
        0.18700797855854034,
        0.3672187924385071,
        -0.14533831179141998,
        -0.17944461107254028,
        -0.020569805055856705,
        0.2067466825246811,
        0.03741319105029106,
        0.16512151062488556,
        -0.12725292146205902,
        -0.17627350986003876,
        -0.22279083728790283,
        0.05734992027282715,
        0.07660552859306335,
        -0.03258838132023811,
        0.08565501868724823,
        0.0007024340447969735,
        0.18851397931575775,
        -0.08811096847057343,
        0.20017941296100616,
        -0.2504288852214813,
        -0.013813887722790241,
        0.12151674926280975,
        0.3371012806892395,
        -0.20116420090198517,
        0.03826575726270676,
        -0.24026039242744446,
        0.16617104411125183,
        0.1228712946176529,
        -0.03045761212706566,
        0.22529153525829315,
        0.029699184000492096,
        -0.09166055917739868,
        0.04788423702120781,
        0.10791505128145218,
        0.19832266867160797,
        1.164976954460144,
        0.07981879264116287,
        0.24293208122253418,
        -0.021193183958530426,
        -0.8394480347633362,
        0.38647016882896423,
        0.6097049117088318,
        0.048397574573755264,
        0.08536157757043839,
        -0.06724358350038528,
        -0.3022921681404114,
        0.2855556309223175,
        0.8785982131958008,
        0.3446653485298157,
        -0.503180742263794,
        -0.5613614916801453,
        -0.2621864080429077,
        0.06395011395215988,
        -0.5915142297744751,
        -0.18971525132656097,
        0.38309746980667114,
        -0.3350318670272827,
        -0.04278593882918358,
        -0.37238749861717224,
        0.13757839798927307,
        0.23901019990444183,
        0.007063796278089285,
        0.12291046977043152,
        -0.06438696384429932,
        0.1478540450334549,
        0.04817407205700874,
        -0.20983053743839264,
        0.13500401377677917,
        -0.1974581629037857,
        -0.1163911297917366,
        -0.38337844610214233,
        0.17216624319553375,
        -0.12208898365497589,
        -0.11524044722318649,
        0.062491826713085175,
        -0.31058812141418457,
        -0.12940481305122375,
        -0.005840448196977377,
        -0.12476545572280884,
        -0.010818039998412132,
        -0.16307388246059418,
        0.1698460876941681,
        -0.10504662245512009,
        0.18248137831687927,
        -0.15451562404632568,
        -0.039661843329668045,
        -0.08191153407096863,
        -0.009796221740543842,
        0.16187770664691925,
        0.07953166961669922,
        -0.09265454113483429,
        -0.3187675476074219,
        0.01330165471881628,
        -0.08268521726131439,
        0.5465996265411377,
        -0.09299822151660919,
        0.18789270520210266,
        0.1251143515110016,
        0.2448171228170395,
        0.5136889815330505,
        -0.3412344455718994,
        -0.014485012739896774,
        0.2052147537469864,
        -0.34936630725860596,
        -0.09251910448074341,
        0.028187358751893044,
        -0.056056227535009384,
        -0.13966114819049835,
        0.08934260159730911,
        -0.2070193737745285,
        -0.15222537517547607,
        -0.22971788048744202,
        0.05923356115818024,
        -0.35685673356056213,
        0.21564482152462006,
        0.29341191053390503,
        0.40499940514564514,
        0.7207933068275452,
        0.061568353325128555,
        0.14637789130210876,
        0.6227675676345825,
        -0.6747117638587952,
        0.30392107367515564,
        0.3212454915046692,
        -0.14652399718761444,
        -0.0012788042658939958,
        0.046159714460372925,
        -0.13106967508792877,
        -0.16502556204795837,
        0.11597940325737,
        0.1588464379310608,
        0.18760192394256592,
        0.18390221893787384,
        0.2839074432849884,
        0.0790114626288414,
        -0.3849056661128998,
        -0.016127854585647583,
        0.22907976806163788,
        -0.10994528234004974,
        -0.1477915346622467,
        -0.1751745641231537,
        0.26751288771629333,
        -0.26808151602745056,
        0.06436523050069809,
        0.28627702593803406,
        0.27910399436950684,
        -0.24960660934448242,
        -0.27828869223594666,
        0.014880568720400333,
        0.1479840725660324,
        0.11069398373365402,
        -0.11320365220308304,
        0.2700985074043274,
        0.1515037715435028,
        -0.35026875138282776,
        0.11486746370792389,
        -0.035669662058353424,
        0.04316017031669617,
        -0.05636781454086304,
        -0.32441022992134094,
        0.1792261004447937,
        0.025982066988945007,
        0.17814655601978302,
        0.13246791064739227,
        -0.1564667969942093,
        0.23772743344306946,
        -0.34920477867126465,
        -0.06732674688100815,
        -0.19442734122276306,
        -0.3027421236038208,
        0.4024241864681244,
        0.42756780982017517,
        -0.0044318148866295815,
        0.05861765518784523,
        0.16267810761928558,
        0.25148457288742065,
        -0.31131717562675476,
        -0.07631286978721619,
        0.03178287297487259,
        -0.05055725947022438,
        -0.19286051392555237,
        -0.4349216818809509,
        -0.21889419853687286,
        -0.3749232888221741,
        -0.31801244616508484,
        -0.05732126533985138,
        -0.13551579415798187,
        -0.7713541388511658,
        -0.12191176414489746,
        0.7713729739189148,
        0.31511390209198,
        -0.6880218386650085,
        -0.42440325021743774,
        -0.30661389231681824,
        0.23926402628421783,
        0.2423992156982422,
        -0.22692003846168518,
        0.27867811918258667,
        0.5153082609176636,
        0.11791893094778061,
        0.7204621434211731,
        0.02558661252260208,
        0.10533339530229568,
        0.10862591862678528,
        -0.2948344349861145,
        0.19762253761291504,
        -0.5267597436904907,
        -0.04961096867918968,
        0.08588342368602753,
        -0.5039033889770508,
        -0.08137429505586624,
        -0.4444916844367981,
        -0.15598653256893158,
        -0.062373965978622437,
        0.03447611629962921,
        -0.08157624304294586,
        0.07601848989725113,
        0.1089085191488266,
        -0.17960888147354126,
        0.0020229173824191093,
        0.1837180256843567,
        -0.31939077377319336,
        0.014745042659342289,
        0.06082869693636894,
        0.5308588743209839,
        0.0025392454117536545,
        0.29889339208602905,
        0.216993510723114,
        0.11973801255226135,
        0.11903384327888489,
        0.15710414946079254,
        0.00496950326487422,
        0.09892000257968903,
        -0.16375751793384552,
        -0.051367517560720444,
        -0.299871563911438,
        0.01579381711781025,
        0.056534793227910995,
        0.34088343381881714,
        0.0034588987473398447,
        0.10828227549791336,
        -0.021989455446600914,
        0.21020600199699402,
        -0.01025589369237423,
        -0.08602945506572723,
        -0.032507043331861496,
        0.06860348582267761,
        0.2589990794658661,
        0.018825989216566086,
        -0.042657554149627686,
        -0.2701592743396759,
        0.24283409118652344,
        -0.0713893324136734,
        0.10760027170181274,
        0.18126700818538666,
        -0.17490415275096893,
        -0.2600128650665283,
        -0.35021647810935974,
        -0.10892444103956223,
        0.21793873608112335,
        -0.33453911542892456,
        0.16009588539600372,
        -0.5382516384124756,
        -0.3706348240375519,
        -0.30003681778907776,
        -0.4641404151916504,
        0.8969612121582031,
        0.522990345954895,
        -0.07788677513599396,
        0.2263420820236206,
        -0.29259192943573,
        0.41047877073287964,
        -0.02707233652472496,
        -0.05108402669429779,
        -0.6096680164337158,
        0.4464416205883026,
        0.24792543053627014,
        0.01767870970070362,
        0.06799892336130142,
        -0.44093650579452515,
        0.36606311798095703,
        0.15192267298698425,
        0.16945549845695496,
        -0.02584725432097912,
        0.0455201119184494,
        0.3933822214603424,
        -0.014651583507657051,
        0.06314808130264282,
        0.07491331547498703,
        -0.12211158126592636,
        0.07344182580709457,
        -0.1727914810180664,
        -0.06565284729003906,
        -0.03656558692455292,
        0.6448784470558167,
        0.02151508256793022,
        -0.14160121977329254,
        -0.21849718689918518,
        -0.03387767821550369,
        -0.07072034478187561,
        -0.07931333780288696,
        -0.007080891635268927,
        -0.18148167431354523,
        -0.07843238115310669,
        0.032490041106939316,
        0.13422733545303345,
        0.0802878886461258,
        0.022769464179873466,
        -0.0227937214076519,
        0.3320273160934448,
        0.031520165503025055,
        0.031647223979234695,
        0.06430218368768692,
        0.14348123967647552,
        -0.010697528719902039,
        -0.07536160945892334,
        0.020937880501151085,
        -0.015404040925204754,
        0.41316530108451843,
        0.05015144497156143,
        0.10484772175550461,
        -0.014412779361009598,
        -0.02459719590842724,
        -0.16859714686870575,
        0.07330206036567688,
        -0.04410865157842636,
        -0.12257540971040726,
        0.21849094331264496,
        0.04087793827056885,
        0.14782986044883728,
        -0.1568610966205597,
        -0.02855207957327366,
        -0.12506340444087982,
        0.0016991737065836787,
        -0.31921520829200745,
        0.7627822160720825,
        -0.03247588500380516,
        -0.09951348602771759,
        -0.8316537737846375,
        -0.12091034650802612,
        -0.04836457967758179,
        -0.23046547174453735,
        0.3559243679046631,
        0.2869518995285034,
        -0.44128191471099854,
        -0.050015389919281006,
        0.1681065559387207,
        0.4823986291885376,
        -0.11955636739730835,
        0.3069649934768677,
        -0.028011441230773926,
        -0.1917715072631836,
        0.30598050355911255,
        -0.4455450773239136,
        0.41890019178390503,
        0.4994143843650818,
        -0.1365121603012085,
        0.1975109577178955,
        0.49860215187072754,
        0.8865724802017212,
        0.8776477575302124,
        0.77828049659729,
        -0.9432185292243958,
        0.27363380789756775,
        0.019999999552965164
    ]
}