{
    "version": "0.5.0",
    "architecture": "WaveNet",
    "config": {
        "layers": [
            {
                "input_size": 1,
                "condition_size": 1,
                "head_size": 6,
                "channels": 12,
                "kernel_size": 3,
                "dilations": [
                    1,
                    2,
                    4,
                    8,
                    16,
                    32,
                    64
                ],
                "activation": "Tanh",
                "gated": false,
                "head_bias": false
            },
            {
                "input_size": 12,
                "condition_size": 1,
                "head_size": 1,
                "channels": 6,
                "kernel_size": 3,
                "dilations": [
                    128,
                    256,
                    512,
                    1,
                    2,
                    4,
                    8,
                    16,
                    32,
                    64,
                    128,
                    256,
                    512
                ],
                "activation": "Tanh",
                "gated": false,
                "head_bias": true
            }
        ],
        "head": null,
        "head_scale": 0.02
    },
    "weights": [
        0.0010104583343490958,
        0.5514333248138428,
        -0.9409610629081726,
        -0.8127185702323914,
        -0.39958906173706055,
        0.3823148310184479,
        0.00445187371224165,
        0.9304412007331848,
        -0.043526988476514816,
        0.04141933098435402,
        -0.40808987617492676,
        -0.2062297910451889,
        0.09316271543502808,
        0.006583194248378277,
        0.17166176438331604,
        -0.08674538135528564,
        -0.11315219849348068,
        0.17996558547019958,
        -0.014451264403760433,
        0.11281649023294449,
        -0.015309964306652546,
        0.2354908436536789,
        0.14902108907699585,
        0.04713607206940651,
        0.059869375079870224,
        0.1909339874982834,
        0.06182914972305298,
        -0.23982712626457214,
        -0.27642571926116943,
        0.04964783415198326,
        0.014291361905634403,
        0.138892263174057,
        0.10753414779901505,
        -0.1755802184343338,
        -0.30271053314208984,
        -0.08040834963321686,
        -0.035972531884908676,
        0.2985495626926422,
        -0.02646161988377571,
        0.007426081690937281,
        -0.15537193417549133,
        -0.00038759203744120896,
        0.11297561973333359,
        0.0157656017690897,
        -0.21286089718341827,
        -0.007375032175332308,
        0.27046677470207214,
        -0.002606057794764638,
        -0.0487121120095253,
        0.11486842483282089,
        0.04328903928399086,
        0.3532356023788452,
        0.1274864226579666,
        -0.17860884964466095,
        -0.08126503974199295,
        -0.16318157315254211,
        0.23134122788906097,
        -0.3195610046386719,
        -0.17761029303073883,
        0.11637603491544724,
        -0.10561120510101318,
        0.014295162633061409,
        0.11524148285388947,
        0.22956138849258423,
        0.141483336687088,
        -0.23841789364814758,
        0.10626087337732315,
        0.05257295072078705,
        -0.07135652005672455,
        0.3544672131538391,
        -0.062236785888671875,
        -0.26096031069755554,
        -0.10685652494430542,
        0.08065551519393921,
        0.3451782166957855,
        0.31219637393951416,
        0.079860620200634,
        -0.3635265827178955,
        -0.16412603855133057,
        -0.1533656269311905,
        0.06355070322751999,
        -0.027474800124764442,
        0.0813649445772171,
        0.06304842233657837,
        0.08506961166858673,
        -0.05895683169364929,
        0.03857767954468727,
        -0.05052619054913521,
        -0.10816621035337448,
        0.04956066235899925,
        0.03966429829597473,
        0.2621493637561798,
        -0.026441827416419983,
        0.039279755204916,
        0.01097970362752676,
        -0.2553465664386749,
        0.049093570560216904,
        0.19964037835597992,
        -0.2903673052787781,
        -0.06002698466181755,
        -0.006293857004493475,
        0.27528393268585205,
        0.029283953830599785,
        -0.10252847522497177,
        0.033378977328538895,
        0.018164275214076042,
        -0.3043820559978485,
        0.017086122184991837,
        -0.059250377118587494,
        0.17276522517204285,
        -0.23567049205303192,
        0.1441052109003067,
        -0.2442358136177063,
        0.3142625391483307,
        0.07717780768871307,
        0.022948574274778366,
        -0.20513975620269775,
        -0.03435669094324112,
        0.1785268634557724,
        -0.13479426503181458,
        -0.2617597281932831,
        -0.10029911994934082,
        -0.2310873419046402,
        0.21929796040058136,
        -0.13267898559570312,
        -0.23543980717658997,
        -0.18666520714759827,
        -0.11253419518470764,
        0.07626999914646149,
        -0.28143736720085144,
        -0.06583418697118759,
        0.17121200263500214,
        -0.2434895932674408,
        -0.03074587881565094,
        0.2642604410648346,
        0.11729979515075684,
        0.025430670008063316,
        -0.1627969890832901,
        0.10944706201553345,
        0.13291022181510925,
        0.0036657024174928665,
        0.25070086121559143,
        0.18999390304088593,
        -0.14720597863197327,
        -0.2467225193977356,
        -0.08568739891052246,
        0.272405207157135,
        0.10584734380245209,
        -0.0553298257291317,
        -0.2604284882545471,
        -0.2911961078643799,
        -0.16084623336791992,
        0.11632027477025986,
        -0.03543667867779732,
        0.06848947703838348,
        -0.011765418574213982,
        -0.14008012413978577,
        -0.21254125237464905,
        -0.16520625352859497,
        0.01973971538245678,
        0.14152798056602478,
        0.0246538445353508,
        -0.24283190071582794,
        -0.3235214054584503,
        -0.08674463629722595,
        -0.08916766196489334,
        -0.25285956263542175,
        0.003736851504072547,
        -0.23051917552947998,
        -0.1784513294696808,
        0.09827911108732224,
        0.010365745052695274,
        0.3153802454471588,
        0.10665514320135117,
        -0.2023283690214157,
        0.14217102527618408,
        -0.04301239550113678,
        0.01986289583146572,
        0.31424251198768616,
        -0.07294847071170807,
        -0.041011273860931396,
        -0.1885266751050949,
        0.0717151015996933,
        0.1176418885588646,
        0.242357537150383,
        0.09372662752866745,
        -0.1183263286948204,
        -0.20018534362316132,
        -0.18331848084926605,
        0.017549429088830948,
        -0.027759429067373276,
        0.07591859251260757,
        0.046137336641550064,
        -0.09305267781019211,
        -0.13970059156417847,
        0.29960423707962036,
        0.5033616423606873,
        0.29311856627464294,
        -0.49776405096054077,
        -0.6098547577857971,
        -0.23239286243915558,
        -0.29090040922164917,
        -0.734120786190033,
        -0.35528916120529175,
        -0.4983116090297699,
        -0.4904366135597229,
        -0.300040602684021,
        0.5521149039268494,
        0.6763927936553955,
        0.2676951289176941,
        0.14264407753944397,
        0.16650351881980896,
        -0.08401902765035629,
        0.36404573917388916,
        0.607352614402771,
        0.2617664337158203,
        -0.5246331095695496,
        -0.6356989741325378,
        -0.06289378553628922,
        0.24303603172302246,
        0.5099921822547913,
        0.34762832522392273,
        -0.3524382412433624,
        -0.6140022873878479,
        -0.39029771089553833,
        -0.3264971673488617,
        -0.7176005840301514,
        -0.28305888175964355,
        -0.2172856330871582,
        -0.24286869168281555,
        -0.11049330234527588,
        -0.06123458221554756,
        -0.058411385864019394,
        0.1896742284297943,
        0.3015475869178772,
        -0.026603445410728455,
        0.03211849555373192,
        0.08112996816635132,
        0.00761803425848484,
        0.006399153731763363,
        0.24162332713603973,
        0.19245819747447968,
        -0.10708598792552948,
        -0.18322709202766418,
        0.023398039862513542,
        -0.10313527286052704,
        0.0628199353814125,
        -0.14824128150939941,
        0.06235985830426216,
        -0.22890710830688477,
        -0.1678047925233841,
        0.06373246759176254,
        0.312253475189209,
        0.019727477803826332,
        -0.1444919854402542,
        -0.18459674715995789,
        -0.19109007716178894,
        0.1602015644311905,
        0.10632336884737015,
        -0.0451330840587616,
        -0.15040835738182068,
        0.26477012038230896,
        0.13864251971244812,
        0.05579962953925133,
        0.187079519033432,
        -0.07141494005918503,
        0.04104027897119522,
        -0.05565882474184036,
        0.03052726946771145,
        0.09849298745393753,
        0.028869107365608215,
        0.030903417617082596,
        -0.20980829000473022,
        0.14289818704128265,
        0.014259245246648788,
        -0.2018890678882599,
        0.24394147098064423,
        -0.00934651494026184,
        -0.08174659311771393,
        -0.04915114864706993,
        -0.09125923365354538,
        -0.04601137712597847,
        -0.19866254925727844,
        0.0586693249642849,
        0.08601074665784836,
        0.030843082815408707,
        -0.16504158079624176,
        0.1018417477607727,
        0.03361951559782028,
        0.0787612646818161,
        -0.17262296378612518,
        -0.015917690470814705,
        -0.030064335092902184,
        0.06461726129055023,
        0.0592048279941082,
        -0.006691615562886,
        0.049464866518974304,
        -0.032816868275403976,
        0.16028016805648804,
        -0.12805643677711487,
        0.08717978745698929,
        0.3913327157497406,
        0.09366235136985779,
        0.2790161371231079,
        0.20790114998817444,
        -0.18915627896785736,
        -0.2174433022737503,
        -0.10861600935459137,
        0.12979735434055328,
        -0.26430830359458923,
        -0.31349244713783264,
        0.040125589817762375,
        -0.17372561991214752,
        -0.22830188274383545,
        0.1412201076745987,
        0.34293174743652344,
        0.07964558899402618,
        -0.07838533073663712,
        0.3261006772518158,
        0.25188252329826355,
        0.05255892500281334,
        0.2677822709083557,
        0.050771165639162064,
        -0.04953249171376228,
        -0.10531415790319443,
        -0.02372291497886181,
        0.1666734218597412,
        0.20098018646240234,
        0.23146674036979675,
        -0.16473965346813202,
        -0.36872321367263794,
        -0.30971211194992065,
        0.24672356247901917,
        -0.11469386518001556,
        -0.27729278802871704,
        0.15659485757350922,
        -0.021541349589824677,
        -0.12526170909404755,
        -0.08946917951107025,
        0.031184067949652672,
        -0.16401496529579163,
        -0.08146383613348007,
        0.2377624660730362,
        0.22184394299983978,
        -0.07650158554315567,
        0.2494429349899292,
        0.2074085921049118,
        0.11371472477912903,
        -0.018150823190808296,
        0.163303941488266,
        -0.04724491760134697,
        0.0487680658698082,
        -0.14108207821846008,
        0.057507675141096115,
        0.025396060198545456,
        -0.010232171043753624,
        -0.09101995825767517,
        -0.020170267671346664,
        -0.245969757437706,
        0.012867201119661331,
        -0.041544895619153976,
        -0.048612192273139954,
        -0.11407984048128128,
        0.06966521590948105,
        -0.012996142730116844,
        0.15417511761188507,
        0.21650099754333496,
        -0.03534112125635147,
        -0.10386017709970474,
        0.04427683725953102,
        -0.005023500882089138,
        0.11189485341310501,
        0.023728633299469948,
        -0.062251459807157516,
        -0.020486317574977875,
        -0.15285459160804749,
        -0.032366737723350525,
        0.21467643976211548,
        0.18210622668266296,
        0.30347543954849243,
        0.07275424152612686,
        0.018833037465810776,
        0.24629615247249603,
        0.07172199338674545,
        0.10509723424911499,
        0.32856884598731995,
        -0.003502765204757452,
        0.05587545037269592,
        -0.21800744533538818,
        0.17310917377471924,
        0.12775668501853943,
        -0.03381242975592613,
        0.12018977850675583,
        -0.15667472779750824,
        -0.30401647090911865,
        0.18715251982212067,
        0.14827096462249756,
        0.1289128214120865,
        -0.19615516066551208,
        0.09223459661006927,
        -0.04164035618305206,
        0.10366504639387131,
        -0.030998656526207924,
        0.31362494826316833,
        -0.024726569652557373,
        -0.0861487090587616,
        0.3114209473133087,
        0.02220153994858265,
        -0.016228722408413887,
        -0.018363114446401596,
        -0.08166339248418808,
        -0.07356537133455276,
        -0.011694775894284248,
        0.11262008547782898,
        -0.06688473373651505,
        0.10200037062168121,
        -0.14927485585212708,
        0.017555085942149162,
        0.1716480404138565,
        0.04873986914753914,
        0.04773189127445221,
        0.04257805645465851,
        -0.1087021604180336,
        0.04505245387554169,
        -0.05829513072967529,
        -0.030189575627446175,
        0.09078826755285263,
        -0.10561506450176239,
        0.138212651014328,
        0.009194138459861279,
        -0.2766159772872925,
        0.16606774926185608,
        0.15448005497455597,
        0.1383306086063385,
        -0.23850713670253754,
        -0.08005934953689575,
        -0.0961931124329567,
        -0.008410881273448467,
        0.11748617887496948,
        -0.009657863527536392,
        -0.28196194767951965,
        -0.13378305733203888,
        0.10126698017120361,
        -0.018986765295267105,
        -0.18727369606494904,
        0.15576879680156708,
        -0.1253708004951477,
        -0.013959430158138275,
        -0.042660903185606,
        -0.4979136884212494,
        0.19454748928546906,
        0.06202978640794754,
        0.3237047493457794,
        0.106208935379982,
        -0.12339790165424347,
        0.11920872330665588,
        0.11808408051729202,
        0.2860095500946045,
        -0.6689804792404175,
        -0.4136572778224945,
        -0.9106073379516602,
        -0.15519852936267853,
        0.24742864072322845,
        -0.7422795295715332,
        0.2673186957836151,
        0.5007154941558838,
        0.20169208943843842,
        -0.5774919986724854,
        -0.12432614713907242,
        -0.19595086574554443,
        0.2482108473777771,
        0.15173102915287018,
        0.026183512061834335,
        0.03806065022945404,
        0.11670031398534775,
        -0.1152622401714325,
        -0.3000960052013397,
        0.17587599158287048,
        -0.05582365766167641,
        0.25180381536483765,
        -0.32371723651885986,
        -0.023513084277510643,
        -0.3466198146343231,
        0.28504934906959534,
        0.12501907348632812,
        0.13288837671279907,
        0.1143234595656395,
        0.15137328207492828,
        0.05422486737370491,
        -0.2147519588470459,
        -0.22645694017410278,
        -0.03280099853873253,
        0.23490872979164124,
        -0.31514284014701843,
        0.35624706745147705,
        -0.0036182093899697065,
        -0.337024986743927,
        -0.032799091190099716,
        0.3228226602077484,
        0.3259769678115845,
        -0.2793113887310028,
        0.3032163977622986,
        0.2689383029937744,
        0.2949317395687103,
        0.41621100902557373,
        -0.3268021047115326,
        0.23525862395763397,
        0.051910363137722015,
        -0.2324800193309784,
        0.25553077459335327,
        -0.04698086529970169,
        0.17110344767570496,
        -0.2391231805086136,
        -0.024006104096770287,
        0.2647540867328644,
        0.1329212337732315,
        -0.010631722398102283,
        -0.038606442511081696,
        0.26674771308898926,
        0.03506815806031227,
        -0.11798138916492462,
        0.058180198073387146,
        0.08202608674764633,
        -0.2035418003797531,
        -0.27568233013153076,
        -0.07212813943624496,
        0.4141065180301666,
        -0.04749142378568649,
        -0.06756488233804703,
        0.0941474437713623,
        0.17555691301822662,
        0.3974013328552246,
        -0.09394414722919464,
        -0.31684765219688416,
        -0.38555192947387695,
        -0.11321281641721725,
        0.049284376204013824,
        -0.26941290497779846,
        -0.1535951942205429,
        -0.04072178155183792,
        -0.13855081796646118,
        0.05409161373972893,
        -0.1002318412065506,
        -0.16885840892791748,
        0.13744667172431946,
        0.2261839509010315,
        -0.24967704713344574,
        0.0003043286269530654,
        -0.2185131162405014,
        0.1706462949514389,
        -0.3409273028373718,
        -0.3825902044773102,
        0.1572076678276062,
        -0.16745680570602417,
        -0.14248321950435638,
        -0.12436036020517349,
        0.09859931468963623,
        -0.10344776511192322,
        0.13659298419952393,
        -0.11053154617547989,
        -0.27380406856536865,
        -0.2550489008426666,
        -0.2952890992164612,
        -0.07793685048818588,
        -0.25861865282058716,
        0.3174477517604828,
        -0.14985531568527222,
        -0.2968105971813202,
        0.11779598891735077,
        0.04236448556184769,
        0.2766202986240387,
        0.06079418957233429,
        0.011803681962192059,
        -0.1051647812128067,
        -0.055197615176439285,
        0.20572832226753235,
        0.052129894495010376,
        -0.44773104786872864,
        0.27895262837409973,
        0.19645388424396515,
        -0.18315793573856354,
        -0.15758869051933289,
        -0.16785556077957153,
        0.08837323635816574,
        -0.17281894385814667,
        -0.03818502649664879,
        0.2536907494068146,
        0.1851019263267517,
        0.2939542233943939,
        0.12003936618566513,
        0.025235140696167946,
        -0.11687228083610535,
        -0.32781776785850525,
        0.43270283937454224,
        0.23585563898086548,
        0.1775858849287033,
        -0.3634691536426544,
        0.3379521667957306,
        0.36647048592567444,
        0.35338765382766724,
        -0.13698571920394897,
        -0.1736169457435608,
        0.03605639189481735,
        0.3622990548610687,
        -0.4144950807094574,
        -0.1277807354927063,
        0.20191511511802673,
        0.03287476673722267,
        -0.16164106130599976,
        0.20229829847812653,
        0.15879321098327637,
        0.03802678361535072,
        0.2504793107509613,
        -0.08611853420734406,
        0.16785278916358948,
        0.24229303002357483,
        0.14562088251113892,
        -0.08691373467445374,
        0.17579469084739685,
        -0.052239593118429184,
        -0.14324870705604553,
        0.29910868406295776,
        0.2131805568933487,
        -0.2785084545612335,
        -0.09844956547021866,
        -0.12270966172218323,
        0.06355855613946915,
        -0.03426899015903473,
        -0.38939228653907776,
        0.1628313958644867,
        0.12084455788135529,
        0.26512932777404785,
        -0.057546742260456085,
        -0.005985725205391645,
        0.22492343187332153,
        -0.15517917275428772,
        -0.079277403652668,
        -0.037755150347948074,
        -0.19884619116783142,
        0.23960936069488525,
        0.13478176295757294,
        -0.3485853970050812,
        -0.0020415608305484056,
        -0.17271623015403748,
        -0.021372469142079353,
        0.04371566325426102,
        -0.5656821727752686,
        0.5967214107513428,
        -0.10630772262811661,
        -0.13647958636283875,
        -0.04974161088466644,
        -0.14873230457305908,
        0.15216441452503204,
        -0.27749505639076233,
        -0.14699330925941467,
        0.07362232357263565,
        0.056155771017074585,
        0.17555469274520874,
        0.036521945148706436,
        0.06918592005968094,
        0.023744331672787666,
        -0.05377315357327461,
        0.10196468234062195,
        -0.2995399832725525,
        0.157403364777565,
        0.12566086649894714,
        0.14752499759197235,
        -0.004530567675828934,
        -0.08219252526760101,
        0.38361701369285583,
        -0.19914013147354126,
        0.008566530421376228,
        0.16090841591358185,
        0.01848406158387661,
        0.054137591272592545,
        -0.22001181542873383,
        -0.13472196459770203,
        0.663966715335846,
        0.022352060303092003,
        0.002741327043622732,
        0.12289828807115555,
        0.049304839223623276,
        0.5216579437255859,
        -0.0003735642821993679,
        -0.10239517688751221,
        0.0572219118475914,
        0.14305463433265686,
        -0.028284912928938866,
        0.04471421241760254,
        0.05142809450626373,
        0.2611739933490753,
        -0.2711375653743744,
        -0.154120534658432,
        0.26934292912483215,
        0.04774383828043938,
        -0.12713783979415894,
        0.08847720175981522,
        -0.15231187641620636,
        0.10905347764492035,
        0.0746743232011795,
        0.096102274954319,
        -0.11441058665513992,
        -0.19544167816638947,
        -0.12242694944143295,
        0.06809334456920624,
        -0.07133293896913528,
        -0.08710279315710068,
        0.2992144227027893,
        -0.08069241791963577,
        0.06383441388607025,
        0.1656002253293991,
        -0.16050192713737488,
        -0.009915322996675968,
        -0.2892366051673889,
        0.14980573952198029,
        0.0014365558745339513,
        -0.18850912153720856,
        0.26153334975242615,
        -0.009046542458236217,
        0.019862163811922073,
        0.17928650975227356,
        -0.017895089462399483,
        -0.12421318143606186,
        -0.08772456645965576,
        -0.13214537501335144,
        0.16743065416812897,
        0.06295733898878098,
        -0.3032962679862976,
        0.19659914076328278,
        -0.07771442830562592,
        -0.06399610638618469,
        0.3020743429660797,
        -0.007445256691426039,
        -0.00848328322172165,
        -0.16445791721343994,
        0.18919043242931366,
        0.02721129171550274,
        0.016240401193499565,
        0.041739121079444885,
        -0.1747160404920578,
        -0.28775230050086975,
        -0.016877347603440285,
        0.0316036194562912,
        -0.23453554511070251,
        0.09937130659818649,
        0.11148452758789062,
        0.02268994227051735,
        -0.15773189067840576,
        0.5043941736221313,
        0.5757996439933777,
        -0.10118339955806732,
        0.007267668377608061,
        0.1673480123281479,
        0.39123809337615967,
        0.19125516712665558,
        0.38441571593284607,
        -0.1401851326227188,
        0.14421844482421875,
        -0.10573086887598038,
        -0.1686372011899948,
        -0.0305411908775568,
        0.028043411672115326,
        -0.11254875361919403,
        -0.06710720807313919,
        -0.2875928282737732,
        -0.007288406137377024,
        0.09077989310026169,
        0.28070515394210815,
        -0.17148931324481964,
        -0.0845862403512001,
        0.000144189631100744,
        -0.18409554660320282,
        -0.09061826765537262,
        0.07310590893030167,
        0.10366959869861603,
        0.032535966485738754,
        0.1827876716852188,
        -0.15074442327022552,
        0.21943959593772888,
        -0.16535086929798126,
        -0.22341826558113098,
        0.09965750575065613,
        -0.024361997842788696,
        0.31247928738594055,
        0.1053953766822815,
        -0.5550389289855957,
        -0.03586089238524437,
        -0.2033977061510086,
        0.0396244190633297,
        -0.19617480039596558,
        -0.2730776071548462,
        0.03391142189502716,
        0.20057204365730286,
        0.18550729751586914,
        0.010095813311636448,
        -0.08077210187911987,
        -0.06596250832080841,
        -0.12132475525140762,
        -0.1040562316775322,
        -0.02432349883019924,
        0.2263706773519516,
        -0.13923318684101105,
        0.08800193667411804,
        -0.1820524036884308,
        -0.06294330209493637,
        0.12084325402975082,
        0.10816357284784317,
        -0.041244275867938995,
        -0.04832948371767998,
        0.15133245289325714,
        -0.09842415899038315,
        0.023208169266581535,
        -0.035429902374744415,
        -0.1194760650396347,
        0.2019760012626648,
        0.10691648721694946,
        -0.12397323548793793,
        0.18912160396575928,
        -0.048551030457019806,
        0.4713139235973358,
        0.4853927493095398,
        -0.5159079432487488,
        0.05967550352215767,
        -0.14055101573467255,
        -0.006176366470754147,
        -0.057302381843328476,
        -0.3403434753417969,
        0.27577194571495056,
        0.00043854682007804513,
        0.04199457913637161,
        0.013659481890499592,
        -0.1522524654865265,
        -0.02240840718150139,
        -0.15664042532444,
        -0.19567500054836273,
        0.18252623081207275,
        0.18759289383888245,
        -0.05805552378296852,
        -0.01465255580842495,
        0.06145530194044113,
        -0.04497528821229935,
        0.08550606667995453,
        0.015187286771833897,
        0.041030291467905045,
        0.17766685783863068,
        -0.12787578999996185,
        0.06852100044488907,
        0.02133885771036148,
        0.07410581409931183,
        0.02936546318233013,
        -0.12075411528348923,
        0.14543834328651428,
        -0.042587071657180786,
        -0.1222444698214531,
        0.15310314297676086,
        -0.12425047159194946,
        0.06692588329315186,
        -0.17059436440467834,
        0.0717073604464531,
        -0.16279686987400055,
        0.007747439667582512,
        0.22852177917957306,
        0.29903075098991394,
        -0.004951244220137596,
        0.10606057196855545,
        -0.19720138609409332,
        -0.11106490343809128,
        -0.033638741821050644,
        -0.01616707630455494,
        0.09963500499725342,
        -0.07962871342897415,
        -0.21001696586608887,
        -0.06993177533149719,
        0.06931612640619278,
        0.06723900884389877,
        0.15190334618091583,
        -0.07895507663488388,
        0.007284196093678474,
        -0.22267654538154602,
        0.18272049725055695,
        -0.013558643870055676,
        -0.11851340532302856,
        -0.3262695074081421,
        0.07183100283145905,
        0.07061150670051575,
        -0.19022323191165924,
        -0.006947789806872606,
        -0.19450539350509644,
        -0.16246944665908813,
        0.12316177040338516,
        -0.08889342099428177,
        0.4673212766647339,
        0.4630140960216522,
        0.34604108333587646,
        -0.10224062204360962,
        -0.07246802747249603,
        -0.31539690494537354,
        0.29577818512916565,
        -0.20199628174304962,
        -0.08083398640155792,
        0.24958281219005585,
        0.14458467066287994,
        0.10178962349891663,
        -0.07892008125782013,
        -0.004484955221414566,
        -0.10086718946695328,
        -0.31032460927963257,
        -0.10638689249753952,
        -0.12153301388025284,
        0.031270526349544525,
        0.27397385239601135,
        0.2777807116508484,
        0.12139765173196793,
        0.0601554736495018,
        0.13414238393306732,
        -0.03215109184384346,
        -0.10241229087114334,
        -0.02286597155034542,
        0.23993419110774994,
        0.004566594492644072,
        -0.0362049825489521,
        0.03873029723763466,
        -0.16416721045970917,
        0.05326443165540695,
        0.22941340506076813,
        -0.20770768821239471,
        -0.021895404905080795,
        -0.8305105566978455,
        -0.12496421486139297,
        -0.11856808513402939,
        0.1927286833524704,
        -0.07663040608167648,
        -0.050674062222242355,
        0.1542992740869522,
        0.1263112723827362,
        -0.03802381083369255,
        0.08582202345132828,
        0.16219432651996613,
        0.4228418469429016,
        -0.13694946467876434,
        -0.01283612847328186,
        -0.18392688035964966,
        0.3137742578983307,
        -0.003105275798588991,
        -0.1747235655784607,
        -0.07883010804653168,
        -0.2867376208305359,
        -0.28910183906555176,
        0.08478245884180069,
        -0.04009014740586281,
        -0.13958512246608734,
        -0.028746481984853745,
        -0.20465773344039917,
        0.0012889415957033634,
        0.10779952257871628,
        0.14651913940906525,
        -0.12697389721870422,
        -0.03371628001332283,
        0.14954711496829987,
        -0.08027791976928711,
        -0.13114015758037567,
        0.06633669137954712,
        0.02317824587225914,
        -0.2761901319026947,
        -0.1523694545030594,
        0.47961243987083435,
        0.20025871694087982,
        -0.0998726338148117,
        0.13532434403896332,
        -0.04885023459792137,
        -0.05169844627380371,
        -0.021874237805604935,
        0.21341930329799652,
        0.16678915917873383,
        0.0911383181810379,
        -0.054280854761600494,
        0.10053178668022156,
        0.06834408640861511,
        0.010186328552663326,
        0.26984739303588867,
        -0.25495389103889465,
        -0.21581141650676727,
        0.03270101174712181,
        -0.1907034069299698,
        0.0772668644785881,
        -0.04598480463027954,
        -0.04032762348651886,
        -0.05020789057016373,
        0.0031851439271122217,
        0.009081781841814518,
        0.029102694243192673,
        0.04929869994521141,
        0.08278055489063263,
        -0.04054858162999153,
        -0.012446763925254345,
        -0.005668208468705416,
        0.017687292769551277,
        -0.12034111469984055,
        0.01812126114964485,
        0.011552778072655201,
        0.35344910621643066,
        0.0883278176188469,
        0.03904226794838905,
        -0.10113286972045898,
        -0.04825378954410553,
        0.12953738868236542,
        0.10421285033226013,
        0.0020110420882701874,
        -0.07094445824623108,
        -0.1381109058856964,
        -0.07994624972343445,
        0.04698140546679497,
        0.11751741170883179,
        -0.03623434901237488,
        -0.0823504626750946,
        -0.11148011684417725,
        0.13348564505577087,
        -0.0017558280378580093,
        -0.06874954700469971,
        0.10398788750171661,
        0.07580800354480743,
        -0.12005653232336044,
        -0.07683593779802322,
        0.026026198640465736,
        0.08525680005550385,
        -0.21633444726467133,
        -0.10993640869855881,
        -0.05367365851998329,
        -0.061698537319898605,
        0.13342297077178955,
        0.029482094570994377,
        0.044909726828336716,
        0.0365278534591198,
        -0.0672457218170166,
        0.04949718713760376,
        0.23271077871322632,
        -0.04355933517217636,
        0.22402818500995636,
        -0.14479419589042664,
        0.1714085191488266,
        -0.11017746478319168,
        0.2690545618534088,
        0.3290739953517914,
        -0.13891105353832245,
        0.018319301307201385,
        -0.07396438717842102,
        0.1457514464855194,
        0.1547470986843109,
        -0.12735608220100403,
        0.19476507604122162,
        -0.08982609957456589,
        -0.16704405844211578,
        0.06604649126529694,
        0.11802271753549576,
        -0.1691799759864807,
        -0.03149592503905296,
        0.0321197509765625,
        0.02994650974869728,
        0.14735357463359833,
        -0.14710035920143127,
        -0.04580678790807724,
        0.10660620778799057,
        0.052618686109781265,
        -0.0215812548995018,
        -0.01711869426071644,
        -0.09449943900108337,
        0.010091697797179222,
        -0.09051205962896347,
        0.5570923089981079,
        0.6032106876373291,
        0.16668197512626648,
        -0.0023775496520102024,
        0.5033798813819885,
        -0.4615904986858368,
        1.0759845972061157,
        -0.9762172102928162,
        -1.0038278102874756,
        -0.2614836096763611,
        0.9261407852172852,
        0.16133849322795868,
        0.2932922840118408,
        -0.16504967212677002,
        -0.04633435606956482,
        0.004575411789119244,
        0.14300470054149628,
        0.24900832772254944,
        -0.09291420131921768,
        -0.08761005848646164,
        0.07660216838121414,
        0.06855107098817825,
        -0.19514776766300201,
        -0.057164620608091354,
        -0.10733811557292938,
        0.19807372987270355,
        -0.2012808918952942,
        -0.06705227494239807,
        -0.06696420907974243,
        -0.2389823943376541,
        -0.07520119845867157,
        -0.178186297416687,
        0.0600985586643219,
        0.022412452846765518,
        0.07444850355386734,
        0.0699310377240181,
        -0.0880003347992897,
        0.24912886321544647,
        -0.30188822746276855,
        -0.19820716977119446,
        0.013425467535853386,
        -0.023679524660110474,
        -0.07535015046596527,
        -0.2685340642929077,
        0.15094925463199615,
        0.07043318450450897,
        -0.09286894649267197,
        -0.14687888324260712,
        -0.009559255093336105,
        -0.06418882310390472,
        -0.21007880568504333,
        0.07787738740444183,
        -0.04254051297903061,
        -0.29020386934280396,
        -0.031094292178750038,
        0.11322156339883804,
        -0.15971779823303223,
        -0.08326762169599533,
        -0.0171635951846838,
        0.043656203895807266,
        0.29950815439224243,
        -0.18567730486392975,
        -0.2564408779144287,
        0.04006190970540047,
        0.06544796377420425,
        0.20921967923641205,
        0.004827383439987898,
        -0.185857355594635,
        0.015979355201125145,
        0.09092971682548523,
        0.20478013157844543,
        -0.21536965668201447,
        -0.2264864295721054,
        0.16806943714618683,
        -0.010747214779257774,
        -0.28215011954307556,
        -0.010871431790292263,
        -0.2747807800769806,
        0.0015007320325821638,
        -0.324482262134552,
        0.22633510828018188,
        -0.4719361662864685,
        -0.06943348795175552,
        -0.2434820532798767,
        -0.3003506362438202,
        -0.25717875361442566,
        0.34459590911865234,
        -0.13030895590782166,
        -0.042918071150779724,
        0.2871229648590088,
        -0.043044399470090866,
        0.09005788713693619,
        -0.49029314517974854,
        -0.2732873558998108,
        -0.09412821382284164,
        0.23660536110401154,
        0.1501436084508896,
        -0.3740808069705963,
        0.016156639903783798,
        -0.23827682435512543,
        -0.08834937959909439,
        -0.13343293964862823,
        -0.14200875163078308,
        0.3625624477863312,
        -0.35228049755096436,
        -0.003377478336915374,
        -0.029208790510892868,
        -0.03361165151000023,
        0.15567287802696228,
        0.23837192356586456,
        -0.15649381279945374,
        -0.32755246758461,
        0.022288570180535316,
        -0.08981076627969742,
        0.37232208251953125,
        -0.5331718921661377,
        -0.2903914451599121,
        -0.21237342059612274,
        0.2565918266773224,
        0.1698445975780487,
        0.2863069176673889,
        -0.36612024903297424,
        -0.03744392469525337,
        0.17971615493297577,
        0.17040733993053436,
        0.3122299313545227,
        0.02281866781413555,
        -0.052804529666900635,
        0.08212458342313766,
        -0.08999433368444443,
        0.12655434012413025,
        -0.0015873959055170417,
        0.14673934876918793,
        0.3526899516582489,
        0.16595448553562164,
        -0.012261396273970604,
        -0.0671067088842392,
        -0.12017105519771576,
        -0.15762150287628174,
        0.01695135422050953,
        0.3242584466934204,
        -0.09410187602043152,
        -0.0668846145272255,
        -0.06274168193340302,
        0.23257851600646973,
        -0.20560552179813385,
        -0.37449437379837036,
        -0.23819038271903992,
        0.07266951352357864,
        0.1802568882703781,
        -0.2278715819120407,
        0.01468162052333355,
        0.44107499718666077,
        -0.03714245557785034,
        -0.09135669469833374,
        0.05018448457121849,
        0.05710034817457199,
        0.18750180304050446,
        -0.10904701054096222,
        0.13734440505504608,
        0.17110225558280945,
        -0.1661013811826706,
        0.19289571046829224,
        0.1838279664516449,
        -0.07685545831918716,
        0.022755298763513565,
        0.2659645080566406,
        -0.23416155576705933,
        -0.06412620097398758,
        0.10758302360773087,
        0.018125325441360474,
        0.05863442271947861,
        -0.20536428689956665,
        0.1949755698442459,
        -0.1509074568748474,
        -0.11091574281454086,
        -0.13282111287117004,
        -0.3672243654727936,
        -0.03623836860060692,
        -0.1030210554599762,
        0.053036805242300034,
        0.10591056197881699,
        0.2355586737394333,
        0.3461510241031647,
        -0.027797292917966843,
        -0.34117648005485535,
        0.11421311646699905,
        -0.01166524924337864,
        0.010189217515289783,
        0.03929901868104935,
        0.09008507430553436,
        -0.12661458551883698,
        0.22707688808441162,
        0.031306784600019455,
        0.3021986484527588,
        -0.16846348345279694,
        0.19168825447559357,
        0.16237479448318481,
        -0.2418278455734253,
        0.17939768731594086,
        0.1955830454826355,
        0.043710652738809586,
        0.03811502829194069,
        0.14372868835926056,
        -0.042021602392196655,
        -0.07179218530654907,
        0.11254256963729858,
        -0.2518407702445984,
        0.16883967816829681,
        0.03657403215765953,
        0.32565271854400635,
        0.1708262711763382,
        -0.0607178695499897,
        0.18662358820438385,
        0.055273622274398804,
        0.11127267777919769,
        0.0811447948217392,
        -0.1592128723859787,
        -0.08324209600687027,
        0.08300834149122238,
        0.07611221820116043,
        0.07782700657844543,
        0.08959753066301346,
        0.13744251430034637,
        0.010540155693888664,
        -0.12253804504871368,
        -0.05414305627346039,
        0.08440451323986053,
        -0.11950462311506271,
        0.014230061322450638,
        0.04414410889148712,
        -0.11774344742298126,
        -0.08528103679418564,
        -0.02314639836549759,
        0.2492789775133133,
        0.1059633195400238,
        0.06426888704299927,
        0.15053577721118927,
        -0.1003272607922554,
        -0.10231779515743256,
        -0.14911793172359467,
        -0.0008060474647209048,
        0.08513202518224716,
        0.10888109356164932,
        -0.20981739461421967,
        -0.1988833248615265,
        0.1004379466176033,
        0.13714541494846344,
        -0.21694299578666687,
        -0.08031807094812393,
        0.25540128350257874,
        0.11458468437194824,
        0.14060407876968384,
        0.09368089586496353,
        -0.018581120297312737,
        0.03671833872795105,
        -0.5202836394309998,
        -0.09382739663124084,
        -0.1941964328289032,
        -0.05335025489330292,
        -0.023872843012213707,
        -0.27684175968170166,
        0.19114971160888672,
        -0.17864419519901276,
        0.2878478467464447,
        -0.12488307803869247,
        -0.21695266664028168,
        0.009352580644190311,
        0.18797065317630768,
        -0.007945840246975422,
        0.13926014304161072,
        0.1920931339263916,
        -0.11009321361780167,
        0.12769532203674316,
        -0.0017722955672070384,
        0.06487403810024261,
        -0.147149458527565,
        -0.1831953376531601,
        0.10773631930351257,
        0.06700259447097778,
        0.13841022551059723,
        0.18960271775722504,
        -0.20039594173431396,
        0.19884324073791504,
        0.2620478570461273,
        -0.07067990303039551,
        -0.10136405378580093,
        0.1765737682580948,
        -0.16137464344501495,
        -0.1635655164718628,
        0.09143385291099548,
        0.11031908541917801,
        0.39257171750068665,
        0.16062526404857635,
        -0.08087803423404694,
        0.0786605104804039,
        0.028376629576086998,
        0.05226773023605347,
        -0.1996709555387497,
        -0.12867960333824158,
        -0.24752630293369293,
        0.365671843290329,
        0.005474569275975227,
        -0.08005700260400772,
        -0.348495751619339,
        -0.04281191900372505,
        -0.1474321484565735,
        0.031534913927316666,
        0.06415494531393051,
        0.025309141725301743,
        -0.026210827752947807,
        0.0519779808819294,
        0.13500647246837616,
        -0.2579079270362854,
        -0.15144450962543488,
        -0.42921826243400574,
        -0.0615391805768013,
        -0.06372591853141785,
        0.17805716395378113,
        0.020256103947758675,
        -0.23603340983390808,
        0.26582589745521545,
        0.08153555542230606,
        0.14580701291561127,
        0.043026141822338104,
        0.04086065664887428,
        0.06340290606021881,
        0.017697816714644432,
        0.16417422890663147,
        -0.1419755518436432,
        -0.14164374768733978,
        -0.04008008539676666,
        -0.09805825352668762,
        -0.06586959958076477,
        -0.3020012080669403,
        -0.01800014078617096,
        -0.09427165240049362,
        0.08347731828689575,
        0.0785936787724495,
        -0.049441806972026825,
        0.04055335000157356,
        -0.12938612699508667,
        0.028440115973353386,
        -0.13258056342601776,
        -0.07785599678754807,
        0.38318395614624023,
        0.2622019350528717,
        0.18844418227672577,
        0.0036544171161949635,
        -0.22683236002922058,
        -0.14994782209396362,
        -0.10025034844875336,
        -0.28484046459198,
        -0.4975931644439697,
        -0.14082422852516174,
        0.11306856572628021,
        0.0707239881157875,
        -0.07502391189336777,
        0.1795441210269928,
        0.20055125653743744,
        -0.1901136338710785,
        -0.20639804005622864,
        -0.2015794962644577,
        -0.38241490721702576,
        -0.0791918933391571,
        -0.06275048106908798,
        -0.03674507513642311,
        -0.08618148416280746,
        -0.013799114152789116,
        -0.149412602186203,
        -0.23867355287075043,
        0.05845794826745987,
        -0.3777807950973511,
        -0.10558155924081802,
        -0.1809295117855072,
        -0.32171326875686646,
        -0.09375784546136856,
        0.007616732269525528,
        -0.12134095281362534,
        0.06135370954871178,
        -0.008781646378338337,
        -0.19260190427303314,
        0.16652899980545044,
        0.1893351525068283,
        0.12836723029613495,
        -0.10447447001934052,
        0.17144840955734253,
        -0.4328412711620331,
        0.03427768871188164,
        0.008931336924433708,
        0.13856840133666992,
        -0.04189089313149452,
        -0.1437770128250122,
        0.15909898281097412,
        -0.1125427857041359,
        -0.21434959769248962,
        -0.023972447961568832,
        -0.2352253645658493,
        0.020143944770097733,
        0.04354817792773247,
        0.1217828094959259,
        0.09541643410921097,
        -0.003419476794078946,
        0.11058904230594635,
        0.22596171498298645,
        0.2294410765171051,
        0.08452225476503372,
        -0.19191497564315796,
        -0.20488037168979645,
        0.05517607554793358,
        0.03649421036243439,
        0.12656797468662262,
        0.08222447335720062,
        0.019213944673538208,
        -0.025647681206464767,
        -0.1434294581413269,
        0.10693791508674622,
        0.23288744688034058,
        0.03531191125512123,
        -0.048178039491176605,
        -0.02664759010076523,
        -0.06838098913431168,
        -0.05264649540185928,
        0.04962072893977165,
        -0.043452635407447815,
        -0.1729142665863037,
        -0.137940913438797,
        0.06186844781041145,
        -0.04660792276263237,
        -0.17892895638942719,
        0.11613575369119644,
        -0.07780341804027557,
        0.07142925262451172,
        -0.08880149573087692,
        0.006979151163250208,
        0.15912778675556183,
        -0.051096394658088684,
        0.0523301400244236,
        -0.19610224664211273,
        -0.10415397584438324,
        -0.23484788835048676,
        0.045428965240716934,
        0.1480804979801178,
        -0.1955471634864807,
        0.18793252110481262,
        -0.13149090111255646,
        -0.01873408816754818,
        -0.16395147144794464,
        0.0512596070766449,
        0.005827362649142742,
        -0.1912679523229599,
        -0.28180596232414246,
        0.041235052049160004,
        0.15788280963897705,
        0.12261833250522614,
        0.08819674700498581,
        0.3250318765640259,
        0.2692350447177887,
        -0.06446168571710587,
        -0.21244607865810394,
        0.11734263598918915,
        0.15475524961948395,
        0.5181118845939636,
        0.17932705581188202,
        0.16959577798843384,
        0.3859670162200928,
        0.11391879618167877,
        -0.08988802134990692,
        0.11134210973978043,
        0.20039010047912598,
        0.17550434172153473,
        -0.053219493478536606,
        0.4931532144546509,
        0.029774969443678856,
        0.06784747540950775,
        0.1386260986328125,
        -0.011644778773188591,
        0.15742658078670502,
        -0.08630675822496414,
        -0.0032933258917182684,
        -0.432445764541626,
        0.1996011734008789,
        0.23175539076328278,
        0.46070411801338196,
        0.3285382390022278,
        0.06809652596712112,
        0.3240663707256317,
        0.1819138526916504,
        0.030584197491407394,
        -0.09249474853277206,
        -0.11184766888618469,
        -0.14967432618141174,
        0.14430798590183258,
        0.07867930084466934,
        0.04837186634540558,
        -0.17113333940505981,
        0.41360196471214294,
        0.24018226563930511,
        0.12582914531230927,
        -0.28719761967658997,
        -0.24413040280342102,
        0.2419964075088501,
        -0.20361445844173431,
        -0.21773402392864227,
        0.24771209061145782,
        -0.09445301443338394,
        -0.04731517285108566,
        -0.03564757481217384,
        0.061911433935165405,
        -0.1714610457420349,
        -0.04526078328490257,
        0.12858600914478302,
        0.004741121549159288,
        -0.052164118736982346,
        -0.4163341820240021,
        -0.14863961935043335,
        0.03630051389336586,
        -0.03403375297784805,
        -0.3057689964771271,
        0.17054012417793274,
        0.0048403050750494,
        -0.1673063486814499,
        0.12811148166656494,
        0.07473251223564148,
        0.009971319697797298,
        0.023938432335853577,
        0.060942597687244415,
        -0.05153397470712662,
        -0.10517624020576477,
        -0.032796282321214676,
        -0.01740298792719841,
        -0.028251783922314644,
        -0.1321028620004654,
        0.14427873492240906,
        0.23110796511173248,
        -0.11009332537651062,
        -0.11633214354515076,
        0.15297599136829376,
        0.09296486526727676,
        -0.014388859272003174,
        0.03179701790213585,
        0.027784446254372597,
        -0.08695320039987564,
        0.10907169431447983,
        -0.46543899178504944,
        -0.10279978066682816,
        -0.30205607414245605,
        0.14124947786331177,
        0.2037643939256668,
        -0.082354336977005,
        0.17789411544799805,
        0.06855038553476334,
        0.1482572704553604,
        -0.21915853023529053,
        -0.19172918796539307,
        0.1695065051317215,
        0.1327909380197525,
        0.0073521193116903305,
        0.21357707679271698,
        0.08401891589164734,
        -0.059853535145521164,
        0.22908048331737518,
        -0.14092688262462616,
        -0.13635683059692383,
        -0.013964890502393246,
        0.08712268620729446,
        -0.034177184104919434,
        -0.039253149181604385,
        0.0764165148139,
        0.1744622439146042,
        -0.06020462512969971,
        0.11587606370449066,
        0.2018948495388031,
        -0.3856845796108246,
        -0.13662007451057434,
        -0.2135869860649109,
        -0.026648985221982002,
        0.06255094707012177,
        -0.025919416919350624,
        0.07238160073757172,
        0.02703956887125969,
        -0.050632305443286896,
        0.19487136602401733,
        -0.03922030329704285,
        -0.2067776322364807,
        0.25844165682792664,
        0.0070688771083951,
        0.17230340838432312,
        0.30920636653900146,
        0.014608277007937431,
        0.28530895709991455,
        0.004659998696297407,
        -0.10395187884569168,
        -0.08975081890821457,
        -0.23959758877754211,
        0.10056149959564209,
        0.13606317341327667,
        -0.04303831234574318,
        -0.014921209774911404,
        0.2391303926706314,
        0.1335141360759735,
        0.045558683574199677,
        0.07175008952617645,
        0.041826874017715454,
        -0.25785699486732483,
        -0.06795257329940796,
        0.010912316851317883,
        -0.1809975504875183,
        0.25230488181114197,
        -0.03559289127588272,
        -0.14646491408348083,
        -0.029155170544981956,
        -0.6854854226112366,
        0.623421311378479,
        -0.5784531831741333,
        -0.8247472643852234,
        -0.13339608907699585,
        -1.1700407266616821,
        -0.6014652848243713,
        0.7067205905914307,
        -0.7872496247291565,
        0.7217340469360352,
        0.6060393452644348,
        0.18226328492164612,
        0.19551892578601837,
        -0.2735961079597473,
        0.36586993932724,
        0.2996861934661865,
        0.1028253585100174,
        0.4419887363910675,
        -0.6033392548561096,
        -0.11658938974142075,
        -0.043908923864364624,
        -0.3278578817844391,
        0.0617549866437912,
        -0.08098234236240387,
        -0.16020004451274872,
        -0.12189538776874542,
        0.25421956181526184,
        -0.2318647801876068,
        0.10645007342100143,
        0.24351991713047028,
        0.1716001033782959,
        -0.05352228134870529,
        -0.2363768368959427,
        -0.16673430800437927,
        0.2162611037492752,
        -0.11911073327064514,
        0.14698706567287445,
        0.05596344172954559,
        0.23422077298164368,
        -0.15633517503738403,
        0.18643540143966675,
        0.031990643590688705,
        -0.052235670387744904,
        -0.007206554524600506,
        -0.09020231664180756,
        -0.07563655823469162,
        0.21815499663352966,
        -0.17652210593223572,
        0.19524654746055603,
        -0.41572266817092896,
        -0.13315671682357788,
        -0.04003771021962166,
        0.12375731766223907,
        0.15147709846496582,
        0.13212670385837555,
        0.10558962821960449,
        0.03917991742491722,
        0.023233475163578987,
        0.028103787451982498,
        0.33474001288414,
        -0.17180323600769043,
        0.09902575612068176,
        -0.06597131490707397,
        -0.0208145584911108,
        -0.15702514350414276,
        0.015372821129858494,
        -0.24467729032039642,
        -0.12760795652866364,
        -0.2500108480453491,
        -0.2718163728713989,
        -0.06867700815200806,
        0.0458441823720932,
        0.3328686058521271,
        -0.040104061365127563,
        0.01242423802614212,
        -0.12837029993534088,
        -0.20596781373023987,
        -0.04691636189818382,
        -0.27188849449157715,
        0.13658209145069122,
        -0.16172292828559875,
        -0.023251743987202644,
        -0.14727026224136353,
        -0.05700192600488663,
        0.6480020880699158,
        -0.38808849453926086,
        -0.03229308873414993,
        0.3536669909954071,
        -0.0759870707988739,
        -0.15235288441181183,
        -0.5463544726371765,
        0.21225115656852722,
        -0.49630334973335266,
        0.15341928601264954,
        -0.2852250933647156,
        0.561614453792572,
        0.27805864810943604,
        -0.5085574984550476,
        -0.03511706367135048,
        0.6871515512466431,
        0.07328704744577408,
        -0.006293848156929016,
        -0.4358173608779907,
        0.16014888882637024,
        0.11862991750240326,
        -0.353390634059906,
        -0.8510505557060242,
        0.022362740710377693,
        -0.3522820770740509,
        0.43548107147216797,
        -0.05212319642305374,
        0.11268255114555359,
        0.17272861301898956,
        0.07347819209098816,
        0.4867057800292969,
        -0.1727512776851654,
        0.2394280731678009,
        0.4530840814113617,
        0.37457287311553955,
        -0.1271188110113144,
        0.1669299602508545,
        -0.21577884256839752,
        -0.24659191071987152,
        0.13050159811973572,
        -0.2683614194393158,
        0.2580795884132385,
        -0.344486802816391,
        0.040953073650598526,
        -0.08566512167453766,
        0.00010670545452740043,
        -0.48528575897216797,
        0.09283936023712158,
        -0.37816521525382996,
        0.4143388271331787,
        0.1897800713777542,
        -0.001080080633983016,
        0.6723293662071228,
        0.3518964350223541,
        0.3845936357975006,
        -0.5593522191047668,
        -0.19923120737075806,
        0.1807604879140854,
        0.26140496134757996,
        -0.4575631618499756,
        -0.10433485358953476,
        -0.017698198556900024,
        0.33869096636772156,
        0.2724848687648773,
        -0.35872682929039,
        0.11653901636600494,
        -0.3643481135368347,
        -0.3229258954524994,
        -0.07753235101699829,
        -0.13150891661643982,
        0.2948899269104004,
        -0.25995057821273804,
        0.32826340198516846,
        0.2966337502002716,
        0.07266911119222641,
        0.27332308888435364,
        -0.07331157475709915,
        -0.11098945885896683,
        -0.060397617518901825,
        -0.056629277765750885,
        -0.15538950264453888,
        -0.14455603063106537,
        0.3519812822341919,
        0.10205404460430145,
        0.07083865255117416,
        0.2119610607624054,
        0.16893500089645386,
        -0.11752624064683914,
        -0.08865808695554733,
        -0.01484652142971754,
        -0.102078378200531,
        0.21372932195663452,
        0.11015179008245468,
        0.007451833225786686,
        0.2604418694972992,
        0.20040975511074066,
        -0.2529869079589844,
        0.35360395908355713,
        0.20781125128269196,
        0.2556498050689697,
        -0.19247417151927948,
        -0.17183858156204224,
        0.04743150994181633,
        -0.1338493674993515,
        0.0635516420006752,
        0.030655717477202415,
        0.1224268302321434,
        -0.038779545575380325,
        -0.1543319672346115,
        0.05461554974317551,
        0.02298770658671856,
        0.2853383421897888,
        0.3490341603755951,
        -0.030872607603669167,
        -0.2321302592754364,
        0.09041591733694077,
        0.33527350425720215,
        -0.21254287660121918,
        0.05674834921956062,
        -0.12216953933238983,
        -0.06205758452415466,
        0.10496269166469574,
        0.11052528768777847,
        -0.017939679324626923,
        -0.04351260885596275,
        0.013610230758786201,
        -0.2831462025642395,
        0.21163541078567505,
        0.09865791350603104,
        -0.19318443536758423,
        -0.021817773580551147,
        -0.12052720040082932,
        -0.19796055555343628,
        0.28442901372909546,
        0.018013188615441322,
        0.25251150131225586,
        0.1501210778951645,
        -0.06422243267297745,
        0.08613505214452744,
        -0.045214954763650894,
        -0.002506712917238474,
        -0.11183758825063705,
        0.12647101283073425,
        -0.2110186517238617,
        -0.2718091607093811,
        0.0021543351467698812,
        0.011450381018221378,
        0.02209363877773285,
        0.38872823119163513,
        -0.36476096510887146,
        -0.1387704610824585,
        0.1843642145395279,
        0.1910765916109085,
        -0.11781571060419083,
        0.09765931963920593,
        0.09059688448905945,
        0.05734628066420555,
        -0.2817787528038025,
        -0.046030253171920776,
        0.04256286472082138,
        0.11720128357410431,
        0.11539763957262039,
        0.20784059166908264,
        -0.041381824761629105,
        0.11277355253696442,
        0.2195344716310501,
        -0.24933463335037231,
        -0.08731576055288315,
        0.10490810871124268,
        -0.12389907985925674,
        0.11967993527650833,
        -0.10308842360973358,
        0.12660376727581024,
        0.14910398423671722,
        -0.23351451754570007,
        0.018708281219005585,
        -0.10685243457555771,
        0.10311618447303772,
        -0.09267186373472214,
        -0.06922232359647751,
        0.010587665252387524,
        0.03719137981534004,
        -0.017881104722619057,
        0.005080362316220999,
        -0.05625396594405174,
        -0.03262278437614441,
        0.1154593676328659,
        -0.06253568083047867,
        0.12818790972232819,
        0.043155062943696976,
        -0.16951774060726166,
        -0.11876843869686127,
        0.10825186222791672,
        -0.002372434362769127,
        0.14759662747383118,
        0.048080235719680786,
        0.4725007116794586,
        0.1117604449391365,
        -0.08663631975650787,
        -0.17776241898536682,
        0.08990585803985596,
        -0.11336103826761246,
        -0.596315860748291,
        -0.018572188913822174,
        -0.10264033079147339,
        -0.2191997617483139,
        -0.13865520060062408,
        -0.09047000855207443,
        0.02336634136736393,
        -0.14047546684741974,
        -0.1510096788406372,
        -0.012273089028894901,
        -0.07340498268604279,
        -0.11835135519504547,
        -0.036369822919368744,
        -0.06968697905540466,
        -0.0074383970350027084,
        -0.08086973428726196,
        0.01829780824482441,
        -0.15697737038135529,
        -0.10181834548711777,
        0.001996982144191861,
        0.1693621128797531,
        -0.17304286360740662,
        0.2422546148300171,
        0.1760162115097046,
        -0.3341667652130127,
        -0.029726997017860413,
        0.15383896231651306,
        -0.18722574412822723,
        -0.17545334994792938,
        0.08910351246595383,
        0.09658735245466232,
        -0.011155893094837666,
        0.18701040744781494,
        0.1272435039281845,
        0.17423085868358612,
        0.10552114248275757,
        -0.062258265912532806,
        0.10710785537958145,
        0.21581897139549255,
        -0.14348646998405457,
        0.018167220056056976,
        0.1146153137087822,
        -0.03927600756287575,
        0.17859403789043427,
        -0.14396606385707855,
        0.11444440484046936,
        -0.17158840596675873,
        0.06929053366184235,
        0.16127435863018036,
        5.574013266596012e-05,
        -0.07468340545892715,
        0.06774090230464935,
        -0.024408722296357155,
        -0.12981897592544556,
        -0.21184271574020386,
        0.061687733978033066,
        0.09358569979667664,
        -0.12620209157466888,
        0.0056089600548148155,
        0.13671770691871643,
        0.13375326991081238,
        -0.038592323660850525,
        -0.21036021411418915,
        0.14650608599185944,
        -0.05984210968017578,
        0.1670970916748047,
        -0.10872726887464523,
        -0.14702649414539337,
        -0.2593463361263275,
        0.06561002135276794,
        0.13104043900966644,
        -0.3463877737522125,
        -0.023764776065945625,
        -0.033670783042907715,
        -0.2156689465045929,
        0.26074326038360596,
        -0.10090210288763046,
        -0.02150871604681015,
        0.1149209588766098,
        -0.34513601660728455,
        0.21284648776054382,
        0.006102017126977444,
        -0.12537024915218353,
        0.06353139877319336,
        0.30758318305015564,
        0.20305044949054718,
        0.06550870090723038,
        -0.08600054681301117,
        0.08944755792617798,
        -0.05837608128786087,
        0.22481638193130493,
        -0.08506451547145844,
        -0.19461430609226227,
        -0.09545885771512985,
        0.04047304391860962,
        -0.08399827033281326,
        -0.0390915721654892,
        0.034447021782398224,
        0.048298221081495285,
        0.3212496340274811,
        -0.09588389843702316,
        -0.025640923529863358,
        -0.17025135457515717,
        -0.045039404183626175,
        -0.05839818716049194,
        0.25454413890838623,
        -0.2475394308567047,
        0.013852247968316078,
        0.36022138595581055,
        -0.09363517165184021,
        -0.044082313776016235,
        0.017825480550527573,
        0.10961151868104935,
        -0.11725210398435593,
        -0.07999895513057709,
        -0.03714440390467644,
        -0.05850111320614815,
        0.0654766708612442,
        0.10823746770620346,
        0.07126523554325104,
        -0.057954587042331696,
        0.2881039083003998,
        -0.151432067155838,
        -0.09581202268600464,
        -0.21113018691539764,
        -0.08014537394046783,
        0.24215067923069,
        -0.12211696803569794,
        -0.03986836224794388,
        0.021576853469014168,
        -0.03514640033245087,
        -0.026210185140371323,
        -0.0852021872997284,
        0.08550401777029037,
        -0.1414881944656372,
        -0.161102756857872,
        -0.32419803738594055,
        0.05849562585353851,
        -0.04159976914525032,
        0.1598595231771469,
        0.1494283527135849,
        0.16166584193706512,
        -0.10523121058940887,
        0.15009379386901855,
        0.15593881905078888,
        -0.25718629360198975,
        -0.07489457726478577,
        0.32599076628685,
        0.0342082716524601,
        -0.113978311419487,
        -0.08258429914712906,
        0.23365364968776703,
        -0.061035703867673874,
        -0.1685633510351181,
        0.12668921053409576,
        0.023158114403486252,
        -0.14589624106884003,
        -0.05178270861506462,
        0.17431220412254333,
        0.1506926566362381,
        0.23888523876667023,
        0.004177900496870279,
        0.2649032175540924,
        -0.2195199728012085,
        0.0861881673336029,
        0.029253246262669563,
        -0.482517808675766,
        0.19602841138839722,
        0.04416345804929733,
        -0.0036493639927357435,
        0.16020174324512482,
        -0.1818472146987915,
        0.14001615345478058,
        0.1683574914932251,
        0.07329269498586655,
        0.18635782599449158,
        -0.09105582535266876,
        -0.2616281509399414,
        -0.09483228623867035,
        0.010784689337015152,
        -0.15330064296722412,
        -0.07148215174674988,
        -0.03486030921339989,
        -0.11099910736083984,
        0.04671367630362511,
        0.18469783663749695,
        0.059943877160549164,
        -0.21494460105895996,
        0.11264613270759583,
        0.07039981335401535,
        0.08814197778701782,
        -0.2723959684371948,
        -0.1277991086244583,
        -0.07369396090507507,
        0.027970941737294197,
        -0.0817931741476059,
        -0.1754298061132431,
        -0.08281653374433517,
        -0.2564929723739624,
        -0.030154462903738022,
        0.05516820028424263,
        -0.09910669177770615,
        -0.031126970425248146,
        0.06416937708854675,
        -0.26010796427726746,
        -0.09999079257249832,
        0.2221105545759201,
        -0.031789738684892654,
        -0.13264475762844086,
        0.21635884046554565,
        0.13173514604568481,
        -0.11128087341785431,
        -0.05848740413784981,
        0.06110932677984238,
        -0.08169066160917282,
        -0.025858940556645393,
        0.29851579666137695,
        -0.07585965096950531,
        0.0001526333944639191,
        0.19455988705158234,
        0.10130790621042252,
        0.04218210279941559,
        -0.018639205023646355,
        0.20478768646717072,
        -0.07328689843416214,
        -0.07621946930885315,
        0.10414858907461166,
        -0.23670350015163422,
        -0.02361285127699375,
        0.11916127800941467,
        -0.03487297147512436,
        -0.1069888323545456,
        -0.039125557988882065,
        -0.06169253960251808,
        0.1134650930762291,
        -0.016176776960492134,
        0.15659673511981964,
        0.13001835346221924,
        -0.3467143774032593,
        0.20738893747329712,
        -0.13605085015296936,
        -0.09838685393333435,
        -0.10069181770086288,
        -0.050802092999219894,
        -0.1046685054898262,
        0.2914242446422577,
        0.04414347931742668,
        -0.07279852777719498,
        0.18607275187969208,
        0.29129892587661743,
        -0.037792861461639404,
        -0.12355069816112518,
        0.1482190191745758,
        -0.14879028499126434,
        0.0736505463719368,
        0.04848736524581909,
        0.023713791742920876,
        -0.02249225229024887,
        -0.03352039307355881,
        0.09004464745521545,
        0.1269911229610443,
        -0.2367597371339798,
        0.2735026478767395,
        -0.22032156586647034,
        0.04183555394411087,
        0.14597974717617035,
        0.04563908651471138,
        -0.05898442491889,
        -0.08844715356826782,
        0.04501251131296158,
        0.34529051184654236,
        0.11880458891391754,
        0.2865568995475769,
        0.16764859855175018,
        -0.22285479307174683,
        -0.07146462053060532,
        -0.05871116742491722,
        -0.19208966195583344,
        -0.15280573070049286,
        0.3497603237628937,
        -0.05479225888848305,
        -0.025800688192248344,
        -0.1245414987206459,
        -0.019364645704627037,
        -0.25671398639678955,
        0.3130801022052765,
        0.02615625597536564,
        -0.07698384672403336,
        0.162822887301445,
        -0.06904620677232742,
        -0.008098969236016273,
        0.3399706780910492,
        -0.07391568273305893,
        0.2592713534832001,
        -0.03884047642350197,
        -0.2122873067855835,
        0.26482605934143066,
        -0.13268336653709412,
        0.0769384577870369,
        -0.19542430341243744,
        0.22375527024269104,
        -0.012259314768016338,
        -0.11093038320541382,
        -0.15954336524009705,
        0.2144192010164261,
        0.337854266166687,
        0.3530101180076599,
        -0.17435213923454285,
        -0.15949201583862305,
        0.16551679372787476,
        0.02536763995885849,
        -0.21160659193992615,
        0.21942059695720673,
        0.039896029978990555,
        0.09794817119836807,
        0.062143854796886444,
        -0.03200054541230202,
        0.11452179402112961,
        -0.056488242000341415,
        -0.157670259475708,
        -0.09919019788503647,
        -0.1054852157831192,
        -0.04474097490310669,
        -0.05546700581908226,
        -0.015331115573644638,
        0.03393283858895302,
        0.5834368467330933,
        0.16709278523921967,
        0.2349546104669571,
        0.08493690192699432,
        0.16994991898536682,
        -0.06113280728459358,
        0.3817063868045807,
        -0.860657811164856,
        -0.3092353940010071,
        -1.0563023090362549,
        -0.4180731773376465,
        0.6463111042976379,
        -0.2829182744026184,
        -0.19863072037696838,
        0.18829505145549774,
        -0.12764108180999756,
        0.3147508203983307,
        -0.01792685128748417,
        -0.07535844296216965,
        0.2589389681816101,
        -0.22665685415267944,
        0.41242557764053345,
        0.13851900398731232,
        -0.26855701208114624,
        0.16775798797607422,
        0.02668546885251999,
        -0.3766370117664337,
        -0.09949684888124466,
        -0.12761589884757996,
        0.3132367730140686,
        0.05040929466485977,
        -0.06141728535294533,
        -0.4040771424770355,
        -0.12810945510864258,
        -0.17418356239795685,
        0.45455169677734375,
        0.005133496131747961,
        0.0484972707927227,
        0.086440809071064,
        -0.1744682490825653,
        -0.01059937383979559,
        -0.3583264946937561,
        -0.10100965201854706,
        0.03628501296043396,
        0.20472154021263123,
        0.30136439204216003,
        -0.00048038296517916024,
        -0.2090430110692978,
        -0.06214792653918266,
        -4.8949306801659986e-05,
        0.03935785964131355,
        0.22373053431510925,
        -0.056629471480846405,
        0.29172661900520325,
        -0.03015739843249321,
        -0.1726432889699936,
        0.25719693303108215,
        -0.484986811876297,
        -0.37655404210090637,
        0.06385035067796707,
        0.06265949457883835,
        -0.2819294333457947,
        0.17000611126422882,
        -0.02172948233783245,
        0.10567042976617813,
        -0.201522558927536,
        0.09363150596618652,
        -0.19837336242198944,
        0.11102259159088135,
        -0.17809660732746124,
        0.1514352709054947,
        -0.6697296500205994,
        -0.2247907519340515,
        0.1713314950466156,
        -0.1784822642803192,
        0.11332312226295471,
        0.12219880521297455,
        0.09871479123830795,
        0.0048480769619345665,
        -0.0971546396613121,
        0.2633863389492035,
        -0.17849785089492798,
        -0.018319595605134964,
        0.149692565202713,
        0.0049850051291286945,
        -0.25714367628097534,
        0.3312262296676636,
        0.40347781777381897,
        0.3525581359863281,
        0.012013857252895832,
        -0.3765832781791687,
        -0.12946297228336334,
        0.18645617365837097,
        0.09381639212369919,
        0.18353673815727234,
        -0.32842645049095154,
        0.19155116379261017,
        0.3041999936103821,
        -0.13099204003810883,
        0.14021062850952148,
        -0.35120004415512085,
        0.02447970025241375,
        -0.31404122710227966,
        -0.43254488706588745,
        0.21889549493789673,
        0.06519267708063126,
        -0.25801393389701843,
        -0.17728374898433685,
        0.3589865267276764,
        0.03393728286027908,
        -0.12995532155036926,
        0.053771793842315674,
        -0.07147105038166046,
        -0.1204327866435051,
        -0.026714716106653214,
        -0.2381219118833542,
        -0.24643923342227936,
        0.003753203433007002,
        -0.08419431746006012,
        0.328622043132782,
        -0.07510410249233246,
        -0.2581116855144501,
        0.2502005100250244,
        -0.1881912648677826,
        -0.22882016003131866,
        -0.06687851250171661,
        0.043669164180755615,
        0.0673634484410286,
        0.17301183938980103,
        -0.36652180552482605,
        -0.3648163080215454,
        -0.35662150382995605,
        -0.056840211153030396,
        -0.07938529551029205,
        -0.27415603399276733,
        -0.3958355784416199,
        0.02916727028787136,
        0.283014714717865,
        0.13334327936172485,
        0.12786144018173218,
        0.09062369912862778,
        0.12152212858200073,
        0.21638041734695435,
        0.36826637387275696,
        0.12458980828523636,
        -0.09292653203010559,
        -0.16528066992759705,
        -0.17172913253307343,
        0.12179835885763168,
        0.1420115977525711,
        0.25575971603393555,
        -0.21453171968460083,
        -0.18177002668380737,
        0.19838352501392365,
        0.15279144048690796,
        0.131228968501091,
        -0.11165178567171097,
        -0.034707363694906235,
        0.16860680282115936,
        -0.04280753806233406,
        -0.04749924689531326,
        -0.2010667473077774,
        0.2089032083749771,
        -0.058070071041584015,
        -0.19498035311698914,
        -0.04614163562655449,
        0.19699716567993164,
        -0.07776834070682526,
        -0.13124680519104004,
        -0.09548979252576828,
        0.2988056540489197,
        0.18185046315193176,
        0.3178926110267639,
        0.10183311253786087,
        0.015604200772941113,
        0.016196010634303093,
        0.04753173515200615,
        0.10660376399755478,
        -0.12063991278409958,
        -0.5488073229789734,
        -0.27325156331062317,
        0.014737293124198914,
        0.22229309380054474,
        -0.10057636350393295,
        0.035731639713048935,
        -0.2962583303451538,
        -0.08288699388504028,
        0.1874007284641266,
        0.01266311202198267,
        0.19692814350128174,
        0.24213865399360657,
        -0.09247345477342606,
        -0.031201854348182678,
        0.012269249185919762,
        0.08873410522937775,
        0.08418408036231995,
        -0.21057353913784027,
        -0.31427207589149475,
        -0.3543378412723541,
        -0.12332911789417267,
        0.06997097283601761,
        0.09830085188150406,
        -0.10091015696525574,
        0.0025367606431245804,
        0.22706641256809235,
        0.24627046287059784,
        -0.30975332856178284,
        -0.19682441651821136,
        0.16353903710842133,
        0.20261825621128082,
        -0.04486523196101189,
        0.15269121527671814,
        -0.28874722123146057,
        -0.04901879280805588,
        0.09150665998458862,
        -0.0442793183028698,
        -0.04128476232290268,
        0.16489605605602264,
        -0.1333668828010559,
        0.05980651453137398,
        0.06798233091831207,
        0.19389674067497253,
        -0.16536851227283478,
        -0.1769818216562271,
        0.11524131894111633,
        -0.16340896487236023,
        -0.12116004526615143,
        -0.05003240332007408,
        -0.1005675345659256,
        0.09726276248693466,
        -0.19575972855091095,
        -0.22366102039813995,
        0.08642000705003738,
        -0.04898235574364662,
        0.0976741835474968,
        0.01147469226270914,
        -0.1611223667860031,
        0.10133513808250427,
        0.13230662047863007,
        -0.2514277398586273,
        -0.024285586550831795,
        -0.007007220759987831,
        0.3121282160282135,
        -0.253633052110672,
        -0.055822137743234634,
        -0.2460976243019104,
        -0.10069222748279572,
        -0.18569259345531464,
        -0.06471775472164154,
        -0.08145912736654282,
        -0.015513193793594837,
        -0.22727690637111664,
        -0.09445475786924362,
        -0.17869509756565094,
        0.1723536103963852,
        0.14591775834560394,
        -0.0075638010166585445,
        -0.1616080105304718,
        0.06698811799287796,
        0.1578007936477661,
        -0.13354100286960602,
        -0.04432906210422516,
        0.2310236096382141,
        -0.13812078535556793,
        -0.18396128714084625,
        0.008471504785120487,
        0.08654949069023132,
        0.16856807470321655,
        -0.06837089359760284,
        -0.23038077354431152,
        0.06747493147850037,
        -0.06371600180864334,
        0.0633871853351593,
        -0.015516106970608234,
        -0.1497347503900528,
        0.0700051560997963,
        -0.07261177152395248,
        -0.4256938397884369,
        0.05413269251585007,
        0.46847495436668396,
        0.09147092700004578,
        -0.039721790701150894,
        0.019198767840862274,
        -0.11315089464187622,
        -0.025537636131048203,
        -0.2002110779285431,
        -0.160126730799675,
        0.02655140869319439,
        -0.10863646864891052,
        -0.01502253394573927,
        -0.0016955601749941707,
        -0.038070742040872574,
        -0.08992063999176025,
        0.028324177488684654,
        0.040853388607501984,
        0.14715023338794708,
        -0.04339488968253136,
        0.16784267127513885,
        0.29856792092323303,
        0.22427445650100708,
        0.060635972768068314,
        0.07456326484680176,
        -0.14893440902233124,
        0.3377979099750519,
        0.10313019901514053,
        0.11010929197072983,
        -0.3187786340713501,
        -0.5196125507354736,
        -0.10362720489501953,
        -0.03840408846735954,
        -0.14016877114772797,
        -0.09075108170509338,
        0.07472313195466995,
        0.018900085240602493,
        -0.0625302717089653,
        -0.1589498668909073,
        0.4986991286277771,
        -0.35347220301628113,
        0.0029964218847453594,
        0.09301751852035522,
        -0.29162344336509705,
        0.6407421827316284,
        -0.27130162715911865,
        -0.21726807951927185,
        -0.051280390471220016,
        -0.15065990388393402,
        0.17920857667922974,
        0.06303701549768448,
        -0.24315249919891357,
        0.1347467452287674,
        -0.050204191356897354,
        -0.144331157207489,
        0.11986178904771805,
        -0.14494021236896515,
        -0.006935118697583675,
        -0.059781190007925034,
        0.04589935764670372,
        0.3239104449748993,
        -0.2094157487154007,
        0.014854639768600464,
        -0.3144191801548004,
        0.05929086357355118,
        0.08937974274158478,
        0.4056604206562042,
        -0.43025651574134827,
        0.2512775957584381,
        0.1020893007516861,
        -0.21603107452392578,
        -0.23335957527160645,
        -0.10230297595262527,
        0.12578681111335754,
        0.13465307652950287,
        -0.10480539500713348,
        0.40219154953956604,
        -0.17278386652469635,
        0.03897513449192047,
        0.3009873032569885,
        -0.01877584494650364,
        -0.025893380865454674,
        0.09845054894685745,
        0.052693456411361694,
        -0.30246344208717346,
        0.00324627454392612,
        0.04137739911675453,
        -0.016977349296212196,
        -0.23227635025978088,
        0.23416832089424133,
        0.28155338764190674,
        -0.26062867045402527,
        0.21419955790042877,
        0.28119608759880066,
        -0.004926185589283705,
        -0.01954103447496891,
        0.09268740564584732,
        0.18403694033622742,
        -0.04499519243836403,
        0.004776349291205406,
        -0.1435733288526535,
        -0.08175286650657654,
        -0.10752541571855545,
        0.37486717104911804,
        -0.0794481709599495,
        -0.18447084724903107,
        0.19623222947120667,
        0.042569760233163834,
        0.054477542638778687,
        -0.16569645702838898,
        -0.16663791239261627,
        0.11993028968572617,
        -0.05409618839621544,
        -0.04203689098358154,
        0.17310920357704163,
        -0.2835160493850708,
        0.22452853620052338,
        -0.2422211468219757,
        0.225025475025177,
        0.07011337578296661,
        -0.09549236297607422,
        0.03931453078985214,
        0.10533429682254791,
        -0.05017370358109474,
        0.24535013735294342,
        0.027750687673687935,
        -0.07823159545660019,
        0.05700678750872612,
        -0.08702605217695236,
        0.07702997326850891,
        0.14425301551818848,
        0.11227968335151672,
        0.06057872250676155,
        0.07842308282852173,
        -0.09756020456552505,
        -0.2043323814868927,
        0.11467964202165604,
        -0.046006202697753906,
        0.11863849312067032,
        0.08538494259119034,
        0.2209562212228775,
        0.06018185615539551,
        -0.11093162000179291,
        -0.35610231757164,
        -0.05825211852788925,
        -0.12089051306247711,
        -0.4730231463909149,
        -0.19515810906887054,
        -0.013819086365401745,
        0.06010737270116806,
        0.07463036477565765,
        -0.06576485186815262,
        0.04143228754401207,
        -0.02228361740708351,
        0.4450402855873108,
        0.061234500259160995,
        0.11005424708127975,
        -0.1570105105638504,
        -0.13670605421066284,
        -0.16346213221549988,
        0.2650676965713501,
        -0.2066897302865982,
        -0.1700720638036728,
        0.153279110789299,
        -0.06739471107721329,
        0.08130662143230438,
        -0.08711520582437515,
        0.02694803476333618,
        0.09728694707155228,
        -0.02732909843325615,
        -0.088958740234375,
        -0.19684159755706787,
        -0.23092398047447205,
        -0.22282283008098602,
        -0.3552156984806061,
        0.12229418009519577,
        0.09035180509090424,
        0.26573267579078674,
        0.11210748553276062,
        0.29152610898017883,
        0.12967562675476074,
        -0.06984759122133255,
        0.019160673022270203,
        0.11636360734701157,
        0.004168790299445391,
        0.10091299563646317,
        0.16593040525913239,
        -0.23840515315532684,
        0.029005873948335648,
        -0.11094383150339127,
        0.17428158223628998,
        0.14790378510951996,
        0.012506699189543724,
        -0.02386833354830742,
        -0.22545310854911804,
        -0.04067256301641464,
        0.15356306731700897,
        0.023896431550383568,
        0.13089317083358765,
        0.188956618309021,
        -0.211069718003273,
        -0.20752820372581482,
        0.26170796155929565,
        -0.07201579213142395,
        0.10244773328304291,
        -0.30970901250839233,
        -0.07775972783565521,
        0.008526875637471676,
        0.14945679903030396,
        0.2239675521850586,
        0.19875256717205048,
        -0.29660364985466003,
        0.19641733169555664,
        -0.0463419072329998,
        -0.025855185464024544,
        -0.21676373481750488,
        -0.1370459496974945,
        0.14293202757835388,
        0.514048159122467,
        0.035029344260692596,
        0.05187421292066574,
        -0.07874688506126404,
        0.056578900665044785,
        0.16512581706047058,
        -0.052393343299627304,
        -0.0020920122042298317,
        0.15776893496513367,
        -0.1124739795923233,
        -0.08691971004009247,
        0.21304923295974731,
        -0.012213367968797684,
        -0.12356814742088318,
        -0.36813056468963623,
        0.17863112688064575,
        0.08042363077402115,
        -0.05456329882144928,
        0.24541622400283813,
        0.30043739080429077,
        -0.1725655496120453,
        -0.12535201013088226,
        0.0633513554930687,
        0.06563298404216766,
        -0.009991038590669632,
        -0.10673702508211136,
        -0.08583444356918335,
        -0.10445297509431839,
        0.0005655753775499761,
        0.24788010120391846,
        -0.2472105622291565,
        0.003942566458135843,
        0.07672783732414246,
        0.21053270995616913,
        0.05598408356308937,
        0.06078736484050751,
        0.2318488210439682,
        -0.378507137298584,
        -0.3923249840736389,
        0.052023082971572876,
        -0.0942562147974968,
        -0.12162063270807266,
        0.10304049402475357,
        0.14692409336566925,
        0.22362765669822693,
        0.24071426689624786,
        0.15418606996536255,
        0.27020424604415894,
        -0.08810795843601227,
        -0.0808144360780716,
        0.0745139792561531,
        -0.07498946040868759,
        -0.005029256921261549,
        0.22025512158870697,
        -0.13514293730258942,
        -0.264621764421463,
        0.13469883799552917,
        -0.18686646223068237,
        -0.1250947117805481,
        -0.572820246219635,
        -0.059442292898893356,
        0.11192527413368225,
        0.07607989758253098,
        0.06569425761699677,
        -0.08402056992053986,
        -0.25502994656562805,
        0.10607346147298813,
        -0.17616383731365204,
        -0.035442888736724854,
        0.4332639276981354,
        0.23221057653427124,
        -0.10601302981376648,
        0.30348142981529236,
        0.19916297495365143,
        0.11548830568790436,
        0.19623371958732605,
        0.16931213438510895,
        0.11040978133678436,
        -0.08104625344276428,
        0.32413795590400696,
        -0.0682239979505539,
        0.01681443676352501,
        -0.19505071640014648,
        -0.20007407665252686,
        -0.2563170790672302,
        -0.25858139991760254,
        0.08409444242715836,
        0.09460799396038055,
        -0.09435231238603592,
        -0.002814024453982711,
        0.13008438050746918,
        0.24397824704647064,
        0.1780659705400467,
        -0.12603726983070374,
        -0.1182963028550148,
        0.1304219514131546,
        -0.32233092188835144,
        0.02482478693127632,
        0.20750877261161804,
        0.29396799206733704,
        0.16505920886993408,
        0.05295471101999283,
        -0.11561603099107742,
        -0.0012367897434160113,
        0.01377714890986681,
        0.1324407160282135,
        0.01988302916288376,
        0.05320524424314499,
        0.20650164783000946,
        -0.01987522467970848,
        -0.011280633509159088,
        0.05038638412952423,
        0.039822906255722046,
        0.10496121644973755,
        0.16740736365318298,
        0.18753717839717865,
        0.26673033833503723,
        0.2994144558906555,
        -0.004436644725501537,
        0.2848075330257416,
        -0.8224127292633057,
        0.3524983525276184,
        -0.5327783823013306,
        0.04471050947904587,
        -0.6375819444656372,
        0.6803572177886963,
        -1.2119224071502686,
        0.4817665219306946,
        0.3751891255378723,
        -0.4040944278240204,
        0.32618796825408936,
        -0.3349655568599701,
        -0.03096238151192665,
        0.0907539576292038,
        -0.15082381665706635,
        0.09262917190790176,
        0.0014337513130158186,
        -0.06575276702642441,
        -0.27652499079704285,
        -0.05814434215426445,
        0.383596807718277,
        -0.1703149676322937,
        0.3569847047328949,
        0.18797066807746887,
        -0.24613241851329803,
        -0.10014798492193222,
        -0.1798575222492218,
        -0.07524032145738602,
        -0.3330126106739044,
        0.19924277067184448,
        0.024258965626358986,
        0.13219687342643738,
        0.2579466700553894,
        -0.2556280493736267,
        0.10653578490018845,
        -0.07761750370264053,
        0.037772540003061295,
        0.09375177323818207,
        -0.08164997398853302,
        0.25130221247673035,
        -0.09728522598743439,
        -0.1512838453054428,
        -0.05806385353207588,
        0.00987718254327774,
        -0.001696125604212284,
        0.42442086338996887,
        -0.3065260946750641,
        0.18039558827877045,
        0.2883961498737335,
        0.15599286556243896,
        0.044801171869039536,
        -0.25819510221481323,
        -0.3267347514629364,
        0.02820419892668724,
        -0.041016899049282074,
        0.07981100678443909,
        -0.2987702190876007,
        0.3403679430484772,
        0.09230931103229523,
        0.14972959458827972,
        0.05832996964454651,
        0.19413113594055176,
        0.18399611115455627,
        0.07605850696563721,
        0.4236670732498169,
        -0.24815396964550018,
        0.06564678251743317,
        -0.11381066590547562,
        0.051366016268730164,
        0.29725217819213867,
        -0.14313310384750366,
        0.29912880063056946,
        0.04488359019160271,
        -0.04128708317875862,
        0.2156916707754135,
        -0.28837454319000244,
        0.016120288521051407,
        -0.14531554281711578,
        0.37276339530944824,
        0.12742875516414642,
        -0.5768557786941528,
        -0.02402716688811779,
        0.341085821390152,
        0.03760472312569618,
        -0.1556423157453537,
        0.09575299173593521,
        -0.2807203531265259,
        0.1171589344739914,
        -0.16839013993740082,
        0.27182555198669434,
        -0.21290454268455505,
        -0.09877291321754456,
        -0.17430901527404785,
        -0.2157302051782608,
        0.008090482093393803,
        -0.30192965269088745,
        0.2159833163022995,
        0.21705645322799683,
        -0.3322698771953583,
        -0.03924299404025078,
        0.2122618407011032,
        0.5322323441505432,
        -0.1507604420185089,
        0.36076053977012634,
        0.03656741604208946,
        -0.10710621625185013,
        0.2912420332431793,
        -0.2245490998029709,
        0.1767391860485077,
        0.18969003856182098,
        -0.1590971052646637,
        0.24225927889347076,
        0.10588514059782028,
        0.3605758249759674,
        0.008955947123467922,
        0.2867160737514496,
        -0.05580509454011917,
        0.2322545200586319,
        -0.24414373934268951,
        0.25870904326438904,
        -0.12136315554380417,
        0.393027663230896,
        -0.040354449301958084,
        -0.18504950404167175,
        -0.25689759850502014,
        0.042118094861507416,
        -0.08659516274929047,
        -0.05641753599047661,
        0.13578182458877563,
        -0.12230131775140762,
        -0.2652983069419861,
        0.2325279265642166,
        -0.20270638167858124,
        -0.14189353585243225,
        0.12030617147684097,
        -0.021042248234152794,
        -0.7269167304039001,
        -0.3048273026943207,
        -0.19438683986663818,
        0.12362739443778992,
        -0.04978981241583824,
        -0.19338029623031616,
        -0.40416938066482544,
        0.07303770631551743,
        0.013383538462221622,
        0.00047895460738800466,
        0.37427306175231934,
        0.20234867930412292,
        0.3984025716781616,
        0.20425483584403992,
        0.3801482915878296,
        0.13287818431854248,
        -0.2884727120399475,
        0.32979995012283325,
        0.11141925305128098,
        0.07034309208393097,
        -0.17770157754421234,
        -0.24256551265716553,
        -0.018080687150359154,
        0.2257918417453766,
        -0.13607002794742584,
        0.021836059167981148,
        0.02644798532128334,
        0.12981866300106049,
        -0.03662952780723572,
        0.3153979778289795,
        0.12252352386713028,
        -0.14149239659309387,
        0.1957051306962967,
        0.18260379135608673,
        -0.133683979511261,
        0.1152603030204773,
        -0.24073976278305054,
        0.07870438694953918,
        -0.27975454926490784,
        -0.09476077556610107,
        -0.00830213911831379,
        -0.15135255455970764,
        -0.021825816482305527,
        -0.07961934059858322,
        -0.36762380599975586,
        -0.06042221561074257,
        -0.08789712190628052,
        -0.1058734655380249,
        0.4737562835216522,
        0.12276847660541534,
        0.07685277611017227,
        0.2006300985813141,
        -0.18513740599155426,
        -0.07481228560209274,
        -0.09962160885334015,
        -0.16196435689926147,
        0.01828089915215969,
        -0.17315824329853058,
        0.05313502997159958,
        0.08762771636247635,
        -0.41949746012687683,
        0.12555193901062012,
        0.00841372087597847,
        -0.45812106132507324,
        -0.016806429252028465,
        0.24344272911548615,
        0.052018970251083374,
        -0.3648589253425598,
        0.03276669979095459,
        0.0034281557891517878,
        -0.6699968576431274,
        0.1964842528104782,
        -0.3713146448135376,
        -0.18252094089984894,
        -0.26512935757637024,
        0.24355599284172058,
        0.055781878530979156,
        0.26803070306777954,
        -0.07895179837942123,
        0.14745327830314636,
        -0.3016394376754761,
        0.3371877670288086,
        0.04296156018972397,
        0.016043001785874367,
        -0.023362740874290466,
        -0.030918726697564125,
        0.08287593722343445,
        0.07189358025789261,
        -0.32531794905662537,
        0.13041962683200836,
        -0.0709284320473671,
        0.1609898954629898,
        -0.027879131957888603,
        0.25674208998680115,
        0.12576784193515778,
        0.30476394295692444,
        -0.0451832041144371,
        -0.35844263434410095,
        0.22047939896583557,
        -0.15659604966640472,
        0.22211332619190216,
        0.1720544546842575,
        -0.22317397594451904,
        0.02969726175069809,
        0.2829468846321106,
        0.4038906693458557,
        -0.2387283593416214,
        0.155118927359581,
        -0.14012257754802704,
        0.022098233923316002,
        -0.466728150844574,
        0.023685861378908157,
        0.11298361420631409,
        0.09176464378833771,
        -0.20018355548381805,
        -0.1744854748249054,
        -0.4702260494232178,
        0.23365329205989838,
        -0.03152956813573837,
        -0.023534102365374565,
        0.10817968100309372,
        0.0851423516869545,
        0.09181211143732071,
        0.5320274829864502,
        0.0018350807949900627,
        -0.10677841305732727,
        0.10781878978013992,
        -0.3172973096370697,
        -0.06795093417167664,
        -0.251270592212677,
        -0.04855582118034363,
        0.11880381405353546,
        0.3208344876766205,
        0.3282918632030487,
        0.0579090341925621,
        0.13616544008255005,
        -0.08536384999752045,
        0.06687550246715546,
        0.2957664728164673,
        -0.10675237327814102,
        -0.006849998142570257,
        0.024041755124926567,
        0.32142290472984314,
        -0.02588876336812973,
        0.09916943311691284,
        -0.15290559828281403,
        -0.08834425359964371,
        -0.09300311654806137,
        -0.09097478538751602,
        0.06994961947202682,
        0.10911798477172852,
        -0.10071005672216415,
        0.019415993243455887,
        -0.1664966344833374,
        0.014374295249581337,
        -0.002950324909761548,
        -0.04556454345583916,
        0.2350616306066513,
        0.09642592072486877,
        0.07339004427194595,
        0.01938891038298607,
        0.04102592542767525,
        0.10887032002210617,
        -0.13802503049373627,
        -0.12138655036687851,
        -0.18932701647281647,
        0.07017011940479279,
        0.05979055538773537,
        0.19451260566711426,
        0.07544142007827759,
        -0.061634402722120285,
        -0.018375711515545845,
        -0.2101895958185196,
        -0.29113632440567017,
        -0.10249809175729752,
        0.08942097425460815,
        -0.0007463943329639733,
        -0.3596995174884796,
        0.00749285938218236,
        -0.1648281365633011,
        0.11119086295366287,
        -0.038629330694675446,
        0.09313379228115082,
        0.48096996545791626,
        -0.029167896136641502,
        0.16066056489944458,
        0.1110042929649353,
        0.3015996217727661,
        0.06130393594503403,
        0.46418172121047974,
        -0.1691836565732956,
        0.0028937594033777714,
        -0.3408091068267822,
        -0.16090621054172516,
        -0.04739601910114288,
        0.44973641633987427,
        -0.1916607767343521,
        0.07912355661392212,
        -0.24796761572360992,
        0.3544485867023468,
        0.010016326792538166,
