{
    "version": "0.5.0",
    "architecture": "WaveNet",
    "config": {
        "layers": [
            {
                "input_size": 1,
                "condition_size": 1,
                "head_size": 4,
                "channels": 8,
                "kernel_size": 3,
                "dilations": [
                    1,
                    2,
                    4,
                    8,
                    16,
                    32,
                    64
                ],
                "activation": "Tanh",
                "gated": false,
                "head_bias": false
            },
            {
                "input_size": 8,
                "condition_size": 1,
                "head_size": 1,
                "channels": 4,
                "kernel_size": 3,
                "dilations": [
                    128,
                    256,
                    512,
                    1,
                    2,
                    4,
                    8,
                    16,
                    32,
                    64,
                    128,
                    256,
                    512
                ],
                "activation": "Tanh",
                "gated": false,
                "head_bias": true
            }
        ],
        "head": null,
        "head_scale": 0.02
    },
    "weights": [
        0.17090833187103271,
        0.6283042430877686,
        -0.9021945595741272,
        -0.838127851486206,
        -0.4637676477432251,
        0.12826526165008545,
        -0.24211566150188446,
        0.838250458240509,
        -0.192868173122406,
        -0.0585939958691597,
        0.07864309847354889,
        -0.22404813766479492,
        -0.27979207038879395,
        4.478141272556968e-05,
        0.10256601870059967,
        0.09758783876895905,
        -0.048845548182725906,
        0.3083097040653229,
        -0.04765269160270691,
        -0.2198302149772644,
        0.25290995836257935,
        0.24781975150108337,
        -0.1808755248785019,
        -0.066576287150383,
        -0.17429888248443604,
        0.10529116541147232,
        0.3541244566440582,
        -0.12731808423995972,
        -0.28961774706840515,
        -0.23782546818256378,
        -0.16788159310817719,
        0.3065783679485321,
        -0.13247030973434448,
        -0.145255908370018,
        -0.13397960364818573,
        -0.23602090775966644,
        -0.21478371322155,
        0.14603185653686523,
        0.1377081722021103,
        0.1965087354183197,
        0.043425604701042175,
        -0.05834369733929634,
        0.1299663484096527,
        -0.1606345921754837,
        -0.10459461808204651,
        -0.010285359807312489,
        0.15832683444023132,
        0.0644218772649765,
        -0.18476833403110504,
        -0.02975342608988285,
        0.15028494596481323,
        0.28910285234451294,
        0.1001015305519104,
        -0.019730379804968834,
        0.03822239860892296,
        -0.1535729169845581,
        0.024268925189971924,
        -0.30415672063827515,
        -0.09818253666162491,
        -0.06441164016723633,
        0.033426433801651,
        0.15715718269348145,
        -0.157659649848938,
        0.12527965009212494,
        0.039945900440216064,
        -0.0626712366938591,
        0.07435041666030884,
        -0.023882733657956123,
        0.08363926410675049,
        0.25100088119506836,
        -0.23368343710899353,
        -0.07072576135396957,
        -0.021791929379105568,
        0.19939714670181274,
        0.12495414167642593,
        0.23271162807941437,
        -0.03761913627386093,
        -0.1403820812702179,
        -0.042988430708646774,
        -0.05572159215807915,
        -0.1851455420255661,
        0.20986543595790863,
        0.39223378896713257,
        -0.2637724280357361,
        0.016932383179664612,
        0.15167000889778137,
        0.02408779039978981,
        -0.0724412202835083,
        -0.10603909939527512,
        -0.06380770355463028,
        0.09556043148040771,
        -0.08235448598861694,
        0.20363359153270721,
        0.09484021365642548,
        -0.390559583902359,
        -0.20424968004226685,
        0.0673627033829689,
        0.19865192472934723,
        -0.08546969294548035,
        -0.10295702517032623,
        -0.01978442259132862,
        0.07969001680612564,
        -0.10938078165054321,
        0.13355328142642975,
        -0.20100928843021393,
        -0.11971258372068405,
        -0.05249775946140289,
        -0.19233322143554688,
        -0.12732268869876862,
        0.11569221317768097,
        -0.04426530376076698,
        0.24288462102413177,
        -0.2030455321073532,
        0.21926653385162354,
        0.2573586702346802,
        -0.25694555044174194,
        -0.020759714767336845,
        0.11941944807767868,
        -0.05913286656141281,
        0.001402578316628933,
        -0.051521603018045425,
        0.07613775134086609,
        -0.09784796088933945,
        0.19041021168231964,
        -0.3098590075969696,
        -0.1603102684020996,
        -0.17184078693389893,
        -0.020480865612626076,
        -0.28537124395370483,
        -0.4024908244609833,
        0.1967563033103943,
        -0.1561470478773117,
        -0.31724461913108826,
        0.23535038530826569,
        0.34883183240890503,
        0.16797521710395813,
        -0.2334677129983902,
        0.18345026671886444,
        0.23118333518505096,
        -0.11206721514463425,
        0.38800284266471863,
        0.306840717792511,
        -0.05506867542862892,
        -0.2417377084493637,
        -0.41763272881507874,
        0.10161164402961731,
        0.31947407126426697,
        0.15902413427829742,
        -0.3803962469100952,
        -0.3585570156574249,
        -0.37806272506713867,
        0.06749822944402695,
        -0.2915399968624115,
        0.39910340309143066,
        0.05670444294810295,
        -0.42794373631477356,
        0.4293624758720398,
        -0.18752774596214294,
        0.18267272412776947,
        -0.3852924108505249,
        -0.016689730808138847,
        0.19081489741802216,
        -0.4854673445224762,
        -0.15019726753234863,
        0.20292441546916962,
        -0.29280439019203186,
        -0.06160181760787964,
        -0.12439432740211487,
        0.13670963048934937,
        -0.014975868165493011,
        0.45202821493148804,
        -0.3770553469657898,
        0.2480272501707077,
        -0.15152513980865479,
        0.11798128485679626,
        0.10622208565473557,
        -0.16759663820266724,
        -0.4257194995880127,
        0.38735926151275635,
        -0.36573514342308044,
        -0.35245850682258606,
        0.11016552150249481,
        0.3471982777118683,
        0.4320054352283478,
        -0.05132339149713516,
        0.2714366614818573,
        0.3263012170791626,
        -0.19533371925354004,
        0.02849109284579754,
        0.4795586168766022,
        0.007063872646540403,
        -0.07830703258514404,
        -0.546001672744751,
        0.13342733681201935,
        0.04059462249279022,
        0.2452503740787506,
        -0.2928010821342468,
        -0.1321946680545807,
        -0.4963684678077698,
        0.1447114199399948,
        0.2021738886833191,
        0.17778022587299347,
        -0.038995642215013504,
        -0.19664575159549713,
        0.019918592646718025,
        0.48863521218299866,
        -0.4090178906917572,
        0.3748367130756378,
        0.48379549384117126,
        0.0898985043168068,
        0.058581024408340454,
        -0.013858558610081673,
        0.19929634034633636,
        0.004157876595854759,
        -0.024663560092449188,
        0.2723439633846283,
        -0.24558737874031067,
        -0.18327607214450836,
        0.08140488713979721,
        -0.2936238944530487,
        -0.11412164568901062,
        0.3449443280696869,
        0.0828758180141449,
        0.033039841800928116,
        -0.3692770302295685,
        0.15440768003463745,
        -0.30141061544418335,
        -0.1702428013086319,
        -0.15497039258480072,
        -0.0735413134098053,
        0.13459280133247375,
        0.23845060169696808,
        0.34942227602005005,
        0.36111724376678467,
        0.14687757194042206,
        -0.1333843618631363,
        0.29013946652412415,
        -0.053550902754068375,
        -0.3363356590270996,
        0.304114431142807,
        -0.015085447579622269,
        0.29839351773262024,
        -0.20881158113479614,
        -0.10729122906923294,
        -0.0692698210477829,
        -0.3557032644748688,
        0.2830742597579956,
        -0.259084016084671,
        0.16511321067810059,
        -0.028160016983747482,
        -0.1540614664554596,
        0.0530276894569397,
        0.26248109340667725,
        -0.06207782402634621,
        -0.3295861780643463,
        -0.05021985247731209,
        -0.0590212419629097,
        0.1162816733121872,
        -0.06321896612644196,
        -0.0002445364953018725,
        0.005312982015311718,
        0.4304977059364319,
        -0.0874742940068245,
        0.5201025605201721,
        0.3791070282459259,
        -0.1567031294107437,
        -0.03294563665986061,
        0.11490655690431595,
        0.19315111637115479,
        0.052741434425115585,
        -0.25177285075187683,
        -0.20758691430091858,
        -0.40410125255584717,
        0.09701153635978699,
        -0.006469986401498318,
        -0.33581846952438354,
        0.29770034551620483,
        -0.3861112594604492,
        0.03276298940181732,
        -0.03394724428653717,
        -0.035674918442964554,
        -0.07695101946592331,
        -0.29050594568252563,
        0.3511051833629608,
        0.08640003949403763,
        0.14312085509300232,
        -0.06684939563274384,
        0.14152735471725464,
        -0.1001291573047638,
        -0.20534147322177887,
        0.07774526625871658,
        0.16320066154003143,
        0.28178754448890686,
        -0.14919207990169525,
        -0.14879655838012695,
        -0.38707050681114197,
        0.2533892095088959,
        -0.34045055508613586,
        0.19781947135925293,
        -0.06380482017993927,
        -0.24100986123085022,
        -0.3236650228500366,
        -0.03819511830806732,
        -0.07053041458129883,
        -0.2575364410877228,
        -0.06554407626390457,
        -0.029223456978797913,
        -0.21206851303577423,
        0.04843892529606819,
        0.08306757360696793,
        -0.0068705580197274685,
        -0.10250259190797806,
        0.014324969612061977,
        0.05117587000131607,
        0.000995251233689487,
        0.019736003130674362,
        -0.20835375785827637,
        -0.022687243297696114,
        0.13616658747196198,
        0.01901092194020748,
        -0.18430955708026886,
        0.06897721439599991,
        -0.26242443919181824,
        0.1349850594997406,
        0.27990007400512695,
        0.2588200569152832,
        0.10576984286308289,
        0.1124408021569252,
        0.2062431424856186,
        -0.1711062341928482,
        -0.15621840953826904,
        -0.22733116149902344,
        -0.052971262484788895,
        0.1749747097492218,
        -0.11136581003665924,
        0.2512219250202179,
        0.4966825544834137,
        0.30330413579940796,
        -0.1363050937652588,
        -0.011084919795393944,
        -0.12580083310604095,
        0.15134428441524506,
        0.3721618354320526,
        0.2336900681257248,
        -0.3760426342487335,
        -0.02361837401986122,
        0.08709876984357834,
        0.24015647172927856,
        -0.008516340516507626,
        0.19429272413253784,
        -0.29872044920921326,
        0.5083135366439819,
        0.18274912238121033,
        -0.01659933477640152,
        0.29944899678230286,
        0.27327418327331543,
        -0.23671135306358337,
        -0.10310239344835281,
        -0.20294217765331268,
        0.24117106199264526,
        -0.07667476683855057,
        -0.1745828241109848,
        -0.18094706535339355,
        0.33351606130599976,
        0.1799134910106659,
        0.30564507842063904,
        0.044215619564056396,
        -0.10835307836532593,
        -0.16309508681297302,
        -0.14670243859291077,
        -0.16912326216697693,
        0.12103503942489624,
        -0.251821905374527,
        -0.028603607788681984,
        -0.257381409406662,
        -0.18127861618995667,
        0.18220901489257812,
        0.1418822705745697,
        0.11244548857212067,
        0.3055292069911957,
        0.2454628348350525,
        -0.01187391858547926,
        0.0133750569075346,
        0.1527397334575653,
        0.01543621625751257,
        0.1041899025440216,
        0.053367145359516144,
        0.0909513384103775,
        -0.026890849694609642,
        0.0546807236969471,
        0.18671640753746033,
        -0.026819471269845963,
        -0.026435399428009987,
        -0.14180149137973785,
        -0.2335224598646164,
        0.2805112600326538,
        0.22247545421123505,
        -0.12338869273662567,
        -0.0623571053147316,
        0.16948345303535461,
        0.07402797043323517,
        0.02963407151401043,
        0.00895628146827221,
        0.20057541131973267,
        0.07333570718765259,
        -0.19720572233200073,
        0.24564282596111298,
        0.1538790911436081,
        -0.0787167176604271,
        0.21532279253005981,
        -0.06845284253358841,
        0.005427453201264143,
        0.14776946604251862,
        -0.09324894100427628,
        -0.19981525838375092,
        -0.024556024000048637,
        -0.0814032331109047,
        -0.09513663500547409,
        0.20199479162693024,
        0.5938390493392944,
        0.06965038180351257,
        0.04276883229613304,
        0.1923953741788864,
        0.20472058653831482,
        0.20304279029369354,
        -0.18338914215564728,
        -0.053545914590358734,
        -0.17602233588695526,
        -0.1916896104812622,
        0.157001793384552,
        -0.1743977963924408,
        0.0036895715165883303,
        0.10492748767137527,
        -0.2578490078449249,
        -0.15233126282691956,
        0.010566783137619495,
        0.15533246099948883,
        -0.13829347491264343,
        0.16769596934318542,
        -0.16857729852199554,
        -0.06549645215272903,
        -0.26772379875183105,
        0.023363441228866577,
        0.005032511427998543,
        -0.2117437869310379,
        0.13780933618545532,
        0.0006338669918477535,
        0.018890196457505226,
        -0.08787138760089874,
        -0.10918666422367096,
        0.23429755866527557,
        0.1927371770143509,
        0.39934974908828735,
        0.0934806615114212,
        -0.062116533517837524,
        0.14629244804382324,
        0.011547351256012917,
        -0.057698432356119156,
        -0.3195969760417938,
        0.1276320517063141,
        -0.023735491558909416,
        0.15314370393753052,
        -0.09878330677747726,
        -0.19113905727863312,
        -0.05705785006284714,
        -0.01465162355452776,
        -0.020164642482995987,
        -0.13797734677791595,
        -0.27715739607810974,
        -0.16863220930099487,
        -0.11076740175485611,
        0.06426724791526794,
        0.039190955460071564,
        -0.08789004385471344,
        0.025103768333792686,
        -0.12165338546037674,
        -0.18801969289779663,
        0.19030922651290894,
        -0.02919728122651577,
        0.2345173954963684,
        -0.23945878446102142,
        -0.020500395447015762,
        -0.05498918145895004,
        0.07938246428966522,
        -0.09534324705600739,
        0.30585628747940063,
        0.02141437493264675,
        0.023987678810954094,
        -0.03716235235333443,
        -0.24833659827709198,
        -0.07324455678462982,
        0.1494056135416031,
        0.44472408294677734,
        -1.0370488166809082,
        0.9188134074211121,
        0.08763561397790909,
        -0.32885950803756714,
        -0.10253526270389557,
        0.40173742175102234,
        0.32581982016563416,
        -0.06407672166824341,
        0.35675355792045593,
        0.26076817512512207,
        0.23259064555168152,
        0.27342361211776733,
        -0.20612028241157532,
        0.018881699070334435,
        0.13103985786437988,
        -0.19301669299602509,
        0.030344855040311813,
        -0.17555221915245056,
        0.16062700748443604,
        -0.03359003737568855,
        -0.22434915602207184,
        0.09211878478527069,
        0.035709284245967865,
        -0.16594044864177704,
        0.04328344389796257,
        0.24571593105793,
        0.06799782812595367,
        0.15545780956745148,
        -0.1390058547258377,
        -0.09182140231132507,
        -0.1883026659488678,
        -0.1725982427597046,
        -0.3713253140449524,
        0.3007926642894745,
        -0.18053877353668213,
        0.007316607981920242,
        -0.2209378033876419,
        0.5084793567657471,
        0.14957314729690552,
        -0.16660000383853912,
        -0.08098552376031876,
        -0.2134285718202591,
        0.12441129237413406,
        -0.037672486156225204,
        -0.1735149472951889,
        0.001217713113874197,
        -0.013829661533236504,
        -0.3770105540752411,
        0.16811366379261017,
        -0.17765890061855316,
        -0.1913282722234726,
        0.03992439806461334,
        0.20934541523456573,
        -0.09005198627710342,
        -0.088807612657547,
        -0.05782126262784004,
        0.5458109378814697,
        -0.25072169303894043,
        -0.09926185756921768,
        0.3842256963253021,
        -0.2462933212518692,
        -0.14826971292495728,
        0.04894813895225525,
        -0.19360776245594025,
        -0.04279587045311928,
        0.24945314228534698,
        0.02190782129764557,
        -0.4282893240451813,
        -0.09793765097856522,
        -0.16911670565605164,
        0.19529785215854645,
        -0.16893000900745392,
        0.1482115387916565,
        0.06220116838812828,
        0.0084691122174263,
        0.4375052750110626,
        0.4429878294467926,
        -0.12724569439888,
        -0.03346564620733261,
        -0.18696291744709015,
        -0.05230555310845375,
        0.03048480488359928,
        0.052472397685050964,
        -0.2263568490743637,
        -0.25817152857780457,
        -0.22596465051174164,
        0.3033444583415985,
        0.03266124427318573,
        -0.1874719262123108,
        -0.35401052236557007,
        0.14658358693122864,
        0.09977387636899948,
        -0.10317618399858475,
        0.10362299531698227,
        0.05646258592605591,
        0.08333064615726471,
        -0.008915545418858528,
        -0.15263643860816956,
        -0.07385705411434174,
        -0.44819965958595276,
        0.2843911647796631,
        0.4567939043045044,
        0.1790030300617218,
        -0.18445852398872375,
        0.04644240438938141,
        0.10062844306230545,
        0.1548343151807785,
        -0.11100641638040543,
        -0.015702664852142334,
        -0.016654590144753456,
        0.15315493941307068,
        -0.2732727527618408,
        -0.04379260540008545,
        0.24645867943763733,
        -0.009631472639739513,
        -0.1264992505311966,
        0.033369917422533035,
        -0.09573370963335037,
        -0.13317517936229706,
        0.22975562512874603,
        0.10283322632312775,
        0.09263181686401367,
        0.03729178011417389,
        0.35676828026771545,
        -0.2115233838558197,
        -0.38863691687583923,
        0.02072438970208168,
        -0.06312954425811768,
        0.3365364074707031,
        0.20679153501987457,
        -0.13979123532772064,
        -0.026214556768536568,
        -0.04771656170487404,
        -0.05077259615063667,
        -0.09563905000686646,
        0.04345163330435753,
        0.032520778477191925,
        0.06541741639375687,
        0.017887216061353683,
        0.09385095536708832,
        0.036387745290994644,
        0.19690564274787903,
        -0.022440338507294655,
        0.017636485397815704,
        -0.31852298974990845,
        -0.1695994734764099,
        0.17722004652023315,
        0.5397648811340332,
        0.01732155680656433,
        0.021926378831267357,
        0.04140523076057434,
        -0.07361073046922684,
        0.22577637434005737,
        -0.18384945392608643,
        0.2214335799217224,
        -0.005443046800792217,
        -0.40986815094947815,
        0.13418179750442505,
        -0.20471738278865814,
        0.17373430728912354,
        -0.16060449182987213,
        -0.21483702957630157,
        -0.2504100799560547,
        -0.15217943489551544,
        0.07559436559677124,
        -0.08313990384340286,
        0.16024746000766754,
        0.020829295739531517,
        -0.020446930080652237,
        0.20397314429283142,
        -0.17526543140411377,
        -0.16381977498531342,
        0.011604100465774536,
        -0.014317220076918602,
        0.32543665170669556,
        0.07897208631038666,
        0.16850687563419342,
        -0.2892600893974304,
        0.07946283370256424,
        0.18014849722385406,
        0.009055926464498043,
        0.1510070115327835,
        0.07191915810108185,
        -0.17438527941703796,
        -0.0044597238302230835,
        0.23269148170948029,
        -0.2458493709564209,
        -0.03399397432804108,
        -0.23178936541080475,
        -0.20109421014785767,
        0.05354277417063713,
        0.15965820848941803,
        0.37547335028648376,
        0.09330415725708008,
        -0.2536908984184265,
        0.14623130857944489,
        -0.10529011487960815,
        -0.06970162689685822,
        -0.0989508181810379,
        0.16587795317173004,
        0.2698085904121399,
        0.23016825318336487,
        -0.08385983109474182,
        0.16658388078212738,
        -0.15523268282413483,
        0.05861809104681015,
        -0.2478366494178772,
        0.13237091898918152,
        0.20990391075611115,
        -0.09897590428590775,
        0.07892832905054092,
        -0.1351381242275238,
        -0.010406057350337505,
        0.1890745460987091,
        0.1343981921672821,
        -0.26030057668685913,
        0.0006083096377551556,
        -0.02099037729203701,
        0.0009253430180251598,
        -0.6900091767311096,
        0.0399869829416275,
        0.13813525438308716,
        0.041482556611299515,
        0.0461181215941906,
        0.0398554727435112,
        0.21450017392635345,
        0.1887417882680893,
        0.3408718407154083,
        -0.25643813610076904,
        -0.01417121198028326,
        -0.4057662785053253,
        -0.24566689133644104,
        0.05786442011594772,
        0.2558003067970276,
        -0.15551438927650452,
        0.021452168002724648,
        -0.08566607534885406,
        -0.10001911222934723,
        -0.009077860042452812,
        -0.03363337740302086,
        0.10006033629179001,
        -0.07046353816986084,
        0.0988185778260231,
        0.1970074474811554,
        -0.4060612916946411,
        0.2875071167945862,
        -0.0363161526620388,
        -0.09777610749006271,
        0.05456385016441345,
        0.22521209716796875,
        0.3368023633956909,
        0.32033252716064453,
        -0.15431608259677887,
        0.15913434326648712,
        -0.11579785495996475,
        0.07450319826602936,
        0.06568710505962372,
        0.004412687849253416,
        -0.10562166571617126,
        0.18472948670387268,
        0.130135178565979,
        0.14258216321468353,
        0.2863939106464386,
        0.11583247035741806,
        0.08100145310163498,
        -0.32500365376472473,
        -0.3810842037200928,
        0.14639313519001007,
        0.19178538024425507,
        -0.24587707221508026,
        0.07371722161769867,
        -0.09777224808931351,
        -0.23433026671409607,
        -0.09755082428455353,
        0.016184348613023758,
        -0.6269741058349609,
        -0.40155553817749023,
        0.32253339886665344,
        -0.8658350706100464,
        0.35067301988601685,
        0.9199363589286804,
        0.5749868154525757,
        -0.7280380129814148,
        0.2839944660663605,
        -0.21236589550971985,
        0.4716695547103882,
        -0.24829335510730743,
        -0.46306294202804565,
        0.2411222606897354,
        0.05162515491247177,
        -0.0626073032617569,
        -0.17706994712352753,
        0.1476382613182068,
        -0.30795958638191223,
        -0.43546801805496216,
        0.1989280879497528,
        -0.026731811463832855,
        0.03083665668964386,
        0.3202502131462097,
        0.28424710035324097,
        -0.09615512192249298,
        -0.006646231282502413,
        -0.1875525712966919,
        -0.17451955378055573,
        -0.13242772221565247,
        -0.09522642195224762,
        -0.2105361372232437,
        0.1327919065952301,
        -0.0846603587269783,
        0.43897032737731934,
        -0.29093295335769653,
        -0.1239585280418396,
        0.358905166387558,
        0.3533460795879364,
        -0.09004352986812592,
        0.08080408722162247,
        -0.15748785436153412,
        -0.21875929832458496,
        -0.044270504266023636,
        0.10270053148269653,
        -0.30138662457466125,
        -0.0674583688378334,
        0.26684221625328064,
        0.01788620837032795,
        0.19688153266906738,
        -0.07288677245378494,
        0.21037179231643677,
        0.4570368826389313,
        -0.04773750528693199,
        0.18096472322940826,
        -0.13858290016651154,
        -0.034272827208042145,
        -0.1158791333436966,
        -0.12351293861865997,
        -0.3816199004650116,
        0.3042420744895935,
        -0.00488369120284915,
        0.079273521900177,
        -0.1975902020931244,
        -0.014684287831187248,
        -0.12803959846496582,
        -0.2434324026107788,
        0.1248893067240715,
        0.09174832701683044,
        -0.09692241251468658,
        -0.07403194904327393,
        0.03092583827674389,
        -0.1546647995710373,
        0.3858667314052582,
        -0.037084490060806274,
        0.16715317964553833,
        0.2643013298511505,
        -0.18923062086105347,
        0.28874439001083374,
        0.2945570647716522,
        -0.029316235333681107,
        0.06054901331663132,
        -0.006279250141233206,
        0.07755080610513687,
        -0.3134986162185669,
        -0.014024493284523487,
        0.029701445251703262,
        0.07215506583452225,
        -0.08261410892009735,
        -0.07805797457695007,
        0.016269858926534653,
        -0.16385067999362946,
        0.059475578367710114,
        0.3765275776386261,
        -0.08765275776386261,
        0.09400983899831772,
        0.45387059450149536,
        -0.16026923060417175,
        -0.08540990203619003,
        -0.03701687604188919,
        -0.15842290222644806,
        -0.020418820902705193,
        -0.19430164992809296,
        0.07199043035507202,
        0.3174276649951935,
        0.07598899304866791,
        -0.330655962228775,
        -0.320556640625,
        0.43543827533721924,
        0.6757174730300903,
        0.252769410610199,
        0.06284010410308838,
        -0.21672333776950836,
        -0.0337395966053009,
        -0.1237298846244812,
        0.35746464133262634,
        0.3258645832538605,
        0.1613161414861679,
        0.06908410787582397,
        -0.2161395400762558,
        -0.11342984437942505,
        0.09549752622842789,
        -0.3483504056930542,
        -0.022420736029744148,
        0.08400595188140869,
        -0.12808522582054138,
        -0.07799665629863739,
        0.3494400978088379,
        -0.09820608049631119,
        -0.0824219137430191,
        0.02071230486035347,
        0.09378431737422943,
        0.024039486423134804,
        0.39303869009017944,
        0.06586670875549316,
        0.4256575107574463,
        0.01170725841075182,
        -0.05199682340025902,
        -0.33651918172836304,
        -0.2026015669107437,
        -0.01789184659719467,
        0.12304293364286423,
        0.048872366547584534,
        0.08601322025060654,
        0.30585920810699463,
        0.04508339986205101,
        -0.052528463304042816,
        0.19857075810432434,
        -0.2625854015350342,
        -0.08483228087425232,
        -0.0479312539100647,
        0.18507994711399078,
        -0.038841478526592255,
        -0.19301795959472656,
        0.011505182832479477,
        0.31645697355270386,
        -0.04869228973984718,
        -0.20216301083564758,
        0.08656829595565796,
        0.37957119941711426,
        0.30240485072135925,
        -0.12544339895248413,
        0.09241378307342529,
        -0.06308197975158691,
        -0.22039538621902466,
        0.39980822801589966,
        0.10208076983690262,
        0.29025012254714966,
        0.4432503581047058,
        -0.2278040647506714,
        0.3163914084434509,
        0.3208690881729126,
        0.19777673482894897,
        0.036276675760746,
        -0.2633829712867737,
        0.2898922860622406,
        -0.02167329005897045,
        -0.079302117228508,
        -0.1846465915441513,
        -0.3499264717102051,
        -0.04856802523136139,
        -0.2527255713939667,
        -0.09601443260908127,
        0.041386641561985016,
        0.1118401437997818,
        -0.3326515257358551,
        0.0470714196562767,
        0.13402941823005676,
        0.14563849568367004,
        -0.10481643676757812,
        0.16552604734897614,
        0.03883422538638115,
        -0.08463408797979355,
        0.13355542719364166,
        0.1273328959941864,
        -0.10388985276222229,
        -0.1471027433872223,
        -0.019956527277827263,
        0.17796172201633453,
        -0.22206343710422516,
        -0.3010614514350891,
        -0.01251500565558672,
        0.010988837108016014,
        0.11498627811670303,
        -0.04641978070139885,
        -0.18889878690242767,
        -0.1698298156261444,
        0.07702158391475677,
        0.2207225263118744,
        -0.018471894785761833,
        -0.5075446963310242,
        0.197067990899086,
        -0.026960650458931923,
        -0.014346601441502571,
        0.06279435008764267,
        -0.03450964018702507,
        0.2648990750312805,
        -0.008723510429263115,
        -0.12365792691707611,
        -0.022911623120307922,
        -0.23537234961986542,
        0.2069631665945053,
        -0.051925621926784515,
        0.19369898736476898,
        -0.31231361627578735,
        -0.3146727979183197,
        0.2649633586406708,
        0.024039486423134804,
        -0.32976266741752625,
        -0.2536446750164032,
        -0.23035550117492676,
        0.2152733951807022,
        -0.086537666618824,
        -0.1713394969701767,
        -0.12201886624097824,
        -0.05695639178156853,
        -0.2464189976453781,
        0.215379536151886,
        -0.2237161099910736,
        -0.06444120407104492,
        0.3537353575229645,
        -0.15538427233695984,
        0.031374480575323105,
        0.17192427814006805,
        -0.0451822355389595,
        0.039796486496925354,
        -0.2842015326023102,
        0.1196451410651207,
        0.1907844990491867,
        -0.008157509379088879,
        -0.09952428191900253,
        0.0399974025785923,
        -0.196576789021492,
        -0.1834307461977005,
        -0.1840014010667801,
        0.6683416366577148,
        0.10117058455944061,
        -0.1293162703514099,
        -0.13312359154224396,
        0.1239241361618042,
        -0.0509246364235878,
        0.41007786989212036,
        0.14148381352424622,
        0.1230567917227745,
        0.36869215965270996,
        -0.02589007280766964,
        0.10505811125040054,
        0.510150134563446,
        0.23382392525672913,
        -0.013801761902868748,
        -0.35602375864982605,
        0.23931270837783813,
        -0.15637993812561035,
        0.16177910566329956,
        0.012046447023749352,
        0.11039139330387115,
        0.03827420994639397,
        0.056695643812417984,
        0.08591698855161667,
        0.23352783918380737,
        -0.9351128935813904,
        0.9764553308486938,
        -0.09863288700580597,
        -0.21699829399585724,
        0.3148878216743469,
        0.6538227200508118,
        -0.8562694191932678,
        0.08294349163770676,
        0.18542271852493286,
        0.19434064626693726,
        0.1940304934978485,
        -0.15955176949501038,
        0.011163653805851936,
        0.19747623801231384,
        0.06752841919660568,
        0.44268742203712463,
        -0.054283227771520615,
        -0.5932828187942505,
        -0.022579796612262726,
        -0.08769062906503677,
        -0.19163937866687775,
        0.8281911611557007,
        0.34949877858161926,
        0.030026432126760483,
        0.06526777148246765,
        -0.24364714324474335,
        0.14613234996795654,
        -0.31257230043411255,
        -0.09763623028993607,
        -0.3381198048591614,
        0.26490023732185364,
        -0.07238849252462387,
        0.33135974407196045,
        -0.31795206665992737,
        0.32846057415008545,
        0.005397964268922806,
        0.030632304027676582,
        0.2843426465988159,
        0.2823057472705841,
        0.21696361899375916,
        -0.22515869140625,
        -0.1499175727367401,
        -0.1610374003648758,
        0.08226983994245529,
        -0.1735493242740631,
        0.29732173681259155,
        -0.20156365633010864,
        -0.21466758847236633,
        0.046270135790109634,
        -0.24047209322452545,
        -0.08131153881549835,
        0.021213330328464508,
        0.08378735929727554,
        -0.3719557821750641,
        0.21894094347953796,
        0.19149792194366455,
        0.0011024135164916515,
        -0.06098758429288864,
        -0.18558953702449799,
        -0.14683392643928528,
        0.14925824105739594,
        -0.019366566091775894,
        0.07489605247974396,
        -0.4253799617290497,
        -0.15458577871322632,
        -0.06809187680482864,
        -0.31957918405532837,
        -0.40581178665161133,
        0.09143206477165222,
        -0.19346797466278076,
        -0.35822203755378723,
        -0.24659889936447144,
        -0.08551178872585297,
        -0.22897528111934662,
        -0.23881633579730988,
        0.07839545607566833,
        -0.2248258888721466,
        -0.1358007937669754,
        -0.05954420194029808,
        -0.19699028134346008,
        0.127420112490654,
        0.048112060874700546,
        -0.13863180577754974,
        -0.12550313770771027,
        -0.026194164529442787,
        0.3205241560935974,
        0.1966012567281723,
        0.07270262390375137,
        -0.2540047764778137,
        0.034388814121484756,
        0.24712726473808289,
        -0.20592935383319855,
        -0.2511554956436157,
        0.34574535489082336,
        0.09332496672868729,
        -0.1985008269548416,
        0.3067391514778137,
        -0.3070494830608368,
        0.16144151985645294,
        -0.24015071988105774,
        0.1456793248653412,
        -0.09988674521446228,
        -0.05840994045138359,
        -0.22812281548976898,
        -0.10034731775522232,
        0.03100557252764702,
        0.10776632279157639,
        -0.36191660165786743,
        -0.10482702404260635,
        0.1523710936307907,
        0.09704796969890594,
        0.1039562001824379,
        -0.5118438601493835,
        0.01805729605257511,
        0.0011041437974199653,
        0.011455392464995384,
        0.00943505484610796,
        -0.15476243197917938,
        -0.018212027847766876,
        -0.0033741097431629896,
        0.016345595940947533,
        -0.4000820219516754,
        0.056098684668540955,
        0.2364552915096283,
        -0.02269889786839485,
        -0.1807895004749298,
        -0.08579996228218079,
        0.10457973182201385,
        0.10265523940324783,
        0.09209360927343369,
        -0.01827528141438961,
        -0.20875808596611023,
        -0.2595403492450714,
        -0.26605361700057983,
        -0.0008561901049688458,
        -0.15244828164577484,
        -0.22356031835079193,
        -0.0818958505988121,
        0.08052286505699158,
        0.4132247865200043,
        0.29800543189048767,
        0.0007119414512999356,
        0.11511863023042679,
        -0.03592376783490181,
        0.27614372968673706,
        0.08300577849149704,
        -0.0002883358101826161,
        -0.07509057223796844,
        0.18218329548835754,
        -0.1352989822626114,
        -0.012820848263800144,
        -0.12421347200870514,
        0.056443288922309875,
        -0.00552862836048007,
        0.38415324687957764,
        -0.1464448720216751,
        -0.09441066533327103,
        -0.25948020815849304,
        -0.2634773850440979,
        0.10842911899089813,
        -0.025730444118380547,
        -0.08988502621650696,
        -0.39952006936073303,
        -0.11925894767045975,
        -0.15847717225551605,
        -0.11490458250045776,
        -0.4175622761249542,
        -0.3858916759490967,
        0.09676384180784225,
        0.10979314893484116,
        -0.14580842852592468,
        0.1311272382736206,
        -0.06436891108751297,
        0.2330062985420227,
        0.020331500098109245,
        -0.05728395655751228,
        -0.10454972088336945,
        0.20544761419296265,
        -0.1634494662284851,
        0.315048485994339,
        0.08308038115501404,
        -0.12145194411277771,
        0.025551453232765198,
        0.17657339572906494,
        -0.01915319263935089,
        -0.18545837700366974,
        0.11143187433481216,
        0.08324923366308212,
        0.26192396879196167,
        0.33697429299354553,
        0.05625014752149582,
        -0.2846641540527344,
        0.0027294722385704517,
        0.03687186539173126,
        0.2365293949842453,
        -0.28093981742858887,
        0.0024789029266685247,
        -0.11462690681219101,
        -0.23841746151447296,
        -0.09354796260595322,
        -0.1228962168097496,
        -0.10009561479091644,
        0.0814284086227417,
        0.5872549414634705,
        0.08987835049629211,
        -0.17873969674110413,
        0.023988613858819008,
        0.07379455864429474,
        0.3484698235988617,
        0.11079437285661697,
        0.07128501683473587,
        0.24913176894187927,
        -0.196711465716362,
        -0.09366683661937714,
        0.21960905194282532,
        0.030476443469524384,
        -0.01661868207156658,
        0.13566286861896515,
        0.1160031333565712,
        0.09763868153095245,
        -0.030326778069138527,
        0.31076768040657043,
        0.09554821252822876,
        0.24515627324581146,
        -0.30921670794487,
        -0.2996698319911957,
        0.0358365960419178,
        0.2235700637102127,
        0.04428818076848984,
        -0.09164249151945114,
        -0.43399879336357117,
        0.0060918801464140415,
        -0.1894349306821823,
        0.0747971460223198,
        -0.242860347032547,
        0.20076321065425873,
        0.12363860011100769,
        0.0456598699092865,
        -0.11977352201938629,
        -0.10040592402219772,
        0.048097703605890274,
        -0.18159076571464539,
        0.26227903366088867,
        0.267157644033432,
        -0.08947202563285828,
        0.18502099812030792,
        -0.08308541029691696,
        -0.21447978913784027,
        -0.03910098597407341,
        -0.11907985806465149,
        0.0891135111451149,
        -0.2720167636871338,
        -0.0007457547471858561,
        0.03482557088136673,
        0.14732107520103455,
        0.02684715762734413,
        0.23831209540367126,
        0.09254579991102219,
        0.0520658977329731,
        -0.09242088347673416,
        -0.2917868494987488,
        -0.3676142394542694,
        0.12218776345252991,
        -0.006625192705541849,
        -0.3851567208766937,
        -0.1185164675116539,
        -0.12578172981739044,
        -0.04210297018289566,
        -0.3600565791130066,
        0.028175031766295433,
        0.3959537446498871,
        0.22976508736610413,
        -0.13794519007205963,
        0.15377387404441833,
        0.119146429002285,
        -0.032128963619470596,
        -0.10036398470401764,
        0.12036359310150146,
        0.11972896754741669,
        -0.1843859851360321,
        -0.18403293192386627,
        -0.22603526711463928,
        -0.3145366311073303,
        -0.717336893081665,
        0.48443469405174255,
        0.3964628279209137,
        -0.28969311714172363,
        -0.16048946976661682,
        0.15293733775615692,
        -0.17412230372428894,
        0.16777415573596954,
        -0.09310410171747208,
        -0.2484486848115921,
        0.24050557613372803,
        0.07117985934019089,
        0.13960573077201843,
        -0.18924543261528015,
        0.06416165083646774,
        0.39626961946487427,
        0.06995873898267746,
        0.022355573251843452,
        0.39414021372795105,
        0.20453236997127533,
        0.3540647327899933,
        0.5931187272071838,
        0.4577508866786957,
        -0.026160523295402527,
        -0.04186234250664711,
        -0.21563264727592468,
        -0.3855641484260559,
        0.04602811858057976,
        0.029617132619023323,
        0.27674195170402527,
        0.2685157060623169,
        -0.2330618053674698,
        0.23270773887634277,
        0.1566016674041748,
        0.3501723110675812,
        0.18198539316654205,
        -0.17710015177726746,
        -0.12285454571247101,
        0.22130349278450012,
        -0.3186180889606476,
        0.20105694234371185,
        -0.5029906630516052,
        -0.09658598899841309,
        -0.09371808916330338,
        0.2955043315887451,
        0.3507251441478729,
        0.11217189580202103,
        0.09726427495479584,
        -0.13873636722564697,
        0.1936955749988556,
        -0.2084413468837738,
        0.08678947389125824,
        -0.1515091210603714,
        0.19758112728595734,
        0.07217954099178314,
        -0.23725666105747223,
        -0.2586665749549866,
        -0.07992887496948242,
        0.6818634867668152,
        0.06059795990586281,
        0.30599671602249146,
        0.15937604010105133,
        0.43258702754974365,
        0.35487034916877747,
        -0.031799763441085815,
        0.03353208675980568,
        -0.1700332760810852,
        0.18074901401996613,
        -0.1292405128479004,
        -0.015669019892811775,
        0.09076027572154999,
        -0.3832552433013916,
        0.27031809091567993,
        0.21993570029735565,
        -0.08778657019138336,
        0.4955665171146393,
        -0.10508556663990021,
        -0.010047001764178276,
        -0.22679942846298218,
        0.0876157358288765,
        -0.020907463505864143,
        0.20101620256900787,
        0.5347716808319092,
        0.5852336883544922,
        0.5477685332298279,
        0.43348902463912964,
        -0.1514308601617813,
        -0.05855988338589668,
        0.17679767310619354,
        0.1297525316476822,
        -0.283957302570343,
        0.05544821172952652,
        -0.13222461938858032,
        -0.10034872591495514,
        -0.09072452038526535,
        -0.40384823083877563,
        -0.1511732041835785,
        -0.15695883333683014,
        0.0974196270108223,
        -0.10898219794034958,
        -0.11681849509477615,
        -0.09296643733978271,
        0.012227076105773449,
        -0.10797937214374542,
        0.1524542272090912,
        -0.019262181594967842,
        -0.29218876361846924,
        -0.3158109188079834,
        0.3026459217071533,
        0.19577950239181519,
        0.06248319521546364,
        -0.14949780702590942,
        -0.24266855418682098,
        -0.13784734904766083,
        0.10532409697771072,
        -0.047543272376060486,
        -0.14815416932106018,
        -0.22089792788028717,
        -0.2114199995994568,
        0.5596036314964294,
        0.1266220659017563,
        -0.1300867646932602,
        -0.09714815765619278,
        0.03596549481153488,
        -0.11697084456682205,
        0.2380872666835785,
        0.3828064203262329,
        -0.44260215759277344,
        -0.02939438819885254,
        -0.24419890344142914,
        0.17901447415351868,
        0.23166711628437042,
        -0.12529392540454865,
        -0.08394885808229446,
        -0.09156037122011185,
        0.12683673202991486,
        -0.2130439132452011,
        0.10800151526927948,
        -0.2692498564720154,
        0.39084479212760925,
        0.10103744268417358,
        0.017957812175154686,
        -0.13926267623901367,
        -0.38487592339515686,
        -0.4882124662399292,
        0.2641967236995697,
        0.0689106211066246,
        0.24249479174613953,
        0.32987117767333984,
        0.26389071345329285,
        0.18683446943759918,
        -0.033400759100914,
        -0.3235473930835724,
        0.1593044549226761,
        -0.027019856497645378,
        0.5943152904510498,
        -0.37161755561828613,
        0.23778653144836426,
        0.06658308207988739,
        0.30222007632255554,
        0.13746388256549835,
        0.09522482007741928,
        -0.6584386229515076,
        0.08214551210403442,
        0.16858719289302826,
        -0.4372485876083374,
        -0.182127445936203,
        -0.12580382823944092,
        -0.013410856947302818,
        -0.01550949364900589,
        0.1568853259086609,
        0.8739559650421143,
        0.04322715103626251,
        0.05404224619269371,
        0.07651917636394501,
        -0.19619043171405792,
        0.0040817600674927235,
        0.03223482146859169,
        -0.06582512706518173,
        0.058069098740816116,
        -0.16470906138420105,
        -0.2511551082134247,
        -0.17166760563850403,
        -0.024717606604099274,
        -0.06252443045377731,
        0.06689239293336868,
        0.06728837639093399,
        -0.06818702816963196,
        -0.14885066449642181,
        -0.12171372771263123,
        0.023832453414797783,
        -0.04324348270893097,
        0.10076569765806198,
        0.2252320796251297,
        0.031872525811195374,
        -0.19831635057926178,
        -0.14520129561424255,
        -0.08476529270410538,
        -0.24385176599025726,
        0.5558011531829834,
        0.07355275005102158,
        0.28995057940483093,
        -0.017680682241916656,
        -0.326532781124115,
        -0.15802507102489471,
        0.07219605892896652,
        0.1584889441728592,
        -0.14381754398345947,
        0.1079322025179863,
        0.02324117347598076,
        0.1986113339662552,
        0.10165754705667496,
        0.026176800951361656,
        -0.18306134641170502,
        0.3252186179161072,
        0.004404894076287746,
        -0.06196577474474907,
        -0.4047899842262268,
        0.07121547311544418,
        0.055444858968257904,
        -0.16592788696289062,
        -0.11853848397731781,
        -0.053741250187158585,
        0.19815795123577118,
        0.14417478442192078,
        0.08571877330541611,
        -0.19667844474315643,
        -0.41733318567276,
        -0.21245412528514862,
        0.12046591192483902,
        0.008077197708189487,
        0.1355433613061905,
        -0.17797698080539703,
        -0.07758175581693649,
        -0.22788971662521362,
        -0.1272486448287964,
        -0.1564059853553772,
        -0.20433485507965088,
        0.1241903230547905,
        -0.09209999442100525,
        -0.1540151834487915,
        0.05367439612746239,
        0.0356513150036335,
        0.2504223883152008,
        -0.1909215897321701,
        -0.014233236201107502,
        -0.1372351348400116,
        0.454403817653656,
        0.2089594006538391,
        0.17382660508155823,
        -0.006428698543459177,
        -0.36114269495010376,
        -0.019451329484581947,
        0.23807597160339355,
        0.08278810977935791,
        -0.020646806806325912,
        0.285232275724411,
        -0.009120691567659378,
        0.08602053672075272,
        -0.02351640723645687,
        0.01596631482243538,
        -0.16726863384246826,
        0.1806415170431137,
        0.2556648850440979,
        0.07998176664113998,
        -0.4008248746395111,
        -0.01830516755580902,
        0.0670878142118454,
        -0.3968198001384735,
        -0.4608270823955536,
        -0.08436378091573715,
        -0.04662827029824257,
        -0.013649224303662777,
        0.04180067405104637,
        0.06849062442779541,
        0.0952940359711647,
        0.0831691324710846,
        -0.5177552700042725,
        0.08089597523212433,
        0.251132607460022,
        -0.026678994297981262,
        -0.3215945065021515,
        0.2714768350124359,
        -0.765627920627594,
        0.20449833571910858,
        0.4361914396286011,
        -0.1555919200181961,
        -0.4901666045188904,
        0.2425655722618103,
        0.20259080827236176,
        -0.19395597279071808,
        -0.6782257556915283,
        0.24163275957107544,
        -0.09951002895832062,
        0.592250406742096,
        0.5515724420547485,
        0.1339176595211029,
        -0.0457417368888855,
        -0.056959498673677444,
        0.00026581654674373567,
        -0.3278322219848633,
        0.12088281661272049,
        -0.0035839008633047342,
        -0.05476059764623642,
        -0.4759206473827362,
        0.3333682417869568,
        0.3101761043071747,
        0.8086956739425659,
        0.13556163012981415,
        -0.2090747207403183,
        0.22869332134723663,
        0.03137153014540672,
        -0.35847151279449463,
        0.08093687146902084,
        0.4323379397392273,
        0.12617608904838562,
        0.4223167896270752,
        0.023726757615804672,
        -0.12051530182361603,
        0.30033838748931885,
        0.27915531396865845,
        -0.24538321793079376,
        -0.25323671102523804,
        0.006079611834138632,
        0.3086990416049957,
        0.1777029037475586,
        -0.27963268756866455,
        0.39085644483566284,
        0.1786465048789978,
        -0.6029620170593262,
        -0.5414233803749084,
        0.19712011516094208,
        0.09374804049730301,
        -0.4958976209163666,
        0.8389195203781128,
        -0.5741633772850037,
        0.34930381178855896,
        0.2210189253091812,
        0.02364281192421913,
        0.161049485206604,
        0.1597902774810791,
        -0.3552355170249939,
        0.10285193473100662,
        0.09071728587150574,
        -0.4097121059894562,
        0.49431493878364563,
        -0.547355592250824,
        -0.20668621361255646,
        -0.39355090260505676,
        -0.32099542021751404,
        0.4698188006877899,
        -0.0988106057047844,
        -0.00038352340925484896,
        0.051767703145742416,
        -0.37397128343582153,
        0.019294407218694687,
        0.19089479744434357,
        0.12554220855236053,
        0.09272702038288116,
        0.05643783137202263,
        -0.16557715833187103,
        0.1881965547800064,
        -0.20921926200389862,
        -0.10578187555074692,
        0.20290565490722656,
        -0.15445545315742493,
        0.11089607328176498,
        -0.13423196971416473,
        0.17554375529289246,
        0.16866090893745422,
        -0.16890528798103333,
        0.14897893369197845,
        0.14591941237449646,
        -0.17472316324710846,
        -0.4990423917770386,
        0.03275291994214058,
        -0.03750626742839813,
        0.06858847290277481,
        0.06873806565999985,
        0.04524233564734459,
        -0.017861323431134224,
        0.10709621012210846,
        0.0013911055866628885,
        -0.1451730579137802,
        -0.10215914249420166,
        0.012076245620846748,
        0.35531240701675415,
        -0.008290532045066357,
        0.03768045827746391,
        0.1422158032655716,
        -0.1489468663930893,
        0.026592543348670006,
        -0.45618492364883423,
        -0.014617985114455223,
        -0.05780141428112984,
        0.00540888262912631,
        0.0022783142048865557,
        -0.0029227430932223797,
        -0.3041636049747467,
        0.0420583076775074,
        -0.011662743054330349,
        0.2413581758737564,
        -0.019543280825018883,
        -0.026032712310552597,
        0.3282549977302551,
        0.05558030307292938,
        0.1273929476737976,
        -0.05597611144185066,
        -0.26878663897514343,
        -0.16167302429676056,
        0.25533682107925415,
        0.026353148743510246,
        0.2179764062166214,
        0.03064853884279728,
        -0.16994304955005646,
        -0.0018514578696340322,
        -0.924287736415863,
        -0.11454081535339355,
        -0.09929255396127701,
        0.014184502884745598,
        0.18477186560630798,
        0.2154996544122696,
        0.05587662011384964,
        -0.31384897232055664,
        -0.1668676882982254,
        -0.03453950211405754,
        -0.12147653847932816,
        0.009469334967434406,
        0.704088568687439,
        0.0020748102106153965,
        0.10497339814901352,
        0.4845474362373352,
        0.33212724328041077,
        0.32140177488327026,
        -0.2871684432029724,
        -0.014991918578743935,
        -0.13273505866527557,
        0.24445611238479614,
        0.16869965195655823,
        -0.016743477433919907,
        0.6902610063552856,
        0.08103299885988235,
        -0.018298346549272537,
        -0.11040499806404114,
        -0.17364686727523804,
        -0.01820678822696209,
        0.04670886695384979,
        0.3648999333381653,
        0.3390297293663025,
        0.1572134792804718,
        0.14047737419605255,
        0.07832255214452744,
        -0.8768764734268188,
        0.04298534244298935,
        -0.22823549807071686,
        -0.14298225939273834,
        0.081079863011837,
        0.3539629578590393,
        -0.0952124148607254,
        0.0019422268960624933,
        -0.1823882758617401,
        0.2557215392589569,
        0.09073023498058319,
        0.1987951099872589,
        0.1919187307357788,
        0.06607472151517868,
        0.08648049831390381,
        -0.22251005470752716,
        -0.055816154927015305,
        -0.24661235511302948,
        0.34065166115760803,
        0.21077238023281097,
        0.20175935328006744,
        -0.5557695031166077,
        0.12338864803314209,
        0.08344907313585281,
        0.05720219761133194,
        -0.11754235625267029,
        -0.13437409698963165,
        -0.044665295630693436,
        0.2188836634159088,
        0.2242865115404129,
        -0.06086461618542671,
        0.20508919656276703,
        -0.059271812438964844,
        0.27011290192604065,
        0.018777314573526382,
        0.04088985174894333,
        -0.313816636800766,
        -0.14266060292720795,
        0.11868827044963837,
        0.021415717899799347,
        -0.22964231669902802,
        -0.14090125262737274,
        0.09803278744220734,
        -0.1576506346464157,
        0.14332588016986847,
        -0.4189399778842926,
        0.07791083306074142,
        -0.047287002205848694,
        -0.2959114611148834,
        -0.44575655460357666,
        0.00744224339723587,
        0.08602318167686462,
        -0.001743385917507112,
        -0.06422193348407745,
        0.07824108749628067,
        -0.07220164686441422,
        0.49321770668029785,
        -0.04729238152503967,
        0.088670514523983,
        0.028921028599143028,
        -0.007491962984204292,
        -0.20080749690532684,
        -0.24832375347614288,
        -0.17192208766937256,
        -0.03162563592195511,
        0.08914604038000107,
        -0.09263427555561066,
        0.17952808737754822,
        -0.22634845972061157,
        0.12576735019683838,
        -0.1610642522573471,
        0.17928378283977509,
        0.09820669144392014,
        -0.250851035118103,
        -0.1870899349451065,
        -0.01276189461350441,
        0.17632608115673065,
        -0.3513042628765106,
        0.22243386507034302,
        -0.061359576880931854,
        0.4458604156970978,
        -0.06697466969490051,
        0.08412297070026398,
        0.109009750187397,
        -0.007938734255731106,
        -0.07509016245603561,
        -0.2546987235546112,
        -0.37080055475234985,
        -0.2717992067337036,
        0.06167106330394745,
        0.047086745500564575,
        -0.03009774349629879,
        -0.06236093491315842,
        0.1454559564590454,
        -0.034170158207416534,
        -0.030299954116344452,
        -0.01602310687303543,
        0.17909447848796844,
        -0.21021121740341187,
        -0.4597758650779724,
        -0.17663566768169403,
        0.09645979106426239,
        -0.23500123620033264,
        0.05450250953435898,
        0.03959648683667183,
        -0.6990240216255188,
        0.3440695106983185,
        0.0006275908090174198,
        0.5221205353736877,
        0.8401970267295837,
        0.40315157175064087,
        -0.7681441903114319,
        -0.14122270047664642,
        -0.37462538480758667,
        0.06563109904527664,
        0.02128034643828869,
        0.16005611419677734,
        0.14164617657661438,
        -0.17446300387382507,
        0.03754951059818268,
        -0.17980612814426422,
        0.12622897326946259,
        -0.4412117004394531,
        0.45490309596061707,
        -0.3922736346721649,
        -0.11444296687841415,
        0.22812460362911224,
        -0.08823181688785553,
        -0.33098238706588745,
        0.025864746421575546,
        0.10780847817659378,
        0.34692421555519104,
        0.16323670744895935,
        0.07735975831747055,
        0.05855335667729378,
        0.7311949729919434,
        0.40070226788520813,
        -0.9902366995811462,
        -0.009862910956144333,
        0.10941914469003677,
        0.2748848497867584,
        0.08224408328533173,
        0.6784301996231079,
        -0.20893584191799164,
        0.004897468723356724,
        -0.4107799530029297,
        0.2129608392715454,
        -0.8394079208374023,
        0.14590206742286682,
        -0.07768099755048752,
        0.36399194598197937,
        0.05181625857949257,
        -0.007024534046649933,
        0.3233744502067566,
        0.03966636583209038,
        0.2169702798128128,
        -0.6240089535713196,
        0.018123092129826546,
        0.07245469093322754,
        0.34029677510261536,
        -0.05915394425392151,
        -0.026405028998851776,
        -0.26239442825317383,
        0.4645013213157654,
        -0.1286657601594925,
        0.42410027980804443,
        -0.2334575355052948,
        -0.18311311304569244,
        0.004143855534493923,
        0.19204089045524597,
        -0.07719320058822632,
        0.17252832651138306,
        -0.4953385591506958,
        0.3400818407535553,
        -0.18975026905536652,
        0.20707662403583527,
        0.3325965702533722,
        0.43687132000923157,
        0.027697890996932983,
        -0.0952175185084343,
        0.3104366362094879,
        -0.131480410695076,
        -0.05324523523449898,
        -0.20458263158798218,
        -0.04814886301755905,
        -0.1907699853181839,
        -0.19873806834220886,
        -0.1120794340968132,
        0.033095501363277435,
        0.16002967953681946,
        -0.26282623410224915,
        -0.03941825032234192,
        -0.188247948884964,
        0.2561744451522827,
        0.30243873596191406,
        0.15258516371250153,
        -0.06540127843618393,
        -0.2595578730106354,
        -0.1963057518005371,
        0.0690881609916687,
        0.0299809779971838,
        0.28771984577178955,
        -0.0555250309407711,
        0.38811105489730835,
        -0.19673603773117065,
        0.09437204152345657,
        0.3615790903568268,
        -0.37787309288978577,
        -0.23223960399627686,
        0.14267826080322266,
        -0.05542463809251785,
        -0.39235106110572815,
        0.10691642016172409,
        0.008699581027030945,
        0.006237108260393143,
        -0.07090463489294052,
        0.32090386748313904,
        -0.1398961991071701,
        0.053883619606494904,
        0.05415789783000946,
        0.17147532105445862,
        0.08099766075611115,
        -0.11250387877225876,
        0.15909431874752045,
        0.1923115849494934,
        -0.04121699556708336,
        0.3342263102531433,
        -0.09339849650859833,
        0.13036826252937317,
        -0.33223602175712585,
        0.27250102162361145,
        0.17504939436912537,
        -0.020217521116137505,
        -0.03830726444721222,
        0.011583746410906315,
        -0.036845311522483826,
        -0.4065707325935364,
        -0.5141873955726624,
        -0.056919731199741364,
        -0.002160285599529743,
        -0.006303116679191589,
        0.03532551974058151,
        0.002108311979100108,
        0.236389622092247,
        -0.04692943021655083,
        -0.29892444610595703,
        0.16966241598129272,
        0.10940320044755936,
        0.33643344044685364,
        0.02821979485452175,
        -0.05641469359397888,
        -0.0003454959951341152,
        -0.028430450707674026,
        0.1494685262441635,
        -0.21730318665504456,
        -0.016415243968367577,
        0.18843531608581543,
        -0.05850210785865784,
        0.08402519673109055,
        -0.05842742696404457,
        0.37397104501724243,
        0.19177350401878357,
        -0.3379455804824829,
        0.30958816409111023,
        -0.3722781538963318,
        -0.43946319818496704,
        0.17462466657161713,
        -0.05726071447134018,
        -0.31389671564102173,
        -0.10403435677289963,
        0.24854512512683868,
        0.4937223494052887,
        -0.07402753084897995,
        0.364734023809433,
        0.4329405426979065,
        -0.09233827143907547,
        0.11086232960224152,
        0.0516669824719429,
        0.3221372365951538,
        0.07353807240724564,
        0.09389229118824005,
        0.2962246537208557,
        -0.2115027904510498,
        -0.19817177951335907,
        0.41152963042259216,
        -0.1632729023694992,
        -0.3576485216617584,
        0.1411513388156891,
        0.14238616824150085,
        0.190023735165596,
        -0.059607990086078644,
        0.19698388874530792,
        -0.001269652508199215,
        -0.0811241939663887,
        -0.06817402690649033,
        0.0914648026227951,
        -0.09242512285709381,
        0.019143354147672653,
        -0.06036781147122383,
        -0.12563014030456543,
        0.09111325442790985,
        0.13691243529319763,
        -0.3908641040325165,
        0.12439095228910446,
        0.730002760887146,
        -0.2589716613292694,
        -0.3923206925392151,
        -0.2723735570907593,
        -0.2738889753818512,
        0.5805166959762573,
        -0.3637746572494507,
        -0.2713523805141449,
        -0.13562904298305511,
        0.2143751084804535,
        0.2887854278087616,
        -0.7242702841758728,
        0.17688709497451782,
        -0.6579343676567078,
        0.4383169412612915,
        -0.25648409128189087,
        0.055676285177469254,
        0.33839157223701477,
        0.4467925727367401,
        0.028937647119164467,
        -0.13481691479682922,
        0.008847909979522228,
        0.12167320400476456,
        -0.08099928498268127,
        0.06048734858632088,
        -0.01301760133355856,
        0.14664286375045776,
        -0.018320491537451744,
        -0.5911460518836975,
        -0.20344942808151245,
        -0.0963650718331337,
        -0.06377650797367096,
        0.11301037669181824,
        0.015209822915494442,
        -0.05026252940297127,
        0.07308420538902283,
        0.2082841843366623,
        -0.16923858225345612,
        -0.051734574139118195,
        0.14008624851703644,
        0.14330947399139404,
        0.006129448767751455,
        -0.14102356135845184,
        -0.04899313673377037,
        0.30265575647354126,
        -0.1335042268037796,
        0.15505358576774597,
        -0.2697630226612091,
        -0.2161519080400467,
        0.43686944246292114,
        0.13745224475860596,
        -0.22059385478496552,
        0.14305013418197632,
        -0.10765409469604492,
        0.33373579382896423,
        -0.48102709650993347,
        -0.28792306780815125,
        -0.19812637567520142,
        -0.4424190819263458,
        0.14366775751113892,
        0.0017274454003199935,
        -0.23794876039028168,
        -0.13246509432792664,
        0.025811420753598213,
        0.18251024186611176,
        0.054500266909599304,
        -0.06842570006847382,
        -0.02235068939626217,
        -0.19449204206466675,
        0.02480435185134411,
        -0.13166920840740204,
        -0.11337442696094513,
        -0.25599074363708496,
        -0.11216183006763458,
        0.07862061262130737,
        0.40416958928108215,
        0.48395344614982605,
        -0.35931530594825745,
        -0.11869638413190842,
        0.2956140637397766,
        -0.12093770503997803,
        -0.09494238346815109,
        0.26478853821754456,
        -0.3304249048233032,
        0.009499497711658478,
        0.5625961422920227,
        0.14083731174468994,
        -0.4468509554862976,
        -0.10873085260391235,
        0.2282378077507019,
        -0.33815476298332214,
        0.11955064535140991,
        -0.14724934101104736,
        0.2974117696285248,
        -0.030265213921666145,
        0.23852594196796417,
        -0.3901936709880829,
        0.07884880900382996,
        -0.020907651633024216,
        -0.0189504511654377,
        0.1274416595697403,
        -0.043235521763563156,
        0.004682899918407202,
        0.10903141647577286,
        0.2596428096294403,
        -0.05718551203608513,
        -0.0941910520195961,
        0.12307983636856079,
        0.08179622143507004,
        -0.17455022037029266,
        -0.24222633242607117,
        -0.022022729739546776,
        0.027837255969643593,
        0.13026687502861023,
        -0.30471739172935486,
        -0.06132441759109497,
        0.07165785133838654,
        -0.2032439112663269,
        -0.00967521220445633,
        -0.18810127675533295,
        -0.23252548277378082,
        -0.13967370986938477,
        -0.35164758563041687,
        0.06879783421754837,
        0.07968982309103012,
        0.10262428969144821,
        -0.11689848452806473,
        -0.02618744969367981,
        0.24551819264888763,
        0.1256580948829651,
        -0.1080893874168396,
        -0.19540086388587952,
        0.018513323739171028,
        -0.20280900597572327,
        -0.3195934593677521,
        0.05956318974494934,
        0.1519264280796051,
        -0.05113255977630615,
        -0.12311767041683197,
        0.12395761907100677,
        -0.16085036098957062,
        0.3552838861942291,
        -0.261417418718338,
        0.25690990686416626,
        -0.020080026239156723,
        0.10901138931512833,
        -0.2434469759464264,
        -0.3623037040233612,
        0.015406238846480846,
        0.3439474105834961,
        0.6545037627220154,
        0.5682022571563721,
        -0.022434355691075325,
        -0.10674133896827698,
        -0.21060781180858612,
        -0.22502538561820984,
        -0.38062331080436707,
        -0.18264539539813995,
        -0.04613794386386871,
        -0.229778453707695,
        0.06328404694795609,
        0.2390589416027069,
        -0.21804825961589813,
        0.10242234170436859,
        0.2387818545103073,
        0.35215434432029724,
        0.5571034550666809,
        -0.019766755402088165,
        0.03915445879101753,
        0.3958342671394348,
        -0.16838353872299194,
        -0.24194090068340302,
        0.395403653383255,
        0.1227043941617012,
        -0.07064157724380493,
        0.35639190673828125,
        0.2311236411333084,
        0.439443439245224,
        -0.04521064832806587,
        0.23201699554920197,
        0.6279889941215515,
        0.6977018117904663,
        0.041062142699956894,
        0.42654314637184143,
        0.28885188698768616,
        0.016275780275464058,
        0.029580192640423775,
        -0.02921258844435215,
        0.2944592237472534,
        0.16384689509868622,
        -0.3276878297328949,
        0.10392986983060837,
        0.21752022206783295,
        0.2669528126716614,
        0.3355441391468048,
        0.4649588167667389,
        0.27457377314567566,
        0.14549195766448975,
        -0.11396460235118866,
        -0.11140503734350204,
        0.5801391005516052,
        0.4308996796607971,
        0.053599897772073746,
        0.21451029181480408,
        0.22035400569438934,
        0.09818773716688156,
        0.22207753360271454,
        0.34480753540992737,
        -0.18512746691703796,
        0.17781950533390045,
        0.224792942404747,
        0.27667438983917236,
        -0.43130430579185486,
        -0.2888503074645996,
        -0.04738115519285202,
        -0.3009301722049713,
        -0.04350345954298973,
        -0.23876017332077026,
        -0.6110919117927551,
        -0.2334109991788864,
        -0.07311951369047165,
        0.41751816868782043,
        0.1351536214351654,
        -0.03439178690314293,
        0.4724205434322357,
        -0.911961555480957,
        0.31759634613990784,
        0.25699517130851746,
        0.09254774451255798,
        0.16105492413043976,
        -0.013043180108070374,
        -0.03865816816687584,
        -0.18876276910305023,
        -0.19977794587612152,
        0.3546221852302551,
        0.3786233067512512,
        -0.15963909029960632,
        -0.47394973039627075,
        -0.09673671424388885,
        0.13863316178321838,
        0.29024288058280945,
        0.11968028545379639,
        0.1542970985174179,
        0.2148151397705078,
        -0.25529974699020386,
        -0.3662620186805725,
        -0.35696113109588623,
        -0.1032731682062149,
        0.13437089323997498,
        -0.3303039073944092,
        0.10681909322738647,
        -0.01203748770058155,
        -0.09443973004817963,
        -0.024700958281755447,
        -0.34503668546676636,
        0.04758894816040993,
        0.006893747951835394,
        -0.1671120524406433,
        0.4622945189476013,
        0.06690843403339386,
        -0.2075508087873459,
        0.15602119266986847,
        -0.11380545049905777,
        0.01629701629281044,
        0.2349594086408615,
        0.35738882422447205,
        -0.23882251977920532,
        0.2729974687099457,
        -0.1213732436299324,
        0.4781147837638855,
        0.1445407122373581,
        0.22933977842330933,
        0.0896749421954155,
        -0.12995778024196625,
        -0.04945923015475273,
        0.14499981701374054,
        0.010408119298517704,
        -0.013872966170310974,
        0.2536408007144928,
        0.2669742703437805,
        0.24646960198879242,
        1.108848214149475,
        0.32719603180885315,
        0.03298218920826912,
        0.29021307826042175,
        0.3779214024543762,
        -0.1307360827922821,
        -0.16751043498516083,
        -0.035108715295791626,
        -0.14029061794281006,
        -0.1950855255126953,
        0.3333023488521576,
        0.4425037205219269,
        0.12420911341905594,
        0.09435241669416428,
        -0.20292402803897858,
        -0.00893518514931202,
        0.13852034509181976,
        -0.10299883037805557,
        -0.029392749071121216,
        -0.412463903427124,
        -0.39518168568611145,
        -0.2166450470685959,
        -0.5895823836326599,
        -0.4375455379486084,
        -0.5125929117202759,
        0.2670825123786926,
        -0.2529289424419403,
        -0.37198102474212646,
        0.6267461180686951,
        0.3837509751319885,
        -0.42711296677589417,
        -0.3138805031776428,
        0.46875500679016113,
        -0.07346060127019882,
        -0.5074780583381653,
        0.20831406116485596,
        0.45355701446533203,
        0.2147711217403412,
        -0.3391832709312439,
        -0.24660180509090424,
        -0.356504887342453,
        0.003206419525668025,
        -0.3871806561946869,
        0.4746243357658386,
        0.02219568006694317,
        -0.12622416019439697,
        0.05139997601509094,
        -0.07694900035858154,
        0.03245718777179718,
        0.5235271453857422,
        -0.19315211474895477,
        0.1561262011528015,
        -0.11845475435256958,
        0.023966850712895393,
        -0.13684839010238647,
        0.3893246054649353,
        0.08347676694393158,
        -0.09506053477525711,
        -0.32111942768096924,
        -0.47637301683425903,
        0.07963516563177109,
        0.01763656921684742,
        0.1837397962808609,
        -0.025754133239388466,
        -0.1915760487318039,
        -0.056093137711286545,
        0.28333133459091187,
        0.1502455472946167,
        0.12215981632471085,
        -0.09352908283472061,
        -0.13911056518554688,
        0.01912924088537693,
        0.06564190983772278,
        -0.10564885288476944,
        -0.24308958649635315,
        -0.44018739461898804,
        -0.1643153876066208,
        0.03541087731719017,
        -0.06802573055028915,
        -0.04070417582988739,
        -0.04266908019781113,
        -0.134060338139534,
        0.15730823576450348,
        0.06074807420372963,
        -0.3598075211048126,
        -0.12466715276241302,
        0.26737144589424133,
        -0.14731988310813904,
        -0.5748644471168518,
        -0.015056059695780277,
        0.002881355118006468,
        -0.12321357429027557,
        -0.04388997331261635,
        0.013882312923669815,
        0.18236671388149261,
        0.006486961152404547,
        0.13347020745277405,
        -0.05780959874391556,
        -0.25279927253723145,
        0.09304255992174149,
        -0.36478403210639954,
        0.1473408043384552,
        0.09772618860006332,
        -0.3702651262283325,
        -0.6713746190071106,
        -0.25805357098579407,
        0.35920920968055725,
        -0.261011004447937,
        0.3973316550254822,
        -0.030897032469511032,
        -0.5687986016273499,
        0.8244578838348389,
        -0.553000807762146,
        -0.08137218654155731,
        -0.07645970582962036,
        -0.29016485810279846,
        -0.39931637048721313,
        -0.3869897425174713,
        0.17010171711444855,
        -0.016195278614759445,
        0.016415342688560486,
        0.17169326543807983,
        -0.12355636805295944,
        -0.04977600276470184,
        0.10409612208604813,
        0.15500934422016144,
        -0.19403111934661865,
        -0.4189698398113251,
        0.26795321702957153,
        0.15696047246456146,
        -0.14685076475143433,
        0.08666505664587021,
        -0.15437959134578705,
        -0.24400432407855988,
        0.1566190868616104,
        0.2336101531982422,
        -0.07012191414833069,
        -0.4892662763595581,
        -0.13325825333595276,
        0.134558767080307,
        -0.23946787416934967,
        0.23652054369449615,
        0.03128436580300331,
        -0.035440243780612946,
        0.164073184132576,
        0.047423429787158966,
        -0.2440047711133957,
        -0.19428332149982452,
        -0.24661126732826233,
        0.06986261904239655,
        0.009994902648031712,
        0.26850220561027527,
        -0.333720862865448,
        -0.09550440311431885,
        -0.2513056993484497,
        -0.0014565346064046025,
        0.2304055094718933,
        0.1373361200094223,
        -0.0696958526968956,
        0.28635284304618835,
        -0.13399389386177063,
        -0.23882323503494263,
        -0.38648200035095215,
        -0.28815481066703796,
        -0.43399372696876526,
        0.13050317764282227,
        -0.11970843374729156,
        -0.4282538890838623,
        -0.0859735906124115,
        -0.09644815325737,
        -0.03305415064096451,
        -0.22787100076675415,
        -0.3553982377052307,
        -0.10120470076799393,
        -0.28246429562568665,
        -0.32295358180999756,
        -0.9261398911476135,
        -0.7476223707199097,
        0.788054883480072,
        -0.08769217133522034,
        -0.43438920378685,
        0.2771534323692322,
        0.012867926619946957,
        -0.0972914919257164,
        -0.4781155288219452,
        0.2053070366382599,
        0.4809499979019165,
        0.7499844431877136,
        -0.8371588587760925,
        -0.0950731411576271,
        0.13152122497558594,
        -0.08639302104711533,
        -0.16026006639003754,
        -0.3425612449645996,
        0.2778080999851227,
        -0.11416085064411163,
        0.002630006056278944,
        0.06603442877531052,
        0.26413461565971375,
        0.001989023992791772,
        0.2109300047159195,
        -0.2186925709247589,
        0.0459291934967041,
        -0.4107834994792938,
        0.11332331597805023,
        0.30041059851646423,
        0.016670001670718193,
        0.18951234221458435,
        -0.047167763113975525,
        0.19096341729164124,
        0.09087987244129181,
        -0.1381964385509491,
        -0.3284693658351898,
        0.37406229972839355,
        -0.03558517247438431,
        0.3739500641822815,
        0.016480835154652596,
        0.2872507572174072,
        0.2604762315750122,
        -0.29342788457870483,
        -0.2618410289287567,
        0.04647694528102875,
        0.09423468261957169,
        0.12195928394794464,
        -0.28982579708099365,
        -0.04410848766565323,
        -0.5048472285270691,
        0.07146918028593063,
        0.09366097301244736,
        0.2101438194513321,
        0.01623610220849514,
        0.07023124396800995,
        0.39645829796791077,
        0.0648159459233284,
        -0.17912523448467255,
        -0.3495381772518158,
        0.052147019654512405,
        0.10734827071428299,
        -0.0423777811229229,
        -0.32922378182411194,
        0.21810734272003174,
        -0.09264014661312103,
        -0.2436610460281372,
        -0.07379845529794693,
        -0.24807922542095184,
        -0.055524010211229324,
        -0.1976637989282608,
        0.02828775718808174,
        -0.28103727102279663,
        -0.2606293261051178,
        0.2384731024503708,
        0.219902902841568,
        -0.7611908316612244,
        0.13599544763565063,
        0.1714252382516861,
        0.1761060208082199,
        -0.3467463254928589,
        -0.6732414364814758,
        0.6324891448020935,
        -0.9299976825714111,
        -0.7477980852127075,
        0.5867331624031067,
        -0.2976614236831665,
        -0.2850528061389923,
        -0.7168078422546387,
        0.47462397813796997,
        0.3353319764137268,
        0.18312078714370728,
        0.010258628986775875,
        0.31026020646095276,
        -0.0036046626046299934,
        -0.20971229672431946,
        0.06897766888141632,
        0.016055190935730934,
        -0.02193242497742176,
        -0.03824494406580925,
        -0.00798047985881567,
        0.351902574300766,
        0.07961525022983551,
        0.009525575675070286,
        0.19626222550868988,
        0.13741548359394073,
        0.027900153771042824,
        0.09093731641769409,
        0.13654960691928864,
        -0.06931941956281662,
        0.14676141738891602,
        -0.4205779433250427,
        0.04055974632501602,
        0.3892597556114197,
        0.007019069977104664,
        0.17219556868076324,
        0.06570647656917572,
        0.28774189949035645,
        0.1249459758400917,
        -0.4250311553478241,
        -0.16403043270111084,
        0.031889911741018295,
        0.16576313972473145,
        0.1707514226436615,
        0.032804958522319794,
        0.26586294174194336,
        0.16159050166606903,
        -0.14514121413230896,
        0.02950344979763031,
        0.07922258228063583,
        -0.16098260879516602,
        0.25942111015319824,
        0.15213431417942047,
        0.42614614963531494,
        -0.13035663962364197,
        0.19412153959274292,
        -0.0992540642619133,
        0.20685283839702606,
        0.0394623726606369,
        0.3517249822616577,
        -0.299130380153656,
        -0.19479584693908691,
        -0.24715113639831543,
        0.32543742656707764,
        0.02615964598953724,
        -0.07756131887435913,
        0.11969464272260666,
        0.008084019646048546,
        -0.2582800090312958,
        0.08176986128091812,
        0.28271567821502686,
        -0.1277170330286026,
        0.5985321402549744,
        -0.1415146142244339,
        0.3160304129123688,
        0.37210455536842346,
        -0.19604873657226562,
        -1.1070359945297241,
        0.1183694377541542,
        -0.40723851323127747,
        -0.5287455320358276,
        -0.1617889255285263,
        0.10842645168304443,
        0.9320727586746216,
        0.46133917570114136,
        0.49891993403434753,
        -0.2294740080833435,
        -0.3121456801891327,
        -0.2924364507198334,
        0.2797822058200836,
        -0.4360794723033905,
        -0.3917517364025116,
        -0.053062938153743744,
        -0.06502131372690201,
        0.3333067297935486,
        -0.41851696372032166,
        -0.09069350361824036,
        0.12139298021793365,
        -0.055891185998916626,
        -0.008018463850021362,
        0.040018584579229355,
        0.398890882730484,
        0.24739332497119904,
        -0.06960329413414001,
        0.03431493788957596,
        0.04143109917640686,
        0.16905653476715088,
        -0.3741123080253601,
        0.29644498229026794,
        -0.12014322727918625,
        -0.013882881961762905,
        -0.11080412566661835,
        -0.15066960453987122,
        0.21765826642513275,
        -0.08082826435565948,
        0.21556171774864197,
        -0.03401360660791397,
        -0.04452173784375191,
        0.2438109666109085,
        -0.30504339933395386,
        0.216425359249115,
        -0.055257994681596756,
        -0.11893866211175919,
        -0.06216306611895561,
        0.006361792795360088,
        0.3840944170951843,
        -0.07813181728124619,
        0.3023691773414612,
        0.10949026793241501,
        0.06692445278167725,
        -0.5761967897415161,
        0.4903888702392578,
        -0.15290093421936035,
        -0.08409034460783005,
        0.054246727377176285,
        0.14730441570281982,
        0.13862457871437073,
        -0.6043800115585327,
        -0.2145284116268158,
        -0.7500520944595337,
        0.11367086321115494,
        -0.18340133130550385,
        -0.011174124665558338,
        -0.006895046681165695,
        0.13692456483840942,
        0.2990027368068695,
        -0.12444581836462021,
        0.10219461470842361,
        0.06668608635663986,
        0.15285374224185944,
        -0.11264437437057495,
        0.24126692116260529,
        0.3202867805957794,
        0.7544703483581543,
        0.6659928560256958,
        0.5669873952865601,
        -0.3986618220806122,
        0.4697370231151581,
        -0.3965834081172943,
        0.06632071733474731,
        0.36145657300949097,
        -0.14390335977077484,
        -0.11050757020711899,
        0.31882530450820923,
        -0.09666914492845535,
        -0.03993688151240349,
        0.21273525059223175,
        0.12265343964099884,
        0.21335957944393158,
        0.06748014688491821,
        0.4051876664161682,
        -0.34116029739379883,
        -0.25050264596939087,
        0.5558515787124634,
        0.14578408002853394,
        0.025492675602436066,
        0.23521549999713898,
        0.11585039645433426,
        0.21397081017494202,
        0.5064704418182373,
        0.003827134845778346,
        0.004167246166616678,
        0.4100879430770874,
        -0.26664799451828003,
        -0.3280198276042938,
        0.02716185711324215,
        0.1398772895336151,
        0.021929331123828888,
        -0.07779845595359802,
        0.3944006860256195,
        0.3389059007167816,
        -0.11420243978500366,
        0.22166351974010468,
        -0.01786673814058304,
        0.5795500874519348,
        -0.2971000373363495,
        -0.31287646293640137,
        0.3147578239440918,
        0.12887471914291382,
        0.07123571634292603,
        0.21007214486598969,
        -0.04058236628770828,
        0.4629179537296295,
        0.1314893662929535,
        -0.19857536256313324,
        0.029491456225514412,
        -0.6691229939460754,
        0.35366836190223694,
        0.2282141149044037,
        -0.22852753102779388,
        -0.02745531126856804,
        0.1502562314271927,
        0.007243302650749683,
        -0.13113917410373688,
        -0.2448548674583435,
        -0.40507641434669495,
        0.03267373889684677,
        -0.108967624604702,
        -0.3270244002342224,
        0.10974028706550598,
        -0.6086638569831848,
        -0.19849032163619995,
        -0.2738197445869446,
        0.1735687255859375,
        -0.006025661248713732,
        -0.1645447313785553,
        -0.14853285253047943,
        0.2024528682231903,
        -0.7208656072616577,
        0.3950962722301483,
        0.05482431501150131,
        0.012322807684540749,
        -0.050313256680965424,
        -0.5291980504989624,
        0.10643923282623291,
        0.8605061173439026,
        -0.22753575444221497,
        0.6024701595306396,
        -0.024744223803281784,
        0.19232794642448425,
        0.3408496081829071,
        -0.18227717280387878,
        0.24222739040851593,
        -0.4010502099990845,
        -0.15793800354003906,
        0.23929835855960846,
        0.2397613227367401,
        -0.06266211718320847,
        -0.3362434506416321,
        0.05319874361157417,
        -0.03621141240000725,
        -0.00029896805062890053,
        0.08842770755290985,
        -0.18180200457572937,
        0.0936300978064537,
        -0.13611966371536255,
        -0.03475240245461464,
        0.3063219487667084,
        0.4441205859184265,
        -0.03064408339560032,
        -0.18550613522529602,
        0.4192015528678894,
        -0.12018604576587677,
        0.22256465256214142,
        0.21597491204738617,
        -0.03048303909599781,
        -0.004629135597497225,
        0.40894418954849243,
        -0.06213565543293953,
        0.3186807930469513,
        0.293621301651001,
        0.15742379426956177,
        -0.2333999127149582,
        0.5747008919715881,
        0.006555384956300259,
        0.1859700232744217,
        0.33443164825439453,
        0.047881606966257095,
        0.04116618633270264,
        0.605711817741394,
        0.26720380783081055,
        -0.06940112262964249,
        -0.7076178789138794,
        -0.1452515423297882,
        0.10469043999910355,
        -0.4436691403388977,
        0.19753947854042053,
        -0.17417918145656586,
        0.07726635783910751,
        -0.08996014297008514,
        -0.2028464674949646,
        -0.34864160418510437,
        -0.19540119171142578,
        0.363757848739624,
        -0.26091548800468445,
        -0.23728996515274048,
        0.009590954519808292,
        -0.39184290170669556,
        0.35752856731414795,
        -0.004771087318658829,
        -0.3034435212612152,
        -0.144011452794075,
        -0.46703508496284485,
        0.565589189529419,
        0.6357647776603699,
        0.1496051698923111,
        0.15847688913345337,
        0.1025293692946434,
        -0.29890164732933044,
        -0.06277970224618912,
        0.40184515714645386,
        -0.8628174662590027,
        0.6528047919273376,
        0.3093579113483429,
        0.4045557677745819,
        0.4670088589191437,
        -0.22380298376083374,
        0.25734230875968933,
        -0.010501154698431492,
        0.23268811404705048,
        -0.09203962236642838,
        -0.18059679865837097,
        0.24677793681621552,
        0.07674472779035568,
        0.05783817917108536,
        0.287911593914032,
        -0.03614052012562752,
        0.05272938683629036,
        0.08398071676492691,
        -0.027039969339966774,
        0.20460796356201172,
        0.5289367437362671,
        -0.0992090180516243,
        -0.2657008469104767,
        0.37415093183517456,
        -0.05108247697353363,
        0.05409828945994377,
        0.26136282086372375,
        -0.023459389805793762,
        -0.1665201038122177,
        -0.1402410864830017,
        0.08954991400241852,
        0.06983815133571625,
        0.4758613407611847,
        -0.07396388798952103,
        -0.14155450463294983,
        0.28571411967277527,
        0.0689920037984848,
        0.09888318926095963,
        0.31914475560188293,
        0.013109520077705383,
        -0.07300049066543579,
        0.09322194755077362,
        0.012360963970422745,
        0.11440911889076233,
        0.5511643886566162,
        0.03544082120060921,
        0.24390767514705658,
        -0.5078375935554504,
        -0.06771434843540192,
        -0.2454334795475006,
        -0.1545128971338272,
        -0.025792136788368225,
        0.13400478661060333,
        0.4201136827468872,
        0.008771323598921299,
        0.045411206781864166,
        -0.5163465738296509,
        0.032207585871219635,
        -0.1733224242925644,
        0.20461240410804749,
        -0.3305511772632599,
        0.13765385746955872,
        -0.5665752291679382,
        -0.6987021565437317,
        -0.3592440187931061,
        -0.12091034650802612,
        -0.04836457967758179,
        -0.23046547174453735,
        0.3559243679046631,
        0.2869518995285034,
        -0.44128191471099854,
        -0.050015389919281006,
        0.1681065559387207,
        0.4823986291885376,
        -0.11955636739730835,
        0.3069649934768677,
        -0.028011441230773926,
        -0.1917715072631836,
        0.30598050355911255,
        -0.4455450773239136,
        0.41890019178390503,
        0.4994143843650818,
        -0.1365121603012085,
        0.1975109577178955,
        0.49860215187072754,
        0.712189793586731,
        1.0552109479904175,
        1.1634950637817383,
        -1.070027232170105,
        0.29692456126213074,
        0.019999999552965164
    ]
}