{
    "version": "0.5.0",
    "architecture": "WaveNet",
    "config": {
        "layers": [
            {
                "input_size": 1,
                "condition_size": 1,
                "head_size": 4,
                "channels": 8,
                "kernel_size": 3,
                "dilations": [
                    1,
                    2,
                    4,
                    8,
                    16,
                    32,
                    64
                ],
                "activation": "Tanh",
                "gated": false,
                "head_bias": false
            },
            {
                "input_size": 8,
                "condition_size": 1,
                "head_size": 1,
                "channels": 4,
                "kernel_size": 3,
                "dilations": [
                    128,
                    256,
                    512,
                    1,
                    2,
                    4,
                    8,
                    16,
                    32,
                    64,
                    128,
                    256,
                    512
                ],
                "activation": "Tanh",
                "gated": false,
                "head_bias": true
            }
        ],
        "head": null,
        "head_scale": 0.02
    },
    "weights": [
        0.015316737815737724,
        0.48169955611228943,
        -0.8057900667190552,
        -0.5759606957435608,
        -0.3515971004962921,
        -0.019387822598218918,
        0.04504890367388725,
        0.6838269829750061,
        0.09651362895965576,
        -0.012190443463623524,
        0.18816661834716797,
        -0.07088785618543625,
        -0.40123581886291504,
        -0.03896111622452736,
        -0.04560945928096771,
        0.22303122282028198,
        -0.007207777351140976,
        0.15949687361717224,
        0.07678982615470886,
        -0.17854459583759308,
        0.09723471850156784,
        0.3672569990158081,
        -0.14703704416751862,
        0.07507123798131943,
        -0.2832930386066437,
        0.07776033133268356,
        0.22705060243606567,
        0.03381507098674774,
        -0.2708723843097687,
        -0.09079741686582565,
        -0.293764591217041,
        0.2637842297554016,
        0.2629658877849579,
        -0.16503632068634033,
        -0.0035288685467094183,
        0.037536926567554474,
        -0.3276803493499756,
        0.15431109070777893,
        -0.1344669610261917,
        0.3167441189289093,
        0.03822261467576027,
        -0.3381849229335785,
        0.2553505599498749,
        -0.16511356830596924,
        -0.38244032859802246,
        0.09420312196016312,
        0.13990753889083862,
        0.2887178659439087,
        -0.3211881220340729,
        -0.007489407900720835,
        -0.12795865535736084,
        0.4166397750377655,
        0.08355680108070374,
        0.24935436248779297,
        -0.0793740376830101,
        -0.14840169250965118,
        -0.02598540298640728,
        -0.15221139788627625,
        -0.0022819822188466787,
        -0.1978456676006317,
        0.10288512706756592,
        0.2525407373905182,
        -0.021461965516209602,
        0.05679083988070488,
        -0.05353118106722832,
        0.07320462167263031,
        0.009194173850119114,
        -0.11379785090684891,
        0.21387745440006256,
        0.17994026839733124,
        -0.32819533348083496,
        -0.0458952821791172,
        -0.05481505021452904,
        0.18329161405563354,
        0.15729723870754242,
        0.3038027286529541,
        -0.14836004376411438,
        -0.2741558849811554,
        0.02512267790734768,
        0.03916856646537781,
        -0.17782916128635406,
        0.18584784865379333,
        0.462401807308197,
        -0.33016183972358704,
        -0.08888346701860428,
        0.12540799379348755,
        0.0997219905257225,
        0.04106929153203964,
        -0.07455293089151382,
        0.0076170628890395164,
        0.20690955221652985,
        -0.05175713077187538,
        0.26580289006233215,
        0.19572697579860687,
        -0.3702557384967804,
        -0.19288352131843567,
        -0.08775530010461807,
        0.10267394781112671,
        -0.09603609889745712,
        0.06520754843950272,
        0.02381058596074581,
        0.0042053936049342155,
        -0.2233688235282898,
        0.1002001240849495,
        -0.06082857400178909,
        -0.15394747257232666,
        0.05206823721528053,
        -0.088869608938694,
        -0.21707282960414886,
        0.17356564104557037,
        -0.1442376971244812,
        0.3361372947692871,
        -0.2593139111995697,
        0.12300338596105576,
        0.35189613699913025,
        -0.31089919805526733,
        -0.12761858105659485,
        0.20653973519802094,
        -0.12061087042093277,
        0.05699101835489273,
        -0.13155615329742432,
        0.15390102565288544,
        -0.13848330080509186,
        0.30832937359809875,
        -0.36071622371673584,
        -0.06050508841872215,
        -0.2645016014575958,
        0.0357244648039341,
        -0.22384397685527802,
        0.03048068843781948,
        0.09354127198457718,
        -0.09533979743719101,
        0.07511260360479355,
        0.16939452290534973,
        0.28512832522392273,
        -0.23478221893310547,
        -0.1776096671819687,
        0.12543155252933502,
        -0.17174506187438965,
        -0.04759591817855835,
        0.3309643268585205,
        -0.07793916016817093,
        0.01825949363410473,
        -0.003676272928714752,
        -0.0636102631688118,
        -0.08683004975318909,
        0.20723649859428406,
        -0.14300139248371124,
        -0.2820358872413635,
        -0.2927636504173279,
        0.02202862873673439,
        0.011439689435064793,
        -0.12302745133638382,
        0.17489901185035706,
        -0.18082651495933533,
        -0.17145651578903198,
        0.3024231493473053,
        -0.3342006206512451,
        -0.07601148635149002,
        -0.2665189802646637,
        0.12785804271697998,
        -0.07235945016145706,
        -0.3654637038707733,
        -0.008300886489450932,
        -0.04896044358611107,
        -0.16325409710407257,
        0.09099384397268295,
        0.12491140514612198,
        0.004684616811573505,
        -0.09408004581928253,
        0.1703282743692398,
        -0.2394213080406189,
        0.36321479082107544,
        0.10725563019514084,
        -0.0014801978832110763,
        -0.03679822012782097,
        -0.40359076857566833,
        -0.12291397899389267,
        0.018439341336488724,
        -0.5125318765640259,
        0.026951130479574203,
        -0.16757874190807343,
        0.48991113901138306,
        0.044800423085689545,
        0.21770696341991425,
        0.4179823398590088,
        -0.062006331980228424,
        0.07655546069145203,
        0.1816437989473343,
        0.10920901596546173,
        0.28938066959381104,
        -0.11558496206998825,
        -0.2026156336069107,
        -0.12694036960601807,
        0.20181246101856232,
        -0.01899770088493824,
        0.039165642112493515,
        -0.2724120020866394,
        -0.11167033761739731,
        -0.12482497096061707,
        0.028433427214622498,
        0.10906931757926941,
        0.01843727007508278,
        -0.2393445372581482,
        -0.061405960470438004,
        0.11709589511156082,
        -0.1912977546453476,
        0.11323978006839752,
        0.43281683325767517,
        0.08347910642623901,
        0.15349362790584564,
        -0.05923737585544586,
        0.24517220258712769,
        -0.03597862645983696,
        -0.1582532525062561,
        0.015531545504927635,
        -0.2690790891647339,
        -0.323755145072937,
        0.37127485871315,
        -0.3515613377094269,
        -0.045037783682346344,
        0.30673351883888245,
        0.19708599150180817,
        -0.049574993550777435,
        -0.456589937210083,
        0.1576790064573288,
        -0.2239905148744583,
        -0.10818159580230713,
        -0.45313456654548645,
        -0.03317521885037422,
        -0.01606065221130848,
        0.38852089643478394,
        0.17551584541797638,
        0.5044000148773193,
        0.07417368143796921,
        -0.2673012316226959,
        0.3011048138141632,
        -0.20840641856193542,
        -0.21768832206726074,
        0.07350091636180878,
        -0.06265557557344437,
        0.22436216473579407,
        -0.25807371735572815,
        -0.07819594442844391,
        0.059749528765678406,
        -0.5304297804832458,
        0.4738098978996277,
        -0.33081290125846863,
        0.2057398110628128,
        0.04421669617295265,
        -0.023870740085840225,
        0.1017618477344513,
        0.5070012211799622,
        -0.05130801722407341,
        -0.2824641764163971,
        -0.13944070041179657,
        0.030230147764086723,
        -0.034360554069280624,
        0.1749705970287323,
        0.17410284280776978,
        0.10358726978302002,
        0.3273584544658661,
        0.20077712833881378,
        0.2824608087539673,
        0.215354785323143,
        -0.3830125629901886,
        0.06550536304712296,
        0.18315815925598145,
        0.13997291028499603,
        0.4740944504737854,
        -0.3003171980381012,
        -0.0958506166934967,
        -0.32878372073173523,
        0.13701938092708588,
        -0.22821635007858276,
        -0.27844205498695374,
        0.2538304328918457,
        -0.36106106638908386,
        -0.026303431019186974,
        0.2019263505935669,
        0.04192826524376869,
        -0.09412232041358948,
        -0.1934516280889511,
        0.149208202958107,
        0.05535122752189636,
        0.03050345554947853,
        -0.011008680798113346,
        0.05126907676458359,
        -0.010915279388427734,
        0.2100399136543274,
        -0.18041349947452545,
        0.04959409311413765,
        0.08258144557476044,
        -0.137159064412117,
        -0.10785359144210815,
        -0.3513009250164032,
        0.20586062967777252,
        -0.14506246149539948,
        -0.20439156889915466,
        -0.21966004371643066,
        -0.17304982244968414,
        -0.1747911423444748,
        -0.016119979321956635,
        0.037461280822753906,
        0.03135388717055321,
        -0.09797151386737823,
        0.01191082876175642,
        0.12625186145305634,
        0.1395222693681717,
        -0.01406478974968195,
        -0.11624161899089813,
        -0.07390810549259186,
        -0.03541027009487152,
        -0.1515686959028244,
        0.2515552043914795,
        0.14528168737888336,
        -0.0979822501540184,
        0.07756239920854568,
        0.1355247050523758,
        0.2178989052772522,
        -0.15488934516906738,
        -0.06868075579404831,
        0.09692001342773438,
        0.19583192467689514,
        0.22590987384319305,
        0.31316953897476196,
        -0.027764977887272835,
        0.06366301327943802,
        0.0969703197479248,
        -0.18327616155147552,
        -0.10689970850944519,
        -0.25908079743385315,
        0.07947881519794464,
        0.18229824304580688,
        -0.1811543107032776,
        0.19278882443904877,
        0.24175727367401123,
        0.3557053804397583,
        0.07651408016681671,
        0.013993955217301846,
        0.058425724506378174,
        -0.05256134271621704,
        0.06479863822460175,
        -0.17527224123477936,
        -0.04497038945555687,
        0.20609140396118164,
        -0.02238667570054531,
        -0.021175533533096313,
        -0.18095681071281433,
        -0.15274007618427277,
        -0.0012444956228137016,
        0.1793147325515747,
        -0.010740256868302822,
        0.20311015844345093,
        -0.09250744432210922,
        0.008486230857670307,
        -0.07564111053943634,
        0.15510596334934235,
        -0.035068709403276443,
        0.03224259242415428,
        -0.06454690545797348,
        -0.2740277051925659,
        -0.09671313315629959,
        -0.11800915002822876,
        0.08212948590517044,
        0.18424293398857117,
        0.15117543935775757,
        -0.08390919864177704,
        -0.1417115181684494,
        -0.12394532561302185,
        0.25547271966934204,
        0.3083629608154297,
        0.08466644585132599,
        -0.02039634995162487,
        -0.09863938391208649,
        -0.0986308604478836,
        0.14816397428512573,
        0.17917895317077637,
        0.2285328060388565,
        -0.05793967843055725,
        0.12906047701835632,
        -0.09882751852273941,
        0.043410539627075195,
        0.06794005632400513,
        0.11849405616521835,
        0.26466670632362366,
        0.07734133303165436,
        0.14057983458042145,
        -0.20071962475776672,
        0.2238580882549286,
        0.0769253522157669,
        -0.14504241943359375,
        0.02244306355714798,
        -0.18644417822360992,
        -0.4593927264213562,
        0.2148617058992386,
        0.07996132224798203,
        0.01375501323491335,
        -0.08615429699420929,
        0.1944660246372223,
        0.13727261126041412,
        0.03720598295331001,
        -0.030803190544247627,
        0.2897275388240814,
        0.009378431364893913,
        -0.32978084683418274,
        0.20307718217372894,
        0.10605738312005997,
        0.0769355297088623,
        0.13914939761161804,
        -0.14246438443660736,
        -0.023686088621616364,
        0.4869438111782074,
        -0.34539005160331726,
        -0.24667789041996002,
        -0.002020687097683549,
        -0.0778122991323471,
        -0.033284302800893784,
        0.3153302073478699,
        0.003732218174263835,
        -0.08432985842227936,
        -0.36580392718315125,
        0.20083069801330566,
        0.0416126511991024,
        0.05550116300582886,
        -0.21020254492759705,
        -0.05401309207081795,
        -0.25001639127731323,
        0.13970357179641724,
        0.28164142370224,
        -0.12182403355836868,
        0.022599870339035988,
        0.1455855518579483,
        -0.14064788818359375,
        -0.3309076130390167,
        -0.08312724530696869,
        0.08911532908678055,
        0.12934376299381256,
        0.14988337457180023,
        -0.264364093542099,
        0.04015732556581497,
        -0.11222521215677261,
        -0.2641245126724243,
        0.12318691611289978,
        -0.25305426120758057,
        0.17790473997592926,
        -0.054441217333078384,
        0.06592030078172684,
        0.027954835444688797,
        -0.05598531290888786,
        0.11778014153242111,
        0.15987667441368103,
        0.1995747834444046,
        -0.014614097774028778,
        -0.10728960484266281,
        0.022837916389107704,
        0.11459603905677795,
        0.29602450132369995,
        -0.15438181161880493,
        -0.27741870284080505,
        -0.08399330824613571,
        -0.052351512014865875,
        0.01917378045618534,
        -0.3983754515647888,
        0.0497932992875576,
        -0.01520846039056778,
        -0.08804737031459808,
        -0.10315127670764923,
        -0.09881126135587692,
        -0.2635093629360199,
        0.092338927090168,
        0.19228319823741913,
        0.07646443694829941,
        -0.005675210151821375,
        0.1674356609582901,
        -0.23533625900745392,
        -0.21725985407829285,
        -0.05743950232863426,
        -0.051719751209020615,
        0.10197736322879791,
        -0.19316814839839935,
        -0.08088888227939606,
        -0.08519944548606873,
        0.149172842502594,
        -0.07030226290225983,
        0.142549067735672,
        0.08784843981266022,
        0.1148219108581543,
        -0.03043394163250923,
        -0.2534513473510742,
        -0.2692771852016449,
        0.09119995683431625,
        0.2561783790588379,
        -0.5289862155914307,
        0.6301736831665039,
        -0.07825688272714615,
        -0.3660063147544861,
        -0.2826903760433197,
        0.19734516739845276,
        0.25733113288879395,
        -0.4778553247451782,
        0.33525773882865906,
        0.1558738797903061,
        0.16350582242012024,
        0.2825603485107422,
        -0.34328243136405945,
        0.20132218301296234,
        0.05878579616546631,
        -0.1288934051990509,
        0.33694988489151,
        -0.17549356818199158,
        0.30949437618255615,
        -0.3159891664981842,
        0.08636603504419327,
        -0.1251876801252365,
        0.19978392124176025,
        -0.20478978753089905,
        -0.18968583643436432,
        0.21336786448955536,
        -0.05996426194906235,
        0.12795279920101166,
        -0.13654440641403198,
        0.11539868265390396,
        -0.07292003929615021,
        0.10153622925281525,
        -0.3153706192970276,
        0.3502271771430969,
        -0.1026809960603714,
        -0.14929038286209106,
        0.01988137513399124,
        0.4407602548599243,
        0.4373405873775482,
        -0.3356304466724396,
        -0.26761966943740845,
        -0.36755186319351196,
        0.11636299639940262,
        0.008937938138842583,
        0.04824051260948181,
        -0.06750154495239258,
        -0.21567760407924652,
        -0.49655160307884216,
        0.07410646975040436,
        -0.18073849380016327,
        -0.36529895663261414,
        0.048303600400686264,
        0.24448557198047638,
        0.036381885409355164,
        -0.161696657538414,
        -0.2521211504936218,
        0.40915802121162415,
        -0.3508528769016266,
        -0.3217708170413971,
        0.4377496838569641,
        -0.3497527539730072,
        0.08245795965194702,
        -0.0848543643951416,
        -0.07953035831451416,
        0.13204479217529297,
        0.18110790848731995,
        -0.25501400232315063,
        -0.29113465547561646,
        -0.12252204865217209,
        -0.026768162846565247,
        0.1062856912612915,
        -0.05500954017043114,
        0.26094990968704224,
        -0.062311504036188126,
        -0.10313253104686737,
        0.006900189910084009,
        0.025608902797102928,
        0.14912360906600952,
        -0.03873209282755852,
        -0.00852938275784254,
        -0.24793875217437744,
        0.1326483190059662,
        0.1596916764974594,
        -0.3241955637931824,
        -0.21752066910266876,
        0.1303427517414093,
        0.15535613894462585,
        0.07362991571426392,
        -0.086414635181427,
        -0.20466315746307373,
        0.17400284111499786,
        0.011617281474173069,
        -0.09305538237094879,
        0.23752205073833466,
        0.08029157668352127,
        0.1671796441078186,
        -0.0927850753068924,
        0.031246012076735497,
        0.021602969616651535,
        -0.08497679233551025,
        0.17753121256828308,
        0.14893406629562378,
        0.15465758740901947,
        -0.2890104055404663,
        0.25999799370765686,
        0.08554516732692719,
        0.41729310154914856,
        -0.12471987307071686,
        0.11085686087608337,
        -0.18380405008792877,
        0.11362285912036896,
        -0.37219300866127014,
        -0.0796629786491394,
        0.0891723483800888,
        -0.182706817984581,
        -0.043058838695287704,
        -0.031667374074459076,
        -0.26849913597106934,
        -0.041899148374795914,
        0.20029176771640778,
        0.16475112736225128,
        -0.12532950937747955,
        0.21116095781326294,
        0.11493327468633652,
        0.23750220239162445,
        0.05630147457122803,
        0.009807785041630268,
        -0.19955290853977203,
        0.14523464441299438,
        0.09890660643577576,
        -0.2456362247467041,
        -0.04339853301644325,
        -0.1390538513660431,
        0.17982760071754456,
        0.018729692324995995,
        -0.06004757061600685,
        0.1302177906036377,
        0.2745525538921356,
        0.14107777178287506,
        0.1782299429178238,
        0.11914709955453873,
        0.11088583618402481,
        -0.07358488440513611,
        -0.07738671451807022,
        -0.25226494669914246,
        -0.1629454791545868,
        0.07411426305770874,
        -0.23690830171108246,
        -0.041277576237916946,
        0.21933972835540771,
        -0.023231141269207,
        -0.2777770161628723,
        0.3580751121044159,
        0.032551418989896774,
        0.3964337110519409,
        -0.29729804396629333,
        -0.15960097312927246,
        0.016564354300498962,
        -0.04371127113699913,
        0.24777542054653168,
        -0.044899336993694305,
        -0.3968585431575775,
        -0.16697193682193756,
        0.02488579787313938,
        0.04837528616189957,
        -0.0423135980963707,
        0.1970885694026947,
        -0.12701988220214844,
        -0.2664281725883484,
        0.010934365913271904,
        0.17588098347187042,
        0.1869530826807022,
        0.19121327996253967,
        -0.04973255842924118,
        0.22783325612545013,
        -0.09666101634502411,
        0.107347771525383,
        -0.2230188101530075,
        0.010759901255369186,
        0.1960197240114212,
        0.18479833006858826,
        0.14780832827091217,
        0.08421692252159119,
        -0.14635208249092102,
        -0.1163029670715332,
        0.2220052033662796,
        -0.12195896357297897,
        0.1788669228553772,
        -0.1310269683599472,
        -0.2029612958431244,
        -0.014044110663235188,
        0.14185255765914917,
        0.29778721928596497,
        -0.09364689141511917,
        -0.31041625142097473,
        0.14948397874832153,
        0.06450480222702026,
        -0.042661119252443314,
        0.007396595552563667,
        0.013740448281168938,
        0.11472027003765106,
        -0.013867353089153767,
        -0.33492758870124817,
        0.28554582595825195,
        -0.21733926236629486,
        0.11162156611680984,
        0.026789261028170586,
        -0.04817737638950348,
        0.010684452950954437,
        -0.025710884481668472,
        0.19344179332256317,
        -0.20482619106769562,
        0.10969202220439911,
        0.11694079637527466,
        0.07511232793331146,
        -0.05671841278672218,
        0.2182433009147644,
        -0.018209058791399002,
        -0.2657925486564636,
        -0.05694574862718582,
        -0.2722720205783844,
        0.23624487221240997,
        -0.04641501605510712,
        -0.38284632563591003,
        0.22058553993701935,
        0.28231605887413025,
        0.4590438902378082,
        0.1291331648826599,
        -0.1576654314994812,
        0.02955234795808792,
        -0.1417205035686493,
        -0.01660485751926899,
        0.17121556401252747,
        0.2226969599723816,
        -0.13980922102928162,
        0.22197528183460236,
        -0.0818323940038681,
        -0.14196625351905823,
        0.22662799060344696,
        -0.05326097831130028,
        -0.062473416328430176,
        -0.45839691162109375,
        0.2169467955827713,
        -0.00813374761492014,
        -0.1000293716788292,
        -0.0750778317451477,
        0.049677759408950806,
        -0.17840202152729034,
        -0.17018766701221466,
        0.18528354167938232,
        -0.16629649698734283,
        0.12269922345876694,
        -0.2996257245540619,
        0.06776048988103867,
        -0.06735497713088989,
        0.12630656361579895,
        -0.31292322278022766,
        -0.28488942980766296,
        0.033489711582660675,
        -0.010410073213279247,
        0.0803845077753067,
        0.38665130734443665,
        0.046753834933042526,
        -0.0006643806118518114,
        -0.14781394600868225,
        0.05739256739616394,
        -0.08686988800764084,
        0.0793120265007019,
        0.12906458973884583,
        -0.11058858782052994,
        0.1332217901945114,
        0.06973221153020859,
        -0.15643846988677979,
        -0.04936034977436066,
        0.09605816751718521,
        -0.3064255118370056,
        -0.39933645725250244,
        0.4476413428783417,
        -0.6628955006599426,
        0.22069807350635529,
        0.4169520139694214,
        0.4468029737472534,
        -0.3166809678077698,
        0.3086566925048828,
        -0.3927746117115021,
        0.7580426931381226,
        -0.4964788258075714,
        -0.3718165159225464,
        0.34180212020874023,
        -0.07669954746961594,
        -0.060031477361917496,
        -0.20993633568286896,
        -0.0046635763719677925,
        -0.3977718651294708,
        -0.4538296163082123,
        0.3007904291152954,
        0.17218945920467377,
        -0.21203652024269104,
        0.08773596584796906,
        0.21574124693870544,
        -0.18791809678077698,
        0.05770079791545868,
        -0.22350747883319855,
        -0.3472965359687805,
        -0.17793375253677368,
        -0.06657978892326355,
        -0.19226762652397156,
        0.1627768874168396,
        0.01841585524380207,
        0.2486850619316101,
        -0.14685757458209991,
        0.09536217898130417,
        0.26219111680984497,
        0.5743920207023621,
        -0.11266300827264786,
        0.11071554571390152,
        -0.0820239707827568,
        -0.02630499191582203,
        0.05760183185338974,
        -0.21677207946777344,
        -0.17503689229488373,
        0.11112339794635773,
        0.26060372591018677,
        -0.11357969045639038,
        0.14801685512065887,
        -0.25463777780532837,
        -0.08020727336406708,
        0.5656920075416565,
        0.04428676515817642,
        0.05839370936155319,
        -0.1253667026758194,
        -0.141819566488266,
        0.02922329679131508,
        -0.21508647501468658,
        -0.11619307845830917,
        0.1986319124698639,
        0.08403469622135162,
        0.18358704447746277,
        -0.1738588660955429,
        -0.17223100364208221,
        0.1832563430070877,
        -0.33044305443763733,
        -0.012266295030713081,
        0.3379828929901123,
        -0.20110322535037994,
        -0.1420888453722,
        -0.016948187723755836,
        -0.018793344497680664,
        0.187962144613266,
        0.09023252874612808,
        0.06370458006858826,
        0.11469698697328568,
        -0.14131979644298553,
        0.12482483685016632,
        0.12467215955257416,
        0.16307131946086884,
        -0.1309545934200287,
        0.029240164905786514,
        0.2975769340991974,
        -0.22178252041339874,
        -0.0818113461136818,
        -0.06994988769292831,
        -0.015755245462059975,
        -0.13849759101867676,
        -0.07456068694591522,
        -0.20393742620944977,
        -0.06450911611318588,
        -0.018267469480633736,
        0.33663833141326904,
        -0.08851327747106552,
        0.04858732596039772,
        0.3943724036216736,
        -0.09063887596130371,
        -0.09355725347995758,
        0.09830671548843384,
        -0.018869556486606598,
        0.22392722964286804,
        -0.1440342217683792,
        0.08817628026008606,
        -0.18424294888973236,
        -0.010841662995517254,
        -0.08555778861045837,
        -0.20339058339595795,
        -0.12382489442825317,
        0.4233521521091461,
        0.1372946798801422,
        -0.18692639470100403,
        -0.11180709302425385,
        -0.41632089018821716,
        0.1843947321176529,
        -0.008148000575602055,
        0.15330135822296143,
        0.06198807805776596,
        0.03948204964399338,
        -0.20675791800022125,
        -0.1309044361114502,
        0.20490403473377228,
        -0.09272772818803787,
        0.050706032663583755,
        0.0389716736972332,
        -0.07613356411457062,
        -0.026743905618786812,
        0.06140189245343208,
        0.031419847160577774,
        -0.16872958838939667,
        -0.027756674215197563,
        0.1840900331735611,
        -0.023709747940301895,
        0.16816072165966034,
        0.08794251829385757,
        0.3200857639312744,
        0.05764647200703621,
        -0.06068077310919762,
        -0.42865052819252014,
        -0.047652870416641235,
        -0.16594728827476501,
        -0.00013989942090120167,
        0.034922774881124496,
        0.12304452061653137,
        0.21626517176628113,
        0.1190100684762001,
        0.097477488219738,
        0.23472250998020172,
        -0.1026218831539154,
        0.020513644441962242,
        -0.1089559867978096,
        0.09088083356618881,
        0.30599164962768555,
        -0.32841819524765015,
        0.07560759782791138,
        0.24944382905960083,
        -0.1191079244017601,
        -0.13629479706287384,
        -0.13651221990585327,
        -0.03348531946539879,
        -0.05120241641998291,
        0.10190927982330322,
        -0.07568581402301788,
        -0.07824306190013885,
        -0.3749346435070038,
        0.30830755829811096,
        0.032041508704423904,
        0.10851103812456131,
        0.29924824833869934,
        -0.3022756278514862,
        0.2492407262325287,
        0.17949740588665009,
        0.16103558242321014,
        -0.008839437738060951,
        -0.3027196526527405,
        0.15585115551948547,
        -0.2269139587879181,
        0.09483277052640915,
        -0.09371638298034668,
        -0.31645041704177856,
        0.1605767160654068,
        -0.08268912136554718,
        0.0682196170091629,
        -0.2776205837726593,
        0.06242262199521065,
        -0.04826660454273224,
        0.21505557000637054,
        -0.18672329187393188,
        0.16710248589515686,
        -0.16419273614883423,
        0.21975299715995789,
        -0.03218788653612137,
        -0.23750223219394684,
        0.09404222667217255,
        0.1029682382941246,
        -0.4238344132900238,
        -0.26739147305488586,
        -0.026816973462700844,
        0.3400883972644806,
        -0.189825639128685,
        0.11344856023788452,
        -0.035969629883766174,
        -0.15723787248134613,
        0.15619483590126038,
        0.04239292070269585,
        -0.007648625876754522,
        -0.19708600640296936,
        0.2465737909078598,
        0.12486521899700165,
        -0.017725253477692604,
        -0.5199894905090332,
        -0.13752716779708862,
        -0.08391217887401581,
        -0.018342992290854454,
        0.10146407037973404,
        -0.04739607125520706,
        0.14777982234954834,
        -0.09661940485239029,
        -0.06454664468765259,
        0.23566196858882904,
        0.026630442589521408,
        0.15937179327011108,
        -0.19730019569396973,
        0.06565060466527939,
        0.14821921288967133,
        -0.22419558465480804,
        0.08200754225254059,
        0.18819788098335266,
        -0.0833144262433052,
        -0.1948847472667694,
        -0.11602596193552017,
        0.17051324248313904,
        -0.036228906363248825,
        -0.17214931547641754,
        -0.39928290247917175,
        0.03494855388998985,
        -0.15327459573745728,
        0.2550523579120636,
        -0.16696879267692566,
        0.026772236451506615,
        0.19146379828453064,
        -0.020165055990219116,
        -0.017704853788018227,
        0.207736536860466,
        0.15722976624965668,
        0.04338876157999039,
        -0.2307131141424179,
        0.1455773115158081,
        0.2579614222049713,
        -0.1918705403804779,
        -0.12611962854862213,
        0.2401179075241089,
        -0.08455567061901093,
        -0.0961412787437439,
        -0.22169610857963562,
        0.2079363316297531,
        -0.08257982134819031,
        -0.03638685867190361,
        -0.41022950410842896,
        -0.13415609300136566,
        -0.2036866694688797,
        0.26037004590034485,
        0.10032738000154495,
        0.024325411766767502,
        0.08956284075975418,
        -0.06839606165885925,
        -0.015394262969493866,
        0.2595579922199249,
        -0.033151429146528244,
        0.08424962311983109,
        -0.3464758098125458,
        0.14310498535633087,
        -0.03326907381415367,
        0.10494769364595413,
        0.0626828521490097,
        -0.1434323787689209,
        0.09126251190900803,
        0.022421834990382195,
        0.32542574405670166,
        0.08106353878974915,
        -0.47681429982185364,
        0.30802538990974426,
        0.12845392525196075,
        -0.09666714072227478,
        0.38797616958618164,
        0.6527421474456787,
        -0.48435476422309875,
        0.08609696477651596,
        0.2572280764579773,
        0.14305990934371948,
        0.3608277142047882,
        -0.09267915040254593,
        -0.39636677503585815,
        0.5514668822288513,
        0.17853188514709473,
        0.516838550567627,
        -0.1600080281496048,
        -0.2702670097351074,
        -0.010153488256037235,
        -0.42586031556129456,
        0.43006420135498047,
        0.06657546758651733,
        0.06645231693983078,
        -0.23885869979858398,
        0.05592111125588417,
        -0.07721618562936783,
        0.2815485894680023,
        -0.46737751364707947,
        -0.3652607202529907,
        0.0350249744951725,
        0.2510286271572113,
        0.13262508809566498,
        -0.08927827328443527,
        -0.27573445439338684,
        0.10076185315847397,
        -0.2374291568994522,
        0.3768017590045929,
        0.23890380561351776,
        0.05018693208694458,
        -0.16171619296073914,
        0.03626479580998421,
        -0.027775099501013756,
        0.16175909340381622,
        0.18740683794021606,
        -0.34311988949775696,
        0.5136197209358215,
        0.010546647943556309,
        0.21563929319381714,
        -0.02853272669017315,
        -0.22575296461582184,
        -0.0597229041159153,
        -0.2284216731786728,
        0.29648709297180176,
        -0.37684863805770874,
        0.23197953402996063,
        0.06363505125045776,
        -0.35699984431266785,
        0.08481866866350174,
        -0.462350070476532,
        -0.36134201288223267,
        0.2751505374908447,
        -0.02331944927573204,
        -0.3917628824710846,
        -0.5082733035087585,
        -0.20931340754032135,
        0.1902022659778595,
        -0.3911605775356293,
        -0.520267128944397,
        0.42171040177345276,
        -0.4925970137119293,
        -0.38047653436660767,
        -0.42281973361968994,
        -0.040968213230371475,
        -0.24430787563323975,
        -0.14667664468288422,
        -0.09379938989877701,
        -0.23455309867858887,
        -0.03728343918919563,
        -0.2804318070411682,
        -0.11713690310716629,
        -0.11633633822202682,
        -0.2307925671339035,
        -0.07524177432060242,
        -0.040633201599121094,
        -0.10320449620485306,
        0.12506620585918427,
        -0.0739414319396019,
        -0.18506309390068054,
        -0.18399232625961304,
        -0.04897851496934891,
        -0.35642004013061523,
        -0.19235503673553467,
        0.07678231596946716,
        0.12965984642505646,
        -0.05235661566257477,
        -0.1344790905714035,
        0.14272502064704895,
        -0.2395750731229782,
        0.12125701457262039,
        -0.27671751379966736,
        0.06335347145795822,
        -0.22398416697978973,
        0.02112876996397972,
        -0.2502085864543915,
        -0.23716534674167633,
        -0.11542666703462601,
        0.06000334769487381,
        -0.23047605156898499,
        -0.2928467094898224,
        0.2096530944108963,
        0.058285970240831375,
        0.11158907413482666,
        -0.2774510681629181,
        0.06787056475877762,
        -0.2932029664516449,
        0.1003144159913063,
        0.049236051738262177,
        -0.07416784018278122,
        -0.04066172614693642,
        0.026824213564395905,
        0.02745167538523674,
        -0.02515353634953499,
        -0.01706814207136631,
        0.0340300127863884,
        -0.11296198517084122,
        -0.06823268532752991,
        -0.18911242485046387,
        0.07519741356372833,
        -0.2201996147632599,
        -0.03368379548192024,
        0.06949853152036667,
        -0.20224516093730927,
        -0.17907419800758362,
        -0.013122945092618465,
        0.08674093335866928,
        -0.14379054307937622,
        -0.14638298749923706,
        -0.21965669095516205,
        -0.35689258575439453,
        0.17284540832042694,
        0.15316510200500488,
        -0.25075772404670715,
        -0.05882875621318817,
        0.08343487977981567,
        0.20358146727085114,
        0.17381690442562103,
        -0.0012345889117568731,
        -0.3158884346485138,
        0.12195111811161041,
        -0.015514330938458443,
        -0.0023627406917512417,
        -0.042643364518880844,
        0.213873952627182,
        0.15610350668430328,
        0.2763740122318268,
        0.056507695466279984,
        -0.010905581526458263,
        -0.244915172457695,
        -0.19632694125175476,
        0.16167998313903809,
        -0.04937836527824402,
        -0.22111432254314423,
        0.315486878156662,
        0.05666577070951462,
        -0.17815910279750824,
        -0.16468827426433563,
        -0.19880370795726776,
        -0.19037102162837982,
        0.026181954890489578,
        0.06129666417837143,
        -0.11479838192462921,
        0.15898863971233368,
        0.04402735084295273,
        0.1602160483598709,
        0.048388026654720306,
        0.008064953610301018,
        -0.1521391123533249,
        -0.14250311255455017,
        -0.1346883475780487,
        0.00309249060228467,
        0.027600731700658798,
        -0.022984566166996956,
        0.17291739583015442,
        0.22772015631198883,
        -0.10748118162155151,
        -0.06553494185209274,
        -0.25920432806015015,
        -0.3049238920211792,
        0.06949323415756226,
        -0.07528593391180038,
        0.0487336739897728,
        -0.15073513984680176,
        0.023981984704732895,
        0.12203854322433472,
        0.08837496489286423,
        -0.25353357195854187,
        -0.06658407300710678,
        -0.18428760766983032,
        -0.15158480405807495,
        -0.04743342474102974,
        0.19533202052116394,
        0.08351963758468628,
        0.1797703057527542,
        0.21892333030700684,
        0.11905105412006378,
        -0.3207629323005676,
        -0.005628445651382208,
        -0.007909176871180534,
        0.3002554178237915,
        -0.006359525956213474,
        0.2816050350666046,
        0.2182120829820633,
        -0.13290748000144958,
        0.005353901535272598,
        0.3384154438972473,
        -0.18126411736011505,
        -0.01465731579810381,
        0.0825200080871582,
        0.016100339591503143,
        0.22815215587615967,
        0.09844726324081421,
        0.14758974313735962,
        0.009648683480918407,
        0.037216272205114365,
        0.2979108393192291,
        -0.34659597277641296,
        0.05571196973323822,
        -0.013337313197553158,
        -0.083541639149189,
        0.03381609544157982,
        -0.08078715205192566,
        0.044104862958192825,
        -0.2569330036640167,
        -0.3104800283908844,
        -0.17073296010494232,
        -0.10611794888973236,
        -0.19432196021080017,
        -0.09717922657728195,
        -0.04287987947463989,
        -0.11440306901931763,
        -0.06228169798851013,
        -0.15827378630638123,
        0.2208423763513565,
        0.030221426859498024,
        -0.1250171661376953,
        0.213522806763649,
        -0.18690675497055054,
        -0.2827131748199463,
        0.17640574276447296,
        0.23175834119319916,
        0.013245952315628529,
        0.01627243682742119,
        0.071546271443367,
        -0.03453753516077995,
        -0.25419673323631287,
        0.05269981920719147,
        0.07221811264753342,
        -0.034046899527311325,
        -0.04884515330195427,
        0.07359501719474792,
        -0.2743029296398163,
        -0.01671932265162468,
        0.1858983039855957,
        -0.1577751189470291,
        -0.14830459654331207,
        -0.14962521195411682,
        0.049758341163396835,
        0.13140903413295746,
        -0.25801438093185425,
        -0.04895249009132385,
        0.1584063619375229,
        0.014723921194672585,
        -0.039629653096199036,
        0.0835377499461174,
        0.008930295705795288,
        -0.07923628389835358,
        -0.12250450253486633,
        0.08378252387046814,
        0.034094613045454025,
        -0.1377774327993393,
        -0.30174896121025085,
        -0.6134470701217651,
        -0.17438705265522003,
        -0.5471311211585999,
        0.5922009348869324,
        0.4018782377243042,
        -0.5572565197944641,
        -0.3257470726966858,
        0.06725583970546722,
        0.07595193386077881,
        0.1387154459953308,
        -0.055500328540802,
        -0.058277636766433716,
        -0.031294796615839005,
        -0.02540075033903122,
        0.1918286383152008,
        -0.1005517765879631,
        0.10268763452768326,
        0.49265056848526,
        -0.21098299324512482,
        0.0789114311337471,
        0.12300392985343933,
        -0.11594332754611969,
        0.1820768415927887,
        0.3870159685611725,
        0.4569414556026459,
        0.11609796434640884,
        0.11477664858102798,
        0.12587401270866394,
        -0.18960221111774445,
        0.022419296205043793,
        -0.08946271240711212,
        0.37886109948158264,
        0.18399029970169067,
        -0.21816125512123108,
        0.10083024203777313,
        -0.18469998240470886,
        0.4076359272003174,
        0.2756490707397461,
        -0.17202037572860718,
        -0.4807630181312561,
        0.14315658807754517,
        -0.2787054479122162,
        0.13252826035022736,
        -0.3487030267715454,
        0.09151554107666016,
        -0.19097892940044403,
        0.0766492411494255,
        0.06832063943147659,
        0.14857439696788788,
        0.012031547725200653,
        0.019925300031900406,
        0.2379487156867981,
        -0.16637970507144928,
        0.0106786098331213,
        -0.10777851939201355,
        0.37315279245376587,
        0.25289255380630493,
        -0.045245397835969925,
        -0.002556765917688608,
        -0.2369149923324585,
        0.2246144562959671,
        0.084566131234169,
        0.441999614238739,
        0.31627243757247925,
        0.41243109107017517,
        0.3687207102775574,
        -0.12499654293060303,
        0.10388271510601044,
        -0.2198423147201538,
        0.2747616171836853,
        -0.0011372093576937914,
        0.06031503900885582,
        -0.11340976506471634,
        -0.283085435628891,
        0.18544834852218628,
        0.13444079458713531,
        0.08186300098896027,
        0.17867738008499146,
        -0.10726097226142883,
        -0.016786867752671242,
        0.03883543610572815,
        0.09140478074550629,
        -0.060301102697849274,
        0.21022795140743256,
        0.010572546161711216,
        0.1131850928068161,
        -0.15040844678878784,
        0.2039303481578827,
        -0.11248865723609924,
        -0.1342007964849472,
        0.044872574508190155,
        -0.14110463857650757,
        -0.2653036415576935,
        -0.012741567566990852,
        -0.16531504690647125,
        -0.2889419496059418,
        0.08137330412864685,
        0.14154072105884552,
        0.021994275972247124,
        -0.2424393743276596,
        0.025953609496355057,
        -0.09632506966590881,
        -0.1320286989212036,
        0.010249361395835876,
        -0.3306296765804291,
        -0.33727172017097473,
        0.06454289704561234,
        -0.17753049731254578,
        -0.09187387675046921,
        -0.15751522779464722,
        0.34162890911102295,
        -0.14219586551189423,
        -0.0763348862528801,
        -0.06786219030618668,
        -0.08834202587604523,
        -0.013589472509920597,
        0.30753761529922485,
        -0.08486229926347733,
        -0.1153952032327652,
        -0.04961307346820831,
        -0.28715547919273376,
        0.1925402134656906,
        0.23271703720092773,
        0.3807275593280792,
        -0.05733126029372215,
        -0.1088329330086708,
        -0.07552218437194824,
        0.17000016570091248,
        -0.1747080534696579,
        -0.17924854159355164,
        0.18427956104278564,
        -0.29047897458076477,
        -0.012923866510391235,
        -0.22584109008312225,
        -0.1335451751947403,
        -0.26141735911369324,
        0.13030663132667542,
        0.2405320256948471,
        0.21935023367404938,
        0.044319283217191696,
        0.2747584581375122,
        0.04557039961218834,
        0.04918776452541351,
        0.4092678725719452,
        0.30200085043907166,
        0.005550588946789503,
        -0.19870014488697052,
        -0.0627969428896904,
        0.034657035022974014,
        -0.014512764289975166,
        0.12548044323921204,
        -0.008549008518457413,
        0.2697286307811737,
        0.01777562126517296,
        -0.11541736125946045,
        0.2719874382019043,
        0.1259341835975647,
        -0.08594123274087906,
        -0.18646787106990814,
        0.2787778377532959,
        0.04467727616429329,
        0.11064431071281433,
        -0.021833354607224464,
        0.2067052274942398,
        -0.23434370756149292,
        -0.0687112808227539,
        0.038603201508522034,
        -0.1323501467704773,
        -0.1722661256790161,
        0.19200709462165833,
        -0.019748663529753685,
        0.03844355419278145,
        -0.013828548602759838,
        0.1501852422952652,
        -0.1570412814617157,
        -0.03642391785979271,
        -0.24539463222026825,
        -0.044221002608537674,
        0.17796216905117035,
        -0.10011796653270721,
        0.11806219071149826,
        0.07274617999792099,
        0.05284539610147476,
        -0.2193615883588791,
        -0.17942781746387482,
        0.003731210483238101,
        0.0017808348638936877,
        0.11708404123783112,
        0.03119577467441559,
        -0.017533931881189346,
        -0.10621275007724762,
        0.16458772122859955,
        0.04387808218598366,
        0.0001557005598442629,
        -0.00631056958809495,
        0.17050135135650635,
        -0.02540121227502823,
        -0.18837103247642517,
        -0.0003704055561684072,
        -0.018683092668652534,
        0.043044283986091614,
        0.07627268135547638,
        -0.04740322381258011,
        0.27400729060173035,
        -0.1280214637517929,
        -0.16417758166790009,
        -0.292405903339386,
        0.043001752346754074,
        0.11837355047464371,
        0.0019921946804970503,
        -0.057135071605443954,
        0.28354743123054504,
        -0.08172523975372314,
        0.22939005494117737,
        0.12076286971569061,
        -0.07523787766695023,
        0.20504175126552582,
        -0.0405438095331192,
        -0.2145618349313736,
        -0.20549969375133514,
        0.08518797159194946,
        0.022668249905109406,
        -0.12960213422775269,
        -0.09650280326604843,
        0.1523631066083908,
        0.10880963504314423,
        -0.03080543875694275,
        -0.031347423791885376,
        -0.15650886297225952,
        -0.07853169739246368,
        -0.16567440330982208,
        0.02825046516954899,
        -0.022646259516477585,
        -0.05614763870835304,
        -0.18057134747505188,
        0.09767398983240128,
        -0.29545220732688904,
        -0.046477094292640686,
        -0.10300205647945404,
        -0.15488210320472717,
        -0.02487323060631752,
        -0.21649658679962158,
        -0.1308278739452362,
        0.02407768741250038,
        0.011704620905220509,
        0.1403156816959381,
        -0.06260024011135101,
        0.11006994545459747,
        0.13790665566921234,
        0.010841913521289825,
        -0.08848699927330017,
        0.0523502342402935,
        -0.029013998806476593,
        -0.13612571358680725,
        -0.00802252534776926,
        0.15485408902168274,
        0.05655978247523308,
        -0.15420930087566376,
        -0.00799818430095911,
        0.08161517232656479,
        -0.09763605892658234,
        0.05064323917031288,
        0.14339318871498108,
        -0.07092244178056717,
        0.1090959683060646,
        0.06086011230945587,
        -0.09979911893606186,
        -0.3099978566169739,
        0.0596344880759716,
        0.15758496522903442,
        -0.11092881858348846,
        -0.09462244808673859,
        -0.049721721559762955,
        0.2270774394273758,
        -0.0819501280784607,
        -0.010158834047615528,
        -0.032542839646339417,
        0.02778741717338562,
        0.11952774971723557,
        -0.38674527406692505,
        0.04743688553571701,
        0.14720027148723602,
        0.038599323481321335,
        -0.27859702706336975,
        0.34154829382896423,
        -0.4851835072040558,
        0.19993314146995544,
        0.17318382859230042,
        -0.10320758074522018,
        -0.22546428442001343,
        -0.14642085134983063,
        0.1527853161096573,
        -0.31049850583076477,
        -0.3224709928035736,
        0.2320774346590042,
        0.19315677881240845,
        0.2735923230648041,
        0.329313725233078,
        0.08967160433530807,
        0.2157091647386551,
        0.18979965150356293,
        -0.009960200637578964,
        -0.07622108608484268,
        0.18867413699626923,
        0.027210671454668045,
        -0.22438548505306244,
        -0.3519591689109802,
        0.1918090134859085,
        0.09201887995004654,
        0.11698828637599945,
        -0.0806049257516861,
        0.1066310852766037,
        -0.19663171470165253,
        -0.14383144676685333,
        -0.40324637293815613,
        0.3910447657108307,
        0.01865854673087597,
        -0.2113875448703766,
        0.06233147159218788,
        -0.11444689333438873,
        -0.28551769256591797,
        0.17317165434360504,
        0.07722488790750504,
        -0.22537386417388916,
        -0.1197560653090477,
        0.06903679668903351,
        0.2588742971420288,
        -0.08939484506845474,
        -0.16698642075061798,
        0.13279962539672852,
        0.15778383612632751,
        -0.42511531710624695,
        -0.34667736291885376,
        0.15617410838603973,
        0.24705788493156433,
        -0.09688214957714081,
        0.2429722398519516,
        -0.26029831171035767,
        0.3663576543331146,
        0.21795356273651123,
        0.007143475580960512,
        0.22036172449588776,
        0.18952541053295135,
        -0.22786910831928253,
        0.05373665317893028,
        0.10547429323196411,
        -0.06264954060316086,
        0.3068573772907257,
        -0.23778170347213745,
        -0.2485639899969101,
        -0.18794994056224823,
        -0.2481178194284439,
        0.25628864765167236,
        -0.10766758769750595,
        -0.22517122328281403,
        0.026117118075489998,
        -0.18370430171489716,
        -0.24612951278686523,
        0.20336098968982697,
        0.10446522384881973,
        0.14026468992233276,
        0.36129695177078247,
        -0.15836389362812042,
        -0.05997105687856674,
        -0.15290264785289764,
        0.319804847240448,
        0.30898982286453247,
        -0.16145601868629456,
        0.21553729474544525,
        -0.09383954107761383,
        -0.21048539876937866,
        0.0103521179407835,
        -0.11928166449069977,
        0.2746293246746063,
        0.014899746514856815,
        -0.08513403683900833,
        -0.1862524449825287,
        0.019407935440540314,
        -0.10716953873634338,
        -0.02761848270893097,
        0.14305154979228973,
        0.025771932676434517,
        -0.26589521765708923,
        0.023791231215000153,
        0.01595499739050865,
        -0.14344258606433868,
        -0.12266918271780014,
        -0.09618871659040451,
        0.19988006353378296,
        0.2365504801273346,
        0.045765046030282974,
        0.10911989212036133,
        -0.10147407650947571,
        0.09777709096670151,
        0.28667372465133667,
        -0.005858649965375662,
        0.0730721578001976,
        -0.08933354914188385,
        -0.2393224984407425,
        0.05509856343269348,
        -0.3287205100059509,
        0.10833421349525452,
        0.0975838378071785,
        0.4878396689891815,
        0.06414519250392914,
        0.08227654546499252,
        0.22851870954036713,
        -0.11674650013446808,
        0.13810034096240997,
        -0.4318843185901642,
        0.27061498165130615,
        0.1915753185749054,
        0.042054180055856705,
        -0.25880417227745056,
        -0.40955162048339844,
        0.2109391689300537,
        0.1634562611579895,
        -0.05226561799645424,
        0.30454596877098083,
        -0.10507390648126602,
        -0.07301872968673706,
        -0.12128487974405289,
        0.03818364813923836,
        -0.033808037638664246,
        0.0014084496069699526,
        0.04512717202305794,
        -0.05740540847182274,
        -0.09129583835601807,
        -0.14340375363826752,
        -0.020454678684473038,
        0.13141150772571564,
        0.04356973618268967,
        0.03296361118555069,
        0.2555631399154663,
        -0.05278277397155762,
        0.04856991395354271,
        -0.23387016355991364,
        0.056724343448877335,
        0.19221055507659912,
        0.36617621779441833,
        0.06488712131977081,
        -0.04162086918950081,
        -0.02561953477561474,
        -0.07937106490135193,
        0.005255574360489845,
        0.05080440640449524,
        -0.006229906342923641,
        -0.21428489685058594,
        -0.11104543507099152,
        0.10394702106714249,
        0.1701742261648178,
        0.12584011256694794,
        0.010503356344997883,
        -0.033833492547273636,
        -0.3373355269432068,
        0.0999293252825737,
        0.19275633990764618,
        -0.35724425315856934,
        -0.19786980748176575,
        0.05605308338999748,
        0.3342544734477997,
        0.012026747688651085,
        0.19209352135658264,
        0.026440823450684547,
        0.029761359095573425,
        -0.05657665431499481,
        -0.03858424723148346,
        0.09397028386592865,
        -0.18514804542064667,
        -0.16530540585517883,
        0.11777738481760025,
        0.0017792314756661654,
        -0.023112760856747627,
        0.009755939245223999,
        0.04891486465930939,
        0.03133510425686836,
        0.10226436704397202,
        -0.060192760080099106,
        0.11589601635932922,
        -0.17114482820034027,
        -0.11661917716264725,
        -0.17183129489421844,
        0.2209172546863556,
        0.015515272505581379,
        0.1150207668542862,
        -0.12521684169769287,
        0.10268982499837875,
        0.14096678793430328,
        0.014793218113481998,
        0.06893210113048553,
        -0.12133794277906418,
        0.027930529788136482,
        -0.04922707751393318,
        -0.0013131361920386553,
        -0.1051940992474556,
        -0.18439620733261108,
        -0.07483197003602982,
        0.015291346237063408,
        0.09284879267215729,
        -0.3411199450492859,
        -0.05952318385243416,
        -0.07900527864694595,
        -0.23460717499256134,
        -0.12786631286144257,
        -0.1501096934080124,
        0.1398644894361496,
        0.07443620264530182,
        -0.12279724329710007,
        0.13085809350013733,
        -0.04164445400238037,
        0.22356438636779785,
        -0.22309821844100952,
        -0.14843684434890747,
        0.0838341936469078,
        0.1213836520910263,
        -0.1445029079914093,
        -0.12887436151504517,
        0.13669808208942413,
        -0.031209906563162804,
        0.15974216163158417,
        -0.13275481760501862,
        0.09952928870916367,
        -0.12044723331928253,
        0.015267126262187958,
        -0.10224068909883499,
        0.06333579123020172,
        -0.0710955336689949,
        -0.02806323580443859,
        -0.21661248803138733,
        0.1622757464647293,
        0.020370403304696083,
        0.06756359338760376,
        0.20227362215518951,
        -0.012288299389183521,
        -0.12934525310993195,
        -0.19795511662960052,
        -0.06331618875265121,
        -0.14828208088874817,
        -0.09780679643154144,
        0.11564911901950836,
        0.17076843976974487,
        0.3994666337966919,
        0.0791827142238617,
        0.0973503589630127,
        0.19344304502010345,
        -0.18580366671085358,
        -0.22674891352653503,
        -0.4413515627384186,
        0.062113016843795776,
        -0.0006481686723418534,
        -0.22046881914138794,
        0.221027672290802,
        -0.3673875629901886,
        -0.1653129756450653,
        -0.3018991947174072,
        0.06285882741212845,
        -0.10504163801670074,
        0.03945797309279442,
        0.2224075198173523,
        -0.22201818227767944,
        -0.6792178153991699,
        -0.4187966585159302,
        0.5506637096405029,
        1.193069338798523,
        0.08220575749874115,
        -0.6416414380073547,
        -0.27210763096809387,
        -0.2469702810049057,
        -0.09987252950668335,
        0.26011329889297485,
        0.0754055604338646,
        0.311059832572937,
        -0.04171968623995781,
        -0.30533933639526367,
        -0.06582127511501312,
        0.003102813847362995,
        -0.22126808762550354,
        0.005167846102267504,
        0.03892070800065994,
        -0.4689413607120514,
        0.3718871772289276,
        0.07201243191957474,
        -0.31220054626464844,
        0.3814820349216461,
        -0.11243727058172226,
        0.05192285776138306,
        0.2622038722038269,
        0.0961664617061615,
        -0.06477422267198563,
        0.26466432213783264,
        0.06714728474617004,
        -0.3086041510105133,
        -0.16774025559425354,
        0.20358029007911682,
        0.28428247570991516,
        0.13095061480998993,
        0.2533758282661438,
        -0.14790742099285126,
        0.005577802658081055,
        0.012593585066497326,
        0.025452475994825363,
        -0.30126723647117615,
        -0.3667338490486145,
        0.18366481363773346,
        0.01505928486585617,
        0.04777740314602852,
        -0.009823187254369259,
        0.2361939400434494,
        0.13987557590007782,
        -0.4357503056526184,
        -0.2182932049036026,
        -0.31211307644844055,
        0.028448030352592468,
        0.08596056699752808,
        -0.1155017539858818,
        -0.03907882049679756,
        0.07606986910104752,
        0.02209419384598732,
        0.36703792214393616,
        0.156448096036911,
        -0.09122918546199799,
        0.14982281625270844,
        0.15226532518863678,
        0.36853641271591187,
        -0.13535043597221375,
        -0.13971954584121704,
        -0.1630575805902481,
        0.157647967338562,
        -0.00909971073269844,
        0.08206973969936371,
        0.21757134795188904,
        0.3472577929496765,
        -0.012107549235224724,
        -0.1737288385629654,
        0.3762282729148865,
        -0.07810115069150925,
        -0.1167641431093216,
        -0.22102633118629456,
        -0.1287924349308014,
        -0.5759989023208618,
        0.21731340885162354,
        -0.11857771128416061,
        -0.42778629064559937,
        0.6327440738677979,
        -0.7221038341522217,
        -0.37939417362213135,
        -0.4928760230541229,
        -0.12632586061954498,
        0.7247548699378967,
        0.15473419427871704,
        -0.5298915505409241,
        0.21226802468299866,
        -0.653778076171875,
        -0.2780587077140808,
        -0.2801511585712433,
        -0.11526919901371002,
        0.37025296688079834,
        0.3885905146598816,
        -0.6754757165908813,
        0.5906351208686829,
        -0.11380530893802643,
        -0.7327883243560791,
        -0.5481805205345154,
        0.5254510641098022,
        -0.47718164324760437,
        -0.39035481214523315,
        0.5692322850227356,
        -0.4644179344177246,
        0.46467825770378113,
        0.27582165598869324,
        0.6307040452957153,
        0.04973788186907768,
        0.2459389716386795,
        -0.009482264518737793,
        0.2356896847486496,
        -0.0006975700962357223,
        -0.06105554848909378,
        -0.0558391772210598,
        0.411103218793869,
        -0.5349565148353577,
        0.5146787166595459,
        -0.3220503330230713,
        0.14667204022407532,
        -0.34668034315109253,
        0.24083225429058075,
        0.33966413140296936,
        0.2536199986934662,
        -0.1990051120519638,
        0.500726580619812,
        -0.05749639868736267,
        -0.15839308500289917,
        -0.4703475534915924,
        -0.1947469860315323,
        0.146108478307724,
        0.06161022558808327,
        -0.2684513330459595,
        0.11942299455404282,
        0.22574026882648468,
        -0.13185903429985046,
        -0.2118845134973526,
        0.2524579167366028,
        -0.008365785703063011,
        0.5293291807174683,
        0.0459919236600399,
        0.002637020777910948,
        -0.02553245797753334,
        0.11631101369857788,
        0.07701379805803299,
        -0.040520329028367996,
        0.04534460976719856,
        -0.02819087728857994,
        -0.1286512315273285,
        -0.2056213617324829,
        -0.06789235025644302,
        0.43565115332603455,
        0.268636554479599,
        0.18476229906082153,
        0.4290739595890045,
        0.06622911244630814,
        -0.04301714897155762,
        0.2430812269449234,
        -0.127902552485466,
        0.1747867465019226,
        0.10931830108165741,
        -0.2498486042022705,
        -0.22967128455638885,
        0.4391237795352936,
        0.06720123440027237,
        0.07590500265359879,
        0.0966562032699585,
        -0.19515743851661682,
        -0.03214234858751297,
        0.13356103003025055,
        -0.320071280002594,
        -0.16183781623840332,
        0.06998537480831146,
        0.3980365991592407,
        0.18293942511081696,
        0.16653338074684143,
        -0.1533154547214508,
        -0.03649479150772095,
        -0.0712440088391304,
        0.19854307174682617,
        -0.1311994045972824,
        -0.03647758439183235,
        0.2646910548210144,
        -0.047617893666028976,
        -0.056267399340867996,
        -0.2665565013885498,
        -0.0045754811726510525,
        -0.2763780355453491,
        -0.2154104858636856,
        -0.18884234130382538,
        -0.09738102555274963,
        0.19057025015354156,
        0.1930735558271408,
        0.2196664959192276,
        -0.2384262979030609,
        0.3581005930900574,
        -0.28388354182243347,
        -0.13483160734176636,
        -0.42339810729026794,
        -0.15392950177192688,
        0.43869879841804504,
        -0.4584086537361145,
        -0.08140958100557327,
        -0.027489207684993744,
        0.29830241203308105,
        0.15616576373577118,
        -0.19089552760124207,
        0.2238917350769043,
        -0.4974219799041748,
        -0.17306892573833466,
        -0.0015012252843007445,
        -0.03893901780247688,
        0.3875443637371063,
        0.44629934430122375,
        -0.12137548625469208,
        -0.1533806174993515,
        0.09398153424263,
        0.11431838572025299,
        0.04446367546916008,
        -0.0660213902592659,
        -0.04290221258997917,
        0.40031111240386963,
        -0.07207094877958298,
        -0.1054236963391304,
        -0.21189622581005096,
        0.08985450863838196,
        0.12504903972148895,
        0.20208652317523956,
        -0.1383480578660965,
        -0.16755136847496033,
        -0.3537338376045227,
        -0.04642120748758316,
        -0.2059072107076645,
        0.409622460603714,
        0.24522574245929718,
        0.13672447204589844,
        0.5244168639183044,
        -0.05047918111085892,
        0.2690467834472656,
        0.13446767628192902,
        -0.27292078733444214,
        -0.12565389275550842,
        -0.00030118649010546505,
        -0.041373252868652344,
        0.08547201007604599,
        0.17748279869556427,
        0.34041664004325867,
        0.08979826420545578,
        0.12282660603523254,
        -0.06700734049081802,
        -0.12527123093605042,
        0.25275447964668274,
        -0.07440808415412903,
        -0.06542690098285675,
        0.025230422616004944,
        -0.16654983162879944,
        -0.18850526213645935,
        -0.2696533203125,
        0.2893505096435547,
        0.15952083468437195,
        0.0002741342468652874,
        -0.1583625227212906,
        0.06280790269374847,
        -0.19985468685626984,
        0.09334671497344971,
        -0.5737813115119934,
        -0.18644264340400696,
        -0.11212078481912613,
        0.5581294894218445,
        0.39195486903190613,
        -0.07028236985206604,
        -0.2587476074695587,
        -0.31535664200782776,
        -0.056649528443813324,
        0.02887440286576748,
        -0.06260042637586594,
        -0.04335338994860649,
        0.3230934739112854,
        -0.3400462865829468,
        -0.266695499420166,
        0.38952988386154175,
        0.17495816946029663,
        -0.020892858505249023,
        0.30053409934043884,
        0.3382056951522827,
        -0.06298362463712692,
        -0.23211351037025452,
        -0.12773258984088898,
        0.2618255317211151,
        0.0003257035568822175,
        0.21078449487686157,
        -0.38522228598594666,
        -0.0552460253238678,
        0.13836495578289032,
        0.04216553270816803,
        -0.02033018320798874,
        -0.005956724286079407,
        0.28529244661331177,
        -0.1729397028684616,
        -0.1239236444234848,
        0.03432799130678177,
        0.19023093581199646,
        0.16652865707874298,
        0.06109638139605522,
        -0.16314929723739624,
        -0.2875269651412964,
        -0.18564820289611816,
        -0.26455238461494446,
        0.02279849536716938,
        0.175871804356575,
        0.004641961771994829,
        0.0641002282500267,
        -0.11835335940122604,
        0.4724160432815552,
        -0.00889586005359888,
        0.275208979845047,
        -0.04210426285862923,
        -0.01345702726393938,
        0.06103060021996498,
        -0.1404401659965515,
        -0.09299217164516449,
        0.3258739709854126,
        0.44528183341026306,
        0.1522030085325241,
        0.430826336145401,
        -0.23485594987869263,
        -0.15383735299110413,
        0.29683464765548706,
        -0.10997600853443146,
        -0.1860514134168625,
        -0.2271300107240677,
        -0.03996708616614342,
        0.10046312212944031,
        -0.5158174633979797,
        0.33924397826194763,
        -0.024028468877077103,
        0.12817981839179993,
        -0.23423969745635986,
        0.22696594893932343,
        -0.05385345593094826,
        0.08652003854513168,
        -0.1722397804260254,
        -0.24926267564296722,
        -0.0020163690205663443,
        1.06787109375,
        0.2574007511138916,
        0.6804124712944031,
        0.21102239191532135,
        -0.14180417358875275,
        -0.3804486095905304,
        -0.2955707609653473,
        -0.199945867061615,
        -0.1430525928735733,
        0.17344938218593597,
        -0.32027673721313477,
        -0.02822965942323208,
        -0.23056660592556,
        -0.36587217450141907,
        0.02889864705502987,
        0.5344518423080444,
        0.37914901971817017,
        0.2702222764492035,
        -0.08766215294599533,
        -0.005058950278908014,
        0.3224089741706848,
        -0.12055513262748718,
        -0.257870078086853,
        0.4398346543312073,
        0.000529038137756288,
        -0.19041162729263306,
        0.25695255398750305,
        -0.19078920781612396,
        0.6038861274719238,
        -0.08651368319988251,
        0.018460754305124283,
        0.23736143112182617,
        0.004927358590066433,
        -0.29776495695114136,
        0.24370740354061127,
        0.07846119999885559,
        0.1523737907409668,
        0.15009282529354095,
        0.06507499516010284,
        0.15914753079414368,
        -0.14566126465797424,
        0.16227315366268158,
        0.08845836669206619,
        0.03090301714837551,
        0.06285511702299118,
        0.11778025329113007,
        -0.029710251837968826,
        0.10096480697393417,
        -0.03665393218398094,
        -0.3216622769832611,
        -0.4250517189502716,
        -0.16328497231006622,
        -0.11390752345323563,
        0.5189256072044373,
        0.046288423240184784,
        0.15420158207416534,
        0.47766223549842834,
        -0.14876538515090942,
        0.004207594320178032,
        0.049460142850875854,
        0.1340557336807251,
        0.18332317471504211,
        0.31045863032341003,
        0.31775984168052673,
        -0.29023247957229614,
        -0.6960065364837646,
        -0.05329728499054909,
        0.10943663865327835,
        -0.40471702814102173,
        -0.03219297155737877,
        0.14757029712200165,
        -0.20180803537368774,
        0.20124858617782593,
        0.1564956158399582,
        -0.11233120411634445,
        0.31853029131889343,
        -0.8550281524658203,
        0.43506455421447754,
        0.14682051539421082,
        -0.856997013092041,
        -0.006535096559673548,
        -0.2910967767238617,
        -0.04692386835813522,
        -0.2417822629213333,
        -0.38067540526390076,
        0.45125871896743774,
        0.37352538108825684,
        0.04118895158171654,
        -0.6752179861068726,
        -0.16916094720363617,
        0.15244245529174805,
        0.10410532355308533,
        0.07691410183906555,
        -0.051568396389484406,
        0.1366489976644516,
        -0.2948487401008606,
        -0.34610867500305176,
        -0.3574088513851166,
        -0.16666731238365173,
        0.1712108701467514,
        0.12785643339157104,
        0.3107914626598358,
        -0.005007248837500811,
        -0.08312316983938217,
        0.08157908171415329,
        -0.029093321412801743,
        0.06562954187393188,
        0.4232522249221802,
        -0.04213973879814148,
        0.3663047254085541,
        0.014719692058861256,
        -0.15511710941791534,
        0.13383513689041138,
        -0.2521195411682129,
        -0.059110064059495926,
        0.12174851447343826,
        0.1832464635372162,
        -0.014404638670384884,
        0.12669768929481506,
        0.06518461555242538,
        0.2830331027507782,
        0.08057127892971039,
        0.044410403817892075,
        0.17457112669944763,
        -0.011307713575661182,
        0.16610226035118103,
        0.4992152750492096,
        -0.05564995855093002,
        0.21091650426387787,
        0.15949752926826477,
        -0.20441442728042603,
        0.07895858585834503,
        0.4777970314025879,
        0.24402137100696564,
        -0.025509489700198174,
        0.40153631567955017,
        -0.04198027029633522,
        -0.2545424699783325,
        -0.3660309612751007,
        0.11318336427211761,
        0.1586921066045761,
        -0.46778762340545654,
        0.1627582460641861,
        0.2144070416688919,
        0.2536971867084503,
        0.17989344894886017,
        0.12700310349464417,
        -0.3686525523662567,
        0.06527706980705261,
        -0.1259646713733673,
        -0.15256845951080322,
        -0.5190206170082092,
        -0.38022279739379883,
        0.3472362458705902,
        0.22387288510799408,
        -0.05663426220417023,
        -0.9909444451332092,
        0.26461321115493774,
        -0.1695486307144165,
        -0.5119844079017639,
        0.7064844369888306,
        0.20443521440029144,
        -0.19732092320919037,
        -0.35024455189704895,
        0.2961423099040985,
        -0.3099444806575775,
        -0.6853792071342468,
        0.14428965747356415,
        -0.4195854663848877,
        -0.0628512054681778,
        -0.36836645007133484,
        -0.4911600649356842,
        -0.3589986562728882,
        0.010951447300612926,
        -0.28469961881637573,
        0.5235504508018494,
        0.05185888335108757,
        -0.138534277677536,
        0.10357937216758728,
        -0.1013185903429985,
        0.10189574211835861,
        0.5810872316360474,
        -0.18889933824539185,
        0.17503874003887177,
        0.10687868297100067,
        -0.03586505353450775,
        -0.16693083941936493,
        0.36762735247612,
        0.2962924540042877,
        -0.043103381991386414,
        -0.16476543247699738,
        -0.2655217945575714,
        -0.20353592932224274,
        0.10729216784238815,
        0.08856513351202011,
        0.07726144790649414,
        -3.609451596275903e-05,
        0.2498827576637268,
        0.21007771790027618,
        0.4462352693080902,
        0.4685288369655609,
        0.1642683446407318,
        0.20945465564727783,
        -0.24529506266117096,
        0.073500856757164,
        0.2056627869606018,
        -0.026426583528518677,
        -0.19732479751110077,
        -0.1729915291070938,
        0.1966460645198822,
        0.31444087624549866,
        0.41648441553115845,
        -0.1957046091556549,
        -0.08870339393615723,
        0.12131358683109283,
        0.12433363497257233,
        -0.04220560938119888,
        -0.2616649568080902,
        0.07300667464733124,
        -0.27930501103401184,
        -0.3639267385005951,
        -0.01432003639638424,
        0.3022928535938263,
        0.08396477997303009,
        -0.06163451820611954,
        0.07662495970726013,
        0.5576642751693726,
        -0.07950486987829208,
        0.26528945565223694,
        0.4398871958255768,
        0.2182905226945877,
        0.0738769918680191,
        -0.24705249071121216,
        0.4550747275352478,
        0.25502297282218933,
        -0.5779637694358826,
        -0.5537964105606079,
        -0.03853313624858856,
        0.40808525681495667,
        -0.14684385061264038,
        0.21569524705410004,
        0.05398746207356453,
        -0.26178979873657227,
        0.19899995625019073,
        -0.28785252571105957,
        -0.06509687751531601,
        -0.09010125696659088,
        -0.061413101851940155,
        -0.43319472670555115,
        -0.40685877203941345,
        0.37248706817626953,
        -0.06465434283018112,
        -0.21447333693504333,
        0.05558556318283081,
        -0.10712893307209015,
        0.10638533532619476,
        0.059774719178676605,
        0.47264420986175537,
        -0.20546431839466095,
        -0.11046300828456879,
        0.19266968965530396,
        0.27554255723953247,
        -0.1247800663113594,
        0.30203837156295776,
        0.12134939432144165,
        0.2492959350347519,
        0.005208683665841818,
        -0.1479925960302353,
        -0.057593461126089096,
        0.13366791605949402,
        -0.0713329091668129,
        0.239895761013031,
        -0.2418823093175888,
        0.2061484009027481,
        0.14899422228336334,
        0.46323394775390625,
        0.30950742959976196,
        0.14793293178081512,
        -0.2208048403263092,
        -0.287381112575531,
        0.046070441603660583,
        -0.04175252094864845,
        0.0028183134272694588,
        -0.07498414069414139,
        -0.05675496533513069,
        0.14015717804431915,
        -0.17060314118862152,
        -0.0923079252243042,
        0.23308271169662476,
        -0.2964758574962616,
        0.14651460945606232,
        -0.08958189189434052,
        0.01888364553451538,
        -0.15764936804771423,
        0.11529324948787689,
        -0.21905386447906494,
        -0.008026481606066227,
        0.19351078569889069,
        0.14083412289619446,
        -0.34644627571105957,
        -0.11177220195531845,
        0.10231521725654602,
        -0.0174475759267807,
        -0.136311337351799,
        -0.4088909327983856,
        -0.3063758909702301,
        -0.48164212703704834,
        -0.1347973793745041,
        -0.2364557832479477,
        -0.3688415586948395,
        -0.014865021221339703,
        -0.016451630741357803,
        -0.17264676094055176,
        0.022922763600945473,
        0.06119481846690178,
        0.3790150582790375,
        -0.007493565324693918,
        0.24516800045967102,
        0.5648905634880066,
        -0.04795735701918602,
        -0.39297130703926086,
        -0.15025506913661957,
        0.017122449353337288,
        0.07948962599039078,
        -0.23048965632915497,
        -0.35149189829826355,
        0.45139163732528687,
        -0.16960051655769348,
        -0.17919036746025085,
        -0.09309037029743195,
        0.15229365229606628,
        -0.16728898882865906,
        0.2707999348640442,
        -0.058517277240753174,
        -0.2382393330335617,
        -0.0566483810544014,
        0.024802599102258682,
        0.13818034529685974,
        0.08810361474752426,
        0.2463553100824356,
        -0.3139912486076355,
        0.07980241626501083,
        0.08440060168504715,
        -0.05589601397514343,
        -0.33378639817237854,
        0.49142372608184814,
        -0.08689652383327484,
        0.09085293114185333,
        0.003905096324160695,
        0.09393050521612167,
        0.21514493227005005,
        0.2327292412519455,
        -0.0524345226585865,
        0.2877688705921173,
        0.10656623542308807,
        -0.06387624144554138,
        -0.3268638551235199,
        0.08197402954101562,
        -0.2750641703605652,
        0.1591939926147461,
        0.28375717997550964,
        0.07798688858747482,
        0.18534579873085022,
        0.17384859919548035,
        0.18563233315944672,
        -0.2762499451637268,
        -0.24133120477199554,
        -0.03719247132539749,
        0.20750725269317627,
        -0.16987915337085724,
        0.15593202412128448,
        -0.15053744614124298,
        -0.017822138965129852,
        -0.09239573776721954,
        -0.29437047243118286,
        -0.1876726746559143,
        -0.38203179836273193,
        0.0050988276489079,
        -0.2483471781015396,
        -0.17079120874404907,
        0.09334690123796463,
        -0.6808737516403198,
        0.5872341394424438,
        0.4379339814186096,
        -0.7354303598403931,
        0.2307291328907013,
        0.3603651821613312,
        0.1922793686389923,
        -0.31079190969467163,
        -0.4386961758136749,
        0.40095430612564087,
        -0.2896386384963989,
        -0.3620304763317108,
        0.12368891388177872,
        -0.21370217204093933,
        -0.06944683939218521,
        -0.6030405163764954,
        0.0681099072098732,
        -0.04544024541974068,
        0.4796450436115265,
        -0.030493885278701782,
        0.3895625174045563,
        0.05761653929948807,
        -0.21392349898815155,
        -0.023888802155852318,
        -0.012154621072113514,
        -0.018943671137094498,
        0.11221689730882645,
        -0.016935160383582115,
        0.3803640305995941,
        0.04047494754195213,
        0.17249710857868195,
        0.3167273700237274,
        0.003365626558661461,
        0.0021291521843522787,
        0.08156999945640564,
        0.2422787845134735,
        -0.21709264814853668,
        0.23875567317008972,
        -0.034143175929784775,
        -0.37594759464263916,
        0.1283564269542694,
        0.026411261409521103,
        0.13255120813846588,
        -0.29012414813041687,
        0.16416743397712708,
        0.2012094259262085,
        0.22035548090934753,
        0.011735625565052032,
        0.20683912932872772,
        0.017905762419104576,
        -0.04640199989080429,
        -0.11994513869285583,
        0.2633518576622009,
        0.016986120492219925,
        -0.032778654247522354,
        0.10819270461797714,
        0.033179450780153275,
        -0.27498000860214233,
        0.1625634729862213,
        0.19427412748336792,
        0.08200766891241074,
        -0.060575079172849655,
        0.13997353613376617,
        0.08678444474935532,
        -0.30514708161354065,
        -0.0383983813226223,
        0.30733099579811096,
        -0.2991272509098053,
        0.027996527031064034,
        -0.1728871762752533,
        -0.06498955935239792,
        0.05167349800467491,
        -0.007091743405908346,
        0.27732014656066895,
        0.01900400221347809,
        -0.4161367416381836,
        0.2670556604862213,
        0.4952164590358734,
        -0.007831206545233727,
        0.692386269569397,
        -0.42942675948143005,
        0.5677050352096558,
        0.5641685128211975,
        0.12745772302150726,
        -0.01719362661242485,
        0.053070567548274994,
        -0.11072119325399399,
        -0.35331523418426514,
        -0.025880077853798866,
        0.03414412960410118,
        0.3123769164085388,
        0.46117278933525085,
        0.2937093675136566,
        -0.050596900284290314,
        -0.33281928300857544,
        -0.3459208309650421,
        0.18476177752017975,
        -0.438089519739151,
        -0.4528355002403259,
        -0.19586823880672455,
        -0.22007757425308228,
        -0.04267427325248718,
        -0.07546862959861755,
        -0.09835918992757797,
        0.4756692349910736,
        -0.11283855140209198,
        0.16573576629161835,
        0.005228765774518251,
        0.04721741005778313,
        0.07026857137680054,
        -0.16081547737121582,
        0.014459454454481602,
        0.1823330670595169,
        0.07683096081018448,
        -0.012994657270610332,
        0.07416118681430817,
        0.16311956942081451,
        -0.24128974974155426,
        -0.32244905829429626,
        -0.32151511311531067,
        -0.17556889355182648,
        -0.07224716991186142,
        0.1644783318042755,
        -0.09673816710710526,
        -0.3402380049228668,
        0.1663607954978943,
        -0.1647138148546219,
        -0.03996219113469124,
        0.2073436975479126,
        -0.06503666192293167,
        -0.08917094022035599,
        0.13403154909610748,
        0.02404230274260044,
        -0.022128794342279434,
        0.11995658278465271,
        0.3443657457828522,
        0.11865901947021484,
        -0.5520421266555786,
        0.0354808010160923,
        0.09228050708770752,
        -0.08586833626031876,
        0.04923103377223015,
        0.12111718207597733,
        0.1730908751487732,
        -0.07148343324661255,
        -0.05394463986158371,
        -0.43215563893318176,
        -0.0669914186000824,
        0.048092737793922424,
        0.1528833508491516,
        0.2587829828262329,
        0.23947812616825104,
        -0.029715659096837044,
        -0.2131337970495224,
        0.02223365753889084,
        -0.2456449270248413,
        0.010389962233603,
        -0.42455849051475525,
        0.5891910791397095,
        0.22975881397724152,
        0.20829203724861145,
        -0.08283192664384842,
        0.36125028133392334,
        -0.33227282762527466,
        0.28867730498313904,
        -0.06642521172761917,
        0.32907935976982117,
        -0.18137748539447784,
        -0.33534011244773865,
        -0.3782002925872803,
        0.5337722897529602,
        -0.20955461263656616,
        -0.07051236927509308,
        0.3117032051086426,
        0.12899871170520782,
        -0.25920599699020386,
        -0.24321413040161133,
        0.18690279126167297,
        0.17428115010261536,
        0.038625407963991165,
        0.46721503138542175,
        0.1945892870426178,
        -0.11448298394680023,
        -0.015234758146107197,
        -0.3917209208011627,
        -0.11464331299066544,
        0.13650085031986237,
        -0.12226402014493942,
        0.04331169277429581,
        0.25582605600357056,
        -0.1466170996427536,
        -0.030446244403719902,
        0.22999852895736694,
        -0.08634007722139359,
        -0.013725916855037212,
        -0.109271340072155,
        -0.008415251038968563,
        -0.06395658105611801,
        0.08972694724798203,
        -0.2839606702327728,
        -0.10583391040563583,
        0.1887264847755432,
        -0.048158399760723114,
        -0.06338991969823837,
        0.36749550700187683,
        -0.12459436804056168,
        0.024147266522049904,
        0.2568318843841553,
        -0.2866500914096832,
        -0.09229113161563873,
        0.21936999261379242,
        0.17003527283668518,
        -0.042488351464271545,
        -0.4277575612068176,
        0.07722487300634384,
        0.011217174120247364,
        -0.07149048149585724,
        0.3485393822193146,
        0.19264928996562958,
        0.047821562737226486,
        0.46560990810394287,
        0.1623721420764923,
        -0.4057387113571167,
        0.05475057661533356,
        -0.1939174085855484,
        -0.27429333329200745,
        0.1002165749669075,
        0.31416553258895874,
        -0.39483118057250977,
        -0.7398248910903931,
        0.09383363276720047,
        0.06379509717226028,
        -0.5335326790809631,
        -0.12636025249958038,
        0.3228282034397125,
        -0.5603242516517639,
        -0.3058922588825226,
        -0.2443191409111023,
        0.39542555809020996,
        -0.023214558139443398,
        -0.2233365923166275,
        -0.12252413481473923,
        1.2190706729888916,
        -0.005493947770446539,
        0.19036607444286346,
        -0.1658838391304016,
        0.16895149648189545,
        0.17813646793365479,
        -0.1607450544834137,
        0.30406439304351807,
        -0.47070032358169556,
        -0.13884665071964264,
        0.002928755944594741,
        -0.017935173586010933,
        -0.2755548357963562,
        -0.27990999817848206,
        0.3051660358905792,
        -0.07806620001792908,
        -0.13361676037311554,
        0.11729588359594345,
        -0.14388884603977203,
        -0.049631450325250626,
        -0.06963560730218887,
        -0.17976106703281403,
        0.029566064476966858,
        0.0950782299041748,
        -0.06690502166748047,
        0.08062493056058884,
        0.34656429290771484,
        -0.22143393754959106,
        0.08452747017145157,
        0.24702085554599762,
        -0.30444762110710144,
        0.0005116109387017787,
        0.17789320647716522,
        0.136141836643219,
        -0.014712611213326454,
        0.1883774846792221,
        0.15932504832744598,
        -0.03367334604263306,
        0.08554505556821823,
        0.48859110474586487,
        0.09299039840698242,
        0.32127830386161804,
        0.06496253609657288,
        0.1069415807723999,
        0.2812173366546631,
        -0.2812272906303406,
        0.04662977531552315,
        0.13869726657867432,
        -0.20944905281066895,
        0.01333138532936573,
        -0.2668876051902771,
        -0.2347797453403473,
        -0.12759453058242798,
        0.2418922483921051,
        -0.06148647144436836,
        0.23764801025390625,
        0.14138777554035187,
        -0.2729259431362152,
        0.2236415594816208,
        -0.21875545382499695,
        -0.09162361919879913,
        0.5291061997413635,
        -0.45879536867141724,
        1.0657631158828735,
        -0.5380474328994751,
        0.1913684755563736,
        -0.19086529314517975,
        -0.5119746327400208,
        0.49049362540245056,
        -0.004583245608955622,
        -0.0600680448114872,
        -0.37433725595474243,
        -0.4780673086643219,
        -1.0006673336029053,
        -0.0322810523211956,
        -0.22841912508010864,
        -1.2241692543029785,
        0.3151428997516632,
        0.18649885058403015,
        0.2338428497314453,
        0.3071442246437073,
        -0.24324481189250946,
        0.2949131429195404,
        0.12925638258457184,
        0.15402589738368988,
        -0.044627197086811066,
        -0.23596997559070587,
        0.1454852819442749,
        -0.03300115838646889,
        -0.2350507229566574,
        0.11677026003599167,
        -0.1431618481874466,
        -0.10376181453466415,
        0.10143432766199112,
        -0.1143362894654274,
        0.23379714787006378,
        0.21545805037021637,
        0.09346172213554382,
        -0.28197354078292847,
        0.07467761635780334,
        -0.41245776414871216,
        -0.09683255106210709,
        0.07854246348142624,
        -0.33527302742004395,
        -0.42595306038856506,
        -0.03130856528878212,
        0.3187794089317322,
        0.17448690533638,
        0.2509385645389557,
        0.07903923094272614,
        -0.10962557792663574,
        0.19368836283683777,
        -0.054606400430202484,
        -0.2774999439716339,
        0.16801297664642334,
        -0.1495680809020996,
        -0.2043251097202301,
        0.16357126832008362,
        -0.02043505758047104,
        -0.04172194004058838,
        0.24700385332107544,
        0.20680402219295502,
        0.30687588453292847,
        -0.2056606560945511,
        -0.1204163059592247,
        0.00634009251371026,
        -0.12602664530277252,
        -0.013663200661540031,
        -0.09001834690570831,
        0.1564825028181076,
        0.1582544445991516,
        0.324502170085907,
        -0.12581944465637207,
        0.011455089785158634,
        -0.2265666127204895,
        0.17060540616512299,
        -0.22913029789924622,
        0.4353232979774475,
        -0.13982722163200378,
        -0.507636308670044,
        -0.7478322386741638,
        -0.12091034650802612,
        -0.04836457967758179,
        -0.23046547174453735,
        0.3559243679046631,
        0.2869518995285034,
        -0.44128191471099854,
        -0.050015389919281006,
        0.1681065559387207,
        0.4823986291885376,
        -0.11955636739730835,
        0.3069649934768677,
        -0.028011441230773926,
        -0.1917715072631836,
        0.30598050355911255,
        -0.4455450773239136,
        0.41890019178390503,
        0.4994143843650818,
        -0.1365121603012085,
        0.1975109577178955,
        0.49860215187072754,
        0.47174909710884094,
        0.5425053238868713,
        0.5759568810462952,
        -0.5567987561225891,
        0.12016621977090836,
        0.019999999552965164
    ]
}