{
    "version": "0.5.0",
    "architecture": "WaveNet",
    "config": {
        "layers": [
            {
                "input_size": 1,
                "condition_size": 1,
                "head_size": 4,
                "channels": 8,
                "kernel_size": 3,
                "dilations": [
                    1,
                    2,
                    4,
                    8,
                    16,
                    32,
                    64
                ],
                "activation": "Tanh",
                "gated": false,
                "head_bias": false
            },
            {
                "input_size": 8,
                "condition_size": 1,
                "head_size": 1,
                "channels": 4,
                "kernel_size": 3,
                "dilations": [
                    128,
                    256,
                    512,
                    1,
                    2,
                    4,
                    8,
                    16,
                    32,
                    64,
                    128,
                    256,
                    512
                ],
                "activation": "Tanh",
                "gated": false,
                "head_bias": true
            }
        ],
        "head": null,
        "head_scale": 0.02
    },
    "weights": [
        0.14409740269184113,
        0.6038642525672913,
        -0.9666264653205872,
        -0.6288572549819946,
        -0.4993111193180084,
        0.14098268747329712,
        -0.21782542765140533,
        0.8360019326210022,
        -0.08051452785730362,
        -0.0872812494635582,
        0.08241569250822067,
        -0.1551472693681717,
        -0.3654542565345764,
        -0.08020483702421188,
        0.03387816995382309,
        0.18277551233768463,
        0.02750770002603531,
        0.24335184693336487,
        0.04122554510831833,
        -0.14305084943771362,
        0.18803274631500244,
        0.3424474596977234,
        -0.10320337116718292,
        0.057964831590652466,
        -0.15682266652584076,
        0.06829506903886795,
        0.18954214453697205,
        -0.1654505431652069,
        -0.2574821710586548,
        -0.16911865770816803,
        -0.25303786993026733,
        0.22876544296741486,
        -0.11205500364303589,
        0.045173127204179764,
        -0.3051958978176117,
        -0.22012165188789368,
        -0.05153258889913559,
        -0.014315633103251457,
        0.11592774093151093,
        0.023496553301811218,
        0.1992841213941574,
        -0.08423521369695663,
        -0.04672135412693024,
        0.0013532808516174555,
        -0.1213545873761177,
        -0.1809021532535553,
        0.32007646560668945,
        0.08643503487110138,
        -0.021373780444264412,
        -0.18704438209533691,
        0.018446024507284164,
        -0.21870650351047516,
        0.020730730146169662,
        0.0014165560714900494,
        0.20907536149024963,
        -0.30834120512008667,
        -0.10861697047948837,
        -0.40368518233299255,
        0.09385711699724197,
        -0.21978594362735748,
        -0.09981583803892136,
        0.2732222378253937,
        -0.004249050747603178,
        0.25890904664993286,
        -0.07821863144636154,
        0.09247329086065292,
        0.2081678807735443,
        -0.1448870152235031,
        0.24067722260951996,
        0.39249885082244873,
        -0.35829561948776245,
        -0.15535449981689453,
        -0.05564809963107109,
        0.33098772168159485,
        0.14562606811523438,
        0.3128051459789276,
        -0.13165411353111267,
        -0.29262787103652954,
        -0.17527779936790466,
        0.061629194766283035,
        -0.14815187454223633,
        0.11301309615373611,
        0.3300994038581848,
        -0.23949411511421204,
        -0.07937277853488922,
        0.03166612237691879,
        0.004201211966574192,
        0.028265617787837982,
        0.013166959397494793,
        -0.08232223987579346,
        0.19936782121658325,
        0.03524807095527649,
        0.1783403754234314,
        0.19481980800628662,
        -0.2757241129875183,
        -0.16532152891159058,
        0.011756788939237595,
        0.08959760516881943,
        -0.19204548001289368,
        -0.07310830056667328,
        0.08229915797710419,
        0.09952830523252487,
        -0.2094409018754959,
        0.0125448452308774,
        -0.44305357336997986,
        0.15961624681949615,
        -0.15809282660484314,
        -0.4216761887073517,
        0.09483246505260468,
        0.03138613700866699,
        0.18805599212646484,
        0.01145350281149149,
        -0.12460566312074661,
        0.46044954657554626,
        0.021238340064883232,
        -0.17407147586345673,
        0.21906796097755432,
        -0.10624447464942932,
        0.027562078088521957,
        -0.19402100145816803,
        0.20904606580734253,
        0.017978159710764885,
        0.031395185738801956,
        -0.5110554695129395,
        -0.4794926643371582,
        -0.3898235261440277,
        0.05575823038816452,
        -0.09963691234588623,
        -0.14983615279197693,
        -0.312924861907959,
        0.22020335495471954,
        -0.013718517497181892,
        -0.23399583995342255,
        0.23833081126213074,
        0.20681072771549225,
        0.08681689202785492,
        -0.24602749943733215,
        0.0466599278151989,
        0.15738369524478912,
        -0.12493293732404709,
        0.24955779314041138,
        0.2345360368490219,
        -0.06394641101360321,
        -0.0630866140127182,
        -0.25942620635032654,
        0.14239078760147095,
        0.1508893221616745,
        0.12143884599208832,
        -0.36656877398490906,
        -0.21549221873283386,
        -0.29548412561416626,
        0.07748769968748093,
        -0.04785747453570366,
        0.28290796279907227,
        -0.0682252049446106,
        -0.1587795615196228,
        0.3073662519454956,
        -0.25407326221466064,
        -0.08296497166156769,
        -0.26709380745887756,
        0.05446123331785202,
        -0.08278203755617142,
        -0.36974596977233887,
        -0.08046465367078781,
        -0.06686028838157654,
        -0.17984727025032043,
        0.009852703660726547,
        0.10210342705249786,
        -0.05049649998545647,
        -0.09300406277179718,
        0.2699754536151886,
        -0.10122281312942505,
        0.3867262899875641,
        0.11385457217693329,
        -0.0017738861497491598,
        0.036730825901031494,
        -0.06925535947084427,
        -0.1798659712076187,
        0.2902561128139496,
        -0.2686045169830322,
        -0.09765338897705078,
        0.0055345273576676846,
        0.25118300318717957,
        0.18079204857349396,
        0.04964587837457657,
        0.17910036444664001,
        0.08094096183776855,
        -0.09186909347772598,
        -0.06626538187265396,
        0.2330438643693924,
        0.10807947814464569,
        0.04589290916919708,
        -0.23557043075561523,
        0.04925907775759697,
        -0.08468778431415558,
        0.046575453132390976,
        -0.18301428854465485,
        -0.03480083495378494,
        -0.2432824969291687,
        0.043165549635887146,
        -0.011575442738831043,
        0.1579308658838272,
        -0.12517274916172028,
        -0.18750634789466858,
        -0.06467567384243011,
        0.10997801274061203,
        -0.11541776359081268,
        0.04604008048772812,
        0.40701571106910706,
        -0.06014290452003479,
        0.1727585643529892,
        -0.14004601538181305,
        0.12444805353879929,
        0.018533330410718918,
        -0.09246490150690079,
        0.17017149925231934,
        -0.38953572511672974,
        -0.21870531141757965,
        0.18801099061965942,
        -0.4104590117931366,
        -0.09687118977308273,
        0.2236640602350235,
        0.2567751407623291,
        -0.06342626363039017,
        -0.6083067059516907,
        0.17308393120765686,
        -0.44221317768096924,
        -0.22677282989025116,
        -0.3058106601238251,
        -0.16301076114177704,
        0.09099045395851135,
        0.1951768845319748,
        0.2525741755962372,
        0.42939528822898865,
        0.2547376751899719,
        -0.1208246573805809,
        0.2912144362926483,
        -0.1383848339319229,
        -0.2694419324398041,
        0.19703342020511627,
        -0.17563912272453308,
        0.19827263057231903,
        -0.3234032392501831,
        -0.07533056288957596,
        0.03126533329486847,
        -0.4848422706127167,
        0.42309117317199707,
        -0.3949032127857208,
        0.15964818000793457,
        -0.058869652450084686,
        -0.1218489408493042,
        0.18319691717624664,
        0.18044023215770721,
        -0.01915671117603779,
        -0.3516654670238495,
        -0.05084073171019554,
        -0.27538028359413147,
        0.07559539377689362,
        -0.020232275128364563,
        -0.051075585186481476,
        -0.18584197759628296,
        0.3021757900714874,
        0.04146261513233185,
        0.3483865261077881,
        0.31650084257125854,
        0.20857831835746765,
        -0.057529378682374954,
        0.1484985649585724,
        0.7225050330162048,
        0.22924035787582397,
        -0.279680073261261,
        -0.05823791027069092,
        -0.4395240545272827,
        0.07502172887325287,
        -0.2083197832107544,
        -0.3631218671798706,
        0.3963378369808197,
        -0.2736121714115143,
        0.04449842497706413,
        0.06995653361082077,
        0.04120030254125595,
        -0.16650143265724182,
        -0.26708105206489563,
        0.27454885840415955,
        0.05118522793054581,
        0.17109383642673492,
        -0.09644073247909546,
        0.0929061621427536,
        0.09210754185914993,
        0.07328494638204575,
        -0.2172565758228302,
        0.24088835716247559,
        0.17072725296020508,
        4.463630466489121e-05,
        -0.11561401933431625,
        -0.1552748680114746,
        0.20050640404224396,
        -0.14790432155132294,
        0.04974156990647316,
        -0.11390045285224915,
        -0.27221712470054626,
        -0.0668698400259018,
        -0.005711063276976347,
        0.044949229806661606,
        0.02322256937623024,
        -0.15166382491588593,
        -0.057998351752758026,
        0.09252136945724487,
        0.11480648070573807,
        0.06622594594955444,
        -0.06196187809109688,
        -0.08776964992284775,
        0.18145541846752167,
        -0.20268966257572174,
        0.01909976825118065,
        0.2075694352388382,
        -0.22811780869960785,
        -0.08940744400024414,
        -0.09456408768892288,
        0.035623032599687576,
        -0.014163819141685963,
        0.10923818498849869,
        -0.20186752080917358,
        0.02375030517578125,
        -0.03449780493974686,
        0.2538194954395294,
        0.12705384194850922,
        0.10945547372102737,
        0.18484258651733398,
        -0.030141426250338554,
        -0.3546970784664154,
        -0.17102332413196564,
        0.20782414078712463,
        0.19909590482711792,
        -0.2860417664051056,
        0.06798132508993149,
        0.06648584455251694,
        0.330368310213089,
        0.10653174668550491,
        0.073317751288414,
        -0.03894694894552231,
        -0.1330350935459137,
        0.24965031445026398,
        -0.0696890726685524,
        -0.12316585332155228,
        0.4279022812843323,
        0.1087607592344284,
        0.2034190148115158,
        -0.026030518114566803,
        -0.091171994805336,
        -0.025854667648673058,
        0.24516940116882324,
        0.014107738621532917,
        0.18300046026706696,
        0.10754473507404327,
        0.022147906944155693,
        -0.17918966710567474,
        0.10829275101423264,
        0.12922601401805878,
        -0.022447917610406876,
        -0.4800023138523102,
        -0.25908902287483215,
        0.12831154465675354,
        -0.05518558993935585,
        -0.06170002743601799,
        0.29822438955307007,
        0.48093050718307495,
        -0.09410441666841507,
        -0.28907081484794617,
        0.13919134438037872,
        -0.2543499171733856,
        0.2042549103498459,
        0.2776835858821869,
        0.05100090801715851,
        -0.37790369987487793,
        -0.1325192004442215,
        0.152757927775383,
        0.1410943567752838,
        0.4219679534435272,
        0.28939011693000793,
        0.031031345948576927,
        -0.21342742443084717,
        0.006724574137479067,
        0.38502636551856995,
        5.0289077080378775e-06,
        0.11499512195587158,
        0.2158644199371338,
        0.09186458587646484,
        -0.153560072183609,
        0.07044892758131027,
        0.030917443335056305,
        0.0005094849620945752,
        -0.19720087945461273,
        0.04907938092947006,
        -0.0032790997065603733,
        0.19546832144260406,
        0.2231440544128418,
        0.12585458159446716,
        -0.12440700083971024,
        0.23021848499774933,
        0.21726606786251068,
        0.08305862545967102,
        -0.08955936878919601,
        0.20914095640182495,
        0.07053839415311813,
        -0.12339925020933151,
        0.10579217225313187,
        0.2744293212890625,
        0.1321505904197693,
        0.019564209505915642,
        -0.20056666433811188,
        0.13678883016109467,
        0.21247315406799316,
        -0.018319763243198395,
        -0.35416045784950256,
        -0.002752303844317794,
        -0.005732372403144836,
        0.03267109394073486,
        0.13079369068145752,
        0.21072420477867126,
        -0.22776728868484497,
        -0.14306560158729553,
        0.016997860744595528,
        0.10772548615932465,
        0.11600525677204132,
        -0.19126567244529724,
        -0.2921357750892639,
        -0.17583264410495758,
        0.042570021003484726,
        0.30572113394737244,
        -0.1967107057571411,
        0.15398992598056793,
        0.08295891433954239,
        -0.0951630100607872,
        -0.16378340125083923,
        -0.056841909885406494,
        0.11377888172864914,
        -0.1162649393081665,
        0.20851090550422668,
        -0.07878216356039047,
        -0.17515815794467926,
        -0.0998644083738327,
        0.17438660562038422,
        0.07586994022130966,
        -0.13251352310180664,
        0.2276788204908371,
        -0.10171724855899811,
        0.021232033148407936,
        -0.018703710287809372,
        -0.21411563456058502,
        0.24042586982250214,
        0.13582684099674225,
        0.2666090130805969,
        0.10930819064378738,
        -0.1180366650223732,
        0.27615824341773987,
        -0.24100807309150696,
        0.05255942791700363,
        -0.013402534648776054,
        -0.11768905073404312,
        -0.11685757339000702,
        0.09813348203897476,
        0.2384619265794754,
        -0.11236675828695297,
        0.029073283076286316,
        0.13819646835327148,
        0.06334672123193741,
        -0.08212362229824066,
        0.061162423342466354,
        -0.09552819281816483,
        -0.12204714864492416,
        0.16467122733592987,
        0.07869838923215866,
        -0.06538442522287369,
        0.24648825824260712,
        -0.15120641887187958,
        -0.1790323555469513,
        0.05268893390893936,
        -0.005228026770055294,
        0.319508820772171,
        -0.1673474907875061,
        -0.020127180963754654,
        -0.07120680063962936,
        0.117606982588768,
        0.05765338987112045,
        0.16797584295272827,
        0.08123624324798584,
        0.06704773008823395,
        -0.04306980222463608,
        -0.25697237253189087,
        -0.3512887954711914,
        0.3504888713359833,
        0.6250181794166565,
        -0.6092790961265564,
        0.9205496907234192,
        0.06802728772163391,
        -0.4785970449447632,
        -0.06479483097791672,
        0.23976558446884155,
        0.5172696709632874,
        -0.05844351649284363,
        0.1532217562198639,
        0.26323723793029785,
        0.26634228229522705,
        0.2926582992076874,
        -0.1374153196811676,
        0.30615466833114624,
        0.1779836267232895,
        -0.05391266569495201,
        0.13246077299118042,
        -0.15654607117176056,
        0.15298539400100708,
        -0.027348065748810768,
        -0.34220337867736816,
        0.05565294995903969,
        0.03455987200140953,
        -0.2508818805217743,
        0.07893359661102295,
        0.23087941110134125,
        0.06991798430681229,
        0.1577044129371643,
        -0.20052556693553925,
        0.36652517318725586,
        -0.1645902693271637,
        -0.31559595465660095,
        -0.1372530609369278,
        0.18959680199623108,
        -0.15834005177021027,
        -0.04172332584857941,
        -0.2814059853553772,
        0.22573013603687286,
        0.6601962447166443,
        -0.43922168016433716,
        -0.39135605096817017,
        -0.4155499339103699,
        0.03553701937198639,
        -0.0395638644695282,
        -0.19341789186000824,
        -0.0937119871377945,
        -0.03974654898047447,
        -0.2571762800216675,
        0.05467880144715309,
        -0.04399547353386879,
        -0.1592855304479599,
        0.20466037094593048,
        0.5630200505256653,
        -0.08089514076709747,
        -0.46646425127983093,
        -0.24831092357635498,
        0.476724773645401,
        -0.43823492527008057,
        -0.35765671730041504,
        0.2614966630935669,
        0.04432762414216995,
        -0.06710949540138245,
        0.05976162850856781,
        -0.12790018320083618,
        -0.16658523678779602,
        0.0691147968173027,
        -0.10075577348470688,
        -0.33185073733329773,
        -0.15239498019218445,
        -0.11429374665021896,
        0.16482973098754883,
        -0.21806615591049194,
        0.25339052081108093,
        -0.05628019943833351,
        -0.06905615329742432,
        0.1377377063035965,
        -0.4576568603515625,
        0.3164333999156952,
        0.1025576964020729,
        -0.2628769874572754,
        -0.10529775172472,
        -0.08813513815402985,
        0.3485117554664612,
        -0.1881181299686432,
        -0.31995078921318054,
        0.08773639053106308,
        0.1305866241455078,
        -0.12130338698625565,
        -0.1927965134382248,
        -0.3332500755786896,
        0.0680229440331459,
        0.11234568059444427,
        -0.14098793268203735,
        -0.001720429863780737,
        0.6401816606521606,
        0.1016184538602829,
        0.10915084183216095,
        -0.2904861569404602,
        -0.03530621901154518,
        -0.10815099626779556,
        0.13494351506233215,
        0.0827542394399643,
        0.010421369224786758,
        -0.19908078014850616,
        0.12187021225690842,
        0.2806544899940491,
        0.29223090410232544,
        -0.21152111887931824,
        -0.0976272001862526,
        -0.01739705540239811,
        0.1521615982055664,
        -0.07107152044773102,
        -0.03916168957948685,
        0.08566045016050339,
        -0.12380359321832657,
        -0.09733472019433975,
        -0.058074988424777985,
        -0.027922730892896652,
        -0.12929390370845795,
        0.14371976256370544,
        -0.121321901679039,
        -0.061837971210479736,
        0.18679647147655487,
        0.03737921267747879,
        0.03591997176408768,
        0.01591583713889122,
        0.0694478377699852,
        -0.10227935761213303,
        0.08161597698926926,
        -0.0747034102678299,
        -0.3607664704322815,
        0.03218630701303482,
        0.05906430631875992,
        0.1834491342306137,
        -0.10390136390924454,
        -0.2117781639099121,
        -0.07259944826364517,
        0.19270238280296326,
        0.11984742432832718,
        0.10352503508329391,
        0.12772202491760254,
        0.015897288918495178,
        -0.1476026326417923,
        -0.01858549751341343,
        -0.10499212145805359,
        -0.007891406305134296,
        -0.05464524030685425,
        -0.13916358351707458,
        0.0766492635011673,
        0.18509837985038757,
        -0.05404677242040634,
        -0.17208895087242126,
        0.2638644874095917,
        0.050552163273096085,
        0.29898491501808167,
        -0.20691175758838654,
        -0.14135347306728363,
        0.09717182070016861,
        -0.017614709213376045,
        0.21703970432281494,
        -0.07342332601547241,
        -0.3022693991661072,
        -0.13079899549484253,
        -0.00531695457175374,
        0.11267455667257309,
        0.0361565425992012,
        0.1690020114183426,
        0.02291206084191799,
        -0.21174204349517822,
        -0.06167946383357048,
        -0.08533642441034317,
        0.023595672100782394,
        0.6289553046226501,
        -0.0657862052321434,
        0.01759283058345318,
        0.07126511633396149,
        -0.017800873145461082,
        -0.015843594446778297,
        -0.1354965716600418,
        0.1256157010793686,
        0.13238565623760223,
        0.15368352830410004,
        0.13577942550182343,
        0.14216116070747375,
        0.008884119801223278,
        0.34835150837898254,
        -0.04229532927274704,
        0.14393573999404907,
        -0.0769258588552475,
        -0.013726296834647655,
        -0.3650532066822052,
        0.005771895870566368,
        0.021903811022639275,
        0.029341770336031914,
        -0.3885621428489685,
        -0.05770491063594818,
        0.10985209047794342,
        -0.0763486698269844,
        -0.09924289584159851,
        0.12568233907222748,
        0.09455157816410065,
        -0.029235677793622017,
        -0.2766469717025757,
        0.2429046779870987,
        -0.04472389072179794,
        0.0026978147216141224,
        0.02090650424361229,
        -0.10207458585500717,
        0.07698751240968704,
        -0.07876244187355042,
        0.08363723009824753,
        -0.13516128063201904,
        0.014450596645474434,
        0.08627158403396606,
        0.0650477483868599,
        -0.0689125657081604,
        0.15611419081687927,
        0.08617033064365387,
        -0.2086891084909439,
        -0.05313316360116005,
        0.16505619883537292,
        0.06888143718242645,
        0.03325758874416351,
        0.1999177485704422,
        -0.03980609402060509,
        0.0242838766425848,
        -0.06771747022867203,
        0.2665040194988251,
        0.047492265701293945,
        0.07608592510223389,
        -0.18535028398036957,
        -0.17436790466308594,
        -0.03560727834701538,
        0.3669768273830414,
        -0.1592550426721573,
        0.1136680543422699,
        -0.030688004568219185,
        -0.1728733628988266,
        -0.1517271250486374,
        -0.04041315242648125,
        0.27972400188446045,
        0.22192491590976715,
        0.049820542335510254,
        -0.01907825842499733,
        -0.30648869276046753,
        0.15955573320388794,
        -0.1459161341190338,
        -0.3086613714694977,
        0.15500709414482117,
        0.17660090327262878,
        0.03228504955768585,
        0.02217072807252407,
        0.09250134974718094,
        0.016460783779621124,
        -0.05912896618247032,
        0.0004636199737433344,
        -0.022800683975219727,
        -0.28840968012809753,
        -0.043276596814394,
        0.13963665068149567,
        0.10053537786006927,
        0.04423012211918831,
        0.23973579704761505,
        -0.051699474453926086,
        0.08966834843158722,
        -0.22072307765483856,
        -0.04212578013539314,
        0.02441486157476902,
        0.12748132646083832,
        -0.11592675000429153,
        0.15991191565990448,
        0.1188381239771843,
        -0.12664054334163666,
        -0.004896226339042187,
        0.12601551413536072,
        -0.5169723629951477,
        -0.22204703092575073,
        0.18006639182567596,
        -0.7994137406349182,
        0.28757137060165405,
        0.39817458391189575,
        0.44810742139816284,
        -0.5664830207824707,
        0.0792432501912117,
        -0.3627445101737976,
        0.3531954884529114,
        -0.47244584560394287,
        -0.30004486441612244,
        0.2505977749824524,
        0.025915030390024185,
        0.054064180701971054,
        -0.3560101091861725,
        -0.4048752784729004,
        0.09847507625818253,
        -0.5923802256584167,
        0.2868439853191376,
        0.24279597401618958,
        0.06279868632555008,
        -0.04934927448630333,
        0.6845470666885376,
        0.2071668952703476,
        -0.2523857355117798,
        0.02063991129398346,
        -0.34006938338279724,
        -0.28560635447502136,
        -0.08882377296686172,
        0.01799442246556282,
        -0.02342924103140831,
        -0.3511997163295746,
        0.3831314742565155,
        -0.4426237642765045,
        0.03568209707736969,
        0.41822025179862976,
        0.4171997010707855,
        -0.2928175926208496,
        0.3284461200237274,
        0.16497869789600372,
        -0.25950929522514343,
        0.017262015491724014,
        -0.12607431411743164,
        -0.3402504622936249,
        0.07260904461145401,
        0.1975957155227661,
        -0.09924290329217911,
        0.38731849193573,
        -0.028927870094776154,
        0.10874821245670319,
        0.41264623403549194,
        -0.10115858912467957,
        0.12423239648342133,
        -0.10875964909791946,
        -0.4249287247657776,
        0.03752342611551285,
        -0.018223309889435768,
        -0.17837019264698029,
        0.5701475739479065,
        0.04888346046209335,
        0.1454882025718689,
        -0.10518791526556015,
        0.05126950889825821,
        -0.28681480884552,
        -0.3394366204738617,
        0.12521860003471375,
        -0.13485264778137207,
        -0.17255160212516785,
        -0.09221034497022629,
        0.17604729533195496,
        -0.060024846345186234,
        0.25603482127189636,
        0.0004834519641008228,
        0.14408491551876068,
        0.15079018473625183,
        -0.11057667434215546,
        0.15813031792640686,
        0.19212864339351654,
        0.17698676884174347,
        -0.16397637128829956,
        -0.06301567703485489,
        0.15886721014976501,
        -0.27609798312187195,
        0.08832144737243652,
        0.06753257662057877,
        0.03674891218543053,
        -0.3858512043952942,
        -0.01728087104856968,
        0.1117403507232666,
        -0.18162168562412262,
        -0.12168572843074799,
        0.4487656354904175,
        -0.326055645942688,
        -0.1205538660287857,
        0.19153718650341034,
        -0.0021051240619271994,
        0.03402438759803772,
        -0.007570548448711634,
        0.13177621364593506,
        0.1719954013824463,
        -0.19347833096981049,
        0.027801522985100746,
        -0.04869856312870979,
        0.16490842401981354,
        -0.15369561314582825,
        0.24967272579669952,
        0.3660047948360443,
        -0.0004187045560684055,
        -0.19362995028495789,
        -0.1773272305727005,
        0.29142603278160095,
        -0.027332186698913574,
        0.0314360111951828,
        0.06269142776727676,
        0.05576687678694725,
        -0.005856629461050034,
        0.47334930300712585,
        -0.08229425549507141,
        0.10419376194477081,
        0.19746920466423035,
        -0.013011817820370197,
        0.11147399991750717,
        -0.16382454335689545,
        0.19341760873794556,
        0.03351911902427673,
        -0.00021435059898067266,
        -0.2776416838169098,
        -0.06090214475989342,
        -0.013700329698622227,
        0.041470106691122055,
        0.006152738351374865,
        0.22728298604488373,
        0.05253578722476959,
        0.24464869499206543,
        -0.05194065719842911,
        0.09617104381322861,
        -0.1738121211528778,
        0.009758149273693562,
        -0.07119842618703842,
        0.02262962982058525,
        -0.024099154397845268,
        0.09683147817850113,
        -0.026806402951478958,
        0.08313398063182831,
        0.16891224682331085,
        -0.04264245927333832,
        0.004401509650051594,
        -0.05413448065519333,
        0.1294367015361786,
        0.061275191605091095,
        0.4587526023387909,
        -0.12448583543300629,
        -0.2106749564409256,
        0.3767015337944031,
        0.21462932229042053,
        -0.47544506192207336,
        -0.08905847370624542,
        -0.24785803258419037,
        0.4526771605014801,
        0.3641061782836914,
        0.36974602937698364,
        -0.4071599543094635,
        -0.42722564935684204,
        0.11268733441829681,
        0.4451258182525635,
        -0.012631970457732677,
        0.33148396015167236,
        -0.2860252261161804,
        -0.25163567066192627,
        -0.0810021236538887,
        -0.3008602261543274,
        0.2099137306213379,
        -0.15358513593673706,
        0.10382422059774399,
        -0.1826581358909607,
        0.07425757497549057,
        -0.2503347396850586,
        -0.25692105293273926,
        0.20631521940231323,
        -0.15877851843833923,
        -0.023159515112638474,
        -0.23487254977226257,
        0.059304848313331604,
        -0.2808028757572174,
        0.10693380981683731,
        0.022282181307673454,
        0.11495646089315414,
        -0.2431321144104004,
        0.2566779851913452,
        -0.04838011786341667,
        -0.1841161698102951,
        -0.08110132813453674,
        0.08581933379173279,
        -0.531091034412384,
        -0.27087172865867615,
        -0.20186924934387207,
        0.34350481629371643,
        -0.20467348396778107,
        0.18232035636901855,
        -0.10993548482656479,
        -0.17871128022670746,
        0.1420457363128662,
        0.12138596922159195,
        0.03916628286242485,
        -0.10414024442434311,
        0.10345066338777542,
        0.22902582585811615,
        0.2304525077342987,
        -0.2733592689037323,
        -0.03937922790646553,
        -0.12811341881752014,
        -0.0613371878862381,
        0.17577411234378815,
        -0.13698166608810425,
        0.08573821932077408,
        -0.08154023438692093,
        -0.1811111569404602,
        -0.015513970516622066,
        0.1467852145433426,
        0.07047504186630249,
        -0.06870478391647339,
        0.07575976103544235,
        -0.14736297726631165,
        -0.07660825550556183,
        0.23251664638519287,
        -0.14076361060142517,
        -0.05083366855978966,
        0.04647792503237724,
        -0.009855922311544418,
        0.06139914318919182,
        -0.25249966979026794,
        -0.2613813281059265,
        -0.028293393552303314,
        -0.05058629438281059,
        0.02408144250512123,
        0.15598361194133759,
        -0.341522753238678,
        -0.1483924239873886,
        -0.11284983158111572,
        -0.14453019201755524,
        -0.0669320598244667,
        0.059378523379564285,
        0.13883419334888458,
        -0.0365925095975399,
        0.01112526748329401,
        0.23976285755634308,
        0.4017554223537445,
        -0.22231438755989075,
        -0.08762521296739578,
        0.1309092491865158,
        -0.024664031341671944,
        -0.17598126828670502,
        -0.20792043209075928,
        0.2673530578613281,
        -0.16444291174411774,
        -0.031030749902129173,
        -0.038022708147764206,
        0.0533440075814724,
        -0.23589268326759338,
        0.2822372317314148,
        0.08947406709194183,
        -0.04459528625011444,
        0.0337621346116066,
        -0.058254729956388474,
        0.00021594250574707985,
        0.40182238817214966,
        -0.058273810893297195,
        0.10931612551212311,
        -0.44908860325813293,
        0.14836490154266357,
        -0.08900821208953857,
        0.2154112607240677,
        0.018343018367886543,
        -0.05087682232260704,
        0.043682295829057693,
        0.006742479745298624,
        0.19467858970165253,
        0.1235378161072731,
        -0.6384280323982239,
        0.3099941909313202,
        -0.09057959169149399,
        -0.5752063989639282,
        0.43341511487960815,
        0.6690759658813477,
        -0.662260115146637,
        0.002419296419247985,
        0.6310747265815735,
        0.020098980516195297,
        0.3506646454334259,
        -0.5939887166023254,
        -0.23938435316085815,
        0.2792266309261322,
        0.21755759418010712,
        0.4800783097743988,
        -0.15656162798404694,
        -0.1980622410774231,
        -0.013225333765149117,
        -0.414554238319397,
        0.39542892575263977,
        0.1809711456298828,
        0.12406791746616364,
        -0.15867957472801208,
        0.24264635145664215,
        -0.2151060849428177,
        0.46248748898506165,
        -0.2890339493751526,
        -0.3127100169658661,
        -0.30294740200042725,
        0.568603515625,
        -0.017824096605181694,
        0.18879728019237518,
        -0.4255398213863373,
        0.14418523013591766,
        -0.4686504006385803,
        0.1477053165435791,
        0.22682338953018188,
        0.13424500823020935,
        0.05374743416905403,
        -0.057442110031843185,
        -0.2785945534706116,
        -0.08009292185306549,
        0.37265872955322266,
        -0.3622874319553375,
        0.25836244225502014,
        -0.09558956325054169,
        -0.0005246265791356564,
        0.08299756050109863,
        -0.49055030941963196,
        0.15980164706707,
        -0.49571362137794495,
        0.12184514850378036,
        -0.25243282318115234,
        0.578004002571106,
        0.4018787741661072,
        -0.07727105170488358,
        0.08725997060537338,
        -0.08808685094118118,
        -0.7213450074195862,
        0.37558093667030334,
        -0.1838221698999405,
        -0.021678917109966278,
        -0.5357396006584167,
        -0.23897799849510193,
        0.2215932160615921,
        -0.30198025703430176,
        -0.45353299379348755,
        0.3426649570465088,
        -0.29312360286712646,
        -0.36287105083465576,
        -0.3806226849555969,
        -0.11814554035663605,
        -0.3545740246772766,
        -0.3184671103954315,
        0.1018860787153244,
        -0.347285658121109,
        -0.012007957324385643,
        -0.25276508927345276,
        -0.26029735803604126,
        -0.18337216973304749,
        -0.17427508533000946,
        -0.16473537683486938,
        -0.0712384358048439,
        -0.16955381631851196,
        0.2796827554702759,
        0.11321476101875305,
        0.035712648183107376,
        -0.28217917680740356,
        -0.1301870197057724,
        0.17255271971225739,
        0.10464208573102951,
        -0.0657990351319313,
        0.08183687925338745,
        -0.452014297246933,
        0.18427126109600067,
        0.5196170806884766,
        -0.28590843081474304,
        -0.07715710252523422,
        -0.28816503286361694,
        0.11223164945840836,
        -0.16614411771297455,
        0.02302503027021885,
        0.004155031871050596,
        -0.13570217788219452,
        -0.10254736989736557,
        0.44842180609703064,
        -0.17010146379470825,
        -0.2596452236175537,
        0.304040789604187,
        0.019467605277895927,
        0.18589992821216583,
        -0.24311351776123047,
        -0.007728162221610546,
        -0.20354652404785156,
        0.3241031765937805,
        0.001228867913596332,
        -0.040869809687137604,
        -0.12685880064964294,
        0.10847825556993484,
        0.14164692163467407,
        -0.12135273963212967,
        0.04421979561448097,
        0.13415153324604034,
        -0.07829559594392776,
        -0.1289404183626175,
        -0.31197527050971985,
        0.15101028978824615,
        0.0031687654554843903,
        0.1841629594564438,
        0.19143560528755188,
        -0.11605586111545563,
        -0.14352136850357056,
        0.23292545974254608,
        0.3068718910217285,
        0.03954948112368584,
        -0.21677391231060028,
        -0.3052046597003937,
        -0.2010088860988617,
        0.5412591695785522,
        0.17410022020339966,
        0.003009424777701497,
        -0.27247846126556396,
        0.03893899917602539,
        0.2102721631526947,
        0.12381438165903091,
        0.08364886045455933,
        -0.25261756777763367,
        0.5860384702682495,
        0.06727740913629532,
        -0.045573413372039795,
        0.24584762752056122,
        0.18269115686416626,
        -0.007191779091954231,
        0.22990082204341888,
        -0.09037601202726364,
        -0.14343520998954773,
        -0.3397335410118103,
        -0.29090046882629395,
        -0.0016756225377321243,
        -0.042669765651226044,
        0.19032375514507294,
        0.024063870310783386,
        -0.275052011013031,
        -0.17463640868663788,
        -0.39799103140830994,
        -0.22172680497169495,
        -0.10012006014585495,
        0.05298471078276634,
        0.1927196979522705,
        -0.07112550735473633,
        0.05912136286497116,
        -0.15411098301410675,
        0.1859285980463028,
        0.18750911951065063,
        0.2372678518295288,
        -0.03898577764630318,
        0.11672961711883545,
        -0.3113524317741394,
        0.17491869628429413,
        0.1638680398464203,
        0.11253073066473007,
        0.4725250005722046,
        0.29985758662223816,
        -0.34117355942726135,
        -0.14520427584648132,
        0.07270272076129913,
        0.15813888609409332,
        0.28754210472106934,
        0.16039955615997314,
        -0.0035680406726896763,
        -0.09235852211713791,
        -0.14297811686992645,
        -0.20128709077835083,
        0.0758456364274025,
        -0.05874069780111313,
        0.21406953036785126,
        -0.2625858187675476,
        -0.33413082361221313,
        -0.26551103591918945,
        0.09896665811538696,
        -0.20947204530239105,
        -0.02363373525440693,
        0.08679090440273285,
        0.18896278738975525,
        -0.2671804428100586,
        0.19894222915172577,
        0.05360835790634155,
        0.1976097822189331,
        -0.2671269476413727,
        0.25118377804756165,
        0.16410106420516968,
        -0.15619662404060364,
        -0.2199256420135498,
        0.12294836342334747,
        0.09489577263593674,
        0.0441444106400013,
        0.2741444408893585,
        -0.07993608713150024,
        0.5033925175666809,
        0.06617838889360428,
        0.22305887937545776,
        0.5281548500061035,
        0.21837182343006134,
        -0.09517447650432587,
        -0.14709191024303436,
        0.07782662659883499,
        -0.03596815839409828,
        0.04561994969844818,
        0.16866670548915863,
        0.20496229827404022,
        0.2480400949716568,
        -0.22326768934726715,
        -0.01252591609954834,
        -0.10946514457464218,
        0.11146033555269241,
        0.013969901949167252,
        0.03853211551904678,
        -0.15984418988227844,
        0.24483463168144226,
        0.0456506721675396,
        -0.24156485497951508,
        0.1538400799036026,
        0.10655161738395691,
        -0.024498429149389267,
        0.07015233486890793,
        -0.38260507583618164,
        -0.09537982195615768,
        0.16219182312488556,
        0.212772935628891,
        0.14206574857234955,
        -0.05669529363512993,
        0.0796278789639473,
        0.10096008330583572,
        0.20725587010383606,
        0.28665006160736084,
        0.27322402596473694,
        0.014198779128491879,
        -0.2021692395210266,
        -0.20649081468582153,
        -0.11904603987932205,
        0.01664934679865837,
        0.13119405508041382,
        -0.12188949435949326,
        -0.14745767414569855,
        -0.010192959569394588,
        0.014833305962383747,
        0.17296931147575378,
        0.05918199196457863,
        0.23351316154003143,
        0.26234525442123413,
        0.17717087268829346,
        0.11651840060949326,
        0.05651827156543732,
        -0.1076018363237381,
        0.19684715569019318,
        -0.39878416061401367,
        0.21248403191566467,
        -0.019101930782198906,
        -0.13407522439956665,
        -0.2969684302806854,
        -0.5539596080780029,
        -0.2649837136268616,
        -0.817145824432373,
        0.6759431958198547,
        0.44009557366371155,
        -0.6114267110824585,
        -0.29610463976860046,
        0.4492933750152588,
        0.13528817892074585,
        0.3470367193222046,
        0.18175020813941956,
        -0.25816136598587036,
        -0.21358324587345123,
        0.25249043107032776,
        0.46645957231521606,
        -0.038890887051820755,
        -0.0013631643960252404,
        0.4724979102611542,
        -0.286678671836853,
        0.09214088320732117,
        0.26852455735206604,
        -0.02354266867041588,
        0.1991807371377945,
        0.5679334402084351,
        0.3406044542789459,
        -0.06898108124732971,
        0.379061222076416,
        -0.18514001369476318,
        -0.35615256428718567,
        0.27567487955093384,
        0.03524010628461838,
        -0.01075134426355362,
        0.4864022731781006,
        -0.1350483000278473,
        -0.0016276109963655472,
        0.20496565103530884,
        0.09892375022172928,
        0.08110124617815018,
        -0.16676755249500275,
        -0.4556979835033417,
        0.18106335401535034,
        -0.30610889196395874,
        0.24575887620449066,
        -0.4180552661418915,
        0.033194638788700104,
        -0.0900193378329277,
        0.0840422511100769,
        0.08135544508695602,
        0.25632426142692566,
        0.2540260851383209,
        -0.01054157130420208,
        0.5595079660415649,
        -0.04683201014995575,
        0.21856600046157837,
        -0.06887959688901901,
        0.5906639099121094,
        0.37771955132484436,
        0.44397106766700745,
        -0.031278397887945175,
        -0.2471832036972046,
        0.3102213144302368,
        0.01735658012330532,
        0.35358595848083496,
        0.29806870222091675,
        0.45317772030830383,
        0.42074012756347656,
        -0.2093491554260254,
        0.16268867254257202,
        -0.3500105142593384,
        0.37025681138038635,
        -0.04051966592669487,
        -0.13242460787296295,
        -0.2500813603401184,
        -0.34174519777297974,
        0.2652589976787567,
        0.22569535672664642,
        0.032247964292764664,
        0.1827787160873413,
        -0.17834432423114777,
        0.31012746691703796,
        0.028520381078124046,
        -0.16894939541816711,
        0.020787786692380905,
        0.06616955250501633,
        0.15848053991794586,
        0.17159689962863922,
        0.3436621129512787,
        0.12530481815338135,
        -0.07008058577775955,
        -0.2254209816455841,
        -0.06896916031837463,
        -0.20992515981197357,
        -0.22807928919792175,
        -0.21399720013141632,
        -0.236282080411911,
        -0.016275055706501007,
        -0.14344583451747894,
        0.11068849265575409,
        -0.1875859797000885,
        -0.16467654705047607,
        0.019272951409220695,
        -0.19765517115592957,
        -0.1443452388048172,
        0.06483887135982513,
        -0.10240157693624496,
        -0.08468880504369736,
        -0.09988202899694443,
        -0.11400225758552551,
        -0.09258157759904861,
        -0.10692581534385681,
        0.3927551209926605,
        -0.16745370626449585,
        -0.06559065729379654,
        -0.16511785984039307,
        -0.020656758919358253,
        -0.0046335854567587376,
        0.09404676407575607,
        -0.15905946493148804,
        -0.028323566541075706,
        0.1552664190530777,
        -0.16584929823875427,
        0.1538577824831009,
        0.04136965796351433,
        0.01510461326688528,
        -0.05191837251186371,
        0.12973028421401978,
        -0.1534603387117386,
        -0.2703224718570709,
        -0.2286779135465622,
        -0.29755890369415283,
        0.18659242987632751,
        -0.1514904797077179,
        0.035058800131082535,
        0.10943133383989334,
        -0.05963820964097977,
        -0.19024695456027985,
        -0.2843509316444397,
        -0.06369827687740326,
        0.16343851387500763,
        0.07682333141565323,
        -0.08411864191293716,
        -0.10878043621778488,
        0.28326141834259033,
        0.2851245403289795,
        0.09197667986154556,
        -0.07920485734939575,
        -0.07240177690982819,
        -0.4915327727794647,
        0.10790445655584335,
        0.14803802967071533,
        0.20469345152378082,
        0.03644605726003647,
        0.5061776041984558,
        -0.0534893237054348,
        -0.17992833256721497,
        0.26133981347084045,
        0.09806742519140244,
        0.16093742847442627,
        0.048211559653282166,
        0.23510557413101196,
        -0.11675194650888443,
        0.2299433946609497,
        -0.04320279508829117,
        0.15692658722400665,
        -0.2666662931442261,
        -0.032489385455846786,
        0.12561365962028503,
        0.2773233652114868,
        -0.07948052138090134,
        0.1780325323343277,
        0.14704081416130066,
        0.06850254535675049,
        -0.10321511328220367,
        0.3737387955188751,
        -0.13809794187545776,
        0.039033193141222,
        -0.040839098393917084,
        -0.07225251942873001,
        0.10974260419607162,
        -0.08702386170625687,
        0.24660034477710724,
        0.029318859800696373,
        0.02046247571706772,
        -0.09410413354635239,
        -0.16806448996067047,
        -0.16050228476524353,
        -0.0651407390832901,
        0.011129471473395824,
        -0.04681578278541565,
        -0.10559865832328796,
        -0.07536682486534119,
        0.2924920916557312,
        -0.0028492247220128775,
        -0.055652983486652374,
        0.02275676466524601,
        0.4112076163291931,
        0.09828780591487885,
        -0.1388370394706726,
        0.21326231956481934,
        -0.24230684340000153,
        -0.17528881132602692,
        0.17251865565776825,
        -0.019236158579587936,
        0.22884349524974823,
        -0.00381565373390913,
        -0.07906697690486908,
        -0.24706673622131348,
        -0.0066129667684435844,
        0.018262378871440887,
        0.06902997195720673,
        -0.09132974594831467,
        0.18656134605407715,
        -0.15113699436187744,
        0.11150428652763367,
        0.2184278666973114,
        -0.2148527055978775,
        0.2103455513715744,
        -0.020342115312814713,
        -0.06072225794196129,
        -0.033162061125040054,
        0.025403356179594994,
        -0.08196073025465012,
        0.07178986072540283,
        0.013416238129138947,
        0.28478139638900757,
        -0.40758559107780457,
        0.06363052129745483,
        0.033317405730485916,
        -0.19176611304283142,
        -0.022854968905448914,
        -0.26419317722320557,
        -0.17759761214256287,
        -0.09097006916999817,
        0.0793047696352005,
        -0.40431153774261475,
        -0.007679339498281479,
        -0.22155775129795074,
        -0.0033873759675771,
        -0.0063815610483288765,
        -0.15433914959430695,
        -0.06726965308189392,
        -0.12101618945598602,
        -0.04838164150714874,
        -0.013319219462573528,
        0.12786486744880676,
        0.0069762649945914745,
        -0.39302492141723633,
        -0.01455541979521513,
        -0.020130248740315437,
        -0.3793845772743225,
        -0.050357941538095474,
        0.06703368574380875,
        -0.3287808299064636,
        -0.23119299113750458,
        -0.2802280783653259,
        -0.1532779037952423,
        -0.017011333256959915,
        0.09902802109718323,
        -0.1680225133895874,
        0.11821594834327698,
        -0.1050867959856987,
        0.6160670518875122,
        0.11306639015674591,
        -0.18286719918251038,
        -0.04460322856903076,
        0.07587538659572601,
        -0.0013334376271814108,
        -1.2967168092727661,
        0.08011070638895035,
        0.1134830042719841,
        -0.6943458318710327,
        -0.19513744115829468,
        0.06423231959342957,
        0.0012310515157878399,
        -0.02779189869761467,
        -0.004617208149284124,
        -0.029675250872969627,
        0.0566273108124733,
        0.1930152028799057,
        -0.3846896290779114,
        0.25434067845344543,
        -0.050938308238983154,
        0.10925386101007462,
        -0.5285156965255737,
        0.26970455050468445,
        -0.6963183879852295,
        0.5095493197441101,
        0.15893441438674927,
        0.08526064455509186,
        -0.16609857976436615,
        -0.2186926007270813,
        0.006982325576245785,
        -0.46187499165534973,
        -0.2670634984970093,
        0.33812716603279114,
        0.2766443192958832,
        0.0181790292263031,
        0.35340622067451477,
        0.12537388503551483,
        0.04124359413981438,
        0.20628131926059723,
        -0.1643354296684265,
        -0.10729081928730011,
        0.19536614418029785,
        0.22352907061576843,
        -0.12656548619270325,
        -0.5630825757980347,
        0.10982812196016312,
        0.07599525153636932,
        0.3620944917201996,
        0.12315414100885391,
        0.1899406760931015,
        -0.28877076506614685,
        -0.3943861126899719,
        -0.20860198140144348,
        0.12863677740097046,
        0.037206344306468964,
        -0.04125722125172615,
        0.2575097382068634,
        -0.21184352040290833,
        -0.36770644783973694,
        -0.03796125203371048,
        0.19350236654281616,
        -0.04583386331796646,
        -0.08346263319253922,
        0.22239066660404205,
        0.2863941490650177,
        0.05574863776564598,
        -0.19449447095394135,
        0.31520959734916687,
        -0.02730780839920044,
        -0.37812501192092896,
        -0.2808537781238556,
        -0.037714678794145584,
        0.34045013785362244,
        -0.08321385830640793,
        0.010424233973026276,
        -0.309391051530838,
        0.40888336300849915,
        0.12771588563919067,
        0.1081332415342331,
        0.09818774461746216,
        0.2892662286758423,
        -0.20266059041023254,
        0.1792231798171997,
        0.13308575749397278,
        -0.25288960337638855,
        0.23198287189006805,
        -0.40744873881340027,
        -0.27654924988746643,
        -0.2083340734243393,
        -0.38031941652297974,
        0.15664853155612946,
        -0.19545039534568787,
        -0.14844775199890137,
        0.10844068229198456,
        -0.19916477799415588,
        -0.2104499340057373,
        0.13439153134822845,
        -0.030911175534129143,
        -0.027168123051524162,
        0.16872359812259674,
        -0.007864657789468765,
        0.05215279012918472,
        -0.21272413432598114,
        -0.04888439550995827,
        0.0232244785875082,
        0.2233530879020691,
        0.036172054708004,
        -0.12450027465820312,
        -0.07244642078876495,
        0.029480408877134323,
        -0.0024123392067849636,
        0.249324232339859,
        0.007368776947259903,
        0.08907578140497208,
        -0.047750528901815414,
        0.026008961722254753,
        0.028861304745078087,
        -0.12677538394927979,
        0.03074810653924942,
        -0.020627642050385475,
        -0.03373090922832489,
        0.06662813574075699,
        -0.045085564255714417,
        -0.19721198081970215,
        0.26242053508758545,
        0.38272374868392944,
        0.6101516485214233,
        0.0677981972694397,
        0.11211830377578735,
        0.286658376455307,
        0.019692514091730118,
        -0.0722818449139595,
        -0.04230619594454765,
        0.14585089683532715,
        0.11956747621297836,
        -0.16950875520706177,
        -0.13556717336177826,
        -0.07620687782764435,
        -0.03500916063785553,
        -0.05895275995135307,
        -0.058953579515218735,
        0.4646734297275543,
        -0.019330624490976334,
        -0.08000541478395462,
        0.3528048098087311,
        -0.07235651463270187,
        -0.15665389597415924,
        -0.06419752538204193,
        0.1411178559064865,
        -0.1280497908592224,
        0.2137783020734787,
        0.13747082650661469,
        0.16132624447345734,
        0.12979288399219513,
        0.0855916440486908,
        -0.22796374559402466,
        -0.025121325626969337,
        0.04828398674726486,
        -0.1074151024222374,
        -0.1740260124206543,
        0.022653276100754738,
        0.07856328040361404,
        0.062268711626529694,
        0.12504906952381134,
        0.28378206491470337,
        0.10808544605970383,
        -0.13229718804359436,
        -0.07866783440113068,
        0.26110586524009705,
        -0.060373712331056595,
        0.06800753623247147,
        0.07209032028913498,
        -0.0673120841383934,
        0.20643585920333862,
        -0.03616766259074211,
        -0.09737016260623932,
        0.09627700597047806,
        0.12329787760972977,
        -0.023829709738492966,
        -0.17472973465919495,
        -0.10601380467414856,
        -0.04126594960689545,
        0.10699594765901566,
        -0.04522537440061569,
        0.13153819739818573,
        -0.05166816711425781,
        -0.14126861095428467,
        0.007902142591774464,
        0.07654540240764618,
        0.6352769732475281,
        0.010382043197751045,
        0.07705821841955185,
        -0.13321267068386078,
        0.18921281397342682,
        0.02921358123421669,
        -0.37963464856147766,
        -0.30678287148475647,
        -0.2809153199195862,
        0.017337435856461525,
        -0.019191641360521317,
        0.3294371962547302,
        -0.1360136717557907,
        0.2281327098608017,
        0.25189951062202454,
        0.19755421578884125,
        0.04641927406191826,
        0.07238957285881042,
        0.01573185622692108,
        -0.05656738579273224,
        0.04345540329813957,
        -0.058555107563734055,
        0.010057030245661736,
        0.03364884853363037,
        0.021819021552801132,
        0.1419110745191574,
        0.05141140893101692,
        -0.2197764813899994,
        0.00297183939255774,
        0.11028439551591873,
        -0.637800395488739,
        0.06899942457675934,
        0.03315261751413345,
        -0.2431752234697342,
        0.05881045386195183,
        -0.03206295892596245,
        -0.1051037535071373,
        -0.187408447265625,
        0.004479346331208944,
        -0.7427934408187866,
        -0.03271804377436638,
        -0.08102941513061523,
        0.2417822927236557,
        0.08669087290763855,
        -0.09997814148664474,
        -0.9207140803337097,
        0.017978720366954803,
        0.06874828040599823,
        -1.3291536569595337,
        -0.018350252881646156,
        -0.05327456817030907,
        -0.36473163962364197,
        -0.027057239785790443,
        0.05696519836783409,
        0.18790505826473236,
        -0.13096697628498077,
        0.20296809077262878,
        0.12224537134170532,
        -0.12778876721858978,
        -0.009479759261012077,
        -0.011795864440500736,
        -0.009691230021417141,
        -0.1479153037071228,
        -0.031642671674489975,
        -0.07941307127475739,
        -0.2429547905921936,
        0.18805037438869476,
        0.0704822689294815,
        0.12560038268566132,
        -0.10070145130157471,
        -0.006603660527616739,
        0.21767282485961914,
        0.12257199734449387,
        0.03899504989385605,
        0.10810699313879013,
        0.041176196187734604,
        0.3711584210395813,
        -0.01445773895829916,
        0.10580860823392868,
        0.13378915190696716,
        0.011385027319192886,
        0.16294735670089722,
        0.2689337432384491,
        -0.09011311829090118,
        0.05591505393385887,
        -0.15271249413490295,
        0.22540214657783508,
        -0.0033028924372047186,
        0.08095388859510422,
        -0.040251195430755615,
        0.12036129087209702,
        0.05206654965877533,
        -0.17444561421871185,
        -0.0485047809779644,
        0.01886771433055401,
        -0.08505290001630783,
        0.08821949362754822,
        -0.015885425731539726,
        0.001965245697647333,
        -0.057655561715364456,
        0.1584703028202057,
        -0.5520122647285461,
        -0.18684576451778412,
        -0.22944748401641846,
        0.13184699416160583,
        0.006726137828081846,
        0.10619652271270752,
        -0.09805387258529663,
        -0.616622805595398,
        -0.9749280214309692,
        -0.6411577463150024,
        0.7746317386627197,
        0.846907377243042,
        0.2584701180458069,
        -0.9279829263687134,
        -0.12648221850395203,
        -0.273647665977478,
        -0.07948881387710571,
        0.12589505314826965,
        0.21189473569393158,
        0.3631756901741028,
        0.21845300495624542,
        -0.3037616014480591,
        -0.25944042205810547,
        0.13683481514453888,
        -0.5139724016189575,
        -0.17794230580329895,
        -0.1164226308465004,
        -0.2402186095714569,
        -0.12895958125591278,
        -0.10547804087400436,
        -0.31397745013237,
        0.11834884434938431,
        -0.1933470368385315,
        0.07374826818704605,
        0.3980681002140045,
        0.22537846863269806,
        0.2567439675331116,
        0.06052954122424126,
        0.055271174758672714,
        -0.0932702124118805,
        -0.1953866332769394,
        -0.052994903177022934,
        0.1538914144039154,
        -0.15221334993839264,
        -0.16011130809783936,
        -0.013463054783642292,
        0.1038413867354393,
        -0.09125443547964096,
        0.2435845583677292,
        -0.20160509645938873,
        -0.28964754939079285,
        0.02291596122086048,
        0.41066139936447144,
        0.07205044478178024,
        -0.10902126133441925,
        0.08840225636959076,
        0.16804228723049164,
        -0.34574440121650696,
        -0.32413265109062195,
        -0.3211311101913452,
        -0.0021727129351347685,
        -0.016114704310894012,
        -0.1246090680360794,
        0.15375278890132904,
        -0.2697746455669403,
        -0.244856595993042,
        0.2531418800354004,
        0.1149936392903328,
        -0.5974482297897339,
        0.03540777787566185,
        0.3282195031642914,
        0.20441049337387085,
        -0.14393647015094757,
        -0.19373200833797455,
        -0.20574113726615906,
        0.38596808910369873,
        -0.15007178485393524,
        -0.17892280220985413,
        0.07879512757062912,
        0.27801862359046936,
        -0.09792260080575943,
        -0.29355549812316895,
        0.4460580348968506,
        0.08187685161828995,
        -0.17303895950317383,
        -0.22445984184741974,
        -0.21969500184059143,
        -0.37274810671806335,
        -0.018744539469480515,
        -0.23423096537590027,
        -0.07681024074554443,
        0.44788888096809387,
        -0.3291201889514923,
        0.06760809570550919,
        -0.16340100765228271,
        0.07312969863414764,
        0.49692803621292114,
        0.035796791315078735,
        -0.17679472267627716,
        0.026002006605267525,
        -0.2632712721824646,
        0.17623041570186615,
        0.046605467796325684,
        0.09922308474779129,
        0.1385236382484436,
        0.2649434506893158,
        -0.31817641854286194,
        0.3992112874984741,
        0.28121259808540344,
        -0.28774189949035645,
        -0.22008128464221954,
        0.31307411193847656,
        -0.25202372670173645,
        -0.27619102597236633,
        0.21869884431362152,
        -0.2647470235824585,
        0.06933849304914474,
        -0.1807878464460373,
        0.3047874867916107,
        0.20481759309768677,
        0.0356123261153698,
        0.03945004567503929,
        0.2040463387966156,
        0.10164647549390793,
        -0.1588996946811676,
        0.01438959315419197,
        0.33406588435173035,
        -0.35072171688079834,
        0.1828484833240509,
        -0.20687317848205566,
        0.1498659998178482,
        -0.2967647910118103,
        0.24021771550178528,
        0.10607070475816727,
        0.10904902219772339,
        -0.06477849185466766,
        0.33452606201171875,
        0.04346345365047455,
        -0.25966131687164307,
        -0.4374798536300659,
        -0.1540953367948532,
        0.21983246505260468,
        0.0002170527441194281,
        0.2323942929506302,
        0.03799024224281311,
        0.3321913778781891,
        -0.13404060900211334,
        -0.20961257815361023,
        0.23775409162044525,
        -0.08825821429491043,
        0.44823434948921204,
        -0.22357408702373505,
        -0.17706693708896637,
        0.05788814648985863,
        0.07462325692176819,
        0.09823688864707947,
        0.06980974227190018,
        0.025518469512462616,
        0.011842241510748863,
        -0.0008675641729496419,
        0.027309134602546692,
        0.030783647671341896,
        0.4267297387123108,
        0.1925046145915985,
        0.09327798336744308,
        0.2466730922460556,
        0.03183319419622421,
        -0.12765106558799744,
        0.04909344017505646,
        -0.07629816979169846,
        0.14860844612121582,
        0.042858731001615524,
        -0.2617320120334625,
        -0.12160933762788773,
        -0.37473249435424805,
        -0.06608366221189499,
        -0.13739243149757385,
        -0.2605951726436615,
        -0.025501588359475136,
        0.020235193893313408,
        0.3406001031398773,
        0.009141217917203903,
        0.01831044629216194,
        0.09391006082296371,
        0.05267731845378876,
        0.04603921249508858,
        -0.5129686594009399,
        -0.3341290056705475,
        -0.11714234948158264,
        0.14059863984584808,
        -0.023328188806772232,
        0.05163714289665222,
        0.34007370471954346,
        0.11595688760280609,
        0.007446386851370335,
        0.16055497527122498,
        0.06914354860782623,
        0.03957385942339897,
        0.08285067230463028,
        -0.0969749242067337,
        -0.1962277889251709,
        -0.14275586605072021,
        0.20556093752384186,
        0.24843311309814453,
        0.05318605154752731,
        -0.2071194350719452,
        0.6437044739723206,
        -0.32840991020202637,
        -0.24204012751579285,
        -0.26035746932029724,
        -0.4489270746707916,
        0.30726534128189087,
        -0.2696695625782013,
        -0.18036337196826935,
        -0.17798665165901184,
        -0.03344797343015671,
        0.1781703233718872,
        -0.22805121541023254,
        0.11961434036493301,
        -0.4942101538181305,
        0.2655160427093506,
        -0.07949430495500565,
        -0.02821500040590763,
        0.3486035168170929,
        0.43706631660461426,
        -0.187462717294693,
        -0.2464905083179474,
        0.392915815114975,
        0.5103451013565063,
        0.2398235946893692,
        -0.18410398066043854,
        -0.08006640523672104,
        0.18373453617095947,
        0.06108078733086586,
        -0.014805274084210396,
        -0.24999657273292542,
        -0.04609350115060806,
        0.38064295053482056,
        0.0966671034693718,
        -0.12456056475639343,
        0.016352280974388123,
        -0.07693812996149063,
        -0.09950496256351471,
        -0.2237941026687622,
        0.2475612908601761,
        0.11294203251600266,
        0.14340941607952118,
        0.22840413451194763,
        0.06225933879613876,
        0.15999829769134521,
        0.3120795488357544,
        -0.3560539782047272,
        -0.006297542247921228,
        -0.5638299584388733,
        -0.010616447776556015,
        -0.16229911148548126,
        -0.09493882954120636,
        0.02969711273908615,
        0.12022703140974045,
        -0.2772219181060791,
        0.13675493001937866,
        0.08069252222776413,
        -0.5849670171737671,
        -0.15509796142578125,
        -0.15588048100471497,
        0.04977907985448837,
        -0.2936975061893463,
        -0.29165053367614746,
        -0.103237085044384,
        0.24919743835926056,
        0.17945244908332825,
        0.1894368678331375,
        0.19580820202827454,
        0.16948290169239044,
        -0.030235856771469116,
        0.16611845791339874,
        -0.4375380575656891,
        -0.26912620663642883,
        -0.1833842247724533,
        0.5541699528694153,
        0.08516444265842438,
        -0.2240598052740097,
        0.11173859983682632,
        -0.3286890387535095,
        -0.032949961721897125,
        0.30755752325057983,
        -0.04044412449002266,
        -0.3987346887588501,
        0.2764299809932709,
        -0.12279719859361649,
        -0.24081797897815704,
        0.3189553916454315,
        -0.12679827213287354,
        -0.24690376222133636,
        0.3199554681777954,
        0.2413465529680252,
        -0.07234635949134827,
        -0.17090445756912231,
        -0.019610803574323654,
        0.1414443701505661,
        -0.09464341402053833,
        0.16884687542915344,
        -0.486344575881958,
        -0.049108270555734634,
        0.2873467206954956,
        0.13756148517131805,
        -0.004972540773451328,
        -0.04044310376048088,
        0.02554764598608017,
        -0.04859931766986847,
        0.056058187037706375,
        -0.05035170540213585,
        0.030050691217184067,
        0.053297437727451324,
        0.09399326145648956,
        -0.04867049306631088,
        -0.13906820118427277,
        -0.027746951207518578,
        -0.24094590544700623,
        -0.0496394969522953,
        -0.23534806072711945,
        0.1838245838880539,
        0.0665096640586853,
        -0.226809561252594,
        0.09328282624483109,
        -0.0463189035654068,
        0.06843555718660355,
        0.07121365517377853,
        0.009926730766892433,
        0.3158320188522339,
        -0.0947592630982399,
        0.07796168327331543,
        0.05690636858344078,
        0.07894869148731232,
        -0.05121390521526337,
        0.34510308504104614,
        -0.0016382882604375482,
        -0.05638181045651436,
        -0.3758850395679474,
        0.09502293169498444,
        -0.12240253388881683,
        -0.01938442885875702,
        -0.2736416459083557,
        0.056278295814991,
        -0.4019266664981842,
        0.203447163105011,
        -0.03079798072576523,
        0.27081429958343506,
        0.08046218752861023,
        -0.025091229006648064,
        -0.25404131412506104,
        0.15875819325447083,
        -0.07504427433013916,
        -0.061534274369478226,
        0.22555749118328094,
        0.7750020623207092,
        0.6089262366294861,
        0.9508211612701416,
        0.49267610907554626,
        -0.2006421536207199,
        -0.31732481718063354,
        -0.46104395389556885,
        -0.29956158995628357,
        -0.05604143068194389,
        0.10089223831892014,
        -0.1651782989501953,
        -0.040860969573259354,
        -0.006099201738834381,
        -0.35015204548835754,
        -0.1365106701850891,
        0.44796526432037354,
        0.19686025381088257,
        0.4656333923339844,
        -0.15816284716129303,
        0.03505164012312889,
        0.22540877759456635,
        -0.2222510427236557,
        -0.3390233814716339,
        0.355535089969635,
        0.05802533030509949,
        -0.07850521057844162,
        0.3364383280277252,
        0.13469459116458893,
        0.3214431703090668,
        -0.027095958590507507,
        -0.13547676801681519,
        0.08255374431610107,
        -0.04256075248122215,
        -0.48100045323371887,
        -0.07100635766983032,
        -0.017872897908091545,
        0.14697308838367462,
        0.15423616766929626,
        0.0854940339922905,
        0.3261738121509552,
        0.38519197702407837,
        -0.261541485786438,
        0.21464915573596954,
        0.363972008228302,
        0.032214801758527756,
        0.054576292634010315,
        0.05360062047839165,
        0.028690245002508163,
        0.15079569816589355,
        -0.14185096323490143,
        -0.19866041839122772,
        0.35262465476989746,
        0.1836424320936203,
        -0.2546420097351074,
        0.21569344401359558,
        0.2653880715370178,
        0.008173364214599133,
        0.09441331773996353,
        0.07629851251840591,
        -0.06796375662088394,
        0.11198700964450836,
        0.1863369345664978,
        0.3218136727809906,
        -0.47489574551582336,
        -0.22376111149787903,
        -0.13503597676753998,
        -0.1942414790391922,
        0.1555119901895523,
        -0.2284211963415146,
        -0.4689306914806366,
        0.1071825921535492,
        -0.11607490479946136,
        0.2869681715965271,
        0.026940612122416496,
        -0.002696024952456355,
        0.3791438043117523,
        -0.7127538323402405,
        0.2017861306667328,
        0.13761158287525177,
        -0.32018131017684937,
        0.06580981612205505,
        -0.0962388813495636,
        -0.1320704221725464,
        -0.12270216643810272,
        0.18487434089183807,
        0.706657886505127,
        0.5250532031059265,
        0.10779353231191635,
        -0.3152840733528137,
        0.1626627892255783,
        0.10793296992778778,
        0.43831339478492737,
        -0.12599492073059082,
        0.03786826878786087,
        0.10360999405384064,
        -0.1774677187204361,
        -0.40901654958724976,
        -0.4134622812271118,
        -0.17144934833049774,
        0.0847667008638382,
        -0.32533377408981323,
        0.3009995222091675,
        0.1846904754638672,
        0.14282456040382385,
        0.20047295093536377,
        -0.20331023633480072,
        0.12690618634223938,
        0.18819387257099152,
        -0.12264902144670486,
        0.0378173291683197,
        0.0011189912911504507,
        -0.023736706003546715,
        0.2374253123998642,
        -0.21412324905395508,
        -0.05324549973011017,
        0.1189923882484436,
        0.254314124584198,
        -0.29458460211753845,
        -0.014381502754986286,
        -0.05401766300201416,
        0.13305409252643585,
        0.3169765770435333,
        0.18604101240634918,
        0.01388115156441927,
        -0.18133826553821564,
        0.010105633176863194,
        0.40304484963417053,
        0.0753810778260231,
        -0.05966681241989136,
        0.2460428774356842,
        0.04083723574876785,
        0.07069952040910721,
        0.4468819797039032,
        0.2825727164745331,
        -0.0018687902484089136,
        0.42686498165130615,
        0.16236929595470428,
        0.010926151648163795,
        0.04325317218899727,
        0.2450217753648758,
        -0.08057961612939835,
        -0.37607285380363464,
        0.38002389669418335,
        0.09192973375320435,
        0.190839946269989,
        -0.027349285781383514,
        -0.10659218579530716,
        0.213070347905159,
        0.03757361322641373,
        -0.15429595112800598,
        0.0037738413084298372,
        -0.22773733735084534,
        -0.22696222364902496,
        0.19393670558929443,
        -0.08330600708723068,
        -0.16205643117427826,
        -0.47024813294410706,
        0.4699835777282715,
        -0.18566389381885529,
        -0.6583613753318787,
        0.7684112787246704,
        0.5045561790466309,
        -0.5722452998161316,
        0.02269655093550682,
        0.6683321595191956,
        0.050208330154418945,
        -0.6428537368774414,
        0.4860289394855499,
        -0.1553269475698471,
        0.048646535724401474,
        -0.29093509912490845,
        -0.3527410924434662,
        -0.40178826451301575,
        0.016701143234968185,
        -0.5055152773857117,
        0.44324958324432373,
        -0.19175457954406738,
        -0.19765156507492065,
        0.28030288219451904,
        -0.06955454498529434,
        0.1532103419303894,
        0.5309261679649353,
        -0.18933673202991486,
        0.13589580357074738,
        0.19300267100334167,
        -0.1628914773464203,
        -0.17881746590137482,
        0.4847226142883301,
        0.31280091404914856,
        -0.059257373213768005,
        -0.3136763870716095,
        -0.17425963282585144,
        0.1405429244041443,
        0.06648144870996475,
        0.09174838662147522,
        0.12209545075893402,
        0.06346078962087631,
        0.3735172748565674,
        0.38750067353248596,
        0.20614022016525269,
        0.05283788964152336,
        -0.22690154612064362,
        0.3321402370929718,
        0.0649513527750969,
        0.3959138095378876,
        0.047096092253923416,
        0.16085688769817352,
        0.10175175219774246,
        0.050788816064596176,
        0.23832659423351288,
        0.04843972995877266,
        0.2506794333457947,
        -0.25130364298820496,
        -0.1563764214515686,
        0.10985660552978516,
        0.026405751705169678,
        -0.19725514948368073,
        -0.18879467248916626,
        0.1887165606021881,
        -0.2187286615371704,
        -0.2500593662261963,
        -0.1841816008090973,
        0.16725902259349823,
        0.05620159953832626,
        -0.08363394439220428,
        -0.08292991667985916,
        -0.00893387570977211,
        -0.012645832262933254,
        -0.10072881728410721,
        0.2379346489906311,
        0.15162459015846252,
        0.10249702632427216,
        -0.40421801805496216,
        0.46327608823776245,
        0.0009797619422897696,
        -0.37385720014572144,
        -0.8212271332740784,
        0.06873104721307755,
        0.35327911376953125,
        -0.06908279657363892,
        0.2091909497976303,
        -0.2189745008945465,
        -0.4161163866519928,
        0.3027893602848053,
        -0.5687255263328552,
        0.09924066811800003,
        -0.40487101674079895,
        -0.007160040084272623,
        -0.48193979263305664,
        -0.26044294238090515,
        0.06903936713933945,
        -0.08707323670387268,
        -0.1795361340045929,
        -0.21349237859249115,
        0.11562098562717438,
        0.10643796622753143,
        0.44217875599861145,
        0.08479390293359756,
        -0.21329821646213531,
        0.11893241852521896,
        0.040683094412088394,
        0.30186834931373596,
        -0.32514798641204834,
        0.3705955743789673,
        0.04685031622648239,
        -0.0864359438419342,
        -0.058553822338581085,
        0.10494039207696915,
        -0.024662155658006668,
        -0.06905878335237503,
        -0.18380331993103027,
        0.05385918915271759,
        -0.40775057673454285,
        0.26963475346565247,
        0.16583719849586487,
        0.07124708592891693,
        0.24592828750610352,
        0.022683076560497284,
        -0.4387753903865814,
        -0.12295200675725937,
        0.1189541295170784,
        -0.16238519549369812,
        -0.015925535932183266,
        -0.014128337614238262,
        -0.049568530172109604,
        0.2776843309402466,
        0.02927788347005844,
        -0.3008013963699341,
        0.1471346616744995,
        -0.24267543852329254,
        -0.14521710574626923,
        0.14935488998889923,
        0.5559163093566895,
        -0.17905022203922272,
        0.039214953780174255,
        0.01926346868276596,
        0.28611326217651367,
        -0.045650042593479156,
        0.2836759090423584,
        0.09466322511434555,
        -0.043366387486457825,
        0.2196081429719925,
        -0.04472420737147331,
        -0.29470378160476685,
        -0.40926873683929443,
        -0.5684666037559509,
        -0.28351062536239624,
        -0.5305622220039368,
        -0.68819659948349,
        -0.3937877416610718,
        -0.06361459940671921,
        0.382033109664917,
        -0.00880138948559761,
        0.42528754472732544,
        0.1768171787261963,
        0.23803627490997314,
        -0.3714498281478882,
        -0.08634999394416809,
        0.21160605549812317,
        0.4948825538158417,
        -0.7858309149742126,
        -0.06571245193481445,
        0.4519708752632141,
        -0.010855300351977348,
        -0.4384521543979645,
        -0.3008221983909607,
        0.2295823097229004,
        -0.2054811269044876,
        0.03203202039003372,
        0.24449469149112701,
        -0.14405114948749542,
        0.03995126485824585,
        0.19240358471870422,
        0.09221958369016647,
        0.03969591110944748,
        -0.16102321445941925,
        0.25768035650253296,
        0.3187444508075714,
        0.29015520215034485,
        0.021543586626648903,
        -0.24050186574459076,
        0.15518875420093536,
        0.007663899101316929,
        -0.033683594316244125,
        -0.24329236149787903,
        0.17357119917869568,
        0.060437124222517014,
        0.32216766476631165,
        -0.10564202070236206,
        0.14818912744522095,
        0.4178147614002228,
        -0.2158900499343872,
        -0.028817467391490936,
        0.37733784317970276,
        0.10362989455461502,
        0.11012593656778336,
        -0.22309164702892303,
        0.026519866660237312,
        -0.19610010087490082,
        0.1220429316163063,
        0.46073758602142334,
        0.3035869002342224,
        0.3045397996902466,
        -0.0391932912170887,
        0.3257329761981964,
        -0.17796757817268372,
        -0.10220275074243546,
        -0.13373158872127533,
        0.06106891483068466,
        -0.24549821019172668,
        0.10057762265205383,
        -0.11277366429567337,
        -0.3336600661277771,
        -0.4228705167770386,
        -0.5566217303276062,
        -0.01152822282165289,
        -0.3228228688240051,
        0.051935888826847076,
        -0.4429088830947876,
        -0.16556470096111298,
        0.2288544923067093,
        -0.4599050283432007,
        0.7238860130310059,
        -0.15903152525424957,
        0.4650169312953949,
        0.1625215709209442,
        0.43222934007644653,
        -0.1926305890083313,
        -0.09995781630277634,
        -0.5384670495986938,
        0.5336332321166992,
        -0.530296802520752,
        0.34856465458869934,
        0.82513028383255,
        -0.24175786972045898,
        -0.34651821851730347,
        -0.2948809266090393,
        0.5789311528205872,
        0.06442201882600784,
        0.12261523306369781,
        -0.15152977406978607,
        0.3324151635169983,
        -0.05551415681838989,
        -0.23924407362937927,
        0.03899763897061348,
        -0.008519155904650688,
        -0.1136547103524208,
        -0.006588339805603027,
        -0.09545399248600006,
        0.3384264409542084,
        0.03632863238453865,
        0.15212859213352203,
        0.44548359513282776,
        0.20802144706249237,
        0.29558998346328735,
        0.21348334848880768,
        0.21300464868545532,
        -0.18071438372135162,
        0.10937602072954178,
        -0.12606710195541382,
        -0.15912796556949615,
        0.06634973734617233,
        0.15840190649032593,
        0.29653123021125793,
        -0.25973132252693176,
        0.1989537477493286,
        0.4108319580554962,
        -0.13232015073299408,
        0.12884347140789032,
        0.4295670986175537,
        -7.331641972996294e-05,
        -0.0679870992898941,
        -0.2302853912115097,
        0.20252622663974762,
        -0.013945290818810463,
        0.017320305109024048,
        0.05513980612158775,
        -0.023622039705514908,
        -0.08319997042417526,
        0.05090123042464256,
        0.1327609419822693,
        0.0466713011264801,
        -0.09918297827243805,
        0.16156528890132904,
        -0.08362134546041489,
        -0.31449878215789795,
        -0.21795983612537384,
        0.18102499842643738,
        -0.33620113134384155,
        0.0025545000098645687,
        -0.29769787192344666,
        0.07142963260412216,
        0.18429771065711975,
        -0.05294639989733696,
        0.14156749844551086,
        0.05627381056547165,
        -0.17951296269893646,
        0.12078513950109482,
        0.4179336428642273,
        -0.3435303866863251,
        0.4251091182231903,
        -1.0712087154388428,
        0.2120341956615448,
        0.4773063361644745,
        -0.0533050037920475,
        0.3153516948223114,
        -0.028850067406892776,
        0.43928995728492737,
        -0.8969590067863464,
        0.388123095035553,
        0.02881391905248165,
        0.2616128623485565,
        0.2755284309387207,
        0.4830806255340576,
        -0.3826637268066406,
        -0.5823125243186951,
        -0.40726929903030396,
        0.12673908472061157,
        -0.7173125147819519,
        -0.638793408870697,
        -0.12015221267938614,
        -0.1442388892173767,
        -0.0029274646658450365,
        -0.04804689437150955,
        -0.10937398672103882,
        0.19703985750675201,
        -0.043583765625953674,
        0.27446797490119934,
        -0.18214839696884155,
        -0.011895398609340191,
        0.06230451166629791,
        -0.32997721433639526,
        -0.24886195361614227,
        0.03547338768839836,
        -0.10963782668113708,
        -0.013279941864311695,
        0.1302296221256256,
        0.1346486210823059,
        -0.14742910861968994,
        -0.2643280029296875,
        -0.30526816844940186,
        -0.027899550274014473,
        0.07853750139474869,
        0.05492358282208443,
        -0.11738603562116623,
        -0.3400329053401947,
        -0.20292264223098755,
        -0.0934334322810173,
        -0.003526832675561309,
        -0.023458264768123627,
        -0.1679580807685852,
        -0.10819116979837418,
        -0.05383817106485367,
        0.03146420791745186,
        0.09629423916339874,
        -0.2564263343811035,
        0.14932043850421906,
        0.1348182111978531,
        -0.1924259066581726,
        0.06734202802181244,
        -0.035564906895160675,
        0.011222591623663902,
        -0.186830073595047,
        -0.036509089171886444,
        0.32886889576911926,
        -0.16426478326320648,
        -0.11593186110258102,
        0.11502132564783096,
        -0.03225633129477501,
        0.02505119889974594,
        0.3173519968986511,
        0.19776403903961182,
        0.04680807515978813,
        0.45676687359809875,
        -0.13576796650886536,
        -0.24321435391902924,
        -0.31307315826416016,
        0.08668138086795807,
        -0.2839844822883606,
        1.0886181592941284,
        0.21081653237342834,
        0.2451416403055191,
        -0.014185835607349873,
        0.2410653829574585,
        -0.08506514877080917,
        0.27104637026786804,
        -0.150166317820549,
        -0.132806196808815,
        0.41288310289382935,
        -0.22519700229167938,
        -0.3065296709537506,
        -0.006938721518963575,
        -0.1532377302646637,
        -0.091803178191185,
        0.18275685608386993,
        -0.1540154367685318,
        -0.24055978655815125,
        -0.2404230237007141,
        -0.042516980320215225,
        0.04037594795227051,
        0.12383168935775757,
        0.1108822301030159,
        0.2822868824005127,
        0.1521468162536621,
        -0.3513822853565216,
        0.5315314531326294,
        0.4709153175354004,
        -0.04886413365602493,
        -0.06445906311273575,
        0.059248387813568115,
        0.1796850562095642,
        -0.025759708136320114,
        -0.060858353972435,
        0.44062745571136475,
        0.061030637472867966,
        0.022927818819880486,
        -0.09738854318857193,
        0.07095964252948761,
        0.0921759307384491,
        -0.22153079509735107,
        -0.21345558762550354,
        -0.16417443752288818,
        0.1403568685054779,
        0.040124908089637756,
        -0.004319723229855299,
        0.3472804129123688,
        0.03119320422410965,
        0.14939041435718536,
        0.21144291758537292,
        0.05393370985984802,
        0.18968287110328674,
        -0.1394553780555725,
        -0.045260824263095856,
        -0.1539354920387268,
        -0.20268650352954865,
        -0.03736609220504761,
        -0.03835591301321983,
        0.15914487838745117,
        0.011488099582493305,
        0.10623815655708313,
        0.27658966183662415,
        0.0009296750067733228,
        0.07237119227647781,
        0.0967426598072052,
        0.01085628941655159,
        -0.2675587236881256,
        -0.350908488035202,
        0.09036148339509964,
        -0.036562561988830566,
        -0.5373464226722717,
        -1.033374547958374,
        0.2460528314113617,
        -0.3132418990135193,
        0.05861010029911995,
        -0.15069293975830078,
        0.20040254294872284,
        -0.35284438729286194,
        0.06394119560718536,
        0.05284019932150841,
        0.06790655106306076,
        0.26465532183647156,
        -0.15933729708194733,
        0.4340132474899292,
        0.5161782503128052,
        0.239868625998497,
        0.3827575445175171,
        0.14781688153743744,
        0.28926801681518555,
        0.07615862041711807,
        -0.25494277477264404,
        0.20835436880588531,
        -0.5588169097900391,
        -0.09937524795532227,
        -0.24791443347930908,
        -0.17256931960582733,
        -0.22167715430259705,
        -0.03418518975377083,
        0.06466379016637802,
        0.027073653414845467,
        -0.06968751549720764,
        -0.16425897181034088,
        0.0009251633891835809,
        0.06766527891159058,
        -0.16306467354297638,
        0.02301586978137493,
        0.05212962254881859,
        0.23692817986011505,
        0.06839779019355774,
        -0.03009483776986599,
        0.585976779460907,
        -0.0694560632109642,
        0.07044419646263123,
        0.24326036870479584,
        -0.044988617300987244,
        0.20482680201530457,
        0.3568236827850342,
        -0.03755197301506996,
        0.06943333148956299,
        0.11164428293704987,
        0.03830039128661156,
        -0.004151126369833946,
        0.2685047686100006,
        0.07463584095239639,
        -0.028816182166337967,
        0.3402441740036011,
        -0.019162708893418312,
        -0.059387724846601486,
        0.10959339141845703,
        0.03519834205508232,
        0.011399369686841965,
        0.04978848993778229,
        -0.017674323171377182,
        0.10694863647222519,
        -0.22189557552337646,
        -0.07472240179777145,
        -0.16105322539806366,
        0.365682989358902,
        -0.0812888965010643,
        0.007885548286139965,
        0.2966395616531372,
        -0.20871928334236145,
        0.13969048857688904,
        -0.23702871799468994,
        -0.094131238758564,
        0.29099881649017334,
        -0.9013230800628662,
        1.11882746219635,
        -0.3156792223453522,
        -0.19692480564117432,
        0.08666999638080597,
        -0.24492676556110382,
        0.3311672806739807,
        0.3179827928543091,
        -0.13477033376693726,
        0.011794833466410637,
        -0.11879061162471771,
        0.2544286847114563,
        0.09076947718858719,
        -0.23927034437656403,
        -0.5068021416664124,
        0.4255235493183136,
        0.19723542034626007,
        0.18635393679141998,
        -0.1431659609079361,
        -0.27348974347114563,
        0.28854912519454956,
        -0.03039427287876606,
        0.09708545356988907,
        -0.05947478488087654,
        -0.08154929429292679,
        0.2721491754055023,
        -0.00918835960328579,
        -0.06203916668891907,
        0.27003398537635803,
        0.012906720861792564,
        0.14613208174705505,
        0.23886187374591827,
        0.012620389461517334,
        0.13797582685947418,
        -0.04207952693104744,
        -0.0630943700671196,
        -0.0855482891201973,
        0.020449815317988396,
        -0.054437290877103806,
        -0.005107079166918993,
        0.08401363343000412,
        0.11833076924085617,
        -0.0717531144618988,
        -0.2599085569381714,
        0.1154462993144989,
        0.03204065561294556,
        -0.32656893134117126,
        0.08229411393404007,
        0.10248693823814392,
        0.17153385281562805,
        -0.05612810328602791,
        -0.12974993884563446,
        0.39133957028388977,
        0.08884639292955399,
        0.0938275158405304,
        0.20792770385742188,
        0.01732538640499115,
        0.02763911336660385,
        0.004280672408640385,
        0.2565160095691681,
        0.1521015465259552,
        0.016530716791749,
        0.07772321999073029,
        0.1055731251835823,
        0.052975259721279144,
        -0.20349621772766113,
        -0.20998771488666534,
        0.26489874720573425,
        -0.22115547955036163,
        -0.1911083161830902,
        -0.0358421690762043,
        0.005396868567913771,
        -0.12040810286998749,
        0.16187317669391632,
        -0.31217139959335327,
        0.33027195930480957,
        -0.38908839225769043,
        -0.596558690071106,
        -0.5438361763954163,
        -0.12091034650802612,
        -0.04836457967758179,
        -0.23046547174453735,
        0.3559243679046631,
        0.2869518995285034,
        -0.44128191471099854,
        -0.050015389919281006,
        0.1681065559387207,
        0.4823986291885376,
        -0.11955636739730835,
        0.3069649934768677,
        -0.028011441230773926,
        -0.1917715072631836,
        0.30598050355911255,
        -0.4455450773239136,
        0.41890019178390503,
        0.4994143843650818,
        -0.1365121603012085,
        0.1975109577178955,
        0.49860215187072754,
        0.33963844180107117,
        0.48935458064079285,
        0.43797481060028076,
        -0.49455639719963074,
        0.22342631220817566,
        0.019999999552965164
    ]
}