{
    "version": "0.5.0",
    "architecture": "WaveNet",
    "config": {
        "layers": [
            {
                "input_size": 1,
                "condition_size": 1,
                "head_size": 8,
                "channels": 16,
                "kernel_size": 3,
                "dilations": [
                    1,
                    2,
                    4,
                    8,
                    16,
                    32,
                    64,
                    128,
                    256,
                    512
                ],
                "activation": "Tanh",
                "gated": false,
                "head_bias": false
            },
            {
                "input_size": 16,
                "condition_size": 1,
                "head_size": 1,
                "channels": 8,
                "kernel_size": 3,
                "dilations": [
                    1,
                    2,
                    4,
                    8,
                    16,
                    32,
                    64,
                    128,
                    256,
                    512
                ],
                "activation": "Tanh",
                "gated": false,
                "head_bias": true
            }
        ],
        "head": null,
        "head_scale": 0.02
    },
    "weights": [
        0.0029186911415308714,
        0.39167362451553345,
        -0.797531247138977,
        -0.7399158477783203,
        -0.4227847158908844,
        0.2139756679534912,
        -0.0006040286971256137,
        0.6882117390632629,
        0.0005002500838600099,
        0.1824767142534256,
        -0.3617868721485138,
        -0.0828373059630394,
        -0.8022390604019165,
        -0.7034324407577515,
        -0.3332767188549042,
        0.0005178548162803054,
        0.16671109199523926,
        0.1837472915649414,
        -0.2501641511917114,
        0.0658276304602623,
        0.1253211945295334,
        -0.028589608147740364,
        -0.15169383585453033,
        0.04288938269019127,
        0.13479982316493988,
        -0.11023829132318497,
        0.06305526942014694,
        0.024237293750047684,
        -0.20813752710819244,
        -0.09710193425416946,
        0.109090156853199,
        0.24273377656936646,
        -0.02683718502521515,
        -0.2248161882162094,
        -0.1539677381515503,
        -0.1512473076581955,
        0.167281836271286,
        0.24206721782684326,
        0.12473505735397339,
        -0.09008632600307465,
        0.04996366426348686,
        -0.05409149080514908,
        0.20041580498218536,
        -0.021859778091311455,
        -0.04167184978723526,
        -0.23467859625816345,
        -0.013735631480813026,
        0.03913779929280281,
        0.11385326832532883,
        -0.11853938549757004,
        0.028149038553237915,
        0.30156710743904114,
        -0.0656452402472496,
        -0.04580123350024223,
        0.2535286843776703,
        -0.20587195456027985,
        -0.03640461713075638,
        0.04932272061705589,
        -0.20552513003349304,
        -0.1242639571428299,
        0.23364891111850739,
        0.1156730130314827,
        -0.03243500739336014,
        -0.08836987614631653,
        -0.06996212899684906,
        -0.20929135382175446,
        0.07258716970682144,
        -0.10043714940547943,
        -0.0678536519408226,
        0.28911811113357544,
        0.017687877640128136,
        0.0971849337220192,
        -0.10320232808589935,
        0.24975425004959106,
        0.27753204107284546,
        -0.03312274068593979,
        0.15353047847747803,
        0.022177832201123238,
        -0.15127034485340118,
        -0.21493615210056305,
        -0.28512871265411377,
        0.28660720586776733,
        0.19305595755577087,
        -0.051619891077280045,
        -0.12064676731824875,
        -0.14987508952617645,
        -0.16967347264289856,
        0.09644797444343567,
        0.07002709805965424,
        -0.019664980471134186,
        -0.06440483033657074,
        -0.04290410503745079,
        -0.038660600781440735,
        0.21439315378665924,
        -0.03060029447078705,
        0.03742466866970062,
        -0.10855631530284882,
        0.14175958931446075,
        0.027744494378566742,
        -0.24347777664661407,
        0.2641236186027527,
        0.24636512994766235,
        -0.22285275161266327,
        0.09127438068389893,
        0.011645575985312462,
        -0.16459836065769196,
        0.002817563246935606,
        0.021274089813232422,
        -0.17861737310886383,
        -0.1024705022573471,
        -0.2217041552066803,
        0.14087343215942383,
        -0.14251750707626343,
        0.20719066262245178,
        0.06600730866193771,
        -0.13767769932746887,
        0.07288362830877304,
        -0.07874240726232529,
        0.03187738358974457,
        -0.07974396646022797,
        0.14799819886684418,
        0.021762186661362648,
        -0.18332651257514954,
        0.16154026985168457,
        -0.11781240254640579,
        -0.19072885811328888,
        0.06582016497850418,
        -0.09554895758628845,
        0.054328709840774536,
        -0.21713179349899292,
        0.04636954143643379,
        -0.024799250066280365,
        -0.11294497549533844,
        -0.019715428352355957,
        0.21383634209632874,
        -0.10891018062829971,
        0.1591358631849289,
        0.04097241163253784,
        0.12802067399024963,
        0.05867158621549606,
        0.2320874035358429,
        -0.012770330533385277,
        0.1584121733903885,
        -0.1094374880194664,
        -0.015067573636770248,
        -0.03178582713007927,
        0.004796793684363365,
        0.10156740248203278,
        -0.060798678547143936,
        -0.22327490150928497,
        -0.04482139274477959,
        -0.1075887531042099,
        -0.14024122059345245,
        0.17405486106872559,
        0.09868859499692917,
        -0.2392876148223877,
        0.19262631237506866,
        -0.1852574199438095,
        -0.028820931911468506,
        -0.20120540261268616,
        0.09653070569038391,
        -0.04604668170213699,
        -0.08809085935354233,
        -0.06692760437726974,
        -0.1279030293226242,
        -0.004778548143804073,
        -0.11699118465185165,
        0.16663093864917755,
        -0.12719100713729858,
        -0.06399298459291458,
        0.23767288029193878,
        -0.05707070603966713,
        0.06883120536804199,
        0.1552959382534027,
        -0.13740529119968414,
        0.15721242129802704,
        -0.11732187122106552,
        -0.05897507816553116,
        0.02992711029946804,
        -0.07630137354135513,
        0.014107029885053635,
        0.021930931136012077,
        -0.006514162290841341,
        0.04046070948243141,
        -0.039172906428575516,
        0.07331213355064392,
        -0.014338752254843712,
        0.041305989027023315,
        -0.2125295251607895,
        0.08975522220134735,
        0.05483556538820267,
        0.19901612401008606,
        -0.11920085549354553,
        -0.07047376781702042,
        -0.014644011855125427,
        -0.0923755019903183,
        -0.13537171483039856,
        0.16063667833805084,
        -0.08215489238500595,
        -0.05807877331972122,
        0.11542682349681854,
        0.09284795820713043,
        -0.16782905161380768,
        0.0014421443920582533,
        -0.09297435730695724,
        0.14149333536624908,
        -0.12162217497825623,
        0.1316109001636505,
        -0.0555339977145195,
        -0.10863390564918518,
        -0.19627101719379425,
        0.0731133222579956,
        0.03318362310528755,
        -0.022913195192813873,
        -0.10562589764595032,
        6.264305557124317e-05,
        -0.11706498265266418,
        -0.17965182662010193,
        0.09919937700033188,
        -0.1206430122256279,
        -0.11006905138492584,
        0.12834154069423676,
        0.052443984895944595,
        0.09027986973524094,
        -0.11605847626924515,
        0.06706441193819046,
        -0.06727086752653122,
        -0.015470997430384159,
        0.09534340351819992,
        0.08207353204488754,
        0.01755216345191002,
        0.12167619168758392,
        0.010046538896858692,
        0.04815308004617691,
        0.011786223389208317,
        -0.002485215663909912,
        0.08094599843025208,
        -0.10120359063148499,
        -0.1561289280653,
        0.03722627833485603,
        0.06033584475517273,
        0.03099108673632145,
        -0.053158678114414215,
        0.006898939609527588,
        -0.0313476100564003,
        -0.1581934541463852,
        0.09832356125116348,
        -0.22097431123256683,
        -0.013309970498085022,
        -0.026277612894773483,
        -0.17358514666557312,
        0.005504355300217867,
        0.12050024420022964,
        0.025769727304577827,
        -0.041062675416469574,
        -0.07220210880041122,
        -0.19499044120311737,
        0.058302585035562515,
        -0.2150818109512329,
        -0.06715947389602661,
        -0.03799284249544144,
        0.02063547819852829,
        0.04111842066049576,
        0.057620882987976074,
        0.12029159814119339,
        -0.08095384389162064,
        -0.09124244004487991,
        0.11246536672115326,
        0.09147663414478302,
        -0.00632765656337142,
        0.008527066558599472,
        -0.05039587989449501,
        -0.09642819315195084,
        -0.04932166263461113,
        -0.019771024584770203,
        -0.10251346230506897,
        0.291818231344223,
        -0.059246934950351715,
        0.03441207855939865,
        -0.02846716344356537,
        0.08485528081655502,
        -0.08653409034013748,
        -0.07708293199539185,
        0.127919539809227,
        0.060877975076436996,
        0.03835393115878105,
        -0.07655234634876251,
        -0.00023351616982836276,
        0.054897673428058624,
        -0.011858951300382614,
        -0.11756058037281036,
        0.13397842645645142,
        0.01048804260790348,
        -0.05506454035639763,
        0.03346078470349312,
        -0.12118524312973022,
        0.04974362999200821,
        -0.0363173633813858,
        0.031017916277050972,
        -0.09352196753025055,
        0.005983520764857531,
        0.012008881196379662,
        -0.06218269467353821,
        -0.06211034581065178,
        0.024377569556236267,
        -0.12220732867717743,
        -0.06772837042808533,
        0.05768127739429474,
        -0.044802360236644745,
        -0.08617868274450302,
        -0.11781319975852966,
        0.07521094381809235,
        0.1191687360405922,
        -0.050291724503040314,
        0.1552688330411911,
        0.16629335284233093,
        -0.07250815629959106,
        0.09983979165554047,
        0.1310434639453888,
        0.0019655360374599695,
        -0.08486664295196533,
        -0.05823533609509468,
        -0.05608723685145378,
        0.04539940133690834,
        0.2278662472963333,
        0.12741616368293762,
        -0.015119070187211037,
        -0.05147336795926094,
        0.11420521140098572,
        -0.039880670607089996,
        -0.037670575082302094,
        -0.13358747959136963,
        0.05335946008563042,
        0.01751444861292839,
        -0.09697344154119492,
        0.15472614765167236,
        0.18450148403644562,
        0.1502658873796463,
        0.20917759835720062,
        0.18254128098487854,
        -0.031469736248254776,
        0.04870991036295891,
        0.18717536330223083,
        0.08325236290693283,
        0.012478320859372616,
        0.19954514503479004,
        0.07020547986030579,
        0.16907450556755066,
        -0.023346075788140297,
        0.02336510457098484,
        -0.08011015504598618,
        0.015112809836864471,
        -0.07909061759710312,
        0.11372902989387512,
        0.1013004332780838,
        0.07707735151052475,
        0.07833132147789001,
        0.1445886492729187,
        -0.12197347730398178,
        -0.10283534973859787,
        -0.1709292232990265,
        -0.1619204878807068,
        -0.2503719925880432,
        0.04056677967309952,
        0.06525372713804245,
        0.007149521727114916,
        0.04876146465539932,
        -0.12285865098237991,
        0.025825783610343933,
        0.04483526572585106,
        -0.020385144278407097,
        0.07111465930938721,
        -0.18108440935611725,
        -0.05040325969457626,
        -0.007293402217328548,
        -0.012619033455848694,
        0.21832376718521118,
        0.11816826462745667,
        0.04454676806926727,
        0.11421090364456177,
        0.24696941673755646,
        0.028094273060560226,
        0.05177292227745056,
        0.005758881103247404,
        -0.006155197508633137,
        0.1474546194076538,
        -0.03896439075469971,
        0.02437433786690235,
        -0.07222172617912292,
        -0.0651337206363678,
        -0.05712217837572098,
        -0.05210970714688301,
        -0.21346642076969147,
        -0.15139757096767426,
        -0.1248217299580574,
        -0.028048953041434288,
        0.039609331637620926,
        -0.0394185371696949,
        -0.0351170189678669,
        0.13074077665805817,
        0.07847558706998825,
        0.06483271718025208,
        -0.13939380645751953,
        0.21218901872634888,
        0.17323711514472961,
        -0.19802537560462952,
        0.05581970885396004,
        -0.00692876148968935,
        0.04266798868775368,
        -0.00013752887025475502,
        -0.1981126368045807,
        0.07396233826875687,
        0.0486396960914135,
        -0.10237414389848709,
        0.0036269950214773417,
        0.020296946167945862,
        0.06869988888502121,
        -0.13055115938186646,
        0.03932654485106468,
        0.07855816930532455,
        0.027196038514375687,
        -0.008174990303814411,
        0.12096823751926422,
        -0.028522484004497528,
        0.12805910408496857,
        -0.15038493275642395,
        0.023236555978655815,
        -0.04611856862902641,
        0.0395251028239727,
        -0.05293523520231247,
        -0.17619386315345764,
        -0.04939604178071022,
        0.23930689692497253,
        -0.04502984136343002,
        -0.19192104041576385,
        0.05536283552646637,
        -0.05099313706159592,
        -0.22604086995124817,
        0.16557177901268005,
        -0.21077139675617218,
        -0.25273647904396057,
        -0.0417635440826416,
        -0.09961605817079544,
        -0.00493224523961544,
        -0.02850566990673542,
        0.18249566853046417,
        0.047306351363658905,
        -0.008482038974761963,
        0.01674848049879074,
        -0.2578396797180176,
        0.0625327005982399,
        0.038965970277786255,
        -0.008332509547472,
        0.08790912479162216,
        -0.05832284688949585,
        0.26778754591941833,
        -0.018866753205657005,
        0.10648742318153381,
        0.034060847014188766,
        -0.06637971848249435,
        -0.11237801611423492,
        0.08715970069169998,
        -0.0018411470809951425,
        -0.14356054365634918,
        -0.10281123220920563,
        0.1037955954670906,
        0.030563976615667343,
        0.0601104311645031,
        0.03615755960345268,
        -0.07777915149927139,
        -0.07787015289068222,
        0.1718350499868393,
        0.07179493457078934,
        0.07049122452735901,
        0.04302871227264404,
        -0.16781526803970337,
        -0.26373088359832764,
        0.0954120010137558,
        -0.06190604716539383,
        0.1967139095067978,
        -0.14918220043182373,
        -0.04553611949086189,
        0.027193492278456688,
        0.05172310397028923,
        0.022385064512491226,
        0.25693148374557495,
        0.06402398645877838,
        0.1145743727684021,
        0.15077069401741028,
        -0.0733758956193924,
        -0.008337477222084999,
        0.15001341700553894,
        0.03189459443092346,
        -0.13528083264827728,
        -0.008324841968715191,
        -0.004812381695955992,
        -0.03907416760921478,
        -0.1271219551563263,
        0.18192827701568604,
        0.18760722875595093,
        -0.2864840626716614,
        0.22249798476696014,
        0.005260661710053682,
        0.23695214092731476,
        -0.0065395161509513855,
        -0.14372055232524872,
        0.19916915893554688,
        -0.06904135644435883,
        -0.11087588965892792,
        0.19793261587619781,
        -0.17299741506576538,
        0.1540721207857132,
        -0.183922678232193,
        0.08138588815927505,
        -0.0525071807205677,
        0.12430000305175781,
        0.007397592533379793,
        0.07881370186805725,
        -0.0673125684261322,
        0.1124054566025734,
        0.014644400216639042,
        -0.02289702743291855,
        -0.11272654682397842,
        -0.042295727878808975,
        -0.22706863284111023,
        0.0578446090221405,
        0.05904626473784447,
        0.10437548905611038,
        -0.136725515127182,
        -0.12801451981067657,
        0.28248199820518494,
        0.009892170317471027,
        -0.17186148464679718,
        0.03532404825091362,
        -0.23509004712104797,
        -0.06905344128608704,
        0.11485811322927475,
        -0.22357822954654694,
        -0.11750901490449905,
        0.17173072695732117,
        -0.20468562841415405,
        0.03945367410778999,
        -0.08072960376739502,
        0.08808982372283936,
        0.07178817689418793,
        0.07344016432762146,
        -0.024526145309209824,
        -0.04065624624490738,
        -0.18027445673942566,
        0.1855664998292923,
        -0.08369559049606323,
        -0.004324211739003658,
        0.09610752761363983,
        -0.03969650715589523,
        0.16075901687145233,
        -0.06031516566872597,
        0.013958005234599113,
        0.0936315730214119,
        0.03596997633576393,
        -0.030840029940009117,
        -0.26444995403289795,
        -0.0307485219091177,
        -0.08600831776857376,
        0.13279609382152557,
        -0.11950304359197617,
        0.08443421125411987,
        -0.16260403394699097,
        0.023397644981741905,
        0.03028734028339386,
        0.08906648308038712,
        0.0797823965549469,
        0.05067664757370949,
        -0.16252046823501587,
        -0.03951174020767212,
        0.03228001296520233,
        0.23928864300251007,
        -0.11588354408740997,
        -0.10482974350452423,
        0.17567294836044312,
        0.08504593372344971,
        0.012320132926106453,
        0.013325669802725315,
        -0.17647621035575867,
        0.08595635741949081,
        0.11963124573230743,
        -0.12286745011806488,
        0.07398530095815659,
        0.17742466926574707,
        0.05935951694846153,
        0.1141120120882988,
        -0.08284319192171097,
        -0.05225635692477226,
        -0.13272517919540405,
        0.03687334433197975,
        0.1294735074043274,
        -0.02364901639521122,
        -0.26125091314315796,
        0.18518899381160736,
        0.2237553745508194,
        0.2659796476364136,
        -0.18277627229690552,
        0.03205287083983421,
        0.03689490631222725,
        0.0754435658454895,
        0.01773461326956749,
        0.06478146463632584,
        0.0072426749393343925,
        -0.14198029041290283,
        -0.20339661836624146,
        0.05350062623620033,
        -0.025718409568071365,
        -0.03462221845984459,
        0.0579020194709301,
        -0.14844940602779388,
        -0.0796181783080101,
        0.1894572228193283,
        0.0034740862902253866,
        0.053910061717033386,
        0.05183596536517143,
        -0.04931984469294548,
        -0.1930304318666458,
        0.20271629095077515,
        0.10873648524284363,
        -0.022665999829769135,
        -0.12471232563257217,
        -0.0362066887319088,
        0.24890495836734772,
        -0.09292241185903549,
        -0.04485390707850456,
        0.12485389411449432,
        0.03040264919400215,
        0.12234406918287277,
        0.17960809171199799,
        -0.049986280500888824,
        0.12732841074466705,
        0.08472542464733124,
        -0.13165807723999023,
        -0.20058925449848175,
        -0.25160539150238037,
        0.08588256686925888,
        0.056257106363773346,
        -0.0024688192643225193,
        0.06689898669719696,
        0.0726715549826622,
        -0.22583460807800293,
        0.13114866614341736,
        -0.14260511100292206,
        0.2563630938529968,
        -0.11367315798997879,
        -0.0956706777215004,
        0.21519167721271515,
        -0.058374084532260895,
        0.052906643599271774,
        0.029846670106053352,
        -0.12924933433532715,
        0.0074361879378557205,
        -0.10316465049982071,
        0.13933366537094116,
        -0.16570058465003967,
        0.10968460142612457,
        0.03397245332598686,
        0.028115203604102135,
        -0.028726980090141296,
        -0.11025513708591461,
        -0.06664874404668808,
        0.1917765885591507,
        0.0342307910323143,
        0.18892569839954376,
        -0.16417305171489716,
        0.12753501534461975,
        -0.20715884864330292,
        0.1047799214720726,
        -0.04430730640888214,
        -0.037531089037656784,
        0.16780824959278107,
        0.09611178934574127,
        -0.07958576828241348,
        0.13100634515285492,
        0.10126923024654388,
        -0.10103520005941391,
        0.2615810036659241,
        -0.09760045260190964,
        -0.08284870535135269,
        0.11642758548259735,
        0.05239555612206459,
        0.11358610540628433,
        -0.13278622925281525,
        -0.13008254766464233,
        0.01527935080230236,
        -0.02207005023956299,
        -0.06729500740766525,
        -0.007218790706247091,
        0.14924293756484985,
        0.13041213154792786,
        -0.07567711174488068,
        -0.19875766336917877,
        0.11231431365013123,
        -0.19356341660022736,
        -0.028458744287490845,
        0.03304567188024521,
        -0.1475609838962555,
        -0.004485112149268389,
        -0.10971526801586151,
        0.10493475943803787,
        -0.03999347239732742,
        -0.033328913152217865,
        0.005727399606257677,
        0.10308583825826645,
        0.010084545239806175,
        0.1793452352285385,
        0.04300745204091072,
        -0.08233986794948578,
        -0.11266817897558212,
        -0.17170527577400208,
        0.06735838204622269,
        0.031215205788612366,
        0.055677108466625214,
        0.018005382269620895,
        0.016577405855059624,
        0.0706365630030632,
        0.1460241824388504,
        -0.16359296441078186,
        -0.0608423575758934,
        -0.060218870639801025,
        -0.1702800840139389,
        -0.028506385162472725,
        0.14559105038642883,
        -0.20102249085903168,
        0.026885153725743294,
        -0.06080065295100212,
        -0.10593482106924057,
        0.06200765073299408,
        -0.010055833496153355,
        0.04596533626317978,
        -0.07466046512126923,
        0.09528938680887222,
        -0.022418564185500145,
        -0.2541607916355133,
        0.07176578789949417,
        -0.18649551272392273,
        -0.273855984210968,
        0.034242842346429825,
        0.1980772465467453,
        0.11552509665489197,
        0.032590288668870926,
        0.20776577293872833,
        0.25403401255607605,
        -0.11102736741304398,
        0.05972758308053017,
        0.1065741777420044,
        -0.15789496898651123,
        -0.07240774482488632,
        -0.04871775209903717,
        0.16013526916503906,
        0.0313970223069191,
        0.20814728736877441,
        -0.03274759650230408,
        0.028274256736040115,
        -0.2112942934036255,
        -0.06191026046872139,
        -0.03056521899998188,
        0.1935703307390213,
        -0.16894397139549255,
        0.06382910907268524,
        -0.10005353391170502,
        -0.059682562947273254,
        0.03428439795970917,
        0.2601476013660431,
        -0.16983088850975037,
        0.020974937826395035,
        0.20099890232086182,
        -0.16677998006343842,
        0.16307424008846283,
        0.23065753281116486,
        0.05504123121500015,
        -0.011296767741441727,
        0.2981192469596863,
        -0.1234021708369255,
        0.21379902958869934,
        0.002119834069162607,
        -0.1757541447877884,
        0.050412409007549286,
        -0.13085848093032837,
        0.048644937574863434,
        -0.06837057322263718,
        -0.03570615127682686,
        -0.09393595159053802,
        -0.08132069557905197,
        0.013659956865012646,
        0.08234263211488724,
        0.004014118108898401,
        0.013971823267638683,
        0.05050072446465492,
        0.08096806704998016,
        -0.015253347344696522,
        0.01637827791273594,
        0.00733222858980298,
        -0.018874380737543106,
        -0.06721742451190948,
        0.029309434816241264,
        0.2941973805427551,
        -0.2731986343860626,
        0.7173269391059875,
        -0.7168013453483582,
        0.015073568560183048,
        0.8430708646774292,
        0.928192138671875,
        -0.4955591559410095,
        0.09380395710468292,
        0.13639768958091736,
        -0.3463638126850128,
        -0.3093089759349823,
        0.3218356668949127,
        -0.7090128660202026,
        0.16464881598949432,
        0.45853856205940247,
        0.14821763336658478,
        0.17537996172904968,
        -0.04688548296689987,
        0.15552164614200592,
        0.3385864794254303,
        -0.006360439117997885,
        0.10842657834291458,
        -0.05907857045531273,
        -0.10387072712182999,
        0.03768692910671234,
        0.37416872382164,
        0.006308210548013449,
        0.19103780388832092,
        0.05703142285346985,
        0.3366886377334595,
        0.03032737597823143,
        -0.07895322889089584,
        -0.13179050385951996,
        -0.22361774742603302,
        0.09726081788539886,
        -0.012340709567070007,
        -0.0205633956938982,
        0.042465828359127045,
        0.0928710326552391,
        -0.04412882402539253,
        0.11668513715267181,
        0.01998940296471119,
        0.06266431510448456,
        0.06563088297843933,
        -0.058168236166238785,
        0.001336440211161971,
        0.24629566073417664,
        0.0495612695813179,
        0.12989108264446259,
        0.019114378839731216,
        0.20863503217697144,
        -0.11929876357316971,
        -0.10833937674760818,
        0.06968770176172256,
        -0.07343317568302155,
        -0.015197086147964,
        -0.2355680912733078,
        0.15632264316082,
        -0.23723015189170837,
        0.09916090220212936,
        0.2802436649799347,
        0.09192181378602982,
        -0.024284718558192253,
        0.12458404898643494,
        -0.11206381022930145,
        -0.08500911295413971,
        -0.16148553788661957,
        -0.06628861278295517,
        0.04383965954184532,
        0.07342161983251572,
        -0.012300930917263031,
        -0.2063985913991928,
        0.09426730126142502,
        0.001719761872664094,
        0.06335286796092987,
        0.12098736315965652,
        0.2383582442998886,
        -0.18959617614746094,
        -0.05276021361351013,
        -0.17391358315944672,
        -0.2801705300807953,
        -0.29605403542518616,
        0.2474772036075592,
        0.03587469086050987,
        0.03563090041279793,
        0.019185686483979225,
        -0.07869590818881989,
        0.013227700255811214,
        0.2319636344909668,
        0.02362276427447796,
        0.2865312099456787,
        -0.03538243845105171,
        0.261151522397995,
        -0.17809639871120453,
        0.059657346457242966,
        -0.106539286673069,
        -0.14310312271118164,
        0.11794965714216232,
        0.034090545028448105,
        0.3130408525466919,
        0.2698926627635956,
        0.040404416620731354,
        0.12414346635341644,
        0.22618310153484344,
        -0.0031878016889095306,
        -0.08282138407230377,
        -0.107045017182827,
        -0.025010673329234123,
        -0.1565098762512207,
        0.1945725679397583,
        0.06614535301923752,
        -0.2722128629684448,
        0.28140774369239807,
        0.38612639904022217,
        0.07955726236104965,
        -0.39315298199653625,
        -0.2674263119697571,
        -0.07884719967842102,
        0.09272415190935135,
        0.09197486191987991,
        -0.3693160116672516,
        -0.3628363609313965,
        -0.0018544747726991773,
        0.1680394858121872,
        -0.3352738320827484,
        -0.10709785670042038,
        -0.14837315678596497,
        0.2035549432039261,
        0.010249354876577854,
        0.27571630477905273,
        -0.2386372834444046,
        -0.1864166408777237,
        0.09096913039684296,
        0.08261838555335999,
        0.186134472489357,
        0.19029951095581055,
        -0.2999914586544037,
        0.16765937209129333,
        -0.2543552815914154,
        -0.002626027911901474,
        -0.1621694713830948,
        -0.06223064288496971,
        -0.06586642563343048,
        -0.16652359068393707,
        0.0613534078001976,
        -0.09970260411500931,
        -0.32478034496307373,
        0.12111964076757431,
        0.11284535378217697,
        0.017217792570590973,
        -0.08282691985368729,
        -0.16444839537143707,
        -0.004778820089995861,
        0.24636447429656982,
        0.025876693427562714,
        0.1900051087141037,
        -0.2813161015510559,
        0.12727586925029755,
        0.2044823318719864,
        -0.1654852330684662,
        -0.001974245300516486,
        0.20722825825214386,
        -0.24995411932468414,
        -0.23917146027088165,
        0.05918102711439133,
        0.06370636820793152,
        -0.1152946725487709,
        0.03319668024778366,
        0.19272004067897797,
        0.012131907045841217,
        0.03773784264922142,
        0.2575933635234833,
        0.15538139641284943,
        -0.1814412921667099,
        0.07500820606946945,
        0.05127513408660889,
        0.3029603362083435,
        -0.39734333753585815,
        0.2744086980819702,
        -0.2632684111595154,
        -0.2950496971607208,
        -0.008040318265557289,
        -0.24971798062324524,
        -0.13765209913253784,
        -0.0835641622543335,
        -0.04437563568353653,
        0.13625241816043854,
        0.07772258669137955,
        0.3092195987701416,
        -0.1449902057647705,
        0.47950512170791626,
        -0.060671694576740265,
        -0.11934157460927963,
        0.14344395697116852,
        0.051867641508579254,
        0.03927113488316536,
        -0.17596827447414398,
        0.029597682878375053,
        -0.02379562519490719,
        -0.03332854434847832,
        -0.18354766070842743,
        0.0975111722946167,
        -0.15019777417182922,
        -0.1340019553899765,
        0.18977665901184082,
        -0.18769916892051697,
        -0.2621705234050751,
        0.0746103897690773,
        -0.0034157608170062304,
        0.14985068142414093,
        -0.01673232391476631,
        0.19017355144023895,
        -0.00681260647252202,
        -0.0003436204860918224,
        0.13774403929710388,
        0.2412232905626297,
        -0.08896239101886749,
        -0.06852778792381287,
        0.02223789691925049,
        0.1862994134426117,
        -0.25230878591537476,
        0.0003545016807038337,
        0.15186633169651031,
        -0.06537749618291855,
        -0.10972996056079865,
        -0.32236936688423157,
        0.23623666167259216,
        -0.22073741257190704,
        0.03406141698360443,
        -0.04619373008608818,
        -0.04350979998707771,
        -0.13753199577331543,
        -0.010723603889346123,
        -0.041500676423311234,
        0.19281193614006042,
        -0.10475326329469681,
        0.1146082729101181,
        -0.3354168236255646,
        0.304322749376297,
        -0.29274505376815796,
        0.36218225955963135,
        -0.12197147309780121,
        -0.1041450947523117,
        -0.03349769860506058,
        0.04357615485787392,
        -0.0024995405692607164,
        0.032257601618766785,
        -0.3111014664173126,
        0.19306564331054688,
        0.01020796038210392,
        -0.09262684732675552,
        0.2565440833568573,
        0.2111601084470749,
        -0.33762258291244507,
        0.17260727286338806,
        0.22012411057949066,
        0.07488085329532623,
        0.17289099097251892,
        -0.037432439625263214,
        -0.1478290557861328,
        0.1824902445077896,
        0.029418114572763443,
        0.08717339485883713,
        -0.16757585108280182,
        -0.12177156656980515,
        0.06704194098711014,
        -0.10976191610097885,
        0.1747061014175415,
        0.22436009347438812,
        0.04777885973453522,
        0.08327103406190872,
        0.05104398354887962,
        -0.08930182456970215,
        0.14985133707523346,
        -0.1054873839020729,
        -0.09188336879014969,
        0.028339780867099762,
        0.08052939921617508,
        0.025670552626252174,
        0.05840793251991272,
        -0.16985556483268738,
        0.074046291410923,
        -0.009717682376503944,
        -0.01300845853984356,
        0.13243944942951202,
        0.06478320062160492,
        0.014562778174877167,
        0.13913576304912567,
        -0.07082190364599228,
        -0.09371200948953629,
        0.03783279284834862,
        -0.06665058434009552,
        0.1835499256849289,
        -0.17276692390441895,
        -0.045854631811380386,
        0.1900206357240677,
        -0.1861545890569687,
        -0.0057817259803414345,
        0.10139639675617218,
        -0.1467890590429306,
        -0.09721876680850983,
        0.18811868131160736,
        0.25769662857055664,
        -0.07392623275518417,
        -0.12968678772449493,
        -0.3034229278564453,
        -0.1918499618768692,
        0.17087550461292267,
        0.12949925661087036,
        -0.0706927552819252,
        -0.34710243344306946,
        -0.29772043228149414,
        -0.0613107867538929,
        -0.07972212135791779,
        -0.11612443625926971,
        0.1401766538619995,
        0.038712773472070694,
        -0.24367696046829224,
        -0.04596659168601036,
        0.19947659969329834,
        0.07743170112371445,
        0.012458286248147488,
        0.3327586054801941,
        -0.1032475084066391,
        0.05020343139767647,
        0.0953838899731636,
        -0.22982949018478394,
        0.008101651445031166,
        -0.03296397253870964,
        -0.27463674545288086,
        0.06699789315462112,
        0.19680970907211304,
        0.357180655002594,
        0.04648369550704956,
        -0.14878222346305847,
        0.12018854916095734,
        0.2910904586315155,
        0.5794360041618347,
        -0.06866558641195297,
        -0.07191246002912521,
        0.03336852043867111,
        -0.0725817009806633,
        0.018067199736833572,
        0.11407787352800369,
        -0.16103582084178925,
        0.03854504972696304,
        -0.11374999582767487,
        0.09087096154689789,
        -0.10008500516414642,
        0.10380032658576965,
        -0.1600419580936432,
        -0.136014923453331,
        0.013806628063321114,
        0.27122512459754944,
        -0.19089914858341217,
        -0.37317806482315063,
        0.10540517419576645,
        -0.062346987426280975,
        0.0612666942179203,
        0.035396758466959,
        -0.12845361232757568,
        -0.05839066579937935,
        0.22431965172290802,
        -0.018503401428461075,
        -0.15756693482398987,
        0.10722152143716812,
        0.04813597723841667,
        -0.035658098757267,
        -0.266489714384079,
        -0.014916006475687027,
        0.21584802865982056,
        -0.2917584180831909,
        -0.09236166626214981,
        -0.05202547833323479,
        -0.0037234944757074118,
        -0.002670473651960492,
        -0.02678445726633072,
        0.09847986698150635,
        -0.11859248578548431,
        -0.0487629771232605,
        -0.00854183454066515,
        0.2244676649570465,
        0.021197283640503883,
        -0.23072418570518494,
        0.07405988872051239,
        0.09362800419330597,
        0.14189773797988892,
        0.207789808511734,
        -0.20164000988006592,
        0.02324903942644596,
        0.1362789124250412,
        -0.032217320054769516,
        0.12405047565698624,
        0.0855308398604393,
        -0.11059831082820892,
        0.13416780531406403,
        0.06038979813456535,
        0.046090517193078995,
        -0.1386536955833435,
        -0.050150223076343536,
        0.20497409999370575,
        0.06290759891271591,
        -0.41810038685798645,
        -0.43940141797065735,
        -0.090008944272995,
        -0.17601162195205688,
        0.21767255663871765,
        0.11458215117454529,
        -0.07275281101465225,
        -0.16147376596927643,
        0.0745396539568901,
        0.0394744947552681,
        -0.17935675382614136,
        -0.040520746260881424,
        -0.039581138640642166,
        -0.036495134234428406,
        -0.024373942986130714,
        -0.018291588872671127,
        0.17533348500728607,
        0.09734500199556351,
        -0.036278266459703445,
        -0.04811832681298256,
        -0.0044147297739982605,
        -0.0033068533521145582,
        -0.00496539194136858,
        0.036905236542224884,
        0.12448695302009583,
        -0.03363445773720741,
        -0.20900942385196686,
        0.14401452243328094,
        0.2861524820327759,
        -0.13667061924934387,
        -0.18702249228954315,
        0.10612723231315613,
        -0.019725797697901726,
        0.12643662095069885,
        0.02057754620909691,
        0.2124481499195099,
        -0.3984130918979645,
        -0.16487452387809753,
        0.2227901667356491,
        -0.06193181127309799,
        -0.030546799302101135,
        0.1389501839876175,
        -0.2013069987297058,
        0.027851281687617302,
        -0.24698413908481598,
        0.27859723567962646,
        0.05694106966257095,
        -0.04593931511044502,
        0.5039283037185669,
        -0.297014057636261,
        -0.29955917596817017,
        0.26976215839385986,
        0.03788807615637779,
        -0.027644841000437737,
        0.011467053554952145,
        -0.20257620513439178,
        0.12312699854373932,
        -0.08203508704900742,
        -0.1876935213804245,
        0.28415629267692566,
        -0.27288979291915894,
        -0.026774322614073753,
        0.024866055697202682,
        -0.0661853775382042,
        0.3194160759449005,
        0.1290421336889267,
        -0.2300521582365036,
        0.003262919606640935,
        0.1925840526819229,
        -0.31479284167289734,
        -0.0908820852637291,
        0.08487546443939209,
        -0.156251460313797,
        0.031903717666864395,
        -0.11071441322565079,
        0.016549652442336082,
        0.17332012951374054,
        -0.0473749116063118,
        -0.11746925115585327,
        -0.18105514347553253,
        0.08773908764123917,
        0.08746837079524994,
        0.09750431030988693,
        -0.05912322551012039,
        0.049269866198301315,
        -0.01267059613019228,
        -0.08807377517223358,
        0.05058649182319641,
        0.14672961831092834,
        -0.014375630766153336,
        -0.07936498522758484,
        -0.02845609188079834,
        -0.13452228903770447,
        0.10211702436208725,
        -0.1360439658164978,
        0.004130184650421143,
        0.004710966255515814,
        0.07829594612121582,
        -0.0014712018892168999,
        0.15053340792655945,
        0.04165303334593773,
        0.1308150738477707,
        0.08626549690961838,
        -0.0369696207344532,
        -0.10657868534326553,
        -0.12695994973182678,
        0.06635718792676926,
        0.12309431284666061,
        -0.11123904585838318,
        0.05403534695506096,
        0.02587025612592697,
        0.11634483188390732,
        0.05143538862466812,
        -0.2471550554037094,
        -0.07274089008569717,
        0.0719798132777214,
        0.014697778038680553,
        -0.09081949293613434,
        0.08604228496551514,
        -0.03301391005516052,
        -0.15716096758842468,
        -0.027598630636930466,
        0.1075417771935463,
        0.019612226635217667,
        -0.12430080026388168,
        -0.0004409204993862659,
        -0.06608846783638,
        -0.05882726609706879,
        -0.13011454045772552,
        0.20389282703399658,
        0.12485232949256897,
        -0.16642598807811737,
        -0.08091806620359421,
        0.11040935665369034,
        -0.0708138570189476,
        0.050671059638261795,
        0.07788314670324326,
        -0.15977928042411804,
        0.02721252478659153,
        0.020658912137150764,
        0.23674574494361877,
        -0.04609939083456993,
        -0.10817810148000717,
        -0.08080373704433441,
        -0.2489691823720932,
        0.06742861866950989,
        0.2053629606962204,
        -0.08801881968975067,
        0.04902439936995506,
        -0.02334507741034031,
        0.24026982486248016,
        0.12060002237558365,
        0.20830395817756653,
        0.15301570296287537,
        0.09280802309513092,
        -0.03224162757396698,
        0.054232485592365265,
        0.1727937012910843,
        0.17220216989517212,
        -0.40300214290618896,
        0.13597285747528076,
        0.039685364812612534,
        -0.006972508504986763,
        0.11277703195810318,
        -0.156112402677536,
        -0.15222933888435364,
        0.10257890820503235,
        -0.18941707909107208,
        0.1264999359846115,
        -0.06246320903301239,
        0.1380372792482376,
        0.034095361828804016,
        0.00033066715695895255,
        -0.1506330817937851,
        0.10478641092777252,
        0.2565338909626007,
        0.06400468200445175,
        0.09043644368648529,
        -0.28978750109672546,
        0.0347680002450943,
        0.053919028490781784,
        0.06178351491689682,
        0.19411472976207733,
        0.12291067093610764,
        -0.04439152404665947,
        -0.030602889135479927,
        0.21344880759716034,
        -0.04411279037594795,
        0.07342223823070526,
        -0.03139834851026535,
        0.21952670812606812,
        0.2717646360397339,
        -0.06544356793165207,
        -0.1990378499031067,
        -0.1109708696603775,
        -0.0444694459438324,
        0.06672362238168716,
        0.12905514240264893,
        -0.13598531484603882,
        -0.15728609263896942,
        0.13961900770664215,
        -0.09021135419607162,
        -0.16508807241916656,
        0.1719743013381958,
        0.022333616390824318,
        -0.07024674862623215,
        -0.19826172292232513,
        0.0898151770234108,
        0.13518017530441284,
        0.17118021845817566,
        0.1942398101091385,
        0.19473797082901,
        0.06392695754766464,
        0.1386067271232605,
        -0.21441957354545593,
        0.052971575409173965,
        0.05297563597559929,
        -0.12154647707939148,
        -0.14661826193332672,
        -0.04042593389749527,
        0.13280530273914337,
        0.02357831783592701,
        0.05499718338251114,
        -0.0472177192568779,
        0.16265949606895447,
        -0.19306614995002747,
        0.015660129487514496,
        -0.14132830500602722,
        -0.06374911963939667,
        0.20412558317184448,
        -0.09463199228048325,
        -0.17565511167049408,
        -0.024282297119498253,
        -0.019472699612379074,
        -0.25227269530296326,
        -0.05126107484102249,
        0.17194224894046783,
        0.0748443529009819,
        -0.12654860317707062,
        -0.05892912670969963,
        -0.06422324478626251,
        0.2600366175174713,
        0.06107324734330177,
        0.043862927705049515,
        -0.1232776865363121,
        0.08763837814331055,
        -0.1294623166322708,
        0.27906307578086853,
        0.08807250112295151,
        0.006689412984997034,
        0.07523393630981445,
        0.07272079586982727,
        -0.25676295161247253,
        0.10551059246063232,
        -0.3279055655002594,
        0.030562059953808784,
        -0.16984009742736816,
        -0.20933280885219574,
        0.07378803938627243,
        0.024358000606298447,
        -0.10421299189329147,
        -0.05587470531463623,
        0.00560525618493557,
        0.03439373895525932,
        -0.015418622642755508,
        0.29565438628196716,
        -0.05842060595750809,
        0.024490557610988617,
        -0.16556154191493988,
        0.06450366228818893,
        0.5198039412498474,
        -0.46756690740585327,
        -0.273767352104187,
        0.04038161411881447,
        -0.17557300627231598,
        0.02378910221159458,
        0.2730521857738495,
        0.19176670908927917,
        0.00503744650632143,
        0.16831429302692413,
        -0.08717412501573563,
        -0.0742407962679863,
        0.2637786865234375,
        0.002179363276809454,
        0.05758732929825783,
        -0.15554513037204742,
        -0.04665316641330719,
        0.16269932687282562,
        -0.5522570013999939,
        0.403486430644989,
        0.0641070008277893,
        -0.3148593306541443,
        0.10160714387893677,
        -0.025051163509488106,
        -0.07474225014448166,
        0.139724001288414,
        -0.10147612541913986,
        0.06730689108371735,
        -0.1568419188261032,
        -0.16513919830322266,
        0.17278097569942474,
        -0.0828278511762619,
        0.3580073118209839,
        0.14208650588989258,
        0.5265777707099915,
        0.05892712622880936,
        0.20461757481098175,
        0.18945442140102386,
        -0.14558422565460205,
        0.08221384137868881,
        -0.15076099336147308,
        -0.19183549284934998,
        0.04372454434633255,
        -0.03413901850581169,
        0.05229523405432701,
        -0.08024720102548599,
        -0.1820976883172989,
        0.06622198969125748,
        0.05561988055706024,
        0.25339341163635254,
        -0.1546202003955841,
        0.1268714815378189,
        -0.008191090077161789,
        -0.09821203351020813,
        0.05492086708545685,
        -0.03508717939257622,
        -0.06008293479681015,
        0.16945433616638184,
        -0.07195121794939041,
        0.0671638771891594,
        0.04484377056360245,
        -0.12064851820468903,
        -0.07252763211727142,
        -0.15438541769981384,
        0.1475261151790619,
        0.06094476580619812,
        0.0032053333707153797,
        -0.04313143715262413,
        -0.12270152568817139,
        -0.07001200318336487,
        0.20825259387493134,
        -0.06736232340335846,
        0.20316724479198456,
        0.1130402609705925,
        -0.2188688963651657,
        -0.08028025180101395,
        -0.05216095596551895,
        -0.0902550145983696,
        0.1283499151468277,
        -0.0020446835551410913,
        0.14415839314460754,
        -0.15023036301136017,
        0.05223425105214119,
        0.1288277506828308,
        -0.13128598034381866,
        0.0014133562799543142,
        -0.10554375499486923,
        0.111045703291893,
        0.006885031703859568,
        -0.04488995671272278,
        -0.01566377654671669,
        0.05599765479564667,
        -0.0342094860970974,
        -0.05474860966205597,
        0.00669828662648797,
        -0.29753485321998596,
        0.03999850153923035,
        -0.11751803010702133,
        0.0541570670902729,
        -0.029924651607871056,
        0.11968742311000824,
        -0.025334557518363,
        -0.11113091558218002,
        0.033194754272699356,
        -0.06760723888874054,
        -0.04331488162279129,
        0.04877336695790291,
        0.04772701486945152,
        -0.06994044035673141,
        -0.08595270663499832,
        -0.0421590618789196,
        0.16364364326000214,
        -0.01710374653339386,
        0.1214631125330925,
        0.09002598375082016,
        0.05831778794527054,
        -0.06796059012413025,
        0.18673115968704224,
        0.05817847326397896,
        -0.006496926303952932,
        -0.1432821899652481,
        0.14409959316253662,
        0.10105802863836288,
        -0.2762984335422516,
        0.0945984348654747,
        0.19768813252449036,
        -0.17170606553554535,
        -0.03558126091957092,
        -0.14293599128723145,
        0.2682255804538727,
        -0.508012056350708,
        -0.010301603004336357,
        0.22816701233386993,
        0.0180974043905735,
        0.04675032198429108,
        -0.15595164895057678,
        0.0605718158185482,
        0.10426894575357437,
        -0.10123196244239807,
        0.022795867174863815,
        -0.053752269595861435,
        -0.08298426121473312,
        -0.0027201580815017223,
        0.03880530223250389,
        0.0753943994641304,
        0.0855063945055008,
        -0.09182121604681015,
        -0.04686913266777992,
        -0.231746107339859,
        -0.10616176575422287,
        0.2902916967868805,
        0.08235812187194824,
        -0.002294234000146389,
        0.14915190637111664,
        -0.05546025186777115,
        -0.034341488033533096,
        0.11814197897911072,
        -0.19000306725502014,
        0.033704616129398346,
        0.007500004954636097,
        0.08107838034629822,
        0.06655115634202957,
        -0.2942090928554535,
        0.014716891571879387,
        0.15612733364105225,
        -0.023733198642730713,
        0.12548206746578217,
        0.24494130909442902,
        -0.053255192935466766,
        0.15994615852832794,
        -0.18562696874141693,
        0.03562462329864502,
        -0.024925407022237778,
        -0.10818732529878616,
        0.14247481524944305,
        -0.14442305266857147,
        -0.20238377153873444,
        -0.005412228871136904,
        -0.1442384272813797,
        -0.014419014565646648,
        0.02416687086224556,
        0.1006692573428154,
        0.14557036757469177,
        0.1547064632177353,
        -0.05970945954322815,
        0.12091881781816483,
        0.15538455545902252,
        -0.08302775770425797,
        -0.11787737905979156,
        -0.05058962479233742,
        0.08409768342971802,
        -0.08084864169359207,
        -0.125345841050148,
        -0.26584723591804504,
        0.1650068461894989,
        0.062060557305812836,
        -0.029313186183571815,
        0.1225523054599762,
        0.10085898637771606,
        -0.14926747977733612,
        0.04712541401386261,
        0.0944654569029808,
        -0.05502469837665558,
        0.2111467719078064,
        0.006396169774234295,
        -0.14864477515220642,
        -0.13948440551757812,
        -0.18311695754528046,
        0.1877225786447525,
        -0.22660009562969208,
        0.00895671360194683,
        -0.11670712381601334,
        -0.1491108238697052,
        -0.1043519601225853,
        0.16690070927143097,
        -0.12044370919466019,
        -0.007118208799511194,
        0.05829408019781113,
        -0.011393606662750244,
        -0.03256024420261383,
        -0.14634178578853607,
        0.18181411921977997,
        0.16986680030822754,
        -0.04019566997885704,
        0.22590595483779907,
        0.02799266017973423,
        -0.12897007167339325,
        0.05303514003753662,
        -0.0997287705540657,
        0.04061805456876755,
        -0.03563166782259941,
        -0.03664882481098175,
        -0.17142018675804138,
        0.15733525156974792,
        -0.07862930744886398,
        -0.09026321768760681,
        0.06761330366134644,
        0.11940119415521622,
        0.12674851715564728,
        -0.48997992277145386,
        -0.2065691500902176,
        0.2764286994934082,
        0.07878657430410385,
        -0.05356163531541824,
        -0.10428232699632645,
        0.12163392454385757,
        -0.10126838833093643,
        0.015260529704391956,
        0.033770762383937836,
        0.07778546959161758,
        0.004017855506390333,
        0.0592368021607399,
        0.09610983729362488,
        0.0958482027053833,
        -0.15624096989631653,
        0.025463685393333435,
        -0.014436698518693447,
        0.4767815172672272,
        0.1373734474182129,
        -0.23972681164741516,
        0.0553617924451828,
        0.01585729792714119,
        0.07022429257631302,
        0.14390285313129425,
        -0.2358476221561432,
        0.013190445490181446,
        0.24510294198989868,
        -0.2662750482559204,
        0.04083283618092537,
        0.08954565227031708,
        -0.01488806214183569,
        -0.1545926183462143,
        -0.2916209399700165,
        0.2672532796859741,
        -0.030736543238162994,
        -0.007316831033676863,
        0.12022582441568375,
        0.007906614802777767,
        0.1591280698776245,
        0.09344087541103363,
        -0.17589423060417175,
        0.11417131125926971,
        -0.12939521670341492,
        -0.20294304192066193,
        -0.19950255751609802,
        -0.14555945992469788,
        0.10473721474409103,
        -0.29695674777030945,
        0.020573202520608902,
        0.11991263180971146,
        -0.03451385721564293,
        0.1158042624592781,
        -0.2809174358844757,
        0.04564815014600754,
        0.20992682874202728,
        0.021498363465070724,
        0.01578911952674389,
        0.02031267248094082,
        -0.008183351717889309,
        0.033262550830841064,
        0.175277978181839,
        -0.02466869167983532,
        0.04651627317070961,
        -0.20052491128444672,
        0.008555427193641663,
        0.1518833488225937,
        0.15703745186328888,
        -0.14465633034706116,
        -0.05583091452717781,
        -0.10199101269245148,
        -0.03634808957576752,
        0.15650378167629242,
        -0.08099489659070969,
        -0.10141315311193466,
        -0.03224344179034233,
        -0.1721939891576767,
        -0.10965438932180405,
        0.08163562417030334,
        0.2075006365776062,
        0.0225070733577013,
        0.0160637479275465,
        0.011031562462449074,
        0.27455875277519226,
        0.19266468286514282,
        0.02593935839831829,
        0.13116389513015747,
        0.03456075116991997,
        0.045130111277103424,
        -0.06331139802932739,
        0.011952761560678482,
        0.0856756642460823,
        -0.2238294780254364,
        0.043131615966558456,
        -0.056450698524713516,
        0.17247478663921356,
        -0.20238517224788666,
        0.19388447701931,
        -0.06205657869577408,
        0.10286126285791397,
        0.21008197963237762,
        -0.023847287520766258,
        -0.03607548773288727,
        0.18799671530723572,
        -0.015405308455228806,
        0.20290781557559967,
        0.3634376525878906,
        -0.06551142781972885,
        0.020624566823244095,
        0.2681879997253418,
        -0.01660655066370964,
        -0.0648668110370636,
        -0.37257811427116394,
        0.047554537653923035,
        0.2141299992799759,
        -0.0003929554659407586,
        -0.12239454686641693,
        0.03182574734091759,
        -0.3786422610282898,
        -0.04914931207895279,
        -0.25268030166625977,
        -0.27928924560546875,
        -0.2072363942861557,
        0.13364258408546448,
        0.31819361448287964,
        0.29649561643600464,
        0.057889390736818314,
        0.3620913326740265,
        -0.16144560277462006,
        0.14990079402923584,
        0.1168479323387146,
        0.37868672609329224,
        0.04094627499580383,
        -0.060069091618061066,
        0.0702015683054924,
        -0.07329831272363663,
        0.15540122985839844,
        -0.24369174242019653,
        0.04085569456219673,
        -0.033809222280979156,
        -0.1290411651134491,
        0.17050692439079285,
        0.22968685626983643,
        0.32197582721710205,
        -0.04475370794534683,
        0.04417727515101433,
        -0.06783059239387512,
        0.07289363443851471,
        -0.06442144513130188,
        0.01696343533694744,
        0.11552442610263824,
        0.23384003341197968,
        -0.03507700189948082,
        -0.024742644280195236,
        0.005889188963919878,
        0.16299095749855042,
        0.03406542167067528,
        -0.036158546805381775,
        0.0870882198214531,
        -0.3795424699783325,
        -0.6981765031814575,
        0.25178125500679016,
        0.4406813979148865,
        -0.5362616181373596,
        0.18810854852199554,
        -1.0073784589767456,
        -0.28788620233535767,
        -0.5350080728530884,
        0.8412373065948486,
        -1.0474845170974731,
        -0.4798649847507477,
        -0.9850131273269653,
        0.3980740010738373,
        -0.721695601940155,
        0.25921064615249634,
        -0.6420416831970215,
        -0.05460419878363609,
        -0.16604109108448029,
        -0.10497072339057922,
        0.1050209105014801,
        0.23481063544750214,
        0.05529163405299187,
        -0.40063294768333435,
        0.02389727719128132,
        0.11581122130155563,
        -0.17613698542118073,
        0.049547649919986725,
        -0.09465812146663666,
        0.028735477477312088,
        -0.02528916858136654,
        -0.13771019876003265,
        -0.16552257537841797,
        0.07375197857618332,
        -0.07855664193630219,
        0.08127982914447784,
        0.09001242369413376,
        -0.198891282081604,
        0.17676615715026855,
        0.10837262868881226,
        -0.23535379767417908,
        -0.15518039464950562,
        -0.16540269553661346,
        0.23488718271255493,
        0.2647009789943695,
        0.05827420949935913,
        0.17561699450016022,
        0.17481017112731934,
        0.23045766353607178,
        -0.15422509610652924,
        -0.21896898746490479,
        0.090843066573143,
        0.4751969575881958,
        0.17200341820716858,
        0.024686738848686218,
        -0.031713783740997314,
        0.0753583312034607,
        -0.13243615627288818,
        -0.037369754165410995,
        -0.12260948866605759,
        -0.19610731303691864,
        -0.06255116313695908,
        0.08938822895288467,
        0.03760027140378952,
        0.00877140648663044,
        0.2847248613834381,
        0.025381144136190414,
        -0.323881596326828,
        -0.20650672912597656,
        -0.15555869042873383,
        0.13916896283626556,
        -0.20958691835403442,
        0.04841750115156174,
        0.008748650550842285,
        0.04360169544816017,
        0.20849433541297913,
        0.23395931720733643,
        -0.06940334290266037,
        -0.166792631149292,
        -0.04666600376367569,
        -0.04099738970398903,
        0.6989750862121582,
        -0.05022275075316429,
        -0.33389899134635925,
        -0.3891313076019287,
        0.16569285094738007,
        0.3252905309200287,
        -0.176919087767601,
        0.30742934346199036,
        0.11991794407367706,
        -0.016527831554412842,
        0.03831233084201813,
        0.23996418714523315,
        -0.43349048495292664,
        -0.18493960797786713,
        -0.17961475253105164,
        -0.1609073430299759,
        -0.16429686546325684,
        -0.1370733678340912,
        -0.2757684290409088,
        -0.33093586564064026,
        0.010812780819833279,
        -0.13429278135299683,
        -0.113736093044281,
        -0.1484929323196411,
        0.3943329155445099,
        0.24050550162792206,
        -0.2514933943748474,
        -0.20779640972614288,
        -0.05127490684390068,
        -0.3289657235145569,
        0.0737721249461174,
        0.08702482283115387,
        0.08479097485542297,
        -0.026869209483265877,
        0.37791186571121216,
        -0.2001390904188156,
        0.08048359304666519,
        0.19586776196956635,
        0.007617019582539797,
        -0.17729122936725616,
        -0.07726646214723587,
        -0.07833133637905121,
        -0.11812233924865723,
        0.14267078042030334,
        0.15809416770935059,
        0.13231441378593445,
        -0.001332208514213562,
        0.20246849954128265,
        0.25510647892951965,
        0.021638507023453712,
        -0.07715708762407303,
        0.3483436405658722,
        0.16048665344715118,
        0.01617012359201908,
        0.00047454010928049684,
        0.14446602761745453,
        -0.160023033618927,
        0.1743202656507492,
        -0.14045962691307068,
        -0.04507340118288994,
        -0.2119332253932953,
        0.2460833340883255,
        0.07279932498931885,
        0.14996673166751862,
        -0.040421850979328156,
        0.019557980820536613,
        -0.22198183834552765,
        -0.16859181225299835,
        -0.19917434453964233,
        -0.2277839481830597,
        -0.06632938235998154,
        -0.03308512642979622,
        0.034944288432598114,
        -0.016933180391788483,
        0.2095976620912552,
        -0.10360302776098251,
        -0.14799778163433075,
        0.02483184263110161,
        -0.12732680141925812,
        0.40438756346702576,
        -0.32656073570251465,
        -0.04982908442616463,
        0.0980086624622345,
        0.18929806351661682,
        0.05582468956708908,
        -0.2864733040332794,
        0.18490983545780182,
        -0.09129112958908081,
        -0.1829223483800888,
        0.024430174380540848,
        0.16876940429210663,
        0.3042615056037903,
        0.3425843417644501,
        0.07681941241025925,
        0.15629631280899048,
        -0.04769822210073471,
        -0.09414977580308914,
        -0.1220298707485199,
        -0.05669631063938141,
        -0.03025483340024948,
        0.06051591411232948,
        -0.04377284273505211,
        -0.023197537288069725,
        -0.058541279286146164,
        0.049810655415058136,
        0.24178573489189148,
        -0.13993805646896362,
        0.17582690715789795,
        0.02994491532444954,
        0.0037642288953065872,
        -0.035865116864442825,
        0.1023026630282402,
        0.07002022862434387,
        0.36174100637435913,
        -0.11913145333528519,
        0.16510409116744995,
        -0.14879418909549713,
        -0.1753668338060379,
        0.23982453346252441,
        0.2087177187204361,
        -0.3865124583244324,
        0.03898053988814354,
        0.30528753995895386,
        -0.12360736727714539,
        0.004422142636030912,
        0.22963055968284607,
        0.0773068368434906,
        -0.18807286024093628,
        -0.10572030395269394,
        -0.1644945740699768,
        -0.3001190423965454,
        0.27116838097572327,
        -0.04209841042757034,
        -0.020633023232221603,
        -0.1261756867170334,
        0.14151988923549652,
        0.03865379840135574,
        0.08782511949539185,
        -0.2593386471271515,
        -0.14761149883270264,
        0.14369183778762817,
        0.007473953068256378,
        -0.008704680018126965,
        -0.0010547394631430507,
        0.1361745297908783,
        0.07944170385599136,
        -0.11815349757671356,
        0.0580846332013607,
        -0.25390440225601196,
        0.08980417251586914,
        0.020505497232079506,
        -0.07649271190166473,
        0.08547546714544296,
        0.29942888021469116,
        -0.023401178419589996,
        0.08757136017084122,
        0.07407432049512863,
        0.10870996862649918,
        0.08376409113407135,
        -0.10353830456733704,
        -0.050975825637578964,
        0.148582324385643,
        0.14561651647090912,
        -0.010380309075117111,
        -0.10710368305444717,
        -0.1654423624277115,
        0.2539951205253601,
        -0.08726819604635239,
        -0.14640836417675018,
        0.11875899881124496,
        -0.088770791888237,
        0.004315867554396391,
        0.08523909747600555,
        0.16846872866153717,
        0.22527959942817688,
        0.23269718885421753,
        0.2349635660648346,
        -0.15724387764930725,
        -0.28927674889564514,
        0.10105449706315994,
        0.0027709249407052994,
        0.06905496120452881,
        -0.317609041929245,
        0.20662464201450348,
        0.2307252734899521,
        -0.27717068791389465,
        0.21771864593029022,
        -0.09297287464141846,
        -0.378824383020401,
        0.1350553035736084,
        -0.2814507484436035,
        -0.158305823802948,
        -0.17324844002723694,
        0.053535956889390945,
        -0.006297466345131397,
        -0.02566578797996044,
        -0.07385388016700745,
        -0.005360476206988096,
        0.1668747216463089,
        0.03841236233711243,
        0.17425721883773804,
        -0.02938435599207878,
        0.07899685204029083,
        -0.15577103197574615,
        -0.008340218104422092,
        -0.2597438097000122,
        -0.13464400172233582,
        -0.1336708813905716,
        0.2617737054824829,
        -0.0353403240442276,
        -0.0452481247484684,
        -0.06100812554359436,
        -0.07489148527383804,
        -0.030004002153873444,
        0.26519304513931274,
        -0.15350201725959778,
        0.3063010275363922,
        0.09033679962158203,
        -0.25729215145111084,
        -0.06283444166183472,
        0.34333038330078125,
        -0.35440507531166077,
        -0.003083619987592101,
        0.021967260167002678,
        0.1890108287334442,
        -0.13585594296455383,
        -0.23885907232761383,
        0.04910863935947418,
        -0.03711903840303421,
        -0.13357079029083252,
        -0.11336032301187515,
        -0.2851458787918091,
        -0.23864006996154785,
        0.1820991039276123,
        0.02149936743080616,
        -0.11581499874591827,
        0.27796614170074463,
        -0.0378137044608593,
        -0.07960835099220276,
        0.08631026744842529,
        0.009745782241225243,
        0.31698575615882874,
        -0.7754060626029968,
        0.5306726098060608,
        0.18639211356639862,
        -0.14624665677547455,
        0.14444269239902496,
        -0.033999018371105194,
        0.10738150775432587,
        0.033311087638139725,
        0.047342125326395035,
        0.18685054779052734,
        -0.10295848548412323,
        0.26946884393692017,
        -0.32835251092910767,
        0.07871904224157333,
        0.07357665151357651,
        -0.15318602323532104,
        0.2442760169506073,
        -0.1464471071958542,
        0.06794114410877228,
        -0.23666788637638092,
        0.2144048511981964,
        0.037986721843481064,
        -0.017695685848593712,
        -0.07770181447267532,
        -0.11102934926748276,
        -0.14386995136737823,
        0.12079885601997375,
        -0.16590215265750885,
        -0.029490312561392784,
        0.012507066130638123,
        0.1823471188545227,
        0.09217775613069534,
        -0.00510517880320549,
        0.05938541144132614,
        -0.0038706972263753414,
        -0.1697687804698944,
        -0.128553569316864,
        -0.020787419751286507,
        -0.02970789559185505,
        -0.08139273524284363,
        -0.2584799826145172,
        0.11015103757381439,
        0.2357698380947113,
        0.10079377144575119,
        0.18193335831165314,
        0.06810513138771057,
        -0.06738178431987762,
        0.021083781495690346,
        -0.11361941695213318,
        -0.24308918416500092,
        0.04470127448439598,
        0.18522241711616516,
        -0.00438592629507184,
        0.02389322593808174,
        0.018034802749753,
        -0.18656831979751587,
        -0.014603819698095322,
        0.2069547474384308,
        -0.01159619353711605,
        0.17286865413188934,
        -0.15187199413776398,
        0.08696207404136658,
        -0.13674764335155487,
        0.22204454243183136,
        -0.17112593352794647,
        0.20036309957504272,
        -0.22251470386981964,
        -0.05831095576286316,
        0.19833296537399292,
        0.25664153695106506,
        0.18142585456371307,
        0.10361958295106888,
        -0.1720196157693863,
        0.09080018103122711,
        0.1049622967839241,
        -0.18623173236846924,
        0.06277871876955032,
        -0.0775691419839859,
        0.07014182955026627,
        -0.025781456381082535,
        0.11361870914697647,
        -0.2706402838230133,
        0.05137152224779129,
        -0.0702621340751648,
        0.1301758587360382,
        0.03291251137852669,
        0.04628141596913338,
        -0.16482798755168915,
        0.01153394766151905,
        -0.10076500475406647,
        -0.06909531354904175,
        -0.09025225788354874,
        -0.077530138194561,
        -0.07081906497478485,
        0.005739500746130943,
        -0.060399383306503296,
        0.2692120671272278,
        -0.08098774403333664,
        -0.10067849606275558,
        0.3124925196170807,
        0.06700117141008377,
        0.14019399881362915,
        -0.13900023698806763,
        0.13727116584777832,
        0.13480360805988312,
        -0.3298342227935791,
        0.05746317654848099,
        -0.18082822859287262,
        0.14225155115127563,
        -0.014711621217429638,
        -0.06370814889669418,
        -0.20409530401229858,
        0.2267003357410431,
        -0.1574818193912506,
        0.08244297653436661,
        -0.058315157890319824,
        0.06772182136774063,
        -0.02913687750697136,
        -0.18132467567920685,
        0.08322979509830475,
        0.12545886635780334,
        -0.078319251537323,
        0.04910712689161301,
        0.0023959495592862368,
        0.020002305507659912,
        -0.021549655124545097,
        -0.059110984206199646,
        0.1584649682044983,
        0.08004327863454819,
        0.15090426802635193,
        -0.2560807466506958,
        -0.10475602746009827,
        0.05441278591752052,
        0.15526434779167175,
        0.02112080715596676,
        0.11236806213855743,
        -0.07581397891044617,
        -0.09552368521690369,
        -0.1427701860666275,
        -0.3454338312149048,
        0.1750970482826233,
        0.1509687453508377,
        -0.02829371578991413,
        0.07612316310405731,
        -0.19440756738185883,
        -0.1283344179391861,
        0.09564563632011414,
        -0.1343509554862976,
        0.025943981483578682,
        0.20589666068553925,
        0.068524070084095,
        0.07574315369129181,
        0.08362837135791779,
        0.030775565654039383,
        0.0034102618228644133,
        -0.06981559842824936,
        -0.03586909919977188,
        0.17511948943138123,
        0.10092096775770187,
        -0.11103211343288422,
        0.05998406559228897,
        -0.08826743066310883,
        0.08572439104318619,
        0.00021868296607863158,
        -0.018943866714835167,
        0.06739608198404312,
        0.0937698557972908,
        -0.1695321649312973,
        0.07010020315647125,
        -0.060466233640909195,
        -0.317453533411026,
        -0.0789656862616539,
        -0.01937669888138771,
        0.023964526131749153,
        0.130722314119339,
        -0.03412766009569168,
        -0.13525260984897614,
        -0.06729854643344879,
        0.03721865266561508,
        -0.08819802105426788,
        -0.07261037826538086,
        0.007349424995481968,
        0.002926209243014455,
        -0.10654541850090027,
        0.08803120255470276,
        0.23088476061820984,
        0.18525101244449615,
        0.0657084584236145,
        -0.0450315959751606,
        -0.07265959680080414,
        0.12272995710372925,
        0.06260248273611069,
        0.1093113049864769,
        -0.004304993897676468,
        -0.05209514498710632,
        0.0354340486228466,
        0.11887311935424805,
        -0.08701697736978531,
        -0.15948046743869781,
        0.13907605409622192,
        0.025597283616662025,
        -0.09573619067668915,
        0.16248220205307007,
        0.032915178686380386,
        -0.13138864934444427,
        -0.07641710340976715,
        0.052905794233083725,
        -0.10281247645616531,
        -0.3395252823829651,
        -0.01877151057124138,
        -0.052631229162216187,
        0.08092677593231201,
        -0.23048822581768036,
        -0.12031920999288559,
        0.10222826153039932,
        -0.0728168934583664,
        -0.13253937661647797,
        0.0854991003870964,
        0.011007298715412617,
        -0.016855252906680107,
        -0.05351412296295166,
        0.022595658898353577,
        -0.09276101738214493,
        -0.0585579015314579,
        -0.15804676711559296,
        0.02107810042798519,
        0.15526115894317627,
        0.15267018973827362,
        -0.17513057589530945,
        0.001930010155774653,
        0.047887712717056274,
        0.08789534866809845,
        -0.0327310711145401,
        -0.22043849527835846,
        -0.05943688377737999,
        0.2913397550582886,
        -0.14913398027420044,
        0.040591008961200714,
        0.07528243958950043,
        -0.096888467669487,
        -0.13685418665409088,
        0.08782628923654556,
        0.1496572643518448,
        -0.18613766133785248,
        -0.046949852257966995,
        -0.1408124566078186,
        0.063805490732193,
        0.17100763320922852,
        -0.19327478110790253,
        -0.18991103768348694,
        0.02109714224934578,
        0.22638076543807983,
        0.029274139553308487,
        -0.3001004457473755,
        -0.017734944820404053,
        -0.19646012783050537,
        0.0007821094477549195,
        -0.021304097026586533,
        0.008945885114371777,
        -0.039959147572517395,
        0.0567302368581295,
        -0.15900713205337524,
        -0.07629629969596863,
        -0.009982949122786522,
        0.184171661734581,
        0.014545726589858532,
        0.11982758343219757,
        -0.167234867811203,
        -0.015143657103180885,
        -0.03983837738633156,
        0.08133216202259064,
        -0.006166316103190184,
        -0.029395397752523422,
        0.16551744937896729,
        -0.09060453623533249,
        0.0824258029460907,
        -0.055341750383377075,
        -0.17188599705696106,
        -0.17126603424549103,
        0.11680459976196289,
        0.18431030213832855,
        -0.2821901738643646,
        0.21357184648513794,
        -0.03218735381960869,
        -0.18794304132461548,
        0.11843889206647873,
        -0.10716410726308823,
        -0.24648843705654144,
        -0.5258246660232544,
        0.07637476176023483,
        0.036027539521455765,
        -0.12106884270906448,
        0.15836872160434723,
        -0.014907845295965672,
        0.00815423671156168,
        0.044028449803590775,
        -0.2391766905784607,
        0.1219640001654625,
        0.0677257776260376,
        0.24481093883514404,
        -0.2907572090625763,
        -0.04961923137307167,
        -0.028411243110895157,
        0.28588634729385376,
        -0.05506323277950287,
        0.14526471495628357,
        -0.0664273053407669,
        0.0795409083366394,
        0.048877861350774765,
        0.2164095789194107,
        -0.010921777226030827,
        -0.09383748471736908,
        -0.15734805166721344,
        -0.011186538264155388,
        -0.18535800278186798,
        0.028137320652604103,
        -0.15032321214675903,
        -0.07524129748344421,
        0.08830109983682632,
        0.02375088445842266,
        -0.010958927683532238,
        -0.20552293956279755,
        0.0012473368551582098,
        -0.051585160195827484,
        0.14541330933570862,
        0.052992016077041626,
        0.08296602964401245,
        -0.04449974745512009,
        -0.08691473305225372,
        0.04551847651600838,
        0.02776527777314186,
        -0.10781310498714447,
        0.14001904428005219,
        -0.248674213886261,
        -0.04408295825123787,
        -0.05908616632223129,
        0.23118263483047485,
        -0.19916105270385742,
        -0.05125374346971512,
        0.15379658341407776,
        0.1324726641178131,
        -0.015809353440999985,
        -0.15530888736248016,
        0.018331339582800865,
        0.10615631192922592,
        -0.19858790934085846,
        -0.06410407274961472,
        -0.2256336361169815,
        0.09062560647726059,
        0.021986979991197586,
        -0.16384315490722656,
        0.09782061725854874,
        -0.03156161308288574,
        0.1853204220533371,
        -0.26356324553489685,
        0.04046456143260002,
        0.10892939567565918,
        0.08176810294389725,
        -0.010828847996890545,
        0.0344257578253746,
        -0.0511879101395607,
        0.08597501367330551,
        -0.19685456156730652,
        -0.041130777448415756,
        0.021578334271907806,
        -0.1030782014131546,
        0.029611967504024506,
        -0.1317533254623413,
        0.15517932176589966,
        -0.3060734272003174,
        0.03979087620973587,
        0.06800180673599243,
        -0.017280304804444313,
        0.04656960070133209,
        0.09885076433420181,
        -0.2567768692970276,
        -0.013041788712143898,
        0.1575324833393097,
        0.03134747967123985,
        0.11447600275278091,
        0.05810495838522911,
        -0.16823771595954895,
        -0.11233454942703247,
        -0.06446269154548645,
        0.2748839855194092,
        -0.036942292004823685,
        -0.22518013417720795,
        0.2547898590564728,
        0.00659146485850215,
        0.033817216753959656,
        -0.25389039516448975,
        0.06977301090955734,
        0.20541292428970337,
        -0.0991046354174614,
        -0.008917502127587795,
        -0.0047669680789113045,
        0.30929505825042725,
        0.04367480427026749,
        -0.04750106483697891,
        -0.10717209428548813,
        0.03841903433203697,
        0.026503317058086395,
        0.18913522362709045,
        -0.030872564762830734,
        -0.037450291216373444,
        -0.11322014778852463,
        -0.03741748258471489,
        -0.06608369946479797,
        0.02969832345843315,
        -0.12315429002046585,
        -0.017810432240366936,
        0.003985493443906307,
        0.09519068896770477,
        -0.0606822595000267,
        0.054802294820547104,
        0.02729051746428013,
        -0.1393865942955017,
        0.14546547830104828,
        -0.25709858536720276,
        -0.08667050302028656,
        -0.23095425963401794,
        -0.07213996350765228,
        -0.05786990374326706,
        -0.11993961036205292,
        0.08638599514961243,
        0.10699643939733505,
        -0.03487538546323776,
        -0.0482027642428875,
        0.10965044051408768,
        0.16750982403755188,
        -0.08818825334310532,
        -0.06773622334003448,
        -0.035161688923835754,
        -0.1441296935081482,
        0.0418647862970829,
        -0.08981570601463318,
        0.009203391149640083,
        -0.025121457874774933,
        -0.022868234664201736,
        -0.07182824611663818,
        -0.018735088407993317,
        0.23231370747089386,
        -0.18889370560646057,
        0.13281823694705963,
        -0.13136079907417297,
        0.02960277535021305,
        -0.3065531253814697,
        -0.10317760705947876,
        -1.9035987861570902e-05,
        0.08228813856840134,
        0.08870801329612732,
        -0.08865033090114594,
        0.25334063172340393,
        0.11289966851472855,
        -0.21267956495285034,
        -0.02327515184879303,
        0.030257737264037132,
        -0.2814594805240631,
        -0.02007146179676056,
        -0.23299548029899597,
        -0.49066823720932007,
        -0.15177972614765167,
        -0.014110881835222244,
        0.25021326541900635,
        0.11240476369857788,
        0.09632077068090439,
        -0.18213479220867157,
        -0.11374586075544357,
        0.04038853943347931,
        0.14541515707969666,
        0.19708260893821716,
        0.24649769067764282,
        -0.13487520813941956,
        0.25021296739578247,
        0.10754223167896271,
        0.1633591651916504,
        0.21403299272060394,
        0.10598956048488617,
        -0.22174020111560822,
        0.2738547623157501,
        -0.1172243058681488,
        0.18181383609771729,
        -0.13710056245326996,
        0.04877689480781555,
        0.062247101217508316,
        0.22218352556228638,
        -0.1190064549446106,
        -0.367684543132782,
        0.09131791442632675,
        0.22645878791809082,
        -0.35826200246810913,
        -0.2343350350856781,
        -0.3174702525138855,
        -0.08212944120168686,
        0.08410175889730453,
        -0.12199615687131882,
        0.044902198016643524,
        -0.12656226754188538,
        -0.10087887197732925,
        0.03974582627415657,
        -0.043526697903871536,
        -0.12346425652503967,
        0.1443413943052292,
        -0.20383453369140625,
        -0.04738117754459381,
        0.09994196146726608,
        0.025758614763617516,
        -0.166789710521698,
        0.08549673855304718,
        -0.034180667251348495,
        -0.074830062687397,
        -0.09138058871030807,
        -0.07976145297288895,
        0.1986355185508728,
        0.17398127913475037,
        0.14397096633911133,
        -0.125523641705513,
        -0.19045747816562653,
        -0.1893870234489441,
        0.07780473679304123,
        -0.10392991453409195,
        -0.1977425068616867,
        0.09493350982666016,
        -0.12363506853580475,
        -0.20395305752754211,
        -0.13360188901424408,
        -0.04493575543165207,
        0.15159755945205688,
        -0.2059726119041443,
        0.10881044715642929,
        0.06519763171672821,
        -0.07360037416219711,
        -0.06577183306217194,
        -0.15142391622066498,
        -0.1009509265422821,
        0.2147682160139084,
        -0.21325375139713287,
        -0.13218314945697784,
        0.14150674641132355,
        0.12104295194149017,
        -0.26240602135658264,
        -0.1388065218925476,
        -0.04582697153091431,
        -0.07344796508550644,
        0.24894367158412933,
        0.011664087884128094,
        0.060643959790468216,
        -0.16826222836971283,
        -0.16948245465755463,
        -0.08573784679174423,
        -0.1868131160736084,
        -0.047396063804626465,
        0.05450155586004257,
        0.014169340021908283,
        0.1039009839296341,
        0.0744745060801506,
        0.10038530081510544,
        0.05087890848517418,
        0.01779318042099476,
        0.10971938818693161,
        -0.14533399045467377,
        0.14244352281093597,
        -0.1552332192659378,
        -0.0433422215282917,
        -0.20140273869037628,
        -0.04115794226527214,
        -0.11491073668003082,
        -0.2011995017528534,
        -0.013045910745859146,
        -0.1787349283695221,
        0.08656874299049377,
        -0.08653576672077179,
        0.07923993468284607,
        0.22870315611362457,
        -0.01619528979063034,
        0.2110416442155838,
        -0.02398093417286873,
        0.07821359485387802,
        -0.13479028642177582,
        0.12976409494876862,
        -0.25103700160980225,
        0.09152432531118393,
        0.16382670402526855,
        0.03837495669722557,
        -0.04949001222848892,
        0.1517825424671173,
        -0.23889438807964325,
        0.17248223721981049,
        -0.1473362296819687,
        0.1091189831495285,
        -0.05062446743249893,
        0.04968657344579697,
        0.1540558785200119,
        0.07185517251491547,
        -0.036132317036390305,
        -0.1744348406791687,
        0.21612055599689484,
        0.08659916371107101,
        -0.19753104448318481,
        -0.026131857186555862,
        0.03688526898622513,
        0.15904638171195984,
        0.010597449727356434,
        0.14962488412857056,
        0.19184528291225433,
        -0.15096677839756012,
        -0.12290385365486145,
        0.02983056753873825,
        0.047853611409664154,
        -0.022564277052879333,
        -0.1917683631181717,
        -0.16236649453639984,
        -0.051899656653404236,
        -0.00711662694811821,
        -0.026004094630479813,
        0.03137827664613724,
        -0.10507417470216751,
        -0.004278453998267651,
        -0.06938543915748596,
        -0.012604111805558205,
        0.2037539929151535,
        0.22406864166259766,
        -0.20295020937919617,
        0.07360683381557465,
        -0.06817444413900375,
        0.12437932193279266,
        -0.08757595717906952,
        0.00455760583281517,
        0.0018588987877592444,
        0.23157210648059845,
        0.2616763710975647,
        -0.1798940747976303,
        -0.018452640622854233,
        0.08048871159553528,
        -0.20110999047756195,
        -0.04661133885383606,
        -0.053611960262060165,
        0.23661741614341736,
        0.11310280114412308,
        0.18168842792510986,
        0.07670184224843979,
        0.06991250067949295,
        -0.07819230109453201,
        0.09266939014196396,
        0.0672457367181778,
        0.06531946361064911,
        0.2283296436071396,
        -0.1321711391210556,
        -0.2552550435066223,
        -0.0700884610414505,
        -0.054877012968063354,
        -0.13633069396018982,
        -0.21681858599185944,
        0.08821787685155869,
        -0.01546531543135643,
        -0.17996850609779358,
        -0.12227112799882889,
        -0.049836836755275726,
        -0.0513983853161335,
        0.08272998034954071,
        0.11738070845603943,
        -0.023170841857790947,
        0.1333523839712143,
        -0.1244560107588768,
        0.1675722599029541,
        0.09409511089324951,
        -0.004153075627982616,
        0.15088438987731934,
        -0.08493901044130325,
        -0.08082500845193863,
        0.19141334295272827,
        -0.1637028604745865,
        0.21833938360214233,
        -0.18413420021533966,
        -0.16082856059074402,
        -0.24772430956363678,
        -0.07499942928552628,
        -0.07151245325803757,
        -0.17755748331546783,
        0.16240601241588593,
        -0.011179091408848763,
        -0.16110458970069885,
        0.1979399174451828,
        0.03694060444831848,
        0.18273529410362244,
        -0.1303301602602005,
        -0.05371246114373207,
        0.09084390103816986,
        0.12475695461034775,
        -0.020028037950396538,
        0.03328302875161171,
        0.10295753180980682,
        -0.11002494394779205,
        0.10305584222078323,
        0.03287016227841377,
        -0.157443106174469,
        0.0560452826321125,
        0.051067378371953964,
        -0.07682786136865616,
        0.11783557385206223,
        -0.05060182139277458,
        0.04211825877428055,
        -0.07271674275398254,
        -0.02672356553375721,
        0.02981305681169033,
        -0.08549048751592636,
        -0.004951589275151491,
        0.033723730593919754,
        0.16329985857009888,
        0.03925956040620804,
        0.011999672278761864,
        -0.06283517181873322,
        0.07927051931619644,
        0.004533037543296814,
        -0.012413796037435532,
        0.11994089186191559,
        -0.04068101570010185,
        -0.21093519032001495,
        0.04932524636387825,
        -0.1306566298007965,
        0.08142448216676712,
        -0.1237756535410881,
        -0.011364742182195187,
        0.1745355725288391,
        0.09781469404697418,
        -0.02180192433297634,
        0.012577519752085209,
        -0.09396111220121384,
        0.1912679225206375,
        -0.050377149134874344,
        0.03966343775391579,
        -0.11150160431861877,
        -0.04392901808023453,
        0.11045806109905243,
        0.01576845720410347,
        -0.054530173540115356,
        0.07215464115142822,
        -0.009644211269915104,
        0.09359224140644073,
        0.11025333404541016,
        -0.09194685518741608,
        -0.08877404779195786,
        0.031627506017684937,
        0.025191904976963997,
        0.19019749760627747,
        0.028915224596858025,
        -0.1605233997106552,
        0.1113581582903862,
        -0.014183992519974709,
        0.06635924428701401,
        -0.403383731842041,
        -0.22019599378108978,
        0.616239607334137,
        0.4874649941921234,
        -0.7121513485908508,
        -0.05358990281820297,
        -0.13723315298557281,
        -0.20129597187042236,
        0.41945138573646545,
        -0.5924943089485168,
        1.5322471857070923,
        0.5044227838516235,
        0.30846500396728516,
        -0.10019899159669876,
        -0.2600086033344269,
        -0.8370678424835205,
        0.3148840069770813,
        -0.2029910683631897,
        0.367348849773407,
        -0.26726409792900085,
        0.20462046563625336,
        0.29878565669059753,
        0.0904097929596901,
        -0.01167124230414629,
        0.3478528559207916,
        -0.014316672459244728,
        0.2570296823978424,
        0.1659967303276062,
        -0.24486520886421204,
        -0.17134222388267517,
        0.10458770394325256,
        0.0013544599059969187,
        0.29441359639167786,
        0.10414119809865952,
        7.887085666880012e-05,
        0.2905709743499756,
        0.10980153828859329,
        0.015498735010623932,
        0.15161976218223572,
        -0.30438750982284546,
        -0.4550515115261078,
        0.14139039814472198,
        0.0889522135257721,
        -0.17299489676952362,
        0.13230012357234955,
        0.40495356917381287,
        -0.054393719881772995,
        -0.010697741061449051,
        -0.1947667896747589,
        -0.23397871851921082,
        -0.1277112066745758,
        -0.2894725501537323,
        0.10705454647541046,
        0.1380033940076828,
        0.3484201431274414,
        -0.22941358387470245,
        -0.44502314925193787,
        -0.11875096708536148,
        -0.09898533672094345,
        0.20593371987342834,
        0.19036971032619476,
        -0.3427392840385437,
        0.1413542479276657,
        -0.015371555462479591,
        0.4623115658760071,
        0.06701195985078812,
        0.20467737317085266,
        -0.2036772519350052,
        0.035709198564291,
        0.10434435307979584,
        -0.12297267466783524,
        0.23469235002994537,
        0.1835835874080658,
        -0.012928266078233719,
        -0.2940031886100769,
        0.2365623563528061,
        -0.10818886011838913,
        0.08456527441740036,
        0.417976438999176,
        0.1638737916946411,
        0.08004934340715408,
        -0.26017770171165466,
        0.26812294125556946,
        -0.3457261323928833,
        0.3478284776210785,
        0.16247771680355072,
        -0.00357615714892745,
        0.09362299740314484,
        0.17668496072292328,
        -0.07989564538002014,
        -0.41856566071510315,
        0.05756228044629097,
        -0.543066143989563,
        -0.28216519951820374,
        0.3852114677429199,
        0.14276917278766632,
        -0.12695838510990143,
        -0.12449415028095245,
        0.06034233048558235,
        0.0101605374366045,
        -0.19753216207027435,
        0.09468186646699905,
        0.3261381685733795,
        -0.01996161788702011,
        -0.06558682024478912,
        -0.24032631516456604,
        0.12873180210590363,
        0.1738423854112625,
        0.2774300277233124,
        -0.0875232070684433,
        0.051046114414930344,
        -0.04919920861721039,
        0.13737979531288147,
        0.29566240310668945,
        -0.17679081857204437,
        0.23242248594760895,
        -0.018554657697677612,
        -0.23534850776195526,
        0.32657530903816223,
        -0.05865485221147537,
        -0.37449443340301514,
        0.16915015876293182,
        0.23212139308452606,
        -0.15056751668453217,
        0.2441943734884262,
        0.1598319560289383,
        -0.23941831290721893,
        -0.11422112584114075,
        0.35517778992652893,
        0.252566933631897,
        -0.2160613238811493,
        0.0011278673773631454,
        -0.03981173783540726,
        -0.16708151996135712,
        0.416436105966568,
        -0.14339879155158997,
        -0.2529422640800476,
        0.1186547726392746,
        0.36792728304862976,
        0.2992386817932129,
        0.2187705636024475,
        0.20935611426830292,
        -0.20714379847049713,
        -0.1051596850156784,
        -0.49849796295166016,
        0.2000516951084137,
        -0.1769159734249115,
        0.17395733296871185,
        0.22283953428268433,
        -0.1135137751698494,
        -0.5002168416976929,
        0.1781204491853714,
        -0.04969770833849907,
        0.1550043225288391,
        -0.30395081639289856,
        0.16480432450771332,
        -0.432365357875824,
        -0.038145776838064194,
        -0.1235015019774437,
        0.06346256285905838,
        0.0764913484454155,
        -0.015927232801914215,
        -0.3293127417564392,
        0.3224041163921356,
        0.0037628428544849157,
        0.11964840441942215,
        -0.04393457621335983,
        -0.22460268437862396,
        -0.13049229979515076,
        0.09265568852424622,
        0.1920936405658722,
        -0.16684956848621368,
        -0.039379239082336426,
        0.07040680199861526,
        0.024203095585107803,
        -0.1306355893611908,
        0.13973021507263184,
        -0.12394062429666519,
        0.04199802502989769,
        -0.21927593648433685,
        0.08271536976099014,
        -0.18432092666625977,
        0.03338475897908211,
        0.180244579911232,
        0.3156365752220154,
        -0.005714139901101589,
        -0.26313021779060364,
        0.05130224674940109,
        -0.1272982656955719,
        -0.16153283417224884,
        0.0583672896027565,
        0.24146930873394012,
        0.09022995084524155,
        0.09241621196269989,
        -0.24976184964179993,
        0.1969473958015442,
        -0.08612242341041565,
        0.3704684376716614,
        0.5370834469795227,
        0.02093435823917389,
        -0.27083897590637207,
        -0.15417303144931793,
        -0.2602534592151642,
        0.30331990122795105,
        -0.08282420039176941,
        -0.32096508145332336,
        -0.010378983803093433,
        -0.05815485864877701,
        0.042288485914468765,
        -0.06172855570912361,
        -0.06785272806882858,
        -0.1848803162574768,
        0.4290790557861328,
        -0.028704114258289337,
        -0.39146268367767334,
        -0.21847067773342133,
        0.2852000892162323,
        0.07495366036891937,
        -0.05892157554626465,
        -0.14115019142627716,
        0.1309291571378708,
        -0.08152837306261063,
        0.4504835903644562,
        -0.05567839741706848,
        -0.21674863994121552,
        0.17395347356796265,
        -0.09992148727178574,
        -0.04950418323278427,
        0.16835735738277435,
        -0.23565572500228882,
        -0.08093968033790588,
        -0.13920684158802032,
        0.14437644183635712,
        0.08323442935943604,
        0.08792136609554291,
        -0.35203295946121216,
        -0.111196368932724,
        0.34715479612350464,
        -0.15375131368637085,
        0.17310237884521484,
        0.07841476052999496,
        0.3115371763706207,
        -0.27505388855934143,
        0.14957524836063385,
        -0.22907300293445587,
        -0.1190149337053299,
        0.28712227940559387,
        -0.37418022751808167,
        -0.11227128654718399,
        0.22749966382980347,
        0.1925317943096161,
        0.18717482686042786,
        0.1368297040462494,
        0.1921541541814804,
        -0.2987040579319,
        -0.23435662686824799,
        0.10992341488599777,
        -0.11048854142427444,
        -0.19642309844493866,
        -0.10963623225688934,
        -0.01346042100340128,
        0.19955052435398102,
        0.192415252327919,
        -0.39034706354141235,
        -0.14959995448589325,
        0.15344300866127014,
        0.30941593647003174,
        0.2947166860103607,
        -0.041999198496341705,
        -0.26154789328575134,
        -0.1110982671380043,
        0.09038183093070984,
        -0.07273540645837784,
        -0.009354379028081894,
        0.048783522099256516,
        0.10797914862632751,
        0.031236322596669197,
        0.013729196041822433,
        0.03181915357708931,
        -0.046520132571458817,
        0.02562062442302704,
        -0.17290997505187988,
        0.047101330012083054,
        0.09373664110898972,
        -0.006804163102060556,
        0.043422408401966095,
        -0.0062785279005765915,
        -0.050623856484889984,
        0.2495194971561432,
        0.05748477950692177,
        -0.09534455835819244,
        -0.17847760021686554,
        -0.061835091561079025,
        0.22541306912899017,
        -0.044010549783706665,
