{
    "version": "0.5.0",
    "architecture": "WaveNet",
    "config": {
        "layers": [
            {
                "input_size": 1,
                "condition_size": 1,
                "head_size": 4,
                "channels": 8,
                "kernel_size": 3,
                "dilations": [
                    1,
                    2,
                    4,
                    8,
                    16,
                    32,
                    64
                ],
                "activation": "Tanh",
                "gated": false,
                "head_bias": false
            },
            {
                "input_size": 8,
                "condition_size": 1,
                "head_size": 1,
                "channels": 4,
                "kernel_size": 3,
                "dilations": [
                    128,
                    256,
                    512,
                    1,
                    2,
                    4,
                    8,
                    16,
                    32,
                    64,
                    128,
                    256,
                    512
                ],
                "activation": "Tanh",
                "gated": false,
                "head_bias": true
            }
        ],
        "head": null,
        "head_scale": 0.02
    },
    "weights": [
        0.13573771715164185,
        0.604972243309021,
        -1.0113149881362915,
        -0.7429571151733398,
        -0.5849716067314148,
        0.029445264488458633,
        -0.3179570734500885,
        0.9314302802085876,
        0.01382136158645153,
        -0.10217829048633575,
        0.010497676208615303,
        -0.07504864037036896,
        -0.3741563856601715,
        -0.14623752236366272,
        -0.04834910109639168,
        0.19142770767211914,
        0.09495607018470764,
        0.15639060735702515,
        0.04683021083474159,
        -0.07378394901752472,
        0.10351106524467468,
        0.3502233922481537,
        -0.033846087753772736,
        0.13275766372680664,
        -0.10064566880464554,
        0.025672249495983124,
        0.10150080174207687,
        -0.1101718544960022,
        -0.17545738816261292,
        -0.08727280050516129,
        -0.2611068785190582,
        0.1618741750717163,
        -0.07435387372970581,
        -0.06840887665748596,
        -0.3881414234638214,
        -0.19575782120227814,
        -0.14670316874980927,
        -0.07353229075670242,
        0.08924826979637146,
        0.12148173153400421,
        0.2598637342453003,
        -0.11039850860834122,
        0.05224049091339111,
        0.057998109608888626,
        -0.15355980396270752,
        -0.08601466566324234,
        0.3779909014701843,
        0.019844116643071175,
        -0.19990165531635284,
        -0.15075838565826416,
        0.04024876654148102,
        0.039368968456983566,
        0.1863299161195755,
        0.028657324612140656,
        0.11359764635562897,
        -0.36706769466400146,
        -0.11419930309057236,
        -0.3439933955669403,
        0.07794828712940216,
        -0.22626949846744537,
        -0.042098965495824814,
        0.26561012864112854,
        0.003978443332016468,
        0.2014615684747696,
        -0.07021540403366089,
        0.09868478029966354,
        0.15114539861679077,
        -0.13206413388252258,
        0.2502424716949463,
        0.3345041573047638,
        -0.34768393635749817,
        -0.04441292583942413,
        0.0639062374830246,
        0.24164323508739471,
        0.2628653943538666,
        0.3189127445220947,
        -0.12542270123958588,
        -0.3014470934867859,
        -0.1185440793633461,
        0.053330689668655396,
        0.022187309339642525,
        0.06465992331504822,
        0.2149132937192917,
        -0.09596971422433853,
        -0.10604070127010345,
        -0.07115857303142548,
        -0.14341062307357788,
        0.054926104843616486,
        0.11873301863670349,
        -0.23249579966068268,
        0.2230307161808014,
        0.14314191043376923,
        0.025113731622695923,
        0.22155609726905823,
        -0.16767218708992004,
        -0.1713835746049881,
        0.0479719340801239,
        0.02032012678682804,
        -0.43806663155555725,
        -0.044723931699991226,
        0.20230211317539215,
        0.2464475780725479,
        -0.23529645800590515,
        -0.09188398718833923,
        -0.00448852451518178,
        -0.18119695782661438,
        -0.35673657059669495,
        -0.018638715147972107,
        -0.1554107367992401,
        -0.13872858881950378,
        -0.22643746435642242,
        0.26941996812820435,
        0.04992670565843582,
        0.038227733224630356,
        0.2898384928703308,
        0.0023675186093896627,
        -0.20303975045681,
        0.15404722094535828,
        0.20393072068691254,
        0.0011015227064490318,
        0.019088996574282646,
        0.017724791541695595,
        -0.4534047842025757,
        0.047136090695858,
        -0.18637563288211823,
        0.020170798525214195,
        -0.19743867218494415,
        -0.2726278007030487,
        0.1353919506072998,
        -0.3694652318954468,
        0.14831946790218353,
        0.22839483618736267,
        -0.27777430415153503,
        0.16297698020935059,
        -0.03797499090433121,
        0.13305744528770447,
        -0.16719840466976166,
        -0.19689202308654785,
        0.20372247695922852,
        -0.03959663212299347,
        0.0016467232489958405,
        0.2852739095687866,
        0.016252249479293823,
        -0.05713130161166191,
        -0.20776857435703278,
        -0.0575469434261322,
        -0.20193062722682953,
        0.15699270367622375,
        -0.3008933961391449,
        0.027130505070090294,
        -0.34216269850730896,
        -0.0006317222723737359,
        -0.19318784773349762,
        0.3293549716472626,
        0.043611299246549606,
        -0.2697064280509949,
        0.34147119522094727,
        -0.1662936955690384,
        0.03151058033108711,
        -0.302551805973053,
        -0.035615645349025726,
        0.03624908998608589,
        -0.40511131286621094,
        -0.17482593655586243,
        0.05188662186264992,
        -0.2159588783979416,
        -0.08387847244739532,
        0.12933960556983948,
        -0.10314469784498215,
        -0.015483231283724308,
        0.4307723343372345,
        -0.20349931716918945,
        0.25497934222221375,
        0.0003750838222913444,
        0.033140506595373154,
        0.1258111149072647,
        -0.19841408729553223,
        -0.423169881105423,
        0.16689787805080414,
        -0.32466554641723633,
        -0.2534635365009308,
        -0.07238103449344635,
        0.3094083070755005,
        0.33822864294052124,
        0.1272861212491989,
        0.2440578043460846,
        0.24087142944335938,
        -0.008301541209220886,
        0.0016286148456856608,
        0.4006381928920746,
        0.1930869221687317,
        -0.036438122391700745,
        -0.2746548652648926,
        -0.15043920278549194,
        -0.0026888560969382524,
        0.21892821788787842,
        -0.13543841242790222,
        -0.09116971492767334,
        -0.3984307646751404,
        -0.033425018191337585,
        0.024002475664019585,
        0.14646826684474945,
        -0.10283524543046951,
        -0.19870273768901825,
        -0.06866246461868286,
        0.10367820411920547,
        -0.1351267546415329,
        0.030390355736017227,
        0.3408181667327881,
        -0.12160173058509827,
        0.16666068136692047,
        -0.2439330816268921,
        -0.05044063553214073,
        -0.059829309582710266,
        -0.004797947593033314,
        0.10112030059099197,
        -0.2627358138561249,
        -0.22849096357822418,
        0.3164558708667755,
        -0.5299119353294373,
        -0.21229377388954163,
        0.19092561304569244,
        0.29356658458709717,
        0.09081298857927322,
        -0.45978689193725586,
        0.21572905778884888,
        -0.36695244908332825,
        -0.19952018558979034,
        -0.18997658789157867,
        -0.04525962844491005,
        0.00472096586599946,
        0.3934468626976013,
        0.26781198382377625,
        0.4251043498516083,
        0.2666665017604828,
        -0.15525053441524506,
        0.21642529964447021,
        -0.07935475558042526,
        -0.3003263473510742,
        0.17872700095176697,
        -0.22107335925102234,
        0.16130146384239197,
        -0.25918617844581604,
        -0.05764841288328171,
        0.020367098972201347,
        -0.4946824908256531,
        0.4544837474822998,
        -0.3445136845111847,
        0.07424575090408325,
        0.005878848023712635,
        -0.16230978071689606,
        0.18965329229831696,
        0.38114893436431885,
        0.014935292303562164,
        -0.3511766195297241,
        -0.11779798567295074,
        -0.15640690922737122,
        0.05489083752036095,
        0.006511094979941845,
        0.15018819272518158,
        0.16371892392635345,
        0.4144233167171478,
        -0.07103532552719116,
        0.22421026229858398,
        0.13351821899414062,
        0.16522116959095,
        -0.25470781326293945,
        0.2317357361316681,
        0.4987093508243561,
        0.2546551823616028,
        -0.3886670470237732,
        -0.1213054433465004,
        -0.3754345178604126,
        0.04920206964015961,
        -0.19547750055789948,
        -0.37085574865341187,
        0.29360872507095337,
        -0.3524441123008728,
        0.0647229254245758,
        0.15390364825725555,
        0.06072821468114853,
        -0.13027870655059814,
        -0.21461616456508636,
        0.2043616771697998,
        0.05320548638701439,
        0.08472158014774323,
        -0.050036460161209106,
        0.07181412726640701,
        0.05244007334113121,
        0.10640103369951248,
        -0.2459261268377304,
        0.2328469455242157,
        0.25870558619499207,
        0.03058319166302681,
        -0.07943353056907654,
        -0.20123393833637238,
        0.21418792009353638,
        -0.2708194851875305,
        -0.007147185038775206,
        -0.15195971727371216,
        -0.22547829151153564,
        -0.1319114714860916,
        0.011679091490805149,
        0.06911663711071014,
        0.019940856844186783,
        -0.10047230124473572,
        -0.0461953841149807,
        -0.028396356850862503,
        0.1364637315273285,
        0.09446576982736588,
        -0.02668485976755619,
        -0.05212767422199249,
        0.1154511570930481,
        -0.0959976390004158,
        0.2621179521083832,
        0.03994464501738548,
        -0.29224488139152527,
        0.03661239892244339,
        0.07428392767906189,
        0.049863122403621674,
        -0.08673905581235886,
        0.06688325852155685,
        -0.2292378842830658,
        0.1849595457315445,
        0.15742221474647522,
        0.26356837153434753,
        0.00826189573854208,
        0.013300107792019844,
        0.11215467005968094,
        -0.18194738030433655,
        -0.17748935520648956,
        -0.10572179406881332,
        0.06686189025640488,
        0.05878089368343353,
        -0.25048941373825073,
        0.12459501624107361,
        -0.12738515436649323,
        0.5751033425331116,
        0.10314776748418808,
        0.0607566311955452,
        0.32937708497047424,
        -0.05565468966960907,
        0.34791311621665955,
        -0.17408215999603271,
        -0.09705332666635513,
        -0.16282670199871063,
        0.26351991295814514,
        0.08330239355564117,
        0.06472910940647125,
        -0.48179951310157776,
        -0.04856882989406586,
        0.41191479563713074,
        -0.10921812802553177,
        0.1948341429233551,
        0.33957937359809875,
        -0.3533346652984619,
        -0.046832263469696045,
        0.0435340590775013,
        0.24278289079666138,
        0.06571417301893234,
        -0.3390752077102661,
        -0.10845477133989334,
        0.010976739227771759,
        -0.08612123131752014,
        0.1018311008810997,
        0.15669479966163635,
        0.30494028329849243,
        -0.2110290676355362,
        -0.21399421989917755,
        -0.12601161003112793,
        -0.03114967606961727,
        0.1330055445432663,
        0.07852062582969666,
        -0.08030252903699875,
        -0.28224068880081177,
        -0.07566524296998978,
        0.11737610399723053,
        0.12416848540306091,
        0.3170487880706787,
        0.07524650543928146,
        0.10170688480138779,
        -0.24285931885242462,
        0.06590239703655243,
        0.20260165631771088,
        -0.10220073908567429,
        -0.022435851395130157,
        0.3386417627334595,
        0.04541957750916481,
        -0.10383341461420059,
        0.3553783595561981,
        0.16024570167064667,
        0.1448301374912262,
        -0.24620847404003143,
        -0.1861320585012436,
        -0.18391437828540802,
        -0.05357711762189865,
        0.324006050825119,
        0.2181788831949234,
        -0.43252041935920715,
        0.16987033188343048,
        0.25423240661621094,
        -0.004600952845066786,
        0.023547854274511337,
        0.40961965918540955,
        -0.08836007863283157,
        -0.26836809515953064,
        0.08246598392724991,
        0.36874476075172424,
        -0.025517482310533524,
        0.16520464420318604,
        -0.12939228117465973,
        0.14365625381469727,
        0.30614912509918213,
        0.05250309780240059,
        -0.178363636136055,
        -0.11966206878423691,
        -0.10547443479299545,
        -0.14248612523078918,
        -0.016347693279385567,
        0.11952690780162811,
        -0.25860244035720825,
        -0.25634703040122986,
        -0.07878534495830536,
        0.12192971259355545,
        0.10794787108898163,
        -0.18710371851921082,
        -0.2221875786781311,
        -0.24979174137115479,
        -0.08287661522626877,
        0.19560407102108002,
        -0.04031040146946907,
        0.15888258814811707,
        0.034622371196746826,
        -0.24526113271713257,
        -0.2092764526605606,
        0.0018756631761789322,
        0.05426494777202606,
        -0.02840391919016838,
        0.14495542645454407,
        -0.025849035009741783,
        -0.20166389644145966,
        -0.08913981169462204,
        -0.1013588160276413,
        -0.015431983396410942,
        -0.15972621738910675,
        0.3319290578365326,
        -0.1926937997341156,
        0.04716291278600693,
        0.11360283195972443,
        -0.15306629240512848,
        0.1869482398033142,
        0.2543328106403351,
        0.15977153182029724,
        0.10372333228588104,
        -0.2128671407699585,
        0.2314445972442627,
        -0.07783031463623047,
        0.17938287556171417,
        -0.07110778242349625,
        -0.13906745612621307,
        -0.08785650879144669,
        -0.01919998601078987,
        0.10039451718330383,
        -0.23530729115009308,
        0.01241239719092846,
        -0.008328042924404144,
        0.0940878689289093,
        -0.17689824104309082,
        -0.08993111550807953,
        -0.09840056300163269,
        0.03838713839650154,
        0.21548475325107574,
        0.08987078070640564,
        -0.0019131983863189816,
        0.11558520793914795,
        -0.2543694078922272,
        -0.10795445740222931,
        0.049297794699668884,
        0.010271874256432056,
        0.2371000051498413,
        -0.1572236716747284,
        -0.10666979849338531,
        -0.1256132572889328,
        0.11183372884988785,
        -0.022487729787826538,
        0.128179132938385,
        0.10792455077171326,
        0.11877956241369247,
        -0.035461973398923874,
        -0.3126068413257599,
        -0.3319801092147827,
        0.29547807574272156,
        0.8568768501281738,
        -0.5063242316246033,
        1.0141762495040894,
        0.14967015385627747,
        -0.32976728677749634,
        -0.3838442265987396,
        0.2663373351097107,
        0.3753124475479126,
        0.14348246157169342,
        0.1781482696533203,
        0.29815778136253357,
        0.22868113219738007,
        0.3448033630847931,
        -0.4531131088733673,
        0.3224233388900757,
        0.18061335384845734,
        -0.0723048746585846,
        0.1570585072040558,
        -0.1450434923171997,
        0.28261077404022217,
        -0.2685392498970032,
        0.03624260425567627,
        -0.11859317123889923,
        0.19737079739570618,
        -0.12168978154659271,
        -0.0173930786550045,
        0.2856549918651581,
        0.021441709250211716,
        0.22662866115570068,
        -0.0682259202003479,
        0.2721032500267029,
        -0.3606085479259491,
        -0.28667986392974854,
        -0.15742133557796478,
        0.16878432035446167,
        -0.15520961582660675,
        -0.013405309058725834,
        -0.25365471839904785,
        0.5139766931533813,
        0.320496529340744,
        -0.13378991186618805,
        -0.24994038045406342,
        -0.3545428216457367,
        0.11535850167274475,
        -0.16941016912460327,
        0.07462204247713089,
        0.04805227741599083,
        -0.1519659161567688,
        -0.8077092170715332,
        -0.03351763263344765,
        -0.29566043615341187,
        -0.23218105733394623,
        0.12061050534248352,
        0.278798907995224,
        0.01303933560848236,
        -0.21257688105106354,
        -0.4260219931602478,
        0.4387451112270355,
        -0.34226587414741516,
        -0.2791082262992859,
        0.2691950500011444,
        -0.13672493398189545,
        -0.011659793555736542,
        0.11577567458152771,
        -0.033400293439626694,
        -0.16296128928661346,
        0.18058662116527557,
        -0.04231690242886543,
        -0.28880998492240906,
        -0.10514698177576065,
        -0.04032392427325249,
        0.10951891541481018,
        -0.18769016861915588,
        0.22520509362220764,
        -0.036541715264320374,
        -0.08319850265979767,
        0.007352048996835947,
        -0.0474398173391819,
        0.1850799322128296,
        -0.13282853364944458,
        -0.21166159212589264,
        -0.10103309899568558,
        0.16546320915222168,
        0.1261742264032364,
        -0.2619938254356384,
        -0.2803381085395813,
        0.14532685279846191,
        0.2982344627380371,
        -0.015817435458302498,
        -0.16591854393482208,
        -0.39395251870155334,
        0.03079025074839592,
        -0.010826834477484226,
        -0.08098778128623962,
        0.023978151381015778,
        0.10436929017305374,
        0.14878499507904053,
        -0.0949985533952713,
        -0.15731008350849152,
        -0.050982631742954254,
        -0.138579323887825,
        0.0485662966966629,
        0.2227027863264084,
        0.16124628484249115,
        -0.17505978047847748,
        0.19083073735237122,
        0.2098332941532135,
        0.27993524074554443,
        -0.1786264181137085,
        0.004296168219298124,
        -0.09122727066278458,
        0.19455692172050476,
        -0.010917036794126034,
        0.10955382138490677,
        0.17241360247135162,
        -0.14413493871688843,
        -0.04749590530991554,
        -0.05881055071949959,
        0.08800952881574631,
        0.052656687796115875,
        0.2026491016149521,
        -0.11648212373256683,
        -0.04368407279253006,
        0.1621396243572235,
        0.04817214235663414,
        -0.03379145637154579,
        -0.027865802869200706,
        0.1953277587890625,
        -0.020608488470315933,
        0.10897400975227356,
        -0.15466952323913574,
        -0.2600318491458893,
        0.05701252445578575,
        0.008516160771250725,
        0.25530755519866943,
        -0.10761481523513794,
        -0.2758815288543701,
        -0.04812256246805191,
        0.14479444921016693,
        0.1579284369945526,
        0.14563998579978943,
        0.11379549652338028,
        0.17455671727657318,
        0.01976407691836357,
        -0.0723356306552887,
        -0.0095665929839015,
        -0.06352141499519348,
        0.015277157537639141,
        -0.09540701657533646,
        -0.033790770918130875,
        0.14884799718856812,
        -0.17305752635002136,
        -0.3780159652233124,
        0.2848891615867615,
        0.12025967240333557,
        0.21667198836803436,
        -0.24267587065696716,
        -0.24584314227104187,
        -0.04220105707645416,
        -0.028188616037368774,
        0.17364980280399323,
        -0.31827616691589355,
        -0.1741001158952713,
        -0.30249908566474915,
        -0.11689773947000504,
        0.10252110660076141,
        -0.13300389051437378,
        0.07363361120223999,
        0.05370711907744408,
        -0.25520798563957214,
        0.045001424849033356,
        -0.10262196511030197,
        0.07085549831390381,
        0.5288366079330444,
        -0.16059358417987823,
        0.2098381221294403,
        0.10243339836597443,
        0.038916464895009995,
        -0.23503290116786957,
        -0.026038365438580513,
        0.23538833856582642,
        0.12773799896240234,
        0.051480863243341446,
        0.21317078173160553,
        -0.008191638626158237,
        -0.013738049194216728,
        0.4814613461494446,
        -0.055660754442214966,
        0.12724599242210388,
        -0.04812636971473694,
        -0.11773019284009933,
        -0.19744063913822174,
        0.3058158755302429,
        0.23344790935516357,
        0.01911618746817112,
        -0.4236176311969757,
        -0.07378501445055008,
        0.28625723719596863,
        -0.19320456683635712,
        -0.23351030051708221,
        0.1075516864657402,
        0.006133443675935268,
        0.054950032383203506,
        -0.2966857850551605,
        0.2352379709482193,
        -0.17180317640304565,
        0.03292299807071686,
        0.02011871337890625,
        -0.11458121985197067,
        -0.06244518607854843,
        -0.24938496947288513,
        0.1319480985403061,
        -0.2575073540210724,
        0.05390385910868645,
        0.05493597313761711,
        -0.119772769510746,
        -0.031663984060287476,
        0.13106587529182434,
        0.0733465775847435,
        -0.2005009800195694,
        -0.09089133888483047,
        0.22394125163555145,
        0.04151701182126999,
        -0.040968943387269974,
        0.30299311876296997,
        -0.12450577318668365,
        0.03761173039674759,
        0.029590921476483345,
        0.31401240825653076,
        -0.19469045102596283,
        0.05664648488163948,
        -0.07261780649423599,
        -0.26882827281951904,
        0.045320410281419754,
        0.2382693588733673,
        -0.15919598937034607,
        0.07376596331596375,
        -0.06505383551120758,
        -0.30438482761383057,
        -0.05689502879977226,
        -0.027466993778944016,
        0.2082022875547409,
        0.03721623122692108,
        -0.004390337970107794,
        -0.10292627662420273,
        -0.07061078399419785,
        0.023038143292069435,
        -0.4094097912311554,
        -0.31190139055252075,
        0.1428193747997284,
        0.4808652400970459,
        -0.08410081267356873,
        0.009054702706634998,
        0.006946371402591467,
        -0.021904675289988518,
        -0.09342682361602783,
        0.04766834154725075,
        -0.18988056480884552,
        -0.30433791875839233,
        -0.1244770735502243,
        -0.04233986511826515,
        0.1120593473315239,
        0.062024325132369995,
        -0.017854146659374237,
        0.017406519502401352,
        -0.1329079568386078,
        -0.09163737297058105,
        -0.04525791108608246,
        0.044890813529491425,
        0.09182282537221909,
        -0.132485032081604,
        0.06910993158817291,
        0.08998186886310577,
        -0.10847903788089752,
        -0.013444791547954082,
        0.07285121828317642,
        -0.5094815492630005,
        -0.30935442447662354,
        0.1993720680475235,
        -0.7245014309883118,
        0.06464683264493942,
        0.42929020524024963,
        0.3143859803676605,
        -0.4120054543018341,
        0.2732907831668854,
        -0.28415969014167786,
        0.5107813477516174,
        -0.3765028417110443,
        -0.3261968195438385,
        0.2543448209762573,
        -0.004484507720917463,
        0.02340107597410679,
        -0.38740232586860657,
        -0.6134119629859924,
        0.013989522121846676,
        -0.6053589582443237,
        0.19389939308166504,
        0.34200847148895264,
        0.15404565632343292,
        -0.03220351040363312,
        0.4381200075149536,
        -0.013658562675118446,
        -0.19939666986465454,
        -0.11908557265996933,
        -0.2827083170413971,
        -0.3818703591823578,
        -0.028978290036320686,
        -0.013131027109920979,
        -0.002821951638907194,
        -0.32909971475601196,
        0.34002256393432617,
        -0.3866649270057678,
        0.11674419790506363,
        0.4229240417480469,
        0.413123220205307,
        -0.3430444002151489,
        0.12800145149230957,
        0.1573134958744049,
        -0.15262073278427124,
        -0.039596449583768845,
        0.02287961170077324,
        -0.20313550531864166,
        -0.03432667255401611,
        0.18008342385292053,
        0.03215055540204048,
        0.43756911158561707,
        -0.14636988937854767,
        0.20029760897159576,
        0.6104854345321655,
        -0.12245211005210876,
        0.18409617245197296,
        -0.1489170342683792,
        -0.2191724330186844,
        -0.12902148067951202,
        0.003713813377544284,
        -0.24648012220859528,
        0.555294930934906,
        0.03653411939740181,
        0.09091368317604065,
        -0.2696506083011627,
        -0.052699245512485504,
        -0.22364065051078796,
        -0.31480857729911804,
        0.11630377918481827,
        0.0901549831032753,
        -0.22306551039218903,
        0.07227945327758789,
        0.07837916165590286,
        -0.027060678228735924,
        0.32338714599609375,
        0.11212959885597229,
        0.09543576836585999,
        0.17542341351509094,
        -0.12859198451042175,
        0.19393642246723175,
        0.16839681565761566,
        0.06466007977724075,
        -0.12037745118141174,
        -0.009280183352530003,
        0.1911308318376541,
        -0.2889930009841919,
        -0.09625862538814545,
        -0.01334579847753048,
        0.09706728905439377,
        -0.2495604008436203,
        -0.04958875849843025,
        -0.005945180077105761,
        -0.11256754398345947,
        0.023876601830124855,
        0.2155771702528,
        -0.12700238823890686,
        -0.06217244267463684,
        0.11010859906673431,
        -0.025325365364551544,
        -0.039539091289043427,
        -0.00936555489897728,
        0.02772052213549614,
        0.06984950602054596,
        -0.1966141015291214,
        0.061764489859342575,
        -0.22930483520030975,
        0.07387044280767441,
        -0.05810686945915222,
        0.06496043503284454,
        0.28859743475914,
        0.1652260422706604,
        -0.06405499577522278,
        -0.22370561957359314,
        0.1618947982788086,
        -0.19119800627231598,
        -0.06917542964220047,
        0.0707683265209198,
        0.003709647338837385,
        0.05776236951351166,
        0.20689821243286133,
        -0.16235922276973724,
        0.10304724425077438,
        0.1662679761648178,
        -0.018296757712960243,
        0.12697291374206543,
        -0.07103828340768814,
        0.20076768100261688,
        0.042602937668561935,
        0.03642002493143082,
        -0.18921205401420593,
        0.0034048946108669043,
        0.07468263059854507,
        -0.10037751495838165,
        0.09696996957063675,
        0.25805994868278503,
        0.1683540642261505,
        0.1695663183927536,
        -0.050315678119659424,
        -0.08512821048498154,
        -0.12938319146633148,
        0.010533451102674007,
        0.022098161280155182,
        -0.21243716776371002,
        0.042027730494737625,
        0.04844855144619942,
        0.00010016452142735943,
        0.08690372854471207,
        -0.13040992617607117,
        0.17786401510238647,
        0.008381787687540054,
        -0.09334615617990494,
        0.06834420561790466,
        0.09096771478652954,
        0.35283297300338745,
        -0.3165031969547272,
        -0.1671462208032608,
        0.3207516670227051,
        0.09867510199546814,
        -0.24353507161140442,
        -0.09674356877803802,
        -0.1314687877893448,
        0.1797090619802475,
        0.24263830482959747,
        0.27834272384643555,
        -0.2761874496936798,
        -0.4219263792037964,
        0.2157743275165558,
        0.20316745340824127,
        0.020098144188523293,
        0.44369545578956604,
        -0.16658653318881989,
        0.0834016278386116,
        0.6150532960891724,
        -0.14697444438934326,
        0.0662941187620163,
        -0.23235198855400085,
        0.12032335996627808,
        -0.1552971750497818,
        0.10250259190797806,
        -0.23129487037658691,
        -0.2432970404624939,
        0.19690652191638947,
        -0.1298445612192154,
        -0.06865706294775009,
        -0.20365044474601746,
        -0.011979610659182072,
        -0.23490135371685028,
        0.13087007403373718,
        0.036013923585414886,
        0.09694607555866241,
        -0.1808263212442398,
        0.17313948273658752,
        0.015604125335812569,
        -0.29560816287994385,
        -0.036995187401771545,
        0.1162063330411911,
        -0.556547999382019,
        -0.20088286697864532,
        -0.05007743835449219,
        0.34136179089546204,
        -0.27331578731536865,
        -0.0709940567612648,
        -0.1275457739830017,
        0.03661864250898361,
        -0.02027282305061817,
        -0.01593269221484661,
        0.10441198945045471,
        -0.045974645763635635,
        0.25857633352279663,
        0.05161544308066368,
        0.08918028324842453,
        -0.42357155680656433,
        0.0935981497168541,
        -0.014494610019028187,
        -0.03813130035996437,
        -0.20230478048324585,
        -0.08534297347068787,
        0.09596145153045654,
        -0.1741684526205063,
        -0.1111593246459961,
        -0.05631405487656593,
        -0.2608482241630554,
        -0.0011871084570884705,
        -0.0849967673420906,
        0.15766052901744843,
        -0.08147427439689636,
        -0.025245774537324905,
        0.232452392578125,
        -0.06890504062175751,
        -0.0578601248562336,
        -0.006685489322990179,
        0.004648782778531313,
        0.059334710240364075,
        -0.21268008649349213,
        -0.19215521216392517,
        -0.0598023347556591,
        -0.12419538199901581,
        0.07071029394865036,
        0.12104816734790802,
        -0.18460571765899658,
        -0.05401446670293808,
        -0.16208557784557343,
        -0.1006598174571991,
        0.05771145224571228,
        0.009288634173572063,
        0.14640821516513824,
        -0.16581754386425018,
        -0.11227661371231079,
        0.13401857018470764,
        0.33274972438812256,
        -0.09069070219993591,
        -0.1469750851392746,
        0.1868044137954712,
        -0.10037562996149063,
        -0.17027287185192108,
        -0.1597202569246292,
        0.44969746470451355,
        -0.1008305773139,
        -0.10017069429159164,
        -0.20709852874279022,
        0.15114319324493408,
        -0.182576522231102,
        0.11806459724903107,
        0.03703372925519943,
        -0.0655064731836319,
        -0.15763074159622192,
        -0.048057638108730316,
        0.06973832100629807,
        0.07854261249303818,
        -0.03281530737876892,
        -0.0735093280673027,
        -0.4098014533519745,
        0.17393408715724945,
        -0.16460905969142914,
        0.11184297502040863,
        -0.029099490493535995,
        -0.07581876963376999,
        0.05543442443013191,
        -0.01675262302160263,
        0.16845306754112244,
        0.12876513600349426,
        -0.6683160066604614,
        0.4075034558773041,
        -0.03682584688067436,
        -0.4868777394294739,
        0.4675773084163666,
        1.0872448682785034,
        -0.67556232213974,
        0.09838514775037766,
        0.25466543436050415,
        0.11352576315402985,
        0.18311509490013123,
        -0.3442175090312958,
        -0.3843713104724884,
        0.3586021065711975,
        0.09023872017860413,
        0.6582220196723938,
        -0.16459663212299347,
        -0.206759512424469,
        0.04495025798678398,
        -0.6920798420906067,
        0.2933928668498993,
        0.3610527813434601,
        0.08079119771718979,
        -0.009533724747598171,
        0.18705709278583527,
        -0.17409715056419373,
        0.41591382026672363,
        -0.578819990158081,
        -0.1371212899684906,
        -0.25950464606285095,
        0.3294357359409332,
        0.1677706092596054,
        0.19104017317295074,
        -0.2782008647918701,
        0.16534480452537537,
        -0.3022013306617737,
        0.1587805449962616,
        0.27064093947410583,
        0.1583499014377594,
        0.11679842323064804,
        -0.007639701943844557,
        -0.1656220257282257,
        -0.1003032997250557,
        0.37764406204223633,
        -0.46866104006767273,
        0.23421648144721985,
        -0.07980415225028992,
        0.012672027572989464,
        0.10721226781606674,
        -0.3207698464393616,
        0.08738570660352707,
        -0.5157416462898254,
        0.17232507467269897,
        -0.16902503371238708,
        0.2986777424812317,
        0.43814757466316223,
        -0.1516914814710617,
        0.20716702938079834,
        -0.28380948305130005,
        -0.5464954972267151,
        0.26770785450935364,
        0.015523438341915607,
        -0.21837258338928223,
        -0.38135987520217896,
        -0.2823345363140106,
        0.18158166110515594,
        -0.45356863737106323,
        -0.316785603761673,
        0.06367138028144836,
        -0.41952988505363464,
        -0.42530548572540283,
        -0.20160792768001556,
        -0.0612124502658844,
        -0.22292041778564453,
        -0.14350439608097076,
        0.024695351719856262,
        -0.2765271067619324,
        -0.036186058074235916,
        -0.202825129032135,
        -0.19044621288776398,
        0.013395596295595169,
        -0.2854982018470764,
        0.043006740510463715,
        0.047114018350839615,
        -0.2021845281124115,
        0.49279773235321045,
        0.07250208407640457,
        0.08291200548410416,
        -0.097780242562294,
        -0.11071118712425232,
        -0.06662113219499588,
        0.058105114847421646,
        0.03267419710755348,
        0.27286213636398315,
        -0.3541993200778961,
        0.03762808442115784,
        0.3671451807022095,
        -0.19828468561172485,
        -0.0436631515622139,
        -0.2665395438671112,
        0.3533647656440735,
        -0.2518911361694336,
        -0.0284261591732502,
        -0.011694854125380516,
        -0.1457866132259369,
        -0.1447511911392212,
        0.5865456461906433,
        -0.08099011331796646,
        -0.28636083006858826,
        0.5005104541778564,
        0.05925808846950531,
        0.27323636412620544,
        -0.2718537151813507,
        -0.07635501027107239,
        -0.34399375319480896,
        0.4626372456550598,
        0.08900439739227295,
        0.06036749482154846,
        -0.11373662948608398,
        0.09513947367668152,
        0.1799987256526947,
        -0.191558375954628,
        0.011977745220065117,
        0.14404389262199402,
        0.009471102617681026,
        -0.19492144882678986,
        -0.25109660625457764,
        0.13334159553050995,
        -0.005595610477030277,
        0.12557357549667358,
        0.18408343195915222,
        -0.15643419325351715,
        -0.03607293218374252,
        0.09928756207227707,
        0.29541531205177307,
        -0.05267275124788284,
        -0.25287750363349915,
        -0.24129195511341095,
        -0.05936308950185776,
        0.37234073877334595,
        0.23875510692596436,
        -0.14659444987773895,
        -0.14176519215106964,
        0.22318591177463531,
        0.23526164889335632,
        0.015188910998404026,
        -0.07143514603376389,
        -0.1944078952074051,
        0.31121626496315,
        -0.13456420600414276,
        0.0350470244884491,
        0.11725741624832153,
        0.05179295688867569,
        -0.11524609476327896,
        0.19504983723163605,
        -0.07990922778844833,
        -0.11651423573493958,
        -0.08646684885025024,
        -0.31209415197372437,
        0.10029007494449615,
        -0.021120725199580193,
        -0.008159064687788486,
        -0.176778644323349,
        -0.18770712614059448,
        0.021469324827194214,
        -0.17955638468265533,
        -0.30414339900016785,
        -0.0858834758400917,
        -0.06010384112596512,
        0.0993100255727768,
        0.13883179426193237,
        0.2447246015071869,
        0.07379057258367538,
        0.1374925673007965,
        0.0044973548501729965,
        0.08950574696063995,
        0.04465761408209801,
        0.25215625762939453,
        -0.10880845040082932,
        0.13987986743450165,
        0.04532753676176071,
        -0.062130000442266464,
        0.32534241676330566,
        0.3071134388446808,
        -0.17745152115821838,
        -0.004778765141963959,
        0.12969864904880524,
        0.008865835145115852,
        0.02445145510137081,
        0.05018152296543121,
        0.055371180176734924,
        -0.19373877346515656,
        0.044576458632946014,
        -0.036276925355196,
        0.0058555337600409985,
        -0.22584429383277893,
        0.12436778843402863,
        -0.25793808698654175,
        -0.21301525831222534,
        0.036020759493112564,
        -0.1435745805501938,
        0.1811508685350418,
        0.14554689824581146,
        0.1336609572172165,
        0.2407926321029663,
        -0.16996000707149506,
        -0.03433411568403244,
        -0.03172871470451355,
        0.2701895833015442,
        -0.28105610609054565,
        0.16529150307178497,
        0.09429575502872467,
        -0.1278904378414154,
        0.02207273244857788,
        0.22318971157073975,
        -0.1363539695739746,
        -0.1932772994041443,
        0.3139618933200836,
        0.02063753828406334,
        -0.007795873563736677,
        -0.08689779043197632,
        0.2504653334617615,
        -0.07125446200370789,
        -0.05602012202143669,
        -0.2860333323478699,
        -0.26536476612091064,
        0.17684660851955414,
        -0.09353701025247574,
        0.07063361257314682,
        0.2995220124721527,
        0.15378187596797943,
        0.2537979781627655,
        -0.27530333399772644,
        -0.07837782800197601,
        -0.08748213946819305,
        0.27009522914886475,
        0.09725161641836166,
        -0.0033903776202350855,
        -0.24828274548053741,
        0.26466089487075806,
        0.2292013168334961,
        -0.18283610045909882,
        0.21922841668128967,
        0.2623959481716156,
        0.12168148159980774,
        -0.002257514977827668,
        -0.23801903426647186,
        0.018184242770075798,
        -0.18471215665340424,
        -0.4188723564147949,
        0.058144647628068924,
        -0.19633057713508606,
        0.03238101676106453,
        0.004804788623005152,
        -0.009317442774772644,
        0.017371265217661858,
        0.22449761629104614,
        0.04324638471007347,
        -0.12319503724575043,
        -0.06930872052907944,
        -0.18368622660636902,
        -0.03371351957321167,
        0.13405708968639374,
        0.05837267264723778,
        -0.33531105518341064,
        0.3819296061992645,
        0.06320153921842575,
        0.3198357820510864,
        -0.31097176671028137,
        -0.13796257972717285,
        0.140816330909729,
        -0.15767349302768707,
        0.045239947736263275,
        0.0023778085596859455,
        -0.04844767227768898,
        -0.1653369665145874,
        -0.1473984569311142,
        0.10695620626211166,
        0.02054769918322563,
        -0.08227670192718506,
        -0.2138369083404541,
        -0.36322882771492004,
        -0.2131475806236267,
        -0.5622366666793823,
        0.5460483431816101,
        0.46886757016181946,
        -0.45078033208847046,
        -0.12307000160217285,
        0.07896765321493149,
        -0.17446653544902802,
        0.3000788688659668,
        -0.15476840734481812,
        -0.23145624995231628,
        0.27511799335479736,
        0.027877138927578926,
        0.11200974881649017,
        -0.0754503384232521,
        0.11113043129444122,
        0.24529477953910828,
        -0.41143083572387695,
        0.14776717126369476,
        0.3667042553424835,
        -0.14979009330272675,
        0.31040263175964355,
        0.38346073031425476,
        0.3463718593120575,
        0.08562897145748138,
        0.3328697085380554,
        -0.22684438526630402,
        -0.1374584287405014,
        0.11036230623722076,
        -0.040363769978284836,
        0.3025226593017578,
        0.4244476854801178,
        -0.1704803705215454,
        0.387876957654953,
        0.06327906996011734,
        0.2957731783390045,
        0.06259730458259583,
        -0.24425150454044342,
        -0.38364720344543457,
        0.054142873734235764,
        -0.1722722053527832,
        0.46681758761405945,
        -0.4765492379665375,
        0.12846440076828003,
        -0.17007461190223694,
        -0.1086307168006897,
        0.20439471304416656,
        0.3868055045604706,
        0.046653199940919876,
        0.00905347615480423,
        0.28242379426956177,
        -0.24786359071731567,
        0.13270993530750275,
        -0.1544470340013504,
        0.37418118119239807,
        0.4612085521221161,
        -0.10709831118583679,
        0.0711643397808075,
        -0.19918274879455566,
        0.18986809253692627,
        0.08229662477970123,
        0.3539586067199707,
        0.3069745600223541,
        0.6323119401931763,
        0.37103936076164246,
        -0.1139502003788948,
        0.10780779272317886,
        -0.11622108519077301,
        0.35886144638061523,
        -0.11095073074102402,
        0.0706440806388855,
        -0.09728433936834335,
        -0.2599685490131378,
        0.18334324657917023,
        0.08066558092832565,
        0.08520466089248657,
        0.23259471356868744,
        -0.10864942520856857,
        0.08442942053079605,
        -0.13677182793617249,
        -0.11337664723396301,
        -0.0389069989323616,
        0.0317365936934948,
        0.09869154542684555,
        -0.027664702385663986,
        -0.1607215851545334,
        0.13853970170021057,
        -0.10336467623710632,
        -0.06820175051689148,
        0.10402906686067581,
        -0.09672089666128159,
        -0.12423093616962433,
        -0.3260357081890106,
        -0.11629322916269302,
        -0.1708129346370697,
        0.24655641615390778,
        0.1835404932498932,
        0.26762810349464417,
        0.007524150423705578,
        -0.16082645952701569,
        -0.21236318349838257,
        0.13789153099060059,
        0.09351658821105957,
        -0.23683936893939972,
        -0.0037650393787771463,
        -0.044620856642723083,
        0.02802036702632904,
        -0.03843316435813904,
        -0.0039848387241363525,
        0.3572899401187897,
        -0.21716226637363434,
        -0.14334174990653992,
        -0.15420939028263092,
        0.03151138126850128,
        -0.04818658530712128,
        0.06777013838291168,
        0.04503348842263222,
        0.05533919110894203,
        0.02413705363869667,
        -0.30725163221359253,
        0.07519436627626419,
        -0.0958118662238121,
        0.1129302829504013,
        -0.04585026949644089,
        -0.20311914384365082,
        -0.28798162937164307,
        -0.06080928072333336,
        -0.15442804992198944,
        0.011454541236162186,
        0.10082066059112549,
        -0.18401750922203064,
        -0.011641754768788815,
        0.009059201925992966,
        0.0728331208229065,
        -0.044509805738925934,
        -0.2534134089946747,
        0.021604178473353386,
        0.42679840326309204,
        -0.1339399218559265,
        -0.15197518467903137,
        0.24501393735408783,
        0.19780904054641724,
        0.32830148935317993,
        -0.18465043604373932,
        -0.205191507935524,
        -0.3380492925643921,
        0.07920192182064056,
        0.023023290559649467,
        0.07317918539047241,
        -0.07268692553043365,
        0.10203292220830917,
        0.1415434628725052,
        -0.009334860369563103,
        -0.08184932917356491,
        0.21285508573055267,
        0.07431336492300034,
        -0.016534075140953064,
        -0.14171840250492096,
        0.31958332657814026,
        0.031016381457448006,
        0.17233555018901825,
        -0.0570492222905159,
        -0.11392684280872345,
        -0.04983188211917877,
        -0.09758307039737701,
        -0.03835422918200493,
        -0.0865214541554451,
        0.1309482306241989,
        0.16753919422626495,
        0.05139696225523949,
        -0.15274783968925476,
        -0.11841372400522232,
        0.011212354525923729,
        -0.25108903646469116,
        -0.048240777105093,
        -0.0819225013256073,
        0.21997961401939392,
        0.10813400894403458,
        -0.06901410967111588,
        0.29899418354034424,
        -0.014252656139433384,
        0.0949549525976181,
        -0.06307097524404526,
        -0.03998759761452675,
        -0.09330464154481888,
        0.01037595421075821,
        0.17530237138271332,
        0.03574959188699722,
        -0.12871648371219635,
        -0.15968838334083557,
        0.25818711519241333,
        0.13831153512001038,
        0.0844857394695282,
        -0.04985485598444939,
        0.37639960646629333,
        0.08789637684822083,
        -0.23938550055027008,
        0.16279691457748413,
        0.028681036084890366,
        -0.039319172501564026,
        0.007491651456803083,
        0.052182842046022415,
        0.29171285033226013,
        -0.0927601307630539,
        0.04224955290555954,
        -0.22789862751960754,
        -0.11054440587759018,
        -0.04971503093838692,
        0.15310880541801453,
        -0.21177217364311218,
        -0.003976549953222275,
        -0.22992359101772308,
        0.3235117495059967,
        0.1795118749141693,
        -0.13453687727451324,
        0.06352441012859344,
        -0.19287626445293427,
        -0.13578751683235168,
        -0.5630072951316833,
        0.08450111001729965,
        -0.020499859005212784,
        -0.3574743866920471,
        0.2283819615840912,
        0.06934690475463867,
        -0.10360611230134964,
        0.07643821835517883,
        -0.04790462926030159,
        -0.17290067672729492,
        -0.007025586441159248,
        -0.25759658217430115,
        -0.11117210984230042,
        -0.04552678018808365,
        -0.03010767139494419,
        -0.34951382875442505,
        -0.09811878204345703,
        -0.25053051114082336,
        -0.1655248999595642,
        -0.05987272039055824,
        -0.10555717349052429,
        -0.008602888323366642,
        -0.23931992053985596,
        -0.08510968834161758,
        -0.09370297193527222,
        -0.01699155569076538,
        0.03695749491453171,
        -0.06089576706290245,
        -0.028855446726083755,
        0.09031486511230469,
        -0.08356013894081116,
        0.06981387734413147,
        0.07150952517986298,
        -0.0064920405857264996,
        -0.22375720739364624,
        -0.020169096067547798,
        0.11754168570041656,
        -0.01699460670351982,
        -0.09208542853593826,
        -0.09414529800415039,
        0.10577628761529922,
        0.0838150829076767,
        -0.10789163410663605,
        -0.07400341331958771,
        -0.2465624064207077,
        0.28789645433425903,
        0.13001732528209686,
        0.15347450971603394,
        -0.3319808840751648,
        0.03829514980316162,
        0.28587964177131653,
        -0.0037937958259135485,
        0.049271002411842346,
        0.050929099321365356,
        0.05453100800514221,
        -0.024356462061405182,
        -0.008116886019706726,
        -0.05507953092455864,
        0.06404062360525131,
        0.041589412838220596,
        -0.5311248302459717,
        0.15785916149616241,
        -0.2314402312040329,
        0.022301144897937775,
        -0.3831091523170471,
        0.23285016417503357,
        -0.7669845223426819,
        0.3957338333129883,
        0.17811016738414764,
        -0.11955228447914124,
        -0.45433175563812256,
        0.0035834957379847765,
        0.0688103437423706,
        -0.4046897292137146,
        -0.15152202546596527,
        0.4735952913761139,
        0.1545286774635315,
        0.19561555981636047,
        0.5123766660690308,
        0.32150065898895264,
        -0.004803658928722143,
        0.32374098896980286,
        -0.049925852566957474,
        -0.15271300077438354,
        0.24877668917179108,
        -0.05359365791082382,
        -0.2272557020187378,
        -0.2739858627319336,
        0.2318422496318817,
        0.13078679144382477,
        0.2193375676870346,
        0.039292480796575546,
        0.2347395122051239,
        -0.3281790316104889,
        -0.3791111409664154,
        -0.16223542392253876,
        0.16732269525527954,
        -0.04228264465928078,
        0.00909725483506918,
        0.445049524307251,
        -0.17272885143756866,
        -0.3535920977592468,
        0.0897669866681099,
        0.06427683681249619,
        -0.13038846850395203,
        -0.18284809589385986,
        0.18435917794704437,
        0.43154919147491455,
        -0.02353283204138279,
        -0.09117145836353302,
        0.3865432143211365,
        0.1330997496843338,
        -0.3376385271549225,
        -0.5151134729385376,
        -0.02734171226620674,
        0.15329739451408386,
        -0.14590464532375336,
        0.13557016849517822,
        -0.3538767695426941,
        0.45446524024009705,
        0.05370081588625908,
        0.09964675456285477,
        0.22657199203968048,
        0.46969255805015564,
        -0.1906561702489853,
        -0.006389581598341465,
        0.0839863196015358,
        -0.01808704063296318,
        0.2939370274543762,
        -0.2396235466003418,
        -0.35911136865615845,
        -0.14292432367801666,
        -0.26471835374832153,
        0.247860848903656,
        -0.1207401230931282,
        -0.20295339822769165,
        -0.006515625398606062,
        -0.15402574837207794,
        -0.14572188258171082,
        0.19301100075244904,
        -0.1014973446726799,
        0.08327125012874603,
        0.17858372628688812,
        -0.019976289942860603,
        0.07684849202632904,
        -0.04870149493217468,
        0.06826544553041458,
        0.13641159236431122,
        0.10271429270505905,
        0.19827653467655182,
        -0.05142371729016304,
        0.12227673083543777,
        0.0650361180305481,
        -0.03396192938089371,
        0.038812920451164246,
        -0.26806527376174927,
        -0.04511990398168564,
        -0.027695756405591965,
        0.12625820934772491,
        -0.027154304087162018,
        0.12457120418548584,
        0.009122190065681934,
        0.026862720027565956,
        0.16830573976039886,
        -0.06105377897620201,
        0.005499318707734346,
        0.012083076871931553,
        0.11935167759656906,
        0.033865612000226974,
        -0.015464148484170437,
        0.1657358705997467,
        0.054572220891714096,
        -0.17809294164180756,
        -0.1710391342639923,
        -0.21482129395008087,
        -0.2158098816871643,
        0.146429643034935,
        0.006689941510558128,
        0.573062539100647,
        0.06775311380624771,
        0.10987640172243118,
        -0.7157087922096252,
        -0.1122889593243599,
        0.05357407033443451,
        0.009187355637550354,
        0.14450936019420624,
        0.04154543951153755,
        -0.4671839773654938,
        -0.055114708840847015,
        -0.07774500548839569,
        0.08084098249673843,
        0.16035999357700348,
        0.013876203447580338,
        -0.03201279044151306,
        0.10259085893630981,
        0.12436740845441818,
        0.055050354450941086,
        -0.20849421620368958,
        -0.25018155574798584,
        -0.08024811744689941,
        -0.19881223142147064,
        -0.31555089354515076,
        0.10203898698091507,
        0.1819530874490738,
        0.02658027783036232,
        -0.1904321312904358,
        0.08041872084140778,
        0.06860071420669556,
        0.07016272097826004,
        -0.17462435364723206,
        -0.13149206340312958,
        0.04448568820953369,
        0.0244686771184206,
        -0.013527660630643368,
        0.012506783939898014,
        -0.028833677992224693,
        0.163566455245018,
        -0.1107969805598259,
        -0.13060377538204193,
        0.02314160019159317,
        0.33932194113731384,
        0.020261552184820175,
        0.0032303996849805117,
        -0.10090423375368118,
        0.05443757399916649,
        0.04092687368392944,
        0.019865503534674644,
        0.03865152224898338,
        -0.19083940982818604,
        0.26754286885261536,
        0.07364960014820099,
        0.1910591721534729,
        -0.059821613132953644,
        0.011240626685321331,
        0.013765862211585045,
        -0.14085137844085693,
        0.008617419749498367,
        -0.08181322365999222,
        -0.11041765660047531,
        -0.2855875790119171,
        -0.3237032890319824,
        0.0877590999007225,
        -0.03500889986753464,
        0.2005983144044876,
        0.07657060027122498,
        0.12326151877641678,
        0.20008811354637146,
        0.015416729263961315,
        0.019118182361125946,
        0.160906121134758,
        -0.04309896007180214,
        -0.08062522113323212,
        0.04661013185977936,
        -0.06339939683675766,
        0.02537437528371811,
        0.020975597202777863,
        0.10309697687625885,
        0.06804627925157547,
        -0.13221584260463715,
        0.08897580951452255,
        -0.04603452607989311,
        0.16220274567604065,
        -0.11945948749780655,
        -0.1610831618309021,
        0.11108870804309845,
        0.2608892321586609,
        -0.008875655941665173,
        -0.06410062313079834,
        0.18890702724456787,
        0.10339401662349701,
        0.22078095376491547,
        -0.23619444668293,
        -0.060636602342128754,
        0.05833693966269493,
        -0.08472531288862228,
        -0.09640073031187057,
        -0.32250696420669556,
        0.18974795937538147,
        0.022933056578040123,
        0.06106920912861824,
        -0.3111567199230194,
        0.010585807263851166,
        -0.02655647136271,
        -0.16860118508338928,
        -0.04460473358631134,
        -0.038866862654685974,
        0.006070782896131277,
        -0.0910964235663414,
        0.24156484007835388,
        0.11312995105981827,
        -0.056031111627817154,
        0.02898072451353073,
        -0.04754246398806572,
        0.18434514105319977,
        0.07033660262823105,
        -0.07882280647754669,
        -0.12577898800373077,
        -0.05649981647729874,
        0.08894631266593933,
        -0.03530057147145271,
        0.04523806273937225,
        -0.010603722184896469,
        0.10213075578212738,
        -0.0884435847401619,
        0.041072677820920944,
        0.06828290224075317,
        0.12807956337928772,
        0.020207764580845833,
        0.13950076699256897,
        0.03288186341524124,
        0.04519664868712425,
        -0.029400330036878586,
        -0.12760710716247559,
        0.1373356133699417,
        0.024493686854839325,
        -0.07955028116703033,
        0.05371109023690224,
        -0.08307629078626633,
        0.20126143097877502,
        -0.015986444428563118,
        -0.1653899997472763,
        0.07877865433692932,
        0.1970636248588562,
        -0.1309526413679123,
        -0.1815246045589447,
        0.23120547831058502,
        0.17104025185108185,
        0.09925421327352524,
        -0.21047978103160858,
        -0.08473064005374908,
        0.06582598388195038,
        -0.0871042013168335,
        0.12874896824359894,
        -0.36756083369255066,
        -0.2111225128173828,
        -0.24120478332042694,
        0.08436718583106995,
        -0.08594569563865662,
        0.08919131010770798,
        -0.20521564781665802,
        -0.4926394820213318,
        -0.41050106287002563,
        -0.18105332553386688,
        1.0408666133880615,
        0.8061477541923523,
        0.25669458508491516,
        -1.100377082824707,
        0.02009192295372486,
        -0.16530261933803558,
        -0.12384127825498581,
        0.13985656201839447,
        0.2572004795074463,
        0.2790926992893219,
        0.19910331070423126,
        -0.18799497187137604,
        0.0385219044983387,
        0.06266576051712036,
        -0.052405212074518204,
        -0.05150265619158745,
        0.04676651954650879,
        -0.3838450610637665,
        0.32100242376327515,
        0.0033762985840439796,
        -0.22690509259700775,
        0.16172276437282562,
        -0.3421572744846344,
        0.1859913021326065,
        0.3576849699020386,
        0.13883070647716522,
        0.06048086658120155,
        0.1212528645992279,
        0.2799566984176636,
        -0.16449221968650818,
        -0.15308664739131927,
        -0.261151522397995,
        0.3232574760913849,
        -0.14966295659542084,
        0.3618602752685547,
        0.12232091277837753,
        0.12971003353595734,
        0.034463390707969666,
        -0.1322612762451172,
        -0.37039223313331604,
        -0.38738229870796204,
        0.06772997975349426,
        0.16114363074302673,
        0.1699942946434021,
        -0.07352875918149948,
        -0.030994514003396034,
        -0.004293827340006828,
        -0.304513543844223,
        -0.3290574550628662,
        -0.28789955377578735,
        -0.03935535252094269,
        -0.09710624814033508,
        -0.0857338234782219,
        -0.10700395703315735,
        0.197255477309227,
        -0.0795653909444809,
        0.3400776982307434,
        0.1236049011349678,
        -0.18629367649555206,
        0.13246721029281616,
        0.12404300272464752,
        0.23725290596485138,
        -0.15877437591552734,
        -0.1172155886888504,
        -0.1718786209821701,
        0.29738089442253113,
        -0.07298952341079712,
        -0.10606281459331512,
        0.2831963002681732,
        0.34947431087493896,
        -0.04472541809082031,
        -0.21972839534282684,
        0.3291870653629303,
        -0.04945994168519974,
        -0.14969196915626526,
        -0.22795262932777405,
        -0.1665816456079483,
        -0.4161731004714966,
        -0.060519538819789886,
        -0.17689569294452667,
        -0.3083377778530121,
        0.40584662556648254,
        -0.45681697130203247,
        0.08240864425897598,
        -0.5129572749137878,
        0.03157676383852959,
        0.4429197311401367,
        0.10163439065217972,
        -0.41473597288131714,
        -0.006144100800156593,
        -0.39809057116508484,
        0.1810632199048996,
        -0.3029933571815491,
        0.05194539204239845,
        0.0944865271449089,
        0.33698201179504395,
        -0.5588439106941223,
        0.37129664421081543,
        0.140329971909523,
        -0.26824524998664856,
        -0.5808265209197998,
        0.36530572175979614,
        -0.19780349731445312,
        -0.33073633909225464,
        0.4470342695713043,
        -0.23341606557369232,
        0.19674411416053772,
        -0.18597951531410217,
        0.6375634670257568,
        0.15180426836013794,
        0.223384827375412,
        0.06869160383939743,
        0.29372507333755493,
        0.007156741339713335,
        -0.07658245414495468,
        0.06262051314115524,
        0.29307031631469727,
        -0.23822811245918274,
        0.26976919174194336,
        -0.198247030377388,
        0.23963665962219238,
        -0.18138761818408966,
        0.2602826654911041,
        0.3396393060684204,
        0.04466633126139641,
        -0.15276318788528442,
        0.34813180565834045,
        -0.20324350893497467,
        -0.24099166691303253,
        -0.49146509170532227,
        -0.2640771269798279,
        0.04476407542824745,
        -0.10806045681238174,
        0.13442069292068481,
        0.03446358069777489,
        0.3237273097038269,
        0.0013316692784428596,
        -0.1923375427722931,
        0.23798684775829315,
        0.03555538132786751,
        0.4438443183898926,
        -0.2402254194021225,
        -0.32446256279945374,
        -0.16426734626293182,
        -0.001920548384077847,
        -0.041273556649684906,
        -0.08324705809354782,
        -0.026430713012814522,
        0.09513121843338013,
        0.02182072587311268,
        0.14682824909687042,
        0.23636674880981445,
        0.07054823637008667,
        0.09257110208272934,
        -0.06703628599643707,
        0.4681163728237152,
        0.006660629529505968,
        -0.08217228204011917,
        0.26331543922424316,
        -0.16102556884288788,
        0.07891838997602463,
        0.14417439699172974,
        -0.12022612243890762,
        0.05676617473363876,
        -0.0860203355550766,
        -0.09620775282382965,
        0.28375428915023804,
        -0.07619792968034744,
        0.009259417653083801,
        -0.03506286069750786,
        0.17950652539730072,
        -0.0028854634147137403,
        -0.0009684027754701674,
        0.23925650119781494,
        0.08873187005519867,
        -0.1758400797843933,
        -0.28007009625434875,
        -0.09314291179180145,
        -0.11061766743659973,
        -0.2450673133134842,
        0.1048879623413086,
        -0.020826181396842003,
        -0.12568995356559753,
        -0.057507213205099106,
        -0.046537160873413086,
        0.023410238325595856,
        0.03970598801970482,
        0.07874596863985062,
        -0.25976240634918213,
        -0.03890397399663925,
        -0.173345685005188,
        -0.13607941567897797,
        0.18522681295871735,
        -0.03619514778256416,
        0.2114255428314209,
        -0.328587144613266,
        0.5930618047714233,
        -0.20424436032772064,
        -0.24393153190612793,
        -0.33173176646232605,
        -0.3228183388710022,
        0.45335453748703003,
        -0.4416593611240387,
        0.0318029560148716,
        -0.02865009941160679,
        0.3302445411682129,
        0.030437365174293518,
        -0.1796913892030716,
        0.37686097621917725,
        -0.43270477652549744,
        0.0914289727807045,
        -0.07374566048383713,
        -0.04648829996585846,
        0.34724563360214233,
        0.40430277585983276,
        -0.01902502402663231,
        -0.19462235271930695,
        0.06365721672773361,
        -0.08305723965167999,
        -0.021818621084094048,
        -0.16412511467933655,
        0.0018490345682948828,
        0.2662408649921417,
        0.08137141913175583,
        0.06582710891962051,
        -0.2337663769721985,
        -0.24728617072105408,
        0.040743276476860046,
        -0.07679139822721481,
        0.05792061984539032,
        0.022933421656489372,
        -0.19885899126529694,
        0.04350815713405609,
        0.000698386924341321,
        0.3351515531539917,
        -0.016969872638583183,
        0.06423527002334595,
        0.4115103781223297,
        -0.04337260499596596,
        0.023965023458003998,
        -0.06846055388450623,
        -0.18153396248817444,
        0.04952550306916237,
        -0.030808590352535248,
        0.09907437115907669,
        0.1261182576417923,
        0.005910218693315983,
        -0.06129317358136177,
        0.04694516584277153,
        0.10017171502113342,
        0.12412937730550766,
        -0.052060674875974655,
        -0.3324239253997803,
        0.02954995632171631,
        -0.035009391605854034,
        -0.17709247767925262,
        -0.01796383038163185,
        -0.18258075416088104,
        -0.11783908307552338,
        0.0896090418100357,
        0.1515982300043106,
        0.18560169637203217,
        0.006657917983829975,
        0.1268293261528015,
        -0.3935253322124481,
        0.11947112530469894,
        -0.24135710299015045,
        -0.10389064252376556,
        -0.08977629244327545,
        0.4726462662220001,
        0.01388541143387556,
        -0.12192448228597641,
        0.07714278995990753,
        -0.4025787115097046,
        0.024634741246700287,
        0.013135560788214207,
        0.07378973066806793,
        -0.21300992369651794,
        0.1216612309217453,
        -0.22667309641838074,
        -0.13202495872974396,
        0.3116053342819214,
        0.12558993697166443,
        -0.13785694539546967,
        0.4530411958694458,
        0.1994788497686386,
        -0.15992511808872223,
        -0.14672601222991943,
        -0.10003568232059479,
        0.23891681432724,
        -0.03078855387866497,
        0.21719670295715332,
        -0.43140727281570435,
        -0.11449848115444183,
        0.2675333321094513,
        0.07786151021718979,
        0.00530315563082695,
        0.025990229099988937,
        -0.029240133240818977,
        -0.1326247602701187,
        -0.022508932277560234,
        -0.06322978436946869,
        -0.18335065245628357,
        0.07009589672088623,
        0.05921517312526703,
        0.0797436311841011,
        -0.05226528272032738,
        0.011390344239771366,
        -0.12525337934494019,
        0.13024674355983734,
        -0.20829050242900848,
        0.1897537112236023,
        0.017708024010062218,
        -0.2291116714477539,
        0.16091468930244446,
        -0.21246390044689178,
        -0.06699113547801971,
        -0.10571283847093582,
        0.10295016318559647,
        0.24755293130874634,
        0.06341035664081573,
        -0.04204573109745979,
        -0.10434669256210327,
        -0.04590698704123497,
        -0.08231140673160553,
        0.19900260865688324,
        0.0059939539059996605,
        -0.04811357706785202,
        -0.09784159064292908,
        -0.03242823854088783,
        -0.022549111396074295,
        -0.33567866683006287,
        -0.025232335552573204,
        0.15453821420669556,
        -0.44960540533065796,
        0.03840281814336777,
        -0.0854048803448677,
        0.23462900519371033,
        0.03894488513469696,
        0.029894795268774033,
        -0.20869050920009613,
        0.08643747866153717,
        -0.04386187344789505,
        -0.27936625480651855,
        0.0853133425116539,
        0.962643027305603,
        0.5134223699569702,
        0.9788967967033386,
        0.23113951086997986,
        -0.46272632479667664,
        -0.41195836663246155,
        -0.24311597645282745,
        -0.3964504599571228,
        -0.1494034081697464,
        -0.08110892027616501,
        -0.19162119925022125,
        0.08032294362783432,
        -0.07472486048936844,
        -0.3382858633995056,
        -0.2898358404636383,
        0.4406881332397461,
        0.2172922044992447,
        0.09158924221992493,
        -0.07604275643825531,
        0.0065993634052574635,
        0.38538339734077454,
        -0.1313401609659195,
        -0.24251443147659302,
        0.3949122428894043,
        -0.08807239681482315,
        -0.1621047854423523,
        0.19496697187423706,
        0.3115466833114624,
        0.2109166383743286,
        -0.345982164144516,
        0.2573027014732361,
        0.2281825691461563,
        0.11583834141492844,
        -0.2062416672706604,
        0.28643229603767395,
        0.05108029395341873,
        -0.051878657191991806,
        0.177936851978302,
        -0.024467425420880318,
        0.4124712347984314,
        0.08302276581525803,
        -0.16045108437538147,
        0.3388563394546509,
        -0.05760761350393295,
        -0.023569492623209953,
        -0.10248720645904541,
        0.024745941162109375,
        -0.10983177274465561,
        0.3061496615409851,
        0.04658052697777748,
        -0.15182363986968994,
        0.32563135027885437,
        -0.040469940751791,
        -0.07779531180858612,
        0.17688138782978058,
        -0.017348160967230797,
        0.05719150975346565,
        0.17159129679203033,
        0.14337365329265594,
        -0.1287117451429367,
        0.16603417694568634,
        0.0778597742319107,
        0.2264440655708313,
        -0.4557035565376282,
        -0.13843154907226562,
        -0.04940161108970642,
        -0.2230348289012909,
        0.3067542016506195,
        -0.20460444688796997,
        -0.24466468393802643,
        0.010564280673861504,
        -0.20710507035255432,
        0.14087583124637604,
        0.05442469194531441,
        0.10813301056623459,
        0.30519405007362366,
        -0.6562291383743286,
        0.7185383439064026,
        0.3680320680141449,
        -0.561331033706665,
        0.3882443606853485,
        -0.056906212121248245,
        -0.5155623555183411,
        -0.12298509478569031,
        0.041991062462329865,
        0.5798322558403015,
        0.10867363959550858,
        0.025878744199872017,
        -0.4024927616119385,
        0.030055422335863113,
        0.1902763992547989,
        0.2013547569513321,
        -0.02058679424226284,
        0.08401225507259369,
        -0.17432069778442383,
        -0.2540106475353241,
        -0.2604229152202606,
        -0.35129520297050476,
        -0.027145802974700928,
        0.1224324107170105,
        -0.11894369125366211,
        0.7642343640327454,
        -0.2887652516365051,
        0.10959438979625702,
        0.25701773166656494,
        -0.3881610333919525,
        -0.16794967651367188,
        -0.19417829811573029,
        -0.18108683824539185,
        0.24777188897132874,
        0.5745099782943726,
        -0.1716088503599167,
        0.5402952432632446,
        -0.16609373688697815,
        -0.037099264562129974,
        0.2581236958503723,
        0.3182409703731537,
        -0.4820561408996582,
        -0.30809485912323,
        -0.1645651012659073,
        0.024362297728657722,
        0.3328104019165039,
        0.18706563115119934,
        0.003865192411467433,
        0.21525686979293823,
        -0.0465378575026989,
        -0.016442300751805305,
        0.11435513943433762,
        0.2798711359500885,
        0.34189531207084656,
        -0.18647082149982452,
        0.08392638713121414,
        0.401581346988678,
        0.2127927541732788,
        -0.16195137798786163,
        -0.16852180659770966,
        0.25876548886299133,
        -0.27033478021621704,
        -0.16162560880184174,
        -0.18885260820388794,
        -0.288891077041626,
        -0.17952895164489746,
        0.28928011655807495,
        0.2801612615585327,
        0.26770687103271484,
        -0.04981342330574989,
        -0.4130696654319763,
        -0.301560640335083,
        0.0011037519434466958,
        -0.041638102382421494,
        -0.12209846079349518,
        -0.22576084733009338,
        0.05965768173336983,
        0.3215055763721466,
        -0.2234531193971634,
        -0.4365343749523163,
        -0.3889206647872925,
        0.28954651951789856,
        -0.4038800001144409,
        -0.47821933031082153,
        0.6365785002708435,
        0.4469577372074127,
        -0.6048879027366638,
        -0.5565513968467712,
        0.6201867461204529,
        0.16552500426769257,
        -0.413389652967453,
        0.06270898133516312,
        -0.18961942195892334,
        0.05562661588191986,
        -0.17819756269454956,
        -0.2314230054616928,
        -0.14202389121055603,
        0.059823133051395416,
        -0.38214483857154846,
        0.4706954061985016,
        0.07647659629583359,
        0.14161907136440277,
        0.02779744192957878,
        0.06185781583189964,
        0.35561051964759827,
        0.47725316882133484,
        -0.11103057861328125,
        0.2889324724674225,
        0.20609447360038757,
        -0.085917629301548,
        -0.07910250127315521,
        0.00783897191286087,
        0.14497996866703033,
        0.18071089684963226,
        -0.19408947229385376,
        -0.1067943125963211,
        0.26093050837516785,
        -0.14211811125278473,
        -0.12232393026351929,
        0.09583444893360138,
        -0.08772274851799011,
        0.10476367920637131,
        0.5876783132553101,
        0.03804610297083855,
        0.06373815983533859,
        -0.2622927129268646,
        -0.005074892193078995,
        0.14191144704818726,
        0.21432755887508392,
        -0.03889477252960205,
        0.2356586456298828,
        0.07078550010919571,
        -0.18760277330875397,
        0.25060611963272095,
        0.09874037653207779,
        0.033320341259241104,
        0.02453884668648243,
        -0.14229078590869904,
        -0.09470994025468826,
        -0.012346412986516953,
        -0.2890184223651886,
        -0.10016065090894699,
        -0.023016491904854774,
        -0.3440471291542053,
        -0.037088584154844284,
        0.046108491718769073,
        0.1552741825580597,
        -0.024432871490716934,
        -0.06353835761547089,
        -0.20388847589492798,
        0.0681820660829544,
        -0.32717081904411316,
        0.12910927832126617,
        0.07923091948032379,
        0.15311291813850403,
        0.072543665766716,
        -0.4161847233772278,
        0.28336596488952637,
        0.2010510414838791,
        -0.32564064860343933,
        -0.4741217792034149,
        0.22403767704963684,
        0.5053877234458923,
        -0.38726288080215454,
        0.5043630003929138,
        -0.18796907365322113,
        -0.45214030146598816,
        0.23084650933742523,
        -0.374022513628006,
        -0.09100453555583954,
        -0.25919556617736816,
        0.03619491681456566,
        -0.23966340720653534,
        -0.3258785009384155,
        0.1670054942369461,
        -0.03784629702568054,
        -0.12750545144081116,
        0.11669452488422394,
        -0.32751718163490295,
        0.11877215653657913,
        0.3089393973350525,
        0.29568472504615784,
        -0.2227577120065689,
        0.059179194271564484,
        0.19223426282405853,
        -0.09392134845256805,
        -0.271279901266098,
        0.2977621853351593,
        -0.25680258870124817,
        0.09867151081562042,
        0.016049699857831,
        -0.24271215498447418,
        -0.14430645108222961,
        0.06295064091682434,
        0.16999804973602295,
        0.35549476742744446,
        -0.17373359203338623,
        0.3728563189506531,
        0.18303118646144867,
        -0.18048499524593353,
        0.11891528964042664,
        0.12426870316267014,
        -0.08401263505220413,
        -0.22759458422660828,
        0.17497994005680084,
        -0.021991578862071037,
        0.08864409476518631,
        -0.010707727633416653,
        0.02364920824766159,
        0.09495735168457031,
        -0.07628454267978668,
        -0.1247394010424614,
        0.20850349962711334,
        -0.4383791387081146,
        0.18399475514888763,
        -0.010245230980217457,
        -0.1870492398738861,
        -0.10095613449811935,
        0.12380313873291016,
        -0.3719976544380188,
        -0.14085125923156738,
        0.056764692068099976,
        0.01582740619778633,
        -0.11460690200328827,
        -0.039428818970918655,
        0.08431314677000046,
        -0.047783251851797104,
        -0.18633414804935455,
        -0.28389808535575867,
        -0.2597568929195404,
        -0.44771116971969604,
        -0.37098994851112366,
        0.006041478831321001,
        -0.6516679525375366,
        -0.049826495349407196,
        -0.1332654505968094,
        -0.27248746156692505,
        -0.17046289145946503,
        0.01650523766875267,
        0.11446379870176315,
        -0.26409104466438293,
        0.030379274860024452,
        0.019638070836663246,
        0.3610227108001709,
        -0.5828695297241211,
        -0.08597581833600998,
        -0.14976832270622253,
        0.17292098701000214,
        -0.013887804001569748,
        -0.19418206810951233,
        0.28077027201652527,
        -0.14721117913722992,
        -0.07082777470350266,
        0.14297296106815338,
        -0.15690429508686066,
        0.0011713503627106547,
        0.2820005416870117,
        -0.05283553898334503,
        0.2004634141921997,
        0.02157582901418209,
        0.33794623613357544,
        0.15887480974197388,
        -0.24573947489261627,
        0.30827099084854126,
        -0.22381027042865753,
        0.04213087633252144,
        0.17516498267650604,
        -0.06336753815412521,
        -0.30311325192451477,
        0.34937605261802673,
        -0.015031292103230953,
        0.2327181100845337,
        -0.11079166829586029,
        0.3383236825466156,
        0.2388550043106079,
        -0.5346807837486267,
        -0.1478366106748581,
        0.13296136260032654,
        0.15976087749004364,
        -0.11738944798707962,
        -0.30762138962745667,
        -0.027232717722654343,
        0.0078588230535388,
        0.3045807182788849,
        0.27622273564338684,
        0.10175298899412155,
        0.1915847510099411,
        -0.15869934856891632,
        0.1458224058151245,
        -0.02035599574446678,
        -0.57309889793396,
        -0.14732305705547333,
        0.1256042718887329,
        -0.28163158893585205,
        -0.22766408324241638,
        -0.03698212280869484,
        0.19206935167312622,
        -0.06223978102207184,
        -0.14045292139053345,
        -0.5364348292350769,
        -0.2683808505535126,
        0.0030809305608272552,
        -0.24531058967113495,
        -0.012944100424647331,
        -0.211805522441864,
        -0.6898912191390991,
        0.554192841053009,
        0.28945767879486084,
        -0.13715174794197083,
        -0.030249744653701782,
        -0.09462236613035202,
        0.18100358545780182,
        -0.2547159194946289,
        -0.7321375608444214,
        0.23440797626972198,
        -0.1852136105298996,
        -0.34817439317703247,
        0.40454035997390747,
        -0.021637853235006332,
        -0.2048765867948532,
        -0.6139994859695435,
        0.3686128854751587,
        0.14936579763889313,
        0.37999531626701355,
        0.11824493110179901,
        0.420551061630249,
        -0.008753460831940174,
        -0.1902226209640503,
        0.08342191576957703,
        0.047618549317121506,
        0.20220042765140533,
        -0.05640340968966484,
        -0.07045779377222061,
        0.428882360458374,
        0.03226926922798157,
        -0.10889528691768646,
        0.14515598118305206,
        0.04063102602958679,
        0.1986721158027649,
        0.12318388372659683,
        0.20899753272533417,
        -0.23427678644657135,
        0.18900495767593384,
        -0.1499422788619995,
        -0.14978933334350586,
        0.04381544142961502,
        0.253902792930603,
        0.27403226494789124,
        -0.2353970855474472,
        0.12604370713233948,
        0.41424626111984253,
        -0.33092013001441956,
        0.06573695689439774,
        0.17525511980056763,
        0.012605114839971066,
        -0.05778054893016815,
        -0.11926233768463135,
        0.27941665053367615,
        0.016191408038139343,
        0.0846632719039917,
        0.39854127168655396,
        0.013113811612129211,
        -0.008422273211181164,
        -0.0733763724565506,
        0.01538012269884348,
        0.2100927233695984,
        -0.08221638202667236,
        0.19141952693462372,
        -0.01080972421914339,
        -0.19486881792545319,
        -0.1685691773891449,
        0.12726138532161713,
        -0.2801854610443115,
        -0.15294402837753296,
        -0.13305124640464783,
        0.238812655210495,
        0.12861108779907227,
        -0.07485686987638474,
        0.18075835704803467,
        -0.010834172368049622,
        -0.4091615378856659,
        0.2919609546661377,
        0.2742272615432739,
        -0.0401962548494339,
        0.4257272183895111,
        -0.7497644424438477,
        0.22020193934440613,
        0.4368854761123657,
        -0.24575169384479523,
        -0.18828369677066803,
        -0.4203982949256897,
        0.3277711272239685,
        -0.3573763072490692,
        0.3630172312259674,
        -0.07575330883264542,
        -0.06249005347490311,
        0.574722409248352,
        0.6288801431655884,
        -0.06263760477304459,
        -0.4555579125881195,
        -0.2494029551744461,
        0.16032913327217102,
        -0.37323126196861267,
        -0.4140408933162689,
        -0.07552921772003174,
        -0.2002827376127243,
        0.10624465346336365,
        -0.15339355170726776,
        -0.11493102461099625,
        0.3917366564273834,
        0.11774160712957382,
        0.10267406702041626,
        0.03363846242427826,
        0.20130537450313568,
        0.21856780350208282,
        -0.38702714443206787,
        -0.04392330348491669,
        0.03496137261390686,
        -0.07238731533288956,
        -0.012641207315027714,
        0.04698089882731438,
        0.17292723059654236,
        0.11463065445423126,
        0.07000521570444107,
        -0.09239813685417175,
        0.03920455276966095,
        -0.12249937653541565,
        0.11381614208221436,
        0.008791515603661537,
        -0.40008634328842163,
        0.11612588912248611,
        -0.1988736391067505,
        0.07369393855333328,
        0.11435766518115997,
        0.1453898400068283,
        -0.1206965297460556,
        0.23689596354961395,
        0.19183474779129028,
        0.31719523668289185,
        -0.10800402611494064,
        -0.059496764093637466,
        0.04433519020676613,
        -0.5556421279907227,
        0.1363716423511505,
        -0.02140403352677822,
        -0.12153162807226181,
        -0.027647240087389946,
        0.035187382251024246,
        0.66673344373703,
        -0.03560560569167137,
        0.006889007054269314,
        -0.6702697277069092,
        -0.038690634071826935,
        -0.09267114847898483,
        0.17010219395160675,
        0.11016497015953064,
        0.3110663592815399,
        -0.022672314196825027,
        -0.14142289757728577,
        -0.13620086014270782,
        -0.42433083057403564,
        -0.3253432810306549,
        -0.8783447742462158,
        0.136076882481575,
        0.08084382116794586,
        -0.4030504822731018,
        -0.09587176889181137,
        0.16691823303699493,
        -0.3185470998287201,
        0.25326237082481384,
        -0.4408157765865326,
        0.07242288440465927,
        0.6331199407577515,
        -0.45364418625831604,
        0.07605612277984619,
        0.3151471018791199,
        -0.07029248774051666,
        -0.12006741017103195,
        0.15686045587062836,
        0.14326681196689606,
        -0.24267368018627167,
        -0.34662923216819763,
        0.047018926590681076,
        0.15696251392364502,
        -0.038609929382801056,
        0.16897468268871307,
        -0.11751393228769302,
        -0.3112202286720276,
        -0.23991675674915314,
        0.08445174992084503,
        0.24370533227920532,
        -0.28755155205726624,
        -0.08705722540616989,
        -0.04376533254981041,
        0.28828293085098267,
        -0.07808060199022293,
        -0.006144605111330748,
        0.2597811818122864,
        -0.07190459966659546,
        -0.07194662094116211,
        -0.24600067734718323,
        0.11928527802228928,
        0.0605727918446064,
        -0.13051529228687286,
        -0.2523660957813263,
        -0.29242032766342163,
        0.1565174162387848,
        -0.05886131152510643,
        0.013002652674913406,
        0.19808818399906158,
        -0.350475013256073,
        -0.13898687064647675,
        0.08273500204086304,
        0.170143723487854,
        0.2347542643547058,
        -0.2595885992050171,
        0.035336606204509735,
        -0.1525394469499588,
        -0.07087723910808563,
        -0.017383430153131485,
        -0.02742418274283409,
        0.04171453416347504,
        0.16029678285121918,
        0.09892717748880386,
        -0.17842285335063934,
        -0.005369408521801233,
        0.19296687841415405,
        -0.09408021718263626,
        0.032891418784856796,
        -0.1355721354484558,
        -0.206019788980484,
        -0.13268062472343445,
        0.303499698638916,
        -0.20601344108581543,
        -0.25654107332229614,
        0.7681044340133667,
        -0.4624980688095093,
        -0.4121559262275696,
        -0.8354278206825256,
        0.45898157358169556,
        -0.6314916014671326,
        -0.11738216876983643,
        -0.2967846095561981,
        0.017269190400838852,
        0.5031734108924866,
        -0.1678609400987625,
        0.46957868337631226,
        0.563919186592102,
        0.45477715134620667,
        0.3482688069343567,
        0.29880955815315247,
        0.3675992488861084,
        0.21956096589565277,
        -0.41018933057785034,
        0.29087215662002563,
        -0.37420761585235596,
        -0.053438715636730194,
        -0.23575669527053833,
        0.11314273625612259,
        -0.3077135682106018,
        -0.2906756103038788,
        0.19033217430114746,
        -0.05081712454557419,
        -0.20884524285793304,
        -0.13169841468334198,
        0.15708743035793304,
        0.23774920403957367,
        -0.27241435647010803,
        -0.0704662948846817,
        -0.015798959881067276,
        0.20526383817195892,
        -0.0053288815543055534,
        0.04776926338672638,
        0.40997785329818726,
        -0.06782665848731995,
        0.12707477807998657,
        0.18676261603832245,
        -0.0257464237511158,
        0.08851537853479385,
        0.08286859095096588,
        -0.10981946438550949,
        0.00019656990480143577,
        0.19762834906578064,
        -0.01607552170753479,
        -0.11433564126491547,
        -0.07564463466405869,
        0.27337032556533813,
        0.18262751400470734,
        0.21986711025238037,
        0.1946498602628708,
        0.14424505829811096,
        0.0043164403177797794,
        0.12329952418804169,
        0.025980647653341293,
        -0.09945561736822128,
        0.08175310492515564,
        0.0512252040207386,
        -0.21345292031764984,
        -0.09638845175504684,
        -0.22807279229164124,
        0.2498294711112976,
        -0.24097630381584167,
        -0.16524270176887512,
        0.2696702480316162,
        -0.17667889595031738,
        0.2404320240020752,
        -0.10392381250858307,
        -0.1129557266831398,
        -0.04119540750980377,
        -0.2930450439453125,
        0.46323370933532715,
        -0.06881595402956009,
        -0.7148169279098511,
        -0.3382596969604492,
        -0.994234561920166,
        0.9893741607666016,
        -0.25111737847328186,
        -0.31567269563674927,
        0.12497192621231079,
        0.5681233406066895,
        0.3968719244003296,
        -0.09205324947834015,
        -0.11963365972042084,
        -1.1490676403045654,
        0.6138432025909424,
        0.12553921341896057,
        0.18203099071979523,
        -0.1647583395242691,
        -0.2203572541475296,
        -0.11475607007741928,
        -0.05859624594449997,
        0.24158336222171783,
        -0.03378568962216377,
        -0.09847421199083328,
        0.3145345151424408,
        0.0015863506123423576,
        -0.09997858107089996,
        0.19983194768428802,
        -0.0652891993522644,
        -0.010540762916207314,
        0.1278257966041565,
        -0.02161874808371067,
        0.17233163118362427,
        0.03657591715455055,
        -0.09838833659887314,
        -0.084333635866642,
        0.06506292521953583,
        -0.42021632194519043,
        -0.18170246481895447,
        0.00946186576038599,
        0.08922234177589417,
        -0.10176921635866165,
        0.11449382454156876,
        0.29397904872894287,
        0.0871155634522438,
        -8.122134022414684e-05,
        0.011406728066504002,
        0.05549859255552292,
        0.2577245533466339,
        -0.08028093725442886,
        -0.20138637721538544,
        0.16570815443992615,
        0.05044965445995331,
        -0.0018295923946425319,
        0.22527828812599182,
        0.060371723026037216,
        0.13018545508384705,
        -0.09126969426870346,
        0.20758362114429474,
        0.10697431117296219,
        -0.17855769395828247,
        -0.13247647881507874,
        -0.15766282379627228,
        -0.0845649316906929,
        -0.03859350457787514,
        -0.17277082800865173,
        0.15734922885894775,
        -0.053070053458213806,
        -0.04760994017124176,
        0.09292442351579666,
        0.007191511336714029,
        0.012481531128287315,
        0.1572585254907608,
        -0.17607201635837555,
        0.7319455742835999,
        -0.36344805359840393,
        -0.5032826066017151,
        -0.8566691875457764,
        -0.12091034650802612,
        -0.04836457967758179,
        -0.23046547174453735,
        0.3559243679046631,
        0.2869518995285034,
        -0.44128191471099854,
        -0.050015389919281006,
        0.1681065559387207,
        0.4823986291885376,
        -0.11955636739730835,
        0.3069649934768677,
        -0.028011441230773926,
        -0.1917715072631836,
        0.30598050355911255,
        -0.4455450773239136,
        0.41890019178390503,
        0.4994143843650818,
        -0.1365121603012085,
        0.1975109577178955,
        0.49860215187072754,
        0.327381432056427,
        0.4350457191467285,
        0.45027804374694824,
        -0.37416255474090576,
        0.17780400812625885,
        0.019999999552965164
    ]
}