{
    "version": "0.5.0",
    "architecture": "WaveNet",
    "config": {
        "layers": [
            {
                "input_size": 1,
                "condition_size": 1,
                "head_size": 4,
                "channels": 8,
                "kernel_size": 3,
                "dilations": [
                    1,
                    2,
                    4,
                    8,
                    16,
                    32,
                    64
                ],
                "activation": "Tanh",
                "gated": false,
                "head_bias": false
            },
            {
                "input_size": 8,
                "condition_size": 1,
                "head_size": 1,
                "channels": 4,
                "kernel_size": 3,
                "dilations": [
                    128,
                    256,
                    512,
                    1,
                    2,
                    4,
                    8,
                    16,
                    32,
                    64,
                    128,
                    256,
                    512
                ],
                "activation": "Tanh",
                "gated": false,
                "head_bias": true
            }
        ],
        "head": null,
        "head_scale": 0.02
    },
    "weights": [
        0.1921192854642868,
        0.524763286113739,
        -1.0039156675338745,
        -0.7830032110214233,
        -0.4463760256767273,
        0.08309565484523773,
        -0.17208851873874664,
        0.8635677695274353,
        -0.18152940273284912,
        0.052499398589134216,
        0.06505508720874786,
        -0.21729911863803864,
        -0.22930385172367096,
        -0.10287139564752579,
        0.09883755445480347,
        0.04251493513584137,
        0.04978036880493164,
        0.3076304793357849,
        -0.10002992302179337,
        -0.11864980310201645,
        0.2502467930316925,
        0.20363110303878784,
        -0.08184739202260971,
        0.034626223146915436,
        -0.03029314987361431,
        0.019451795145869255,
        0.1941702961921692,
        -0.363397479057312,
        -0.1765834391117096,
        -0.23167556524276733,
        -0.11428255587816238,
        0.20560115575790405,
        -0.030209282413125038,
        -0.09272435307502747,
        -0.5340765118598938,
        -0.14240729808807373,
        -0.16109152138233185,
        -0.21562495827674866,
        0.03371967375278473,
        0.13426440954208374,
        0.40888532996177673,
        -0.1636718362569809,
        0.06937483698129654,
        0.21082235872745514,
        -0.19608095288276672,
        -0.06165163964033127,
        0.5218161344528198,
        0.14021892845630646,
        -0.13592545688152313,
        -0.356935977935791,
        -0.028970537707209587,
        0.03846137970685959,
        0.2646484971046448,
        0.08250633627176285,
        0.10068239271640778,
        -0.5134041905403137,
        -0.2762795090675354,
        -0.16930842399597168,
        0.04069896787405014,
        -0.33289170265197754,
        0.121177539229393,
        0.23018473386764526,
        0.1121106669306755,
        0.031394023448228836,
        -0.03558673709630966,
        0.20829884707927704,
        -0.022804664447903633,
        -0.10222303867340088,
        0.3550768494606018,
        0.1681061089038849,
        -0.31527024507522583,
        -0.23170293867588043,
        0.1220075860619545,
        0.2653588056564331,
        0.10642267018556595,
        -0.11096223443746567,
        -0.08119232207536697,
        -0.4065116345882416,
        0.048327475786209106,
        0.01867567002773285,
        -0.26757943630218506,
        0.24610508978366852,
        0.3868306875228882,
        -0.3256022036075592,
        0.029502974823117256,
        0.06625593453645706,
        0.09356242418289185,
        -0.08505044132471085,
        -0.02636450156569481,
        0.008549921214580536,
        0.08652927726507187,
        -0.0008270073449239135,
        0.2642001211643219,
        0.08209285140037537,
        -0.3111477792263031,
        -0.2202652394771576,
        0.09701259434223175,
        0.0779149979352951,
        -0.08915954828262329,
        -0.20806197822093964,
        0.08038108795881271,
        0.012392610311508179,
        -0.09851155430078506,
        0.048914045095443726,
        -0.1565120965242386,
        -0.0873289480805397,
        -0.029350899159908295,
        -0.1794033944606781,
        -0.12625360488891602,
        0.1032361164689064,
        -0.06324051320552826,
        0.23796691000461578,
        -0.19872450828552246,
        0.20174503326416016,
        0.25746914744377136,
        -0.2462276965379715,
        -0.03424936905503273,
        0.1208106204867363,
        -0.04786194860935211,
        0.03803639858961105,
        -0.0023328906390815973,
        0.06445509940385818,
        -0.29214921593666077,
        -0.052170854061841965,
        -0.4256768226623535,
        -0.14168021082878113,
        -0.16692769527435303,
        -0.027705363929271698,
        -0.20244282484054565,
        -0.1820022165775299,
        0.1813906580209732,
        -0.049793653190135956,
        -0.12369733303785324,
        0.2021108865737915,
        0.24610896408557892,
        -0.027284087613224983,
        -0.2114681601524353,
        0.08357223868370056,
        0.03516716882586479,
        -0.08840177208185196,
        0.2836233675479889,
        0.11953746527433395,
        -0.022205859422683716,
        -0.08405929058790207,
        -0.17871329188346863,
        0.07909921556711197,
        0.1632489562034607,
        -0.057138677686452866,
        -0.2894195020198822,
        -0.2534882724285126,
        -0.18450602889060974,
        0.041494715958833694,
        -0.045650262385606766,
        0.30176228284835815,
        -0.07331819087266922,
        -0.16829389333724976,
        0.3162963390350342,
        -0.2535088360309601,
        -0.0714450478553772,
        -0.2767188847064972,
        0.055533334612846375,
        -0.06697546690702438,
        -0.3809410631656647,
        -0.08349937945604324,
        -0.0563344843685627,
        -0.18709257245063782,
        0.006627946626394987,
        0.08419578522443771,
        -0.04352673888206482,
        -0.068280428647995,
        0.34668436646461487,
        -0.07124833017587662,
        0.3144240081310272,
        0.1018783301115036,
        0.007758225314319134,
        0.037499722093343735,
        0.3911883234977722,
        -0.3980748951435089,
        0.10352432727813721,
        0.12304261326789856,
        -0.2785453200340271,
        -0.13846667110919952,
        -0.1627318263053894,
        0.3687191903591156,
        0.19488470256328583,
        -0.2445349097251892,
        0.2694762647151947,
        0.06059601530432701,
        -0.46155285835266113,
        0.40983930230140686,
        0.26063311100006104,
        0.34541091322898865,
        -0.41500231623649597,
        -0.09184810519218445,
        -0.5970131754875183,
        0.22212135791778564,
        -0.015711678192019463,
        0.37052035331726074,
        -0.4277084171772003,
        -0.10182314366102219,
        0.058652300387620926,
        0.1268194615840912,
        -0.04206054285168648,
        -0.23091940581798553,
        -0.06133849918842316,
        0.10506454110145569,
        -0.1996385157108307,
        0.061743609607219696,
        0.38327503204345703,
        -0.26772597432136536,
        0.13128314912319183,
        -0.10350852459669113,
        0.19305017590522766,
        -0.015803182497620583,
        -0.09220847487449646,
        0.03000977821648121,
        -0.3466395139694214,
        -0.2642795443534851,
        0.17219285666942596,
        -0.46814486384391785,
        -0.17922715842723846,
        0.22275803983211517,
        0.2842088043689728,
        -0.08603277057409286,
        -0.5718453526496887,
        0.25297483801841736,
        -0.43766090273857117,
        -0.2774655818939209,
        -0.3048877716064453,
        -0.17505601048469543,
        0.037818484008312225,
        0.27733996510505676,
        0.07060170918703079,
        0.3141234517097473,
        0.15827511250972748,
        -0.20039570331573486,
        0.11984565109014511,
        -0.12102227658033371,
        -0.24778059124946594,
        0.3075295090675354,
        -0.03704843297600746,
        0.24032777547836304,
        -0.13179029524326324,
        0.06291702389717102,
        -0.018880091607570648,
        -0.4610694646835327,
        0.46726956963539124,
        -0.49598491191864014,
        0.09559642523527145,
        -0.20861224830150604,
        -0.17667070031166077,
        0.0836523026227951,
        0.3962075710296631,
        -0.03781154006719589,
        -0.3255946934223175,
        0.0698440819978714,
        -0.49003663659095764,
        0.03572235628962517,
        -0.11246482282876968,
        0.005910846404731274,
        0.00331764854490757,
        0.1985352635383606,
        0.1422654092311859,
        0.3013181984424591,
        0.3627793788909912,
        -0.13062240183353424,
        0.08608053624629974,
        0.08972557634115219,
        0.2821936309337616,
        0.2622392475605011,
        -0.19585634768009186,
        -0.4340572953224182,
        -0.4608200788497925,
        0.1544661670923233,
        -0.2724364101886749,
        -0.33925896883010864,
        0.32213300466537476,
        -0.352438747882843,
        -0.0022682128474116325,
        -0.011510923504829407,
        0.08883677423000336,
        -0.11712116003036499,
        -0.23395177721977234,
        0.17593802511692047,
        0.07167847454547882,
        0.07742425054311752,
        -0.051565926522016525,
        0.0715719684958458,
        -0.008817099966108799,
        0.04345554858446121,
        -0.18935838341712952,
        0.3853127360343933,
        0.04204826056957245,
        -0.042509619146585464,
        -0.0512537956237793,
        -0.19103050231933594,
        0.13839274644851685,
        -0.08010391145944595,
        -0.04137076064944267,
        -0.16203895211219788,
        -0.22142164409160614,
        -0.046355683356523514,
        -0.03738081827759743,
        0.20134150981903076,
        -0.07215515524148941,
        -0.19544574618339539,
        -0.14553134143352509,
        0.14004649221897125,
        0.10983128100633621,
        0.19084464013576508,
        -0.11091312766075134,
        -0.03454042971134186,
        0.11185358464717865,
        -0.4305342435836792,
        0.32074862718582153,
        0.036161914467811584,
        -0.23129376769065857,
        0.06295324116945267,
        -0.00928043108433485,
        0.1986640989780426,
        -0.14810271561145782,
        -0.21371003985404968,
        -0.22012820839881897,
        0.026692716404795647,
        0.2215215414762497,
        0.5527997016906738,
        -0.04386548697948456,
        0.05089353024959564,
        0.18388698995113373,
        -0.021061738952994347,
        -0.19286412000656128,
        0.0029706554487347603,
        0.061106689274311066,
        0.15554580092430115,
        -0.23982998728752136,
        0.21738100051879883,
        0.12275847047567368,
        0.5726085305213928,
        0.06077372282743454,
        0.10618799924850464,
        -0.045358579605817795,
        -0.22863581776618958,
        0.2281373292207718,
        -0.190431147813797,
        -0.09913977235555649,
        0.3454868495464325,
        0.28774747252464294,
        0.11399442702531815,
        -0.052486445754766464,
        -0.23886212706565857,
        0.09332714229822159,
        0.2226754128932953,
        -0.01828397810459137,
        0.10269229859113693,
        0.08278248459100723,
        -0.1586810201406479,
        -0.031780216842889786,
        0.029516907408833504,
        -0.014797855168581009,
        -0.018413148820400238,
        -0.47532278299331665,
        0.006747175939381123,
        0.15333186089992523,
        -0.15293431282043457,
        -0.05452466011047363,
        0.2866775691509247,
        0.5040306448936462,
        -0.2909232974052429,
        -0.32292869687080383,
        0.11919345706701279,
        -0.2410629242658615,
        0.24392636120319366,
        0.10087935626506805,
        -0.17488707602024078,
        -0.4110552668571472,
        -0.18991442024707794,
        0.023265087977051735,
        0.10599050670862198,
        0.35614070296287537,
        0.2743689715862274,
        0.13047371804714203,
        -0.4655979871749878,
        0.009851442649960518,
        0.30788931250572205,
        -0.11412262916564941,
        0.036237310618162155,
        0.03744255751371384,
        0.1519620418548584,
        -0.15417197346687317,
        0.1738889515399933,
        0.16509586572647095,
        0.09396835416555405,
        0.01959848962724209,
        -0.4271731674671173,
        -0.27237436175346375,
        0.20923061668872833,
        0.3793172836303711,
        0.20267437398433685,
        -0.09991546720266342,
        0.2197122722864151,
        0.11287367343902588,
        0.08327315002679825,
        -0.10164280235767365,
        0.3550048768520355,
        0.08295796066522598,
        -0.0819145143032074,
        0.1415000557899475,
        0.17414115369319916,
        -0.10778135061264038,
        0.0656919926404953,
        -0.2620052397251129,
        0.07837214320898056,
        0.366517573595047,
        -0.06831534206867218,
        -0.13631832599639893,
        -0.014814027585089207,
        -0.0973392054438591,
        0.13731804490089417,
        0.12536007165908813,
        0.13169588148593903,
        -0.10654398798942566,
        -0.2578064799308777,
        0.07587265968322754,
        0.11904904246330261,
        0.1395280957221985,
        -0.24536694586277008,
        -0.13665761053562164,
        -0.36645039916038513,
        0.039871495217084885,
        0.08976289629936218,
        -0.09069232642650604,
        0.016734451055526733,
        0.10385210812091827,
        0.011086964048445225,
        -0.4968652129173279,
        0.044052597135305405,
        0.23059169948101044,
        -0.19721348583698273,
        0.13446101546287537,
        -0.16164633631706238,
        -0.022423982620239258,
        -0.2622862756252289,
        0.16332140564918518,
        0.13256771862506866,
        -0.19192583858966827,
        -0.01147663313895464,
        0.07999040186405182,
        0.0856696143746376,
        0.04516412317752838,
        -0.18084776401519775,
        0.09903150796890259,
        -0.0714879259467125,
        0.27542757987976074,
        0.18178172409534454,
        -0.0855647400021553,
        0.04283430427312851,
        -0.3296964764595032,
        0.2239494025707245,
        -0.029488736763596535,
        -0.2561150789260864,
        -0.3407351076602936,
        0.05368034914135933,
        0.35628917813301086,
        -0.23348873853683472,
        0.06445019692182541,
        0.09447196871042252,
        -0.03935893252491951,
        -0.043502628803253174,
        0.15121188759803772,
        -0.13956959545612335,
        -0.07199712842702866,
        0.17976561188697815,
        -0.04009399935603142,
        -0.04991425946354866,
        0.23106876015663147,
        -0.07062260806560516,
        -0.16415680944919586,
        -0.17445096373558044,
        -0.19271911680698395,
        0.20266999304294586,
        -0.11044555902481079,
        -0.049050696194171906,
        -0.05164370685815811,
        0.11783553659915924,
        -0.0173979252576828,
        0.14451071619987488,
        0.10454607754945755,
        0.10285655409097672,
        0.05869753286242485,
        -0.17701369524002075,
        -0.3639650344848633,
        0.3713780343532562,
        0.4441579282283783,
        -0.4534227252006531,
        0.6864502429962158,
        0.012303789146244526,
        -0.3013877868652344,
        -0.709091305732727,
        0.37466320395469666,
        0.4897018373012543,
        -0.3600475490093231,
        0.3863893449306488,
        0.3320312201976776,
        0.1626487523317337,
        0.33625736832618713,
        -0.1449577957391739,
        0.2929287552833557,
        0.3231206238269806,
        -0.11150676012039185,
        0.13988271355628967,
        -0.11028479784727097,
        0.19813106954097748,
        -0.20559680461883545,
        -0.09067955613136292,
        0.12874996662139893,
        0.022116614505648613,
        -0.24397292733192444,
        0.06542067229747772,
        0.055221207439899445,
        0.04396680369973183,
        0.327377051115036,
        -0.07577573508024216,
        0.27441734075546265,
        -0.32379963994026184,
        -0.2081538289785385,
        -0.12463559210300446,
        0.23625217378139496,
        -0.19574584066867828,
        -0.20749185979366302,
        -0.5922386646270752,
        0.42170432209968567,
        0.5036312937736511,
        -0.25949642062187195,
        -0.22562699019908905,
        -0.152459979057312,
        0.29430854320526123,
        0.06002271920442581,
        -0.2574169337749481,
        0.08097288012504578,
        0.2618141770362854,
        -0.4070099890232086,
        -0.018387679010629654,
        -0.18509967625141144,
        -0.17608173191547394,
        0.2328065186738968,
        0.15290042757987976,
        -0.0019049129914492369,
        -0.4638304114341736,
        -0.37299537658691406,
        0.4440102279186249,
        -0.1357433795928955,
        -0.6132284998893738,
        0.40063783526420593,
        -0.30186381936073303,
        0.13883920013904572,
        -0.036488376557826996,
        -0.29247063398361206,
        -0.010855511762201786,
        0.27896201610565186,
        -0.1341092437505722,
        -0.2761417031288147,
        -0.1485869437456131,
        -0.07061290740966797,
        0.11825863271951675,
        -0.15986476838588715,
        0.20267117023468018,
        -0.02765801176428795,
        -0.07825420051813126,
        0.3477616012096405,
        -0.4510928988456726,
        0.12879671156406403,
        0.18287815153598785,
        -0.3272060751914978,
        -0.02580435201525688,
        -0.17982348799705505,
        0.4041154384613037,
        -0.24570028483867645,
        -0.08555445075035095,
        0.08168106526136398,
        0.062337376177310944,
        -0.02936316840350628,
        -0.12973187863826752,
        -0.17868094146251678,
        0.07651147246360779,
        0.01903040148317814,
        -0.1658208668231964,
        0.3065866529941559,
        0.5662216544151306,
        0.03316599875688553,
        0.24582816660404205,
        -0.28768348693847656,
        -0.06458575278520584,
        -0.09659907966852188,
        0.17393173277378082,
        0.043530941009521484,
        0.010554024949669838,
        -0.17085537314414978,
        0.10832125693559647,
        0.25816425681114197,
        0.3938532769680023,
        -0.2009575515985489,
        -0.04776842147111893,
        0.04746225103735924,
        0.20641590654850006,
        -0.08880817145109177,
        0.006679937243461609,
        0.1448838859796524,
        -0.09812173992395401,
        -0.02612348645925522,
        -0.06854517757892609,
        -0.0665913075208664,
        0.00719980476424098,
        0.19364555180072784,
        -0.2077898234128952,
        -0.09910569339990616,
        0.21855738759040833,
        0.19613578915596008,
        -0.0056127929128706455,
        -0.007445604540407658,
        0.13886217772960663,
        -0.12090568244457245,
        -0.017625881358981133,
        -0.1711495965719223,
        -0.32591086626052856,
        0.09780927002429962,
        -0.2608594000339508,
        0.25361406803131104,
        -0.08207454532384872,
        -0.2185734212398529,
        -0.18634803593158722,
        0.21119973063468933,
        0.1235075518488884,
        0.09295356273651123,
        0.0795418992638588,
        -0.036342062056064606,
        0.03201038017868996,
        -0.04743069410324097,
        0.011688120663166046,
        0.01326653454452753,
        -0.18392355740070343,
        -0.12007416784763336,
        0.014760316349565983,
        0.12630242109298706,
        -0.09835641831159592,
        -0.23577062785625458,
        0.3793792128562927,
        0.059951603412628174,
        0.21260102093219757,
        -0.2176656275987625,
        -0.06899076700210571,
        0.0396198108792305,
        0.011947927996516228,
        0.2983100116252899,
        -0.17901431024074554,
        -0.30935409665107727,
        -0.22940625250339508,
        -0.09179946035146713,
        0.08873530477285385,
        0.006362998392432928,
        0.12806273996829987,
        0.1511940211057663,
        -0.22460956871509552,
        -0.06245090067386627,
        0.041321638971567154,
        -0.19414609670639038,
        0.726936399936676,
        0.06999149918556213,
        0.03298766165971756,
        0.21251289546489716,
        0.07694129645824432,
        0.00010288473276887089,
        -0.10148167610168457,
        0.10762941837310791,
        -0.005941879469901323,
        0.19453588128089905,
        0.1941031813621521,
        -0.08593501895666122,
        0.12132030725479126,
        0.3275444805622101,
        -0.07607295364141464,
        0.2073109745979309,
        -0.11014648526906967,
        -0.1592954695224762,
        -0.2942889928817749,
        -0.023124437779188156,
        -0.0407915860414505,
        0.13071691989898682,
        -0.34916791319847107,
        0.07477336376905441,
        0.1250663548707962,
        -0.0303033534437418,
        -0.08816850185394287,
        0.25683650374412537,
        0.05634646490216255,
        -0.09890509396791458,
        -0.21970254182815552,
        0.19257941842079163,
        -0.20979779958724976,
        0.015525042079389095,
        -0.10715996474027634,
        -0.20129552483558655,
        0.04203902557492256,
        -0.1297469437122345,
        0.018316414207220078,
        -0.12252824753522873,
        -0.045236699283123016,
        0.11066436767578125,
        0.1398315131664276,
        -0.13421578705310822,
        0.2452744096517563,
        0.1647072285413742,
        -0.27784696221351624,
        -0.004896866623312235,
        0.34523317217826843,
        0.1313319206237793,
        0.00851549580693245,
        0.4123312532901764,
        -0.0677371546626091,
        -0.046924177557229996,
        0.028292221948504448,
        0.24414271116256714,
        -0.26094040274620056,
        0.12439052015542984,
        -0.12739649415016174,
        -0.22815240919589996,
        0.07751605659723282,
        0.18800058960914612,
        -0.19460898637771606,
        0.2228531539440155,
        -0.11760155856609344,
        -0.24724656343460083,
        0.016268370673060417,
        -0.027777986600995064,
        0.16637293994426727,
        0.25453829765319824,
        0.042656127363443375,
        0.16576030850410461,
        -0.5553116202354431,
        0.03745962306857109,
        -0.004692749585956335,
        -0.404475599527359,
        0.1462976187467575,
        0.07124210894107819,
        -0.00744627183303237,
        0.017664676532149315,
        0.24543629586696625,
        -0.02087898924946785,
        -0.13972389698028564,
        -0.038010723888874054,
        -0.13485080003738403,
        -0.22891387343406677,
        -0.044511038810014725,
        0.03920924663543701,
        0.07826956361532211,
        0.2870878577232361,
        0.31631726026535034,
        0.07416699081659317,
        0.30682429671287537,
        -0.2641841769218445,
        -0.02092132158577442,
        0.011843549087643623,
        0.12992452085018158,
        -0.12060893326997757,
        0.06383658200502396,
        0.10189112275838852,
        -0.14015793800354004,
        -0.03373148664832115,
        0.0778902992606163,
        -0.4200718104839325,
        -0.0887502133846283,
        0.009389293380081654,
        -0.6277853846549988,
        0.18458186089992523,
        0.32198697328567505,
        0.34960484504699707,
        -0.3895445168018341,
        0.40905389189720154,
        -0.4369826018810272,
        0.47304800152778625,
        -0.34735026955604553,
        -0.44027814269065857,
        0.2852352559566498,
        0.040489327162504196,
        0.1901790052652359,
        -0.5294867157936096,
        -0.38924476504325867,
        -0.060142699629068375,
        -0.5661818981170654,
        0.18183404207229614,
        0.2292766124010086,
        0.019295750185847282,
        -0.0025693022180348635,
        0.4318118393421173,
        0.30537042021751404,
        -0.26221489906311035,
        0.08003345131874084,
        -0.2428511530160904,
        -0.43938571214675903,
        -0.05794641375541687,
        -0.11185593158006668,
        0.04857707396149635,
        -0.3909366726875305,
        0.41235488653182983,
        -0.40821579098701477,
        0.12195989489555359,
        0.5562258958816528,
        0.5793885588645935,
        -0.38656073808670044,
        0.2547592520713806,
        0.2730123996734619,
        -0.20981524884700775,
        0.02925259619951248,
        -0.043276019394397736,
        -0.3364807069301605,
        0.047432538121938705,
        0.17748549580574036,
        -0.12366790324449539,
        0.323180615901947,
        0.008703597821295261,
        0.1687730997800827,
        0.3222762942314148,
        -0.03597373515367508,
        0.11572161316871643,
        -0.16908016800880432,
        -0.4377267062664032,
        -0.13565178215503693,
        0.15454232692718506,
        -0.2596001923084259,
        0.3235280513763428,
        0.09087345004081726,
        0.20548401772975922,
        -0.22758717834949493,
        -0.24427756667137146,
        -0.425621896982193,
        -0.2659207880496979,
        0.10818394273519516,
        0.016290372237563133,
        -0.03550432622432709,
        -0.14848671853542328,
        0.21066144108772278,
        -0.02944117598235607,
        0.2683180272579193,
        0.04657890647649765,
        0.13780321180820465,
        0.19338726997375488,
        -0.10589923709630966,
        0.1873544156551361,
        0.1848999708890915,
        0.20186910033226013,
        0.18360655009746552,
        0.03173999860882759,
        0.27125516533851624,
        0.08595484495162964,
        -0.18318265676498413,
        -0.07727731019258499,
        -0.3865523040294647,
        0.06373810768127441,
        -0.08786055445671082,
        0.2905815541744232,
        -0.35689252614974976,
        -0.0011276686564087868,
        0.16462315618991852,
        0.0547759011387825,
        0.0014427617425099015,
        0.27806976437568665,
        -0.1896987408399582,
        -0.04246097058057785,
        0.1285083293914795,
        -0.1405833661556244,
        0.1850513368844986,
        -0.04206693544983864,
        -0.10421450436115265,
        -0.03922003135085106,
        0.01869017630815506,
        -0.08225024491548538,
        0.15551899373531342,
        0.5202951431274414,
        0.21018843352794647,
        0.03447136655449867,
        -0.1674608439207077,
        0.13848714530467987,
        -0.04569495469331741,
        -0.11727461963891983,
        -0.10140529274940491,
        0.01189294084906578,
        -0.009864616207778454,
        0.14990031719207764,
        -0.14201544225215912,
        0.04888847842812538,
        0.2104085087776184,
        0.03533479571342468,
        0.24267315864562988,
        -0.10159189999103546,
        0.13078217208385468,
        -0.0896211639046669,
        -0.02763052098453045,
        -0.3501613140106201,
        0.1191210225224495,
        -0.06450866162776947,
        -0.009691315703094006,
        0.35575851798057556,
        -0.08507540822029114,
        0.35156428813934326,
        -0.1657734364271164,
        0.032676734030246735,
        -0.08489635586738586,
        -0.20508593320846558,
        -0.2478497475385666,
        -0.001271490822546184,
        -0.07321663200855255,
        0.18659088015556335,
        0.1111551895737648,
        0.05007753521203995,
        -0.012142363004386425,
        -0.0969015508890152,
        -0.06234024465084076,
        -0.3047555685043335,
        -0.09460282325744629,
        0.08704537898302078,
        -0.08713743835687637,
        0.34077173471450806,
        -0.1471606343984604,
        -0.16027000546455383,
        0.23692841827869415,
        0.07851985096931458,
        -0.28591272234916687,
        0.007288038730621338,
        -0.12861907482147217,
        0.21523338556289673,
        0.14562448859214783,
        0.26977360248565674,
        -0.36211901903152466,
        -0.3097385764122009,
        0.20794816315174103,
        0.26151344180107117,
        0.13707774877548218,
        0.25419771671295166,
        -0.15922749042510986,
        0.004622967913746834,
        -0.07895337045192719,
        -0.16193337738513947,
        0.02703128755092621,
        -0.20829521119594574,
        0.1093411073088646,
        -0.1964382529258728,
        -0.001742461696267128,
        -0.24047869443893433,
        -0.20895537734031677,
        0.1244216114282608,
        -0.044023916125297546,
        -0.08518090844154358,
        -0.11284481734037399,
        -0.15944752097129822,
        -0.23745903372764587,
        0.05271460488438606,
        0.24048087000846863,
        0.056420303881168365,
        -0.17845478653907776,
        0.029722342267632484,
        -0.034288790076971054,
        -0.2676791846752167,
        0.0513734444975853,
        0.16675974428653717,
        -0.33707156777381897,
        0.01738591305911541,
        -0.06791604310274124,
        0.2698073983192444,
        -0.2434321939945221,
        0.15692991018295288,
        -0.05618239566683769,
        -0.21034836769104004,
        0.1865507811307907,
        0.13676868379116058,
        -0.025656675919890404,
        -0.1308646947145462,
        0.07965784519910812,
        0.287751168012619,
        0.34763938188552856,
        -0.2765101194381714,
        -0.14336027204990387,
        -0.1874728798866272,
        -0.07371459156274796,
        0.10785568505525589,
        -0.1329156905412674,
        0.009143233299255371,
        -0.13975587487220764,
        -0.023147134110331535,
        0.06316500157117844,
        -0.11266422271728516,
        0.1801561564207077,
        -0.13288050889968872,
        0.12292522192001343,
        -0.16524042189121246,
        -0.03247253969311714,
        0.19447197020053864,
        -0.038406144827604294,
        -0.10089002549648285,
        -0.04914078488945961,
        -0.06374508887529373,
        0.01980181224644184,
        -0.199987530708313,
        -0.19277608394622803,
        -0.0788537934422493,
        -0.07930805534124374,
        -0.026076024398207664,
        0.16197030246257782,
        -0.1207924336194992,
        -0.06047746166586876,
        -0.057314660400152206,
        -0.07916288822889328,
        0.04975152388215065,
        -0.017777089029550552,
        0.07639270275831223,
        -0.1297196000814438,
        -0.009570452384650707,
        0.08578236401081085,
        0.3979712724685669,
        -0.041318628937006,
        -0.0767492949962616,
        0.14068838953971863,
        0.10700777918100357,
        -0.18748702108860016,
        -0.20876339077949524,
        0.10996843129396439,
        0.01949058100581169,
        -0.07415762543678284,
        0.004880579188466072,
        -0.05502380058169365,
        -0.17883606255054474,
        0.1990615427494049,
        0.20330928266048431,
        0.024199914187192917,
        0.0483795627951622,
        -0.12208237498998642,
        0.04145437851548195,
        0.29977893829345703,
        -0.27375638484954834,
        0.05679083243012428,
        -0.31746041774749756,
        0.1272721290588379,
        -0.15056781470775604,
        0.0895860567688942,
        -0.043864618986845016,
        -0.03744756802916527,
        0.028555413708090782,
        0.016036508604884148,
        0.19441285729408264,
        0.08479496836662292,
        -0.8358851075172424,
        0.28363722562789917,
        0.1982749104499817,
        -0.19139714539051056,
        0.3900719881057739,
        0.7940438389778137,
        -0.7252480983734131,
        0.10639220476150513,
        0.37875109910964966,
        0.1310102641582489,
        0.26647478342056274,
        0.11664814502000809,
        -0.0838121697306633,
        0.43296653032302856,
        0.02902025170624256,
        0.32700249552726746,
        -0.1361294984817505,
        -0.2119918167591095,
        0.10118568688631058,
        -0.37646719813346863,
        0.01974031701683998,
        0.29291197657585144,
        0.10517968982458115,
        0.10411111265420914,
        0.08267633616924286,
        -0.17698852717876434,
        0.39122194051742554,
        -0.4350681006908417,
        0.117843858897686,
        -0.3559829592704773,
        0.5163103342056274,
        -0.0741618201136589,
        0.2305358201265335,
        -0.37192508578300476,
        0.25546735525131226,
        -0.0727468803524971,
        0.2807518243789673,
        0.2914520800113678,
        0.20515580475330353,
        -0.10777623951435089,
        0.06481289863586426,
        -0.289987176656723,
        -0.26915785670280457,
        0.2648575007915497,
        -0.15267540514469147,
        0.2541268765926361,
        -0.15032337605953217,
        0.04299188777804375,
        -0.03043963387608528,
        -0.3886294662952423,
        0.18559978902339935,
        -0.37047964334487915,
        0.05366169288754463,
        -0.2790374159812927,
        0.5090954899787903,
        0.2094547152519226,
        -0.43695276975631714,
        0.21794506907463074,
        -0.08457037806510925,
        -0.48179662227630615,
        0.08333547413349152,
        -0.07898746430873871,
        -0.08961065113544464,
        -0.4788617491722107,
        -0.3135378658771515,
        0.1342933624982834,
        -0.19901783764362335,
        -0.3045389652252197,
        0.16873320937156677,
        -0.5880997776985168,
        -0.05572818964719772,
        -0.36710217595100403,
        -0.03035857155919075,
        -0.34951773285865784,
        -0.23726822435855865,
        0.07941018790006638,
        -0.22557809948921204,
        -0.012389067560434341,
        -0.2269783765077591,
        -0.1520579755306244,
        -0.021095944568514824,
        -0.3466660678386688,
        0.007009223103523254,
        0.060917772352695465,
        -0.09367755055427551,
        0.33993592858314514,
        0.011119733564555645,
        -0.015660876408219337,
        -0.14297270774841309,
        -0.09785290062427521,
        0.03317699581384659,
        0.026954438537359238,
        -0.06351562589406967,
        0.24904514849185944,
        -0.1783708781003952,
        -0.10180700570344925,
        0.21812409162521362,
        -0.2157236784696579,
        0.05358636751770973,
        -0.258367121219635,
        0.20227469503879547,
        -0.15298108756542206,
        -0.014327074401080608,
        -0.1784282773733139,
        -0.18692320585250854,
        -0.21807435154914856,
        0.329552561044693,
        -0.14624269306659698,
        -0.19196929037570953,
        0.2626965045928955,
        0.04105934873223305,
        0.16532553732395172,
        -0.31144148111343384,
        -0.13072703778743744,
        -0.21519021689891815,
        0.34451380372047424,
        -0.04131074994802475,
        -0.00043212532182224095,
        -0.016899829730391502,
        -0.005309421103447676,
        -0.02723904512822628,
        -0.19591400027275085,
        -0.002905999543145299,
        0.142483189702034,
        -0.045885100960731506,
        -0.04245233163237572,
        -0.19071149826049805,
        0.02275604009628296,
        -0.13446353375911713,
        -0.05965670198202133,
        -0.005586694926023483,
        -0.16304536163806915,
        -0.10850279033184052,
        0.22390201687812805,
        0.3568083643913269,
        -0.04015380144119263,
        -0.3734716773033142,
        -0.393608421087265,
        -0.22278906404972076,
        0.46315380930900574,
        0.1332186758518219,
        -0.008403649553656578,
        -0.30773213505744934,
        0.1479616016149521,
        0.1637193113565445,
        0.17211084067821503,
        -0.001441541942767799,
        -0.24479718506336212,
        0.5067582130432129,
        -0.029482819139957428,
        -0.014447472058236599,
        0.2736552059650421,
        0.16378138959407806,
        0.32003894448280334,
        0.05065424367785454,
        -0.048569098114967346,
        -0.08958955854177475,
        -0.3437294065952301,
        -0.23419462144374847,
        0.04344723001122475,
        0.09702499210834503,
        0.0865686684846878,
        0.0006667420384474099,
        -0.36714136600494385,
        -0.11462666839361191,
        -0.30361995100975037,
        0.03309987112879753,
        -0.08246013522148132,
        -0.009996605105698109,
        0.07951231300830841,
        0.03294730931520462,
        0.14186294376850128,
        -0.11666245013475418,
        0.23678524792194366,
        0.11137440800666809,
        -0.20726646482944489,
        -0.0960657075047493,
        -0.15280765295028687,
        0.0009562123450450599,
        0.15382862091064453,
        0.13516922295093536,
        0.02774115838110447,
        0.2568024694919586,
        0.18767261505126953,
        -0.2591152787208557,
        -0.051982980221509933,
        0.10431430488824844,
        0.3004447817802429,
        0.030029403045773506,
        0.13331715762615204,
        -0.03566490486264229,
        -0.2597993314266205,
        -0.017830679193139076,
        -0.0995953306555748,
        0.09945271164178848,
        -0.1676105260848999,
        0.16015228629112244,
        -0.19446808099746704,
        -0.21134421229362488,
        -0.10941009223461151,
        0.17149031162261963,
        0.2543700039386749,
        0.07389910519123077,
        0.23239624500274658,
        0.21925301849842072,
        -0.11026286333799362,
        0.053846485912799835,
        0.1234436109662056,
        0.31111130118370056,
        -0.12009111791849136,
        -0.03563947230577469,
        0.06348395347595215,
        -0.12108414620161057,
        -0.013908769935369492,
        0.07666260749101639,
        -0.27472737431526184,
        -0.079853355884552,
        0.11632143706083298,
        0.1578921526670456,
        0.14537808299064636,
        0.17647956311702728,
        0.026329144835472107,
        -0.12848743796348572,
        0.18945923447608948,
        -0.15014439821243286,
        -0.20049159228801727,
        0.11473006010055542,
        -0.04215637221932411,
        0.11846844851970673,
        0.18385407328605652,
        0.17354728281497955,
        0.1473122537136078,
        -0.3401614725589752,
        -0.19192691147327423,
        -0.1863597333431244,
        0.3414895832538605,
        0.062323469668626785,
        0.11497665196657181,
        -0.19273924827575684,
        0.09553266316652298,
        -0.06143706664443016,
        -0.22064971923828125,
        0.1182335615158081,
        0.02723529376089573,
        0.07571269571781158,
        -0.016927894204854965,
        -0.294717937707901,
        -0.177525594830513,
        -0.09104586392641068,
        0.1278049796819687,
        0.17845579981803894,
        -0.1490197777748108,
        0.1372428685426712,
        0.03748147934675217,
        0.23647737503051758,
        0.17465636134147644,
        0.06462313234806061,
        -0.0634130910038948,
        -0.11046694964170456,
        -0.2666977047920227,
        -0.1293555647134781,
        -0.2094409465789795,
        -0.06286022067070007,
        -0.033737920224666595,
        0.013273419812321663,
        -0.09938254952430725,
        0.1026521623134613,
        0.2019304782152176,
        -0.11316116899251938,
        -0.2204849272966385,
        0.4048522412776947,
        0.3101764917373657,
        -0.027069218456745148,
        0.018782125785946846,
        -0.10023732483386993,
        -0.08068516850471497,
        -0.2386971414089203,
        0.04896235838532448,
        -0.04708088934421539,
        -0.10490604490041733,
        -0.3732014000415802,
        -0.6187998652458191,
        -0.2980758845806122,
        -0.8627057671546936,
        0.6265804171562195,
        0.4787169098854065,
        -0.6167210340499878,
        -0.28617802262306213,
        -0.1426459401845932,
        -0.3481670320034027,
        0.07752202451229095,
        0.1749117523431778,
        -0.08193154633045197,
        0.005487185902893543,
        0.03085024282336235,
        0.09169981628656387,
        0.16769950091838837,
        0.09386446326971054,
        0.46048787236213684,
        -0.2860652506351471,
        0.15553231537342072,
        0.19885604083538055,
        -0.0439244844019413,
        0.21773608028888702,
        0.27990666031837463,
        0.54572594165802,
        0.011366669088602066,
        0.25478917360305786,
        -0.18491236865520477,
        -0.18052157759666443,
        0.29193317890167236,
        -0.0140696931630373,
        0.5081819295883179,
        0.4727674424648285,
        -0.2569596469402313,
        0.17223584651947021,
        0.4700029492378235,
        0.04730593040585518,
        0.49078169465065,
        -0.5155299305915833,
        -0.5066357851028442,
        0.05146786570549011,
        -0.4435439109802246,
        0.14456743001937866,
        -0.3820735514163971,
        -0.010797785595059395,
        -0.18468992412090302,
        0.20574824512004852,
        0.20563916862010956,
        0.46028175950050354,
        0.10198120772838593,
        0.010215917602181435,
        0.41583284735679626,
        -0.36828944087028503,
        0.24283652007579803,
        -0.04271382465958595,
        0.5007613897323608,
        0.5178266763687134,
        0.2328108698129654,
        -0.08879208564758301,
        -0.18009978532791138,
        0.21732211112976074,
        0.10200129449367523,
        0.3895959258079529,
        0.2587648630142212,
        0.5503832697868347,
        0.6107986569404602,
        -0.1926790326833725,
        0.11667618900537491,
        -0.24315758049488068,
        0.384732723236084,
        -0.14031687378883362,
        -0.08590167760848999,
        -0.3336511552333832,
        -0.29650694131851196,
        0.33058518171310425,
        0.19313541054725647,
        0.1445048600435257,
        0.24410003423690796,
        -0.13068796694278717,
        0.10386887937784195,
        -0.2924266457557678,
        0.05346988886594772,
        0.06661185622215271,
        0.19400668144226074,
        0.24814440310001373,
        0.23126813769340515,
        0.5014050006866455,
        0.09605830907821655,
        -0.12356241047382355,
        -0.40677231550216675,
        0.0042251399718225,
        -0.11322655528783798,
        -0.260331928730011,
        -0.3180573582649231,
        -0.005212137009948492,
        -0.0829576626420021,
        0.014376560226082802,
        0.061024654656648636,
        -0.10972213000059128,
        -0.07608258724212646,
        -0.15367399156093597,
        -0.1893547624349594,
        0.0855773314833641,
        0.13523182272911072,
        0.005147960036993027,
        0.023878993466496468,
        -0.017690235748887062,
        -0.03769081458449364,
        -0.15992538630962372,
        -0.15489894151687622,
        0.18097370862960815,
        -0.10929498076438904,
        0.15575340390205383,
        0.13355591893196106,
        -0.09662288427352905,
        0.018356874585151672,
        0.1920648068189621,
        0.04524615779519081,
        0.023075871169567108,
        -0.17230166494846344,
        -0.24837233126163483,
        0.11349233239889145,
        0.10282561928033829,
        0.2177882194519043,
        -0.12640106678009033,
        0.04674619063735008,
        -0.11563914269208908,
        -0.17029623687267303,
        -0.06374108791351318,
        0.11976058036088943,
        0.17938141524791718,
        0.09304653108119965,
        0.17563948035240173,
        0.34079796075820923,
        -0.15274985134601593,
        -0.012243976816534996,
        -0.15597110986709595,
        -0.212713360786438,
        0.2752392292022705,
        0.05507209524512291,
        -0.12215463072061539,
        0.04852328076958656,
        0.1027926430106163,
        0.32329654693603516,
        0.056292735040187836,
        -0.09059439599514008,
        -0.18213306367397308,
        0.025381537154316902,
        0.08165006339550018,
        0.4054786264896393,
        -0.13689541816711426,
        0.26538264751434326,
        0.3206768035888672,
        -0.03791918233036995,
        -0.06663678586483002,
        0.32752496004104614,
        0.21186456084251404,
        0.09133557230234146,
        -0.12022435665130615,
        0.4223715364933014,
        -0.06414353847503662,
        -0.10088477283716202,
        -0.011532546952366829,
        0.1254885047674179,
        -0.2058381885290146,
        -0.17291410267353058,
        -0.08910378068685532,
        -0.2130202054977417,
        -0.10835202038288116,
        0.13065874576568604,
        0.07488355785608292,
        -0.01858714036643505,
        -0.3310481011867523,
        -0.011084220372140408,
        -0.013093166053295135,
        -0.17852790653705597,
        -0.3235880136489868,
        -0.11213847994804382,
        0.04265608265995979,
        -0.11310993880033493,
        0.29788151383399963,
        0.1254187524318695,
        0.07961899042129517,
        -0.24120303988456726,
        -0.3095594346523285,
        -0.07707458734512329,
        0.010486161336302757,
        0.0679662898182869,
        -0.07442282140254974,
        -0.3100833296775818,
        0.005775575991719961,
        0.3078269064426422,
        0.3085513412952423,
        -0.09834401309490204,
        0.007834551855921745,
        0.58072829246521,
        0.11686485260725021,
        -0.08854125440120697,
        0.40633830428123474,
        -0.04723300039768219,
        -0.1693422645330429,
        -0.01911543309688568,
        -0.12022604793310165,
        0.056371696293354034,
        -0.140452578663826,
        -0.1278579980134964,
        -0.2555138170719147,
        -0.2017727643251419,
        0.12476810812950134,
        -0.008916252292692661,
        -0.42122673988342285,
        0.21023212373256683,
        -0.050441477447748184,
        0.5332431793212891,
        0.2290489673614502,
        -0.055509429425001144,
        0.29364898800849915,
        -0.08185739815235138,
        0.04243961349129677,
        -0.3274264931678772,
        0.1396317034959793,
        -0.06663152575492859,
        -0.1413094401359558,
        0.14528369903564453,
        0.32822275161743164,
        0.042820580303668976,
        0.1142013669013977,
        0.06665731966495514,
        -0.31988415122032166,
        -0.08693825453519821,
        -0.4061215817928314,
        0.06428773701190948,
        0.157011479139328,
        0.030289914458990097,
        -0.46285566687583923,
        -0.06892766058444977,
        -0.2167218178510666,
        0.4269293546676636,
        -0.14224931597709656,
        -0.24570751190185547,
        -0.19944417476654053,
        -0.15344275534152985,
        0.02118045650422573,
        -0.2807363271713257,
        0.04598509147763252,
        0.0031358825508505106,
        -0.7347919940948486,
        0.16345809400081635,
        0.20663543045520782,
        0.11584730446338654,
        0.07052996754646301,
        0.09931683540344238,
        -0.2854955494403839,
        -0.29642343521118164,
        -0.25472450256347656,
        0.22367529571056366,
        0.01571277156472206,
        -0.04964706301689148,
        -0.04408944398164749,
        0.09673380851745605,
        -0.03387783467769623,
        0.5560120344161987,
        -0.006149612367153168,
        -0.32066866755485535,
        -0.1825214922428131,
        0.18074935674667358,
        0.1074691116809845,
        -0.8630005717277527,
        -0.03362220898270607,
        0.09054442495107651,
        -0.7525185346603394,
        -0.2275320440530777,
        0.1244618147611618,
        -0.037976548075675964,
        -0.127271831035614,
        0.06486698985099792,
        0.11062723398208618,
        -0.009233108721673489,
        0.04211179539561272,
        -0.3164072036743164,
        0.0801854282617569,
        -0.3463137447834015,
        0.07494913041591644,
        -0.43962955474853516,
        0.30991649627685547,
        -0.8010216355323792,
        0.26452285051345825,
        0.22813349962234497,
        -0.04033961147069931,
        -0.33433854579925537,
        -0.0455424040555954,
        -0.06169046089053154,
        -0.34929826855659485,
        -0.08443526923656464,
        0.37468624114990234,
        0.31873074173927307,
        -0.1241079643368721,
        0.2961834967136383,
        0.19443663954734802,
        0.09101860970258713,
        0.15917301177978516,
        -0.13335655629634857,
        -0.18496829271316528,
        0.2824196219444275,
        -0.12804388999938965,
        -0.15123291313648224,
        -0.39147040247917175,
        0.17464861273765564,
        0.36895084381103516,
        0.3457857668399811,
        0.04549199342727661,
        0.2218373715877533,
        -0.20676548779010773,
        -0.28927096724510193,
        -0.14298050105571747,
        -0.036269061267375946,
        -0.02273794822394848,
        0.03600858896970749,
        0.2444724142551422,
        -0.12233342975378036,
        -0.22756405174732208,
        0.2716779112815857,
        0.16408582031726837,
        -0.30250799655914307,
        -0.1596468836069107,
        0.3702879250049591,
        0.48819929361343384,
        -0.16259877383708954,
        -0.14025144279003143,
        0.05358796939253807,
        0.24012792110443115,
        -0.3368811309337616,
        -0.35222530364990234,
        -0.1271398365497589,
        0.08256028592586517,
        -0.2324000746011734,
        0.24035249650478363,
        -0.13963881134986877,
        0.5438631772994995,
        0.2633010149002075,
        0.04672713950276375,
        -0.0070533957332372665,
        -0.03844507783651352,
        -0.19143106043338776,
        -0.07777709513902664,
        0.06571657955646515,
        -0.13293063640594482,
        0.3368941843509674,
        -0.1965632438659668,
        -0.38329017162323,
        -0.2645823359489441,
        -0.3318134844303131,
        0.11844158172607422,
        -0.13195401430130005,
        -0.14358264207839966,
        0.08641725033521652,
        -0.11221187561750412,
        -0.1816413402557373,
        0.1648922562599182,
        -0.1910352110862732,
        0.10840047895908356,
        0.23490330576896667,
        0.026997264474630356,
        0.07715999335050583,
        -0.11374205350875854,
        0.20142383873462677,
        0.31680914759635925,
        -0.08997838944196701,
        -0.008247915655374527,
        -0.032464947551488876,
        0.1567314714193344,
        0.14365948736667633,
        -0.06961467117071152,
        0.14146801829338074,
        -0.11306311935186386,
        0.035675328224897385,
        -0.34126710891723633,
        0.0022584032267332077,
        -0.07518082112073898,
        0.03947567194700241,
        0.0933346077799797,
        0.0009360943222418427,
        -0.04569597169756889,
        0.10243505984544754,
        0.13840536773204803,
        0.47481024265289307,
        0.2277662307024002,
        0.22487302124500275,
        0.2734677493572235,
        -0.012609727680683136,
        -0.11698012053966522,
        -0.0820045918226242,
        -0.15045784413814545,
        -0.10642785578966141,
        -0.9036582112312317,
        0.06974943727254868,
        0.0767575055360794,
        0.98006272315979,
        0.25499477982521057,
        0.2217792123556137,
        -0.16879577934741974,
        -0.10339435189962387,
        0.05936558544635773,
        0.026218943297863007,
        0.005454366095364094,
        -0.04202177748084068,
        -0.8587223887443542,
        0.23005153238773346,
        -0.0175245963037014,
        0.0801611915230751,
        0.023762520402669907,
        -0.07418978214263916,
        0.4784230589866638,
        -0.07507704943418503,
        0.04628412052989006,
        -0.1555679440498352,
        -0.10106529295444489,
        -0.10902585089206696,
        -1.0227234363555908,
        -0.22226309776306152,
        -0.12274985015392303,
        -0.3089471161365509,
        0.02290676347911358,
        0.05753802880644798,
        -0.23817631602287292,
        0.1185741201043129,
        -0.06921570003032684,
        -0.1465226262807846,
        -0.2679767310619354,
        -0.030879909172654152,
        0.3561331629753113,
        -0.04947109520435333,
        0.0069114891812205315,
        -0.23370929062366486,
        -0.13971829414367676,
        0.19207990169525146,
        -0.1804967224597931,
        -0.32476311922073364,
        -0.11039028316736221,
        0.22812914848327637,
        0.0960349440574646,
        0.06310437619686127,
        -0.11029927432537079,
        0.0039016332011669874,
        0.14059115946292877,
        -0.06283774971961975,
        0.06302005797624588,
        -0.08116936683654785,
        -0.055920667946338654,
        -0.011413203552365303,
        0.09015416353940964,
        -0.07094095647335052,
        0.053906578570604324,
        0.11237441003322601,
        -0.08594955503940582,
        -0.04987504705786705,
        -0.28072410821914673,
        -0.19174768030643463,
        -0.26763078570365906,
        -0.25203806161880493,
        -0.0995245948433876,
        -0.2216247320175171,
        0.31905484199523926,
        -0.08974987268447876,
        0.6877814531326294,
        0.010412964969873428,
        0.432762086391449,
        -0.13817016780376434,
        -0.05500715225934982,
        0.0018507560016587377,
        0.22984544932842255,
        -0.01525217667222023,
        0.1350984275341034,
        -0.1562075912952423,
        -0.01953742839396,
        -0.14930865168571472,
        0.3716915547847748,
        0.12047634273767471,
        -0.043090153485536575,
        -0.09070134907960892,
        0.10288231074810028,
        -0.06677769124507904,
        0.20172743499279022,
        0.1478627771139145,
        -0.16721263527870178,
        0.10794049501419067,
        -0.11039554327726364,
        -0.10168180614709854,
        -0.033250488340854645,
        0.017017994076013565,
        0.2367437779903412,
        0.03223061561584473,
        -0.04389308765530586,
        0.33524611592292786,
        -0.059973787516355515,
        -0.1852000653743744,
        -0.2244519591331482,
        -0.06981982290744781,
        0.10797566175460815,
        -0.37076616287231445,
        0.013562845066189766,
        -0.11815641075372696,
        -0.531308650970459,
        0.058616265654563904,
        -0.05710412934422493,
        0.08014316856861115,
        -0.067166768014431,
        0.24710114300251007,
        0.2526022791862488,
        -0.2760731279850006,
        0.05378653109073639,
        0.1633390337228775,
        0.1304239183664322,
        -0.11793980002403259,
        -0.08423623442649841,
        -0.02362101338803768,
        -0.11474505811929703,
        0.05702638626098633,
        0.10496065020561218,
        0.26225680112838745,
        -0.02866738848388195,
        0.16943226754665375,
        0.020164866000413895,
        0.06995230913162231,
        0.035286933183670044,
        0.10434772819280624,
        0.07312362641096115,
        0.14752034842967987,
        0.067477747797966,
        -0.1715146154165268,
        0.09245291352272034,
        -0.00631372956559062,
        -0.0683499202132225,
        0.1235608235001564,
        -0.34932032227516174,
        -0.03520343080163002,
        -0.5134186148643494,
        0.18330225348472595,
        0.2574580907821655,
        0.14820128679275513,
        0.1025179997086525,
        0.35010576248168945,
        0.1666707545518875,
        -0.28428617119789124,
        0.34131747484207153,
        -0.17027749121189117,
        0.07756549119949341,
        -0.13235554099082947,
        -0.14274930953979492,
        0.041668184101581573,
        -0.25353989005088806,
        0.15038767457008362,
        -0.3162531554698944,
        -0.14831018447875977,
        -0.1700412929058075,
        0.20992472767829895,
        -0.09435541927814484,
        0.016256501898169518,
        -0.056997787207365036,
        -0.5772344470024109,
        -0.3997870087623596,
        -0.08649972081184387,
        1.144595742225647,
        0.5580733418464661,
        0.4271460771560669,
        -1.2804793119430542,
        -0.16014228761196136,
        0.06556032598018646,
        -0.14167314767837524,
        0.05821816995739937,
        0.06813501566648483,
        0.33199819922447205,
        0.41430723667144775,
        -0.4416712522506714,
        -0.07849539816379547,
        -0.011139004491269588,
        -0.3803059160709381,
        -0.11736194044351578,
        -0.14424405992031097,
        -0.20977766811847687,
        0.14373305439949036,
        -0.07060068100690842,
        -0.23225407302379608,
        0.5801167488098145,
        -0.24527227878570557,
        0.09662985056638718,
        0.17145250737667084,
        0.14889709651470184,
        0.3188386559486389,
        0.08336567878723145,
        0.10935889184474945,
        -0.15924642980098724,
        0.0502002127468586,
        -0.23712299764156342,
        0.3192765712738037,
        -0.018192002549767494,
        0.14353610575199127,
        -0.07796847820281982,
        0.03753865137696266,
        -0.12586025893688202,
        0.1424974650144577,
        -0.278119295835495,
        -0.15105420351028442,
        -0.027876203879714012,
        0.2577144205570221,
        0.10383845865726471,
        -0.027127046138048172,
        0.35748058557510376,
        0.24831603467464447,
        -0.34935519099235535,
        -0.29481086134910583,
        -0.31649091839790344,
        -0.20497463643550873,
        0.12431266903877258,
        -0.2660220265388489,
        -0.14146938920021057,
        0.0779304951429367,
        -0.056631650775671005,
        0.2929399907588959,
        0.16220863163471222,
        -0.5581005215644836,
        0.2506115138530731,
        0.13669687509536743,
        0.5749768018722534,
        -0.14024807512760162,
        -0.2066516876220703,
        -0.34476739168167114,
        0.3437384366989136,
        -0.06146369129419327,
        -0.1374882459640503,
        0.1425175815820694,
        0.3235141336917877,
        -0.14565400779247284,
        -0.23769976198673248,
        0.40662911534309387,
        0.05066140368580818,
        -0.06471556425094604,
        -0.27505192160606384,
        -0.18649822473526,
        -0.24695584177970886,
        -0.009243713691830635,
        -0.27190810441970825,
        -0.060384638607501984,
        0.25093162059783936,
        -0.45968279242515564,
        0.001122045679949224,
        -0.0932346060872078,
        0.1993328332901001,
        0.5077325701713562,
        0.0016965842805802822,
        -0.16356147825717926,
        -0.1650524139404297,
        -0.4082038700580597,
        0.09710918366909027,
        0.13210318982601166,
        0.21795254945755005,
        0.14495328068733215,
        0.22734013199806213,
        -0.3027487099170685,
        0.20519894361495972,
        0.14448986947536469,
        -0.3575109839439392,
        -0.13332685828208923,
        0.20113465189933777,
        -0.2477676123380661,
        -0.2469312995672226,
        0.21102875471115112,
        -0.09084410220384598,
        0.21025680005550385,
        -0.10784529149532318,
        0.23988927900791168,
        0.13889266550540924,
        0.034162137657403946,
        0.029917577281594276,
        0.6284111738204956,
        0.07259535044431686,
        0.26925191283226013,
        0.021003566682338715,
        0.2204056978225708,
        -0.2493879795074463,
        0.14249888062477112,
        -0.14473052322864532,
        0.45825180411338806,
        -0.2760189473628998,
        0.4165700376033783,
        0.30524536967277527,
        0.03881340101361275,
        0.06159251183271408,
        0.3699995279312134,
        0.16408953070640564,
        -0.08637871593236923,
        -0.4922868609428406,
        -0.2775347828865051,
        0.06315254420042038,
        0.04028277099132538,
        0.09542077034711838,
        0.0038812400307506323,
        0.2483866810798645,
        0.013134115375578403,
        -0.1614222675561905,
        0.1843881607055664,
        -0.07311984151601791,
        0.47640126943588257,
        -0.01981363259255886,
        -0.11077076941728592,
        -0.14382290840148926,
        0.12419110536575317,
        0.09727901965379715,
        -0.14643947780132294,
        -0.06847482174634933,
        -0.07003539055585861,
        -0.1490977704524994,
        -0.026522235944867134,
        -0.025159375742077827,
        0.46052080392837524,
        0.06599073112010956,
        0.20073793828487396,
        0.24271811544895172,
        -0.07005714625120163,
        -0.07719869166612625,
        0.17414841055870056,
        -0.0022005841601639986,
        0.08470539003610611,
        0.09840647876262665,
        -0.13913379609584808,
        -0.19432663917541504,
        -0.06314783543348312,
        -0.10329870879650116,
        0.022863203659653664,
        0.6166939735412598,
        0.06476861238479614,
        0.0794479250907898,
        0.486794650554657,
        -0.023851441219449043,
        0.03063518926501274,
        0.04174038767814636,
        -0.027596406638622284,
        -0.17511174082756042,
        -0.2071208357810974,
        0.2407282441854477,
        0.19554901123046875,
        0.13276098668575287,
        0.08638167381286621,
        0.009830235503613949,
        0.05497289076447487,
        0.14088520407676697,
        0.20476490259170532,
        0.20037923753261566,
        -0.4728739857673645,
        -0.40367740392684937,
        0.11840234696865082,
        -0.05117319896817207,
        -0.12936243414878845,
        -0.5877715945243835,
        0.1370406150817871,
        -0.5527122616767883,
        -0.12775366008281708,
        -0.7252444624900818,
        0.2981400489807129,
        -0.3218920826911926,
        -0.13314811885356903,
        -0.5157395601272583,
        -0.42757755517959595,
        0.265897274017334,
        -0.24728627502918243,
        -0.20948565006256104,
        -0.26242783665657043,
        0.11921501159667969,
        0.11828602105379105,
        -0.3869289457798004,
        0.6682389974594116,
        -0.6567029356956482,
        0.023089848458766937,
        -0.109530009329319,
        0.012195436283946037,
        0.36619487404823303,
        0.5167692303657532,
        -0.17238512635231018,
        -0.2115505039691925,
        0.2627011239528656,
        0.2251930981874466,
        0.0911768451333046,
        -0.1703600436449051,
        -0.0019569171126931906,
        0.2793901860713959,
        0.20711222290992737,
        0.1086810752749443,
        -0.2767045199871063,
        -0.1570930927991867,
        0.018548352643847466,
        0.08107928186655045,
        0.16700977087020874,
        0.12311466783285141,
        -0.23129072785377502,
        0.014299546368420124,
        -0.18848209083080292,
        0.32219362258911133,
        0.09452028572559357,
        0.2627299129962921,
        0.36560481786727905,
        -0.09988243877887726,
        -0.22551380097866058,
        0.17099852859973907,
        -0.16848504543304443,
        0.02631646953523159,
        -0.7747616767883301,
        0.13614365458488464,
        0.10799667984247208,
        -0.30127620697021484,
        -0.14320488274097443,
        0.026617014780640602,
        0.011330150067806244,
        0.03471280634403229,
        -0.1353301852941513,
        -0.5491265654563904,
        -0.15184417366981506,
        -0.14742808043956757,
        -0.1115938052535057,
        0.045614343136548996,
        -0.27095118165016174,
        -0.1425546258687973,
        0.03821750357747078,
        0.17198701202869415,
        0.37926772236824036,
        -0.08335603773593903,
        0.07324916869401932,
        -0.07277872413396835,
        0.18456023931503296,
        -0.11521352082490921,
        -0.4441024959087372,
        -0.2588590979576111,
        0.062226053327322006,
        -0.04864351451396942,
        0.8295308351516724,
        -0.22947880625724792,
        -0.11762364953756332,
        -0.17700356245040894,
        0.45947930216789246,
        -0.0024860294070094824,
        -0.31889909505844116,
        0.21287642419338226,
        -0.08118712902069092,
        -0.15764275193214417,
        0.3930503726005554,
        0.01784096285700798,
        -0.3623937666416168,
        0.34930872917175293,
        0.32699453830718994,
        -0.004392014350742102,
        -0.06912793219089508,
        -0.022203734144568443,
        0.0883408933877945,
        -0.042246248573064804,
        0.12969587743282318,
        -0.469991534948349,
        0.11529990285634995,
        0.333404541015625,
        0.016713185235857964,
        -0.1013464406132698,
        -0.13023370504379272,
        0.006047685164958239,
        0.1060568317770958,
        0.17716912925243378,
        -0.047599148005247116,
        0.011517759412527084,
        0.0564240962266922,
        -0.013370287604629993,
        0.1051507294178009,
        -0.060105059295892715,
        -0.21280013024806976,
        -0.011986148543655872,
        0.003702352987602353,
        -0.19111093878746033,
        0.06847164779901505,
        0.0654059574007988,
        -0.1955893635749817,
        -0.07556420564651489,
        -0.18535225093364716,
        -0.29663315415382385,
        -0.08419173210859299,
        0.08435706794261932,
        -0.1101447269320488,
        -0.0074849119409918785,
        0.16484147310256958,
        0.12156792730093002,
        -0.048954639583826065,
        0.01312312949448824,
        0.5033311247825623,
        0.05344688147306442,
        -0.24309274554252625,
        -0.2168286144733429,
        -0.004849516786634922,
        -0.03882985562086105,
        0.17481660842895508,
        -0.054558318108320236,
        0.13250680267810822,
        -0.523817777633667,
        0.013907243497669697,
        -0.07116947323083878,
        0.01685456372797489,
        0.05586105212569237,
        -0.07592219859361649,
        -0.2876082956790924,
        0.14424709975719452,
        -0.13083915412425995,
        -0.1501581072807312,
        0.5745082497596741,
        1.0745939016342163,
        0.8069292306900024,
        1.5991681814193726,
        -0.46019598841667175,
        -0.08024648576974869,
        -0.16221068799495697,
        -0.3590922951698303,
        -0.2744806706905365,
        -0.17673423886299133,
        0.15547503530979156,
        -0.3079098165035248,
        0.02411695383489132,
        0.033648476004600525,
        -0.33653444051742554,
        -0.14921610057353973,
        0.46130868792533875,
        0.3305218815803528,
        0.5881081819534302,
        -0.06924594938755035,
        -0.036473989486694336,
        0.2034340351819992,
        -0.15487095713615417,
        -0.3414005935192108,
        0.3639552593231201,
        0.06271262466907501,
        0.15568336844444275,
        0.28537890315055847,
        0.11185558885335922,
        0.2591094970703125,
        -0.2798561453819275,
        -0.11916730552911758,
        -0.08235098421573639,
        -0.1675579696893692,
        -0.21843330562114716,
        0.1424034982919693,
        -0.044496119022369385,
        -0.19403815269470215,
        -0.117786705493927,
        -0.09203018248081207,
        0.177011176943779,
        0.31234756112098694,
        -0.3166128396987915,
        0.24391676485538483,
        0.29221218824386597,
        0.12260127812623978,
        -0.03663013130426407,
        0.07518467307090759,
        -0.1497623771429062,
        0.16969585418701172,
        -0.42963308095932007,
        -0.3329247534275055,
        -0.16268862783908844,
        0.44906195998191833,
        -0.09618062525987625,
        -0.024012479931116104,
        0.5343390107154846,
        0.34179359674453735,
        -0.0435551181435585,
        0.21600255370140076,
        -0.14631283283233643,
        0.166607066988945,
        0.18906734883785248,
        0.32936328649520874,
        -0.24720726907253265,
        -0.5542987585067749,
        -0.2860429286956787,
        -0.229148268699646,
        0.07083822041749954,
        -0.34717366099357605,
        -0.19004862010478973,
        0.20172002911567688,
        -0.014671243727207184,
        0.41948550939559937,
        0.08898135274648666,
        0.2095121145248413,
        0.25100067257881165,
        0.009679628536105156,
        0.08634811639785767,
        -0.03203723207116127,
        -0.36365827918052673,
        0.29292502999305725,
        -0.16915959119796753,
        -0.06069590896368027,
        -0.08676652610301971,
        0.47713178396224976,
        0.7129195332527161,
        0.6845772862434387,
        -0.24277763068675995,
        -0.11024804413318634,
        0.4063076972961426,
        0.4330236613750458,
        -0.00466892821714282,
        -0.039792250841856,
        0.20643800497055054,
        0.14755526185035706,
        -0.23007561266422272,
        -0.341867059469223,
        -0.5232647657394409,
        -0.24821175634860992,
        0.08036088943481445,
        -0.2287411242723465,
        0.31637832522392273,
        -0.003695560386404395,
        0.023651259019970894,
        0.17923758924007416,
        -0.0303043145686388,
        0.016307948157191277,
        0.1709829568862915,
        -0.10149330645799637,
        0.1381402611732483,
        0.07783987373113632,
        -0.05488719418644905,
        0.1814262866973877,
        -0.184827521443367,
        -0.29364269971847534,
        -0.1208575963973999,
        0.3108443021774292,
        -0.12288790196180344,
        0.0248323492705822,
        -0.007489362731575966,
        0.36745744943618774,
        -0.06813645362854004,
        0.17765092849731445,
        0.19285543262958527,
        -0.09014753252267838,
        -0.11704453825950623,
        -0.12091903388500214,
        -0.133188396692276,
        0.10999852418899536,
        0.37963688373565674,
        -0.0561707466840744,
        0.159059539437294,
        0.750859260559082,
        0.12758733332157135,
        0.14990732073783875,
        0.39984095096588135,
        0.3516544699668884,
        -0.005568469874560833,
        -0.017476463690400124,
        0.2693132162094116,
        -0.017709558829665184,
        -0.2852606177330017,
        0.06244772672653198,
        0.1260044276714325,
        0.23992671072483063,
        0.22673609852790833,
        0.05040261894464493,
        0.11854831874370575,
        -0.04014938697218895,
        -0.19025197625160217,
        0.1442120224237442,
        -0.15708868205547333,
        0.05761552229523659,
        0.04154633730649948,
        0.30314749479293823,
        -0.4095115065574646,
        -0.44622039794921875,
        0.24010345339775085,
        0.10939118266105652,
        -0.5618361830711365,
        0.6230707764625549,
        0.4071633517742157,
        -0.5858653783798218,
        -0.12048943340778351,
        0.2918770909309387,
        -0.09843632578849792,
        -0.5239149332046509,
        0.12598726153373718,
        -0.2324957549571991,
        -0.10130000114440918,
        -0.2173706591129303,
        -0.55567467212677,
        -0.3551930785179138,
        -0.08559492230415344,
        -0.5818661451339722,
        0.46128731966018677,
        -0.19064219295978546,
        0.014160335063934326,
        0.10862765461206436,
        -0.18256297707557678,
        -0.1381492167711258,
        0.43487799167633057,
        -0.03519153594970703,
        0.31309378147125244,
        0.42061424255371094,
        -0.23081788420677185,
        -0.23122209310531616,
        0.3241857588291168,
        0.21563580632209778,
        0.1491895467042923,
        -0.35245606303215027,
        -0.25079545378685,
        -0.1805873066186905,
        0.33803555369377136,
        0.26894858479499817,
        0.22848358750343323,
        0.4108752906322479,
        0.05635250359773636,
        0.3241901695728302,
        0.2738450765609741,
        0.14710156619548798,
        -0.1734534502029419,
        -0.3935401141643524,
        -0.09741272777318954,
        0.012318423949182034,
        0.2624439001083374,
        0.1221393421292305,
        -0.022866664454340935,
        0.062045566737651825,
        0.3011898100376129,
        0.14709946513175964,
        0.03881096839904785,
        -0.40144968032836914,
        -0.35399341583251953,
        -0.21588723361492157,
        0.11605788767337799,
        -0.09370245784521103,
        -0.1407497078180313,
        -0.0026766140945255756,
        -0.1321975439786911,
        -0.2678234279155731,
        -0.0814761146903038,
        0.19103097915649414,
        -0.02578497864305973,
        -0.20340698957443237,
        -0.256450891494751,
        0.0909290686249733,
        0.26814648509025574,
        0.2781791090965271,
        0.10226942598819733,
        -0.38268715143203735,
        0.028966719284653664,
        -0.3057282865047455,
        0.29923757910728455,
        0.2590850293636322,
        -0.5383293032646179,
        -0.6759049892425537,
        -0.03852710872888565,
        0.3428691625595093,
        -0.33972638845443726,
        0.11811511963605881,
        -0.6668268442153931,
        -0.33282703161239624,
        0.32800528407096863,
        -0.3332821726799011,
        -0.12826472520828247,
        -0.045872367918491364,
        0.1377163827419281,
        -0.3818126916885376,
        -0.4251689612865448,
        0.05305776372551918,
        -0.04981358349323273,
        -0.1189844012260437,
        0.11868488788604736,
        0.06731897592544556,
        0.10986492782831192,
        0.3919144570827484,
        -0.025689978152513504,
        -0.1632818728685379,
        -0.032231032848358154,
        0.07108195126056671,
        0.2480849325656891,
        -0.24382054805755615,
        0.11750857532024384,
        0.03827374428510666,
        -0.0699530839920044,
        0.27155837416648865,
        -0.21906442940235138,
        0.09437889605760574,
        0.15272629261016846,
        -0.23855595290660858,
        -0.04453107342123985,
        -0.8265032172203064,
        0.22888833284378052,
        -0.110502690076828,
        0.48492440581321716,
        0.3117109537124634,
        0.18283502757549286,
        -0.17189399898052216,
        -0.16029365360736847,
        -0.23119041323661804,
        -0.07866125553846359,
        0.03672534227371216,
        0.02179395593702793,
        -0.015403571538627148,
        0.06706936657428741,
        -0.07412903010845184,
        -0.31997132301330566,
        0.19419771432876587,
        -0.0673060342669487,
        0.09766906499862671,
        -0.01350362878292799,
        0.00413660891354084,
        -0.005065197590738535,
        0.0912230908870697,
        -0.04445584490895271,
        -0.0592179037630558,
        0.16832022368907928,
        0.5320810675621033,
        -0.24424731731414795,
        -0.1495317816734314,
        0.3517477214336395,
        -0.1115744486451149,
        -0.3024864196777344,
        -0.3596315383911133,
        -0.36643606424331665,
        -0.851537823677063,
        -0.47257310152053833,
        -0.4422101378440857,
        -0.5632137656211853,
        0.051361046731472015,
        0.10061826556921005,
        -0.1913248896598816,
        -0.05021150782704353,
        -0.02496221661567688,
        -0.033685166388750076,
        -0.3066869080066681,
        -0.2068386673927307,
        0.20731805264949799,
        0.5175751447677612,
        -0.6893993616104126,
        -0.23140166699886322,
        -0.02038036845624447,
        1.1454468965530396,
        -0.2348128706216812,
        -0.4645865559577942,
        0.15591637790203094,
        -0.16885796189308167,
        0.04885056987404823,
        0.04322567582130432,
        0.14668503403663635,
        0.020690158009529114,
        0.3638729751110077,
        -0.2706001102924347,
        0.06829819828271866,
        -0.16681616008281708,
        -0.04800471290946007,
        -0.018244260922074318,
        -0.3584093153476715,
        -0.0032278902363032103,
        -0.2082662284374237,
        0.07287159562110901,
        0.13448481261730194,
        -0.0524618998169899,
        -0.22234512865543365,
        0.32080140709877014,
        0.040508877485990524,
        0.3516996502876282,
        -0.1014232486486435,
        0.2733686864376068,
        0.49756237864494324,
        0.010282217524945736,
        -0.09119950979948044,
        0.38590535521507263,
        0.36819198727607727,
        -0.014239604584872723,
        -0.21998757123947144,
        0.15780794620513916,
        -0.11863463371992111,
        0.11565355211496353,
        0.4246290922164917,
        0.11779562383890152,
        0.26741233468055725,
        0.16965363919734955,
        0.11188889294862747,
        -0.01824614219367504,
        -0.4639212489128113,
        0.029951278120279312,
        0.2074817270040512,
        -0.06562314927577972,
        0.1716129332780838,
        0.26327356696128845,
        0.3265931010246277,
        -0.1720782071352005,
        -0.4516618251800537,
        -0.2878042459487915,
        -0.31773102283477783,
        0.08376411348581314,
        -0.3746308982372284,
        -0.29554587602615356,
        -0.9574995636940002,
        -0.04849938303232193,
        0.5188479423522949,
        0.3294256627559662,
        -0.18578983843326569,
        0.016943467780947685,
        0.054327551275491714,
        0.04735298827290535,
        -0.15705539286136627,
        -0.3631855845451355,
        0.4813784956932068,
        -0.6443374752998352,
        -0.28629839420318604,
        0.7209110856056213,
        0.20773491263389587,
        -0.2510707676410675,
        -0.5713715553283691,
        0.4155867397785187,
        0.2258697897195816,
        0.2540913224220276,
        -0.0686008408665657,
        0.22474044561386108,
        -0.13791730999946594,
        -0.22582373023033142,
        -0.061806418001651764,
        -0.06628477573394775,
        0.164800226688385,
        0.02936507761478424,
        -0.06341799348592758,
        0.5207222104072571,
        -0.06935260444879532,
        0.0873621255159378,
        0.5121946930885315,
        0.08047141134738922,
        0.07241814583539963,
        0.5066652297973633,
        0.08323024958372116,
        -0.15672935545444489,
        0.1286865621805191,
        -0.1355818510055542,
        -0.2257111817598343,
        0.10285716503858566,
        0.207461416721344,
        0.14406879246234894,
        -0.21392957866191864,
        0.06612951308488846,
        0.45215535163879395,
        -0.0300504881888628,
        0.03846411034464836,
        0.26420858502388,
        0.14173375070095062,
        0.014896253123879433,
        -0.11413922905921936,
        0.5128067135810852,
        0.009016373194754124,
        0.2411992996931076,
        -0.06661437451839447,
        -0.02180195413529873,
        -0.06080091372132301,
        0.05340227484703064,
        0.08450175076723099,
        -0.013745167292654514,
        -0.15143781900405884,
        0.14840303361415863,
        -0.09537071734666824,
        -0.38437482714653015,
        -0.1926814168691635,
        0.2573597729206085,
        -0.4326671361923218,
        -0.06812872737646103,
        -0.31958404183387756,
        -0.10619665682315826,
        0.11609219014644623,
        -0.020952744409441948,
        0.04288548231124878,
        0.00397828035056591,
        -0.06702972948551178,
        -0.06022872030735016,
        0.49348020553588867,
        -0.3020118474960327,
        0.8404570817947388,
        -1.1927363872528076,
        0.46373826265335083,
        0.18644854426383972,
        -0.03501731902360916,
        -0.2193530648946762,
        0.18697349727153778,
        0.1604766994714737,
        -1.0101549625396729,
        0.38239818811416626,
        -0.047897037118673325,
        0.47890353202819824,
        0.0996878370642662,
        0.8553467392921448,
        -0.027606746181845665,
        -0.1762320101261139,
        -0.3512159287929535,
        -0.029223626479506493,
        -0.8194935917854309,
        -0.4969940781593323,
        -0.10995298624038696,
        -0.14863504469394684,
        0.12951378524303436,
        -0.02586713805794716,
        -0.12003261595964432,
        0.5849276185035706,
        0.055290721356868744,
        0.17343667149543762,
        0.11307060718536377,
        0.13260579109191895,
        0.3717442452907562,
        -0.24892409145832062,
        -0.11814107745885849,
        -0.10710154473781586,
        0.06697075068950653,
        0.024564215913414955,
        0.008529327809810638,
        0.19168737530708313,
        -0.10654532164335251,
        -0.1667424738407135,
        -0.6644230484962463,
        0.031244605779647827,
        0.07003108412027359,
        0.01997534930706024,
        -0.3702610433101654,
        -0.445575088262558,
        -0.43110597133636475,
        0.020105591043829918,
        -0.007357422262430191,
        -0.33393073081970215,
        -0.11395745724439621,
        -0.27369001507759094,
        -0.1754334717988968,
        0.27801015973091125,
        0.5527821779251099,
        -0.008299884386360645,
        0.15311257541179657,
        0.21441304683685303,
        -0.3936132788658142,
        0.04761914908885956,
        0.0178981926292181,
        -0.04766536504030228,
        -0.08405400067567825,
        0.02000115066766739,
        0.294206827878952,
        -0.22425483167171478,
        -0.27178651094436646,
        0.2486904263496399,
        -0.11027595400810242,
        0.013314522802829742,
        0.43045952916145325,
        0.14828428626060486,
        0.7528574466705322,
        0.3637595474720001,
        -0.6893148422241211,
        -0.02049971930682659,
        -0.17999950051307678,
        -0.044985417276620865,
        -0.3717913031578064,
        1.3642332553863525,
        0.13358446955680847,
        0.10544394701719284,
        -0.009962220676243305,
        -0.07242518663406372,
        -0.5355158448219299,
        0.24182161688804626,
        -0.15355761349201202,
        -0.20636314153671265,
        0.5523658990859985,
        -0.19839073717594147,
        -0.10068519413471222,
        -0.37474560737609863,
        -0.19585318863391876,
        -0.22713588178157806,
        0.04496590420603752,
        0.020176105201244354,
        -0.23816215991973877,
        -0.2933218479156494,
        0.20500481128692627,
        0.017963187769055367,
        -0.044069111347198486,
        0.028947345912456512,
        0.2653299868106842,
        0.011449921876192093,
        -0.3147146701812744,
        0.24324293434619904,
        0.3266558349132538,
        -0.21024572849273682,
        -0.063124880194664,
        -0.028253497555851936,
        0.29573512077331543,
        0.019845381379127502,
        -0.07327961176633835,
        0.577896237373352,
        -0.011630289256572723,
        0.09597869962453842,
        0.07873240113258362,
        0.02467096596956253,
        0.15780586004257202,
        0.06686791777610779,
        -0.231392964720726,
        -0.22224640846252441,
        0.23144564032554626,
        -0.030426038429141045,
        -0.044480882585048676,
        0.4511728584766388,
        0.010846457444131374,
        0.09878305345773697,
        0.29977208375930786,
        0.12120988965034485,
        0.15425263345241547,
        0.06522474437952042,
        0.38776895403862,
        0.26558464765548706,
        0.03697258234024048,
        -0.016702856868505478,
        0.021512378007173538,
        0.3364781439304352,
        -0.05191458761692047,
        0.002630203729495406,
        0.49268409609794617,
        -0.2443341612815857,
        -0.24287571012973785,
        -0.12572212517261505,
        -0.12413301318883896,
        -0.460908979177475,
        -0.34574463963508606,
        -0.1320914626121521,
        -0.46421411633491516,
        -0.10334291309118271,
        0.03124626725912094,
        0.6490438580513,
        -0.42683401703834534,
        0.24487067759037018,
        -0.1093023344874382,
        0.40131688117980957,
        -0.5026450753211975,
        0.19089645147323608,
        -0.14837506413459778,
        0.07814408093690872,
        0.34124550223350525,
        -0.2567846477031708,
        0.29175713658332825,
        0.3294810950756073,
        0.3680499494075775,
        0.3257231116294861,
        0.24569015204906464,
        0.085274837911129,
        0.1024971529841423,
        -0.33498191833496094,
        0.19082623720169067,
        -0.513714611530304,
        -0.094245046377182,
        -0.2930573523044586,
        0.1009213775396347,
        -0.09062681347131729,
        -0.134562686085701,
        -0.015163630247116089,
        0.13843628764152527,
        0.06346326321363449,
        -0.25820282101631165,
        0.23164992034435272,
        0.3521636724472046,
        -0.15841877460479736,
        0.10016537457704544,
        0.10157119482755661,
        0.4192497432231903,
        -0.007181990891695023,
        -0.07935567200183868,
        0.8815346360206604,
        0.040010180324316025,
        0.19535547494888306,
        0.1838092803955078,
        -0.016612224280834198,
        0.08905859291553497,
        0.4756673574447632,
        -0.09593108296394348,
        -0.014315463602542877,
        0.06338375061750412,
        -0.09301545470952988,
        -0.06561222672462463,
        0.30307912826538086,
        0.2539544701576233,
        0.0768580436706543,
        0.3677988052368164,
        0.09147978574037552,
        0.08725754171609879,
        0.20061616599559784,
        0.07190358638763428,
        0.03868701308965683,
        -0.04597928375005722,
        0.020707586780190468,
        0.021999387070536613,
        -0.29459714889526367,
        0.0007270103087648749,
        -0.11747880280017853,
        0.29628923535346985,
        0.011140392161905766,
        -0.0007458346663042903,
        0.2641322910785675,
        -0.31693965196609497,
        -0.20684079825878143,
        -0.1923665702342987,
        -0.09763974696397781,
        -0.13598871231079102,
        0.08739987015724182,
        0.9151402711868286,
        -0.2991480231285095,
        -0.8839813470840454,
        0.5013276934623718,
        -0.15840911865234375,
        0.5391603708267212,
        -0.054933760315179825,
        -0.09745147079229355,
        -0.5629855394363403,
        0.42195364832878113,
        0.2318023294210434,
        0.012041734531521797,
        -0.34297069907188416,
        -0.6510768532752991,
        0.6228311061859131,
        0.29717302322387695,
        0.1632823944091797,
        -0.2100422978401184,
        -0.22063709795475006,
        0.20391054451465607,
        -0.1461106538772583,
        0.1621546894311905,
        -0.11969739198684692,
        -0.15216070413589478,
        0.3419783413410187,
        -0.03748481720685959,
        -0.05211257562041283,
        0.3546111583709717,
        0.11711181700229645,
        0.04775994271039963,
        0.20108085870742798,
        0.07801958918571472,
        0.18047288060188293,
        0.17214331030845642,
        -0.12918196618556976,
        -0.14591661095619202,
        0.06599162518978119,
        -0.10286913812160492,
        0.02431311272084713,
        -0.35410407185554504,
        0.19170676171779633,
        -0.020178165286779404,
        -0.7047412395477295,
        0.1860341876745224,
        0.09421832859516144,
        0.09438508003950119,
        -0.014758791774511337,
        -0.025103585794568062,
        0.22807037830352783,
        -0.08028838783502579,
        -0.07611218094825745,
        0.5211901664733887,
        0.1341036707162857,
        0.06288312375545502,
        0.23765037953853607,
        0.11014334857463837,
        0.061627596616744995,
        0.29089078307151794,
        0.20661470293998718,
        0.1476464867591858,
        -0.03995673358440399,
        -0.025656377896666527,
        0.08567691594362259,
        0.2650861442089081,
        -0.10322382301092148,
        -0.25524601340293884,
        0.6219766139984131,
        -0.14856594800949097,
        -0.18987567722797394,
        0.06392281502485275,
        -0.015985911712050438,
        -0.10585635155439377,
        0.0939975157380104,
        -0.266439288854599,
        0.7296947836875916,
        -0.06969001144170761,
        -0.2368098646402359,
        -0.6374894380569458,
        -0.12091034650802612,
        -0.04836457967758179,
        -0.23046547174453735,
        0.3559243679046631,
        0.2869518995285034,
        -0.44128191471099854,
        -0.050015389919281006,
        0.1681065559387207,
        0.4823986291885376,
        -0.11955636739730835,
        0.3069649934768677,
        -0.028011441230773926,
        -0.1917715072631836,
        0.30598050355911255,
        -0.4455450773239136,
        0.41890019178390503,
        0.4994143843650818,
        -0.1365121603012085,
        0.1975109577178955,
        0.49860215187072754,
        0.34157463908195496,
        0.6484781503677368,
        0.577621579170227,
        -0.44845110177993774,
        0.27524620294570923,
        0.019999999552965164
    ]
}