{
    "version": "0.5.0",
    "architecture": "WaveNet",
    "config": {
        "layers": [
            {
                "input_size": 1,
                "condition_size": 1,
                "head_size": 4,
                "channels": 8,
                "kernel_size": 3,
                "dilations": [
                    1,
                    2,
                    4,
                    8,
                    16,
                    32,
                    64
                ],
                "activation": "Tanh",
                "gated": false,
                "head_bias": false
            },
            {
                "input_size": 8,
                "condition_size": 1,
                "head_size": 1,
                "channels": 4,
                "kernel_size": 3,
                "dilations": [
                    128,
                    256,
                    512,
                    1,
                    2,
                    4,
                    8,
                    16,
                    32,
                    64,
                    128,
                    256,
                    512
                ],
                "activation": "Tanh",
                "gated": false,
                "head_bias": true
            }
        ],
        "head": null,
        "head_scale": 0.02
    },
    "weights": [
        0.3840422034263611,
        0.5681625604629517,
        -0.9920702576637268,
        -0.7507026791572571,
        -0.4714679419994354,
        0.3710566759109497,
        -0.11069273203611374,
        0.8012711405754089,
        -0.14710815250873566,
        -0.016593903303146362,
        0.08891765773296356,
        -0.19344711303710938,
        -0.29023751616477966,
        -0.05445996671915054,
        0.0708480030298233,
        0.10363543778657913,
        0.0037607653066515923,
        0.27796053886413574,
        -0.04119659960269928,
        -0.166254460811615,
        0.2252574861049652,
        0.2645666301250458,
        -0.12674720585346222,
        0.02439577504992485,
        -0.09990998357534409,
        0.09410437941551208,
        0.1129663735628128,
        -0.30776938796043396,
        -0.26657983660697937,
        -0.20660752058029175,
        -0.1773669719696045,
        0.2536325752735138,
        0.1994563341140747,
        -0.014385049231350422,
        -0.37254607677459717,
        0.03608274832367897,
        -0.12669938802719116,
        -0.07685741037130356,
        -0.1514425128698349,
        0.09560668468475342,
        0.26834699511528015,
        -0.33781448006629944,
        0.036211900413036346,
        0.06490301340818405,
        -0.38409435749053955,
        -0.10299068689346313,
        0.37457311153411865,
        0.4244433045387268,
        -0.04087456315755844,
        -0.2975236177444458,
        -0.1386832892894745,
        0.11560830473899841,
        0.3051241338253021,
        0.2587621510028839,
        0.13234376907348633,
        -0.37221264839172363,
        -0.08126892149448395,
        -0.34688615798950195,
        0.07523544877767563,
        -0.18015022575855255,
        -0.04870222136378288,
        0.2802833318710327,
        -0.04437567666172981,
        0.20776215195655823,
        -0.08439870923757553,
        0.05261322483420372,
        0.15366677939891815,
        -0.14762458205223083,
        0.19935880601406097,
        0.3376024663448334,
        -0.3610038459300995,
        -0.12884452939033508,
        -0.0545966736972332,
        0.362764447927475,
        0.03632659092545509,
        0.21726711094379425,
        -0.13166408240795135,
        -0.253836452960968,
        -0.1258969008922577,
        0.06822628527879715,
        -0.40773826837539673,
        0.29162296652793884,
        0.3448813259601593,
        -0.42823752760887146,
        0.08273176103830338,
        0.06000550836324692,
        0.19640153646469116,
        -0.139738067984581,
        -0.014770726673305035,
        0.10464431345462799,
        0.02884421870112419,
        0.00806904211640358,
        0.37209099531173706,
        0.030803754925727844,
        -0.2970599830150604,
        -0.3458574712276459,
        0.1775156557559967,
        0.13819646835327148,
        -0.06689133495092392,
        -0.3575769364833832,
        -0.016509678214788437,
        -0.08849656581878662,
        -0.04566934332251549,
        0.040945831686258316,
        -0.22977802157402039,
        -0.0196219552308321,
        0.03675438463687897,
        -0.24713349342346191,
        -0.0781412273645401,
        0.1414295732975006,
        0.006426972337067127,
        0.1885901391506195,
        -0.23157717287540436,
        0.2759665250778198,
        0.20804239809513092,
        -0.27961158752441406,
        0.035022273659706116,
        0.07407262921333313,
        -0.08619870990514755,
        -0.014563994482159615,
        0.038064710795879364,
        0.11227035522460938,
        -0.24809783697128296,
        -0.07569777965545654,
        -0.36107468605041504,
        -0.21145574748516083,
        -0.1197994127869606,
        0.008511527441442013,
        -0.22408603131771088,
        -0.36057549715042114,
        0.4842434823513031,
        -0.046408072113990784,
        -0.25130796432495117,
        0.4726344048976898,
        0.24795837700366974,
        0.10998109728097916,
        -0.4892100691795349,
        0.07884915918111801,
        0.16605216264724731,
        -0.3598763644695282,
        0.2821151912212372,
        0.24917519092559814,
        -0.2903520464897156,
        -0.15209142863750458,
        -0.34236475825309753,
        0.45315006375312805,
        0.28783223032951355,
        0.16954384744167328,
        -0.6102749705314636,
        -0.24905924499034882,
        -0.31286194920539856,
        0.3142402470111847,
        -0.17349939048290253,
        0.34115201234817505,
        -0.07625316828489304,
        -0.25678926706314087,
        0.37566298246383667,
        -0.2788912355899811,
        0.022443149238824844,
        -0.33474546670913696,
        0.08096562325954437,
        0.019910359755158424,
        -0.43448811769485474,
        -0.05989425629377365,
        0.038846470415592194,
        -0.24141333997249603,
        0.03636591136455536,
        -0.028435269370675087,
        0.06479921191930771,
        -0.14312633872032166,
        0.39868417382240295,
        -0.16927845776081085,
        0.3913975656032562,
        0.012327677570283413,
        0.06550032645463943,
        0.010457301512360573,
        0.4369155466556549,
        -0.2174718827009201,
        0.12055382877588272,
        0.16477346420288086,
        -0.14789971709251404,
        -0.12761688232421875,
        -0.19453215599060059,
        0.23175768554210663,
        0.17983295023441315,
        -0.2600340247154236,
        0.12351136654615402,
        0.04101485013961792,
        -0.5101696252822876,
        0.27546530961990356,
        0.2448161244392395,
        0.4513762593269348,
        -0.3881489932537079,
        -0.07410895824432373,
        -0.22194638848304749,
        0.30863693356513977,
        -0.025858858600258827,
        0.40519431233406067,
        -0.28986337780952454,
        -0.0867001935839653,
        0.10660997033119202,
        0.17031793296337128,
        -0.043654780834913254,
        -0.16272196173667908,
        -0.04763735085725784,
        0.06721325218677521,
        -0.19180238246917725,
        0.016483841463923454,
        0.43059614300727844,
        -0.133678138256073,
        0.18053527176380157,
        -0.11082004755735397,
        0.22497513890266418,
        0.26231130957603455,
        -0.11777255684137344,
        0.047940779477357864,
        -0.1745128035545349,
        -0.25589102506637573,
        0.2677922248840332,
        -0.45145726203918457,
        -0.004236848559230566,
        0.6210425496101379,
        0.1195269376039505,
        0.149076908826828,
        -0.7162703275680542,
        0.14043858647346497,
        -0.572674572467804,
        -0.35013407468795776,
        -0.48539605736732483,
        -0.18554091453552246,
        0.1452723890542984,
        0.41600728034973145,
        0.170313760638237,
        0.5508224964141846,
        0.28732234239578247,
        -0.2056761085987091,
        0.2545885741710663,
        -0.3166818618774414,
        -0.41476279497146606,
        0.4393327832221985,
        0.10378917306661606,
        0.14431467652320862,
        -0.18560752272605896,
        0.162234827876091,
        0.1642078012228012,
        -0.36534368991851807,
        0.46824878454208374,
        -0.47869378328323364,
        0.13089513778686523,
        0.013394751586019993,
        -0.08911771327257156,
        0.07039842754602432,
        0.4153858721256256,
        -0.1017276793718338,
        -0.2989667057991028,
        0.08165149390697479,
        -0.4519364535808563,
        -0.052760232239961624,
        -0.026272214949131012,
        -0.016806820407509804,
        -0.07960034906864166,
        0.29167303442955017,
        0.23679086565971375,
        0.18425442278385162,
        0.3896391689777374,
        -0.19482918083667755,
        0.07650846987962723,
        0.19032076001167297,
        0.4880436658859253,
        0.4095727205276489,
        -0.27573075890541077,
        -0.30728545784950256,
        -0.5648354887962341,
        0.04247187450528145,
        -0.3514332175254822,
        -0.3259553015232086,
        0.13973112404346466,
        -0.3228391110897064,
        0.14762669801712036,
        -0.04453344643115997,
        0.04630008339881897,
        -0.06617050617933273,
        -0.21089865267276764,
        0.25773167610168457,
        0.09354593604803085,
        0.09063056856393814,
        -0.08321888744831085,
        0.05410304293036461,
        0.10212260484695435,
        -0.06495638191699982,
        -0.10626617819070816,
        0.3801330327987671,
        0.06954747438430786,
        -0.09657084196805954,
        -0.20060983300209045,
        -0.188299760222435,
        0.1717091053724289,
        -0.32849204540252686,
        0.10590828955173492,
        0.01714920997619629,
        -0.3877021372318268,
        -0.095095194876194,
        -0.08231192082166672,
        0.20172728598117828,
        -0.043304670602083206,
        -0.17678216099739075,
        -0.1453561931848526,
        0.14398162066936493,
        0.19689488410949707,
        0.17439179122447968,
        -0.16331994533538818,
        -0.1667562574148178,
        0.2818174660205841,
        -0.12824751436710358,
        0.049963828176259995,
        0.3308400511741638,
        -0.27620697021484375,
        -0.07607388496398926,
        -0.002366637345403433,
        0.07574649900197983,
        0.006559876259416342,
        -0.14236962795257568,
        -0.11214043945074081,
        0.06957868486642838,
        0.021267032250761986,
        0.2834639847278595,
        0.18416744470596313,
        0.15750598907470703,
        0.11652272194623947,
        -0.056175846606492996,
        -0.39311400055885315,
        -0.04110011085867882,
        0.22253157198429108,
        0.3405628502368927,
        -0.28809452056884766,
        0.04189833626151085,
        -0.00759294256567955,
        0.30900266766548157,
        0.1982034146785736,
        -0.1499895304441452,
        -0.060899462550878525,
        0.0937662199139595,
        0.3681624233722687,
        0.020404882729053497,
        -0.20223361253738403,
        0.2910112738609314,
        0.07121464610099792,
        0.1313350796699524,
        0.12368855625391006,
        0.06244507431983948,
        -0.18155518174171448,
        0.02440963126718998,
        0.06308837234973907,
        0.16097567975521088,
        0.29836970567703247,
        0.06500877439975739,
        -0.2566004991531372,
        -0.11671684682369232,
        -0.13143734633922577,
        0.18135473132133484,
        -0.5115058422088623,
        -0.044503290206193924,
        -0.006791950669139624,
        -0.113002710044384,
        0.07700493186712265,
        0.20163795351982117,
        0.47390833497047424,
        -0.39740416407585144,
        -0.29055970907211304,
        0.3071652054786682,
        -0.11710751056671143,
        0.09121512621641159,
        0.13594548404216766,
        -0.14336827397346497,
        -0.2502399682998657,
        -0.24772678315639496,
        0.16513486206531525,
        0.20081797242164612,
        0.2913442850112915,
        0.18196214735507965,
        0.16818180680274963,
        -0.36978963017463684,
        0.08501682430505753,
        0.2394820898771286,
        0.21403177082538605,
        0.22432810068130493,
        0.04118950292468071,
        0.3306533098220825,
        -0.3244113624095917,
        -0.029982617124915123,
        0.06817589700222015,
        -0.053053226321935654,
        0.003819642821326852,
        -0.2447078973054886,
        -0.19000938534736633,
        0.20429031550884247,
        0.07730479538440704,
        0.06867802888154984,
        0.03332792967557907,
        0.2685354948043823,
        0.04900704696774483,
        0.003313462482765317,
        -0.23621082305908203,
        0.601003110408783,
        0.1842697262763977,
        -0.04015009105205536,
        -0.04998687654733658,
        0.015051129274070263,
        -0.15525050461292267,
        0.04575543478131294,
        0.023504680022597313,
        -0.09220501780509949,
        0.3100186288356781,
        -0.20778320729732513,
        -0.26800602674484253,
        -0.15475356578826904,
        -0.20490214228630066,
        0.14434319734573364,
        0.14505352079868317,
        0.15240322053432465,
        -0.013239886611700058,
        -0.20559437572956085,
        0.040049150586128235,
        0.16695086658000946,
        0.15169043838977814,
        -0.1577262282371521,
        -0.09177660942077637,
        -0.4021102786064148,
        0.10661535710096359,
        0.033488981425762177,
        0.042951229959726334,
        -0.0008896018262021244,
        0.032824255526065826,
        -0.1512657105922699,
        -0.09545441716909409,
        -0.2017195075750351,
        0.03473858907818794,
        -0.03413301706314087,
        0.3056594729423523,
        -0.0011183283058926463,
        -0.2580214738845825,
        -0.21822257339954376,
        -0.004980757832527161,
        0.05918372422456741,
        0.019240129739046097,
        0.2788164019584656,
        -0.184170663356781,
        -0.05239681899547577,
        -0.0828697681427002,
        -0.2060907483100891,
        0.2899695336818695,
        0.09374282509088516,
        0.15150804817676544,
        -0.03020399995148182,
        -0.19940800964832306,
        0.265637069940567,
        -0.2080439031124115,
        0.25486016273498535,
        -0.20968951284885406,
        -0.1596943736076355,
        -0.39759883284568787,
        0.009200400672852993,
        0.31225553154945374,
        -0.2648652493953705,
        0.10376449674367905,
        0.37627673149108887,
        -0.05299470201134682,
        -0.09950792044401169,
        0.059577155858278275,
        0.0009409082122147083,
        0.05825008451938629,
        0.11416619271039963,
        0.08552251011133194,
        -0.009513047523796558,
        0.0976596549153328,
        -0.005467190407216549,
        -0.27857956290245056,
        -0.04873684421181679,
        -0.2651783227920532,
        0.18375153839588165,
        -0.27768856287002563,
        -0.08254272490739822,
        -0.11539783328771591,
        0.10722224414348602,
        -0.029924649745225906,
        0.23307190835475922,
        0.07774891704320908,
        0.07448815554380417,
        -0.15597866475582123,
        -0.38804948329925537,
        -0.2680162489414215,
        0.33095210790634155,
        0.3410112261772156,
        -0.34440669417381287,
        0.9435632228851318,
        -0.24257098138332367,
        -0.4737186133861542,
        -0.5756600499153137,
        0.2719658315181732,
        0.68836510181427,
        -0.3448891341686249,
        0.21294106543064117,
        0.49382439255714417,
        0.20392529666423798,
        0.4054033160209656,
        -0.3600192368030548,
        -0.04705052450299263,
        0.4259336292743683,
        0.06508523225784302,
        0.3481616675853729,
        -0.11407679319381714,
        0.22139090299606323,
        -0.12313519418239594,
        -0.35328224301338196,
        0.059741031378507614,
        -0.1400744915008545,
        -0.33003297448158264,
        0.12876704335212708,
        0.14971399307250977,
        -0.13605815172195435,
        0.2366841435432434,
        0.14301666617393494,
        0.20151375234127045,
        -0.5060782432556152,
        -0.0767432153224945,
        -0.2822234630584717,
        0.23160135746002197,
        -0.2829360067844391,
        -0.25477468967437744,
        -0.7391172647476196,
        0.7489438056945801,
        0.7241730093955994,
        -0.6662572026252747,
        -0.34829801321029663,
        -0.04126831516623497,
        0.20285829901695251,
        0.18167175352573395,
        -0.2500613033771515,
        -0.4028012752532959,
        -0.04488656297326088,
        -0.130327045917511,
        0.23720872402191162,
        -0.35122933983802795,
        -0.27390265464782715,
        0.21205924451351166,
        0.042628709226846695,
        -0.49932509660720825,
        -0.27911239862442017,
        -0.11470413208007812,
        0.5239046812057495,
        -0.3724837899208069,
        -0.4060564339160919,
        0.3282746374607086,
        -0.1928023397922516,
        -0.04094407334923744,
        0.15109354257583618,
        -0.30091261863708496,
        0.07038792967796326,
        0.09445415437221527,
        4.435315713635646e-05,
        -0.3096856474876404,
        -0.08317999541759491,
        -0.07495326548814774,
        0.159790500998497,
        -0.13619884848594666,
        0.21972055733203888,
        -0.047273971140384674,
        -0.04591893032193184,
        0.13697829842567444,
        -0.6809018850326538,
        0.29541629552841187,
        0.23342695832252502,
        -0.2627565860748291,
        -0.16895845532417297,
        -0.2668263912200928,
        0.32482296228408813,
        -0.09160623699426651,
        -0.4793693721294403,
        0.3905009925365448,
        0.1839776188135147,
        -0.2284756749868393,
        -0.13691987097263336,
        -0.1356283575296402,
        0.22766955196857452,
        -0.0585004948079586,
        -0.19385480880737305,
        0.37066084146499634,
        0.5477038025856018,
        0.04610639065504074,
        0.2541130781173706,
        -0.29977577924728394,
        -0.17328764498233795,
        -0.16443948447704315,
        0.09106071293354034,
        0.1298495978116989,
        0.04845665022730827,
        -0.18282802402973175,
        0.17567101120948792,
        0.2778916358947754,
        0.3051316440105438,
        -0.2186450958251953,
        0.010963080450892448,
        -0.0852440670132637,
        0.1648407131433487,
        -0.13640084862709045,
        -0.1123448833823204,
        0.015611138194799423,
        -0.1189918965101242,
        -0.10832036286592484,
        0.02369815483689308,
        -0.03749164566397667,
        -0.16221876442432404,
        0.26740264892578125,
        -0.10700269788503647,
        -0.001398590742610395,
        0.13204655051231384,
        0.264050155878067,
        0.06018652021884918,
        0.7435332536697388,
        -0.034778986126184464,
        -0.06318672001361847,
        0.2022528052330017,
        0.2434621900320053,
        -0.16262318193912506,
        -0.1585337221622467,
        -0.12549082934856415,
        0.17791588604450226,
        -0.1453455686569214,
        0.043890759348869324,
        0.13645337522029877,
        0.25370725989341736,
        -0.015975898131728172,
        -0.015414812602102757,
        -0.03242943435907364,
        -0.11354025453329086,
        -0.2669774889945984,
        -0.29164791107177734,
        -0.18527382612228394,
        -0.06372653692960739,
        0.21361401677131653,
        -0.06230887025594711,
        0.13243497908115387,
        0.07800900191068649,
        -0.03550002723932266,
        -0.304760605096817,
        0.2523323595523834,
        0.04804949834942818,
        0.304490327835083,
        -0.2774178087711334,
        -0.019728275015950203,
        0.26392900943756104,
        -0.14817695319652557,
        0.2617614269256592,
        -0.08704248070716858,
        -0.35422375798225403,
        -0.23874087631702423,
        -0.1254265457391739,
        0.15908440947532654,
        -0.013454367406666279,
        0.031006086617708206,
        0.05202222242951393,
        -0.16401788592338562,
        0.006908902432769537,
        -0.08965927362442017,
        0.1859661340713501,
        1.0246909856796265,
        0.18000194430351257,
        0.01609700731933117,
        0.146861732006073,
        0.22023262083530426,
        0.008688260801136494,
        -0.1165141686797142,
        -0.05458484962582588,
        0.33721497654914856,
        -0.22892998158931732,
        0.07470784336328506,
        0.1431695520877838,
        0.006423151586204767,
        0.1741304248571396,
        -0.21608634293079376,
        0.24296078085899353,
        -0.10370886325836182,
        -0.28832995891571045,
        -0.31407222151756287,
        0.1090678945183754,
        0.04149410128593445,
        0.1920875459909439,
        -0.16926291584968567,
        0.07485992461442947,
        0.06166960299015045,
        0.017139479517936707,
        -0.06148291751742363,
        0.2898392677307129,
        0.03711959719657898,
        -0.026640847325325012,
        -0.2127760797739029,
        0.21606099605560303,
        -0.18390299379825592,
        0.017980273813009262,
        0.14231853187084198,
        -0.14886662364006042,
        -0.018107960000634193,
        -0.042431849986314774,
        0.07813926786184311,
        -0.09048433601856232,
        -0.12073854357004166,
        -0.022504737600684166,
        0.15821048617362976,
        -0.08915434032678604,
        0.2535449266433716,
        0.13631753623485565,
        -0.2603342533111572,
        -0.16472244262695312,
        -0.11483942717313766,
        -0.05089206621050835,
        -0.036863259971141815,
        0.19970154762268066,
        -0.01980970986187458,
        -0.047707587480545044,
        -0.011722972616553307,
        0.24903498589992523,
        -0.18482407927513123,
        -0.07586139440536499,
        -0.0153953330591321,
        -0.22435545921325684,
        -0.025318680331110954,
        0.2687128186225891,
        -0.0395255982875824,
        0.25793713331222534,
        -0.1512112021446228,
        -0.025667237117886543,
        0.09313345700502396,
        -0.0753742903470993,
        0.11620056629180908,
        0.10600155591964722,
        0.04870074987411499,
        -0.1685294210910797,
        -0.2609870731830597,
        -0.01625422015786171,
        -0.18026354908943176,
        -0.6442073583602905,
        -0.005054299253970385,
        0.20666974782943726,
        -0.14982622861862183,
        0.07963424921035767,
        0.0559469535946846,
        0.5072776675224304,
        0.0007324391626752913,
        0.08339522033929825,
        0.04492053762078285,
        -0.25428342819213867,
        0.05930570140480995,
        0.053546320647001266,
        0.2829645574092865,
        0.1849493533372879,
        0.038787707686424255,
        -0.033602479845285416,
        -0.03525080159306526,
        -0.3364062011241913,
        -0.13685831427574158,
        0.023886071518063545,
        0.15382398664951324,
        -0.1948462575674057,
        0.10819707810878754,
        0.09965486824512482,
        -0.18722103536128998,
        0.02998821623623371,
        0.22148281335830688,
        -0.5382828116416931,
        -0.2875725328922272,
        0.6356476545333862,
        -0.5932093858718872,
        0.41477498412132263,
        0.3048817813396454,
        0.4549862742424011,
        -0.4143267571926117,
        0.48015928268432617,
        -0.21484223008155823,
        0.5992267727851868,
        -0.31480130553245544,
        -0.4497763216495514,
        0.23599626123905182,
        0.06094752997159958,
        0.0875590518116951,
        -0.17473368346691132,
        -0.37122371792793274,
        -0.01936059445142746,
        -0.5861872434616089,
        0.07679922878742218,
        0.18679356575012207,
        -0.02213408797979355,
        -0.06529664248228073,
        0.8315333127975464,
        0.07815328985452652,
        -0.3516222834587097,
        0.03531932830810547,
        -0.26674339175224304,
        -0.22270916402339935,
        -0.1378062218427658,
        -0.16976158320903778,
        0.47111746668815613,
        -0.30539172887802124,
        0.37593597173690796,
        -0.3599562346935272,
        -0.2499963939189911,
        0.3569660484790802,
        0.3756149113178253,
        -0.29430118203163147,
        0.2530442774295807,
        0.24074719846248627,
        -0.18788880109786987,
        0.10941549390554428,
        0.10875172168016434,
        -0.3721676170825958,
        0.0013694909866899252,
        0.20930513739585876,
        -0.041927825659513474,
        -0.29659998416900635,
        0.03134343400597572,
        -0.2841765284538269,
        0.5074946880340576,
        0.08388997614383698,
        0.40012407302856445,
        -0.1915876716375351,
        -0.3189848065376282,
        -0.0779096856713295,
        0.06754454225301743,
        -0.22427435219287872,
        0.2897600829601288,
        0.004141649231314659,
        0.18666793406009674,
        -0.06630325317382812,
        0.3862798511981964,
        -0.013820911757647991,
        -0.08944796770811081,
        0.1882292777299881,
        -0.3028160035610199,
        -0.10717647522687912,
        -0.13757318258285522,
        0.15271790325641632,
        -0.022191694006323814,
        0.2098885327577591,
        0.002733557252213359,
        0.19084179401397705,
        0.2200203388929367,
        -0.11284632980823517,
        0.1684449315071106,
        0.1646888703107834,
        0.14975443482398987,
        0.13760444521903992,
        0.053514592349529266,
        0.30569276213645935,
        -0.09801281243562698,
        -0.17862465977668762,
        -0.08664175122976303,
        -0.20292766392230988,
        0.02028842456638813,
        -0.008096679113805294,
        0.2122911512851715,
        -0.2484050691127777,
        -0.0397835299372673,
        0.23488079011440277,
        0.08537575602531433,
        0.17240838706493378,
        0.32598790526390076,
        -0.06257814168930054,
        0.07534835487604141,
        0.03371864929795265,
        -0.07978053390979767,
        0.3080706298351288,
        -0.0839277133345604,
        -0.01663166843354702,
        -0.03151287883520126,
        0.1200370118021965,
        -0.03216886147856712,
        0.18354326486587524,
        0.42873266339302063,
        0.04628775641322136,
        -0.08482884615659714,
        -0.36210858821868896,
        0.04955711588263512,
        0.029057905077934265,
        -0.06596104800701141,
        0.011328001506626606,
        0.11229150742292404,
        0.059764813631772995,
        0.225570946931839,
        -0.0844620019197464,
        0.17308740317821503,
        -0.047839291393756866,
        -0.019123760983347893,
        0.06234893947839737,
        -0.12345089018344879,
        -0.051661863923072815,
        -0.3277558386325836,
        0.06815178692340851,
        -0.14812251925468445,
        -0.141374871134758,
        0.2723037898540497,
        0.14176590740680695,
        0.16496288776397705,
        0.056402403861284256,
        0.11915139108896255,
        0.1833038628101349,
        0.47130531072616577,
        -0.044152386486530304,
        -0.09445859491825104,
        -0.04499687999486923,
        -0.0885772556066513,
        -0.09358502179384232,
        0.24022558331489563,
        0.13535089790821075,
        0.1618640422821045,
        -0.0548417903482914,
        0.1693381667137146,
        0.15830247104167938,
        -0.35488414764404297,
        0.20641203224658966,
        0.04686801880598068,
        0.14125797152519226,
        0.38083967566490173,
        -0.19677294790744781,
        0.21918678283691406,
        0.33828821778297424,
        0.14473605155944824,
        -0.4533964693546295,
        -0.07001901417970657,
        0.005355085711926222,
        0.5226960182189941,
        0.15379011631011963,
        0.46698126196861267,
        -0.10690174251794815,
        -0.3885411322116852,
        0.15095402300357819,
        0.3667095899581909,
        0.29826635122299194,
        0.24958039820194244,
        -0.3179794251918793,
        0.2060409039258957,
        -0.13795532286167145,
        -0.10206108540296555,
        0.15792368352413177,
        -0.046040184795856476,
        0.2096279412508011,
        -0.17340786755084991,
        -0.022507444024086,
        -0.3065337836742401,
        -0.27659285068511963,
        0.1568242460489273,
        0.047652870416641235,
        0.035782478749752045,
        -0.18894092738628387,
        -0.27960139513015747,
        -0.20114298164844513,
        0.044691942632198334,
        0.1780451387166977,
        0.1111118495464325,
        -0.19516149163246155,
        -0.05862569436430931,
        -0.18145404756069183,
        -0.2523544132709503,
        0.046398695558309555,
        0.0884309858083725,
        -0.25928211212158203,
        -0.059203337877988815,
        -0.18143180012702942,
        0.23724263906478882,
        -0.24052923917770386,
        0.1958276778459549,
        -0.004090694710612297,
        0.12490691989660263,
        0.21114647388458252,
        0.09761732071638107,
        -0.0753970742225647,
        -0.25528275966644287,
        0.09043816477060318,
        0.37463346123695374,
        0.2887323796749115,
        -0.24013465642929077,
        -0.06090253219008446,
        -0.1957606077194214,
        -0.09259690344333649,
        0.23930172622203827,
        -0.04248145595192909,
        0.10623104870319366,
        -0.2465609312057495,
        -0.18681471049785614,
        0.05027834698557854,
        -0.253803551197052,
        0.30547788739204407,
        -0.15734264254570007,
        0.18366371095180511,
        -0.08731745183467865,
        0.2714284658432007,
        0.20345911383628845,
        -0.1416563242673874,
        -0.16481062769889832,
        -0.2509150505065918,
        -0.051478806883096695,
        -0.0125885596498847,
        0.18797636032104492,
        -0.5055692791938782,
        0.06416209787130356,
        -0.10095652937889099,
        -0.03365906700491905,
        0.12413196265697479,
        -0.14240270853042603,
        -0.23736633360385895,
        -0.14566953480243683,
        -0.09936847537755966,
        -0.04129262641072273,
        0.14989353716373444,
        -0.007922232151031494,
        0.25567296147346497,
        0.044173870235681534,
        0.11566806584596634,
        0.2784147262573242,
        -0.049286749213933945,
        -0.09151487797498703,
        0.22945602238178253,
        0.07338082790374756,
        -0.2449723780155182,
        -0.24495838582515717,
        0.1525697112083435,
        -0.06277492642402649,
        0.003487152513116598,
        -0.13912805914878845,
        -0.04041421040892601,
        -0.19675897061824799,
        0.26579350233078003,
        0.30255573987960815,
        0.1982356756925583,
        0.09833958745002747,
        -0.06092818081378937,
        0.10613929480314255,
        0.14605340361595154,
        -0.20990149676799774,
        0.09251242130994797,
        -0.3038705587387085,
        0.08007081598043442,
        -0.04283946752548218,
        0.1878586709499359,
        0.026941901072859764,
        -0.046846404671669006,
        -0.019640127196907997,
        0.044447895139455795,
        0.1684388369321823,
        0.2072756439447403,
        -0.8497055172920227,
        0.2557346522808075,
        -0.21108491718769073,
        -0.27616646885871887,
        0.47816166281700134,
        0.7247005701065063,
        -0.7330964207649231,
        0.06617169082164764,
        0.2865813672542572,
        0.18083035945892334,
        0.19667109847068787,
        0.19189411401748657,
        -0.28412938117980957,
        0.5581589937210083,
        0.053236283361911774,
        0.5383729934692383,
        -0.2224801480770111,
        -0.3946717381477356,
        0.06368202716112137,
        -0.38796675205230713,
        0.05188524350523949,
        0.29543060064315796,
        0.20656195282936096,
        -0.42948949337005615,
        -0.06924687325954437,
        -0.21956011652946472,
        0.35931816697120667,
        -0.263683944940567,
        -0.10597790777683258,
        -0.10758531093597412,
        0.41374361515045166,
        0.09630954265594482,
        0.30879420042037964,
        -0.37780043482780457,
        0.483421266078949,
        0.27326327562332153,
        -0.18513798713684082,
        0.6219109296798706,
        0.3079055845737457,
        -0.04299458861351013,
        -0.08782199770212173,
        -0.24514798820018768,
        0.04282364994287491,
        0.33825430274009705,
        -0.27615785598754883,
        0.2793388366699219,
        -0.16594117879867554,
        0.1281989961862564,
        0.07957633584737778,
        -0.14261548221111298,
        0.13304360210895538,
        -0.35353413224220276,
        0.12091672420501709,
        -0.33061298727989197,
        0.16474616527557373,
        0.18816213309764862,
        -0.19791702926158905,
        0.25375887751579285,
        -0.31990906596183777,
        -0.4659966826438904,
        0.16457536816596985,
        0.009927461855113506,
        -0.05183346942067146,
        -0.527915358543396,
        -0.11684256047010422,
        0.16078133881092072,
        -0.17424000799655914,
        -0.5171726942062378,
        0.10794439911842346,
        -0.36590492725372314,
        -0.11785858869552612,
        -0.14292393624782562,
        -0.02640235796570778,
        -0.4092710614204407,
        -0.2348180115222931,
        0.13767391443252563,
        -0.3587980568408966,
        -0.10859165340662003,
        -0.24634453654289246,
        -0.43987470865249634,
        0.07173305004835129,
        -0.1973511278629303,
        -0.5522654056549072,
        0.018157800659537315,
        -0.13047045469284058,
        0.24897906184196472,
        0.03529787436127663,
        0.048901576548814774,
        -0.23081521689891815,
        -0.13137286901474,
        0.05826345458626747,
        -0.7286669611930847,
        -0.013155239634215832,
        0.1705511510372162,
        -0.31039711833000183,
        -0.154967799782753,
        0.16293689608573914,
        -0.009978973306715488,
        0.005074273329228163,
        -0.19033026695251465,
        0.23683513700962067,
        -0.04812328517436981,
        0.13798630237579346,
        -0.012167496606707573,
        -0.19816163182258606,
        -0.20782588422298431,
        0.18033526837825775,
        -0.2073345184326172,
        -0.18287287652492523,
        0.10156891494989395,
        0.013701856136322021,
        0.11350042372941971,
        -0.20966683328151703,
        -0.039109498262405396,
        -0.13357336819171906,
        0.31068769097328186,
        0.08563490211963654,
        0.1556607037782669,
        -0.05051012709736824,
        -0.11738213151693344,
        -0.05913154408335686,
        0.02177908644080162,
        -0.12291973829269409,
        -0.09476970136165619,
        -0.14314965903759003,
        -0.048256102949380875,
        -0.2349870353937149,
        -0.0978221595287323,
        0.019216343760490417,
        0.0893833190202713,
        -0.44612863659858704,
        -0.25718605518341064,
        -0.24461176991462708,
        0.02838491089642048,
        0.2444663792848587,
        -0.04401882365345955,
        -0.3031919598579407,
        -0.19080913066864014,
        0.04292311146855354,
        -0.3442888557910919,
        0.12258172780275345,
        -0.056061677634716034,
        -0.23257043957710266,
        0.125802144408226,
        0.1188783124089241,
        0.3166717290878296,
        -0.0037976540625095367,
        -0.23234237730503082,
        0.3621074855327606,
        -0.09471495449542999,
        -0.10115521401166916,
        0.12774153053760529,
        0.03581773489713669,
        0.2507655620574951,
        0.1473107784986496,
        -0.08741777390241623,
        -0.15054576098918915,
        -0.3352287709712982,
        -0.17500203847885132,
        -0.06866732984781265,
        0.013559665530920029,
        0.08660095185041428,
        -0.07932751625776291,
        -0.36520519852638245,
        -0.08405223488807678,
        -0.363211065530777,
        -0.09616116434335709,
        0.10483328253030777,
        0.1181449145078659,
        0.09869233518838882,
        -0.033270999789237976,
        0.12018801271915436,
        0.0008020393433980644,
        0.11568214744329453,
        0.0032732512336224318,
        -0.04304272681474686,
        -0.15620729327201843,
        -0.031223900616168976,
        -0.6405150294303894,
        0.06424705684185028,
        0.03528079763054848,
        0.016679201275110245,
        0.17788340151309967,
        0.17222265899181366,
        -0.4618808329105377,
        0.01862012781202793,
        0.00896181259304285,
        -0.33740660548210144,
        0.0240288395434618,
        0.03904077410697937,
        -0.16562235355377197,
        -0.16763384640216827,
        0.03101230412721634,
        0.2643697261810303,
        0.03344733640551567,
        -0.17934226989746094,
        0.12519189715385437,
        -0.18372012674808502,
        -0.16099496185779572,
        -0.04189479351043701,
        0.09360326826572418,
        0.050555191934108734,
        -0.20359979569911957,
        0.19639332592487335,
        0.2444373518228531,
        -0.17848123610019684,
        0.20942340791225433,
        0.13591578602790833,
        0.19505470991134644,
        -0.1739392727613449,
        0.023369915783405304,
        -0.021268121898174286,
        -0.10797382146120071,
        -0.13432221114635468,
        0.31802695989608765,
        -0.23094676434993744,
        0.13331416249275208,
        0.12288104742765427,
        -0.011344460770487785,
        0.3267963230609894,
        0.058040205389261246,
        0.13328437507152557,
        0.346133291721344,
        0.13947294652462006,
        0.13275150954723358,
        -0.04880722239613533,
        -0.1755579262971878,
        -0.010498300194740295,
        0.03861117362976074,
        0.0015202568611130118,
        -0.070089191198349,
        0.143729105591774,
        -0.19386155903339386,
        0.1622728854417801,
        0.5066320300102234,
        -0.1336243897676468,
        -0.16329266130924225,
        0.13749518990516663,
        -0.1363178938627243,
        0.4204992949962616,
        -0.06913984566926956,
        -0.04549499973654747,
        0.21525530517101288,
        -0.11239184439182281,
        -0.09552282840013504,
        0.003583688521757722,
        -0.6444522738456726,
        -0.2223019152879715,
        0.05606425553560257,
        0.20751312375068665,
        0.32875847816467285,
        -0.12296704947948456,
        0.06938096880912781,
        -0.13661400973796844,
        -0.0005896157235838473,
        0.037966709583997726,
        0.2519536316394806,
        -0.020116182044148445,
        -0.09172125160694122,
        0.049948252737522125,
        -0.18831707537174225,
        -0.046735815703868866,
        0.325575590133667,
        0.029508842155337334,
        0.00918651558458805,
        -0.1526799201965332,
        0.046187128871679306,
        0.13136520981788635,
        -0.3630029559135437,
        -0.0532589815557003,
        0.3029346466064453,
        -0.1657625287771225,
        -0.018732456490397453,
        0.12648747861385345,
        -0.041672322899103165,
        0.006286308169364929,
        -0.07853561639785767,
        0.08177617937326431,
        0.06724473088979721,
        -0.024820907041430473,
        -0.2867055833339691,
        -0.48553648591041565,
        -0.22637401521205902,
        -0.9965122938156128,
        0.6957265734672546,
        0.4265475273132324,
        -0.6530198454856873,
        -0.2753090560436249,
        -0.06766438484191895,
        -0.12078214436769485,
        0.06136001646518707,
        0.2446751594543457,
        -0.17237383127212524,
        0.11670909821987152,
        -0.016878411173820496,
        0.27750909328460693,
        0.05587787926197052,
        0.23642954230308533,
        0.2851143181324005,
        -0.4714139699935913,
        0.04052538424730301,
        0.16173014044761658,
        -0.07625295221805573,
        0.3383997678756714,
        0.11918714642524719,
        0.3361364006996155,
        -0.02302841655910015,
        0.2599084675312042,
        -0.14021892845630646,
        -0.1570405811071396,
        0.1462220698595047,
        -0.022237123921513557,
        0.29836905002593994,
        0.3397860825061798,
        -0.34043699502944946,
        0.327391654253006,
        0.1797894388437271,
        0.30115950107574463,
        -0.03167516365647316,
        -0.04064685478806496,
        -0.4917146861553192,
        0.1835319697856903,
        -0.2119770646095276,
        0.423836350440979,
        -0.37728726863861084,
        0.04756331816315651,
        -0.09849383682012558,
        0.09154457598924637,
        0.028099169954657555,
        -0.10044590383768082,
        -0.15504084527492523,
        0.13196387887001038,
        0.31699681282043457,
        -0.29078438878059387,
        0.13861611485481262,
        -0.1507541835308075,
        0.6030710935592651,
        0.4813949763774872,
        0.02458108775317669,
        -0.21656426787376404,
        -0.18653468787670135,
        0.23124143481254578,
        -0.2046031504869461,
        0.2999199330806732,
        0.20198555290699005,
        0.34764304757118225,
        0.28381919860839844,
        -0.18891462683677673,
        -0.017010822892189026,
        -0.1941005289554596,
        0.2443406581878662,
        0.05348658189177513,
        0.03709105774760246,
        -0.2946738004684448,
        -0.3102560341358185,
        0.32022738456726074,
        0.17379435896873474,
        -0.00363137642852962,
        0.22238890826702118,
        -0.15183129906654358,
        0.0007395614520646632,
        0.22929218411445618,
        0.17850331962108612,
        0.015464485622942448,
        0.20806051790714264,
        0.25945067405700684,
        0.12493087351322174,
        -0.2926606237888336,
        0.2788180112838745,
        -0.14737343788146973,
        0.27369433641433716,
        -0.26751232147216797,
        -0.058907635509967804,
        -0.26689040660858154,
        -0.1229882687330246,
        -0.2463822066783905,
        -0.3384909927845001,
        0.06605858355760574,
        0.06948187202215195,
        0.19251659512519836,
        -0.03259942680597305,
        -0.42388442158699036,
        -0.6492718458175659,
        0.20767755806446075,
        0.1145470067858696,
        0.03106478601694107,
        -0.39305663108825684,
        -0.07957333326339722,
        -0.009621738456189632,
        -0.14631137251853943,
        -0.04639487341046333,
        0.19371505081653595,
        -0.2680726647377014,
        -0.0660470649600029,
        -0.06647760421037674,
        -0.6208044290542603,
        0.012782745994627476,
        0.1222514659166336,
        -0.2323305755853653,
        -0.0866623967885971,
        -0.03515399247407913,
        -0.030519383028149605,
        0.18534129858016968,
        0.17134059965610504,
        0.15688320994377136,
        0.03210532292723656,
        0.13316096365451813,
        -0.11630802601575851,
        -0.127714604139328,
        -0.027301426976919174,
        -0.11817166954278946,
        0.04549097642302513,
        -0.02572239749133587,
        -0.025972865521907806,
        0.08417666703462601,
        -0.13155604898929596,
        -0.12269918620586395,
        -0.04288043826818466,
        0.18393023312091827,
        0.35955238342285156,
        0.40269380807876587,
        0.022114545106887817,
        -0.00940185971558094,
        -0.21350207924842834,
        0.16562162339687347,
        0.025680437684059143,
        -0.08785480260848999,
        -0.10282322019338608,
        0.03945709019899368,
        -0.36216193437576294,
        0.035177044570446014,
        -0.05299980938434601,
        0.062171075493097305,
        0.14076928794384003,
        -0.02970176935195923,
        -0.07014071196317673,
        0.23813709616661072,
        0.16169473528862,
        -0.019884690642356873,
        0.010722857899963856,
        0.4145301878452301,
        0.03802310675382614,
        0.3590117394924164,
        -0.25032442808151245,
        -0.0034907308872789145,
        -0.3546666204929352,
        -0.006478352006524801,
        0.10821235924959183,
        -0.012768909335136414,
        -0.22775332629680634,
        0.06539101898670197,
        0.1747094988822937,
        0.14749771356582642,
        -0.06274618953466415,
        0.1688532829284668,
        0.25788605213165283,
        -0.04438447207212448,
        -0.21951135993003845,
        -0.3821693956851959,
        0.1066456288099289,
        -0.11704131215810776,
        0.164065420627594,
        -0.009662967175245285,
        0.08656517416238785,
        -0.22707407176494598,
        0.018187163397669792,
        -0.09175603091716766,
        -0.47818559408187866,
        -0.016026657074689865,
        0.02575291134417057,
        -0.1310909390449524,
        -0.09969255328178406,
        0.09763740748167038,
        0.26898685097694397,
        -0.16177545487880707,
        -0.2333211898803711,
        0.18087051808834076,
        0.03489691764116287,
        -0.12068431824445724,
        -0.037862543016672134,
        -0.02170690707862377,
        0.10026916116476059,
        0.015977464616298676,
        0.04753904044628143,
        0.2927420139312744,
        0.010525484569370747,
        -0.1259741187095642,
        -0.1770990788936615,
        0.1811109334230423,
        0.1535303145647049,
        -0.04425618425011635,
        -0.4276687204837799,
        0.0657554641366005,
        -0.17106524109840393,
        0.17861182987689972,
        0.050903405994176865,
        -0.08190803229808807,
        0.16329708695411682,
        0.0697387084364891,
        0.11826688796281815,
        -0.20461681485176086,
        0.003529802430421114,
        0.1642516702413559,
        0.19420723617076874,
        0.038658227771520615,
        0.20794063806533813,
        0.126766175031662,
        0.02774730697274208,
        -0.05147301405668259,
        -0.21693812310695648,
        -0.32229411602020264,
        -0.26208826899528503,
        0.008685486391186714,
        0.13910430669784546,
        0.32761916518211365,
        -0.3554922640323639,
        -0.13699261844158173,
        -0.2874157130718231,
        0.0331580750644207,
        0.0333629846572876,
        -0.029960008338093758,
        0.018040144816040993,
        -0.37321043014526367,
        0.1116790845990181,
        0.17170779407024384,
        0.07552405446767807,
        -0.08805723488330841,
        -0.1466495841741562,
        0.17521914839744568,
        0.021577833220362663,
        0.27263325452804565,
        -0.02086539752781391,
        -0.035722699016332626,
        -0.10939785093069077,
        -0.21249863505363464,
        -0.028587602078914642,
        0.17942650616168976,
        0.07320471853017807,
        0.05828172340989113,
        0.11383196711540222,
        0.10582748055458069,
        -0.07745502144098282,
        0.33863234519958496,
        0.22066786885261536,
        -0.04562271386384964,
        -0.10782264918088913,
        0.056357622146606445,
        0.048929449170827866,
        -0.3214800953865051,
        0.06094967946410179,
        -0.02027972601354122,
        -0.18563173711299896,
        -0.21331948041915894,
        0.09096553921699524,
        0.07931175827980042,
        -0.07155358791351318,
        -0.017247725278139114,
        -0.10376973450183868,
        0.0880604088306427,
        0.13281217217445374,
        -0.1555986851453781,
        0.2289360761642456,
        -0.031220760196447372,
        -0.0810016468167305,
        -0.568792998790741,
        0.17756089568138123,
        -0.643820583820343,
        0.36312851309776306,
        0.044117849320173264,
        -0.11020585894584656,
        -0.2624667286872864,
        -0.13597841560840607,
        0.006744188256561756,
        0.04043549299240112,
        -0.048515304923057556,
        0.25596821308135986,
        0.08574721962213516,
        0.0969032496213913,
        0.2109529823064804,
        0.0728871151804924,
        0.06271486729383469,
        0.10200753062963486,
        0.09865569323301315,
        0.13029290735721588,
        0.12644177675247192,
        -0.24058322608470917,
        -0.16596512496471405,
        -0.39367642998695374,
        0.0954427495598793,
        0.35169824957847595,
        0.1960921585559845,
        0.1452312469482422,
        0.4056105613708496,
        -0.18062357604503632,
        -0.24305972456932068,
        0.02143210731446743,
        0.39429771900177,
        0.67523592710495,
        0.4583981931209564,
        -0.07287047058343887,
        -0.05701133608818054,
        -0.07580505311489105,
        0.2032080441713333,
        0.14230316877365112,
        -0.13052302598953247,
        -0.024796070531010628,
        0.2814071476459503,
        0.09539465606212616,
        -0.2592569887638092,
        -0.12148833274841309,
        0.2360730916261673,
        -0.04974077269434929,
        -0.07722222059965134,
        -0.3663826882839203,
        0.36446821689605713,
        0.22188439965248108,
        0.0276652742177248,
        0.17445212602615356,
        -0.2689030170440674,
        0.4774550795555115,
        0.23879721760749817,
        -0.04910699650645256,
        0.2585061490535736,
        0.2308221012353897,
        -0.32807987928390503,
        -0.23080085217952728,
        0.09727618843317032,
        -0.19015827775001526,
        0.16314074397087097,
        -0.29743584990501404,
        -0.4051210880279541,
        -0.04484586790204048,
        -0.34072571992874146,
        0.3524823486804962,
        -0.16590799391269684,
        0.10109136253595352,
        0.05287810042500496,
        -0.24221381545066833,
        -0.1860857605934143,
        0.15960979461669922,
        -0.027106821537017822,
        -0.029736686497926712,
        0.09497939050197601,
        -0.06621898710727692,
        0.02829008735716343,
        -0.21298237144947052,
        -0.007391706109046936,
        0.21802456676959991,
        -0.11895996332168579,
        0.3356100916862488,
        -0.0414041206240654,
        -0.1726066917181015,
        -0.09678756445646286,
        -0.1775684356689453,
        0.23649218678474426,
        0.15011127293109894,
        0.06386373937129974,
        -0.09546609967947006,
        -0.06074739992618561,
        -0.2557545602321625,
        -0.11458106338977814,
        0.13936865329742432,
        -0.019595500081777573,
        -0.2428380697965622,
        0.09988487511873245,
        -0.05416904389858246,
        0.5729758739471436,
        0.3964270055294037,
        0.22809696197509766,
        0.30375581979751587,
        0.11850421130657196,
        -0.00028391729574650526,
        -0.09349990636110306,
        0.06332536786794662,
        0.09582801163196564,
        -0.3326455354690552,
        -0.17918814718723297,
        -0.08092372864484787,
        0.5786471366882324,
        -0.2168363630771637,
        -0.25042158365249634,
        -0.7729789614677429,
        0.06626570969820023,
        -0.0048463232815265656,
        -0.06523272395133972,
        -0.2967117130756378,
        -0.22916023433208466,
        -0.7946614623069763,
        -0.04018134996294975,
        -0.14417900145053864,
        0.19887006282806396,
        0.07380786538124084,
        -0.18488258123397827,
        0.38834476470947266,
        -0.18761053681373596,
        -0.30340370535850525,
        0.12262887507677078,
        0.06852451711893082,
        -0.019973164424300194,
        0.036935895681381226,
        -0.02813267894089222,
        0.10766710340976715,
        0.06395265460014343,
        -0.42350319027900696,
        -0.3324897885322571,
        -0.06555157154798508,
        0.014683875255286694,
        -0.03313232958316803,
        -0.28697723150253296,
        -0.058612994849681854,
        0.09948205947875977,
        0.28012409806251526,
        0.09204979985952377,
        0.18354229629039764,
        -0.014145009219646454,
        0.11193866282701492,
        0.251005619764328,
        0.3607805073261261,
        0.05413726344704628,
        -0.03723616898059845,
        0.2698354721069336,
        -0.06647637486457825,
        0.07978735864162445,
        -0.15061311423778534,
        -0.10845755785703659,
        -0.1142454445362091,
        -0.05215973034501076,
        -0.0341511033475399,
        -0.04467709735035896,
        -0.10926170647144318,
        0.004203513730317354,
        0.18474256992340088,
        0.19228054583072662,
        -0.16391265392303467,
        -0.22413645684719086,
        0.08271000534296036,
        0.13206444680690765,
        0.09225653111934662,
        -0.13974235951900482,
        -0.14519445598125458,
        -0.19314922392368317,
        0.17045710980892181,
        0.015180287882685661,
        0.2859252691268921,
        -0.0345168374478817,
        -0.30398279428482056,
        -0.6894428730010986,
        -0.08424355834722519,
        -0.05554165691137314,
        0.046069297939538956,
        0.04001028090715408,
        0.3055168390274048,
        0.05379488319158554,
        0.10478904098272324,
        -0.20573115348815918,
        -0.12843984365463257,
        -0.23465892672538757,
        0.36672070622444153,
        0.4539167582988739,
        -0.33478406071662903,
        0.027807675302028656,
        0.018546050414443016,
        -0.07774615287780762,
        0.023467807099223137,
        0.05529540032148361,
        0.03255554661154747,
        -0.03149184212088585,
        -0.17696180939674377,
        -0.04772737994790077,
        0.29111626744270325,
        0.2490331381559372,
        -0.5453806519508362,
        -0.02506260760128498,
        -0.051197975873947144,
        0.08755405247211456,
        0.10993199050426483,
        -0.008474455215036869,
        0.06542683392763138,
        0.05312264338135719,
        0.1538073718547821,
        -0.28977319598197937,
        -0.05332934856414795,
        -0.2975573241710663,
        -0.16291677951812744,
        0.06820257753133774,
        0.004600015003234148,
        0.043074049055576324,
        -0.048303574323654175,
        0.3180188536643982,
        0.23420412838459015,
        0.012825614772737026,
        0.1634654402732849,
        -0.02429039031267166,
        0.13936983048915863,
        0.14844012260437012,
        -0.20213182270526886,
        -0.1652492731809616,
        -0.25877445936203003,
        0.0690455213189125,
        0.010854787193238735,
        0.22211885452270508,
        -0.23936118185520172,
        0.13864021003246307,
        0.053092245012521744,
        0.17879576981067657,
        -0.15809057652950287,
        0.022412102669477463,
        0.10743392258882523,
        0.09824147075414658,
        -0.002874925034120679,
        0.008671823889017105,
        0.051365192979574203,
        -0.017377635464072227,
        0.134466290473938,
        0.11348722130060196,
        -0.15063315629959106,
        -0.18064752221107483,
        -0.13730289041996002,
        0.1057247444987297,
        -0.22390083968639374,
        -0.032537396997213364,
        -0.14965449273586273,
        0.19781409204006195,
        0.1894170492887497,
        0.15646052360534668,
        0.021934712305665016,
        -0.12184876203536987,
        -0.09826430678367615,
        -0.060755617916584015,
        -0.11291196197271347,
        -0.1708042472600937,
        -0.15454019606113434,
        0.1735142320394516,
        -0.5184799432754517,
        -0.08025490492582321,
        -0.3805031180381775,
        0.059948138892650604,
        -0.023938169702887535,
        0.017411213368177414,
        -0.05275877192616463,
        -0.2429989129304886,
        -0.5161638259887695,
        0.3583855926990509,
        1.2461159229278564,
        0.8167410492897034,
        0.03714607656002045,
        -0.9801186323165894,
        -0.4682299792766571,
        -0.24899998307228088,
        -0.17595174908638,
        0.13586828112602234,
        0.14603592455387115,
        0.281543105840683,
        0.01979329064488411,
        -0.3632013499736786,
        0.04670220986008644,
        0.06191668659448624,
        -0.23802527785301208,
        -0.009596025571227074,
        0.03558803349733353,
        -0.31944575905799866,
        0.2642020881175995,
        -0.04059392586350441,
        -0.23170813918113708,
        0.29227253794670105,
        -0.2554013729095459,
        0.08912479877471924,
        0.34200426936149597,
        0.21198803186416626,
        0.008359210565686226,
        0.019273454323410988,
        0.2607609033584595,
        -0.23932012915611267,
        -0.14978477358818054,
        -0.18283922970294952,
        0.05061482638120651,
        -0.060842256993055344,
        0.3586357831954956,
        0.20197483897209167,
        0.3692918121814728,
        -0.009787056595087051,
        0.029000166803598404,
        -0.40500426292419434,
        -0.4392649233341217,
        -0.034629810601472855,
        0.1621481478214264,
        0.2679981291294098,
        0.005711950361728668,
        0.04736407846212387,
        0.1730157434940338,
        -0.3663921654224396,
        -0.28026458621025085,
        -0.11445502191781998,
        0.08591831475496292,
        -0.19148430228233337,
        0.036289699375629425,
        0.050962895154953,
        0.09333314001560211,
        0.1625540554523468,
        0.1324920356273651,
        0.274811714887619,
        -0.15730102360248566,
        0.21826882660388947,
        0.15721410512924194,
        0.28519582748413086,
        -0.1241401731967926,
        -0.1940544694662094,
        -0.17328587174415588,
        0.38002514839172363,
        -0.10628875344991684,
        -0.17056719958782196,
        0.33879154920578003,
        0.33435970544815063,
        -0.05299856886267662,
        -0.24658110737800598,
        0.5383844971656799,
        -0.014488874934613705,
        -0.15963220596313477,
        -0.055830709636211395,
        -0.1934419721364975,
        -0.3964560627937317,
        0.1122843399643898,
        -0.28177809715270996,
        -0.10263128578662872,
        0.2405882626771927,
        -0.24455025792121887,
        -0.05327112600207329,
        -0.2869683504104614,
        0.05277146026492119,
        0.617486298084259,
        -0.00564096262678504,
        -0.2084953933954239,
        -0.1708867847919464,
        -0.1855965256690979,
        0.04904096946120262,
        -0.07951360940933228,
        0.07157303392887115,
        0.24225060641765594,
        0.2117498219013214,
        -0.36125996708869934,
        0.20819005370140076,
        0.353219211101532,
        -0.41072773933410645,
        -0.3370356559753418,
        0.33277884125709534,
        -0.3312993049621582,
        -0.21977853775024414,
        0.25207340717315674,
        -0.07981429249048233,
        0.0014292402192950249,
        -0.05216803029179573,
        0.42002829909324646,
        0.2636115550994873,
        -0.06394371390342712,
        -0.1210644543170929,
        0.26133349537849426,
        0.2921237051486969,
        0.07231105864048004,
        -0.1278824359178543,
        0.07712153345346451,
        -0.14662933349609375,
        0.1934078186750412,
        -0.10689161717891693,
        0.412097305059433,
        -0.20668438076972961,
        0.08004189282655716,
        0.17140868306159973,
        0.08759544789791107,
        -0.1021583080291748,
        0.35517096519470215,
        0.06890507787466049,
        -0.16908994317054749,
        -0.4181496500968933,
        -0.22887781262397766,
        0.163270965218544,
        0.014904036186635494,
        0.018948832526803017,
        -0.027653714641928673,
        0.22295556962490082,
        -0.12287828326225281,
        -0.21155333518981934,
        0.26681840419769287,
        -0.038701023906469345,
        0.4433528482913971,
        -0.010122549720108509,
        0.006747695617377758,
        -0.051098376512527466,
        -0.025918524712324142,
        -0.04264117032289505,
        -0.09102070331573486,
        0.11244405806064606,
        0.07641761004924774,
        -0.02747863158583641,
        -0.2813621759414673,
        -0.1290198117494583,
        0.41710254549980164,
        -0.004527832847088575,
        0.06446870416402817,
        0.19029085338115692,
        -0.023111160844564438,
        -0.3417164087295532,
        0.07673265784978867,
        -0.20255397260189056,
        0.05724366009235382,
        0.08266955614089966,
        0.1758507341146469,
        0.14824052155017853,
        -0.02257080189883709,
        0.017627228051424026,
        0.14199690520763397,
        -0.7971261739730835,
        -0.06676264852285385,
        0.05154293775558472,
        0.4678472578525543,
        0.11095407605171204,
        0.06761427223682404,
        0.6433404088020325,
        -0.08336235582828522,
        0.006608718074858189,
        0.1987498253583908,
        -0.13773812353610992,
        -0.18155449628829956,
        0.0631248950958252,
        -0.07656654715538025,
        -0.10957068204879761,
        0.11516009271144867,
        0.11580187827348709,
        -0.0009178657783195376,
        0.08351641148328781,
        -0.29140737652778625,
        -0.053728703409433365,
        0.013480585999786854,
        0.09606800973415375,
        -0.18453723192214966,
        -0.36208316683769226,
        0.12564551830291748,
        -0.17814956605434418,
        0.004855339881032705,
        -0.1678740680217743,
        0.1776604801416397,
        -0.039124295115470886,
        -0.1501561850309372,
        -0.16990813612937927,
        -0.2815626859664917,
        0.2599712610244751,
        -0.2983745336532593,
        -0.35147327184677124,
        -0.13818082213401794,
        0.17698466777801514,
        0.20518337190151215,
        -0.40782272815704346,
        0.3376166522502899,
        -0.49281567335128784,
        0.10979489237070084,
        -0.10658546537160873,
        -0.1491961032152176,
        0.3869093358516693,
        0.6025874018669128,
        -0.13974308967590332,
        -0.21268656849861145,
        0.17488627135753632,
        0.0738900825381279,
        -0.0274796262383461,
        -0.036327093839645386,
        0.03766901418566704,
        0.20440812408924103,
        -0.026970019564032555,
        -0.03793317452073097,
        -0.22878380119800568,
        0.18002119660377502,
        0.29892978072166443,
        -0.05713809281587601,
        -0.009420441463589668,
        0.008655107580125332,
        -0.5260986089706421,
        -0.10729745775461197,
        -0.22542062401771545,
        0.18663159012794495,
        0.1968526989221573,
        0.15455786883831024,
        1.0853263139724731,
        -0.29182878136634827,
        0.06119319051504135,
        0.18666565418243408,
        -0.10359784960746765,
        0.031251851469278336,
        -0.18706363439559937,
        -0.009189154021441936,
        0.13823746144771576,
        -0.8857115507125854,
        -0.012623053044080734,
        0.18539609014987946,
        -0.26852136850357056,
        -0.23343198001384735,
        -0.4847913682460785,
        -0.3758559823036194,
        -0.0901268869638443,
        -0.14357297122478485,
        -0.10649248212575912,
        -0.07472514361143112,
        -0.3025287389755249,
        0.09222760051488876,
        0.27786925435066223,
        0.1506788730621338,
        0.35348549485206604,
        -0.31809133291244507,
        -0.31040793657302856,
        0.018797894939780235,
        0.09788736701011658,
        -0.5999632477760315,
        -0.3325560390949249,
        -0.1501244604587555,
        -0.01575799100100994,
        0.6918160319328308,
        -0.4033382534980774,
        0.07819367945194244,
        -0.3570195436477661,
        -0.12888143956661224,
        0.2410612851381302,
        -0.07947023957967758,
        -0.420979768037796,
        0.46053972840309143,
        -0.17311440408229828,
        -0.20984067022800446,
        0.40679416060447693,
        0.067398302257061,
        -0.16028565168380737,
        0.30101993680000305,
        0.26380372047424316,
        -0.12940901517868042,
        -0.2297056019306183,
        -0.08001048862934113,
        0.23801374435424805,
        0.11991309374570847,
        0.2121928334236145,
        -0.4597710072994232,
        -0.01603682152926922,
        0.188252791762352,
        -0.08044581860303879,
        0.08646576851606369,
        0.08019129931926727,
        -0.1546964943408966,
        -0.14866718649864197,
        0.0035893097519874573,
        -0.09745653718709946,
        0.1594095379114151,
        0.33564332127571106,
        -0.07940243929624557,
        0.15507836639881134,
        -0.03855501860380173,
        -0.13670147955417633,
        -0.05335754156112671,
        0.096603624522686,
        -0.07290996611118317,
        0.09439760446548462,
        -5.4503834689967334e-05,
        -0.20724107325077057,
        0.2814505696296692,
        -0.1277836263179779,
        -0.16839785873889923,
        -0.010234125889837742,
        0.011077359318733215,
        -0.43683555722236633,
        -0.20252497494220734,
        0.13105688989162445,
        0.09659575670957565,
        0.054781459271907806,
        -0.09659390896558762,
        0.6029891967773438,
        0.26192179322242737,
        0.24861237406730652,
        -0.08271396160125732,
        0.11447010189294815,
        -0.12341803312301636,
        0.04942341148853302,
        -0.045758094638586044,
        0.16130021214485168,
        -0.3174009919166565,
        -0.010239294730126858,
        -0.2667405605316162,
        0.2590107023715973,
        0.4275360703468323,
        0.24550312757492065,
        0.3559836745262146,
        0.04766382649540901,
        -0.012235244736075401,
        -0.3654197156429291,
        0.09491357952356339,
        0.6018297076225281,
        0.2048243135213852,
        1.3418948650360107,
        -0.3038021922111511,
        0.12896357476711273,
        0.1712333858013153,
        -0.3638906180858612,
        -0.3064393997192383,
        -0.1787063181400299,
        0.2511720061302185,
        -0.17713430523872375,
        -0.4867834746837616,
        0.010232101194560528,
        -0.33592280745506287,
        -0.014102496206760406,
        0.5706857442855835,
        0.32419466972351074,
        0.2523568272590637,
        -0.08636373281478882,
        0.18680407106876373,
        0.3752048909664154,
        0.020206507295370102,
        -0.2768617570400238,
        0.3866940438747406,
        0.21544989943504333,
        -0.30084607005119324,
        0.004696066025644541,
        -0.11425546556711197,
        0.40356510877609253,
        0.03525763005018234,
        -0.2434161901473999,
        0.14265309274196625,
        0.07056306302547455,
        -0.3382279574871063,
        -0.1055256575345993,
        -0.003537453943863511,
        0.0741211324930191,
        -0.14766576886177063,
        -0.04696524888277054,
        0.058422915637493134,
        0.4095889627933502,
        -0.18142950534820557,
        0.0028369403444230556,
        0.24797724187374115,
        0.09661008417606354,
        0.10707082599401474,
        0.03753894567489624,
        0.11971251666545868,
        0.10696856677532196,
        -0.5264782309532166,
        -0.09392841905355453,
        -0.06726135313510895,
        0.09864052385091782,
        -0.2298603653907776,
        0.12814807891845703,
        0.2728920876979828,
        -0.11315324902534485,
        0.08786652982234955,
        -0.02334696240723133,
        -0.13715562224388123,
        0.11998753249645233,
        0.3614281415939331,
        0.15090017020702362,
        -0.1884145885705948,
        -0.5384458899497986,
        -0.08959455043077469,
        -0.20885153114795685,
        -0.1559622585773468,
        -0.4131002128124237,
        -0.30387210845947266,
        0.2132895141839981,
        -0.15182730555534363,
        0.4194118082523346,
        0.09091130644083023,
        -0.14609768986701965,
        0.2889087498188019,
        -0.40319961309432983,
        0.13967403769493103,
        0.4343791604042053,
        0.1333448588848114,
        0.36073702573776245,
        0.2909463942050934,
        0.04483785480260849,
        -0.17214781045913696,
        0.5557748675346375,
        0.9493803977966309,
        0.7290754318237305,
        -0.3405928313732147,
        -0.1267785131931305,
        0.34485483169555664,
        0.23821939527988434,
        0.20087949931621552,
        0.15868577361106873,
        0.20511673390865326,
        0.187440425157547,
        -0.13380661606788635,
        -0.3229375183582306,
        -0.34512147307395935,
        -0.16890785098075867,
        0.1268692910671234,
        0.01902422122657299,
        0.1828877031803131,
        0.04488503187894821,
        -0.1493271142244339,
        0.19410490989685059,
        0.04978616535663605,
        0.04121682792901993,
        0.34556740522384644,
        -0.045826513320207596,
        0.2592722773551941,
        0.09305240213871002,
        0.02404809184372425,
        0.2557700574398041,
        -0.3706285059452057,
        -0.04265056923031807,
        -0.019891100004315376,
        0.29728642106056213,
        -0.07710069417953491,
        -0.014197605662047863,
        0.018824655562639236,
        0.17820408940315247,
        0.09624075889587402,
        0.10860047489404678,
        0.191163569688797,
        -0.5629607439041138,
        -1.2662862539291382,
        0.09409832209348679,
        -0.036709439009428024,
        0.335772842168808,
        0.40085214376449585,
        -0.024250227957963943,
        0.551584005355835,
        0.688466489315033,
        -0.17490610480308533,
        -0.18083405494689941,
        0.030013233423233032,
        0.23925870656967163,
        0.08862652629613876,
        -0.1534237265586853,
        -0.08937447518110275,
        -0.05512678250670433,
        -0.2929912805557251,
        0.060117993503808975,
        0.07309436798095703,
        0.30742692947387695,
        0.0685923621058464,
        -0.07279667258262634,
        -0.04622431844472885,
        0.06266630440950394,
        -0.11369242519140244,
        0.019998546689748764,
        -0.3039768934249878,
        -0.7295903563499451,
        0.3089269995689392,
        0.10354234278202057,
        -0.32770389318466187,
        -0.6805251836776733,
        0.3369693160057068,
        0.2591206133365631,
        -0.47845259308815,
        0.6626601219177246,
        0.533532440662384,
        -0.4320923388004303,
        -0.49591583013534546,
        0.6068467497825623,
        -0.04844476655125618,
        -0.2547205090522766,
        0.2145853042602539,
        0.2956555485725403,
        0.12092138081789017,
        -0.12716902792453766,
        -0.4482594430446625,
        -0.3208101689815521,
        0.019749756902456284,
        -0.41023319959640503,
        0.49083763360977173,
        -0.23873025178909302,
        -0.34400588274002075,
        0.09379243105649948,
        -0.014872795902192593,
        -0.19700337946414948,
        0.3491247296333313,
        0.05342242866754532,
        0.3892384171485901,
        0.09700731933116913,
        -0.21663688123226166,
        -0.25433477759361267,
        0.04792153462767601,
        -0.022512396797537804,
        -0.11619366705417633,
        -0.29864248633384705,
        -0.359921932220459,
        -0.1269359290599823,
        0.6566773653030396,
        0.03813846409320831,
        0.08788829296827316,
        0.2900264859199524,
        0.24804972112178802,
        0.36057063937187195,
        0.4278060793876648,
        0.3874608874320984,
        0.04797859862446785,
        -0.40932413935661316,
        0.023796098306775093,
        0.07257816195487976,
        0.2780381739139557,
        -0.13643057644367218,
        -0.20263129472732544,
        0.22740955650806427,
        0.10340067744255066,
        -0.21940037608146667,
        0.06576020270586014,
        -0.013760828413069248,
        -0.21086105704307556,
        -0.08644160628318787,
        0.10835869610309601,
        0.27238938212394714,
        -0.00851162988692522,
        0.09639596194028854,
        -0.060666389763355255,
        -0.07843862473964691,
        -0.11592341214418411,
        0.25262367725372314,
        0.054569028317928314,
        -0.12655724585056305,
        0.03611816465854645,
        -0.04948657378554344,
        -0.11150017380714417,
        0.6571232676506042,
        0.6413379907608032,
        0.43823927640914917,
        -0.35711124539375305,
        -0.04249894618988037,
        0.2196800857782364,
        0.04435481131076813,
        -0.5133505463600159,
        -0.22816447913646698,
        0.1155291274189949,
        -0.13032089173793793,
        0.38073670864105225,
        0.6908771991729736,
        -0.09833358973264694,
        -0.5205650329589844,
        -0.2695334553718567,
        -0.1031774953007698,
        0.10933541506528854,
        -0.4045798182487488,
        -0.5721545815467834,
        -0.39330944418907166,
        -0.3649618923664093,
        0.14487464725971222,
        -0.08487651497125626,
        -0.13714571297168732,
        0.14514625072479248,
        -0.2105228453874588,
        -0.02780890092253685,
        0.3171837329864502,
        0.22131046652793884,
        -0.2541891932487488,
        -0.0813867375254631,
        0.16886606812477112,
        0.33222079277038574,
        -0.1484103500843048,
        0.23577165603637695,
        -0.16102853417396545,
        -0.18894432485103607,
        0.20601126551628113,
        -0.10277548432350159,
        -0.3379519283771515,
        0.12371153384447098,
        0.08726316690444946,
        0.37478137016296387,
        -0.3135509490966797,
        0.17615747451782227,
        0.42708727717399597,
        -0.11976653337478638,
        0.12880685925483704,
        0.09477730840444565,
        -0.22417005896568298,
        -0.17017240822315216,
        -0.25001856684684753,
        -0.02591721899807453,
        -0.027486728504300117,
        -0.1044669821858406,
        -0.06319601833820343,
        0.03173518180847168,
        -0.21873125433921814,
        -0.25940263271331787,
        0.013447814621031284,
        -0.04947474226355553,
        0.3072972893714905,
        -0.04707888141274452,
        -0.30447253584861755,
        -0.057642240077257156,
        0.019996274262666702,
        -0.11580472439527512,
        -0.16757646203041077,
        0.09370023012161255,
        0.3208794593811035,
        -0.16814349591732025,
        -0.10777308791875839,
        0.0658835843205452,
        -0.0450124517083168,
        -0.18549470603466034,
        -1.0860997438430786,
        -0.7314824461936951,
        -0.18353542685508728,
        -0.05008862912654877,
        -0.1766655594110489,
        -0.714695394039154,
        -0.15509803593158722,
        0.38945621252059937,
        -0.4433358907699585,
        -0.01639501005411148,
        0.03796115517616272,
        0.5375146269798279,
        -0.5266274809837341,
        -0.041976042091846466,
        0.24029117822647095,
        0.5188946723937988,
        -0.6868312358856201,
        -0.050452522933483124,
        0.24181266129016876,
        0.0710114985704422,
        -0.11224368959665298,
        -0.35932809114456177,
        0.2553882598876953,
        -0.17830802500247955,
        -0.13743598759174347,
        0.24666813015937805,
        -0.27423110604286194,
        -0.1280743032693863,
        -0.10441140830516815,
        0.6041910648345947,
        0.15588434040546417,
        0.055554307997226715,
        0.457576721906662,
        0.23401953279972076,
        0.2521111071109772,
        0.17876094579696655,
        -0.13593178987503052,
        -0.15266667306423187,
        0.5368659496307373,
        -0.05021233856678009,
        -0.26873481273651123,
        0.20475973188877106,
        0.009203397668898106,
        0.15403518080711365,
        -0.3299122452735901,
        0.20977315306663513,
        0.4021027684211731,
        -0.05248497426509857,
        -0.06016932800412178,
        0.18149499595165253,
        0.02246125601232052,
        -0.028505802154541016,
        -0.12330096960067749,
        0.1338142454624176,
        -0.12707196176052094,
        0.18537457287311554,
        0.3619011640548706,
        0.13631895184516907,
        0.11685749143362045,
        -0.003733439603820443,
        0.1070597842335701,
        0.05756831914186478,
        -0.35870161652565,
        -0.005283328704535961,
        0.19738353788852692,
        -0.18056122958660126,
        -0.009064429439604282,
        -0.28920966386795044,
        -0.04108703136444092,
        -0.2110610157251358,
        -0.35555750131607056,
        0.19548943638801575,
        -0.2740665376186371,
        0.13068503141403198,
        -0.28322482109069824,
        -0.13011030852794647,
        0.29898858070373535,
        -0.6403270363807678,
        0.9220865368843079,
        0.4247312545776367,
        -0.06849146634340286,
        0.21648186445236206,
        0.35850077867507935,
        0.8182826638221741,
        -0.3443826138973236,
        -0.3885285556316376,
        0.4410809278488159,
        -0.34170499444007874,
        -0.14904312789440155,
        0.12798091769218445,
        -0.021316928789019585,
        -0.472311407327652,
        -0.37684166431427,
        0.12088227272033691,
        0.12226913869380951,
        0.13196386396884918,
        0.026805942878127098,
        0.3570474088191986,
        -0.06938287615776062,
        -0.23278705775737762,
        -0.016258519142866135,
        -0.014175976626574993,
        0.12377344816923141,
        -0.00015344029816333205,
        -0.052585046738386154,
        0.4649513065814972,
        0.01877695694565773,
        0.14797094464302063,
        0.2757725119590759,
        0.03417137265205383,
        0.06343315541744232,
        0.19640304148197174,
        -0.11984594166278839,
        -0.33189690113067627,
        0.2064451277256012,
        -0.09384218603372574,
        -0.271235853433609,
        0.14078263938426971,
        0.12888988852500916,
        0.21595247089862823,
        -0.1649286299943924,
        0.1633518934249878,
        0.20775751769542694,
        0.022495899349451065,
        -0.06813458353281021,
        0.08390931040048599,
        0.021417737007141113,
        -0.06289741396903992,
        -0.06491111218929291,
        0.4085547924041748,
        0.007499100174754858,
        0.1843262016773224,
        0.18631456792354584,
        -0.010787340812385082,
        -0.23946715891361237,
        0.09954250603914261,
        0.2750532627105713,
        0.058145906776189804,
        -0.14028045535087585,
        0.16672837734222412,
        -0.10730644315481186,
        -0.3459264636039734,
        -0.12914572656154633,
        0.2395830601453781,
        -0.32690826058387756,
        0.03622284531593323,
        -0.24900144338607788,
        0.010261516086757183,
        0.0562467947602272,
        -0.04581671580672264,
        0.2063153088092804,
        0.0403401255607605,
        -0.37346968054771423,
        0.3243655264377594,
        0.3782294988632202,
        0.03497397527098656,
        0.6827343106269836,
        -0.8356212377548218,
        0.42827287316322327,
        0.32024621963500977,
        0.18394143879413605,
        -0.18611158430576324,
        0.1250183880329132,
        0.11678016930818558,
        -0.3062891364097595,
        0.30018994212150574,
        0.07622857391834259,
        0.23720204830169678,
        0.3680128753185272,
        0.33500614762306213,
        -0.13080070912837982,
        -0.4277903139591217,
        -0.2558205723762512,
        0.1595005840063095,
        -0.8859173059463501,
        -0.47113847732543945,
        -0.23459340631961823,
        -0.17983584105968475,
        0.14686255156993866,
        -0.07805263996124268,
        -0.12712956964969635,
        0.46556007862091064,
        -0.06499428302049637,
        0.19266003370285034,
        0.04370968043804169,
        0.10373389720916748,
        0.05287931486964226,
        -0.0984157994389534,
        -0.28492990136146545,
        0.030859284102916718,
        -0.089490607380867,
        -0.08056299388408661,
        0.018830735236406326,
        0.032038364559412,
        -0.3097890019416809,
        -0.3894796073436737,
        -0.46753448247909546,
        -0.1299700140953064,
        0.24938856065273285,
        0.21440629661083221,
        -0.05056232213973999,
        -0.18603989481925964,
        0.2206304967403412,
        -0.053904104977846146,
        -0.0252811461687088,
        0.05864614248275757,
        -0.06931069493293762,
        -0.17583170533180237,
        0.024420561268925667,
        0.12295889854431152,
        0.1895819753408432,
        -0.14278574287891388,
        0.19646555185317993,
        0.06528861820697784,
        -0.4583648145198822,
        0.07927294820547104,
        0.008402342908084393,
        -0.010762770660221577,
        -0.09365851432085037,
        0.052510667592287064,
        0.154133602976799,
        -0.21342113614082336,
        -0.02786383591592312,
        -0.18827791512012482,
        -0.045374829322099686,
        0.08429208397865295,
        0.26436591148376465,
        0.254833847284317,
        0.20230375230312347,
        -0.23458504676818848,
        -0.18456992506980896,
        0.35514387488365173,
        -0.36936917901039124,
        0.15035487711429596,
        -0.4471609890460968,
        0.8801238536834717,
        0.1801324486732483,
        0.2353900820016861,
        -0.05311662703752518,
        0.054179586470127106,
        -0.2579557001590729,
        0.159629687666893,
        -0.21798187494277954,
        0.1236739307641983,
        0.05906000733375549,
        -0.17739185690879822,
        0.0015644781524315476,
        0.47426334023475647,
        -0.09855367988348007,
        -0.11174490302801132,
        0.06374316662549973,
        0.0683906227350235,
        -0.1633666455745697,
        -0.28983914852142334,
        0.22347049415111542,
        0.05855507031083107,
        -0.02993110753595829,
        0.16987545788288116,
        0.08041157573461533,
        -0.1356845200061798,
        -0.22634868323802948,
        0.01253010705113411,
        0.13005799055099487,
        -0.09437679499387741,
        -0.14933423697948456,
        0.02262023836374283,
        0.16945114731788635,
        -0.07624238729476929,
        -0.003339048707857728,
        0.45770007371902466,
        0.02340392954647541,
        0.06882224977016449,
        0.013852560892701149,
        0.20927615463733673,
        0.06481985002756119,
        -0.08324475586414337,
        -0.2703549265861511,
        -0.2107204645872116,
        0.18525968492031097,
        -0.02274997904896736,
        -0.0442427434027195,
        0.4207393527030945,
        -0.062370095402002335,
        0.08103339374065399,
        0.30076026916503906,
        -0.08098626136779785,
        0.04130636155605316,
        -0.0029280572198331356,
        0.30824166536331177,
        0.21830451488494873,
        -0.09965391457080841,
        0.015735076740384102,
        0.08186693489551544,
        0.18887348473072052,
        0.2811937630176544,
        0.13897760212421417,
        0.2719581127166748,
        -0.24326349794864655,
        -0.3691648542881012,
        -0.17958568036556244,
        0.15427158772945404,
        -0.2465876042842865,
        -0.33324751257896423,
        -0.16940823197364807,
        -0.32112690806388855,
        -0.24651002883911133,
        -0.6199472546577454,
        0.6957080364227295,
        -0.13543754816055298,
        -0.17658504843711853,
        0.005445864982903004,
        0.19640719890594482,
        -0.5515778660774231,
        0.07003310322761536,
        0.2319074124097824,
        0.14522089064121246,
        0.20923589169979095,
        -0.23764047026634216,
        0.5230756402015686,
        0.46220293641090393,
        0.2921135127544403,
        0.23565830290317535,
        -0.3287598192691803,
        0.15427447855472565,
        0.2777582108974457,
        -0.29660606384277344,
        0.17535363137722015,
        -0.43500301241874695,
        -0.17331065237522125,
        -0.3163033425807953,
        0.09523545205593109,
        -0.18022675812244415,
        -0.10137181729078293,
        -0.0029226415790617466,
        0.019635803997516632,
        -0.1769166737794876,
        -0.20231953263282776,
        0.07157712429761887,
        0.23831723630428314,
        -0.313661128282547,
        -0.08667706698179245,
        0.04807431995868683,
        0.09671614319086075,
        -0.0067980969324707985,
        0.005733273457735777,
        0.5891158580780029,
        0.03800142556428909,
        0.11378753930330276,
        0.4329173266887665,
        -0.10999642312526703,
        0.03750453516840935,
        0.1358664482831955,
        -0.030573144555091858,
        0.11418429762125015,
        -0.008247665129601955,
        0.1845816820859909,
        0.02368597313761711,
        0.17928682267665863,
        0.22718584537506104,
        0.12090559303760529,
        0.13994067907333374,
        -0.026821685954928398,
        0.00763316685333848,
        0.011569545604288578,
        0.0536232516169548,
        0.04628695547580719,
        -0.11351875215768814,
        -0.06341975182294846,
        0.04402471333742142,
        -0.2069956213235855,
        0.12094888836145401,
        -0.16234789788722992,
        0.2517627477645874,
        -0.2323618084192276,
        0.04209575429558754,
        0.29307106137275696,
        -0.19888822734355927,
        0.15233846008777618,
        -0.19611844420433044,
        -0.11009245365858078,
        0.09034563601016998,
        -0.694850742816925,
        0.616334855556488,
        -0.3389070928096771,
        -0.08810890465974808,
        -0.08791185170412064,
        -0.3171921372413635,
        0.3641836643218994,
        0.0008400143124163151,
        0.1780097484588623,
        0.14933891594409943,
        0.1235976368188858,
        -0.15987564623355865,
        0.3996337354183197,
        0.03788761794567108,
        -0.39705294370651245,
        0.5868313312530518,
        0.4075642228126526,
        0.21671785414218903,
        -0.22959855198860168,
        -0.1571441888809204,
        0.07028750330209732,
        -0.3179761469364166,
        0.27496689558029175,
        0.03118639625608921,
        0.020223431289196014,
        0.15548573434352875,
        0.01867956668138504,
        -0.0966482013463974,
        0.5366719365119934,
        0.0485537014901638,
        0.07806217670440674,
        0.4061654508113861,
        -0.05889277905225754,
        0.15179936587810516,
        0.03957637771964073,
        -0.21939820051193237,
        -0.2509496808052063,
        0.26161980628967285,
        -0.14752468466758728,
        -0.027017461135983467,
        -0.07874491810798645,
        -0.015736445784568787,
        -0.2568378448486328,
        -0.0870765671133995,
        0.30250829458236694,
        0.30510929226875305,
        0.1504317969083786,
        0.13726310431957245,
        0.06261252611875534,
        0.1552330106496811,
        -0.012399045750498772,
        -0.2702175974845886,
        0.10501199960708618,
        -0.09875098615884781,
        -0.13841640949249268,
        0.19442535936832428,
        0.1112697646021843,
        0.014384327456355095,
        -0.013598456047475338,
        0.1265750676393509,
        0.10535131394863129,
        -0.14610348641872406,
        -0.022157160565257072,
        -0.16582907736301422,
        -0.04177097603678703,
        -0.001034536398947239,
        -0.16144061088562012,
        0.13848677277565002,
        0.04611749202013016,
        0.05496286600828171,
        0.10247131437063217,
        -0.04721715301275253,
        -0.02525114268064499,
        0.21988266706466675,
        -0.21238404512405396,
        0.4836287796497345,
        -0.3286142945289612,
        -0.5405963659286499,
        -0.86649090051651,
        -0.12091034650802612,
        -0.04836457967758179,
        -0.23046547174453735,
        0.3559243679046631,
        0.2869518995285034,
        -0.44128191471099854,
        -0.050015389919281006,
        0.1681065559387207,
        0.4823986291885376,
        -0.11955636739730835,
        0.3069649934768677,
        -0.028011441230773926,
        -0.1917715072631836,
        0.30598050355911255,
        -0.4455450773239136,
        0.41890019178390503,
        0.4994143843650818,
        -0.1365121603012085,
        0.1975109577178955,
        0.49860215187072754,
        0.42342862486839294,
        0.5383500456809998,
        0.3910331428050995,
        -0.34652140736579895,
        0.19157147407531738,
        0.019999999552965164
    ]
}