{
    "version": "0.5.0",
    "architecture": "WaveNet",
    "config": {
        "layers": [
            {
                "input_size": 1,
                "condition_size": 1,
                "head_size": 4,
                "channels": 8,
                "kernel_size": 3,
                "dilations": [
                    1,
                    2,
                    4,
                    8,
                    16,
                    32,
                    64
                ],
                "activation": "Tanh",
                "gated": false,
                "head_bias": false
            },
            {
                "input_size": 8,
                "condition_size": 1,
                "head_size": 1,
                "channels": 4,
                "kernel_size": 3,
                "dilations": [
                    128,
                    256,
                    512,
                    1,
                    2,
                    4,
                    8,
                    16,
                    32,
                    64,
                    128,
                    256,
                    512
                ],
                "activation": "Tanh",
                "gated": false,
                "head_bias": true
            }
        ],
        "head": null,
        "head_scale": 0.02
    },
    "weights": [
        0.15523944795131683,
        0.5489429831504822,
        -0.851502537727356,
        -0.8218466639518738,
        -0.41821008920669556,
        0.15958645939826965,
        -0.10117648541927338,
        0.8253161311149597,
        -0.16896216571331024,
        0.04537871107459068,
        0.07239441573619843,
        -0.25891757011413574,
        -0.2814437747001648,
        -0.09879016131162643,
        0.14025573432445526,
        0.09929981827735901,
        0.0505216084420681,
        0.3473922312259674,
        -0.04720666632056236,
        -0.12133319675922394,
        0.2892214059829712,
        0.2510948181152344,
        -0.0841810330748558,
        -0.049023158848285675,
        -0.10238105803728104,
        0.07518691569566727,
        0.37010619044303894,
        -0.14176419377326965,
        -0.22620542347431183,
        -0.27581149339675903,
        -0.17101390659809113,
        0.20718072354793549,
        0.007060340605676174,
        0.17772527039051056,
        -0.4342852830886841,
        -0.0655704215168953,
        0.08262097835540771,
        -0.1358676254749298,
        -0.04041095823049545,
        -0.10936620831489563,
        0.3192914128303528,
        -0.23805540800094604,
        -0.18204593658447266,
        0.12630902230739594,
        -0.2732670307159424,
        -0.30913907289505005,
        0.44502460956573486,
        0.2488742172718048,
        0.14971284568309784,
        -0.3614857792854309,
        0.02412068471312523,
        -0.007148833945393562,
        0.3860805630683899,
        0.15737348794937134,
        0.34456560015678406,
        -0.431265652179718,
        -0.11740076541900635,
        -0.24614542722702026,
        0.04135866463184357,
        -0.2559741735458374,
        0.0004910457064397633,
        0.23520667850971222,
        0.03514805808663368,
        0.15934878587722778,
        -0.034783679991960526,
        0.13122393190860748,
        0.10650467127561569,
        -0.10198844224214554,
        0.2730758786201477,
        0.2830696403980255,
        -0.31732580065727234,
        -0.21177226305007935,
        -0.005618278868496418,
        0.3330460786819458,
        0.2971899211406708,
        0.2322932332754135,
        -0.17210125923156738,
        -0.3334207832813263,
        -0.07882960140705109,
        0.019695430994033813,
        -0.4156186878681183,
        0.23098215460777283,
        0.3599208891391754,
        -0.47629499435424805,
        0.015266881324350834,
        0.07507497817277908,
        0.24441151320934296,
        -0.06608554720878601,
        -0.026127435266971588,
        0.1575247347354889,
        0.09986363351345062,
        -0.005905924830585718,
        0.4157586395740509,
        0.09350088238716125,
        -0.3182104825973511,
        -0.37213990092277527,
        0.11176130175590515,
        0.18518078327178955,
        0.09971364587545395,
        -0.12041205912828445,
        0.03784662485122681,
        -0.14003294706344604,
        -0.11579103767871857,
        0.05405420809984207,
        -0.3033468723297119,
        0.009817194193601608,
        -0.02188527025282383,
        -0.34671056270599365,
        -0.08251453936100006,
        0.09439171105623245,
        0.1112668365240097,
        0.19793099164962769,
        -0.18171927332878113,
        0.380055695772171,
        0.21605241298675537,
        -0.23185455799102783,
        0.1340237408876419,
        0.0751945823431015,
        -0.04005012661218643,
        -0.12409374117851257,
        0.023950234055519104,
        0.09286674112081528,
        0.04616175964474678,
        0.1176910474896431,
        -0.3217114210128784,
        -0.31555435061454773,
        -0.12760818004608154,
        -0.041374094784259796,
        -0.159556046128273,
        -0.31406480073928833,
        0.4189954698085785,
        -0.03560914471745491,
        -0.26811903715133667,
        0.4200958013534546,
        0.23168832063674927,
        0.121237613260746,
        -0.41964852809906006,
        0.06918562203645706,
        0.18700358271598816,
        -0.30438706278800964,
        0.2686402499675751,
        0.26101845502853394,
        -0.24551282823085785,
        -0.09353068470954895,
        -0.3291047215461731,
        0.38434529304504395,
        0.1890878677368164,
        0.10614019632339478,
        -0.5595906972885132,
        -0.24077828228473663,
        -0.3323960304260254,
        0.25528180599212646,
        -0.006727864500135183,
        0.2549380958080292,
        -0.07479826360940933,
        -0.12342149764299393,
        0.29913264513015747,
        -0.29524290561676025,
        -0.12171671539545059,
        -0.2607511579990387,
        0.09115749597549438,
        -0.11796548962593079,
        -0.36334550380706787,
        -0.04331852123141289,
        -0.09951847791671753,
        -0.16394264996051788,
        0.04996456205844879,
        0.12975162267684937,
        -0.02146642841398716,
        -0.1747063845396042,
        0.14206483960151672,
        -0.21715417504310608,
        0.3613964021205902,
        0.15202654898166656,
        -0.006530249025672674,
        -0.001947220298461616,
        0.1729898750782013,
        -0.11604050546884537,
        -0.021955378353595734,
        0.0071556176990270615,
        -0.006632443051785231,
        -0.1950860619544983,
        -0.03279069811105728,
        0.07947835326194763,
        0.24374735355377197,
        -0.10545583814382553,
        -0.02580259181559086,
        0.10445564985275269,
        -0.3385547995567322,
        0.14198678731918335,
        0.3183293342590332,
        0.278765469789505,
        -0.18057399988174438,
        -0.13112235069274902,
        -0.2788461446762085,
        -0.037296053022146225,
        0.11674466729164124,
        0.24751761555671692,
        -0.14448405802249908,
        -0.15076783299446106,
        0.047380637377500534,
        0.10506301373243332,
        -0.11911299079656601,
        -0.1479862928390503,
        -0.12176346033811569,
        0.13236697018146515,
        -0.1613217443227768,
        0.15367478132247925,
        0.38075295090675354,
        -0.1837879866361618,
        0.12769180536270142,
        -0.10142157971858978,
        0.17152316868305206,
        0.19267578423023224,
        -0.12839457392692566,
        -0.004182075150310993,
        -0.27538883686065674,
        -0.32775604724884033,
        0.19291231036186218,
        -0.4960649609565735,
        -0.09600291401147842,
        0.4865622818470001,
        0.22432203590869904,
        -0.20619790256023407,
        -0.5661386251449585,
        0.2747262120246887,
        -0.4811733067035675,
        -0.20083342492580414,
        -0.37273022532463074,
        -0.28199371695518494,
        0.0720997154712677,
        0.2454434037208557,
        0.20964734256267548,
        0.3876793086528778,
        0.26666882634162903,
        -0.14498233795166016,
        0.28603309392929077,
        -0.19434429705142975,
        -0.2230052947998047,
        0.2513676881790161,
        0.14735004305839539,
        0.3355102837085724,
        -0.08210400491952896,
        0.18186382949352264,
        0.21310988068580627,
        -0.5646242499351501,
        0.4644777774810791,
        -0.3234136402606964,
        0.10495749115943909,
        -0.15472233295440674,
        -0.11010470241308212,
        0.07377452403306961,
        0.40355655550956726,
        0.026698118075728416,
        -0.1860656440258026,
        -0.11076853424310684,
        -0.29154905676841736,
        0.07512658089399338,
        0.04575158655643463,
        -0.10237980633974075,
        0.034389108419418335,
        0.24489451944828033,
        0.14352667331695557,
        0.20190183818340302,
        0.3999074399471283,
        -0.09227290004491806,
        0.12991254031658173,
        0.26010414958000183,
        0.564019501209259,
        0.2854122519493103,
        -0.3088532090187073,
        -0.1281924843788147,
        -0.3499741852283478,
        0.057425402104854584,
        -0.17874068021774292,
        -0.31951308250427246,
        0.2863415479660034,
        -0.23132388293743134,
        -0.09076981991529465,
        0.08742024749517441,
        0.03892412409186363,
        -0.1824749857187271,
        -0.2367868572473526,
        0.25500020384788513,
        0.09027187526226044,
        0.1653522104024887,
        -0.0977771207690239,
        0.0452721044421196,
        0.06333432346582413,
        -0.02320275455713272,
        -0.15014788508415222,
        0.21308283507823944,
        -0.04817264899611473,
        -0.018487298861145973,
        -0.13539284467697144,
        -0.2126455456018448,
        0.1738349348306656,
        -0.3918735086917877,
        0.033559318631887436,
        -0.050891149789094925,
        -0.20179998874664307,
        0.04254741594195366,
        -0.039769019931554794,
        0.1587211638689041,
        0.00830214936286211,
        -0.11323535442352295,
        -0.06260883808135986,
        0.20210130512714386,
        0.0850575715303421,
        0.08161881566047668,
        -0.15885873138904572,
        -0.07858488708734512,
        0.29446759819984436,
        -0.11404640972614288,
        0.10677759349346161,
        0.1704825907945633,
        -0.1329895555973053,
        -0.007391815539449453,
        -0.12040510773658752,
        0.22246035933494568,
        0.025814320892095566,
        -0.19540764391422272,
        -0.33977699279785156,
        -0.054602231830358505,
        -0.059261418879032135,
        0.2663068175315857,
        0.0792989432811737,
        0.006561701651662588,
        0.0992029681801796,
        -0.14043134450912476,
        -0.1705983579158783,
        -0.09875854104757309,
        0.23753289878368378,
        0.2777756154537201,
        -0.2729361355304718,
        0.11315988004207611,
        -0.023836053907871246,
        0.21986158192157745,
        0.16285370290279388,
        0.01868993602693081,
        -0.1701580435037613,
        0.05818948894739151,
        0.30049046874046326,
        0.06820221990346909,
        -0.17680001258850098,
        0.339826762676239,
        -0.024393219500780106,
        0.2172756940126419,
        -0.017301052808761597,
        0.07417221367359161,
        -0.21697668731212616,
        0.1118505597114563,
        -0.024372432380914688,
        0.11156773567199707,
        0.16733701527118683,
        0.18118345737457275,
        -0.16907069087028503,
        -0.03309477120637894,
        -0.15205951035022736,
        0.12236695736646652,
        -0.37669625878334045,
        -0.10071093589067459,
        -0.10320307314395905,
        -0.010905729606747627,
        0.3352833688259125,
        0.14271676540374756,
        0.38177627325057983,
        -0.23806534707546234,
        -0.15608547627925873,
        0.37327536940574646,
        0.1434641182422638,
        0.2183518409729004,
        0.09299428015947342,
        -0.20980776846408844,
        -0.13027998805046082,
        -0.1799682080745697,
        0.17100967466831207,
        0.17243018746376038,
        0.2483995407819748,
        -0.06894202530384064,
        0.17543603479862213,
        -0.30310964584350586,
        0.17330528795719147,
        0.13913747668266296,
        0.23036812245845795,
        0.18389008939266205,
        -0.07778941839933395,
        0.3010815680027008,
        -0.165912464261055,
        -0.0530240461230278,
        -0.057581037282943726,
        -0.018828216940164566,
        0.09013240039348602,
        -0.28862830996513367,
        -0.2265382558107376,
        0.32509028911590576,
        0.012156780809164047,
        0.03910447657108307,
        0.08619300276041031,
        0.17982487380504608,
        0.07398449629545212,
        -0.0478053018450737,
        -0.18935368955135345,
        0.30750465393066406,
        0.21701551973819733,
        -0.06386936455965042,
        0.14325174689292908,
        -0.029030878096818924,
        -0.12809722125530243,
        0.07744744420051575,
        -0.08849906921386719,
        0.08059433102607727,
        0.2299058884382248,
        -0.02099200151860714,
        -0.14902861416339874,
        -0.17589913308620453,
        -0.13711142539978027,
        0.14783647656440735,
        0.23911726474761963,
        0.169346421957016,
        0.012674028985202312,
        -0.17235545814037323,
        0.050460491329431534,
        0.15509091317653656,
        0.1205139085650444,
        -0.13570097088813782,
        -0.2171580195426941,
        -0.2956658601760864,
        -0.1255435347557068,
        0.12009701877832413,
        -0.03939430043101311,
        0.1340140998363495,
        0.10132745653390884,
        -0.02779429592192173,
        -0.2688016891479492,
        -0.1432999223470688,
        0.01048182975500822,
        -0.10839327424764633,
        0.19050811231136322,
        -0.1548881083726883,
        -0.10320241004228592,
        -0.36508652567863464,
        -0.1262238621711731,
        0.1898191273212433,
        -0.09628178924322128,
        0.22444824874401093,
        -0.076250821352005,
        0.09952625632286072,
        0.02726568840444088,
        -0.17183412611484528,
        0.26217415928840637,
        0.18537166714668274,
        0.18533247709274292,
        0.074837826192379,
        -0.16941027343273163,
        0.15481595695018768,
        -0.1706097275018692,
        0.22443190217018127,
        -0.12290017306804657,
        -0.20184238255023956,
        -0.16482749581336975,
        0.046339504420757294,
        0.38982701301574707,
        -0.2586978077888489,
        0.11725768446922302,
        0.18763525784015656,
        0.06192147731781006,
        -0.1650310605764389,
        0.08204775303602219,
        -0.1659683734178543,
        0.06850167363882065,
        0.03089219145476818,
        -0.047525554895401,
        -0.13152095675468445,
        0.2952612638473511,
        -0.1407652646303177,
        -0.1750192642211914,
        -0.16760973632335663,
        -0.07532808184623718,
        0.022498058155179024,
        -0.12036263942718506,
        -0.17542806267738342,
        -0.16237607598304749,
        0.13026821613311768,
        -0.07309573888778687,
        0.23162057995796204,
        0.11693888157606125,
        -0.06175140291452408,
        -0.07247978448867798,
        -0.25355303287506104,
        -0.32330164313316345,
        0.19714868068695068,
        0.21015289425849915,
        -0.5173574090003967,
        0.7003089785575867,
        -0.2023748755455017,
        -0.4770631492137909,
        -0.4767015278339386,
        0.27316930890083313,
        0.5742418169975281,
        -0.34992715716362,
        0.17352211475372314,
        0.2722146511077881,
        0.2707920968532562,
        0.20789530873298645,
        -0.17115418612957,
        0.07938162982463837,
        0.22302621603012085,
        -0.10451360046863556,
        0.25794410705566406,
        -0.17831359803676605,
        0.10746301710605621,
        -0.10996577888727188,
        -0.2639238238334656,
        0.20815227925777435,
        0.16428406536579132,
        -0.13723032176494598,
        0.05299763008952141,
        0.21275313198566437,
        0.12492772191762924,
        0.38790616393089294,
        0.32183772325515747,
        -0.1626000702381134,
        -0.6602827906608582,
        -0.08935480564832687,
        -0.032354362308979034,
        0.38682496547698975,
        -0.2998245358467102,
        -0.21316984295845032,
        -0.4490371346473694,
        0.5511015057563782,
        0.5451679825782776,
        -0.33801087737083435,
        -0.3251166343688965,
        -0.2251073271036148,
        0.2536897361278534,
        0.10495315492153168,
        -0.0007748930947855115,
        -0.2935711145401001,
        -0.14326797425746918,
        -0.13461828231811523,
        0.24767883121967316,
        -0.2985864579677582,
        -0.3031720817089081,
        0.02698432467877865,
        0.14676861464977264,
        -0.30821093916893005,
        0.031671326607465744,
        -0.20923376083374023,
        0.4083232581615448,
        -0.3394075632095337,
        -0.2973427176475525,
        0.31284281611442566,
        -0.11561532318592072,
        -0.14270605146884918,
        -0.019870614632964134,
        -0.1650463193655014,
        -0.10433118045330048,
        0.23513220250606537,
        -0.09283392876386642,
        -0.2847422957420349,
        -0.18838602304458618,
        -0.041293248534202576,
        0.054676394909620285,
        -0.05055161193013191,
        0.24948611855506897,
        -0.07389656454324722,
        -0.11596139520406723,
        0.09291000664234161,
        -0.26469796895980835,
        0.18639878928661346,
        -0.08474017679691315,
        -0.36418402194976807,
        -0.125589057803154,
        0.018703414127230644,
        0.3194355070590973,
        -0.19353173673152924,
        -0.29330214858055115,
        0.2903503477573395,
        0.06664464622735977,
        0.0023966364096850157,
        -0.06411545723676682,
        -0.26430389285087585,
        0.05221302807331085,
        -0.05134454742074013,
        -0.08525527268648148,
        0.29465001821517944,
        0.35009586811065674,
        0.05090908333659172,
        0.05331782251596451,
        -0.2187541127204895,
        -0.049450039863586426,
        -0.14879079163074493,
        0.4178771376609802,
        0.0823030024766922,
        0.20528647303581238,
        -0.01568762958049774,
        0.16471242904663086,
        0.2357737421989441,
        0.15650813281536102,
        -0.14750409126281738,
        0.04083513468503952,
        -0.1849856823682785,
        0.21580635011196136,
        -0.09210105985403061,
        -0.11523276567459106,
        0.09582381695508957,
        -0.0933399423956871,
        -0.08156871050596237,
        -0.0038198598194867373,
        -0.13210360705852509,
        -0.32991349697113037,
        0.24728424847126007,
        -0.08316242694854736,
        0.11939552426338196,
        0.1073249951004982,
        0.2045915424823761,
        -0.22701701521873474,
        -0.004400601144880056,
        0.04290305823087692,
        -0.18833042681217194,
        0.14756006002426147,
        -0.0900939553976059,
        -0.2844151258468628,
        -0.005337798967957497,
        -0.3323363661766052,
        0.08416072279214859,
        -0.022405408322811127,
        -0.2963205873966217,
        -0.11386247724294662,
        0.18009239435195923,
        0.0821509063243866,
        0.06809101998806,
        0.028219005092978477,
        0.07825656235218048,
        -0.07557452470064163,
        0.04847129061818123,
        0.010026677511632442,
        -0.07436348497867584,
        -0.015245544724166393,
        -0.08997795730829239,
        0.005550740752369165,
        -0.0858273059129715,
        -0.0913570299744606,
        -0.22837533056735992,
        0.15845435857772827,
        0.0516548827290535,
        0.2780703008174896,
        -0.23182471096515656,
        -0.16847887635231018,
        0.26395368576049805,
        0.1171615719795227,
        0.3799971342086792,
        -0.043874505907297134,
        -0.2858363091945648,
        -0.15162555873394012,
        -0.019994691014289856,
        0.1533822864294052,
        -0.041295625269412994,
        0.11781328171491623,
        -0.13891050219535828,
        -0.27652251720428467,
        0.052711810916662216,
        -0.04434695094823837,
        0.13831131160259247,
        0.6941211223602295,
        0.0677967518568039,
        0.19842202961444855,
        0.23385442793369293,
        0.13743461668491364,
        -0.1757596880197525,
        -0.12703223526477814,
        0.08773273974657059,
        0.07789626717567444,
        -0.17457419633865356,
        0.0352977029979229,
        -0.00680307112634182,
        -0.051635775715112686,
        0.23352134227752686,
        -0.021345172077417374,
        0.2507225275039673,
        -0.1106552854180336,
        -0.1864975392818451,
        -0.35901790857315063,
        0.08733060210943222,
        0.13812872767448425,
        0.10743632167577744,
        -0.3059101998806,
        0.07792521268129349,
        -0.09066207706928253,
        0.23340308666229248,
        -0.11788913607597351,
        0.09313734620809555,
        0.08220834285020828,
        -0.08681947737932205,
        -0.25572484731674194,
        0.2497568428516388,
        -0.27852967381477356,
        0.13971343636512756,
        -0.09124571830034256,
        -0.186729297041893,
        -0.003440877888351679,
        -0.016106272116303444,
        0.048617441207170486,
        -0.15828174352645874,
        -0.07420042902231216,
        0.03759533539414406,
        0.11666195839643478,
        -0.08813763409852982,
        0.2583826780319214,
        0.037228070199489594,
        -0.21126702427864075,
        -0.21093161404132843,
        -0.3898545205593109,
        0.16326193511486053,
        -0.09182540327310562,
        -0.05709473416209221,
        0.009903568774461746,
        0.03041805513203144,
        0.20883016288280487,
        0.27267706394195557,
        -0.31571507453918457,
        0.13828080892562866,
        -0.05377377197146416,
        -0.18487362563610077,
        0.02085629664361477,
        0.3157041072845459,
        -0.14154376089572906,
        0.1210714802145958,
        -0.12245266884565353,
        0.1426243931055069,
        0.41418370604515076,
        -0.04584099352359772,
        0.1049760952591896,
        -0.1554642617702484,
        0.08542230725288391,
        -0.01499607041478157,
        -0.4727585017681122,
        0.06569810211658478,
        -0.4526432156562805,
        -0.4782690107822418,
        -0.16603097319602966,
        0.18252715468406677,
        0.10793673247098923,
        0.08572060614824295,
        -0.1677423119544983,
        0.43798840045928955,
        -0.236080601811409,
        0.07194584608078003,
        0.0394904762506485,
        -0.13672956824302673,
        -0.014167608693242073,
        0.1274978220462799,
        0.14794659614562988,
        0.27520832419395447,
        0.37230244278907776,
        -0.05058921501040459,
        0.029810398817062378,
        -0.2973574995994568,
        -0.17942307889461517,
        0.07181238383054733,
        0.14070290327072144,
        -0.1909092515707016,
        0.17919711768627167,
        0.12108064442873001,
        -0.1992926299571991,
        -0.056235671043395996,
        0.1867421269416809,
        -0.5398473739624023,
        -0.5048208236694336,
        0.35728901624679565,
        -0.8965667486190796,
        0.326425164937973,
        0.566563069820404,
        0.6259757280349731,
        -0.45725128054618835,
        0.36163875460624695,
        -0.6225597858428955,
        0.5787833333015442,
        -0.3887616991996765,
        -0.3273455500602722,
        0.27863144874572754,
        0.13504783809185028,
        0.09693151712417603,
        -0.3526695668697357,
        -0.14077228307724,
        -0.03967633843421936,
        -0.4601629972457886,
        0.3146750330924988,
        0.09565223753452301,
        -0.13487397134304047,
        -0.017941633239388466,
        0.35200026631355286,
        0.06066521629691124,
        -0.1359124630689621,
        -0.06290829181671143,
        -0.38092857599258423,
        -0.2242443561553955,
        -0.0630515068769455,
        -0.05635511875152588,
        0.21833795309066772,
        0.061590321362018585,
        0.4093745946884155,
        -0.35953769087791443,
        0.024006206542253494,
        0.29605427384376526,
        0.26015523076057434,
        -0.12921197712421417,
        0.11765347421169281,
        -0.059467755258083344,
        -0.2491530179977417,
        -0.039170872420072556,
        -0.0895223543047905,
        -0.20498241484165192,
        0.16607148945331573,
        0.29618537425994873,
        -0.14758720993995667,
        0.1786796897649765,
        -0.12036687880754471,
        0.0726543664932251,
        0.6682306528091431,
        -0.06213872879743576,
        0.02695574052631855,
        -0.16370940208435059,
        -0.4101163148880005,
        0.07917293161153793,
        -0.11564815789461136,
        -0.08020990341901779,
        0.4084147810935974,
        0.07648484408855438,
        0.2445996254682541,
        -0.30868691205978394,
        0.014897031709551811,
        -0.10837133973836899,
        -0.12398236989974976,
        0.049933794885873795,
        0.04955882951617241,
        -0.09551733732223511,
        -0.13556711375713348,
        0.10090132802724838,
        -0.025370681658387184,
        0.19147427380084991,
        0.06175127997994423,
        -0.0014963482972234488,
        0.2435271292924881,
        -0.07318468391895294,
        0.11586862057447433,
        0.2242734283208847,
        0.21222731471061707,
        -0.013179473578929901,
        0.09385376423597336,
        0.32144662737846375,
        -0.06292802095413208,
        -0.1931772530078888,
        -0.10778579860925674,
        -0.28977343440055847,
        -0.008776769042015076,
        -0.057623498141765594,
        -0.011561817489564419,
        -0.14750997722148895,
        -0.030881833285093307,
        0.21604350209236145,
        0.06431484967470169,
        0.15246985852718353,
        0.3567281663417816,
        -0.05431270971894264,
        -0.09345605969429016,
        0.11222101747989655,
        -0.10308483988046646,
        0.23407460749149323,
        0.07158777117729187,
        0.04572272673249245,
        -0.2650947868824005,
        -0.05817722901701927,
        -0.34499678015708923,
        -0.06808306276798248,
        0.09475928544998169,
        0.325242817401886,
        0.02432110346853733,
        -0.04327254742383957,
        -0.10417508333921432,
        -0.2910318374633789,
        -0.16618488729000092,
        0.06251399964094162,
        0.22395426034927368,
        0.07667625695466995,
        0.08526448160409927,
        -0.1995244175195694,
        0.015059927478432655,
        0.29606133699417114,
        -0.25851020216941833,
        0.07425035536289215,
        0.20002509653568268,
        0.14131030440330505,
        0.012377411127090454,
        0.15973761677742004,
        0.09562496095895767,
        -0.021875621750950813,
        0.01253253873437643,
        0.16412203013896942,
        0.12582598626613617,
        0.14850181341171265,
        0.07226449251174927,
        0.12873448431491852,
        0.16095325350761414,
        0.09909158945083618,
        -0.24426165223121643,
        -0.021592453122138977,
        -0.16408571600914001,
        -0.09568163752555847,
        0.062668576836586,
        0.10621092468500137,
        0.07988730072975159,
        0.1175001785159111,
        0.10639423131942749,
        0.21630433201789856,
        -0.1088310182094574,
        -0.07037745416164398,
        0.07246124744415283,
        0.056815363466739655,
        0.35233810544013977,
        -0.08282177895307541,
        -0.06626348942518234,
        0.2992057502269745,
        0.19848042726516724,
        -0.2518128752708435,
        -0.012559191323816776,
        -0.21206769347190857,
        0.12558332085609436,
        0.17498108744621277,
        0.04369230940937996,
        -0.09443257004022598,
        -0.31614816188812256,
        0.18920814990997314,
        0.17571428418159485,
        0.17459751665592194,
        0.19486916065216064,
        -0.2170654982328415,
        0.20418202877044678,
        0.04517260566353798,
        -0.10934735089540482,
        -0.05712180584669113,
        -0.04934881255030632,
        0.1485544890165329,
        -0.2140309065580368,
        -0.07988717406988144,
        -0.303036093711853,
        -0.22812391817569733,
        0.04589677229523659,
        -0.011358574032783508,
        8.71494339662604e-05,
        -0.08612706512212753,
        -0.1839481145143509,
        -0.31487154960632324,
        0.07513312995433807,
        -0.034442685544490814,
        0.14995552599430084,
        -0.12292319536209106,
        0.04128509759902954,
        -0.06521499156951904,
        -0.16881974041461945,
        0.10941962152719498,
        0.01438518799841404,
        -0.2512664794921875,
        -0.10950536280870438,
        0.04486888647079468,
        0.19205331802368164,
        -0.11646081507205963,
        0.1366410255432129,
        0.041240446269512177,
        -0.020839780569076538,
        0.17502865195274353,
        0.09283016622066498,
        -0.04519932344555855,
        -0.2590935528278351,
        0.10253381729125977,
        0.22104869782924652,
        0.31638309359550476,
        -0.3211231529712677,
        0.030393503606319427,
        -0.2171429842710495,
        -0.05812328681349754,
        0.17945751547813416,
        -0.05176073685288429,
        0.045207440853118896,
        -0.17523561418056488,
        -0.11742080003023148,
        0.06903056055307388,
        -0.11662708967924118,
        0.1397131383419037,
        -0.07852138578891754,
        0.10701841115951538,
        -0.04595007374882698,
        0.23227596282958984,
        -0.013126011937856674,
        0.03566015139222145,
        -0.10788894444704056,
        -0.21804766356945038,
        -0.010533047839999199,
        0.11774839460849762,
        -0.021510440856218338,
        -0.13530157506465912,
        -0.3500796854496002,
        -0.34225618839263916,
        -0.07137954235076904,
        0.5350449681282043,
        -0.13123947381973267,
        0.043059367686510086,
        -0.01502233650535345,
        -0.008664608933031559,
        0.18313370645046234,
        0.09123075753450394,
        -0.22205409407615662,
        -0.03274108096957207,
        -0.08318294584751129,
        0.249424546957016,
        0.3512759208679199,
        -0.04544106125831604,
        0.02862071432173252,
        0.2707460820674896,
        0.1286366879940033,
        -0.27285894751548767,
        -0.27594393491744995,
        0.06184191629290581,
        0.037945475429296494,
        -0.05453752726316452,
        -0.24330087006092072,
        0.06753149628639221,
        -0.23217159509658813,
        0.19158737361431122,
        0.25373753905296326,
        0.13406074047088623,
        0.06279537081718445,
        -0.10770910233259201,
        0.02937496453523636,
        0.22894850373268127,
        -0.2437879890203476,
        0.06682185083627701,
        -0.17659403383731842,
        0.1523953676223755,
        0.008793741464614868,
        0.20139163732528687,
        0.05800439044833183,
        -0.059427667409181595,
        0.07569194585084915,
        0.033321402966976166,
        0.366483211517334,
        0.14881695806980133,
        -0.7899942994117737,
        0.6912276148796082,
        -0.10329485684633255,
        -0.29779818654060364,
        0.5976995229721069,
        0.7205104231834412,
        -0.6715366840362549,
        0.06588591635227203,
        0.21904096007347107,
        0.16943448781967163,
        0.2292599081993103,
        -0.18138954043388367,
        -0.1972697675228119,
        0.45126083493232727,
        0.025528941303491592,
        0.3810698390007019,
        -0.1188446432352066,
        -0.2718888223171234,
        0.03745812922716141,
        -0.2963551878929138,
        0.14348910748958588,
        0.11976160854101181,
        0.1897806078195572,
        -0.1172749474644661,
        0.03303735330700874,
        -0.21004262566566467,
        0.0863560289144516,
        -0.5146828293800354,
        -0.24017314612865448,
        -0.17237886786460876,
        0.18570633232593536,
        0.013954578898847103,
        0.27351951599121094,
        -0.1069624200463295,
        0.2684837281703949,
        -0.057253818958997726,
        0.09928245097398758,
        0.11378153413534164,
        0.28095102310180664,
        -0.046957459300756454,
        -0.008055866695940495,
        -0.28400498628616333,
        -0.17456290125846863,
        0.22636005282402039,
        -0.24790158867835999,
        0.3230440616607666,
        -0.19810998439788818,
        0.1186586543917656,
        0.04215147718787193,
        -0.19334235787391663,
        0.04112948104739189,
        -0.06191469728946686,
        0.1729317456483841,
        -0.3138282299041748,
        0.47115349769592285,
        0.20618166029453278,
        -0.25770071148872375,
        0.15758724510669708,
        -0.23182325065135956,
        -0.19181972742080688,
        0.10129094868898392,
        -0.046815142035484314,
        -0.3380940556526184,
        -0.5731627941131592,
        -0.1375684291124344,
        0.32840603590011597,
        -0.33756324648857117,
        -0.4851386845111847,
        0.32595446705818176,
        -0.5657869577407837,
        -0.3738274872303009,
        -0.3505581021308899,
        -0.03710370510816574,
        -0.3591550588607788,
        -0.18688590824604034,
        -0.0655791237950325,
        -0.30565622448921204,
        -0.02206348441541195,
        -0.30903494358062744,
        -0.20059186220169067,
        -0.1474100649356842,
        -0.19181562960147858,
        -0.13482220470905304,
        0.051273658871650696,
        -0.07050365954637527,
        0.18389004468917847,
        -0.0011292126728221774,
        0.08694121241569519,
        -0.05039924383163452,
        0.17240241169929504,
        -0.18116846680641174,
        -0.0455506294965744,
        0.007702221628278494,
        0.3274866044521332,
        -0.09478478133678436,
        -0.15292884409427643,
        0.15548250079154968,
        -0.13939593732357025,
        0.07633913308382034,
        -0.19409020245075226,
        0.0253064576536417,
        -0.26041939854621887,
        0.05095279961824417,
        -0.33275434374809265,
        -0.14738453924655914,
        -0.18474526703357697,
        0.07399037480354309,
        -0.21147947013378143,
        -0.24266158044338226,
        0.20796041190624237,
        0.025803808122873306,
        0.27135565876960754,
        -0.2991124987602234,
        -0.16419661045074463,
        -0.0521724708378315,
        0.0731298103928566,
        0.06060004234313965,
        0.012289817444980145,
        -0.14478875696659088,
        -0.026413029059767723,
        -0.022280167788267136,
        -0.045064035803079605,
        -0.07395819574594498,
        0.05956214293837547,
        -0.11034715920686722,
        -0.06185745447874069,
        -0.22817444801330566,
        0.026371821761131287,
        -0.0969773605465889,
        -0.22066597640514374,
        -0.08575600385665894,
        -0.3538873493671417,
        -0.29509735107421875,
        -0.12135767936706543,
        0.20783445239067078,
        0.07543643563985825,
        -0.13088279962539673,
        -0.27667492628097534,
        -0.008240931667387486,
        -0.01978248730301857,
        0.14538820087909698,
        0.017782360315322876,
        -0.02341155894100666,
        0.13185326755046844,
        0.2441512942314148,
        0.3281077444553375,
        -0.02900221012532711,
        -0.29180166125297546,
        0.0695594921708107,
        0.03646940365433693,
        -0.12688787281513214,
        -0.14732737839221954,
        0.1178550124168396,
        0.3519227206707001,
        0.36830440163612366,
        -0.09512246400117874,
        -0.09343702346086502,
        -0.2653121054172516,
        -0.23880375921726227,
        0.035015251487493515,
        0.05911865085363388,
        -0.10104314982891083,
        0.1666743904352188,
        -0.19585266709327698,
        -0.13766254484653473,
        -0.3828200101852417,
        -0.11306413263082504,
        -0.1329481601715088,
        0.05389251559972763,
        0.1368834525346756,
        -0.11227206140756607,
        0.07766216993331909,
        -0.015819953754544258,
        0.14842374622821808,
        0.017391083762049675,
        -0.01224901806563139,
        -0.13046936690807343,
        -0.012605019845068455,
        -0.11938737332820892,
        0.09863356500864029,
        0.03262435644865036,
        -0.06287382543087006,
        0.16576054692268372,
        0.32640576362609863,
        -0.20042656362056732,
        -0.11598154157400131,
        0.0002456560614518821,
        0.20832684636116028,
        0.007785789202898741,
        0.09420696645975113,
        0.018957387655973434,
        -0.18071135878562927,
        -0.07227440178394318,
        0.1453680545091629,
        0.06103891506791115,
        -0.21900498867034912,
        -0.08686016499996185,
        -0.18345271050930023,
        -0.15155449509620667,
        -0.20268675684928894,
        0.16750280559062958,
        0.26696065068244934,
        0.1514761745929718,
        0.21243155002593994,
        0.24066008627414703,
        -0.11589064449071884,
        0.03152615949511528,
        -0.07374457269906998,
        0.2345542460680008,
        -0.03488394618034363,
        0.19173544645309448,
        0.05580882355570793,
        -0.10443419963121414,
        -0.06995993107557297,
        0.2837566137313843,
        -0.12281998246908188,
        0.005656651221215725,
        0.03983645513653755,
        0.050143953412771225,
        0.265107661485672,
        0.15756118297576904,
        0.009534441865980625,
        0.09744802862405777,
        0.25615110993385315,
        0.09130128473043442,
        0.1716897040605545,
        -0.0388806089758873,
        -0.0712716206908226,
        0.34759560227394104,
        -0.06305655092000961,
        -0.1601901650428772,
        -0.03868497163057327,
        -0.019110385328531265,
        0.07538493722677231,
        -0.03448575735092163,
        0.36418911814689636,
        -0.06697925180196762,
        -0.24208666384220123,
        0.060699619352817535,
        -0.02604406140744686,
        -0.08411328494548798,
        -0.05109201371669769,
        0.2415740191936493,
        0.3474072515964508,
        -0.43480539321899414,
        0.04199571534991264,
        0.02292839251458645,
        -0.5343877673149109,
        0.18731683492660522,
        0.18352432548999786,
        0.14958307147026062,
        0.0004041579086333513,
        0.09958799928426743,
        0.010444720275700092,
        -0.06783313304185867,
        0.005495368968695402,
        0.25365909934043884,
        -0.09148649126291275,
        0.07582829892635345,
        -0.1935829073190689,
        -0.22079291939735413,
        -0.035752251744270325,
        0.3346405625343323,
        -0.07090365886688232,
        -0.10374802350997925,
        -0.21171937882900238,
        0.13115136325359344,
        0.2289203405380249,
        -0.22608160972595215,
        -0.041350942105054855,
        0.19137358665466309,
        0.08626425266265869,
        -0.04418573155999184,
        0.06900469213724136,
        0.0581250824034214,
        -0.026039913296699524,
        -0.1256711333990097,
        0.05761658027768135,
        -0.010586904361844063,
        -0.1624535620212555,
        -0.25861361622810364,
        -0.7119672894477844,
        -0.24342302978038788,
        -0.8403285145759583,
        0.6857467293739319,
        0.5569078922271729,
        -0.5951318144798279,
        -0.32232439517974854,
        0.06840898096561432,
        -0.12778693437576294,
        0.1080019548535347,
        -0.06315306574106216,
        -0.1387920081615448,
        0.07958868891000748,
        -0.19681701064109802,
        0.23621559143066406,
        -0.13425083458423615,
        0.04974997043609619,
        0.43500807881355286,
        -0.20660553872585297,
        -0.04482031986117363,
        0.14664329588413239,
        -0.09445469081401825,
        0.25892338156700134,
        0.3238946795463562,
        0.37289321422576904,
        -0.08235228061676025,
        0.18322762846946716,
        0.021669935435056686,
        -0.04814362898468971,
        -0.06725464761257172,
        0.059795960783958435,
        0.09106068313121796,
        0.16738536953926086,
        -0.1694546788930893,
        0.5224082469940186,
        -0.3978458344936371,
        0.24566377699375153,
        -0.31642889976501465,
        -0.1826762557029724,
        -0.40767747163772583,
        0.16653412580490112,
        -0.2235656976699829,
        0.2650129199028015,
        -0.38182464241981506,
        0.019258076325058937,
        -0.21085414290428162,
        0.04689863324165344,
        0.21551984548568726,
        0.2788124680519104,
        -0.012950131669640541,
        0.1783551573753357,
        0.41967862844467163,
        -0.33217886090278625,
        0.11320511251688004,
        -0.08659931272268295,
        0.3181311786174774,
        0.29397210478782654,
        -0.09534601122140884,
        -0.033244095742702484,
        -0.22009815275669098,
        0.25151216983795166,
        0.12153298407793045,
        0.40929102897644043,
        0.2585675120353699,
        0.4066675007343292,
        0.34409698843955994,
        -0.15428535640239716,
        0.07076521217823029,
        -0.2237526774406433,
        0.21717309951782227,
        -0.0394393689930439,
        0.055090125650167465,
        -0.1781007945537567,
        -0.2983227074146271,
        0.13816864788532257,
        0.15787751972675323,
        0.09520471841096878,
        0.1595996618270874,
        -0.11538390070199966,
        -0.010435075499117374,
        0.07587036490440369,
        0.2532808482646942,
        -0.059530358761548996,
        0.20429784059524536,
        0.149922713637352,
        0.20759719610214233,
        -0.08568893373012543,
        0.21227695047855377,
        -0.28159698843955994,
        -0.14655645191669464,
        0.06765101104974747,
        0.1071760430932045,
        -0.280123233795166,
        0.10153450816869736,
        -0.11298386752605438,
        -0.19067692756652832,
        -0.014227107167243958,
        0.12490509450435638,
        0.10366332530975342,
        -0.24852706491947174,
        -0.01660263165831566,
        -0.16946661472320557,
        -0.13529422879219055,
        -0.031652528792619705,
        -0.2176746428012848,
        -0.1766282320022583,
        0.09773196280002594,
        0.021777000278234482,
        0.06140376999974251,
        -0.12875080108642578,
        0.48878538608551025,
        -0.14402693510055542,
        -0.01808595098555088,
        -0.09215842932462692,
        -0.18247365951538086,
        -0.055917296558618546,
        0.30920636653900146,
        -0.17672599852085114,
        -0.10980920493602753,
        -0.10961918532848358,
        -0.33813366293907166,
        0.21642333269119263,
        0.22801190614700317,
        0.4515164792537689,
        -0.07509728521108627,
        -0.07496991753578186,
        -0.08677536994218826,
        0.11137719452381134,
        -0.061277247965335846,
        -0.32023724913597107,
        0.03353593125939369,
        -0.34885549545288086,
        -0.06318947672843933,
        -0.13861332833766937,
        0.015545775182545185,
        -0.681228756904602,
        0.16129669547080994,
        0.4065731167793274,
        0.08872988820075989,
        -0.04205717518925667,
        0.15678364038467407,
        -0.2625267207622528,
        0.13704362511634827,
        0.31842464208602905,
        0.802895188331604,
        -0.10731374472379684,
        -0.43304598331451416,
        -0.15895622968673706,
        0.032783977687358856,
        0.1498601734638214,
        0.2062983214855194,
        -0.03197763115167618,
        0.11745645850896835,
        0.20330166816711426,
        -0.05769015848636627,
        0.2510010898113251,
        0.12300252169370651,
        -0.006232962943613529,
        -0.11628399789333344,
        0.38332411646842957,
        0.059331681579351425,
        0.09098182618618011,
        -0.05393390730023384,
        -0.0650278776884079,
        -0.1270265132188797,
        0.27133288979530334,
        0.07616925239562988,
        -0.10110315680503845,
        -0.2510072886943817,
        0.2192291021347046,
        0.02953323721885681,
        -0.004906836897134781,
        -0.23125262558460236,
        -0.09600938856601715,
        -0.2954494059085846,
        0.024905968457460403,
        -0.16377651691436768,
        -0.053745612502098083,
        0.15154147148132324,
        -0.1282779425382614,
        0.12839409708976746,
        -0.0037635858170688152,
        0.04995821788907051,
        -0.0809086337685585,
        -0.09108785539865494,
        -0.04396688565611839,
        -0.10853207856416702,
        -0.05468973144888878,
        0.09051275253295898,
        -0.007543735671788454,
        -0.12437110394239426,
        0.15068675577640533,
        0.15320001542568207,
        -0.017846232280135155,
        -0.06564679741859436,
        0.18152965605258942,
        0.041261374950408936,
        -0.16471360623836517,
        -0.03362814709544182,
        -0.059211213141679764,
        -0.009198642335832119,
        -0.07054389268159866,
        -0.06441918760538101,
        0.15760448575019836,
        -0.0808681771159172,
        -0.014776565134525299,
        -0.24112549424171448,
        0.05372684448957443,
        0.025178905576467514,
        0.3388637900352478,
        -0.19630067050457,
        0.3243464529514313,
        -0.2105286866426468,
        0.1747787743806839,
        0.17915527522563934,
        -0.007897299714386463,
        0.23432737588882446,
        -0.034506361931562424,
        -0.1710311472415924,
        -0.2371995896100998,
        0.308005690574646,
        -0.27090024948120117,
        0.11148431152105331,
        -0.24620799720287323,
        0.048808567225933075,
        -0.02446564845740795,
        0.005200576037168503,
        -0.05670725181698799,
        -0.14640016853809357,
        -0.14334022998809814,
        -0.2570175230503082,
        -0.022691546007990837,
        0.01778569258749485,
        -0.06888803094625473,
        -0.3223048448562622,
        0.04339011758565903,
        -0.2056729942560196,
        -0.09705417603254318,
        -0.10181183367967606,
        -0.1135234534740448,
        0.07403334230184555,
        -0.25352320075035095,
        -0.10178925096988678,
        0.04395172744989395,
        -0.07796788960695267,
        0.038970328867435455,
        -0.023974113166332245,
        0.010398286394774914,
        0.05729250609874725,
        0.08832646161317825,
        -0.03562949225306511,
        0.05393259599804878,
        -0.03681537136435509,
        -0.0786958709359169,
        -0.024280820041894913,
        0.06679251044988632,
        -0.048283837735652924,
        -0.08106818050146103,
        0.025602715089917183,
        0.2144569754600525,
        -0.1668178290128708,
        0.1703997701406479,
        0.13780298829078674,
        -0.07609322667121887,
        -0.017172295600175858,
        0.10370469838380814,
        -0.009497650898993015,
        -0.28177276253700256,
        0.07466857135295868,
        0.125000461935997,
        -0.17295293509960175,
        -0.11841629445552826,
        -0.09221901744604111,
        0.3173277974128723,
        -0.09292203933000565,
        -0.0053248158656060696,
        0.0010245537851005793,
        0.07588401436805725,
        0.07756683230400085,
        -0.49791356921195984,
        0.23907577991485596,
        0.32223623991012573,
        -0.05771154537796974,
        -0.47844767570495605,
        0.2975735664367676,
        -0.4209010899066925,
        0.32046204805374146,
        0.17793703079223633,
        -0.10716646909713745,
        -0.30463698506355286,
        -0.15633955597877502,
        0.18472601473331451,
        -0.30662453174591064,
        -0.3844549357891083,
        0.13027939200401306,
        0.14124365150928497,
        0.23869679868221283,
        0.3716505467891693,
        0.08840146660804749,
        0.1485402137041092,
        0.14444607496261597,
        0.05546365678310394,
        0.01818719133734703,
        0.3173920810222626,
        0.22467587888240814,
        -0.11703892052173615,
        -0.3049241602420807,
        0.3090553879737854,
        0.16495603322982788,
        0.1406005471944809,
        -0.01732001267373562,
        0.20045235753059387,
        -0.4302610456943512,
        -0.2539270222187042,
        -0.2968579828739166,
        0.23811708390712738,
        0.17903919517993927,
        -0.1364687830209732,
        0.011993445456027985,
        -0.13130219280719757,
        -0.3297517001628876,
        0.12396372854709625,
        0.04991874843835831,
        -0.2101890742778778,
        -0.04276435077190399,
        0.10218951851129532,
        0.1739397794008255,
        0.019765153527259827,
        -0.0796733945608139,
        0.3200277090072632,
        0.13180316984653473,
        -0.40969792008399963,
        -0.30446791648864746,
        0.2047126442193985,
        0.3270452916622162,
        -0.1504884511232376,
        0.16013038158416748,
        -0.2017609179019928,
        0.36953064799308777,
        0.16907821595668793,
        0.051208529621362686,
        0.3334166705608368,
        0.2647216320037842,
        -0.18910615146160126,
        0.08802127093076706,
        0.14667172729969025,
        -0.07035435736179352,
        0.25115343928337097,
        -0.25071287155151367,
        -0.24889402091503143,
        -0.10032335668802261,
        -0.2206335961818695,
        0.29424914717674255,
        -0.02990221232175827,
        -0.301017165184021,
        0.026692241430282593,
        -0.20636820793151855,
        -0.21807248890399933,
        0.1878325641155243,
        -0.034824587404727936,
        0.10380792617797852,
        0.27072688937187195,
        -0.10351627320051193,
        -0.11797698587179184,
        -0.33618369698524475,
        0.17383697628974915,
        0.17806893587112427,
        -0.22639189660549164,
        0.06696917116641998,
        -0.2848598062992096,
        0.13256463408470154,
        0.012698734179139137,
        -0.009988353587687016,
        0.19131791591644287,
        -0.05280037596821785,
        -0.21603931486606598,
        -0.15182849764823914,
        0.07156021147966385,
        -0.08440269529819489,
        -0.1631406992673874,
        0.03618317097425461,
        0.07989297062158585,
        -0.4041121006011963,
        0.0249882023781538,
        0.061705224215984344,
        0.2034296840429306,
        0.20126977562904358,
        0.10066793113946915,
        0.1525341421365738,
        0.3120417892932892,
        -0.013733348809182644,
        0.07040340453386307,
        -0.3284222483634949,
        0.08219366520643234,
        0.36650925874710083,
        -0.017327582463622093,
        0.04961780086159706,
        0.011133523657917976,
        -0.237435445189476,
        0.04061208292841911,
        -0.34657415747642517,
        0.08725608140230179,
        0.19123099744319916,
        0.26126107573509216,
        0.2175161987543106,
        0.021624067798256874,
        0.21658222377300262,
        0.24788020551204681,
        0.10875163972377777,
        0.11853139102458954,
        0.4085732698440552,
        -0.05038250982761383,
        0.12452298402786255,
        -0.31047022342681885,
        0.19382163882255554,
        0.02466767653822899,
        0.0033665348310023546,
        -0.4767514765262604,
        0.1572064757347107,
        -0.4497765898704529,
        -0.06587319821119308,
        0.010915208607912064,
        0.022677617147564888,
        -0.03393504396080971,
        -0.131393164396286,
        0.2297671139240265,
        0.09185978025197983,
        0.028178993612527847,
        -0.13533854484558105,
        0.08635775744915009,
        0.12975923717021942,
        0.05726134404540062,
        0.08299683779478073,
        0.18214067816734314,
        -0.07416901737451553,
        0.1916361302137375,
        -0.23569324612617493,
        0.005894585512578487,
        0.1173284649848938,
        0.4017868638038635,
        -0.1109679564833641,
        -0.04897775873541832,
        0.02074263244867325,
        -0.01210083905607462,
        0.029707305133342743,
        0.19899019598960876,
        0.050970643758773804,
        -0.13856366276741028,
        -0.19480901956558228,
        0.12577053904533386,
        0.18293659389019012,
        0.1008988693356514,
        -0.04535696655511856,
        -0.09066575020551682,
        -0.26297512650489807,
        0.04286305233836174,
        0.02761547453701496,
        -0.2412591576576233,
        -0.10569709539413452,
        -0.20685452222824097,
        0.17996683716773987,
        -0.0010938744526356459,
        0.2931484282016754,
        -0.05116674304008484,
        -0.010894810780882835,
        -0.19422875344753265,
        -0.3415937125682831,
        0.05892375856637955,
        0.17204827070236206,
        -0.14590144157409668,
        0.028575321659445763,
        -0.05284419283270836,
        0.04454384371638298,
        -0.11600659787654877,
        0.04197400435805321,
        -0.029628969728946686,
        0.10295867919921875,
        0.12747298181056976,
        0.24343718588352203,
        -0.04607773944735527,
        0.01837467961013317,
        0.01177129801362753,
        0.040272947400808334,
        0.0865328386425972,
        0.07869528234004974,
        -0.06871442496776581,
        0.04868696630001068,
        0.21794737875461578,
        0.09149143844842911,
        -0.04030224680900574,
        -0.20859424769878387,
        -0.06383033096790314,
        -0.10645167529582977,
        0.11244028806686401,
        -0.05427086353302002,
        -0.1938808709383011,
        -0.1360478401184082,
        -0.0050253234803676605,
        0.1197318434715271,
        -0.29600241780281067,
        -0.08495930582284927,
        -0.08550483733415604,
        -0.30570852756500244,
        -0.06711290031671524,
        -0.03372502699494362,
        0.18389421701431274,
        -0.13248181343078613,
        0.090422123670578,
        0.16886846721172333,
        -0.022572245448827744,
        0.2482006996870041,
        -0.06578008830547333,
        -0.05443768575787544,
        -0.0008796320762485266,
        0.025242967531085014,
        -0.17478863894939423,
        -0.11479510366916656,
        0.18162207305431366,
        0.055100973695516586,
        0.19546815752983093,
        -0.15975525975227356,
        0.049830466508865356,
        -0.10475365817546844,
        0.03390616178512573,
        -0.0632854476571083,
        0.06504612416028976,
        -0.0448480099439621,
        -0.014630935154855251,
        -0.10329661518335342,
        0.1365566849708557,
        0.07652990520000458,
        -0.14204630255699158,
        -0.05092347040772438,
        -0.013891534879803658,
        -0.02823600359261036,
        -0.14446987211704254,
        -0.10951266437768936,
        -0.11460305005311966,
        0.3134659230709076,
        0.044993720948696136,
        0.03371580317616463,
        0.4122689962387085,
        0.06007669121026993,
        -0.07230965048074722,
        0.09753868728876114,
        -0.14433029294013977,
        -0.1952902227640152,
        -0.2889014184474945,
        -0.0008042635745368898,
        0.016052961349487305,
        -0.23887214064598083,
        0.2262968122959137,
        -0.3138104975223541,
        -0.25235074758529663,
        -0.26268476247787476,
        0.08762232959270477,
        -0.12033548206090927,
        0.05186139792203903,
        0.08511079102754593,
        -0.07734107971191406,
        -0.536029577255249,
        -0.17788803577423096,
        0.747624397277832,
        0.5545580983161926,
        0.026947425678372383,
        -0.7784523963928223,
        -0.25629717111587524,
        -0.13055594265460968,
        0.009850324131548405,
        0.16630157828330994,
        0.0812879353761673,
        0.26087936758995056,
        -0.03640346601605415,
        -0.2645157277584076,
        0.013067682273685932,
        -0.033799998462200165,
        -0.23763784766197205,
        -0.07678079605102539,
        0.04324507340788841,
        -0.3975510001182556,
        0.31634095311164856,
        0.11624022573232651,
        -0.27034422755241394,
        0.5111315846443176,
        -0.19962835311889648,
        0.19861485064029694,
        0.2996247112751007,
        0.10626666247844696,
        0.06260693818330765,
        0.34223639965057373,
        0.2492072433233261,
        -0.39137229323387146,
        -0.2798421382904053,
        -0.22483862936496735,
        0.17630693316459656,
        0.06548374146223068,
        0.13869133591651917,
        -0.011651846580207348,
        0.12233866751194,
        0.0041034105233848095,
        0.04312476888298988,
        -0.3324591815471649,
        -0.4256497621536255,
        0.08852940052747726,
        0.045647021383047104,
        0.12223454564809799,
        -0.0058774021454155445,
        0.18611663579940796,
        0.06622632592916489,
        -0.26903751492500305,
        -0.2695438861846924,
        -0.28995078802108765,
        0.16040103137493134,
        -0.03832576796412468,
        -0.1475313901901245,
        -0.15309743583202362,
        -0.15615534782409668,
        -0.31222304701805115,
        0.3326810598373413,
        0.21888956427574158,
        -0.16903014481067657,
        0.10476769506931305,
        0.17521965503692627,
        0.3855978846549988,
        -0.1371433138847351,
        -0.12966576218605042,
        -0.1804165244102478,
        0.20036804676055908,
        -0.00449123652651906,
        0.13503947854042053,
        0.25201430916786194,
        0.37844330072402954,
        -0.015945902094244957,
        -0.1885516345500946,
        0.3552086055278778,
        -0.09057992696762085,
        -0.11198893934488297,
        -0.1539618968963623,
        -0.1444578617811203,
        -0.4437437653541565,
        0.09165898710489273,
        -0.18136848509311676,
        -0.30714449286460876,
        0.3083874583244324,
        -0.47442543506622314,
        -0.28957897424697876,
        -0.4144965410232544,
        0.003375393571332097,
        0.5985262989997864,
        0.09591272473335266,
        -0.415898859500885,
        -0.10568039119243622,
        -0.4126521646976471,
        -0.18816803395748138,
        -0.2006950080394745,
        0.009534825570881367,
        0.23949472606182098,
        0.3316590189933777,
        -0.563005268573761,
        0.27257007360458374,
        0.12794700264930725,
        -0.6460762023925781,
        -0.46979033946990967,
        0.39301592111587524,
        -0.35058099031448364,
        -0.3289839029312134,
        0.45262572169303894,
        -0.14452433586120605,
        0.2211563140153885,
        0.18513919413089752,
        0.5508716702461243,
        0.23565366864204407,
        0.10323674231767654,
        0.004219605587422848,
        0.20702511072158813,
        0.25962188839912415,
        -0.20921027660369873,
        0.03073415718972683,
        0.15972313284873962,
        -0.3916393220424652,
        0.3462623953819275,
        -0.27492427825927734,
        0.18505309522151947,
        -0.3221149742603302,
        0.26732534170150757,
        0.2094922512769699,
        0.10007338225841522,
        -0.09095048904418945,
        0.2999212443828583,
        -0.10383418202400208,
        -0.165628120303154,
        -0.3328052759170532,
        -0.22566594183444977,
        0.14227169752120972,
        -0.005641175899654627,
        -0.10478337109088898,
        0.05757986754179001,
        0.25365009903907776,
        -0.17717893421649933,
        -0.23719997704029083,
        0.28667357563972473,
        -0.0629882737994194,
        0.45749592781066895,
        0.018229078501462936,
        0.08774767816066742,
        -0.05899273604154587,
        0.16422046720981598,
        0.1623414158821106,
        -0.034653861075639725,
        -0.00831620953977108,
        -0.0701831579208374,
        -0.09802325814962387,
        -0.17734865844249725,
        -0.0952659621834755,
        0.3831036388874054,
        0.0042417929507792,
        -0.03169206529855728,
        -0.08772983402013779,
        -0.15186859667301178,
        -0.3237428665161133,
        0.24754801392555237,
        -0.18234491348266602,
        0.13797259330749512,
        0.1497098207473755,
        0.11248733848333359,
        0.21858027577400208,
        0.17094117403030396,
        0.17265382409095764,
        -0.01898588240146637,
        -0.490054726600647,
        0.06672470271587372,
        0.03186247870326042,
        0.3839198350906372,
        -0.09162057936191559,
        -0.058319080621004105,
        0.1793922483921051,
        0.06764708459377289,
        -0.13903333246707916,
        0.2264970988035202,
        -0.13447320461273193,
        -0.07169701904058456,
        0.06594017148017883,
        0.046866584569215775,
        -0.08561158180236816,
        0.051439832895994186,
        0.21418316662311554,
        -0.08236395567655563,
        -0.006106299813836813,
        -0.05570664629340172,
        0.01946451887488365,
        0.046152155846357346,
        -0.1959802210330963,
        -0.2216198742389679,
        -0.07928568124771118,
        0.1906193494796753,
        0.1530735194683075,
        -0.17006374895572662,
        -0.5966138243675232,
        0.5745849013328552,
        -0.3804453909397125,
        -0.23868662118911743,
        -0.23587413132190704,
        -0.04488334804773331,
        0.3748788833618164,
        -0.452766478061676,
        -0.13873885571956635,
        -0.024660799652338028,
        0.13080860674381256,
        0.288923442363739,
        -0.2603471279144287,
        0.21431811153888702,
        -0.5114220380783081,
        0.0039245630614459515,
        -0.1716066300868988,
        0.01860356517136097,
        0.3689989149570465,
        0.4552800953388214,
        -0.05506633594632149,
        -0.14831943809986115,
        0.18993166089057922,
        0.20484335720539093,
        -0.04602840170264244,
        -0.10341209918260574,
        0.01997067965567112,
        0.3779197633266449,
        0.04952480271458626,
        -0.07378343492746353,
        -0.2644926905632019,
        0.1943584531545639,
        0.29133495688438416,
        0.20513343811035156,
        -0.23517581820487976,
        -0.14503255486488342,
        -1.1990225315093994,
        -0.18717914819717407,
        -0.18476249277591705,
        0.3086242079734802,
        0.2973882853984833,
        0.21207097172737122,
        0.9211829304695129,
        -0.11755819618701935,
        -0.003378320252522826,
        0.5442251563072205,
        -0.3786528408527374,
        -0.0432170107960701,
        -0.35817191004753113,
        -0.13311626017093658,
        -0.03847327083349228,
        -0.08980590105056763,
        0.391404390335083,
        0.23900380730628967,
        0.05030442401766777,
        -0.0964733213186264,
        -0.05626038834452629,
        -0.30104097723960876,
        -0.13783934712409973,
        -0.11478408426046371,
        0.1831870973110199,
        -0.19533289968967438,
        -0.3303609788417816,
        -0.33309993147850037,
        0.2947666049003601,
        0.21249741315841675,
        0.06039443239569664,
        -0.10405197739601135,
        0.1173044815659523,
        -0.3890039324760437,
        0.15392179787158966,
        -0.5075903534889221,
        -0.32844918966293335,
        -0.18298380076885223,
        0.5390076041221619,
        -0.061363574117422104,
        -0.29669561982154846,
        -0.016165774315595627,
        -0.46110257506370544,
        -0.06260290741920471,
        0.21152201294898987,
        0.04079120606184006,
        -0.27192530035972595,
        0.46292856335639954,
        -0.26005327701568604,
        -0.17327894270420074,
        0.47460973262786865,
        0.16025249660015106,
        -0.10941814631223679,
        0.28147807717323303,
        0.31399932503700256,
        -0.04396161437034607,
        -0.19572889804840088,
        -0.1178736463189125,
        0.1555166095495224,
        -0.026818202808499336,
        0.27999812364578247,
        -0.3921811580657959,
        -0.07209009677171707,
        0.20328687131404877,
        -0.11228896677494049,
        0.010894187726080418,
        0.03185488283634186,
        0.1274322271347046,
        -0.1163947582244873,
        0.050471749156713486,
        -0.052535530179739,
        -0.020356792956590652,
        0.10730421543121338,
        0.09946152567863464,
        -0.020899759605526924,
        -0.22786656022071838,
        -0.2087753564119339,
        -0.20893998444080353,
        -0.055616676807403564,
        -0.07661393284797668,
        0.29585862159729004,
        0.1038191020488739,
        -0.1964813768863678,
        0.1537710428237915,
        -0.13947314023971558,
        0.03508852422237396,
        -0.24939410388469696,
        -0.23988065123558044,
        -0.06380224972963333,
        -0.37639865279197693,
        -0.24770668148994446,
        -0.1973465532064438,
        0.4317777752876282,
        -0.07096460461616516,
        0.19307774305343628,
        0.5431549549102783,
        0.053941842168569565,
        -0.03520384803414345,
        0.02239178493618965,
        -0.135474294424057,
        0.17458701133728027,
        0.033018290996551514,
        0.17283529043197632,
        -0.534920871257782,
        0.02558782696723938,
        -0.13911834359169006,
        0.10276902467012405,
        0.041505441069602966,
        -0.09155570715665817,
        0.13410155475139618,
        0.12434571236371994,
        -0.06286786496639252,
        -0.32153815031051636,
        0.11825791001319885,
        0.9278725981712341,
        0.5464750528335571,
        0.794035017490387,
        0.4074612855911255,
        -0.07299772650003433,
        -0.2759876847267151,
        -0.3313465714454651,
        -0.1607806235551834,
        -0.06167776882648468,
        0.08050507307052612,
        -0.203097403049469,
        0.22631217539310455,
        0.022493800148367882,
        -0.364338219165802,
        -0.005135377403348684,
        0.46556445956230164,
        0.32024893164634705,
        0.29781487584114075,
        -0.04840689152479172,
        0.004142931662499905,
        0.2583964765071869,
        -0.1502307653427124,
        -0.21254757046699524,
        0.43748804926872253,
        0.03349916264414787,
        -0.2944389879703522,
        0.13740941882133484,
        -0.05537225678563118,
        0.32084226608276367,
        -0.08395227044820786,
        0.09784328937530518,
        0.24543200433254242,
        0.05816451087594032,
        -0.22925305366516113,
        0.2534935772418976,
        0.08338409662246704,
        0.17099526524543762,
        -0.09962861239910126,
        -0.03709501773118973,
        0.09769222885370255,
        0.33094078302383423,
        -0.06793083995580673,
        0.15618598461151123,
        0.13363076746463776,
        0.0835793986916542,
        -0.0348585769534111,
        0.1891983449459076,
        -0.06955935806035995,
        0.16722005605697632,
        -0.4609836935997009,
        -0.13156656920909882,
        0.11825983226299286,
        0.14572563767433167,
        -0.11982503533363342,
        0.06201349198818207,
        0.07061565667390823,
        0.004104334861040115,
        0.10290630161762238,
        0.28373825550079346,
        -0.1440677046775818,
        0.019728079438209534,
        0.2153918594121933,
        0.22723886370658875,
        -0.06526932865381241,
        -0.22370979189872742,
        -0.19592343270778656,
        -0.1223934069275856,
        0.1139478087425232,
        -0.28818443417549133,
        -0.08035343885421753,
        0.2598626911640167,
        0.00817035511136055,
        0.2175641804933548,
        0.1096339300274849,
        0.09762822091579437,
        0.2578898072242737,
        -0.6520092487335205,
        0.43884921073913574,
        0.12326209992170334,
        -0.7601243853569031,
        0.3051573932170868,
        0.027428671717643738,
        -0.11527705192565918,
        -0.06192659214138985,
        0.38937196135520935,
        0.8010040521621704,
        0.6963301301002502,
        -0.0626857802271843,
        0.014805367216467857,
        0.23557524383068085,
        0.25802457332611084,
        0.20955592393875122,
        -0.0643298402428627,
        0.00452632550150156,
        0.03603406250476837,
        -0.16449759900569916,
        -0.3331371247768402,
        -0.4060634672641754,
        -0.061590321362018585,
        0.17359209060668945,
        0.0680922418832779,
        0.1651117205619812,
        0.03205049782991409,
        0.06346271932125092,
        0.08160494267940521,
        0.06967972218990326,
        0.10768434405326843,
        0.42226606607437134,
        -0.07830498367547989,
        0.30057060718536377,
        0.2661760449409485,
        -0.052430056035518646,
        0.2642165720462799,
        -0.21445052325725555,
        -0.010467996820807457,
        -0.02689625322818756,
        0.0647691860795021,
        -0.057352568954229355,
        0.027545582503080368,
        -0.04096498712897301,
        0.1748908907175064,
        0.07804220914840698,
        0.17819003760814667,
        0.19159914553165436,
        -0.33967211842536926,
        -0.21217982470989227,
        -0.15232162177562714,
        -0.22715529799461365,
        0.11051870137453079,
        0.2038077712059021,
        0.026321139186620712,
        0.1760132908821106,
        0.538493812084198,
        0.2850891351699829,
        -0.03899829089641571,
        0.23092703521251678,
        0.14477357268333435,
        -0.0217402633279562,
        -0.133433997631073,
        0.131439208984375,
        -0.015131639316678047,
        -0.45196884870529175,
        0.21908697485923767,
        0.107097327709198,
        0.24881340563297272,
        0.007716740947216749,
        -0.2626744210720062,
        -0.16932573914527893,
        0.12793929874897003,
        -0.004335776902735233,
        0.07870450615882874,
        -0.4318362772464752,
        -0.5806650519371033,
        0.41157448291778564,
        -0.11092863231897354,
        -0.6411409378051758,
        -0.7528207898139954,
        -0.16607913374900818,
        -0.12426935881376266,
        -0.4961170554161072,
        0.4760742485523224,
        0.16946320235729218,
        -0.4097219705581665,
        -0.2743775546550751,
        0.3857317268848419,
        -0.19791094958782196,
        -0.45855873823165894,
        0.1930200308561325,
        -0.21602067351341248,
        -0.19104710221290588,
        -0.36061275005340576,
        -0.3985357880592346,
        -0.33191344141960144,
        -0.09598111361265182,
        -0.34408798813819885,
        0.48085880279541016,
        0.05219806358218193,
        -0.11766625195741653,
        0.0926399901509285,
        -0.07831241935491562,
        -0.007117138244211674,
        0.35853201150894165,
        -0.2572723627090454,
        0.16062210500240326,
        0.04399493336677551,
        -0.027156909927725792,
        -0.05306600034236908,
        0.31154510378837585,
        0.1774284988641739,
        0.1846800297498703,
        -0.12460241466760635,
        -0.11666877567768097,
        -0.09821624308824539,
        0.13633684813976288,
        0.10998751223087311,
        0.07245323807001114,
        -0.020904451608657837,
        0.3816528618335724,
        0.46694067120552063,
        0.32926708459854126,
        0.4222314655780792,
        0.09369969367980957,
        0.03513922914862633,
        -0.08529295027256012,
        0.010554876178503036,
        0.28105267882347107,
        0.012660184875130653,
        -0.16328145563602448,
        -0.2219363898038864,
        0.5752127766609192,
        0.4623155891895294,
        0.6771950721740723,
        -0.13019037246704102,
        -0.17789335548877716,
        0.05288897082209587,
        0.2904137969017029,
        -0.07240721583366394,
        -0.11006394773721695,
        0.22528979182243347,
        -0.19372951984405518,
        -0.21278490126132965,
        -0.09004179388284683,
        0.22235146164894104,
        0.04735603928565979,
        0.10031450539827347,
        0.07744849473237991,
        0.5681195259094238,
        -0.14361456036567688,
        0.6608200669288635,
        0.42256149649620056,
        0.3200574517250061,
        0.1398802101612091,
        -0.14375904202461243,
        0.41044434905052185,
        0.2703608572483063,
        -0.43617528676986694,
        -0.4504588842391968,
        -0.0844586044549942,
        0.3422461450099945,
        -0.20713503658771515,
        0.6218952536582947,
        -0.06250789761543274,
        -0.3234180510044098,
        0.15686243772506714,
        -0.3706645965576172,
        -0.07474040985107422,
        -0.12550108134746552,
        -0.02817058004438877,
        -0.42905890941619873,
        -0.49990543723106384,
        0.23116517066955566,
        -0.11803607642650604,
        -0.16879461705684662,
        0.0012645060196518898,
        -0.2858400046825409,
        -0.051861003041267395,
        0.2266579419374466,
        0.3464932441711426,
        -0.16109350323677063,
        0.016779638826847076,
        0.24668030440807343,
        0.2762817144393921,
        -0.17536640167236328,
        0.20861361920833588,
        0.17109262943267822,
        0.17094051837921143,
        -0.11824731528759003,
        -0.07184344530105591,
        0.4090479016304016,
        -0.1328510344028473,
        0.1161254420876503,
        0.4279344379901886,
        -0.11293676495552063,
        0.15741288661956787,
        0.17924435436725616,
        0.2927798926830292,
        0.21358755230903625,
        0.06245565414428711,
        -0.24606794118881226,
        -0.18055477738380432,
        -0.34374600648880005,
        -0.0830179825425148,
        -0.054882634431123734,
        -0.16509464383125305,
        -0.06609049439430237,
        0.0200638510286808,
        -0.22598865628242493,
        -0.16836580634117126,
        0.0726369321346283,
        -0.4227045476436615,
        0.26314929127693176,
        -0.13843543827533722,
        -0.046324845403432846,
        -0.15030108392238617,
        0.07834960520267487,
        -0.09047199040651321,
        -0.09453723579645157,
        0.22371922433376312,
        0.36601418256759644,
        -0.29889968037605286,
        -0.19728313386440277,
        0.01999432034790516,
        -0.017940983176231384,
        -0.11270779371261597,
        -0.84083092212677,
        -0.7383198738098145,
        -0.6146374344825745,
        -0.6135522723197937,
        -0.07518938183784485,
        -0.7854135036468506,
        -0.13202527165412903,
        0.21454380452632904,
        -0.16988959908485413,
        -0.10987779498100281,
        -0.2846132814884186,
        0.3201548755168915,
        -0.32171034812927246,
        -0.17559681832790375,
        0.35124367475509644,
        0.5124629735946655,
        -0.6497294306755066,
        -0.3283318877220154,
        0.3066261112689972,
        0.07376878708600998,
        -0.31153303384780884,
        -0.32868367433547974,
        0.32462605834007263,
        -0.1788826584815979,
        0.0114778196439147,
        0.0002409099688520655,
        -0.06074955314397812,
        0.060677170753479004,
        0.452116996049881,
        -0.021946221590042114,
        0.0014354090671986341,
        -0.02350340411067009,
        0.18919852375984192,
        0.23062965273857117,
        0.12615294754505157,
        0.21682113409042358,
        -0.17288029193878174,
        0.21339233219623566,
        0.22023934125900269,
        -0.05379336699843407,
        -0.19190853834152222,
        0.5317534804344177,
        -0.047137267887592316,
        0.09604589641094208,
        -0.018819326534867287,
        0.25122907757759094,
        0.34922897815704346,
        0.24260815978050232,
        -0.09939884394407272,
        0.25289174914360046,
        0.14853882789611816,
        -0.07105197012424469,
        -0.3217869997024536,
        0.010716598480939865,
        -0.24889473617076874,
        0.16948707401752472,
        0.2954848110675812,
        0.08061505854129791,
        0.07714090496301651,
        0.01311017107218504,
        -0.08810579776763916,
        -0.31361350417137146,
        -0.2640537619590759,
        -0.023635633289813995,
        0.05476986989378929,
        -0.251735121011734,
        0.04417295381426811,
        -0.1367204338312149,
        -0.028395995497703552,
        -0.1790122389793396,
        -0.49198320508003235,
        -0.28787961602211,
        -0.2915332317352295,
        0.056874655187129974,
        -0.29987919330596924,
        -0.20034131407737732,
        0.025087125599384308,
        -0.8311547040939331,
        0.8125608563423157,
        0.5324097275733948,
        -0.5995408296585083,
        0.24945805966854095,
        0.04322027787566185,
        0.2639225423336029,
        -0.27955543994903564,
        -0.4281584620475769,
        0.24434198439121246,
        -0.30237361788749695,
        -0.16075561940670013,
        0.1375034749507904,
        -0.1618170142173767,
        -0.1284409910440445,
        -0.5511857271194458,
        0.12840674817562103,
        0.14697013795375824,
        0.4720412790775299,
        -0.09509868919849396,
        0.37307533621788025,
        0.009526028297841549,
        -0.22826136648654938,
        -0.043216772377491,
        0.0001693840604275465,
        0.01046713162213564,
        0.01940755546092987,
        -0.10925455391407013,
        0.3495722711086273,
        0.022025277838110924,
        0.10335418581962585,
        0.19069544970989227,
        0.03774521127343178,
        0.14997738599777222,
        0.15947115421295166,
        0.20953737199306488,
        -0.2059503048658371,
        0.189606174826622,
        -0.05643925070762634,
        -0.21108877658843994,
        0.11170286685228348,
        0.16582104563713074,
        0.2448536455631256,
        -0.22727307677268982,
        0.16792164742946625,
        0.24373625218868256,
        0.07653790712356567,
        0.06791097670793533,
        0.2487918585538864,
        -0.01283450610935688,
        -0.06097745522856712,
        -0.07411327213048935,
        0.31808415055274963,
        0.015511954203248024,
        -0.02489587664604187,
        0.0744793638586998,
        0.0011157386470586061,
        -0.1259613037109375,
        0.10418487340211868,
        0.22833628952503204,
        -0.015435749664902687,
        -0.10107982158660889,
        0.17478014528751373,
        0.06265702843666077,
        -0.2026214599609375,
        -0.12865062057971954,
        0.25732526183128357,
        -0.2845970094203949,
        0.016410324722528458,
        -0.2909068465232849,
        -0.038604483008384705,
        0.12080543488264084,
        -0.09326550364494324,
        0.2959553599357605,
        0.005081456154584885,
        -0.4215899407863617,
        0.29842156171798706,
        0.49412116408348083,
        0.0530976876616478,
        0.5585429668426514,
        -0.8205961585044861,
        0.3527774214744568,
        0.3447098731994629,
        0.04907277226448059,
        -0.0896075889468193,
        0.06650552153587341,
        -0.02063285931944847,
        -0.23460331559181213,
        -0.08070207387208939,
        0.04088723659515381,
        0.47803860902786255,
        0.4104287028312683,
        0.26974189281463623,
        -0.13240323960781097,
        -0.3657737374305725,
        -0.399888813495636,
        0.15786126255989075,
        -0.5977986454963684,
        -0.4734390377998352,
        -0.11029762029647827,
        -0.12621422111988068,
        -0.07295434921979904,
        -0.08341313898563385,
        -0.107694111764431,
        0.40951231122016907,
        -0.09594262391328812,
        0.1922570765018463,
        -0.006643339060246944,
        -0.001566341146826744,
        0.07650748640298843,
        -0.3662169873714447,
        -0.047139737755060196,
        0.15488103032112122,
        -0.09070873260498047,
        -0.04292149096727371,
        0.054080069065093994,
        0.30350589752197266,
        -0.23078028857707977,
        -0.3003464639186859,
        -0.2799402177333832,
        -0.000343829597113654,
        -0.11599893122911453,
        0.20489589869976044,
        -0.14854449033737183,
        -0.24223577976226807,
        0.006543491967022419,
        -0.03905690088868141,
        -0.022607415914535522,
        0.29200050234794617,
        -0.02338104322552681,
        -0.06064934283494949,
        0.20804892480373383,
        0.14966823160648346,
        0.07599349319934845,
        0.06879922747612,
        0.34400397539138794,
        -0.020011376589536667,
        -0.6245044469833374,
        0.008092871867120266,
        -0.03825177252292633,
        -0.041804924607276917,
        -0.13536664843559265,
        0.004559234715998173,
        0.08996237069368362,
        -0.315220445394516,
        -0.1608644425868988,
        -0.35126596689224243,
        -0.02534172683954239,
        -0.00307791237719357,
        0.15969771146774292,
        0.30029311776161194,
        0.21650487184524536,
        0.10253121703863144,
        -0.3374156057834625,
        0.10848654806613922,
        -0.20160892605781555,
        0.05090798810124397,
        -0.3747851550579071,
        0.5540547966957092,
        0.2560192346572876,
        0.16974668204784393,
        -0.19500762224197388,
        0.30842551589012146,
        -0.5485875010490417,
        0.2647441327571869,
        -0.20463968813419342,
        0.16008256375789642,
        -0.021377136930823326,
        -0.1650175154209137,
        -0.07400403171777725,
        0.3399389982223511,
        -0.23415830731391907,
        -0.12023011595010757,
        0.17509888112545013,
        0.07531826198101044,
        -0.318778932094574,
        -0.3519163429737091,
        -0.08224774897098541,
        -0.03462686017155647,
        -0.21980737149715424,
        0.4786922335624695,
        0.08787553012371063,
        -0.1462196707725525,
        -0.11169740557670593,
        -0.18548068404197693,
        0.1989661306142807,
        -0.10581504553556442,
        -0.10635417699813843,
        0.043347377330064774,
        0.240960955619812,
        -0.11269593983888626,
        -0.006877719424664974,
        0.1670975238084793,
        -0.011799530126154423,
        0.008407233282923698,
        -0.10798291116952896,
        0.3261977434158325,
        0.19939351081848145,
        -0.1889033019542694,
        -0.2449292242527008,
        -0.14189459383487701,
        0.2115112692117691,
        0.04130612686276436,
        -0.07989263534545898,
        0.18687301874160767,
        -0.034509122371673584,
        0.08885741233825684,
        0.23481209576129913,
        -0.054176509380340576,
        0.17529934644699097,
        -0.0031962161883711815,
        0.04763143137097359,
        -0.07502177357673645,
        -0.16905666887760162,
        -0.022032292559742928,
        0.1487094759941101,
        0.02242693118751049,
        0.25769782066345215,
        0.1099606528878212,
        -0.00031620089430361986,
        -0.07207558304071426,
        -0.041927944868803024,
        -0.006747210863977671,
        0.10158785432577133,
        -0.1992972195148468,
        -0.29542359709739685,
        0.06864117085933685,
        -0.07932247221469879,
        -0.4101473093032837,
        -1.0261505842208862,
        0.5658482909202576,
        0.004520291928201914,
        -0.4163084328174591,
        -0.1968890279531479,
        0.21891498565673828,
        -0.6199101209640503,
        -0.07485280930995941,
        -0.11683367192745209,
        0.21451491117477417,
        0.1096394881606102,
        -0.29934409260749817,
        0.15809199213981628,
        0.17505724728107452,
        0.19547195732593536,
        0.155298113822937,
        -0.21574467420578003,
        0.07881804555654526,
        0.19530709087848663,
        -0.2678379714488983,
        0.2062506377696991,
        -0.4397115707397461,
        -0.042853474617004395,
        -0.19305749237537384,
        -0.17689500749111176,
        -0.1782572716474533,
        -0.24138079583644867,
        0.3308594226837158,
        -0.06925921142101288,
        -0.3110335171222687,
        -0.05011512339115143,
        -0.09220260381698608,
        0.041909195482730865,
        -0.2507539689540863,
        0.08878190070390701,
        0.12913207709789276,
        0.2082168608903885,
        0.09350398182868958,
        0.0561281219124794,
        0.4217052757740021,
        -0.05889808386564255,
        0.12365227192640305,
        0.26421135663986206,
        -0.28217384219169617,
        -0.029986467212438583,
        0.11332248896360397,
        -0.18689297139644623,
        0.0637025386095047,
        0.0902797132730484,
        -0.09856018424034119,
        -0.12621350586414337,
        -0.14448782801628113,
        0.26245760917663574,
        0.04835685342550278,
        0.1772303283214569,
        0.09930220991373062,
        0.1525588035583496,
        0.13631571829319,
        -0.07092376798391342,
        -0.07814572006464005,
        0.07567162811756134,
        -0.0502423532307148,
        -0.00013626401778310537,
        -0.3496457636356354,
        -0.014695161953568459,
        -0.16266579926013947,
        0.1749926507472992,
        -0.12477205693721771,
        0.17525316774845123,
        0.19321027398109436,
        -0.25386038422584534,
        0.2337551862001419,
        -0.312687486410141,
        -0.05066244676709175,
        0.4940533936023712,
        -0.2917066216468811,
        0.6692366600036621,
        -0.43906325101852417,
        -0.12468766421079636,
        -0.17767022550106049,
        -0.2417389303445816,
        0.3681867718696594,
        -0.034364014863967896,
        -0.10879552364349365,
        -0.06702176481485367,
        -0.24680893123149872,
        -0.29920676350593567,
        0.2258949726819992,
        -0.610849916934967,
        -0.529707670211792,
        0.5590732097625732,
        0.2598668038845062,
        0.2590791881084442,
        -0.004860484041273594,
        -0.23095956444740295,
        0.14529258012771606,
        0.011418563313782215,
        0.1877005696296692,
        -0.14334705471992493,
        -0.16508601605892181,
        0.3386971354484558,
        -0.0015692570013925433,
        -0.13061733543872833,
        0.008923579938709736,
        -0.11113139986991882,
        0.0023204030003398657,
        0.09499794989824295,
        -0.11728449165821075,
        0.2570838928222656,
        0.11395420879125595,
        0.12514132261276245,
        -0.04200561344623566,
        0.14789338409900665,
        -0.2066022902727127,
        0.09459643065929413,
        -0.008826132863759995,
        0.025140557438135147,
        -0.26905566453933716,
        0.08927041292190552,
        0.24133899807929993,
        0.12987518310546875,
        0.001228709938004613,
        -0.03448851779103279,
        0.0063325208611786366,
        0.17548994719982147,
        0.005804551299661398,
        -0.2768380343914032,
        0.2122616469860077,
        -0.12631700932979584,
        -0.10415821522474289,
        0.24086780846118927,
        0.059763211756944656,
        0.03320993110537529,
        0.16397488117218018,
        -0.03542763739824295,
        -0.1034705638885498,
        -0.1538996696472168,
        -0.1608288288116455,
        -0.12072550505399704,
        -0.23402661085128784,
        0.0019811245147138834,
        -0.18071803450584412,
        0.061644695699214935,
        0.20767171680927277,
        0.20856262743473053,
        -0.03052028827369213,
        0.0335548035800457,
        -0.24254682660102844,
        0.1945197880268097,
        -0.18280211091041565,
        0.4920506477355957,
        -0.4081290364265442,
        -0.47348853945732117,
        -0.9482660889625549,
        -0.12091034650802612,
        -0.04836457967758179,
        -0.23046547174453735,
        0.3559243679046631,
        0.2869518995285034,
        -0.44128191471099854,
        -0.050015389919281006,
        0.1681065559387207,
        0.4823986291885376,
        -0.11955636739730835,
        0.3069649934768677,
        -0.028011441230773926,
        -0.1917715072631836,
        0.30598050355911255,
        -0.4455450773239136,
        0.41890019178390503,
        0.4994143843650818,
        -0.1365121603012085,
        0.1975109577178955,
        0.49860215187072754,
        0.2968786954879761,
        0.37422990798950195,
        0.3736453950405121,
        -0.35866689682006836,
        0.08159637451171875,
        0.019999999552965164
    ]
}