{
    "version": "0.5.0",
    "architecture": "WaveNet",
    "config": {
        "layers": [
            {
                "input_size": 1,
                "condition_size": 1,
                "head_size": 4,
                "channels": 8,
                "kernel_size": 3,
                "dilations": [
                    1,
                    2,
                    4,
                    8,
                    16,
                    32,
                    64
                ],
                "activation": "Tanh",
                "gated": false,
                "head_bias": false
            },
            {
                "input_size": 8,
                "condition_size": 1,
                "head_size": 1,
                "channels": 4,
                "kernel_size": 3,
                "dilations": [
                    128,
                    256,
                    512,
                    1,
                    2,
                    4,
                    8,
                    16,
                    32,
                    64,
                    128,
                    256,
                    512
                ],
                "activation": "Tanh",
                "gated": false,
                "head_bias": true
            }
        ],
        "head": null,
        "head_scale": 0.02
    },
    "weights": [
        0.36422374844551086,
        0.5229594707489014,
        -0.805798351764679,
        -0.832923173904419,
        -0.43532469868659973,
        -0.014279915951192379,
        0.0005956780514679849,
        0.7555767297744751,
        -0.13125182688236237,
        0.05076710879802704,
        -0.009825845248997211,
        -0.22741608321666718,
        -0.288009375333786,
        -0.12317103892564774,
        0.10840863734483719,
        0.10666575282812119,
        0.0756121277809143,
        0.31999140977859497,
        -0.04086294397711754,
        -0.09817665070295334,
        0.2591569125652313,
        0.2588280439376831,
        -0.05704275146126747,
        -0.007035103626549244,
        -0.08981311321258545,
        0.03952693194150925,
        0.29587164521217346,
        -0.15395893156528473,
        -0.12619930505752563,
        -0.24429833889007568,
        -0.1780237853527069,
        0.18180309236049652,
        -0.0010613909689709544,
        0.1291709840297699,
        -0.29707619547843933,
        -0.05141086503863335,
        0.04244818165898323,
        -0.04711593687534332,
        -0.0551726371049881,
        -0.0695669949054718,
        0.22796125710010529,
        -0.2518531084060669,
        -0.1333375871181488,
        0.03255400434136391,
        -0.28370532393455505,
        -0.26312655210494995,
        0.35888591408729553,
        0.25581562519073486,
        0.038021452724933624,
        -0.22928853332996368,
        0.03620503097772598,
        0.15956023335456848,
        0.3510940968990326,
        0.17275065183639526,
        0.30406707525253296,
        -0.33891016244888306,
        -0.07917609065771103,
        -0.30088019371032715,
        -0.01868503727018833,
        -0.2329486757516861,
        -0.024334266781806946,
        0.23366795480251312,
        0.011490359902381897,
        0.18430419266223907,
        -0.03394675254821777,
        0.11078783869743347,
        0.13108521699905396,
        -0.10388454794883728,
        0.2513156831264496,
        0.3090869188308716,
        -0.3161297142505646,
        -0.17624905705451965,
        0.01039156410843134,
        0.3340340852737427,
        0.2628343105316162,
        0.2060229778289795,
        -0.16591879725456238,
        -0.3099038302898407,
        -0.10312742739915848,
        0.018951769918203354,
        -0.3468131721019745,
        0.686132550239563,
        0.3205608129501343,
        -0.43650680780410767,
        0.2572503685951233,
        0.028644485399127007,
        0.19907107949256897,
        -0.3126674294471741,
        0.018660811707377434,
        0.1156906709074974,
        -0.1605221927165985,
        0.03680996224284172,
        0.3860359787940979,
        -0.14872585237026215,
        -0.2622095048427582,
        -0.39613035321235657,
        0.32916730642318726,
        0.05471144989132881,
        0.12094774842262268,
        -0.3111746311187744,
        0.24840329587459564,
        -0.09713741391897202,
        0.13211089372634888,
        0.00845178309828043,
        -0.2634600102901459,
        -0.02170580066740513,
        -0.049401555210351944,
        -0.2846486270427704,
        -0.12024673819541931,
        0.08891557157039642,
        0.0496312640607357,
        0.2360955774784088,
        -0.17626866698265076,
        0.32331374287605286,
        0.25356850028038025,
        -0.2286061942577362,
        0.0731295645236969,
        0.11396145075559616,
        -0.033057041466236115,
        -0.08043231070041656,
        -0.006168091204017401,
        0.07581250369548798,
        0.010372456163167953,
        0.1672164499759674,
        -0.23817990720272064,
        -0.2542093098163605,
        -0.1654735803604126,
        -0.04694078117609024,
        -0.1494545191526413,
        -0.40750959515571594,
        0.16769933700561523,
        -0.007573485374450684,
        -0.28225603699684143,
        0.2815926671028137,
        0.2029017060995102,
        0.13406428694725037,
        -0.2821473777294159,
        0.04057057946920395,
        0.1969454288482666,
        -0.16347864270210266,
        0.24014009535312653,
        0.2752138078212738,
        -0.10690063238143921,
        -0.062383949756622314,
        -0.29868996143341064,
        0.21166293323040009,
        0.12386122345924377,
        -0.009642209857702255,
        -0.48790159821510315,
        -0.2123381793498993,
        -0.34506756067276,
        0.11720118671655655,
        0.10164067149162292,
        0.23802450299263,
        0.007826694287359715,
        -0.040665797889232635,
        0.2716904282569885,
        -0.27693232893943787,
        -0.20447155833244324,
        -0.231602743268013,
        0.07363296300172806,
        -0.2044336348772049,
        -0.3310289680957794,
        -0.058233603835105896,
        -0.18260197341442108,
        -0.1378069818019867,
        0.02882312424480915,
        0.1555197387933731,
        -0.0984184741973877,
        -0.1469407081604004,
        0.2407742738723755,
        -0.0675186812877655,
        0.31585514545440674,
        0.234866201877594,
        -0.03535943850874901,
        0.01628025993704796,
        0.3184770345687866,
        -0.19874393939971924,
        0.2003147304058075,
        0.13089977204799652,
        -0.05313142016530037,
        -0.06486757844686508,
        -0.15613603591918945,
        0.12572042644023895,
        0.11336730420589447,
        -0.23676958680152893,
        0.023493636399507523,
        -0.023314625024795532,
        -0.46769067645072937,
        0.18709322810173035,
        0.18303948640823364,
        0.409807413816452,
        -0.2422172874212265,
        -0.021172702312469482,
        -0.410926878452301,
        -0.1340118795633316,
        -0.21560640633106232,
        0.3721644878387451,
        -0.19091729819774628,
        -0.020113229751586914,
        0.040145836770534515,
        0.10968688130378723,
        -0.10093019902706146,
        -0.12056149542331696,
        -0.019946027547121048,
        0.09267763048410416,
        -0.2382015436887741,
        0.009178648702800274,
        0.3549504578113556,
        -0.07844508439302444,
        0.12585462629795074,
        -0.136386901140213,
        0.16556626558303833,
        0.048523060977458954,
        -0.10822541266679764,
        0.11667806655168533,
        -0.08367671817541122,
        -0.31480956077575684,
        0.3085564970970154,
        -0.36528950929641724,
        0.0765150859951973,
        0.46025142073631287,
        0.0377507284283638,
        0.095305435359478,
        -0.5357969403266907,
        0.39136964082717896,
        -0.45698919892311096,
        -0.17303481698036194,
        -0.3316534161567688,
        -0.23483729362487793,
        0.04382772743701935,
        0.2748974561691284,
        0.12589804828166962,
        0.4216810166835785,
        0.16797223687171936,
        -0.5536501407623291,
        0.14729145169258118,
        -0.07054390013217926,
        -0.3184659779071808,
        0.35801830887794495,
        0.41602829098701477,
        0.0790756568312645,
        0.2016696184873581,
        0.48863375186920166,
        0.4536418616771698,
        -0.1380240023136139,
        0.005829149857163429,
        -0.4455648362636566,
        -0.06980141997337341,
        -0.06269633024930954,
        -0.20823787152767181,
        -0.04787389189004898,
        0.2741658687591553,
        -0.05888450890779495,
        -0.14024432003498077,
        0.10463601350784302,
        -0.3254993259906769,
        0.03345043957233429,
        0.009849374182522297,
        -0.10398221015930176,
        -0.046867359429597855,
        0.2431728094816208,
        0.3041776716709137,
        0.0481305792927742,
        0.3966618776321411,
        -0.21353623270988464,
        0.03727120906114578,
        0.06024850532412529,
        0.4975748062133789,
        0.35453537106513977,
        -0.3650514483451843,
        -0.23133492469787598,
        -0.312328577041626,
        0.15214116871356964,
        -0.14782989025115967,
        -0.1515207588672638,
        0.36582818627357483,
        -0.3144151568412781,
        0.03913208842277527,
        -0.12801803648471832,
        0.030102938413619995,
        -0.10438879579305649,
        -0.15997953712940216,
        0.13640107214450836,
        0.007074931636452675,
        0.027800805866718292,
        -0.07147756218910217,
        0.011311963200569153,
        -0.21952837705612183,
        -0.3228019177913666,
        0.12073300033807755,
        0.23065625131130219,
        0.04698485508561134,
        -0.0311442743986845,
        -0.1267523467540741,
        -0.3589863181114197,
        0.17904870212078094,
        -0.23474133014678955,
        0.1733267456293106,
        -0.01277451403439045,
        -0.19552326202392578,
        -0.04758181422948837,
        -0.0297823715955019,
        0.14189718663692474,
        -0.020522870123386383,
        -0.11548090726137161,
        -0.12355948239564896,
        0.10479240119457245,
        0.04959665238857269,
        0.06429843604564667,
        -0.10938262194395065,
        -0.048476386815309525,
        0.7002047896385193,
        0.461428701877594,
        0.506653904914856,
        -0.03176538646221161,
        -0.07147138565778732,
        -0.03160262480378151,
        -0.10448654741048813,
        0.22408798336982727,
        -0.05390547588467598,
        0.044859327375888824,
        -0.33465340733528137,
        -0.04787730798125267,
        0.16760613024234772,
        0.23739565908908844,
        0.1292138695716858,
        -0.04445026442408562,
        0.3151264488697052,
        0.00027814728673547506,
        0.006567331962287426,
        -0.3180985450744629,
        0.24877767264842987,
        0.11704166233539581,
        -0.15175560116767883,
        0.13639163970947266,
        0.505214512348175,
        -0.08185503631830215,
        0.12112464755773544,
        -0.11074851453304291,
        -0.013900602236390114,
        0.03384440019726753,
        0.3036808967590332,
        0.11014633625745773,
        -0.38461926579475403,
        0.3807258605957031,
        0.0834064856171608,
        -0.006897968240082264,
        0.0957912877202034,
        0.1047111377120018,
        -0.2606256604194641,
        0.053221799433231354,
        0.03288555145263672,
        0.18164540827274323,
        0.2940063774585724,
        0.0009827762842178345,
        -0.15803256630897522,
        -0.04145961254835129,
        -0.13672052323818207,
        0.1823708564043045,
        -0.05261137709021568,
        -0.14546050131320953,
        -0.058130893856287,
        -0.13970740139484406,
        0.109088234603405,
        0.2243092805147171,
        0.16544248163700104,
        -0.10565479844808578,
        -0.20850439369678497,
        0.19515034556388855,
        -0.20789654552936554,
        0.07456628978252411,
        -0.0021823160350322723,
        -0.05862471088767052,
        -0.24965205788612366,
        -0.4006516635417938,
        0.1794901192188263,
        0.15834872424602509,
        0.43491461873054504,
        0.1511944979429245,
        0.1476491093635559,
        -0.19964656233787537,
        0.08281444013118744,
        0.2177535444498062,
        -0.09515947848558426,
        0.47227218747138977,
        0.4841310679912567,
        0.2688854932785034,
        -0.16813865303993225,
        0.052491266280412674,
        -0.04615405574440956,
        -0.16670529544353485,
        -0.18012434244155884,
        -0.1955994814634323,
        -0.05667593702673912,
        0.16789573431015015,
        0.008072509430348873,
        -0.06942570209503174,
        -0.16233818233013153,
        0.19456076622009277,
        0.01110727246850729,
        -0.04751409590244293,
        -0.19477316737174988,
        0.39455342292785645,
        0.18848645687103271,
        -0.03747117146849632,
        0.25730544328689575,
        0.2322026640176773,
        -0.11903037875890732,
        0.0506623238325119,
        0.0894462838768959,
        -0.02994205243885517,
        0.2519322335720062,
        -0.009589091874659061,
        -0.29449716210365295,
        -0.02568214200437069,
        0.05766855925321579,
        -0.015500815585255623,
        -0.03365449607372284,
        0.1868537962436676,
        -0.027469508349895477,
        -0.15042170882225037,
        0.03572400286793709,
        0.05304529145359993,
        0.15759621560573578,
        -0.1646941900253296,
        -0.08356808125972748,
        -0.2976461350917816,
        -0.09140467643737793,
        0.13910776376724243,
        -0.07322439551353455,
        0.08378862589597702,
        0.3765720725059509,
        -0.3681320250034332,
        -0.5838571190834045,
        -0.1963946372270584,
        0.3580026626586914,
        -0.04217304289340973,
        -0.037695854902267456,
        -0.12538723647594452,
        -0.2962533235549927,
        -0.22312818467617035,
        -0.3756852447986603,
        0.02940499410033226,
        -0.20283114910125732,
        0.09775052964687347,
        -0.08763717114925385,
        -0.06092781573534012,
        0.2382289171218872,
        -0.09916074573993683,
        0.3801267445087433,
        -0.2727791666984558,
        0.047926221042871475,
        0.06813778728246689,
        -0.044116877019405365,
        0.19056576490402222,
        -0.16772498190402985,
        -0.4214162826538086,
        0.3882844150066376,
        -0.18813392519950867,
        -0.24153700470924377,
        -0.35038623213768005,
        0.293123722076416,
        0.11260439455509186,
        0.06502774357795715,
        0.35247161984443665,
        0.1103803738951683,
        -0.08634185045957565,
        0.05110117793083191,
        0.13866204023361206,
        0.1938953995704651,
        0.01093215774744749,
        -0.06495481729507446,
        -0.23249784111976624,
        0.15223222970962524,
        -0.24451150000095367,
        0.23619315028190613,
        -0.05130482092499733,
        -0.2965835630893707,
        -0.07643682509660721,
        -0.1073126345872879,
        -0.09506699442863464,
        0.0201643668115139,
        0.08792921900749207,
        -0.07322733849287033,
        0.1413889229297638,
        0.0640954002737999,
        0.023305648937821388,
        -0.04610302671790123,
        -0.147457554936409,
        -0.07813458144664764,
        0.2902299463748932,
        0.49965038895606995,
        -0.48302343487739563,
        0.9648222327232361,
        0.07495787739753723,
        -0.49605223536491394,
        -0.19419477880001068,
        0.3166735768318176,
        0.5202771425247192,
        -0.2833915948867798,
        0.22683827579021454,
        0.3867417573928833,
        0.2582317292690277,
        0.2758415639400482,
        0.007786747999489307,
        0.0760146826505661,
        0.30324089527130127,
        -0.1517946720123291,
        0.22347110509872437,
        -0.15900395810604095,
        0.2766723930835724,
        -0.31336915493011475,
        0.09198269993066788,
        0.21031413972377777,
        0.2167157679796219,
        -0.12401658296585083,
        -0.08464579284191132,
        0.13539256155490875,
        -0.1270991712808609,
        0.47481274604797363,
        -0.22246073186397552,
        0.16721154749393463,
        -0.8738927841186523,
        -0.3465033769607544,
        -0.27613359689712524,
        0.17874863743782043,
        -0.34011420607566833,
        -0.3419496715068817,
        -0.10175929218530655,
        0.621269166469574,
        0.6093921661376953,
        -0.2796529531478882,
        -0.2878844439983368,
        -0.436526894569397,
        0.1047147661447525,
        0.014466219581663609,
        0.1744627058506012,
        -0.3252115547657013,
        -0.1282278299331665,
        0.16011911630630493,
        0.06166299432516098,
        -0.047617580741643906,
        0.02183094248175621,
        0.10764890164136887,
        0.39211922883987427,
        -0.31966209411621094,
        -0.13652156293392181,
        -0.21125294268131256,
        0.3399893045425415,
        0.14030689001083374,
        -0.3620626926422119,
        0.3687509596347809,
        0.002183925360441208,
        0.059411611407995224,
        -0.008382939733564854,
        -0.4637450575828552,
        0.04915527626872063,
        0.11001603305339813,
        0.12000402808189392,
        -0.26466819643974304,
        -0.09032666683197021,
        -0.12404808402061462,
        0.07027824968099594,
        -0.16750113666057587,
        0.13115155696868896,
        -0.04538091644644737,
        -0.06189041584730148,
        0.3990856409072876,
        0.0853719562292099,
        0.08014070987701416,
        0.05473898723721504,
        -0.4936964809894562,
        0.05245017632842064,
        0.021779373288154602,
        0.1938251256942749,
        -0.2220904529094696,
        -0.4314832389354706,
        0.6385545134544373,
        -0.1042550653219223,
        -0.01731736958026886,
        -0.1904381364583969,
        -0.1967945545911789,
        -0.007119379937648773,
        -0.08689630776643753,
        -0.01880798488855362,
        -0.10551834106445312,
        0.8110851645469666,
        -0.019879817962646484,
        0.018940461799502373,
        -0.17501802742481232,
        -0.12374528497457504,
        -0.14154964685440063,
        0.042603783309459686,
        0.12292447686195374,
        0.037260789424180984,
        0.06803039461374283,
        0.2550337016582489,
        0.45629581809043884,
        0.2745201885700226,
        -0.35063010454177856,
        0.08545255661010742,
        -0.3756107985973358,
        0.09966485947370529,
        0.15648113191127777,
        -0.08080021291971207,
        -0.05937791243195534,
        -0.172872856259346,
        -0.022105006501078606,
        -0.021854400634765625,
        -0.0256985891610384,
        -0.4562152028083801,
        0.49144819378852844,
        -0.24446626007556915,
        0.061334796249866486,
        0.2605203688144684,
        0.12390764057636261,
        -0.05325435474514961,
        0.04971153289079666,
        -0.10600273311138153,
        -0.5113152265548706,
        0.08777749538421631,
        0.06441153585910797,
        -0.19969145953655243,
        -0.11456935852766037,
        -0.22584159672260284,
        0.38586747646331787,
        0.15640804171562195,
        -0.21158520877361298,
        0.02642536163330078,
        0.1374356746673584,
        0.0885821208357811,
        0.04619073495268822,
        0.08584451675415039,
        0.053477656096220016,
        0.3189493417739868,
        -0.026215482503175735,
        -0.25766831636428833,
        -0.281383752822876,
        0.0544964075088501,
        -0.06407217681407928,
        0.06852163374423981,
        0.08898287266492844,
        0.0013782769674435258,
        -0.18640297651290894,
        0.31260406970977783,
        0.031418900936841965,
        0.3949730694293976,
        -0.43492817878723145,
        -0.1619739681482315,
        0.4284486472606659,
        -0.18014711141586304,
        0.26103392243385315,
        -0.07168546319007874,
        -0.3344290256500244,
        -0.04265434667468071,
        -0.027829410508275032,
        0.2205916792154312,
        0.07146839797496796,
        0.2650819718837738,
        0.12900233268737793,
        -0.20829838514328003,
        0.04411015287041664,
        -0.018056878820061684,
        0.11433951556682587,
        0.21351686120033264,
        0.006420725025236607,
        0.15335644781589508,
        0.39743703603744507,
        0.11364960670471191,
        -0.19106368720531464,
        -0.09349138289690018,
        0.10063868016004562,
        0.050481949001550674,
        -0.3095579743385315,
        0.12284384667873383,
        0.1800728440284729,
        -0.10298125445842743,
        0.1896098107099533,
        -0.1607663780450821,
        0.2837033271789551,
        -0.2416316270828247,
        -0.38093337416648865,
        -0.49661314487457275,
        0.08459991961717606,
        0.08058689534664154,
        0.2124967724084854,
        -0.2759474515914917,
        0.01907293125987053,
        -0.13581502437591553,
        -0.01670803688466549,
        -0.06920532882213593,
        0.27527937293052673,
        -0.03869813680648804,
        -0.2593958377838135,
        -0.23346763849258423,
        0.3473013639450073,
        -0.4032723009586334,
        0.13320590555667877,
        0.1669653356075287,
        -0.289844274520874,
        -0.1356019824743271,
        -0.04930213466286659,
        0.184092715382576,
        -0.03956347703933716,
        0.009302531369030476,
        0.14600293338298798,
        0.22398100793361664,
        -0.19585444033145905,
        0.4136117100715637,
        0.23930981755256653,
        -0.3439747989177704,
        -0.0965353325009346,
        -0.36022648215293884,
        -0.04270840063691139,
        -0.25211694836616516,
        -0.01056789793074131,
        0.17498774826526642,
        -0.03700869902968407,
        0.4083035886287689,
        0.13805203139781952,
        -0.6183380484580994,
        -0.3260818421840668,
        -0.3650292456150055,
        -0.07914280891418457,
        -0.09415649622678757,
        0.23911871016025543,
        -0.003246125066652894,
        0.22343480587005615,
        0.005965195130556822,
        0.11572641134262085,
        0.36476075649261475,
        -0.6638721227645874,
        -0.07916106283664703,
        -0.44359758496284485,
        0.0679299533367157,
        0.11935902386903763,
        -0.15970037877559662,
        0.08590617030858994,
        -0.05908810719847679,
        -0.5151812434196472,
        0.08940581977367401,
        0.29455649852752686,
        0.016920678317546844,
        0.01858728751540184,
        -0.018098995089530945,
        0.6460079550743103,
        -0.21392177045345306,
        -0.12559494376182556,
        0.008053316734731197,
        -0.14961208403110504,
        -0.0491371676325798,
        -0.08431141078472137,
        0.11068052798509598,
        0.32077357172966003,
        0.5090211629867554,
        -0.060355838388204575,
        0.19157618284225464,
        -0.21314357221126556,
        -0.10781657695770264,
        0.036242417991161346,
        0.06782602518796921,
        -0.07141872495412827,
        0.11794980615377426,
        0.07928124815225601,
        -0.059651896357536316,
        -0.07198574393987656,
        0.05766027048230171,
        -0.44826599955558777,
        -0.31186607480049133,
        0.41096651554107666,
        -0.8059195280075073,
        0.2880610227584839,
        0.4448203146457672,
        0.6349142789840698,
        -0.3245590627193451,
        0.3246811628341675,
        -0.5705052018165588,
        0.6155744791030884,
        -0.3223027288913727,
        -0.3670707046985626,
        0.18511509895324707,
        0.21452298760414124,
        0.20340199768543243,
        -0.13622233271598816,
        -0.11596516519784927,
        -0.17133864760398865,
        -0.400112122297287,
        0.25730615854263306,
        0.14036929607391357,
        -0.026133257895708084,
        0.10775575786828995,
        0.1917295604944229,
        0.05588018149137497,
        0.1339331418275833,
        0.011825108900666237,
        -0.432819664478302,
        -0.4485769271850586,
        -0.1242397278547287,
        0.024966314435005188,
        0.21144109964370728,
        0.05483730509877205,
        0.0697217658162117,
        -0.12053761631250381,
        -0.3390274941921234,
        0.27736690640449524,
        0.170700341463089,
        -0.07477646321058273,
        0.07683920860290527,
        0.11424430459737778,
        -0.2287139892578125,
        0.08985935151576996,
        -0.009944886900484562,
        -0.5855162739753723,
        0.010076738893985748,
        0.259463369846344,
        -0.33730754256248474,
        0.4629930257797241,
        -0.10399686545133591,
        -0.01623399741947651,
        0.41622573137283325,
        0.024044157937169075,
        0.16034145653247833,
        -0.1658996045589447,
        0.06253254413604736,
        -0.38334789872169495,
        -0.03949767351150513,
        -0.012209422886371613,
        0.08351080864667892,
        0.17519673705101013,
        0.31779688596725464,
        0.05098959431052208,
        0.22264251112937927,
        -0.30992648005485535,
        -0.5370112657546997,
        -0.06808361411094666,
        0.23828446865081787,
        0.06274747848510742,
        -0.3475950062274933,
        0.212209552526474,
        0.01170278713107109,
        0.23080644011497498,
        0.12651672959327698,
        0.09789877384901047,
        0.18084916472434998,
        -0.07516652345657349,
        0.1354488730430603,
        0.20042604207992554,
        -0.15291717648506165,
        -0.1434755176305771,
        0.10766156762838364,
        -0.005484156310558319,
        -0.10946670174598694,
        -0.04294516146183014,
        0.061028480529785156,
        -0.02801411598920822,
        -0.1351178139448166,
        -0.30329054594039917,
        0.3021143972873688,
        -0.4531366229057312,
        0.3073008358478546,
        0.2048044502735138,
        0.049792252480983734,
        0.08820965886116028,
        0.3025655746459961,
        -0.023963015526533127,
        -0.21570441126823425,
        0.38366109132766724,
        -0.06930936872959137,
        0.14888650178909302,
        0.02787019871175289,
        -0.007172621786594391,
        0.12663935124874115,
        0.18904228508472443,
        -0.02743684872984886,
        0.3480055034160614,
        0.2034674882888794,
        0.12031424790620804,
        -0.2541588842868805,
        -0.0716170221567154,
        0.19903697073459625,
        -0.2379353940486908,
        -0.16572639346122742,
        0.5624933242797852,
        -0.11255260556936264,
        -0.002281222492456436,
        0.22954359650611877,
        -0.13693080842494965,
        -0.002763961674645543,
        0.10704480111598969,
        0.03606964647769928,
        0.15025348961353302,
        -0.2623530626296997,
        0.12598814070224762,
        -0.039346154779195786,
        -0.053764283657073975,
        -0.27254289388656616,
        -0.40381890535354614,
        0.19650661945343018,
        -0.05016059800982475,
        0.032221049070358276,
        0.35839560627937317,
        0.3003777861595154,
        0.1862999051809311,
        0.013375344686210155,
        0.23541153967380524,
        0.2765321731567383,
        -0.16181641817092896,
        0.05077280104160309,
        -0.12386975437402725,
        0.04509834572672844,
        0.09787274152040482,
        -0.025966834276914597,
        -0.11241951584815979,
        0.25440773367881775,
        0.14203177392482758,
        -0.23626287281513214,
        -0.4613651633262634,
        0.2790440618991852,
        0.006071215029805899,
        0.19176986813545227,
        -0.020222511142492294,
        0.042066577821969986,
        0.29831260442733765,
        0.2312043309211731,
        -0.05626367777585983,
        -0.1578211784362793,
        -0.21847017109394073,
        0.36490222811698914,
        -0.28594374656677246,
        -0.617447555065155,
        -0.3746807277202606,
        -0.26265183091163635,
        0.03874251991510391,
        0.27900391817092896,
        0.21131877601146698,
        0.1935996115207672,
        -0.09690751880407333,
        0.004231221508234739,
        -0.024386990815401077,
        -0.19560250639915466,
        0.12250494211912155,
        0.2023743838071823,
        -0.16387739777565002,
        -0.1105334535241127,
        0.012368686497211456,
        -0.1389903873205185,
        -0.21277764439582825,
        -0.09741086512804031,
        0.12639759480953217,
        -0.031602732837200165,
        0.05652076005935669,
        -0.1571514904499054,
        -0.16778531670570374,
        0.49346601963043213,
        -0.4451080560684204,
        0.0718112364411354,
        0.002465943107381463,
        0.04386188089847565,
        -0.011190425604581833,
        -0.3117746114730835,
        0.3140805661678314,
        0.3439994752407074,
        -0.29313743114471436,
        -0.12560589611530304,
        0.0215645469725132,
        0.13764707744121552,
        -0.09456951171159744,
        0.07776735723018646,
        0.09133114665746689,
        -0.11116793006658554,
        0.157993882894516,
        0.0312259029597044,
        -0.14826135337352753,
        -0.22747862339019775,
        -0.03484746813774109,
        0.31180429458618164,
        0.1453574299812317,
        -0.5375182032585144,
        -0.0792490541934967,
        -0.1942768543958664,
        -0.14691264927387238,
        0.2781786024570465,
        -0.12184261530637741,
        0.11858169734477997,
        -0.12826590240001678,
        -0.06689029932022095,
        0.14860111474990845,
        -0.436545193195343,
        0.16634909808635712,
        -0.10539889335632324,
        0.0004793036787305027,
        -0.13582980632781982,
        0.0645621046423912,
        0.2498393952846527,
        -0.3811890780925751,
        0.00789650995284319,
        -0.03834804520010948,
        0.1172214075922966,
        -0.03366745263338089,
        -0.31366631388664246,
        -0.09614528715610504,
        -0.3886699378490448,
        -0.11101743578910828,
        0.202969491481781,
        0.16522608697414398,
        -0.3124585747718811,
        -0.2156662791967392,
        -0.10692055523395538,
        -0.09759487956762314,
        -0.23364055156707764,
        0.07390523701906204,
        0.21595393121242523,
        -0.17900627851486206,
        -0.017406314611434937,
        0.0823773443698883,
        0.11905600875616074,
        0.17743846774101257,
        -0.385930597782135,
        0.13451577723026276,
        0.24098144471645355,
        -0.32147812843322754,
        -0.23992295563220978,
        -0.11813540011644363,
        -0.13336388766765594,
        -0.19510285556316376,
        -0.9156956672668457,
        0.27073922753334045,
        -0.1435297578573227,
        -0.03781156986951828,
        0.13018196821212769,
        0.07854748517274857,
        0.1656157225370407,
        0.01343562826514244,
        -0.18992643058300018,
        0.3876710534095764,
        -0.27044081687927246,
        0.03080347552895546,
        -0.08780483901500702,
        -0.13632901012897491,
        -0.013934270478785038,
        0.10753738880157471,
        -0.039960041642189026,
        -0.16564716398715973,
        0.10642845928668976,
        0.04795857146382332,
        0.1362755298614502,
        0.012879150919616222,
        -0.75089430809021,
        0.2652032673358917,
        -0.06483786553144455,
        -0.5643985867500305,
        0.811543345451355,
        0.6602197885513306,
        -0.7310096025466919,
        0.05637678503990173,
        0.30440202355384827,
        0.14641395211219788,
        0.09257509559392929,
        -0.09229052066802979,
        0.03735866770148277,
        0.44304531812667847,
        -0.39002737402915955,
        0.27284491062164307,
        -0.13714024424552917,
        -0.21353140473365784,
        -0.03294631093740463,
        -0.06163942813873291,
        0.057380300015211105,
        0.38291823863983154,
        0.017781123518943787,
        0.004865806549787521,
        -0.16667218506336212,
        -0.2788791358470917,
        0.22471235692501068,
        -1.0931326150894165,
        0.028229152783751488,
        -0.3758513629436493,
        0.14286111295223236,
        -0.4385407865047455,
        0.1356559544801712,
        -0.40298303961753845,
        -0.17860624194145203,
        -0.18783381581306458,
        0.22655920684337616,
        0.11318253725767136,
        0.46951809525489807,
        -0.12783613801002502,
        0.152657151222229,
        -0.3062874972820282,
        -0.15080325305461884,
        0.15130986273288727,
        -0.20887605845928192,
        0.09559641033411026,
        -0.051416974514722824,
        -0.040288325399160385,
        -0.009804695844650269,
        -0.30426159501075745,
        0.3351168632507324,
        -0.17363326251506805,
        0.01105855219066143,
        -0.20617178082466125,
        0.5447114109992981,
        0.06506795436143875,
        -0.11510822176933289,
        0.15946899354457855,
        -0.0328650064766407,
        0.03828565031290054,
        0.058134328573942184,
        0.21372151374816895,
        -0.06399659067392349,
        -0.2292628139257431,
        -0.03882669657468796,
        0.19130970537662506,
        0.1575852334499359,
        0.07268048822879791,
        -0.07615816593170166,
        -0.2638165056705475,
        -0.2790878415107727,
        -0.5180484652519226,
        -0.013405277393758297,
        -0.2006181925535202,
        -0.08288776129484177,
        -0.010000861249864101,
        -0.16126084327697754,
        -0.041647572070360184,
        -0.16881155967712402,
        -0.18408410251140594,
        0.21692906320095062,
        0.06475779414176941,
        -0.21582885086536407,
        0.461269736289978,
        0.07670020312070847,
        0.28851407766342163,
        -0.4154072105884552,
        -0.4988425672054291,
        -0.8349109888076782,
        -0.6512957215309143,
        -0.01260105799883604,
        0.13108427822589874,
        -0.24924294650554657,
        0.09426549822092056,
        -0.3835546672344208,
        0.14715613424777985,
        -0.07477453351020813,
        -0.07336033135652542,
        -0.03668661788105965,
        -0.16419155895709991,
        0.2860564887523651,
        0.2403075098991394,
        0.4506302773952484,
        -0.5388692021369934,
        -0.21843060851097107,
        -0.14280962944030762,
        0.27486515045166016,
        -0.14066116511821747,
        -0.12473541498184204,
        0.13891169428825378,
        0.23889032006263733,
        0.1080886498093605,
        -0.42590367794036865,
        0.13324207067489624,
        -0.14656785130500793,
        0.06911205500364304,
        0.12070702761411667,
        -0.10884949564933777,
        -0.09105680882930756,
        -0.2532770037651062,
        -0.10778499394655228,
        -0.15450884401798248,
        -0.1466272920370102,
        0.13793134689331055,
        -0.1107967346906662,
        0.0213785283267498,
        0.1193230077624321,
        -0.14726626873016357,
        -0.11001056432723999,
        0.0890343114733696,
        -0.1256135255098343,
        -0.19076991081237793,
        -0.06597517430782318,
        -0.3675667643547058,
        0.42449185252189636,
        -0.05843512341380119,
        -0.34972724318504333,
        0.013605105690658092,
        0.051832135766744614,
        -0.08954742550849915,
        0.05622274801135063,
        -0.31108200550079346,
        0.1263088434934616,
        0.0018668966367840767,
        0.03164605423808098,
        0.18553587794303894,
        0.1697179675102234,
        0.07835353910923004,
        0.2693880796432495,
        -0.18167339265346527,
        0.14991025626659393,
        0.042833395302295685,
        -0.1937120258808136,
        -0.06748934835195541,
        0.23184551298618317,
        -0.18112654983997345,
        -0.16817595064640045,
        -0.06420810520648956,
        0.0802360400557518,
        0.24908779561519623,
        0.008219067938625813,
        0.01528946589678526,
        -0.008522924967110157,
        -0.3568796217441559,
        0.1755487471818924,
        -0.11800803244113922,
        -0.12247246503829956,
        -0.23022806644439697,
        -0.09987055510282516,
        0.031948260962963104,
        -0.1903240978717804,
        0.03563927859067917,
        0.0562182292342186,
        0.21218706667423248,
        0.1098221093416214,
        0.01318914070725441,
        0.028221774846315384,
        -0.14792294800281525,
        -0.4235610067844391,
        0.0007031426066532731,
        0.1056499034166336,
        0.007642515003681183,
        0.2323705554008484,
        0.16352757811546326,
        -0.19281890988349915,
        0.07194320112466812,
        0.11839976161718369,
        -0.3274039328098297,
        -0.010693714953958988,
        0.006361011881381273,
        -0.07921227812767029,
        0.08769237995147705,
        -0.2550875246524811,
        0.2941860556602478,
        -0.02407230995595455,
        -0.10035770386457443,
        0.03930473327636719,
        -0.24946992099285126,
        0.12660585343837738,
        0.07445219904184341,
        0.010591226629912853,
        0.14029963314533234,
        -0.005744995083659887,
        0.2053017020225525,
        0.19533395767211914,
        -0.11757341772317886,
        -0.041289981454610825,
        0.09806092828512192,
        0.1468457132577896,
        -0.3310120105743408,
        0.1692616194486618,
        0.22820022702217102,
        -0.30605870485305786,
        -0.12049881368875504,
        0.1301993429660797,
        -0.19125545024871826,
        0.2574019134044647,
        0.34093156456947327,
        0.17626388370990753,
        0.11138663440942764,
        0.024452270939946175,
        0.19323262572288513,
        -0.0442158579826355,
        -0.04604001343250275,
        -0.01642671227455139,
        -0.07922963052988052,
        0.3118303418159485,
        -0.20160870254039764,
        0.34031984210014343,
        0.1296738237142563,
        0.37310680747032166,
        0.14708849787712097,
        -0.445214182138443,
        0.2250279188156128,
        -0.18653738498687744,
        0.3400546908378601,
        0.1481010764837265,
        -0.10815117508172989,
        -0.4544416069984436,
        0.10646556317806244,
        -0.04306814819574356,
        -0.15586255490779877,
        -0.030290061607956886,
        0.081688292324543,
        0.2561100125312805,
        -0.1936347633600235,
        0.011470118537545204,
        -0.23836009204387665,
        0.04893720522522926,
        0.049775246530771255,
        -0.00014285401266533881,
        0.03608489781618118,
        0.03991693630814552,
        0.010696761310100555,
        -0.05110101029276848,
        0.05444129928946495,
        0.1233564168214798,
        0.01356104388833046,
        -0.031890999525785446,
        -0.19260938465595245,
        -0.38574618101119995,
        -0.16441482305526733,
        0.21560117602348328,
        0.023920269683003426,
        -0.02422846294939518,
        0.07173705101013184,
        0.16938379406929016,
        0.14307311177253723,
        -0.4032628536224365,
        0.13540300726890564,
        0.14221063256263733,
        -0.1178152784705162,
        -0.09781727939844131,
        0.10404856503009796,
        0.11474501341581345,
        -0.15995901823043823,
        -0.11527333408594131,
        0.08738427609205246,
        -0.0007704586605541408,
        -0.09836520999670029,
        0.05463667958974838,
        -0.31825098395347595,
        -0.08924946933984756,
        -0.471388041973114,
        0.6638184189796448,
        0.3667522668838501,
        -0.4117576479911804,
        -0.20924930274486542,
        0.16311794519424438,
        -0.17855465412139893,
        0.4073632061481476,
        -0.23453648388385773,
        -0.06987037509679794,
        0.08071506023406982,
        -0.147560715675354,
        0.3902023136615753,
        -0.22031374275684357,
        -0.08219078928232193,
        0.15092188119888306,
        -0.2047804743051529,
        0.13696908950805664,
        0.5041958093643188,
        -0.1387108862400055,
        0.22458939254283905,
        0.38245224952697754,
        0.4184799790382385,
        0.30205225944519043,
        0.3135797679424286,
        -0.07382182776927948,
        -0.3953208923339844,
        0.12617944180965424,
        -0.052692048251628876,
        0.2045503854751587,
        0.2358940988779068,
        0.09888975322246552,
        0.35307207703590393,
        0.5694969296455383,
        -0.3966578543186188,
        0.43498554825782776,
        -0.2375180721282959,
        -0.1939529925584793,
        0.22884854674339294,
        -0.33149445056915283,
        0.1129322424530983,
        -0.2952713668346405,
        0.02676510624587536,
        -0.19854816794395447,
        0.3057129681110382,
        0.16200773417949677,
        0.11172766238451004,
        0.024421650916337967,
        0.07514985650777817,
        0.1390983611345291,
        -0.3641791045665741,
        -0.045703306794166565,
        -0.11644353717565536,
        0.3694806694984436,
        0.2711370587348938,
        -0.4238649606704712,
        -0.09558860212564468,
        -0.23209646344184875,
        0.664765477180481,
        0.07792223989963531,
        0.3735678791999817,
        0.1724659502506256,
        0.41309788823127747,
        0.2047269642353058,
        -0.23815852403640747,
        -0.0961272269487381,
        -0.062300462275743484,
        0.3893815577030182,
        0.1218797042965889,
        0.0874662920832634,
        -0.19466038048267365,
        -0.1931876689195633,
        0.20183080434799194,
        0.13979917764663696,
        0.08222151547670364,
        0.24377737939357758,
        -0.12413249164819717,
        0.12953177094459534,
        0.02596285007894039,
        0.04450118541717529,
        -0.12428643554449081,
        0.08000746369361877,
        0.1268487274646759,
        0.9128848910331726,
        0.7479729652404785,
        0.18186156451702118,
        0.0540461502969265,
        0.08013737201690674,
        0.03468795120716095,
        -0.06847495585680008,
        -0.14279676973819733,
        -0.18073830008506775,
        0.10383354872465134,
        -0.08093883097171783,
        -0.26116248965263367,
        0.2967227101325989,
        0.1241806223988533,
        -0.09607457369565964,
        -0.08713676780462265,
        -0.06912253051996231,
        -0.13328854739665985,
        0.0312742218375206,
        -0.16715925931930542,
        -0.08802332729101181,
        0.1885402500629425,
        0.03279195725917816,
        -0.16699545085430145,
        -0.23737983405590057,
        0.3006844222545624,
        -0.020790260285139084,
        -0.07789335399866104,
        -0.04142811521887779,
        0.022186899557709694,
        -0.0614234134554863,
        -0.0011047183070331812,
        -0.22757579386234283,
        -0.2101067155599594,
        0.0016344670439139009,
        -0.06133662164211273,
        0.2504138946533203,
        0.061126045882701874,
        -0.07716448605060577,
        -0.04104388877749443,
        0.17521531879901886,
        -0.02841757982969284,
        0.11187263578176498,
        -0.06937985122203827,
        -0.2007870227098465,
        0.024423757568001747,
        -0.1106601133942604,
        0.08484471589326859,
        0.22242926061153412,
        -0.12880687415599823,
        0.16050860285758972,
        0.15501509606838226,
        -0.07810696959495544,
        0.23956716060638428,
        0.2329702228307724,
        -0.07484983652830124,
        -0.19844754040241241,
        0.3274940550327301,
        -0.4215361773967743,
        0.18788209557533264,
        -0.35649845004081726,
        -0.013986860401928425,
        0.06316351145505905,
        -0.10336743295192719,
        0.33060064911842346,
        0.04175024852156639,
        0.041351206600666046,
        0.06310025602579117,
        0.08575993776321411,
        0.08838751167058945,
        0.20776541531085968,
        0.09087037295103073,
        0.030219916254281998,
        -0.21834613382816315,
        0.31101149320602417,
        0.049734972417354584,
        0.0009182819630950689,
        0.3945101797580719,
        -0.046816635876894,
        -0.209146186709404,
        -0.17121176421642303,
        -0.018507681787014008,
        -0.2990189492702484,
        -0.01950826123356819,
        0.036148007959127426,
        0.06952367722988129,
        -0.13945314288139343,
        0.07068993896245956,
        0.09320192784070969,
        -0.19880038499832153,
        0.14398232102394104,
        0.12692977488040924,
        0.0666472390294075,
        0.0984240248799324,
        -0.10850382596254349,
        0.08451379835605621,
        0.17812791466712952,
        0.18696191906929016,
        -0.058680132031440735,
        0.07329500466585159,
        -0.0433802492916584,
        0.05390162020921707,
        -0.256663978099823,
        -0.052167635411024094,
        0.0004892810829915106,
        -0.03073861449956894,
        -0.12690648436546326,
        0.29799050092697144,
        0.10088729858398438,
        -0.046138327568769455,
        0.11790628731250763,
        0.29743850231170654,
        -0.1875874400138855,
        0.043877799063920975,
        -0.054463405162096024,
        0.12783460319042206,
        0.1326379030942917,
        0.21680772304534912,
        0.20590418577194214,
        0.07743646949529648,
        -0.16777141392230988,
        -0.09560579061508179,
        0.15269538760185242,
        0.012616441585123539,
        0.11641687154769897,
        0.04657371714711189,
        -0.01967473328113556,
        -0.1998772770166397,
        0.04448803886771202,
        -0.0533841997385025,
        -0.16417844593524933,
        0.4999140202999115,
        0.1835443079471588,
        -0.12274850159883499,
        -0.4065244495868683,
        0.16978715360164642,
        -0.006467549130320549,
        0.14419595897197723,
        0.004621116444468498,
        0.14237868785858154,
        0.4257616102695465,
        0.1947520673274994,
        -0.055248308926820755,
        -0.19354046881198883,
        -0.3289513885974884,
        0.002913994714617729,
        0.3514416515827179,
        -0.12134888768196106,
        -0.11945538967847824,
        -0.11342765390872955,
        0.036852434277534485,
        -0.12468800693750381,
        -0.005714757833629847,
        -0.26634809374809265,
        0.07581938803195953,
        -0.2629607915878296,
        -0.07301577925682068,
        -0.1429298371076584,
        0.12970036268234253,
        -0.03447306901216507,
        -0.028914213180541992,
        0.0504610501229763,
        -0.013998869806528091,
        0.017377883195877075,
        0.27454355359077454,
        0.05410432070493698,
        -0.12810903787612915,
        -0.10135936737060547,
        -0.14319023489952087,
        0.24939654767513275,
        0.18840999901294708,
        0.07695752382278442,
        -0.14755696058273315,
        0.09220477193593979,
        -0.004869949538260698,
        0.037062983959913254,
        0.3494263291358948,
        0.028391344472765923,
        -0.21785080432891846,
        -0.15250474214553833,
        0.2136336714029312,
        0.08789727836847305,
        -0.3727647662162781,
        0.14797300100326538,
        0.06704417616128922,
        -0.24444115161895752,
        -0.3398679494857788,
        0.07306073606014252,
        -0.020115960389375687,
        -0.06561371684074402,
        -0.0701996386051178,
        -0.09935282915830612,
        -0.09081895649433136,
        0.030739275738596916,
        -0.5579685568809509,
        0.20971350371837616,
        0.22614887356758118,
        -0.08394564688205719,
        -0.45331206917762756,
        0.24585695564746857,
        -0.816137969493866,
        0.1341172307729721,
        0.30120253562927246,
        -0.42912381887435913,
        -0.07509257644414902,
        -0.35270261764526367,
        -0.22152383625507355,
        -0.6897594928741455,
        -0.2046961635351181,
        -0.03284487500786781,
        0.34713345766067505,
        0.25845664739608765,
        0.3110172152519226,
        -0.028510896489024162,
        -0.013201918452978134,
        0.004800437018275261,
        0.05584747716784477,
        -0.07092127203941345,
        0.2188219428062439,
        -0.2729179263114929,
        -0.10548520088195801,
        -0.2837469279766083,
        0.2305348664522171,
        0.15814675390720367,
        0.01816939376294613,
        -0.10340027511119843,
        0.3321261703968048,
        0.0922124832868576,
        -0.4692384600639343,
        -0.510039210319519,
        0.2639891505241394,
        -0.06160171702504158,
        -0.19345279037952423,
        0.19165490567684174,
        -0.13683797419071198,
        -0.14244727790355682,
        0.08694908022880554,
        0.08332903683185577,
        -0.20502333343029022,
        -0.08708968758583069,
        0.2195659875869751,
        0.2780371606349945,
        0.1133638471364975,
        -0.3562386631965637,
        0.3124953508377075,
        0.01568981446325779,
        -0.35101833939552307,
        -0.761086642742157,
        0.025498468428850174,
        -0.17089055478572845,
        -0.23372161388397217,
        0.29495611786842346,
        -0.24882300198078156,
        0.425673246383667,
        0.2342369705438614,
        0.2832310199737549,
        0.12436994165182114,
        0.2818436324596405,
        -0.26907581090927124,
        -0.05189913883805275,
        -0.011490036733448505,
        0.08387394994497299,
        0.3570397198200226,
        -0.27958470582962036,
        -0.3223221004009247,
        -0.1814989596605301,
        -0.27364838123321533,
        0.2613878548145294,
        -0.07766954600811005,
        -0.16347503662109375,
        0.02488926611840725,
        -0.17742818593978882,
        -0.15310290455818176,
        0.15549805760383606,
        -0.33748912811279297,
        0.020330453291535378,
        -0.07001587003469467,
        0.09299401938915253,
        -0.07352770864963531,
        -0.2280619889497757,
        0.26773765683174133,
        0.3126274645328522,
        0.04965579882264137,
        0.10730147361755371,
        0.0038481031078845263,
        0.11022034287452698,
        -0.042311932891607285,
        -0.065647192299366,
        0.21002571284770966,
        -0.09622211009263992,
        0.07934731245040894,
        0.13053658604621887,
        -0.06499040871858597,
        -0.5113651752471924,
        -0.5626990795135498,
        -0.38140740990638733,
        -0.24398237466812134,
        -0.38554996252059937,
        0.016745805740356445,
        -0.07541775703430176,
        0.26663726568222046,
        0.22471478581428528,
        0.14297105371952057,
        -0.034178249537944794,
        -0.13386626541614532,
        -0.26253238320350647,
        0.25975850224494934,
        0.06202729418873787,
        -0.11057917773723602,
        0.04976627603173256,
        -0.21855802834033966,
        0.10930629074573517,
        0.5641933083534241,
        0.03388436511158943,
        0.046752844005823135,
        -0.37883460521698,
        -0.06814539432525635,
        0.17935900390148163,
        -0.09460336714982986,
        0.20101390779018402,
        0.12938286364078522,
        -0.26166385412216187,
        0.25916123390197754,
        0.08720529824495316,
        -0.2979767918586731,
        -0.1407938152551651,
        -0.20154401659965515,
        0.0607149600982666,
        -0.12209375947713852,
        -0.03477902337908745,
        -0.010085497982800007,
        0.10902545601129532,
        -0.16169700026512146,
        0.08757311850786209,
        -0.10246201604604721,
        -0.020832553505897522,
        0.0978795662522316,
        0.5162304639816284,
        0.3266085088253021,
        0.1384889781475067,
        -0.3687017261981964,
        -0.2186364233493805,
        -0.16005189716815948,
        -0.022341877222061157,
        0.18263693153858185,
        0.2867964208126068,
        -0.14333531260490417,
        0.025158314034342766,
        0.4025273621082306,
        -0.14040453732013702,
        0.10978272557258606,
        -0.36521580815315247,
        -0.22946466505527496,
        -0.02440340258181095,
        0.22305625677108765,
        -0.06162159889936447,
        -0.1298193484544754,
        0.13587097823619843,
        0.020191267132759094,
        0.16061453521251678,
        0.4066232740879059,
        -0.1191832423210144,
        -0.05170408636331558,
        -0.24653935432434082,
        0.14545978605747223,
        0.16990411281585693,
        -0.08412493765354156,
        0.051206909120082855,
        0.11546148359775543,
        -0.13214616477489471,
        -0.8102328181266785,
        -0.27739739418029785,
        -0.35952961444854736,
        0.13526755571365356,
        -0.2670125961303711,
        0.006241317372769117,
        -0.1956351101398468,
        0.1916865110397339,
        0.3104708194732666,
        0.019103791564702988,
        0.04260805621743202,
        0.2557012140750885,
        -0.20925527811050415,
        0.11858213692903519,
        0.10596681386232376,
        -0.03190832585096359,
        -0.05249735340476036,
        -0.005196050275117159,
        0.15936310589313507,
        -0.020417161285877228,
        -0.2258623242378235,
        -0.000455195433460176,
        -0.3772759735584259,
        -0.10348439961671829,
        0.011999750509858131,
        0.09912417083978653,
        0.1004478707909584,
        0.29147854447364807,
        0.3232032060623169,
        0.20373523235321045,
        0.1811995804309845,
        0.09011048823595047,
        0.41744834184646606,
        0.1672149896621704,
        -0.09037547558546066,
        -0.11657683551311493,
        -0.10357216000556946,
        -0.09410543739795685,
        -0.1813075840473175,
        -0.4422556161880493,
        0.1919824182987213,
        0.13096509873867035,
        0.057142022997140884,
        0.1961824595928192,
        -0.1820608377456665,
        -0.053025249391794205,
        -0.18327157199382782,
        0.02951289713382721,
        -0.14385093748569489,
        0.3350156545639038,
        0.23884165287017822,
        0.049399759620428085,
        0.17144598066806793,
        0.021637367084622383,
        -0.0777326449751854,
        0.011264808475971222,
        0.0763794556260109,
        -0.2185327410697937,
        -0.005629031918942928,
        -0.012499709613621235,
        -0.021723154932260513,
        -0.21744976937770844,
        0.45027080178260803,
        -0.4100983738899231,
        0.08966473489999771,
        -0.24869389832019806,
        0.3559657037258148,
        -0.06231258437037468,
        -0.0515892431139946,
        -0.06586122512817383,
        0.02992083691060543,
        -0.26658353209495544,
        0.1529361754655838,
        -0.0027046746108680964,
        0.4275120496749878,
        0.23056736588478088,
        -0.01126797404140234,
        0.003639915492385626,
        -0.08203209191560745,
        -0.03414670005440712,
        -0.027250612154603004,
        -0.2874886393547058,
        0.01015407033264637,
        -0.022069118916988373,
        -0.14277863502502441,
        -0.08277659863233566,
        0.4415416419506073,
        -0.213704913854599,
        -0.011650154367089272,
        -0.19999472796916962,
        0.1969701051712036,
        -0.08818788826465607,
        0.01524446438997984,
        0.29384058713912964,
        0.0702238529920578,
        -0.1457686871290207,
        -0.04754658415913582,
        -0.15683652460575104,
        -0.0506802462041378,
        -0.013301592320203781,
        -0.0942893773317337,
        -0.36940813064575195,
        -0.017867563292384148,
        0.008386430330574512,
        -0.9292449355125427,
        -0.34864380955696106,
        -0.09378797560930252,
        0.6224175691604614,
        0.6881877183914185,
        -0.2591902017593384,
        -0.4583176076412201,
        -0.29434332251548767,
        -0.10830772668123245,
        0.21403029561042786,
        -0.06686999648809433,
        0.3944967985153198,
        0.05313847213983536,
        0.18438151478767395,
        0.1366272270679474,
        0.2162099927663803,
        0.08754674345254898,
        -0.38105306029319763,
        -0.02555830404162407,
        -0.1442182958126068,
        -0.39088118076324463,
        0.2482568323612213,
        -0.2520206570625305,
        -0.2455143928527832,
        0.27186319231987,
        -0.20105645060539246,
        0.23973703384399414,
        0.3553181290626526,
        0.1634902060031891,
        -0.15231935679912567,
        0.11480461061000824,
        0.09381004422903061,
        -0.11923006176948547,
        -0.38336440920829773,
        -0.3795665204524994,
        0.2965923249721527,
        -0.4511554539203644,
        0.39832237362861633,
        -0.24622976779937744,
        0.028876259922981262,
        0.12032397836446762,
        0.14189985394477844,
        -0.4665539264678955,
        -0.26142290234565735,
        -0.3133637607097626,
        0.2951890230178833,
        0.25453147292137146,
        0.026661302894353867,
        0.09858305752277374,
        -0.1758904904127121,
        -0.07129768282175064,
        -0.5893549919128418,
        -0.06636995077133179,
        -0.16503800451755524,
        -0.5408728122711182,
        -0.5473716855049133,
        0.21801672875881195,
        0.047820791602134705,
        0.0630740076303482,
        0.2257230579853058,
        -0.01602352038025856,
        -0.22960242629051208,
        -0.1086353212594986,
        0.2368321716785431,
        0.4699886441230774,
        -0.2565346658229828,
        -0.11917711049318314,
        -0.4395771622657776,
        0.2040930837392807,
        -0.14969520270824432,
        -0.3424263298511505,
        0.06282833218574524,
        0.25066661834716797,
        0.04257907345890999,
        -0.08795904368162155,
        0.3764410614967346,
        -0.08069738745689392,
        -0.15111187100410461,
        -0.17139506340026855,
        -0.16586537659168243,
        -0.37166377902030945,
        -0.30957409739494324,
        -0.2746548354625702,
        -0.05782633647322655,
        0.2600405514240265,
        -0.46258851885795593,
        0.05627397075295448,
        -0.23319950699806213,
        0.08008726686239243,
        0.20870761573314667,
        -0.00014264158380683511,
        -0.17343533039093018,
        -0.1466829627752304,
        -0.3933607339859009,
        0.17080117762088776,
        -0.013936257921159267,
        0.08712262660264969,
        -0.1591932475566864,
        0.2226531058549881,
        -0.3126835525035858,
        0.16368187963962555,
        0.14988692104816437,
        -0.2765018045902252,
        -0.28976699709892273,
        0.32407814264297485,
        0.04342825710773468,
        -0.23813413083553314,
        0.20872019231319427,
        -0.08361633867025375,
        0.20518341660499573,
        -0.16906453669071198,
        0.35658326745033264,
        0.10664293169975281,
        0.06969087570905685,
        0.048258282244205475,
        0.04168814793229103,
        0.28473684191703796,
        -0.5400442481040955,
        0.1879691779613495,
        0.18435245752334595,
        -0.19728995859622955,
        0.397016316652298,
        -0.1956910640001297,
        0.33891841769218445,
        -0.06730223447084427,
        0.29625266790390015,
        0.02959281951189041,
        0.03634757921099663,
        -0.09772007167339325,
        0.2794097363948822,
        -0.11882971227169037,
        -0.3362612724304199,
        -0.5762103796005249,
        -0.0884614884853363,
        0.08852650225162506,
        0.018926508724689484,
        0.09390701353549957,
        0.1226225346326828,
        0.1478988379240036,
        -0.17285920679569244,
        -0.0846044197678566,
        0.3115782141685486,
        -0.05943961441516876,
        0.3966238498687744,
        0.11461040377616882,
        0.45952755212783813,
        -0.034003548324108124,
        0.09080693125724792,
        0.1474047154188156,
        -0.07670626789331436,
        -0.04419643059372902,
        0.34986892342567444,
        -0.14964334666728973,
        0.005582192912697792,
        -0.07069211453199387,
        0.5062605738639832,
        0.028363073244690895,
        -0.017996804788708687,
        -0.03399132937192917,
        0.09179430454969406,
        -0.2251112163066864,
        -0.1116081178188324,
        0.25289326906204224,
        -0.13851535320281982,
        -0.004413760732859373,
        -0.4177803099155426,
        -0.4895710051059723,
        0.24863868951797485,
        0.18258002400398254,
        0.13104480504989624,
        -0.24994421005249023,
        0.013327255845069885,
        0.01949586533010006,
        0.36610648036003113,
        0.03081447072327137,
        0.3499627709388733,
        0.18573293089866638,
        0.1517268866300583,
        -0.3018343150615692,
        0.08373825997114182,
        -0.26764118671417236,
        -0.2874431908130646,
        -0.06380391120910645,
        -0.15660236775875092,
        -0.49756163358688354,
        0.265556275844574,
        -0.1550842672586441,
        0.34991714358329773,
        -0.09671754390001297,
        -0.007505102548748255,
        -0.06330432742834091,
        -0.18352055549621582,
        -0.07344815880060196,
        0.009491520002484322,
        -0.18458695709705353,
        0.1591685563325882,
        0.19508866965770721,
        -0.2604047656059265,
        -0.41749730706214905,
        0.41244012117385864,
        0.08083613961935043,
        -0.09434448182582855,
        -0.06513649970293045,
        -0.5084594488143921,
        0.03781319409608841,
        -0.4866666793823242,
        -0.6041820645332336,
        -0.1347820907831192,
        0.3527410626411438,
        0.20067863166332245,
        -0.1682555377483368,
        0.49614575505256653,
        -0.6079964637756348,
        0.37373456358909607,
        -0.541198194026947,
        0.008914615027606487,
        0.2287866175174713,
        0.44981151819229126,
        -0.013729671016335487,
        -0.17674553394317627,
        -0.010770471766591072,
        0.14280304312705994,
        -0.07554426789283752,
        -0.3805166780948639,
        -0.2634623050689697,
        0.585935115814209,
        0.37653326988220215,
        -0.06726671755313873,
        -0.37031057476997375,
        -0.14017030596733093,
        -0.5624324083328247,
        -0.0029818553011864424,
        -0.07911557704210281,
        0.1586769074201584,
        -0.5672785639762878,
        -0.03135349974036217,
        0.11908614635467529,
        0.14078077673912048,
        -0.23240165412425995,
        -0.10543201118707657,
        0.2792397737503052,
        0.4577646851539612,
        0.17341598868370056,
        0.09660757333040237,
        0.44301268458366394,
        0.0550452284514904,
        -0.5120103359222412,
        0.34977224469184875,
        -0.12790547311306,
        0.01819123886525631,
        0.26865896582603455,
        0.6915097236633301,
        -0.5025193691253662,
        -0.023935073986649513,
        -0.26464179158210754,
        0.15431427955627441,
        0.018855521455407143,
        0.19893936812877655,
        0.21235135197639465,
        -0.0735710933804512,
        -0.3289366364479065,
        -0.04156002774834633,
        0.09959301352500916,
        0.5042906403541565,
        -0.38669878244400024,
        -0.002080796519294381,
        -0.07037293165922165,
        -0.11950279772281647,
        0.12968456745147705,
        -0.2816467881202698,
        0.0282396599650383,
        0.1078190952539444,
        -0.14239344000816345,
        -0.023615140467882156,
        -0.2828488051891327,
        -0.17635485529899597,
        -0.3639780282974243,
        0.11512564867734909,
        -0.37062257528305054,
        -0.23464421927928925,
        -0.11663864552974701,
        0.3275620639324188,
        -0.3250751793384552,
        -0.450273722410202,
        0.17930395901203156,
        -0.44564417004585266,
        -0.1618708372116089,
        0.2465304732322693,
        0.16724614799022675,
        0.08866226673126221,
        -0.008637869730591774,
        -0.39478158950805664,
        0.16028888523578644,
        0.04390927404165268,
        0.1338275969028473,
        -0.41396579146385193,
        -0.1437099575996399,
        -0.08379096537828445,
        -0.14133277535438538,
        -0.12221153825521469,
        -0.2938539981842041,
        0.13555440306663513,
        0.2185942381620407,
        0.5623041391372681,
        0.15767063200473785,
        -0.2522863447666168,
        -0.14509783685207367,
        0.1691001057624817,
        -0.1013076975941658,
        -0.29373225569725037,
        -0.10065519064664841,
        -0.14864292740821838,
        -0.2900117337703705,
        -0.014284847304224968,
        0.12355472892522812,
        0.1248709186911583,
        -0.01763065904378891,
        -0.02188103273510933,
        -0.0770891010761261,
        -0.21649432182312012,
        0.0838039293885231,
        -0.23189173638820648,
        -0.0023374557495117188,
        0.03048309125006199,
        -0.06520125269889832,
        -0.024242756888270378,
        -0.09660128504037857,
        -0.019732680171728134,
        0.09027502685785294,
        0.2621411085128784,
        -0.3710290193557739,
        -0.19675421714782715,
        -0.02585429511964321,
        -0.03256585821509361,
        0.3682648539543152,
        -0.01842089556157589,
        -0.04498172178864479,
        -0.46546700596809387,
        -0.0561625175178051,
        -0.10933505743741989,
        -0.021923169493675232,
        0.025630462914705276,
        0.09561681747436523,
        -0.2813453674316406,
        0.2330777645111084,
        0.12320436537265778,
        -0.36172792315483093,
        0.19190478324890137,
        0.7676806449890137,
        0.11522947251796722,
        0.7142769694328308,
        -0.3364752531051636,
        -0.5531061887741089,
        -1.195322036743164,
        -0.21846707165241241,
        -0.2522713840007782,
        -0.5240286588668823,
        -0.35299792885780334,
        -0.4547191560268402,
        0.24298901855945587,
        -0.1751781404018402,
        0.14588662981987,
        -0.3034186065196991,
        0.6608793139457703,
        0.2565343379974365,
        0.45187661051750183,
        0.020985551178455353,
        0.18647168576717377,
        0.5870696902275085,
        -0.0003894715628121048,
        -0.4154331684112549,
        0.41726091504096985,
        0.08837516605854034,
        -0.3436676561832428,
        -0.021266618743538857,
        -0.2563505470752716,
        0.5356632471084595,
        0.26586228609085083,
        0.2245311737060547,
        0.15564334392547607,
        0.3223687410354614,
        -0.0220071692019701,
        0.33666467666625977,
        0.5225784778594971,
        0.16689807176589966,
        -0.14568491280078888,
        -0.1500253677368164,
        -0.07567963004112244,
        0.40483126044273376,
        0.045964278280735016,
        0.29857712984085083,
        0.0925501212477684,
        0.46134069561958313,
        0.2036449909210205,
        0.2643236219882965,
        0.26528191566467285,
        0.2528437376022339,
        -0.6011108160018921,
        -0.40243178606033325,
        -0.0727958232164383,
        0.42596983909606934,
        0.27095338702201843,
        0.1111615002155304,
        -0.21363447606563568,
        0.00638948567211628,
        -0.07060450315475464,
        0.1937577724456787,
        -0.006176002789288759,
        -0.2951245605945587,
        0.15066492557525635,
        -0.11479874700307846,
        0.07507225126028061,
        -0.623723566532135,
        -0.3849160969257355,
        -0.2957098186016083,
        0.25249335169792175,
        -0.22037562727928162,
        -0.1554277539253235,
        0.002473643748089671,
        -0.04282382130622864,
        0.2310725897550583,
        0.03455907851457596,
        0.14108198881149292,
        0.6972641944885254,
        -0.33576124906539917,
        0.4458426833152771,
        -0.18126514554023743,
        -0.32213130593299866,
        0.527656614780426,
        -0.1440812200307846,
        0.3062736988067627,
        -0.2516136169433594,
        0.032026320695877075,
        0.48645099997520447,
        0.2935284376144409,
        0.10887031257152557,
        -0.7823370099067688,
        -0.16493099927902222,
        0.0334446094930172,
        -0.029622606933116913,
        0.10893771052360535,
        0.1618763655424118,
        0.21501006186008453,
        -0.5443262457847595,
        -0.12351221591234207,
        -0.13672283291816711,
        -0.1387939304113388,
        0.1635209023952484,
        -0.27062591910362244,
        0.11013676226139069,
        -0.0018993866397067904,
        0.050832681357860565,
        -0.12651284039020538,
        -0.00018715491751208901,
        -0.010030309669673443,
        0.843848466873169,
        -0.07634492218494415,
        0.5372431874275208,
        -0.09584590792655945,
        -0.027970874682068825,
        0.21921907365322113,
        -0.4274943470954895,
        -0.3984921872615814,
        -0.10787246376276016,
        -0.01716620661318302,
        0.09800294786691666,
        0.3269931375980377,
        0.46466922760009766,
        0.1330885887145996,
        0.24857906997203827,
        0.17790089547634125,
        0.688406229019165,
        0.07416029274463654,
        0.40588968992233276,
        -0.02641611546278,
        -0.07575103640556335,
        -0.5166123509407043,
        0.08019766956567764,
        -0.2721123993396759,
        -0.16899992525577545,
        0.22729140520095825,
        0.005401308182626963,
        -0.42602282762527466,
        -0.20092342793941498,
        0.20816095173358917,
        0.18708665668964386,
        -0.25267866253852844,
        0.15633130073547363,
        -0.029110513627529144,
        -0.2033654898405075,
        -0.3365170359611511,
        -0.3432199954986572,
        0.23431451618671417,
        0.08321382105350494,
        -0.13794846832752228,
        -0.010912096127867699,
        0.25515156984329224,
        -0.016788937151432037,
        -0.1608191281557083,
        -0.3053390681743622,
        -0.27871862053871155,
        0.03468805551528931,
        0.17464213073253632,
        -0.23274382948875427,
        -0.3270516097545624,
        0.17376169562339783,
        0.4220060408115387,
        -0.18968896567821503,
        0.34088578820228577,
        0.3280935287475586,
        -0.34000086784362793,
        0.20662380754947662,
        0.3326927423477173,
        -0.18445122241973877,
        -0.6682645678520203,
        0.22642387449741364,
        0.22933922708034515,
        0.01049596257507801,
        0.059680044651031494,
        -0.3677782118320465,
        -0.013115751557052135,
        0.2026747763156891,
        -0.5073966979980469,
        0.4327360689640045,
        0.05296258255839348,
        -0.010377303697168827,
        0.32494670152664185,
        0.022848837077617645,
        0.08468576520681381,
        0.327821284532547,
        -0.049030937254428864,
        0.04387349262833595,
        -0.33277627825737,
        0.02367117814719677,
        -0.20283016562461853,
        0.38394781947135925,
        -0.049358125776052475,
        0.008925922214984894,
        -0.309172660112381,
        -0.2546648681163788,
        -0.2569088041782379,
        0.28239306807518005,
        0.10503637790679932,
        0.26400670409202576,
        -0.08197052776813507,
        0.34584882855415344,
        0.23536084592342377,
        0.44313815236091614,
        0.16700999438762665,
        0.03782256320118904,
        -0.13196587562561035,
        0.004772534128278494,
        -0.09271997958421707,
        0.4784645140171051,
        -0.007973523810505867,
        0.11038041859865189,
        -0.3423100709915161,
        0.17110735177993774,
        -0.09257416427135468,
        0.3405586779117584,
        -0.14079059660434723,
        -0.07807111740112305,
        0.22871637344360352,
        0.061776310205459595,
        -0.0805659294128418,
        -0.41356050968170166,
        -0.02825244702398777,
        -0.338165283203125,
        0.051260631531476974,
        -0.11669571697711945,
        0.22867533564567566,
        -0.09127029776573181,
        0.41883936524391174,
        -0.0433957464993,
        0.3796711266040802,
        0.1127638965845108,
        -0.011173389852046967,
        0.16972123086452484,
        -0.24802839756011963,
        0.7783781886100769,
        -0.17566823959350586,
        0.27472802996635437,
        0.2801431715488434,
        -0.37683260440826416,
        -0.3844781816005707,
        -0.434982568025589,
        0.3061680197715759,
        -0.02721511572599411,
        0.698980987071991,
        -0.05565959960222244,
        0.009249728173017502,
        -0.2395230084657669,
        -0.47183722257614136,
        0.33116236329078674,
        -0.17496992647647858,
        -0.1253158003091812,
        -0.21998187899589539,
        -0.27774569392204285,
        0.12070375680923462,
        -0.09926040470600128,
        0.08601459860801697,
        0.07520978897809982,
        -0.08279286324977875,
        0.12200934439897537,
        0.08512143045663834,
        0.4828808903694153,
        -0.20106501877307892,
        -0.021565888077020645,
        0.10706643760204315,
        0.0025244001299142838,
        -0.3479410707950592,
        0.587835431098938,
        0.13249774277210236,
        0.321363627910614,
        0.07333973795175552,
        0.1404368132352829,
        0.0953587219119072,
        -0.3497999906539917,
        -0.013171782717108727,
        0.20224246382713318,
        0.10625911504030228,
        0.15914954245090485,
        0.07490526139736176,
        0.25876739621162415,
        0.1966092735528946,
        0.05190104991197586,
        -0.15152978897094727,
        -0.0898563340306282,
        -0.2509240210056305,
        0.1888846904039383,
        0.07031239569187164,
        -0.23218247294425964,
        -0.2763247787952423,
        0.024451669305562973,
        -0.3982938230037689,
        -0.2685307264328003,
        0.27015307545661926,
        -0.03906905651092529,
        -0.10787488520145416,
        -0.2766992449760437,
        -0.017145760357379913,
        -0.4453069567680359,
        0.16858401894569397,
        0.006759245414286852,
        -0.016109686344861984,
        -0.1078888550400734,
        -0.02464725449681282,
        -0.3652263581752777,
        -0.28301727771759033,
        0.10325818508863449,
        -0.04486752301454544,
        -0.11071614921092987,
        -2.4854016304016113,
        -0.13198918104171753,
        0.2261059433221817,
        -1.7204296588897705,
        0.045372091233730316,
        -0.7020401358604431,
        0.15210621058940887,
        0.2597098648548126,
        -0.3111099600791931,
        0.48734208941459656,
        -0.460987389087677,
        0.08720700442790985,
        0.016059905290603638,
        -0.2954288721084595,
        0.39370790123939514,
        0.25555676221847534,
        -0.6092797517776489,
        -0.20809906721115112,
        0.08732257783412933,
        -0.16975334286689758,
        -0.17370684444904327,
        -0.21466965973377228,
        0.13876274228096008,
        -0.16124653816223145,
        -0.2572626769542694,
        -0.005959068424999714,
        -0.12150461971759796,
        -0.10706286132335663,
        0.5920003056526184,
        0.1841268539428711,
        -0.2758842706680298,
        0.06602784246206284,
        -0.3205869495868683,
        0.5019518733024597,
        0.42221710085868835,
        0.6909945011138916,
        -0.24549372494220734,
        -0.14713825285434723,
        -0.2783331274986267,
        -0.2057497501373291,
        -0.5070008039474487,
        0.09274039417505264,
        0.0019147167913615704,
        0.3102317154407501,
        -0.5557706356048584,
        0.5855715274810791,
        0.5700408816337585,
        -0.1165749579668045,
        0.07061462849378586,
        0.04445480555295944,
        0.5822592377662659,
        -0.0431649386882782,
        -0.12297921627759933,
        -0.2534710466861725,
        -0.22801294922828674,
        -0.00871580932289362,
        -0.5526635646820068,
        0.04525291547179222,
        0.12508125603199005,
        0.09496742486953735,
        0.3573738932609558,
        0.0766175240278244,
        -0.07789982855319977,
        -0.14307117462158203,
        -0.058528125286102295,
        0.09609705209732056,
        0.02875620871782303,
        -0.09909117966890335,
        -0.07096593827009201,
        -0.21201515197753906,
        -0.005408693570643663,
        -0.23260395228862762,
        -0.3095308542251587,
        0.11824648082256317,
        -0.2557077705860138,
        -0.1425536870956421,
        0.5791528820991516,
        -0.7790516018867493,
        0.7931854724884033,
        0.32273194193840027,
        0.021431492641568184,
        0.018461836501955986,
        -0.350273072719574,
        0.38549163937568665,
        -0.33544740080833435,
        -0.8438675999641418,
        0.5225227475166321,
        -0.6361700296401978,
        0.3578983247280121,
        0.7031719088554382,
        -0.17190659046173096,
        -0.20000480115413666,
        -0.6226240396499634,
        0.4161907434463501,
        -0.033363763242959976,
        0.6606353521347046,
        -0.019200524315238,
        0.6558042764663696,
        -0.28063395619392395,
        -0.21395383775234222,
        0.3055124878883362,
        0.011917752213776112,
        0.137773334980011,
        -0.08732688426971436,
        -0.01795273832976818,
        0.263284832239151,
        -0.16916997730731964,
        -0.2158600240945816,
        0.1503528505563736,
        0.15258805453777313,
        0.18207402527332306,
        0.2842610478401184,
        0.2046591341495514,
        -0.03917890414595604,
        0.43255162239074707,
        0.14859165251255035,
        -0.17685610055923462,
        0.024856137111783028,
        0.22276881337165833,
        0.14233127236366272,
        -0.1177646666765213,
        0.24797895550727844,
        0.262082576751709,
        -0.05347433686256409,
        0.19819091260433197,
        0.1491778939962387,
        0.25659140944480896,
        -0.2841959595680237,
        -0.04550940543413162,
        0.17950114607810974,
        0.20866994559764862,
        0.3377175033092499,
        -0.3267692029476166,
        0.13329114019870758,
        0.01385765615850687,
        0.09093309938907623,
        0.18343952298164368,
        0.01274482998996973,
        -0.1911119967699051,
        0.3465980887413025,
        0.10826001316308975,
        -0.06403995305299759,
        -0.06513380259275436,
        0.12762406468391418,
        -0.32978278398513794,
        -0.15637463331222534,
        -0.1305844634771347,
        0.2003135234117508,
        0.16921502351760864,
        -0.06603995710611343,
        0.18033088743686676,
        -0.3597336709499359,
        -0.14016102254390717,
        0.1485758274793625,
        0.11746791750192642,
        -0.14254267513751984,
        0.2250271737575531,
        -0.7780903577804565,
        -0.012800361029803753,
        0.7602357268333435,
        0.6271001100540161,
        -0.7158400416374207,
        -0.5123323202133179,
        0.05510152503848076,
        -0.6682620644569397,
        -0.07779965549707413,
        0.30722886323928833,
        0.21061699092388153,
        0.451421320438385,
        0.7376381754875183,
        -0.20446112751960754,
        -0.7188260555267334,
        -0.3022927939891815,
        0.4576137661933899,
        -0.9536976218223572,
        -0.592674970626831,
        -0.27028337121009827,
        -0.24869759380817413,
        -0.0808730348944664,
        -0.05408458784222603,
        -0.2016584426164627,
        -0.4320666193962097,
        0.14798176288604736,
        -0.026432855054736137,
        0.21199214458465576,
        -0.03674818202853203,
        0.16192227602005005,
        0.40233954787254333,
        -0.30023449659347534,
        0.008985533379018307,
        -0.14803187549114227,
        -0.060346078127622604,
        0.3068130910396576,
        -0.11164278537034988,
        0.15413667261600494,
        -0.19097666442394257,
        -0.2956395745277405,
        0.3092362880706787,
        0.2248474657535553,
        0.2439344972372055,
        -0.47845205664634705,
        -0.4721546173095703,
        0.36887818574905396,
        -0.047585587948560715,
        0.007067447528243065,
        -0.2674839198589325,
        -0.21586179733276367,
        -0.1891481578350067,
        0.2134895622730255,
        0.023666683584451675,
        0.015674352645874023,
        -0.15881940722465515,
        0.17378154397010803,
        -0.22622275352478027,
        -0.13359585404396057,
        0.21971915662288666,
        0.3649226725101471,
        0.48318660259246826,
        -0.8306903839111328,
        -0.21737727522850037,
        -0.103169746696949,
        -0.3910541832447052,
        0.0817958191037178,
        -0.7912454009056091,
        -0.4787713289260864,
        -0.4251070022583008,
        3.617777792896959e-06,
        0.7962717413902283,
        0.2594796121120453,
        -0.1602897197008133,
        0.21534186601638794,
        0.042505308985710144,
        -0.30267980694770813,
        -0.19033627212047577,
        -0.6719446182250977,
        0.2075151801109314,
        0.8217135667800903,
        0.5439710021018982,
        0.4182775914669037,
        -0.5461857318878174,
        -0.670771062374115,
        0.4412740468978882,
        -0.07182734459638596,
        0.9155009388923645,
        -0.18545132875442505,
        -0.353520005941391,
        -0.2719813287258148,
        0.30628737807273865,
        -0.17244699597358704,
        -0.09643008559942245,
        0.010671216994524002,
        0.18907961249351501,
        0.37386053800582886,
        -0.11964242160320282,
        -0.04276109114289284,
        0.18574966490268707,
        -0.16179285943508148,
        0.2416914701461792,
        0.12484081089496613,
        -0.3900502324104309,
        -0.4472457468509674,
        0.5339394211769104,
        0.2736721336841583,
        0.09672949463129044,
        -0.3542933762073517,
        0.16384536027908325,
        0.128468856215477,
        0.11047693341970444,
        -0.2901863157749176,
        0.18718047440052032,
        0.17794114351272583,
        0.17984528839588165,
        -0.41705042123794556,
        0.3048251271247864,
        0.17582745850086212,
        -0.26588326692581177,
        -0.002619513077661395,
        0.17190399765968323,
        0.16955450177192688,
        -0.2852522134780884,
        -0.2262045294046402,
        0.11227325350046158,
        0.14098718762397766,
        0.2549158036708832,
        -0.31437671184539795,
        -0.22016334533691406,
        0.15616059303283691,
        -0.06549333781003952,
        0.060497432947158813,
        -0.1955716907978058,
        -0.10546477884054184,
        -0.09579332172870636,
        0.29226160049438477,
        0.2672291398048401,
        0.2974177598953247,
        -0.11120881885290146,
        0.16405418515205383,
        0.028585776686668396,
        -0.3547370433807373,
        -0.03157472610473633,
        0.057462140917778015,
        -0.21977455914020538,
        -0.10759781301021576,
        -0.10713308304548264,
        0.1661273092031479,
        0.25354257225990295,
        -0.3611491024494171,
        0.8954325914382935,
        0.19217006862163544,
        -0.7085177898406982,
        -0.5843878388404846,
        0.6428471207618713,
        0.2661300599575043,
        0.07483476400375366,
        -0.35128477215766907,
        0.2527790665626526,
        0.13695816695690155,
        -0.3825787603855133,
        -0.2890101969242096,
        1.0808916091918945,
        -0.39757239818573,
        0.15138815343379974,
        -0.3939066529273987,
        -0.10986753553152084,
        0.08599114418029785,
        -0.06765366345643997,
        -0.07781639695167542,
        -0.20577698945999146,
        -0.15908126533031464,
        0.14249287545681,
        -0.15150558948516846,
        -0.302705317735672,
        -0.19984553754329681,
        0.19665773212909698,
        -0.07885326445102692,
        -0.050377000123262405,
        -0.646412193775177,
        0.5651743412017822,
        -0.15437418222427368,
        0.015169711783528328,
        -0.12277138978242874,
        0.05460783839225769,
        0.02868335321545601,
        -0.15802980959415436,
        -0.32299351692199707,
        0.7751243710517883,
        -0.0886571928858757,
        0.5334561467170715,
        -0.23194186389446259,
        -0.17801854014396667,
        -0.004260541405528784,
        0.5017913579940796,
        0.02449684962630272,
        0.35268110036849976,
        0.31939461827278137,
        0.05188775435090065,
        0.031437624245882034,
        0.01990308053791523,
        -0.1156289130449295,
        -0.004715903662145138,
        0.3030615448951721,
        -0.11153265833854675,
        -0.1699286699295044,
        -0.3187776207923889,
        0.13572649657726288,
        -0.04575847461819649,
        -0.029403094202280045,
        -0.037767015397548676,
        0.31141993403434753,
        -0.026183756068348885,
        -0.07845274358987808,
        -0.43987154960632324,
        0.8450303077697754,
        -0.02206851914525032,
        -0.48139461874961853,
        0.2241460680961609,
        -0.06155601888895035,
        0.28357523679733276,
        -0.3979093134403229,
        -0.34555336833000183,
        -0.3295929431915283,
        0.25289422273635864,
        0.681197464466095,
        0.42330145835876465,
        -0.06447160989046097,
        0.10699351876974106,
        -0.7484316229820251,
        0.27343010902404785,
        0.5342857241630554,
        0.47245150804519653,
        0.031113967299461365,
        -0.2907167971134186,
        0.7251546382904053,
        0.04168546199798584,
        -0.27427348494529724,
        -0.7493737936019897,
        -0.11624818295240402,
        -0.012996622361242771,
        0.10875438898801804,
        0.15094317495822906,
        -0.06380776315927505,
        0.35092827677726746,
        0.03410167992115021,
        0.26226943731307983,
        -0.05113489180803299,
        -0.04557828977704048,
        -0.17979860305786133,
        -0.05130081623792648,
        0.006719736848026514,
        0.5495944619178772,
        0.08355903625488281,
        -0.11050785332918167,
        -0.25625118613243103,
        0.32164761424064636,
        0.20864440500736237,
        0.3887200653553009,
        -0.08391954004764557,
        -0.35054251551628113,
        -0.17081375420093536,
        -0.0103817293420434,
        0.008151907473802567,
        -0.21692071855068207,
        -0.11947321891784668,
        -0.16851752996444702,
        -0.4147653579711914,
        0.01929132081568241,
        0.28981444239616394,
        -0.6658082008361816,
        0.136535182595253,
        -0.0331660620868206,
        0.010813343338668346,
        -0.05399724468588829,
        -0.11742106080055237,
        -0.11302797496318817,
        -0.09620194882154465,
        -0.005159546155482531,
        -0.24980714917182922,
        -0.024035245180130005,
        0.2686520516872406,
        0.3208536207675934,
        0.11758552491664886,
        -0.13337750732898712,
        -0.23134921491146088,
        -0.04816474765539169,
        0.08582503348588943,
        0.35517120361328125,
        -0.16807493567466736,
        -0.06027092784643173,
        0.3263225257396698,
        0.026107782498002052,
        0.017489802092313766,
        -0.5230067372322083,
        0.20506347715854645,
        -0.12144429236650467,
        0.044449664652347565,
        -0.2045845091342926,
        0.3881969153881073,
        -0.8550680875778198,
        -0.5312656164169312,
        0.45450982451438904,
        -0.12091034650802612,
        -0.04836457967758179,
        -0.23046547174453735,
        0.3559243679046631,
        0.2869518995285034,
        -0.44128191471099854,
        -0.050015389919281006,
        0.1681065559387207,
        0.4823986291885376,
        -0.11955636739730835,
        0.3069649934768677,
        -0.028011441230773926,
        -0.1917715072631836,
        0.30598050355911255,
        -0.4455450773239136,
        0.41890019178390503,
        0.4994143843650818,
        -0.1365121603012085,
        0.1975109577178955,
        0.49860215187072754,
        0.3930089473724365,
        0.5707327723503113,
        1.0446583032608032,
        -0.5145595073699951,
        0.25943538546562195,
        0.019999999552965164
    ]
}