{
    "version": "0.5.0",
    "architecture": "WaveNet",
    "config": {
        "layers": [
            {
                "input_size": 1,
                "condition_size": 1,
                "head_size": 8,
                "channels": 16,
                "kernel_size": 3,
                "dilations": [
                    1,
                    2,
                    4,
                    8,
                    16,
                    32,
                    64,
                    128,
                    256,
                    512
                ],
                "activation": "Tanh",
                "gated": false,
                "head_bias": false
            },
            {
                "input_size": 16,
                "condition_size": 1,
                "head_size": 1,
                "channels": 8,
                "kernel_size": 3,
                "dilations": [
                    1,
                    2,
                    4,
                    8,
                    16,
                    32,
                    64,
                    128,
                    256,
                    512
                ],
                "activation": "Tanh",
                "gated": false,
                "head_bias": true
            }
        ],
        "head": null,
        "head_scale": 0.02
    },
    "weights": [
        -0.008080686442553997,
        0.45618945360183716,
        -0.8620624542236328,
        -0.7727564573287964,
        -0.36986368894577026,
        0.30375826358795166,
        -0.00014772750728297979,
        0.8759384155273438,
        -0.16620631515979767,
        0.27598702907562256,
        -0.35952886939048767,
        -0.2258542776107788,
        -0.9674881100654602,
        -0.6423885822296143,
        -0.5058441758155823,
        0.000386258092476055,
        0.04609369859099388,
        -0.006568967830389738,
        -0.050933465361595154,
        -0.019768184050917625,
        0.16447508335113525,
        0.05760836601257324,
        -0.07857061177492142,
        -0.008978837169706821,
        0.037056680768728256,
        -0.0330219566822052,
        0.013518186286091805,
        -0.07353907823562622,
        -0.13000451028347015,
        -0.14412930607795715,
        0.013173419050872326,
        0.16462920606136322,
        0.01508195511996746,
        -0.13362333178520203,
        -0.11131317168474197,
        -0.21312206983566284,
        0.004355620127171278,
        0.1716558188199997,
        0.18051250278949738,
        0.008162092417478561,
        -0.022033873945474625,
        -0.1747635155916214,
        0.10730906575918198,
        -0.0958084985613823,
        0.0033913436345756054,
        -0.14422708749771118,
        0.049832362681627274,
        -0.024963190779089928,
        0.0036321557126939297,
        -0.04252632334828377,
        -0.016048967838287354,
        0.21304844319820404,
        0.009354724548757076,
        -0.09719477593898773,
        0.1567138433456421,
        -0.131142258644104,
        -0.08775603771209717,
        -0.049811165779829025,
        -0.14270402491092682,
        -0.18606360256671906,
        0.13311320543289185,
        0.08227155357599258,
        -0.080689936876297,
        0.1168198436498642,
        0.03470722213387489,
        0.020376214757561684,
        -0.01207930501550436,
        0.017388997599482536,
        -0.00859253853559494,
        0.10456635057926178,
        -0.09268434345722198,
        0.04882504418492317,
        0.09380974620580673,
        0.13784414529800415,
        0.22683410346508026,
        0.16367599368095398,
        0.04141368716955185,
        -0.030032359063625336,
        0.043716806918382645,
        -0.10008963197469711,
        -0.22640778124332428,
        0.1009751558303833,
        0.0928262248635292,
        -0.08828273415565491,
        0.013548296876251698,
        -0.04259170964360237,
        -0.12480217218399048,
        -0.1022954210639,
        0.05354272201657295,
        -0.0036692945286631584,
        0.06642888486385345,
        0.06080089136958122,
        0.009161301888525486,
        0.025183988735079765,
        -0.13106320798397064,
        0.00046457679127343,
        0.10136409103870392,
        0.03724314272403717,
        -0.02214718610048294,
        -0.05804614722728729,
        0.15519796311855316,
        0.1991473138332367,
        -0.02551724761724472,
        -0.01846376433968544,
        -0.037360645830631256,
        0.03273848444223404,
        -0.09514614194631577,
        -0.014412335120141506,
        0.02363675646483898,
        -0.09897531569004059,
        -0.12185141444206238,
        0.016504913568496704,
        -0.0537228025496006,
        0.07369143515825272,
        0.2092655748128891,
        -0.0991024300456047,
        0.06094779819250107,
        -0.08518896251916885,
        -0.006982251536101103,
        -0.06743980199098587,
        0.14656668901443481,
        -0.017587121576070786,
        -0.17099538445472717,
        0.16027945280075073,
        -0.15700991451740265,
        -0.17796340584754944,
        0.06380795687437057,
        -0.053511377424001694,
        0.039954621344804764,
        -0.21950532495975494,
        -0.008048756048083305,
        -0.02827136218547821,
        0.04241423308849335,
        0.018717734143137932,
        0.20319423079490662,
        -0.10769747197628021,
        0.0035075184423476458,
        -0.0898117795586586,
        0.15762895345687866,
        0.10671738535165787,
        0.22516585886478424,
        -0.013710555620491505,
        0.11929851025342941,
        -0.1014205664396286,
        -0.027484778314828873,
        -0.0814243033528328,
        0.008276875130832195,
        0.10512913763523102,
        -0.09856398403644562,
        -0.21126873791217804,
        -0.04470280185341835,
        -0.14655175805091858,
        -0.12786997854709625,
        0.17225132882595062,
        0.0566573292016983,
        -0.23477134108543396,
        0.1894395798444748,
        -0.07270893454551697,
        -0.039444807916879654,
        -0.0004590352764353156,
        0.0046441457234323025,
        0.054275255650281906,
        -0.20513013005256653,
        -0.2076975554227829,
        -0.12463784217834473,
        0.07716356217861176,
        0.024570494890213013,
        0.16122259199619293,
        -0.20312997698783875,
        0.07869274169206619,
        0.2331182211637497,
        -0.13342170417308807,
        0.21030211448669434,
        0.14989620447158813,
        -0.21376439929008484,
        0.011701867915689945,
        -0.1136736273765564,
        0.018299343064427376,
        0.14476783573627472,
        -0.04012962058186531,
        -0.09840339422225952,
        -0.11871765553951263,
        -0.002239893889054656,
        0.11565497517585754,
        0.13722848892211914,
        0.13825389742851257,
        -0.13973355293273926,
        -0.10705838352441788,
        -0.2132987082004547,
        0.1660531461238861,
        0.19523842632770538,
        0.19583545625209808,
        -0.18572364747524261,
        0.08290401846170425,
        -0.004801142495125532,
        -0.16579149663448334,
        0.00435046898201108,
        0.15515299141407013,
        -0.1593438684940338,
        0.08317320793867111,
        0.11022784560918808,
        0.017202431336045265,
        -0.024499621242284775,
        0.0020946741569787264,
        -0.1654166579246521,
        0.14966750144958496,
        0.014919919893145561,
        0.12925395369529724,
        0.08583305776119232,
        0.10733316838741302,
        -0.05523281916975975,
        -0.1233033835887909,
        -0.11012155562639236,
        1.7381846191710792e-05,
        0.10090073943138123,
        0.15183493494987488,
        -0.1424463391304016,
        0.024356398731470108,
        0.24893589317798615,
        -0.14825299382209778,
        0.08167487382888794,
        0.26703229546546936,
        0.012516309507191181,
        -0.0866566076874733,
        -0.24770405888557434,
        0.11173256486654282,
        -0.05169539526104927,
        0.06322413682937622,
        -0.11340083181858063,
        -0.12135806679725647,
        -0.12998585402965546,
        0.15106630325317383,
        0.09654207527637482,
        0.24095037579536438,
        0.028133202344179153,
        -0.17984777688980103,
        -0.055891651660203934,
        -0.057798828929662704,
        0.030856430530548096,
        0.165558323264122,
        0.0069371964782476425,
        0.19585859775543213,
        0.07558870315551758,
        -0.04297376424074173,
        0.17430691421031952,
        -0.007446919102221727,
        0.07397789508104324,
        -0.021268941462039948,
        0.13250786066055298,
        -0.05714777484536171,
        0.020048771053552628,
        0.14650094509124756,
        0.08174776285886765,
        -0.026951128616929054,
        -0.05933216214179993,
        -0.08652271330356598,
        -0.09249383956193924,
        0.01301727443933487,
        -0.017716772854328156,
        -0.10104531049728394,
        0.013992556370794773,
        0.0673547089099884,
        0.07866460084915161,
        0.010112172923982143,
        0.06599075347185135,
        -0.04532963037490845,
        -0.1402507871389389,
        0.057850178331136703,
        0.12753593921661377,
        -0.05412575602531433,
        -0.04628673940896988,
        -0.07926113903522491,
        -0.04599743336439133,
        0.007301038131117821,
        -0.052722275257110596,
        -0.18127307295799255,
        0.20691916346549988,
        -0.09695157408714294,
        0.08298484981060028,
        0.02594105899333954,
        0.030045250430703163,
        -0.1749831736087799,
        -0.06934694945812225,
        0.10406336933374405,
        0.11366850882768631,
        0.09354277700185776,
        -0.037819549441337585,
        -0.04882702976465225,
        -0.009338817559182644,
        0.007953890599310398,
        -0.1771439164876938,
        0.07707056403160095,
        0.04763227328658104,
        -0.1034257635474205,
        -0.019146332517266273,
        -0.08562413603067398,
        0.001310063642449677,
        -0.09122913330793381,
        0.06712545454502106,
        -0.14397187530994415,
        -0.04886934906244278,
        0.08734659105539322,
        -0.09063020348548889,
        0.045841291546821594,
        0.058705102652311325,
        -0.17797669768333435,
        0.15139903128147125,
        0.08990669995546341,
        0.1688850075006485,
        -0.13078585267066956,
        -0.15239734947681427,
        -0.1390073001384735,
        0.16118434071540833,
        -0.08489762991666794,
        -0.06086597219109535,
        0.2096303403377533,
        -0.10028522461652756,
        -0.10640257596969604,
        0.18029405176639557,
        0.034140150994062424,
        0.11727353185415268,
        -0.10381439328193665,
        -0.09855008870363235,
        -0.06550050526857376,
        0.25711625814437866,
        0.16226449608802795,
        0.1997930258512497,
        -0.09480810165405273,
        0.06078154221177101,
        -0.16281411051750183,
        0.03247271478176117,
        -0.10329530388116837,
        0.24704723060131073,
        -0.03528602048754692,
        -0.12361355125904083,
        -0.04940865561366081,
        0.23192043602466583,
        0.12553671002388,
        0.020999856293201447,
        0.2399333268404007,
        -0.06583739072084427,
        -0.16624978184700012,
        0.23015651106834412,
        0.04997454956173897,
        -0.2006227970123291,
        0.2440613955259323,
        0.04192047938704491,
        -0.032496824860572815,
        0.029686739668250084,
        0.061060864478349686,
        -0.08983423560857773,
        0.14587309956550598,
        -0.04541648551821709,
        0.023941563442349434,
        0.051048293709754944,
        0.04333505034446716,
        -0.027248725295066833,
        0.056361421942710876,
        -0.07958294451236725,
        0.01083223894238472,
        -0.08249388635158539,
        -0.12163744121789932,
        -0.13746599853038788,
        0.12852995097637177,
        0.09435958415269852,
        0.10994922369718552,
        0.12616898119449615,
        -0.1431427299976349,
        -0.07128765434026718,
        -0.033843621611595154,
        -0.09658048301935196,
        0.07332506775856018,
        -0.11015411466360092,
        -0.0908554345369339,
        -0.11693575978279114,
        -0.09595683217048645,
        0.1272798478603363,
        0.0838596373796463,
        0.10424672812223434,
        0.0970504879951477,
        0.15560480952262878,
        -0.045313745737075806,
        0.0778248980641365,
        0.10019096732139587,
        0.0569915734231472,
        0.15800057351589203,
        0.0479721873998642,
        0.10007978975772858,
        -0.02967689000070095,
        0.04816687852144241,
        0.03164304420351982,
        -0.014522440731525421,
        -0.10334614664316177,
        -0.06752390414476395,
        -0.09304803609848022,
        0.07163431495428085,
        0.11453631520271301,
        -0.10719604045152664,
        -0.1987857073545456,
        0.042028285562992096,
        0.11060584336519241,
        -0.0701705738902092,
        -0.0422700010240078,
        0.15187588334083557,
        0.1801283359527588,
        -0.10518516600131989,
        0.11628559231758118,
        -0.015322348102927208,
        -0.0594923160970211,
        0.05942633002996445,
        -0.2066047191619873,
        -0.028656238690018654,
        0.10711368918418884,
        -0.11189169436693192,
        -0.10103098303079605,
        -0.03465985134243965,
        0.07686173170804977,
        -0.030650150030851364,
        0.010098256170749664,
        0.051015790551900864,
        0.04642586037516594,
        -0.06780823320150375,
        0.13171043992042542,
        0.07483923435211182,
        0.06810636818408966,
        -0.23884370923042297,
        -0.006288991309702396,
        -0.09250953793525696,
        0.05487127602100372,
        0.048740874975919724,
        -0.11756446957588196,
        -0.06411661207675934,
        0.12402158975601196,
        -0.0020469322334975004,
        -0.21125729382038116,
        -0.04631583020091057,
        0.009198353625833988,
        -0.23510092496871948,
        0.06444958597421646,
        -0.1521224081516266,
        -0.2618952989578247,
        -0.1450985074043274,
        -0.04575616493821144,
        -0.023237450048327446,
        -0.13681334257125854,
        0.2011091560125351,
        -0.03681459277868271,
        0.09765001386404037,
        0.02396310120820999,
        -0.12930290400981903,
        0.16152669489383698,
        0.13421522080898285,
        0.18845480680465698,
        0.08305501937866211,
        -0.15464535355567932,
        0.07651763409376144,
        -0.003421936882659793,
        0.009649833664298058,
        -0.16046908497810364,
        -0.051896728575229645,
        -0.19548390805721283,
        -0.09650412201881409,
        0.02553289383649826,
        -0.06191326305270195,
        0.08286899328231812,
        0.08040599524974823,
        0.01249075960367918,
        -0.12487916648387909,
        -0.07466017454862595,
        0.014598003588616848,
        0.10713546723127365,
        0.15265576541423798,
        0.044433943927288055,
        -0.04099275544285774,
        0.06681658327579498,
        -0.08934696018695831,
        -0.0844818502664566,
        0.07024182379245758,
        -0.13386434316635132,
        0.0332387313246727,
        -0.10462554544210434,
        -0.11889846622943878,
        -0.15404769778251648,
        0.07598087191581726,
        -0.07475828379392624,
        0.06524680554866791,
        0.07726959884166718,
        0.021673616021871567,
        -0.04016774520277977,
        -0.054305948317050934,
        -0.08701928704977036,
        -0.020140329375863075,
        0.0651923343539238,
        -0.04495188221335411,
        0.17149615287780762,
        0.006310667376965284,
        -0.1549472063779831,
        -0.1815219521522522,
        0.144059956073761,
        0.22661666572093964,
        0.002100084675475955,
        0.0808219164609909,
        -0.0319804921746254,
        -0.05843504145741463,
        0.13807405531406403,
        -0.1788831502199173,
        -0.09594277292490005,
        0.07746922969818115,
        -0.1347249150276184,
        -0.0838593989610672,
        -0.014305279590189457,
        0.1788574755191803,
        0.08924593031406403,
        -0.08222826570272446,
        0.0048852963373064995,
        -0.0501876175403595,
        -0.02057049423456192,
        0.11353801935911179,
        0.2238088697195053,
        -0.03422923758625984,
        -0.0321928896009922,
        -0.1530897170305252,
        0.09681052714586258,
        -0.018852313980460167,
        0.04076581448316574,
        -0.10747365653514862,
        0.0424107126891613,
        -0.1677904576063156,
        0.029887620359659195,
        -0.15810920298099518,
        0.012713822536170483,
        0.16884107887744904,
        -0.20943951606750488,
        -0.2573583126068115,
        -0.09090118855237961,
        -0.09880751371383667,
        -0.17505326867103577,
        -0.07364870607852936,
        -0.14904624223709106,
        -0.1094508022069931,
        -0.05094871670007706,
        -0.1015596091747284,
        -0.18555092811584473,
        -0.14238165318965912,
        -0.03112960048019886,
        0.34923434257507324,
        -0.08825086057186127,
        0.056091051548719406,
        -0.2939460277557373,
        0.1687992662191391,
        -0.18263745307922363,
        0.11043789237737656,
        0.11728286743164062,
        -0.13782593607902527,
        0.2748703956604004,
        -0.039291735738515854,
        -0.08554892987012863,
        0.2054225206375122,
        0.05748222768306732,
        0.0626254752278328,
        -0.3780425190925598,
        -0.05160372331738472,
        -0.10947946459054947,
        0.23295830190181732,
        -0.1761537790298462,
        0.18406885862350464,
        -0.2783356010913849,
        0.002273069927468896,
        0.042582858353853226,
        0.3004104197025299,
        0.06823671609163284,
        0.14124280214309692,
        -0.27708709239959717,
        -0.05668218433856964,
        -0.06676319241523743,
        0.3573894202709198,
        -0.08366570621728897,
        -0.1900082230567932,
        0.2988509237766266,
        0.10632829368114471,
        -0.08793489634990692,
        0.12651899456977844,
        -0.15730436146259308,
        -0.01216564979404211,
        0.232042595744133,
        -0.10211986303329468,
        -0.023951595649123192,
        0.2987937331199646,
        0.0822635218501091,
        0.12596495449543,
        0.22134838998317719,
        -0.02638578973710537,
        -0.18439067900180817,
        0.07554861158132553,
        0.18882916867733002,
        0.1972402185201645,
        -0.04237109422683716,
        0.011247736401855946,
        -0.007949987426400185,
        0.04220378026366234,
        -0.0028980420902371407,
        -0.19601763784885406,
        -0.1867801547050476,
        0.2585698664188385,
        -0.19468551874160767,
        -0.14482830464839935,
        0.20434285700321198,
        0.06586826592683792,
        0.007248410955071449,
        -0.1416970044374466,
        -0.0740070566534996,
        -0.2023695409297943,
        0.25658541917800903,
        0.07835052907466888,
        0.1373637169599533,
        0.0025998889468610287,
        -0.046116895973682404,
        -0.05186142027378082,
        0.27564239501953125,
        0.14654472470283508,
        0.00792403519153595,
        0.0003291009343229234,
        -0.09857453405857086,
        -0.21754278242588043,
        0.09141449630260468,
        -0.22618229687213898,
        0.04643196985125542,
        0.10971833765506744,
        -0.2726517915725708,
        -0.09504208713769913,
        0.21207959949970245,
        -0.10108564794063568,
        -0.03964758291840553,
        0.13677658140659332,
        -0.08559349924325943,
        -0.11818064004182816,
        0.06973444670438766,
        -0.20875638723373413,
        -0.15262462198734283,
        0.05844707414507866,
        -0.09815409779548645,
        0.07356929779052734,
        0.016811707988381386,
        -0.011462261900305748,
        -0.18150874972343445,
        0.14173567295074463,
        -0.05899408087134361,
        0.2101246565580368,
        -0.11623761057853699,
        -0.009639781899750233,
        0.17005924880504608,
        -0.060379985719919205,
        0.13933171331882477,
        -0.015074828639626503,
        -0.1301620453596115,
        -0.08230996876955032,
        -0.06028337404131889,
        0.14218036830425262,
        -0.061208099126815796,
        0.10959502309560776,
        -0.07194074988365173,
        -0.05612437054514885,
        0.014729656279087067,
        -0.1102561429142952,
        0.02531389519572258,
        0.21186964213848114,
        -0.04103116691112518,
        0.0933285653591156,
        -0.12908530235290527,
        0.12504637241363525,
        -0.12043052911758423,
        0.06482450664043427,
        -0.03293098509311676,
        0.06167903169989586,
        0.13829228281974792,
        0.09870238602161407,
        0.003897931659594178,
        0.08630277961492538,
        0.0985247790813446,
        -0.014817479066550732,
        0.2168429046869278,
        -0.09843843430280685,
        0.0043764677830040455,
        0.07914742827415466,
        0.057304609566926956,
        0.07204709202051163,
        -0.03068302571773529,
        -0.16271856427192688,
        0.05981411039829254,
        -0.026112036779522896,
        0.11476437002420425,
        -0.031459175050258636,
        0.19552598893642426,
        0.10974307358264923,
        -0.05120343714952469,
        -0.2425462305545807,
        0.12339811772108078,
        -0.16976298391819,
        -0.07426409423351288,
        0.04461706802248955,
        -0.12211824208498001,
        -0.048638422042131424,
        -0.09650722146034241,
        0.08643557876348495,
        0.006359285209327936,
        -0.04816330224275589,
        -0.008062471635639668,
        0.04360645264387131,
        0.008641147054731846,
        0.1550566703081131,
        0.08865360915660858,
        -0.09216675907373428,
        -0.1701066642999649,
        -0.22256600856781006,
        0.19130530953407288,
        0.017301270738244057,
        0.10508570075035095,
        0.004391232039779425,
        0.04255789890885353,
        0.02352198213338852,
        0.1481321007013321,
        -0.15762107074260712,
        -0.12034996598958969,
        -0.04866980388760567,
        -0.14502952992916107,
        -0.07295869290828705,
        0.1581404060125351,
        -0.17664098739624023,
        -0.018199210986495018,
        -0.049323149025440216,
        -0.08604717999696732,
        0.01221483014523983,
        -0.0033749095164239407,
        -0.029092546552419662,
        -0.14989647269248962,
        0.10318244993686676,
        0.022857852280139923,
        -0.12133553624153137,
        0.01748749054968357,
        -0.10219870507717133,
        -0.05490109324455261,
        0.07048742473125458,
        0.1128203347325325,
        -0.10234392434358597,
        0.0034003814216703176,
        0.12187530845403671,
        0.03397009149193764,
        -0.13997818529605865,
        -0.013448575511574745,
        -0.10241036117076874,
        -0.1753278225660324,
        -0.005168840289115906,
        0.1629355400800705,
        0.17858687043190002,
        0.029311539605259895,
        0.01127451192587614,
        -0.07977587729692459,
        0.11069321632385254,
        0.0014393818564713001,
        -0.03605872392654419,
        0.03517279773950577,
        0.040581632405519485,
        -0.17708250880241394,
        0.12826158106327057,
        0.10856518149375916,
        -0.042576514184474945,
        -0.027658522129058838,
        0.06899254769086838,
        -0.169846311211586,
        -0.035082072019577026,
        -0.005087253637611866,
        -0.18154476583003998,
        0.07600008696317673,
        0.012307632714509964,
        0.02423122711479664,
        -0.09409011900424957,
        0.08258983492851257,
        -0.14870929718017578,
        0.14636415243148804,
        -0.19636431336402893,
        -0.18949833512306213,
        0.17605546116828918,
        0.0809817835688591,
        0.04441993683576584,
        -0.04856068268418312,
        -0.12363580614328384,
        -0.04305530712008476,
        -0.13281358778476715,
        0.02831563912332058,
        0.06260935217142105,
        -0.021433159708976746,
        0.0006578257889486849,
        0.08239170163869858,
        0.10064482688903809,
        -0.03816774860024452,
        -0.001420632004737854,
        -0.034842249006032944,
        -0.039594996720552444,
        -0.026562364771962166,
        -0.01703401654958725,
        0.38970112800598145,
        -0.46933451294898987,
        0.7133601903915405,
        -0.6345736384391785,
        0.02699277549982071,
        0.8910819888114929,
        0.8894478678703308,
        -0.5969238877296448,
        0.19032560288906097,
        0.1342625468969345,
        -0.48021602630615234,
        -0.32446447014808655,
        0.15637290477752686,
        -0.6993852257728577,
        0.14872780442237854,
        0.5013874173164368,
        -0.08252550661563873,
        0.2444854974746704,
        -0.03602151945233345,
        0.10045979171991348,
        0.19239813089370728,
        -0.14312683045864105,
        0.14231261610984802,
        0.014437416568398476,
        -0.06285478174686432,
        -0.03579235449433327,
        0.07969829440116882,
        -0.01885187439620495,
        0.14507393538951874,
        0.04241441190242767,
        0.2031935453414917,
        -0.0885428860783577,
        -0.12583525478839874,
        0.0069685885682702065,
        -0.3680928349494934,
        0.14611034095287323,
        0.237007275223732,
        -0.23680491745471954,
        -0.21362659335136414,
        0.21639899909496307,
        -0.12967324256896973,
        0.04322175309062004,
        -0.12596474587917328,
        0.2458515167236328,
        -0.0556926354765892,
        0.028676139190793037,
        -0.058277033269405365,
        -0.0014193098759278655,
        -0.05667734518647194,
        0.20140209794044495,
        -0.11728694289922714,
        0.3150217831134796,
        0.05476154014468193,
        -0.28485241532325745,
        -0.02527984417974949,
        -0.06859882175922394,
        -0.14565567672252655,
        -0.28182536363601685,
        0.07671552151441574,
        -0.027132567018270493,
        0.048340145498514175,
        0.38457757234573364,
        -0.05864357203245163,
        -0.12741975486278534,
        0.18548157811164856,
        -0.14678777754306793,
        -0.07070256024599075,
        -0.19297246634960175,
        -0.032198529690504074,
        0.04731420800089836,
        0.017834873870015144,
        0.03319304808974266,
        -0.19707120954990387,
        0.039396051317453384,
        0.017554443329572678,
        0.0686180591583252,
        0.1687474548816681,
        0.20363599061965942,
        -0.16265250742435455,
        -0.06783992052078247,
        -0.11869024485349655,
        -0.34418943524360657,
        -0.16099384427070618,
        0.10878737270832062,
        0.1356658786535263,
        0.21037615835666656,
        0.16553889214992523,
        -0.20744165778160095,
        0.13679832220077515,
        0.29812848567962646,
        -0.20664016902446747,
        0.1703527569770813,
        0.03499632328748703,
        0.06784196197986603,
        -0.07172909379005432,
        0.13414350152015686,
        -0.18910418450832367,
        -0.10789100080728531,
        0.15896232426166534,
        -0.009716576896607876,
        0.15806707739830017,
        0.3305078446865082,
        0.28731951117515564,
        0.03636251762509346,
        0.27192872762680054,
        0.05051879212260246,
        -0.17723886668682098,
        -0.21605081856250763,
        -0.0030770031735301018,
        -0.2354821413755417,
        0.14472554624080658,
        0.13136954605579376,
        0.09106694161891937,
        0.1500009447336197,
        0.16917286813259125,
        0.1627790480852127,
        -0.201674684882164,
        -0.2877742052078247,
        0.06438422203063965,
        0.11595527827739716,
        0.03239474445581436,
        -0.3225954473018646,
        -0.08365468680858612,
        0.19408966600894928,
        0.19211754202842712,
        -0.13973473012447357,
        0.13350404798984528,
        -0.24449916183948517,
        0.3356301188468933,
        -0.06539283692836761,
        0.43759745359420776,
        -0.3675984740257263,
        -0.48066702485084534,
        0.2879968583583832,
        0.4263746440410614,
        -0.036396581679582596,
        0.2945159077644348,
        -0.03500968962907791,
        0.3281521499156952,
        -0.37392401695251465,
        0.2382841557264328,
        -0.30954933166503906,
        0.16010348498821259,
        0.21757236123085022,
        -0.20238490402698517,
        0.1164715439081192,
        -0.4032134711742401,
        -0.09994877874851227,
        0.25656259059906006,
        -0.26221221685409546,
        -0.3020499646663666,
        0.07340161502361298,
        -0.35670167207717896,
        -0.3328251540660858,
        0.0658002719283104,
        0.3005013167858124,
        -0.07480558753013611,
        0.04259416460990906,
        -0.0742514431476593,
        -0.15803930163383484,
        -0.026132065802812576,
        -0.08527854084968567,
        0.35426947474479675,
        -0.3826102316379547,
        -0.45257627964019775,
        0.11302413791418076,
        0.3694542646408081,
        -0.27656006813049316,
        0.13734278082847595,
        0.3776577115058899,
        0.2180841714143753,
        0.1039474830031395,
        0.4123820662498474,
        0.05702993646264076,
        0.13339358568191528,
        0.15889620780944824,
        -0.005617417395114899,
        0.35293063521385193,
        -0.37553635239601135,
        0.26260581612586975,
        0.08520741015672684,
        -0.34385156631469727,
        -0.08964921534061432,
        0.04926132783293724,
        -0.08204662799835205,
        -0.31232190132141113,
        -0.2818140685558319,
        0.059281330555677414,
        -0.2290918380022049,
        0.27713924646377563,
        -0.1464006006717682,
        0.04844442382454872,
        -0.015855267643928528,
        -0.06899525225162506,
        0.13400331139564514,
        0.0031575728207826614,
        0.0661652609705925,
        -0.09921526908874512,
        -0.03146857023239136,
        0.01178272906690836,
        0.005030372180044651,
        -0.2259703427553177,
        -0.016365543007850647,
        -0.2552412152290344,
        -0.1091437041759491,
        0.12964469194412231,
        -0.23274947702884674,
        -0.19506438076496124,
        -0.1223369762301445,
        0.0688423365354538,
        -0.03616120666265488,
        0.14177244901657104,
        0.22777582705020905,
        -0.26946645975112915,
        -0.10379725694656372,
        0.2681664228439331,
        0.09822503477334976,
        -0.13913315534591675,
        -0.18474803864955902,
        0.10912612080574036,
        0.0972193032503128,
        -0.01879788190126419,
        -0.2946907579898834,
        -0.04726354032754898,
        0.04564829170703888,
        -0.14705273509025574,
        -0.08657165616750717,
        0.1586236208677292,
        -0.11096270382404327,
        0.1542738825082779,
        0.2239881306886673,
        0.08905374258756638,
        -0.07238195091485977,
        -0.13369068503379822,
        0.09838327020406723,
        -0.12081252783536911,
        -0.09731586277484894,
        -0.005418682470917702,
        -0.2151314616203308,
        0.12080306559801102,
        -0.2694156765937805,
        0.3744347095489502,
        -0.23113499581813812,
        -0.013677062466740608,
        0.31273743510246277,
        -0.12506477534770966,
        -1.3624495295516681e-05,
        0.27709898352622986,
        -0.3736873269081116,
        -0.017683306708931923,
        -0.16146841645240784,
        0.07625260949134827,
        0.00126955087762326,
        0.31726008653640747,
        -0.34025344252586365,
        -0.18108230829238892,
        -0.019462283700704575,
        0.2722582519054413,
        -0.10910294950008392,
        0.05941183492541313,
        0.12734058499336243,
        -0.0810077041387558,
        -0.1914292573928833,
        0.45039036870002747,
        -0.2668514549732208,
        -0.3677431643009186,
        -0.14813588559627533,
        0.09697777777910233,
        -0.14145497977733612,
        0.3573584258556366,
        -0.20223282277584076,
        -0.3353613317012787,
        0.10058273375034332,
        -0.00479472428560257,
        0.1758739948272705,
        -0.09210136532783508,
        -0.09251739829778671,
        -0.0330849252641201,
        0.10696414113044739,
        0.0029605263844132423,
        0.08169270306825638,
        -0.19806332886219025,
        0.10262786597013474,
        0.030261632055044174,
        0.040596697479486465,
        0.07697228342294693,
        0.12083065509796143,
        0.01843721605837345,
        -0.23111523687839508,
        -0.04090653359889984,
        0.02438810095191002,
        -0.07192734628915787,
        -0.05372407287359238,
        0.16292449831962585,
        -0.27257290482521057,
        0.0672779455780983,
        0.12758123874664307,
        -0.2907011806964874,
        0.11205798387527466,
        0.03148087486624718,
        0.12247991561889648,
        -0.206475168466568,
        0.03082854487001896,
        0.3353499174118042,
        -0.23703932762145996,
        -0.058229781687259674,
        -0.30180662870407104,
        0.03393138572573662,
        0.05735808610916138,
        0.1975308507680893,
        -0.14547064900398254,
        -0.3018297553062439,
        -0.25243839621543884,
        0.13741625845432281,
        0.008424770087003708,
        0.044522643089294434,
        -0.02348499558866024,
        -0.2539844214916229,
        -0.31389883160591125,
        0.0387631393969059,
        0.16677579283714294,
        -0.3705748915672302,
        -0.0941707193851471,
        0.12188539654016495,
        -0.30050188302993774,
        0.09819333255290985,
        0.0950574278831482,
        -0.20806357264518738,
        0.12164674699306488,
        0.002148658037185669,
        -0.35741063952445984,
        0.13610060513019562,
        0.1506900042295456,
        -0.09777972102165222,
        0.0020990073680877686,
        0.04715336114168167,
        0.026459043845534325,
        0.014752631075680256,
        0.16858090460300446,
        -0.1762550175189972,
        0.03847995400428772,
        0.10589675605297089,
        -0.06286244094371796,
        -0.11613715440034866,
        0.10519266873598099,
        -0.12052534520626068,
        -0.004299885127693415,
        -0.07740439474582672,
        0.04429993778467178,
        -0.14055731892585754,
        -0.024136587977409363,
        -0.2343469113111496,
        -0.10802746564149857,
        -0.10009679198265076,
        0.09966987371444702,
        -0.21003471314907074,
        -0.027688808739185333,
        0.13348062336444855,
        -0.041970424354076385,
        -0.022228006273508072,
        -0.09451145678758621,
        0.00518862484022975,
        0.047092173248529434,
        0.14894279837608337,
        0.021795205771923065,
        -0.1596350222826004,
        0.06816114485263824,
        0.05817951634526253,
        0.04453062638640404,
        -0.14627692103385925,
        -0.04215734452009201,
        0.13778670132160187,
        -0.09442958980798721,
        -0.07902034372091293,
        0.06361402571201324,
        -0.06978403031826019,
        0.03624586760997772,
        0.0183930154889822,
        -0.0496048741042614,
        -0.11664678901433945,
        0.0019059146288782358,
        -0.05372699722647667,
        0.13562464714050293,
        -0.11441650986671448,
        -0.06939370930194855,
        -0.14620642364025116,
        0.026763547211885452,
        0.13482846319675446,
        0.12304311245679855,
        -0.027752209454774857,
        -0.029379770159721375,
        -0.013392919674515724,
        0.09266217052936554,
        0.10217084735631943,
        -0.03384098783135414,
        -0.07911473512649536,
        0.1258869618177414,
        -0.017410507425665855,
        0.03234473615884781,
        -0.02546200156211853,
        0.1415564864873886,
        0.09729672223329544,
        0.10780667513608932,
        -0.17584456503391266,
        -0.02593434974551201,
        -0.025723405182361603,
        0.0030285289976745844,
        0.10698283463716507,
        -0.025637812912464142,
        -0.1732431948184967,
        -0.0027872968930751085,
        -0.0505547896027565,
        0.14288556575775146,
        -0.14518018066883087,
        -0.15239788591861725,
        -0.22233471274375916,
        0.10356444120407104,
        0.06064845994114876,
        -0.13082903623580933,
        0.08026808500289917,
        0.05536932498216629,
        -0.0678626000881195,
        0.003883612109348178,
        -0.05173507705330849,
        -0.08758891373872757,
        0.07375814020633698,
        -0.10830933600664139,
        -0.005723976064473391,
        0.12806551158428192,
        -0.04599365219473839,
        0.10888805985450745,
        0.2142183929681778,
        -0.06900177896022797,
        -0.12790872156620026,
        -0.020809093490242958,
        -0.05783240869641304,
        -0.06719263643026352,
        0.04940865933895111,
        0.14078257977962494,
        -0.14581002295017242,
        -0.1640762984752655,
        0.13519826531410217,
        0.10714127868413925,
        -0.10486606508493423,
        -0.03263392299413681,
        -0.048341233283281326,
        0.057556379586458206,
        -0.08376805484294891,
        0.14826880395412445,
        0.021297702565789223,
        0.09702237695455551,
        0.12193243205547333,
        0.015712162479758263,
        -0.21758586168289185,
        0.1315309703350067,
        0.0656999722123146,
        0.1486167013645172,
        -0.24488449096679688,
        0.016268597915768623,
        0.046744801104068756,
        -0.0524289496243,
        0.03614453598856926,
        0.1842912882566452,
        -0.1811642199754715,
        0.013801977969706059,
        0.19121377170085907,
        0.019709229469299316,
        0.13355518877506256,
        0.1802045851945877,
        0.08728653192520142,
        -0.07439626753330231,
        0.14734596014022827,
        -0.1968742311000824,
        -0.1534915715456009,
        0.03518695384263992,
        -0.09703563153743744,
        0.09540604799985886,
        0.05926336720585823,
        -0.04287130758166313,
        0.06009112298488617,
        -0.03579246625304222,
        -0.10009796172380447,
        0.03625807166099548,
        0.13201311230659485,
        0.05449451133608818,
        0.02123870700597763,
        0.018915515393018723,
        -0.0047083706595003605,
        -0.006218967493623495,
        -0.09358872473239899,
        0.007566590327769518,
        0.10139226913452148,
        -0.06196144223213196,
        0.027575431391596794,
        -0.14045937359333038,
        -0.19281712174415588,
        0.1851268708705902,
        -0.11099886149168015,
        0.1664137989282608,
        -0.18049025535583496,
        0.09284842014312744,
        -0.04091230034828186,
        0.2024562656879425,
        0.11585842818021774,
        0.16187356412410736,
        -0.057967960834503174,
        -0.04144398123025894,
        -0.1576712280511856,
        -0.02416045404970646,
        0.01902078650891781,
        0.19718919694423676,
        -0.14638067781925201,
        -0.013249669224023819,
        -0.0418320894241333,
        -0.010319714434444904,
        0.09922758489847183,
        -0.12176388502120972,
        -0.23635144531726837,
        0.10565267503261566,
        0.03567100316286087,
        -0.0799485594034195,
        0.008837861940264702,
        0.0625050961971283,
        -0.20151546597480774,
        -0.09052453935146332,
        0.21416223049163818,
        -0.029374703764915466,
        0.03056369535624981,
        -0.14119555056095123,
        -0.002865847898647189,
        -0.11606001853942871,
        -0.18052665889263153,
        0.2298937737941742,
        0.007036867085844278,
        -0.16645073890686035,
        0.06126920133829117,
        -0.040690865367650986,
        -0.03341688588261604,
        0.22422781586647034,
        0.07668016850948334,
        -0.025277219712734222,
        0.03521029278635979,
        0.13074421882629395,
        0.2328520268201828,
        -0.23691773414611816,
        0.041170574724674225,
        -0.02006027102470398,
        -0.10125909000635147,
        -0.20865070819854736,
        0.17145323753356934,
        -0.24773594737052917,
        0.16524630784988403,
        0.04434435814619064,
        0.271124929189682,
        -0.0980076938867569,
        0.1985655575990677,
        -0.15557114779949188,
        0.01030556671321392,
        -0.0011129245394840837,
        0.18248307704925537,
        0.04072483628988266,
        0.12696388363838196,
        0.006465358659625053,
        0.07292737066745758,
        0.0032652916852384806,
        0.1830434948205948,
        -0.013396664522588253,
        -0.05794604495167732,
        -0.08557190001010895,
        0.05982263758778572,
        -0.17080725729465485,
        0.21425144374370575,
        -0.22139833867549896,
        -0.13433189690113068,
        0.09469830244779587,
        -0.028678182512521744,
        0.024856140837073326,
        0.07505153119564056,
        0.026898976415395737,
        0.0316290557384491,
        0.21953099966049194,
        0.03767378255724907,
        -0.054975420236587524,
        -0.10582301020622253,
        0.10963379591703415,
        0.12025674432516098,
        -0.011317974887788296,
        -0.04787196218967438,
        -0.07060262560844421,
        0.08569911867380142,
        -0.06513358652591705,
        0.1482752561569214,
        0.11516612023115158,
        0.12456072121858597,
        0.10818913578987122,
        -0.0833996906876564,
        0.10057955980300903,
        -0.0006154384464025497,
        0.09295149147510529,
        -0.04981905594468117,
        -0.02013685368001461,
        -0.09970837831497192,
        -0.06164449825882912,
        0.11140823364257812,
        0.04107104614377022,
        -0.022733232006430626,
        0.051908720284700394,
        -0.06852815300226212,
        0.09125351905822754,
        -0.13583017885684967,
        0.03979913145303726,
        0.0011314827715978026,
        0.04210411757230759,
        0.10995770245790482,
        0.16135334968566895,
        -0.07231888175010681,
        0.062222789973020554,
        -0.13928332924842834,
        -0.14240922033786774,
        -0.015703197568655014,
        -0.0074841296300292015,
        -0.09142875671386719,
        -0.010785341262817383,
        -0.006837419234216213,
        -0.17246130108833313,
        -0.00528591126203537,
        0.051435329020023346,
        0.07176251709461212,
        0.05485818162560463,
        -0.046958986669778824,
        -0.161319762468338,
        -0.06484173983335495,
        0.018809247761964798,
        -0.05543108284473419,
        -0.09269744157791138,
        -0.08416870981454849,
        0.013401033356785774,
        -0.1467476338148117,
        -0.1750197410583496,
        0.13000065088272095,
        -0.04578794166445732,
        -0.012119154445827007,
        -0.05840808153152466,
        -0.13482460379600525,
        0.015128407627344131,
        0.07867639511823654,
        -0.09730725735425949,
        -0.010217356495559216,
        -0.006730341352522373,
        -0.08566836267709732,
        0.13976560533046722,
        0.16733931005001068,
        0.07387257367372513,
        -0.019836517050862312,
        0.06589166074991226,
        -0.07856175303459167,
        -0.021775761619210243,
        -0.10526857525110245,
        -0.056478314101696014,
        0.008015870116651058,
        -0.09938256442546844,
        -0.009796089492738247,
        -0.055694252252578735,
        -0.18733298778533936,
        -0.021937178447842598,
        -0.1330127716064453,
        0.019515730440616608,
        0.049110956490039825,
        0.05795173719525337,
        -0.05235472694039345,
        0.07478374987840652,
        0.052077516913414,
        0.07529588043689728,
        0.2741069197654724,
        -0.0818064883351326,
        -0.2223643809556961,
        -0.016677694395184517,
        -0.2297586351633072,
        0.0373065322637558,
        0.2187556028366089,
        0.10940731316804886,
        0.06674536317586899,
        0.062214504927396774,
        -0.11867698282003403,
        0.10893215239048004,
        0.029244188219308853,
        0.044943973422050476,
        0.03981247544288635,
        -0.13166427612304688,
        0.007326486054807901,
        0.018026726320385933,
        0.11955060064792633,
        -0.05833771824836731,
        -0.035217493772506714,
        -0.28752511739730835,
        0.12514051795005798,
        -0.13490831851959229,
        0.07408427447080612,
        0.08601643890142441,
        0.0544009804725647,
        -0.051681481301784515,
        -0.0796726867556572,
        -0.07447565346956253,
        0.13775412738323212,
        -0.0754224881529808,
        -0.07532992213964462,
        0.06569255143404007,
        0.1028783917427063,
        -0.0823306143283844,
        0.25752124190330505,
        0.013473883271217346,
        -0.023030200973153114,
        -0.03099447302520275,
        -0.1382129192352295,
        -0.1292567104101181,
        0.05601752549409866,
        -0.05248958617448807,
        -0.11633731424808502,
        0.10895152390003204,
        -0.14821742475032806,
        0.1508437544107437,
        0.07825299352407455,
        -0.06497643887996674,
        -0.03638560324907303,
        -0.03431930020451546,
        0.04968008026480675,
        -0.05840226635336876,
        0.0012932339450344443,
        -0.036233700811862946,
        -0.020245132967829704,
        0.11019553244113922,
        -0.08929325640201569,
        0.02069655805826187,
        -0.02592073567211628,
        0.061844468116760254,
        -0.14130637049674988,
        -0.05336487293243408,
        0.11597304046154022,
        0.21107707917690277,
        0.03407813981175423,
        0.09116454422473907,
        -0.17201587557792664,
        0.06426122039556503,
        0.14964620769023895,
        0.037710972130298615,
        0.089256651699543,
        -0.046333491802215576,
        -0.17321912944316864,
        -0.07112221419811249,
        0.0506429485976696,
        -0.014056479558348656,
        0.013704899698495865,
        0.10584475845098495,
        0.10953257977962494,
        -0.02185588888823986,
        -0.002206522971391678,
        0.02924911491572857,
        -0.0546601228415966,
        -0.10547583550214767,
        -0.02815447933971882,
        0.06180192530155182,
        0.03166579082608223,
        -0.0005033945199102163,
        -0.15571901202201843,
        0.03345820680260658,
        -0.01835264265537262,
        -0.055884309113025665,
        -0.14515699446201324,
        -0.004665320739150047,
        0.0322418175637722,
        -0.14694549143314362,
        -0.07468050718307495,
        -0.04958697780966759,
        -0.08749084919691086,
        0.11779003590345383,
        0.06572563946247101,
        0.16075730323791504,
        -0.055815886706113815,
        -0.005719921085983515,
        0.012640545144677162,
        -0.13499847054481506,
        -0.009148345328867435,
        0.016291003674268723,
        -0.07108282297849655,
        0.02602756768465042,
        -0.09681494534015656,
        0.10595778375864029,
        0.0765501856803894,
        0.028934897854924202,
        -0.11552320420742035,
        0.07210312783718109,
        -0.028126584365963936,
        0.05240410566329956,
        -0.03254666551947594,
        0.20514976978302002,
        -0.1161152571439743,
        -0.1595108062028885,
        -0.16281726956367493,
        0.16520631313323975,
        -0.0195738784968853,
        0.03510759770870209,
        0.15708960592746735,
        0.0912768617272377,
        -0.029719794169068336,
        0.16361892223358154,
        0.07105730473995209,
        0.11996109038591385,
        0.08977553248405457,
        -0.03451874479651451,
        0.025278473272919655,
        0.17439080774784088,
        0.09128522872924805,
        0.07449830323457718,
        0.05323019623756409,
        -0.2180970460176468,
        -0.010390497744083405,
        0.04339194297790527,
        -0.043455641716718674,
        -0.12636211514472961,
        -0.021491754800081253,
        0.038256242871284485,
        -0.04683470353484154,
        -0.13775594532489777,
        0.09182965010404587,
        0.08411944657564163,
        0.010777262039482594,
        0.0359276607632637,
        0.01004528347402811,
        0.06529459357261658,
        0.008922775276005268,
        -0.13490550220012665,
        -0.022822417318820953,
        0.12850883603096008,
        -0.02904224582016468,
        -0.14565269649028778,
        -0.11444899439811707,
        0.11956746131181717,
        0.16943244636058807,
        0.11372729390859604,
        -0.006366699934005737,
        0.07691170275211334,
        -0.1095179095864296,
        -0.045399557799100876,
        -0.10914374887943268,
        0.09553124755620956,
        -0.03480134159326553,
        -0.09134586155414581,
        0.06425479054450989,
        -0.017735088244080544,
        -0.16844555735588074,
        0.03518356382846832,
        -0.010036282241344452,
        -0.13233058154582977,
        -0.09750450402498245,
        0.09476791322231293,
        0.0421205535531044,
        -0.01598702184855938,
        -0.0953574925661087,
        0.036887601017951965,
        0.026925109326839447,
        -0.11668676882982254,
        -0.09847793728113174,
        0.07031974196434021,
        0.12760333716869354,
        -0.015000928193330765,
        0.06482695043087006,
        -0.07723129540681839,
        0.12275852262973785,
        -0.03102768585085869,
        -0.044481053948402405,
        0.12745460867881775,
        0.09601441770792007,
        -0.039101921021938324,
        -0.016668977215886116,
        0.03010271117091179,
        -0.0484505370259285,
        0.12528033554553986,
        -0.03273405134677887,
        -0.07319342344999313,
        -0.024884531274437904,
        -0.0833190381526947,
        0.17834630608558655,
        -0.042908214032649994,
        -0.086696095764637,
        -0.021136431023478508,
        -0.13208499550819397,
        -0.0026332929264754057,
        0.12342822551727295,
        -0.0774979218840599,
        0.001598708680830896,
        0.05826938897371292,
        -0.08383297175168991,
        0.09660879522562027,
        -0.09273234009742737,
        0.13204394280910492,
        0.050108637660741806,
        -0.02619205228984356,
        0.19802458584308624,
        -0.19378222525119781,
        -0.04464395344257355,
        0.08041564375162125,
        -0.15372346341609955,
        0.035166092216968536,
        0.041283681988716125,
        -0.031066644936800003,
        -0.096747487783432,
        0.14075450599193573,
        -0.09736611694097519,
        0.00010974955512210727,
        0.05628233402967453,
        0.019402077421545982,
        -0.0031104572117328644,
        -0.17500533163547516,
        -0.16575360298156738,
        0.18168999254703522,
        -0.03903946280479431,
        0.0265121441334486,
        0.1147894486784935,
        0.01098805945366621,
        -0.18813040852546692,
        0.2526005506515503,
        -0.07088296115398407,
        -0.04320991039276123,
        0.18738611042499542,
        0.01902598887681961,
        0.06920485198497772,
        0.008075867779552937,
        8.56014303280972e-05,
        0.08903142064809799,
        -0.3252987861633301,
        -0.05197242274880409,
        0.02346407249569893,
        0.2420620322227478,
        0.1736963540315628,
        0.08993632346391678,
        -0.1891077756881714,
        -0.04979953542351723,
        -0.12248782813549042,
        0.2614022493362427,
        0.14070911705493927,
        -0.05757688730955124,
        0.004618857987225056,
        -0.07408633083105087,
        -0.02892890013754368,
        0.12882918119430542,
        -0.10969875752925873,
        -0.0211638230830431,
        0.044072773307561874,
        -0.15632084012031555,
        -0.07147342711687088,
        0.17466862499713898,
        0.07988739758729935,
        0.09825669229030609,
        0.011117890477180481,
        -0.121195949614048,
        -0.12995140254497528,
        0.040265996009111404,
        -0.1696372628211975,
        -0.19373881816864014,
        0.12235438823699951,
        -0.19386379420757294,
        -0.017938068136572838,
        -0.06996618956327438,
        -0.03129313886165619,
        0.258178174495697,
        0.010161214508116245,
        -0.19266441464424133,
        0.03450443223118782,
        0.01254457887262106,
        -0.04947272688150406,
        -0.049465928226709366,
        0.06645586341619492,
        0.0649043619632721,
        0.07699288427829742,
        -0.14884814620018005,
        0.19422921538352966,
        -0.06300968676805496,
        -0.1501150280237198,
        -0.12525102496147156,
        0.0034023914486169815,
        0.15121178328990936,
        0.15881365537643433,
        -0.01401477586477995,
        -0.13007965683937073,
        -0.07149758189916611,
        -0.08000766485929489,
        0.014049197547137737,
        0.05717567726969719,
        -0.11025471985340118,
        0.12499202787876129,
        -0.11705047637224197,
        0.14028652012348175,
        0.1857130080461502,
        -0.055732857435941696,
        0.08362048864364624,
        0.02581460028886795,
        -0.09599070250988007,
        0.015388015657663345,
        0.08444962650537491,
        -0.18717680871486664,
        -0.06469248980283737,
        -0.06849978119134903,
        -0.31055620312690735,
        -0.03724020719528198,
        -0.13304175436496735,
        0.06960318237543106,
        0.04353030025959015,
        0.08752856403589249,
        -0.12885572016239166,
        0.16467583179473877,
        -0.1715846210718155,
        0.02285909093916416,
        0.13587552309036255,
        0.007691867183893919,
        -0.02122841402888298,
        0.1536707878112793,
        0.0073675899766385555,
        0.07963383197784424,
        0.19954469799995422,
        -0.09473134577274323,
        -0.060057103633880615,
        -0.02502407506108284,
        0.09487470239400864,
        -0.0008733601425774395,
        -0.25759968161582947,
        0.06462409347295761,
        0.0036136561539024115,
        0.12479459494352341,
        -0.32385528087615967,
        0.09694065153598785,
        -0.24996879696846008,
        -0.0815199539065361,
        -0.15585070848464966,
        0.044846873730421066,
        -0.07787010073661804,
        -0.048080962151288986,
        0.06397057324647903,
        0.213448166847229,
        -0.040343672037124634,
        0.2044961005449295,
        -0.13890744745731354,
        -0.06791029870510101,
        0.06384678930044174,
        0.006535833701491356,
        -0.12904885411262512,
        -0.04497455060482025,
        -0.03321288898587227,
        0.02695959247648716,
        0.1524953842163086,
        -0.11163482815027237,
        -0.017588045448064804,
        0.009257463738322258,
        -0.036563899368047714,
        -0.06538376212120056,
        0.18579523265361786,
        0.025838838890194893,
        0.13096332550048828,
        0.04170837625861168,
        0.009087814949452877,
        0.08625330775976181,
        -0.0400908887386322,
        -0.01070872601121664,
        0.13345113396644592,
        0.10858603566884995,
        -0.06461969763040543,
        -0.05428162217140198,
        0.08554685860872269,
        0.06135781109333038,
        0.11908045411109924,
        -0.005879161413758993,
        -0.020120562985539436,
        -0.15833914279937744,
        -0.5470707416534424,
        0.32270610332489014,
        0.34141695499420166,
        -0.6007289290428162,
        0.12891048192977905,
        -0.7157247066497803,
        -0.1925916224718094,
        -0.27469420433044434,
        0.7941403388977051,
        -0.9547260999679565,
        -0.6137939691543579,
        -0.8210592269897461,
        0.1739148497581482,
        -1.1081054210662842,
        0.2830536365509033,
        -0.6708691120147705,
        -0.09938427805900574,
        -0.015191849321126938,
        0.21201571822166443,
        0.19505243003368378,
        0.4199436604976654,
        -0.32451269030570984,
        -0.0554598793387413,
        -0.012805528938770294,
        -0.28058695793151855,
        -0.035820718854665756,
        0.181492879986763,
        0.20296433568000793,
        0.035085566341876984,
        0.13413091003894806,
        -0.03243981674313545,
        -0.1601160317659378,
        0.5158044695854187,
        0.08274822682142258,
        -0.035275086760520935,
        -0.23960454761981964,
        -0.41688600182533264,
        0.3504096567630768,
        0.0030635904986411333,
        -0.012354462407529354,
        0.12279384583234787,
        -0.1946658045053482,
        0.07740247249603271,
        0.30357369780540466,
        -0.1469910442829132,
        0.24409225583076477,
        0.32851913571357727,
        0.26806360483169556,
        0.09939650446176529,
        -0.18927797675132751,
        -0.032948028296232224,
        0.19124838709831238,
        0.06386364251375198,
        0.1634148508310318,
        -0.07488824427127838,
        -0.007303338963538408,
        0.005964713171124458,
        0.11470835655927658,
        -0.18446259200572968,
        -0.24043306708335876,
        0.05615217983722687,
        0.2101118415594101,
        0.10120967775583267,
        0.0498654767870903,
        0.12040320038795471,
        0.06925762444734573,
        -0.1512153148651123,
        -0.19192692637443542,
        -0.09736625105142593,
        -0.08163171261548996,
        -0.08087902516126633,
        -0.04259537160396576,
        -0.1620309054851532,
        0.051039356738328934,
        0.02119685709476471,
        0.2539916932582855,
        0.18818621337413788,
        -0.13558602333068848,
        0.04000726342201233,
        -0.015357053838670254,
        0.19199907779693604,
        0.11556590348482132,
        -0.001771185197867453,
        -0.278315931558609,
        0.1895567923784256,
        -0.017658855766057968,
        0.035112347453832626,
        0.2918034791946411,
        0.11789839714765549,
        -0.12869061529636383,
        -0.1428097039461136,
        0.33087605237960815,
        -0.24847325682640076,
        -0.17132245004177094,
        0.021301889792084694,
        -0.29649776220321655,
        0.31782492995262146,
        0.05078659579157829,
        -0.3168317675590515,
        -0.1937238723039627,
        -0.24690519273281097,
        0.13917909562587738,
        -0.02526555396616459,
        0.08783898502588272,
        0.19634857773780823,
        0.10776761174201965,
        -0.03148512542247772,
        -0.1090933233499527,
        -0.26347944140434265,
        0.19976311922073364,
        0.20260675251483917,
        0.14582404494285583,
        0.3683408796787262,
        -0.0931018739938736,
        0.07284063845872879,
        -0.18115554749965668,
        0.007507773116230965,
        0.23971250653266907,
        -0.295987069606781,
        -0.07607469707727432,
        0.09037551283836365,
        -0.015727194026112556,
        -0.13873983919620514,
        0.1093054935336113,
        -0.0009317120420746505,
        0.1413664072751999,
        -0.012816494330763817,
        0.25654011964797974,
        0.038895245641469955,
        0.1201987937092781,
        0.07574822008609772,
        0.05740504339337349,
        0.1415981650352478,
        -0.1802603155374527,
        0.03404479846358299,
        0.15847328305244446,
        -0.04261448234319687,
        0.17144228518009186,
        -0.2931220829486847,
        0.11769310384988785,
        -0.24029457569122314,
        -0.01198404747992754,
        0.21143925189971924,
        0.0031642692629247904,
        -0.0032893249299377203,
        -0.07066148519515991,
        -0.23795276880264282,
        0.06734597682952881,
        -0.17005328834056854,
        -0.22062800824642181,
        -0.14047476649284363,
        -0.3026440739631653,
        0.0032876681070774794,
        0.17025722563266754,
        0.44634151458740234,
        -0.2755480408668518,
        0.16612733900547028,
        0.21248073875904083,
        -0.2934577167034149,
        0.2824361026287079,
        -0.023976070806384087,
        0.11861772835254669,
        0.10503751039505005,
        0.021876730024814606,
        0.12980803847312927,
        -0.36332908272743225,
        0.2524449825286865,
        0.12248864769935608,
        -0.2487068772315979,
        -0.08837448805570602,
        0.10943160951137543,
        0.29448285698890686,
        0.010794032365083694,
        0.09418005496263504,
        0.20384176075458527,
        -0.28381621837615967,
        -0.2849949598312378,
        -0.1336827278137207,
        -0.10055793076753616,
        0.1618662178516388,
        0.23756326735019684,
        -0.1372971087694168,
        -0.019743366166949272,
        -0.054535165429115295,
        0.12413148581981659,
        0.18084226548671722,
        -0.1629725843667984,
        0.11287514120340347,
        0.12373210489749908,
        -0.0980164036154747,
        -0.12041652202606201,
        0.05190033093094826,
        0.3922654688358307,
        0.2819465696811676,
        -0.16354496777057648,
        -0.1598038673400879,
        -0.1738513708114624,
        -0.119495689868927,
        0.13425220549106598,
        0.19630858302116394,
        -0.17565405368804932,
        0.10223906487226486,
        0.20831815898418427,
        -0.05957595258951187,
        -0.11091674864292145,
        0.09823880344629288,
        0.15333643555641174,
        -0.1267346888780594,
        -0.13656090199947357,
        -0.21059544384479523,
        -0.2532568573951721,
        0.21155013144016266,
        -0.036709632724523544,
        0.03220783919095993,
        -0.16595688462257385,
        0.1097404733300209,
        -0.05130419880151749,
        -0.038382433354854584,
        -0.21609102189540863,
        -0.18154065310955048,
        0.270536333322525,
        -0.2175736129283905,
        -0.03318723663687706,
        0.05110600218176842,
        0.07607496529817581,
        -0.14223133027553558,
        -0.21512506902217865,
        0.42732489109039307,
        -0.17135721445083618,
        -0.06803905218839645,
        -0.1341329962015152,
        -0.16090498864650726,
        0.02928556129336357,
        0.21025747060775757,
        0.1889343410730362,
        -0.1913541555404663,
        0.35651421546936035,
        0.13706746697425842,
        -0.1266591101884842,
        -0.039743151515722275,
        0.13367421925067902,
        0.2651766538619995,
        0.054517362266778946,
        -0.15269985795021057,
        -0.16121090948581696,
        -0.06374772638082504,
        0.18515025079250336,
        0.037469785660505295,
        -0.06996029615402222,
        0.013264602050185204,
        -0.12931999564170837,
        0.06631488353013992,
        -0.193363219499588,
        0.175812765955925,
        0.30169183015823364,
        0.1569230705499649,
        0.27157503366470337,
        -0.22543250024318695,
        -0.14441464841365814,
        -7.562179962405935e-05,
        -0.24005910754203796,
        0.21380089223384857,
        -0.18812571465969086,
        0.07410965859889984,
        0.16937604546546936,
        -0.12870670855045319,
        0.31553056836128235,
        0.10864788293838501,
        -0.14708656072616577,
        0.37058043479919434,
        -0.21258430182933807,
        -0.049450844526290894,
        -0.09898104518651962,
        0.05465296283364296,
        -0.014686924405395985,
        -0.022877497598528862,
        -0.08668696880340576,
        0.0279814675450325,
        0.1228027418255806,
        0.144725501537323,
        0.11706061661243439,
        0.028994590044021606,
        0.09722306579351425,
        -0.15059907734394073,
        0.06487881392240524,
        -0.2552204728126526,
        -0.09638543426990509,
        -0.0940852165222168,
        0.0395679846405983,
        -0.03750593215227127,
        -0.047206681221723557,
        0.001529789064079523,
        -0.17533941566944122,
        -0.08010513335466385,
        -0.040110476315021515,
        -0.04031141847372055,
        -0.0064328741282224655,
        0.022559579461812973,
        -0.18581686913967133,
        -0.11546294391155243,
        0.15659448504447937,
        -0.013370280154049397,
        -0.10686194151639938,
        0.1661568433046341,
        0.08919386565685272,
        -0.11754032224416733,
        -0.006969211623072624,
        -0.020793024450540543,
        0.09245391190052032,
        0.1158953607082367,
        0.07960858196020126,
        -0.14201048016548157,
        -0.11779662221670151,
        0.10733604431152344,
        0.047951728105545044,
        0.17243359982967377,
        0.06012367829680443,
        -0.04263578727841377,
        -0.2081793248653412,
        0.0452398844063282,
        -0.008290427736938,
        -0.06580719351768494,
        -0.03433627635240555,
        -0.012202134355902672,
        -0.10723177343606949,
        -0.031365565955638885,
        0.0805918350815773,
        -0.1004340723156929,
        0.08016888797283173,
        -0.051446203142404556,
        0.04993369057774544,
        -0.0027729016728699207,
        -0.19284306466579437,
        0.06984909623861313,
        -0.14538148045539856,
        0.027844609692692757,
        0.09563904255628586,
        0.009264660999178886,
        0.04710162431001663,
        -0.12036275863647461,
        0.17136435210704803,
        -0.17705588042736053,
        0.20607930421829224,
        0.13233309984207153,
        0.036654893308877945,
        -0.05026010423898697,
        -0.051861364394426346,
        -0.1331033855676651,
        0.09883487969636917,
        -0.012932474724948406,
        0.08933839201927185,
        -0.18525047600269318,
        0.04992508515715599,
        -0.037501271814107895,
        0.0455453135073185,
        -0.06448515504598618,
        0.07390657812356949,
        -0.14114032685756683,
        -0.07162357866764069,
        0.06583698838949203,
        0.09857546538114548,
        -0.0025703785941004753,
        -0.22941848635673523,
        -0.010518106631934643,
        0.1122659295797348,
        0.15237613022327423,
        0.3160199820995331,
        0.06354070454835892,
        -0.08063872903585434,
        -0.1452299803495407,
        -0.03567352890968323,
        -0.13502833247184753,
        0.10059109330177307,
        0.038013868033885956,
        -0.17025123536586761,
        0.046784043312072754,
        -0.012528449296951294,
        -0.21730440855026245,
        -0.03597733750939369,
        0.26473405957221985,
        0.07808417081832886,
        0.1849118024110794,
        0.042253218591213226,
        -0.09305369108915329,
        -0.02089260332286358,
        -0.16467846930027008,
        0.0632571205496788,
        0.09676213562488556,
        -0.036449991166591644,
        -0.13968081772327423,
        0.009158951230347157,
        -0.020783787593245506,
        0.14656901359558105,
        -0.19091945886611938,
        -0.026149408891797066,
        0.07751923054456711,
        -0.020084867253899574,
        -0.15126314759254456,
        0.007577238138765097,
        0.14319925010204315,
        0.05642957240343094,
        -0.1363607794046402,
        0.043284885585308075,
        0.13082502782344818,
        0.026349006220698357,
        0.062166977673769,
        0.05865440517663956,
        -0.02459874376654625,
        0.011394934728741646,
        0.019352249801158905,
        0.053035397082567215,
        0.14265452325344086,
        0.024543333798646927,
        -0.1466921716928482,
        -0.30364561080932617,
        0.0278557687997818,
        0.04803444445133209,
        -0.017328845337033272,
        0.009257473982870579,
        0.013734804466366768,
        -0.0461617186665535,
        0.04823924973607063,
        0.1669921725988388,
        -0.0606912262737751,
        0.08488894253969193,
        0.13213439285755157,
        0.04574163630604744,
        -0.16120456159114838,
        -0.11941167712211609,
        -0.20692738890647888,
        -0.06297575682401657,
        0.14387165009975433,
        -0.2189432978630066,
        -0.05804930627346039,
        0.2195555716753006,
        -0.14531093835830688,
        -0.048177801072597504,
        -0.038627754896879196,
        -0.07620302587747574,
        0.06050379201769829,
        -0.06717958301305771,
        0.04122655838727951,
        -0.02141791209578514,
        -0.1076333075761795,
        0.04672408103942871,
        -0.06579633802175522,
        -0.15659379959106445,
        0.05195748433470726,
        -0.17445498704910278,
        -0.1448671519756317,
        0.09988926351070404,
        -0.0730973482131958,
        -0.11135095357894897,
        0.14559447765350342,
        0.08349776268005371,
        0.04468318447470665,
        -0.038136065006256104,
        0.02248578518629074,
        0.08478575199842453,
        0.047973837703466415,
        -0.017718857154250145,
        -0.18290911614894867,
        -0.17459774017333984,
        0.024621255695819855,
        0.13763634860515594,
        0.1169399619102478,
        -0.0682329311966896,
        -0.12608756124973297,
        -0.10550256073474884,
        -0.04458270221948624,
        0.17698201537132263,
        0.07544932514429092,
        -0.03803345933556557,
        0.1452210694551468,
        -0.07438574731349945,
        -0.08670508861541748,
        0.044259313493967056,
        -0.1310870498418808,
        -0.029254045337438583,
        0.07088696211576462,
        0.1394546627998352,
        -0.18797162175178528,
        0.08191920071840286,
        -0.13100773096084595,
        0.17263735830783844,
        0.045841034501791,
        0.13890500366687775,
        0.11453933268785477,
        -0.09816692024469376,
        0.005571989342570305,
        0.17078812420368195,
        -0.09624771028757095,
        -0.14205700159072876,
        0.04646291956305504,
        0.03188147023320198,
        -0.17044736444950104,
        0.12272143363952637,
        0.07942261546850204,
        -0.24698393046855927,
        -0.055124420672655106,
        0.05057650804519653,
        -0.174721360206604,
        -0.06522812694311142,
        0.13116604089736938,
        0.07987619191408157,
        -0.13112181425094604,
        0.06565490365028381,
        -0.10831597447395325,
        0.07072316110134125,
        0.11502999812364578,
        0.15855668485164642,
        -0.03779066726565361,
        -0.038515280932188034,
        -0.09186209738254547,
        0.07462235540151596,
        -0.07860162854194641,
        0.10568545758724213,
        0.025383463129401207,
        -0.17341701686382294,
        -0.004569329787045717,
        -0.1379159539937973,
        0.035654064267873764,
        -0.05966772139072418,
        -0.07205019146203995,
        0.2228701412677765,
        0.09390172362327576,
        -0.07301217317581177,
        -0.16798166930675507,
        0.17116369307041168,
        0.08410277962684631,
        -0.2672936022281647,
        0.2404363751411438,
        0.02739129401743412,
        -0.17888988554477692,
        0.08736450970172882,
        -0.02364533767104149,
        -0.22485493123531342,
        0.06668052077293396,
        -0.10504134744405746,
        -0.027343744412064552,
        -0.12871411442756653,
        -0.10970930010080338,
        0.19435495138168335,
        -0.22874987125396729,
        -0.09000484645366669,
        0.2974768877029419,
        0.030742507427930832,
        0.1329980343580246,
        -0.1443825364112854,
        -0.21285703778266907,
        -0.12612317502498627,
        0.280925989151001,
        0.2474791407585144,
        0.04103716462850571,
        -0.2941209673881531,
        -0.21726536750793457,
        0.00425168639048934,
        0.2159331887960434,
        0.12072426825761795,
        0.032149139791727066,
        -0.21849925816059113,
        0.18755251169204712,
        0.12946835160255432,
        -0.1666034758090973,
        0.212616965174675,
        -0.048412125557661057,
        -0.22109875082969666,
        0.07218815386295319,
        0.062004368752241135,
        -0.13357622921466827,
        0.2184755802154541,
        -0.0902368500828743,
        -0.42859792709350586,
        0.35606667399406433,
        0.06824943423271179,
        -0.1798694133758545,
        -0.15441620349884033,
        0.43898773193359375,
        -0.14169716835021973,
        0.12641282379627228,
        -0.28727826476097107,
        0.05839924141764641,
        0.0729362890124321,
        -0.12339397519826889,
        -0.03358209878206253,
        0.062324121594429016,
        0.08883687853813171,
        0.08802992850542068,
        -0.051247987896203995,
        -0.1192096471786499,
        -0.003042631084099412,
        0.0042393822222948074,
        -0.34058254957199097,
        0.1224418357014656,
        0.031333889812231064,
        -0.2195816934108734,
        -0.0216593686491251,
        0.10477104038000107,
        0.06405244022607803,
        -0.2344079315662384,
        -0.12555824220180511,
        -0.06883881986141205,
        0.17752037942409515,
        -0.003674271749332547,
        0.2601926028728485,
        -0.16472209990024567,
        -0.261463463306427,
        0.11754819005727768,
        -0.05916207283735275,
        -0.0013066456886008382,
        -0.181282639503479,
        0.022479303181171417,
        -0.170349583029747,
        -0.05447666719555855,
        0.16178883612155914,
        0.0268248338252306,
        -0.08822625130414963,
        0.08138352632522583,
        -0.17804297804832458,
        -0.19038213789463043,
        0.05843065679073334,
        0.12529851496219635,
        -0.20335742831230164,
        0.06622601300477982,
        0.16483362019062042,
        0.1743031144142151,
        -0.3409505784511566,
        0.17609892785549164,
        0.14684827625751495,
        -0.15126407146453857,
        0.12893369793891907,
        0.24634452164173126,
        -0.2185041606426239,
        -0.03623764589428902,
        0.026393629610538483,
        -0.0629139244556427,
        -0.24379907548427582,
        0.035567060112953186,
        0.13337983191013336,
        -0.22542481124401093,
        0.07017944753170013,
        0.2463299036026001,
        0.027811646461486816,
        0.07435410469770432,
        -0.10643582046031952,
        -0.26206761598587036,
        0.02145027555525303,
        0.18342123925685883,
        0.21934519708156586,
        0.158143550157547,
        -0.2831805646419525,
        -0.3303168714046478,
        -0.005179080180823803,
        0.05439378693699837,
        0.2999797463417053,
        -0.04953877627849579,
        -0.21075275540351868,
        0.10163471102714539,
        0.057074256241321564,
        -0.37983715534210205,
        0.2202184647321701,
        0.10948450863361359,
        -0.04404621943831444,
        0.06373194605112076,
        -0.00047126488061621785,
        -0.16286267340183258,
        0.19504347443580627,
        -0.01465760450810194,
        -0.35361000895500183,
        0.06260721385478973,
        -0.033313315361738205,
        -0.3186517059803009,
        0.008553072810173035,
        -0.11092294752597809,
        -0.07893533259630203,
        0.1467629075050354,
        0.0413055382668972,
        -0.11924667656421661,
        0.14100077748298645,
        0.13727369904518127,
        -0.2171097993850708,
        0.07028324902057648,
        0.20917926728725433,
        0.04100843146443367,
        -0.20304378867149353,
        0.008023787289857864,
        0.1265062391757965,
        -0.19357414543628693,
        -0.027492478489875793,
        0.05769187957048416,
        0.10431807488203049,
        0.017127996310591698,
        -0.15876376628875732,
        -0.062860406935215,
        -0.09617481380701065,
        0.1600639969110489,
        0.20628756284713745,
        -0.05517839267849922,
        -0.09611378610134125,
        -0.1426120102405548,
        0.057978272438049316,
        0.23981595039367676,
        0.18269671499729156,
        0.008313897997140884,
        -0.25976791977882385,
        0.062153130769729614,
        0.15668773651123047,
        -0.2226196825504303,
        -0.03494857996702194,
        0.06042639911174774,
        -0.18415910005569458,
        0.1398800164461136,
        -0.029107341542840004,
        -0.04994988068938255,
        0.20594970881938934,
        0.26911744475364685,
        -0.15234878659248352,
        0.2025112360715866,
        0.09100832045078278,
        -0.17020565271377563,
        -0.12407256662845612,
        -0.27863550186157227,
        0.009233611635863781,
        -0.21297383308410645,
        0.19401639699935913,
        0.12152232229709625,
        -0.16955038905143738,
        -0.06158236041665077,
        0.1834198385477066,
        -0.21746324002742767,
        -0.020610736683011055,
        -0.02849648706614971,
        0.0948428362607956,
        0.05548689514398575,
        -0.062343060970306396,
        -0.07118528336286545,
        0.13237936794757843,
        -0.27404287457466125,
        -0.3565870225429535,
        0.07506997883319855,
        -0.11422882974147797,
        0.17296987771987915,
        -0.1388709843158722,
        -0.23759497702121735,
        -0.22531215846538544,
        -0.1843922734260559,
        0.20977455377578735,
        0.2855041027069092,
        -0.09763153642416,
        -0.10313115268945694,
        -0.03893279284238815,
        -0.010947894304990768,
        0.10626311600208282,
        -0.3321416676044464,
        0.2072211354970932,
        0.0320325531065464,
        -0.1093250960111618,
        -0.023628797382116318,
        0.07913488149642944,
        -0.20321105420589447,
        -0.15392498672008514,
        0.1237959936261177,
        -0.3765730857849121,
        0.23201458156108856,
        0.042448125779628754,
        -0.12575870752334595,
        -0.04887326806783676,
        -0.004298064857721329,
        -0.18115021288394928,
        -0.031140971928834915,
        0.05983303487300873,
        -0.05301127955317497,
        -0.008280111476778984,
        0.12192332744598389,
        -0.1314055174589157,
        0.004324736539274454,
        0.15562257170677185,
        -0.028011441230773926,
        0.023926276713609695,
        0.08249158412218094,
        0.1242513433098793,
        -0.17774063348770142,
        -0.058462321758270264,
        0.0763058215379715,
        -0.020746145397424698,
        -0.21452315151691437,
        0.045636728405952454,
        0.10033496469259262,
        -0.08984162658452988,
        0.20348045229911804,
        0.0965748131275177,
        -0.07344183325767517,
        -0.019264737144112587,
        0.14688165485858917,
        0.09606881439685822,
        0.09764812141656876,
        0.016438961029052734,
        -0.02259988524019718,
        -0.1361456960439682,
        -0.04226825013756752,
        0.15359553694725037,
        0.027758294716477394,
        -0.08302205801010132,
        0.07005005329847336,
        -0.022611157968640327,
        0.036228079348802567,
        0.13982121646404266,
        0.0743681862950325,
        -0.0965467244386673,
        0.02799062617123127,
        -0.22657448053359985,
        0.0146945184096694,
        -0.23113134503364563,
        -0.05468253791332245,
        -0.12816882133483887,
        0.09975848346948624,
        -0.06814055144786835,
        -0.1494552344083786,
        0.2352212518453598,
        -0.12742921710014343,
        -0.1623891443014145,
        0.06256817281246185,
        -0.08208388835191727,
        -0.08640109747648239,
        0.20159006118774414,
        -0.2095130831003189,
        -0.025571871548891068,
        0.09162493795156479,
        0.14329305291175842,
        -0.02228282205760479,
        -0.08228130638599396,
        0.11365344375371933,
        0.004038631450384855,
        -0.13768450915813446,
        -0.03994792699813843,
        0.0945340171456337,
        0.17209492623806,
        0.2655877470970154,
        -0.007178033236414194,
        -0.2024553120136261,
        -0.2737051248550415,
        0.01216923724859953,
        -0.01337637659162283,
        0.0488458015024662,
        -0.008581174537539482,
        -0.21699397265911102,
        -0.22030037641525269,
        -0.1405222862958908,
        0.06349882483482361,
        0.053617507219314575,
        -0.11916325986385345,
        0.16042065620422363,
        -0.14102810621261597,
        -0.0233075600117445,
        0.07557778060436249,
        -0.24687549471855164,
        -0.1549510955810547,
        0.2342667132616043,
        -0.08167073130607605,
        -0.2465554028749466,
        0.22673039138317108,
        -0.17182175815105438,
        -0.18222858011722565,
        -0.025495437905192375,
        -0.06690815836191177,
        -0.0941951647400856,
        0.33029618859291077,
        -0.05084003135561943,
        -0.043483227491378784,
        -0.19215211272239685,
        -0.17462922632694244,
        -0.19338957965373993,
        0.0766843929886818,
        0.00034056088770739734,
        0.05533571168780327,
        0.038588736206293106,
        0.12033253163099289,
        0.09855297952890396,
        -0.0054490636102855206,
        0.04403986781835556,
        0.06503643095493317,
        -0.16626770794391632,
        -0.28565219044685364,
        0.06839548796415329,
        -0.14504723250865936,
        0.1816839575767517,
        -0.10235142707824707,
        -0.10353868454694748,
        -0.06193726137280464,
        -0.1965949982404709,
        0.04923013970255852,
        0.04406004026532173,
        0.042293936014175415,
        -0.0757666751742363,
        -0.05607627332210541,
        0.0891336128115654,
        0.1747344732284546,
        -0.03954678028821945,
        -0.023490196093916893,
        0.0813811793923378,
        -0.1920311450958252,
        0.07265967130661011,
        0.12301414459943771,
        0.07006959617137909,
        0.17013387382030487,
        0.12743547558784485,
        -0.12424632161855698,
        0.055318862199783325,
        -0.19752316176891327,
        0.08140255510807037,
        -0.007802539970725775,
        0.09940100461244583,
        -0.0204783882945776,
        0.13932448625564575,
        0.08556161820888519,
        -0.035363711416721344,
        -0.15929001569747925,
        -0.07119020074605942,
        -0.03399582952260971,
        0.002251856029033661,
        -0.06088823452591896,
        -0.12107308208942413,
        0.021935366094112396,
        0.20600324869155884,
        -0.13755756616592407,
        0.015174169093370438,
        -0.021277111023664474,
        -0.03616485744714737,
        -0.1435118466615677,
        -0.29189422726631165,
        -0.15327763557434082,
        -0.12292291224002838,
        -0.06754862517118454,
        0.14396734535694122,
        0.03440043330192566,
        -0.1782972365617752,
        -0.018921108916401863,
        0.052696775645017624,
        0.05506736412644386,
        0.14047814905643463,
        -0.007174582686275244,
        0.04856050759553909,
        -0.12593649327754974,
        -0.013019168749451637,
        0.02613130770623684,
        -0.11493045836687088,
        0.14465023577213287,
        0.024527940899133682,
        -0.15099194645881653,
        0.07659844309091568,
        0.1844029426574707,
        0.08082912862300873,
        0.19231434166431427,
        0.012217311188578606,
        -0.21803687512874603,
        0.008079642429947853,
        -0.14307019114494324,
        -0.12030839920043945,
        -0.009825325571000576,
        0.04043211042881012,
        -0.057464975863695145,
        0.21364617347717285,
        0.10752388834953308,
        0.03519466519355774,
        -0.072854183614254,
        0.0489184744656086,
        -0.0942641943693161,
        -0.02362988144159317,
        0.10889647901058197,
        -0.12545940279960632,
        -0.1336759626865387,
        0.04413843899965286,
        -0.06315731257200241,
        -0.15965881943702698,
        -0.24729327857494354,
        0.11495166271924973,
        -0.09929259866476059,
        -0.22973564267158508,
        -0.06443484127521515,
        0.00041865004459396005,
        -0.06840887665748596,
        0.08447884768247604,
        -0.026170693337917328,
        -0.049457747489213943,
        0.03852090239524841,
        -0.0872042253613472,
        0.11419213563203812,
        0.19065135717391968,
        0.01852267049252987,
        -0.0008252127445302904,
        -0.20447847247123718,
        0.031120317056775093,
        0.13424883782863617,
        -0.05482293665409088,
        0.06828054040670395,
        -0.13251975178718567,
        -0.15724489092826843,
        -0.014118731953203678,
        0.06916582584381104,
        -0.0699092298746109,
        -0.06722712516784668,
        0.08855043351650238,
        -0.07830128073692322,
        -0.2007438689470291,
        -0.05221062898635864,
        0.001187154557555914,
        0.09431782364845276,
        -0.018104637041687965,
        0.009987683966755867,
        0.13437147438526154,
        0.017384881153702736,
        0.07775884121656418,
        0.019458407536149025,
        0.11450055241584778,
        0.002993472618982196,
        0.09589391201734543,
        0.03861140459775925,
        -0.051966432482004166,
        0.05565790832042694,
        0.0866992324590683,
        0.05903507024049759,
        0.0841507837176323,
        0.15786121785640717,
        0.010296642780303955,
        -0.12975163757801056,
        0.11832456290721893,
        0.04873061552643776,
        -0.0928468406200409,
        -0.021811233833432198,
        -0.09077580273151398,
        0.023967327550053596,
        0.19730538129806519,
        0.041517216712236404,
        -0.02403397113084793,
        -0.07908722013235092,
        -0.1984962671995163,
        -0.03882506117224693,
        0.06650423258543015,
        0.13192525506019592,
        -0.007633413653820753,
        -0.10537164658308029,
        0.031115099787712097,
        0.07225583493709564,
        0.1355130672454834,
        -0.08263401687145233,
        0.24662765860557556,
        -0.26530855894088745,
        -0.04395158216357231,
        0.11370223760604858,
        -0.12056146562099457,
        0.5162976980209351,
        -0.12840692698955536,
        -0.04474213346838951,
        -0.037811387330293655,
        -0.10523661971092224,
        0.04044051095843315,
        0.13178002834320068,
        0.03632322698831558,
        0.0108387041836977,
        -0.08947103470563889,
        0.12055075913667679,
        -0.0042393323965370655,
        -0.14575204253196716,
        -0.05280623212456703,
        0.06681596487760544,
        0.028071828186511993,
        0.16688968241214752,
        0.02780620940029621,
        -0.314715713262558,
        -0.04306728392839432,
        -0.033077389001846313,
        0.047251638025045395,
        -0.32103028893470764,
        -0.29353731870651245,
        0.639673113822937,
        0.17907077074050903,
        -0.2812085747718811,
        0.5689011216163635,
        -0.3239273130893707,
        0.3454391360282898,
        0.8495292663574219,
        -1.1034640073776245,
        0.7775977849960327,
        0.36287620663642883,
        -0.10791490972042084,
        -0.464091956615448,
        0.0884580984711647,
        -0.5292503833770752,
        0.0023877080529928207,
        -0.23895606398582458,
        -0.041733115911483765,
        -0.3755477964878082,
        0.257328063249588,
        0.02203809656202793,
        0.2663399875164032,
        -0.10244135558605194,
        -0.0485663041472435,
        0.26896125078201294,
        -0.07101845741271973,
        0.1321781724691391,
        -0.3554477095603943,
        -0.3868333697319031,
        -0.4603640139102936,
        0.045849431306123734,
        0.3514046370983124,
        -0.20404331386089325,
        0.1760808229446411,
        0.38836780190467834,
        0.016248755156993866,
        -0.48968565464019775,
        0.23312321305274963,
        -0.7566317319869995,
        -0.7229512333869934,
        0.21312686800956726,
        0.21990624070167542,
        0.052891697734594345,
        0.24599170684814453,
        0.4750998914241791,
        0.3221661448478699,
        -0.17968741059303284,
        0.050038982182741165,
        -0.24130065739154816,
        0.0615822933614254,
        -0.21489790081977844,
        0.13090646266937256,
        -0.5816433429718018,
        0.04959935322403908,
        -0.42333105206489563,
        -0.3615660071372986,
        0.1694166511297226,
        -0.2163545936346054,
        0.31268930435180664,
        0.20250487327575684,
        -0.267779141664505,
        -0.10091274231672287,
        0.11941631138324738,
        0.219471275806427,
        -0.0044101448729634285,
        0.12070590257644653,
        -0.05013686791062355,
        -0.11042311787605286,
        -0.3877965211868286,
        -0.39789342880249023,
        -0.10263170301914215,
        -0.044372882694005966,
        0.09507235884666443,
        -0.005278229713439941,
        0.2453094869852066,
        0.07121139764785767,
        -0.09050152450799942,
        0.005424093920737505,
        -0.005386869423091412,
        0.18274296820163727,
        -0.1852944940328598,
        0.31778329610824585,
        0.06670437753200531,
        -0.005568438209593296,
        -0.06686393916606903,
        -0.010354133322834969,
        -0.11693407595157623,
        0.10483093559741974,
        -0.06394680589437485,
        0.13718973100185394,
        0.10663855820894241,
        0.015368637628853321,
        0.0475950613617897,
        0.3303956985473633,
        -0.3111490309238434,
        5.958503152214689e-06,
        -0.42549797892570496,
        0.1544215977191925,
        0.16249670088291168,
        -0.3407762944698334,
        -0.3666395843029022,
        0.4631314277648926,
        -0.25635674595832825,
        -0.3833450973033905,
        -0.13439655303955078,
        0.19645486772060394,
        0.0554020069539547,
        0.2338133603334427,
        0.14781254529953003,
        0.3677181005477905,
        0.03440799564123154,
        -0.03823259845376015,
        0.09314874559640884,
        -0.09340779483318329,
        0.014830517582595348,
        0.1979944407939911,
        -0.36209046840667725,
        0.06874269247055054,
        -0.24576182663440704,
        -0.2989788055419922,
        0.3296332359313965,
        0.08404158055782318,
        -0.12869948148727417,
        0.12921041250228882,
        0.17106835544109344,
        0.04556911438703537,
        -0.005622452590614557,
        0.1566726416349411,
        0.14021068811416626,
        -0.18027913570404053,
        -0.06140536814928055,
        0.08421840518712997,
        0.05124601721763611,
        0.14301621913909912,
        -0.032819509506225586,
        0.15550529956817627,
        -0.06647859513759613,
        0.16520598530769348,
        0.03465351462364197,
        0.05371643230319023,
        0.2364168018102646,
        0.11790633946657181,
        -0.12825755774974823,
        -0.20069308578968048,
        0.29635393619537354,
        -0.10438595712184906,
        0.16573099792003632,
        0.19630493223667145,
        -0.22904421389102936,
        -0.2711460590362549,
        -0.03897435963153839,
        -0.18371672928333282,
        0.25779908895492554,
        -0.20528970658779144,
        0.26049354672431946,
        -0.29847705364227295,
        -0.14874884486198425,
        -0.0555681549012661,
        0.06583401560783386,
        0.30058711767196655,
        -0.27773308753967285,
        -0.010719984769821167,
        0.21613170206546783,
        -0.06712773442268372,
        0.18307296931743622,
        -0.09378745406866074,
        -0.20695485174655914,
        -0.0830981656908989,
        -0.06533520668745041,
        0.22515776753425598,
        -0.14956100285053253,
        0.0012959890300408006,
        -0.03938687592744827,
        0.2869645953178406,
        -0.05856730043888092,
        0.21553771197795868,
        -0.07099989801645279,
        -0.15495717525482178,
        -0.1725919395685196,
        0.1991594433784485,
        -0.2518175542354584,
        0.08935518562793732,
        -0.11105019599199295,
        0.1593066304922104,
        0.12370095402002335,
        -0.27936679124832153,
        0.08585622161626816,
        -0.061924342066049576,
        -0.24946491420269012,
        -0.034136462956666946,
        0.13584405183792114,
        0.21127040684223175,
        -0.06398317962884903,
        -0.12113101780414581,
        0.07575204223394394,
        -0.1573318988084793,
        -0.10916057974100113,
        0.7924853563308716,
        -0.1948709338903427,
        -0.3942777216434479,
        -0.4394342005252838,
        -0.15041208267211914,
        0.19806689023971558,
        -0.23179002106189728,
        -0.08505842834711075,
        0.05560711398720741,
        0.06476829946041107,
        -0.45513656735420227,
        0.003375669475644827,
        -0.21785672008991241,
        -0.15941740572452545,
        0.3192329406738281,
        0.05814804136753082,
        -0.2771744132041931,
        -0.13193941116333008,
        0.18067827820777893,
        0.04853697866201401,
        -0.3186350464820862,
        0.05095429718494415,
        -0.029865961521863937,
        0.17949900031089783,
        -0.061634503304958344,
        -0.02232278697192669,
        -0.33982372283935547,
        0.3758746385574341,
        -0.379288911819458,
        -0.3030064105987549,
        0.2746628224849701,
        -0.04500792548060417,
        -0.02791309915482998,
        -0.005668428726494312,
        0.15764877200126648,
        0.06886662542819977,
        -0.1288786679506302,
        -0.2757669985294342,
        -0.2302418202161789,
        0.010128097608685493,
        -0.25478509068489075,
        0.11307600140571594,
        0.11039217561483383,
        0.08332972228527069,
        0.03833109512925148,
        0.19703984260559082,
        -0.2319643646478653,
        -0.6136433482170105,
        0.1675553172826767,
        -0.7160868048667908,
        -0.222564235329628,
        0.22070196270942688,
        0.2070614993572235,
        0.364034503698349,
        0.20838560163974762,
        0.20601734519004822,
        0.1490323543548584,
        -0.2939189076423645,
        0.022476226091384888,
        -0.20623211562633514,
        -0.07005931437015533,
        -0.17423276603221893,
        -0.19009625911712646,
        -0.6689952611923218,
        0.15122371912002563,
        -0.6746132969856262,
        -0.36157333850860596,
        0.3462230861186981,
        0.23390991985797882,
        0.425540953874588,
        -0.14827391505241394,
        0.0131287956610322,
        -0.0394713468849659,
        0.055194538086652756,
        -0.0628424733877182,
        0.06489197164773941,
        -0.009072103537619114,
        0.0638410896062851,
        -0.031548064202070236,
        0.11851399391889572,
        0.1448584496974945,
        0.032031379640102386,
        -0.14064377546310425,
        -0.08658473938703537,
        0.07323278486728668,
        0.05408946052193642,
        0.1196741908788681,
        0.12979021668434143,
        -0.0059828669764101505,
        -0.011668902821838856,
        0.20593200623989105,
        -0.015902629122138023,
        -0.06787490844726562,
        -0.2705034613609314,
        -0.14163200557231903,
        0.17952191829681396,
        0.18091417849063873,
        -0.04059499874711037,
        -0.07630821317434311,
        -0.1488281786441803,
        0.10590532422065735,
        0.19479653239250183,
        -0.10506964474916458,
        -0.17286980152130127,
        -0.026821410283446312,
        -0.07999221235513687,
        -0.0134773263707757,
        0.1872766762971878,
        0.1629531979560852,
        -0.08811169862747192,
        -0.09298057109117508,
        -0.3147943615913391,
        0.048655882477760315,
        0.1394464522600174,
        0.15280736982822418,
        -0.13621634244918823,
        -0.18780651688575745,
        -0.18571490049362183,
        0.08465380221605301,
        0.03795803710818291,
        0.07034755498170853,
        -0.12581847608089447,
        0.07480629533529282,
        0.13696447014808655,
        -0.3313163220882416,
        0.09135119616985321,
        0.013232791796326637,
        0.02426672726869583,
        -0.18427981436252594,
        0.16412325203418732,
        -0.03203067183494568,
        -0.23122410476207733,
        -0.3092055022716522,
        -0.20325681567192078,
        0.01043135765939951,
        0.09926252067089081,
        -0.12981289625167847,
        -0.0566156841814518,
        0.06939785182476044,
        0.10376427322626114,
        0.0296925101429224,
        0.370564728975296,
        -0.15791240334510803,
        -0.004933779127895832,
        0.19229890406131744,
        -0.21652241051197052,
        0.10364317148923874,
        0.0992010310292244,
        0.18880732357501984,
        0.07430551201105118,
        0.038981687277555466,
        0.006709335837513208,
        0.09510017186403275,
        0.15277081727981567,
        -0.22277051210403442,
        -0.00647761533036828,
        -0.1416657418012619,
        0.04425230622291565,
        -0.022248918190598488,
        -0.0523882620036602,
        -0.1826729029417038,
        -0.1671825796365738,
        0.025167079642415047,
        0.1822117567062378,
        0.004177654627710581,
        0.014081217348575592,
        0.10905633121728897,
        0.12859906256198883,
        -0.032234568148851395,
        0.12014447897672653,
        -0.004691859241575003,
        0.3660337030887604,
        -0.4428282380104065,
        -0.33634692430496216,
        -0.0904138907790184,
        0.08315254002809525,
        0.09569951891899109,
        -0.17423197627067566,
        0.15256991982460022,
        -0.07276138663291931,
        0.23183374106884003,
        0.07834231853485107,
        0.03614753112196922,
        0.1675679236650467,
        -0.144507497549057,
        0.04444074258208275,
        0.00721911434084177,
        -0.16946640610694885,
        0.05548233911395073,
        -0.05780373886227608,
        -0.14368396997451782,
        -0.04710228368639946,
        -0.11177141964435577,
        -0.13068199157714844,
        -0.03017399273812771,
        -0.1982501894235611,
        -0.001308768754824996,
        -0.051308587193489075,
        -0.05044306069612503,
        -0.08086219429969788,
        0.05401729419827461,
        -0.3335393965244293,
