{
    "version": "0.5.0",
    "architecture": "WaveNet",
    "config": {
        "layers": [
            {
                "input_size": 1,
                "condition_size": 1,
                "head_size": 8,
                "channels": 16,
                "kernel_size": 3,
                "dilations": [
                    1,
                    2,
                    4,
                    8,
                    16,
                    32,
                    64,
                    128,
                    256,
                    512
                ],
                "activation": "Tanh",
                "gated": false,
                "head_bias": false
            },
            {
                "input_size": 16,
                "condition_size": 1,
                "head_size": 1,
                "channels": 8,
                "kernel_size": 3,
                "dilations": [
                    1,
                    2,
                    4,
                    8,
                    16,
                    32,
                    64,
                    128,
                    256,
                    512
                ],
                "activation": "Tanh",
                "gated": false,
                "head_bias": true
            }
        ],
        "head": null,
        "head_scale": 0.02
    },
    "weights": [
        -0.003981585614383221,
        0.3825499415397644,
        -0.9750799536705017,
        -0.8044789433479309,
        -0.35720667243003845,
        0.4010922312736511,
        -0.03344574570655823,
        0.9249358177185059,
        -0.17230316996574402,
        0.35369133949279785,
        -0.39787557721138,
        -0.2604975700378418,
        -0.9965223670005798,
        -0.6520475149154663,
        -0.5183162093162537,
        -0.0007430302794091403,
        0.047714997082948685,
        0.060219962149858475,
        -0.08368328958749771,
        -0.15427273511886597,
        0.0013983441749587655,
        0.06683198362588882,
        0.07342144101858139,
        0.1668826937675476,
        0.036389801651239395,
        0.1141590029001236,
        0.18602821230888367,
        -0.0777769461274147,
        0.0036808087024837732,
        0.01615152135491371,
        -0.001204727916046977,
        0.031425248831510544,
        -0.14246545732021332,
        -0.11697348207235336,
        -0.04771490767598152,
        -0.12362266331911087,
        -0.06168182194232941,
        0.022971704602241516,
        0.007216055877506733,
        0.012221153825521469,
        0.09289899468421936,
        -0.034607239067554474,
        0.06410364806652069,
        -0.23048993945121765,
        -0.15529115498065948,
        -0.12525779008865356,
        0.18447686731815338,
        0.13378028571605682,
        -0.013483556918799877,
        0.0835827961564064,
        0.13736501336097717,
        0.19014938175678253,
        0.15735700726509094,
        0.07653449475765228,
        0.15458016097545624,
        0.012970463372766972,
        0.0818062573671341,
        -0.05637240409851074,
        -0.0003528644156176597,
        -0.019172899425029755,
        0.12158506363630295,
        0.05093894526362419,
        -0.0838116705417633,
        0.043787941336631775,
        0.014560076408088207,
        -0.03924669325351715,
        -0.029726900160312653,
        5.5593456636415794e-05,
        0.07340129464864731,
        0.10114779323339462,
        -0.07063272595405579,
        -0.038198262453079224,
        0.09789211302995682,
        0.15850681066513062,
        0.14056409895420074,
        0.16741251945495605,
        0.06248248741030693,
        -0.11658584326505661,
        0.04965830221772194,
        -0.12179242074489594,
        -0.1377875953912735,
        0.09677767753601074,
        0.09091334789991379,
        -0.16902673244476318,
        0.01695195585489273,
        -0.0642072781920433,
        -0.03823380172252655,
        -0.1066499873995781,
        0.07448531687259674,
        -0.08710038661956787,
        0.07004071027040482,
        0.03890325874090195,
        0.09281983971595764,
        0.020494671538472176,
        -0.1091725304722786,
        -0.08719927072525024,
        0.10632780194282532,
        0.05844015255570412,
        -0.10837087035179138,
        -0.053683023899793625,
        0.1757381707429886,
        0.11349989473819733,
        -0.0216115340590477,
        0.0019835082348436117,
        -0.12127193808555603,
        0.037249550223350525,
        -0.07292303442955017,
        -0.10168652981519699,
        0.02750924788415432,
        0.013516798615455627,
        -0.11389553546905518,
        0.08145060390233994,
        -0.048617515712976456,
        0.07616336643695831,
        0.1290416568517685,
        -0.13042104244232178,
        0.09057193994522095,
        -0.08792826533317566,
        0.026120025664567947,
        -0.10371384769678116,
        0.15592648088932037,
        0.016067342832684517,
        -0.2045278698205948,
        0.1681455671787262,
        -0.12216509878635406,
        -0.20782093703746796,
        0.06929846853017807,
        -0.08812648057937622,
        0.0765102207660675,
        -0.23015066981315613,
        0.00238638068549335,
        -0.07945604622364044,
        0.024900855496525764,
        -0.015803717076778412,
        0.23714113235473633,
        -0.11669731885194778,
        0.041923217475414276,
        -0.12322259694337845,
        0.17169632017612457,
        0.07121901959180832,
        0.2595513164997101,
        -0.028122294694185257,
        0.15339162945747375,
        -0.13726021349430084,
        -0.020334064960479736,
        -0.04782450944185257,
        -0.02600565180182457,
        0.1128552034497261,
        -0.06420310586690903,
        -0.2438427060842514,
        -0.035779427736997604,
        -0.11232726275920868,
        -0.15981246531009674,
        0.18114173412322998,
        0.09151499718427658,
        -0.27017390727996826,
        0.19905006885528564,
        -0.13285592198371887,
        -0.07855241745710373,
        -0.08290455490350723,
        -0.0884796753525734,
        0.0025405322667211294,
        -0.17126601934432983,
        -0.098125159740448,
        -0.12873303890228271,
        0.0007602718542329967,
        -0.0906229317188263,
        0.16819022595882416,
        -0.12433420866727829,
        -0.035141266882419586,
        0.2393861711025238,
        -0.05448560044169426,
        0.09375608712434769,
        0.1506083607673645,
        -0.13510847091674805,
        0.12621092796325684,
        -0.12211834639310837,
        -0.06135396286845207,
        0.07372146844863892,
        -0.017734477296471596,
        -0.004523183219134808,
        -0.0038743754848837852,
        -0.008933174423873425,
        0.0361117422580719,
        0.026324091479182243,
        0.15327125787734985,
        -0.056338731199502945,
        0.0037069981917738914,
        -0.22490321099758148,
        0.08672502636909485,
        0.08059945702552795,
        0.20361512899398804,
        -0.10413646697998047,
        -0.03150534629821777,
        0.0008815847686491907,
        -0.08759742230176926,
        -0.10892275720834732,
        0.1617988497018814,
        -0.08097828924655914,
        -0.02931801788508892,
        0.11672627180814743,
        0.09497285634279251,
        -0.1401922106742859,
        0.010058457963168621,
        -0.08475776016712189,
        0.06646458059549332,
        -0.0761822909116745,
        0.14208312332630157,
        0.013072687201201916,
        0.055588364601135254,
        -0.039278190582990646,
        -0.0907491073012352,
        -0.1387404501438141,
        0.01249935757368803,
        0.06913673132658005,
        0.18696290254592896,
        -0.15918326377868652,
        -0.008789174258708954,
        0.28077051043510437,
        -0.16449511051177979,
        0.04484749212861061,
        0.2939704656600952,
        -0.0035696884151548147,
        -0.05463934317231178,
        -0.28241539001464844,
        0.12766730785369873,
        -0.04751996695995331,
        0.11320427805185318,
        -0.09350106865167618,
        -0.0873923972249031,
        -0.16172850131988525,
        0.16830399632453918,
        0.06152355298399925,
        0.27255555987358093,
        0.009389638900756836,
        -0.14680159091949463,
        -0.08835604041814804,
        -0.03815072029829025,
        -0.00205893162637949,
        0.19894641637802124,
        -0.007296781521290541,
        0.16319334506988525,
        0.10733596980571747,
        -0.05849095806479454,
        0.1404155045747757,
        0.02328263781964779,
        0.056742288172245026,
        -0.05468841269612312,
        0.16287478804588318,
        -0.07381246238946915,
        -0.01415462326258421,
        0.1798248291015625,
        0.06443106383085251,
        -0.0252396073192358,
        -0.0791061520576477,
        -0.06486604362726212,
        -0.09597313404083252,
        0.043961383402347565,
        -0.03517359122633934,
        -0.11702053993940353,
        -0.018057813867926598,
        0.08035937696695328,
        0.09502127766609192,
        0.04035637900233269,
        0.05262952297925949,
        -0.02851005084812641,
        -0.1090097576379776,
        0.04453163594007492,
        0.14492769539356232,
        -0.020364806056022644,
        -0.06225709989666939,
        -0.0981692522764206,
        -0.07785894721746445,
        0.018943827599287033,
        -0.019827470183372498,
        -0.15867026150226593,
        0.18239745497703552,
        -0.11381484568119049,
        0.051988016813993454,
        0.039157021790742874,
        0.05036807805299759,
        -0.14554306864738464,
        -0.07647708803415298,
        0.08648859709501266,
        0.08497174084186554,
        0.1036418229341507,
        -0.020572174340486526,
        -0.017886508256196976,
        -0.023470580577850342,
        0.0267628226429224,
        -0.14480657875537872,
        0.06573061645030975,
        0.06439163535833359,
        -0.07220020145177841,
        -0.03194678574800491,
        -0.06876269727945328,
        0.0320286750793457,
        -0.10382573306560516,
        0.08416716754436493,
        -0.1132505014538765,
        -0.061223432421684265,
        0.060717035084962845,
        -0.047688405960798264,
        0.021931393072009087,
        0.031641699373722076,
        -0.20109793543815613,
        0.023549286648631096,
        0.10661501437425613,
        0.18302330374717712,
        -0.15314488112926483,
        -0.173521026968956,
        -0.16057665646076202,
        0.19189663231372833,
        -0.10403583198785782,
        -0.0795949175953865,
        0.23773470520973206,
        -0.11822336167097092,
        -0.12225779891014099,
        0.20430782437324524,
        0.053066547960042953,
        0.1382807195186615,
        -0.13619844615459442,
        -0.127971351146698,
        -0.09829193353652954,
        0.2584131062030792,
        0.1808030754327774,
        0.21844932436943054,
        -0.12503671646118164,
        0.04993423819541931,
        -0.1786925494670868,
        0.06584598869085312,
        -0.08715170621871948,
        0.26567816734313965,
        -0.07094475626945496,
        -0.14309710264205933,
        -0.07037608325481415,
        0.2598209083080292,
        0.10672435909509659,
        0.002075286116451025,
        0.26716727018356323,
        -0.08386057615280151,
        -0.18382802605628967,
        0.25957348942756653,
        0.032587938010692596,
        -0.21771450340747833,
        0.2729213535785675,
        0.023446902632713318,
        -0.05238847807049751,
        0.06081752851605415,
        0.0031220195814967155,
        -0.07777318358421326,
        0.11862091720104218,
        -0.06410235166549683,
        -0.024767672643065453,
        0.040572330355644226,
        0.1280842125415802,
        0.09077531844377518,
        -0.08303314447402954,
        -0.16215993463993073,
        -0.1092800498008728,
        0.07590872049331665,
        -0.20526175200939178,
        -0.2576194405555725,
        0.2816915512084961,
        0.00872974842786789,
        -0.01171970646828413,
        0.2780931293964386,
        -0.061811257153749466,
        0.04941726103425026,
        -0.19399167597293854,
        -0.1563362181186676,
        -0.037733547389507294,
        0.025240637362003326,
        -0.007905618287622929,
        0.002939479425549507,
        -0.2522568702697754,
        0.05381757766008377,
        -0.028155343607068062,
        0.26489588618278503,
        0.1758638173341751,
        0.2728092670440674,
        -0.2026953101158142,
        -0.0018461868166923523,
        -0.017289837822318077,
        0.21742551028728485,
        0.07909257709980011,
        -0.06989798694849014,
        0.25590619444847107,
        -0.11450795829296112,
        -0.07285027951002121,
        0.18281280994415283,
        -0.0981089249253273,
        -0.22279693186283112,
        0.0824352279305458,
        -0.17575703561306,
        -0.048818252980709076,
        0.2723527252674103,
        -0.09273020178079605,
        -0.1786123365163803,
        0.15113608539104462,
        0.1280253678560257,
        -0.05933298543095589,
        -0.06820981949567795,
        0.10698392242193222,
        0.20946957170963287,
        -0.12889692187309265,
        0.16246230900287628,
        -0.052840299904346466,
        -0.034186575561761856,
        0.10625642538070679,
        -0.24120678007602692,
        -0.003221857827156782,
        0.1558133214712143,
        -0.14295414090156555,
        -0.07678838819265366,
        -0.08375836163759232,
        0.1138271763920784,
        -0.05671977996826172,
        0.06341157853603363,
        0.0024728577118366957,
        0.04902184009552002,
        -0.1146760806441307,
        0.1674526482820511,
        0.049425963312387466,
        0.11913640052080154,
        -0.2743757367134094,
        0.023857958614826202,
        -0.1406448483467102,
        0.09146063774824142,
        0.02014908939599991,
        -0.06987610459327698,
        -0.10055447369813919,
        0.14818018674850464,
        0.047353826463222504,
        -0.24545042216777802,
        -0.019534744322299957,
        0.055614352226257324,
        -0.26952624320983887,
        0.08981218934059143,
        -0.1056215837597847,
        -0.29581692814826965,
        -0.11963842064142227,
        0.0016872193664312363,
        -0.0597761832177639,
        -0.11048660427331924,
        0.15736159682273865,
        -0.07184939831495285,
        0.04283257573843002,
        0.06199367344379425,
        -0.09918136894702911,
        0.17861291766166687,
        0.1858012080192566,
        0.18456685543060303,
        0.05339508503675461,
        -0.21665410697460175,
        0.07897524535655975,
        0.03129925578832626,
        -0.04883011057972908,
        -0.15647734701633453,
        -0.01825142279267311,
        -0.25438955426216125,
        -0.09265642613172531,
        0.0537777915596962,
        -0.00111607916187495,
        0.0777335986495018,
        0.046451468020677567,
        -0.025656217709183693,
        -0.08964557945728302,
        -0.04413225129246712,
        0.07428815960884094,
        0.10388552397489548,
        0.11870288848876953,
        -0.012345660477876663,
        -0.040031492710113525,
        0.09990157186985016,
        -0.030213970690965652,
        -0.08794673532247543,
        0.034611474722623825,
        -0.19364206492900848,
        0.037028323858976364,
        -0.07218807190656662,
        -0.17663368582725525,
        -0.14873461425304413,
        0.10951454937458038,
        -0.1331193447113037,
        0.06869509071111679,
        0.11026022583246231,
        -0.03532843291759491,
        -0.03653653711080551,
        -0.021701063960790634,
        -0.148227721452713,
        -0.018690098077058792,
        0.09925729781389236,
        -0.03372509032487869,
        0.24484165012836456,
        0.09770109504461288,
        -0.06583871692419052,
        0.037373945116996765,
        0.18432632088661194,
        0.09212800860404968,
        -0.3218265175819397,
        0.230647474527359,
        0.11450771242380142,
        0.287026971578598,
        -0.017637306824326515,
        -0.03300148993730545,
        0.24682529270648956,
        -0.07491797208786011,
        -0.009847374632954597,
        0.23875170946121216,
        -0.1827327311038971,
        0.0498746857047081,
        -0.24087482690811157,
        0.0861918032169342,
        0.09333977103233337,
        0.24787300825119019,
        -0.16830383241176605,
        -0.03204314783215523,
        -0.11916278302669525,
        0.12142375856637955,
        0.08183088898658752,
        0.15561926364898682,
        -0.09574151039123535,
        -0.14520345628261566,
        -0.28115952014923096,
        0.0687398836016655,
        0.17479903995990753,
        0.16303211450576782,
        -0.13702638447284698,
        -0.029508966952562332,
        0.3420585095882416,
        0.003130999393761158,
        -0.06392024457454681,
        0.08387437462806702,
        -0.2421441525220871,
        0.043308671563863754,
        0.1608685851097107,
        -0.22823858261108398,
        -0.012021082453429699,
        0.22662456333637238,
        -0.21728678047657013,
        0.0626610741019249,
        0.09791065752506256,
        -0.08274350315332413,
        0.09702146053314209,
        0.29427990317344666,
        0.05974192172288895,
        0.0512310229241848,
        -0.18448308110237122,
        0.1187063604593277,
        -0.1787063628435135,
        0.004635995719581842,
        0.17061495780944824,
        -0.13424870371818542,
        0.16723604500293732,
        0.013429353944957256,
        -0.08561655879020691,
        0.0936504676938057,
        0.10868038237094879,
        0.06097323074936867,
        -0.272596538066864,
        -0.10340902954339981,
        -0.10545965284109116,
        0.18790479004383087,
        -0.08492963016033173,
        0.18101607263088226,
        -0.17057886719703674,
        -0.05022692307829857,
        0.044808171689510345,
        0.18801236152648926,
        0.11696473509073257,
        0.13851068913936615,
        -0.1717362254858017,
        -0.10656151175498962,
        -0.0627148225903511,
        0.251986563205719,
        -0.028897128999233246,
        -0.18595820665359497,
        0.1917973905801773,
        0.15954819321632385,
        -0.08544260263442993,
        0.017847783863544464,
        -0.10671640932559967,
        -0.01019500382244587,
        0.12287107855081558,
        -0.05234946683049202,
        -0.020659130066633224,
        0.19010689854621887,
        0.13477474451065063,
        0.16746200621128082,
        0.1315566450357437,
        0.04104309529066086,
        -0.16038095951080322,
        0.03918299451470375,
        0.04314569756388664,
        0.15372206270694733,
        0.003949876409024,
        0.03341931477189064,
        0.031349290162324905,
        -0.012600744143128395,
        -0.018936147913336754,
        -0.15478971600532532,
        -0.23816439509391785,
        0.24026378989219666,
        -0.15288886427879333,
        -0.19430074095726013,
        0.18343351781368256,
        0.028139786794781685,
        0.06414865702390671,
        -0.12361891567707062,
        -0.0996055081486702,
        -0.24646103382110596,
        0.2099025398492813,
        0.03546663746237755,
        0.18890288472175598,
        0.01871023327112198,
        -0.003788015339523554,
        -0.10169780254364014,
        0.250774085521698,
        0.10567019134759903,
        0.05956733226776123,
        0.016775725409388542,
        -0.057927206158638,
        -0.2729131281375885,
        0.0712544247508049,
        -0.1885688453912735,
        -0.005941301584243774,
        0.08756767213344574,
        -0.22998864948749542,
        -0.1458745151758194,
        0.19519279897212982,
        -0.05802483484148979,
        -0.08838851749897003,
        0.1196712851524353,
        -0.0442342571914196,
        -0.17273855209350586,
        0.051611997187137604,
        -0.19601356983184814,
        -0.14680786430835724,
        0.058949921280145645,
        -0.14793260395526886,
        0.06172617897391319,
        0.017407413572072983,
        0.06807917356491089,
        -0.2095450460910797,
        0.12681908905506134,
        -0.14237485826015472,
        0.24286828935146332,
        -0.09870664030313492,
        -0.09281307458877563,
        0.20081301033496857,
        -0.043847229331731796,
        0.0548735037446022,
        0.012936228886246681,
        -0.11347714066505432,
        0.0020336508750915527,
        -0.09265318512916565,
        0.12446369230747223,
        -0.14235636591911316,
        0.14916697144508362,
        -0.04758817330002785,
        0.026977945119142532,
        -0.017048384994268417,
        -0.12782445549964905,
        -0.05679617449641228,
        0.2473376840353012,
        -0.02402791753411293,
        0.17458543181419373,
        -0.1638263463973999,
        0.10749842971563339,
        -0.20443198084831238,
        0.09624435007572174,
        -0.01482196431607008,
        -0.02388499118387699,
        0.16756100952625275,
        0.11302931606769562,
        -0.07797712087631226,
        0.11776615679264069,
        0.11570651829242706,
        -0.09618024528026581,
        0.2483368068933487,
        -0.08150014281272888,
        -0.07909663766622543,
        0.11185469478368759,
        0.0750679150223732,
        0.06791509687900543,
        -0.015836261212825775,
        -0.10692650824785233,
        0.06297449767589569,
        -0.030896253883838654,
        0.014734514988958836,
        -0.0877307876944542,
        0.18790723383426666,
        0.1337161362171173,
        0.003832109272480011,
        -0.24187792837619781,
        0.09775424748659134,
        -0.11337272077798843,
        -0.07042696326971054,
        0.01950007863342762,
        -0.06259416788816452,
        -0.04110800102353096,
        -0.12193743139505386,
        0.03047926351428032,
        0.004796162247657776,
        -0.02166627161204815,
        0.023005234077572823,
        0.03391801938414574,
        -0.05599191039800644,
        0.09817476570606232,
        0.08495715260505676,
        -0.0675966665148735,
        -0.1136021614074707,
        -0.21774014830589294,
        0.16749931871891022,
        -0.037622831761837006,
        0.10262385755777359,
        0.02792532742023468,
        0.09883097559213638,
        0.02591434307396412,
        0.1210717186331749,
        -0.10096405446529388,
        -0.11523637920618057,
        -0.07465831935405731,
        -0.08840004354715347,
        -0.06855444610118866,
        0.13408489525318146,
        -0.12006180733442307,
        -0.012987889349460602,
        -0.07318016141653061,
        -0.02922964282333851,
        0.014937355183064938,
        -0.02802921086549759,
        -0.005499940365552902,
        -0.13452769815921783,
        0.08148389309644699,
        0.019138451665639877,
        -0.1195741817355156,
        0.044328074902296066,
        -0.08038132637739182,
        -0.044642578810453415,
        0.044713009148836136,
        0.08650447428226471,
        -0.11630205810070038,
        0.02689489535987377,
        0.09732227772474289,
        0.02156667597591877,
        -0.11563532799482346,
        -0.03566437587141991,
        -0.11207978427410126,
        -0.15066704154014587,
        0.018440568819642067,
        0.17364664375782013,
        0.15364600718021393,
        0.02857271395623684,
        -8.146409527398646e-05,
        -0.06077427789568901,
        0.13607469201087952,
        0.01433668565005064,
        -0.05995351821184158,
        0.011908603832125664,
        0.027752451598644257,
        -0.15014004707336426,
        0.15296782553195953,
        0.12201032042503357,
        -0.06728552281856537,
        -0.0517125129699707,
        0.057811155915260315,
        -0.14530827105045319,
        -0.05658978968858719,
        -0.014708378352224827,
        -0.15431074798107147,
        0.05086766555905342,
        -0.0004946604603901505,
        0.047897931188344955,
        -0.11863531172275543,
        0.0697387233376503,
        -0.124931201338768,
        0.12076756358146667,
        -0.20926004648208618,
        -0.16458600759506226,
        0.12195061892271042,
        0.059085994958877563,
        0.036320872604846954,
        -0.01975174807012081,
        -0.11551490426063538,
        -0.05974400043487549,
        -0.10496985167264938,
        0.019395988434553146,
        0.05289551243185997,
        -0.016678521409630775,
        -0.05594474449753761,
        0.05854061245918274,
        0.09386817365884781,
        0.012390132993459702,
        0.0007312344969250262,
        -0.03516937419772148,
        -0.01736609824001789,
        -0.024018703028559685,
        0.03220454230904579,
        0.3838064670562744,
        -0.4727843701839447,
        0.7047066688537598,
        -0.7123184204101562,
        0.04439206048846245,
        0.9045119285583496,
        0.8596348166465759,
        -0.7489895224571228,
        0.16546256840229034,
        0.0997568741440773,
        -0.33676549792289734,
        -0.37597790360450745,
        0.17033687233924866,
        -0.7166787385940552,
        0.17265339195728302,
        0.47803953289985657,
        -0.09998323023319244,
        0.2399410903453827,
        0.028507156297564507,
        0.13516470789909363,
        0.1738729178905487,
        -0.07397524267435074,
        0.15211254358291626,
        -0.005423869471997023,
        -0.024538906291127205,
        -0.044723909348249435,
        -0.08439083397388458,
        -0.1292654424905777,
        0.09105172753334045,
        -0.024090997874736786,
        0.1840703934431076,
        -0.014106931164860725,
        0.02241631969809532,
        0.033851008862257004,
        -0.39584779739379883,
        0.20267224311828613,
        0.26633840799331665,
        -0.25480887293815613,
        -0.25016769766807556,
        0.16610722243785858,
        -0.18152892589569092,
        0.027993908151984215,
        0.11130201816558838,
        0.2990795373916626,
        -0.05646597594022751,
        0.10882557183504105,
        -0.09639034420251846,
        -0.010081353597342968,
        0.16795481741428375,
        0.24864985048770905,
        -0.21788311004638672,
        0.37830543518066406,
        0.1693088412284851,
        -0.3678521513938904,
        -0.11961162090301514,
        0.07012636214494705,
        -0.23276196420192719,
        -0.3484705686569214,
        0.3357221186161041,
        0.08336126804351807,
        -0.07162021845579147,
        0.47201859951019287,
        -0.1414940059185028,
        -0.23932896554470062,
        0.12551748752593994,
        -0.12741228938102722,
        -0.10147760808467865,
        -0.14276571571826935,
        -0.020650997757911682,
        0.06065792217850685,
        0.013528062961995602,
        0.034959036856889725,
        -0.2371499389410019,
        0.07075818628072739,
        0.005782547872513533,
        0.13034367561340332,
        0.13903144001960754,
        0.25753188133239746,
        -0.1575947105884552,
        0.0034228547010570765,
        -0.1904558539390564,
        -0.2959098219871521,
        -0.1824069768190384,
        0.11514007300138474,
        0.09381445497274399,
        0.11714319884777069,
        0.18997730314731598,
        0.09669823944568634,
        0.07426577061414719,
        0.31148195266723633,
        -0.17310817539691925,
        0.26996541023254395,
        0.051115334033966064,
        0.14349064230918884,
        -0.03429767116904259,
        0.07073531299829483,
        -0.34387922286987305,
        -0.16459909081459045,
        0.18751473724842072,
        -0.0647037923336029,
        0.09556490927934647,
        0.3825112581253052,
        0.33497142791748047,
        -0.14242757856845856,
        0.3080166280269623,
        0.12534059584140778,
        -0.2698945105075836,
        -0.1880621761083603,
        0.11322864145040512,
        -0.3014070689678192,
        0.23310942947864532,
        0.23235906660556793,
        -0.011788641102612019,
        0.16844037175178528,
        0.23427946865558624,
        0.13200679421424866,
        -0.23685666918754578,
        -0.308596670627594,
        0.11232799291610718,
        0.31621962785720825,
        0.12049231678247452,
        -0.3222963213920593,
        -0.3496480882167816,
        0.12690694630146027,
        0.1792690008878708,
        -0.21195097267627716,
        0.13188111782073975,
        -0.2831217348575592,
        0.12008608132600784,
        -0.04616721346974373,
        0.43458759784698486,
        -0.3288879692554474,
        -0.4392933249473572,
        0.2908450961112976,
        0.3964129686355591,
        -0.0026243289466947317,
        0.27342236042022705,
        -0.06834132224321365,
        -0.003106570104137063,
        -0.33498528599739075,
        0.25492721796035767,
        -0.30111533403396606,
        0.08390413224697113,
        0.20957809686660767,
        0.1317225843667984,
        0.1330464482307434,
        -0.44785603880882263,
        -0.04941217973828316,
        0.39010146260261536,
        -0.24853399395942688,
        -0.3896544277667999,
        -0.015515634790062904,
        -0.38309726119041443,
        -0.40723130106925964,
        0.369553804397583,
        0.2359832227230072,
        -0.2029995322227478,
        0.08434958755970001,
        -0.21969184279441833,
        -0.1728661209344864,
        -0.4083169102668762,
        -0.2536524534225464,
        0.5275494456291199,
        -0.4450501501560211,
        -0.6770607829093933,
        0.30143827199935913,
        0.5897185802459717,
        -0.19355276226997375,
        0.2850646674633026,
        0.5146666169166565,
        -0.30968838930130005,
        -0.11612514406442642,
        0.5296787023544312,
        -0.09925653785467148,
        0.2738633453845978,
        0.3608438968658447,
        0.13538572192192078,
        0.32101646065711975,
        -0.32118234038352966,
        0.18547514081001282,
        -0.007514663506299257,
        -0.33598318696022034,
        -0.013497039675712585,
        0.17097431421279907,
        -0.02580481395125389,
        -0.23627477884292603,
        -0.11152383685112,
        0.05385923758149147,
        -0.16186220943927765,
        0.232406884431839,
        -0.04884980246424675,
        0.08623962849378586,
        0.05938521400094032,
        0.015465283766388893,
        0.05655108764767647,
        0.07219214737415314,
        0.1461745798587799,
        -0.15877243876457214,
        -0.10508428514003754,
        0.11522983759641647,
        -0.08858373016119003,
        -0.2632944881916046,
        0.11403540521860123,
        -0.05409910902380943,
        -0.13825269043445587,
        0.21196258068084717,
        -0.2725536823272705,
        -0.24078623950481415,
        -0.05616537854075432,
        -0.02678692527115345,
        0.06866341829299927,
        0.06266650557518005,
        0.08627823740243912,
        -0.19635537266731262,
        0.006307980976998806,
        0.1600201278924942,
        0.22109933197498322,
        -0.05922617390751839,
        -0.1880764365196228,
        -0.0439450666308403,
        0.17385126650333405,
        -0.13098451495170593,
        -0.10978501290082932,
        0.08821221441030502,
        0.07758728414773941,
        -0.07389039546251297,
        -0.1757497638463974,
        0.21271821856498718,
        -0.052329134196043015,
        0.05095097795128822,
        0.173265740275383,
        0.18298402428627014,
        -0.13787755370140076,
        -0.17488718032836914,
        0.00938720814883709,
        0.04779041185975075,
        -0.15847061574459076,
        0.0791366919875145,
        -0.24319207668304443,
        0.03097405657172203,
        -0.03684394061565399,
        0.35980308055877686,
        -0.1625608205795288,
        -0.02325797826051712,
        0.24626022577285767,
        -0.11124613881111145,
        0.06739234924316406,
        0.29832923412323,
        -0.35097187757492065,
        -0.026019275188446045,
        0.046346306800842285,
        0.011285356245934963,
        0.03023931384086609,
        0.30817726254463196,
        -0.2621833384037018,
        -0.18976835906505585,
        0.0465058870613575,
        0.15803058445453644,
        0.13706369698047638,
        -0.10210242867469788,
        -0.1002684086561203,
        0.08231810480356216,
        0.038662139326334,
        0.46486765146255493,
        -0.06338003277778625,
        -0.18795058131217957,
        -0.09593416750431061,
        -0.14626388251781464,
        0.04348868131637573,
        0.17393194139003754,
        -0.02746250107884407,
        -0.1342618316411972,
        0.06263105571269989,
        -0.039111386984586716,
        0.2623562514781952,
        -0.13959553837776184,
        -0.07981284707784653,
        -0.029177581891417503,
        0.11663283407688141,
        0.006008233409374952,
        -0.005804474465548992,
        -0.15517720580101013,
        0.10797975212335587,
        0.008318726904690266,
        0.009861310012638569,
        -0.03609683737158775,
        0.09954266995191574,
        0.11982958018779755,
        -0.050106555223464966,
        0.04575255140662193,
        -0.005210821982473135,
        0.06067951023578644,
        -0.0655820220708847,
        0.21463324129581451,
        -0.14555181562900543,
        -0.10316137969493866,
        0.07444389164447784,
        -0.18539446592330933,
        -0.022909175604581833,
        0.007564004976302385,
        -0.12598606944084167,
        -0.07241654396057129,
        -0.08069569617509842,
        0.1864010989665985,
        -0.0009910641238093376,
        0.013751803897321224,
        -0.32437509298324585,
        0.025218360126018524,
        0.0574345588684082,
        0.07417888939380646,
        0.003827624721452594,
        -0.22250105440616608,
        -0.08577565848827362,
        -0.007842151448130608,
        -0.02793095074594021,
        -0.09744525700807571,
        0.06803648173809052,
        -0.1971859335899353,
        -0.16008201241493225,
        -0.08624588698148727,
        0.07055549323558807,
        -0.17401069402694702,
        -0.12048374861478806,
        0.12613524496555328,
        -0.20281073451042175,
        0.014362948946654797,
        -0.008807871490716934,
        -0.1582876443862915,
        0.023225819692015648,
        -0.03969203308224678,
        -0.21222206950187683,
        0.01542428508400917,
        0.08682312816381454,
        -0.02004624903202057,
        -0.028018491342663765,
        -0.0273014847189188,
        0.10094086825847626,
        0.09141428023576736,
        0.17656075954437256,
        -0.16230261325836182,
        -0.07228901982307434,
        0.09469609707593918,
        -0.06542860716581345,
        -0.09846854954957962,
        0.11530737578868866,
        -0.09807481616735458,
        0.04294667765498161,
        -0.06938953697681427,
        0.012625551782548428,
        -0.22563301026821136,
        -0.09628015011548996,
        -0.1583905965089798,
        -0.10507246106863022,
        -0.051884207874536514,
        0.24444679915905,
        -0.09685341268777847,
        -0.11277991533279419,
        0.09587928652763367,
        -0.0074318405240774155,
        -0.003631819970905781,
        -0.11362047493457794,
        -0.03366827592253685,
        0.020184002816677094,
        0.09166371822357178,
        0.048450347036123276,
        -0.18695373833179474,
        0.0808880403637886,
        0.007092685904353857,
        0.008884906768798828,
        -0.03847387433052063,
        -0.018829934298992157,
        0.20703040063381195,
        -0.030832454562187195,
        -0.08269709348678589,
        -0.016859829425811768,
        0.041970185935497284,
        0.07369644194841385,
        0.07492157071828842,
        -0.05246110260486603,
        -0.16474835574626923,
        -0.03838978335261345,
        0.008483918383717537,
        0.092286117374897,
        -0.16254515945911407,
        0.09959215670824051,
        -0.023452123627066612,
        0.0652342364192009,
        0.200778529047966,
        0.027218520641326904,
        -0.11484436690807343,
        0.1549011617898941,
        -0.08284405618906021,
        0.04355239123106003,
        0.11937739700078964,
        -0.14007161557674408,
        -0.1704624444246292,
        0.07897678017616272,
        -0.03785340115427971,
        0.08309856802225113,
        -0.1796180158853531,
        0.24259264767169952,
        0.17778955399990082,
        0.22419758141040802,
        -0.20834705233573914,
        -0.09235614538192749,
        -0.19720634818077087,
        0.08778414875268936,
        0.17035752534866333,
        0.10750597715377808,
        -0.259068101644516,
        -0.08684741705656052,
        -0.21021364629268646,
        0.19320304691791534,
        -0.10803976655006409,
        0.04936300963163376,
        -0.2678340673446655,
        0.05309177562594414,
        0.21699608862400055,
        -0.18067622184753418,
        0.015270411968231201,
        0.24255016446113586,
        -0.08358447998762131,
        -0.05380723625421524,
        0.0910658985376358,
        -0.13759344816207886,
        0.06860332936048508,
        0.0915994942188263,
        -0.09369799494743347,
        0.0901404544711113,
        0.00802922435104847,
        0.042749494314193726,
        0.15440630912780762,
        -0.1426883339881897,
        -0.12521566450595856,
        -0.05268600583076477,
        0.05628116428852081,
        0.03476199135184288,
        0.031245650723576546,
        0.17092549800872803,
        -0.1534973829984665,
        -0.20648258924484253,
        0.22255448997020721,
        0.15811631083488464,
        -0.054896850138902664,
        -0.028682390227913857,
        -0.02994304709136486,
        0.06625893712043762,
        -0.2065950185060501,
        0.10543227940797806,
        0.0028927046805620193,
        0.11464478820562363,
        0.2252829372882843,
        0.1319318413734436,
        -0.2785043716430664,
        0.05417970195412636,
        0.09126260876655579,
        0.18594864010810852,
        -0.19953520596027374,
        -0.009070472791790962,
        0.06880968809127808,
        -0.06821642071008682,
        0.11431790888309479,
        0.23653382062911987,
        -0.09510685503482819,
        0.003972054924815893,
        0.20219317078590393,
        0.07249858975410461,
        0.132964625954628,
        0.11130967736244202,
        0.14698226749897003,
        -0.06004026159644127,
        0.11979082226753235,
        -0.20987951755523682,
        -0.18133383989334106,
        0.04425939917564392,
        -0.0698692798614502,
        0.04548699036240578,
        0.19094537198543549,
        0.1363653689622879,
        0.1448948085308075,
        -0.1140565499663353,
        -0.1833380162715912,
        -0.14464542269706726,
        0.12558017671108246,
        0.26113128662109375,
        -0.07581766694784164,
        0.048856984823942184,
        0.14901097118854523,
        -0.20911024510860443,
        -0.1436828225851059,
        0.04568066447973251,
        -0.06866959482431412,
        -0.1259625107049942,
        -0.05503503233194351,
        -0.029609881341457367,
        -0.23394913971424103,
        -0.002068075817078352,
        0.11282742023468018,
        0.14976391196250916,
        -0.2822391986846924,
        -0.1258566677570343,
        -0.07055899500846863,
        0.04821665212512016,
        0.3041973114013672,
        0.19281812012195587,
        0.1204918846487999,
        -0.2285986691713333,
        -0.1906292587518692,
        -0.18186987936496735,
        0.170692577958107,
        0.2487388551235199,
        0.0029252616222947836,
        -0.19402891397476196,
        0.010290734469890594,
        0.0890248566865921,
        -0.07779794931411743,
        -0.09736106544733047,
        -0.25361230969429016,
        -0.12835033237934113,
        0.04678313434123993,
        -0.028120113536715508,
        -0.15186269581317902,
        0.08266986906528473,
        -0.05417148396372795,
        -0.26087987422943115,
        0.13639622926712036,
        0.02922923117876053,
        -0.12451386451721191,
        -0.15327446162700653,
        -0.05916398763656616,
        0.05838460847735405,
        -0.22007708251476288,
        0.1058434471487999,
        0.07523330301046371,
        -0.24184562265872955,
        -0.03446332365274429,
        0.11369002610445023,
        -0.06020645797252655,
        0.1379280984401703,
        0.14809273183345795,
        -0.008969741873443127,
        0.07797718793153763,
        0.006249784491956234,
        0.26202860474586487,
        -0.08588647097349167,
        -0.10851766169071198,
        -0.11712105572223663,
        -0.1431361585855484,
        0.02148181013762951,
        0.23962736129760742,
        -0.13889342546463013,
        0.03772749751806259,
        0.007044109515845776,
        0.16398942470550537,
        0.05188152566552162,
        0.24990534782409668,
        -0.08728884160518646,
        -0.11878997087478638,
        -0.07966233044862747,
        0.07129024714231491,
        0.16624988615512848,
        0.021969586610794067,
        -0.061574872583150864,
        0.1631096601486206,
        -0.047278277575969696,
        0.1660863161087036,
        0.20951858162879944,
        -0.12592022120952606,
        -0.06367643177509308,
        0.19328147172927856,
        -0.2600105404853821,
        0.11987344175577164,
        -0.09317276626825333,
        -0.15241222083568573,
        -0.018888065591454506,
        0.03736899048089981,
        0.15699101984500885,
        0.24955794215202332,
        0.09323801845312119,
        0.12243983894586563,
        -0.053615108132362366,
        -0.027980273589491844,
        0.14867065846920013,
        -0.21852773427963257,
        0.17517225444316864,
        0.1359388381242752,
        -0.1014891043305397,
        -0.08081498742103577,
        -0.1046862006187439,
        0.1415821611881256,
        -0.11231709271669388,
        0.030995957553386688,
        0.3377609848976135,
        0.11624649912118912,
        0.11067552119493484,
        -0.01933690905570984,
        -0.00024477861006744206,
        -0.17313356697559357,
        0.3223954737186432,
        -0.02793971076607704,
        0.1270122528076172,
        -0.33768072724342346,
        -0.06969191133975983,
        -0.08606062829494476,
        0.2177954912185669,
        -0.04684749245643616,
        0.23647674918174744,
        -0.2353045791387558,
        0.0790712907910347,
        0.04485662281513214,
        -0.08574364334344864,
        0.044338785111904144,
        0.16278325021266937,
        0.0974840596318245,
        0.11791601032018661,
        0.10702577978372574,
        -0.023735783994197845,
        -0.08057953417301178,
        0.037817444652318954,
        -0.15801860392093658,
        0.008979473263025284,
        0.034427136182785034,
        -0.042923592031002045,
        -0.0016884839860722423,
        -0.1702655553817749,
        0.032036107033491135,
        0.08521873503923416,
        0.07516230642795563,
        0.07168977707624435,
        0.023069225251674652,
        -0.19029513001441956,
        8.381393126910552e-05,
        0.12307639420032501,
        -0.09541676938533783,
        -0.065883569419384,
        -0.06297055631875992,
        -0.13790784776210785,
        -0.2138243019580841,
        -0.2592613101005554,
        0.18416844308376312,
        -0.08920639008283615,
        -0.06882282346487045,
        -0.09153170138597488,
        -0.08131616562604904,
        -0.016322800889611244,
        0.10320563614368439,
        -0.08002588897943497,
        -0.05297300964593887,
        -0.024393344298005104,
        -0.09848333895206451,
        0.17654961347579956,
        0.1595745086669922,
        0.07532312721014023,
        -0.08999574929475784,
        0.046617213636636734,
        -0.10752937942743301,
        0.008564993739128113,
        -0.048081137239933014,
        -0.007754706311970949,
        0.12320834398269653,
        -0.11924266815185547,
        -0.06056594103574753,
        -0.0692453607916832,
        -0.17408789694309235,
        -0.010625898838043213,
        -0.08965470641851425,
        -0.022927530109882355,
        0.042550116777420044,
        0.12786385416984558,
        -0.09862962365150452,
        0.039431069046258926,
        0.06263931840658188,
        0.08705787360668182,
        0.19913658499717712,
        -0.056213125586509705,
        -0.0776938796043396,
        -0.26889970898628235,
        -0.042763128876686096,
        0.19836127758026123,
        -0.06514863669872284,
        0.19469162821769714,
        0.09600965678691864,
        -0.06603167951107025,
        -0.08390223234891891,
        0.09492487460374832,
        0.13633111119270325,
        -0.03787851333618164,
        -0.16114941239356995,
        0.2895722985267639,
        0.008822216652333736,
        -0.09747391939163208,
        0.14845728874206543,
        0.18023814260959625,
        -0.20309965312480927,
        0.07027748227119446,
        0.05750579014420509,
        0.08098545670509338,
        -0.272234171628952,
        0.18355955183506012,
        -0.10150834172964096,
        0.2280919998884201,
        -0.17457900941371918,
        0.13374118506908417,
        -0.1825723946094513,
        -0.0421309694647789,
        0.04068990424275398,
        -0.13257533311843872,
        0.15532222390174866,
        -0.03252483159303665,
        0.15753419697284698,
        0.16443079710006714,
        -0.010631533339619637,
        -0.18019482493400574,
        -0.05534200742840767,
        0.05311071500182152,
        -0.20782174170017242,
        0.06275785714387894,
        -0.05787616968154907,
        -0.023507384583353996,
        0.005683802533894777,
        -0.028892764821648598,
        -0.025450443848967552,
        0.04358319565653801,
        0.07302982360124588,
        0.007995499297976494,
        0.10089123249053955,
        -0.014137334190309048,
        -0.12992817163467407,
        -0.007144887000322342,
        -0.007134204264730215,
        0.10802589356899261,
        0.042005062103271484,
        0.0841941088438034,
        0.05045853555202484,
        0.20428219437599182,
        -0.19440202414989471,
        0.033125486224889755,
        0.010180908255279064,
        -0.00903779175132513,
        -0.08850394934415817,
        0.3698388338088989,
        -0.21236562728881836,
        0.1392894834280014,
        0.11276597529649734,
        0.09691815078258514,
        0.010722416453063488,
        -0.05070973560214043,
        -0.20212092995643616,
        0.06225717067718506,
        0.11847174912691116,
        -0.02634836919605732,
        -0.11367874592542648,
        0.13694226741790771,
        0.08707746863365173,
        -0.12734384834766388,
        -0.014833134599030018,
        -0.0695403516292572,
        -0.14108729362487793,
        0.03576038405299187,
        -0.08342282474040985,
        -0.09610964357852936,
        -0.0039099096320569515,
        0.059439629316329956,
        -0.2202765941619873,
        0.12148472666740417,
        0.012163267470896244,
        -0.0786651223897934,
        0.07413940876722336,
        0.016035139560699463,
        0.09613465517759323,
        -0.1818399578332901,
        -0.0764366164803505,
        -0.0028175045736134052,
        -0.20410436391830444,
        0.06291010975837708,
        0.08077498525381088,
        0.04918471723794937,
        -0.06017405912280083,
        0.04208771139383316,
        0.003681966569274664,
        0.07627201825380325,
        0.041249457746744156,
        -0.08110025525093079,
        0.019604932516813278,
        -0.00673800241202116,
        0.0038862077053636312,
        0.19176100194454193,
        0.2923750579357147,
        0.11877450346946716,
        -0.09839505702257156,
        0.01015259325504303,
        0.1057123988866806,
        -0.037759698927402496,
        -0.0031524014193564653,
        0.08827508240938187,
        -0.05443701148033142,
        -0.17122773826122284,
        -0.008396051824092865,
        0.1367584764957428,
        0.0448603518307209,
        -0.08285123109817505,
        0.11186636984348297,
        0.09688983112573624,
        -0.08314986526966095,
        0.12402436137199402,
        0.1986442506313324,
        0.0612032376229763,
        0.06380724906921387,
        -0.021592838689684868,
        0.004066725727170706,
        0.162472665309906,
        0.15407675504684448,
        -0.07920779287815094,
        0.17487873136997223,
        -0.02130308747291565,
        0.016249220818281174,
        -0.061796583235263824,
        0.056160613894462585,
        -0.15589947998523712,
        0.14344125986099243,
        -0.2135000377893448,
        -0.05244867503643036,
        0.006004054099321365,
        -0.09168314933776855,
        0.13380995392799377,
        0.07038791477680206,
        0.019049275666475296,
        0.03563738614320755,
        -0.06557515263557434,
        0.15003377199172974,
        -0.14736685156822205,
        -0.164956733584404,
        0.39259228110313416,
        0.001852448913268745,
        -0.3605758249759674,
        0.07526780664920807,
        0.15086062252521515,
        -0.03888656944036484,
        0.3645414412021637,
        -0.010619430802762508,
        0.30066755414009094,
        -0.40469619631767273,
        -0.051204126328229904,
        -0.3260835111141205,
        0.33237743377685547,
        -0.0681212991476059,
        0.09058640152215958,
        -0.1516728550195694,
        -0.019883446395397186,
        0.047410108149051666,
        -0.11370596289634705,
        0.1035676971077919,
        -0.1153433546423912,
        -0.0339338593184948,
        0.15162889659404755,
        0.19378532469272614,
        -0.08195776492357254,
        -0.0003120878536719829,
        0.1676112711429596,
        -0.14129593968391418,
        -0.08163467794656754,
        -0.15040205419063568,
        -0.003381839022040367,
        0.14985698461532593,
        0.10327738523483276,
        0.0896943211555481,
        -0.07128864526748657,
        0.10383239388465881,
        0.040336932986974716,
        -0.09900619834661484,
        0.16950468719005585,
        0.12931562960147858,
        -0.10279997438192368,
        0.020440058782696724,
        0.03160398453474045,
        -0.06589525938034058,
        0.21226830780506134,
        -0.041335586458444595,
        -0.008806174620985985,
        -0.09413847327232361,
        -0.13582737743854523,
        0.21448881924152374,
        0.0957484170794487,
        -0.18565548956394196,
        -0.08802030235528946,
        -0.13695746660232544,
        -0.08175946027040482,
        0.16606710851192474,
        -0.07740562409162521,
        0.0832253247499466,
        0.017331944778561592,
        -0.053889766335487366,
        0.028879541903734207,
        -0.025098176673054695,
        0.1384274661540985,
        0.13132892549037933,
        -0.06678418070077896,
        0.12936213612556458,
        -0.17640265822410583,
        -0.14212866127490997,
        0.10717849433422089,
        -0.12296494096517563,
        0.011809814721345901,
        0.018095284700393677,
        -0.014145373366773129,
        -0.14300401508808136,
        0.17489764094352722,
        -0.027033723890781403,
        -0.04133141040802002,
        0.13347643613815308,
        0.10797135531902313,
        0.00040155035094358027,
        -0.05620116367936134,
        -0.012681414373219013,
        0.2487577646970749,
        0.03394215926527977,
        -0.06768898665904999,
        0.10157153010368347,
        0.04016408324241638,
        -0.23504871129989624,
        0.21166081726551056,
        -0.02440476603806019,
        -0.07390564680099487,
        0.1367134153842926,
        -0.029930874705314636,
        0.01391079556196928,
        0.111848384141922,
        -0.003173121018335223,
        0.14771269261837006,
        -0.27001944184303284,
        -0.0018294632900506258,
        0.09754878282546997,
        0.31628599762916565,
        0.159663125872612,
        0.15354081988334656,
        -0.18512168526649475,
        -0.012470712885260582,
        -0.1487765908241272,
        0.25138548016548157,
        0.1067696362733841,
        -0.017016926780343056,
        0.006929864641278982,
        -0.0771968737244606,
        -0.07694876939058304,
        0.1478796899318695,
        -0.07277370989322662,
        -0.06486000120639801,
        0.09138423204421997,
        -0.13814495503902435,
        -0.023518089205026627,
        0.18651536107063293,
        0.11562450975179672,
        0.05434688180685043,
        0.03162209689617157,
        -0.08323299884796143,
        -0.1762000173330307,
        0.0002125290484400466,
        -0.08367114514112473,
        -0.2351331114768982,
        0.12500320374965668,
        -0.041522879153490067,
        -0.06465061753988266,
        0.1763719767332077,
        -0.11363513022661209,
        0.4251807928085327,
        -0.12553273141384125,
        -0.1493876874446869,
        0.2800140678882599,
        -0.010061705484986305,
        -0.22759060561656952,
        -0.06997022777795792,
        -0.20625261962413788,
        0.05051774904131889,
        0.07578416168689728,
        -0.041818879544734955,
        0.2301645129919052,
        -0.24961799383163452,
        0.05006920173764229,
        0.02785368077456951,
        -0.12924182415008545,
        0.25701189041137695,
        0.15331058204174042,
        -0.1620979905128479,
        0.034506622701883316,
        -0.06146574020385742,
        0.08480013161897659,
        -0.13429532945156097,
        0.024768784642219543,
        -0.2785540819168091,
        0.1828628033399582,
        -0.09970434755086899,
        0.2384326010942459,
        0.036880429834127426,
        -0.025757674127817154,
        0.17557820677757263,
        -0.1375918686389923,
        -0.07916278392076492,
        -0.1240868791937828,
        -0.0472780279815197,
        -0.18173660337924957,
        0.04381787031888962,
        -0.1678377389907837,
        -0.25608980655670166,
        0.1548866331577301,
        -0.17893676459789276,
        0.08611607551574707,
        0.07175806164741516,
        0.10963556170463562,
        -0.13709090650081635,
        0.16072970628738403,
        -0.07024599611759186,
        0.012940824031829834,
        0.037664733827114105,
        -0.025948649272322655,
        -0.0528891459107399,
        0.12696629762649536,
        0.06238918751478195,
        0.035678841173648834,
        0.1712130755186081,
        -0.10188933461904526,
        -0.00783233717083931,
        0.0862417221069336,
        0.03603793680667877,
        0.03325750678777695,
        -0.1924765557050705,
        0.002217161701992154,
        -0.10675810277462006,
        0.14101079106330872,
        -0.27520158886909485,
        0.13076864182949066,
        -0.20973582565784454,
        -0.11175335198640823,
        -0.1612589806318283,
        -0.0010421128245070577,
        -0.01279323548078537,
        -0.04684825241565704,
        0.08228619396686554,
        0.16148735582828522,
        -0.08621947467327118,
        0.16148754954338074,
        -0.1010899692773819,
        -0.13231852650642395,
        0.023873433470726013,
        0.007461293134838343,
        -0.18584537506103516,
        -0.0199761763215065,
        0.058322545140981674,
        0.023867445066571236,
        0.21851389110088348,
        -0.0863298773765564,
        -0.05966397747397423,
        -0.007415499538183212,
        -0.010688470676541328,
        -0.043715499341487885,
        0.169451043009758,
        0.010229935869574547,
        0.11793868988752365,
        0.049434442073106766,
        0.12333148717880249,
        0.005852340254932642,
        -0.010919559746980667,
        0.030664226040244102,
        0.22862528264522552,
        0.10232260078191757,
        -0.01082675438374281,
        -0.11520610749721527,
        0.09020593017339706,
        0.07310426235198975,
        0.11572013795375824,
        0.03124297969043255,
        0.24949052929878235,
        -0.09924599528312683,
        -0.37763267755508423,
        0.3135512173175812,
        0.3798840343952179,
        -0.5844240784645081,
        0.48284074664115906,
        -0.9892697930335999,
        -0.2843182682991028,
        -0.37743380665779114,
        0.8507015705108643,
        -1.0624932050704956,
        -0.5669209957122803,
        -0.9959758520126343,
        0.26298096776008606,
        -1.0772329568862915,
        0.5066995620727539,
        -0.7552714347839355,
        -0.18832799792289734,
        -0.08687747269868851,
        0.20258387923240662,
        0.30796802043914795,
        0.44536617398262024,
        -0.2971576452255249,
        -0.19353583455085754,
        -0.13875380158424377,
        0.19805647432804108,
        -0.047925569117069244,
        0.11381698399782181,
        0.1385938823223114,
        0.18665564060211182,
        -0.17835955321788788,
        -0.21471081674098969,
        -0.10774500668048859,
        0.037309400737285614,
        0.07804178446531296,
        -0.08465399593114853,
        -0.1069926768541336,
        -0.5326300859451294,
        0.31848496198654175,
        -0.004861651919782162,
        -0.04849402606487274,
        -0.01581837236881256,
        -0.010363060049712658,
        0.14749889075756073,
        0.3049086928367615,
        -0.07686551660299301,
        0.34959107637405396,
        -0.0823206827044487,
        0.19507257640361786,
        -0.16768431663513184,
        -0.09472979605197906,
        -0.2327679842710495,
        0.21050715446472168,
        -0.2577781677246094,
        0.3543549180030823,
        -0.1793557107448578,
        -0.05796448141336441,
        -0.23629234731197357,
        0.16531486809253693,
        -0.06858018040657043,
        -0.35199424624443054,
        0.07792604714632034,
        0.3048238754272461,
        -0.020945405587553978,
        0.147848978638649,
        0.09589364379644394,
        0.009729839861392975,
        -0.11004588752985,
        -0.19668765366077423,
        -0.17534545063972473,
        0.016085738316178322,
        -0.09203039109706879,
        -0.0910462886095047,
        0.057945284992456436,
        0.016008703038096428,
        -0.021631794050335884,
        0.16991189122200012,
        0.16789251565933228,
        -0.17243845760822296,
        -0.0004031613061670214,
        0.004013265483081341,
        0.30251654982566833,
        0.06675969809293747,
        -0.09534934908151627,
        -0.24955163896083832,
        0.02344248630106449,
        0.020320311188697815,
        -0.030016986653208733,
        0.25276559591293335,
        0.16924640536308289,
        -0.10894907265901566,
        -0.1515784114599228,
        0.18172454833984375,
        -0.2629202902317047,
        -0.006405236199498177,
        0.06664303690195084,
        -0.12351915240287781,
        -0.11236216127872467,
        0.04010936990380287,
        -0.5065509080886841,
        -0.17777425050735474,
        -0.17375320196151733,
        0.14572128653526306,
        -0.18754702806472778,
        -0.003725122893229127,
        -0.31211090087890625,
        0.07895109057426453,
        -0.024024805054068565,
        -0.48310989141464233,
        -0.17542244493961334,
        0.14356055855751038,
        0.1910313069820404,
        0.29648664593696594,
        -0.008178322575986385,
        -0.18989470601081848,
        0.048052944242954254,
        -0.1628667414188385,
        0.03907602280378342,
        0.25836923718452454,
        -0.21234780550003052,
        -0.2216143161058426,
        0.06956443935632706,
        0.027055634185671806,
        -0.07733502984046936,
        0.09394439309835434,
        0.12376806139945984,
        -0.09964238852262497,
        -0.23218894004821777,
        0.22980354726314545,
        0.08236024528741837,
        0.080238938331604,
        0.06337806582450867,
        0.1136423870921135,
        0.09192083030939102,
        -0.1309349685907364,
        0.0011603583116084337,
        0.08322623372077942,
        0.01748594082891941,
        0.26220983266830444,
        -0.2259957641363144,
        0.10391052067279816,
        -0.13161958754062653,
        0.10766950994729996,
        0.049462176859378815,
        0.07464999705553055,
        -0.13266944885253906,
        0.038780082017183304,
        -0.24894829094409943,
        0.04862885922193527,
        -0.1517479121685028,
        -0.1516137272119522,
        -0.058128390461206436,
        -0.16089104115962982,
        -0.15936069190502167,
        0.18996551632881165,
        0.43701478838920593,
        -0.14560802280902863,
        0.1359909474849701,
        0.09277396649122238,
        -0.17754092812538147,
        0.228068009018898,
        -0.02014617994427681,
        0.08841697871685028,
        0.07313453406095505,
        0.04533713310956955,
        0.09895512461662292,
        -0.1991904228925705,
        0.3014848828315735,
        0.055406589061021805,
        0.08227328956127167,
        -0.04692673683166504,
        0.06892552226781845,
        0.23899680376052856,
        0.1129128560423851,
        -0.01940726861357689,
        0.14320698380470276,
        -0.18163970112800598,
        -0.18495655059814453,
        -0.19239749014377594,
        0.03188271075487137,
        0.23304621875286102,
        0.14600838720798492,
        -0.2783713936805725,
        0.021051127463579178,
        -0.08104868978261948,
        0.27654945850372314,
        0.2396654635667801,
        -0.1253497153520584,
        0.27512288093566895,
        0.10403240472078323,
        -0.005381867755204439,
        -0.23370355367660522,
        0.002261348534375429,
        0.06636413186788559,
        0.21168313920497894,
        -0.27363404631614685,
        -0.09226600080728531,
        -0.2328469604253769,
        -0.019960468634963036,
        -0.022806916385889053,
        0.1211312860250473,
        -0.24123917520046234,
        0.10731913894414902,
        0.11740947514772415,
        -0.20149962604045868,
        -0.05373408645391464,
        0.027974145486950874,
        0.03392192721366882,
        0.06102515757083893,
        -0.14842897653579712,
        -0.26035815477371216,
        -0.3236362040042877,
        0.1686304807662964,
        0.022010043263435364,
        0.10966666787862778,
        -0.27832871675491333,
        0.09544092416763306,
        -0.28719139099121094,
        -0.06689339876174927,
        -0.1949879229068756,
        -0.3823518753051758,
        0.3413020670413971,
        -0.2377447485923767,
        0.07017631083726883,
        -0.05535730719566345,
        0.003681859700009227,
        -0.11900411546230316,
        -0.19916187226772308,
        0.39449039101600647,
        -0.27241337299346924,
        0.07958459109067917,
        -0.09084618836641312,
        -0.09243187308311462,
        0.17605262994766235,
        0.33985161781311035,
        0.17256510257720947,
        0.0873885527253151,
        0.3533722162246704,
        0.23171329498291016,
        -0.2442314177751541,
        0.05022710934281349,
        0.07375360280275345,
        0.3056672215461731,
        0.014978858642280102,
        -0.13407398760318756,
        -0.21234257519245148,
        -0.19408352673053741,
        0.21521256864070892,
        0.07205367088317871,
        0.012709436938166618,
        0.11929072439670563,
        -0.14707332849502563,
        0.1656481921672821,
        -0.22188208997249603,
        0.2414141148328781,
        0.0868595764040947,
        0.09799306839704514,
        0.26580262184143066,
        -0.060027897357940674,
        -0.15013934671878815,
        -0.019845930859446526,
        -0.46970030665397644,
        0.10752806067466736,
        -0.1272760033607483,
        0.18284152448177338,
        0.14896507561206818,
        -0.15210455656051636,
        0.24288037419319153,
        0.28700703382492065,
        -0.3626513183116913,
        0.5465929508209229,
        -0.35543519258499146,
        0.0022093537263572216,
        -0.1568092554807663,
        -0.06670914590358734,
        0.09545836597681046,
        0.01675543002784252,
        -0.13169413805007935,
        -0.06534644961357117,
        0.12601472437381744,
        0.11047332733869553,
        0.11652830243110657,
        0.07247401028871536,
        0.13610844314098358,
        -0.1721213459968567,
        0.062383148819208145,
        -0.40289506316185,
        -0.03429968282580376,
        0.04147271811962128,
        0.052667245268821716,
        0.05791536346077919,
        0.08587545901536942,
        0.06660202890634537,
        -0.1806195080280304,
        -0.01569725014269352,
        -0.07726001739501953,
        -0.06320162862539291,
        -0.007570161018520594,
        0.06340795755386353,
        -0.10614777356386185,
        -0.04379194974899292,
        0.21154895424842834,
        -0.02121341973543167,
        -0.13333024084568024,
        0.21905763447284698,
        0.32111093401908875,
        0.05168714374303818,
        -0.09520240873098373,
        -0.03824056312441826,
        0.03139473870396614,
        0.07165271043777466,
        0.07891424000263214,
        -0.16768525540828705,
        -0.17524416744709015,
        0.06959827989339828,
        0.04064127057790756,
        0.13861066102981567,
        0.08930259197950363,
        -0.05307852849364281,
        -0.17362050712108612,
        -0.04803609475493431,
        -0.03418223187327385,
        -0.08497485518455505,
        0.011147555895149708,
        0.09050052613019943,
        -0.15835511684417725,
        0.007586570456624031,
        0.07301048934459686,
        -0.04963647946715355,
        0.12043599039316177,
        0.010372593998908997,
        0.15997131168842316,
        -0.11956650763750076,
        -0.1861218810081482,
        0.17992520332336426,
        -0.3057774603366852,
        -0.1244611144065857,
        -0.006504554767161608,
        -0.30993759632110596,
        -0.2129579484462738,
        -0.15060009062290192,
        0.14694136381149292,
        -0.17809051275253296,
        0.23389053344726562,
        0.1620766669511795,
        0.07484012842178345,
        -0.0599227249622345,
        -0.12299326062202454,
        -0.15190838277339935,
        -0.015305600129067898,
        -0.06872165948152542,
        0.07898213714361191,
        -0.6408408880233765,
        -0.5201946496963501,
        -0.44459009170532227,
        0.11165329068899155,
        -0.15802697837352753,
        0.14559747278690338,
        -0.1732783168554306,
        -0.0838906541466713,
        0.050865475088357925,
        0.17699313163757324,
        0.03497689217329025,
        -0.19549739360809326,
        -0.004600487649440765,
        0.08619533479213715,
        0.14724193513393402,
        0.44225645065307617,
        0.14413192868232727,
        -0.01486237533390522,
        -0.1393202841281891,
        -0.12278971821069717,
        -0.18115153908729553,
        0.10153824090957642,
        0.032679300755262375,
        -0.17193056643009186,
        -0.01906324177980423,
        -0.07349810004234314,
        -0.26169097423553467,
        0.10755370557308197,
        0.510711133480072,
        0.3370809853076935,
        -0.012449102476239204,
        0.15173646807670593,
        0.1837497353553772,
        0.02198074758052826,
        -0.22890369594097137,
        -0.02478235773742199,
        0.09191708266735077,
        0.0918671190738678,
        -0.14285296201705933,
        0.07151882350444794,
        0.06101994961500168,
        0.07395853847265244,
        -0.20972317457199097,
        0.0021723099052906036,
        0.0073211719281971455,
        -0.029065614566206932,
        -0.07990306615829468,
        0.03948318213224411,
        0.1419932097196579,
        0.09442547708749771,
        -0.08477474004030228,
        0.09129393845796585,
        0.27357104420661926,
        0.13639558851718903,
        0.01794351451098919,
        0.10751498490571976,
        0.08027400076389313,
        0.0101474579423666,
        0.013671244494616985,
        0.024533264338970184,
        0.11259607970714569,
        0.053864914923906326,
        -0.05797535181045532,
        -0.17582690715789795,
        0.006600571796298027,
        0.039142608642578125,
        -0.12497982382774353,
        0.1260850727558136,
        -0.01581500843167305,
        0.03889938071370125,
        -0.01116898749023676,
        -0.0018213700968772173,
        -0.07033337652683258,
        -0.013623500242829323,
        0.0753462091088295,
        0.06425371021032333,
        0.16525410115718842,
        0.020173657685518265,
        -0.027103036642074585,
        0.406729131937027,
        0.23055577278137207,
        0.06558806449174881,
        0.06371764838695526,
        0.18546587228775024,
        0.08511929214000702,
        0.17311722040176392,
        -0.2169901728630066,
        0.2203550636768341,
        0.20457470417022705,
        -0.3173176944255829,
        0.2552270293235779,
        0.10831470787525177,
        -0.2809852063655853,
        -0.09046394377946854,
        -0.09148184210062027,
        0.07277081906795502,
        -0.07182038575410843,
        -0.09615851938724518,
        0.3804842233657837,
        0.19900383055210114,
        0.0666545033454895,
        -0.2534395158290863,
        -0.13514220714569092,
        -0.011205354705452919,
        0.3349912762641907,
        0.13136395812034607,
        0.0766892284154892,
        -0.20895415544509888,
        -0.2036229968070984,
        -0.10888262838125229,
        0.14837636053562164,
        0.11656969040632248,
        0.09638289362192154,
        -0.2169061005115509,
        0.3463006019592285,
        0.05191109701991081,
        -0.3785199820995331,
        0.14117325842380524,
        -0.03125672787427902,
        -0.17230594158172607,
        0.26713505387306213,
        0.015695029869675636,
        -0.112771175801754,
        0.10931020975112915,
        -0.027411378920078278,
        -0.432918906211853,
        0.07126747816801071,
        0.20320242643356323,
        -0.5803394317626953,
        0.04625064879655838,
        -0.12191680073738098,
        -0.11551713198423386,
        -0.060392092913389206,
        0.11410585045814514,
        0.0345129668712616,
        0.14174748957157135,
        0.2261294275522232,
        -0.06509028375148773,
        0.06845241039991379,
        0.1355469822883606,
        -0.1308457851409912,
        -0.06872916966676712,
        -0.07563155144453049,
        0.01277375128120184,
        -0.13474519550800323,
        0.2891623079776764,
        0.13492578268051147,
        -0.22311227023601532,
        -0.2760564088821411,
        -0.1237940862774849,
        -0.15211598575115204,
        -0.12503674626350403,
        0.1084478497505188,
        0.08089820295572281,
        -0.10365405678749084,
        0.06948847323656082,
        -0.11064857989549637,
        0.018119340762495995,
        0.07357121258974075,
        -0.018800891935825348,
        -0.15586383640766144,
        -0.06090337038040161,
        0.15212608873844147,
        0.10927949100732803,
        -0.12038406729698181,
        -0.018598541617393494,
        0.25291669368743896,
        -0.08728218823671341,
        -0.07929109036922455,
        -0.08078636974096298,
        0.004868884105235338,
        0.04716015234589577,
        -0.3851979374885559,
        0.17211352288722992,
        0.08229809999465942,
        -0.36482614278793335,
        -0.07880748808383942,
        0.2591468095779419,
        -0.09115935117006302,
        -0.21446721255779266,
        0.07306499034166336,
        0.10468316823244095,
        -0.15816161036491394,
        0.06733261793851852,
        0.06509943306446075,
        -0.23437821865081787,
        -0.02562481351196766,
        -0.08570116013288498,
        -0.023878823965787888,
        -0.05934573709964752,
        -0.08612136542797089,
        0.17834937572479248,
        -0.31061121821403503,
        -0.13172253966331482,
        0.23959261178970337,
        -0.07540329545736313,
        0.21957959234714508,
        0.0012550889514386654,
        -0.19532087445259094,
        -0.18219788372516632,
        0.25766614079475403,
        0.19245454668998718,
        0.07714925706386566,
        -0.30085381865501404,
        -0.23019415140151978,
        -0.1103118360042572,
        0.2145594358444214,
        0.16735465824604034,
        0.14103250205516815,
        -0.22726209461688995,
        0.15582115948200226,
        0.20055125653743744,
        -0.11451534181833267,
        0.23637063801288605,
        0.01737641543149948,
        -0.16745305061340332,
        0.023495571687817574,
        0.13421690464019775,
        -0.2134544402360916,
        0.1438906341791153,
        0.09334425628185272,
        -0.22903689742088318,
        0.14942950010299683,
        0.16590659320354462,
        -0.2302318960428238,
        -0.2913784980773926,
        0.07577569782733917,
        0.18180978298187256,
        0.21811099350452423,
        -0.16691695153713226,
        -0.02781710959970951,
        0.10391443222761154,
        -0.1752149909734726,
        -0.007894668728113174,
        -0.047868601977825165,
        0.09661645442247391,
        0.036080919206142426,
        -0.01419393066316843,
        -0.07184309512376785,
        -0.1279459148645401,
        0.22028157114982605,
        -0.3515017032623291,
        -0.1497710943222046,
        0.07526344060897827,
        0.00804082676768303,
        -0.02994588576257229,
        0.21029111742973328,
        0.07659387588500977,
        -0.20008179545402527,
        -0.14414635300636292,
        -0.016156192868947983,
        0.22705943882465363,
        0.021784629672765732,
        0.1907469779253006,
        -0.16981643438339233,
        -0.27164965867996216,
        0.22035667300224304,
        0.05958019196987152,
        -0.05233007296919823,
        -0.16631413996219635,
        0.00036143139004707336,
        -0.16291870176792145,
        -0.17036810517311096,
        0.2414609044790268,
        0.023452460765838623,
        -0.09233976155519485,
        0.16580401360988617,
        -0.10922346264123917,
        0.030769107863307,
        -0.11447633802890778,
        0.22715704143047333,
        -0.15799309313297272,
        -0.21686409413814545,
        0.08361103385686874,
        0.05132276564836502,
        -0.3101141154766083,
        0.05160076916217804,
        0.18601560592651367,
        0.06063246354460716,
        0.07918278872966766,
        0.31398919224739075,
        -0.10798425227403641,
        -0.13644272089004517,
        0.025908958166837692,
        0.04575233533978462,
        -0.1406034678220749,
        0.045889243483543396,
        0.050392527133226395,
        -0.14204734563827515,
        0.04971535503864288,
        0.11640933156013489,
        -0.08688292652368546,
        0.06454794108867645,
        0.06523147225379944,
        -0.23467132449150085,
        -0.0412025973200798,
        0.022069092839956284,
        0.11923487484455109,
        0.16107141971588135,
        -0.1954687535762787,
        -0.2791781425476074,
        -0.06134466081857681,
        -0.031901177018880844,
        0.23132950067520142,
        -0.016685286536812782,
        -0.1650826632976532,
        0.11827529966831207,
        0.09813973307609558,
        -0.19000649452209473,
        0.12740252912044525,
        0.1449790745973587,
        0.05383411422371864,
        -0.08839528262615204,
        -0.013016828335821629,
        -0.17976510524749756,
        0.18741624057292938,
        0.021496981382369995,
        0.010330406948924065,
        -0.048792868852615356,
        -0.04227570816874504,
        0.032955437898635864,
        -0.09081932157278061,
        -0.36111563444137573,
        -0.21526125073432922,
        0.08570428937673569,
        0.030741609632968903,
        0.0055679441429674625,
        0.09238692373037338,
        0.2298271507024765,
        -0.13661590218544006,
        0.04839286580681801,
        0.1879711002111435,
        0.09471581131219864,
        -0.10535001754760742,
        -0.08419269323348999,
        0.0980498269200325,
        -0.10636778920888901,
        0.3853003680706024,
        -0.011575988493859768,
        0.17304575443267822,
        0.021990004926919937,
        0.03365783393383026,
        -0.01662343554198742,
        -0.1215164065361023,
        0.09916248917579651,
        0.13235615193843842,
        -0.034390922635793686,
        -0.05327324941754341,
        -0.09617065638303757,
        0.0014232898829504848,
        0.18047446012496948,
        0.07690750807523727,
        -0.14003628492355347,
        -0.2097940891981125,
        0.15528829395771027,
        0.1814403384923935,
        -0.1264120638370514,
        -0.10949675738811493,
        0.2850041687488556,
        -0.1430806964635849,
        -0.010436048731207848,
        -0.04021300747990608,
        -0.061218466609716415,
        0.3153485357761383,
        0.011835129000246525,
        0.08445703238248825,
        0.2054477334022522,
        0.0914178267121315,
        0.22340425848960876,
        -0.2708301842212677,
        -0.2502329349517822,
        -0.14136287569999695,
        -0.07249908894300461,
        0.10448604822158813,
        0.21597982943058014,
        -0.15795283019542694,
        -0.051118988543748856,
        0.2298962026834488,
        -0.16570185124874115,
        -0.040573541074991226,
        0.006407765671610832,
        0.0673755332827568,
        0.008486964739859104,
        -0.06955074518918991,
        -0.04221116751432419,
        0.05810137093067169,
        -0.24986134469509125,
        -0.1724473387002945,
        -0.03453810140490532,
        -0.07875752449035645,
        0.1548352688550949,
        -0.13705036044120789,
        -0.26387810707092285,
        -0.16346324980258942,
        -0.16799521446228027,
        0.2602050006389618,
        0.26187995076179504,
        -0.06145046278834343,
        -0.1453578919172287,
        -0.048920806497335434,
        -0.03230997174978256,
        0.11011616885662079,
        -0.2654036581516266,
        0.14264148473739624,
        0.08159805834293365,
        -0.1538875252008438,
        0.023026511073112488,
        0.07113777846097946,
        -0.20992670953273773,
        -0.1627681851387024,
        0.1549706906080246,
        -0.11830946058034897,
        0.010591900907456875,
        0.07805098593235016,
        0.020486023277044296,
        -0.15500745177268982,
        0.14510175585746765,
        -0.17509250342845917,
        -0.0027737501077353954,
        0.05747684836387634,
        0.09257514029741287,
        -0.058288171887397766,
        0.10965783149003983,
        -0.0766073688864708,
        -0.06385782361030579,
        0.1276976317167282,
        0.04457875341176987,
        0.030160462483763695,
        0.08902190625667572,
        0.17852190136909485,
        -0.15770934522151947,
        -0.09275057911872864,
        0.15688806772232056,
        -0.1681423783302307,
        -0.13645002245903015,
        0.026314135640859604,
        0.053851425647735596,
        -0.12225844711065292,
        0.16708634793758392,
        0.09238336980342865,
        -0.07742908596992493,
        -0.08964892476797104,
        0.11810699105262756,
        0.09029947966337204,
        0.13686969876289368,
        0.08295519649982452,
        0.007484371308237314,
        -0.052062731236219406,
        0.08230659365653992,
        0.1920756995677948,
        0.0466020368039608,
        -0.11075115203857422,
        0.11612541973590851,
        -0.011650072410702705,
        0.002987548476085067,
        0.16168524324893951,
        0.08291671425104141,
        -0.1334734559059143,
        0.07328127324581146,
        0.008561352267861366,
        0.1615545153617859,
        -0.22081753611564636,
        0.058431316167116165,
        -0.14007744193077087,
        -0.16894708573818207,
        -0.2116820067167282,
        -0.031078185886144638,
        0.17809216678142548,
        -0.09921836107969284,
        -0.25103893876075745,
        0.18346010148525238,
        -0.08926386386156082,
        -0.14796999096870422,
        0.2997865676879883,
        -0.22616690397262573,
        -0.06813909858465195,
        0.1978892982006073,
        0.13714852929115295,
        0.0013577089412137866,
        -0.12513583898544312,
        0.11327776312828064,
        -0.03980276733636856,
        -0.2441246509552002,
        -0.010049035772681236,
        0.021820340305566788,
        0.2103460282087326,
        0.26675039529800415,
        0.029215343296527863,
        -0.30372369289398193,
        -0.2828073501586914,
        -0.027420589700341225,
        0.09242147952318192,
        0.035209089517593384,
        0.041580479592084885,
        -0.3576611280441284,
        -0.2265174239873886,
        -0.19749291241168976,
        0.12218226492404938,
        -0.11229508370161057,
        -0.17532140016555786,
        0.327380508184433,
        -0.10839013010263443,
        -0.06022298336029053,
        0.12252473831176758,
        -0.21700815856456757,
        -0.20304860174655914,
        0.3255823850631714,
        -0.2421078234910965,
        -0.2922592759132385,
        0.3692663311958313,
        -0.0164934191852808,
        -0.4165259301662445,
        0.09086088836193085,
        -0.05834587290883064,
        -0.1751985400915146,
        0.5086851119995117,
        0.03259401023387909,
        0.1331959366798401,
        -0.12030407041311264,
        -0.30522334575653076,
        -0.16378702223300934,
        0.06239905580878258,
        -0.014632477425038815,
        0.11978328227996826,
        0.05763796716928482,
        0.16031230986118317,
        0.1355689913034439,
        -0.1021910160779953,
        0.12429146468639374,
        0.25707772374153137,
        -0.2631763517856598,
        -0.18631145358085632,
        0.05775176361203194,
        -0.07133865356445312,
        0.24271275103092194,
        -0.15834979712963104,
        -0.12812937796115875,
        -0.14523476362228394,
        -0.08674024045467377,
        0.17040565609931946,
        0.17759840190410614,
        -0.01269947737455368,
        -0.09083281457424164,
        0.039751432836055756,
        0.04497328773140907,
        0.30203092098236084,
        -0.11729966104030609,
        0.13070206344127655,
        0.16101914644241333,
        -0.260224312543869,
        0.02328181080520153,
        0.02230505645275116,
        0.11054439097642899,
        0.2214326709508896,
        0.29529082775115967,
        -0.15983280539512634,
        0.16032341122627258,
        -0.25016722083091736,
        0.09771368652582169,
        0.25197601318359375,
        -0.06288549304008484,
        0.09955965727567673,
        0.04604434221982956,
        0.007046750746667385,
        0.06616271287202835,
        -0.029762187972664833,
        0.010250239633023739,
        -0.03653249889612198,
        0.03210210055112839,
        -0.10545212775468826,
        -0.11878746747970581,
        -0.017141306772828102,
        0.1976301074028015,
        -0.009342772886157036,
        0.07375818490982056,
        0.17175638675689697,
        -0.2738119661808014,
        -0.1565941572189331,
        -0.15877993404865265,
        -0.024976421147584915,
        -0.13939249515533447,
        0.014964096248149872,
        0.09050148725509644,
        -0.01689147762954235,
        -0.10305050015449524,
        -0.0798388347029686,
        0.07497207075357437,
        -0.018108269199728966,
        0.16927722096443176,
        -0.07630042731761932,
        0.14912967383861542,
        0.06056588143110275,
        0.013811475597321987,
        -0.09917262941598892,
        -0.12819580733776093,
        0.209041029214859,
        0.08707039058208466,
        -0.25088271498680115,
        0.04311968758702278,
        -0.060720257461071014,
        0.017468467354774475,
        0.11924421042203903,
        -0.0512862503528595,
        0.05846140906214714,
        0.1372036337852478,
        0.014726121909916401,
        0.07537677884101868,
        0.05271400511264801,
        0.12171193957328796,
        0.023553011938929558,
        0.19101467728614807,
        0.28056931495666504,
        0.033906277269124985,
        -0.08920943737030029,
        0.04283790662884712,
        -0.13531555235385895,
        -0.10390081256628036,
        0.09178813546895981,
        -0.07659302651882172,
        -0.08844088762998581,
        0.07690190523862839,
        -0.0882858857512474,
        -0.16188517212867737,
        -0.32938438653945923,
        0.18581785261631012,
        -0.14815093576908112,
        -0.20492379367351532,
        -0.11372551321983337,
        0.02369016408920288,
        -0.08789519965648651,
        0.09445299953222275,
        -0.035938601940870285,
        -0.06495438516139984,
        -0.008678807877004147,
        -0.07056194543838501,
        0.14446766674518585,
        0.28078773617744446,
        0.04851206764578819,
        0.020713748410344124,
        -0.08879098296165466,
        0.12778569757938385,
        0.16849982738494873,
        -0.05902314558625221,
        0.13196267187595367,
        -0.02247309312224388,
        -0.11346399039030075,
        -0.030644498765468597,
        0.06939300894737244,
        0.0070630828849971294,
        -0.04319778084754944,
        0.2162569910287857,
        -0.09939929097890854,
        -0.08621273189783096,
        -0.030571524053812027,
        -0.015197370201349258,
        0.15541411936283112,
        -0.14922697842121124,
        -0.09731148928403854,
        0.0725468099117279,
        0.15351608395576477,
        -0.06416066735982895,
        0.02875009924173355,
        0.22197885811328888,
        -0.19246283173561096,
        0.021375233307480812,
        0.10285129398107529,
        -0.12600316107273102,
        0.05722421780228615,
        0.18190236389636993,
        0.1169888973236084,
        0.14042255282402039,
        0.04587594047188759,
        0.16773870587348938,
        0.01154704112559557,
        -0.26687124371528625,
        0.01919706165790558,
        -0.11625435203313828,
        0.05143481120467186,
        0.08800917863845825,
        0.05743980407714844,
        -0.007590888999402523,
        -0.06860281527042389,
        -0.06419189274311066,
        0.06523653119802475,
        -0.04063183814287186,
        0.005645435769110918,
        -0.12060506641864777,
        -0.10671746730804443,
        -0.15470390021800995,
        0.14901867508888245,
        -0.193332701921463,
        0.052962593734264374,
        0.16583403944969177,
        -0.21103209257125854,
        0.12255926430225372,
        -0.09616747498512268,
        -0.09131522476673126,
        0.10221995413303375,
        0.03803369402885437,
        0.19158177077770233,
        -0.10533002018928528,
        0.2328309565782547,
        0.03977339714765549,
        -0.27174559235572815,
        0.22342704236507416,
        -0.03678201138973236,
        0.2949167490005493,
        0.031701114028692245,
        -0.17032399773597717,
        0.17104507982730865,
        0.028805924579501152,
        -0.06714647263288498,
        -0.0825715959072113,
        0.20401893556118011,
        0.1230739876627922,
        0.09684247523546219,
        0.014500669203698635,
        -0.3003409206867218,
        -0.02360406331717968,
        -0.07403600215911865,
        -0.14106112718582153,
        -0.23344434797763824,
        -0.5087653994560242,
        0.8562692999839783,
        0.771877646446228,
        -0.3710585832595825,
        0.4097699522972107,
        -0.21729817986488342,
        0.10682365298271179,
        0.6554709672927856,
        -1.083945393562317,
        0.9140526652336121,
        0.31198352575302124,
        -0.06793732941150665,
        -0.4337178170681,
        0.1516440510749817,
        -0.927627444267273,
        0.23948068916797638,
        -0.41183724999427795,
        -0.009548157453536987,
        -0.28450310230255127,
        0.2839401364326477,
        0.23235978186130524,
        0.13955654203891754,
        0.22627905011177063,
        0.40461328625679016,
        0.21569308638572693,
        0.03440270945429802,
        0.1716383546590805,
        -0.3664010763168335,
        -0.1679883897304535,
        -0.3828399181365967,
        -0.12855164706707,
        0.2440391331911087,
        -0.07592833042144775,
        0.2541336119174957,
        -0.5106123685836792,
        -0.10874684900045395,
        -0.47909173369407654,
        0.3256290853023529,
        -0.4045563340187073,
        -0.4303969740867615,
        0.40832802653312683,
        0.2986656427383423,
        0.5086382627487183,
        0.44577503204345703,
        0.2098962366580963,
        0.3841779828071594,
        0.13535785675048828,
        0.10802920162677765,
        -0.2778831422328949,
        0.029223116114735603,
        -0.7852148413658142,
        0.010073157958686352,
        -0.4741012752056122,
        0.059215839952230453,
        -0.37350356578826904,
        -0.4488878548145294,
        0.2604874074459076,
        -0.1081329807639122,
        0.5480876564979553,
        0.30072614550590515,
        -0.04162459820508957,
        0.13735312223434448,
        0.07229507714509964,
        0.39532068371772766,
        -0.19498580694198608,
        0.12126406282186508,
        -0.06625498086214066,
        0.064363494515419,
        0.00823027454316616,
        -0.33258166909217834,
        0.1425275355577469,
        0.5070781111717224,
        0.12700599431991577,
        0.05894212797284126,
        0.31799960136413574,
        -0.02221345156431198,
        0.03244592249393463,
        -0.11955048143863678,
        0.1542757898569107,
        0.13264364004135132,
        -0.140913188457489,
        0.2984747886657715,
        -0.12279543280601501,
        0.045087751001119614,
        -0.24891071021556854,
        0.22599822282791138,
        -0.08110995590686798,
        0.07609529048204422,
        0.015871262177824974,
        0.0051185800693929195,
        0.20585833489894867,
        -0.012635847553610802,
        -0.1834886223077774,
        0.23035946488380432,
        -0.07331158965826035,
        -0.10354363918304443,
        -0.21398599445819855,
        0.18832090497016907,
        -0.332417368888855,
        -0.25550228357315063,
        -0.4118180274963379,
        0.4190506935119629,
        -0.042912557721138,
        -0.3973883390426636,
        0.011937038041651249,
        0.04561606049537659,
        0.4011951684951782,
        0.6140483617782593,
        0.16162168979644775,
        0.5310889482498169,
        0.24947525560855865,
        -0.035917721688747406,
        0.28651535511016846,
        -0.14092375338077545,
        -0.17865034937858582,
        0.20440863072872162,
        -0.06311909854412079,
        -0.03189291059970856,
        -0.10717912018299103,
        -0.3041476905345917,
        0.1551658660173416,
        0.10871203988790512,
        -0.04076725244522095,
        -0.02589130587875843,
        0.11859795451164246,
        0.11068645119667053,
        0.08562369644641876,
        0.057253286242485046,
        0.10173257440328598,
        -0.24377310276031494,
        -0.017981844022870064,
        0.22062642872333527,
        -0.04593341052532196,
        0.12193970382213593,
        0.08058502525091171,
        0.08306511491537094,
        -0.006841556169092655,
        -0.04982389882206917,
        0.15854862332344055,
        -0.032756734639406204,
        -0.03530406579375267,
        -0.0038083912804722786,
        -0.07748372852802277,
        -0.17153538763523102,
        0.32323262095451355,
        -0.09465473145246506,
        -0.14178302884101868,
        0.10480683296918869,
        -0.08137453347444534,
        -0.1572457104921341,
        0.0008371567237190902,
        -0.18581576645374298,
        0.25366225838661194,
        -0.08970894664525986,
        0.3284813165664673,
        -0.305323988199234,
        -0.18851369619369507,
        0.058558493852615356,
        0.009397868067026138,
        0.2142179012298584,
        -0.1891188621520996,
        -0.18321102857589722,
        0.47120097279548645,
        0.13452698290348053,
        0.28205573558807373,
        0.03401397913694382,
        -0.09548711031675339,
        -0.03241616487503052,
        -0.25033020973205566,
        0.12080982327461243,
        -0.23564283549785614,
        -0.07556453347206116,
        -0.02119089849293232,
        0.10755573958158493,
        -0.2138388603925705,
        0.2475723922252655,
        -0.1369493156671524,
        -0.13515953719615936,
        -0.26181280612945557,
        0.2503490447998047,
        -0.2114487588405609,
        -0.08820079267024994,
        -0.11929492652416229,
        0.38378381729125977,
        0.06774097681045532,
        -0.2014220505952835,
        0.14160288870334625,
        -0.018836574628949165,
        -0.024394527077674866,
        -0.0835753008723259,
        0.21940878033638,
        0.13461536169052124,
        -0.0426713190972805,
        -0.016672762110829353,
        -0.011719281785190105,
        -0.2719084620475769,
        -0.033971305936574936,
        0.17817890644073486,
        -0.03753681853413582,
        -0.35156577825546265,
        -0.22299134731292725,
        -0.09852773696184158,
        0.3481868803501129,
        -0.07480990886688232,
        -0.011740323156118393,
        0.005426316987723112,
        -0.09639972448348999,
        -0.27348896861076355,
        -0.13224747776985168,
        -0.1628338098526001,
        -0.23720216751098633,
        0.2371634840965271,
        0.06076737865805626,
        -0.4018614590167999,
        -0.14039456844329834,
        0.12718726694583893,
        0.09411189705133438,
        -0.2362622618675232,
        0.07526519894599915,
        -0.11025682091712952,
        0.15101021528244019,
        -0.03054101951420307,
        0.040074631571769714,
        -0.22603611648082733,
        0.31062746047973633,
        -0.28377094864845276,
        -0.10998598486185074,
        0.035321272909641266,
        -0.06944804638624191,
        0.03211294487118721,
        -0.0848766416311264,
        0.06318249553442001,
        0.12128537893295288,
        0.0011560724815353751,
        -0.28351420164108276,
        -0.12008108198642731,
        -0.0939849391579628,
        -0.18570642173290253,
        0.10637997090816498,
        0.14592225849628448,
        0.17095999419689178,
        0.016740333288908005,
        -0.2832559049129486,
        -0.21608997881412506,
        -0.4238159954547882,
        0.1427099108695984,
        -0.4264197051525116,
        -0.0689082145690918,
        0.1884235292673111,
        0.18918120861053467,
        0.6172678470611572,
        0.03670339286327362,
        0.09168905764818192,
        0.2548588812351227,
        -0.235418900847435,
        -0.04229777678847313,
        -0.15249194204807281,
        0.03212925046682358,
        -0.5198872089385986,
        -0.2526109516620636,
        -0.494333952665329,
        0.17384232580661774,
        -0.33544692397117615,
        -0.24223479628562927,
        0.1937977820634842,
        0.31409063935279846,
        0.794899046421051,
        0.015218730084598064,
        -0.012528413906693459,
        0.057989899069070816,
        0.01720063015818596,
        -0.04630424082279205,
        0.016923632472753525,
        0.10077961534261703,
        0.12616275250911713,
        -0.05270012468099594,
        -0.003993141930550337,
        0.1767365038394928,
        0.03537736460566521,
        -0.1471128612756729,
        -0.1197722926735878,
        0.12872563302516937,
        0.08717348426580429,
        0.10120724141597748,
        -0.05618349090218544,
        0.1844436675310135,
        0.10042028874158859,
        0.16865266859531403,
        0.06196719780564308,
        -0.09224499762058258,
        -0.03625327721238136,
        -0.1616487056016922,
        0.3136917054653168,
        0.24993225932121277,
        -0.14005610346794128,
        0.014842916280031204,
        0.041366808116436005,
        0.22761553525924683,
        0.09668906033039093,
        -0.09251490235328674,
        -0.1739915907382965,
        -0.04274094104766846,
        -0.0428798608481884,
        -0.04868360236287117,
        0.214083731174469,
        0.15935756266117096,
        -0.07829948514699936,
        -0.05776289850473404,
        -0.33924418687820435,
        0.02041550539433956,
        0.12496849149465561,
        0.14676035940647125,
        -0.1600811630487442,
        -0.19181212782859802,
        -0.15874119102954865,
        0.11614584177732468,
        0.06096941977739334,
        0.02702290192246437,
        -0.13599972426891327,
        0.04590253531932831,
        0.2777939736843109,
        -0.19383300840854645,
        -0.05675186961889267,
        -0.02755582705140114,
        0.02464143931865692,
        -0.19462430477142334,
        0.1574774980545044,
        -0.02973620966076851,
        -0.2302529215812683,
        -0.25123900175094604,
        -0.26933664083480835,
        0.03398570045828819,
        -0.10877254605293274,
        -0.24547718465328217,
        0.15477211773395538,
        0.040707286447286606,
        0.2520962655544281,
        0.08644406497478485,
        0.6904119849205017,
        -0.15145406126976013,
        -0.030504217371344566,
        0.5199052095413208,
        -0.18993011116981506,
        0.03435678035020828,
        0.11844237893819809,
        0.26927193999290466,
        -0.007138128392398357,
        0.03282136842608452,
        -0.02309572324156761,
        0.0529780387878418,
        0.17991988360881805,
        -0.24059376120567322,
        -0.08416258543729782,
        -0.0307458508759737,
        0.14245645701885223,
        0.0391700305044651,
        -0.0155074717476964,
        -0.1220596432685852,
        -0.051910221576690674,
        0.11364883184432983,
        0.14315363764762878,
        -0.05821521207690239,
        -0.1708296835422516,
        0.09680560231208801,
        0.15381518006324768,
        0.20766305923461914,
        0.13879011571407318,
        0.05265772342681885,
        0.10654167085886002,
        -0.17410966753959656,
        -0.2873843312263489,
        -0.028629668056964874,
        0.0211325716227293,
        0.044413335621356964,
        -0.12751920521259308,
        0.1216314435005188,
        -0.12789207696914673,
        0.2846779227256775,
        0.125811368227005,
        0.09167271852493286,
        0.30290985107421875,
        -0.045243337750434875,
        0.006631582044064999,
        -0.1758912056684494,
        0.04603053629398346,
        -0.10210078209638596,
        -0.25878748297691345,
        -0.5637076497077942,
        -0.20759718120098114,
        -0.005210760980844498,
        -0.5383764505386353,
        0.04603048786520958,
        -0.38035792112350464,
        -0.19934093952178955,
        -0.2583779990673065,
        -0.034066859632730484,
        -0.05949150770902634,
        -0.06310369074344635,
        -0.5046846270561218,
        -0.18032722175121307,
        -0.059752147644758224,
        0.531174898147583,
        0.22706812620162964,
        0.2456931322813034,
