{
    "version": "0.5.0",
    "architecture": "WaveNet",
    "config": {
        "layers": [
            {
                "input_size": 1,
                "condition_size": 1,
                "head_size": 8,
                "channels": 20,
                "kernel_size": 3,
                "dilations": [
                    1,
                    2,
                    4,
                    8,
                    16,
                    32,
                    64,
                    128,
                    256,
                    512
                ],
                "activation": "Tanh",
                "gated": false,
                "head_bias": false
            },
            {
                "input_size": 20,
                "condition_size": 1,
                "head_size": 1,
                "channels": 8,
                "kernel_size": 3,
                "dilations": [
                    1,
                    2,
                    4,
                    8,
                    16,
                    32,
                    64,
                    128,
                    256,
                    512
                ],
                "activation": "Tanh",
                "gated": false,
                "head_bias": true
            }
        ],
        "head": null,
        "head_scale": 0.02
    },
    "weights": [
        -0.00011349044507369399,
        0.5885019302368164,
        -0.7640662789344788,
        -0.7638763785362244,
        -0.348871648311615,
        0.07801233977079391,
        -0.0006903220782987773,
        0.7925688028335571,
        0.0007533906609751284,
        0.3149172067642212,
        -0.25840502977371216,
        -0.12735047936439514,
        -0.9128201603889465,
        -0.5929242372512817,
        -0.5045005083084106,
        -0.0013651279732584953,
        0.3582365810871124,
        0.584897518157959,
        -0.6474296450614929,
        -0.41710370779037476,
        0.0540686696767807,
        0.04402683675289154,
        -0.0024159441236406565,
        0.11560779809951782,
        -0.129788339138031,
        0.014545409008860588,
        0.10426630824804306,
        -0.005663479212671518,
        -0.0769212618470192,
        -0.04566369578242302,
        0.06427876651287079,
        0.11554370075464249,
        -0.1091638058423996,
        0.0384846068918705,
        -0.10324764251708984,
        -0.057133741676807404,
        -0.1355641484260559,
        0.14775697886943817,
        -0.10653194785118103,
        0.055337093770504,
        -0.06513959914445877,
        -0.05439256504178047,
        -0.09289209544658661,
        -0.12493743002414703,
        -0.12319374084472656,
        -0.014756031334400177,
        0.10538046061992645,
        0.11042971909046173,
        -0.14881350100040436,
        0.0159615445882082,
        0.04233590140938759,
        0.2190270870923996,
        0.038197800517082214,
        -0.04678783565759659,
        0.15001070499420166,
        -0.11454825848340988,
        0.01337196584790945,
        0.016495395451784134,
        -0.08264525979757309,
        -0.08413039892911911,
        0.1681997925043106,
        0.052120596170425415,
        -0.10056453198194504,
        0.14252892136573792,
        0.06314496695995331,
        0.04054678976535797,
        -0.06876589357852936,
        0.014259112998843193,
        0.1114826649427414,
        0.028431445360183716,
        -0.0872592180967331,
        -0.02859944850206375,
        -0.058747533708810806,
        0.10704262554645538,
        0.09818961471319199,
        0.22516289353370667,
        0.026145098730921745,
        -0.1388254165649414,
        0.11475487798452377,
        -0.08520892262458801,
        -0.05952099710702896,
        0.17452794313430786,
        0.22220677137374878,
        -0.11336024850606918,
        -0.12721438705921173,
        0.09348034858703613,
        -0.03781186044216156,
        0.08774907886981964,
        -0.0646149069070816,
        -0.09222061187028885,
        0.1968611180782318,
        -0.04967832565307617,
        0.07600849866867065,
        0.19748523831367493,
        -0.2379000335931778,
        -0.08648242801427841,
        -0.09102334827184677,
        0.12743596732616425,
        -0.011876546777784824,
        0.1348443329334259,
        0.051274120807647705,
        0.10599658638238907,
        -0.2035403847694397,
        0.0831880271434784,
        -0.020226435735821724,
        0.055956002324819565,
        -0.07127908617258072,
        -0.09160178154706955,
        -0.16829875111579895,
        0.1254090666770935,
        -0.04371214658021927,
        0.24500411748886108,
        -0.17622214555740356,
        0.1208251342177391,
        0.2451673448085785,
        -0.2121058851480484,
        -0.050315048545598984,
        0.15327897667884827,
        -0.09763482958078384,
        0.01750553958117962,
        0.2000536173582077,
        -0.10445954650640488,
        -0.0730639174580574,
        0.21666356921195984,
        -0.2339746505022049,
        -0.15052303671836853,
        -0.037187203764915466,
        0.029128143563866615,
        -0.03991672769188881,
        -0.26329660415649414,
        0.07686400413513184,
        0.040124986320734024,
        -0.2345326691865921,
        0.10628645867109299,
        0.07629293203353882,
        0.13636621832847595,
        -0.10810557007789612,
        -0.018068308010697365,
        0.18004389107227325,
        -0.028417915105819702,
        0.06707821786403656,
        -0.24247166514396667,
        0.10658014565706253,
        0.13269278407096863,
        -0.48221081495285034,
        0.06802535802125931,
        -0.049666646867990494,
        0.3639378547668457,
        -0.18939906358718872,
        -0.2350480705499649,
        0.2514847218990326,
        -0.23174938559532166,
        -0.16977407038211823,
        0.4209890365600586,
        -0.062421005219221115,
        0.04157429561018944,
        -0.24249188601970673,
        0.05517210811376572,
        -0.18550238013267517,
        0.33126774430274963,
        -0.15799888968467712,
        0.11570760607719421,
        -0.4763360321521759,
        0.017647691071033478,
        -0.12167918682098389,
        0.15123866498470306,
        -0.14284975826740265,
        0.19318966567516327,
        -0.4801848530769348,
        0.12221287935972214,
        -0.019067252054810524,
        0.32818031311035156,
        -0.0062857200391590595,
        -0.11672355234622955,
        0.21633920073509216,
        -0.07237742841243744,
        -0.15453577041625977,
        0.3086535334587097,
        -0.023413769900798798,
        -0.2417624592781067,
        0.3822955787181854,
        -0.15109333395957947,
        -0.050039369612932205,
        0.4026661813259125,
        -0.06753993034362793,
        0.1475740522146225,
        -0.280113160610199,
        0.03755016624927521,
        0.03560541570186615,
        -0.28742343187332153,
        0.23446714878082275,
        0.22920122742652893,
        -0.4571279287338257,
        0.1332349330186844,
        -0.22803525626659393,
        0.2930634915828705,
        -0.19980967044830322,
        -0.10023496299982071,
        0.2882238030433655,
        -0.1344974935054779,
        -0.06840083003044128,
        0.07573041319847107,
        -0.036162372678518295,
        -0.29174575209617615,
        -0.13896246254444122,
        0.2092406451702118,
        0.16216404736042023,
        0.17854617536067963,
        -0.06493954360485077,
        0.22499895095825195,
        0.0677199736237526,
        -0.1401768922805786,
        0.20576472580432892,
        0.020960193127393723,
        -0.13149145245552063,
        -0.13026738166809082,
        -0.12219524383544922,
        0.07398543506860733,
        0.16371603310108185,
        -0.13742433488368988,
        -0.1850610375404358,
        -0.08189184218645096,
        -0.02474316768348217,
        0.11399038136005402,
        -0.07313166558742523,
        0.17211155593395233,
        -0.07530413568019867,
        -0.22253701090812683,
        -0.08743571490049362,
        0.12223836034536362,
        0.18710024654865265,
        0.15552790462970734,
        -0.11233308166265488,
        0.2708340585231781,
        0.10057975351810455,
        -0.2320641726255417,
        0.2687802314758301,
        -0.018477465957403183,
        -0.16326843202114105,
        0.2423107624053955,
        0.10730119794607162,
        -0.020014813169836998,
        0.1587822139263153,
        0.05844451114535332,
        -0.06004529446363449,
        -0.048269979655742645,
        0.0838911160826683,
        0.012316669337451458,
        -0.18905337154865265,
        -0.07505045086145401,
        0.05762242153286934,
        -0.1875043362379074,
        0.04101065546274185,
        0.07898218929767609,
        0.1295447200536728,
        0.018970848992466927,
        -0.24342893064022064,
        0.2570924758911133,
        -0.0010076129110530019,
        -0.20549021661281586,
        -0.030492568388581276,
        0.06145792454481125,
        0.03145129233598709,
        0.28419598937034607,
        0.197296142578125,
        -0.190796360373497,
        -0.2270837128162384,
        -0.11530168354511261,
        0.248244971036911,
        -0.15410928428173065,
        -0.21364276111125946,
        0.08541896194219589,
        -0.2889719307422638,
        -0.10456446558237076,
        0.08570405095815659,
        0.03274672105908394,
        0.233651801943779,
        -0.24355489015579224,
        -0.16825361549854279,
        -0.1034737378358841,
        0.15621615946292877,
        0.10222607851028442,
        0.04977250471711159,
        -0.0366964265704155,
        -0.0243479423224926,
        0.042460739612579346,
        -0.0014246448408812284,
        0.21017515659332275,
        0.10914038121700287,
        -0.16510652005672455,
        -0.2700212597846985,
        -0.1102583259344101,
        0.1902291476726532,
        -0.1616441011428833,
        -0.15098343789577484,
        0.09056998789310455,
        -0.10148113965988159,
        -0.2521885931491852,
        0.19237752258777618,
        -0.23420991003513336,
        -0.21478818356990814,
        0.16819773614406586,
        -0.2555506229400635,
        -0.12017630785703659,
        0.17604239284992218,
        -0.036530960351228714,
        0.09022888541221619,
        -0.017242006957530975,
        0.23559994995594025,
        0.13196055591106415,
        -0.2520497739315033,
        0.17126917839050293,
        0.1986028552055359,
        -0.19115278124809265,
        -0.138180211186409,
        -0.06520882248878479,
        0.07593336701393127,
        -0.19120851159095764,
        -0.10172495245933533,
        0.1542750597000122,
        -0.06740391999483109,
        -0.14584921300411224,
        -0.15089696645736694,
        0.09483778476715088,
        0.02292012795805931,
        0.14470447599887848,
        -0.0028819944709539413,
        0.08843004703521729,
        0.03722537308931351,
        -0.1415036916732788,
        -0.03484075143933296,
        -0.13405586779117584,
        0.03988845273852348,
        0.1398908942937851,
        -0.12757748365402222,
        0.16856873035430908,
        0.07204197347164154,
        0.18904173374176025,
        -0.062211740761995316,
        0.07188837975263596,
        -0.13849611580371857,
        0.03358000889420509,
        0.03470718860626221,
        0.09617144614458084,
        -0.10885950177907944,
        0.1616603285074234,
        0.07402701675891876,
        0.16762962937355042,
        -0.13313744962215424,
        0.08260612934827805,
        -0.1455097645521164,
        0.151872456073761,
        -0.061016812920570374,
        -0.0708761066198349,
        0.049565259367227554,
        -0.007029461208730936,
        -0.12165926396846771,
        0.13602811098098755,
        -0.11146511882543564,
        -0.05345359444618225,
        -0.01990499719977379,
        -0.15396639704704285,
        -0.19308224320411682,
        0.16323143243789673,
        0.03516959771513939,
        0.21241433918476105,
        0.08554289489984512,
        -0.07820544391870499,
        0.007107149343937635,
        -0.07506038248538971,
        -0.04502233490347862,
        0.17383456230163574,
        -0.1643357127904892,
        -0.035546448081731796,
        -0.20474565029144287,
        -0.004421557765454054,
        0.07954671233892441,
        0.014316398650407791,
        0.1524195522069931,
        0.0675770491361618,
        -0.004275399260222912,
        -0.03885781392455101,
        0.09641944617033005,
        -0.15850694477558136,
        -0.0038474637549370527,
        0.24022652208805084,
        0.3470846116542816,
        0.13369011878967285,
        -0.14924892783164978,
        0.34171247482299805,
        0.06611756235361099,
        -0.13840271532535553,
        0.18452294170856476,
        -0.04086460918188095,
        -0.22431664168834686,
        -0.1292881965637207,
        0.08779598772525787,
        0.12294414639472961,
        0.05077651888132095,
        0.05315014347434044,
        -0.08329610526561737,
        -0.2706604599952698,
        -0.11541634052991867,
        0.22139309346675873,
        0.07605785131454468,
        -0.023739159107208252,
        0.08687077462673187,
        -0.15631668269634247,
        -0.0727544054389,
        0.2057555466890335,
        0.18364471197128296,
        0.011647198349237442,
        -0.012085244990885258,
        0.22896142303943634,
        -0.08759099245071411,
        -0.18801754713058472,
        0.24714025855064392,
        0.03070567548274994,
        -0.08916392922401428,
        0.39507701992988586,
        0.05480841547250748,
        -0.18952809274196625,
        0.2776721119880676,
        0.10321705788373947,
        -0.053995031863451004,
        -0.09721384197473526,
        -0.04888629913330078,
        0.024754315614700317,
        -0.3153250515460968,
        0.01105474028736353,
        0.027248743921518326,
        -0.22807522118091583,
        0.059967197477817535,
        0.11701535433530807,
        0.1906127780675888,
        0.0033076563850045204,
        -0.08025918900966644,
        0.17206400632858276,
        0.10885360836982727,
        -0.22856354713439941,
        -0.09776591509580612,
        -0.11862676590681076,
        -0.09354672580957413,
        0.24776120483875275,
        0.05353504791855812,
        0.030157729983329773,
        -0.2201947569847107,
        -0.14326047897338867,
        0.0750163346529007,
        -0.2843954265117645,
        -0.07370352745056152,
        0.14162199199199677,
        -0.018558084964752197,
        -0.09465774148702621,
        0.005296435672789812,
        0.21425649523735046,
        0.13458284735679626,
        -0.04236777499318123,
        -0.1438276618719101,
        -0.1253553032875061,
        -0.0011200126027688384,
        0.11797520518302917,
        0.21082697808742523,
        -0.1694241464138031,
        0.05188722908496857,
        -0.026325132697820663,
        -0.021155083552002907,
        0.057087384164333344,
        0.057119421660900116,
        -0.13865692913532257,
        -0.0926518663764,
        -0.036421895027160645,
        0.1575467884540558,
        -0.12911823391914368,
        -0.08384022116661072,
        -0.014579427428543568,
        -0.2794274091720581,
        -0.12376320362091064,
        -0.006902568507939577,
        -0.10209380090236664,
        -0.26713690161705017,
        0.010199165903031826,
        -0.2663910388946533,
        -0.10409819334745407,
        0.07017266750335693,
        0.053878095000982285,
        0.15095065534114838,
        0.01725902035832405,
        0.15467284619808197,
        0.12484581768512726,
        -0.11077889800071716,
        0.18216300010681152,
        0.24224431812763214,
        -0.16407683491706848,
        -0.05730915069580078,
        -0.19254939258098602,
        -0.03522748127579689,
        -0.23000496625900269,
        -0.0596776120364666,
        0.19393371045589447,
        -0.2112610936164856,
        0.12266158312559128,
        -0.05399010702967644,
        0.011849302798509598,
        0.2963467538356781,
        -0.06366471201181412,
        0.0991528332233429,
        -0.13701234757900238,
        -0.048266638070344925,
        0.10170203447341919,
        -0.22891509532928467,
        0.06946443766355515,
        0.037487488240003586,
        -0.22148410975933075,
        0.03966587409377098,
        -0.06291904300451279,
        0.07170939445495605,
        -0.021306099370121956,
        0.25571051239967346,
        -0.10630814731121063,
        0.09400458633899689,
        -0.09101742506027222,
        0.2348046600818634,
        -0.08456844091415405,
        0.043984461575746536,
        -0.05238383635878563,
        0.19836723804473877,
        -0.11571642011404037,
        0.17073963582515717,
        -0.07534893602132797,
        0.20814014971256256,
        -0.04579400643706322,
        -0.09299157559871674,
        0.003604636527597904,
        -0.23757202923297882,
        0.03235704451799393,
        0.024896904826164246,
        -0.2766666114330292,
        -0.05808736011385918,
        0.08720365911722183,
        -0.2533526122570038,
        0.022649746388196945,
        0.04030213505029678,
        -0.24386250972747803,
        0.018795430660247803,
        0.04354318976402283,
        0.016618922352790833,
        0.002262200927361846,
        -0.1254621297121048,
        0.297743022441864,
        -0.12976494431495667,
        -0.18775574862957,
        0.31335073709487915,
        -0.07578840106725693,
        0.08557109534740448,
        -0.19834180176258087,
        -0.03362737223505974,
        0.043230146169662476,
        -0.09665626287460327,
        0.0060692704282701015,
        -0.17514629662036896,
        -0.2169312685728073,
        -0.014536102302372456,
        0.012349465861916542,
        -0.319228857755661,
        0.21099884808063507,
        0.031004678457975388,
        0.21711242198944092,
        0.019061125814914703,
        0.12448884546756744,
        0.350864976644516,
        -0.009204892441630363,
        0.0015878785634413362,
        0.1335306465625763,
        -0.11268755793571472,
        0.10594063997268677,
        -0.2228936105966568,
        0.0028406353667378426,
        -0.0321221724152565,
        0.25873062014579773,
        -0.18021169304847717,
        -0.1654999703168869,
        -0.35755249857902527,
        0.11521072685718536,
        0.004790655802935362,
        0.0900760143995285,
        0.052039872854948044,
        0.014168977737426758,
        -0.11425991356372833,
        0.21166172623634338,
        0.019732246175408363,
        0.1080504059791565,
        -0.2139100879430771,
        0.12570257484912872,
        0.24202314019203186,
        -0.07098150998353958,
        -0.05097183212637901,
        0.3627253770828247,
        0.04210000857710838,
        0.1721402257680893,
        0.12713605165481567,
        -0.13556665182113647,
        -0.03969137743115425,
        0.35295507311820984,
        -0.15174418687820435,
        0.033399514853954315,
        -0.02150609903037548,
        0.029400881379842758,
        -0.10365471988916397,
        -0.2324647605419159,
        0.08675136417150497,
        -0.15533295273780823,
        -0.12902522087097168,
        0.02999652735888958,
        0.10263309627771378,
        0.3492201566696167,
        -0.02153114229440689,
        0.06601626425981522,
        0.34025314450263977,
        -0.07398264855146408,
        -0.019516175612807274,
        0.10387903451919556,
        -0.06881608068943024,
        0.10681943595409393,
        0.08990760147571564,
        -0.1578895002603531,
        -0.12570980191230774,
        -0.1536792665719986,
        -0.054414935410022736,
        -0.24680760502815247,
        -0.05021437630057335,
        0.09960003197193146,
        -0.17759034037590027,
        -0.09995950013399124,
        0.13133366405963898,
        0.14426617324352264,
        0.028117556124925613,
        -0.2188778519630432,
        -0.1865452527999878,
        0.025805536657571793,
        0.04899486526846886,
        0.2568945586681366,
        0.1739521026611328,
        -0.05387614294886589,
        -0.06847892701625824,
        0.06262851506471634,
        -0.036449287086725235,
        0.32087382674217224,
        0.004208330065011978,
        -0.12277700752019882,
        -0.14573387801647186,
        -0.1642361730337143,
        0.18877790868282318,
        -0.27253222465515137,
        -0.19030603766441345,
        0.0460258312523365,
        -0.21953293681144714,
        -0.015662262216210365,
        -0.0007046117098070681,
        -0.1882788985967636,
        -0.15958751738071442,
        0.040574926882982254,
        -0.1346684992313385,
        -0.22109660506248474,
        0.09104600548744202,
        0.13289247453212738,
        0.08554849028587341,
        0.05668492615222931,
        0.17921847105026245,
        0.217798113822937,
        -0.20381997525691986,
        0.21603809297084808,
        0.105909563601017,
        -0.025997105985879898,
        -0.18483248353004456,
        -0.02936508134007454,
        0.04864000156521797,
        -0.23293030261993408,
        -0.03402967005968094,
        0.03682895377278328,
        -0.0008501431439071894,
        -0.25327402353286743,
        -0.12053699791431427,
        0.10001985728740692,
        -0.0030865268781781197,
        0.1107400581240654,
        -0.13239797949790955,
        -0.05284836143255234,
        0.03715692460536957,
        -0.07249656319618225,
        0.108658567070961,
        -0.10444909334182739,
        -0.013755565509200096,
        0.19200097024440765,
        0.0012137922458350658,
        -0.061139918863773346,
        -0.0039323256351053715,
        -0.10169145464897156,
        0.06318735331296921,
        0.1671586036682129,
        -0.03355441987514496,
        0.15788419544696808,
        -0.1691133677959442,
        0.05699605494737625,
        0.014370795339345932,
        0.02053438313305378,
        0.029736889526247978,
        0.20007194578647614,
        -0.14166945219039917,
        0.08553421497344971,
        -0.10073645412921906,
        0.017474453896284103,
        -0.12283436208963394,
        -0.1824696809053421,
        0.2204231172800064,
        -0.025019774213433266,
        -0.10771367698907852,
        0.08765433728694916,
        0.058339886367321014,
        0.003100335830822587,
        0.16409073770046234,
        -0.11800496280193329,
        -0.1232830211520195,
        -0.010040005668997765,
        -0.08970406651496887,
        0.021118849515914917,
        0.17146477103233337,
        -0.043259378522634506,
        0.17128916084766388,
        -0.13807232677936554,
        -0.01208013016730547,
        0.21004191040992737,
        -0.08765053749084473,
        0.03526166453957558,
        -0.19947637617588043,
        0.16798029839992523,
        -0.038950879126787186,
        -0.19494205713272095,
        0.10188530385494232,
        -0.11217047274112701,
        -0.22264288365840912,
        0.0410977266728878,
        0.004008094314485788,
        -0.29120948910713196,
        0.1049821749329567,
        0.1107012927532196,
        0.34411609172821045,
        -0.1047307476401329,
        -0.009080545045435429,
        0.21637453138828278,
        -0.14585921168327332,
        0.0011244876077398658,
        0.33966416120529175,
        0.05774768814444542,
        0.001784279476851225,
        -0.18056848645210266,
        0.009742433205246925,
        0.11083699762821198,
        0.10199258476495743,
        -0.20363223552703857,
        0.007755644619464874,
        -0.18416422605514526,
        -0.0825829729437828,
        0.10905686765909195,
        -0.031580373644828796,
        -0.14176137745380402,
        -0.012958048842847347,
        -0.13006314635276794,
        -0.03904702514410019,
        -0.022625014185905457,
        0.2771911025047302,
        -0.1752292960882187,
        0.062374379485845566,
        0.2883891761302948,
        0.01355475839227438,
        -0.09786941111087799,
        0.3880862593650818,
        -0.11221244931221008,
        0.13541734218597412,
        0.12941811978816986,
        -0.15814529359340668,
        0.07960056513547897,
        0.2678253948688507,
        -0.04018373414874077,
        -0.07516051828861237,
        -0.09022890031337738,
        -0.03041337989270687,
        -0.18665625154972076,
        -0.2370089888572693,
        0.07141298800706863,
        0.003608561120927334,
        -0.21523979306221008,
        0.1631348729133606,
        0.030955450609326363,
        0.20902901887893677,
        -0.09293030202388763,
        -0.08138576149940491,
        0.1652044802904129,
        -0.06293381005525589,
        -0.018240666016936302,
        -0.03392862156033516,
        0.053132422268390656,
        0.046688999980688095,
        -0.3377844989299774,
        0.1112503707408905,
        0.08067941665649414,
        0.37873372435569763,
        -0.17811594903469086,
        0.061777714639902115,
        0.2651897966861725,
        -0.16911394894123077,
        -0.008584192022681236,
        0.2705380618572235,
        -0.20531931519508362,
        0.04526836797595024,
        -0.14426344633102417,
        0.0863955169916153,
        0.0918571799993515,
        0.09220300614833832,
        -0.15983302891254425,
        0.12266211956739426,
        -0.2929360866546631,
        0.17020131647586823,
        -0.0789170190691948,
        -0.009893961250782013,
        -0.04016495868563652,
        0.05757841095328331,
        -0.2814491093158722,
        0.15914702415466309,
        -0.012983286753296852,
        0.30490827560424805,
        -0.16042691469192505,
        0.03545452281832695,
        0.16064287722110748,
        -0.24522344768047333,
        0.065910205245018,
        0.2702244818210602,
        -0.15370267629623413,
        -0.0014849180588498712,
        0.27975237369537354,
        -0.13362397253513336,
        0.11831767112016678,
        0.25188004970550537,
        -0.06679511070251465,
        0.08589879423379898,
        0.0023755354341119528,
        0.16000868380069733,
        0.09126101434230804,
        -0.22867122292518616,
        0.14207211136817932,
        -0.02399757131934166,
        -0.1584106832742691,
        0.053773123770952225,
        -0.10507437586784363,
        0.3047434389591217,
        -0.21833746135234833,
        0.03723413497209549,
        0.1838080734014511,
        -0.027532612904906273,
        -0.0844334065914154,
        0.017756707966327667,
        0.14947114884853363,
        -0.09944099187850952,
        0.05364082381129265,
        0.3238547742366791,
        -0.13855858147144318,
        -0.07919630408287048,
        -0.2576262354850769,
        0.05987958237528801,
        -0.040772464126348495,
        -0.1849580705165863,
        0.05453464761376381,
        -0.17785455286502838,
        -0.1728137582540512,
        0.09411774575710297,
        0.031107066199183464,
        0.2439211905002594,
        0.007777494378387928,
        -0.009260604158043861,
        -0.10310305655002594,
        0.09272895008325577,
        -0.051790960133075714,
        0.10661755502223969,
        0.04261745885014534,
        0.16261884570121765,
        0.030088117346167564,
        0.17128773033618927,
        -0.059664662927389145,
        0.1900690495967865,
        0.015172850340604782,
        -0.1197768896818161,
        -0.06707551330327988,
        0.12838374078273773,
        0.07749488949775696,
        -0.20160631835460663,
        0.1823963224887848,
        -0.18503203988075256,
        -0.21275906264781952,
        0.11849632114171982,
        -0.025823187083005905,
        -0.0886901319026947,
        0.2095279097557068,
        0.06040150672197342,
        -0.10339844226837158,
        0.1821197271347046,
        -0.04885801300406456,
        0.02209671214222908,
        -0.10470911115407944,
        0.033498365432024,
        0.11087582260370255,
        -0.02962704934179783,
        0.10871916264295578,
        0.21772806346416473,
        -0.051324836909770966,
        0.048061855137348175,
        -0.1502043604850769,
        -0.031040458008646965,
        -0.14943374693393707,
        -0.13319025933742523,
        0.10548931360244751,
        0.021052543073892593,
        -0.2089359164237976,
        0.0038761827163398266,
        -0.1400621384382248,
        -0.28248366713523865,
        -0.017832010984420776,
        0.2769968509674072,
        0.26826465129852295,
        0.006249427795410156,
        0.26714304089546204,
        0.4974425435066223,
        -0.2210683524608612,
        0.08030159771442413,
        0.4343889057636261,
        0.0024685184471309185,
        -0.08316820859909058,
        -0.22779721021652222,
        0.009975326247513294,
        0.2107349932193756,
        0.1540171056985855,
        -0.1407269686460495,
        -0.3100520968437195,
        -0.4224556088447571,
        0.11209974437952042,
        -0.003417119849473238,
        0.17018847167491913,
        -0.13205784559249878,
        -0.32329249382019043,
        -0.2966221868991852,
        0.06688397377729416,
        0.13681286573410034,
        0.30368369817733765,
        -0.2110416740179062,
        0.07398664951324463,
        0.39348313212394714,
        -0.06921332329511642,
        0.2432589828968048,
        0.30259421467781067,
        -0.042731527239084244,
        0.23006097972393036,
        0.2717002034187317,
        -0.06907065212726593,
        0.3380519449710846,
        0.2338094413280487,
        -0.2356155812740326,
        0.10765822976827621,
        0.033813800662755966,
        0.13737307488918304,
        -0.1826135665178299,
        -0.2623383104801178,
        0.14468975365161896,
        -0.1974579393863678,
        -0.23819273710250854,
        0.180690735578537,
        0.1512538343667984,
        0.3778289556503296,
        -0.02848138101398945,
        0.33451157808303833,
        0.23414219915866852,
        -0.029296617954969406,
        -0.10031861811876297,
        -0.11270562559366226,
        -0.04661760479211807,
        -0.0706317126750946,
        0.11217345297336578,
        -0.03457273170351982,
        -0.10247358679771423,
        -0.10902129113674164,
        -0.09682413935661316,
        0.07047995924949646,
        -0.087459996342659,
        0.047554224729537964,
        0.03198179602622986,
        -0.12450894713401794,
        0.05120908468961716,
        -0.03763994947075844,
        0.07260964065790176,
        -0.02948114462196827,
        0.14565686881542206,
        -0.010712137445807457,
        0.010990370064973831,
        -0.09478461742401123,
        0.09810403734445572,
        -0.05381288006901741,
        0.04414806887507439,
        0.052489303052425385,
        -0.06853047758340836,
        -0.10305541753768921,
        0.04563198238611221,
        -0.0053356606513261795,
        0.044075578451156616,
        -0.05271988362073898,
        0.02862459421157837,
        -0.04444639012217522,
        -0.0603996142745018,
        0.058955974876880646,
        0.10439025610685349,
        -0.10994667559862137,
        -0.13036741316318512,
        0.03656923398375511,
        -0.019909320399165154,
        -0.12991321086883545,
        -0.06906771659851074,
        -0.030880682170391083,
        -0.05160290375351906,
        -0.1649261713027954,
        0.029313769191503525,
        0.0853763073682785,
        -0.05717314034700394,
        0.16902628540992737,
        0.13962572813034058,
        0.018270356580615044,
        0.08348716050386429,
        0.008388031274080276,
        -0.010161436162889004,
        -0.07196862995624542,
        -0.14813272655010223,
        -0.022550294175744057,
        -0.19446510076522827,
        0.034128911793231964,
        -0.09461217373609543,
        0.23294857144355774,
        -0.0672474205493927,
        -0.1980324238538742,
        0.23358023166656494,
        0.05622946843504906,
        0.21159440279006958,
        -0.11523037403821945,
        -0.16287122666835785,
        0.2023673951625824,
        -0.19884538650512695,
        -0.09835835546255112,
        0.20407825708389282,
        -0.07325661927461624,
        -0.14913326501846313,
        -0.14524245262145996,
        0.2525474727153778,
        0.06051672250032425,
        0.23793646693229675,
        -0.21523432433605194,
        -0.11099801957607269,
        -0.01371158380061388,
        0.22083546221256256,
        0.15719351172447205,
        -0.015191483311355114,
        -0.07220757007598877,
        -0.006273793522268534,
        -0.24390242993831635,
        0.22628438472747803,
        0.13496123254299164,
        0.14873629808425903,
        -0.18764476478099823,
        0.02077361010015011,
        0.05350876227021217,
        -0.026855843141674995,
        -0.15213575959205627,
        -0.0005977724795229733,
        -0.19988636672496796,
        0.07054927200078964,
        0.13291238248348236,
        -0.12304279208183289,
        -0.13676825165748596,
        0.17245039343833923,
        -0.1864108294248581,
        0.011756411753594875,
        0.06073587015271187,
        0.1463993936777115,
        0.04192076995968819,
        -0.1293070763349533,
        0.08692043274641037,
        -0.010161307640373707,
        -0.04054334759712219,
        0.1179581731557846,
        0.11850087344646454,
        0.06975114345550537,
        -0.20091725885868073,
        -0.03610247001051903,
        0.008792389184236526,
        -0.16792207956314087,
        -0.04797946289181709,
        0.07794369757175446,
        -0.17147879302501678,
        0.1394830048084259,
        0.31225302815437317,
        -0.2484433650970459,
        -0.06458210945129395,
        -0.3144005537033081,
        0.051562439650297165,
        0.16555194556713104,
        -0.21042709052562714,
        0.1052405834197998,
        0.004272950813174248,
        -0.263959676027298,
        0.19615322351455688,
        -0.00044154442730359733,
        0.0850791335105896,
        -0.12438561022281647,
        -0.19189204275608063,
        -0.3697117269039154,
        0.10961116850376129,
        0.058228183537721634,
        0.09798290580511093,
        -0.24215571582317352,
        -0.1122177392244339,
        -0.07821609824895859,
        0.1516340672969818,
        0.013888143934309483,
        0.13456401228904724,
        -0.10613090544939041,
        -0.21821042895317078,
        -0.3133220076560974,
        0.2460498809814453,
        0.1535159945487976,
        -0.11159887909889221,
        0.11120644211769104,
        0.04424760863184929,
        -0.22396135330200195,
        0.1604093760251999,
        0.22181682288646698,
        -0.34211835265159607,
        0.15554076433181763,
        0.18488746881484985,
        -0.293523371219635,
        0.09597530961036682,
        0.18784701824188232,
        0.011393299326300621,
        -0.0767832100391388,
        -0.12606360018253326,
        0.28165823221206665,
        -0.2665579319000244,
        -0.040438611060380936,
        0.09690525382757187,
        -0.2694007158279419,
        -0.12184049189090729,
        -0.11063873767852783,
        0.048935666680336,
        0.06705806404352188,
        -0.10899361222982407,
        0.13773798942565918,
        0.17431600391864777,
        -0.14305083453655243,
        0.06596743315458298,
        -0.12278354167938232,
        0.061706140637397766,
        0.25749966502189636,
        -0.16503238677978516,
        0.06018305569887161,
        -0.20968207716941833,
        0.011662578210234642,
        -0.03398694470524788,
        -0.2532043755054474,
        0.16663147509098053,
        -0.03709360957145691,
        -0.2794544994831085,
        0.0443405956029892,
        -0.09361636638641357,
        0.18128858506679535,
        -0.10452865064144135,
        0.1493811160326004,
        -0.18838101625442505,
        0.11049394309520721,
        -0.09213223308324814,
        0.31194254755973816,
        -0.19120900332927704,
        -0.10361475497484207,
        -0.2443617880344391,
        -0.06813515722751617,
        0.035908207297325134,
        0.2987765073776245,
        -0.20430777966976166,
        0.05609286203980446,
        -0.11642821133136749,
        0.1367577463388443,
        0.19990113377571106,
        -0.15618157386779785,
        0.024817442521452904,
        0.12387213110923767,
        -0.25535938143730164,
        0.12917107343673706,
        0.011803780682384968,
        -0.15042510628700256,
        0.18453726172447205,
        0.1718779057264328,
        -0.316254585981369,
        -0.007203689776360989,
        -0.16582313179969788,
        -0.0034610461443662643,
        0.0703459307551384,
        -0.06945397704839706,
        0.10391400009393692,
        -0.1391591876745224,
        -0.11713045835494995,
        0.2569895386695862,
        -0.18237259984016418,
        -0.07902444154024124,
        -0.33231061697006226,
        0.12399372458457947,
        0.1171916127204895,
        -0.27852341532707214,
        0.10651668906211853,
        0.04496321454644203,
        4.3513256969163194e-05,
        -0.015993790701031685,
        0.00372518808580935,
        0.053903792053461075,
        0.004073556046932936,
        -0.08554032444953918,
        0.058063048869371414,
        0.08791010081768036,
        -0.09006444364786148,
        0.11021599918603897,
        0.04046645760536194,
        -0.06866330653429031,
        -0.06351114064455032,
        0.03594039008021355,
        -0.1890169382095337,
        0.07244685292243958,
        0.0018386150477454066,
        0.05499589070677757,
        -0.04509403929114342,
        -0.8503569960594177,
        0.5708690881729126,
        0.4805161654949188,
        -0.8340123891830444,
        -0.6897556781768799,
        -0.9056223034858704,
        -0.627676784992218,
        -0.5051679015159607,
        0.8522517085075378,
        -0.1323547512292862,
        0.5260616540908813,
        0.9898321628570557,
        0.44147077202796936,
        -0.9457098245620728,
        0.44135838747024536,
        0.45630404353141785,
        0.8429756760597229,
        -0.9480448961257935,
        0.48614710569381714,
        0.7699149250984192,
        -0.19706067442893982,
        -0.005697384011000395,
        0.24386249482631683,
        -0.19513468444347382,
        -0.01472532283514738,
        0.0566079244017601,
        0.05637276545166969,
        0.17178840935230255,
        0.14938057959079742,
        0.1647222340106964,
        -0.037942614406347275,
        0.176691934466362,
        -0.055978141725063324,
        -0.1924963891506195,
        -0.06997025012969971,
        -0.06469297409057617,
        0.17556482553482056,
        0.2214713990688324,
        0.15713165700435638,
        0.1526261568069458,
        -0.14467202126979828,
        -0.07767710834741592,
        -0.060393448919057846,
        -0.1715376377105713,
        0.32272398471832275,
        0.009661686606705189,
        -0.34781381487846375,
        0.42872342467308044,
        0.006141889374703169,
        -0.3772091269493103,
        0.36462509632110596,
        0.3256562352180481,
        -0.2431817650794983,
        -0.3164123594760895,
        0.058686669915914536,
        -0.44306063652038574,
        0.11244338750839233,
        -0.19869382679462433,
        0.3515992760658264,
        -0.11780964583158493,
        -0.018787194043397903,
        0.09202244132757187,
        0.775574266910553,
        0.10943485796451569,
        0.11296000331640244,
        0.057429492473602295,
        -0.20563103258609772,
        0.01273140124976635,
        -0.26218801736831665,
        -0.00602520490065217,
        0.31373557448387146,
        0.10275541990995407,
        -0.30925625562667847,
        -0.4754956066608429,
        0.04969218373298645,
        -0.01007798220962286,
        -0.19774745404720306,
        -0.20140933990478516,
        0.3223467767238617,
        -0.11628995090723038,
        -0.03568506985902786,
        -0.06487153470516205,
        -0.08138694614171982,
        -0.07740457355976105,
        -0.021493524312973022,
        0.05513819307088852,
        0.05810040235519409,
        -0.07383421808481216,
        -0.04284714534878731,
        -0.07683029025793076,
        -0.12224885821342468,
        -0.2364114224910736,
        0.15398164093494415,
        0.2183309644460678,
        -0.08687418699264526,
        -0.030909955501556396,
        0.11179036647081375,
        0.18377412855625153,
        -0.14109502732753754,
        0.0953422263264656,
        -0.16979433596134186,
        0.1719643473625183,
        0.17233972251415253,
        0.3331184387207031,
        -0.39541327953338623,
        -0.17423655092716217,
        0.36789730191230774,
        -0.35076525807380676,
        0.027683641761541367,
        0.39994534850120544,
        -0.214410662651062,
        0.17468400299549103,
        0.2585304379463196,
        0.3125298023223877,
        -0.08719204366207123,
        0.4580134451389313,
        -0.04117584601044655,
        0.054761022329330444,
        -0.07127631455659866,
        -0.019172023981809616,
        -0.1487773358821869,
        0.13848653435707092,
        0.4521593749523163,
        -0.08387117087841034,
        0.20893876254558563,
        -0.14817595481872559,
        0.05236591026186943,
        0.011530471965670586,
        -0.16600124537944794,
        0.30692538619041443,
        -0.1820981502532959,
        0.21606077253818512,
        -0.3397998809814453,
        -0.2226647436618805,
        -0.004306845832616091,
        0.1851595938205719,
        0.07054664939641953,
        0.1572255641222,
        -0.13371416926383972,
        0.20292522013187408,
        0.41321811079978943,
        -0.22675766050815582,
        -0.26833006739616394,
        -0.012722085230052471,
        0.5325053930282593,
        0.34420710802078247,
        -0.1139288991689682,
        0.093941330909729,
        -0.2595829665660858,
        0.11873798072338104,
        0.06482045352458954,
        0.13427196443080902,
        -0.057908568531274796,
        0.29923900961875916,
        0.15762777626514435,
        -0.3921872079372406,
        -0.085325688123703,
        -0.18925221264362335,
        0.16489967703819275,
        -0.21158665418624878,
        0.013560261577367783,
        -0.19637978076934814,
        -0.17672580480575562,
        0.104888416826725,
        -0.0018329262966290116,
        0.07810740917921066,
        0.19109001755714417,
        -0.16881978511810303,
        0.1712246984243393,
        -0.2004919946193695,
        0.03175031766295433,
        -0.041436292231082916,
        0.3457499146461487,
        0.21279165148735046,
        0.15623117983341217,
        0.031731706112623215,
        0.18076755106449127,
        -0.05011148378252983,
        -0.2312636375427246,
        0.10032973438501358,
        -0.1520550698041916,
        -0.20845827460289001,
        -0.06801313906908035,
        -0.1609635353088379,
        -0.2844124138355255,
        -0.08769655227661133,
        0.2470356673002243,
        0.013673212379217148,
        0.036274272948503494,
        -0.21025747060775757,
        -0.22995814681053162,
        -0.05451427772641182,
        0.265315979719162,
        -0.05189774930477142,
        -0.05385846644639969,
        -0.008221841417253017,
        0.0894671231508255,
        0.17242351174354553,
        -0.27946916222572327,
        0.4078280031681061,
        -0.1640625298023224,
        0.02931753173470497,
        0.06891105324029922,
        -0.3290790021419525,
        0.06977980583906174,
        0.04928315803408623,
        -0.20746885240077972,
        0.1217774897813797,
        0.09677431732416153,
        -0.3954939544200897,
        0.2632741630077362,
        0.2637643814086914,
        0.1562514752149582,
        -0.22018514573574066,
        0.21147389709949493,
        -0.3830288350582123,
        0.01092846505343914,
        0.027972154319286346,
        -0.11959261447191238,
        0.20425564050674438,
        0.019162360578775406,
        -0.2897680401802063,
        -0.7593732476234436,
        -0.058751530945301056,
        0.5161451697349548,
        -0.05083717778325081,
        0.13992436230182648,
        0.32708320021629333,
        0.08778704702854156,
        -0.16221371293067932,
        -0.09384346753358841,
        -0.2409808188676834,
        0.17437167465686798,
        0.604126513004303,
        -0.10272236168384552,
        -0.47003698348999023,
        -0.3924599587917328,
        0.07477550208568573,
        -0.09991461783647537,
        0.22870323061943054,
        0.21743826568126678,
        0.0733259990811348,
        0.5435860753059387,
        -0.2262440323829651,
        0.00388538115657866,
        0.2474200278520584,
        0.08840552717447281,
        -0.16321806609630585,
        -0.014781362377107143,
        0.08939266949892044,
        0.1796438992023468,
        0.22063180804252625,
        0.07675670832395554,
        -0.5165492296218872,
        -0.2889446020126343,
        0.12590914964675903,
        -0.12929193675518036,
        -0.31555163860321045,
        0.37575238943099976,
        -0.18655212223529816,
        0.37057650089263916,
        0.04799465090036392,
        -0.06375685334205627,
        -0.03618764877319336,
        -0.21408268809318542,
        0.09419682621955872,
        -0.11970310658216476,
        0.1334647238254547,
        -0.3390316367149353,
        0.24188119173049927,
        0.05441673845052719,
        -0.05151180550456047,
        -0.14825743436813354,
        -0.2606622278690338,
        -0.12410775572061539,
        -0.35236889123916626,
        -0.2560542821884155,
        -0.0022822401951998472,
        0.048595789819955826,
        -0.3839235007762909,
        0.11305542290210724,
        0.06786385178565979,
        -0.26384079456329346,
        -0.10682158917188644,
        0.3114311993122101,
        0.14500388503074646,
        -0.2009432166814804,
        0.017234504222869873,
        -0.2047678530216217,
        -0.05086050182580948,
        0.1353573501110077,
        -0.1893659085035324,
        0.09915455430746078,
        0.12232258915901184,
        -0.023503974080085754,
        -0.24998454749584198,
        -0.2466305047273636,
        0.016622932627797127,
        0.08555340766906738,
        0.058815307915210724,
        0.2630084753036499,
        -0.19757330417633057,
        0.25866326689720154,
        0.3474791347980499,
        -0.03989344835281372,
        0.19258622825145721,
        0.20041437447071075,
        -0.27902770042419434,
        -0.3939192295074463,
        0.3640561103820801,
        -0.2995762228965759,
        -0.14264121651649475,
        0.20754405856132507,
        0.2357822209596634,
        -0.22815854847431183,
        0.21238933503627777,
        -0.33559298515319824,
        -0.20374789834022522,
        -0.14414142072200775,
        -0.3016953766345978,
        0.10154204815626144,
        0.24852675199508667,
        0.6378206014633179,
        -0.26534783840179443,
        -0.206152081489563,
        0.07024624198675156,
        -0.13190342485904694,
        -0.25542283058166504,
        -0.22577440738677979,
        0.16283197700977325,
        -0.10357887297868729,
        0.09929454326629639,
        -0.02769314870238304,
        -0.3746243417263031,
        -0.14846272766590118,
        0.010917027480900288,
        0.05612143874168396,
        -0.4117202162742615,
        0.27065742015838623,
        -0.16674838960170746,
        -0.03499210625886917,
        -0.044816017150878906,
        -0.164266899228096,
        0.07206195592880249,
        0.07323803752660751,
        -0.011037848889827728,
        -0.19898423552513123,
        0.1122397780418396,
        0.2632385194301605,
        -0.13329552114009857,
        0.13982445001602173,
        0.15451198816299438,
        -0.05750848352909088,
        -0.04255734756588936,
        0.26615267992019653,
        -0.011267113499343395,
        -0.06489832699298859,
        0.14079764485359192,
        -0.008023524656891823,
        0.007541645783931017,
        -0.14100205898284912,
        0.25907593965530396,
        -0.04215463250875473,
        -0.13187235593795776,
        -0.17534631490707397,
        -0.051629360765218735,
        0.0028412898536771536,
        -0.02080041915178299,
        -0.07429352402687073,
        -0.018421437591314316,
        0.054165247827768326,
        0.07271096855401993,
        -0.008873822167515755,
        -0.018350103870034218,
        -0.13097046315670013,
        0.07711926847696304,
        0.1679031401872635,
        -0.06595270335674286,
        -0.16170044243335724,
        0.04684162512421608,
        -0.01181713491678238,
        -0.041942305862903595,
        -0.3403143584728241,
        0.287214994430542,
        0.09188731759786606,
        -0.0026333515997976065,
        0.2208302915096283,
        0.05141152814030647,
        0.19599908590316772,
        0.18850861489772797,
        -0.06386129558086395,
        -0.045986611396074295,
        0.14009210467338562,
        0.11579518765211105,
        -0.08141187578439713,
        -0.13266655802726746,
        0.2021840363740921,
        0.266306072473526,
        -0.0036598672159016132,
        0.0068659596145153046,
        0.26702380180358887,
        -0.164729505777359,
        -0.5291878581047058,
        -0.05986589193344116,
        0.4799526631832123,
        -0.009122911840677261,
        -0.0681362897157669,
        0.12116142362356186,
        -0.18707185983657837,
        -0.0882302075624466,
        0.04295080527663231,
        -0.0755729228258133,
        -0.13673615455627441,
        0.0705801248550415,
        0.10670807957649231,
        0.05943872034549713,
        -0.0940866619348526,
        0.09968161582946777,
        0.037569183856248856,
        -0.05512535199522972,
        -0.18803009390830994,
        -0.17579610645771027,
        0.03204995021224022,
        0.15899677574634552,
        -0.04133407399058342,
        0.0684550479054451,
        -0.11253219842910767,
        0.1461862027645111,
        0.09588464349508286,
        -0.033142104744911194,
        -0.023760151118040085,
        -0.02082226052880287,
        -0.10875407606363297,
        0.009846539236605167,
        0.007113685831427574,
        0.016434594988822937,
        0.22157010436058044,
        -0.09774797409772873,
        -0.11499511450529099,
        -0.04599427059292793,
        -0.11330301314592361,
        -0.012911532074213028,
        -0.13202132284641266,
        0.18115133047103882,
        -0.01312109176069498,
        -0.11244167387485504,
        -0.054731450974941254,
        0.40311798453330994,
        -0.4116170108318329,
        -0.09482008963823318,
        0.1767333447933197,
        -0.06934618949890137,
        -0.1302109956741333,
        -0.13294148445129395,
        0.12221834063529968,
        -0.12445350736379623,
        0.02607201226055622,
        0.10183333605527878,
        0.12283538281917572,
        0.3787495493888855,
        -0.10424040257930756,
        -0.1488197296857834,
        -0.0724252387881279,
        0.040512338280677795,
        -0.10671678930521011,
        -0.29247525334358215,
        0.40111425518989563,
        0.01850694790482521,
        -0.11505415290594101,
        0.07678873091936111,
        0.17186351120471954,
        0.23176224529743195,
        -0.21760530769824982,
        -0.07240115106105804,
        0.3866312503814697,
        -0.4939095973968506,
        0.3347790539264679,
        0.39134514331817627,
        -0.368585467338562,
        -0.09931433200836182,
        0.3975334167480469,
        -0.2641861140727997,
        -0.10843813419342041,
        0.20756185054779053,
        -0.07029741257429123,
        0.17760249972343445,
        0.501815915107727,
        -0.1842755228281021,
        0.0703483521938324,
        -0.13758738338947296,
        0.0472022108733654,
        0.1395132690668106,
        -0.1176459938287735,
        0.1463542878627777,
        -0.004538468085229397,
        0.037550900131464005,
        0.01033591479063034,
        0.11757773905992508,
        0.4145212769508362,
        -0.17148207128047943,
        0.03033151850104332,
        0.3544289469718933,
        0.509854793548584,
        0.13492120802402496,
        0.11891302466392517,
        0.3932580351829529,
        -0.03438696265220642,
        -0.13799574971199036,
        -0.4124087989330292,
        -0.22922351956367493,
        -0.26986026763916016,
        -0.4503452479839325,
        0.14228065311908722,
        -0.034387219697237015,
        -0.24452774226665497,
        -0.2333201915025711,
        0.1856856495141983,
        -0.12190786004066467,
        0.07434099912643433,
        0.005728414282202721,
        -0.045409247279167175,
        -0.1626771092414856,
        -0.2560012638568878,
        -0.10793282091617584,
        0.016177406534552574,
        -0.034285590052604675,
        -0.054579537361860275,
        0.10307610034942627,
        0.056272804737091064,
        0.20813587307929993,
        0.007764856331050396,
        -0.38007014989852905,
        -0.09329607337713242,
        0.13185159862041473,
        -0.04167378321290016,
        -0.07923461496829987,
        0.044031620025634766,
        -0.06340864300727844,
        -0.05877704173326492,
        0.19743026793003082,
        0.033742327243089676,
        -0.040339868515729904,
        -0.08815868198871613,
        -0.1659778654575348,
        -0.29643353819847107,
        0.12671466171741486,
        0.1491740494966507,
        -0.28481918573379517,
        -0.33538004755973816,
        -0.12450538575649261,
        -0.09522103518247604,
        0.14059892296791077,
        0.2639883756637573,
        0.42887982726097107,
        0.1943097561597824,
        0.05020538717508316,
        0.0300463754683733,
        0.21829302608966827,
        0.03232431039214134,
        0.13157132267951965,
        0.036460451781749725,
        0.03711680322885513,
        -0.1489289402961731,
        -0.0024399186950176954,
        9.452203812543303e-05,
        0.002313720528036356,
        -0.10764237493276596,
        -0.1257908195257187,
        -0.03389255702495575,
        0.045626189559698105,
        -0.23190532624721527,
        0.11943282932043076,
        0.09568551182746887,
        0.04481691122055054,
        0.06619147956371307,
        0.21943584084510803,
        0.052483782172203064,
        0.14379358291625977,
        -0.02032516710460186,
        -0.11231830716133118,
        -0.002075740834698081,
        0.013960416428744793,
        0.030184758827090263,
        -0.07359209656715393,
        -0.12633894383907318,
        -0.11595314741134644,
        0.06474128365516663,
        0.11768005043268204,
        -0.007416319567710161,
        0.043299317359924316,
        -0.28184762597084045,
        -0.1386166661977768,
        -0.036937415599823,
        0.016935469582676888,
        0.0524178184568882,
        -0.18591812252998352,
        0.08469613641500473,
        0.12364564090967178,
        0.05521782487630844,
        0.01588885299861431,
        0.020823270082473755,
        0.07820694893598557,
        0.022035855799913406,
        -0.06584752351045609,
        -0.009293018840253353,
        -0.04349519684910774,
        0.0034432958345860243,
        0.11647709459066391,
        0.07383795082569122,
        -0.06281409412622452,
        0.02429349161684513,
        0.024665458127856255,
        0.16717663407325745,
        -0.06690427660942078,
        0.011967906728386879,
        -0.09864278882741928,
        0.11223826557397842,
        -0.005429231096059084,
        -0.048354677855968475,
        0.23969605565071106,
        -0.12283173203468323,
        0.08271212130784988,
        0.09820396453142166,
        0.11654658615589142,
        -0.0005118339322507381,
        0.0009402326541021466,
        -0.03698093816637993,
        0.1747874617576599,
        0.09410898387432098,
        0.027220748364925385,
        0.109219990670681,
        -0.09638238698244095,
        -0.010893875733017921,
        -0.011950898915529251,
        -0.07166904956102371,
        0.0016449576942250133,
        -0.10199549049139023,
        -0.09634113311767578,
        0.004862820263952017,
        0.1188003420829773,
        0.09063425660133362,
        -0.13338854908943176,
        -0.15118612349033356,
        -0.08752448111772537,
        0.007503075059503317,
        -0.20428785681724548,
        0.055760566145181656,
        -0.11798860877752304,
        -0.08705674111843109,
        0.024513019248843193,
        -0.09181375801563263,
        0.14943744242191315,
        0.05269182473421097,
        0.05588430166244507,
        0.11692620068788528,
        -0.04896929860115051,
        -0.06469826400279999,
        0.30756911635398865,
        -0.07070566713809967,
        -0.023733248934149742,
        0.1873633712530136,
        0.011215565726161003,
        0.00630456255748868,
        0.08861017972230911,
        -0.033870209008455276,
        -0.0870094746351242,
        0.0436503142118454,
        0.02945600636303425,
        -0.15973390638828278,
        0.05610566586256027,
        0.009824419394135475,
        -0.071663036942482,
        0.07971855998039246,
        -0.027655979618430138,
        -0.010700104758143425,
        0.10314915329217911,
        -0.0878760814666748,
        -0.016778388991951942,
        0.1926199346780777,
        -0.021185897290706635,
        -0.019403675571084023,
        0.01856919564306736,
        -0.053690630942583084,
        -0.0008573002414777875,
        0.12201197445392609,
        -0.03003784269094467,
        -0.07413583993911743,
        -0.1656130701303482,
        0.010371171869337559,
        0.12637189030647278,
        -0.17351804673671722,
        0.12470489740371704,
        0.06553857773542404,
        -0.042661309242248535,
        0.19756263494491577,
        0.2916564643383026,
        0.06400229781866074,
        0.20997275412082672,
        -0.3123071789741516,
        -0.2684396505355835,
        -0.13011205196380615,
        0.060212813317775726,
        0.06605517864227295,
        -0.04803753271698952,
        0.14293082058429718,
        0.18381711840629578,
        0.12053834646940231,
        0.07241124659776688,
        0.2461441606283188,
        -0.20580939948558807,
        -0.04902621731162071,
        -0.0286755058914423,
        0.1929570883512497,
        -0.11552730947732925,
        -0.11768760532140732,
        0.0005237446748651564,
        -0.06194978952407837,
        -0.217487633228302,
        0.06699959933757782,
        0.02369658648967743,
        -0.04313415661454201,
        0.07010627537965775,
        -0.06170477345585823,
        -0.09581202268600464,
        0.05464507266879082,
        -0.03479550778865814,
        0.0312517024576664,
        0.24372050166130066,
        -0.0887182205915451,
        0.0032697489950805902,
        -0.1369648277759552,
        -0.08532775193452835,
        0.10935109108686447,
        -0.19573824107646942,
        0.07320099323987961,
        -0.09456878900527954,
        0.139710932970047,
        0.04906015843153,
        -0.11572808772325516,
        0.0017167218029499054,
        -0.047244906425476074,
        0.02099810540676117,
        0.15919138491153717,
        -0.1438906192779541,
        -0.0018482209416106343,
        -0.022517479956150055,
        0.2106591761112213,
        -0.2713930308818817,
        0.06418856233358383,
        0.3041253387928009,
        -0.1396734118461609,
        -0.04439839348196983,
        0.11628057062625885,
        0.015911558642983437,
        -0.015616564080119133,
        0.047581396996974945,
        0.09362028539180756,
        -0.007557715754956007,
        -0.06639542430639267,
        0.047558821737766266,
        -0.04742983356118202,
        0.018045322969555855,
        0.03894084319472313,
        0.05229530856013298,
        0.0403059646487236,
        -0.11066789925098419,
        -0.010006967931985855,
        0.06241907179355621,
        -0.001151534728705883,
        0.14604641497135162,
        0.3556804656982422,
        0.1331716924905777,
        0.05877453461289406,
        0.07277035713195801,
        0.05006786435842514,
        0.00537493173032999,
        -0.027172856032848358,
        -0.08764032274484634,
        0.07148474454879761,
        0.1886751353740692,
        -0.0403485931456089,
        -0.01390001829713583,
        0.09901555627584457,
        -0.16259391605854034,
        0.04555877298116684,
        0.008699163794517517,
        0.12839655578136444,
        -0.02942560613155365,
        -0.043598830699920654,
        0.0872441902756691,
        -0.06601094454526901,
        -0.03377935662865639,
        0.009662223979830742,
        0.0386357419192791,
        0.07232291996479034,
        0.09559675306081772,
        0.12343910336494446,
        0.011232848279178143,
        0.04081673547625542,
        0.032200027257204056,
        -0.09861038625240326,
        -0.08504953980445862,
        0.01097005046904087,
        0.09596040099859238,
        0.021229755133390427,
        0.013215520419180393,
        0.09354592114686966,
        0.007098107133060694,
        -0.05619094520807266,
        -0.0804506316781044,
        -0.13065119087696075,
        0.028258658945560455,
        -0.025807637721300125,
        -0.014203639701008797,
        -0.03868462145328522,
        0.11852800101041794,
        0.16217701137065887,
        0.02894909866154194,
        -0.10759104788303375,
        0.0953688994050026,
        -0.012979174964129925,
        0.06055493652820587,
        -0.0636892318725586,
        0.05979023873806,
        0.08830459415912628,
        0.16128619015216827,
        0.01971101388335228,
        -0.021547570824623108,
        -0.13000215590000153,
        -0.022444063797593117,
        -0.11239037662744522,
        -0.048952654004096985,
        -0.00611521489918232,
        0.15332770347595215,
        0.038236699998378754,
        -0.1712171733379364,
        0.05977504700422287,
        0.09076179563999176,
        0.027507275342941284,
        -0.14138004183769226,
        -0.002660884987562895,
        -0.09864479303359985,
        -0.08266431093215942,
        0.16515305638313293,
        -0.021960707381367683,
        0.037958063185214996,
        -0.2891479432582855,
        -0.06154612824320793,
        -0.037600044161081314,
        -0.04074503853917122,
        -0.04470669850707054,
        -0.03667831793427467,
        0.16145268082618713,
        -0.10624472796916962,
        -0.12525324523448944,
        -0.08351004123687744,
        0.01258648931980133,
        -0.056517522782087326,
        -0.08084514737129211,
        0.10349024087190628,
        -0.11837621033191681,
        0.08117762953042984,
        0.004808041732758284,
        -0.12644238770008087,
        0.13748088479042053,
        0.11231458932161331,
        -0.07607141137123108,
        -0.08095543831586838,
        -0.08917155116796494,
        0.1187119334936142,
        -0.09415183216333389,
        0.008135171607136726,
        0.08006507903337479,
        0.12234112620353699,
        -0.016581470146775246,
        -0.04153590276837349,
        0.20180325210094452,
        -0.07267977297306061,
        0.13977541029453278,
        -0.2041177600622177,
        -0.07336368411779404,
        0.008384319953620434,
        -0.07079850137233734,
        0.03475983068346977,
        0.01221716683357954,
        0.02696605771780014,
        0.3557948172092438,
        0.01388607732951641,
        0.17024560272693634,
        -0.05133712291717529,
        0.016974521800875664,
        -0.25925830006599426,
        0.12239450961351395,
        -0.05728771165013313,
        0.18546362221240997,
        -0.39152607321739197,
        0.22890742123126984,
        -0.06891199946403503,
        0.11156591027975082,
        0.2054574340581894,
        -0.10328703373670578,
        0.2850538194179535,
        -0.008441188372671604,
        -0.13615933060646057,
        -0.08586415648460388,
        0.07317174971103668,
        0.4354337155818939,
        -0.11541786044836044,
        -0.2615184187889099,
        -0.09428052604198456,
        0.07265645265579224,
        0.07734473794698715,
        0.18574640154838562,
        0.016348613426089287,
        0.12782225012779236,
        -0.21437914669513702,
        0.11624294519424438,
        0.035279255360364914,
        -0.2185460925102234,
        0.07429861277341843,
        0.09564856439828873,
        -0.05051219090819359,
        -0.04459904134273529,
        0.14371590316295624,
        -0.15975910425186157,
        0.005987811367958784,
        -0.02349000610411167,
        0.13923820853233337,
        0.06068053096532822,
        0.04446382075548172,
        0.03191700950264931,
        -0.12385257333517075,
        0.036409974098205566,
        0.008750755339860916,
        -0.034185990691185,
        -0.03600790351629257,
        0.17140425741672516,
        0.0998552143573761,
        -0.19277547299861908,
        0.05356411635875702,
        0.022378146648406982,
        0.019102690741419792,
        0.02911231480538845,
        -0.1594265252351761,
        0.08366668969392776,
        0.16125796735286713,
        -0.07774331420660019,
        0.1139121949672699,
        -0.014964085072278976,
        -0.04125593975186348,
        -0.03284299746155739,
        0.21485589444637299,
        -0.1551460325717926,
        -0.17685037851333618,
        -0.11629830300807953,
        0.16938254237174988,
        -0.03722643107175827,
        -0.046152859926223755,
        -0.0017369328998029232,
        -0.15357518196105957,
        0.15070652961730957,
        -0.19556213915348053,
        -0.01799388788640499,
        0.11233175545930862,
        -0.1302967667579651,
        -0.008534413762390614,
        -0.27390339970588684,
        0.03576387092471123,
        -0.014274935238063335,
        -0.10687310248613358,
        -0.033879123628139496,
        0.004779336974024773,
        0.016036594286561012,
        -0.02450084127485752,
        0.06418978422880173,
        0.17217917740345,
        0.07477825880050659,
        -0.07670170068740845,
        0.08467318117618561,
        -0.11492855846881866,
        0.023206954821944237,
        -0.12010832130908966,
        0.011750773526728153,
        -0.01639699935913086,
        -0.0072107454761862755,
        -0.05707511305809021,
        0.06127607449889183,
        0.0949883908033371,
        0.15737180411815643,
        -0.011160220950841904,
        0.022691981866955757,
        -0.12430153042078018,
        0.061123449355363846,
        -0.06762618571519852,
        -0.16849365830421448,
        -0.08474328368902206,
        0.03769290819764137,
        0.15834979712963104,
        0.10395951569080353,
        0.1458309292793274,
        0.023169109597802162,
        -0.03603289648890495,
        -0.07467056065797806,
        -0.01911345310509205,
        -0.05953330546617508,
        -0.09434797614812851,
        -0.3261617124080658,
        -0.029500076547265053,
        -0.03768579289317131,
        -0.07958918064832687,
        0.0403994545340538,
        0.3636268079280853,
        -0.01953166536986828,
        -0.03944966197013855,
        -0.07984894514083862,
        0.06359788775444031,
        -0.0351971797645092,
        0.0019420705502852798,
        -0.20382653176784515,
        -0.013870597817003727,
        0.009171766228973866,
        -0.27990013360977173,
        0.06585712730884552,
        0.050115808844566345,
        -0.02058279700577259,
        -0.21834585070610046,
        -0.16418328881263733,
        0.03342757374048233,
        0.04871080443263054,
        -0.0010845704236999154,
        0.174046590924263,
        0.009190312586724758,
        -0.09242920577526093,
        0.08975740522146225,
        0.01541835442185402,
        0.10272467136383057,
        -0.12597475945949554,
        -0.2597959339618683,
        0.02877989038825035,
        -0.1946406364440918,
        -0.019950801506638527,
        -0.08844982087612152,
        0.07316748052835464,
        -0.005744530353695154,
        -0.10095180571079254,
        -0.031317997723817825,
        -0.12348256260156631,
        0.23052997887134552,
        -0.34967976808547974,
        0.006345007102936506,
        0.15200504660606384,
        -0.19249875843524933,
        0.1299983114004135,
        0.12245246022939682,
        -0.019041774794459343,
        -0.059178609400987625,
        0.1917114406824112,
        -0.08828023821115494,
        0.020715737715363503,
        -0.1466936469078064,
        -0.25885340571403503,
        -0.17430369555950165,
        -0.15825311839580536,
        0.21081039309501648,
        -0.024543695151805878,
        -0.058779191225767136,
        0.27716806530952454,
        -0.14001524448394775,
        -0.0672745481133461,
        0.13220010697841644,
        0.14897386729717255,
        0.17131590843200684,
        -0.16135947406291962,
        0.05292655900120735,
        0.10078098624944687,
        -0.43602731823921204,
        0.07817472517490387,
        0.07806289196014404,
        -0.3053044378757477,
        -0.0857459083199501,
        -0.10480889678001404,
        -0.2153884768486023,
        0.1295706033706665,
        0.17118731141090393,
        -0.26908132433891296,
        0.03585224971175194,
        0.10818279534578323,
        -0.24732299149036407,
        -0.051956817507743835,
        -0.06302200257778168,
        0.04958545044064522,
        -0.1178567185997963,
        -0.14944911003112793,
        0.08802381157875061,
        0.05128521844744682,
        0.1391410529613495,
        -0.07921148836612701,
        0.12202291190624237,
        -0.026582961902022362,
        -0.25351494550704956,
        0.039487555623054504,
        -0.04617326706647873,
        0.045197874307632446,
        0.11831199377775192,
        -0.14681510627269745,
        0.14410948753356934,
        0.05835337936878204,
        -0.21435211598873138,
        -0.026201670989394188,
        0.03966943174600601,
        0.1778128743171692,
        0.05852240324020386,
        0.1123061552643776,
        0.008946090936660767,
        0.056197233498096466,
        -0.366528183221817,
        -0.17507262527942657,
        -0.21667729318141937,
        -0.028424758464097977,
        -0.09696697443723679,
        -0.1869567483663559,
        -0.04620545357465744,
        0.09075665473937988,
        -0.11060188710689545,
        -0.11597982794046402,
        0.18570424616336823,
        -0.013964674435555935,
        -0.0022642449475824833,
        0.04988082870841026,
        0.013864142820239067,
        0.04245699942111969,
        0.1042545959353447,
        0.14360031485557556,
        -0.16576024889945984,
        -0.6736074090003967,
        -0.2890434265136719,
        0.14802226424217224,
        -0.1918569803237915,
        0.12846790254116058,
        0.1951950490474701,
        0.15182505548000336,
        0.060352861881256104,
        -0.03580645099282265,
        -0.012735697440803051,
        0.00920848548412323,
        -0.11771518737077713,
        -0.4122757911682129,
        -0.5105109810829163,
        -0.07420029491186142,
        0.040884654968976974,
        0.004459837917238474,
        -0.12258907407522202,
        -0.15063242614269257,
        0.13571694493293762,
        0.0817517638206482,
        0.05194729194045067,
        0.21786783635616302,
        0.06968629360198975,
        -0.03886910155415535,
        -0.08080238103866577,
        0.06434010714292526,
        -0.05139627680182457,
        -0.1695123165845871,
        0.02458694390952587,
        -0.034633390605449677,
        -0.11285113543272018,
        -0.4433510899543762,
        -0.04146946966648102,
        -0.24062876403331757,
        0.04075140133500099,
        -0.05827992781996727,
        0.25716230273246765,
        0.005649678409099579,
        -0.04771767184138298,
        0.10690189152956009,
        -0.6280036568641663,
        -0.10991808772087097,
        -0.08415316045284271,
        -0.1302013099193573,
        0.19681011140346527,
        0.02853737585246563,
        0.05921350419521332,
        -0.10689814388751984,
        0.13941732048988342,
        0.3889932632446289,
        -0.21298810839653015,
        0.020865660160779953,
        -0.03917856514453888,
        -0.0014324013609439135,
        -0.026193032041192055,
        0.39181798696517944,
        0.11793462187051773,
        0.12638993561267853,
        -0.60868239402771,
        0.2905769646167755,
        -0.05732870474457741,
        -0.2112012803554535,
        -0.027997197583317757,
        -0.27944260835647583,
        -0.08939771354198456,
        0.028963550925254822,
        -0.027387598529458046,
        -0.06743664294481277,
        -0.05552550405263901,
        -0.06889481097459793,
        -0.38547658920288086,
        0.0297803096473217,
        -0.1403859257698059,
        -0.03144058212637901,
        -0.05409901216626167,
        0.04804949834942818,
        0.04425518587231636,
        -0.1301676481962204,
        -0.14109157025814056,
        0.1307825744152069,
        -0.09708806127309799,
        -0.049983277916908264,
        -0.009058412164449692,
        0.2392895668745041,
        0.06581928580999374,
        -0.0035105044953525066,
        -0.07416605949401855,
        0.1470157653093338,
        -0.00632540974766016,
        0.0324801467359066,
        0.11205277591943741,
        0.03832678496837616,
        -0.0047537595964968204,
        -0.05217890441417694,
        0.09562388807535172,
        0.2231387048959732,
        -0.21674451231956482,
        -0.11601350456476212,
        -0.05095474794507027,
        0.1133643388748169,
        0.14515739679336548,
        -0.1882753074169159,
        0.08284835517406464,
        -0.3395584523677826,
        0.23715457320213318,
        -0.19383977353572845,
        -0.05556550621986389,
        -0.05672819912433624,
        -0.07578054815530777,
        -0.016754673793911934,
        0.08950658142566681,
        0.04140182584524155,
        0.004139279946684837,
        -0.11580274254083633,
        -0.0008860797388479114,
        -0.43453437089920044,
        0.7167970538139343,
        -0.22060289978981018,
        0.3726125657558441,
        -0.6207629442214966,
        0.23314549028873444,
        -0.05814351886510849,
        0.12905184924602509,
        -0.14959117770195007,
        -0.17942385375499725,
        0.2989591062068939,
        -0.19092430174350739,
        -0.12066709995269775,
        0.15780498087406158,
        -0.11088396608829498,
        0.14685115218162537,
        -0.49438053369522095,
        0.2238864004611969,
        -0.07256307452917099,
        0.0835702046751976,
        -0.0564483106136322,
        0.06965857744216919,
        -0.037929922342300415,
        0.18745017051696777,
        -0.10727281868457794,
        0.16843822598457336,
        0.005086080636829138,
        -0.3321203887462616,
        0.36060279607772827,
        -0.17687153816223145,
        0.03340324014425278,
        0.185029998421669,
        -0.006625901907682419,
        -0.2452584058046341,
        0.04630553349852562,
        -0.11441356688737869,
        -0.019242506474256516,
        -0.76546710729599,
        -0.14571736752986908,
        0.06629788130521774,
        -0.0993150919675827,
        -0.05826426297426224,
        0.16235026717185974,
        0.22382615506649017,
        0.0818273052573204,
        -0.11245954036712646,
        0.1645011454820633,
        -0.13177239894866943,
        0.013928619213402271,
        -0.608681857585907,
        -0.09954918920993805,
        -0.15777373313903809,
        0.013047982007265091,
        -0.06964268535375595,
        -0.014240694232285023,
        0.17934072017669678,
        0.17677515745162964,
        -0.026417508721351624,
        -0.03105854243040085,
        0.07594488561153412,
        0.06783834844827652,
        -0.6719730496406555,
        0.11912022531032562,
        -0.03938378393650055,
        -0.030561132356524467,
        -0.22194935381412506,
        -0.05751711502671242,
        -0.401213675737381,
        0.16210752725601196,
        -0.03996792063117027,
        -0.7004029750823975,
        0.03554270416498184,
        0.2027805596590042,
        -0.17092390358448029,
        -0.030984748154878616,
        0.07651591300964355,
        0.02898961491882801,
        -0.15018074214458466,
        -0.053641241043806076,
        -0.14962364733219147,
        0.003370955353602767,
        0.025012008845806122,
        0.35863199830055237,
        0.10670020431280136,
        0.1769409030675888,
        -0.030457504093647003,
        0.01231929287314415,
        0.1386401355266571,
        -0.4692438542842865,
        -0.001170370145700872,
        -0.16568811237812042,
        0.04661807417869568,
        0.013101935386657715,
        0.06513281166553497,
        -0.19120950996875763,
        0.05410110577940941,
        0.13294103741645813,
        0.029517177492380142,
        0.22115278244018555,
        0.11874616891145706,
        0.2367052286863327,
        -0.03173791989684105,
        -0.14040985703468323,
        0.001072725048288703,
        -0.1390867531299591,
        -0.01494000107049942,
        -0.05359518155455589,
        0.38803088665008545,
        -0.070118747651577,
        -0.06939060986042023,
        0.11761657148599625,
        0.05163853242993355,
        0.14806529879570007,
        -0.14001840353012085,
        0.1263827085494995,
        0.2919975817203522,
        -0.12536883354187012,
        -0.08037032932043076,
        -0.10830245167016983,
        -0.15686076879501343,
        0.0738404169678688,
        0.24165529012680054,
        -0.3106505572795868,
        0.054243575781583786,
        -0.4948635697364807,
        0.2346353977918625,
        -0.029102865606546402,
        -0.20172220468521118,
        0.20494917035102844,
        0.030393915250897408,
        -0.12794581055641174,
        -0.10310890525579453,
        -0.00045824929839000106,
        0.12254291772842407,
        0.00744178332388401,
        -0.063201405107975,
        -0.1834116280078888,
        0.2687576711177826,
        0.05857313424348831,
        0.08609357476234436,
        -0.02314835414290428,
        -0.07698169350624084,
        -0.16615527868270874,
        0.06725706160068512,
        -0.04162922129034996,
        0.16640250384807587,
        -0.1855783313512802,
        0.05418679490685463,
        -0.029965834692120552,
        -0.04874870181083679,
        -0.06924840062856674,
        -0.05015670508146286,
        0.08641240000724792,
        0.001160656102001667,
        -0.0362175814807415,
        0.23728714883327484,
        0.15237957239151,
        0.4039400815963745,
        0.15488570928573608,
        0.0010313764214515686,
        0.0953858345746994,
        -0.21045026183128357,
        0.14815624058246613,
        -0.10415532439947128,
        -0.04336654394865036,
        -0.04924831911921501,
        0.09734148532152176,
        0.18520589172840118,
        0.07385269552469254,
        0.2191038578748703,
        -0.16330622136592865,
        -0.006532084662467241,
        -0.0642976239323616,
        -0.03475542366504669,
        -0.007470012176781893,
        -0.013889025896787643,
        -0.09188181161880493,
        -0.05477233603596687,
        -0.06920862197875977,
        0.139634907245636,
        0.12397187203168869,
        0.12068643420934677,
        -0.1095280647277832,
        0.1065840944647789,
        0.07139702141284943,
        0.0760280042886734,
        0.1312457174062729,
        0.20456463098526,
        -0.08880721777677536,
        0.14243687689304352,
        0.1232861801981926,
        -0.14577794075012207,
        -0.019192080944776535,
        0.27217867970466614,
        -0.2322482466697693,
        0.09863093495368958,
        -0.025506792590022087,
        0.04970080778002739,
        0.007668992038816214,
        -0.08511383831501007,
        0.11386051028966904,
        -0.02272268384695053,
        -0.13542355597019196,
        0.1807510256767273,
        0.0774674266576767,
        0.03773149475455284,
        0.023936700075864792,
        -0.0698217898607254,
        0.19132791459560394,
        0.001864624093286693,
        -0.13501723110675812,
        -0.13817770779132843,
        -0.1792818307876587,
        -0.2069358229637146,
        0.021459609270095825,
        0.048474933952093124,
        0.07719391584396362,
        -0.06064857915043831,
        0.34212955832481384,
        0.2695377469062805,
        -0.09082993865013123,
        0.037494756281375885,
        -0.13096699118614197,
        -0.10389170795679092,
        -0.2161034196615219,
        0.11083869636058807,
        0.023865457624197006,
        0.2856296896934509,
        -0.17834317684173584,
        -0.3712802231311798,
        -0.07916271686553955,
        0.39801025390625,
        0.35986244678497314,
        0.1861329972743988,
        0.2567603886127472,
        0.31276509165763855,
        -0.07010415941476822,
        -0.04739351198077202,
        0.15002624690532684,
        0.20285622775554657,
        0.0886269137263298,
        -0.14315226674079895,
        0.10490575432777405,
        0.05384606495499611,
        -0.22986331582069397,
        0.23476113379001617,
        -0.33160775899887085,
        -0.4734717309474945,
        0.17481957376003265,
        0.1937062293291092,
        -0.11138934642076492,
        0.04833110049366951,
        -0.0010268480982631445,
        -0.3770328462123871,
        0.023815995082259178,
        -0.01864309050142765,
        -0.11966975033283234,
        0.27484098076820374,
        0.2495710700750351,
        0.38972267508506775,
        0.2521601915359497,
        -0.2094455361366272,
        -0.0545688197016716,
        -0.17931297421455383,
        -0.20056217908859253,
        -0.13861210644245148,
        -0.22896838188171387,
        -0.06987989693880081,
        -0.3606424927711487,
        -0.0209221038967371,
        0.10244105011224747,
        -0.05035078153014183,
        0.12074903398752213,
        -0.0054400647059082985,
        0.18153950572013855,
        0.1679474264383316,
        -0.06436292827129364,
        -0.06743987649679184,
        -0.19561339914798737,
        -0.08727024495601654,
        -0.17824558913707733,
        -0.06324165314435959,
        -0.08771318942308426,
        -0.03840375691652298,
        -0.230949267745018,
        0.05072572082281113,
        0.045127034187316895,
        -0.09276683628559113,
        -0.07509541511535645,
        -0.11524102836847305,
        -0.09778998047113419,
        0.09078976511955261,
        0.0007843513158150017,
        0.10215894132852554,
        -0.01682543382048607,
        0.06329835206270218,
        0.02103707380592823,
        0.14939886331558228,
        0.08025215566158295,
        0.19745443761348724,
        -0.0497368648648262,
        -0.19153016805648804,
        -0.14466732740402222,
        -0.09644392132759094,
        -0.05228922888636589,
        -0.12146606296300888,
        -0.28587743639945984,
        -0.21816498041152954,
        -0.3412744998931885,
        -0.05394069850444794,
        -0.21402308344841003,
        -0.19387222826480865,
        -0.10642606019973755,
        -0.21455781161785126,
        -0.2419598400592804,
        -0.14942702651023865,
        -0.04158961772918701,
        -0.3786287307739258,
        0.018383720889687538,
        0.07985898107290268,
        0.10622591525316238,
        0.11383302509784698,
        0.0846855416893959,
        0.24477258324623108,
        -0.03193187713623047,
        -0.09333789348602295,
        -0.21245360374450684,
        -0.09580112248659134,
        -0.11694487184286118,
        -0.1230873093008995,
        -0.03605429828166962,
        0.03027188964188099,
        0.011983622796833515,
        0.15394213795661926,
        0.04768938571214676,
        -0.14786101877689362,
        -0.07717818021774292,
        0.26571816205978394,
        -0.21009564399719238,
        -0.12069955468177795,
        0.09424549341201782,
        -0.0066276961006224155,
        -0.003061793278902769,
        0.12437219172716141,
        0.21598951518535614,
        0.020564861595630646,
        0.0011813066666945815,
        0.005717279389500618,
        -0.12607331573963165,
        0.23272104561328888,
        -0.10260148346424103,
        -0.16733038425445557,
        -0.32076990604400635,
        -0.021696580573916435,
        0.001007418381050229,
        -0.2599256932735443,
        -0.029552703723311424,
        0.12568162381649017,
        -0.14247138798236847,
        -0.1831149309873581,
        -0.1347658783197403,
        0.34448516368865967,
        -0.148002490401268,
        -0.0704442486166954,
        0.16637030243873596,
        -0.1260148286819458,
        0.09808922559022903,
        0.27689075469970703,
        -0.04707090184092522,
        -0.024750912562012672,
        0.26143568754196167,
        -0.12032561749219894,
        -0.11217585951089859,
        0.19084101915359497,
        0.07745848596096039,
        0.029856186360120773,
        0.23467393219470978,
        -0.17217406630516052,
        -0.0472734160721302,
        -0.1690208613872528,
        -0.16633397340774536,
        -0.021033022552728653,
        -0.25953778624534607,
        0.09460099041461945,
        -0.05648111179471016,
        0.03669043630361557,
        0.05736454203724861,
        -0.1278163343667984,
        0.44423189759254456,
        -0.22443333268165588,
        -0.016914835199713707,
        -0.259066104888916,
        0.08605609834194183,
        0.04553971812129021,
        0.05466378107666969,
        0.07302898913621902,
        0.022699575871229172,
        0.09316232800483704,
        0.07142360508441925,
        -0.09627464413642883,
        -0.061175428330898285,
        0.03115779347717762,
        0.009046846069395542,
        0.0005246115615591407,
        -0.056617461144924164,
        0.10888413339853287,
        -0.044081903994083405,
        0.28018200397491455,
        0.09068842977285385,
        -0.08537891507148743,
        1.1569677591323853,
        0.6783298850059509,
        0.5461512207984924,
        0.7682785987854004,
        0.10731939971446991,
        -0.5313504934310913,
        0.25027787685394287,
        -0.6546897292137146,
        -0.05082898959517479,
        -0.29398417472839355,
        0.11892648786306381,
        -1.053966999053955,
        0.8310412764549255,
        -0.946631908416748,
        0.37836799025535583,
        0.47137248516082764,
        -0.9849809408187866,
        0.99695885181427,
        -0.4265235662460327,
        -0.3119884133338928,
        0.3324090540409088,
        -0.2299521416425705,
        0.19607548415660858,
        -0.040103763341903687,
        -0.08784198015928268,
        -0.3062044382095337,
        0.10623854398727417,
        0.04298749938607216,
        0.036845069378614426,
        0.010020842775702477,
        0.15915708243846893,
        -0.1413150280714035,
        0.09300612658262253,
        0.20201022922992706,
        -0.2072359025478363,
        -0.14245377480983734,
        0.2799723744392395,
        0.06708581745624542,
        0.058721475303173065,
        0.25321972370147705,
        -0.18578872084617615,
        -0.06607219576835632,
        0.12015333026647568,
        0.07095767557621002,
        -0.17758004367351532,
        0.007957084104418755,
        0.1497630625963211,
        0.1434371918439865,
        -0.11043551564216614,
        -0.09786538034677505,
        0.0406506285071373,
        0.08479996025562286,
        -0.06050477176904678,
        -0.25530579686164856,
        0.3552834987640381,
        0.13348741829395294,
        0.10255032032728195,
        0.10965994000434875,
        0.021068941801786423,
        -0.1542941927909851,
        0.1955554038286209,
        0.0768156349658966,
        -0.1288479119539261,
        -0.00011471864127088338,
        0.18297144770622253,
        0.1609954684972763,
        -0.31504249572753906,
        0.11333794891834259,
        -0.007775210775434971,
        0.03501878306269646,
        0.22885961830615997,
        -0.3739841878414154,
        -0.06527218967676163,
        -0.2109137922525406,
        0.2708050310611725,
        -0.1773628443479538,
        0.2920083701610565,
        -0.08417187631130219,
        -0.00985468365252018,
        0.018938470631837845,
        -0.0022331061773002148,
        0.17639876902103424,
        0.02500860206782818,
        -0.14630034565925598,
        0.06782332807779312,
        0.22419632971286774,
        -0.09947038441896439,
        0.043197501450777054,
        0.11736935377120972,
        0.1011577844619751,
        0.06969710439443588,
        -0.04967093840241432,
        0.013274969533085823,
        -0.1114555075764656,
        0.1581481397151947,
        -0.0678895115852356,
        0.18411998450756073,
        -0.19238737225532532,
        -0.07189862430095673,
        -0.18491502106189728,
        0.0032737883739173412,
        0.07986819744110107,
        -0.10968250781297684,
        0.044812604784965515,
        0.022021127864718437,
        -0.14187616109848022,
        -0.041295699775218964,
        0.08357204496860504,
        0.050134509801864624,
        -0.04259553179144859,
        0.059977058321237564,
        -0.06330661475658417,
        0.009019159711897373,
        0.18001523613929749,
        -0.19945813715457916,
        0.14306779205799103,
        0.15388330817222595,
        -0.14000363647937775,
        0.177840456366539,
        0.12267311662435532,
        0.09720844775438309,
        0.11910891532897949,
        -0.13837894797325134,
        -0.1264302134513855,
        0.25039294362068176,
        -0.2587943971157074,
        -0.1389278620481491,
        -0.2856191098690033,
        0.12025098502635956,
        0.07882469892501831,
        0.01249550562351942,
        -0.058924224227666855,
        0.1062295138835907,
        -0.029903938993811607,
        -0.225621297955513,
        0.1214638501405716,
        -0.4682726562023163,
        -0.2699453830718994,
        0.0013839141465723515,
        0.003441680921241641,
        -0.227823868393898,
        0.028546810150146484,
        0.12300196290016174,
        -0.1113511398434639,
        0.26272526383399963,
        0.15510521829128265,
        -0.10172568261623383,
        0.06258686631917953,
        0.00697177741676569,
        -0.009075302630662918,
        -0.07519041746854782,
        0.030092516914010048,
        0.09870415180921555,
        0.02853814885020256,
        0.3505285978317261,
        0.039988987147808075,
        -0.058782439678907394,
        0.20263400673866272,
        -0.16674210131168365,
        -0.09721297025680542,
        0.10705000162124634,
        -0.03188782557845116,
        -0.17863041162490845,
        -0.08547104150056839,
        -0.03397392854094505,
        0.21571242809295654,
        -0.07998445630073547,
        -0.08943649381399155,
        0.07208926230669022,
        0.07980766147375107,
        0.11678781360387802,
        0.2872196137905121,
        0.001703319139778614,
        0.2662387788295746,
        -0.23059427738189697,
        -0.040753431618213654,
        0.04118651524186134,
        -0.1202889084815979,
        -0.045743249356746674,
        -0.11734547466039658,
        0.01307857595384121,
        -0.014819537289440632,
        0.22414888441562653,
        0.1782498061656952,
        0.0232334453612566,
        0.34221377968788147,
        -0.030862731859087944,
        0.3745504915714264,
        -0.16086900234222412,
        0.11587382853031158,
        -0.09638375788927078,
        -0.11137732863426208,
        0.06873741000890732,
        0.17019349336624146,
        0.09702049195766449,
        -0.056292299181222916,
        0.22326260805130005,
        0.2092224359512329,
        -0.05063547194004059,
        0.06208256632089615,
        0.1374465972185135,
        -0.2118181586265564,
        -0.02519368939101696,
        -0.04562607407569885,
        0.15057435631752014,
        -0.24221479892730713,
        -0.15185189247131348,
        0.010324756614863873,
        0.06600934267044067,
        0.05540722981095314,
        -0.09225132316350937,
        -0.14958149194717407,
        0.020657392218708992,
        0.03803012892603874,
        -0.030118204653263092,
        -0.18375644087791443,
        -0.0055104694329202175,
        0.1852632313966751,
        0.3549843728542328,
        -0.07375030219554901,
        0.039381612092256546,
        0.19310809671878815,
        -0.13540129363536835,
        -0.3735506534576416,
        0.21344295144081116,
        0.08106788992881775,
        -0.1790970265865326,
        -0.0061034089885652065,
        0.19103625416755676,
        0.0765765830874443,
        -0.24096353352069855,
        0.04543356969952583,
        -0.013878039084374905,
        -0.13296255469322205,
        -0.13005895912647247,
        0.1292629987001419,
        -0.1950262188911438,
        -0.23833833634853363,
        0.02076299674808979,
        0.04593031108379364,
        -0.07159017026424408,
        0.16845138370990753,
        0.2393159568309784,
        0.4337463676929474,
        -0.44987478852272034,
        -0.2062198370695114,
        0.2751568853855133,
        0.2779605984687805,
        -0.33602774143218994,
        -0.15905314683914185,
        -0.0019952564034610987,
        0.4389168918132782,
        -0.21983304619789124,
        0.13456322252750397,
        -0.1334839165210724,
        -0.0596122108399868,
        0.6079583764076233,
        -0.024494638666510582,
        -0.1822827011346817,
        -0.10187656432390213,
        0.26559171080589294,
        -0.041820649057626724,
        -0.05160662159323692,
        0.2881360650062561,
        -0.0674498975276947,
        0.026240553706884384,
        -0.06274309009313583,
        -0.17495395243167877,
        -0.16657143831253052,
        -0.05055553466081619,
        -0.020572274923324585,
        -0.04071808606386185,
        -0.010997123084962368,
        -0.07533475011587143,
        -0.10995836555957794,
        -0.10631029307842255,
        0.13141341507434845,
        0.160719633102417,
        0.2502792775630951,
        -0.25906577706336975,
        0.05093613266944885,
        0.004683298524469137,
        -0.08827773481607437,
        0.024017928168177605,
        0.06876299530267715,
        0.20627336204051971,
        -0.0566447377204895,
        -0.11871559172868729,
        -0.08160379528999329,
        -0.0006305583519861102,
        0.16135120391845703,
        0.15405265986919403,
        0.11547180265188217,
        0.15899305045604706,
        0.08371870219707489,
        0.17257769405841827,
        -0.04801914840936661,
        0.08692915737628937,
        -0.04923085495829582,
        -0.05394159257411957,
        -0.055366240441799164,
        -0.04457753896713257,
        0.07206881791353226,
        -0.0374760739505291,
        -0.04026392474770546,
        -0.044947706162929535,
        0.015655752271413803,
        -0.02766484022140503,
        -0.0484078973531723,
        0.020885590463876724,
        0.13403619825839996,
        0.014029898680746555,
        -0.06754487007856369,
        -0.17074108123779297,
        0.05909129977226257,
        0.015571670606732368,
        -0.04428749531507492,
        0.0031585299875587225,
        0.23087045550346375,
        0.037892092019319534,
        -0.2825191020965576,
        0.1414119452238083,
        0.03344972804188728,
        -0.15558364987373352,
        0.11283542960882187,
        0.01563233882188797,
        0.06213090196251869,
        -0.2629561424255371,
        0.07100343704223633,
        0.07250189036130905,
        0.3032519519329071,
        0.09477339684963226,
        -0.009794722311198711,
        -0.034369390457868576,
        -0.23833774030208588,
        0.04199262335896492,
        -0.19981200993061066,
