{
    "version": "0.5.0",
    "architecture": "WaveNet",
    "config": {
        "layers": [
            {
                "input_size": 1,
                "condition_size": 1,
                "head_size": 6,
                "channels": 12,
                "kernel_size": 3,
                "dilations": [
                    1,
                    2,
                    4,
                    8,
                    16,
                    32,
                    64
                ],
                "activation": "Tanh",
                "gated": false,
                "head_bias": false
            },
            {
                "input_size": 12,
                "condition_size": 1,
                "head_size": 1,
                "channels": 6,
                "kernel_size": 3,
                "dilations": [
                    128,
                    256,
                    512,
                    1,
                    2,
                    4,
                    8,
                    16,
                    32,
                    64,
                    128,
                    256,
                    512
                ],
                "activation": "Tanh",
                "gated": false,
                "head_bias": true
            }
        ],
        "head": null,
        "head_scale": 0.02
    },
    "weights": [
        -0.012388130649924278,
        0.5414682626724243,
        -0.81107097864151,
        -0.8160892724990845,
        -0.40796270966529846,
        0.2040518969297409,
        0.004799132235348225,
        0.7889643907546997,
        0.00060185109032318,
        0.16964110732078552,
        -0.396601140499115,
        -0.2757885754108429,
        -0.025541480630636215,
        -0.1816299557685852,
        -0.08427988737821579,
        -0.13950270414352417,
        0.1649545133113861,
        0.14056529104709625,
        0.03406224027276039,
        -0.1737200766801834,
        0.020898116752505302,
        0.2875458896160126,
        -0.13593457639217377,
        0.08528073132038116,
        0.11709584295749664,
        -0.08480204641819,
        0.10548168420791626,
        -0.3006335198879242,
        -0.012617689557373524,
        -0.022929424419999123,
        -0.09217569977045059,
        0.24994799494743347,
        -0.21083024144172668,
        -0.22515226900577545,
        -0.017988581210374832,
        -0.12086111307144165,
        0.00846559926867485,
        0.07645507901906967,
        0.17288342118263245,
        -0.05614090338349342,
        0.11230360716581345,
        -0.03186027705669403,
        0.172049880027771,
        -0.2659669518470764,
        -0.16544725000858307,
        0.05802062898874283,
        -0.0035824975930154324,
        0.04823625832796097,
        -0.08326031267642975,
        -0.03111637756228447,
        0.28384387493133545,
        0.21734686195850372,
        0.14331701397895813,
        -0.13853922486305237,
        0.057965558022260666,
        -0.17686519026756287,
        0.19122526049613953,
        -0.18241548538208008,
        -0.193653866648674,
        0.0765729546546936,
        0.02651824615895748,
        -0.006188496481627226,
        0.06633110344409943,
        0.10694371908903122,
        0.17483262717723846,
        -0.17776407301425934,
        -0.02064177766442299,
        0.04405497387051582,
        0.08810077607631683,
        0.21464413404464722,
        -0.04732685908675194,
        -0.21924972534179688,
        0.01906278170645237,
        0.0475650429725647,
        0.12446882575750351,
        0.1942112296819687,
        0.09556923061609268,
        -0.3223620057106018,
        -0.029686925932765007,
        -0.1744072437286377,
        0.015348614193499088,
        0.10928045958280563,
        0.06801167875528336,
        0.016304519027471542,
        0.005063029937446117,
        -0.04422813653945923,
        -0.23347878456115723,
        -0.1171005591750145,
        0.020613253116607666,
        0.06236441060900688,
        0.10509607195854187,
        0.13081760704517365,
        -0.03871452808380127,
        0.10597282648086548,
        -0.11868969351053238,
        -0.26856502890586853,
        0.12160111218690872,
        0.07491818815469742,
        -0.29513072967529297,
        -0.1275321990251541,
        0.11148335039615631,
        0.2785399258136749,
        0.037471264600753784,
        0.03414054587483406,
        -0.07398732006549835,
        -0.04526275396347046,
        -0.1721668839454651,
        0.02993028797209263,
        -0.048363469541072845,
        0.02399972453713417,
        -0.12781555950641632,
        0.05774536728858948,
        -0.14304208755493164,
        0.32199767231941223,
        0.14828822016716003,
        -0.10438506305217743,
        -0.21315908432006836,
        0.04173107072710991,
        0.05711745843291283,
        -0.13856132328510284,
        0.033520136028528214,
        -0.008650376461446285,
        0.014377282932400703,
        0.16762791574001312,
        -0.08277367800474167,
        -0.17813712358474731,
        -0.13367010653018951,
        -0.16113172471523285,
        0.020184846594929695,
        -0.22901709377765656,
        -0.11554083228111267,
        0.11512381583452225,
        -0.19155144691467285,
        -0.07905751466751099,
        0.2055509388446808,
        0.08940936625003815,
        0.09697721153497696,
        -0.08455881476402283,
        0.11086396872997284,
        0.21102942526340485,
        0.2323981374502182,
        0.19971387088298798,
        0.24069750308990479,
        -0.08761367946863174,
        -0.18988065421581268,
        -0.11808038502931595,
        0.10354685038328171,
        0.0843527689576149,
        -0.015781166031956673,
        -0.22206971049308777,
        -0.23819246888160706,
        -0.211586594581604,
        0.0548379123210907,
        0.008926690556108952,
        0.02053706906735897,
        -0.06939265877008438,
        0.04465385898947716,
        -0.22676044702529907,
        -0.04490790143609047,
        0.027800535783171654,
        0.09672520309686661,
        -0.019724274054169655,
        -0.247900128364563,
        -0.27480095624923706,
        -0.041926637291908264,
        -0.09671512991189957,
        -0.20729485154151917,
        0.046942614018917084,
        -0.24220922589302063,
        -0.13596579432487488,
        0.137678325176239,
        0.0394442155957222,
        0.2927994728088379,
        0.09364105015993118,
        -0.12326192110776901,
        0.15690618753433228,
        0.08695672452449799,
        0.024858225136995316,
        0.2666615843772888,
        -0.11585027724504471,
        -0.0540771484375,
        -0.16187098622322083,
        -0.04931413009762764,
        0.14025433361530304,
        0.1979435235261917,
        0.05798767879605293,
        -0.12980887293815613,
        -0.15815351903438568,
        -0.14604593813419342,
        0.005373751278966665,
        0.017684202641248703,
        0.11651217937469482,
        -0.11709535866975784,
        -0.1620858609676361,
        0.029178157448768616,
        -0.04181314632296562,
        0.15506179630756378,
        -0.03739549592137337,
        -0.15381145477294922,
        -0.2609668970108032,
        0.09751048684120178,
        0.05162091925740242,
        -0.38587862253189087,
        -0.022891175001859665,
        -0.1470237821340561,
        -0.13453878462314606,
        0.036731280386447906,
        0.1957196742296219,
        0.3164035975933075,
        -0.07437482476234436,
        -0.151755228638649,
        -0.035397499799728394,
        -0.15682099759578705,
        0.015575321391224861,
        0.25663504004478455,
        -0.06920810788869858,
        -0.1031562089920044,
        -0.23800352215766907,
        0.16200095415115356,
        -0.0733947679400444,
        0.23629780113697052,
        0.0659589096903801,
        0.011877017095685005,
        -0.2494661808013916,
        -0.04283324256539345,
        0.03364201635122299,
        -0.3687315583229065,
        0.05966237187385559,
        0.05088865011930466,
        -0.12279177457094193,
        0.17841428518295288,
        0.0606878362596035,
        0.22172436118125916,
        0.05199446156620979,
        0.174982488155365,
        -0.31234875321388245,
        0.16936981678009033,
        -0.044755496084690094,
        -0.2790892422199249,
        0.14506863057613373,
        0.12989579141139984,
        -0.0754052996635437,
        0.04543077200651169,
        -0.07096031308174133,
        0.28553861379623413,
        -0.27217188477516174,
        -0.04263349622488022,
        -0.11901482194662094,
        -0.13725784420967102,
        -0.10320934653282166,
        0.1182517409324646,
        -0.0739973857998848,
        0.2064373940229416,
        -0.1995370239019394,
        -0.03031420335173607,
        -0.11913228034973145,
        0.029348067939281464,
        -0.033301930874586105,
        -0.00021141856268513948,
        -0.31395208835601807,
        0.009428993798792362,
        0.17122673988342285,
        -0.11167678982019424,
        0.2330409288406372,
        0.036839935928583145,
        -0.1738542914390564,
        -0.00806704256683588,
        0.07546086609363556,
        0.2718159854412079,
        -0.004169710446149111,
        -0.10682333260774612,
        -0.21337080001831055,
        -0.10846588015556335,
        0.006976500153541565,
        -0.23024535179138184,
        -0.09867557138204575,
        0.12129140645265579,
        -0.24031104147434235,
        0.03268991783261299,
        0.08281534165143967,
        0.13984517753124237,
        -0.1676710546016693,
        -0.09146113693714142,
        0.14187496900558472,
        -0.058884941041469574,
        0.16678740084171295,
        0.08113960176706314,
        0.001050178543664515,
        0.012986362911760807,
        -0.06046295166015625,
        -0.15565432608127594,
        0.08554188162088394,
        0.17279988527297974,
        -0.07240217179059982,
        -0.06068648770451546,
        -0.2341509759426117,
        0.16934436559677124,
        -0.1517217457294464,
        -0.06306914985179901,
        0.0005617435672320426,
        -0.17351846396923065,
        0.012325409799814224,
        0.030326906591653824,
        0.18308110535144806,
        0.08491375297307968,
        -0.2063448429107666,
        -0.11928669363260269,
        0.018134817481040955,
        0.14574116468429565,
        -0.16862182319164276,
        -0.18936026096343994,
        0.05623544380068779,
        -0.08374279737472534,
        -0.10856997221708298,
        0.1516641080379486,
        0.2521672546863556,
        -0.028364522382616997,
        -0.07326344400644302,
        0.0534367635846138,
        -0.039121489971876144,
        0.040717314928770065,
        0.16747979819774628,
        -0.07619316875934601,
        -0.0650801807641983,
        0.06351204961538315,
        0.14335530996322632,
        0.06149996817111969,
        0.1638035625219345,
        0.1256171613931656,
        -0.17581966519355774,
        -0.27777543663978577,
        -0.1861172318458557,
        0.2586912512779236,
        -0.031643155962228775,
        -0.1515929400920868,
        0.16848592460155487,
        0.13998541235923767,
        -0.07441346347332001,
        0.31607291102409363,
        0.03897032514214516,
        0.23819485306739807,
        -0.21941319108009338,
        0.2296057939529419,
        -0.186327263712883,
        0.06088967248797417,
        0.2445782870054245,
        -0.20219926536083221,
        0.2574481666088104,
        -0.015218524262309074,
        -0.22756299376487732,
        0.10688689351081848,
        0.04676481708884239,
        0.2572757601737976,
        -0.09660130739212036,
        -0.05153414234519005,
        0.21374192833900452,
        -0.1388690173625946,
        -0.01029672659933567,
        0.16658449172973633,
        -0.12252289056777954,
        -0.10575087368488312,
        -0.3715372681617737,
        -0.10467545688152313,
        0.04595981910824776,
        0.3430808186531067,
        -0.02302229218184948,
        0.23187948763370514,
        -0.4331474006175995,
        0.06152728572487831,
        0.0739641785621643,
        -0.3800986707210541,
        0.3012050986289978,
        -0.15938061475753784,
        -0.0024818985257297754,
        -0.26104822754859924,
        -0.09568285942077637,
        0.022827761247754097,
        0.20225462317466736,
        0.12275789678096771,
        0.24526336789131165,
        0.08596891164779663,
        -0.038096968084573746,
        0.19186191260814667,
        0.08599981665611267,
        0.055378202348947525,
        0.27872365713119507,
        0.017457932233810425,
        0.11395037919282913,
        -0.17198917269706726,
        0.1463184952735901,
        0.15068967640399933,
        -0.008358396589756012,
        -0.04954051971435547,
        -0.09502014517784119,
        -0.24512749910354614,
        0.1742812842130661,
        0.009156335145235062,
        -0.009337718598544598,
        -0.12732531130313873,
        0.12121274322271347,
        -0.008831593208014965,
        0.081686832010746,
        -0.082614466547966,
        0.2637360692024231,
        -0.0041314647532999516,
        -0.13059325516223907,
        0.2660280764102936,
        0.04674103111028671,
        -0.14045512676239014,
        -0.06015131250023842,
        -0.06198035925626755,
        0.05478391423821449,
        0.3203102648258209,
        -0.053633518517017365,
        -0.19932803511619568,
        -0.2338520884513855,
        0.017952555790543556,
        -0.11416216939687729,
        -0.16337746381759644,
        0.2177797108888626,
        -0.06956369429826736,
        -0.27895158529281616,
        0.07233536243438721,
        0.17204663157463074,
        0.2571830451488495,
        -0.2185998111963272,
        -0.004495212808251381,
        -0.1302308440208435,
        -0.18227002024650574,
        0.1430332362651825,
        0.06214628741145134,
        0.001622594427317381,
        0.09782768785953522,
        -0.1362762749195099,
        -0.20541785657405853,
        0.0183841735124588,
        0.19214831292629242,
        -0.21148404479026794,
        0.0070866672322154045,
        -0.3265642821788788,
        -0.09252889454364777,
        -0.23685432970523834,
        -0.20167598128318787,
        0.18462303280830383,
        -0.181619793176651,
        0.13577236235141754,
        -0.1300765424966812,
        0.051024340093135834,
        -0.05507243052124977,
        -0.18592976033687592,
        0.19944505393505096,
        0.04821719974279404,
        0.1866261512041092,
        0.002440856071189046,
        -0.11515199393033981,
        0.05479149892926216,
        0.08756689727306366,
        0.31971514225006104,
        -0.6508596539497375,
        -0.35945144295692444,
        -0.9575924277305603,
        -0.4727243483066559,
        0.1262517124414444,
        -0.8312158584594727,
        0.24731548130512238,
        0.37781667709350586,
        0.1922711730003357,
        -0.7291600108146667,
        -0.09560421109199524,
        -0.23222188651561737,
        0.22175584733486176,
        0.127408966422081,
        0.10159378498792648,
        -0.011102062650024891,
        0.00031958427280187607,
        -0.3739859461784363,
        -0.4088410437107086,
        -0.018646003678441048,
        -0.004568320233374834,
        -0.012998622842133045,
        -0.19120115041732788,
        -0.06712588667869568,
        -0.2690489590167999,
        0.3344801962375641,
        0.23137789964675903,
        0.3756515681743622,
        0.24116656184196472,
        0.25291889905929565,
        0.10637714713811874,
        0.027770742774009705,
        -0.18057993054389954,
        0.19757048785686493,
        0.14380739629268646,
        -0.12556704878807068,
        0.14618214964866638,
        -0.048237018287181854,
        -0.22335399687290192,
        -0.07406996190547943,
        0.35039734840393066,
        0.2904546856880188,
        -0.19088643789291382,
        0.2623079717159271,
        0.009187886491417885,
        0.20192331075668335,
        0.32783517241477966,
        -0.26492050290107727,
        0.1921200305223465,
        -0.11064960807561874,
        -0.05396014079451561,
        0.08474811911582947,
        -0.19964097440242767,
        0.039441097527742386,
        -0.22019962966442108,
        -0.18087700009346008,
        0.19924946129322052,
        -0.040877413004636765,
        -0.12382423877716064,
        -0.08370773494243622,
        0.24197717010974884,
        -0.23515504598617554,
        -0.13833503425121307,
        -0.1499834805727005,
        -0.05304556339979172,
        -0.389509379863739,
        -0.3170683681964874,
        -0.23903033137321472,
        0.48625701665878296,
        -0.25741127133369446,
        -0.10279923677444458,
        -0.1383570283651352,
        0.28228282928466797,
        0.16238592565059662,
        -0.43095317482948303,
        -0.3130737245082855,
        -0.27248287200927734,
        -0.10389912128448486,
        -0.08048561960458755,
        -0.22271227836608887,
        0.0017291005933657289,
        -0.007018047384917736,
        0.058279428631067276,
        0.06422342360019684,
        -0.03819168731570244,
        -0.4425882399082184,
        -0.10805206745862961,
        0.37191325426101685,
        -0.20333902537822723,
        -0.09237395226955414,
        -0.15145492553710938,
        0.4403296113014221,
        -0.2512972056865692,
        -0.3434029519557953,
        0.36063528060913086,
        -0.1940411925315857,
        0.14981554448604584,
        -0.1406613439321518,
        -0.14762762188911438,
        -0.06536183506250381,
        0.20944803953170776,
        -0.022541439160704613,
        -0.3203657269477844,
        -0.02656666189432144,
        -0.09896252304315567,
        0.08477650582790375,
        -0.11354470252990723,
        0.3504871428012848,
        -0.14249667525291443,
        -0.03302789479494095,
        0.2351241409778595,
        0.21828371286392212,
        0.3702094852924347,
        0.17769867181777954,
        -0.000604029162786901,
        -0.03478410467505455,
        -0.17715628445148468,
        0.31590187549591064,
        0.09655438363552094,
        -0.23550133407115936,
        0.061417482793331146,
        0.4777410328388214,
        0.12536227703094482,
        -0.06682542711496353,
        -0.19883838295936584,
        0.2030438780784607,
        -0.0027668867260217667,
        -0.11978323757648468,
        0.015341205522418022,
        0.25488072633743286,
        0.24354180693626404,
        0.19926781952381134,
        -0.025121379643678665,
        0.022841578349471092,
        0.3406721353530884,
        0.3775026500225067,
        0.22544893622398376,
        0.27561309933662415,
        -0.21566328406333923,
        0.2026621699333191,
        0.11900877207517624,
        0.381935715675354,
        -0.30043408274650574,
        -0.19022966921329498,
        -0.0381474494934082,
        0.09427458792924881,
        -0.14490289986133575,
        -0.33145833015441895,
        0.09978727996349335,
        -0.20850546658039093,
        -0.20831674337387085,
        -0.1371556967496872,
        0.05647227540612221,
        -0.2816827595233917,
        0.14740782976150513,
        -0.11869549006223679,
        0.08465075492858887,
        0.157145157456398,
        0.08604007214307785,
        0.04589315876364708,
        0.1309279054403305,
        0.05624328926205635,
        -0.08040545880794525,
        0.1119227334856987,
        0.0519581139087677,
        -0.18009336292743683,
        -0.0410260409116745,
        -0.0687275305390358,
        0.2633468210697174,
        0.09175556898117065,
        -0.0921887531876564,
        -0.10956766456365585,
        0.023959068581461906,
        -0.09056313335895538,
        0.1985926777124405,
        -0.09223586320877075,
        -0.062390051782131195,
        0.10302876681089401,
        -0.18219232559204102,
        -0.2152838110923767,
        0.023045456036925316,
        -0.07087746262550354,
        -0.10376791656017303,
        0.1384616196155548,
        0.08486171811819077,
        0.3113636076450348,
        -0.22572380304336548,
        0.16150560975074768,
        0.2220810353755951,
        -0.030706511810421944,
        -0.0357622392475605,
        -0.06636515259742737,
        -0.021768731996417046,
        -0.1240229457616806,
        0.01400537509471178,
        -0.13788723945617676,
        -0.12065733969211578,
        -0.2510523796081543,
        -0.007808665279299021,
        0.08223333954811096,
        -0.09723909944295883,
        0.23152004182338715,
        -0.01862623170018196,
        -0.07262130826711655,
        0.2503458261489868,
        -0.10318619757890701,
        0.1404656022787094,
        0.06624773889780045,
        -0.08519428968429565,
        -0.05627284571528435,
        0.03681941702961922,
        0.03406914323568344,
        -0.36059266328811646,
        0.09256420284509659,
        -0.08443330973386765,
        -0.08533287793397903,
        0.1754126250743866,
        0.11612918227910995,
        -0.07845234870910645,
        0.037267472594976425,
        0.17851629853248596,
        0.0934213176369667,
        -0.09842853248119354,
        0.081549733877182,
        0.2566993832588196,
        -0.3076820969581604,
        0.045564692467451096,
        0.17398513853549957,
        -0.028271019458770752,
        -0.15949907898902893,
        0.049613554030656815,
        0.06559784710407257,
        -0.03191642090678215,
        -0.2190382480621338,
        -0.06636271625757217,
        0.14581148326396942,
        -0.058333251625299454,
        -0.04816785082221031,
        0.136643648147583,
        -0.1863870471715927,
        0.07113287597894669,
        0.021194523200392723,
        0.03858192265033722,
        0.026641294360160828,
        -0.2041805535554886,
        -0.07750697433948517,
        -0.04309908300638199,
        -0.09157796204090118,
        -0.1337282806634903,
        0.19454197585582733,
        -0.08607149124145508,
        -0.02005648799240589,
        0.029659032821655273,
        -0.025717679411172867,
        -0.21366892755031586,
        -0.12338153272867203,
        0.14081911742687225,
        0.014201684854924679,
        -0.16710101068019867,
        0.1847793310880661,
        0.28458261489868164,
        -0.017299212515354156,
        0.0749562457203865,
        -0.037674982100725174,
        -0.006422285921871662,
        -0.13674227893352509,
        -0.11614032834768295,
        0.026628753170371056,
        -0.06364847719669342,
        -0.15692883729934692,
        0.009501475840806961,
        -0.03544836491346359,
        -0.09455335885286331,
        0.19430921971797943,
        -0.11271658539772034,
        -0.05761027708649635,
        -0.10662981867790222,
        0.29223981499671936,
        0.13040687143802643,
        -0.18901318311691284,
        0.014159963466227055,
        -0.13385078310966492,
        -0.051426708698272705,
        -0.03260990232229233,
        0.10035734623670578,
        0.051254525780677795,
        -0.05144726112484932,
        0.007797735743224621,
        0.2118520438671112,
        -0.22441253066062927,
        -0.15037722885608673,
        0.11462517827749252,
        -0.19351106882095337,
        0.11997420340776443,
        0.11740844696760178,
        0.0960395410656929,
        0.09632080048322678,
        0.08636388182640076,
        0.09742588549852371,
        0.28820016980171204,
        -0.18018046021461487,
        -0.09404757618904114,
        0.02438398264348507,
        0.09832063317298889,
        -0.015338752418756485,
        0.27499884366989136,
        -0.08344220370054245,
        -0.10757242143154144,
        -0.04752577841281891,
        0.23412133753299713,
        -0.15651120245456696,
        -0.11082355678081512,
        0.07771001756191254,
        -0.017548268660902977,
        0.2313094139099121,
        0.02210170030593872,
        -0.03605912998318672,
        -0.1395464837551117,
        0.1477942168712616,
        -0.14973968267440796,
        0.1785230189561844,
        -0.10106687247753143,
        -0.27101314067840576,
        -0.029462257400155067,
        0.08216351270675659,
        -0.14024731516838074,
        -0.31219160556793213,
        0.0941910371184349,
        0.013959143310785294,
        -0.18663102388381958,
        0.15846598148345947,
        0.10516401380300522,
        -0.1360205113887787,
        0.20921924710273743,
        0.25119325518608093,
        0.18973779678344727,
        -0.22235046327114105,
        -0.04288359358906746,
        -0.04246792942285538,
        -0.1020587608218193,
        -0.002977321157231927,
        0.23622019588947296,
        -0.08338329195976257,
        -0.11652659624814987,
        0.0770525336265564,
        -0.11185836046934128,
        -0.07425417751073837,
        0.09088525176048279,
        0.09379579871892929,
        0.015928000211715698,
        0.06123701483011246,
        0.05203762650489807,
        -0.20023301243782043,
        0.04447204992175102,
        0.07232648879289627,
        -0.16554602980613708,
        0.11208651959896088,
        0.08057771623134613,
        -0.13842082023620605,
        0.12319277971982956,
        -0.0370795838534832,
        -0.034150365740060806,
        0.10287090390920639,
        -0.015658162534236908,
        -0.16944722831249237,
        -0.14571914076805115,
        0.08044617623090744,
        -0.26102158427238464,
        -0.17760996520519257,
        0.16761672496795654,
        0.1855568289756775,
        0.07475839555263519,
        0.09450393915176392,
        -0.0075360690243542194,
        0.015349620021879673,
        -0.09301364421844482,
        -0.2519862949848175,
        0.19638420641422272,
        0.039751406759023666,
        -0.005436869338154793,
        -0.022408870980143547,
        0.045237407088279724,
        -0.031075716018676758,
        0.11765709519386292,
        0.13035692274570465,
        0.1566343605518341,
        0.14864704012870789,
        -0.15951810777187347,
        -0.08624660968780518,
        0.018356794491410255,
        0.08330599963665009,
        -0.0654730498790741,
        -0.03660506010055542,
        0.25800609588623047,
        -0.15144963562488556,
        -0.144123375415802,
        0.20188309252262115,
        -0.11584194749593735,
        0.03225747495889664,
        0.06778407841920853,
        0.05166594684123993,
        -0.20294763147830963,
        0.06322424113750458,
        0.2513439655303955,
        0.08635763823986053,
        0.06411097943782806,
        0.12251631915569305,
        -0.10010457783937454,
        -0.21490322053432465,
        -0.022379089146852493,
        0.009679238311946392,
        0.03671891987323761,
        -0.07780405133962631,
        -0.008660804480314255,
        -0.23520520329475403,
        0.026440497487783432,
        -0.0014728470705449581,
        0.11942305415868759,
        0.015596037730574608,
        0.04651966318488121,
        -0.31548118591308594,
        -0.06665387749671936,
        -0.0902082622051239,
        0.02486647292971611,
        -0.02811869978904724,
        0.21654482185840607,
        -0.1107075959444046,
        0.20360735058784485,
        0.1593797355890274,
        -0.29779908061027527,
        0.10557340085506439,
        0.2044443041086197,
        -0.24469923973083496,
        0.1368621289730072,
        -0.004034468438476324,
        -0.002904375782236457,
        -0.14802323281764984,
        -0.05184583738446236,
        -0.18588010966777802,
        -0.11881060153245926,
        -0.07546108961105347,
        0.0923367366194725,
        0.17900528013706207,
        0.22456438839435577,
        0.3440699279308319,
        -0.06549512594938278,
        -0.04480142518877983,
        -0.14526021480560303,
        -0.029333844780921936,
        -0.01515237707644701,
        -0.0498901829123497,
        0.03726264089345932,
        0.20335540175437927,
        0.08994591236114502,
        -0.05343208089470863,
        -0.1051713079214096,
        0.30228930711746216,
        0.26943057775497437,
        0.11692216247320175,
        -0.2662191390991211,
        -0.011134685948491096,
        0.03420405089855194,
        0.25353842973709106,
        -0.24081756174564362,
        -0.18236277997493744,
        0.33656564354896545,
        -0.07617907971143723,
        -0.3943956196308136,
        0.2478499412536621,
        -0.36338740587234497,
        -0.2719511091709137,
        0.21412482857704163,
        0.19327834248542786,
        0.004554951097816229,
        -0.3805464208126068,
        0.06618573516607285,
        0.050469737499952316,
        -0.20176459848880768,
        0.28642308712005615,
        0.14450472593307495,
        -0.09243063628673553,
        -0.16205936670303345,
        0.0996500551700592,
        -0.040137384086847305,
        0.13547438383102417,
        0.5739713907241821,
        -0.19672775268554688,
        -0.04895736277103424,
        -0.2426181435585022,
        0.010180428624153137,
        0.02055930532515049,
        -0.15227556228637695,
        -0.05669846758246422,
        0.05254792049527168,
        -0.008906342089176178,
        -0.24423760175704956,
        0.05268746241927147,
        0.14694568514823914,
        0.11457648128271103,
        -0.11159666627645493,
        0.10371772944927216,
        0.15877816081047058,
        -0.21971547603607178,
        -0.07175014168024063,
        0.30093660950660706,
        -0.29152753949165344,
        -0.32929185032844543,
        0.2785705626010895,
        0.09767082333564758,
        -0.03113364987075329,
        0.08498768508434296,
        0.08099528402090073,
        -0.1445242166519165,
        0.0264911986887455,
        0.292950302362442,
        0.2716624140739441,
        -0.29026415944099426,
        0.03752093389630318,
        0.1397121101617813,
        0.17260029911994934,
        -0.059111133217811584,
        0.4126063287258148,
        -0.2829163670539856,
        -0.15222537517547607,
        0.010021253488957882,
        -0.011028405278921127,
        0.06889308243989944,
        -0.10163889825344086,
        0.03222781419754028,
        0.047398436814546585,
        0.0630829930305481,
        -0.027200847864151,
        0.016793567687273026,
        0.04562957584857941,
        0.14243821799755096,
        -0.061854589730501175,
        0.026961052790284157,
        0.17202024161815643,
        -0.030835028737783432,
        -0.17541952431201935,
        0.14999514818191528,
        -0.08085509389638901,
        -0.07539740949869156,
        0.005015197675675154,
        0.0336555540561676,
        0.05392959713935852,
        -0.09050620347261429,
        0.14033249020576477,
        0.11821441352367401,
        -0.20998622477054596,
        -0.024766912683844566,
        0.011526539921760559,
        -0.1161080077290535,
        0.0531163364648819,
        0.08525115251541138,
        -0.0694853886961937,
        0.06849106401205063,
        0.13250267505645752,
        0.03171851858496666,
        -0.0336577408015728,
        -0.18336376547813416,
        0.12495269626379013,
        0.10382401198148727,
        -0.13117197155952454,
        -0.03207281976938248,
        0.1344519704580307,
        0.06359618902206421,
        -0.1625605970621109,
        -0.23814566433429718,
        -0.11576273292303085,
        -0.08179830759763718,
        -0.0017965626902878284,
        -0.007376647088676691,
        0.030368469655513763,
        -0.08225906640291214,
        -0.129857137799263,
        -0.0030549513176083565,
        0.027324708178639412,
        -0.10057332366704941,
        -0.029463788494467735,
        -0.22875075042247772,
        0.06398124247789383,
        -0.18794383108615875,
        0.30655378103256226,
        0.15927466750144958,
        -0.0441172830760479,
        0.018166735768318176,
        -0.030735274776816368,
        0.058204468339681625,
        0.03950643539428711,
        -0.25091323256492615,
        0.036752279847860336,
        -0.10670129209756851,
        -0.1522212028503418,
        0.08658839762210846,
        0.16889530420303345,
        -0.11286099255084991,
        0.05022143945097923,
        0.1353093683719635,
        0.05714115500450134,
        0.11249486356973648,
        -0.050460413098335266,
        -0.04256387799978256,
        0.12450926005840302,
        0.09732048213481903,
        -0.04583889991044998,
        -0.011993608437478542,
        -0.07266078889369965,
        0.049577079713344574,
        -0.29427534341812134,
        0.28082168102264404,
        0.6086962223052979,
        0.20977887511253357,
        -0.07029899209737778,
        0.5328454971313477,
        -0.5973116755485535,
        0.9813547730445862,
        -0.9353296756744385,
        -1.2039991617202759,
        -0.35628852248191833,
        0.7776270508766174,
        0.14993621408939362,
        0.032130684703588486,
        -0.28121840953826904,
        0.08289281278848648,
        0.01104276068508625,
        0.13626505434513092,
        0.1634179949760437,
        0.1868268996477127,
        0.02069019339978695,
        -0.06676682829856873,
        -0.1348387598991394,
        -0.10534451901912689,
        0.1592186987400055,
        -0.12022975087165833,
        0.1268346905708313,
        -0.1980689913034439,
        -0.11848251521587372,
        0.04627983644604683,
        -0.2767889201641083,
        -0.018915630877017975,
        -0.058061450719833374,
        -0.19006957113742828,
        -0.2142626792192459,
        0.21737810969352722,
        0.19894163310527802,
        -0.1535504162311554,
        0.2081758826971054,
        -0.22410157322883606,
        -0.3855384290218353,
        0.16679713129997253,
        -0.1169394999742508,
        -0.17069147527217865,
        -0.21752440929412842,
        -0.13291797041893005,
        -0.12239085882902145,
        -0.16817110776901245,
        -0.29158446192741394,
        -0.06560899317264557,
        -0.25583475828170776,
        -0.30680927634239197,
        -0.1858198642730713,
        -0.025683358311653137,
        -0.3671419322490692,
        -0.30086490511894226,
        0.12349443882703781,
        -0.290043443441391,
        -0.19844041764736176,
        -0.1663072556257248,
        -0.18814679980278015,
        0.0922762081027031,
        -0.19432158768177032,
        -0.15749575197696686,
        0.24261042475700378,
        0.029674114659428596,
        0.26171040534973145,
        -0.10411130636930466,
        -0.11993184685707092,
        0.07548636198043823,
        0.0640135258436203,
        0.2107570618391037,
        -0.23277348279953003,
        0.03261978551745415,
        0.24666541814804077,
        -0.0441410131752491,
        -0.04683082550764084,
        0.13339069485664368,
        -0.2421809285879135,
        0.12438441812992096,
        -0.26314815878868103,
        0.4174957871437073,
        0.08576227724552155,
        0.25176936388015747,
        -0.2706789970397949,
        -0.237236887216568,
        -0.09078489989042282,
        0.1260252147912979,
        -0.17043252289295197,
        0.082532599568367,
        0.26380226016044617,
        -0.011591454967856407,
        0.10297925025224686,
        -0.3145222067832947,
        -0.07485785335302353,
        -0.14287583529949188,
        0.28816381096839905,
        -0.0331721231341362,
        -0.35297924280166626,
        -0.162039652466774,
        -0.19118672609329224,
        -0.1481085568666458,
        -0.10755632817745209,
        -0.24276822805404663,
        0.34929269552230835,
        -0.41915255784988403,
        -0.2992244064807892,
        -0.13511453568935394,
        -0.07452438771724701,
        0.11487670242786407,
        -0.15392331779003143,
        -0.12635886669158936,
        -0.1839022934436798,
        -0.0024457061663269997,
        0.12033529579639435,
        0.2767910659313202,
        -0.33292460441589355,
        -0.38541242480278015,
        -0.2464572638273239,
        -0.025598961859941483,
        0.0068618315272033215,
        0.26188763976097107,
        -0.18457773327827454,
        -0.00663092453032732,
        0.1690071076154709,
        0.1855970323085785,
        0.25968047976493835,
        0.0807538852095604,
        -0.30504781007766724,
        0.0772278904914856,
        -0.15557558834552765,
        0.2439044862985611,
        -0.09324482828378677,
        0.14267440140247345,
        0.3415469229221344,
        0.2872695028781891,
        -0.27818748354911804,
        -0.10628762096166611,
        -0.21527287364006042,
        -0.2382705956697464,
        0.22210663557052612,
        -0.031853798776865005,
        -0.33244848251342773,
        -0.0976099893450737,
        -0.015609825029969215,
        0.08652124553918839,
        -0.3292403817176819,
        -0.2531677186489105,
        -0.2710789442062378,
        0.06255179643630981,
        0.13821841776371002,
        -0.14859212934970856,
        0.16977612674236298,
        0.35463792085647583,
        0.04694261774420738,
        -0.04017909988760948,
        -0.05412648618221283,
        -0.02047499269247055,
        0.12390236556529999,
        -0.18232405185699463,
        0.0663185566663742,
        0.11554086208343506,
        -0.1223449781537056,
        0.13176418840885162,
        0.20853900909423828,
        -0.046158481389284134,
        -0.0736330896615982,
        0.055074065923690796,
        -0.13008388876914978,
        -0.0673377588391304,
        0.07914475351572037,
        -0.048680394887924194,
        -0.2015078365802765,
        -0.22250834107398987,
        0.13845311105251312,
        0.01938464492559433,
        -0.033033307641744614,
        -0.22822976112365723,
        -0.21431054174900055,
        -0.005662492010742426,
        -0.2453950196504593,
        0.14419321715831757,
        -0.04090343415737152,
        -0.029439715668559074,
        0.37766408920288086,
        -0.12279649823904037,
        -0.015204332768917084,
        -0.16355617344379425,
        0.16751334071159363,
        -0.006432936992496252,
        -0.43903595209121704,
        0.1768493801355362,
        0.012530182488262653,
        -0.1981850117444992,
        0.04687182977795601,
        0.20676375925540924,
        0.0059603312984108925,
        0.0044494387693703175,
        0.077159583568573,
        -0.014849391765892506,
        0.10733985155820847,
        -0.1238790825009346,
        0.19769185781478882,
        0.07775181531906128,
        0.19065971672534943,
        -0.06027314439415932,
        -0.17738059163093567,
        0.01794697716832161,
        -0.11361048370599747,
        0.17533017694950104,
        -0.09687802195549011,
        0.3613954782485962,
        0.11979091167449951,
        -0.07583024352788925,
        0.1462678164243698,
        -0.03590435907244682,
        0.1028967797756195,
        0.13378478586673737,
        -0.0789358988404274,
        0.05002625286579132,
        0.10425131022930145,
        0.08627401292324066,
        -0.012691592797636986,
        0.17803581058979034,
        0.007444020826369524,
        -0.18217574059963226,
        0.058234021067619324,
        -0.17981217801570892,
        -0.2414783537387848,
        -0.013772438280284405,
        -0.19287116825580597,
        0.009661564603447914,
        -0.2549839913845062,
        -0.050208788365125656,
        0.04603952541947365,
        0.18294887244701385,
        0.18281665444374084,
        0.16512997448444366,
        0.11950403451919556,
        -0.05058163404464722,
        -0.04014238715171814,
        -0.18601606786251068,
        0.23195531964302063,
        0.07613718509674072,
        0.13727417588233948,
        -0.1477203071117401,
        0.03641181066632271,
        0.04625607654452324,
        0.20590254664421082,
        -0.18336506187915802,
        -0.05503532662987709,
        0.23617415130138397,
        -0.029446875676512718,
        -0.12558898329734802,
        0.11006374657154083,
        -0.10744904726743698,
        -0.044874485582113266,
        -0.27890536189079285,
        -0.029735887423157692,
        0.028206700459122658,
        0.01667104847729206,
        0.0014831576263532043,
        -0.07305967807769775,
        -0.06638473272323608,
        -0.15264004468917847,
        0.2845900058746338,
        0.02090853452682495,
        0.09207820892333984,
        -0.10061141103506088,
        0.11372725665569305,
        -0.023199835792183876,
        0.20730647444725037,
        0.053912609815597534,
        0.006795583292841911,
        -0.02202446199953556,
        0.06811999529600143,
        0.11237751692533493,
        -0.10205414146184921,
        0.19590839743614197,
        -0.024602461606264114,
        -0.11596731096506119,
        -0.15614311397075653,
        0.37361568212509155,
        -0.006845025811344385,
        0.3383745551109314,
        0.07443775981664658,
        0.19460074603557587,
        0.08208783715963364,
        -0.08287028223276138,
        -0.06226475164294243,
        0.0707765743136406,
        -0.14436912536621094,
        0.2078036367893219,
        0.04069811478257179,
        0.12081514298915863,
        -0.13065560162067413,
        0.15077084302902222,
        0.12494251132011414,
        0.028059912845492363,
        0.06638818979263306,
        -0.08388148248195648,
        -0.11651044338941574,
        0.07167670875787735,
        0.13907629251480103,
        0.1731715351343155,
        -0.11735615134239197,
        0.1333124041557312,
        0.14705555140972137,
        -0.06564458459615707,
        0.054729726165533066,
        -0.04105120524764061,
        0.036133795976638794,
        -0.1255282461643219,
        0.19936636090278625,
        -0.13347280025482178,
        0.01087151374667883,
        -0.1922331601381302,
        0.13912785053253174,
        0.18284352123737335,
        0.12935534119606018,
        -0.06438060104846954,
        -0.24500055611133575,
        0.27959585189819336,
        -0.03643026947975159,
        -0.050521768629550934,
        0.18209722638130188,
        0.10089537501335144,
        0.027133414521813393,
        -0.02607230842113495,
        -0.05711274966597557,
        -0.07098829001188278,
        0.09506779164075851,
        -0.031175918877124786,
        -0.1755247712135315,
        -0.08267650008201599,
        -0.17370575666427612,
        -0.1956150382757187,
        -0.11945946514606476,
        0.025810813531279564,
        0.16715838015079498,
        -0.11208231002092361,
        -0.003523498773574829,
        0.02034984715282917,
        0.10128827393054962,
        -0.035487718880176544,
        -0.0900053158402443,
        0.21795694530010223,
        0.1730746030807495,
        -0.000341233768267557,
        0.18611155450344086,
        -0.09788542985916138,
        -0.0981040969491005,
        0.17486198246479034,
        0.05230716988444328,
        -0.08004535734653473,
        -0.13447356224060059,
        -0.07753782719373703,
        -0.12072496116161346,
        -0.12223999202251434,
        0.0714302808046341,
        0.09741096198558807,
        -0.19753772020339966,
        -0.16154788434505463,
        -0.10767188668251038,
        -0.0711723119020462,
        0.20910939574241638,
        0.0031280629336833954,
        -0.06551016122102737,
        -0.05409108102321625,
        0.06332139670848846,
        -0.17591436207294464,
        -0.10807912796735764,
        0.24393601715564728,
        0.07673570513725281,
        0.012023341841995716,
        0.01877111941576004,
        -0.15113365650177002,
        -0.00841661635786295,
        0.0011866228887811303,
        -0.11463971436023712,
        -0.06744197756052017,
        -0.012301367707550526,
        -0.1892901062965393,
        0.09280799329280853,
        0.08596549928188324,
        0.18830762803554535,
        -0.1017804890871048,
        0.0913747176527977,
        -0.34617185592651367,
        -0.18802782893180847,
        -0.03136465325951576,
        0.08796065300703049,
        0.05426616221666336,
        -0.14596134424209595,
        0.14840270578861237,
        -0.1086951196193695,
        -0.2981945276260376,
        0.0958605483174324,
        -0.07337528467178345,
        0.030620036646723747,
        0.0740738958120346,
        0.2556454837322235,
        -0.049487050622701645,
        0.04722343757748604,
        -0.08238938450813293,
        0.146495521068573,
        0.24437479674816132,
        -0.17510287463665009,
        -0.1980724036693573,
        -0.29900577664375305,
        -0.19866327941417694,
        0.15803037583827972,
        0.018863921985030174,
        0.1178591251373291,
        0.2008543610572815,
        0.09785158187150955,
        -0.1831555962562561,
        0.144154891371727,
        0.17161494493484497,
        0.09677643328905106,
        -0.13197563588619232,
        -0.04782823845744133,
        -0.13890759646892548,
        0.06561551988124847,
        -0.06631046533584595,
        0.13081574440002441,
        -0.21303197741508484,
        -0.047483090311288834,
        0.11891689896583557,
        0.003383178496733308,
        -0.12057346850633621,
        0.22781915962696075,
        0.08787043392658234,
        0.22557134926319122,
        -0.1587827354669571,
        0.04885449633002281,
        -0.044918909668922424,
        -0.03867711126804352,
        -0.05715904012322426,
        -0.1602109968662262,
        0.08310148119926453,
        -0.025111768394708633,
        0.04690736159682274,
        0.08926017582416534,
        0.021094966679811478,
        -0.2589380443096161,
        -0.10123031586408615,
        -0.13949625194072723,
        -0.11365044862031937,
        -0.0712924525141716,
        -0.03201991319656372,
        0.046389851719141006,
        -0.05033806338906288,
        0.1322823017835617,
        0.1631009727716446,
        -0.038627512753009796,
        -0.01731959544122219,
        0.26117727160453796,
        0.07786516100168228,
        -0.05039004236459732,
        -0.07681342214345932,
        -0.14595428109169006,
        -0.08197875320911407,
        0.10223547369241714,
        -0.054304949939250946,
        0.1562008410692215,
        -0.1406579613685608,
        -0.11001648008823395,
        -0.0720939114689827,
        0.017658574506640434,
        0.19562216103076935,
        0.1246068999171257,
        0.19222721457481384,
        0.48018717765808105,
        0.07275332510471344,
        0.12348152697086334,
        -0.07015204429626465,
        0.06368505209684372,
        0.05945732071995735,
        -0.3079124093055725,
        -0.025449829176068306,
        -0.19990132749080658,
        -0.16707295179367065,
        -0.11006680130958557,
        0.09751969575881958,
        0.22233277559280396,
        0.0191974937915802,
        -0.269622802734375,
        0.11604089289903641,
        -0.12288936227560043,
        -0.159834623336792,
        -0.12824107706546783,
        -0.20134477317333221,
        0.20406414568424225,
        -0.018257660791277885,
        0.11085117608308792,
        -0.15087416768074036,
        0.21746301651000977,
        -0.18979312479496002,
        -0.12135371565818787,
        -0.24721790850162506,
        0.04695221781730652,
        -0.03586241975426674,
        -0.2349047064781189,
        0.10199964046478271,
        0.12798185646533966,
        -0.15141898393630981,
        0.06631075590848923,
        -0.1310831904411316,
        0.12565931677818298,
        -0.1413220316171646,
        0.06548158079385757,
        0.09292738884687424,
        0.15489882230758667,
        0.06986919045448303,
        -0.05382319912314415,
        0.30465319752693176,
        0.09246710687875748,
        0.024340646341443062,
        -0.24215276539325714,
        0.21248695254325867,
        0.23730337619781494,
        -0.06247924268245697,
        -0.13169465959072113,
        0.19208046793937683,
        0.07492972165346146,
        -0.08719788491725922,
        -0.017603950574994087,
        -0.025347759947180748,
        -0.18982630968093872,
        0.08365495502948761,
        0.13639357686042786,
        0.15592032670974731,
        -0.10993820428848267,
        0.1248706504702568,
        0.07323434203863144,
        -0.0605110302567482,
        0.023377330973744392,
        -0.1087741032242775,
        -0.06891702860593796,
        -0.038532257080078125,
        -0.20048071444034576,
        0.06773387640714645,
        0.05430459976196289,
        -0.026181060820817947,
        0.06296677887439728,
        0.09903327375650406,
        -0.06181228160858154,
        0.02649565599858761,
        0.08841122686862946,
        0.06837020069360733,
        -0.15775007009506226,
        -0.0038493552710860968,
        0.18689244985580444,
        -0.1253460794687271,
        -0.052459292113780975,
        0.13685838878154755,
        0.18735723197460175,
        0.1348303258419037,
        0.17668844759464264,
        -0.08068232238292694,
        -0.005943679250776768,
        0.0281496774405241,
        -0.07339424639940262,
        -0.0688171312212944,
        -0.02589103765785694,
        -0.08447204530239105,
        -0.1470995545387268,
        -0.22385510802268982,
        0.06419151276350021,
        0.05491923168301582,
        0.22069209814071655,
        0.09825368225574493,
        0.10209149122238159,
        -0.12877222895622253,
        -0.07086216658353806,
        -0.18306191265583038,
        0.22676442563533783,
        0.01573757641017437,
        -0.05867024138569832,
        0.10721348226070404,
        -0.03234943002462387,
        0.030852755531668663,
        0.0023124534636735916,
        0.042912621051073074,
        -0.16671670973300934,
        -0.16584667563438416,
        0.13228987157344818,
        0.15027818083763123,
        -0.08275458216667175,
        -0.04420873150229454,
        0.0012175440788269043,
        0.13029411435127258,
        -0.1645219773054123,
        -0.11763729155063629,
        0.07876154035329819,
        0.08366426080465317,
        -0.19369874894618988,
        0.12698017060756683,
        -0.09706193208694458,
        0.1998540461063385,
        0.09517039358615875,
        0.059142690151929855,
        0.06014810875058174,
        0.0915534570813179,
        -0.19330419600009918,
        0.007012421265244484,
        0.06747929006814957,
        -0.03727375343441963,
        0.10787304490804672,
        0.08296369761228561,
        -0.11931637674570084,
        -0.031137065961956978,
        -0.6748499274253845,
        0.5710723996162415,
        -0.6390718817710876,
        -0.5305508375167847,
        -0.009644529782235622,
        -0.7006700038909912,
        -0.3869768977165222,
        0.6840054988861084,
        -0.7550478577613831,
        0.43396103382110596,
        0.6788747310638428,
        0.25017881393432617,
        0.280819296836853,
        -0.08559175580739975,
        -0.0037704682908952236,
        0.27051982283592224,
        0.10796970129013062,
        0.2945292294025421,
        -0.32309967279434204,
        0.04830210283398628,
        0.012348739430308342,
        -0.15189658105373383,
        0.25069567561149597,
        0.14281706511974335,
        -0.19767645001411438,
        -0.3714068531990051,
        0.12267407774925232,
        -0.20125964283943176,
        -0.05127529799938202,
        0.1421874463558197,
        0.07545231282711029,
        0.0627053901553154,
        -0.25006726384162903,
        -0.21768276393413544,
        0.2421238273382187,
        -0.01103045791387558,
        0.1929396390914917,
        0.07852194458246231,
        0.12042567133903503,
        -0.3107699453830719,
        0.17747339606285095,
        -0.23260630667209625,
        -0.0728735625743866,
        -0.026287421584129333,
        -0.06610100716352463,
        0.044771309942007065,
        0.2550782561302185,
        -0.20446978509426117,
        0.18408195674419403,
        -0.24507887661457062,
        -0.024722322821617126,
        0.25526171922683716,
        0.30016452074050903,
        0.14746877551078796,
        0.40221184492111206,
        0.057192351669073105,
        0.10557838529348373,
        -0.1275653839111328,
        0.22678492963314056,
        0.26665690541267395,
        -0.06885819137096405,
        0.4304095208644867,
        -0.02090291492640972,
        0.18139471113681793,
        0.15922541916370392,
        -0.2883976399898529,
        0.31176286935806274,
        0.045865122228860855,
        -0.2610432803630829,
        -0.18848881125450134,
        -0.19775591790676117,
        0.3471378982067108,
        0.2810608446598053,
        -0.033576153218746185,
        0.07117148488759995,
        0.04965316131711006,
        -0.11204041540622711,
        -0.019695524126291275,
        -0.08815944939851761,
        0.20016613602638245,
        -0.10664620250463486,
        0.06504962593317032,
        -0.03130507841706276,
        -0.061844516545534134,
        0.3835834860801697,
        0.06027810275554657,
        -0.3078802525997162,
        0.5693283081054688,
        0.2003255933523178,
        -0.3992845416069031,
        -0.20677149295806885,
        -0.004736072849482298,
        -0.2284138947725296,
        0.005679338704794645,
        0.0893593579530716,
        0.4843652546405792,
        -0.12628300487995148,
        -0.07240055501461029,
        0.011013303883373737,
        0.3352959156036377,
        0.2870629131793976,
        -0.13825692236423492,
        0.050766222178936005,
        0.008166288956999779,
        0.08562251925468445,
        -0.2591336667537689,
        -0.1113407164812088,
        -0.1302587389945984,
        -0.1861172914505005,
        0.27181553840637207,
        -0.13577909767627716,
        0.2630749046802521,
        0.2565957307815552,
        0.04336206242442131,
        0.231719508767128,
        -0.027065759524703026,
        0.14052657783031464,
        0.19415386021137238,
        0.16045327484607697,
        0.053327687084674835,
        0.07921820878982544,
        0.06664910912513733,
        -0.34968864917755127,
        0.0905960351228714,
        -0.03600877523422241,
        -0.012698701582849026,
        -0.12365231662988663,
        0.04678420349955559,
        -0.1792031079530716,
        0.18591661751270294,
        -0.2323235720396042,
        0.2367212176322937,
        0.1557512879371643,
        0.1827409267425537,
        -0.05555127561092377,
        0.155278742313385,
        0.3523542881011963,
        -0.15682081878185272,
        0.2474261224269867,
        -0.08844960480928421,
        -0.2125166803598404,
        -0.11460331827402115,
        -0.05413859337568283,
        0.042722757905721664,
        -0.41642722487449646,
        -0.10928250849246979,
        0.1518356204032898,
        0.03619714081287384,
        -0.3846365809440613,
        0.24761652946472168,
        -0.27398958802223206,
        -0.3620864450931549,
        -0.11307598650455475,
        0.14850743114948273,
        -0.009557722136378288,
        -0.3690672814846039,
        0.18966256082057953,
        0.2454615831375122,
        0.024647114798426628,
        0.15923528373241425,
        -0.07670829445123672,
        -0.06606050580739975,
        -0.10879591107368469,
        0.030455177649855614,
        -0.13933929800987244,
        -0.13768412172794342,
        0.017974616959691048,
        0.10915615409612656,
        0.07759565860033035,
        -0.14125202596187592,
        0.012152527458965778,
        -0.16686035692691803,
        0.27837690711021423,
        0.06854751706123352,
        0.18714110553264618,
        0.04334722086787224,
        0.019665995612740517,
        0.15713609755039215,
        0.000961422803811729,
        0.024709060788154602,
        -0.03276472166180611,
        -0.08520311117172241,
        0.06571502983570099,
        0.17774350941181183,
        -0.24801410734653473,
        0.0020946580916643143,
        0.0017962849233299494,
        0.42378607392311096,
        -0.08398785442113876,
        0.18046405911445618,
        0.2786622941493988,
        -0.1472986489534378,
        -0.08205388486385345,
        0.27132582664489746,
        0.11024585366249084,
        -0.19204963743686676,
        0.011194792576134205,
        -0.08644315600395203,
        0.032892510294914246,
        0.15839101374149323,
        0.08125021308660507,
        -0.16266408562660217,
        -0.37747353315353394,
        -0.1626395434141159,
        -0.005011286586523056,
        -0.11023423820734024,
        0.047838885337114334,
        -0.07517679780721664,
        0.14721979200839996,
        -0.09487582743167877,
        -0.06449943780899048,
        -0.08919783681631088,
        0.09728759527206421,
        0.014899300411343575,
        -0.32283827662467957,
        0.023792682215571404,
        -0.06759188324213028,
        -0.25702935457229614,
        0.15966539084911346,
        0.02984979748725891,
        -0.010852526873350143,
        0.13283409178256989,
        -0.0669655129313469,
        0.03574781492352486,
        0.14343678951263428,
        0.03118204139173031,
        -0.045059338212013245,
        0.060759324580430984,
        -0.18552187085151672,
        0.2863104045391083,
        -0.06445116549730301,
        -0.24325630068778992,
        0.15321128070354462,
        -0.022573024034500122,
        0.16353556513786316,
        0.18467244505882263,
        0.16092070937156677,
        -0.01778123341500759,
        -0.20294944941997528,
        -0.034901347011327744,
        -0.0032833830919116735,
        -0.220561683177948,
        -0.07803497463464737,
        -0.06614352017641068,
        0.3205684423446655,
        -0.04239990562200546,
        0.17431367933750153,
        -0.2251628339290619,
        0.04983053728938103,
        0.09981495887041092,
        -0.4593048393726349,
        0.054526615887880325,
        0.32311657071113586,
        -0.09744390845298767,
        0.29666492342948914,
        0.0021058276761323214,
        0.07437658309936523,
        0.11754053086042404,
        -0.11518757045269012,
        -0.2450302243232727,
        0.004587923176586628,
        0.20359541475772858,
        -0.26523035764694214,
        0.046163465827703476,
        -0.13319982588291168,
        0.30143460631370544,
        -0.005706989672034979,
        -0.11024540662765503,
        0.19029255211353302,
        -0.13627658784389496,
        0.08956528455018997,
        0.053853023797273636,
        0.16903242468833923,
        0.10344301164150238,
        -0.2201603651046753,
        -0.1990911066532135,
        0.04237999767065048,
        -0.11918435245752335,
        -0.0570506788790226,
        -0.12933053076267242,
        0.4408125579357147,
        -0.1407555788755417,
        -0.024930380284786224,
        -0.12511548399925232,
        0.008040079846978188,
        0.019446920603513718,
        -0.32259753346443176,
        0.11733914911746979,
        0.17149609327316284,
        -0.2927511930465698,
        0.02771071344614029,
        -0.0737520158290863,
        0.08620155602693558,
        -0.09874866902828217,
        0.0254475399851799,
        -0.05070587247610092,
        0.13367776572704315,
        0.27230602502822876,
        -0.13596554100513458,
        0.046309057623147964,
        -0.19681820273399353,
        0.08865633606910706,
        0.011276711709797382,
        -0.07292864471673965,
        0.1883094757795334,
        -0.0888870507478714,
        0.220852792263031,
        -0.05190226435661316,
        0.061630696058273315,
        0.183842733502388,
        -0.32558760046958923,
        -0.1532536745071411,
        0.11349595338106155,
        -0.009501439519226551,
        -0.13009008765220642,
        0.15275274217128754,
        -0.2402651011943817,
        0.05940837413072586,
        -0.053984347730875015,
        0.3568907678127289,
        0.10596323758363724,
        -0.02202988788485527,
        0.15108388662338257,
        -0.026150444522500038,
        0.04562119394540787,
        0.14722685515880585,
        -0.10724912583827972,
        0.08107560873031616,
        0.011519358493387699,
        0.15025806427001953,
        -0.11199236661195755,
        0.022560345008969307,
        -0.13190381228923798,
        -0.0910312831401825,
        0.14837850630283356,
        -0.03811141476035118,
        0.01914750225841999,
        -0.06347087770700455,
        -0.06922657787799835,
        0.03344079107046127,
        -0.17375300824642181,
        -0.0580582357943058,
        -0.050039906054735184,
        -0.2000347077846527,
        -0.007034714333713055,
        0.015197855420410633,
        0.2999383211135864,
        0.013814521953463554,
        -0.12992693483829498,
        0.00811002030968666,
        0.038091741502285004,
        0.05851665884256363,
        0.19810740649700165,
        0.1105838194489479,
        0.0773407518863678,
        -0.20610900223255157,
        -0.06419146806001663,
        -0.023044105619192123,
        -0.13492773473262787,
        -0.09980209171772003,
        0.26467835903167725,
        -0.15664860606193542,
        -0.04497761279344559,
        0.04002935066819191,
        -0.011073475703597069,
        -0.09758162498474121,
        0.2742781341075897,
        -0.05594686046242714,
        -0.25236257910728455,
        0.20349738001823425,
        -0.34799841046333313,
        -0.09029138088226318,
        -0.04671536758542061,
        0.08298857510089874,
        -0.07049249857664108,
        -0.23339393734931946,
        0.42060863971710205,
        0.06597751379013062,
        0.06439444422721863,
        0.3457440137863159,
        -0.19405364990234375,
        0.08768381178379059,
        -0.10976744443178177,
        0.1910567432641983,
        0.07265377044677734,
        0.18313813209533691,
        -0.16476131975650787,
        -0.11159113794565201,
        0.03812680393457413,
        -0.08901385217905045,
        0.11053750663995743,
        0.004328826908022165,
        -0.23929712176322937,
        0.17273922264575958,
        0.11457839608192444,
        -0.09285891801118851,
        0.04062272980809212,
        -0.26787269115448,
        0.007460792548954487,
        -0.16447784006595612,
        -0.05886373668909073,
        -0.02326538972556591,
        -0.17119672894477844,
        0.1429273933172226,
        -0.04372095316648483,
        0.10123451054096222,
        -0.018054934218525887,
        0.11612121015787125,
        -0.10162170231342316,
        -0.0008158670389093459,
        -0.12172471731901169,
        -0.2545550465583801,
        0.06396305561065674,
        -0.08276330679655075,
        0.07456859201192856,
        -0.14427034556865692,
        0.0359712615609169,
        0.08893445134162903,
        -0.17112308740615845,
        0.05641566962003708,
        -0.09385118633508682,
        0.057691995054483414,
        -0.07776021957397461,
        -0.011108612641692162,
        0.16128145158290863,
        0.1289234161376953,
        0.007766076363623142,
        0.002125627128407359,
        0.09333275258541107,
        0.10322562605142593,
        0.06979162245988846,
        -0.035727549344301224,
        -0.02175353839993477,
        0.0631694570183754,
        -0.02822147123515606,
        0.09050456434488297,
        -0.21051494777202606,
        0.022715017199516296,
        0.12993086874485016,
        0.1585962474346161,
        0.02772965468466282,
        0.10557684302330017,
        0.0682038739323616,
        0.031661320477724075,
        -0.01794726960361004,
        0.1517200618982315,
        0.17449723184108734,
        0.15823809802532196,
        0.005175575613975525,
        -0.17027875781059265,
        -0.027505043894052505,
        0.008231724612414837,
        -0.10996032506227493,
        0.1291520893573761,
        -0.15494689345359802,
        -0.04549366980791092,
        0.1454963982105255,
        -0.06345699727535248,
        0.1691761016845703,
        0.1701163798570633,
        -0.31701400876045227,
        0.13993889093399048,
        -0.22232064604759216,
        0.027585886418819427,
        -0.0072485897690057755,
        -0.11806252598762512,
        0.12442752718925476,
        -0.018799077719449997,
        -0.2568807303905487,
        0.1988704353570938,
        0.15530328452587128,
        0.10891018062829971,
        0.18335594236850739,
        0.11235243082046509,
        -0.0011514229699969292,
        -0.37195608019828796,
        0.13702405989170074,
        -0.34796765446662903,
        -0.11625093966722488,
        -0.04001491516828537,
        0.15255151689052582,
        -0.23095819354057312,
        -0.13766156136989594,
        0.1991061270236969,
        -0.16585996747016907,
        -0.06595632433891296,
        -0.0008547135512344539,
        -0.1245826855301857,
        0.0075388504192233086,
        0.06490808725357056,
        0.10791859775781631,
        -0.10053177177906036,
        0.07052496075630188,
        0.03804374486207962,
        -0.002250635763630271,
        0.14504055678844452,
        -0.033741045743227005,
        0.09596194326877594,
        -0.010978237725794315,
        0.1146036684513092,
        -0.05134532228112221,
        0.04313589632511139,
        0.23287178575992584,
        -0.17841029167175293,
        -0.13583016395568848,
        0.1964600384235382,
        -0.1608801782131195,
        0.0008152545779012144,
        0.018643435090780258,
        0.08605846017599106,
        0.08855874091386795,
        -0.07758663594722748,
        0.09170620888471603,
        -0.031764350831508636,
        -0.013806557282805443,
        -0.04865940287709236,
        -0.0065409597009420395,
        -0.21908967196941376,
        0.025183318182826042,
        -0.18874840438365936,
        -0.02957775443792343,
        -0.02263658307492733,
        0.25976237654685974,
        0.07781248539686203,
        -0.11458108574151993,
        0.07510297745466232,
        -0.08370717614889145,
        -0.10499324649572372,
        -0.0036755565088242292,
        -0.25238049030303955,
        -0.009332668036222458,
        -0.24690879881381989,
        0.2211870700120926,
        -0.19651830196380615,
        0.24539019167423248,
        -0.0008335746242664754,
        0.11177854239940643,
        0.06417868286371231,
        -0.17393279075622559,
        -0.027024948969483376,
        0.25134745240211487,
        -0.1618667095899582,
        -0.023144816979765892,
        0.015417358838021755,
        0.10303770005702972,
        -0.018726391717791557,
        0.07991574704647064,
        -0.07728692144155502,
        0.2649986743927002,
        0.050443585962057114,
        -0.0922606810927391,
        0.03773689270019531,
        -0.02403423562645912,
        0.08317764103412628,
        -0.12901730835437775,
        -0.1117078885436058,
        0.14030691981315613,
        0.08740362524986267,
        0.1154632493853569,
        0.06478668004274368,
        -0.03934166580438614,
        -0.004951933398842812,
        -0.2578440308570862,
        -0.20865124464035034,
        0.030157199129462242,
        0.02868724800646305,
        0.016204092651605606,
        -0.06495752185583115,
        0.20177605748176575,
        -0.1354713886976242,
        0.034291159361600876,
        0.030589452013373375,
        0.09039503335952759,
        0.207033172249794,
        -0.09424101561307907,
        0.0003127832605969161,
        0.1451408863067627,
        -0.2562239468097687,
        -0.027655569836497307,
        0.028468197211623192,
        -0.1778050810098648,
        -0.10549324750900269,
        0.10039370507001877,
        0.27378737926483154,
        -0.012118051759898663,
        0.005566256120800972,
        0.11492420732975006,
        0.14769992232322693,
        -0.08730597048997879,
        0.13911505043506622,
        0.0592339001595974,
        -0.0800865963101387,
        0.06458131223917007,
        0.008962776511907578,
        0.018123693764209747,
        0.24787089228630066,
        -0.1060156598687172,
        -0.07034607976675034,
        -0.30610600113868713,
        0.08959570527076721,
        -0.0028998979832977057,
        0.03932180255651474,
        0.015357770025730133,
        0.006121793761849403,
        0.007152943406254053,
        -0.06432697176933289,
        -0.1504700630903244,
        0.0522974394261837,
        -0.05478161945939064,
        -0.035183776170015335,
        0.03509700670838356,
        0.02658882550895214,
        0.6266369819641113,
        0.02388405241072178,
        0.021699052304029465,
        -0.2988613247871399,
        0.3539468050003052,
        0.24294696748256683,
        0.6019848585128784,
        -1.0266456604003906,
        -0.33318883180618286,
        -0.8802629113197327,
        -0.5611051321029663,
        0.5240607857704163,
        -0.19770796597003937,
        0.017297806218266487,
        0.45239683985710144,
        0.001073509338311851,
        0.009643982164561749,
        0.06095195189118385,
        0.2030029594898224,
        0.45392221212387085,
        -0.5020768642425537,
        0.02017521671950817,
        0.27577224373817444,
        0.0019807505887001753,
        -0.04447104036808014,
        -0.053995270282030106,
        -0.14450037479400635,
        -0.03221748396754265,
        -0.06428737193346024,
        0.19102762639522552,
        0.3173171281814575,
        0.06511377543210983,
        -0.30183133482933044,
        0.0038333262782543898,
        0.02714090421795845,
        0.0858960747718811,
        -0.03478437289595604,
        -0.041026487946510315,
        0.05781088396906853,
        -0.18515512347221375,
        -0.22061987221240997,
        -0.14336101710796356,
        -0.055814944207668304,
        0.08975762873888016,
        -0.04645846039056778,
        0.26260679960250854,
        0.010475846007466316,
        -0.13983891904354095,
        -0.03473958745598793,
        -0.4123184382915497,
        -0.3628026843070984,
        -0.015020094811916351,
        0.2733311355113983,
        0.16939005255699158,
        -0.018094070255756378,
        -0.11665292829275131,
        0.3149527311325073,
        -0.09973376244306564,
        -0.18233057856559753,
        0.02502584457397461,
        0.2112148404121399,
        -0.5825424790382385,
        -0.193027064204216,
        -0.39764490723609924,
        0.5801661610603333,
        -0.053421854972839355,
        0.16372832655906677,
        0.17525452375411987,
        -0.13975369930267334,
        0.16842836141586304,
        0.041261013597249985,
        -0.1341007500886917,
        -0.14664533734321594,
        0.025639861822128296,
        -0.26746246218681335,
        -0.08482673019170761,
        0.2690078914165497,
        -0.004010485950857401,
        -0.1983150839805603,
        -0.12816666066646576,
        0.3868321180343628,
        -0.01936298981308937,
        -0.23491434752941132,
        0.15564627945423126,
        -0.1408720761537552,
        -0.3059316575527191,
        0.18880495429039001,
        0.10696061700582504,
        0.29150548577308655,
        0.18140272796154022,
        -0.12186768651008606,
        -0.10247492045164108,
        0.4335611164569855,
        0.042686834931373596,
        0.05226796492934227,
        -0.3614393472671509,
        -0.17935939133167267,
        0.06128385290503502,
        -0.18078763782978058,
        -0.22894743084907532,
        -0.19754289090633392,
        0.21757714450359344,
        -0.10071204602718353,
        -0.33542370796203613,
        0.5355629324913025,
        0.17424097657203674,
        -0.2971133887767792,
        -0.3004406690597534,
        0.2522851824760437,
        -0.2043805867433548,
        -0.20888176560401917,
        0.05512210726737976,
        0.13266783952713013,
        0.15641595423221588,
        -0.14952372014522552,
        -0.35035941004753113,
        -0.024214904755353928,
        0.18686503171920776,
        -0.2553841471672058,
        0.045622456818819046,
        0.05504300445318222,
        -0.5037963390350342,
        -0.19214048981666565,
        -0.5553441643714905,
        0.22815543413162231,
        -0.004670517984777689,
        -0.23899073898792267,
        0.040760159492492676,
        0.01841413602232933,
        -0.16668154299259186,
        -0.5297393798828125,
        -0.02010207064449787,
        0.09083212167024612,
        -0.3655828535556793,
        -0.4150402843952179,
        -0.38779503107070923,
        0.31615370512008667,
        0.12314265221357346,
        -0.1551351100206375,
        -0.21652847528457642,
        0.04286784306168556,
        0.053682565689086914,
        0.013769621029496193,
        0.2117912769317627,
        0.3781123757362366,
        -0.018542252480983734,
        -0.08384164422750473,
        -0.019687818363308907,
        0.09855569899082184,
        0.061724286526441574,
        0.19252519309520721,
        -0.09034162014722824,
        -0.6036628484725952,
        0.24872681498527527,
        -0.04465851932764053,
        0.13367079198360443,
        -0.1330244094133377,
        -0.06965940445661545,
        0.09261341392993927,
        0.06906470656394958,
        -0.045636918395757675,
        -0.06710132211446762,
        0.1728263646364212,
        -0.05525809898972511,
        -0.19046390056610107,
        -0.030757082626223564,
        0.07296247035264969,
        0.03845402970910072,
        -0.02447284385561943,
        0.12974904477596283,
        0.28120723366737366,
        -0.28290432691574097,
        -0.03992814943194389,
        0.3101928234100342,
        0.10101184248924255,
        0.07232218235731125,
        -0.2568771541118622,
        0.2397962212562561,
        0.20125320553779602,
        -0.429743230342865,
        0.027699341997504234,
        0.12525096535682678,
        0.015495493076741695,
        -0.13701236248016357,
        0.07267004251480103,
        -0.26453691720962524,
        -0.10283955186605453,
        0.01722370833158493,
        -0.45665544271469116,
        0.021906699985265732,
        -0.03505607321858406,
        -0.4360249638557434,
        -0.24999086558818817,
        -0.21506796777248383,
        0.12847255170345306,
        -0.005083391442894936,
        -0.13709859549999237,
        -0.09814920276403427,
        0.03179241716861725,
        0.170628622174263,
        -0.029041796922683716,
        0.09686291217803955,
        0.05361156165599823,
        0.3739073872566223,
        0.05319538339972496,
        -0.07043083757162094,
        -0.30052340030670166,
        0.022641222923994064,
        0.30078986287117004,
        -0.10503806918859482,
        -0.1298513263463974,
        -0.008853981271386147,
        -0.019263360649347305,
        -0.057694628834724426,
        -0.22850988805294037,
        0.2975955009460449,
        -0.05564495921134949,
        -0.16124007105827332,
        0.09038358181715012,
        0.19288727641105652,
        0.18579882383346558,
        0.20278728008270264,
        -0.09107325226068497,
        -0.09063684195280075,
        -0.011483900249004364,
        0.11255382746458054,
        -0.108491450548172,
        -0.04393154755234718,
        0.026123778894543648,
        0.15960641205310822,
        -0.12721459567546844,
        -0.0513991042971611,
        0.2705560624599457,
        0.0604395866394043,
        0.06648333370685577,
        -0.1965530663728714,
        0.10908684879541397,
        -0.009308877401053905,
        -0.14713892340660095,
        -0.07052179425954819,
        -0.04454251006245613,
        -0.0912623181939125,
        0.2536172568798065,
        -0.10296235233545303,
        -0.09532249718904495,
        0.16537567973136902,
        0.08328674733638763,
        -0.15469422936439514,
        -0.3623298108577728,
        -0.15554478764533997,
        -0.2252364158630371,
        -0.2530617117881775,
        -0.13376879692077637,
        -0.09382868558168411,
        -0.3211577236652374,
        0.057216349989175797,
        -0.09552540630102158,
        -0.061810217797756195,
        0.029002852737903595,
        0.05025225505232811,
        -0.14665289223194122,
        0.027424177154898643,
        -0.024839704856276512,
        -0.00033840053947642446,
        -0.1328858733177185,
        -0.003756557824090123,
        -0.07721833139657974,
        0.033908795565366745,
        -0.03225105628371239,
        -0.358510285615921,
        0.1530379205942154,
        -0.05923178791999817,
        -0.2584242522716522,
        0.0855398029088974,
        -0.014857721514999866,
        0.05241834372282028,
        0.12825673818588257,
        -0.21888265013694763,
        0.005195950623601675,
        -0.026363737881183624,
        0.18566419184207916,
        0.18611092865467072,
        0.20663559436798096,
        -0.01444755308330059,
        -0.20086230337619781,
        0.18303364515304565,
        0.0468793660402298,
        -0.045340899378061295,
        0.03823603317141533,
        0.05096200108528137,
        -0.2524970471858978,
        0.04612736403942108,
        0.036282312124967575,
        0.022405734285712242,
        0.04369993507862091,
        -0.0437374971807003,
        -0.08119495958089828,
        0.08173563331365585,
        0.018663255497813225,
        -0.05818018317222595,
        -0.23132802546024323,
        -0.19002939760684967,
        -0.3591451644897461,
        -0.03433213755488396,
        0.025865012779831886,
        0.04664859548211098,
        0.07029634714126587,
        -0.04600664973258972,
        0.052258677780628204,
        0.16385920345783234,
        -0.07370124012231827,
        -0.08090388029813766,
        -0.14191655814647675,
        0.06449531018733978,
        0.16687433421611786,
        0.05921737849712372,
        -0.0833968073129654,
        -0.08436628431081772,
        -0.26443806290626526,
        -0.025224648416042328,
        0.03997858613729477,
        -0.07389937341213226,
        -0.24584296345710754,
        -0.08120212703943253,
        -0.1867428719997406,
        -0.14809070527553558,
        0.32239726185798645,
        0.1817108690738678,
        -0.1507853865623474,
        -0.08937369287014008,
        0.04498020187020302,
        0.023015756160020828,
        0.0006806885940022767,
        -0.11741776019334793,
        -0.08379484713077545,
        -0.13084717094898224,
        0.02899313159286976,
        0.00044068798888474703,
        -0.04969871789216995,
        0.09137389808893204,
        -0.03567643463611603,
        -0.05559977516531944,
        -0.00858874712139368,
        0.1347503662109375,
        0.0663154125213623,
        0.06093481183052063,
        -0.051213715225458145,
        -0.06631307303905487,
        0.032093752175569534,
        -0.0047923303209245205,
        -0.03350035101175308,
        -0.11757846176624298,
        0.026658764109015465,
        0.28562942147254944,
        0.06978153437376022,
        0.06157001107931137,
        -0.07463189959526062,
        0.13431651890277863,
        0.11720959842205048,
        -0.016511445865035057,
        0.2538805305957794,
        -0.057726334780454636,
        -0.09769925475120544,
        -0.0463438555598259,
        0.046073198318481445,
        -0.025661248713731766,
        0.03154315799474716,
        0.10599207878112793,
        -0.18921694159507751,
        0.06551828980445862,
        0.2006806582212448,
        -0.06590235978364944,
        -0.06998142600059509,
        0.12092764675617218,
        0.0712663009762764,
        -0.19235646724700928,
        0.08549967408180237,
        0.1322692185640335,
        0.02797379344701767,
        0.0028405897319316864,
        -0.022489631548523903,
        0.12331342697143555,
        -0.057905662804841995,
        0.14160893857479095,
        0.11017389595508575,
        0.007235769648104906,
        0.014180264435708523,
        0.17123782634735107,
        -0.1300625503063202,
        -0.04948805645108223,
        -0.14573165774345398,
        0.09932828694581985,
        -0.2125583291053772,
        -0.0878627598285675,
        -0.21983709931373596,
        -0.08878647536039352,
        0.045618198812007904,
        -0.12543682754039764,
        0.11241086572408676,
        0.1093747541308403,
        -0.12930943071842194,
        0.007406255695968866,
        0.20844766497612,
        0.036133237183094025,
        0.1276910901069641,
        -0.15002496540546417,
        -0.04124064743518829,
        -0.011621140874922276,
        0.1804373413324356,
        0.049455124884843826,
        0.06997942924499512,
        0.058809034526348114,
        -0.05628324672579765,
        -0.042110953480005264,
        -0.09999053925275803,
        0.04608463495969772,
        0.07180709391832352,
        -0.04027391970157623,
        -0.15077419579029083,
        -0.2063930630683899,
        -0.22977952659130096,
        0.017565209418535233,
        -0.046390172094106674,
        -0.021228400990366936,
        -0.17737647891044617,
        -0.0532161146402359,
        -0.22095824778079987,
        -0.11562004685401917,
        -0.01838844269514084,
        -0.062130920588970184,
        -0.05248330160975456,
        0.11071692407131195,
        -0.2898746430873871,
        -0.10044457018375397,
        -0.02049577794969082,
        -0.08638931065797806,
        -0.15755952894687653,
        -0.009920432232320309,
        -0.0425104983150959,
        0.010989301837980747,
        0.20211677253246307,
        -0.07185810804367065,
        -0.0967821329832077,
        -0.16268065571784973,
        -0.06272764503955841,
        -0.11997795104980469,
        0.1962730437517166,
        0.3343616724014282,
        0.08461827039718628,
        -0.1999034285545349,
        -0.08660690486431122,
        -0.09230493754148483,
        0.1556464284658432,
        -0.06922298669815063,
        -0.16325561702251434,
        -0.050667546689510345,
        0.3533627986907959,
        0.1942153424024582,
        -0.015047663822770119,
        0.004675700329244137,
        0.060932956635951996,
        -0.031004050746560097,
        0.030716734007000923,
        0.21549074351787567,
        0.05593179166316986,
        0.153650164604187,
        -0.07406780868768692,
        -0.05742751434445381,
        0.27346372604370117,
        -0.06196126341819763,
        0.2067880779504776,
        -0.23965984582901,
        0.05468181520700455,
        0.05078684538602829,
        0.2216365784406662,
        0.05717867612838745,
        -0.15222802758216858,
        -0.10951738804578781,
        -0.08543237298727036,
        0.00474583962932229,
        -0.08590010553598404,
        0.06640835106372833,
        -0.08935418725013733,
        -0.20715735852718353,
        0.08588137477636337,
        0.11783211678266525,
        0.043996989727020264,
        0.16493737697601318,
        -0.11107691377401352,
        0.06147914379835129,
        0.009298862889409065,
        0.026880349963903427,
        -0.02990729548037052,
        0.0381818562746048,
        -0.04901016503572464,
        0.04329565912485123,
        -0.12982392311096191,
        0.23929044604301453,
        0.05957154929637909,
        0.01671029068529606,
        -0.2709641754627228,
        -0.12983563542366028,
        0.03129580244421959,
        0.040114499628543854,
        -0.11784054338932037,
        0.17384330928325653,
        0.013634778559207916,
        -0.05536143481731415,
        -0.0891333743929863,
        -0.14735837280750275,
        -0.07939957082271576,
        -0.1640470027923584,
        0.03233020380139351,
        0.09274828433990479,
        0.15012486279010773,
        -0.056132495403289795,
        -0.027480661869049072,
        0.04046855866909027,
        0.11142401397228241,
        0.0690002515912056,
        -0.11518367379903793,
        0.20629741251468658,
        0.013013058342039585,
        -0.013240383006632328,
        -0.08990684896707535,
        -0.1248478814959526,
        0.12890401482582092,
        -0.08287335932254791,
        -0.029353292658925056,
        0.034156691282987595,
        0.3173554241657257,
        0.1797133982181549,
        0.29280057549476624,
        -0.20089486241340637,
        -0.09636035561561584,
        -0.06586957722902298,
        0.14485062658786774,
        -0.14792084693908691,
        -0.14719779789447784,
        0.17659197747707367,
        -0.07306241989135742,
        -0.030826684087514877,
        0.19499921798706055,
        0.1064414381980896,
        -0.03692782670259476,
        -0.11904614418745041,
        0.05709465965628624,
        -0.008108553476631641,
        0.1669003814458847,
        -0.01895415224134922,
        -0.18346592783927917,
        0.09817107766866684,
        -0.008599496446549892,
        -0.026688428595662117,
        -0.2696582078933716,
        0.19495242834091187,
        -0.09925887733697891,
        -0.44827717542648315,
        -0.07864145189523697,
        -0.03474528715014458,
        -0.1475868821144104,
        -0.03452228754758835,
        -0.21977685391902924,
        0.07746545225381851,
        0.08887708932161331,
        -0.004895842168480158,
        -0.0766371414065361,
        -0.05121123790740967,
        -0.11762100458145142,
        0.24694985151290894,
        0.08617829531431198,
        0.15188658237457275,
        -0.042689912021160126,
        0.13273538649082184,
        0.2940509021282196,
        -0.2912485897541046,
        0.16822782158851624,
        0.11854486167430878,
        -0.05666480213403702,
        -0.13532255589962006,
        -0.12161906063556671,
        0.10000280290842056,
        -0.06848802417516708,
        -0.17922081053256989,
        -0.1620163917541504,
        0.12791447341442108,
        0.25876468420028687,
        -0.30832627415657043,
        -0.11015431582927704,
        0.021921617910265923,
        0.2616724669933319,
        -0.16172479093074799,
        0.026986507698893547,
        0.3714573085308075,
        0.07105618715286255,
        0.2532702684402466,
        0.16784000396728516,
        -0.09481418877840042,
        0.20507551729679108,
        0.141225203871727,
        0.001360005815513432,
        0.05712325870990753,
        0.05658545345067978,
        0.24967651069164276,
        -0.01866387203335762,
        -0.1003047302365303,
        0.08945741504430771,
        0.030885737389326096,
        0.11223690956830978,
        0.005600558593869209,
        0.08534808456897736,
        0.04556160047650337,
        0.18790367245674133,
        -0.4202798306941986,
        0.22190435230731964,
        -0.5856097936630249,
        0.21242496371269226,
        -0.2826750576496124,
        0.16848447918891907,
        -0.693322479724884,
        0.6517366766929626,
        -0.8519128561019897,
        0.3748319149017334,
        0.7492495179176331,
        -0.3213548958301544,
        0.30202531814575195,
        -0.42730700969696045,
        -0.1260107308626175,
        0.05953650176525116,
        -0.18298180401325226,
        0.2852077782154083,
        -0.16606788337230682,
        -0.08349866420030594,
        -0.12379936873912811,
        -0.13070863485336304,
        0.11494450271129608,
        0.3615383505821228,
        -0.10302601009607315,
        -0.019888445734977722,
        -0.12161950767040253,
        0.11704805493354797,
        0.04147426038980484,
        -0.20534633100032806,
        -0.4435926377773285,
        0.370853990316391,
        0.018325045704841614,
        0.12545667588710785,
        0.204528346657753,
        -0.3942190706729889,
        0.2322559505701065,
        0.02053099498152733,
        0.11331096291542053,
        -0.18338008224964142,
        0.011457446962594986,
        0.2689228057861328,
        0.0901075154542923,
        -0.038950927555561066,
        0.12089374661445618,
        -0.012036324478685856,
        -0.2344404011964798,
        0.09734562784433365,
        -0.20868143439292908,
        0.16536220908164978,
        0.07791537791490555,
        -0.0901055634021759,
        -0.04777556285262108,
        0.030136922374367714,
        -0.14377333223819733,
        0.2819024324417114,
        0.042270973324775696,
        0.06612451374530792,
        -0.30627328157424927,
        0.26540622115135193,
        0.12965022027492523,
        0.3053094744682312,
        0.03134119510650635,
        0.20028728246688843,
        0.11701181530952454,
        0.1274578869342804,
        0.3011094629764557,
        -0.35764971375465393,
        0.11062579602003098,
        -0.11456505209207535,
        0.08816791325807571,
        0.2818634808063507,
        -0.12381388992071152,
        0.1061839610338211,
        0.06305085867643356,
        0.44486358761787415,
        0.15788081288337708,
        -0.13513170182704926,
        -0.1334187537431717,
        -0.6886430382728577,
        0.21106599271297455,
        -0.027915265411138535,
        -0.14236316084861755,
        -0.13044267892837524,
        0.32061606645584106,
        0.1433314085006714,
        -0.08498865365982056,
        -0.031011683866381645,
        -0.1068439930677414,
        0.051154881715774536,
        -0.2499035894870758,
        0.09761109203100204,
        -0.048231158405542374,
        -0.07063508033752441,
        -0.33442428708076477,
        -0.20550213754177094,
        0.05136394500732422,
        -0.08573517948389053,
        0.20652145147323608,
        0.22887581586837769,
        -0.2863904535770416,
        -0.009708145633339882,
        0.15962320566177368,
        0.16652736067771912,
        0.018085956573486328,
        0.3044341802597046,
        -0.15357334911823273,
        -0.16226331889629364,
        0.08067943900823593,
        -0.08261049538850784,
        0.2661600112915039,
        0.35772526264190674,
        -0.04798469692468643,
        0.09940221905708313,
        0.32076364755630493,
        -0.14645622670650482,
        0.07390320301055908,
        0.21435299515724182,
        -0.1346198320388794,
        0.1368463635444641,
        -0.30234938859939575,
        0.24155007302761078,
        -0.1346275508403778,
        -0.06091414391994476,
        0.053244683891534805,
        0.05130107328295708,
        -0.05406184867024422,
        0.2642839848995209,
        -0.01110783964395523,
        -0.1591322124004364,
        0.27267417311668396,
        -0.19377143681049347,
        -0.21913576126098633,
        0.2173045575618744,
        -0.20039445161819458,
        -0.11038551479578018,
        0.010456472635269165,
        -0.023243896663188934,
        -0.06647215783596039,
        -0.16999754309654236,
        -0.017479553818702698,
        0.17598070204257965,
        0.11840974539518356,
        0.04326258972287178,
        -0.17689618468284607,
        -0.07045042514801025,
        0.033321183174848557,
        -0.07203539460897446,
        0.13309688866138458,
        0.1614668220281601,
        0.03042440302670002,
        0.06335370242595673,
        0.22600692510604858,
        -0.19670255482196808,
        0.2170735001564026,
        0.22725090384483337,
        -0.11751707643270493,
        0.04714224115014076,
        -0.12113623321056366,
        -0.1444125771522522,
        0.1103203222155571,
        0.18597593903541565,
        -0.12806081771850586,
        0.09712620824575424,
        0.05548885464668274,
        0.04757365956902504,
        0.09529958665370941,
        -0.029331261292099953,
        -0.03185204789042473,
        -0.31011566519737244,
        -0.10147593915462494,
        0.08829700201749802,
        0.021394263952970505,
        0.0628180205821991,
        -0.20830480754375458,
        -0.1371394544839859,
        -0.030946826562285423,
        -0.04955322667956352,
        0.16746291518211365,
        -0.09094386547803879,
        -0.09806183725595474,
        -0.06130831316113472,
        0.016785679385066032,
        0.01472576055675745,
        0.13613660633563995,
        -0.04210392013192177,
        -0.0011047126026824117,
        0.2753642797470093,
        0.09489668905735016,
        -0.09135723859071732,
        0.0009917921852320433,
        -0.04670064523816109,
        0.19857260584831238,
        -0.16948965191841125,
        0.18392249941825867,
        -0.050380636006593704,
        0.1350274235010147,
        -0.019303154200315475,
        -0.051633838564157486,
        0.16311101615428925,
        0.10074063390493393,
        -0.08170326054096222,
        0.09445161372423172,
        0.0990813672542572,
        0.14555273950099945,
        0.09701061248779297,
        -0.05273178219795227,
        -0.15457898378372192,
        -0.08033844083547592,
        0.03021080605685711,
        0.03903615474700928,
        0.05488579720258713,
        -0.03242063149809837,
        0.28403013944625854,
        -0.17065413296222687,
        0.09454506635665894,
        0.05916202440857887,
        -0.09135951846837997,
        -0.24331243336200714,
        -0.03743564337491989,
        -0.056861575692892075,
        0.07114844024181366,
        -0.020316166803240776,
        0.1433795541524887,
        0.0006228832062333822,
        -0.08399565517902374,
        0.030139850452542305,
        0.007837758399546146,
        -0.18479222059249878,
        0.19265927374362946,
        0.067753866314888,
        -0.057045090943574905,
        -0.23187021911144257,
        -0.0059577468782663345,
        0.16192297637462616,
        -0.15938915312290192,
        0.16229386627674103,
        0.20210005342960358,
        0.052903950214385986,
        0.0685897022485733,
        -0.04912067577242851,
        -0.020281977951526642,
        0.08865498006343842,
        -0.2085985690355301,
        -0.18299004435539246,
        0.07928480207920074,
        0.1376902014017105,
        -0.12674778699874878,
        -0.03758259117603302,
        0.10627428442239761,
        -0.1698172390460968,
        0.11732465773820877,
        0.1567617803812027,
        -0.2318677455186844,
        -0.3155944347381592,
        0.13329072296619415,
        -0.044955138117074966,
        -0.01391293853521347,
        0.06991441547870636,
        -0.0138310631737113,
        0.15404461324214935,
        0.08792699128389359,
        -0.12335941940546036,
        -0.24838174879550934,
        -0.0559648722410202,
        0.06135018914937973,
        -0.09192680567502975,
        -0.10980463027954102,
        -0.24124205112457275,
        0.01835087314248085,
        -0.13031713664531708,
        -0.008689666166901588,
        0.04920074716210365,
        0.19001422822475433,
        -0.05754787474870682,
        -0.018539385870099068,
        0.10134578496217728,
        -0.23454605042934418,
        -0.004153580404818058,
        -0.1144128367304802,
        0.5849876999855042,
        -0.06757866591215134,
        0.0395953506231308,
        -0.5805538892745972,
        -0.1479090005159378,
        0.2337731570005417,
        -0.4151623249053955,
        -0.03683965653181076,
        0.3102377951145172,
        0.12418489903211594,
        0.5105819702148438,
        0.07992557436227798,
        -0.10031360387802124,
        -0.024195130914449692,
        -0.18706132471561432,
        -0.6437702178955078,
        -0.00752251734957099,
        0.02866346761584282,
        -1.0000203847885132,
        0.18875613808631897,
        -0.24965567886829376,
        -0.17534954845905304,
        -0.22641807794570923,
        -0.16130319237709045,
        0.3909892737865448,
        0.06720438599586487,
        0.0785040482878685,
        -0.14468705654144287,
        -0.024843323975801468,
        -0.05930476635694504,
        0.8214514851570129,
        -0.03604114055633545,
        -0.018144210800528526,
        -0.015013180673122406,
        0.15712538361549377,
        -0.04810899868607521,
        0.010647067800164223,
        0.07230764627456665,
        -0.01102111954241991,
        -0.042712122201919556,
        -0.2069997936487198,
        -0.1018163189291954,
        0.5058982372283936,
        -0.023172372952103615,
        -0.1037016361951828,
        0.7431926727294922,
        0.2465699464082718,
        -0.044674262404441833,
        0.2666398286819458,
        -0.029077405110001564,
        -0.05356259271502495,
